16 3 3
-0.2160488
-0.5368963
-0.5563121
-0.2028901
-0.1675856
-0.4085996
-0.07416215
0.1995954
0.05133465
0.1007515
0.3885129
0.4941475
0.4668864
1.027368
0.7720933
0.2831095
0.7475169
0.6062624
0.2361677
-0.1081689
0.2239587
-0.2902712
-0.8798635
-0.6850283
-0.2634759
-0.7432758
-0.4400678
-0.2354216
-0.4711638
-0.3487158
0.2343545
0.6706108
-0.5922585
0.2344986
0.7398251
-0.08143667
0.09051234
0.2407456
0.0185151
0.3845204
0.8786652
-0.5854152
-0.0595125
0.1275004
-0.4655699
0.08230326
0.2284989
0.1546852
0.05994473
0.4214075
-0.4609799
-0.2808106
-0.2480752
-0.4686671
0.007633025
0.03564925
0.03191712
0.01283646
0.03809772
0.008488049
0.02987697
0.0546482
0.02575446
0.009723966
0.01863962
0.01708632
0.004560639
0.03581294
0.0183467
0.007329073
0.03567646
0.01157897
-0.01351281
0.01181196
0.003784808
-0.01702441
0.001456621
-0.009773258
-0.02069228
-0.0002063354
-0.02552415
0.2674719
0.2441618
0.2054902
0.168815
-0.578283
-0.3588106
0.03707008
-0.5311999
-0.3461123
0.121485
-0.1233554
-0.1269354
0.1413681
-0.6440243
-0.4324285
0.2502533
-0.1946072
-0.0401246
0.0860405
0.08811861
-0.002720757
0.1484668
-0.3396024
-0.2814288
0.1811247
-0.1427434
-0.103351
-0.1881323
0.176081
-0.4726353
0.742301
0.01806343
0.8172783
0.5471745
1.454363
0.1711524
0.05020596
-0.3819821
-0.06219481
-0.3059865
-2.295556
-0.1339474
-0.2749961
-0.3629523
-0.5530928
0.2314823
0.6566933
0.05029926
0.4289257
-0.5994961
0.6236801
-0.03424513
-0.06737287
0.0815159
-0.002754823
0.01066862
-0.000853797
0.003680466
0.007432387
-0.003988866
0.003456034
-0.00234099
-0.0006415724
0.001924083
-0.002763608
-0.002240164
-0.001484221
0.008013276
0.002007152
-0.0007736528
0.0003137686
-0.01155502
-0.001086276
-0.003415243
-0.002572408
0.003818057
-0.001532366
-0.0002079017
0.002714536
0.0002366387
0.00699896
-5.811427e-05
0.2439916
0.05707848
-0.4364932
0.1409374
0.7991753
-0.2426644
-0.1049031
0.1935556
-0.3483166
-0.1369762
0.1972719
-0.721218
-0.2532577
0.8301154
-0.2142293
-0.1694568
0.2400486
-0.2851738
-0.08461947
0.1885577
-0.6208074
-0.1286797
0.813009
-0.2906285
-0.01330878
0.4240833
0.7929644
0.6816415
0.3475418
0.2520149
-0.640273
-0.1145437
-0.05822106
-1.328462
-0.6126395
-0.09831533
0.1133952
0.06093889
0.08489719
0.115328
0.6823804
0.1946849
0.08378023
0.4901325
-0.4891249
-0.7311997
-0.712124
-0.2438776
-0.3112147
-0.08207256
0.4341635
0.6311271
0.4973242
0.5100335
0.1336268
-0.5054255
0.8739648
0.3184562
-0.8448855
0.4928811
-0.1602388
-0.6813185
-0.1835507
0.01632589
0.05622377
-0.1263004
0.1123023
-0.07093725
-0.1046766
-0.2492268
-0.04643558
-0.4108782
0.1324713
0.3531909
-0.5558434
0.4087572
0.5975822
-0.6011246
0.100328
0.5530167
-0.06103022
-0.06321888
0.2044339
-0.5948682
-0.5059556
-0.1799905
-0.505968
-0.951925
-0.227579
-0.1331791
-0.04681908
-0.2539026
-0.162314
0.2089156
-0.1303933
-0.03273021
-0.1630869
0.003154108
0.1693565
0.4869275
-0.04841601
0.5431105
1.187858
0.2886247
0.5801272
0.714996
0.2305031
0.070875
0.1166256
0.03129744
0.2277473
0.6899257
0.4022356
0.1049903
0.4265063
0.2367009
-0.1732828
-0.1264041
-0.1675118
0.007972623
0.3113969
0.02613134
-0.1387101
0.001597774
-0.1259381
0.1306547
0.2631633
0.1608121
-0.001733643
0.2279797
0.0397202
-0.2233924
-0.2233875
-0.2548231
-0.04490206
-0.2749076
-0.167192
-0.0476848
-0.2132923
-0.06316552
0.2028078
0.06790774
0.1350925
-0.1418874
-0.2218535
-0.1426421
-0.241448
-0.2900466
-0.1485233
-0.142573
-0.2223605
-0.06681521
0.1832855
0.1372617
0.1862275
0.06837446
0.0533144
0.1671558
0.04997562
-0.05673893
0.1105703
-0.1848763
0.1332361
0.4354293
-0.2974049
-1.334172
0.5242263
-0.2304609
0.6489529
0.315785
-0.09505607
-0.3116505
-0.2501936
0.2356866
-0.9991338
-0.1339743
0.08517521
1.255209
0.2120568
0.1399575
0.09051671
-0.2193351
0.2824383
-0.6646571
-0.3584978
0.04197009
0.7172015
-0.2035453
0.106854
0.1761835
0.1512833
0.03936513
-0.1385957
-0.2167214
0.2029231
0.1097062
0.09779657
-0.02965674
-0.02525334
-0.04746961
-0.1292008
-0.3268847
-0.4118805
0.1351664
0.03021213
-0.02883729
-0.05002497
-0.08342587
-0.1847418
-0.1378285
-0.3216515
-0.4350466
0.05010733
-0.0710572
-0.1183016
-0.1116525
-0.2205758
-0.1161476
-0.04729907
-0.1367115
-0.1456205
-0.02262914
-0.1057435
-0.09847251
0.03874454
-0.06678151
0.0598485
0.05027144
-0.04621118
-0.01350718
0.03031848
-0.03653313
0.005248585
0.08331011
0.005483035
0.09609755
0.05249196
-0.01597885
-0.04677319
0.01177766
-0.05798042
-0.06024255
0.1611757
0.5121908
0.5778185
0.02888698
-1.040036
0.0452686
0.1348885
-0.5793598
0.1210268
0.159774
0.3883371
0.4704922
-0.008257559
-0.8782927
0.0581539
0.08092204
-0.2379216
0.1837631
0.0291437
0.3973671
0.05115226
-0.09210543
-0.4764366
-0.1809538
-0.03806852
-0.01771191
-0.03236684
