16 16 3
-0.0137025
0.02643156
0.06206629
0.03460724
0.02938411
0.008808256
0.05880512
-0.05017915
-0.07342085
0.06361624
0.0391961
-0.05887664
-0.02370373
-0.03966783
-0.1154248
0.03699647
0.07993933
-0.01626743
0.02018608
0.1080115
-0.006190847
-0.001698253
0.1154218
-0.02976281
0.005183557
0.09239309
0.007014641
0.07337151
0.105278
0.03800691
-0.01417822
-0.02623008
-0.04361372
-0.101322
-0.03960498
0.002144577
-0.09060741
0.03373666
0.05103301
0.05815872
0.1235719
-0.1289689
0.09058045
-0.1032867
-0.01135044
-0.05520293
-0.03289071
-0.01301067
0.03615227
-0.004989683
-0.03402074
0.04069301
0.06525773
-0.008352695
0.04865503
0.1345225
0.08954387
0.07973213
0.08838939
0.01658486
0.05402304
-0.03135069
0.06680405
0.005699901
-0.09576973
-0.1432882
-0.06750365
-0.05321099
-0.03942396
-0.07373007
0.06814724
0.06966761
-0.025663
0.02956054
0.04300424
-0.05007127
0.003483098
-0.001132909
-0.07933289
0.06442843
0.08555463
-0.0195083
-0.0889084
-0.03777361
-0.08857463
-0.0545426
0.005202597
-0.07829996
-0.02327048
0.04051223
0.07627108
0.1144728
0.009014781
0.07119547
0.1141466
-0.01309392
-0.06147998
0.0633816
-0.04761693
0.003528148
0.009152316
-0.01671277
0.02468396
0.04453071
0.002205169
0.003437482
-0.0245431
-0.01949392
-0.1770306
0.006856462
0.1666947
0.08972643
0.2783842
-0.09053518
0.2285005
-0.188113
-0.08628026
0.04982493
-0.01108305
-0.005799985
0.04683459
0.01516125
-0.02593362
0.02431173
0.0118943
0.004374279
0.04143111
0.01458271
0.0338851
-0.03716032
0.0232721
0.02694392
-0.02088314
0.1207934
0.009558353
-0.08299003
0.0465397
0.04087462
0.06308075
-0.01099491
-0.1628826
0.02030542
0.1335573
0.03303163
0.05150432
-0.1167482
-0.02113504
-0.04543768
-0.1768588
0.000835562
-0.07881204
-0.09939451
0.1053315
-0.0117707
-0.05931977
-0.1325135
0.09196486
-0.1203888
-0.11241
0.06585865
-0.05279964
-0.118439
-0.07024989
-0.03958983
0.0278315
-0.02784192
-0.02768645
0.01999074
0.01465835
0.004901724
0.01728061
-0.05854892
0.007524802
-0.06725028
0.03966355
0.199801
0.06063088
0.08014906
0.2313703
0.06692784
0.08669419
-0.04358816
-0.07044465
0.09647071
0.02907826
-0.1804464
-0.1174919
0.131557
-0.2249284
0.03054647
0.002786282
0.01509715
0.02736275
-0.04274381
-0.04121915
-0.06045941
-0.08425378
-0.1668273
-0.07792144
-0.01701431
0.09016278
-0.1021243
-0.07326782
0.06401272
-0.0988391
-0.09154288
0.05392128
-0.07703784
0.01684113
0.04762698
-0.1363794
0.1102442
0.04266968
-0.06819215
0.1238385
0.01422437
0.09351682
0.05289542
-0.03819026
0.1521906
0.118511
-0.01211944
0.1330314
0.1273895
-0.06001274
-0.0483741
0.05836561
0.0903793
-0.07509984
0.03008937
0.06804981
-0.05734751
-0.01295514
0.03764144
-0.02699363
-0.03243337
-0.05145597
-0.01272747
0.03821722
-0.01816068
0.01957195
0.0462568
-0.02686225
0.05317071
0.05209197
0.02078068
0.04775492
0.0850849
0.07509293
0.03117636
0.1205672
0.1380678
-0.03295055
-0.05957142
-0.1080613
-0.003982348
-0.06530891
0.03187175
-0.03598466
-0.06910431
-0.01749538
-0.005367282
0.008434356
-0.01315685
0.01953105
0.0223817
-0.01583615
0.0396521
0.02047126
-0.006505594
-0.05347144
-0.03531508
0.05170643
0.02042045
-0.02103661
0.02973315
0.0887552
-0.09287836
0.01852128
-0.09149555
-0.03783579
-0.009251391
-0.154941
0.150716
0.02994875
-0.09513435
0.1048904
-0.03488783
-0.06197248
-0.02779037
-0.01691929
-0.0666287
-0.04736644
-0.03475852
-0.09635631
-0.08630293
-0.06497359
0.03722872
0.0969488
0.0728441
-0.04992183
-0.02793779
-0.004403777
0.03756253
-0.002634356
0.03204059
0.0437721
0.0293967
0.02941047
0.03865705
0.0334957
0.008184636
0.04535223
0.03211939
-0.001390367
0.01911775
-0.05949899
-0.0716664
0.04676406
-0.01979075
-0.05740368
0.003164698
-0.03559037
-0.1005973
0.02652538
0.03283067
-0.06676631
0.05127522
0.00992087
-0.07683423
-0.02715144
0.02037271
-0.07901222
0.07915555
0.05161866
0.007684632
0.08957504
0.08330876
0.038146
0.1306382
0.1034205
0.06234828
0.06882501
0.1180762
0.03637234
0.0809693
0.1500246
0.05423558
0.03525127
0.1434889
0.09920195
0.06384048
0.02170566
0.02346447
0.0008270105
0.01420315
0.0427086
-0.02743689
0.02051995
0.08022361
0.03554992
-0.03371415
0.005218341
-0.07667825
-0.09789801
-0.0662638
-0.1363725
-0.09495949
-0.01953386
0.06041388
0.01767377
-0.02634126
-0.02929299
-0.04349665
-0.07055826
-0.00695671
-0.0529217
-0.05921455
0.02991143
0.06033095
0.04292047
-0.06541502
0.007316948
0.01193551
-0.04456256
0.003767809
0.04504396
-0.01946381
-0.06057594
-0.04761305
-0.02659199
-0.04642428
-0.06633576
-0.02562759
-0.04094938
-0.04401275
-0.1145118
-0.05075027
-0.07815459
0.09453485
0.03488819
0.03540016
0.02024118
-0.03753737
-0.03721927
0.01783577
0.01099865
0.02077289
0.01655909
-0.001188384
0.01206363
0.01976405
0.007493804
0.02225718
0.04345863
0.06972006
0.08133951
-0.02498333
0.01124329
0.067826
-0.01461019
0.06789836
0.0786192
0.1204257
0.05618929
0.004004468
0.09096377
0.08655185
0.08083599
0.02281725
0.03813561
-0.02601636
0.1126989
0.04675199
0.003665908
0.0960106
0.0747902
0.07196397
0.06198443
0.06906407
0.09967407
-0.01972798
-0.1011848
-0.1643255
-0.190887
-0.2164911
-0.09203341
-0.2384661
-0.1144863
-0.08628458
0.01874971
-0.007483393
0.003084103
-0.01648508
0.003644452
0.02933593
0.0434769
0.01388271
0.02601827
0.1022022
0.09745749
0.04242551
0.09496843
-0.007528374
-0.1100395
0.08489327
0.05021898
-0.03895934
0.07084641
0.1718161
-0.1549551
0.08957095
0.07105854
-0.06301789
-0.05361516
-0.06642178
-0.04330947
0.02127973
-0.06065715
-0.1400106
0.00668136
-0.04790298
-0.02272725
-0.1523243
-0.1455387
-0.05277096
-0.08664286
-0.04720988
-0.1378079
0.1670089
0.1720905
0.04144919
0.1384961
0.04475868
-0.03475526
-0.2003669
-0.06870552
0.009862415
-0.1435845
0.02396268
-0.0205764
0.004348516
0.02408286
-0.08609358
-0.03848147
0.02107451
-0.0190003
0.01877265
0.1089735
0.06095673
0.1446319
0.06842602
0.02463018
-0.06160228
-0.1092533
0.01213368
-0.03327838
0.002628313
0.1050335
0.08426832
0.1145401
0.08273286
-0.04085779
-0.02017079
0.005565718
0.01962079
0.09555009
0.159577
-0.009879833
-0.001170575
0.02466953
-0.003577456
0.04418254
0.05654759
0.002797568
0.07154436
0.1101879
-0.003882642
0.01628391
0.06315606
-0.06358074
0.05820121
0.1219256
-0.07854441
-0.1442786
-0.1415789
-0.00811364
0.05053985
0.09012122
-0.01872063
-0.02989547
-0.004548509
-0.03310341
-0.01959313
-0.000402498
-0.0001735444
-0.0191833
-0.0232275
-0.03576461
-0.1008634
-0.08384066
-0.1191544
-0.009218582
0.01188374
0.003432782
-0.02277119
-0.03640093
-0.06105398
-0.1215105
-0.03322803
-0.1493185
-0.1825776
-0.110518
-0.08394259
-0.03390278
0.07880696
0.02721125
0.03811408
-0.0008111327
-0.008168987
0.01106411
-0.02003912
-0.07848706
0.05917372
0.007009785
0.05788209
0.1686601
0.1549869
0.01274613
-0.03795309
-0.006843754
-0.07810657
0.1425256
0.1511398
-0.07685399
0.008624538
0.08671419
0.08403993
0.07881568
0.02806288
-0.08008149
-0.0385026
-0.04237806
-0.02150206
0.01222743
0.03694401
0.009470179
0.1009608
0.08218897
0.02207347
-0.03197812
-0.006436484
0.2793285
-0.02221204
0.005530378
-0.2165804
0.2246115
-0.01651079
-0.01400584
-0.05842973
0.01207603
-0.1603036
-0.05871675
-0.08437377
0.004915248
0.06428906
-0.04404833
-0.07224105
0.08440617
0.04897822
0.07264506
0.09140707
0.0004549528
-0.1134906
-0.03645403
-0.09034123
0.1536734
0.1724238
0.004100115
-0.005749626
0.06248222
-0.1005261
-0.08300222
0.001942967
0.06130716
0.08580732
0.01774872
-0.009965017
0.07225309
0.1343784
0.1593581
-0.05457881
-0.09528963
-0.1453831
0.01406182
0.04507642
0.115045
0.02087269
0.02394295
-0.008441252
0.02986727
-0.04140729
-0.01291495
-0.0009723042
0.04227875
0.03173888
-0.0340832
0.03704731
-0.03257868
-0.0350465
-0.1326605
-0.157255
-0.005475512
0.000149058
-0.003325304
0.04744792
0.07993948
0.06992903
0.02085136
0.0479215
0.09944649
0.1076575
0.1852849
0.1803363
-0.1325513
-0.363096
-0.175624
-0.09870641
0.4042978
0.1219958
-0.1418749
-0.2708445
-0.2574781
-0.05617501
-0.05713385
-0.07269545
0.02150364
-0.01175856
-0.0162407
-0.0509206
-0.06796371
-0.07933851
-0.0001737284
0.101819
0.03955777
0.08122589
-0.1167747
-0.07071926
-0.1599347
0.04729748
-0.02642966
-0.1532634
-0.2492571
-0.02505141
0.09663639
0.3762985
0.1978326
0.04735324
-0.2188088
-0.1628178
-0.01970816
-0.04508471
-0.05063054
0.009455292
0.03695094
0.02681202
-0.04006753
0.03656088
0.0376504
-0.06622408
-0.04561329
-0.04875426
-0.05132135
0.02508613
-0.02985776
-0.08968598
-0.0159988
-0.02482781
-0.03526689
-0.02602589
-0.03935614
0.02789153
0.03262497
-0.02174288
0.01508418
0.016059
-0.01288315
0.03173041
0.03999769
0.0229056
0.03087256
0.005557221
-0.0183625
0.04728618
-0.01966123
-0.03464388
0.02684806
-0.05777216
-0.1599419
-0.03178144
-0.0177568
0.02648265
0.02950147
-0.06587446
0.0116951
0.01389454
0.01084125
-0.04834832
0.07429484
0.04941835
-0.04175469
0.06493183
-0.01766568
-0.07150804
-0.07313234
-0.04548576
-0.07879005
-0.02336161
0.009265208
0.02306956
0.02089366
0.04319748
0.05126399
0.01152955
0.0001005361
-0.0264065
0.008419705
-0.04756265
-0.02198726
-0.03204695
-0.05284584
-0.03812333
-0.1112124
-0.1036839
-0.01350768
-0.06157264
-0.07490465
-0.03111849
-0.007363891
-0.03949728
0.007909888
0.03448919
0.03083267
0.0112164
0.07258952
0.04412936
0.02695258
-0.04769427
-0.02456565
-0.01268108
0.01405421
0.03206033
0.02979664
0.04229456
0.01357811
-0.003891669
-0.007432761
-0.04783449
-0.09578086
0.001080873
0.0009363953
0.002140326
0.04680052
0.05057241
0.02737438
0.02455301
-0.008347454
-0.04872263
0.1468853
0.06316145
0.003132909
-0.01829372
0.1159988
0.04200573
0.05464566
0.006899753
0.02222431
0.003338286
0.00187458
-0.001723462
0.0421213
0.02881278
0.01320585
0.006516683
-0.01590127
-0.01923934
-0.02590156
0.01069935
0.02258484
0.04877867
0.03354528
-0.05021266
-0.04566089
0.007120342
-0.06750816
0.08245689
0.1210407
0.08325615
0.003130008
0.08500744
0.08763311
0.1105783
0.09687658
0.06796201
0.02048033
0.02326476
0.05623604
0.07810813
0.07848094
0.1407332
0.04010036
0.003585898
0.02643183
-0.09715895
0.1538999
0.03234287
0.009764322
0.1957473
0.1604658
0.07969191
-0.1371488
-0.09861814
-0.04863416
0.001382326
-0.05786997
-0.09499824
0.02310091
-0.002159527
-0.05788885
-0.02535378
-0.05140353
0.02594875
0.01718836
-0.03431647
0.02739038
0.02599218
-0.04940941
0.1170301
0.1766242
0.02527365
-0.09522469
-0.09525216
-0.05172577
0.2189539
-0.1860523
0.03512541
-0.0844306
0.1921265
-0.06676625
-0.005544678
-0.03322716
-0.04503767
0.03247048
0.06826065
0.04627866
-0.002014747
-0.03463336
0.05058824
0.05106506
0.04531747
0.008093483
0.1377146
0.02490806
-0.06579132
-0.156109
0.06189677
0.1680482
-0.03058661
-0.08243936
-0.05143496
-0.01566572
0.03136161
-0.07256086
-0.09255189
0.001516838
-0.0713689
0.09108554
-5.937882e-05
-0.04767662
0.1606295
0.189048
0.1677271
0.1282988
0.1471997
0.1153941
0.04776014
-0.06307551
-0.06656347
0.120083
0.111763
0.02806037
0.03680263
-0.09408963
-0.04058105
0.08603768
0.1474191
0.03597885
0.1434546
0.2411304
0.05179853
-0.0799464
-0.0737135
-0.1431779
0.0003516985
0.08341273
0.0518489
0.05537019
0.1313946
0.09746442
-0.08455463
-0.04989493
-0.03085809
-0.1377782
0.1509504
-0.1074875
-0.3145582
-0.416938
-0.3115281
-0.3207569
-0.1537654
-0.2485283
-0.02671947
-0.0284072
-0.02481153
-0.06427857
-0.02035657
-0.04176867
-0.05969705
-0.08087078
-0.090514
0.07709437
0.118766
-0.02396947
0.01452426
0.2371837
0.02017739
0.1064747
0.01454534
0.0836007
-0.009535673
-0.02569488
0.01492119
-0.1441959
-0.07804088
-0.0644672
-0.03273085
0.3719629
0.06074554
-0.07928836
-0.1119736
-0.002286629
-0.05796736
-0.01621968
0.1194174
-0.006857662
0.06018577
0.0706113
0.1510571
-0.0808017
-0.1338418
0.1340422
-0.1958647
-0.136631
0.03553629
-0.0538455
-0.1544158
-0.02125484
0.003481451
-0.0119441
0.001070802
-0.01956637
0.0221367
0.06286361
0.0739756
0.06493661
0.06596041
0.1122124
-0.04243058
0.1627331
0.1515298
-0.09215298
-0.01610381
-0.03508729
-0.07813513
-0.03477154
-0.01743859
0.1133768
-0.1323446
0.3748177
-0.2608002
0.02865501
0.1705534
-0.1829856
0.05896715
-0.03419454
-0.01450318
0.003654911
-0.0328793
-0.09111264
0.03556267
0.0620195
-0.025045
-0.1374122
-0.0713352
0.1029372
-0.1800541
0.1472408
0.1881089
-0.0695688
0.07957536
0.1230744
-0.01875221
0.02556025
0.001410016
-0.02673533
0.05319075
-0.02346186
-0.06475104
-0.09135855
-0.0001075969
0.02450166
0.02977258
0.08285099
-0.02906283
0.02369475
0.09000737
-0.03034507
0.01663283
0.04464132
0.1000151
0.00865802
-0.02872348
0.1130093
-0.08441255
-0.003126851
0.1369794
-0.03221682
0.0359887
-0.01310119
0.03633618
-0.02715047
0.03790101
0.03677136
0.02987412
0.06257889
0.09927257
0.05564432
0.07566232
0.08498474
0.1609924
0.05518744
0.1054365
0.1578468
0.03780791
0.08853828
0.09538712
-0.05853669
-0.1979658
0.091658
-0.01340126
0.1027698
-0.08424877
0.01391232
0.05972643
-0.1076712
0.01382908
0.009395078
-0.02266295
0.01154801
-0.01239359
-0.01544233
0.01353681
0.0173191
0.01526229
0.04518613
-0.002745008
-0.0001054388
0.09237293
-0.196844
0.2207161
-0.009965072
-0.1084951
0.04269584
0.0391315
0.04651541
-0.04546997
0.03036867
0.1500186
-0.198813
-0.0517911
-0.03700114
-0.1758156
0.003484366
-0.01228813
0.05780377
0.03132473
0.04088637
0.1044256
0.01468845
0.02726397
0.08144065
-0.1086171
-0.04090213
-0.2058277
-0.1984762
-0.04589252
-0.2819164
-0.1136033
-0.1285545
-0.1814308
-0.003605474
0.0009075465
0.005327754
0.03751836
0.05160435
0.02831553
0.04094238
0.07928155
0.06356084
0.01044791
-0.06067687
-0.04467331
0.04811267
-0.1058466
-0.100052
0.01111862
-0.03889544
-0.007612078
-0.05760695
-0.2222396
0.08395454
0.2525167
-0.3961745
0.3278492
0.07198153
-0.3212168
0.2769236
0.03546549
0.05834447
-0.07769518
-0.05641194
0.008319711
-0.02076418
-0.09269945
-0.03981816
0.03427468
-0.1214009
-0.04827296
0.04616409
0.08270299
0.01020033
0.2022533
0.05232062
-0.01680119
0.1774926
-0.01723887
-0.1380824
0.116055
-0.07494914
-0.1063759
0.1628163
-0.01246977
-0.05109243
0.07370807
0.004586698
-0.07425294
0.0411715
0.03977214
-0.05324149
0.03425987
-0.001388039
-0.04475453
0.005243492
0.04382961
0.06489172
0.1016815
-0.06437688
0.08769901
0.1278746
-0.03799544
0.01363743
0.009903752
-0.02329197
-0.02451925
-0.01590986
-0.04910957
0.0005993784
-0.02095856
0.01048947
0.03477057
0.05505314
0.004483878
0.008819998
0.04541242
-0.005141478
0.04600068
0.04892638
0.02624733
0.04442596
0.06768508
-0.03720509
0.09942601
0.06712648
0.05083045
0.008163105
0.08661502
-0.03180263
0.01512203
0.01907677
0.01893013
0.01494999
0.01137314
0.02769591
0.03046977
0.001161742
0.06369661
0.06108591
0.04938886
0.04136106
0.0557886
-0.01830116
0.004149463
0.1780215
-0.1068549
0.02668121
0.1160586
-0.09960563
0.0390974
0.006523252
0.1177444
0.09741279
-0.1298701
0.08827277
0.006111912
-0.07706176
0.1677611
0.09191734
0.05979982
0.04820291
0.05344111
0.05334553
0.004556755
-0.02962223
-0.02253372
-0.140159
-0.1074916
-0.06660368
-0.06373782
-0.08747497
0.0784517
0.1659401
-0.05555982
-0.007999299
0.1659436
-0.04275912
-0.04270625
-0.02586961
-0.08988467
-0.02832373
-0.03285056
-0.1073526
-0.03333731
-0.003618815
-0.04003938
-0.06567356
-0.155824
0.01470944
-0.02003765
-0.1440929
-0.09372225
-0.1078689
-0.159303
-0.02462704
-0.1811891
0.002425011
-0.02381786
-0.1457872
-0.02665148
-0.05220188
-0.005237718
-0.04290885
-0.05236097
-0.004763072
0.004512325
-0.01651801
-0.02298775
-0.01738627
0.04091039
0.0143071
0.06280426
-0.1078092
-0.1074514
-0.0673461
0.08158655
-0.02165426
0.004515942
-0.06724072
-0.1133397
-0.0522704
0.02256213
0.01814698
0.005104355
0.05779317
0.0591871
0.04605254
-0.06809548
0.02333486
0.008037117
-0.06741296
-0.02542665
0.0009326097
0.001563279
0.05086996
0.03571058
0.003155826
0.0314065
0.02920943
0.03468287
-0.02095878
-0.07096988
0.0842035
0.0787061
-0.01333907
0.07271726
0.04422994
0.02122496
-0.06007506
-0.0004482217
-0.03165404
0.1778675
0.3286585
0.1799779
0.1111826
0.2345379
0.07769854
-0.01984244
0.01872661
0.01216776
0.01798349
0.0608492
0.0185849
-0.03424504
-0.01098649
-0.05578763
0.05402543
0.04876051
0.04747422
-0.1280197
-0.1097694
-0.145611
-0.01275662
0.006860173
-0.09564333
-0.02273124
-0.02250149
-0.01942529
0.0354863
0.04539292
0.06289411
0.005640772
0.05070268
0.05644654
-0.08385754
-0.02637015
-0.02549186
-0.01539737
0.2039654
0.1046533
-0.0505994
0.05676912
-0.00122104
-0.04449371
-0.06470275
-0.05492621
-0.08919417
0.03491025
-0.02526623
-0.07524343
-0.01622752
-0.00606546
-0.1182813
0.01352106
0.1704547
-0.03609694
0.04535192
0.1389832
-0.04084152
0.00475139
-0.007596587
-0.0308142
-0.0792928
0.1504236
0.07160849
-0.01230919
0.08600282
0.05140755
0.03403028
-0.08962673
-0.1100665
-0.08120126
-0.02157493
-0.1259811
-0.08751833
-0.02051264
-0.07211278
-0.06583481
-0.02492526
-0.1061601
-0.07334034
-0.03683766
-0.02696192
0.02632129
0.06077646
0.03884171
0.09095097
0.153556
0.09145048
0.1292
-0.02747348
0.1305801
0.1519511
-0.2107292
0.1716195
-0.06229036
0.0476108
-0.04287983
-0.06773765
-0.03704758
-0.1166454
-0.08487452
-0.03436789
-0.02726614
-0.0195423
0.0259233
0.07980869
-0.02879909
-0.06464331
0.007528461
-0.07416148
-0.1313022
0.03474447
-0.151419
-0.0213322
-0.03365823
0.04124137
-0.1118257
-0.06275026
-0.04361197
-0.04415233
0.01111241
-0.04256061
0.01954924
0.01613983
-0.004756689
-0.1296673
0.09599825
0.05270055
-0.02580131
0.1417447
0.06989817
-0.009209395
-0.0263594
-0.03284902
-0.01778166
9.368599e-05
0.0006175639
0.02620615
0.02138774
0.00552281
-0.03952573
-0.03424141
0.006454242
-0.005734194
-0.02757806
-0.0694176
-0.0462916
-0.06853275
-0.06327787
-0.09040192
-0.005197772
-0.0591626
-0.0709428
-0.01260362
-0.04681451
-0.07324773
0.03072666
0.04109729
0.02996635
-0.1498869
-0.09467896
-0.02003606
-0.1489292
-0.1559718
-0.2264698
-0.19622
-0.1363276
0.1146686
-0.01289818
-0.01014289
-0.008267483
-0.04019792
-0.04615913
-0.008477904
-0.03995179
0.0008069364
0.00306778
0.13951
0.04031964
0.057426
0.04276839
-0.06722879
0.06179089
0.1028145
0.08872911
0.004173127
-0.01248955
0.05771542
-0.001163395
-0.0002999056
0.04881774
0.01950675
-0.07787636
0.05840521
0.2553429
0.02186785
-0.1284512
-0.1613938
-0.01028557
-0.05058543
-0.04758346
-0.07963594
-0.03050934
-0.0372362
0.3081546
0.09912652
0.08390103
0.3886673
0.07556393
-0.1531645
0.2187437
0.02072199
0.004186959
-0.0372294
-0.03151951
0.03468128
-0.01104583
-0.03030862
-0.02336516
-0.03587265
0.01410307
0.05323984
-0.1487782
0.02484751
0.08174977
-0.09016515
0.1627553
0.01958788
-0.04068487
0.05084186
4.722748e-05
0.07638913
-0.1063331
0.007117253
-0.3763311
0.232665
-0.02890273
-0.1796998
0.1501574
-0.01288332
-0.07484987
-0.0212627
-0.00505622
-0.09512471
0.02341284
0.02339455
-0.1374204
0.04305593
0.102797
-0.2301654
-0.2658589
-0.187069
-0.3642435
-0.3172745
0.0187134
-0.3105252
-0.2941733
-0.08231399
-0.1001615
0.002533003
0.06052124
-0.1395917
0.05752049
0.1582491
-0.07470945
0.0515518
0.1070226
0.1055716
0.02140994
-0.02104265
0.124335
0.02735954
-0.0870756
0.09867971
0.0006767565
-0.0710533
-0.03610405
-0.07403637
-0.09599534
0.01096824
-0.1108601
-0.09313684
0.02120138
-0.07603893
-0.05331143
-0.02724975
0.02839243
-0.0407405
-0.05186818
-0.1347519
-0.09595545
0.01797081
-0.08198695
-0.03622951
0.06188289
-0.02775657
-0.02795452
0.05266481
0.0005225459
0.03824381
-0.003901361
-0.02017367
0.02798565
0.04291861
-0.2035571
-0.009027546
-0.1821331
0.05615273
-0.03564408
-0.1752546
0.1479501
-0.06743653
0.01512903
0.02408241
-0.004431199
-0.01532298
-0.04544544
-0.0321409
-0.05654722
-0.04407386
-0.005355114
0.06618926
-0.005738273
0.06474871
0.246031
-0.1241453
-0.1008141
0.07560347
-0.05415454
-0.06280873
-0.09328613
0.01176994
0.02140579
-0.295692
0.2234127
-0.07452327
-0.1831417
-0.009699874
0.003261466
-0.1161944
-0.1185505
0.04419672
-0.07217546
-0.05517318
0.1136333
0.02005738
0.005150255
0.04192289
0.01760209
-0.08622006
-0.07373583
0.07810761
-0.1471759
-0.08063722
0.02748222
-0.02350302
-0.1355808
-0.05187479
-0.04560755
-0.07674853
0.01938796
-0.03673786
-0.0452389
0.03713517
0.02085823
-0.004964076
0.1007199
-0.01235648
-0.1179173
0.1492913
0.003087514
-0.129637
-0.05525408
-0.1382847
-0.1362513
0.08817399
-0.05889382
0.006858096
0.05973102
0.1974254
-0.2483617
0.1471398
0.1103386
-0.1222166
0.04293648
-0.04892519
-0.03460458
0.02702741
-0.0658107
-0.07468196
0.08311757
0.038272
0.02934059
-0.007632168
0.09379593
0.007880959
-0.1799144
0.2125974
0.07717732
-0.1471393
0.09691294
0.1522778
0.02539258
0.01933986
0.05108527
0.04025536
0.02450634
0.004870474
0.0700348
0.01305808
0.08984151
-0.1077635
0.07914887
0.135358
-0.1096543
0.07171216
0.10632
-0.1668016
0.04456848
0.04635471
-0.06489019
-0.0546528
-0.03855225
-0.02543123
-0.1145655
-0.01277791
-0.09095097
-0.09900097
-0.01216047
-0.02430291
-0.0380322
-0.08360922
0.02546431
-0.0113192
-0.04047637
0.004312058
-0.01221259
0.005600542
0.03816476
0.03400668
0.09208664
0.03925026
0.0533803
0.06589022
0.04152937
0.08330881
0.09585881
0.02186863
-0.1846316
0.09449898
0.0577485
-0.04676015
-0.05113307
-0.002096013
0.08237277
-0.1077605
-0.02027803
-0.0372938
-0.04597327
-0.01436759
-0.03629611
-0.03149725
0.01256548
0.01235864
0.002553456
-0.1053335
0.0124586
0.005125918
-0.0343042
-0.1271401
0.166503
-0.09449934
-0.09378733
0.01900946
0.1853632
0.009500123
-0.0752224
0.1262427
0.0985489
-0.1476547
0.02198739
0.01383677
-0.1176748
-0.1379866
-0.12164
-0.08681768
-0.2027365
-0.1818036
-0.1373122
-0.1037739
-0.09390192
-0.09654097
-0.08735047
-0.08359878
-0.009692235
-0.1237178
-0.1174371
-0.02508456
-0.00258517
-0.05847947
-0.02069533
-0.01457848
-0.004725666
0.008985704
0.007133924
0.01216136
0.009897801
-0.006572828
-0.01062413
-0.02265151
-0.01610321
-0.01242595
0.03533055
-0.007444691
-0.01291888
0.04496784
-0.04576915
-0.05551412
-0.00493507
0.06199428
0.1181329
0.09903543
0.02861045
0.09974578
0.05426423
0.03990449
0.1034257
0.04123806
-0.0242724
0.02836181
0.05025112
-0.06650986
-0.02288855
0.01201132
-0.0818214
-0.04789209
-0.01762963
0.03940063
0.03654521
-0.005588632
-0.01305927
-0.01578672
-0.1016993
-0.01934292
0.02811774
-0.03559985
-0.1420849
-0.09392858
-0.0643076
-0.1479513
-0.1151364
-0.1142626
-0.09713149
-0.1040836
-0.02895298
0.07906362
0.04984261
0.006455931
0.0650079
0.01202165
-0.05530209
-0.009221043
-0.05232176
-0.09557928
0.06741443
-0.0112129
-0.02589425
0.06771962
0.009660854
-0.02239573
0.08496632
0.01095035
0.01231232
-0.05023295
-0.05737761
-0.1138922
0.08140679
0.07806874
0.02164184
0.04051404
0.01958421
0.008302704
-0.002225576
-0.03059233
-0.07192095
0.04469363
0.01101
-0.01917399
0.01107815
0.004878308
-0.006260041
-0.01058949
-0.04370753
-0.01770972
-0.0003438472
-0.07166997
-0.01155458
0.06757246
0.009457848
0.01795234
-0.004761322
-0.001967336
0.01336336
0.05797211
0.06190767
0.06544837
0.006711839
0.01005363
0.009564064
-0.07030964
-0.1071464
-0.08489192
-0.07393616
-0.09326938
-0.1010683
0.004531387
-0.05837433
-0.03521603
-0.06477484
-0.01121202
0.008977187
-0.009273104
-0.001646515
0.01727424
-0.07848332
-0.07720302
-0.07717457
0.06434835
0.05806465
0.03989217
0.005869937
-0.01692581
-0.01890182
-0.03107406
0.004435214
0.02100469
0.004296167
0.05946701
0.04841146
0.01840038
0.03311738
-0.005927111
-0.08389314
-0.09782503
-0.01562371
-0.04295997
-0.03162894
-0.00731338
-0.03005018
-0.003230835
-0.001181099
-0.05051544
-0.03646991
-0.02518859
0.01325273
-0.0003641911
-0.06033918
0.1077679
0.09180868
0.04181853
0.1208529
0.07071078
-0.003073209
0.06061728
0.01617391
-0.02771694
-0.004768861
-0.03903912
-0.0266904
-0.0361998
-0.01213615
-0.02359071
0.04223161
0.1046833
0.07034539
0.03539114
0.05593237
0.05283848
-0.05400826
-0.0614468
-0.04742978
0.0553936
0.05344271
0.04671904
-0.02306504
-0.04219349
-0.02978564
-0.0008636077
0.03405116
0.005157858
-0.05949794
-0.05595158
0.01925033
-0.06997588
-0.07522698
-0.01300328
0.01600957
0.04576343
0.02843023
0.09116913
0.07766999
0.133067
0.09569973
0.1290946
0.1743436
0.06792828
0.1032465
0.1066222
0.08019878
0.06654145
0.04985559
0.01269825
-0.02249072
-0.05764152
0.05745447
0.0556202
0.06889156
0.03979615
0.07629027
0.04657602
-0.01123446
0.0107159
-0.04031285
-0.002339616
-0.005823989
-0.0336776
-0.006024731
0.03767004
0.03502276
-0.04344109
-0.02162133
-0.03668993
-0.005974787
-0.006882044
-0.01301529
-0.08239036
-0.08151924
-0.1274
-0.1391693
-0.1361051
-0.08514287
-0.03305021
0.08827748
0.1049999
-0.04555938
-0.05338228
-0.05078014
-0.00765203
-0.01440413
-0.03672938
-0.01719147
-0.02167717
-0.0381364
-0.0123041
0.01598365
0.003278457
-0.004688323
0.01116644
-0.03807211
-0.01655236
-0.01548158
0.006048531
-0.1075436
-0.1278722
-0.1334304
-0.025237
0.04017091
0.0834495
0.07004849
0.04898827
-0.02308433
0.06774417
0.08906507
0.1126154
-0.1137206
-0.09759283
-0.03546879
-0.1537315
-0.168194
-0.1315696
0.05128801
0.09000035
-0.07011931
-0.1301064
-0.1210529
-0.1732477
-0.2475536
-0.1867798
-0.1737754
-0.02726988
-0.04844085
-0.09213965
-0.003474332
-0.04792521
-0.1022831
0.001386
-0.01971825
-0.07726621
-0.05365418
-0.0748461
-0.1417174
0.08052474
0.04655832
-0.08410771
0.1339073
0.0810208
-0.03229737
-0.03000155
0.08017209
0.05328538
-0.03720039
0.01613673
-0.02386692
-0.06612524
0.01503625
-0.00493047
0.01005085
0.02113582
-0.02256602
-0.03376792
-0.07803909
-0.08969342
-0.006762556
-0.1094319
-0.1358649
0.01755382
-0.04282235
0.0005440398
0.06334776
0.06295981
0.04687764
0.07776643
0.08184803
0.04400026
-0.1033437
-0.07899356
-0.05907715
0.06106643
0.1084444
0.03544934
0.01922234
0.04942383
-0.0680211
-0.0106109
0.005891201
0.06998443
-0.0051593
0.007957338
0.07162274
0.03100692
0.03306766
0.02892017
-0.02213442
-0.03748386
-0.07370063
0.02403998
0.02736458
-0.001624744
0.03816079
0.09857602
0.09063121
-0.03525775
-0.07692047
-0.09211079
-0.07620525
-0.086345
-0.09254356
-0.06336137
-0.07248445
-0.07036758
-0.04412787
-0.04310059
-0.05385458
-0.1137749
-0.1104636
-0.1119948
-0.06630338
-0.06605048
-0.08615357
-0.01694908
-0.1027988
-0.157263
-0.007431626
-0.125502
-0.1967521
-0.05593301
0.05184832
-0.07476873
-0.02898126
-0.03378065
-0.0258265
-0.01620189
-0.03612934
-0.037
0.0345649
0.03018017
0.0002287419
0.04137678
0.001686911
-0.02881723
0.001563736
-0.03245436
-0.007339421
0.0478476
0.03576122
0.05168954
-0.1175413
-0.119667
-0.1009461
-0.001776757
-0.004284285
-0.03929866
-0.02170828
-0.03671714
-0.09313607
