16 16 3
0.001014536
-0.001693148
0.0003628706
0.002358254
0.0003953944
-0.001262463
0.002648221
0.0003836697
0.001544712
-0.008107838
-0.1428001
-0.05162665
-0.1051025
-0.2681529
-0.1988607
0.06463297
-0.06378394
-0.00406726
-0.03922593
-0.03313822
-0.127498
-0.1432268
-0.1263014
-0.1302345
-0.1331292
-0.07322945
-0.01388837
-0.2527399
-0.2768737
-0.2243488
-0.2723649
-0.09216205
0.0731071
-0.2905588
0.07733033
0.1909969
-0.06947099
0.0180299
0.06258928
0.103036
0.0705839
-0.03777618
0.2006928
0.133196
-0.03973448
0.04422754
0.08600742
0.09917848
0.07198317
0.02409736
0.07420518
0.0394939
-0.0717406
-0.01682988
0.001704995
-0.0006377534
0.001334776
0.001588628
0.0005587928
0.0001015183
-0.002294617
0.003393411
0.001264865
0.002519423
-0.03812349
0.05956991
-0.04741051
-0.1786169
-0.1723219
-0.05508915
-0.1679649
-0.1521889
0.001854526
-0.002079263
0.003352633
0.0001603122
-0.001024266
0.0002199367
0.001925567
-0.001190788
-0.0001953221
0.07012213
0.06008201
-0.001350193
-0.0859798
-0.07071555
-0.1231365
-0.1736609
-0.1945691
-0.2458939
-0.05986205
-0.004420941
0.02894206
-0.08086615
-0.01719128
0.06967714
-0.1679035
-0.1835077
-0.06268882
-0.09147268
-0.09103615
-0.05817677
0.1246116
-0.02702259
-0.1070189
0.1846372
-0.03382485
-0.1474016
-0.1579438
-0.1252149
-0.1028378
-0.07888671
-0.05002371
-0.1153789
-0.07297006
-0.07441533
-0.08321454
-0.09597825
-0.07247748
-0.0198248
0.0008818281
0.03122812
0.07294054
0.09386691
0.1688407
0.1119901
-0.00203008
-0.002962442
0.001481809
-0.002051903
0.0003225301
-0.002601334
0.001117929
0.001611581
0.001594013
-0.07959974
0.1442596
0.1493639
-0.1296214
-0.06689613
-0.148785
-0.1888715
-0.2702605
-0.2361273
-0.0028059
0.000307831
-0.0003280041
0.0008797133
0.0005405199
-0.001291909
0.0001852731
0.002571544
-0.001533884
0.01137917
-0.08123497
-0.02346833
-0.02005622
-0.06305116
0.03968176
0.0003240356
-0.002967877
0.0163486
0.05415343
0.06395011
-0.03176683
0.07162391
0.06041562
-0.009823879
0.05245952
0.05116901
0.01836079
-0.1681369
-0.07363541
-0.03504164
0.08239786
0.03509272
-0.03968225
0.004438349
-0.004663339
-0.01159035
-0.06859274
-0.01196453
-0.01293295
-0.0286879
-0.03925829
-0.02007343
0.0385779
0.035498
0.03287513
-0.05473098
-0.04697636
-0.01677757
-0.07094043
-0.05663083
-0.003554655
0.0334993
0.03749793
0.07216264
0.0005351086
0.00306083
-0.0003027839
-0.0007471531
-0.001703823
-0.002205165
-0.001612316
0.001952505
-0.0004561949
0.02327527
0.01394673
0.0286861
-0.04089469
-0.05159612
0.004279767
0.003032289
0.01545172
-0.03717752
-0.002204077
0.0005103019
-0.001434663
-0.0050486
-0.004934562
-0.0006138382
8.178853e-05
-0.003120193
0.001475851
0.02482723
0.04382702
0.02735581
-0.02394864
0.02040602
-0.004696691
-0.03147266
0.001289449
-0.02767229
0.0408987
0.01552139
0.02537339
0.002272971
-0.1145617
-0.003493039
0.05000441
0.03923614
0.05065051
-0.01733813
0.02434452
0.009021415
-0.0420902
-0.03277352
-0.01047174
0.04874996
0.02639843
0.02627769
-0.01013033
-0.003506325
-0.01165383
-0.04848433
-0.02786495
-0.04391164
0.007258366
0.01786116
0.0140331
-0.01729714
-0.01235461
-0.006028365
-0.05970794
-0.1246442
-0.0006431873
0.05052211
0.004696806
0.0169978
-0.002003969
0.0005360505
0.001506958
0.00132038
-0.00143075
0.00210457
0.001252562
-0.002164818
0.0001400426
0.05938534
0.02989421
0.05568422
0.05046751
0.09122474
0.01501871
-0.009722966
0.03602286
0.0423537
0.0001669215
-0.003393465
0.001896595
-0.001843431
-0.005046376
-0.002189896
-0.002143163
0.0004319475
-0.0004110583
-0.03076389
-0.01408075
-0.05887735
-0.009206086
0.0190935
-0.02116483
-0.02720732
0.02544343
0.02275107
-0.06355729
-0.02480755
-0.01614206
-0.04035318
-0.01817693
-0.0606237
-0.07314184
-0.04453599
-0.07364944
0.03243281
-0.01793815
0.02320038
0.01347948
-0.01623657
0.0295033
0.04321781
-0.0188012
0.007090618
-0.009934634
0.03952276
-0.04907842
-0.004359369
0.0119168
-0.06415981
0.03487958
0.0562501
-0.07726423
0.08635235
0.1393856
-0.0623652
0.07204601
0.1317443
-0.04520181
0.05410517
0.1261372
-0.03690476
-0.001071488
0.00307547
0.001786599
-0.001897434
-5.507615e-05
0.0007184522
-0.002876534
0.001037781
0.001169869
0.02620155
0.08272336
0.01481238
0.05827628
0.06215374
0.040968
-0.01072265
0.001187734
-0.01453778
0.003547513
2.909741e-05
0.000609968
-0.002395774
0.0006329088
0.001168505
0.003012276
-0.002854371
0.000188361
-0.01238144
-0.01499041
0.05687234
0.003336049
-0.006954047
0.04709782
0.02047732
-0.02158458
0.03210355
0.1446447
0.1464782
-0.1283255
0.1430932
0.107068
-0.1157386
0.05789927
0.05483653
-0.1849709
-0.0122523
0.03818842
-0.01820839
-0.01020214
0.0179285
-0.0402564
0.02703099
-0.02073119
-0.05110636
-0.007143706
0.001003333
-0.004831362
-0.004119908
-0.006526355
-0.005790779
-0.01132993
-0.001713885
0.004719087
0.06809833
0.1043634
-0.05100673
0.003546852
0.06590143
-0.005367644
-0.008013933
0.02363873
0.004807759
-0.00289883
-0.002915052
0.002253247
0.002046648
0.00351342
-0.00208589
0.0008504413
0.00286926
-0.0009422838
-0.08339335
-0.05814847
0.03350214
-0.0009809473
0.01744551
0.05158748
-0.01676922
0.01586344
0.03478129
0.001254551
-0.002045311
0.001531229
0.001357126
-0.001395154
-0.0001027211
0.0009965777
-0.00288636
0.001687495
0.1303655
0.2445912
0.1158461
-0.000581988
0.08889396
0.04590536
-0.1446661
-0.09958814
-0.08747984
0.06502115
0.02481712
-0.0130079
0.01247864
-0.04558999
-0.07744195
0.006165051
-0.02087866
-0.07776462
0.1625302
0.1332091
0.04124683
0.08908311
-0.05812813
-0.04198316
-0.06039324
-0.1666651
-0.1822377
-0.08297709
0.01427068
-0.0002427562
-0.2207058
0.07851543
0.1984448
-0.2366775
-0.00185736
0.08358907
0.1095404
0.1854811
0.07592227
0.01631101
0.1249014
0.02590517
-0.1083692
-0.01285759
-0.08576414
0.0002678949
-0.0007832908
0.001868012
-0.00460304
-0.002607671
0.0004591326
-0.000669717
0.0009288211
0.0009453083
-0.06004148
-0.1276207
-0.1242225
0.007919542
0.05225923
-0.03432188
-0.01201505
0.07804658
0.02839304
0.002394295
-0.0005623407
0.001111523
0.002769501
0.001242394
0.003763838
0.003304312
0.002252029
-0.001307497
0.01061098
-0.01718364
0.05006631
-0.1332504
-0.189216
-0.07894406
-0.2086337
-0.262685
-0.09936936
-0.005703383
0.1337018
0.09423864
-0.1859027
0.2722141
0.1148258
-0.1955818
0.1186111
0.02423499
-0.05360143
0.003793573
0.07009374
0.0401029
0.1464843
0.1380451
0.00727558
0.08086487
0.07695962
-0.00199944
-0.02901539
-0.01912271
-0.03263381
-0.07124609
-0.0266072
-0.05080669
-0.04894892
-0.03140818
-0.2744481
-0.3446186
-0.1880783
-0.01537706
0.2133141
0.0921228
0.1805106
0.3205774
0.2327663
0.002755227
-0.000781504
-0.002500545
-0.003298779
-0.0003246582
0.003352638
0.0004071198
-0.001809884
0.001435827
0.1287243
0.0404138
0.03061838
0.02783627
-0.1675539
-0.140372
-0.1749722
-0.2207448
-0.1588615
0.001536735
-0.001216669
-0.0009920413
0.001260767
-0.0007855556
0.001412776
0.0006826702
7.799408e-05
-0.002006051
-0.005441247
0.1541209
-0.09242881
0.04093901
0.06836268
0.04602397
0.07648771
-0.01203031
-0.002626908
-0.01926081
-0.1446249
0.1201882
-0.02925133
-0.08562879
0.03399826
-0.0265306
-0.04194993
-0.02437159
0.4371535
-0.1388684
0.02569801
-0.128673
0.01637438
-0.2929076
0.09163757
-0.1801865
-0.1482961
0.01738425
-0.0003764377
-0.05603699
0.1428472
0.2668356
0.2252259
-0.01061083
0.02053029
0.05777149
-0.04033009
-0.01125773
-0.1257217
0.02195745
0.1275917
-0.07174497
-0.09487279
0.03730471
0.01410801
-0.002993129
0.002860925
-0.0008680567
0.005568849
-0.001449588
-0.0001905438
0.000248907
-0.0009100945
-0.0008145354
-0.1070791
-0.03744903
-0.2429365
-0.07133213
0.07271267
-0.2141725
-0.1640493
-0.30799
-0.1063279
0.00383426
0.00213318
-0.001479848
-0.002717342
0.001310981
0.0003434742
0.001072868
0.001980213
-0.0007203179
-0.09369606
-0.2360719
-0.08320997
0.01884173
-0.09955639
0.01354385
0.01203634
0.008247773
0.1514815
-0.1525204
-0.1172804
-0.1006885
-0.04206216
0.2949921
-0.1405024
-0.01107764
-0.1447904
-0.1329158
-0.0252374
0.01625417
0.1503809
0.08578634
-0.02289975
0.1982938
-0.08536425
-0.1041284
0.01642485
0.06389226
0.006890217
0.06234554
0.02253667
-0.02632177
0.08609425
0.05395779
0.06964167
0.01850891
-0.09680438
-0.05116196
-0.04312364
0.04440157
0.2882628
-0.1008862
-0.004533442
0.02842681
0.03453716
-0.0001547927
0.001125121
-0.002336139
0.001347299
-0.003111294
0.001861976
0.001660295
0.0003343637
9.883135e-05
0.1155639
0.1410911
0.1142432
0.02872155
-0.2362175
0.07819036
-0.03058499
-0.1234329
-0.03928902
9.449697e-05
-0.004909093
0.001997813
3.697923e-05
0.001117233
-0.003271599
-0.001553171
0.0008736576
0.001756227
0.02969637
0.1015429
-0.01472313
0.08364063
0.1160894
0.004638907
-0.008723777
-6.220866e-05
-0.04054593
-0.03560248
-0.0871134
-0.04540753
-0.01489149
-0.0953768
-0.1116214
0.0606358
-0.0494922
-0.09069752
0.08731954
0.006360683
0.10859
0.09807707
0.1099163
-0.1308392
0.1118067
0.02474276
-0.1367904
-0.05649418
-0.0795788
-0.1243099
0.0410256
-0.03720341
-0.09319297
0.07909232
0.05224345
0.01208476
-0.07200926
-0.1558781
-0.1329222
-0.04759211
-0.08729988
-0.04251158
-0.01753175
0.04943386
0.0217172
-0.0001694692
-0.0001776157
0.001243359
0.003049445
-0.000137719
0.0008060795
0.00471598
-4.956295e-05
-0.004404654
-0.09222424
-0.07801405
-0.1267073
0.06444929
0.2126392
0.09090595
0.1632562
0.1586974
0.08942103
-0.003893758
-0.0007200567
0.0001456398
-0.0003303435
-0.001309659
-0.0004840937
-0.002092227
-0.00185533
-0.001063809
0.01895487
-0.02048566
-0.0744632
0.0004327828
-0.02026759
-0.05886878
-0.004157089
0.03584832
0.07309955
-0.003016889
-0.08120144
-0.02405144
0.07188701
0.009845229
0.05459616
0.1354474
0.1374888
0.1169895
-0.07191533
0.003192191
0.00670808
0.001154787
0.03277257
0.1001864
0.004618782
0.005459416
-0.05482167
0.04794221
0.03346071
0.02607548
0.0281555
0.0314028
0.04011483
0.0265094
0.05620161
0.04562027
0.04209238
-0.03421899
-0.009002877
0.04622886
0.02782396
0.01817686
-0.02700303
-0.0403525
-0.03268858
1.585994e-05
-0.0005113856
0.001608693
-0.0007661169
-0.0006834115
0.002318375
0.001433546
0.002273095
-0.0008156879
0.0576313
0.1507925
-0.01978904
0.1842276
0.2887791
0.1807193
0.07772366
0.05936899
0.08889657
0.001225319
0.001780108
-0.002405216
0.002807132
-0.00283098
-0.001643555
0.002646578
-0.001915075
0.001293028
0.06988684
-0.02028138
0.02102414
0.04376528
-0.04630866
-0.04339194
0.008698389
0.01188294
0.008392672
-0.1351363
-0.008081915
0.09980284
-0.1381349
0.0721589
0.2083107
-0.1281993
0.001608307
0.0848112
0.01079911
-0.1028931
-0.06634726
-0.05971764
0.2144421
0.1466195
-0.155062
-0.006225189
-0.01053087
0.114702
0.06271137
0.0003342243
0.1199374
0.1589096
-0.02335755
-0.0402337
0.05818719
0.05223218
0.1518741
-0.003490647
-0.1052091
0.08938139
-0.1087133
-0.2625794
-0.02084677
-0.1155626
-0.2285057
-0.001091811
0.00252736
6.408121e-05
-0.001675532
-0.001107213
-0.000209467
-0.002679833
0.001717424
0.002974581
-0.0006417116
-0.01082423
-0.06901045
0.03754934
-0.1134079
-0.223755
0.008729852
-0.02526738
-0.08215126
0.0004043384
0.000363321
0.0007026239
-0.001161428
0.001401565
0.002648575
-0.003641149
-0.003216697
-0.0003363188
-0.06198566
-0.1232599
-0.1386334
-0.05729242
-0.1103159
-0.0956545
-0.07873336
-0.05789952
-0.08397102
-0.07844082
0.02076887
-0.2134938
0.1441606
0.2288693
-0.2472176
-0.03925483
0.1375052
-0.010021
0.02937081
0.01321542
0.1122937
0.02863107
0.02698597
0.04337245
-0.009887367
0.06656948
0.09876003
0.04662384
0.05599102
0.1101656
0.002079651
-0.03513954
0.01995971
0.06114495
-0.006489431
-0.03543312
-0.03381368
-0.09703149
0.09392378
0.01299015
-0.1792967
-0.3041182
0.1006848
0.06507568
-0.1656546
0.001912694
-0.001751419
-0.00169767
0.000239617
0.001916293
-0.000232758
0.002239421
0.0007350973
-0.0006042651
-0.01903682
-0.07066151
-0.002731633
-0.1042306
-0.1328331
0.1482128
-0.01320645
-0.1073547
0.08465832
-0.0004906835
-0.0001298041
0.0001601756
-0.002202232
0.0008295582
6.161178e-05
0.0003082174
-0.0009645512
-0.0006533947
0.02068982
0.1511253
0.03389751
0.1827209
0.35318
0.07816514
0.1964377
0.3065957
0.1216508
0.06494139
0.03987231
0.1161497
-0.1049695
-0.09670897
0.09293392
-0.07004972
-0.1021321
-0.02311015
-0.06648453
-0.0736846
-0.09308899
-0.01021804
-0.01462723
0.1229384
-0.1838023
-0.1371742
-0.1145174
0.08827931
0.03871687
0.03524654
0.01186213
-0.01864973
-0.04386627
-0.03595475
-0.09049321
-0.04713337
0.04711687
0.01590149
0.03401697
0.06924468
0.007399722
-0.004763372
-0.0582328
-0.1277586
-0.0553216
-0.0003686634
-0.002086555
-0.0004249817
0.0003643583
-0.0004017905
-0.0008317796
0.001074191
-0.002712785
0.001349503
-0.1348871
-0.1365498
-0.09845011
-0.1061704
0.03559344
-0.04161378
0.01422345
0.2702563
0.08144358
6.568678e-05
0.003531267
0.0006135148
0.004925657
0.0003244008
0.0005457351
0.0009240861
0.001667335
0.0004980643
0.06462389
0.1056332
0.06799493
0.102828
0.06895903
0.08609605
0.1372647
0.04613755
0.06925561
-0.02828504
-0.05881537
-0.08464173
-0.09657329
0.03465607
0.07111781
-0.1301487
0.03552432
0.1583843
0.01193348
-0.09257021
-0.1119909
-0.0697126
-0.002416151
-0.01724508
-0.06069978
0.03893387
0.03986632
-0.1355718
-0.07161487
-0.07363941
-0.04883846
-0.04663743
-0.03417602
-0.02054751
-0.0197103
-0.01553095
-0.02669678
-0.03382275
0.02589107
-0.07295686
0.002016415
-0.1089967
0.04202626
0.05311128
-0.1013932
0.005832647
0.002199184
-0.000277592
-0.001950648
0.002256089
-0.00048518
-0.0005240681
-0.002525749
-0.002222842
-0.02414116
-0.00194802
-0.02015665
0.07394823
0.27131
0.1831761
0.09927872
0.4617809
0.2383471
0.0002834211
-7.249976e-05
-0.001096629
-0.0001622845
0.0008523898
9.833523e-05
-0.002429921
-0.0021948
-0.0039032
-0.1396554
-0.1345153
0.06033865
-0.2075908
-0.1152253
0.0844678
-0.1683491
-0.1618651
-0.001453116
-0.02663962
0.002501341
-0.0927805
-0.04830364
0.01177825
-0.060999
-0.05836681
0.03665879
-0.0009249169
0.02132983
-0.009230469
-0.03383201
0.07561694
-0.03520509
-0.07717419
-0.004717776
-0.0451853
-0.1766121
0.05744766
0.03286682
-0.01962762
0.1215158
0.03004058
-0.06693796
0.1182265
0.048271
-0.0693677
0.06865215
-0.05020518
-0.09532227
0.07487617
-0.07127041
-0.138013
0.03920399
-0.08241523
-0.128595
-0.001623646
-0.0006449587
-0.002523075
-5.326187e-05
-0.001245785
0.000888872
0.002415796
0.001976715
0.002980184
0.0288094
-0.01055291
-0.1293897
-0.1065686
0.001211576
-0.009547508
-0.05240212
0.111299
0.103912
0.0002288728
-0.0002576201
0.003056459
0.004362203
-0.001795235
-0.004144334
2.338215e-05
-0.0006500066
-0.001608624
-0.05991721
-0.02746739
-0.05070393
-0.08735318
-0.02426006
-0.05621561
-0.05897501
-0.02183445
-0.05110735
0.07723319
0.06212303
0.01769873
0.08659763
-0.000430492
-0.06993078
0.1368192
-0.01070537
-0.08913027
0.07368097
0.06545666
0.05558611
-0.02361582
-0.01206326
0.02119122
0.0185228
0.04951005
0.0647999
-0.06877682
-0.06136695
-0.05227351
-0.05877857
-0.06668983
-0.05999055
-0.01316751
-0.02554845
-0.002029002
0.06615488
-0.06098387
-0.06363929
0.07962122
-0.07336342
-0.05585744
0.1089378
-0.02850283
-0.05764474
-0.002358204
0.0009484693
0.002342008
0.0005941356
-0.0007097784
0.0004342477
0.002553766
-0.001306383
-0.0002828612
0.008345038
0.02679344
0.04912323
-0.1038096
0.07217764
0.2013582
-0.1000324
0.09250132
0.2285008
0.000463269
-0.001342657
-0.001041867
2.750024e-05
-0.002881614
0.001124342
-0.001711095
-9.930346e-05
0.0006374782
-0.1127184
-0.1230224
-0.09424771
0.03473429
0.05697752
-0.1774114
0.0783117
0.1275381
-0.2034552
-0.1848345
-0.05517749
-0.1372418
-0.02780513
0.04869669
-0.07981031
-0.03797178
-0.09773409
-0.1732692
0.09255253
0.05683424
-0.1875501
0.2230558
-0.1426378
-0.1796397
-0.05402328
-0.1123749
-0.2145839
0.1451832
0.1398039
0.2320659
-0.05386254
-0.1169943
0.05718838
-0.2215361
-0.1433489
0.01095339
-0.1187415
-0.07820106
0.1404954
-0.2232247
-0.1615213
0.01747349
-0.1583124
-0.1194426
-0.02738813
-0.003062872
-0.00223378
0.0005335559
-0.002485714
-0.0007112302
0.004470597
-0.000669014
-0.003692469
0.0004371793
-0.250106
-0.1334216
-0.06042277
-0.006897664
0.02334076
-0.08639806
0.1261927
0.1810038
-0.2064454
-0.000705072
-0.002314492
-0.000804644
-0.001095678
0.0005478032
-0.0001944121
0.0005757602
-0.0008739906
-0.0007298224
-0.1477037
-0.1194819
-0.2022079
-0.02219776
-0.0274476
-0.1445424
0.02324216
-0.01228295
-0.1379913
-0.08009351
-0.06722363
-0.005823056
0.07733915
-0.08635888
0.1314401
0.009162962
0.1559584
0.1337141
0.0434555
0.1374991
0.1797597
-0.06285138
0.2297045
0.3087401
-0.1053338
0.1388035
0.287666
-0.03434152
-0.002966863
-0.02347792
0.02254068
0.02130517
-0.02682784
0.003866571
-0.006167144
0.03084055
0.06417349
0.1187213
0.07727131
-0.05956617
-0.07977139
0.1145011
-0.08710482
-0.1773808
-0.0998574
0.001948839
-0.00310334
0.0009853612
5.22159e-05
0.0004382668
0.003262582
-0.001495681
-0.0003688838
0.002495432
-0.3763524
-0.3618765
-0.3083951
0.01839549
0.2057315
-0.1498665
0.2674713
0.3408408
-0.03925381
0.001471468
0.001801528
0.002155807
-0.0008687723
0.003101037
-0.003562615
0.001622963
-0.00163505
-0.002553284
-0.05871319
-0.01124102
-0.03368065
0.06733891
0.1570846
0.05709197
0.06640258
0.1448307
-0.003377529
-0.0249201
0.0412309
-0.1319961
0.08433548
0.1686428
0.006547269
-0.09206205
-0.07382397
-0.1621114
-0.1002122
-0.2064839
-0.1208798
0.2228808
0.08947392
0.03139471
0.07387813
0.1061371
0.2988867
-0.01299243
0.1019708
0.08494271
0.04731118
0.1435618
0.1421216
0.06623559
0.1439098
0.1633502
-0.05720118
0.02200026
-0.03157822
0.1061215
0.1673575
0.1255681
0.1349463
0.2302258
0.1249522
-0.0005685618
-0.002956605
3.208756e-05
0.0001825185
-0.0004571645
0.0005674203
-0.001037861
-0.000413847
0.001983219
-0.05358439
0.009607742
0.02749623
-0.02076351
0.01584011
0.02764418
-0.0916868
-0.07553503
-0.177221
-0.0006970367
0.001094845
-0.003072047
0.0001323378
-0.0003325403
-0.0005151929
-0.00351476
0.001019785
0.0004863513
0.09270876
0.04513294
0.05756884
0.05977907
0.02394823
0.03965853
0.08035316
0.00895541
0.008671953
-0.05023178
-0.03584819
-0.1355246
0.1043018
0.02145303
-0.02361281
0.0805487
0.2061462
0.1025906
-0.01802863
0.04295871
0.05352897
-0.004606832
-0.0006648179
0.02055055
0.03358916
0.04604574
0.0169502
-0.07343672
-0.007019997
0.008891658
0.03724699
0.03489698
0.02669768
0.1190708
0.08373339
0.08783375
-0.09876163
-0.01481903
-0.07741699
-0.1453016
-0.1132158
-0.08470345
-0.06120848
0.01055361
-0.03443201
3.516666e-05
0.001589534
0.005118495
0.003145328
0.003667557
0.0003463714
-0.0007722344
0.002565446
0.003433047
-0.08057948
-0.1181323
-0.09529283
0.07574761
0.07240511
0.02098313
0.1639007
0.07094824
0.07940161
0.0001088316
-0.0004597627
0.002170523
0.0004414826
-0.001211142
0.003512555
0.001957064
0.002012809
-0.00276068
0.1876304
0.1829782
0.122837
-0.07794353
-0.06035767
-0.02348774
-0.1273979
-0.05250843
0.002650885
-0.04119399
0.03849635
0.07226094
0.08232439
0.2174558
0.2099382
0.1105098
0.19549
0.1454712
-0.02865357
-0.02452494
-0.110023
-0.03132248
-0.07008267
-0.08183887
-0.04014819
-0.05028521
-0.03548708
-0.07131059
-0.0534469
0.02378026
-0.08055041
-0.07966869
-0.03342414
-0.0272352
-0.09051763
-0.04030881
0.05721539
-0.01153366
-0.05470242
0.005465639
-0.05142476
-0.08604128
0.1179741
0.04656887
-0.01831686
-0.0009401678
0.001264775
-0.002887187
0.002336476
0.0001985187
-0.001935795
-0.001667725
-0.004259624
0.0009349966
0.03989322
0.1295397
0.07891085
0.2000035
0.2361621
0.1773527
0.09315258
0.1038561
0.05452375
0.001800199
-0.001700721
-0.0001678573
-0.001353876
0.001189864
0.0003356097
0.003543829
0.001634037
0.0002165309
0.07226107
0.03360695
0.03945675
0.03482232
-0.001927684
0.0609854
-0.0198206
0.02794959
0.06499022
-0.07576968
-0.02390631
-0.01828182
0.05051585
-0.07054006
-0.04314116
0.07230394
-0.01949318
-0.04790717
-0.0670798
0.02019621
0.08213346
-0.03047298
-0.02625272
-0.008755953
-0.04200405
-0.1013293
-0.105768
0.02217773
0.04385415
0.08056686
0.04600568
0.06807858
0.08813266
0.07714477
0.03667836
0.01546866
-0.01896568
0.05784613
0.01243922
0.05096126
0.0428577
0.08621795
-0.01630445
-0.02901261
-0.04228548
0.002019627
0.004171279
0.002437707
0.003693232
-0.001679521
-0.0004097672
0.005647683
0.001065048
0.001859941
-0.03335693
-0.02222098
-0.02186123
0.05279368
0.1742079
0.1507781
-0.03680222
0.1072924
0.1794747
-0.0005652925
-0.001321184
-0.002825688
-0.001548946
-0.0006653311
-0.002013637
-0.001813758
-0.001394027
0.001236712
0.09061422
0.1699263
-0.03603951
0.07984067
-0.008316408
0.1110634
-0.1317344
-0.1015376
-0.05484996
-0.1124677
-0.2495804
-0.07782938
0.02868037
0.03690184
-0.07123521
0.1534934
0.1700877
0.04087381
0.3595606
0.08530676
0.08696302
-0.1898659
0.0842509
0.04310036
0.4177738
0.0733063
0.05710637
-0.03713176
-0.01530898
-0.02201209
-0.1966002
-0.06303952
0.06382494
-0.00415974
-0.06400588
0.04484982
0.0105866
0.1008492
0.003983598
0.03961596
0.09854177
0.06006265
-0.09389729
-0.1102008
-0.06463667
0.001762322
-0.0004681661
-0.002823652
-0.001285996
0.001982348
0.0003565263
0.002303722
-0.001527188
-0.003239998
-0.1212414
-0.120073
0.09485438
0.03635385
0.212061
0.0750651
0.1235737
0.005502581
0.09374147
0.0005577459
-0.0002830452
0.00106677
0.0006394443
0.002814691
-0.002408745
-0.002069381
-0.0008884018
0.004253094
0.05434546
-0.0463201
0.06271965
0.08913492
0.04295613
0.07188728
-0.05669952
0.02551499
0.1372981
0.1262649
0.02786038
-0.0350405
0.09900607
0.2760894
0.08393236
0.08525142
-0.02912948
0.07779379
-0.1229653
-0.01117315
-0.02795663
-0.1090709
0.01569701
-0.002559944
-0.04327838
0.03434697
0.07525422
0.04634509
0.04548892
0.07464589
0.01552505
0.01747485
0.04211623
-0.04087121
0.02056797
-0.07078718
-0.09094219
0.05123745
0.03198118
0.09312351
0.3493033
-0.07976843
0.06424916
-0.1309782
0.04758756
0.0008709378
-0.0003063484
0.0003920232
0.003937216
0.000995923
0.00275597
-0.002816123
0.0004994356
0.001523666
0.04125187
0.0547027
0.1780888
0.1120709
-0.03433081
0.09770827
0.08124658
0.3935565
0.00934387
0.0002926196
0.001138535
0.001129979
-0.002731921
0.001468858
0.001619732
-0.001598893
-0.0009174859
0.0006142813
0.07241365
0.1675582
0.1150333
0.07439179
0.1160247
0.1210008
-0.01276765
-0.05711941
0.003496543
-0.019609
-0.002383212
0.007401188
0.03321927
0.04574412
0.04234799
-0.01726044
-0.0003979184
0.0133515
-0.02558151
0.01816148
0.1506981
-0.04723047
-0.04071642
0.01793598
-0.01975586
0.0483538
0.132361
-0.01663288
0.06003565
0.0790044
0.05247317
0.08180769
0.111989
0.005002956
0.03532053
0.005170911
-0.05767196
0.04621801
0.04317726
0.1036356
0.1859925
0.2037113
-0.03914639
-0.02943975
0.005796344
0.001217278
-0.001290401
-0.001973142
-0.0003127785
0.001522589
7.96743e-05
0.001585001
0.001835406
0.002713821
0.005221238
-0.04676683
-0.01278562
-0.04345711
-0.009090368
0.03284182
0.01095912
-0.04455446
0.006549972
0.0004768147
0.002161428
-0.0002419586
-0.002525947
-0.002749989
-0.003367584
-0.0007895678
-0.001670194
-0.002563211
-0.03297429
-0.05744352
-0.1184522
-0.02409878
-0.02123114
-0.07524549
-0.02861053
-0.02635661
-0.05625208
-0.08226627
-0.08011586
0.071002
-0.02387404
0.03266928
0.192796
-0.1103429
-0.01342442
0.01907163
0.06362879
0.05043477
-0.02180173
0.06835427
0.04921804
0.01718492
0.05052083
-0.02154041
-0.102701
-0.03129413
-0.008912493
-0.005948907
0.08175316
0.09191503
0.08943361
0.007689651
0.01637925
0.001852565
-0.04981661
-0.02501442
-0.02926439
-0.03364917
0.1575977
0.1724809
-0.07359561
0.07422577
0.06738994
-0.0008787782
-0.00100405
1.083967e-05
-0.004370435
-0.0008219242
0.002198989
0.002655063
0.002280335
0.002997024
-0.03681266
-0.08009874
-0.1339775
0.01248828
-0.001097446
-0.06212817
0.07756166
0.08179342
0.04672715
0.00203447
-0.0001639333
0.0005965222
-0.001826044
0.0009351855
0.001433348
0.0003677074
-0.001057414
0.002810327
-0.0635967
-0.02896316
0.02891002
-0.1204597
-0.1307967
0.03471074
-0.1859414
-0.1148917
-0.05593142
0.05283087
0.143411
0.00257224
0.199913
0.2875077
0.1024066
0.06207291
0.1384925
0.030104
-0.1270201
-0.1855839
-0.05562173
0.08001988
0.02831289
0.108118
0.05729626
0.08768899
0.1297757
-0.03809848
-0.04772243
-0.0636504
-0.004610067
-0.01044512
-0.05074583
0.0172949
0.03944564
0.03371718
0.03909399
0.03779384
0.02418543
0.01452305
0.006989972
-0.01534007
0.07903281
0.03088143
-0.01508523
-0.000222964
-0.000768362
-0.0001516049
0.00111209
-0.0002423225
0.002037111
2.44492e-05
0.0004545892
0.002338587
-0.009296239
-0.04275276
0.007257248
-0.0398297
-0.07226669
0.005275912
-0.07177746
-0.04901513
-0.0672699
0.002074559
0.0009747645
0.0001220271
-0.0006282745
-0.0003482843
-0.002184561
-0.000238532
0.002270561
-0.001211319
0.01456531
0.09361801
0.015212
-0.0597669
0.01867905
-0.04645275
-0.07785552
-0.02524867
-0.07902692
0.0239595
-0.1456036
-0.06419582
-0.04161997
-0.2255148
-0.1218842
0.006839589
-0.11485
0.02429536
-0.01649667
0.001457081
-0.08452179
0.02951242
0.0145404
-0.04008467
0.08758046
0.06625858
0.01742581
0.01856244
0.04881823
0.05926078
0.03928234
0.05068378
0.04370619
0.03535631
0.03177297
0.06252575
-0.05799773
-0.07422562
0.03097148
-0.06189749
-0.1694061
0.05485781
-0.02538297
-0.1171059
0.01990855
-0.0001584644
0.000354164
0.0004156826
0.001284863
-0.0004417961
0.000461148
0.001335317
-0.0004555945
-0.002872246
-0.05917175
-0.04526177
0.03792826
-0.01772983
0.1919862
0.08162712
-0.08231679
0.08145136
0.07960172
0.0005644533
-0.0003341777
-0.002747294
0.001741418
-0.003879732
-0.0007011041
0.001199281
0.004032934
-0.001275615
0.147391
0.1734932
0.02470385
0.0231772
0.1656326
-0.04316356
-0.2056035
-0.09670906
-0.06947073
0.03335216
0.01840154
0.07926144
0.03289715
-0.06610392
0.03030268
0.01704551
-0.05602845
-0.04814322
0.194447
0.1289336
-0.06201681
-0.1911233
-0.05397685
0.08323476
-0.01936043
0.01889282
-0.03638436
0.01160018
-0.05470926
-0.09649113
-0.05329201
0.04805343
0.07174487
0.08432598
0.02580815
0.0908503
-0.05752783
-0.02639408
-0.08605523
0.09334078
0.1196154
0.02215727
0.03009172
0.04425752
0.01709877
-0.0004786407
0.002188826
0.0001756977
-0.001094232
-0.001980219
-0.002607002
0.0009196493
-0.0007617678
-0.001426286
-0.1557264
-0.1445394
-0.1051614
0.1747798
0.3751912
0.1212015
0.01319372
0.191615
0.06177219
0.001036491
0.004131036
-0.002897888
-0.0009216105
0.00234074
1.736781e-05
5.719706e-05
0.002306439
0.002171434
0.07010274
0.006066874
0.05496066
0.09478734
-0.02254711
0.02585378
0.08719561
-0.01400338
0.1214283
0.06039959
-0.02635456
-0.03979258
-0.06027213
0.3675528
0.09164581
-0.05264245
-0.1225391
-0.2054963
0.001761679
-0.08056039
-0.1027935
0.06102407
0.1305462
-0.008612537
-0.03016832
0.06173755
0.04823943
-0.05453486
-0.03628876
-0.01983852
0.06853171
0.03961926
0.08435214
-0.01759647
0.02667433
0.02549426
-0.08163712
-0.07265712
0.07951714
0.1574248
0.4031128
0.117029
0.06859255
0.1390828
0.07032599
0.001978283
-0.001650926
0.0005342077
0.003696389
0.004203897
-0.002144387
-0.003093078
-0.0007523938
0.002523638
0.1082853
0.2316335
0.1369211
-0.06223585
-0.02223548
-0.02620775
-0.1005489
0.04336172
-0.03414882
