16 16 3
-0.05088622
-0.07220113
-0.08220381
-0.02088159
-0.01765514
-0.0237811
-0.02991749
0.04199613
-0.02812919
-0.06832217
-0.002442832
0.01283841
-0.001445159
0.04216785
0.01374269
-0.002107426
-0.01853599
-0.07474073
0.03025261
0.1432291
0.09402397
-0.04184914
0.04312859
0.03408949
-0.004380658
-0.0394116
-0.03525038
0.06560978
-0.005922651
0.05022777
0.02950014
-0.05308278
-0.05206583
-0.01177765
-0.07349262
0.01167805
-0.002284496
-0.005445632
0.02125711
-0.03335544
-0.0477673
-0.03332431
-0.0873018
-0.1092429
-0.00407177
-0.07252721
-0.08939794
-0.08090143
-0.05823601
-0.08976474
-0.1017337
-0.01342864
-0.0802792
-0.09267507
-0.1046348
-0.1525235
-0.1444798
-0.1070808
-0.2108451
-0.186266
-0.05882258
-0.1269859
-0.1498165
0.05436699
0.00567794
-0.01701783
-0.06390448
-0.1416986
-0.1054384
-0.0201645
-0.0545136
-0.06849486
-0.0009103818
-0.002110602
-0.000224121
0.0001937304
-0.0009307145
8.961599e-05
0.00120726
-0.0001290341
0.002637744
0.0007002017
0.0004498901
0.003050021
-0.003777992
0.001786713
0.001759557
-0.001089251
-0.002298957
-0.002427623
-0.07163867
-0.06335203
0.04061572
-0.1161395
-0.1076538
-0.04612913
-0.08707183
-0.0716715
0.01819479
0.02626133
0.02028289
0.01381826
-0.03185619
0.01265279
-0.03739987
-0.06244353
0.08589921
0.02148785
-0.01514309
-0.03105075
-0.02402944
-0.005688969
0.001836361
0.055819
0.02560659
0.006853115
0.04154661
0.01918887
-0.002813313
-0.02897099
0.007359241
0.003289195
-0.0290026
-0.02023366
0.01598172
-0.03095119
-0.02854253
0.08590216
0.01306362
-0.07028904
-0.02833969
-0.01803376
-0.02535695
0.04230935
-0.04990626
0.0004833884
-0.0002712261
-0.001146799
0.0004325616
0.0005879992
-0.001784329
0.0008896394
-0.002888304
3.115671e-05
-0.0478721
-0.06217938
-0.01325841
-0.04292616
-0.09226158
-0.04924955
0.01404639
-0.03845197
0.01508409
0.04068577
-0.1284673
-0.01913203
-0.06488996
-0.1474716
0.1121221
0.03489711
-0.1114941
0.1451833
0.0485317
-0.07954896
-0.01044726
0.004323278
-0.08096685
-0.03026873
0.05852332
0.02940584
0.05635564
0.000598974
-0.04947654
-0.06284153
-0.1248291
-0.05570689
-0.06749721
-0.08834335
-0.08380857
-0.045718
-0.006621077
0.03769483
0.06799974
0.01905775
0.0274114
0.01206018
-0.04980474
-0.08317034
-0.07399639
0.0008545879
-0.01122044
-0.008448966
0.03071813
0.005315117
0.00117512
0.03571412
-0.01346893
0.008759841
-0.0160308
-0.0803337
-0.1365336
-0.009317271
-0.05986967
-0.112312
0.008671423
0.01523597
-0.02517824
-0.03376213
-0.04013716
-0.03758819
-0.122434
-0.09440964
-0.04025515
-0.09715149
-0.03137104
-0.01006441
0.002881848
0.004216809
0.0003921273
0.001131993
-0.0006965798
0.0006107641
0.004317893
0.002185693
0.001744789
-0.0002395988
-0.00317001
0.00112682
3.474964e-05
0.001476234
0.001144947
0.002333572
-0.002532116
0.000129497
-0.08986653
-0.04702201
-0.06108714
-0.08366406
-0.07625605
-0.0476237
0.05962155
0.04484461
0.02841906
0.1165987
-0.07853746
0.04837139
0.05424093
-0.1419187
-0.04938263
0.1322629
-0.09303088
0.04843896
-0.009782626
0.02152011
0.03554774
0.02077294
0.01258129
0.02616871
0.02927349
0.0224483
0.03538737
0.05470277
0.07535808
0.09507081
-0.06550134
-0.09286503
-0.0513082
-0.08041865
-0.1195698
-0.08460978
-0.033194
-0.0240632
-0.06760892
-0.1717895
0.009589303
-0.01711535
-0.0520056
0.0957319
0.09939396
-0.002091662
0.001440414
-0.00249402
-0.001060057
-0.0003625277
0.0006061685
-0.00214675
-0.0007103495
0.001148476
-0.09153648
-0.07243435
-0.01684863
-0.08920737
-0.109015
-0.0956563
-0.1909894
-0.1813699
-0.08776335
0.05647579
0.01086261
-0.02695503
-0.04421317
0.01161149
0.01772547
-0.003414541
0.04948806
0.04584236
0.1620109
0.1362884
0.06671996
0.06334275
0.06871292
0.1030131
0.02174783
0.01667811
0.02966793
-0.08612682
-0.04552945
-0.1964004
-0.1486498
-0.03662775
-0.07827965
-0.111584
-0.1839277
-0.1034141
0.01841474
0.02496986
0.06663229
0.101521
0.0947476
0.08439754
0.03511485
0.009787809
0.04054432
0.06754888
0.08328228
0.02869089
0.08883923
0.07999745
0.0645218
0.05239003
0.05733484
-0.05106287
0.09868002
0.089775
0.09958657
0.09685142
0.09153754
0.09717564
0.04765493
0.04649012
0.02442963
-0.0908553
-0.03684764
-0.002288495
-0.02110908
0.004828865
-0.03048356
-0.01691439
-0.04136545
-0.05460268
0.0008909621
0.0006781544
3.886635e-05
-0.0007455844
0.0001057564
-0.001419257
-0.002143282
-0.0006808139
0.003080465
0.0004504005
0.003365637
0.0005563345
-0.0002763888
0.0005390156
0.0006798175
0.0009267465
-0.0005616056
-0.0003401037
-0.007076009
-0.0192872
-0.07025167
0.0864289
0.0517343
0.00368767
0.04365167
0.05894279
0.03426797
0.03492187
0.1277153
0.0399573
-0.04989997
-0.05722116
-0.0706806
-0.03671912
-0.03485126
0.01675472
0.0980923
0.0887654
0.1177043
0.083648
0.07449611
0.08842102
0.01337836
0.03355674
0.038445
-0.00143208
-0.03000378
-0.01409324
0.04811191
0.05193648
0.05048073
0.07633855
0.1134607
0.1395063
0.07806681
-0.08463804
-0.02746492
-0.07332151
-0.07914881
0.06602301
-0.005420212
0.03684534
0.1118251
-0.002487836
0.0001387322
0.001655908
-9.503178e-05
-0.0008297852
0.002393932
0.001182109
-0.0007117196
0.001871673
0.1034154
0.03744585
0.01072173
-0.003829981
-0.0428761
-0.001483696
-0.05859112
0.07502704
0.02326987
-0.08740562
-0.1146853
-0.1263149
-0.0175107
0.1489877
0.1649019
0.06736912
0.08883046
0.05970633
-0.04966395
-0.1677893
-0.08751766
0.01062611
-0.04497523
-0.04079648
0.0127573
0.02905205
-0.002209119
0.03288684
-0.005426024
-0.005497261
-0.003094052
0.09511796
-0.004039695
0.006814033
0.03959306
0.02770206
0.01718774
0.03042154
0.03525764
0.001742583
0.01602958
-0.01520726
-0.0916788
-0.03829724
0.0558323
0.02506892
0.04657638
0.005061508
-0.04973589
-0.00913414
-0.04823127
-0.07511529
-0.06360455
-0.07956103
-0.004965065
-0.04857969
-0.0437118
0.04370132
0.01475262
-0.0353925
0.1214952
0.1215562
0.09352106
-0.01247595
0.02412814
-0.02560522
0.0348535
0.04015738
-0.03433644
0.03180298
0.0843216
0.03969073
-0.002005574
0.003214115
0.0008749305
-2.154407e-05
-0.0004501721
0.002487274
-0.0005606472
0.0003887096
-0.001155106
0.0006307459
0.003237626
-0.001148668
-0.001336567
0.001214194
0.002008193
0.0001415752
-0.0001652794
-0.002362321
0.1160693
0.1281477
-0.02337174
0.08910832
0.1531053
0.009978754
0.02050501
0.06689522
-0.08901816
0.05816383
-0.05384155
0.03710679
-0.04463173
-0.1355161
0.04041758
0.008793354
0.001407009
0.09085964
-0.05259703
-0.008855871
-0.02638777
-0.1111729
-0.0953646
-0.07142974
-0.04074001
-0.008481803
0.00265502
0.0319798
0.05463276
0.02787786
0.03351803
0.02727026
-0.0055485
0.03846339
-0.004148541
-0.02848474
0.01303112
-0.1261159
-0.08479723
0.09791946
0.105117
0.0720119
0.09398057
-0.0200859
0.04142291
0.001364762
-0.000605958
0.0002685877
0.004656492
-0.001243466
0.0007138982
-0.001735815
-0.0009705637
0.002921772
0.1076473
-0.1200837
0.1470597
-0.1380672
0.03889213
0.08211487
-0.1227777
-0.06183155
-0.06725596
-0.0433647
-0.005937488
0.06513333
-0.05087588
0.1234069
-0.02975816
0.01040265
-0.2489677
0.09451831
-0.01733661
-0.06220327
-0.05618334
-0.06158276
-0.04646258
-0.07073644
-0.1349633
-0.1523079
-0.1483922
-0.147931
-0.2260212
-0.02218446
-0.1549439
-0.1304103
-0.2010012
-0.1821499
-0.1011903
-0.02351649
-0.1284711
0.0201279
-0.01869922
0.0844651
-0.09060078
0.1107953
-0.09459493
0.1287946
-0.02078169
-0.06652962
-0.01119729
-0.05433568
-0.03006846
-0.06184494
-0.07088719
-0.04070123
-0.03322889
-0.06534883
-0.04187199
-0.08019205
-0.01245193
-0.06609685
-0.1357536
-0.02583886
-0.02668175
-0.06212793
-0.008604342
0.1774236
0.1540286
0.05430491
0.05339289
-0.07620683
0.05648423
0.03547819
0.09374915
0.09970316
-0.0003262956
0.002253958
-0.001946833
0.001443164
0.0006678273
0.002338607
-0.0002934628
-0.004219909
0.001765371
-0.001169102
-0.0003274245
-0.000593895
0.001000862
0.001809295
0.0007179519
-0.0001078702
-3.797812e-05
0.001386611
0.02328194
-0.05201047
0.01469753
0.0287115
0.05017087
-0.08178664
-0.03138668
-0.07239064
-0.0256641
0.1373791
-0.1902284
0.03860407
0.1111726
-0.3442397
0.234888
0.07176717
-0.05638113
0.006204821
-0.0988362
-0.1032612
-0.1282222
-0.03356229
0.003865151
-0.01281495
0.04355731
0.08125597
0.08080132
-0.04667249
-0.04313315
-0.04428865
-0.06151756
-0.1290674
-0.1769725
0.1411571
0.02725631
-0.07248043
-0.03650124
-0.2452991
0.08822568
0.0264286
0.2124049
-0.1226678
0.04214825
-0.2131532
0.1171075
8.527747e-05
-0.0003990355
-0.000184482
-0.0005579249
0.002103925
-0.0002887651
-0.0008047115
-0.0001559236
1.783777e-05
0.02978799
-0.006380127
-0.06859405
-0.04460908
-0.06673051
-0.07979543
0.009096475
-0.002312452
0.009017131
0.004282619
-0.04486952
-0.06193688
0.0145957
0.01922487
0.05822837
0.01667387
0.01537287
0.002640713
0.01465986
-0.003390382
-0.01531141
-0.04373279
-0.0374855
-0.02739638
-0.0981084
-0.07116568
-0.07256941
-0.02060609
0.003440602
0.02026637
-0.03844037
-0.02678476
-0.008217055
-0.06924675
-0.04907387
-0.05066351
0.006506423
0.00941199
0.001710053
0.05561382
0.03895869
-0.01163496
0.02895349
0.04391984
0.03953718
0.001114946
0.00121825
-0.003378405
0.007911095
0.004445413
-0.01515151
0.02153593
-0.007505466
-0.02371582
-0.03797484
-0.01592201
-0.04481677
-0.04475205
-0.009064004
-0.01526985
-0.01996257
-0.0006459135
-0.0004452567
0.07327255
0.0500484
0.07101621
0.03378188
0.02064169
0.0352431
-0.01374824
-0.06582556
-0.07375904
-0.000549513
-0.001996022
-0.005936658
-0.0009431115
0.002111701
-0.0004884602
-0.0008507235
-0.001800022
0.002376712
0.001420479
-0.003207176
-0.001283039
0.001603898
-0.002180615
-0.001344467
-0.002554118
-0.00123567
0.0003933571
0.01295344
0.02681378
-0.007553895
-0.01504364
-0.04980523
-0.04842582
-0.03615626
-0.06375086
-0.06877875
0.02323606
-0.007685662
-0.00163045
0.03811418
-0.007119714
0.03036395
-0.01392472
-0.01437271
0.04352696
-0.010542
-0.01044957
-0.01308974
-0.0312872
-0.01818657
-0.01475146
0.009551203
0.01256254
0.008012621
0.002132358
0.03587328
0.04265434
0.00483922
0.0382259
0.04052825
0.02842356
0.05368707
0.0512272
0.02889636
-0.03001182
-0.05523809
0.06977186
0.0338352
0.0507839
0.08377914
0.03593377
-0.08851142
0.001088141
0.001130002
-0.001805876
-0.0003888888
-0.001267662
0.001575001
0.0001833078
-0.000731115
0.003186879
-0.005112092
-0.1579467
-0.07659623
-0.07839415
-0.003141278
-0.02114961
-0.0155541
-0.07808637
-0.08857422
-0.04202366
-0.002340761
0.07242533
0.04786643
-0.008236978
-0.1792766
-0.05470916
0.001296175
0.07198691
-0.1392649
-0.1025055
0.04795367
-0.1263072
-0.06166236
-0.04753063
-0.009338377
0.01313352
0.04780439
-0.1532909
-0.09553625
0.06242147
0.03040459
0.08320756
-0.007782216
0.002593898
0.07782637
0.02879342
0.02691767
0.04097659
-0.1205898
-0.03318187
0.00904039
-0.02416576
-0.09778078
-0.07345339
-0.1609587
0.01819261
-0.02316176
-0.008627549
-0.01713914
-0.01421024
-0.007786771
-0.03156499
-0.03470344
0.003998814
0.03938243
-0.001956693
-0.06059188
0.02722461
0.02629038
-0.07449708
0.09038153
0.0496401
-0.07991182
0.1407551
0.01475552
0.008696562
0.03138179
0.01139797
0.05190175
0.1302692
0.1180674
0.13845
-0.001240596
-0.001017019
0.001038747
-0.001907885
-0.001385312
-0.002144558
0.0005789124
7.962273e-05
-0.0008181677
-0.001141907
0.0007141763
0.0008814503
-0.003287936
0.0006942647
0.0004666271
-0.000230721
-0.00216426
-0.00131469
-0.001116382
0.03983631
0.02612902
0.1591766
0.04546683
0.1527114
0.1839268
0.1032576
0.02277427
-0.05299766
-0.116293
0.08577012
0.01393837
-0.08507252
0.1007581
0.06089381
-0.08731463
-0.001333229
-0.02407163
-0.02113933
-0.01194693
-0.01308918
0.0005664332
0.01582461
-0.0004644995
-0.02998462
-0.04560722
-0.01177864
-0.01313561
-0.02847541
-0.02816208
-0.1198485
-0.1027057
-0.06005107
-0.1175884
-0.08114334
-0.1348695
0.03625962
0.1745116
0.05208113
0.04563136
-0.2051605
-0.06081448
0.01213457
0.02576268
0.0008081179
0.002221472
-0.0005523601
0.001124659
0.0008439724
0.0003042665
-0.002339242
-0.001818956
0.001889027
-0.001605382
0.01794529
0.01412534
0.02279916
-0.0554629
0.0503835
-0.0769854
-0.028202
0.03892218
-0.06543305
0.006116201
0.01921241
0.01315515
0.04276005
-0.06095015
0.02785148
0.1239912
0.01509433
0.004748453
0.009547359
0.01124277
0.005661002
-0.01616984
0.0036121
-0.01571209
-0.01960448
0.002666372
-0.02243684
0.003967899
0.04982952
0.02293453
-0.01064544
-0.005306583
0.0004879137
0.04257466
0.01023575
0.05132468
0.04756571
0.03463783
0.008868913
0.04012983
-0.00385954
0.03622697
0.03400022
0.0527289
0.04844484
0.04434279
0.02001815
0.02944796
0.039122
0.01007531
0.01858111
0.02630504
-0.003053037
-0.005898567
0.02307102
0.03013107
-0.03039934
-0.02518506
-0.03520037
0.01552357
0.02675729
0.02115322
0.0456416
0.07364336
-0.001553493
0.05074364
0.06226118
-0.04048298
0.03970902
-0.08212528
-0.08470925
0.001215663
-0.0006075804
-0.003599516
0.00135956
-0.001049928
-0.002636869
0.0009895085
0.003054301
0.0001349755
0.000701245
0.002980946
0.0012547
-0.001195404
0.001894833
-0.0009457755
-0.001764908
-0.0001357766
-0.001747707
-0.0395734
-0.04523014
-0.01166162
-0.05223789
-0.03932394
-0.04723326
-0.03073339
-0.02347178
-0.03374865
0.01335767
-0.02221106
-0.02789699
0.01927126
-0.05356156
0.01492703
0.0675187
-0.005453913
0.1036077
-0.01174396
-0.007748815
-0.00569071
-0.01799326
-0.02149442
-0.005284489
0.006106185
0.01426945
0.02631717
0.02482904
0.003765277
0.01899324
0.002520831
-0.002906298
0.01186651
-0.03812119
-0.03388652
-0.003814937
-0.1135943
-0.05528585
0.05321804
0.01625391
-0.07120191
-0.06936235
0.08894873
0.08176266
0.0907857
-9.142527e-05
-0.0003177944
0.0008652131
0.001354896
-0.001768833
0.000726713
-0.002009585
0.001051891
0.001605826
0.05728914
0.0365588
-0.016876
-0.004539422
-0.02865246
0.0142649
0.02600221
0.06608856
0.06553049
0.009855751
-0.07463456
-0.05954062
0.02175897
-0.03693239
-0.00420636
0.07249105
0.03042287
0.03916774
-0.00996666
-0.02925999
-0.05850188
0.04882712
-0.03027936
-0.02238622
0.09169175
0.0214202
-0.02509004
-0.09464265
-0.1087076
-0.1084656
-0.03356847
-0.1745766
-0.1247358
0.04402209
-0.1374276
-0.1965031
-0.02294026
-0.003030083
-0.03343498
0.02241987
-0.08047703
-0.09484701
-0.005611889
-0.04975937
-0.03958227
-0.01908425
-0.0611158
-0.02588273
0.01444552
-0.05383501
-0.01996556
-0.003870966
-0.04730543
-0.02329949
0.03982823
-0.01880988
-0.07820202
0.06563073
0.0118531
-0.0355402
0.06384384
0.01656743
-0.03740173
0.02634566
0.01499542
-0.008881913
0.03463888
0.01215768
-0.05802223
0.08862885
0.08427194
-0.02314228
-0.0008653852
0.002471185
-0.001703507
-8.18311e-05
0.001461888
-0.002609037
-0.003101774
0.002405604
0.0002688752
0.001878543
-0.00083679
-0.0006481262
0.000862847
0.0008977696
-0.002738135
-0.00108189
-6.647552e-05
-0.001262538
-0.03988707
-0.07394814
-0.01316029
0.02245563
-0.07790839
-0.01826593
-0.0206049
-0.02590654
-0.03015824
0.07625706
0.08486917
0.02267138
-0.08880401
-0.02647383
-0.06777103
-0.01674659
0.07858603
0.0998975
-0.03291334
0.005004781
0.07928514
-0.03516004
-0.02762939
0.04132975
-0.01503514
0.01796989
0.08683336
-0.01404449
-0.04420315
-0.01556229
-0.02706705
-0.02709722
-0.00900377
0.002865962
0.009211564
0.04653799
-0.0467946
-0.03130921
-0.06696378
-0.036986
-0.05109213
-0.03396418
0.04323415
0.08519492
-0.0354025
0.001375912
0.001778494
-0.0009680977
0.005459632
0.00237842
-0.005658893
0.0007982677
0.00212462
-0.0001877809
-0.008820185
-0.001511959
0.06445114
-0.02236646
0.08432402
0.02660165
0.05450268
0.001486822
-0.02388407
-0.03976754
0.02671486
0.006325145
0.04825705
0.03441574
-0.01502476
-0.04378289
-0.06280303
0.03659359
0.02402519
0.02664594
0.0390746
0.02995934
0.06333091
0.03848903
-0.01560191
0.007328791
0.006845989
0.0249575
-0.03598928
-0.000241534
-0.02115648
0.08565132
-0.03883606
-0.05062906
-0.03404243
0.04408341
0.08587043
0.05000249
0.02240769
-0.02628706
-0.001163265
0.06057804
0.02749853
0.07542392
0.04546181
0.0331688
-0.006959153
-0.01333249
-0.01349669
-0.01152693
-0.04136036
-0.0351732
-0.03784044
-0.03309164
0.02333567
0.01728688
0.02633601
0.009670759
0.0498172
0.03407472
-0.008808775
0.007100074
0.03318616
0.02864729
0.03203122
-0.02240689
0.02047573
0.0009133887
0.01143206
0.01047961
0.0516849
-0.01133181
0.005976156
-0.0005471191
-0.0001520304
0.001393453
0.001054409
0.001014433
0.002596495
0.002094873
9.296008e-05
-0.0006374054
0.0004607243
-0.0005994773
0.001022679
0.0002561394
0.0003528263
0.002099763
0.002167432
0.0007756304
0.05848733
0.02248067
-0.02570163
-0.03427626
0.01117896
-0.00395421
0.009205922
-0.04023012
-0.03271999
-0.02860843
-0.04186945
0.009139241
0.007800635
0.00619486
0.06786385
-0.02193833
-0.03907385
-0.06436284
0.0100139
0.001448687
-0.0116663
0.007378882
-0.008131543
0.00601341
-0.01602165
-0.02630446
-0.02499818
-0.001059189
-0.003646911
0.008537937
0.005618931
0.007633051
0.01306911
-0.03171991
-0.009555497
-0.0008084636
-0.0686409
-0.01013819
0.03199022
0.058007
0.1628779
-0.06334873
-0.04799105
-0.09141646
0.03020808
-0.0002881422
0.0005086721
-0.001546663
0.000826568
0.0005005646
-0.001147275
-0.0006656643
-0.001450618
0.001142834
0.07487506
-0.04775584
-0.123068
-0.05976038
-0.1032986
-0.1303216
0.004128719
-0.1213293
-0.09461264
-0.1070674
0.02411191
0.04151493
-0.09301748
0.04590799
0.05602263
-0.05200257
0.1021845
0.04833437
-0.008508161
-0.00323666
-0.02660845
-0.02058773
0.01911789
-0.01386732
-0.08613198
0.009374756
-0.006039558
0.04085986
0.2463752
0.1109822
0.1804509
0.181133
0.1010296
0.04674482
0.2296918
0.1624845
0.01343261
-0.02378694
-0.01660576
0.1280231
-0.02390169
-0.03953492
0.0362433
-0.1114928
-0.1504553
-0.06474323
-0.0003022718
0.04932259
0.06085371
0.1199369
0.1308755
-0.02747355
0.05351027
0.05842174
0.02232932
0.01342538
0.0526008
0.07870732
0.04365053
0.02041365
0.07436576
0.04170026
0.02610019
-0.1129681
-0.1620317
-0.09233602
-0.009682145
-0.1751451
-0.1476672
-0.1128569
-0.1139596
-0.1515168
0.001122692
0.0009406297
0.001379604
-0.005040078
6.186959e-05
0.0004972945
-0.0003674031
0.0008669415
0.002945744
0.002235448
0.0009061297
0.001867095
-0.0005505622
0.000318494
0.001450759
0.0003687111
0.0001821493
0.00330453
0.1060172
0.1627681
0.1113739
-0.06799502
0.1000879
0.121909
-0.04081409
0.0789774
0.1102738
-0.004218759
-0.02995631
-0.03700786
0.03221481
-0.0748907
-0.01092698
0.04209821
0.01544039
0.01863602
0.06729218
-0.007508558
0.008119186
-0.008833006
-0.08531444
-0.06832968
0.01464229
-0.06363325
-0.06188626
0.1299162
0.1303931
0.07170955
0.01326951
-0.01274556
-0.0363887
-0.0560194
-0.07270664
-0.08961129
-0.08136899
0.02339967
0.02903247
-0.06392515
-0.05149811
0.02370813
0.08880225
0.03517474
0.0387827
-0.002405572
-0.001977541
0.0008469142
0.0002159697
0.0004161261
0.0008409729
0.001087929
0.004304186
0.000361676
0.02211082
-0.03999475
0.006177384
0.03160811
-0.01188409
0.02539826
-0.02365112
-0.07641064
0.03645021
0.05058268
0.03583687
0.0137073
0.0111898
-0.00580541
-0.07188557
-0.07904934
-0.06388309
-0.07714057
0.0726091
0.08235472
0.04481442
0.05834783
0.05386329
0.04688055
-0.0277361
-0.03054611
-0.01535654
-0.0124825
0.03031599
0.01782037
-0.03257716
0.0356078
0.0255005
-0.116063
-0.06932584
-0.008669971
-0.06077442
-0.04319473
-0.04494827
-0.0353862
-0.0123039
0.004378191
0.03702555
-0.01019766
-0.02742805
-0.005831749
-0.01496347
-0.007341533
0.002914465
-0.0006372519
0.008933054
0.03239287
0.02655414
0.02047495
0.05159698
0.05099218
0.04182453
-0.01053814
0.003142245
-0.01962194
-0.05665668
-0.04385241
-0.04556971
-0.01680184
0.01499903
0.05764968
-0.008195157
0.04570222
0.07990057
0.008870382
0.009251423
-0.001095785
0.002306655
0.001557911
7.224698e-05
0.001346871
0.0003511442
-0.0002712889
0.001125575
-0.0009114654
-0.002441756
0.001869867
-0.001015624
-0.001801205
-0.001055549
-0.0002778138
0.003030684
-0.001213644
0.001295434
0.00162717
0.01402868
-0.002176848
0.02631287
-0.04170747
-0.02318962
-0.01875198
-0.05117904
-0.09143354
-0.08763938
-0.006822605
0.0104714
-0.06385773
0.08536592
0.004945515
-0.001524005
0.01472841
0.001155125
0.02063151
-0.001849437
0.001805575
-0.006170131
0.01920572
0.02691085
0.0220095
-0.00137955
0.002142062
0.002942507
-0.003019945
-0.01420982
-0.004359035
0.07703768
0.08426815
0.06717351
0.06781595
0.1129183
0.08185026
0.06215137
0.0423884
-0.03693223
0.07352187
0.0477833
-0.1155517
-0.1312206
-0.08288828
-0.08966288
-0.00279892
0.001250909
0.0003932371
0.0003833539
0.002119469
0.003044031
0.0003855414
0.002066293
-0.0006449383
0.1136198
0.1398708
0.1374341
0.05666617
0.2720655
0.2236985
0.1262165
0.2716166
0.02221216
-0.2151306
0.1919645
-0.01569686
0.09516655
0.1570829
0.07490085
0.04250134
-0.301268
0.004084072
-0.07195874
-0.03153346
0.03239001
-0.04269971
0.0941697
0.09267009
-0.0259707
0.1618169
0.03708489
0.09453331
-0.003008624
-0.06950173
-0.01646009
0.01807552
-0.01689257
0.08741103
-0.08523598
-0.03829811
0.04159794
0.0004264176
0.0944524
-0.007541406
-0.01864839
0.08410083
0.02324937
0.2652698
0.1506447
0.04248161
0.09622687
0.09339174
-0.08459923
0.04506163
-0.01107762
0.07483183
0.008071684
0.1508251
-0.06316886
-0.1177017
-0.1341404
-0.07489143
0.05291816
0.001613852
0.05077908
0.1053694
0.1038573
0.1147349
0.09769812
0.05962849
0.2106886
0.1070384
0.08485658
-0.007090796
0.136758
0.1264429
0.0003995865
-0.002193022
6.13511e-05
0.00229633
3.326491e-05
0.002089944
0.001673904
0.0007562524
7.592376e-05
0.002493857
-0.0003273134
-0.004726649
-0.0003425789
0.001980381
-0.0003232181
-0.001929658
0.002424862
0.000799252
0.08188393
0.03622885
-0.02869104
-0.1203779
-0.09139088
-0.0868362
-0.02253193
-0.1953516
-0.049395
-0.01334238
-0.3243813
-0.08635302
0.1053143
0.1242417
0.2439185
-0.2163191
0.2301379
-0.1502084
0.09381083
0.06105093
0.01153527
0.09368367
0.0217209
-0.05974143
-0.06873882
-0.1051827
-0.1057259
0.08803213
0.0979913
0.1481019
0.007515133
0.03463621
0.1013264
-0.1670791
-0.1445832
-0.04849125
0.01823793
-0.260276
-0.01116006
0.1021576
0.274127
0.2315544
0.2998013
-0.8432428
0.3311989
-0.0009652685
0.0009747724
0.001227763
-0.003474195
-0.002386564
-0.003665606
-0.0004582462
-0.001114964
-0.002099235
-0.0406723
0.003245931
0.02687278
-0.01457499
-0.03945757
0.006902741
0.0484845
0.01828194
-0.03800033
-0.0578639
-0.1357454
-0.07944968
0.08792579
0.1274022
0.09176783
0.005630366
-0.09399649
-0.05402281
-0.04322604
-0.08353136
-0.05314638
-0.01998949
-0.05360239
-0.02268699
0.01001773
-0.03016518
-0.00608945
0.005616433
-0.07914165
-0.01623261
0.02782217
0.03081819
0.01507013
-0.008216644
-0.1098053
-0.05830919
-0.01176269
-0.02216113
-0.06004352
-0.1389939
-0.1697778
-0.1570159
-0.0930305
-0.1026388
-0.08549941
0.007862389
0.03135803
0.01992378
0.03353132
0.03669156
0.04581649
-0.06784757
-0.04609639
0.0005478071
-0.01436753
-0.04731649
-0.08377412
0.0008523129
-0.02603667
-0.02320556
0.06031696
-0.02257968
-0.012958
-0.03164371
-0.06599169
-0.06102714
-0.09870991
-0.08378424
-0.08827838
-0.0236453
0.005013297
0.06348588
0.00242706
0.0004126592
0.0001066221
-0.001055218
-0.00264599
0.001396132
-0.0007431919
0.002458492
-0.00128019
-0.005435452
-0.0006164251
0.0008195959
0.001154652
-0.001066051
-0.0009314229
0.002183932
-0.002725358
-0.0008747691
0.00321785
0.03092291
0.008192586
-0.04739122
-0.05331622
-0.03248419
0.003941359
0.0486273
0.0507526
0.003227979
-0.04128576
0.009648447
0.00876051
-0.005980021
0.04071609
0.03849534
-0.02124959
-0.0918931
-0.03516929
-0.04398506
-0.02282136
-0.03332095
-0.06086448
-0.0342111
-0.04049413
-0.0643793
-0.0655712
-0.0118397
-0.05313669
-0.04963512
0.04570201
-0.02262951
-0.03819473
-0.007517013
-0.08268449
-0.07912221
-0.07931678
-0.09938132
-0.008170747
0.09501527
0.1642101
0.1343581
-0.07647322
-0.1712738
-0.03970377
-0.003318703
0.001781396
-0.001160414
0.0004767517
0.002806464
0.000979148
0.0017826
0.001303471
-0.0009163115
-0.008262098
-0.002185037
-0.0001189982
-0.07144849
0.0518626
-0.02920064
0.0889448
-0.04759924
0.03986854
0.03341736
0.07050133
0.02229865
0.02857221
-0.1429733
0.09259366
-0.01325447
0.08702119
0.0453072
0.003058666
0.03765623
-0.07372864
-0.01996712
0.04961377
-0.003252571
0.008498036
0.0291677
0.07387047
0.01423313
0.03474525
0.0691402
0.222876
-0.05521848
0.1091801
0.1628159
0.1071793
0.06384243
0.03452058
-0.04911392
0.03153604
0.07503979
0.0388574
0.0256649
0.07301981
0.03438915
0.03696633
-0.0007153509
-0.05727085
-0.02016091
0.02282521
-0.07117046
-0.05871578
-0.006176441
-0.04949419
-0.03750869
0.04744804
0.019723
-0.07172587
0.08937109
0.06865801
0.01539364
0.03440258
0.09971476
0.09114016
-0.09192976
-0.1449383
-0.03437739
-0.09311941
-0.1029739
-0.04825082
-0.002594117
-0.02346119
-0.06572003
0.002391663
-0.0003666779
-0.001901722
0.0006585339
0.002651143
-0.0009658298
-0.001662743
-0.0001876636
-0.001026525
-0.0009450716
-0.002052742
0.002244468
-0.001215005
-0.003421349
-0.001309061
-0.002968678
0.001839709
-0.00218459
0.06303534
-0.003432909
0.02032453
0.07942657
-0.03365648
0.06049862
0.1010598
0.1113528
0.06692276
0.03598179
0.1727522
0.009258401
-0.1539723
0.1594569
-0.1516018
-0.01803178
0.05949686
-0.06494549
0.05704143
-0.006700241
-0.02246845
0.07403047
0.03828258
0.02878293
-0.02580319
-0.04267278
-0.05481683
0.06246223
0.03773642
0.02507179
-0.05541014
-0.06033855
-0.03509305
-0.05349493
-0.07632296
-0.05793286
0.009369085
0.08628668
0.003734329
0.04443649
-0.1999969
0.1346572
0.06887819
-0.01260747
-0.01475171
0.003515904
0.00155268
0.00104145
0.001742504
-0.00454947
0.0009600323
0.0001157297
-0.0006769469
0.002269563
0.01833781
-0.02375561
-0.03243951
-0.05900358
-0.04558029
-0.008724736
-0.01234409
-0.04146514
-0.08760699
-0.04398109
-0.07634147
-0.08116281
-0.01861991
0.1153671
0.1053078
-0.08514777
-0.05194965
0.02149251
-0.04405526
-0.0470304
-0.06404023
0.0242221
0.03256933
0.0351123
0.004010485
0.03558413
0.005469198
0.1219085
-0.036071
-0.07772498
0.1290015
0.2873263
0.1118646
-0.2109257
-0.03148381
0.04020801
0.04390997
0.003413921
0.03537021
-0.07753696
-0.1129717
-0.09553137
0.01275927
-0.02162828
-0.06893867
0.007866787
-0.003194974
0.0139048
-0.06699113
0.03917482
0.02199848
-0.06948531
-0.05192321
-0.0461151
-0.04797921
-0.03046358
-0.008404856
-0.02362129
0.04002026
0.03023405
-0.102365
-0.06746984
-0.06151493
-0.02449904
0.01338971
0.08392719
0.00900712
0.0208643
-0.05226359
-0.06345376
-0.1054347
-0.05403541
0.002412095
-0.001450624
-0.0009630318
-0.0003248334
7.57575e-05
-0.003676071
-0.004313465
0.0004637364
-0.001727138
0.0001372978
0.004009211
-0.002294702
-0.001087246
-0.001289689
-0.003198674
-0.0006283256
-0.002672763
0.002297548
0.1467798
0.08463793
-0.09735801
0.03509457
0.1894154
-0.06160863
0.06606726
0.01384914
-0.05164256
-0.05712804
-0.05929198
0.004560949
0.06260911
-0.1412946
-0.001715202
0.04463799
0.05149318
0.06916693
-0.02717739
0.01443998
0.06150132
-0.06713375
-0.03243477
-0.00150191
0.04675422
0.03749365
0.03478034
0.07620212
0.1073765
0.07991357
-0.0146813
0.0109666
-0.01173162
-0.03879391
-0.02435197
-0.01280101
0.07353418
-0.2673743
-0.07493401
0.1427326
0.1910189
0.01996055
-0.1425434
-0.1568408
0.1581901
0.001873783
-0.001430537
0.001058694
0.001090566
0.002221362
0.002102744
-0.002108115
0.001341366
0.001904158
