16 16 3
-0.02718178
-0.02874753
-0.02969824
-0.03020669
-0.04861195
-0.03473803
-0.1076756
-0.09540044
-0.02958719
0.1033376
-0.02696629
-0.0125202
0.07109506
-0.00650939
0.03725298
0.06777976
0.05486961
0.0361321
0.0609182
0.01340941
0.0205719
0.05695042
0.0113751
-0.001486283
0.01541647
0.02798177
-0.00145743
0.007791026
0.001567758
-0.03945904
-0.02988382
0.00131493
-0.01662006
-0.1101821
-0.04617587
0.01088197
0.03294032
0.02478705
-0.04513407
0.1242872
0.02079241
0.03756249
-0.01175716
-0.07318839
0.09038069
0.01496135
0.002007098
-0.02293012
0.02384517
-0.04353586
-0.03133351
-0.02849292
-0.05352193
-0.005576663
0.1697392
0.185453
-0.02233054
0.1311101
-0.004498542
-0.03803419
0.1802917
-0.1437121
-0.04418736
-0.08316042
-0.1426474
-0.138674
-0.1325935
-0.0254816
-0.01643647
-0.1388341
0.02778834
0.06160936
-0.06750707
-0.03161056
0.07385119
-0.0653917
0.01213012
0.08170005
0.08086702
0.1248615
0.09568817
-0.05581087
-0.09896304
-0.0228795
-0.1389888
-0.05373364
0.03590287
-0.0571192
0.1085193
0.1645823
0.05368276
0.02517805
-0.006854992
0.0640998
0.002653593
-0.0204783
0.1238198
0.03407602
-0.04955808
-0.1044779
-0.03884698
0.003805264
-0.05735463
-0.002279894
0.04254928
-0.008629238
0.01961439
0.05328126
0.06993846
0.08137941
-0.01834142
0.04928023
0.02749412
-0.09838328
-0.05903271
0.109357
-0.09211287
0.014681
0.02903195
0.001345213
0.04188177
0.01430624
-0.06078297
-0.02651844
-0.02225808
-0.05155231
-0.04852856
0.07932183
0.122982
-0.01336054
0.05598746
0.01771962
0.08148158
0.155874
-0.08213831
0.1544582
-0.02124784
-0.02511608
0.1035146
0.0299149
-0.08470888
0.04591567
0.09265318
0.06556311
0.041847
-0.001408679
0.0376315
0.04582947
-0.02545417
0.01114047
-0.003146077
-0.06119457
-0.02736257
0.05222795
-0.1501276
-0.1084631
0.02535577
-0.1100546
-0.07312733
-0.05453481
-0.08685379
-0.06106001
0.0757116
0.009300601
0.0123625
0.09730391
0.03329893
0.008155689
0.06032154
0.03659284
0.007490211
0.04676078
0.07967144
-0.1190686
0.139937
0.1898001
-0.01237523
0.007399877
0.09691858
-0.01910376
-0.1449068
-0.02454454
0.06460238
-0.0667915
0.04634204
8.196336e-05
-0.1671381
-0.061299
0.00483171
0.02677765
0.01827275
0.003000315
0.01166616
-0.009076659
-0.06214739
0.008360767
-0.002015002
-0.0401445
-0.2609777
-0.0542618
0.1133083
-0.1749509
0.01599168
0.2202952
-0.2517495
-0.1540848
0.02026878
-0.0736285
0.09778294
-0.1497336
0.00205639
0.1574945
-0.07374139
0.05382595
0.2265874
-0.008136333
0.0008827085
0.03610259
-0.02931344
0.02417756
0.0657645
0.007345486
0.03040039
0.02724656
-0.03763074
-0.03992248
0.106726
0.08483797
-0.02572993
0.04778529
0.01736716
-0.02796926
0.07036224
0.02632607
0.03052111
-0.0206374
-0.03118495
0.0505563
0.02930083
0.02202546
-0.000164938
0.04563056
-0.007439681
0.1262523
0.1152797
0.1593391
0.02255298
0.05675148
0.1099285
0.04057271
0.07229532
0.08473672
0.1153479
0.2013362
0.1332304
-0.05312165
0.111759
0.01138253
-0.008073167
-0.02397192
0.05596365
0.04616717
-0.006297142
-0.02857663
0.1309808
0.0427493
0.1159043
0.07598057
0.01065965
0.01546323
-0.002356119
-0.07102245
-0.04668421
0.07333498
-0.02350591
0.0671441
-0.1006979
-0.1377276
-0.1436087
-0.04389726
0.029378
-0.1388629
-0.08432886
0.1410155
-0.1090725
-0.001965315
0.08919647
-0.1736659
-0.0005528346
0.0001508613
1.179473e-05
0.003204207
-0.002620435
-0.00122383
0.0002570966
-0.0005282551
0.00146342
-0.0009185559
0.00120375
-0.001183694
-0.0004646247
-0.002457342
-0.001299036
-0.001837709
-0.001306664
-0.00338055
0.002553655
0.000742447
0.0001253741
-0.003572125
-0.001214708
-4.59104e-06
-0.002436001
-0.002237633
0.002547333
0.003227442
-0.001907758
0.0009351927
0.001557162
-0.002506457
-4.919756e-05
-0.001249273
0.0004599058
-0.002504357
0.0009268813
-5.428346e-05
0.000658773
0.002898077
-0.001181834
0.003269831
-0.0003722825
0.002753418
-0.0003221473
0.002324766
-0.0006092522
0.002811319
-0.001970772
0.0009366361
-0.002752753
-0.0008789373
-0.0004018995
0.0003398488
0.0012539
0.001889467
-0.00286497
0.001945073
-0.0001963084
-0.0008344684
-0.0007826979
-0.0007252626
0.001167979
0.0005695924
-8.893212e-05
-0.001096573
-0.004197774
0.002721026
-0.001006779
-0.0006281011
0.001933918
0.0003299173
-0.001351635
0.0003614236
-0.0005097336
-0.0009681287
-0.001149576
-0.001036183
0.001562146
-0.0005842744
0.0007119452
-2.545488e-05
-0.0005576831
0.001198105
0.002129431
0.0002526674
0.0008593926
-0.002148518
0.000817137
0.004007154
0.002404564
0.0003534905
0.001363331
-0.0008812524
-0.001121216
-0.0004503409
0.0004309272
0.002960919
0.000358135
0.0008766808
0.0009887
-0.0009396481
-0.003158507
-0.001396377
0.001385577
-0.0005741704
-0.001406999
-0.002042313
-0.002284127
-0.0006085433
0.0007258375
0.002030704
-0.002804919
0.003145114
-0.002028916
0.004093165
0.004410201
-0.002087984
-0.002525857
-0.00140383
-0.002363156
-0.0004397087
-0.0008439604
-0.000512731
0.0004422556
-0.000886763
0.002323756
0.0005076536
0.001701021
0.001174169
-0.003265778
0.0003197383
-0.000494364
0.001178333
-0.000684299
-0.0002718885
0.002050567
-0.001868913
-0.001343683
-0.001674921
-0.002701778
-0.0004710064
0.000798357
0.000807456
0.01655743
0.06228808
0.08468483
-0.02972997
0.007153516
-0.02575193
-0.006459133
0.0007953689
-0.02483098
0.02426288
0.1058131
-0.03854369
-0.01659269
0.1283624
-0.04061993
-0.04430747
0.2209722
0.05275136
0.02147942
0.05806795
-0.004936859
0.04739989
0.07663883
-0.03012123
-0.02827799
-0.0133411
-0.03380282
0.01946682
0.04068792
0.007997709
0.02751449
0.07524185
0.0569522
-0.002842868
0.08511259
0.1191939
0.0954757
0.1257245
-0.1089293
-0.0567895
0.01716285
0.0654012
0.07235889
0.01934658
-0.0651187
0.02307765
0.02739939
-0.006853421
-0.06036374
-0.0413704
-0.05232259
-0.02148911
-0.0534445
-0.02394717
0.09410307
0.1359207
-0.01278735
0.00612703
0.001550011
-0.06282604
0.1028002
0.134056
-0.05585333
-0.07257787
-0.003588321
-0.007099661
0.01190531
-0.02059098
-0.06835706
0.03750544
0.008452553
-0.05896033
-0.03263065
0.001014703
0.04711129
-0.06934649
-0.1233242
-0.03783942
0.01851493
-0.04750165
0.04301256
-0.03638569
-0.05455029
-0.01606775
0.05426995
0.02692017
-0.004719291
0.1157754
0.1443311
0.141467
-0.05316317
0.05594798
0.0141141
-0.01576683
0.0126264
-0.09605365
-0.01253949
0.1270061
-0.01837099
0.01918714
0.03975636
-0.006194844
0.02934503
0.01124537
-0.05657611
-0.000630076
0.002922347
-0.03738778
0.03782579
-0.03423588
-0.156076
0.03287636
0.2659256
0.03557647
-0.1623254
-0.2197867
0.1466953
-0.07566321
-1.27389e-05
-0.03153742
-0.0143685
-0.02211631
-0.03858455
0.02064639
-0.02352429
-0.07792219
-0.002165573
-0.04042326
-0.03352652
0.1095081
-0.0396747
-0.08404479
0.04765641
0.02331537
0.01996465
0.04758763
0.07958745
-0.01424288
-0.03242468
0.1595304
0.2511196
0.02495915
0.003002179
0.05576009
0.008571018
0.01736417
-0.005900724
0.06445787
0.1042791
0.07697073
0.03443792
0.04411699
0.03058947
-0.04026669
-0.03758935
-0.04995169
0.003301338
-0.02023875
-0.06447364
-0.02101105
0.07428409
0.0296384
0.05607379
0.07458767
0.04096368
0.01629838
0.01846166
-0.01384694
-0.01962882
-0.006466478
-0.01677817
0.1495301
0.2057048
0.1126464
0.152231
0.1429146
0.03881456
-0.1387712
-0.1417449
-0.1612127
0.03941186
0.1157803
0.009376655
0.06958479
0.09275424
-0.008899698
-0.01753628
-0.1193221
-0.07046604
-0.01997455
0.01014844
-0.02371456
-0.06424677
-0.0475064
-0.04726243
0.02390237
0.01351711
-0.009000497
-0.08132152
0.03967108
0.119878
-0.06317212
0.04097403
0.1149582
-0.0818852
-0.0637549
-0.04746263
-0.09884608
-0.04270037
-0.06108314
0.03378398
0.05810085
0.02832032
-0.0271836
0.01900347
-0.01076586
0.08987867
0.0929957
0.08126763
0.03342572
0.005115592
-0.00695023
0.02293423
-0.003371149
0.03621135
0.1148787
0.001621642
-0.01123257
0.08392723
-0.02819966
-0.04923064
0.08305661
0.04594998
-0.003361926
-0.02786542
0.001595148
0.006925687
-0.09965525
-0.0702282
-0.0294205
-0.02000389
-0.003702827
-0.01602586
-0.01200667
-0.05221454
-0.04485736
0.004814218
0.008740622
0.001716624
0.1321683
0.1350911
0.09223281
-0.2593668
-0.23008
-0.2179679
-0.08957152
0.1013054
-0.08564113
0.06916755
0.1318029
0.2850485
-0.05214504
-0.0532579
-0.1133282
0.0004761012
0.02226336
-0.04427417
-0.03638753
-0.04749318
-0.07479217
-0.001635414
-0.0498469
-0.008290851
-0.02421091
-0.04512879
-0.02466426
0.02657391
0.01154256
-0.0273532
-0.09367228
-0.02010722
-0.008180133
0.03505928
0.1276623
0.005192619
0.03912067
0.01312543
0.01608668
-0.04805546
-0.07092514
-0.0115428
-0.004705424
-0.05895794
0.01584543
0.03908771
-0.07311061
0.03827118
-0.09745802
0.2720861
0.09025248
-0.08267584
0.1975319
0.08380917
-0.09328781
0.2430343
0.03333398
-0.07188237
0.2330006
-0.01907123
-0.07144257
0.1393616
-0.06362328
-0.0186643
0.2019501
0.05011674
0.1211905
0.1757855
-0.02382666
0.06475598
0.1439804
-0.0216555
0.04770706
0.09932997
-0.102278
0.06059687
-0.03636067
-0.1346977
0.09797328
0.07910807
0.08653566
0.08384647
0.08405828
-0.0972038
-0.04958853
-0.08509656
-0.04149429
-0.02064792
-0.02790469
-0.04565441
0.04323703
0.03164544
-0.02873817
-0.03719108
0.1064282
0.1026947
0.0637667
0.08787435
0.07514404
-0.007474659
0.1748615
-0.02852231
-0.02932299
-0.06793381
-0.02118137
0.04192357
0.01144705
-0.01432207
-0.04871149
-0.07407926
-0.153275
0.08016896
0.1103697
0.1088105
0.06069719
0.05639775
0.04761259
-0.02717143
-0.01840718
-0.02455806
0.06962356
-0.02495953
-0.09785067
0.03235549
-0.0270379
-0.1272942
0.03265959
-0.04473494
-0.1421929
0.05521899
0.3135861
0.02809651
0.05243254
0.331214
-0.00556474
0.09128855
0.3575839
0.01846918
-0.0402502
0.03457446
-0.02194964
0.03768055
0.07110374
0.001735688
0.01209787
0.05243863
0.0332802
-0.1612638
0.1041275
-0.1409847
-0.1078451
0.04494463
-0.02469404
-0.09572988
-0.04621172
0.0575544
0.01463645
0.08052702
0.03628248
-0.03293239
0.03330587
-0.05371498
-0.1105207
-0.04987861
-0.08381026
-0.1766608
0.05308842
-0.05145033
-0.004779418
0.1520714
0.05111794
-0.02280171
0.06939399
0.03703068
0.05987514
0.1670791
0.08844335
-0.02107224
0.02400658
-0.03653543
0.07780431
0.1084313
-0.1555146
0.01203033
0.05203052
-0.04001454
-0.009966622
-0.004849933
0.09276897
-0.05266993
-0.07119786
-0.01625282
-0.01019192
-0.03294526
-0.1724485
0.1915254
0.1640596
-0.09828849
0.004433672
-0.1264863
-0.09676924
0.134686
0.03072993
0.006376022
0.2100566
0.04362527
-0.02562436
0.1850127
0.01544554
0.005643981
-0.205602
-0.01171993
0.09243588
-0.1687801
0.1584368
0.4046757
-0.1437396
-0.03041413
0.1045282
-0.09125895
0.00504437
-0.03305184
-0.03846633
-0.143117
0.2793305
0.06822705
-0.1270221
0.1479505
0.09630655
0.02140862
0.1166832
0.08382635
0.0193411
0.06137544
-0.06958639
-0.05130453
-0.1103071
-0.1274801
-0.3393038
-0.09816194
-0.2501401
-0.4393611
-0.2448555
-0.2387436
-0.2880654
-0.1936091
-0.05494988
-0.1199508
0.03762979
-0.007414808
-0.107081
0.09874996
0.04279681
-0.07698975
0.09934746
0.1107874
0.004886458
0.01882046
0.1672563
0.08735138
0.06937423
0.0977652
-0.03287738
-0.0609055
-0.04059614
-0.1321205
-0.144128
0.201111
0.07452206
-0.02765341
-0.05680694
0.007731867
-0.02584503
0.04540851
-0.07428963
-0.04678443
0.2164878
0.01613717
-0.1016178
0.1974553
0.001482903
-0.06098295
0.3259332
0.07652327
0.0581297
0.3639671
0.06972136
0.1475386
0.2747803
0.1086762
0.1415962
0.0402582
-0.1303422
-0.2550843
-0.1970051
-0.2934734
0.1563633
-0.02293685
-0.05948867
-0.1090324
0.0460427
-0.007895885
0.04780594
0.08095276
0.02719007
0.02613104
-0.01997679
0.07911013
0.1530734
0.02328733
-0.139569
-0.1598175
0.03469061
0.1055871
-0.4330787
-0.1785127
-0.1412262
-0.1876197
-0.02919571
-0.1521482
-0.01207063
-0.2635669
-0.2575474
0.1781525
-0.09709617
-0.1219424
-0.1775079
-0.1437452
0.06481031
0.01803922
-0.1137026
0.0891062
0.05713259
-0.07815748
0.0160679
-0.03020501
-0.02513904
-0.02558187
0.03092998
0.01346344
0.04255632
0.07718526
0.04838743
0.0186296
-0.007778318
0.0320882
0.03573764
-0.006816733
0.08077429
0.0924299
0.05489731
-0.04396702
-0.06197159
-0.1052981
-0.02420152
-0.05831827
-0.02781036
-0.06330472
-0.08524163
0.06494301
-0.01599458
-0.02532284
-0.0619647
-0.1936499
-0.006015808
-0.1076009
0.1103108
-0.4316406
0.3564437
-0.0367444
-0.04827654
-0.1412003
0.1091532
0.1156978
0.05150539
0.01621751
0.04874234
0.03036367
-0.1059763
-0.02193757
0.05423786
0.09221404
-0.02690487
-0.01474852
0.1551831
-0.09390081
-0.2317339
-0.09872576
0.06852026
-0.05580699
0.05354077
-0.05228299
-0.004890163
0.04079349
-0.07411907
-0.05554458
-0.05194562
0.04304212
0.07698638
0.09244774
-0.02054906
-0.03952458
0.04892932
-0.01603725
-0.07607505
-0.01228514
-0.07131141
-0.1120274
-0.1076028
-0.05448184
-0.06438685
0.008498182
0.2116889
0.0786458
-0.1153127
-0.006168419
0.02897836
-0.08102111
-0.1484051
-0.05145335
-0.05278066
0.03184439
-0.193035
0.04658291
-0.03131807
-0.04887057
0.07256436
0.1014851
0.08233105
0.1312442
0.08099762
0.1316498
-0.05255364
-0.03100642
0.0188086
-0.09529284
0.2124778
-0.2915553
0.03751878
-0.1997202
0.06087915
0.1461138
0.06203705
-0.1530728
-0.0559574
0.01213769
0.08767314
0.01293804
0.04132957
-0.1105141
-0.06432751
0.02808744
0.08055443
-0.02428963
0.07151721
-0.1936094
-0.2552482
0.2962579
-0.2704659
-0.05298544
-0.1548011
-0.1704218
0.1671253
0.1683113
0.09502959
0.02698818
-0.1093358
0.1922467
0.008055205
0.2268264
-0.04017508
-0.1420597
-0.1005291
-0.00778198
-0.01585667
0.0101135
0.03888236
0.106523
0.1149589
0.04108812
0.07224497
0.2255589
0.194781
0.05583833
0.2011251
0.1148908
-0.004065276
0.1162546
0.03058646
-0.1107837
0.01516548
-0.05631274
-0.05113277
0.02698686
-0.04003741
-0.1260862
-0.009628764
-0.04389714
-0.1346333
-0.1365805
-0.1083243
-0.05519409
-0.03787862
0.05753263
0.1843578
0.2391638
0.2632689
-0.1281895
-0.1240648
-0.1302881
0.009254762
0.008470073
0.04092312
0.07821216
0.2406708
-0.06508405
0.06621762
0.02108897
0.09777551
0.08904275
0.07078388
0.01702544
-0.04572093
-0.0927953
-0.05032868
0.1721353
-0.01728833
0.1210131
0.08161229
-0.07997004
-0.02361298
-0.007783019
0.007448855
0.09751876
0.2974443
0.1259808
0.02331047
0.00856731
-0.07557016
-0.07228991
-0.05498207
-0.03690114
0.03398484
0.1615382
0.1170133
0.1059752
0.017915
0.01463107
0.04154164
-0.06288854
-0.07980521
-0.01386061
0.1966015
0.06722244
0.03018138
0.04486302
-0.05161216
-0.04406118
-0.1069565
-0.1403891
-0.02567662
0.07377061
0.2653703
0.1891839
0.02916317
0.1829792
0.03134909
-0.05306705
0.02476174
-0.06550287
0.02878087
0.05765579
0.03146962
0.003523692
0.01650203
-0.06476687
0.02329857
0.02241134
-0.04385039
-0.12976
-0.03412178
-0.04631181
-0.2754533
-0.2502938
-0.1854554
-0.1771665
0.001485597
-0.2225993
0.03106361
0.1081318
0.09693059
-0.03246978
0.0386214
-0.06954224
0.01842162
0.03037294
-0.003958242
0.03297257
0.1955085
0.07480031
-0.04547052
0.03383863
-0.08436814
-0.034095
-0.09443338
0.05927434
-0.1070044
-0.09391084
-0.04294378
-0.09799887
-0.1317287
-0.01904851
-0.02659779
0.2223755
0.04372541
0.002333082
0.001397737
-0.0008118387
0.0003083206
0.00213564
0.0007639538
0.0008201502
0.002097018
-0.001964843
-0.0002185717
0.001402004
-0.0006795056
0.0002933205
6.602499e-05
-0.0001738088
-0.001601432
0.001371936
0.00104565
0.000154669
0.0005427909
-0.0007505813
-0.001725134
0.001808699
3.803791e-05
0.002929084
-0.001293877
-0.001998369
-0.003397738
0.001585603
0.001398712
-0.00171848
-0.003217504
-0.0001279795
0.001806104
0.0005953266
0.001528154
0.003030665
0.001277254
0.0009301865
0.001698878
-0.0005168708
-0.001935353
0.001101278
0.003465389
0.002151674
-0.001982129
0.001146737
-0.001596528
0.0009949211
0.001744652
-0.001745033
-0.001224222
-0.001245995
0.002446209
0.003179686
-0.003955255
-0.00114796
-0.002764114
0.002992188
0.0005209047
0.0005125458
0.001753953
0.0001366929
-0.002731078
0.001217335
-0.0002457506
0.002070746
0.000664718
5.450267e-05
-0.001464118
0.0006631126
-0.001498264
-0.0008757983
-0.001133937
-0.0004892518
0.0001602751
0.002872935
0.00216664
0.001108818
0.000735087
0.0008954416
0.00185722
0.001691946
0.0003164466
0.004255031
-0.001455787
0.0007809645
0.003067461
-0.0002311468
0.001677538
-0.0005045543
0.003685045
-0.000334949
0.0005313144
0.001569498
0.005651473
-6.931665e-05
-4.645593e-05
0.000470383
-0.0005755813
-0.002405593
-0.0003467575
0.002332878
-5.574882e-05
-0.0007655121
0.0003320305
0.001557444
-0.002896259
0.001527486
-0.00136978
0.0008954136
-0.002447237
-0.003477413
-0.001043562
0.002943285
0.002665341
0.0002773567
0.001970126
0.001388846
0.001262383
-0.002028189
-0.001048852
-0.0004507283
0.0001396752
0.001149718
-0.002273083
0.003353838
0.002242454
-0.0004015108
-0.001345336
-0.002853186
-0.002525416
0.001861168
-0.0005500991
0.0003268635
5.616213e-05
-0.001563167
-0.001620754
0.002394712
-0.0006155514
1.253721e-06
0.00142344
-0.0004503326
-0.002316354
0.02168271
0.08739425
0.1178688
0.0663042
0.1860396
0.1351226
-0.1110255
-0.07911351
-0.1945267
-0.02934339
-0.03976932
-0.02387151
0.05381023
0.04601185
0.03227862
0.03701234
0.05172656
0.0364617
0.05079455
0.1077226
-0.004447036
-0.01020531
-0.03310028
-0.1319664
-0.0229585
-0.000192155
-0.03352412
0.05696808
0.05933627
0.04573739
0.05212864
0.02083268
-0.02897905
-0.03630318
-0.002141946
-0.01068315
-0.01125111
0.1743251
0.04788977
0.02139844
0.06906218
0.05176258
-0.08760999
-0.2005629
-0.06208328
0.1876812
0.2518472
0.2028209
-0.1635646
-0.0992011
-0.1039622
-0.1794309
-0.1092226
-0.08009958
0.06357575
-0.05592936
-0.1074576
0.02199944
-0.02480455
-0.02132864
0.06146907
0.03457178
0.09682714
-0.2248583
-0.1945715
-0.1709437
-0.1028406
-0.03513142
-0.06575984
0.168497
0.2423335
0.1486399
-0.03670631
-0.09055864
-0.09616055
-0.07808436
-0.114139
-0.03812595
0.0780296
0.09968658
0.1662802
-0.1585034
-0.1664667
-0.09764293
-0.02490766
-0.0938525
-0.05967975
0.2600638
0.2896435
0.2027984
-0.1166649
-0.09931196
-0.1142483
0.02843903
0.04169634
0.04592596
0.08546773
0.1488474
0.1202964
0.009947899
0.09174521
0.01821205
-0.006020766
0.04945325
0.04171233
-0.009889153
0.07635356
0.05450833
0.08244458
0.230142
0.1296553
-0.04025083
0.1080731
0.01161023
-0.1467723
-0.2669891
-0.2133622
-0.03686694
0.04010225
0.006895211
-0.03852798
0.01708556
-0.03605679
-0.06783925
0.03211818
-0.01460546
-0.01389584
-0.01732697
-0.0583628
-0.06035034
-0.01329322
-0.1344493
0.02367615
0.1137762
0.05306864
0.1247476
0.1725906
0.110507
0.03682563
-0.08047336
-0.144321
-0.1617031
-0.1115055
-0.09151228
0.08392336
0.0696932
-0.06670628
0.1351543
0.1132327
-0.07756766
-0.03791699
-0.005934531
-0.1523062
-0.08403766
-0.05060705
-0.0913006
-0.1351171
-0.09072333
-0.05411721
-0.08790581
-0.09357328
-0.03578374
-0.03216283
-0.0570923
-0.04382322
-0.03506598
-0.01220145
-0.01456256
-0.01748117
-0.01058682
-0.03441163
0.019959
-0.001477779
-0.05925896
0.0664401
-0.04609539
-0.1331142
0.08847723
-0.003577701
-0.03851104
-0.03706214
0.04299118
-0.1396957
0.04360766
0.06572837
-0.1643033
-0.03449783
-0.1294653
-0.1142392
0.07392524
0.02285864
-0.0003847032
0.03644587
-0.007873024
-0.007541994
-0.0191027
-0.03203836
0.001615665
-0.1245717
-0.1070986
-0.04691501
0.06999263
0.08547636
0.056251
0.09461398
0.02370134
-0.04252259
0.03932435
0.06553278
-0.01950636
-0.01204807
-0.00257121
-0.04795835
-0.02679485
-0.07153793
-0.0875378
-0.0874603
-0.05576391
-0.04646369
-0.0401694
0.009055452
0.004356681
-0.03992143
-0.02583714
-0.01043257
0.03577898
0.05851273
-0.04159848
-0.0003830899
0.04617038
-0.002767163
0.01535075
0.04392488
-0.03943597
-0.0509358
-0.09785522
-0.07689627
-0.07285632
-0.09166616
0.02901809
-0.02324581
-0.01601759
0.005727472
-0.05313868
0.02815185
0.004002855
0.03721789
0.1156859
0.08478129
0.02265666
0.04428209
-0.03345618
-0.06877145
-0.03563016
-0.0428488
-0.1631695
-0.09487853
-0.1228206
-0.192486
-0.07604752
-0.01326908
0.02901996
0.04777179
0.0480447
0.0183043
0.04725181
0.07850616
0.1302695
0.1299471
0.07974511
-0.05142373
-0.0434503
0.001775862
-0.1191544
-0.07028088
0.05602368
-0.09825107
-0.02312551
0.003609983
0.1118543
0.03693849
0.007327189
0.06140513
-0.05637062
-0.09802416
-0.02241148
-0.155012
-0.03079042
-0.01402892
-0.04010563
0.0877481
-0.03259105
-0.06786624
0.05722027
0.08599591
0.02915033
0.03472834
-0.01330035
0.008070616
-0.01041541
-0.04672534
-0.0335542
0.002764459
-0.07237029
-0.04319902
-0.06385972
-0.03657478
-0.03193595
-0.01624632
0.06442746
-0.04709826
-0.04045742
0.0233211
-0.005787315
0.01122985
-0.08904984
-0.006087658
-0.0183918
0.016039
0.07855318
0.01394186
-0.09373702
-0.0620691
-0.04608095
0.0324774
0.01999317
-0.04438804
0.0667279
0.1145024
0.001340468
0.0938798
0.08629439
0.009294321
-0.04029676
-0.09201642
-0.08907405
0.1013301
-0.001534585
-0.04758138
0.148035
0.09862136
0.01717571
0.02475281
0.09394971
-0.06483389
0.08223233
0.08272777
0.06470785
-0.005363353
0.01852856
-0.01608557
0.06957379
-0.006381263
-0.2603532
0.2027729
0.09739195
-0.1035075
-0.02197875
-0.07799739
-0.135087
0.06018849
0.007435846
0.05853817
0.02257982
0.0006720223
0.0140153
-0.04970879
0.04187936
0.04513182
0.02477035
0.1717329
0.1090141
-0.03090805
0.08949953
0.04690789
-0.1387066
-0.02668568
-0.02127713
-0.05940989
-0.06469951
-0.04401108
-0.07042127
-0.09500811
-0.1081061
-0.04143453
-0.0566892
-0.09881179
-0.07340737
-0.09018849
-0.03752953
-0.08718843
-0.07601553
-0.03625087
0.008555149
0.02703321
-0.02554906
-0.002663479
0.01831479
-0.1850786
0.08878179
0.2579792
-0.01893125
0.04532737
0.09024777
0.03040415
-0.02107401
-0.02535925
-0.03921127
0.04409635
0.02705484
-0.09286689
0.0122058
-0.01780165
-0.06226114
-0.02249425
0.02376866
-0.05289568
0.08415329
0.06248306
0.09069052
-0.1410255
-0.04271243
-0.02468359
-0.1539124
0.03390861
-0.04870765
0.05970731
0.08798465
-0.1575077
0.1259518
0.04128334
-0.2256775
0.0001363799
-0.001387285
-0.005774448
0.05209384
0.08398019
0.1012621
0.05549373
0.07259593
0.06678973
0.08268153
-0.004913698
-0.01192767
0.01345234
0.002519878
0.08582806
-0.02829401
-0.005663439
0.0285567
-0.1131214
-0.05018583
-0.03598629
-0.0303803
-0.003204141
-0.004492079
-0.0003320837
0.01571666
-0.01241296
0.2068819
0.2352206
0.13245
0.001604748
0.02670898
-0.0001614855
-0.1742785
-0.1677398
-0.1600178
0.1468464
-0.008140682
-0.01517537
0.02482073
-0.02543248
-0.07579061
-0.05182383
0.03361559
-0.03977833
-0.01040233
0.01135776
0.05511323
0.01814844
-0.008633527
-0.03204267
-0.052068
-0.06318033
-0.09701131
-0.1263316
-0.01386678
0.1658025
0.03826197
0.06581699
-0.001509031
0.1408949
0.07624323
-0.1009443
-0.05612555
-0.01640639
-0.07689317
-0.1229874
-0.01683108
-0.04679974
-0.06083917
-0.04968824
-0.01585352
0.06449547
0.003205302
0.0280261
0.1195718
0.08960123
0.1163576
0.2045758
0.1839582
0.1600999
0.06073561
0.06918985
0.002092594
0.03887997
0.0496929
-0.01925286
0.06029864
0.06095725
0.0393808
-0.05304728
-0.09857505
-0.1110916
0.06231004
0.08504581
0.07127733
0.09211785
0.04275212
-0.01961524
-0.08994552
-0.07012046
-0.04738514
-0.01168153
0.03189313
-0.02821262
0.10156
0.1194703
0.0503628
0.0511779
0.06696436
0.1956673
-0.07010054
-0.1114327
-0.148344
-0.170608
0.100883
0.031883
-0.1685675
-0.135149
-0.1105822
-0.1448073
-0.09382873
-0.08857534
-0.1371626
-0.1773479
-0.1694573
-0.09670833
-0.03963318
-0.08053065
0.03022718
0.04972355
0.08166662
0.06954465
0.06332849
0.02834219
-0.1319498
0.01639968
0.04338722
-0.09413484
-0.1296846
-0.1277091
-0.06567512
0.02621855
0.02837743
-0.03908833
-0.03060509
-0.120378
0.05925334
-0.01356191
-0.1440937
0.1026554
0.007831261
-0.1284114
0.01159039
-0.1147607
-0.04800427
0.02540772
-0.06003585
0.006873279
0.06071477
-0.05554151
-0.002235184
-0.04267829
-0.00579754
0.04960564
-0.05061927
0.002678688
0.02763299
-0.03723564
-0.01949646
0.01780705
0.1247896
0.2107585
0.02657091
0.07554351
0.2126687
0.08079322
-0.03213632
0.1224878
0.04788844
0.01244601
0.04764746
0.03183296
-0.06985197
0.03699037
0.1090748
-0.1131759
-0.03036139
0.09761555
-0.005149953
0.01845145
0.01999459
-0.03127793
0.008961714
0.007385673
-0.09246371
-0.02858344
0.001422804
0.01249823
-0.06149177
0.1344085
-0.06342006
-0.1103751
0.1366832
-0.1952416
-0.12458
0.09285887
0.03584389
0.07637516
-0.009972495
-0.02081438
-0.0193999
0.01265487
-0.05169379
-0.0528992
0.0008935434
0.006954143
0.01400371
-0.04040246
0.01861775
0.05211302
0.01395414
-0.004966142
0.0254265
0.02619517
-0.08063176
0.08126906
0.07065009
-0.08811595
-0.01203356
-0.03786974
0.01335735
0.03349753
-0.05498143
0.06411679
0.02005148
-0.01452577
0.01233628
0.01643707
0.02104465
-0.006931681
0.02716256
0.03552748
0.04064516
0.07105308
0.04866962
-0.07187315
-0.005270176
0.02478225
-0.05242151
0.04931062
0.08172231
0.05957764
0.02153753
-0.03834548
-0.04005297
0.005799518
0.009398306
-0.05024202
-0.03631295
-0.02404484
0.1636068
0.1038311
0.0831764
0.1095721
0.02420576
0.0157804
0.06563727
0.02635596
0.003238217
0.003476493
0.05938635
0.0492672
-0.05061939
0.06354816
-0.0004434217
-0.07501369
-0.02898754
-0.0309905
-0.0568764
-0.009863546
0.00421088
0.005522115
-0.002576986
-0.03383926
0.04948187
0.01004358
-0.003498392
-0.00251281
-0.0004013333
0.001998381
-0.0005505328
0.0002630941
-0.002387727
0.001205348
0.001989156
-0.0007831106
0.001661164
-0.003001616
-0.001191831
0.002222193
0.0006202275
-0.0007452553
0.001107868
0.002685852
-0.001372691
2.579343e-05
0.002423132
0.0009346509
-0.001699079
0.00275515
-0.0006010511
-0.00023451
-0.002319713
-0.0003906255
0.001253155
0.0003202742
-0.0004080498
-0.002221059
0.0007348034
0.001625717
0.0003146103
0.003187119
0.002021048
-0.003008708
-0.001326401
0.001298143
0.0009087611
-0.003489939
-3.012825e-05
-0.003637365
0.001164649
0.0005464918
-0.002538209
0.000240007
0.0003895184
5.655023e-05
-0.001029551
0.0003092562
-0.001245683
-0.001055332
-0.000548236
-0.001173139
0.002289929
0.003218227
0.001850518
-9.851042e-05
0.001234917
0.003202548
-0.002401831
-0.001494378
-0.000380739
0.0005842553
0.0006078428
0.0007548997
-0.002394262
5.893193e-06
-0.0004454303
-0.0001500613
0.002395334
-0.002110847
-0.0003716782
0.000662046
0.003655259
0.001726122
0.000440269
0.002595208
-0.001901065
-0.001692881
-0.001478475
0.0006858255
0.004340445
-0.001500109
-3.034267e-05
-0.002004907
0.001439429
0.00134322
-0.0005725507
0.001582088
-0.0001186028
0.003854717
0.002580609
-0.003392475
-0.001076847
-0.0006727065
-0.0002476603
-0.001510306
0.001635012
0.0003084423
0.001560797
-0.0009327832
-0.001301602
-0.000782477
-0.0007410491
0.0008185938
0.002443993
0.0008459896
0.001618754
-0.001949745
0.002058162
-0.001789781
-0.0003217968
-0.0009357409
-0.001927807
0.003578789
0.001891696
-0.00228313
0.0005668892
0.00164202
0.002982072
-0.002368792
0.002441756
0.001746247
0.0002262692
-0.002701015
0.001060833
-0.001230152
0.001364888
-0.004394759
0.001208966
0.000122782
-0.0005701059
-0.001706512
-0.0006614083
-0.002648412
-0.0009230467
-0.0004619481
-0.003393625
-0.002211549
-0.001191742
-0.002002904
0.001794637
