16 16 3
-0.06911731
-0.02821602
0.0868156
-0.1226337
-0.004734759
0.1487124
-0.01956774
0.04908864
0.06293546
-0.01193687
0.1290905
0.001849453
0.02682257
-0.01612879
-0.1261867
0.008777954
-0.1333347
-0.06469329
0.1966098
0.06387921
-0.006036707
0.05737645
-0.1912005
-0.08223455
-0.0267205
-0.03803519
0.1563865
-0.08066991
0.1734721
0.19492
0.1811196
0.1704091
-0.09147854
0.1290006
-0.1322404
-0.3103392
-0.2572857
-0.01450208
0.2742799
-0.2100367
0.2984582
0.1560482
0.1417271
0.121992
-0.2309102
0.1273541
0.07781193
0.05526399
0.1054278
0.04280309
-0.06363456
-0.007889546
-0.1097023
-0.1663722
-0.2433646
-0.2796175
-0.05110506
-0.2087293
0.05789643
0.1828338
0.08016322
0.212418
-0.09029837
-0.1187469
0.06626697
0.008455856
0.04260046
0.07568838
-0.07912225
0.02310156
-0.04042791
-0.03217969
0.02099842
-0.01657133
-0.05027159
0.01302949
0.03421022
-0.03359314
0.002954118
0.08498876
-0.008265787
0.2300067
0.1415891
0.004454602
0.1998505
-0.0720857
-0.1545878
0.0873727
-0.1154287
-0.06723299
0.09295212
0.09884571
0.05720517
0.05651409
-0.033041
0.1201567
0.06874502
-0.004824443
0.1186797
-0.01200306
-0.06517519
0.1396207
-0.1289527
-0.06710397
0.1307795
0.08313769
0.1276869
0.1659781
-0.2595966
-0.4013808
0.002460857
-0.3213437
0.02796309
0.2526908
0.03907375
0.08945954
-0.07729185
0.05200332
-0.06799693
-0.141431
-0.01924742
-0.1449156
-0.07557305
0.04784166
0.02765484
0.211931
0.3037002
0.04098568
-0.1667126
0.09391665
-0.2801791
-0.05080437
-0.1945435
-0.1413295
0.1233503
-0.05353969
0.01771989
0.1424008
0.1054319
-0.0270451
-0.02414322
0.04696975
-0.08888812
0.07469169
-0.03884417
-0.07399524
-0.04662431
0.05475381
-0.03825109
-0.07101776
0.1365209
0.09331167
-0.01182889
0.001741535
-0.09901228
-0.01313275
0.02436133
-0.04106801
-0.03715806
-0.08071582
0.001374016
-0.01070733
0.06917667
0.06339239
0.0893084
0.1071751
0.05691687
0.03393181
-0.01627714
0.1009679
0.06362837
0.03923158
0.02128641
-0.07852116
0.02961054
0.08414558
0.00630674
-0.0739845
0.02160487
0.08287645
0.06573879
-0.0009386755
-0.07379549
0.01389491
0.2095025
-0.04488273
-0.1284131
0.03873865
0.1684721
-0.02406733
0.005373321
-0.002761263
-0.02343472
-0.02037209
-0.003612479
-0.07363149
-0.03938477
-0.03074344
-0.02728341
0.10883
-0.05135336
-0.1340899
0.1393731
0.165875
-0.1840366
-0.2047575
0.05254264
0.06744413
0.04974749
-0.09526783
-0.01194796
0.03504587
0.04878338
0.007223575
-0.05132602
0.04683347
0.03627563
0.1188482
0.05415919
0.05382907
0.09083176
0.07457851
0.0065613
0.0234919
0.02987543
-0.05444812
-0.00438471
-0.01126606
0.005098608
0.006080945
0.004432317
-0.007793783
0.02292494
-0.04834605
-0.02259319
-0.01687722
-0.01298747
-0.08274811
-0.02774954
0.03791782
-0.01189417
-0.05914338
0.02325464
0.08454202
0.06986991
0.02746838
0.05113433
0.08361661
0.05051896
-0.0153518
-0.007036877
-0.0334204
-0.0312658
-0.1400261
-0.01968144
0.2062766
-0.002543874
-0.1870755
-0.07394427
0.2721224
-0.04121947
-0.02463034
0.003381475
-0.02440302
-0.04882466
-0.004725456
0.05202998
0.01944211
0.008570218
0.07364334
-0.09183047
0.03055844
0.09612561
0.03299523
-0.1073683
0.106079
-0.01082388
-0.05684287
-0.1542787
-0.03598522
-0.08125269
-0.09550656
-0.05503235
0.1588414
-0.08173639
-0.1728298
-0.01730444
0.1806675
-0.1512478
-0.06067513
0.1093065
-0.03904991
-0.08717664
-0.04746867
0.2312802
0.09231085
-0.04430817
0.003205023
-0.06618645
-0.05116887
0.03100712
0.07288305
-0.08992208
-0.06181833
0.05833486
0.1206104
0.08272813
-0.001121594
0.1410243
0.2838241
0.1183716
0.02769641
0.008804748
0.1883898
0.2584265
0.09695607
0.08861093
0.01866125
0.0736591
0.1445479
0.002150892
-0.118373
-0.04673357
0.1061394
0.333676
-0.04103115
-0.1716306
-0.08299343
0.4215814
0.03552571
-0.02573606
-0.1717087
0.1876988
-0.06661628
-0.008096187
0.09141924
-0.04751046
-0.03599203
-0.07550485
-0.1397577
0.04397361
-0.003045911
0.0181423
0.111145
-0.09256466
-0.2261441
0.141099
0.2352245
-0.1058698
-0.1740502
-0.2138385
0.02497557
0.09318147
-0.09607694
-0.05794877
-0.01492882
0.03468078
-0.01946281
-0.1171027
-0.1177336
0.1099254
0.1514926
0.07147223
0.00809228
0.02060577
0.002222572
0.102747
0.1067215
0.1099893
-0.02172627
-0.07955953
-0.05654741
0.0908437
0.004021154
0.0364845
-0.02776752
0.1137761
0.0919629
-0.09282167
0.03667691
-0.04197511
-0.1402096
-0.1048883
0.03619628
0.06753267
-0.07709149
-0.0845816
0.1009553
0.08219751
0.01790695
0.01276087
0.07491626
0.07629595
0.001024659
-0.06536453
-0.1010959
0.01275394
-0.3753968
-0.2077039
0.2113628
0.4939941
-0.5084451
-0.5161539
0.00581388
0.4333163
-0.1404125
0.03095151
-0.09890974
-0.1147385
-0.04919038
0.1054307
-0.02392823
-0.01760343
-0.08680254
-0.0628629
-0.06658334
0.0604578
0.214894
-0.0651502
-0.07848416
3.886524e-05
0.170298
-0.02120029
0.08939905
-0.180752
-0.05685234
-0.1686805
0.4808672
-0.02708646
-0.09355758
-0.282918
0.2749933
-0.05589269
-0.01050306
0.008985928
0.02908524
0.05390197
-0.002505049
0.01272057
0.04950649
0.06294134
-0.02278158
0.006259012
0.1407807
-0.03042502
0.004620178
0.02097051
-0.001090439
0.03774057
-0.05864744
-0.004792504
-0.04734456
-0.05611213
-0.006615138
-0.05487418
-0.06087643
-0.008228537
-0.03580097
-0.08636249
0.00771676
-0.01843464
-0.03437276
0.0698586
-0.01458056
-0.09633172
0.1714495
0.07354097
-0.1660857
-0.04040915
-0.1333553
-0.02253311
0.006433508
0.02619353
-0.08128598
-0.1129883
0.1080349
-0.01166465
0.02836808
0.09128527
0.02663144
-0.045717
0.05226045
0.08622552
-0.0355095
0.0456206
0.1039677
0.1591418
-0.148539
-0.1422877
0.1178346
0.00626473
0.004387685
0.1137644
0.1397318
0.10263
-0.04813755
-0.02740867
0.03688566
-0.06298296
-0.09817086
-0.04740415
0.07079045
-0.01062335
-0.07969432
0.03730626
-0.01585134
-0.03849884
0.05107009
0.01427417
0.01005367
0.05904172
0.05903354
0.09739841
-0.03483542
0.05822268
0.02630454
-0.05551562
0.003681259
0.04496613
-0.01331204
0.01070332
0.03842229
-0.0119258
0.001506275
-0.03443263
-0.0705229
-0.02360795
-0.03903528
-0.02398303
-0.0542979
-0.0429289
0.01969846
-0.02058206
-0.08048499
0.02132162
0.01816729
-0.003452194
-0.001290582
0.03684335
0.04186988
-0.1491062
-0.1632434
0.1460035
-0.0997902
-0.2191074
-0.01082284
-0.2917662
-0.2174885
0.05833344
-0.1558533
-0.09343224
-0.01512441
-0.1834808
-0.09748763
-0.006333022
-0.1426431
-0.1196589
-0.1156816
0.004381397
0.1803287
0.0305366
-0.1120731
-0.01915331
0.06067533
-0.05581124
-0.06150081
0.02168941
0.04905485
-0.1580999
-0.003742372
-0.129618
-0.1009438
-0.008458573
-0.02501759
-0.138862
-0.1741133
-0.01939965
0.0792155
-0.006242034
-0.05994004
-0.003245628
-0.02077658
-0.05868704
-0.004463914
-0.01784973
0.04153465
0.05758286
0.1687643
-0.06306056
-0.051509
0.06486656
-0.09580992
-0.1149355
0.01634363
0.07002228
0.04450881
0.08908805
0.09179025
0.1415244
0.2278433
0.0156409
0.07722745
0.1092802
-0.1218802
-0.229278
-0.2155429
-0.02237135
-0.08922877
-0.006911483
0.368483
0.3069503
0.1876238
0.01589336
0.1409273
-0.009224421
0.005237401
-0.3118415
-0.09716031
0.006611287
0.3333106
0.1634029
0.07721799
0.02545318
0.06543324
-0.03018013
-0.01380257
-0.02388691
0.02275293
-0.03573194
-0.08303036
-0.04658845
0.03402667
0.106968
0.05243117
-0.05839336
-0.1633496
-0.0652389
-0.06546637
-0.06501666
-0.0726949
-0.1951223
-0.1717887
0.1765712
0.1222325
0.05398046
0.03395654
0.0391213
0.032377
0.06111873
-0.03504733
0.1099772
0.1359732
0.1364561
0.1120157
0.1647183
0.06261304
0.02685562
0.02274495
0.008075286
0.05247965
-0.001914872
0.1219719
0.05561742
-0.02934889
-0.05885744
-0.01793808
0.03748544
0.05345853
0.06106934
0.04916471
0.05220238
0.04621696
0.01147392
-0.04192884
0.007987049
-0.07768317
0.0133645
0.03149214
-0.04880887
-0.09846408
-0.1372771
-0.004240874
0.07761019
0.04084985
0.09749216
0.2211348
-0.04596603
-0.2448077
-0.6741837
-0.3117689
-0.1260809
0.3278622
-0.09532845
-0.2386371
-0.1682798
-0.1531027
-0.02748787
0.148899
0.03652745
-0.2593999
-0.2184777
-0.1886835
-0.02643069
-0.05292949
-0.02320671
-0.06240494
-0.04477632
-0.1198307
0.04745494
-0.03851789
0.02067191
-0.07318732
-0.06735854
-0.04912338
-0.2722634
-0.3942688
-0.178442
0.08585657
0.3989599
0.2233672
-0.1681104
-0.1614916
-0.1359707
-0.0002935368
-0.002689329
0.007814623
0.1352376
0.1998371
0.1416434
-0.06662393
-0.05750788
-0.04502962
-0.07017554
-0.08150171
-0.0002368636
0.09361304
0.08135962
0.168868
-0.01282102
0.04259823
0.0206986
0.02629955
-0.06001107
-0.1174351
0.1144009
0.04503274
0.03876121
0.1246259
0.1917419
0.2026558
0.07108527
0.1308516
0.02192782
-0.2309527
-0.1889897
-0.1823514
0.1056548
-0.02615147
-0.01269378
0.005341216
0.3190033
0.05765533
-0.08151461
-0.2043792
-0.1293216
-0.06376291
-0.01121651
-0.08241358
-0.04314129
-0.01079883
-0.01685174
0.02950615
0.001445513
-0.005876866
0.1371178
0.1311372
-0.01480631
-0.0786958
-0.02087748
0.04502058
-0.1242857
-0.06179017
0.05408869
0.05929718
0.1647569
0.1443819
-0.1228102
-0.00673085
0.02893893
-0.2111539
-0.1282295
-0.08936685
0.08511839
0.03402726
0.05184406
-0.02770524
-0.1157425
-0.02589181
0.1286459
0.1457928
0.245671
0.01922943
0.009750229
0.05188907
0.1056541
-0.0136278
0.06994803
0.1028551
0.008942767
-0.02985966
-0.03740308
-0.01801433
-0.02178055
-0.03981209
-0.06954423
-0.07202788
0.1222163
0.09548064
0.09344514
-0.08656599
-0.07039529
-0.05253608
-0.0138239
0.07018265
0.1104994
0.002671669
0.06329822
0.1025279
-0.1663495
-0.3177496
-0.2248256
0.2368057
0.6586102
0.2120724
-0.1129337
-0.3733947
-0.2589526
-0.2268406
-0.07031449
-0.1237362
-0.1689727
-0.07653646
-0.1808359
-0.1472787
-0.005374031
-0.08048838
0.05469947
0.007002446
-0.09071761
-0.01286907
-0.002237001
-0.02690776
-0.08614805
0.07666355
-0.06356842
-0.08124535
-0.1059303
0.01691967
0.189879
0.2961586
0.02177853
-0.1470111
-0.34299
-0.3516555
0.09031745
-0.002752481
-0.08836512
0.0075484
-0.06445257
-0.02482918
-0.05064781
-0.04152425
0.03867415
-0.04116701
-0.04552174
-0.1364989
-0.04059793
-0.1290484
-0.0137404
-0.03005968
-0.05554393
0.1255942
-0.07296045
-0.04496889
0.06334525
-0.05434986
0.0548376
0.1615963
0.03748532
0.116936
0.09303507
0.1329714
-0.02596793
-0.1301205
-0.0002439092
-0.1358783
-0.1367239
-0.05787702
-0.124453
0.07380656
0.06202055
0.03503688
-0.08593268
0.08173858
-0.0336952
-0.1733613
0.09376761
-0.1355714
-0.2336032
-0.04068737
-0.07864898
0.01549727
-0.05697526
-0.05672612
0.03930333
-0.03596291
-0.004022653
0.0307431
-0.1718333
0.09816521
0.06552828
0.1314821
0.1360203
-0.06499966
0.1143233
-0.09880005
-0.3907796
-0.07986236
0.0904804
0.0702775
0.03987489
0.1913924
-0.04666518
0.04780466
0.06677818
-0.1137182
-0.1412503
0.05751166
0.1382143
0.005158768
0.1064217
0.00424817
0.05984014
0.07494422
-0.09333269
-0.1518338
-0.07611694
0.08897943
-0.0834567
0.08690435
0.1035351
0.04417308
0.206912
0.09797862
0.07823963
0.02220792
0.04657311
0.08155226
0.05703127
0.1354871
0.05343424
0.01542954
0.01939807
0.04610965
0.1074021
0.1364085
0.1745691
0.1564503
0.06568372
0.2327659
0.1103762
-0.1202804
-0.1541083
-0.01182882
0.1267402
-0.1543887
0.07089017
-0.004329958
-0.1469181
-0.005973634
-0.2180189
0.0385878
-0.04534611
-0.1162776
0.01843296
-0.0253242
-0.03264238
-0.004074546
-0.0160017
0.01107814
-0.1087603
-0.01333077
-0.03154899
-0.1671298
0.04162503
0.07817871
-0.08454232
0.1691511
0.1218397
-0.01477073
-0.008243534
0.1176314
0.04221659
0.004558202
-0.04538814
0.108184
0.1973605
0.09412934
-0.06309365
-0.04285002
0.1079987
0.003998367
-0.1080374
0.03162703
0.07023119
-0.07323316
-0.01801575
-0.08369695
-0.1294975
0.06237464
0.07080801
-0.05322373
0.0004115224
0.01073969
0.1019052
0.01208499
0.02065617
0.08061533
0.1486361
0.03641064
-0.07000986
0.03564661
-0.02855235
0.0280136
-0.05713541
0.06390963
-0.0445537
-0.1476618
0.1546942
0.108727
-0.1242418
0.0693991
0.1676777
-0.04334598
0.1386605
-0.2305452
-0.07735761
0.2610425
0.2103886
-0.2190561
-0.1349885
0.2863636
0.08524156
0.04235927
0.1031108
-0.02163549
-0.05875147
0.07854453
0.04334871
-0.14693
0.04771728
0.1103134
0.06463429
0.02034019
-0.3305657
-0.1350467
0.3526168
-0.01107952
-0.3244897
0.05909296
0.2396793
0.002392947
0.0607488
0.0690223
-0.08981171
0.01471253
0.1037093
-0.04309389
-0.08479286
0.111941
0.008838794
0.1312949
0.007448692
-0.004103634
0.158008
0.1222427
-0.01538618
0.06283781
0.09720052
-0.123262
-0.001602588
0.0565061
-0.03389749
-0.0969358
0.01072191
0.1137982
-0.08160146
-0.0758673
-0.02590964
0.006228372
-0.01099304
-0.1193727
-0.00416402
0.03465685
-0.1214269
-0.07776369
-0.005411052
0.1838038
0.1623702
0.1302692
0.0495141
0.08337293
0.07539543
-0.006657634
-0.02732116
-0.00676241
-0.1524051
-0.1542709
0.03758071
0.1642206
-0.1981529
-0.06597184
0.07000272
0.17496
-0.1974257
0.05803195
0.05848406
0.05547616
-0.06911951
0.04590289
0.07219149
-0.03473859
0.04883506
0.0835159
-0.1884357
0.03459867
0.1346521
-0.1209083
-0.1944653
0.2695895
0.04996382
-0.1551006
-0.1496504
0.06632238
-0.1518668
-0.2783523
0.1282229
0.187026
-0.1619101
-0.2684398
0.2427073
0.003525038
-0.1161594
-0.08672106
0.0319483
-0.05600797
0.01694115
0.1292236
-0.02711555
0.04010452
0.08582374
0.02342326
-0.05857246
-0.03015317
0.03788302
-0.06571021
0.002726658
0.03865572
-0.03865969
0.04333551
-0.002703338
0.003532182
-0.02741791
-0.003265811
0.005059835
-0.01697376
-0.01361057
0.008036333
0.0149867
0.02671374
0.01469279
-0.01940576
0.05979745
0.004859532
-0.003291837
0.006836431
-0.07549948
-0.03842726
0.03627584
-0.01505889
-0.1148379
0.136233
-0.004804757
-0.05741956
0.1924118
-0.1244798
-0.03693071
-0.01496829
-0.04330496
-0.004793918
0.01443456
-0.08043503
-0.04814035
0.00853334
-0.09285121
-0.05547491
-0.0730326
0.05296721
-0.1363554
-0.000582136
0.05836165
-0.1126962
0.08856027
0.06296943
-0.1013698
0.04806634
0.03528598
-0.07879993
-0.02341077
-0.05541601
-0.0986723
-0.04389432
-0.04328062
-0.02180137
-0.06973742
-0.05329811
-0.06415883
0.000590481
-0.01080729
-0.04890072
0.007027593
0.0182112
-0.02196824
0.05714021
0.05267034
0.06448411
-0.001784837
-0.005520385
0.01631469
-0.08162821
-0.0238837
0.02068471
0.05711181
-0.003364964
-0.006406745
0.05016151
0.006184038
0.01054261
0.06809659
0.02956521
-0.01630954
0.01422013
0.02793001
0.03674255
-0.006763153
0.01138804
0.03409346
-0.02252922
0.01751821
0.006153869
-0.08003788
0.04996784
-0.02589255
-0.1157287
0.1115846
-0.05176972
-0.01498301
0.07741766
0.02008277
-0.0192091
-0.02314785
0.01755623
-0.02792659
-0.003018605
0.04485159
-0.01356786
0.02090541
0.02472161
-0.08950873
-0.001184049
0.1019173
-0.09538585
0.009623499
0.1482439
-0.1140741
0.07301101
0.09033781
0.06769119
0.07806844
0.01858916
0.08453602
0.02519581
-0.02889705
-0.03247608
-0.04462515
-0.009063483
-0.08030328
0.004996293
0.0113148
-0.1043903
-0.05128663
-0.01167371
-0.02480311
-0.003251335
0.01616079
0.08654541
-0.02842353
0.08527158
0.02913189
-0.02084862
-0.03298432
0.06279474
-0.03087613
-0.1217556
0.2079609
0.09048618
-0.0717919
0.119755
-0.06225071
-0.1636127
0.06914588
-0.1039093
-0.1046197
-0.09628113
-0.01868794
0.1305081
-0.01117965
0.0009285823
0.06532101
0.08933871
0.0377827
-0.09082869
-0.2106832
-0.1568854
0.1377485
-0.111319
-0.02479884
0.114946
-0.03327465
0.1279278
0.04154631
-0.03316217
0.01692076
-0.0601496
-0.01110333
0.0104561
-0.05679772
-0.03643589
-0.003340829
0.01585009
-0.02941176
-0.2209094
-0.1143564
-0.1459763
-0.1331608
-0.05855186
-0.1697441
0.08606911
0.1098824
-0.009646597
-0.004291657
0.01780498
0.0004266507
0.0573182
0.06603181
0.007592572
0.05551906
-0.01632892
0.02469953
-0.0491142
-0.00488002
-0.04733847
-0.03009356
0.03661955
-0.08438882
-0.02963
0.03614632
-0.04165726
-0.05826825
0.02049951
-0.03944822
-0.05255872
0.07170856
0.0681734
0.01184435
0.1333234
0.09917884
0.08832453
0.03180357
0.02190272
-0.01133704
-0.06174787
0.0008804066
-0.0339674
-0.09048188
0.06425259
-0.06620102
-0.09712914
-0.08278716
-0.118679
-0.06490158
-0.1098854
-0.03595964
0.1221851
-0.06025295
-0.1797041
-0.1331893
-0.04714132
-0.178959
-0.0340399
-0.07574607
-0.1071637
-0.01042191
0.04600134
0.078127
0.02571483
-0.009952124
-0.0258437
-0.09450374
0.05266218
0.007632796
-0.00873889
0.09663886
0.06553939
-0.1270523
0.08571523
-0.01116175
-0.08981378
-0.06296331
-0.2077639
-0.05971578
0.00341012
-0.04013659
-0.06077483
0.06790654
-0.1809915
-0.1356589
0.0164178
-0.08207025
-0.1906955
-0.02826343
0.001064208
-0.01163284
-0.0567317
-0.06092997
-0.02129922
0.05129185
-0.0005726648
-0.04382125
-0.003194079
-0.005015632
-0.07204286
0.03090052
0.04585978
0.002573212
-0.05006731
-0.009405587
0.04586823
-0.01767245
-0.02329992
-0.0195398
0.03098608
0.02719423
-0.06101836
-0.009334308
-0.03059165
-0.07853597
0.01854965
0.08999567
0.0904309
-0.09127696
0.002438643
0.08479067
-0.09483819
-0.1117218
-0.01427346
0.008908623
0.1222348
0.0278743
-0.07743121
-0.04355117
-0.009559761
0.007588294
-0.0394369
0.02080171
-0.0685077
-0.05739584
-0.03075427
0.05231254
-0.07165277
-0.0656867
0.1470593
0.1269908
0.03876669
0.004518523
-0.0116642
0.06777734
-0.1279666
-0.1465738
-0.2136985
-0.03330779
0.03934336
-0.02592442
-0.01521556
-0.01303235
-0.03472221
0.001023698
0.06947386
0.1110106
-0.006661109
0.01268791
0.05475125
0.08497601
0.03557334
0.05696796
0.05255399
-0.002685055
0.007662542
0.1134884
0.1022613
0.1185417
0.03998037
-0.09026052
-0.09091204
0.1221619
0.01924477
-0.03119624
-0.06205533
-0.01190447
-0.0225974
-0.03296676
0.02661702
0.04011376
-0.01055257
-0.0348759
-0.02592877
0.06771366
0.07013382
0.02219512
0.03023494
-0.005284284
-0.05189724
0.08367766
0.08716878
-0.002596649
-0.01986575
0.1011456
0.1000573
0.1386517
-0.05088992
-0.1629674
0.140535
0.5219399
0.3525248
-0.2787575
-0.3098508
0.04164509
-0.1979788
-0.06183024
-0.01833579
-0.1097113
-0.03173237
0.002230409
0.1008782
0.09004546
-0.06956866
-0.07946112
-0.1185129
-0.05902329
0.03098128
0.0342286
-0.09001943
-0.0975821
0.01495929
0.02589097
0.1658396
0.01983288
-0.1151972
-0.164157
-0.01229552
0.05703392
-0.1173732
-0.1863641
-0.2348747
0.1444937
0.3141308
0.04826486
0.215666
0.07152154
-0.282796
-0.02080111
-0.1186787
-0.226559
-0.06455918
-0.06449845
-0.02289571
-0.03123833
-0.07772951
-0.03469604
-0.08025255
-0.09009755
-0.03033285
-0.04096892
-0.1003517
-0.04167691
-0.01393959
-0.01934954
-0.008941488
0.008694547
-0.001645056
0.02490889
0.1293631
0.01766194
0.01081911
-0.1364266
-0.1028344
0.001553313
-0.0864148
-0.09170543
0.03800318
-0.08910304
0.00646848
0.03562217
-0.03525717
0.06908128
-0.01151343
0.02359621
-0.02117376
-0.1048958
0.05457966
0.02336077
-0.08576559
-0.02850407
-0.1248155
-0.1385444
-0.08403551
-0.1806881
-0.02437481
0.0318272
0.1345055
-0.05364824
0.01010329
0.06424324
-0.03499144
0.04774461
-0.03032238
-0.1135112
0.05623937
-0.3841956
-0.1777408
-0.3724144
-0.3031788
0.2418074
-0.1051825
0.09738454
0.3849547
-0.02457529
-0.15887
-0.01918877
-0.1376401
-0.1496743
0.125935
-0.1190901
0.005630009
0.1517493
0.05920044
-0.18135
-0.1625998
-0.2253263
-0.2519917
-0.004311891
-0.05142035
0.07224128
0.3012981
0.001493633
-0.03256498
0.009290632
-0.006816963
-0.01914426
0.03006931
-0.05650293
-0.0135875
0.03130285
0.01957624
0.008939182
0.03545323
0.04543016
-0.03950071
-0.02905826
0.03368952
-0.02299624
0.007390658
0.02602401
-0.08582884
-0.1791115
0.049632
-0.1390846
-0.1730452
-0.07318002
0.01789061
-0.04623672
-0.1309687
-0.03392271
0.03880584
-0.0001657134
0.1144955
0.09270563
0.01198399
0.0421445
0.007181105
-0.0341371
-0.01704061
0.03131434
-0.07574901
0.04894477
-0.01691491
-0.005377354
0.0942119
0.01685789
0.3262217
-0.1247903
-0.155662
0.07344516
-0.1949185
-0.09903063
-0.093058
-0.119819
0.217244
0.04096716
0.2262369
0.2366128
-0.1550559
0.01710059
0.2324074
-0.2353093
-0.2676287
-0.09429432
0.06964269
0.06351537
-0.01080563
0.09850907
0.03496638
0.00192065
-0.02900669
-0.08174549
-0.01418057
-0.1047386
-0.05110283
0.06098548
-0.05668242
-0.09311494
-0.08306176
0.008347677
-0.03644584
-0.1299961
0.02402292
0.05766583
0.07249171
-0.019081
0.05433952
0.09904581
-0.01208178
-0.1007063
-0.1363941
0.02462224
0.1283814
0.05110207
-0.08842014
-0.02609694
0.1666299
-0.03101997
-0.1055606
0.02241133
-0.09932096
0.01659303
0.1430615
-0.1286933
-0.09261303
0.02371908
-0.05281485
-0.1351351
-0.1289213
-0.04602615
-0.1559176
-0.1927724
-0.002954577
-0.109404
-0.24994
0.04543458
-0.04168937
-0.01514461
-0.04233773
-0.1703453
-0.00987136
0.05037699
-0.03532404
-0.04349738
-0.0421161
0.01752504
0.03024512
-0.05720836
-0.08123068
-0.04157891
0.04928999
-0.08670453
-0.1002836
0.1885226
0.06138188
-0.01190489
0.05111129
-0.228246
-0.2326494
0.2969737
0.1031636
-0.09533823
0.04704218
0.1883951
0.1066611
-0.06918332
-0.04305207
-0.02431573
-0.01675207
-0.08115912
-0.0908424
0.04939102
-0.0349162
-0.08911797
-0.0533454
-0.04560422
-0.01739356
0.02453442
-0.01485257
-0.06845338
0.04244798
0.09134642
0.07351786
0.1543481
0.009028296
-0.09934571
0.05377498
0.08760334
0.06020653
-0.07549676
0.1150074
0.08361881
-0.02896882
0.05705433
0.08082303
-0.09155668
0.02210115
0.08663379
-0.131566
-0.07302824
-0.05382841
0.01556117
-0.03920867
-0.06804376
0.0486622
0.05951234
-0.05410375
0.04824417
0.06622167
-0.04770599
-0.05539449
-0.07361109
0.06340483
-0.1570611
-0.1177246
-0.0278949
-0.1469235
-0.06394598
-0.1460227
-0.09572842
-0.04861039
-0.07130045
0.01777996
0.06786186
0.01427891
0.02950294
0.0118797
-0.06149045
-0.06333212
-0.04231712
-0.1021808
-0.05360749
0.01601079
-0.04009347
-0.03719121
0.04767843
-0.00789144
-0.05538277
-0.06429406
-0.01881853
-0.0423386
-0.02515681
0.04304163
0.005566398
0.01334871
0.02484826
0.1590416
-0.01802173
-0.1887282
0.1922583
0.02381459
-0.1626802
0.0356725
-0.009070706
-0.132848
0.08039355
0.01118958
-0.1457206
0.1525351
-0.002653352
-0.03136526
-0.0473195
-0.0181421
-0.07192729
0.02825004
0.04129951
0.02850763
0.02053434
-0.005262278
0.02265261
-0.02994847
-0.0320261
-0.04849151
0.1743653
0.1967644
0.1045933
0.2170705
0.2124272
0.1681686
0.03463341
0.07101648
0.05401003
0.1338232
0.01299351
0.03346058
0.03056291
-0.03752904
-0.01032889
-0.03679681
-0.03075126
0.007725988
-0.02945924
0.01386805
-0.1005903
0.07180909
0.08478432
0.01565385
-0.04189426
-0.01417734
0.02625887
-0.03453651
-0.01957062
-0.01555955
-0.06269433
0.03365156
-0.007878224
-0.03932629
0.02621819
-0.03255735
-0.1129817
-0.0663617
0.0003285793
-0.08544096
-0.0177839
-0.02189237
-0.08584637
-0.06801198
-0.0690795
-0.001944672
0.10083
0.1225736
0.0913878
0.1672018
0.1487125
0.06296751
0.08161799
0.0533832
-0.05023741
-0.1651899
-0.2908592
0.1271762
-0.1789915
-0.1315327
0.04395942
-0.07979689
-0.1811883
0.0185466
-0.06196989
0.006506587
0.0467988
-0.06704295
-0.08415165
0.0302003
-0.08047152
-0.1093377
-0.1202455
-0.09757184
-0.002449204
-0.07259914
-0.02182028
-0.09919704
0.007935712
-0.1166707
-0.08855592
0.02654933
-0.06299119
-0.1971835
0.093626
-0.04789789
-0.1623331
0.1258379
0.03018581
-0.1569164
-0.03681332
0.02315182
-0.02507577
0.02984394
-0.0197626
-0.0177962
0.07040328
-0.03743125
0.01911452
0.02788563
-0.1750205
0.1305071
0.0715386
-0.07190939
0.09114215
-0.06226509
0.05449354
0.008688907
0.1074529
0.09002961
0.01553097
0.1464055
0.03712344
0.1131707
0.04653484
0.01573093
0.05793632
0.03599031
0.01338126
0.02159371
0.01818245
0.05444926
0.01046548
-0.02967409
0.03968884
-0.09111349
0.1948117
-0.2884086
0.3495825
0.09177976
-0.07953799
-0.0650119
-0.172288
0.2985381
-0.1479584
-0.05102187
0.07580993
-0.005889378
-0.05392859
0.02418113
0.03724775
-0.07440681
0.01852191
0.1307506
0.01649206
-0.144317
0.07596835
-0.1357075
0.1268331
-0.00134372
-0.1712661
0.2070225
-0.0287295
-0.05405371
-0.05766701
-0.07998402
0.0002833316
0.08817035
-0.1054404
-3.596296e-05
-0.005702932
-0.1493276
0.04448281
0.2025078
-0.02274019
0.05193126
0.1529927
0.03686818
0.0727005
0.09955554
0.0293232
-0.03623122
0.1257002
-0.01341831
-0.06828848
0.04687469
0.001777976
-0.05620619
-0.02987571
0.00914227
-0.08336589
-0.04328623
-0.0846381
-0.03380603
0.008908529
0.001045605
0.005813024
0.04858953
0.04837859
0.1120058
0.01869188
-0.007795882
0.03866369
0.01903082
-0.00303577
-0.003763929
0.01083277
0.02601554
-0.06070145
-0.3757606
0.04180586
0.2148025
-0.4595014
0.1792516
0.05523929
-0.1475693
-0.03861712
-0.1186767
-0.03869834
-0.05053551
-0.09261642
-0.02887569
0.026657
-0.03407305
-0.05161578
0.05142321
-0.2187206
0.3058215
-0.1693954
-0.06851683
-0.07037216
0.1069518
0.2440615
-0.184038
0.2182237
0.1432963
-0.1144239
-0.05433579
-0.006567386
-0.05248199
0.02588156
-0.05179425
0.1399114
-0.1301291
-0.02588457
0.301902
0.3608751
-0.3058624
-0.02005377
0.2829884
-0.2240623
-0.2007047
-0.03219818
-0.1033855
-0.0678574
0.01813737
-0.117401
-0.09077607
-0.06362181
-0.1736795
-0.02015943
0.004394501
-0.04243186
-0.06862986
0.001857808
0.04478138
-0.07996771
-0.06323425
0.08013782
-0.02658403
-0.1025399
-0.0331117
0.03143565
0.02900227
-0.008600247
0.01279097
-0.06249594
-0.002515374
0.01205034
0.03489931
-0.07147602
-0.1001562
0.07458347
0.06983206
-0.05674528
-0.1681648
0.1695365
0.1433328
-0.03764244
-0.07040831
-0.1858951
-0.1111122
0.1869607
-0.01894731
-0.205866
0.2090042
0.2710582
-0.006121341
0.02041393
-0.07938784
0.02639325
-0.01624598
0.08982298
0.06140973
-0.04065926
0.0575949
0.05620533
0.1018785
0.08722695
-0.2532662
-0.06394549
0.30127
0.1373031
-0.3666031
-0.1037916
0.2012895
-0.006363103
-0.07820576
-0.02701543
0.09867921
-0.01730973
-0.1000175
0.1306914
0.1365363
0.08414835
0.1407167
0.06523889
-0.2652658
0.038317
0.1885069
-0.02513783
-0.1804045
0.02989967
0.1238377
-0.02060184
0.01610136
0.01682293
-0.05954833
-0.03630403
-0.03979351
0.01467587
-0.01624515
-0.02547248
0.1239867
-0.03789312
-0.08521455
0.2079324
0.07329455
-0.06873211
0.08250447
0.07433527
-0.09453999
0.1028973
-0.05268014
-0.1871132
0.04467737
0.01822024
-0.0738755
-0.0952713
0.1082639
-0.0147671
-0.03422385
0.05540922
0.01331649
0.01735196
0.03366135
0.02877061
0.02474885
0.01168097
-0.05158496
-0.122953
-0.005798225
-0.03992881
-0.04267484
-0.05165171
0.006672046
-0.04407377
-0.04793121
-0.05370138
-0.1003924
-0.1120071
0.0351576
-0.02310063
-0.04738736
-0.08912363
-0.005887894
0.0515765
-0.02534666
