16 16 3
0.01429093
0.007487898
0.03199999
0.008981203
-0.01877634
-0.08282219
-0.001381353
-0.02187597
-0.109941
0.06082983
-0.3888065
-0.1654106
0.2635596
0.181627
-0.3134817
-0.3239192
0.2767714
-0.02290448
0.07091254
-0.6122975
-0.2710813
0.3639634
0.2917385
-0.288748
-0.3696486
0.4762442
0.2817907
-0.3295939
-0.07532122
0.125371
0.1847301
-0.5389449
0.008307016
0.5361969
-0.07296856
-0.3116364
-0.06432831
-0.1141837
0.1279724
-0.03498065
0.01807245
0.007149344
0.05373079
0.1753094
-0.09064782
-0.1162906
-0.0988191
0.06715198
0.1188074
-0.1139551
-0.181835
0.1598948
0.1345176
-0.05450247
-0.05077497
0.1013084
-0.07711002
-0.0852659
0.03824994
0.143274
-0.04039406
-0.09995233
-0.03764137
-0.05877197
0.06540768
-0.1186113
-0.04060754
0.2477542
0.2393193
-0.189991
-0.03020354
0.0550392
0.008046011
-0.1469858
-0.1092769
-0.01062952
0.08880314
0.05665301
-0.1916023
0.0238416
0.07589793
-0.38256
0.1410148
0.337039
-0.1880627
-0.03211695
0.08445375
0.1896521
-0.02941391
-0.422998
-0.03088348
0.2483505
0.1719544
-0.155214
-0.07816129
0.286797
0.2162637
-0.1600626
0.02725348
0.1448165
0.06679282
-0.3409532
0.05540091
0.1652674
-0.1640555
-0.2398219
-0.05881447
0.2100918
0.09453098
0.1903016
-0.1698757
-0.04743005
0.2283351
0.1373303
-0.2139295
-0.1479024
0.1309227
-0.08976501
-0.04051119
0.1272931
-0.0375215
-0.116816
0.05903386
0.08438808
-0.06480096
-0.02400015
-0.281292
0.3544528
-0.001254272
-0.323154
-0.2768872
0.4235916
0.3039055
-0.1477827
-0.1115129
-0.01085538
-0.07968294
-0.04644331
0.1657926
0.1129091
-0.2296055
-0.07739822
0.184951
-0.04147076
-0.01788926
0.04464532
0.06477916
-0.02754249
0.02403908
0.05061474
-0.04042488
0.06565985
0.0670144
-0.1726346
-0.1659954
0.08889287
-0.05311549
-0.3403946
0.2427172
0.08921447
-0.2438663
0.47025
-0.05999022
-0.2028738
0.163174
0.1322391
-0.4013988
0.3618098
0.2445838
-0.3888425
0.202079
0.04427148
0.02827334
-0.2051039
-0.02007444
0.4641373
-0.3937211
0.1395615
0.0513915
-0.07353653
-0.05253157
-0.1071295
0.01624115
-0.02117068
-0.1176606
0.02736221
0.06111402
-0.0625845
-0.006052251
0.1342944
0.09648108
0.2335069
-0.07223206
-0.0126243
0.04342072
-0.0332444
-0.03224793
0.01263387
0.1112742
0.03147146
-0.04191461
-0.0441327
0.1855228
-0.184911
-0.03455869
0.1111565
-0.141604
0.1736109
-0.1009245
-0.09557206
0.2074905
-0.127656
-0.09259022
0.0806719
-0.08162911
-0.03951801
-0.05412646
-0.118848
-0.04149575
0.1094609
-0.2256842
0.1779091
0.1236131
-0.2480893
-0.02388809
-0.09705526
0.1272314
-0.07471091
-0.06663047
0.3175013
-0.02856111
0.02249708
0.07982087
-0.120282
0.02467797
0.06162376
-0.1247741
-0.09185722
0.2274463
-0.0818947
-0.0967864
0.2020646
-0.01156788
0.1032361
0.1049847
0.07010679
0.1487797
0.03769736
0.02437576
-0.02195334
-0.01456719
0.1112159
0.1876352
-0.04955435
0.08115558
0.1598344
-0.1411244
-0.002565104
0.1207905
0.01591462
-0.02619093
-0.1027022
-0.04019356
-0.03978194
-0.05085757
0.0387497
0.03533023
-0.1743115
-0.1245248
-0.05072747
-0.3325794
-0.1629803
-0.6467876
-0.4066766
0.559368
-0.7916784
-0.420741
0.1844378
-0.6346192
-0.1378956
0.107786
0.1200908
-0.1766342
0.05134763
0.07228663
-0.1762402
-0.01982156
0.08846294
0.0007321143
0.01806714
0.0241564
0.03825753
0.05729703
0.06469475
-0.008769212
0.02693663
0.031624
0.009827117
-0.03347835
-0.06954202
0.07763946
-0.05867667
-0.1078563
-0.01408202
-0.09675161
-0.12432
-0.001373531
0.000660358
-0.07444291
-0.04401436
-0.01707481
-0.02576827
-0.006177287
0.04203865
0.007742319
0.1009087
0.09981515
0.05842542
0.07181772
0.04932156
-0.02142611
-0.04337551
-0.03327635
0.0009651546
0.09895994
0.0391636
0.02224759
0.09982582
0.02450828
-0.006995234
0.05705173
-0.006855887
-0.02403942
0.02535325
0.05095633
0.08105802
0.1985438
0.239514
0.2435635
0.112276
0.1395215
0.08248633
0.005090356
-0.03147124
-0.06266981
-0.00757351
-0.06305735
-0.0456162
-0.06055175
-0.1075444
-0.0967563
0.1085968
0.06931128
0.03595196
0.1094518
0.05118543
-0.01418573
-0.03541698
-0.09174521
-0.1026374
-0.05345782
-0.05183668
-0.0006080755
-0.04009784
-0.006479139
0.01913271
-0.004260208
0.0376361
0.06999315
-0.1187686
-0.08549134
-0.08989912
-0.07281785
-0.06441382
-0.1161495
-0.02463196
-0.03020883
-0.06712043
-0.1005219
-0.002795486
-0.06085563
-0.06051641
0.01924532
-0.08917237
-0.08722597
-0.001670741
-0.02814458
-0.08090953
0.009934863
0.07547087
0.01229175
0.1026027
0.03571283
-0.018496
0.03249525
-0.09018984
-0.04230059
-0.0489989
-0.1126917
-0.06236592
-0.02750638
-0.06186133
-0.1480767
-0.1374449
-0.07604187
-0.06987824
-0.03407324
-0.0431315
-0.09223538
-0.0499373
-0.05628465
-0.05501217
-0.01007473
-0.05902709
0.01607611
0.01223703
-0.04658555
-0.02068554
0.004850847
-0.09321539
0.03147095
-0.04655783
-0.05874266
-0.02150885
-0.01438446
0.0105564
-0.00330258
-0.01252889
-0.005616189
0.006333967
-0.04408349
-0.08779066
0.09652088
0.00136268
-0.01474845
0.1442112
0.05816611
0.06582801
0.1256646
0.06235222
0.08797706
0.0368414
0.004238482
-0.0276155
-0.0592739
0.01957024
0.1400159
-0.02563956
-0.05685703
-0.02208551
0.0435
0.4385394
-0.06561469
0.0101478
-0.4813922
0.09091581
0.01608566
0.2113438
-0.04283757
0.1833984
-0.6936387
0.003532439
-0.5429229
0.8838789
0.05962781
0.5390904
-0.5294656
-0.2463624
-0.088859
0.07318708
0.07030756
0.01969857
0.1907147
-0.1266287
0.0171917
-0.02422427
-0.1134489
0.1180464
-0.0187738
0.08246654
0.04517705
0.07591979
0.06997373
0.009301032
0.03273253
-0.02628141
-0.08405375
-0.01924258
0.01883108
-0.2572215
0.1129715
0.01707218
-0.05935162
0.0402946
-0.09445156
-0.1111959
-0.1596342
0.05279811
0.0806526
0.1786174
-0.004032062
-0.01116881
0.02337301
-0.1021617
-0.241829
0.1604155
0.06896819
0.1504866
-0.09847715
-0.2254704
-0.1570885
-0.05359554
-0.002657726
0.03478492
-0.09573352
-0.1938195
-0.1628114
0.1001572
-0.01318837
0.07225385
-0.03820726
0.09984331
0.1404075
-0.07163186
0.1952202
-0.1508627
0.08120991
0.08551117
0.1736174
0.08949353
-0.001564223
0.07310168
-0.3407183
-0.132758
-0.3084506
0.08386417
0.2075358
0.04660215
-0.08300252
-0.1805705
-0.03725841
0.04978624
0.05455153
0.0477402
0.0157269
0.01767684
0.1288699
0.1307986
0.06073327
-0.0531949
-0.009534235
-0.06934825
-0.01691068
0.007302368
-0.08348119
0.03819012
0.08704308
0.04827147
0.02261383
-0.2317318
0.2310522
-0.2244842
0.5068708
-0.1752645
0.06212351
-0.1106075
0.0001645505
0.04007298
-0.01434154
0.01383011
-0.06500384
-0.007203368
0.06772695
-0.04947677
-0.05264302
-0.0330679
-0.07259515
-0.07335822
-0.08249164
-0.1180819
-0.1039279
-0.1150272
-0.1235624
-0.1049345
-0.1079159
-0.02054746
0.09096564
0.201439
-0.08353909
-0.1144587
0.001535771
-0.05743681
-0.1813615
-0.2154656
-0.003714173
0.09949562
0.06099945
-0.0381238
-0.04798849
-0.1355391
-0.02241956
0.06325215
-0.1297493
0.1568229
0.1502221
0.1229223
-0.1132276
-0.01272875
-0.005387297
0.01860899
-0.03750579
-0.1557408
-0.02659547
-0.003164925
-0.01949309
-0.02307887
-0.02024256
-0.01511363
-0.1571211
-0.1730023
-0.0752975
0.02712019
-0.02078647
0.01787789
0.008083788
-0.01606204
0.0693355
0.003925001
-0.09803558
-0.05095497
-0.01792614
-0.03508458
0.007976107
0.0004875295
0.0148506
0.0722916
-0.08749758
-0.09832347
-0.06878088
-0.1201028
-0.02456465
0.0101579
-0.1047048
-0.05865347
-0.07654548
-0.06718876
-0.1032248
-0.1562849
-0.02034469
-0.08130302
-0.1355365
0.0159764
-0.002662892
-0.09374962
0.02349042
0.1544255
0.08907264
-0.1065951
-0.05665543
-0.1401392
0.09521072
0.150104
0.02370102
-0.03719081
-0.03415119
-0.08984683
-0.01550358
-0.1458261
-0.2201648
0.1069834
-0.01050822
-0.152742
0.183575
0.1048714
-0.009562532
0.0496767
0.009415613
0.1034346
-0.1488893
-0.1852941
-0.2032689
0.1075646
0.02366506
-0.09108377
-0.101975
-0.08623606
-0.1583015
0.06102302
0.08220686
0.0004075337
-0.03903629
0.05655266
0.02121131
-0.03917518
-0.0909346
-0.1843672
0.08315671
0.06716307
-0.04859172
0.07977849
0.1149467
0.06538393
-0.0990475
-0.01758334
0.09962481
0.08596288
-0.05258293
0.03781034
-0.05115859
-0.06140805
-0.05552799
0.009923661
0.04184363
0.02655788
-0.02028632
0.0007015278
0.02699499
-0.07058836
-0.1664179
-0.1789736
0.05823968
0.02616126
0.009026446
0.03718382
0.02149437
-0.0094476
0.03361335
0.03938815
0.00575477
-0.06075777
0.06897255
-0.1566988
-0.1418166
0.07029678
-0.04117645
-0.003820644
0.1257842
0.1198675
-0.258855
0.01868788
0.1150281
-0.3572985
0.03927416
0.3181317
-0.2944551
-0.005249371
0.1660009
0.03072906
-0.07346814
-0.2599099
0.2436841
-0.09597026
-0.2922764
0.1643429
-0.1755711
-0.05915271
0.1003968
-0.01745336
-0.1282607
0.0535262
-0.04930833
-0.09826081
-0.04495422
-0.07261385
-0.0983254
0.184449
0.1121981
-0.08232742
0.1285617
0.1449041
-0.1149249
0.1252291
0.02059558
-0.2344353
0.1302569
0.09692132
-0.02023859
0.1146128
0.07168875
-0.05168124
0.06583471
0.03614936
0.03306322
-0.0560575
-0.092364
0.1706164
0.0157033
-0.1190244
0.1157254
-0.01138756
-0.0971421
0.05836339
-0.2727299
-0.09881534
0.1154803
-0.2522618
-0.0283245
0.2786621
-0.2601813
-0.02787071
0.1562597
0.0378121
0.04039477
0.04473585
0.182199
0.1235525
-0.0386332
0.1278635
0.04106487
-0.08027082
-0.01704009
0.002999596
-0.006320356
0.08670703
0.1095013
0.003342744
0.06621802
0.03482199
-0.08245932
-0.04796525
0.08792991
-0.04517
-0.04610859
0.1534094
-0.07146008
0.02313426
0.1721693
0.02482815
-0.06223952
0.07822154
0.2054966
-0.142451
-0.04324524
0.1620307
-0.1414536
0.001018077
0.1254813
0.02014864
0.02322349
-0.09857085
0.04981621
0.07851955
-0.03842628
-0.03079195
0.003723696
-0.0566579
0.07347663
-0.1902809
-0.2319357
0.2550546
-0.09013146
-0.2594419
-0.02637444
-0.1516468
-0.1125657
-0.08443975
0.1287495
-0.002902051
-0.1515471
0.1175027
0.01890606
-0.07762867
0.1510893
0.1178481
-0.004750416
-0.0509658
-0.1029047
0.01919372
-0.0295109
-0.08365413
0.0318814
-0.0007869545
-0.052917
-0.005179108
0.00850796
0.04167116
0.02421341
-0.0504632
0.1794042
-0.1053394
-0.006742363
0.06961592
-0.09910458
-0.118729
-0.07234944
0.1191918
-0.1180509
0.09364837
-0.1288351
0.1274631
-0.155245
-0.1809122
0.05678991
-0.1159529
-0.3573788
0.1343675
-0.005255726
-0.06573536
-0.3260024
0.3230261
0.03092045
-0.01954095
-0.07076033
-0.003651848
0.02503513
-0.05860945
0.0391531
0.0280092
-0.007211301
-0.06178229
0.02136218
-0.1450338
-0.08129805
0.08531205
0.04317857
-0.1247886
0.02185707
0.08008554
-0.1615871
-0.1704625
-0.02366663
-0.1135224
-0.1168007
-0.07143568
-0.1154173
-0.1778679
-0.1751927
0.03320748
0.1394602
0.02016712
-0.021005
0.1146046
0.06311049
-0.01874723
0.03060122
0.05663499
0.09010953
0.009471544
0.05604551
0.0993038
-0.009224917
0.00748662
0.06675971
0.06682094
-0.05097114
-0.0577815
0.1137606
0.1042932
-0.06159757
0.06324487
0.1153366
0.07265745
0.0005172718
0.1628664
0.1300302
0.110869
-0.1457737
0.02286869
0.2088642
-0.1194
0.07719019
0.2050844
0.0901098
0.09168354
-0.03068273
0.04490834
-0.0172131
0.08179502
0.002556711
-0.08316601
0.01783137
-0.0103703
-0.1750275
-0.213639
-0.02179084
-0.02194036
-0.1202429
-0.1301077
-0.06415526
-0.1200661
-0.3074384
0.03135424
0.04443304
0.0729489
0.05767741
0.009650227
0.07409809
0.06690794
0.02715581
0.05634501
-0.06086382
0.07882889
-0.2562146
-0.283154
0.2175644
-0.1509342
0.09572734
-0.1937097
0.2756211
0.07077338
0.03465227
-0.01664697
0.09718541
0.08280434
0.03864374
0.01449309
0.03631875
0.0274779
0.07934844
0.1209548
0.1572471
0.01954323
0.04627204
0.06539788
-0.05127128
-0.04079687
-0.02883313
-0.1299681
-0.03378935
-0.02202195
0.02194608
0.08837535
0.1122897
0.07907145
0.03333972
0.03057506
-0.02973567
-0.0456568
-0.06497684
-0.08649197
-0.08061206
0.1634724
0.0007141244
0.1025188
0.1955964
-0.01352991
0.03460892
0.1209891
-0.08335505
0.08935215
0.1472691
0.2288109
0.128754
0.1523439
-0.07367784
-0.06051872
0.1024753
-0.1200559
-0.09808495
0.06523702
-0.138488
-0.06394275
0.03824194
-0.2077651
-0.06200163
-0.08597133
-0.1614469
0.01358491
-0.07927385
0.02965479
0.1978548
0.1020176
-0.1324716
0.02631558
-0.06917933
-0.1219119
0.02133496
-0.08219261
0.00580956
0.09110796
-0.0289509
0.0588464
0.1010995
0.07126159
0.08379109
0.1345456
0.07983039
-0.03223441
-0.04085372
-0.1414367
0.03365542
-0.004392347
0.1250421
0.03076836
-0.05773769
0.07743064
-0.1188344
-0.1214227
-0.04889319
-0.1180894
-0.005512168
0.09581826
-0.1518196
-0.112136
-0.04223435
-0.02841586
-0.1389745
-0.1453367
0.05744014
0.04993905
0.1055986
0.1089704
0.1188743
0.156342
-0.05677154
-0.1073695
-0.0219167
-0.01824057
-0.1255184
-0.1643281
0.06303761
0.07537661
0.05533682
0.09056351
0.02693294
0.01797291
0.04384991
0.1266661
0.06731734
0.0804969
0.1284018
0.1009771
-0.1316432
-0.142018
-0.127645
0.008326038
-0.02831839
0.01430562
0.1167257
0.0467876
0.06262431
0.1958462
0.1441623
0.2069289
-0.08397044
0.05774051
0.1432319
0.1585761
0.1804105
0.1404423
-0.033433
0.03958221
0.1459827
-0.07018068
-0.0719896
-0.0792295
0.1360385
0.1303821
0.04324031
0.1983769
0.174169
0.0785405
-0.05998318
-0.04728624
-0.04174091
-0.06388421
-0.04283655
-0.01868243
-0.07038761
-0.03110508
-0.005491839
-0.03971925
-0.07984184
-0.00698456
-0.05407833
-0.01983746
-0.02413451
-0.06974027
-0.06990293
-0.03458238
-0.07235156
-0.1537468
-0.1491847
-0.1068187
-0.04413116
-0.06025091
-0.1055277
0.02589209
0.007062225
0.09505752
-0.03145615
-0.006661238
0.02058447
0.04600683
-0.01669231
0.01430868
0.04515695
-0.09744602
0.03780965
-0.03527607
-0.00455178
-0.003417476
-0.05508307
-0.04918656
-0.03716205
-0.09108728
-0.08575493
-0.09879345
-0.07403746
-0.1143728
-0.03505498
0.00753724
-0.000353266
-0.02763872
0.0173983
0.01493404
-0.070494
-0.09290542
-0.1356855
-0.03011632
-0.09434017
-0.1048301
0.05629798
-0.04135671
-0.09423032
0.03256866
0.01161311
-0.08764455
-0.01186272
-0.005010424
-0.0420093
-0.03202529
-0.05349025
-0.01510571
0.04981402
-0.06662619
-0.07794188
0.07367551
0.03396493
0.02191049
0.06980493
0.08632179
0.07244824
-0.09096381
-0.02526796
0.0539661
-0.03257006
-0.0236437
-0.002135367
-0.02682995
-0.09044284
-0.06857564
0.0973195
0.2419262
0.07968891
0.1009422
0.1748874
-0.01685093
0.008487635
0.093752
-0.08962682
0.002098452
0.05613003
-0.009111234
0.04588115
0.1196332
0.0721617
0.08338325
0.1556732
0.01726388
-0.0531729
-0.003884889
-0.05114298
-0.05433132
-0.02782256
-0.1077104
-0.01587816
-0.02617707
-0.1254254
0.05307005
0.08469608
0.1695518
0.09093432
0.06645217
0.07705817
0.1350526
0.03513327
-0.03599319
0.04330653
0.109629
0.1127676
-0.01389436
0.1349204
0.104957
-0.0335266
0.1202934
-0.01669254
-0.07811896
-0.05535193
0.02567034
0.002664987
0.009087626
0.04031524
0.04212556
0.04285478
0.01258149
0.01615192
-0.05130883
-0.02501175
-3.823836e-05
-0.05280688
-0.03377187
0.1011231
0.04753297
0.03965374
-0.1211167
0.2810255
0.005841227
0.06885841
0.07656504
-0.2227966
-0.1272076
-0.1855104
-0.2315259
-0.2368313
-0.2918611
0.001428579
0.0179407
0.3476307
0.3199566
0.2084064
0.2463414
-0.2162311
0.09379148
0.3166143
-0.1082011
0.5181088
0.04529765
-0.3667468
-0.4393279
-0.5400099
-0.2159145
-0.182077
-0.1641619
-0.1483125
-0.2168683
-0.1395167
0.0355888
-0.1096213
0.1905121
0.1330404
-0.1198827
0.09938118
0.002502531
0.08345345
0.113374
-0.09147426
-0.01401735
-0.06155932
-0.07822192
-0.1262089
0.02116628
-0.09891503
0.03542257
0.1004645
-0.02502121
-0.004292683
-0.09972321
-0.1636655
0.1716935
0.08351893
-0.0852271
-0.03778637
-0.2114476
-0.2415837
-0.008743738
0.02659717
0.1960007
-0.1592004
-0.361498
-0.2056248
-0.2973626
0.04335975
0.2233424
0.1532158
0.6005466
0.2351639
-0.01041605
0.1561241
0.2917306
0.1656178
0.02269683
0.02686845
0.117921
-0.008263578
-0.06701393
0.1538379
0.1769626
0.1838812
-0.01655233
-0.1213934
-0.05351237
-0.1082806
-0.1589211
-0.01077401
-0.2499787
0.2369603
0.06109872
0.2011544
0.2995185
-0.1211924
-0.3838362
-0.5051495
-0.3454832
0.1627938
-0.07680142
-0.1021635
-0.2079991
-0.1683495
0.09944765
0.03351374
0.065129
0.1771895
-0.102762
-0.101933
-0.005931461
-0.1352994
-0.1032604
0.04105892
-0.0515486
0.1649964
0.2221264
0.1289884
0.2857867
-0.02667717
0.2748767
-0.1584699
-0.07311669
-0.1337199
-0.1341911
0.01373453
-0.07302386
0.08332051
0.07510135
0.1590611
0.1349802
-0.124597
0.1666331
0.008434569
-0.1559103
0.05721863
0.08288959
0.08734904
0.09923119
0.1188194
0.1191629
0.03273654
0.05494154
0.056742
0.07984819
0.03659492
-0.01005377
-0.09696042
-0.188155
-0.1778867
-0.02986195
-0.03066101
-0.08929589
-0.09477467
-0.08426583
-0.01261819
0.09348396
0.1645991
-0.0132078
-0.07828385
-0.175072
-0.1318311
-0.07251818
0.3341191
0.2373783
0.1093557
-0.1592506
-0.1162341
-0.1613786
0.07689182
0.1506881
-0.09207612
-0.04284044
-0.003072689
-0.05879933
-0.03805978
-0.01378825
0.0522234
0.0587169
-0.03968788
-0.1861435
-0.2068921
-0.08531587
-0.09811195
-0.02002669
0.1088703
0.1857389
0.2520888
0.2346069
0.04543477
0.04185501
-0.1071187
0.02226401
-0.1005685
-0.09096418
-0.1327023
-0.06735396
0.1098951
0.1379803
0.1179755
-0.01976249
-0.2250672
-0.2658092
-0.1859602
0.01502611
0.09315072
0.2039658
-0.1339703
-0.1368259
-0.1487265
-0.0513537
0.1365401
0.1166799
0.09035864
0.1116447
0.03631125
0.04897754
-0.005441628
-0.0599756
-0.03490627
-0.1461226
-0.07630936
-0.006160865
0.003768036
0.01340695
0.05835205
0.03643554
0.0008745685
0.0465054
-0.02113182
-0.03229129
-0.02771988
-0.01131304
0.0828936
-0.01699955
0.2448863
0.1598605
-0.04733127
-0.04105261
-0.174304
-0.21033
-0.09076428
-0.02620598
-0.05882833
0.03401775
-0.002262122
0.2412988
0.1817116
0.02788262
0.03728876
-0.1550349
-0.1849779
0.01775899
-0.0649597
-0.012795
-0.08351534
-0.1117628
-0.003822875
-0.01576866
0.03185433
0.06831355
-0.08764661
-0.00604982
-0.1000983
0.04617548
-0.1471439
-0.04953958
0.1419231
0.05643964
-0.04354501
0.1196009
0.100771
0.06462895
0.07356989
0.05166205
-0.008432009
-0.00370903
-0.02988549
-0.08755155
-0.0501541
-0.04623512
-0.0795783
-0.01736671
-0.01257861
-0.0360062
-0.06917604
-0.05963698
-0.08414409
-0.07464557
-0.0746253
-0.1112836
-0.08692538
-0.06373812
0.009465699
-0.04608142
-0.07721242
0.05026384
0.09218744
0.1141229
-0.09456435
-0.03672784
-0.09204592
-0.1959245
-0.05975991
-0.1728761
-0.05280967
0.1699056
0.08640714
-0.09357733
-0.212839
-0.2272546
-0.09139052
0.05941896
0.2092761
0.1850263
-0.09192579
-0.1120651
-0.09786792
-0.02205974
-0.02205268
-0.03114858
-0.06266909
-0.08491218
-0.0385241
-0.06863338
0.06032212
0.09084697
0.03783432
0.1006883
0.06614654
-0.0711371
-0.07850528
-0.1426177
-0.0173604
0.0577293
0.07006178
-0.05212614
0.0195014
0.02174345
0.02065414
0.08387033
0.02719921
0.1040352
-0.006976136
-0.134359
0.06843029
0.06910735
0.03556912
0.052605
0.0284324
-0.03446795
0.1100774
-0.04886042
-0.02607591
0.1490695
-0.008103227
-0.02490353
-0.05782592
-0.1178587
-0.05334335
-0.1569973
-0.1561605
0.0311421
-0.06989509
-0.06190747
0.07004796
-0.1402477
-0.1461218
-0.09235702
-0.05615762
0.03373573
0.05189809
0.04847528
0.1003574
0.09361469
0.0303642
0.1216707
0.08170485
-0.0223148
0.01959269
-0.09197192
-0.2147868
-0.07832022
-0.02647858
0.04901276
0.2184983
0.1876429
0.04060032
-0.02055109
-0.05741428
0.1054593
-0.02179771
-0.04823088
-0.03987512
-0.09288671
-0.06376749
0.02583633
0.01560962
-0.05369178
0.04739623
0.01961042
-0.06850023
-0.08857571
-0.1023211
-0.1546242
-0.1666177
-0.2422275
-0.07535314
-0.1023901
-0.1125227
0.1155645
-0.1174562
-0.05080175
0.01080594
-0.006523121
-0.05911016
-0.003452312
0.01917851
-0.03833102
0.04399341
-0.001180431
-0.03601026
0.02471416
0.04631732
0.04300746
0.03888591
0.01677516
0.01575007
-0.0007065691
0.003329201
-0.01579748
-0.01566707
-0.03054639
0.01654222
-0.2717562
0.1031225
-0.1582873
-0.083248
0.01874671
-0.1084244
-0.02979137
-0.1570784
0.01836391
0.1659909
-0.03581678
0.2876478
-0.2183671
0.2535067
0.1184931
-0.3235384
0.125378
-0.03965405
-0.2177051
-0.001816575
-0.3672705
0.304107
-0.3291516
0.06841575
0.5254425
-0.009138798
-0.08414666
-0.003860125
-0.1502296
-0.05252392
0.1406357
-0.1515554
0.1225888
-0.0565974
0.09582909
0.1318201
0.05769586
0.02169812
-0.06184551
0.0438986
0.006904938
-0.03188534
0.08981144
0.04418945
-0.02234933
0.07845527
0.1156219
-0.2472948
0.09215893
0.09129529
-0.1402546
0.2561952
0.03306659
-0.0575131
0.05738357
-0.1189
-0.065329
0.2124847
-0.1570335
-0.02188685
0.1776501
-0.1411681
0.02691726
0.07947268
-0.1038775
0.3180273
-0.0578677
-0.04298763
0.01298317
-0.365068
0.2329281
-0.04806051
-0.04888866
0.1271716
-0.2875181
-0.01494526
-0.006837754
-0.1675984
0.1749079
-0.05863216
-0.1084306
-0.04449508
0.08251456
-0.04767857
0.01080806
-0.08357563
-0.1359815
0.1515795
-0.1178579
0.03322382
-0.2179799
0.1567397
-0.03728151
-0.08731569
0.009194334
-0.2593908
-0.02287836
0.04963249
-0.08522103
0.02824776
-0.01910569
0.08241548
0.04827851
0.1301005
0.1631151
0.06010833
0.02343087
0.0710915
-0.09901768
0.1577604
0.1098505
-0.08053212
0.08994828
0.01425591
-0.1004058
0.2955501
-0.3660203
-0.274939
0.009161652
-0.5870364
0.3454607
-0.4226162
-0.1122476
0.3821475
0.1011564
0.05572912
-0.1747586
0.1636865
-0.02260157
-0.1240481
0.02067126
-0.1267525
-0.1000303
-0.02641459
-0.02943673
-0.06432654
0.02644475
0.002634743
-0.02862817
0.05464817
0.02315896
-0.008768146
-0.1168911
0.05258897
0.0798507
-0.1274212
0.02026721
0.03114294
-0.0220337
0.05825979
0.02682087
0.07019247
-0.06759441
-0.08528531
-0.1189909
0.0003563924
0.005944761
0.01859338
-0.0573501
0.1114246
-0.09064182
-0.05774281
0.0873429
-0.05418009
-0.1536206
0.04845943
-0.1251465
-0.05119803
-0.0822048
-0.07227741
-0.03597398
0.01983777
-0.1090676
-0.09666564
0.009477226
-0.09051546
-0.06561265
0.05922452
0.03126107
0.04587146
-0.06626333
-0.05483006
-0.009446878
-0.1043304
-0.1109641
-0.0555509
-0.1827347
-0.04962796
-0.04239624
-0.04014242
-0.04784248
-0.06635198
-0.0915219
-0.1080551
-0.09304985
-0.09763873
0.1014554
0.184356
0.09866437
0.1062118
0.2094839
0.1709558
-0.003743138
0.1022891
0.1248341
0.1561515
-0.07299469
-0.1118259
0.06349728
-0.03948561
-0.09778261
0.03345741
0.06837206
0.02867451
-0.2102598
0.05296549
0.251365
-0.1142362
-0.06829356
0.1296636
-0.04303944
-0.06743135
0.04151919
0.03926917
0.02972184
-0.1459095
0.1746189
0.1592944
-0.01174108
0.2396954
0.2742085
0.09962647
-0.01694574
-0.03831192
-0.1826338
0.01993613
-0.0251514
-0.1233772
0.03432773
0.09678718
-0.04453444
-0.009489137
-0.09456066
-0.1186219
0.09670777
-0.00491747
-0.1796435
0.07418741
0.116473
-0.05906447
-0.06098519
-0.06693694
0.01686761
0.03901037
-0.0007090445
-0.02474047
0.08504944
0.08137651
0.004508296
-0.1596362
0.05265859
0.000358882
-0.007775991
-0.1102336
0.04419626
0.1771919
0.02833604
0.04341174
-0.1002842
-0.1142796
-0.1620367
-0.005608428
-0.04253332
-0.1363106
0.1346324
0.09897786
-0.06006482
-0.01020753
-0.08257554
-0.09273925
-0.03366095
-0.1206215
-0.1196197
-0.05744165
-0.1419185
-0.1505732
-0.1020334
-0.1231561
-0.03362285
-0.1937157
0.006957976
0.2100445
0.07987469
0.1540735
0.07329547
0.06553192
-0.1016659
-0.1870722
-0.207389
-0.1526028
-0.131194
-0.1021297
-0.02892848
0.01219044
-0.09742823
0.01688679
-0.04645296
0.07615837
0.3173563
0.1209095
0.02186642
0.1379239
-0.1562975
-0.05352933
-0.03178951
-0.07182375
-0.1547821
-0.1424779
-0.064958
-0.06991138
-0.03995012
0.04847324
-0.2736055
-0.3661521
0.02226498
-0.4052616
-0.0742652
0.4265327
-0.1618484
0.2244478
0.4162927
0.10442
0.0529211
0.01243285
-0.05449739
-0.09220257
-0.04697853
-0.1822119
-0.123757
0.05902005
0.1480012
0.07263036
0.1040771
0.04553014
-0.1463568
-0.03552667
0.02116215
-0.02733082
-0.009609979
0.1792102
0.1286327
0.002705321
0.0334465
0.04577809
-0.2781816
-0.06944847
-0.07716597
-0.204166
0.002962618
0.005027622
0.1686302
-0.03969625
-0.1399763
-0.06328531
0.1591869
0.08478726
-0.05822264
0.08497337
0.2115432
0.03714091
0.177315
0.09721501
-0.1160299
0.009465424
-0.1235197
-0.1708519
-0.08162929
0.05354114
-0.1027109
0.02251763
0.07622229
0.06189686
-0.0603897
-0.051156
0.01942113
0.004341851
0.301144
0.05512979
0.2467411
0.2225066
-0.2104056
0.04927754
-0.1699633
-0.3561436
0.07394865
-0.005691143
0.02375151
-0.03145505
-0.09283954
-0.01478089
-0.06787992
-0.04058637
0.0867843
-0.03945486
0.03128263
-0.01246444
-0.09590341
0.1338543
-0.05870354
0.08285055
0.06742471
-0.1117596
-0.0929841
-0.0135766
0.002207745
-0.06804162
0.07538126
0.1072227
0.04606909
0.1395885
0.1221644
-0.1078707
-0.08777091
-0.07213612
-0.02404398
0.003877429
0.01363111
0.03573446
0.05138075
0.05703402
-0.003448593
0.1292322
0.09191809
-0.1557143
-0.09712751
-0.06654414
-0.03773707
-0.1932565
-0.268645
0.08154958
0.1098543
0.06970622
-0.08517729
0.09294116
0.1465437
-0.07436173
-0.1193682
-0.1421863
0.03580619
-0.01300584
-0.04895475
0.03670823
0.3484239
0.04016286
-0.2564529
-0.1906116
-0.008165784
0.02320086
0.0329303
-0.0009386041
0.0033127
0.07892031
0.117458
-0.08791265
-0.06708778
0.02748565
-0.02728993
-0.03744305
-0.01415037
0.04335864
0.05463793
0.09381333
0.07179367
0.06070213
0.07048526
-0.08680189
-0.1425248
-0.09916194
-0.005003912
0.06055022
-0.01257703
-0.04501512
0.02942698
0.007708743
-0.1064078
-0.0752482
-0.102009
0.0146411
-0.07172336
-0.05578757
0.04689805
0.003390458
-0.02866269
0.09991022
0.05146126
-0.0539077
-0.06454482
-0.02558559
-0.03595586
-0.1075279
0.1018162
0.07884943
-0.06792594
-0.0819512
0.01019213
0.1253523
0.09287103
-0.009002692
0.05888634
0.02348255
-0.01914882
-0.04424498
-0.009710185
0.1080035
-0.02030478
-0.08968984
-0.1068805
0.02237416
-0.05608508
-0.04190074
0.01637067
0.05243627
0.141097
-0.2081568
-0.147904
-0.1113893
-0.0674156
-0.1277419
-0.123254
-0.1532724
-0.09840591
-0.0396516
-0.1234895
-0.1001444
-0.0836801
0.03991816
0.1092728
0.02605986
-0.01755545
0.0143705
0.04243825
-0.05345329
-0.09643545
-0.1080477
-0.006080241
0.006574054
-0.04983584
0.171227
0.1366456
0.1714449
0.05830394
-0.04911955
-0.09404384
-0.05535563
-0.1258963
-0.1310382
0.09776271
0.1253746
0.1212272
-0.0202736
0.009634758
0.02331401
-0.007158425
-0.05117118
-0.0933456
