16 16 3
0.101204
-0.02385992
-0.008228058
0.0539512
-0.05837547
-0.05035958
0.1032129
-0.01322325
-0.05216051
-0.06925666
-0.05755215
-0.09106925
0.0416305
-0.001874515
0.02299432
-0.02636968
-0.01089662
-0.02483081
0.0185993
-0.05847263
-0.02904016
0.06456615
0.02774945
0.02753456
0.06567811
0.0279225
0.0234479
0.09971891
-0.03615162
0.0945434
0.1027789
-0.03548592
0.0384642
0.05431814
-0.08715672
0.005056816
0.1230384
-0.1504299
-0.1897808
0.2773038
-0.02362121
-0.07792032
0.1961819
-0.07178801
-0.157062
0.04970138
0.05904333
0.04501762
-0.0116951
-0.02123128
-0.04305878
0.04039029
0.04466792
0.03889572
0.04123542
0.07078434
-0.009562152
0.05641956
0.08533136
0.01209257
0.05183428
0.03684271
-0.006866116
0.06447167
0.1230159
0.06686337
0.06507516
0.08119155
0.005445418
-0.1629319
-0.1462301
-0.230647
0.01664121
-0.04896002
-0.005613315
-0.002983494
-0.005622513
0.005899357
-0.03018745
-0.05532762
-0.02817149
0.01156243
-0.03219759
0.01631211
0.02763098
0.01280757
0.03795507
0.02316533
0.005357507
0.08537319
0.03850527
-0.01983227
0.0002544208
-0.0001059511
-0.03235765
0.03794252
0.00780013
-0.01638216
0.06222642
-0.0001905746
0.04056
0.05901347
-0.02084064
0.00539694
-0.02015069
0.02311424
0.01696681
0.01756754
-0.04436037
-0.00567454
0.0496983
-0.03494154
-0.02707041
-0.009775036
0.03489323
0.05962799
0.1042
0.05287036
0.05555445
0.02585645
0.04571594
0.03780395
0.07547123
-0.001330868
0.01236576
0.08178038
0.02966181
0.01979598
0.08905765
0.04341418
0.02811956
0.02656452
-0.07339739
-0.04698856
-0.01708363
-0.02404284
-0.03537859
-0.02405518
0.03306326
0.004466217
0.05834037
-0.02031943
-0.04392342
-0.0371725
0.01966542
0.06318365
0.1257659
0.01215742
-0.1520542
-0.1053591
0.01312187
0.0784533
0.04400028
-0.07756174
-0.1239372
-0.06244425
-0.08825755
-0.1661951
-0.04810832
-0.01434372
-0.0727351
-0.09607682
-0.2809807
0.1136944
0.1299049
-0.1101735
0.1174972
0.2602347
0.05590945
0.1009014
0.1062485
0.007414988
-0.05712295
0.1176836
-0.004543249
-0.1543902
-0.06683239
0.02461513
-0.1167334
-0.1716518
0.01761438
0.01830459
-0.2072718
-0.01354421
0.04363987
-0.1465762
0.05884296
0.09817965
-0.172266
-0.1164049
0.06680626
0.005030555
-0.1428692
-0.01875561
0.070061
-0.04578015
0.0773674
0.1325747
-0.1217431
0.02203002
0.1087416
-0.01248433
-0.1096447
0.09410422
0.1094714
-0.08329134
-0.07378402
-0.03243443
0.009967072
0.02526281
0.1012345
0.01557371
0.04098127
0.02567729
0.01033074
-0.01299686
0.01131323
0.04999904
0.0136522
-0.001159537
0.09385939
0.107812
-0.09940238
0.105725
0.02486479
-0.0559772
0.08254932
-0.03262472
-0.1417832
0.1026947
-0.01228187
-0.01389097
-0.01938219
-0.06767298
-0.04491557
-0.1197273
-0.1337486
0.0005937856
-0.06224881
0.002101097
0.1079754
0.09026168
0.1180403
-0.008130331
-0.03458737
0.01733373
-0.008767469
-0.03409122
-0.0808507
0.06159151
-0.01924941
-0.1349009
0.157263
0.07542077
0.1040502
0.05897312
-0.08803317
-0.007489757
-0.04563919
-0.1658023
-0.06484484
-0.01565874
-0.07759155
-0.09886707
0.00407632
0.02865324
-0.08141041
0.1745396
0.1182518
0.1026674
0.07271992
0.18154
-0.08680221
0.2468705
0.2482926
0.08199175
0.09655192
0.1159687
0.001578335
0.09271272
0.1463304
0.006088756
0.04605177
0.1749537
0.09781642
-0.03054315
0.02972164
0.05278123
0.07098742
-0.003717024
-0.03622354
0.06927382
-0.2109371
-0.07070088
0.01416703
0.07991282
-0.08664405
-0.2289743
0.009684229
-0.02919458
-0.1976371
-0.06253169
-0.1806536
-0.1355931
-0.05123137
0.01223562
0.01206855
-0.02875967
0.1394965
-0.07185049
-0.03113359
0.1657388
-0.03537241
-0.01276062
0.02746109
0.07703358
-0.02101665
0.01057279
0.0350226
-0.1106584
0.07932282
0.009905522
-0.06443288
0.004151299
-0.04059701
0.02012854
-0.06756507
0.01930112
0.008310939
-0.1200792
0.1262167
0.07964046
-0.03065329
-0.005120992
0.0304958
-0.04273494
0.01292956
0.01920714
0.1005852
-0.05896303
-0.003345136
0.02334218
-0.1027682
0.1028336
0.09062684
-0.1566182
-0.1314294
0.1909959
0.0641055
-0.09082727
-0.008196202
-0.03323474
0.1095136
0.1523325
-0.09286571
-0.03228785
0.04017852
-0.05154509
-0.03887362
-0.05163034
-0.06117156
-0.06651745
-0.144147
0.04284612
0.1587982
-0.1003865
0.05661168
0.103032
-0.06741313
0.04383853
0.07443995
-0.1214447
-0.01247823
0.3784316
-0.1950417
0.01210029
0.1235515
-0.04730804
-0.07185449
-0.08985773
-0.06920389
-0.0495035
0.02825745
-0.03150012
-0.04788593
-0.05968585
-0.1743986
0.05218333
-0.05495983
0.05948619
-0.1322065
-0.04591314
0.0125222
0.02317739
0.02266403
-0.1611242
-0.06193701
-0.1204323
0.0526161
-0.1075711
-0.1482524
0.3316699
0.05441514
0.051397
0.1395806
0.05634718
-0.01657166
-0.06746535
0.08106046
0.1437485
-0.05399897
0.05505282
0.1110271
-0.01348846
0.08639249
0.008658635
-0.1099333
0.07198332
-0.0435001
0.04544624
0.07773267
-0.0383336
0.03877421
0.04106371
-0.02549337
-0.04588502
0.02171493
0.0320343
0.0492835
-0.0614491
-0.02523171
0.1325646
-0.1355111
-0.1209185
0.1391567
0.1178817
0.3167339
-0.01024083
0.06185638
-0.1130014
0.01816624
0.03318543
-0.05447499
0.13255
-0.0005334679
-0.003726333
0.06211081
0.007658869
-0.003125187
-0.2469089
-0.001108974
0.06600046
-0.05416111
0.1255112
-0.02728038
0.1112544
-0.107548
-0.0003092744
-0.09367959
-0.1740997
-0.05567292
0.05945556
0.00188602
0.3182524
-0.1882694
0.2458589
0.09049914
-0.09933943
0.07649461
-0.04054739
-0.05750592
-0.0208085
-0.0094676
0.1386014
-0.07318629
0.1662807
-0.04674469
-0.1219965
-0.137238
-0.03776837
-0.1139236
-0.1669811
-0.03652361
-0.008480826
-0.1110718
0.08280341
-0.2412503
-0.2247963
0.1762511
0.2141138
0.2692831
-0.1981498
-0.0116116
0.1764852
-0.1715432
0.09278937
-5.886247e-05
-0.103327
0.1111356
0.05713458
-0.04622218
-0.1077438
-0.007721089
-0.004113957
0.1807383
0.119034
-0.1075402
-0.02612683
-0.008772332
0.0244971
0.08032823
-0.1314012
-0.01329968
-0.07334685
-0.1521158
-0.1350375
-0.05313427
-0.1500111
0.3647029
-0.09493022
-0.162575
0.2127278
0.0953503
0.09502388
-0.1256436
-0.1366268
-0.02021079
0.2114846
-0.1281521
0.1282121
0.001443373
0.07776245
0.104814
-0.0970275
0.06900238
-0.08515115
-0.02885851
-0.05128272
-0.08371162
0.1213501
0.07209401
0.2759203
0.13157
0.1694261
0.03060699
-0.3770884
0.05549628
-0.1802244
0.1140231
0.07373974
-0.05130963
-0.03891435
0.02332962
0.01483593
0.07544865
-0.08058877
-0.01280446
-0.05226371
-0.2960795
-0.04130467
0.1844243
-0.04974092
0.01840074
0.06096301
-0.09369101
-0.03044271
0.06333724
-0.07615753
0.01602711
0.07197803
-0.09831267
0.05063068
0.1149153
0.01805246
-0.04457087
-0.02189205
0.03097032
-0.01703737
0.01786456
0.07543092
0.1583833
0.09981861
0.0509648
0.1303118
0.1101697
0.01229738
0.08599518
0.06140768
0.003485697
-0.01887307
0.07536305
-0.09281825
-0.08805921
0.03621035
0.145424
0.09439034
0.1017366
0.1351653
0.04949933
0.09585381
0.04562962
-0.04073405
0.01030867
0.03614254
-0.0992375
-0.06156323
-0.02219619
-0.06545889
-0.1260013
0.06008081
-0.02821412
-0.09647762
0.09667592
0.1187297
-0.02270318
0.138386
0.08176965
-0.01860244
0.1094017
0.0499647
-0.03930859
-0.05044601
0.03726867
0.03947743
0.01965963
0.02694613
0.05250001
0.022321
0.01499448
-0.008007906
0.06003014
-0.01281661
-0.0742589
0.05979723
0.05685401
-0.0803849
0.03511875
0.01631849
-0.1358858
0.07983755
0.02377546
-0.0008321541
0.03871885
-0.01630411
-0.05517364
-0.06430881
-0.06586327
-0.1248223
0.05382826
0.01011405
-0.01806583
-0.02576981
-0.03471915
-0.03403717
0.03948019
-0.1130829
-0.1084332
-0.04224926
-0.09166197
0.0199467
-0.06698718
-0.09623012
-0.0318054
-0.08503484
-0.08997823
-0.04518636
0.02235203
0.09518822
0.1553694
0.04109036
0.146537
0.1213532
0.02099513
0.1181005
0.09808113
0.04311712
0.008140937
0.02395716
-0.01112703
-0.0262758
0.01920048
0.05398854
0.07801365
0.008095168
0.006477431
-0.01636377
0.03503206
0.05062111
0.07852379
-0.04053643
-0.02967041
0.009927056
-0.06591466
0.1324422
0.1185506
0.1186329
0.08824043
0.1350464
0.1041237
-0.05948375
-0.0162442
0.04660621
-0.0388135
0.0411953
-0.002359779
-0.06594782
-0.06102086
-0.06059379
-0.07602596
-0.05237937
-0.1055314
-0.09804676
-0.02057583
-0.01528002
-0.03685733
-0.04449898
-0.01066138
-0.02825239
0.006098525
0.008423072
0.05923701
0.1413873
0.03091747
0.02302505
0.07848888
-0.06395334
0.00697636
0.08559999
0.04970134
0.03155795
-0.005864735
0.06846092
-0.01346042
-0.1218209
-0.01657901
-0.09345001
-0.07082289
-0.05279113
-0.1324697
-0.07104754
-0.03922192
-0.09415209
-0.1410925
-0.1690487
-0.07750669
-0.1376548
-0.05429624
-0.05997425
-0.08538102
-0.07479707
-0.006891837
-0.03949384
-0.04329941
0.0005708348
-0.01533405
0.03260572
-0.04472115
-0.08281589
-0.1573671
0.04914159
0.009221466
-0.1447441
0.1086458
-0.04972541
-0.1389981
-0.0003663065
-0.07667321
-0.06553883
-0.0577818
-0.0689854
-0.07951605
0.02923285
-0.01476175
-0.06321642
-0.02446727
0.0453766
0.007227548
-0.01369464
-0.01979719
0.04538005
-0.1110509
-0.03660537
-0.04385316
0.02096295
0.03916577
0.09358367
-0.03920107
-0.008283391
0.05094792
-0.100316
-0.08278497
-0.004627391
0.04255358
0.09016059
0.04467088
0.06373991
0.04243807
0.06093913
0.09413239
0.06576723
0.0971923
0.01661276
0.01902447
-0.04086464
-0.02991328
-0.005642994
-0.01078205
0.03681701
0.04732892
-0.09125732
0.08726841
0.01491352
-0.08743721
0.03916113
-0.07752914
-0.06173584
0.05849602
-0.01166684
-0.04111021
-0.03027493
-0.04096856
-0.1183337
-0.08103221
-0.1075496
-0.1475654
-0.01988992
0.004999557
-0.05558148
-0.09186932
-0.06958795
-0.0459792
-0.07477878
-0.110461
-0.04119666
0.07036434
0.07653962
0.06433332
-0.06624838
0.02039317
0.0169598
-0.0846411
-0.06249029
-0.09440327
-0.04367841
-0.1037672
-0.1149622
0.01822455
0.1351743
0.10855
0.08670714
0.06505506
0.0423044
-0.0521553
-0.02801164
-0.02979209
-0.1051291
-0.04308389
0.004689388
0.106615
0.1159125
0.06816866
0.1733558
0.1139789
0.1277476
-0.0653613
-0.02438687
0.02015087
-0.02225181
0.04234608
-0.08054262
-0.0121433
-0.004840198
0.05337087
-0.04283614
-0.009442762
0.01579788
-0.01417322
0.001367825
0.009450499
-0.0441805
-0.0424984
-0.1206564
-0.03325036
-0.00956151
0.009306459
-0.1564012
-0.1019709
0.04645143
-0.1805009
-0.1819503
-0.08398136
0.03430941
0.0724081
0.12288
0.03825654
0.002331239
0.01171866
-0.003539325
-0.07570212
0.05257222
0.1676661
0.09652583
0.06192185
0.1142998
0.08721133
0.01910705
0.08098008
0.04680959
-0.05990344
-0.0660262
-0.01584183
0.03369282
-0.07611765
-0.03410737
-0.02224103
0.01418236
-0.02657768
0.008386365
0.0321019
0.0008084868
0.02965858
0.02671478
-0.05520915
-0.06517811
-0.02599127
-0.08016861
-0.03217509
-0.1687324
-0.192757
-0.1520498
-0.2608789
-0.2856237
-0.2617429
-0.206237
-0.1974445
-0.1508859
-0.01821668
-0.07767888
0.07635613
-0.1443574
-0.06870258
0.0343533
-0.05871063
-0.00075054
0.1110672
0.05914743
0.0009711984
-0.004963217
0.03296585
-0.04916582
-0.007951175
0.08520574
0.05781097
0.05401336
-0.03036436
-0.06220245
0.02132159
-0.1226382
-0.03426047
0.02332632
-0.05197586
-0.0746934
-0.04461143
-0.01989972
-0.08256719
-0.06242273
0.0004786524
-0.09202899
-0.04506095
0.05911458
-0.01223228
0.03156222
0.009809369
0.07503082
0.01057945
-0.0642659
-0.07075904
-0.06897752
-0.07945778
0.00554065
0.06572715
0.01413743
-0.14613
-0.06410452
-0.09473477
-0.2110766
-0.1154191
-0.0843064
-0.2107296
-0.1111169
0.0747555
0.206001
0.184606
0.1409983
0.2393261
0.1581847
0.06583318
0.1993992
0.09556849
0.03957838
0.1122235
0.1058244
-0.03294017
0.03600221
0.07526826
-0.08075035
0.04680078
0.02814993
-0.08769235
-0.04689441
0.03248215
-0.05197491
-0.04626857
0.05013254
0.07504352
-0.07847031
-0.005546841
0.1048149
0.02424806
-0.07234126
-0.05685206
-0.01498247
-0.08393271
-0.1089538
-0.05398025
-0.06660492
-0.07115319
0.04153158
-0.03008171
-0.0543866
-0.003535825
-0.01270613
0.04352473
0.03951291
0.0207602
-0.1066304
-0.002303926
-0.01032548
-0.03143005
0.102181
0.1281817
-0.03448787
0.02937804
0.0485052
-0.01732205
-0.09432378
-0.01291542
-0.03935994
-0.1239045
-0.004064016
0.01262361
-0.0460463
0.001959167
0.04560747
0.01811865
-0.06199867
-0.01869916
0.05656941
0.02198243
0.02126392
-0.02354573
0.01679667
-0.09088079
-0.009460565
0.09558035
-0.1833015
0.03355129
0.1388613
-0.0280213
0.0193915
0.09657604
-0.1777764
-0.1174946
-0.1648955
0.0179547
0.08090183
0.08996253
0.07664152
0.06324475
0.05792674
0.06447101
-0.04854977
-0.04305559
0.03603789
-0.04565569
-0.03313205
0.04637982
0.04292475
0.1024088
0.01807683
-0.08998465
-0.09125067
0.003808759
0.03983876
-0.0327652
0.02987835
0.1693361
0.05949394
-0.04457422
-0.05316597
-0.07034095
-0.037623
-0.1672128
-0.05688746
-0.03546512
-0.04578518
0.01015713
0.08559437
0.1607456
0.1676533
0.160617
0.1237367
0.2115659
0.09510592
0.1234778
0.07092703
-0.002331675
-0.02704997
-0.03950719
0.1195688
0.0777085
0.009984607
-0.04455503
-0.1376799
-0.126319
-6.457554e-05
-0.05365138
-0.05201201
0.05011671
-0.0614919
-0.1187892
-0.02735979
-0.01365401
-0.1139975
-0.04168184
-0.03664761
0.06665255
-0.08924784
0.004464073
-0.05195397
-0.06218224
-0.05251863
-0.07220954
-0.07625444
0.07256405
0.1236467
-0.07493929
0.1362008
0.1977568
-0.004623747
0.03921812
0.1112693
0.08176439
-0.08220581
-0.05114384
-0.02055137
-0.1691968
-0.09546538
0.06122273
0.04215494
0.02049661
-0.02464969
0.02289291
0.1517107
0.03811639
0.1273951
0.1216962
0.09101708
-0.009529359
0.0629552
-0.05936783
-0.02454603
0.09150243
-0.08857682
-0.08261637
0.02421705
-0.03022896
-0.09372363
0.03718645
0.1725248
0.003021833
0.07206628
0.04439672
-0.08479844
0.1183185
0.00517987
-0.04222229
0.08239067
-0.102834
0.09570555
-0.1261387
-0.06273029
0.01881607
-0.2927326
-0.05499373
0.02034146
-0.2606587
0.04974423
0.1105517
-0.02680415
0.1323152
0.1423914
0.02009628
0.0425585
0.09898105
0.07177722
0.1164462
0.06441721
-0.08616943
-0.1710437
-0.1796979
-0.114108
0.03933129
-0.01653424
-0.04272316
0.007442716
0.01321296
0.08028039
-0.127497
-0.09806754
-0.02034482
0.04779201
0.04583947
0.1334507
-0.111029
0.01241605
0.01558593
0.04643455
0.09893732
-0.008945746
0.02072482
0.06544933
-0.03663814
0.002524284
-0.01017395
-0.06022578
-0.008185813
0.002788099
-0.2383776
0.04745856
0.07496721
-0.02628316
0.05945827
-0.07075682
0.02695278
0.1069019
-0.03073793
-0.08608491
-0.01673633
-0.08142639
-0.1474624
-0.07165243
-0.1062817
-0.1115486
-0.1214734
-0.1328551
-0.1717521
-0.1107321
-0.2258909
-0.263363
-0.07521463
-0.1445782
0.07067838
-0.1817357
0.001079038
0.1592137
-0.01894208
0.05823016
0.09584396
0.04223397
-0.02850182
0.04944059
0.06739224
0.0001057
-0.006009162
0.06332137
0.01018128
-0.0002408868
0.07523867
0.01843767
-0.003009456
-0.06913977
-0.05375092
0.06267541
-0.01345454
0.01533937
0.05685005
0.2157533
0.04166231
-0.06170417
0.01784217
-0.09710403
-0.1683948
0.007594366
-0.09930882
-0.1641292
0.1479103
0.05387598
-0.01025553
0.03004021
-0.02261122
0.02593713
0.02687132
0.1026191
0.1893269
0.03923433
-0.1040879
-0.06568019
0.0796329
-0.05347599
-0.01803845
-0.001647324
-0.03933777
-0.0258652
-0.01963022
0.08466749
0.04358675
0.1215229
0.1338073
0.1317656
0.003210162
0.09148062
0.08738394
-0.01905015
-0.02773249
0.01765513
-0.006664624
0.004282709
-0.1143533
0.06737163
-0.008700945
-0.08112658
-0.07774822
-0.0880344
-0.08645459
-0.05773997
-0.03548907
-0.1215632
-0.05174111
0.02145153
-0.1249599
-0.04537361
-0.04673189
0.007594704
-0.0107093
-0.02689805
0.04379456
0.05078591
0.0145363
0.03494538
0.06979402
-0.008683269
-0.04379993
0.04699166
0.01613673
-0.1832776
-0.00531084
0.1373525
0.001283303
0.1057201
0.09936678
0.1916404
-0.1032173
-0.1189559
-0.04409431
-0.06676153
-0.09301073
-0.09563161
-0.0408439
0.1615361
0.1646612
0.04586696
0.1410609
0.2066417
0.03054217
0.01048032
-0.03436299
-0.09493977
0.09429212
-0.02137734
0.03676003
-0.008965399
0.1422754
-0.1074583
-0.1232971
0.01975363
-0.1360359
-0.1324262
1.255679e-05
-0.1181507
-0.1239566
-0.04065298
-0.08954373
-0.1542523
-0.08463657
-0.1340067
-0.02122583
-0.03972538
-0.1401747
-0.08813776
-0.145179
-0.1189617
-0.1129142
-0.1320226
-0.01822552
0.04589874
0.05771725
-0.08413414
-0.1446427
-0.104939
-0.04996284
-0.07318104
-0.06414457
-0.1302269
-0.1670853
-0.1075856
-0.1711329
-0.163944
-0.1205413
-0.08438447
-0.1845186
-0.05052945
-0.007889925
-0.01478412
0.03085832
0.1244137
-0.02789715
-0.06650473
0.01998477
-0.05230391
-0.09105225
0.07368271
0.06107283
0.08523291
-0.03941174
0.01592852
0.09198593
0.004200792
0.01510232
0.05194321
-0.04242915
0.05067166
0.1119459
0.01915634
0.1188345
0.09415614
0.03261828
0.07519141
0.05074507
-0.02556416
-0.1684473
-0.1961915
-0.1341072
-0.1947994
-0.1121441
-0.05003615
-0.1163738
-0.11233
-0.1127406
-0.07040005
0.03421547
-0.08488161
-0.07843196
0.02587757
-0.1651631
-0.1090603
-0.04901489
-0.07439864
-0.05671199
-0.02584422
-0.07227942
-0.09379335
-0.1960277
-0.02128883
-0.1157499
0.009906027
0.004352723
-0.1357679
-0.2086191
-0.02812788
-0.1084977
-0.175678
-0.1021051
-0.08260532
-0.1219098
0.1565464
0.07995859
-0.007924987
0.1520869
0.08769587
-0.05194129
0.1986365
0.1618515
0.02601649
-0.1558766
-0.06206574
0.03066837
0.06685246
0.09109321
-0.02974975
-0.09896026
-0.03900177
-0.009544771
0.0929086
0.01793703
0.04260233
0.1106679
0.03059451
0.05526144
-0.2457135
-0.2549546
-0.1740836
0.06423549
0.0584361
0.003779083
0.08370251
0.05078351
0.08735118
0.07004548
0.1057982
0.1009144
-0.1402709
-0.04356073
0.08102116
-0.08881886
0.06228282
0.1224495
-0.113005
0.06257679
0.118
0.09085594
0.0141168
0.05112111
0.07932454
-0.0237506
0.04763908
-0.03400205
0.04746937
0.1218798
0.004709126
-0.02172515
-0.05304146
0.01791707
-0.05669255
-0.1128554
-0.04978235
-0.107724
-0.1342593
0.02300738
-0.01446723
-0.2191512
0.08649404
0.005328649
-0.1814896
-0.01044357
0.02432224
0.03278266
0.06924955
-0.001052816
-0.09806523
0.0502517
0.03871776
-0.008086703
0.1693856
0.1443458
0.05247597
-0.006586881
-0.08309348
-0.02211547
-0.02754267
-0.1385327
-0.1829883
0.02642588
-0.02602041
0.02752459
0.006840983
-0.1086001
-0.01545574
0.003140606
-0.1148427
-0.1485524
0.0004769141
-0.193078
-0.1707396
-0.007523897
0.1082273
0.04326592
0.167111
-0.02329219
-0.0941458
-0.06285384
-0.2678503
-0.2402221
0.03536563
0.06798778
0.1251388
0.1147428
0.1417769
0.2423153
0.2628187
0.2693916
0.03299305
-0.02372343
-0.07962038
-0.1466004
-0.1255573
-0.2079444
-0.06310072
-0.1212836
-0.1968999
-0.02297985
-0.008120796
0.07029603
0.0197189
0.04650116
-0.02262113
-0.1196728
0.0350848
-0.142712
-0.1834473
0.1069978
-0.03317839
-0.109587
0.04598401
0.04455315
0.03169161
0.1518951
0.2401964
-0.01022622
-0.02931264
-0.07824775
-0.05095634
-0.1091452
-0.04037812
-0.02535062
-0.07377549
-0.05495789
0.07809287
-0.1889127
0.04416749
0.0523141
0.09094926
0.03686194
-0.04860561
-0.01592449
-0.1116237
-0.1165596
0.1570584
0.08525289
0.00538424
0.08212426
0.03056636
-0.04306423
-0.1630851
-0.1623891
-0.1888156
-0.1514097
-0.06888377
0.05202303
-0.154107
0.09308354
0.1083625
-0.003268374
0.1921145
0.09591663
0.01171162
0.02396957
0.06059589
0.03950948
0.11629
0.05051171
-0.02827766
-0.007396773
0.02520188
0.01683293
-0.09381542
0.007320467
-0.09394529
0.07877545
0.01903997
0.1354751
0.138928
0.01832212
0.02422054
0.005072026
0.01956013
-0.01654401
-0.01026129
0.03395226
0.04181941
-0.01274772
0.1833658
0.1268054
0.1366415
-0.09985629
0.08626229
-0.2074875
0.004055216
-0.194791
-0.05720242
0.2000314
0.03479212
-0.149089
0.001208471
0.001344525
-0.09479367
0.01993182
-0.05453809
0.06389206
0.1002791
-0.175586
0.06790375
0.0473988
-0.005439061
0.08462658
-0.005164938
0.02815961
0.1521656
0.1388199
-0.01669351
-0.05047235
-0.08223663
0.003024393
-0.04834553
-0.09874421
0.01683562
-0.04802979
-0.1015797
0.03643313
0.006898616
0.004602275
0.0383669
0.04560392
0.05895742
0.03791125
0.0381882
0.06363316
-0.1202436
-0.146578
-0.08819617
-0.1351384
-0.1186629
-0.1230817
-0.08125893
-0.1246378
-0.05035576
0.1776502
0.05284902
-0.1045532
0.0393431
0.08260658
-0.005180182
-0.008074172
0.0018208
0.01480528
0.001205111
0.01149393
0.00217455
-0.05197025
-0.01841814
-0.003058351
-0.06091901
-0.03862931
0.03577634
0.06185105
-0.05505837
-0.05760749
0.001337695
-0.0620117
-0.007798898
-0.0007477229
-0.08079214
-0.02263167
0.00668728
-0.004529614
-0.008827561
0.03057652
-0.004694209
-0.04085135
-0.04434337
-0.0186439
-0.02489839
0.02448236
0.02700623
-0.02373056
-0.119714
-0.07461742
-0.01885953
0.04590883
0.03051293
0.04797774
-0.0691454
-0.06032052
-0.06345807
-0.1947667
-0.1621171
-0.1429023
0.007066895
0.02421098
-0.005953304
0.00453996
0.05863507
0.08976749
0.03173618
0.08508774
0.160257
-0.0186048
0.07438355
0.09694593
0.06014996
0.05079842
-0.0203205
0.009104589
0.001001754
-0.09330145
0.07765502
0.1232352
-0.01098274
-0.012526
0.006440711
-0.01782897
0.009756102
-0.04671119
-0.06118615
-0.006889492
-0.006324408
0.01338151
0.05374113
0.01774572
-0.02515307
0.1103508
0.08126416
0.06253554
0.0153655
0.02864741
-0.008593239
0.07010404
0.0189731
-0.03379359
0.0003512705
0.003541182
0.01972102
0.02153606
0.01112109
0.06113211
0.00523395
-0.03084304
-0.02764623
-0.0434356
-0.0583789
-0.02646238
0.02649847
0.01173194
-0.03654912
0.01426685
0.07255953
-0.03277098
0.1033043
0.2193588
0.1603795
0.0905899
0.1293596
0.1126021
0.06111399
0.01973945
0.01694695
0.02070817
0.1249805
0.1244081
-0.101682
0.03300487
0.02625093
-0.0484724
-0.01913681
-0.05985115
-0.003520932
0.002065155
-0.04226803
0.01896225
0.001443269
-0.02694193
0.06560332
0.006346464
0.003944296
0.05200727
0.01454293
0.04946819
0.04599882
0.07401995
0.1232231
0.05091239
0.01507925
0.00655901
0.1471499
0.08005846
0.05674984
0.1355227
0.1105007
0.06040666
0.05236474
0.004146616
-0.05064309
0.007842917
-0.06947391
-0.07823547
0.03605988
-0.05095527
-0.01562315
0.0001182709
0.06064001
-0.04976424
0.0924285
0.112829
-0.01542544
0.05451479
0.06775721
-0.05010617
0.0250917
0.03821343
0.0272461
0.01367559
-0.009100148
-0.03647579
0.03917662
0.03153795
-0.01716522
0.05650525
-0.0009226575
0.02043305
0.07828643
0.01823258
0.08209267
-0.002203301
-0.03372974
0.02349032
0.07658395
0.04817292
0.05481194
0.02619014
0.002321598
0.01136058
-0.1274533
-0.1787243
-0.1520818
-0.02408281
-0.02417565
0.001019443
-0.01030606
0.02198847
0.007087124
-0.01140687
0.05664738
0.03822862
-0.03398926
-0.0240469
-0.08665276
-0.01533756
0.03342469
0.006250615
0.07185318
0.06920292
0.03392076
0.08743008
0.01729599
0.05305422
0.003447951
0.003541016
-0.001428948
-0.01026643
-0.05295296
-0.02004871
-0.01097285
0.02016329
0.04766357
-0.001256068
-0.01362283
0.02531449
-0.01812823
-0.0233925
-0.01938855
0.01462884
-0.03700823
-0.02306872
0.01459689
-0.01556881
0.02061813
-0.05475429
-0.0430916
-0.07414246
0.008224815
0.03510332
0.08023637
0.0243653
0.01817498
0.05549281
0.04180066
-0.02530849
0.01922813
-0.09827092
-0.1731732
-0.1314006
-0.1149405
-0.1437463
-0.1092034
-0.006945905
-0.06646498
0.036084
-0.03084897
-0.106215
-0.09167363
0.0600558
-0.03413821
-0.05204932
0.03565933
-0.03265492
-0.04885484
-0.1544978
0.1006429
0.09300666
-0.1723062
0.266125
0.1032354
0.01763925
0.08373074
-0.04538652
0.07595753
-0.02078287
-0.1521172
0.2086843
0.08764739
0.009929013
-0.1730304
0.1207353
0.05247356
-0.08962374
0.006990084
0.04183281
0.03751846
0.03544177
0.2436372
-0.0777487
0.1695909
0.1984804
0.02117125
0.1000097
-0.1711267
-0.01066436
0.265979
-0.3009215
0.2831372
0.1034664
-0.1096902
0.0692136
-0.1816838
-0.1061291
0.0874256
-0.1287251
0.02765254
-0.04787502
-0.1068751
0.08164636
-0.02154934
-0.04486658
0.02692666
0.02075823
0.01322889
0.0619034
0.07325402
0.001753684
0.2415749
0.1686397
-0.04112227
-0.1159347
0.09536704
0.1479125
-0.3744698
-0.04472371
0.09590225
-0.1406913
0.1001334
0.08227982
0.04156481
0.05728434
0.0758615
-0.03637678
-0.02844445
0.05886736
-0.04080432
0.06368496
0.151394
-0.1182265
-0.07670882
0.09021126
-0.05249087
-0.04641345
-0.04643341
0.09172115
0.1291979
-0.01024912
0.1548079
0.1747524
-0.448386
0.3759432
0.2519176
-0.3106651
0.2989837
-0.02301705
-0.06574689
0.2229417
-0.04942965
-0.1550759
0.1953179
0.08931465
0.113327
0.1290993
0.05005092
0.01551612
-0.07225844
0.1579398
-0.05518873
-0.07452531
0.01957498
-0.1235627
-0.01358181
-0.01224634
0.09240683
-0.02176273
0.004769315
0.07488513
-0.1873219
-0.02921861
-0.1316028
0.08777582
-0.02430544
0.1383972
0.02124594
0.0286709
0.1261785
0.2736985
0.02685971
0.2219843
0.2161823
-0.07190693
-0.134586
0.05965199
0.03330484
-0.03530633
-0.1559629
0.006981177
-0.01872192
-0.101168
0.005185249
-0.06872886
-0.03576005
-0.04104799
-0.05343065
0.02122603
0.02169775
-0.03212503
-0.1739421
0.05800727
-0.01167861
-0.1454838
0.1927615
0.07260688
-0.1116305
0.1419351
0.1071746
-0.06674656
0.04570171
-0.02344715
-0.05255264
-0.007856013
0.009219233
-0.008623392
-0.018854
-0.01770171
-0.07319761
0.005423489
0.01054233
-0.03043236
0.001132303
-0.03732651
0.006700869
-0.09416068
-0.1438248
-0.06572796
0.07975623
0.02585989
0.009629907
0.07571471
-0.06044429
-0.0460379
0.08622012
-0.06023744
-0.05031041
0.02078777
-0.02569466
-0.07295348
-0.02291154
-0.01667031
-0.1048155
0.03934052
-0.01601104
-0.1099401
-0.05451133
0.02837075
0.04596238
-0.06942935
-0.01287642
0.05027041
-0.02996842
0.1082053
0.07030824
0.07426158
0.1148635
0.0721004
0.06809627
-0.02039423
-0.02406573
0.01238171
-0.087354
-0.1927106
0.09498676
0.1160175
0.1609451
-0.1590541
-0.1465617
-0.09929916
-0.2080849
-0.187706
-0.1685911
0.009891537
0.001681074
-0.03150756
-0.08121028
0.06766725
0.0161413
-0.09345181
0.02337678
0.09054104
0.04628091
-0.04060525
-0.03446158
0.07106718
0.03964834
0.02396751
0.1240289
0.1255801
0.1137365
-0.01802125
-0.01135366
-0.07546145
0.04747313
0.02116057
0.02633854
0.007717716
0.04533091
-0.03963334
0.009601357
-0.03534711
0.02710963
0.02050742
-0.1006807
0.04756346
0.1284595
0.09321069
0.1090006
0.03382232
0.02255335
0.07122677
-0.03715345
-0.1012717
0.09056369
-0.1220921
-0.1181041
0.0366256
-0.07209297
-0.1049123
-0.007458921
-0.03828882
-0.04820053
0.05975652
0.0001742474
-0.01515445
0.0334361
-0.08846139
-0.06828094
-0.105291
0.0360929
0.02372151
-0.03138124
0.04965122
0.001731136
-0.001083978
0.06343896
0.03986002
0.05088012
-0.06359207
-0.0803175
-0.0869628
-0.0608895
-0.06576669
-0.08654501
