16 16 3
0.00699265
0.0707742
0.1941034
0.08043764
0.1101624
0.2666551
0.004318139
-0.05365063
0.1314614
-0.0553237
-0.08368431
-0.100581
0.02250018
-0.03404469
-0.08013428
0.06766805
-0.01241732
-0.03804834
-0.04577934
-0.05771311
-0.1205716
-0.03207491
-0.07204603
-0.03747802
-0.00398514
0.04353154
-0.04889435
0.1055731
-0.02547519
-0.0160831
0.1059559
-0.01104506
0.03005948
-0.09757601
-0.2177187
-0.1689998
-0.01656689
0.01140063
-0.07888401
-0.04419655
-0.1104661
-0.01639814
-0.06965891
-0.06644712
-0.07073032
0.02546825
0.03562531
0.05395127
0.009205793
0.02627261
0.07321722
-0.01413285
-0.009201963
0.1089487
0.09105852
0.0542343
-0.00303128
0.0460868
0.08084307
-0.0217454
0.03043608
0.04403187
-0.04533689
0.05430194
-0.04333694
-0.05744405
0.1173609
0.01633191
-0.002331125
0.03973738
-0.06923041
-0.09139827
-0.0265379
0.06366426
0.03343491
0.03561744
0.01570774
0.004104493
0.0580431
0.1150337
0.04175632
0.1045777
-0.007140795
0.09713721
0.2171058
0.05018673
0.2071778
0.138307
0.002506511
0.2058374
0.0135576
-0.003776016
-0.0527551
0.06992672
-0.05236916
0.01535586
0.05975116
-0.006412574
0.07301738
-0.02862815
-0.03078163
-0.05885117
-0.03961478
0.01364536
-0.0476711
0.0008458634
0.006168278
0.02509572
-0.05199156
-0.1002739
-0.1159601
-0.02664133
-0.04228346
-0.02133535
-0.0614964
-0.07408155
-0.06099818
-0.09530596
-0.007997641
-0.06050698
-0.04600155
-0.02944517
-0.01211583
0.00118267
-0.07351344
-0.04085313
0.02723816
-0.01422036
-0.03402394
0.03646209
0.0419793
-0.06901233
0.02996393
0.06592602
-0.01994903
0.02475844
0.09779586
-0.01012206
0.07909988
0.03758967
-0.02115301
0.02867749
0.01794282
-0.008960398
-0.1007457
-0.05601116
-0.0611221
-0.08721954
-0.07894336
-0.06959525
-0.04795374
-0.002480443
-0.07508232
0.01740285
0.002764269
-0.1126144
0.06966495
0.2344672
-0.1009252
-0.04000195
-0.005913838
-0.1630842
0.06560124
0.1472472
0.009031444
0.1035599
0.1332249
0.1914957
-0.02078682
0.1385538
-0.03787811
0.06510278
0.06839292
0.08442698
-0.003371872
0.01970851
0.05354921
0.0334641
0.001661097
0.04281993
0.08341454
0.1362939
0.0726323
0.130022
0.155519
0.07686575
0.06343468
0.1084483
0.0445256
-0.05804038
-0.06939279
0.09874163
-0.02541733
0.09846666
-0.03362805
0.2179417
0.1845309
0.1835062
0.03119153
-0.04495054
0.07581466
-0.0245587
-0.01352561
0.0247865
0.04642681
0.2091214
0.1492476
-0.003761638
-0.01086594
-0.006174597
-0.02329648
-0.05815365
-0.06992285
-0.008996635
-0.06463288
-0.07285318
0.04474434
0.05762122
0.1527498
0.02208777
0.1099006
0.1362853
-0.08915128
0.0543192
0.02926037
-0.05967633
-0.07169291
0.04003098
-0.1195754
-0.1352538
-0.06611421
-0.1415994
-0.1241914
-0.1080569
0.03067056
-0.1575687
-0.06025366
0.01885942
-0.1165069
-0.08069763
-0.01142766
-0.1065476
-0.02041845
0.02112851
0.03846978
-0.07426696
0.2146639
0.1303909
-0.07497054
0.08551059
-0.05959352
-0.108684
0.04877915
0.05755387
0.06573129
-0.05699614
-0.07050556
-0.04412223
-0.02182523
-0.07059764
-0.07897
-0.05341906
0.0871021
0.04679523
-0.07586838
0.04065808
0.09105614
0.003102458
0.1211776
0.1280073
-0.004249353
0.09909446
0.1806948
0.08792353
0.1943057
0.1257429
-0.05172659
0.07413929
0.08042931
0.03156339
-0.06603744
-0.02994411
0.1151284
-0.09063413
-0.145968
0.05350941
-0.06156199
-0.1681652
-0.03269053
-0.1168216
0.08370415
-0.02200779
-0.05827877
0.02300464
0.02655215
-0.02272804
-0.07250553
0.1074767
0.0609824
0.1873079
-0.04290623
-0.06589914
-0.1892697
0.1085246
-0.03694548
0.07245332
0.1241124
0.1506457
-0.09444617
0.04175252
-0.2561492
0.09130213
-0.01585644
-0.02785492
-0.05190836
0.06759214
-0.1133689
0.05206594
0.01778936
-0.1520256
0.01833008
0.1406141
-0.07597239
0.09419595
-0.08944149
0.1784766
-0.09095085
0.08829705
-0.1659355
-0.02981015
-0.1047437
-0.03826693
-0.08047418
-0.0667541
-0.1251478
0.03287547
-0.09144479
-0.02049937
-0.09073947
-0.1229438
-0.08470111
0.08825578
-0.1320326
-0.2194387
-0.04047015
-0.108332
-0.09293994
0.1004576
-0.01884022
-0.02549758
0.01310958
0.05281425
-0.1339928
-0.03957118
0.01402872
-0.1939076
-0.09871638
0.02347692
-0.177769
-0.02425804
0.07006119
0.009465876
0.0580313
0.05671527
-0.02283632
0.01353797
-0.02004378
-0.1369403
-0.1657617
-0.007083804
-0.2669624
0.02425167
-0.07939284
-0.1737599
-0.1211194
0.1131701
0.05596609
0.02732078
-0.003001279
-0.03498947
0.01272778
0.03314682
-0.04687851
0.01919535
-0.09093445
-0.06862321
-0.09654632
-0.04388063
-0.08647288
-0.03198802
-0.08594763
0.06971851
0.1464285
-0.09446228
-0.2141028
-0.0149893
0.0298223
-0.07133876
0.01346058
-0.1237668
-0.1338147
-0.08119719
0.04825271
-0.03908299
-0.02845197
-0.0469145
0.1033057
-0.007115096
-0.201634
0.01843475
-0.104158
-0.2990949
-0.1548734
-0.1317787
0.02494621
-0.02826801
0.1092413
-0.1077729
-0.04281447
-0.001411955
-0.0224003
-0.09998286
0.09238858
-0.1284194
-0.09420928
-0.04096596
-0.1735217
-0.07181579
-0.0866847
-0.03753275
-0.1348987
-0.1249797
0.1620235
-0.01535553
-0.1228761
0.126141
0.1537515
-0.002813045
-0.04842677
-0.02432927
0.1089646
-0.002050377
0.1755593
0.09641111
-0.1948626
-0.1362114
0.07836077
0.09361409
0.2034126
0.09383949
0.03201609
0.2213315
0.07747618
-0.2361466
0.1259689
0.1424508
0.05141801
-0.104568
-0.2354773
-0.05897042
-0.05955678
0.01209189
-0.05528145
-0.04938151
-0.01285219
-0.02377589
0.003069988
-0.02539101
0.02245186
0.08608783
0.1701854
-0.09898807
-0.2262038
0.1881565
0.2136707
0.1304476
-0.07160085
-0.0537536
-0.02733813
-0.1278607
-0.06062791
0.03007563
0.0005629237
0.00709317
0.1227077
0.04949921
-0.02079299
0.1828057
0.06558696
0.2497869
0.2519202
-0.00169555
0.1449088
0.02931853
-0.02316991
-0.006721096
0.03597645
-0.01860815
-0.05745517
-0.001272995
-0.03035016
-0.03504242
-0.07824989
-0.04154742
-0.1085238
0.003022425
0.01747276
-0.2163579
-0.05788774
-0.03714294
-0.1370721
-0.1411139
-0.1761563
0.1972548
0.1678449
-0.1222387
0.0009777654
-0.06309547
-0.05802768
0.06296468
-0.01610202
-0.001981018
0.1782404
0.1817184
0.1270008
0.01845805
0.2392189
0.1132472
-0.03908541
0.05093326
0.09899262
-0.09619552
0.008093696
0.05765266
0.2871044
0.1651233
0.2421746
-0.1491924
-0.01702795
0.1710301
0.02245482
0.01360212
0.0247942
0.04219045
0.002734044
0.03801395
0.007256134
-0.008877627
-0.1005409
0.03816916
0.1169383
0.3263569
0.2158491
0.1764997
0.139195
-0.1313325
0.170305
0.3095907
0.07210296
-0.06091083
-0.1167428
-0.04619914
-0.06426887
0.02774489
-0.03917412
-0.09852744
0.01076839
0.0657345
0.04418196
-0.07821195
-0.003115484
0.2556913
0.1718246
-0.04641888
0.07814121
0.189406
-0.03286877
0.00139281
-0.03380506
0.01328735
0.0435257
0.01740993
0.06231684
0.1336993
-0.002244038
-0.01669187
0.05411817
-0.05204331
0.03802959
0.1775228
0.06491128
0.09179164
0.03881501
-0.03897958
0.1495909
0.2247773
0.09895094
0.2396808
0.2821925
0.1152238
0.1950988
0.2185685
0.01886028
-0.07353856
-0.05504891
-0.08238421
-0.1313837
-0.0834147
-0.1389191
-0.160554
-0.1360908
-0.2769017
0.001384284
0.0764183
-0.002211555
0.1240965
0.06328961
-0.1902845
0.0522651
-0.2019866
-0.1421329
0.084743
0.2937105
0.2456477
0.1883762
0.3900828
0.2887188
0.1468866
0.2793631
0.1683506
0.1355364
0.09176849
0.06259467
0.04065641
0.1400034
0.146573
0.04989615
0.1663571
0.1078439
-0.003676295
-0.02437753
-0.06350444
-0.01545639
-0.007992401
-0.09245215
0.01173335
0.09923393
-0.01921663
0.1050839
0.1123785
-0.02510877
0.106688
0.1120025
0.1025168
0.0867723
0.1209573
0.1510077
0.02408922
0.04357901
-0.03684278
-0.0139257
0.009360976
-0.1422961
-0.04457113
-0.1013316
-0.1882674
-0.07452834
-0.02488521
0.03106565
-0.0918748
0.04364734
-0.007484838
-0.009669056
0.04675176
0.02884621
-0.04788211
-0.03915711
-0.1570677
-0.0163463
-0.03342684
-0.1343616
0.04795002
-0.03458523
-0.03763561
-0.1028885
-0.1014317
-0.1061073
-0.1052296
-0.05913554
-0.02692666
-0.02856213
0.1212003
0.0577236
-0.006423598
-0.1201481
0.02915433
-0.05888908
0.02635638
-0.006356149
-0.05933067
0.03170165
-0.02619646
-0.01524535
-0.06105421
-0.208679
0.02553916
-0.05185436
-0.09963211
0.03897921
0.03182476
-0.08673634
0.2175802
0.07572417
-0.04757739
0.1242868
0.05692703
-0.003113088
-0.01251349
0.1184932
0.1060757
0.0003957308
0.08400103
0.05826513
-0.03848086
-0.008482098
0.00351289
0.1354817
0.1281087
0.1036009
0.1446377
0.09588508
0.05468066
0.03382387
0.1296178
0.07238621
-0.07334802
-0.00879029
0.03138173
-0.1663872
-0.001904406
0.1405486
-0.1358093
-0.1187597
-0.03810426
-0.07149067
-0.1123675
-0.06891362
0.1695676
0.1105811
0.144668
0.1391058
0.06090453
0.134964
0.06692152
0.03505632
0.06684899
-0.1178341
0.05600437
0.1104232
-0.1245446
-0.019864
0.009700725
-0.15424
-0.1600163
-0.1193078
-0.008024663
-0.1189386
-0.0635563
-0.08675832
-0.0562484
-0.1515033
-0.02743745
-0.1355358
-0.2247567
-0.0473467
-0.1144859
-0.02933257
-0.197588
-0.1318695
-0.07582429
-0.2305006
-0.1056711
-0.05587354
-0.01076736
-0.06644221
-0.0908122
-0.06444955
-0.1293678
-0.1662256
-0.0284513
-0.1145034
-0.178965
-0.131123
-0.1177803
-0.1483186
0.03005132
0.0007768117
-0.01677925
0.04882649
0.168863
0.04763353
0.01826218
-0.1306473
-0.1011821
-0.01013387
-0.1992701
-0.1718939
-0.02694943
-0.2211742
-0.1840123
-0.1770635
-0.08135142
-0.116535
-0.1894843
-0.1067089
-0.07319755
-0.09938394
-0.04483661
-0.08874133
0.1233755
0.1189255
-0.034171
-0.01149797
0.0261337
-0.01897688
0.04928792
0.1003919
-0.05860884
0.1043505
0.04011478
0.009168038
0.06218732
-0.0289203
-0.04500317
-0.01099451
0.01064969
0.06243076
0.0933001
0.04936193
-0.03115844
-0.1148332
-0.1475679
-0.08134127
-0.1060801
-0.1605179
-0.1351746
-0.0605979
-0.1330955
-0.1354733
-0.01805511
-0.182019
-0.2292729
-0.02548687
-0.0804457
-0.1587859
0.1300111
0.03320411
-0.1373149
0.003977636
-0.09324338
-0.1716193
-0.04380192
-0.07722192
-0.04934967
0.07256873
-0.001687444
0.01835387
0.1093906
0.02998411
0.04969862
0.05896455
0.0348642
0.07943096
0.1370329
0.2575164
0.1580955
0.2894222
0.4278401
0.3551802
0.2706266
0.2885213
0.1281918
-0.02307636
0.001993845
-0.01680064
0.06019869
0.1368606
0.01538237
0.1035636
0.05008312
-0.02879298
0.09429595
-0.0006461365
0.07822839
0.01284865
-0.092965
-0.02169716
0.05337486
-0.02641667
0.02244473
0.1137078
0.101638
-0.05828474
0.1434693
0.1568257
0.03708722
0.1555246
0.2465976
0.05507029
0.1026177
-0.0334641
-0.1140844
0.03613459
-0.1213359
-0.2193348
-0.04087067
-0.1414035
-0.1824761
-0.1689434
-0.007508293
-0.047825
-0.2008116
-0.06740417
-0.06064769
-0.1834258
-0.06058452
0.04758355
-0.08117071
-0.1427717
-0.09250815
-0.06815059
-0.1222716
-0.09569027
-0.04782972
-0.07682553
-0.02375347
-0.09999982
-0.0492948
0.04356211
-0.00826851
0.02843494
0.01725048
-0.0416386
-0.03197746
-0.02181783
0.04913642
-0.1582201
-0.1260792
0.01639784
-0.2430884
-0.09177126
-0.04292491
-0.260505
-0.1931521
-0.003706253
0.07684767
-0.0108746
-0.07758391
-0.01055042
-0.03380382
-0.059581
-0.02834088
-0.1097857
0.1978667
0.2888759
0.0867619
0.5054073
0.3840998
0.2639675
0.2371844
0.3344398
0.2986353
-0.1541066
-0.1743792
-0.1300478
-0.1884969
-0.1894008
-0.1129857
-0.1366097
-0.1068365
-0.04111909
-0.01890378
0.03598154
0.05500438
-0.09551618
0.0601619
0.008048018
-0.02978407
-0.08101235
0.0513612
-0.0588801
0.01533268
-0.006496024
-0.03052672
0.09169906
0.09470593
-0.06151349
-0.07191411
0.01019141
0.04794282
-0.005940878
-0.01411007
0.0759191
0.06328499
0.1928156
0.04181128
0.04410065
0.06135419
-0.01737495
0.05291371
0.09999864
0.1486885
0.2564127
0.3658074
-0.06722529
-0.09398682
-0.1026075
0.0684167
0.05942964
0.01825957
-0.07111786
-0.004352195
0.003768144
-0.064866
-0.1241844
-0.1615272
-0.04976536
-0.02136582
0.1264135
-0.01369433
0.2257205
0.1613551
-0.06689757
0.07448544
0.03156399
-0.1124704
-0.02175387
-0.00663455
-0.02528868
0.03335049
0.03598665
-0.08666791
-0.04822541
-0.005944928
0.1288275
0.0180465
-0.005114587
0.05046452
0.2488595
0.01409322
-0.2115626
-0.1111402
0.02720134
-0.0002131899
0.09934495
0.1366343
-0.03874138
-0.1456507
0.03771289
-0.1006628
-0.1322888
-0.05245095
-0.142775
-0.001835579
-0.01344031
-0.1751099
0.005665032
0.002276569
-0.1518428
-0.1582203
-0.1197209
-0.1321999
-0.04501599
0.03820496
-0.07502878
-0.004900723
0.03960726
-0.005767346
0.04377154
0.0457689
0.09859248
0.04406553
-0.2021352
0.09239399
0.06963596
-0.1303067
-0.07493401
-0.005484023
-0.002465487
-0.1103664
0.01519584
0.07076924
-0.07774547
-0.07762019
-0.06453324
-0.06619438
-0.04585056
-0.06887474
-0.04258648
0.0955066
0.07875776
-0.1063325
-0.08386187
-0.0138368
-0.07475217
-0.1793906
-0.1569254
-0.08538096
0.1272441
0.1958546
-0.06793254
-0.01610726
-0.07068282
-0.003401274
-0.06034001
0.002939465
-0.03775139
0.05051721
0.04756618
-0.07705928
-0.007488276
0.005327121
-0.01968657
-0.001216728
-0.06039738
0.1143671
0.08944028
0.08074113
0.1054665
0.05463164
0.1565674
-0.08215702
0.08520646
-0.06912547
0.005323375
0.09356725
0.2317146
0.04311806
0.05684032
0.07266836
0.01888281
0.2832333
0.2175409
-0.01259029
0.08036682
0.1605398
-0.01434089
0.006601675
-0.03083731
-0.09145325
-0.233713
-0.1413716
-0.02887515
-0.06864268
0.1469893
-0.1285646
-0.1792371
-0.07431277
-0.03304118
-0.1127023
-0.1300717
-0.1160895
-0.161388
-0.1430597
-0.07564302
-0.1262458
-0.09799226
-0.08116454
-0.01723814
-0.08373128
0.105537
-0.0973296
-0.1376196
0.1548312
-0.0768029
-0.09332819
0.01913165
0.08060738
0.01049163
-0.06093501
-0.271577
-0.09190056
-0.08713603
-0.2975844
-0.1350619
0.009829716
-0.2004983
-0.039549
0.03076573
-0.092631
-0.05785578
0.1361035
0.04536574
0.06512205
-0.05780858
0.02427015
0.1120601
0.1567575
0.15113
0.2209045
0.03339556
0.1516192
0.2090272
-0.03830598
0.04090044
0.2053109
0.01502401
0.03413174
-0.08549429
0.05063977
0.03623578
-0.08199239
0.07757586
0.1264801
-0.03033343
0.04800418
-0.08632442
0.03475543
0.04584306
-0.09735607
0.03594854
-0.01289613
-0.1192417
0.01233591
0.07095447
0.05338188
-0.03138075
-0.05993229
-0.1122234
-0.09286428
-0.04703725
-0.1247458
-0.07642754
-0.1565695
-0.2787724
0.112593
-0.04373424
-0.2388584
0.01526503
0.09850378
-0.1325025
0.02104019
0.03421115
-0.02129053
-0.01876584
0.1061339
-0.07138574
-0.04668939
0.04886011
-0.009769676
-0.09134123
-0.146281
-0.1146832
-0.005902183
-0.1201187
-0.1636705
-0.09670591
-0.05494557
-0.05639724
0.03763426
0.0145898
-0.03840568
-0.1416193
0.05471688
-0.05937305
-0.1404791
0.08028065
-0.05468236
-0.1217321
0.1548287
0.2469049
0.1475899
0.3154509
0.352095
0.3087812
0.3135739
0.3981565
0.187561
0.00170562
0.0727734
0.1281559
-0.1238416
-0.08545173
0.008681657
-0.107921
-0.1589635
-0.1049191
-0.05070969
0.1724989
0.2151409
0.03684724
0.1689819
0.107823
0.1066181
0.09480005
0.1921158
0.07679868
-0.09238873
-0.09272317
-0.1178798
-0.1371722
-0.1904392
0.1038209
-0.08382243
-0.1367429
-0.2337275
-0.2619883
-0.1038271
-0.156013
-0.1007417
-0.06664561
0.01836908
-0.1424604
-0.1325822
0.1168713
0.2810473
0.1171781
0.004833559
0.1965846
0.2192576
0.1516303
0.2146486
0.1073006
0.01984128
-0.02566276
-0.03558283
0.05149332
-0.045017
-0.05259232
0.1103675
0.04266264
-0.01138113
0.09910838
0.2553629
0.07831912
0.2805701
0.3790395
0.1818719
0.4590122
0.3345964
0.1226456
-0.05302322
-0.1694301
0.0201115
0.007633792
-0.1538109
0.09428807
0.07636891
-0.23082
-0.009551308
-0.2293157
-0.05958797
-0.170939
-0.1480192
0.1080653
-0.1091958
-0.04738719
0.0550556
-0.02992013
-0.05845116
0.01361545
-0.03080277
-0.04491502
-0.02410811
0.02118094
-0.006079795
-0.1049893
-0.03709695
0.02904961
-0.01867643
0.04990586
-0.003096419
0.060928
0.1459916
0.1181639
0.07604004
0.1768621
-0.06637833
-0.177097
-0.170527
-0.04299305
-0.1491491
-0.1695566
0.03618905
-0.02875313
-0.08857625
-0.1945298
-0.2325218
-0.05817477
-0.2336417
-0.1567527
-0.2125129
-0.1922299
-0.1809848
-0.2538722
-0.1173322
-0.08697294
-0.05016804
-0.1270044
-0.234221
-0.0924465
-0.09694572
-0.2071832
-0.1818189
0.05106866
-0.02974951
0.02844377
-0.01633335
-0.08082366
-0.0831693
-0.001791887
-0.1399725
-0.0534903
0.0931999
0.05814601
0.02318584
0.1515725
0.1996171
0.03330103
0.04319097
0.227294
-0.01348353
0.0786464
0.1163576
0.2419523
-0.002087821
0.2745492
0.2395428
-0.04916641
0.1259431
0.1746094
-0.2060789
-0.1712657
-0.1046384
-0.37288
-0.2898943
-0.2227766
-0.1010717
-0.1662783
-0.1224972
0.02535857
0.04528249
-0.01905743
0.05808605
0.004222327
-0.1296485
-0.008643687
-0.0811765
-0.1117314
-0.1676789
-0.3140194
-0.1702453
-0.1855846
-0.2944258
-0.1912034
-0.06303498
-0.1833488
-0.1696117
-0.2676455
-0.2724333
-0.07407416
-0.202422
-0.2154054
-0.07571322
-0.02312208
-0.0935003
-0.02460415
0.0824118
0.008789747
-0.1219705
-0.04859821
-0.07481942
-0.187213
-0.02817192
-0.01827195
-0.1418025
-0.2673697
-0.1028542
0.05073368
-0.2931204
-0.1880541
-0.005990202
-0.1654911
-0.2006309
-0.151079
0.09174755
0.03108034
-0.02304821
0.05035489
0.03060882
0.01716
0.1285716
0.08813503
-0.07406275
-0.07496557
0.08739504
0.1579754
0.1013341
0.07821608
0.148644
0.0008818351
0.04926823
0.1178383
0.03569759
0.1393913
0.04828475
-0.02057177
0.113594
-0.02788487
-0.02561174
0.01815637
-0.07541759
-0.02973512
-0.07881164
-0.01295666
-0.153318
-0.2439253
-0.1474837
-0.1369369
-0.2372962
-0.1654276
0.1137776
0.03093912
-0.2604949
0.03641622
0.02224676
-0.1444359
-0.04370214
0.01726831
-0.05308468
0.1515989
0.04887835
0.005144589
0.1305017
0.06109906
-0.0878069
0.01958415
-0.04070041
-0.1476517
-0.2588787
-0.2596867
-0.1892999
-0.2599926
-0.3407132
-0.2424899
-0.01447432
-0.1018476
-0.1753676
0.04282834
-0.0907713
-0.1200947
-0.01010366
-0.1035541
-0.1980863
-0.08485834
-0.1690884
-0.2481066
-0.08704841
-0.1183574
-0.06238781
-0.1070881
-0.207457
-0.2521016
-0.03506956
-0.1560096
-0.1362236
-0.1434289
-0.1256439
-0.06786624
-0.05903139
-0.1865037
-0.09644853
0.08313317
0.04378084
0.03528889
-0.0164481
-0.05288644
-0.05338462
-0.1871303
-0.1459443
-0.003706445
-0.1841465
-0.009840516
0.09226645
0.04680349
-0.00610168
-0.05237528
-0.04090012
-0.04473766
-0.0174609
-0.08712041
0.0185122
0.01302926
-0.1247181
-0.2328879
-0.24849
-0.1086705
-0.1489596
-0.188488
-0.173324
-0.1963315
-0.1368912
-0.1457441
-0.1016579
-0.1579015
-0.1269999
-0.1760246
-0.1876012
-0.1844636
-0.2189478
-0.07139696
-0.06946658
-0.1276721
-0.1262842
-0.02922907
-0.02804873
-0.01995398
0.04548077
-0.03046883
0.02526162
-0.1593433
-0.1822751
-0.04201845
-0.1629435
-0.2299237
-0.08532744
-0.1460508
-0.09255943
0.06532034
-0.06769097
0.001043563
-0.06785095
-0.07146926
-0.2167679
-0.2097319
-0.05881305
-0.109138
0.02970506
-0.02679009
0.008160163
0.001562602
-0.05182059
-0.05900608
-0.1771803
-0.05854863
-0.06340265
-0.09175374
0.03744236
-0.03205242
-0.0591025
-0.003324756
-0.03724186
-0.1003693
-0.07847416
-0.1011839
-0.08520258
-0.1061941
-0.005612281
-0.1065791
-0.0904984
-0.0319355
-0.04881729
-0.09209365
-0.04940357
-0.05113641
0.02048842
-0.2753889
-0.08957512
0.03241874
-0.1276787
0.05368395
-0.002059029
-0.05063331
0.07035642
0.04089999
0.1073766
0.02163387
0.1013907
0.05920268
0.0845429
0.01541584
-0.005525378
0.07768925
-0.05512257
-0.05377923
-0.009808226
0.08531971
0.005185199
-0.04674036
-0.05632694
-0.07478431
-0.02048429
0.1477199
0.1376354
0.1024221
0.08891024
0.1045702
0.02426307
0.02735728
0.01978927
-0.1081943
0.1724164
0.1882916
0.03449929
0.1110484
0.2028092
0.08257782
0.2188744
0.09819622
0.104917
-0.04657219
-0.03915673
-0.03855691
0.02974788
-0.08222974
-0.08936564
-0.04011243
-0.1105622
-0.08003259
0.03649766
0.09694046
0.1839533
0.09822065
0.2017646
0.3082401
0.2079777
0.261794
0.120373
0.1383041
0.1256348
0.09807774
0.04038499
0.1168899
0.109577
-0.07423607
0.0846707
0.02941963
0.1513508
0.1455745
0.08002219
0.222368
0.1868281
0.1317794
0.1314223
0.1210992
0.1954823
0.0003404085
0.04359979
0.05018314
-0.1048674
-0.08188114
0.005121602
-0.06078205
-0.0100625
0.07562906
-0.09994651
-0.01845218
-0.1133378
-0.1240186
-0.03854751
-0.1166245
-0.1535621
-0.06883178
-0.06903467
-0.1773758
-0.05722168
0.003995931
-0.1178607
-0.03646668
0.05356995
-0.09570798
-0.1765105
0.006448426
-0.05581412
0.002143464
-0.1369641
-0.02980593
-0.08250421
-0.1209534
0.03898442
-0.1055255
0.001011061
-0.126781
-0.1420698
-0.1265072
-0.1311216
-0.1315378
-0.1057211
-0.103918
-0.05639398
-0.03567828
-0.01352237
0.09199104
0.02402769
0.07671084
0.1696991
0.1256984
0.03057069
0.09908731
0.05870461
0.137796
0.1729923
0.1215679
0.08234446
0.08495629
0.119206
-0.1713346
-0.1588203
-0.0361558
-0.03907192
-0.01143818
0.007228673
-0.04971496
0.05820205
0.0542601
-0.1281982
-0.02370834
-0.03782943
0.1511736
0.1444996
0.06788071
0.1170158
0.06418601
-0.06045663
-0.1184668
-0.11766
-0.201655
0.1606053
0.2064422
0.08789151
0.04563967
-0.01142024
-0.02210067
0.0712982
0.07767206
-0.01022245
0.01609936
0.05172827
0.1012146
0.008006452
0.05215697
0.07108198
0.04919603
0.005579303
-0.003836076
-0.1626494
-0.2084523
-0.1052145
-0.2586608
-0.3849462
-0.2357102
-0.1410151
-0.3568753
-0.2472777
-0.07005866
0.1072812
0.1888841
-0.09329411
-0.1497452
0.05796763
-0.03292924
-0.0908046
-0.02907561
-0.007901029
-0.09328375
-0.03465946
-0.06319077
-0.0982934
-0.08392384
-0.09200235
0.02651688
-0.08617731
-0.1142774
-0.06712175
-0.0663846
-0.06552386
-0.05247194
-0.08546019
-0.0163151
-0.1036046
-0.169469
-0.0693652
-0.1627009
-0.1950095
-0.1249835
-0.226521
-0.2305445
-0.1148903
-0.1766082
-0.08108696
0.08207699
0.02312078
0.07226345
0.02252055
-0.04768324
-0.0003307429
-0.01986198
0.004783034
-0.03858149
0.1695677
0.09437826
0.07355595
0.1465415
0.07011432
0.07247351
0.09535641
0.02398363
0.05910645
-0.08145199
-0.0171592
0.03904786
-0.0317511
-0.04921825
-0.04688673
-0.02722575
-0.1110072
-0.1211595
0.1030743
0.1489991
0.09213275
0.1278677
0.1366209
0.1291329
0.05957347
0.006791215
0.03779929
0.1172972
-0.05664811
0.008785714
0.06551725
-0.1071174
-0.02119637
-0.02042126
-0.07816803
-0.04110465
-0.0163155
-0.04480394
-0.02747163
0.02080331
-0.01603252
-0.012758
-0.005391654
-0.0491993
-0.0388712
0.01095647
0.0003059145
-0.008031322
0.1019191
0.05769427
0.08296324
0.06188022
0.05865502
0.08365593
-0.006264708
-0.04346526
0.007633349
-0.0366635
-0.0953998
-0.05063451
0.01427972
-0.08328176
-0.07223369
-0.05932213
-0.132048
-0.02630021
-0.04572359
-0.02109768
-0.004221606
0.03191448
-0.04124752
0.005512414
-0.1209931
-0.1413221
-0.1801908
-0.2048154
-0.2470248
-0.1978482
-0.03348425
-0.1600067
-0.1376728
0.1133217
0.06621274
-0.0547043
0.05061547
0.0259243
-0.08659378
0.03950102
0.0008694234
-0.04713785
0.03777069
0.05327214
-0.001815555
0.169884
-0.05337282
-0.09801748
0.1398628
0.01288223
-0.01153255
-0.07537634
-0.07829247
-0.0620481
-0.1051693
-0.1051762
-0.1213449
0.01089623
-0.09254774
-0.1256971
0.08013371
0.07421798
-0.01994012
0.09279885
-0.006894237
-0.01001548
0.02522884
0.008243449
-0.06580721
0.07063571
-0.04584767
-0.1458374
0.07728593
0.007170216
-0.1679976
0.1041126
-0.01520627
-0.1230813
-0.03287777
0.02365565
0.0476467
0.04402139
0.02733867
0.06020267
-0.01643435
0.01575734
-0.0230782
0.006694288
0.09656736
0.1129815
-0.08610082
-0.01954872
-0.01528772
0.04648987
0.1045394
-0.1529749
-0.005289716
-0.02030467
-0.1029584
-0.07774068
-0.03309834
-0.1075056
-0.06679811
-0.04597421
-0.1083923
0.04113666
-0.0217238
-0.04494948
0.1271095
0.02641883
-0.03958191
0.08217543
0.2412339
0.03670658
-0.0295904
0.02173438
-0.008915215
0.09226666
0.009400008
-0.08211507
0.2027497
0.1053135
-0.01947284
0.05900081
0.2908246
0.05743929
0.1638985
0.3411362
0.135263
0.13333
0.2232484
0.1597698
-0.04854522
-0.002392458
-0.01201374
-0.09938164
-0.03437261
-0.01891691
-0.07215184
-0.03989924
-0.005553339
-0.08614084
-0.007661473
-0.08181565
-0.09148869
0.1002488
0.02423297
-0.01551516
0.1454094
0.01103065
-0.1120204
-0.02727493
-0.04763545
-0.1680323
-0.1330047
-0.08778286
-0.1744653
-0.2133856
-0.06120793
-0.03213467
0.03097907
-0.01684761
-0.08416965
0.06347981
-0.02147522
-0.08365388
-0.03032055
0.002188117
0.04087749
0.006287221
0.05316525
-0.0297009
-0.1632734
0.03779334
0.1368092
-0.04251403
0.06328055
0.1224163
0.0698346
0.08757649
0.05815898
0.07596382
0.1195559
0.01318044
0.1281896
0.0991419
-0.05419575
0.08720148
0.1036774
0.06987954
0.1189139
0.1381213
-0.0001834731
0.05483594
-0.0004488124
0.02116806
-0.02371167
0.08979141
-0.07935112
0.003050923
-0.06631149
-0.03633157
-0.03098619
-0.01663916
-0.1133125
0.05940178
-0.0407299
-0.06722839
-0.01629181
0.0615778
-0.01760327
0.001288559
0.1171736
-0.02669393
-0.1643593
-0.0638658
-0.05750692
-0.226812
-0.06750413
0.03640878
-0.05102352
0.01942894
0.0664969
0.0640656
0.112575
-0.06292594
0.03457816
-0.02840683
-0.05933141
-0.03309292
0.005756265
0.08370258
0.06267425
-0.01973139
0.04100511
0.09814188
0.106114
-0.04933325
0.01304192
0.02380714
-0.08932418
-0.1440275
-0.006610489
-0.2061817
-0.2796056
-0.152863
-0.149024
-0.2530727
-0.1627518
0.007578712
0.08620518
0.1184527
-0.02047978
0.1101389
0.1968173
-0.134294
-0.0501846
0.03816677
0.02453574
-0.03497467
0.0008997913
-0.03093704
0.02144902
0.07691016
-0.004215755
-0.009645187
0.1393194
0.07003424
-0.07881921
-0.08843715
0.1246083
-0.02215626
-0.1532207
0.01915577
0.002773303
-0.1693937
-0.01472167
-0.05503365
-0.07832055
-0.02092332
-0.03445955
-0.03505346
-0.003069206
-0.06244661
-0.007751225
-0.03659491
-0.007457667
-0.03532563
-0.1005036
-0.04555256
-0.01654714
-0.1503878
-0.07140744
-0.05503363
0.04268358
-0.3084542
-0.05996192
-0.07481484
-0.2747695
-0.115946
-0.006435228
-0.1906898
0.02997999
-0.09505179
-0.1175914
-0.05936705
-0.0405467
-0.05171398
-0.1013748
-0.05780049
-0.1259983
-0.09043618
-0.1256484
-0.1004212
-0.04702488
-0.04534488
-0.04024838
-0.02795343
0.03161987
0.02134522
-0.03570758
-0.09679931
-0.1251812
-0.09260308
-0.1363022
-0.2394986
-0.2483791
-0.03613935
-0.1506098
-0.2166836
0.105061
0.02672457
0.0002629851
0.05901412
0.06772713
0.04571428
-0.002585418
0.08488975
-0.002053529
0.08189493
0.07015053
0.008392944
0.02138325
-0.00242572
0.02037386
-0.04803396
-0.07188262
-0.03838448
-0.08392935
-0.1039467
-0.1173439
-0.04941566
0.009678693
-0.01028908
-0.02459445
0.07125327
-0.006760414
