16 16 3
-0.1222134
-0.08908798
-0.04725617
-0.05724245
-0.02346726
-0.00115773
-0.09506903
-0.05634275
-0.03069685
-0.001039825
-0.05816093
-0.09978589
0.05534001
-0.00857305
-0.02442534
0.09230937
0.05172282
0.05549642
0.02440668
0.03366168
0.06300458
0.05876325
0.05383087
0.05262274
-0.002141274
-0.01682422
-0.01748474
-0.0535357
-0.02017681
0.02384846
-0.07426658
-0.02058089
-0.01578413
-0.0742891
-0.002721281
-0.03485503
-0.001320154
0.04768712
-0.07733691
-0.02322672
0.03468535
-0.1025697
-0.001296347
0.03991252
-0.1053414
0.1076384
0.01039518
0.004709718
-0.08990401
-0.1262144
-0.05106184
-0.0346967
-0.04621652
0.01538897
0.0126717
0.04158463
0.06794279
0.01975605
0.03882295
0.05376337
-0.0621939
-0.04515541
-0.0382496
-0.01712475
0.001941075
0.0323317
-0.01020489
-0.005577414
0.04569927
-0.01610422
0.02574417
0.05739267
0.07569747
0.0255239
0.1029624
-0.02767482
-0.08496667
0.08251854
0.06344142
-0.0322926
0.164909
-0.04643296
0.01520124
-0.05603367
0.04041069
0.04494704
-0.03083882
-0.02673054
-0.0187098
-0.08211585
0.05645081
0.2188888
0.07716683
0.2288409
0.3476723
0.2065174
0.07027388
0.2250801
0.1282287
-0.06468032
0.01342724
0.04165744
-0.08374725
-0.01331358
-0.01753547
-0.1303156
-0.04707894
-0.04577585
0.01353646
0.01219093
0.01968616
0.006324592
-0.04919434
-0.05865924
-0.00950695
-0.08882383
-0.1350136
-0.04960439
0.02621382
0.05686603
0.005254143
-0.01896306
0.08034258
0.01951437
0.02815623
0.05999449
0.03166051
0.03258051
0.07431187
-0.01866055
-0.0117807
0.02691083
-0.01449894
0.002685015
0.03528518
-0.01765157
0.1083965
0.108126
0.01204489
0.1330262
0.1353654
0.00125554
0.1432656
0.1826434
0.01031642
0.05779988
0.06028905
-0.01220441
0.04416863
0.04230219
-0.139434
-0.09095474
-0.08320112
-0.170343
-0.2080001
-0.05680646
0.01007734
-0.08062569
-0.1537315
0.06392536
-0.07304963
-0.2575201
-0.01952413
0.05002949
-0.08743434
-0.004499026
0.1899189
0.1260301
-0.1129218
0.005707385
0.06018243
0.1277306
0.2538189
0.1533643
-0.03662989
0.06827243
0.07043143
-0.1431964
-0.06983125
0.0008038016
-0.08740625
-0.1300668
-0.1856983
0.0346013
0.03498483
-0.1828032
0.1530387
0.1967404
-0.08853442
-0.1177045
0.1538539
0.2712222
-0.01902517
-0.1300653
0.1430382
-0.02965646
-0.1456021
-0.1799031
-0.004059345
-0.03267848
0.002423785
-0.002609762
-0.04602974
-0.02686433
-0.07201651
-0.1356463
-0.1170174
-0.03005647
-0.1240599
-0.120188
0.07990371
-0.06311808
-0.06835643
0.01944457
0.03130332
0.05900315
-0.1045964
0.0349162
0.06617485
0.04840244
-0.1102911
0.03526687
0.2927244
-0.04126703
-0.01966488
-0.04323821
-0.007747844
0.2085611
0.1697273
-0.1382059
-0.07651366
0.1105531
0.04432289
-0.1770932
-0.3245946
-0.1405986
-0.3165645
-0.09871678
0.2795647
0.04985325
-0.2007392
0.2284309
0.07939649
0.05402142
0.04511357
-0.005233494
-0.01928274
0.09483441
0.01588385
-0.01316031
0.04493314
0.04666086
0.04969721
0.03025603
-0.0548357
0.03035842
0.06658893
0.03864978
-0.1028864
-0.03195366
0.0302974
-0.04749643
0.1587425
0.1253525
-0.123497
-0.1403863
-0.03544772
-0.1504653
-0.197465
-0.05233911
0.06114788
0.07399846
0.06227435
-0.05508177
-0.04365673
0.02631955
-0.05255836
-0.1052403
-0.03187602
-0.1357751
-0.1715447
-0.1022589
-0.02483847
-0.07624234
0.02887959
0.08950861
0.01547795
0.1221921
0.006174003
-0.01763294
-0.00763448
0.07857158
0.04609511
0.003761627
0.09146057
0.0174743
-0.03501172
-0.08412551
-0.1338109
0.1074846
0.1166814
-0.2289691
-0.04610566
0.116923
-0.006667558
0.01954067
0.1256997
0.006432563
-0.09609858
0.03206934
0.06371327
-0.01275046
-0.0497985
-0.06831381
0.05613252
0.2241102
0.09661681
-0.03380416
0.2620016
0.200193
0.0924109
0.01471847
0.02283624
-0.05351556
-0.04872623
0.04957639
-0.0004779926
-0.2687511
-0.002032012
-0.08311196
0.06655765
0.04879748
0.06078372
0.07163665
0.4390688
0.3088132
-0.4120521
-0.5218052
-0.06515295
-0.02921207
0.2429077
0.06925301
-0.05849538
-0.09262152
-0.0473767
0.004404021
-0.09736741
-0.1173864
-0.02498061
-0.08064964
-0.09292144
0.03921699
-0.1829861
-0.07484261
-0.08290409
-0.1532682
-0.04865018
0.1683533
0.1484327
-0.01563388
0.26629
0.07002959
0.1757807
-0.09072987
-0.4809454
0.1122028
0.1080239
0.1232143
0.1251146
-0.2268473
-0.1106193
0.1380055
0.259453
-0.2502195
0.1126353
-0.0960663
-0.09247635
-0.05226594
0.1428059
-0.02368766
-0.1446421
0.227872
0.2760443
-0.06866407
0.06050133
-0.017894
0.08392753
-0.02771389
0.1819846
0.04039479
0.02094907
0.2811874
0.1544239
-0.01540131
-0.03012592
0.02955516
-0.07486282
0.01535652
0.05546192
-0.02005179
-0.06481465
0.003320908
0.1169262
-0.03764217
-0.06830165
0.1553608
0.08000468
-0.04785231
-0.1179844
-0.3404098
-0.1460871
0.09105703
0.4650131
0.06632558
0.1021452
0.1253254
0.0794974
-0.09158808
0.05594074
0.01230149
-0.07262004
0.04054659
-0.05702287
-0.03845349
0.07577965
0.01532388
-0.06545905
0.03415499
0.06447189
0.02859472
-0.01718661
0.03808365
-0.1462424
-0.1627587
-0.06588501
-0.03231169
-0.009892487
0.05551989
0.03094871
-0.1101608
-0.05398301
-0.01929913
-0.3759101
-0.2420601
-0.05099809
0.1915939
-0.01248646
0.006772767
0.08636332
0.1121422
-0.1042192
0.1772215
0.2913074
0.07420045
0.1855656
0.3054956
0.06629284
0.1775952
0.0118573
0.06871495
0.1604976
0.05217541
-0.009235069
0.1110005
0.08772989
-0.1008872
0.07857929
0.02448604
-0.1540825
0.005099345
-0.1681292
0.0435695
-0.276467
0.05948972
-0.08840859
-0.04292834
0.03315257
-0.01039749
-0.2481823
0.5642332
0.0459782
0.02402525
-0.5159796
-0.1122718
0.06076741
0.3770257
-0.1329153
-0.1094031
-0.08994912
-0.09995911
-0.07255445
-0.08270971
-0.001239789
-0.004159512
-0.07867131
0.01326149
-0.01200045
-0.03246557
-0.1398293
-0.1529621
-0.1146704
-0.05337998
-0.006998919
0.1331101
-0.03972179
-0.1481089
0.3310533
0.02852632
-0.1511496
-0.1948193
-0.1358728
-0.041081
0.1394359
0.1168403
-0.2629614
0.358171
-0.01463975
0.4062724
-0.2361112
0.004923681
-0.03460369
0.01519042
-0.07351854
-0.01713858
-0.4173055
-0.09817334
-0.1665954
0.3198831
0.1872677
0.0266489
-0.07889783
-0.0715754
-0.05004968
0.08513366
-0.2195475
-0.227319
0.06770823
-0.1669702
0.04054566
0.2314959
-0.01894629
0.04937879
-0.02402216
-0.06100932
0.01135574
-0.01037038
0.03787681
-0.10847
0.1260077
0.1075399
-0.06267957
0.1914445
-0.06545309
-0.08646452
-0.6297114
-0.02047557
-0.206205
0.1292261
0.02486604
0.006385228
0.01260236
0.07104169
-0.07249644
-0.05813159
-0.0003533725
-0.04785094
-0.05797449
0.08522176
0.06301944
-0.01471546
0.07330395
-0.04742773
-0.1100611
0.08170277
0.08370728
-0.1507693
-0.1695033
-0.1603617
-0.1618458
-0.05702891
-0.07074313
-0.07407677
0.06939898
0.0284825
0.01553593
-0.1060077
-0.127465
-0.06947622
-0.01997456
-0.0245133
0.03519854
0.1035761
0.09300067
0.005527664
0.09503696
0.1689544
0.04976242
0.09268091
0.1206225
0.1027324
0.009755718
-0.1126383
-0.1624989
-0.0536789
0.04006957
-0.09681886
0.03220744
0.03088721
-0.1165939
0.08000291
0.02809138
-0.1064944
0.07939073
-0.03068466
-0.268369
0.2624448
0.09629165
-0.145843
0.1389716
0.1123188
0.0260243
-0.01293657
-0.04208486
0.06021512
-0.05155886
0.1387419
-0.03158604
-0.03769914
-0.0006473681
-0.1421186
-0.004063983
0.01118338
0.01668601
0.004047196
0.01081273
0.04515631
0.01542182
0.01696465
0.04850858
-0.05145938
0.04070304
0.03147503
-0.02354982
0.06952457
-0.01990465
-0.09482566
-0.03653923
-0.07079907
0.002073834
0.1064459
0.1077619
-0.05422916
0.2078892
0.1671575
0.004756238
0.08664563
-0.08393422
-0.06516674
-0.3271839
-0.170888
-0.08051447
-0.1710703
-0.2272927
-0.08122281
0.03218585
-0.128613
0.07141006
0.07614607
-0.1026654
0.1856188
0.07069245
-0.06989996
0.04034125
-0.0325648
-0.1317302
0.07627581
-0.002586116
-0.2460194
0.1166909
0.07782038
-0.1119291
0.02221893
0.04808247
-0.07761084
0.09151258
0.1689451
0.1861617
-0.07422244
0.1134652
0.2102687
-0.3076076
-0.06951227
0.1355365
-0.1930623
-0.1003959
0.1334236
-0.1436049
-0.01174145
-0.09326892
0.1461211
-0.02155773
-0.1724552
-0.127081
-0.03310846
-0.07436229
-0.05516217
-0.03762934
-0.1194297
0.008830719
-0.08035763
-0.1119188
-0.04958731
-0.1163499
-0.1788033
-0.04306292
-0.0794981
-0.1721577
-0.04520337
-0.06809722
-0.1160027
-0.03437909
-0.07533665
-0.1055522
-0.09807076
-0.08851493
-0.08836842
-0.1186877
-0.05138873
-0.03714585
-0.08593952
0.02518648
-0.001833565
-0.1200095
0.01725935
-0.04154912
-0.1073573
-0.07446197
-0.1080853
0.2857724
0.3611795
-0.002528593
0.1990617
0.3215455
0.1186762
-0.3944208
-0.3899458
-0.33112
0.02373676
0.1996586
0.04937287
0.005294585
0.1123046
-0.005094454
-0.01636589
-0.01771122
-0.04007788
-0.02389677
-0.283823
-0.2234188
0.02190127
-0.1942855
-0.2442741
0.1081084
0.1986298
-0.1068116
-0.2246809
-0.11237
0.06919232
-0.1886886
-0.06920647
0.04103882
0.07314389
0.03542576
-0.1007962
-0.2036171
-0.1063672
-0.09692835
-0.2262456
-0.12423
-0.1224216
-0.1475345
-0.02959185
-0.004035886
-0.02373724
-0.1884941
-0.1211259
-0.01165538
-0.1445861
0.01117744
0.002213059
0.01376024
0.194292
-0.1228691
-0.1391865
-0.2079378
-0.08658097
0.001057159
-0.09266485
-0.08911488
0.003725741
0.0457186
0.1441704
-0.09827345
-0.3352355
0.4831825
-0.05566276
-0.5838179
0.2324741
-0.1008212
-0.427324
0.0005890763
-0.07960803
0.004098458
-0.008009376
-0.1125648
-0.03714319
0.1233974
0.06127053
0.005499217
-0.1645932
0.008848881
0.1435469
-0.03672725
0.08531372
0.05642849
0.03652222
0.1648446
0.01780679
-0.03467127
0.2425911
0.1704923
0.09275127
0.07262478
-0.09063038
-0.178622
-0.3098755
-0.304224
-0.09893367
0.2435607
0.09905986
-0.1653611
0.1451236
0.280016
-0.3173451
-0.2486453
0.1217857
-0.04354858
-0.05983095
0.06159218
-0.09707903
-0.1467318
-0.00613031
-0.07875176
-0.1210358
-0.002205852
-0.06714534
-0.2331439
-0.2177445
-0.03267803
-0.1891756
-0.1911856
0.1868041
0.1181817
0.04264915
0.1079696
0.06294553
0.02062658
0.003178403
-0.01626033
-0.03557522
-0.0006574643
-0.02753144
-0.007339576
0.1865916
0.06323998
0.08208595
0.0634203
0.02848151
0.01924301
0.04026498
-0.01334727
-0.01711425
-0.1561435
-0.2611941
-0.1190373
0.04210637
-0.07093898
0.067824
0.1253682
0.1730676
0.222271
-0.1277922
-0.09426278
-0.02851337
-0.1444581
-0.07645959
0.06065755
-0.1279755
-0.04471774
0.07899397
-0.05400734
0.066544
0.21014
-0.06383878
0.01766921
0.3271063
-0.04596438
0.02734558
0.09593269
0.06002516
0.06234564
0.02302587
0.01525281
0.02799747
-0.1065949
0.03694188
0.004872544
0.06805313
-0.0877619
-0.05465183
-0.06018419
-0.2063931
-0.1613452
-0.1948884
-0.2281252
-0.2387219
-0.2627086
-0.1146291
-0.1030754
-0.1454718
-0.07128609
0.04555047
-0.01143969
0.1357042
0.1290867
0.001325614
-0.004870609
0.02034838
0.02549537
-0.07835259
-0.07274935
-0.0928916
-0.2303097
-0.1245804
-0.009602159
-0.1180422
-0.1199978
0.004937811
-0.3707827
-0.03647805
-0.0005046414
-0.486721
-0.1419876
0.0816744
-0.07091089
-0.1381081
-0.03081104
-0.103005
-0.3259455
-0.1505001
0.0413116
-0.09748016
-0.04521611
0.07570411
0.03490674
-0.006130479
0.1701583
0.02640935
0.07183748
0.1339545
0.03114877
0.01354508
-0.1591576
-0.3103688
-0.4393731
0.0504095
-0.1508804
-0.3258052
0.04129696
0.102031
-0.02998763
-0.03168556
-0.01245059
0.0148103
-0.2094664
-0.1901446
-0.219486
-0.2608247
-0.293661
-0.1313062
-0.1064504
-0.1665999
-0.1691146
-0.1089811
-0.1190381
-0.1423537
-0.03439531
-0.06447924
-0.0684412
-0.07130212
-0.09719668
-0.03508284
-0.003788722
-0.02144629
-0.02405552
0.04108464
0.007078891
-0.01828671
-0.05533656
-0.09973574
-0.04287935
-0.08239265
-0.07914587
0.01021419
-0.06307124
-0.08918463
0.01465213
-0.09100106
0.1346603
0.05448339
-0.1713708
0.008768057
0.01342283
-0.08791063
-0.1138168
-0.1616329
-0.06579452
0.005908583
-0.03721294
-0.1481198
-0.05260953
-0.03706961
-0.1030789
-0.0616069
0.00276904
-0.002020681
-0.006156728
-0.1087976
0.1600783
0.1350209
0.05733154
0.1307193
0.1208702
0.07610419
0.03693336
-0.02142999
-0.1233403
0.05288677
0.1069997
0.08403194
-0.1530619
-0.01199539
0.04027751
-0.03613717
0.1957922
0.07372001
-0.005875755
0.07111769
-0.001766799
0.03451892
-0.02038565
-0.05789745
-0.01736587
0.02327015
0.09127463
-0.02587784
0.02301018
0.08953611
-0.04848128
-0.03930631
0.03785555
-0.009493392
0.1410172
0.1395697
-0.09790144
-0.0008847695
0.06791075
-0.1950083
-0.2084161
-0.1771393
-0.1661779
0.3804414
0.2657599
-0.279253
0.2710059
0.29609
-0.2972136
-0.1699449
-0.042022
-0.08433527
0.05629813
-0.1553997
-0.03124919
0.113582
-0.05592338
-0.003340204
0.133569
0.0204935
-0.02664454
-0.04345944
0.06076428
0.02545771
-0.04521229
-0.01859982
0.0479194
0.05302498
0.01990611
0.1913983
0.09556919
-0.08257007
0.2465362
0.1950376
0.03638195
0.1180868
0.1596813
0.03112423
-0.09128716
-0.08050084
-0.1178216
0.01813551
0.02570475
-0.0529571
0.07518362
0.09127901
-0.0096662
-0.1257324
0.2211173
0.4133114
-0.07429177
-0.07740422
0.01576841
-0.02484038
-0.1670109
-0.1368293
0.05299434
0.04409792
-0.06553872
0.1082369
0.1379951
0.03726665
0.03505029
0.04823997
0.05471836
0.06508539
0.02632541
0.01718867
0.06761225
0.1145114
0.1492124
-0.03643893
0.03218126
0.09719829
-0.05587244
-0.05704305
-0.1433317
-0.01180232
-0.01358349
-0.1271742
0.04825786
0.07454232
-0.04307055
0.2415513
0.04080845
-0.02805938
0.1002232
-0.2685535
-0.1367323
0.003273748
-0.09668719
0.03112985
0.04287092
-0.04574013
0.1280311
-0.05682816
-0.1518472
-0.06291968
0.1521336
-0.02632627
-0.01434947
0.04076065
0.06093327
0.1499554
-0.010585
0.02481808
0.03768754
0.1013943
0.09706219
0.07260176
-0.04000599
0.152389
0.02648748
-0.1649699
0.2583866
-0.1224401
-0.05592946
0.03833449
-0.06525075
0.1569324
-0.04217934
-0.1809899
0.241531
-0.04069822
0.4016263
0.1269733
0.03121121
0.01743378
-0.01987173
-0.06448393
-0.1450693
0.03650812
-0.03477629
-0.0858852
0.05774283
0.01597656
-0.01070789
-0.1182858
-0.08482741
0.02127175
-0.06744453
0.03444888
0.1109379
-0.03765512
-0.04832388
-0.03065543
0.02537594
-0.1329045
-0.08402573
-0.00728211
-0.2840568
0.4408269
-0.108685
-0.07596019
0.07706907
0.02572174
0.02376417
-0.03811022
0.02965725
-0.260398
0.1899939
-0.09715839
-0.09443336
0.1738077
-0.1226896
0.00979684
-0.155368
-0.225019
-0.1306539
-0.401204
-0.169597
-0.0710913
-0.2291626
0.006772043
0.217116
0.1518914
0.1079157
0.2694097
0.1476078
0.07416733
0.08614199
0.1123259
-0.05908713
-0.03110864
0.04058854
-0.1532381
0.04268596
0.1389661
-0.05584921
0.1351317
0.1727522
-0.007522362
-0.2344226
-0.05694777
-0.04630905
-0.1539461
0.2730305
-0.05854077
0.007643358
-0.1832063
-0.2350505
-0.1631886
-0.05036286
-0.2042337
-0.07091758
-0.1011639
-0.02044187
0.07214692
-0.04204945
-0.06196171
0.03111615
-0.006605827
0.03128247
0.02577015
0.01567776
0.04053862
-0.05213854
-0.02192666
-0.08694167
-0.03070654
-0.01832569
-0.09254212
-0.04606128
-0.07505956
-0.01810833
0.03314332
-0.05750834
-0.01014575
-0.1345909
-0.03370538
0.1518519
0.1139913
0.09252504
0.08482434
-0.007719755
0.01415043
-0.06425247
-0.04542789
-0.0136405
0.01691119
-0.07434578
0.02250453
-0.06553806
-0.07935898
0.08790283
-0.0926934
0.005013473
-0.02217255
-0.07604695
-0.01448853
-0.0163866
0.01309247
0.07359964
0.02707734
0.1563532
0.07394804
-0.06780856
0.07232789
0.06628659
0.01043063
-0.0248988
-0.03237423
-0.04986391
-0.2185448
-0.4210131
-0.1980348
0.4570325
0.08623402
-0.1131102
0.1373105
-0.09146771
-0.01116417
-0.07674246
-0.08104135
-0.05855491
-0.0134715
-0.03956173
-0.0287004
0.07761656
0.03691584
-0.009261553
0.08039773
0.04890592
0.01153036
0.07855869
0.04861946
-0.01567298
-0.04328686
-0.009344369
0.0004173024
-0.1021168
-0.2330716
0.04515812
0.47141
-0.03632829
-0.2071489
0.1917091
-0.1265155
-0.02293692
0.06663126
-0.0554779
-0.0569712
0.07704174
0.1130994
-0.03190672
0.05024191
0.01537152
0.002327478
0.01913948
0.09793065
0.1213532
-0.1861766
0.05256305
0.1783097
-0.08392798
0.0156597
0.1024831
-0.1020023
-0.06978919
0.04599571
-0.1538126
-0.1485322
-0.02763533
0.002801148
-0.02290977
-0.1417376
0.05444119
0.03922248
-0.05093291
0.0276331
0.06601447
0.01037403
-0.1161361
0.03017072
0.02092136
-0.05464868
-0.1847626
-0.1772395
0.3032212
0.005421452
-0.1831607
-0.03638585
-0.1057155
0.1197186
-0.06977861
-0.05282312
-0.01417186
-0.01424188
-0.06071708
-0.03283292
0.05928928
0.02769431
-0.01951654
-0.1107277
-0.000752299
0.03526087
-0.03906142
0.04122571
0.09487639
-0.001010954
0.09863447
0.07024777
-0.108225
-0.08860208
-0.05508922
-0.09924048
-0.06354254
-0.03272187
-0.06419804
-0.03354384
-0.02663257
-0.0992932
-0.05339034
0.008289989
-0.07387418
0.0141678
0.02422383
-0.005565921
0.05517784
0.03705546
0.04044558
0.008473955
0.09447269
0.01006472
-0.01426187
0.01144049
-0.02060615
-0.00739977
-0.02055412
-0.02942248
-0.05956868
-0.002658051
0.06402491
-0.004973155
-0.0006280902
0.149802
0.08829003
0.03833882
-0.02852419
0.006317186
0.02919666
0.1131592
0.05930788
0.04975005
-0.003372585
-0.06839874
-0.08493703
0.0832608
0.1643116
0.04175605
0.1361401
0.2670206
0.07287361
0.03052521
0.02101154
-0.005239141
0.009546211
0.01084503
0.005850261
-0.01669777
-0.02407968
-0.05734795
-0.0697977
-0.06832156
-0.1020689
0.01378709
0.05477871
-0.02313294
-0.01824295
-0.008029739
-0.1147947
-0.1241127
-0.1299745
-0.1784325
0.1187022
0.2074981
-0.04228383
0.08878463
0.2096624
-0.2489194
-0.000257442
-0.09888251
-0.2826256
-0.02819169
0.0008160802
-0.1048599
-0.1059525
0.06984228
-0.01581073
-0.03151469
0.06627743
0.05163931
-0.09015781
-0.1641507
-0.1040666
-0.1097159
-0.1419957
-0.02694651
0.0003941031
-0.03280967
0.1622549
-0.04496188
-0.1214527
-0.04539604
-0.0808678
-0.150837
-0.02827402
-0.03112441
-0.02844366
0.08246265
0.1327976
0.09343559
0.03500919
0.05342137
0.001840915
0.1070001
-0.01559107
-0.003269742
0.1352691
0.139823
0.1684547
-0.04788477
0.02869304
0.07539476
-0.1074088
-0.04219945
-0.02989964
-0.1588137
-0.04261222
-0.0572955
-0.08508036
0.01973402
-0.02570436
-0.09506511
-0.003237945
-0.02096228
-0.08605091
-0.05430815
-0.02892578
-0.09940807
-0.09632336
-0.05086635
-0.1247224
-0.0956458
-0.04054507
-0.1129203
0.2836195
0.2332704
0.1130472
0.2044613
0.173496
0.04685928
0.06066282
-0.0001936657
-0.1005185
-0.08420264
0.1046871
0.1018353
0.09119535
0.1298878
0.114014
0.04362864
-0.06406034
-0.09679453
-0.1070375
-0.1084043
-0.02232133
0.08259982
0.1370691
0.09720916
0.02405708
0.05300703
0.0385389
-0.1406259
-0.1591241
-0.0802172
-0.1284025
-0.1622159
-0.02197857
-0.12767
-0.1181077
0.05291563
0.09149653
0.08335655
0.1234232
-0.03508983
-0.06432553
-0.0462506
-0.08665802
0.0402217
-0.1401581
0.129105
0.4154456
0.1502247
0.0240323
0.005549259
-0.2194645
-0.1617125
-0.2873402
-0.06642252
0.233792
0.2175511
0.1299048
0.1798313
0.1322244
0.004833259
0.02236165
-0.03404307
-0.1024977
0.1042791
0.1462923
0.06430148
0.06225396
0.06269696
0.05003129
0.1085411
0.114062
0.2203246
0.06548048
0.2195553
0.05917916
0.1103381
0.04229553
-0.2525958
0.01420099
-0.2019402
0.0545627
-0.04999378
0.1017827
0.1331591
-0.03124575
0.1297606
0.1158086
0.09919319
-0.03296502
-0.0301847
-0.122162
-0.1737137
0.02033356
-0.01924892
0.1580497
0.1131922
-0.02875663
0.2122395
0.06297753
-0.0723318
-0.1364421
-0.05624052
-0.218189
-0.1030569
0.070826
-0.07441093
0.1466232
0.23809
0.04629083
-0.03810049
-0.03384044
-0.02102517
0.02058132
0.04927989
-0.09452373
0.01988553
0.0117177
0.1055073
0.1357358
-0.02037787
0.07691109
-0.08825784
-0.2366465
-0.1127209
-0.246131
0.06637074
-0.01135168
-0.02662551
-0.07121372
0.07124577
0.01505276
0.02853546
0.06542922
0.06297264
0.1206009
-0.1592572
-0.08402748
-0.09432115
-0.02702202
0.04339362
0.05679914
0.112735
0.1286004
0.134306
-0.1050814
-0.02811648
-0.09179357
-0.02831664
0.0301241
-0.06319799
-0.02061345
-0.000168699
-0.04054893
-0.09246368
0.004515289
-0.004612553
-0.01220943
-0.00372172
-0.00164068
-0.08233222
0.02407438
-0.0529058
0.03282651
-0.2262374
-0.1707993
0.1243353
-0.08272648
-0.2351893
-0.04404758
0.08174565
-0.06999136
0.002591177
-0.04868505
-0.0673245
0.1260124
0.08884805
-0.02425539
0.147825
0.1208115
-0.01083702
0.2389679
0.4608902
0.03809206
0.2098409
0.1454061
-0.09251485
-0.3119224
-0.5353574
-0.4915789
0.189244
0.1717596
-0.1557567
0.1268748
0.09727386
-0.08078154
-0.0844475
-0.2014707
-0.1947415
0.1331488
0.1096245
0.1024025
0.07307174
-0.04556882
-0.03457763
0.06439403
-0.09082749
-0.07376591
-0.1324697
0.1028804
0.03982909
-0.05795479
-0.03091531
-0.161893
-0.204138
-0.2902111
-0.3986477
-0.08877859
-0.1689389
-0.002142087
-0.01141501
-0.0896465
0.06081279
0.0385096
-0.04276979
-0.07282483
-0.2243117
0.0152337
-0.007022834
-0.4046006
0.07475293
0.3328682
-0.1482311
0.1970859
0.08848876
0.06142609
-0.08616441
-0.01365585
0.1143985
-0.1321536
-0.1021829
0.1569781
-0.008635242
0.01926019
0.01796427
-0.01998895
-0.01367084
0.01920979
0.07389337
0.1465284
-0.02446057
-0.00147955
0.08160681
-0.2664368
-0.2089183
0.1884278
-0.4062592
-0.0506191
0.450513
-0.3260414
0.01387714
0.1705487
0.007199996
-0.3951482
-0.3600285
0.1943135
-0.03729936
-0.2296209
0.3852292
0.458105
-0.01087042
-0.05606854
-0.008312175
-0.2924957
-0.002530373
0.004264804
-0.2475039
-0.08992531
-0.18502
-0.2927264
0.06802519
0.2618713
0.184454
-0.02667192
0.0551151
0.03229773
-0.2373
-0.2335422
-0.20726
0.02379206
-0.02680503
-0.06602565
0.07255801
0.02357219
-0.01443179
0.08286897
0.02241385
-0.006070317
0.1334993
-0.03552296
-0.1489351
0.1519537
-0.06625254
-0.1849919
0.09652124
-0.06979022
-0.1553588
-0.1830661
-0.3749735
-0.2598066
-0.137957
-0.2186596
0.0164302
-0.006063628
0.1899262
0.5141164
-0.04062267
-0.06664722
0.05802745
-0.05342743
-0.1209014
-0.03896606
-0.1617598
-0.1647144
-0.09699877
-0.1786067
-0.2557172
-0.1118171
-0.1542874
-0.2768666
-0.08737125
-0.06064639
-0.1768145
-0.0202847
0.1552704
-0.08298288
-0.02790053
0.1518267
0.0579236
-0.02079663
0.09541874
0.0311807
0.03697503
0.05963818
0.04074458
0.01527486
0.03430416
0.06966946
0.06807511
0.0755051
0.1141641
0.07864971
-0.01910962
-0.02867375
-0.1143027
-0.03502208
-0.07743797
-0.1061529
0.008019034
-0.05142473
-0.07080974
-0.009975967
0.02201427
0.0397507
0.0137027
0.06997441
0.03638021
-0.006143117
0.0550355
0.1308487
-0.07056974
-0.05730825
0.04199466
-0.1797541
-0.05170785
0.1489369
-0.1726224
-0.09396878
0.05741526
-0.03761267
-0.2043664
-0.2877357
-0.08239
-0.1630696
-0.1731388
-0.05895234
-0.1272088
-0.07005977
0.05182978
0.1042457
0.09356256
0.06891504
0.04861196
-0.05179846
0.06929742
-0.04089489
-0.05710758
0.1588442
0.04480544
-0.2360534
0.3599525
0.2750801
-0.1753869
0.3365742
0.3357081
0.009548531
-0.06042781
0.03098546
0.1308169
-0.008577139
0.08896337
0.1185007
0.01105551
-0.0139541
-0.03910459
-0.02662877
-0.0640421
-0.02065921
-0.107289
-0.1393366
-0.08842921
-0.1434878
-0.1801215
-0.1384498
-0.1331414
-0.04983137
0.00217401
-0.1524589
-0.1014158
-0.05561261
-0.1388934
-0.1000393
-0.08412118
0.07729466
0.02181733
0.05846145
0.07355753
-0.0003059876
0.02912835
0.04318929
-0.04899767
0.009338008
0.01206191
-0.04796467
0.01544441
-0.2161908
0.2353544
0.08488787
-0.132791
0.07892832
-0.0899141
-0.03966405
-0.04709718
0.0617172
0.1325623
0.01308778
0.123088
0.03399787
-0.01952603
-0.04838137
0.02981589
-0.06260725
-0.06388456
0.06495156
0.02326336
0.08885344
0.03275326
0.0315644
0.1001055
0.009146823
0.03753978
0.08288133
0.1775564
-0.3092245
0.2087305
0.01745932
-0.1100114
0.01686648
-0.04273723
-0.2006752
-0.06126284
-0.1123403
0.6189981
-0.2432091
-0.2727884
0.00657685
0.03915704
0.1096034
0.1087509
0.02333871
0.1041657
0.1132052
0.003169549
-0.04194807
-0.03324959
-0.08400027
-0.02557829
0.1164625
-0.07671291
-0.05754343
0.05986119
-0.07869871
-0.05064712
0.01095262
-0.04041253
-0.0287469
-0.0856673
-0.2194207
-0.03434274
0.5892989
-0.4613498
-0.0485337
0.1780771
-0.2493258
0.135794
-0.008718449
-0.06433207
-0.3093804
0.4275346
-0.1635574
-0.1322582
0.09073487
0.0190291
-0.08959889
-0.0509821
-0.06027165
0.1083347
-0.166713
0.2078888
-0.009215545
-0.007171089
0.07849777
0.1221522
-0.1218426
0.09145839
0.1360755
-0.1977831
0.08110513
-0.004860114
0.0008695906
0.1242233
-0.09452576
0.1026694
-0.01024685
0.07067901
0.07475901
-0.001104048
-0.08187199
-0.1025203
-0.08629903
-0.209856
0.09170316
-0.1891784
-0.08868508
0.3615088
-0.1569472
0.1590843
-0.08868334
0.1892758
0.2173599
0.04397578
-0.05820078
0.2455707
0.06927131
-0.06924585
0.1155464
-0.01369837
-0.07096754
0.1182144
-0.1114547
-0.04823385
0.1163056
-0.05201164
-0.05701073
0.04326194
0.01269508
-0.05628691
-0.006908034
-0.03394222
-0.0550136
-0.158024
-0.22269
-0.2488851
-0.2478399
-0.3346067
-0.3378147
-0.1468323
-0.08563599
-0.1028376
0.1443794
0.09228154
-0.1149059
0.2845874
0.2758828
0.05978001
-0.08677184
-0.05602719
-0.1668504
0.06915979
0.04548068
-0.1592658
0.1633444
0.08605096
-0.07685607
-0.00494063
0.109424
0.05198403
-0.09445691
0.03324818
0.009552469
-0.2267911
-0.1012955
0.009817965
0.01169049
0.123784
-0.04693823
0.08373456
0.231024
0.02722194
-0.07546893
-0.01097979
-0.1431281
0.1345977
0.2538107
0.1369731
-0.003458264
-0.1112205
-0.0451676
-0.1655834
-0.1145816
-0.1073248
0.1542918
0.1243031
0.1289295
0.02186796
-0.05897132
-0.07059142
-0.02394984
-0.1269689
-0.1374596
-0.07537433
-0.1358561
-0.03060914
-0.04550241
-0.1476273
-0.07010766
0.05539102
-0.01854782
0.0468316
-0.0644089
-0.04480885
0.03061788
-0.04150452
-0.2056004
-0.01574491
-0.1090723
-0.1556633
-0.08182152
-0.02846649
0.03544545
-0.006443354
-0.07464435
-0.01220298
-0.001217078
-0.1229909
-0.006962335
0.03023052
-0.03219676
-0.05614619
0.001984483
0.04232774
0.2420973
0.2489982
-0.1010481
0.1478982
0.181261
-0.2062968
-0.0232408
0.1389865
-0.2930001
0.05637605
0.325733
-0.3124933
0.03854813
0.3414401
-0.08414686
-0.02450087
0.1362941
-0.2494617
-0.1541903
0.09401531
-0.1701037
-0.1079636
0.09244579
-0.1153377
-0.2221106
-0.2769481
0.08373273
-0.09852149
-0.1606323
0.1824919
0.2178337
0.0714663
0.006346619
0.07075069
0.1222515
-0.0943854
-0.04013783
0.07779153
-0.2208434
-0.1730616
-0.02491942
-0.162958
-0.1285799
-0.0977728
-0.09866582
0.03716678
0.1539788
-0.0951255
-0.03067375
0.1210217
