5.425287e-01
6.454275e-01
7.379411e-01
-3.167078e-01
-5.165488e-01
-1.031772e+00
3.141047e-01
-7.242501e-01
-4.070613e-01
-1.285187e+00
6.686041e-01
-6.712246e-01
-1.989719e-02
-3.065727e-01
-8.580890e-01
7.557518e-01
6.233900e-02
-8.512809e-01
-4.607294e-01
-6.628416e-01
4.341447e-01
6.737482e-01
-2.809278e-01
-1.771581e-01
6.219035e-01
3.357642e-01
-4.974134e-01
3.444989e-01
6.762853e-01
9.158080e-01
6.891188e-01
-1.744084e-01
5.403024e-01
-4.902511e-01
-4.264722e-01
-4.017766e-01
3.569727e-01
6.731409e-01
3.871534e-01
2.490596e-01
-1.689527e-01
4.240758e-01
-8.385666e-01
-3.149226e-01
-2.641653e-01
3.042295e-01
-9.511353e-03
1.112972e+00
-4.488961e-01
8.422173e-01
-6.721314e-01
5.053024e-01
-5.812438e-01
6.065480e-02
2.132519e-01
-7.684326e-01
8.892342e-01
-5.171531e-01
-4.210513e-01
-5.658677e-02
4.133214e-01
-5.412477e-01
4.729589e-01
-6.138300e-01
7.860270e-01
-4.231569e-02
-4.743643e-01
-8.184682e-01
-4.281832e-01
1.222776e+00
-6.851922e-01
1.989216e-01
-3.583321e-01
2.364770e-01
3.915468e-01
7.479414e-01
-2.206223e-01
-4.920537e-01
-7.168716e-01
7.252870e-01
8.240774e-01
1.217005e+00
7.043011e-02
-8.515061e-01
-2.775809e-01
-2.384604e-02
-4.898028e-01
2.313162e-01
-4.041342e-01
-2.790709e-01
1.587485e-01
-3.173134e-01
7.438600e-01
-5.161563e-01
-5.310469e-01
3.821063e-01
-5.604123e-01
-4.889348e-01
-6.890953e-02
7.939975e-01
-4.410288e-01
5.910577e-01
-2.554570e-01
2.273734e-01
-1.732348e-01
-5.380916e-01
-6.768291e-01
6.833448e-01
7.981181e-01
8.399094e-01
5.272855e-01
-9.784238e-01
-3.337726e-01
-5.859616e-01
5.088062e-01
9.173564e-01
-4.741895e-01
2.980340e-01
-3.128503e-01
-4.810055e-01
1.727772e-01
-3.210736e-01
-1.417423e-01
-4.199212e-01
6.965848e-01
-4.610155e-01
1.024040e+00
-1.746241e-01
-8.885663e-01
9.724856e-01
-6.490253e-01
1.922189e-01
5.258013e-02
-1.308852e-01
4.442341e-01
-7.787742e-01
1.788243e-01
4.878204e-01
4.543193e-01
-4.036699e-01
-3.635001e-01
6.257824e-01
8.927072e-01
-6.821051e-01
-8.287330e-01
-3.327591e-01
-6.340832e-01
-8.957018e-02
-3.975590e-01
3.896742e-01
-2.657388e-01
9.649147e-01
2.842900e-01
5.162795e-01
4.943268e-01
-5.626215e-01
-8.127978e-01
-7.997612e-01
3.967618e-01
-4.394476e-01
-1.331823e-01
-3.963688e-01
7.519624e-01
3.680038e-01
-1.038394e-01
-2.960587e-01
4.262642e-01
6.117503e-01
-4.811397e-01
3.590715e-01
2.627247e-01
-2.575066e-01
-3.997990e-01
-1.053684e-01
1.891164e-01
7.550840e-01
-5.802834e-01
5.780349e-01
-7.350556e-01
8.928582e-01
-1.127478e+00
5.568359e-01
-7.753499e-01
1.542729e+00
-4.528445e-01
6.763999e-01
-4.574922e-01
-6.001937e-01
-2.664594e-01
9.996276e-01
-2.715377e-01
5.467500e-01
3.394383e-01
-6.446569e-02
6.324729e-01
-2.316283e-01
-1.420298e-01
3.112451e-01
-1.228312e+00
3.853254e-01
-1.147067e-01
3.633847e-01
4.554109e-01
-4.620810e-01
-6.865664e-01
9.194281e-01
9.151047e-01
-7.163986e-01
1.066424e-01
-5.470408e-01
7.243528e-01
7.355276e-01
2.320945e-01
7.104293e-01
-3.698452e-01
-8.943465e-02
-6.975494e-02
-8.753470e-02
-6.399464e-01
4.163949e-01
-6.101540e-01
4.871982e-01
-2.611949e-01
8.159246e-01
1.000467e-01
6.134235e-01
5.711938e-01
8.000521e-02
9.633659e-02
-4.745023e-01
-4.899969e-01
2.692333e-01
6.087489e-01
3.970364e-01
6.213422e-01
6.204948e-01
-4.361578e-01
-8.928322e-02
-7.469009e-01
-1.823265e-01
1.221371e+00
9.206533e-02
-2.245453e-01
-5.511442e-01
-6.753012e-01
-7.721133e-01
4.804549e-01
-1.118874e-01
-6.336354e-01
4.213509e-02
-6.664031e-01
3.419909e-01
-9.268571e-01
-1.149242e+00
6.940777e-01
6.149799e-01
-4.349449e-01
-9.113199e-01
-6.860502e-01
-1.685924e-01
6.040842e-01
-8.392708e-01
6.472366e-01
-5.111209e-01
-8.829651e-01
3.636359e-01
5.487764e-01
-4.143543e-01
9.643064e-01
8.654611e-01
-1.942493e-01
5.033041e-01
-4.582874e-01
8.669767e-01
-3.312669e-01
3.287447e-01
3.838110e-01
-6.114228e-01
-2.839109e-01
-4.196991e-01
8.221606e-03
5.890402e-01
6.499877e-01
-5.538939e-01
9.316783e-01
1.521002e-01
-3.991639e-01
-3.568548e-01
-3.544344e-01
6.234227e-01
-1.304386e-01
-2.532401e-01
-8.709217e-01
-3.409921e-01
-5.292708e-01
-5.388924e-01
-6.206458e-01
2.487299e-01
8.744743e-01
2.948243e-02
-5.795262e-01
-4.902621e-01
-6.629655e-01
3.403205e-01
3.731022e-01
3.358567e-01
3.780260e-01
4.893949e-01
1.244388e+00
-6.847954e-01
2.773820e-01
-9.176068e-01
-2.627783e-01
8.217203e-01
2.368938e-02
7.698913e-01
-1.034348e+00
3.817382e-01
-6.127673e-01
6.066451e-01
-9.318108e-02
-3.338647e-01
-5.697015e-01
-3.532347e-01
-7.099324e-01
-7.151145e-01
1.836837e-02
5.999082e-01
7.705824e-01
-4.332553e-01
-3.251234e-01
5.221230e-01
1.153137e+00
-9.939493e-01
7.988253e-01
-1.645852e-01
7.596258e-01
-3.923180e-01
-3.872526e-01
7.359769e-01
-1.011761e+00
5.887678e-01
7.138500e-01
-4.282951e-01
6.648225e-02
-1.773347e-01
3.290894e-01
-3.795431e-01
-6.995810e-01
1.264963e+00
-4.861738e-01
4.396549e-01
5.098565e-01
6.112847e-01
-3.240580e-01
3.674954e-01
4.374177e-01
-6.979182e-01
-8.227551e-01
-3.323099e-01
4.897344e-01
-5.466842e-01
1.008701e+00
5.313355e-01
-8.630022e-02
-3.559703e-01
3.165762e-01
-1.275768e-01
-2.050323e-01
-5.322084e-02
4.006318e-01
-6.894027e-01
4.504203e-01
1.507264e+00
6.916106e-01
4.147208e-01
-5.393890e-01
-4.580057e-01
1.882214e-02
-2.972020e-01
-8.377112e-01
2.077038e-01
-3.997429e-01
8.681027e-01
-3.881600e-01
5.510421e-01
-3.709815e-01
7.038949e-01
-4.153180e-01
8.235070e-01
-7.498351e-01
8.376272e-01
1.058738e+00
-4.180222e-02
-1.039370e+00
-3.870887e-01
-4.634596e-01
4.701706e-01
7.564115e-01
6.387289e-01
-5.101861e-01
-6.083447e-01
-2.860589e-01
-8.291389e-01
5.430155e-01
1.954278e-01
-9.081877e-02
-1.708653e-01
-2.834270e-01
-3.770067e-01
3.791247e-01
2.404202e-01
-6.840933e-01
-7.892685e-01
-3.938108e-02
4.047424e-01
-3.687301e-01
6.458387e-01
-4.977989e-01
-2.773265e-01
-4.769896e-01
-8.207410e-01
3.294248e-01
4.732906e-01
4.599601e-01
-3.453875e-01
-6.144827e-01
-6.193815e-01
7.039818e-01
-3.887877e-01
-4.817937e-01
-4.057219e-01
-5.816854e-01
5.868157e-01
3.639359e-01
-1.909742e-01
2.116112e-01
-1.111973e-01
8.785167e-01
-5.476112e-01
1.871678e-01
9.075426e-01
7.949211e-01
7.553794e-01
6.552529e-01
7.749155e-01
-5.622016e-01
-7.310978e-01
-2.750630e-01
-5.139885e-01
8.024542e-01
1.731025e-01
1.309656e-01
-3.608113e-01
5.073600e-01
-2.760834e-01
8.247642e-01
4.915133e-01
-7.316445e-01
-4.496433e-01
-2.154957e-01
-5.824101e-01
-6.325787e-01
-3.856259e-01
8.191492e-01
1.071345e+00
-2.680183e-01
1.693283e-01
3.115919e-01
-3.483620e-01
-5.329387e-02
-2.507521e-01
-1.694621e-01
7.000200e-01
1.615427e-01
5.775302e-01
-7.704894e-01
4.287034e-01
-9.386964e-02
-2.423104e-01
-4.991284e-01
-2.194465e-01
4.275744e-01
-3.886817e-01
-3.028150e-01
-6.702227e-02
4.870827e-01
-1.512087e-01
5.933707e-01
1.880848e-01
7.435893e-01
-3.770168e-01
-3.465498e-01
-3.586285e-01
6.296676e-01
-4.454782e-01
7.811651e-01
-6.459619e-01
-5.051287e-01
-3.407212e-01
1.582021e+00
-7.141365e-01
-6.397430e-01
1.212495e+00
1.109585e+00
-6.011241e-01
7.643062e-01
-6.979352e-01
-5.201046e-01
-5.296679e-02
-4.324241e-01
-7.415156e-01
6.263538e-01
1.786209e-01
5.936477e-01
-2.676233e-01
7.128938e-01
-1.034338e-01
7.723094e-01
6.196190e-01
-5.627379e-01
2.659841e-01
3.992339e-01
7.750380e-01
-9.547375e-02
-3.272167e-01
-3.804245e-01
-4.904442e-01
-3.256815e-01
-8.138364e-01
5.965427e-01
-4.527033e-01
3.243400e-01
-7.669326e-01
5.521849e-01
7.420373e-01
5.385146e-01
-6.929229e-01
-8.555014e-01
-4.216954e-01
6.508919e-01
-7.884153e-01
1.108164e+00
-4.391670e-01
9.096143e-01
-4.904914e-01
-4.968653e-01
4.231937e-01
5.619167e-01
8.981246e-01
-1.156604e-01
-3.829733e-01
-5.734997e-01
-4.132544e-01
-7.998109e-01
-7.658688e-01
8.213478e-01
-3.396200e-01
2.812766e-01
-6.058177e-01
1.493860e-01
-9.474346e-01
-6.358145e-01
-4.310328e-01
-8.527621e-03
-6.639355e-01
-3.190072e-01
-2.309938e-01
-6.247190e-01
-3.045781e-01
3.283708e-01
6.228451e-01
9.071527e-01
5.470026e-02
-7.572877e-01
2.393765e-01
-2.148532e-01
-4.595577e-01
-2.144974e-02
1.090194e+00
7.312683e-01
8.277077e-01
-5.411682e-02
-3.599616e-01
-5.143157e-01
-4.517600e-01
-8.185284e-01
7.457717e-01
-3.899942e-02
-1.748759e-01
-5.855229e-01
-1.851032e-01
-4.365491e-01
3.898119e-01
9.909919e-01
9.107258e-01
-5.458860e-01
-8.130337e-01
5.697457e-01
-3.894102e-01
-5.802085e-01
-5.346927e-01
-1.784942e-01
6.481706e-01
5.588946e-01
-3.624730e-01
-3.751736e-01
-3.969611e-01
-1.460419e-01
-4.105208e-01
1.942573e-01
-7.033458e-01
7.295022e-01
5.334849e-01
5.761602e-01
-4.432052e-01
-1.429120e-01
2.171184e-01
-5.712617e-01
4.630491e-01
-2.303265e-01
9.767382e-01
-4.758615e-02
5.329638e-01
-3.747971e-01
-2.019339e-01
1.119661e+00
-6.065626e-01
-6.141635e-01
5.193902e-01
-4.837477e-01
-1.148350e-01
1.472936e-01
-2.376928e-01
-2.369370e-01
-4.325032e-01
9.217908e-01
-1.952803e-01
8.512899e-01
-6.028564e-01
