-0.012438497005614
0.003276434330074
-0.012438497005614
0.003276434330074
-0.012438497005614
0.003276434330074
-0.012438497005614
0.003276434330074
-0.012438497005614
0.003276434330074
-0.012438497005614
0.003276434330074
-0.012438497005614
0.003276434330074
-0.012438497005614
0.003276434330074
-0.012438497005614
0.003276434330074
-0.012438497005614
0.003276434330074
-0.012438497005614
0.003276434330074
-0.012438497005614
0.003276434330074
-0.012438497005614
0.003276434330074
-0.012438497005614
0.003276434330074
-0.012438497005614
0.003276434330074
-0.012438497005614
0.003276434330074
0.022844545099560
0.025327660494772
0.022844545099560
0.025327660494772
0.022844545099560
0.025327660494772
0.022844545099560
0.025327660494772
0.022844545099560
0.025327660494772
0.022844545099560
0.025327660494772
0.022844545099560
0.025327660494772
0.022844545099560
0.025327660494772
0.022844545099560
0.025327660494772
0.022844545099560
0.025327660494772
0.022844545099560
0.025327660494772
0.022844545099560
0.025327660494772
0.022844545099560
0.025327660494772
0.022844545099560
0.025327660494772
0.022844545099560
0.025327660494772
0.022844545099560
0.025327660494772
-0.012438497005614
0.003276434330074
-0.012438497005614
0.003276434330074
-0.012438497005614
0.003276434330074
-0.012438497005614
0.003276434330074
-0.012438497005614
0.003276434330074
-0.012438497005614
0.003276434330074
-0.012438497005614
0.003276434330074
-0.012438497005614
0.003276434330074
-0.012438497005614
0.003276434330074
-0.012438497005614
0.003276434330074
-0.012438497005614
0.003276434330074
-0.012438497005614
0.003276434330074
-0.012438497005614
0.003276434330074
-0.012438497005614
0.003276434330074
-0.012438497005614
0.003276434330074
-0.012438497005614
0.003276434330074
0.022844545099560
0.025327660494772
0.022844545099560
0.025327660494772
0.022844545099560
0.025327660494772
0.022844545099560
0.025327660494772
0.022844545099560
0.025327660494772
0.022844545099560
0.025327660494772
0.022844545099560
0.025327660494772
0.022844545099560
0.025327660494772
0.022844545099560
0.025327660494772
0.022844545099560
0.025327660494772
0.022844545099560
0.025327660494772
0.022844545099560
0.025327660494772
0.022844545099560
0.025327660494772
0.022844545099560
0.025327660494772
0.022844545099560
0.025327660494772
0.022844545099560
0.025327660494772
-0.012438497005614
0.003276434330074
-0.012438497005614
0.003276434330074
-0.012438497005614
0.003276434330074
-0.012438497005614
0.003276434330074
-0.012438497005614
0.003276434330074
-0.012438497005614
0.003276434330074
-0.012438497005614
0.003276434330074
-0.012438497005614
0.003276434330074
-0.012438497005614
0.003276434330074
-0.012438497005614
0.003276434330074
-0.012438497005614
0.003276434330074
-0.012438497005614
0.003276434330074
-0.012438497005614
0.003276434330074
-0.012438497005614
0.003276434330074
-0.012438497005614
0.003276434330074
-0.012438497005614
0.003276434330074
0.022844545099560
0.025327660494772
0.022844545099560
0.025327660494772
0.022844545099560
0.025327660494772
0.022844545099560
0.025327660494772
0.022844545099560
0.025327660494772
0.022844545099560
0.025327660494772
0.022844545099560
0.025327660494772
0.022844545099560
0.025327660494772
0.022844545099560
0.025327660494772
0.022844545099560
0.025327660494772
0.022844545099560
0.025327660494772
0.022844545099560
0.025327660494772
0.022844545099560
0.025327660494772
0.022844545099560
0.025327660494772
0.022844545099560
0.025327660494772
0.022844545099560
0.025327660494772
-0.012438497005614
0.003276434330074
-0.012438497005614
0.003276434330074
-0.012438497005614
0.003276434330074
-0.012438497005614
0.003276434330074
-0.012438497005614
0.003276434330074
-0.012438497005614
0.003276434330074
-0.012438497005614
0.003276434330074
-0.012438497005614
0.003276434330074
-0.012438497005614
0.003276434330074
-0.012438497005614
0.003276434330074
-0.012438497005614
0.003276434330074
-0.012438497005614
0.003276434330074
-0.012438497005614
0.003276434330074
-0.012438497005614
0.003276434330074
-0.012438497005614
0.003276434330074
-0.012438497005614
0.003276434330074
0.022844545099560
0.025327660494772
0.022844545099560
0.025327660494772
0.022844545099560
0.025327660494772
0.022844545099560
0.025327660494772
0.022844545099560
0.025327660494772
0.022844545099560
0.025327660494772
0.022844545099560
0.025327660494772
0.022844545099560
0.025327660494772
0.022844545099560
0.025327660494772
0.022844545099560
0.025327660494772
0.022844545099560
0.025327660494772
0.022844545099560
0.025327660494772
0.022844545099560
0.025327660494772
0.022844545099560
0.025327660494772
0.022844545099560
0.025327660494772
0.022844545099560
0.025327660494772
-0.012438497005614
0.003276434330074
-0.012438497005614
0.003276434330074
-0.012438497005614
0.003276434330074
-0.012438497005614
0.003276434330074
-0.012438497005614
0.003276434330074
-0.012438497005614
0.003276434330074
-0.012438497005614
0.003276434330074
-0.012438497005614
0.003276434330074
-0.012438497005614
0.003276434330074
-0.012438497005614
0.003276434330074
-0.012438497005614
0.003276434330074
-0.012438497005614
0.003276434330074
-0.012438497005614
0.003276434330074
-0.012438497005614
0.003276434330074
-0.012438497005614
0.003276434330074
-0.012438497005614
0.003276434330074
0.022844545099560
0.025327660494772
0.022844545099560
0.025327660494772
0.022844545099560
0.025327660494772
0.022844545099560
0.025327660494772
0.022844545099560
0.025327660494772
0.022844545099560
0.025327660494772
0.022844545099560
0.025327660494772
0.022844545099560
0.025327660494772
0.022844545099560
0.025327660494772
0.022844545099560
0.025327660494772
0.022844545099560
0.025327660494772
0.022844545099560
0.025327660494772
0.022844545099560
0.025327660494772
0.022844545099560
0.025327660494772
0.022844545099560
0.025327660494772
0.022844545099560
0.025327660494772
-0.012438497005614
0.003276434330074
-0.012438497005614
0.003276434330074
-0.012438497005614
0.003276434330074
-0.012438497005614
0.003276434330074
-0.012438497005614
0.003276434330074
-0.012438497005614
0.003276434330074
-0.012438497005614
0.003276434330074
-0.012438497005614
0.003276434330074
-0.012438497005614
0.003276434330074
-0.012438497005614
0.003276434330074
-0.012438497005614
0.003276434330074
-0.012438497005614
0.003276434330074
-0.012438497005614
0.003276434330074
-0.012438497005614
0.003276434330074
-0.012438497005614
0.003276434330074
-0.012438497005614
0.003276434330074
0.022844545099560
0.025327660494772
0.022844545099560
0.025327660494772
0.022844545099560
0.025327660494772
0.022844545099560
0.025327660494772
0.022844545099560
0.025327660494772
0.022844545099560
0.025327660494772
0.022844545099560
0.025327660494772
0.022844545099560
0.025327660494772
0.022844545099560
0.025327660494772
0.022844545099560
0.025327660494772
0.022844545099560
0.025327660494772
0.022844545099560
0.025327660494772
0.022844545099560
0.025327660494772
0.022844545099560
0.025327660494772
0.022844545099560
0.025327660494772
0.022844545099560
0.025327660494772
-0.012438497005614
0.003276434330074
-0.012438497005614
0.003276434330074
-0.012438497005614
0.003276434330074
-0.012438497005614
0.003276434330074
-0.012438497005614
0.003276434330074
-0.012438497005614
0.003276434330074
-0.012438497005614
0.003276434330074
-0.012438497005614
0.003276434330074
-0.012438497005614
0.003276434330074
-0.012438497005614
0.003276434330074
-0.012438497005614
0.003276434330074
-0.012438497005614
0.003276434330074
-0.012438497005614
0.003276434330074
-0.012438497005614
0.003276434330074
-0.012438497005614
0.003276434330074
-0.012438497005614
0.003276434330074
0.022844545099560
0.025327660494772
0.022844545099560
0.025327660494772
0.022844545099560
0.025327660494772
0.022844545099560
0.025327660494772
0.022844545099560
0.025327660494772
0.022844545099560
0.025327660494772
0.022844545099560
0.025327660494772
0.022844545099560
0.025327660494772
0.022844545099560
0.025327660494772
0.022844545099560
0.025327660494772
0.022844545099560
0.025327660494772
0.022844545099560
0.025327660494772
0.022844545099560
0.025327660494772
0.022844545099560
0.025327660494772
0.022844545099560
0.025327660494772
0.022844545099560
0.025327660494772
-0.012438497005614
0.003276434330074
-0.012438497005614
0.003276434330074
-0.012438497005614
0.003276434330074
-0.012438497005614
0.003276434330074
-0.012438497005614
0.003276434330074
-0.012438497005614
0.003276434330074
-0.012438497005614
0.003276434330074
-0.012438497005614
0.003276434330074
-0.012438497005614
0.003276434330074
-0.012438497005614
0.003276434330074
-0.012438497005614
0.003276434330074
-0.012438497005614
0.003276434330074
-0.012438497005614
0.003276434330074
-0.012438497005614
0.003276434330074
-0.012438497005614
0.003276434330074
-0.012438497005614
0.003276434330074
0.022844545099560
0.025327660494772
0.022844545099560
0.025327660494772
0.022844545099560
0.025327660494772
0.022844545099560
0.025327660494772
0.022844545099560
0.025327660494772
0.022844545099560
0.025327660494772
0.022844545099560
0.025327660494772
0.022844545099560
0.025327660494772
0.022844545099560
0.025327660494772
0.022844545099560
0.025327660494772
0.022844545099560
0.025327660494772
0.022844545099560
0.025327660494772
0.022844545099560
0.025327660494772
0.022844545099560
0.025327660494772
0.022844545099560
0.025327660494772
0.022844545099560
0.025327660494772
-0.012438497005614
0.003276434330074
-0.012438497005614
0.003276434330074
-0.012438497005614
0.003276434330074
-0.012438497005614
0.003276434330074
-0.012438497005614
0.003276434330074
-0.012438497005614
0.003276434330074
-0.012438497005614
0.003276434330074
-0.012438497005614
0.003276434330074
-0.012438497005614
0.003276434330074
-0.012438497005614
0.003276434330074
-0.012438497005614
0.003276434330074
-0.012438497005614
0.003276434330074
-0.012438497005614
0.003276434330074
-0.012438497005614
0.003276434330074
-0.012438497005614
0.003276434330074
-0.012438497005614
0.003276434330074
0.022844545099560
0.025327660494772
0.022844545099560
0.025327660494772
0.022844545099560
0.025327660494772
0.022844545099560
0.025327660494772
0.022844545099560
0.025327660494772
0.022844545099560
0.025327660494772
0.022844545099560
0.025327660494772
0.022844545099560
0.025327660494772
0.022844545099560
0.025327660494772
0.022844545099560
0.025327660494772
0.022844545099560
0.025327660494772
0.022844545099560
0.025327660494772
0.022844545099560
0.025327660494772
0.022844545099560
0.025327660494772
0.022844545099560
0.025327660494772
0.022844545099560
0.025327660494772
-0.012438497005614
0.003276434330074
-0.012438497005614
0.003276434330074
-0.012438497005614
0.003276434330074
-0.012438497005614
0.003276434330074
-0.012438497005614
0.003276434330074
-0.012438497005614
0.003276434330074
-0.012438497005614
0.003276434330074
-0.012438497005614
0.003276434330074
-0.012438497005614
0.003276434330074
-0.012438497005614
0.003276434330074
-0.012438497005614
0.003276434330074
-0.012438497005614
0.003276434330074
-0.012438497005614
0.003276434330074
-0.012438497005614
0.003276434330074
-0.012438497005614
0.003276434330074
-0.012438497005614
0.003276434330074
0.022844545099560
0.025327660494772
0.022844545099560
0.025327660494772
0.022844545099560
0.025327660494772
0.022844545099560
0.025327660494772
0.022844545099560
0.025327660494772
0.022844545099560
0.025327660494772
0.022844545099560
0.025327660494772
0.022844545099560
0.025327660494772
0.022844545099560
0.025327660494772
0.022844545099560
0.025327660494772
0.022844545099560
0.025327660494772
0.022844545099560
0.025327660494772
0.022844545099560
0.025327660494772
0.022844545099560
0.025327660494772
0.022844545099560
0.025327660494772
0.022844545099560
0.025327660494772
-0.012438497005614
0.003276434330074
-0.012438497005614
0.003276434330074
-0.012438497005614
0.003276434330074
-0.012438497005614
0.003276434330074
-0.012438497005614
0.003276434330074
-0.012438497005614
0.003276434330074
-0.012438497005614
0.003276434330074
-0.012438497005614
0.003276434330074
-0.012438497005614
0.003276434330074
-0.012438497005614
0.003276434330074
-0.012438497005614
0.003276434330074
-0.012438497005614
0.003276434330074
-0.012438497005614
0.003276434330074
-0.012438497005614
0.003276434330074
-0.012438497005614
0.003276434330074
-0.012438497005614
0.003276434330074
0.022844545099560
0.025327660494772
0.022844545099560
0.025327660494772
0.022844545099560
0.025327660494772
0.022844545099560
0.025327660494772
0.022844545099560
0.025327660494772
0.022844545099560
0.025327660494772
0.022844545099560
0.025327660494772
0.022844545099560
0.025327660494772
0.022844545099560
0.025327660494772
0.022844545099560
0.025327660494772
0.022844545099560
0.025327660494772
0.022844545099560
0.025327660494772
0.022844545099560
0.025327660494772
0.022844545099560
0.025327660494772
0.022844545099560
0.025327660494772
0.022844545099560
0.025327660494772
-0.012438497005614
0.003276434330074
-0.012438497005614
0.003276434330074
-0.012438497005614
0.003276434330074
-0.012438497005614
0.003276434330074
-0.012438497005614
0.003276434330074
-0.012438497005614
0.003276434330074
-0.012438497005614
0.003276434330074
-0.012438497005614
0.003276434330074
-0.012438497005614
0.003276434330074
-0.012438497005614
0.003276434330074
-0.012438497005614
0.003276434330074
-0.012438497005614
0.003276434330074
-0.012438497005614
0.003276434330074
-0.012438497005614
0.003276434330074
-0.012438497005614
0.003276434330074
-0.012438497005614
0.003276434330074
0.022844545099560
0.025327660494772
0.022844545099560
0.025327660494772
0.022844545099560
0.025327660494772
0.022844545099560
0.025327660494772
0.022844545099560
0.025327660494772
0.022844545099560
0.025327660494772
0.022844545099560
0.025327660494772
0.022844545099560
0.025327660494772
0.022844545099560
0.025327660494772
0.022844545099560
0.025327660494772
0.022844545099560
0.025327660494772
0.022844545099560
0.025327660494772
0.022844545099560
0.025327660494772
0.022844545099560
0.025327660494772
0.022844545099560
0.025327660494772
0.022844545099560
0.025327660494772
-0.012438497005614
0.003276434330074
-0.012438497005614
0.003276434330074
-0.012438497005614
0.003276434330074
-0.012438497005614
0.003276434330074
-0.012438497005614
0.003276434330074
-0.012438497005614
0.003276434330074
-0.012438497005614
0.003276434330074
-0.012438497005614
0.003276434330074
-0.012438497005614
0.003276434330074
-0.012438497005614
0.003276434330074
-0.012438497005614
0.003276434330074
-0.012438497005614
0.003276434330074
-0.012438497005614
0.003276434330074
-0.012438497005614
0.003276434330074
-0.012438497005614
0.003276434330074
-0.012438497005614
0.003276434330074
0.022844545099560
0.025327660494772
0.022844545099560
0.025327660494772
0.022844545099560
0.025327660494772
0.022844545099560
0.025327660494772
0.022844545099560
0.025327660494772
0.022844545099560
0.025327660494772
0.022844545099560
0.025327660494772
0.022844545099560
0.025327660494772
0.022844545099560
0.025327660494772
0.022844545099560
0.025327660494772
0.022844545099560
0.025327660494772
0.022844545099560
0.025327660494772
0.022844545099560
0.025327660494772
0.022844545099560
0.025327660494772
0.022844545099560
0.025327660494772
0.022844545099560
0.025327660494772
-0.012438497005614
0.003276434330074
-0.012438497005614
0.003276434330074
-0.012438497005614
0.003276434330074
-0.012438497005614
0.003276434330074
-0.012438497005614
0.003276434330074
-0.012438497005614
0.003276434330074
-0.012438497005614
0.003276434330074
-0.012438497005614
0.003276434330074
-0.012438497005614
0.003276434330074
-0.012438497005614
0.003276434330074
-0.012438497005614
0.003276434330074
-0.012438497005614
0.003276434330074
-0.012438497005614
0.003276434330074
-0.012438497005614
0.003276434330074
-0.012438497005614
0.003276434330074
-0.012438497005614
0.003276434330074
0.022844545099560
0.025327660494772
0.022844545099560
0.025327660494772
0.022844545099560
0.025327660494772
0.022844545099560
0.025327660494772
0.022844545099560
0.025327660494772
0.022844545099560
0.025327660494772
0.022844545099560
0.025327660494772
0.022844545099560
0.025327660494772
0.022844545099560
0.025327660494772
0.022844545099560
0.025327660494772
0.022844545099560
0.025327660494772
0.022844545099560
0.025327660494772
0.022844545099560
0.025327660494772
0.022844545099560
0.025327660494772
0.022844545099560
0.025327660494772
0.022844545099560
0.025327660494772
-0.012438497005614
0.003276434330074
-0.012438497005614
0.003276434330074
-0.012438497005614
0.003276434330074
-0.012438497005614
0.003276434330074
-0.012438497005614
0.003276434330074
-0.012438497005614
0.003276434330074
-0.012438497005614
0.003276434330074
-0.012438497005614
0.003276434330074
-0.012438497005614
0.003276434330074
-0.012438497005614
0.003276434330074
-0.012438497005614
0.003276434330074
-0.012438497005614
0.003276434330074
-0.012438497005614
0.003276434330074
-0.012438497005614
0.003276434330074
-0.012438497005614
0.003276434330074
-0.012438497005614
0.003276434330074
0.022844545099560
0.025327660494772
0.022844545099560
0.025327660494772
0.022844545099560
0.025327660494772
0.022844545099560
0.025327660494772
0.022844545099560
0.025327660494772
0.022844545099560
0.025327660494772
0.022844545099560
0.025327660494772
0.022844545099560
0.025327660494772
0.022844545099560
0.025327660494772
0.022844545099560
0.025327660494772
0.022844545099560
0.025327660494772
0.022844545099560
0.025327660494772
0.022844545099560
0.025327660494772
0.022844545099560
0.025327660494772
0.022844545099560
0.025327660494772
0.022844545099560
0.025327660494772
-0.000000000000000
0.000000000000000
-0.000000000000000
0.000000000000000
-0.000000000000000
0.000000000000000
-0.000000000000000
0.000000000000000
-0.000000000000000
0.000000000000000
-0.000000000000000
0.000000000000000
-0.000000000000000
0.000000000000000
-0.000000000000000
0.000000000000000
-0.000000000000000
0.000000000000000
-0.000000000000000
0.000000000000000
-0.000000000000000
0.000000000000000
-0.000000000000000
0.000000000000000
-0.000000000000000
0.000000000000000
-0.000000000000000
0.000000000000000
-0.000000000000000
0.000000000000000
-0.000000000000000
0.000000000000000
0.000000000000000
0.000000000000000
0.000000000000000
0.000000000000000
0.000000000000000
0.000000000000000
0.000000000000000
0.000000000000000
0.000000000000000
0.000000000000000
0.000000000000000
0.000000000000000
0.000000000000000
0.000000000000000
0.000000000000000
0.000000000000000
0.000000000000000
0.000000000000000
0.000000000000000
0.000000000000000
0.000000000000000
0.000000000000000
0.000000000000000
0.000000000000000
0.000000000000000
0.000000000000000
0.000000000000000
0.000000000000000
0.000000000000000
0.000000000000000
0.000000000000000
0.000000000000000
-0.002961446966063
-0.010171053551227
-0.002961446966063
-0.010171053551227
-0.002961446966063
-0.010171053551227
-0.002961446966063
-0.010171053551227
-0.002961446966063
-0.010171053551227
-0.002961446966063
-0.010171053551227
-0.002961446966063
-0.010171053551227
-0.002961446966063
-0.010171053551227
-0.002961446966063
-0.010171053551227
-0.002961446966063
-0.010171053551227
-0.002961446966063
-0.010171053551227
-0.002961446966063
-0.010171053551227
-0.002961446966063
-0.010171053551227
-0.002961446966063
-0.010171053551227
-0.002961446966063
-0.010171053551227
-0.002961446966063
-0.010171053551227
0.011765814224416
-0.020574466909421
0.011765814224416
-0.020574466909421
0.011765814224416
-0.020574466909421
0.011765814224416
-0.020574466909421
0.011765814224416
-0.020574466909421
0.011765814224416
-0.020574466909421
0.011765814224416
-0.020574466909421
0.011765814224416
-0.020574466909421
0.011765814224416
-0.020574466909421
0.011765814224416
-0.020574466909421
0.011765814224416
-0.020574466909421
0.011765814224416
-0.020574466909421
0.011765814224416
-0.020574466909421
0.011765814224416
-0.020574466909421
0.011765814224416
-0.020574466909421
0.011765814224416
-0.020574466909421
-0.002961446966063
-0.010171053551227
-0.002961446966063
-0.010171053551227
-0.002961446966063
-0.010171053551227
-0.002961446966063
-0.010171053551227
-0.002961446966063
-0.010171053551227
-0.002961446966063
-0.010171053551227
-0.002961446966063
-0.010171053551227
-0.002961446966063
-0.010171053551227
-0.002961446966063
-0.010171053551227
-0.002961446966063
-0.010171053551227
-0.002961446966063
-0.010171053551227
-0.002961446966063
-0.010171053551227
-0.002961446966063
-0.010171053551227
-0.002961446966063
-0.010171053551227
-0.002961446966063
-0.010171053551227
-0.002961446966063
-0.010171053551227
0.011765814224416
-0.020574466909421
0.011765814224416
-0.020574466909421
0.011765814224416
-0.020574466909421
0.011765814224416
-0.020574466909421
0.011765814224416
-0.020574466909421
0.011765814224416
-0.020574466909421
0.011765814224416
-0.020574466909421
0.011765814224416
-0.020574466909421
0.011765814224416
-0.020574466909421
0.011765814224416
-0.020574466909421
0.011765814224416
-0.020574466909421
0.011765814224416
-0.020574466909421
0.011765814224416
-0.020574466909421
0.011765814224416
-0.020574466909421
0.011765814224416
-0.020574466909421
0.011765814224416
-0.020574466909421
-0.002961446966063
-0.010171053551227
-0.002961446966063
-0.010171053551227
-0.002961446966063
-0.010171053551227
-0.002961446966063
-0.010171053551227
-0.002961446966063
-0.010171053551227
-0.002961446966063
-0.010171053551227
-0.002961446966063
-0.010171053551227
-0.002961446966063
-0.010171053551227
-0.002961446966063
-0.010171053551227
-0.002961446966063
-0.010171053551227
-0.002961446966063
-0.010171053551227
-0.002961446966063
-0.010171053551227
-0.002961446966063
-0.010171053551227
-0.002961446966063
-0.010171053551227
-0.002961446966063
-0.010171053551227
-0.002961446966063
-0.010171053551227
0.011765814224416
-0.020574466909421
0.011765814224416
-0.020574466909421
0.011765814224416
-0.020574466909421
0.011765814224416
-0.020574466909421
0.011765814224416
-0.020574466909421
0.011765814224416
-0.020574466909421
0.011765814224416
-0.020574466909421
0.011765814224416
-0.020574466909421
0.011765814224416
-0.020574466909421
0.011765814224416
-0.020574466909421
0.011765814224416
-0.020574466909421
0.011765814224416
-0.020574466909421
0.011765814224416
-0.020574466909421
0.011765814224416
-0.020574466909421
0.011765814224416
-0.020574466909421
0.011765814224416
-0.020574466909421
-0.002961446966063
-0.010171053551227
-0.002961446966063
-0.010171053551227
-0.002961446966063
-0.010171053551227
-0.002961446966063
-0.010171053551227
-0.002961446966063
-0.010171053551227
-0.002961446966063
-0.010171053551227
-0.002961446966063
-0.010171053551227
-0.002961446966063
-0.010171053551227
-0.002961446966063
-0.010171053551227
-0.002961446966063
-0.010171053551227
-0.002961446966063
-0.010171053551227
-0.002961446966063
-0.010171053551227
-0.002961446966063
-0.010171053551227
-0.002961446966063
-0.010171053551227
-0.002961446966063
-0.010171053551227
-0.002961446966063
-0.010171053551227
0.011765814224416
-0.020574466909421
0.011765814224416
-0.020574466909421
0.011765814224416
-0.020574466909421
0.011765814224416
-0.020574466909421
0.011765814224416
-0.020574466909421
0.011765814224416
-0.020574466909421
0.011765814224416
-0.020574466909421
0.011765814224416
-0.020574466909421
0.011765814224416
-0.020574466909421
0.011765814224416
-0.020574466909421
0.011765814224416
-0.020574466909421
0.011765814224416
-0.020574466909421
0.011765814224416
-0.020574466909421
0.011765814224416
-0.020574466909421
0.011765814224416
-0.020574466909421
0.011765814224416
-0.020574466909421
-0.002961446966063
-0.010171053551227
-0.002961446966063
-0.010171053551227
-0.002961446966063
-0.010171053551227
-0.002961446966063
-0.010171053551227
-0.002961446966063
-0.010171053551227
-0.002961446966063
-0.010171053551227
-0.002961446966063
-0.010171053551227
-0.002961446966063
-0.010171053551227
-0.002961446966063
-0.010171053551227
-0.002961446966063
-0.010171053551227
-0.002961446966063
-0.010171053551227
-0.002961446966063
-0.010171053551227
-0.002961446966063
-0.010171053551227
-0.002961446966063
-0.010171053551227
-0.002961446966063
-0.010171053551227
-0.002961446966063
-0.010171053551227
0.011765814224416
-0.020574466909421
0.011765814224416
-0.020574466909421
0.011765814224416
-0.020574466909421
0.011765814224416
-0.020574466909421
0.011765814224416
-0.020574466909421
0.011765814224416
-0.020574466909421
0.011765814224416
-0.020574466909421
0.011765814224416
-0.020574466909421
0.011765814224416
-0.020574466909421
0.011765814224416
-0.020574466909421
0.011765814224416
-0.020574466909421
0.011765814224416
-0.020574466909421
0.011765814224416
-0.020574466909421
0.011765814224416
-0.020574466909421
0.011765814224416
-0.020574466909421
0.011765814224416
-0.020574466909421
-0.002961446966063
-0.010171053551227
-0.002961446966063
-0.010171053551227
-0.002961446966063
-0.010171053551227
-0.002961446966063
-0.010171053551227
-0.002961446966063
-0.010171053551227
-0.002961446966063
-0.010171053551227
-0.002961446966063
-0.010171053551227
-0.002961446966063
-0.010171053551227
-0.002961446966063
-0.010171053551227
-0.002961446966063
-0.010171053551227
-0.002961446966063
-0.010171053551227
-0.002961446966063
-0.010171053551227
-0.002961446966063
-0.010171053551227
-0.002961446966063
-0.010171053551227
-0.002961446966063
-0.010171053551227
-0.002961446966063
-0.010171053551227
0.011765814224416
-0.020574466909421
0.011765814224416
-0.020574466909421
0.011765814224416
-0.020574466909421
0.011765814224416
-0.020574466909421
0.011765814224416
-0.020574466909421
0.011765814224416
-0.020574466909421
0.011765814224416
-0.020574466909421
0.011765814224416
-0.020574466909421
0.011765814224416
-0.020574466909421
0.011765814224416
-0.020574466909421
0.011765814224416
-0.020574466909421
0.011765814224416
-0.020574466909421
0.011765814224416
-0.020574466909421
0.011765814224416
-0.020574466909421
0.011765814224416
-0.020574466909421
0.011765814224416
-0.020574466909421
-0.002961446966063
-0.010171053551227
-0.002961446966063
-0.010171053551227
-0.002961446966063
-0.010171053551227
-0.002961446966063
-0.010171053551227
-0.002961446966063
-0.010171053551227
-0.002961446966063
-0.010171053551227
-0.002961446966063
-0.010171053551227
-0.002961446966063
-0.010171053551227
-0.002961446966063
-0.010171053551227
-0.002961446966063
-0.010171053551227
-0.002961446966063
-0.010171053551227
-0.002961446966063
-0.010171053551227
-0.002961446966063
-0.010171053551227
-0.002961446966063
-0.010171053551227
-0.002961446966063
-0.010171053551227
-0.002961446966063
-0.010171053551227
0.011765814224416
-0.020574466909421
0.011765814224416
-0.020574466909421
0.011765814224416
-0.020574466909421
0.011765814224416
-0.020574466909421
0.011765814224416
-0.020574466909421
0.011765814224416
-0.020574466909421
0.011765814224416
-0.020574466909421
0.011765814224416
-0.020574466909421
0.011765814224416
-0.020574466909421
0.011765814224416
-0.020574466909421
0.011765814224416
-0.020574466909421
0.011765814224416
-0.020574466909421
0.011765814224416
-0.020574466909421
0.011765814224416
-0.020574466909421
0.011765814224416
-0.020574466909421
0.011765814224416
-0.020574466909421
-0.002961446966063
-0.010171053551227
-0.002961446966063
-0.010171053551227
-0.002961446966063
-0.010171053551227
-0.002961446966063
-0.010171053551227
-0.002961446966063
-0.010171053551227
-0.002961446966063
-0.010171053551227
-0.002961446966063
-0.010171053551227
-0.002961446966063
-0.010171053551227
-0.002961446966063
-0.010171053551227
-0.002961446966063
-0.010171053551227
-0.002961446966063
-0.010171053551227
-0.002961446966063
-0.010171053551227
-0.002961446966063
-0.010171053551227
-0.002961446966063
-0.010171053551227
-0.002961446966063
-0.010171053551227
-0.002961446966063
-0.010171053551227
0.011765814224416
-0.020574466909421
0.011765814224416
-0.020574466909421
0.011765814224416
-0.020574466909421
0.011765814224416
-0.020574466909421
0.011765814224416
-0.020574466909421
0.011765814224416
-0.020574466909421
0.011765814224416
-0.020574466909421
0.011765814224416
-0.020574466909421
0.011765814224416
-0.020574466909421
0.011765814224416
-0.020574466909421
0.011765814224416
-0.020574466909421
0.011765814224416
-0.020574466909421
0.011765814224416
-0.020574466909421
0.011765814224416
-0.020574466909421
0.011765814224416
-0.020574466909421
0.011765814224416
-0.020574466909421
-0.002961446966063
-0.010171053551227
-0.002961446966063
-0.010171053551227
-0.002961446966063
-0.010171053551227
-0.002961446966063
-0.010171053551227
-0.002961446966063
-0.010171053551227
-0.002961446966063
-0.010171053551227
-0.002961446966063
-0.010171053551227
-0.002961446966063
-0.010171053551227
-0.002961446966063
-0.010171053551227
-0.002961446966063
-0.010171053551227
-0.002961446966063
-0.010171053551227
-0.002961446966063
-0.010171053551227
-0.002961446966063
-0.010171053551227
-0.002961446966063
-0.010171053551227
-0.002961446966063
-0.010171053551227
-0.002961446966063
-0.010171053551227
0.011765814224416
-0.020574466909421
0.011765814224416
-0.020574466909421
0.011765814224416
-0.020574466909421
0.011765814224416
-0.020574466909421
0.011765814224416
-0.020574466909421
0.011765814224416
-0.020574466909421
0.011765814224416
-0.020574466909421
0.011765814224416
-0.020574466909421
0.011765814224416
-0.020574466909421
0.011765814224416
-0.020574466909421
0.011765814224416
-0.020574466909421
0.011765814224416
-0.020574466909421
0.011765814224416
-0.020574466909421
0.011765814224416
-0.020574466909421
0.011765814224416
-0.020574466909421
0.011765814224416
-0.020574466909421
-0.002961446966063
-0.010171053551227
-0.002961446966063
-0.010171053551227
-0.002961446966063
-0.010171053551227
-0.002961446966063
-0.010171053551227
-0.002961446966063
-0.010171053551227
-0.002961446966063
-0.010171053551227
-0.002961446966063
-0.010171053551227
-0.002961446966063
-0.010171053551227
-0.002961446966063
-0.010171053551227
-0.002961446966063
-0.010171053551227
-0.002961446966063
-0.010171053551227
-0.002961446966063
-0.010171053551227
-0.002961446966063
-0.010171053551227
-0.002961446966063
-0.010171053551227
-0.002961446966063
-0.010171053551227
-0.002961446966063
-0.010171053551227
0.011765814224416
-0.020574466909421
0.011765814224416
-0.020574466909421
0.011765814224416
-0.020574466909421
0.011765814224416
-0.020574466909421
0.011765814224416
-0.020574466909421
0.011765814224416
-0.020574466909421
0.011765814224416
-0.020574466909421
0.011765814224416
-0.020574466909421
0.011765814224416
-0.020574466909421
0.011765814224416
-0.020574466909421
0.011765814224416
-0.020574466909421
0.011765814224416
-0.020574466909421
0.011765814224416
-0.020574466909421
0.011765814224416
-0.020574466909421
0.011765814224416
-0.020574466909421
0.011765814224416
-0.020574466909421
-0.002961446966063
-0.010171053551227
-0.002961446966063
-0.010171053551227
-0.002961446966063
-0.010171053551227
-0.002961446966063
-0.010171053551227
-0.002961446966063
-0.010171053551227
-0.002961446966063
-0.010171053551227
-0.002961446966063
-0.010171053551227
-0.002961446966063
-0.010171053551227
-0.002961446966063
-0.010171053551227
-0.002961446966063
-0.010171053551227
-0.002961446966063
-0.010171053551227
-0.002961446966063
-0.010171053551227
-0.002961446966063
-0.010171053551227
-0.002961446966063
-0.010171053551227
-0.002961446966063
-0.010171053551227
-0.002961446966063
-0.010171053551227
0.011765814224416
-0.020574466909421
0.011765814224416
-0.020574466909421
0.011765814224416
-0.020574466909421
0.011765814224416
-0.020574466909421
0.011765814224416
-0.020574466909421
0.011765814224416
-0.020574466909421
0.011765814224416
-0.020574466909421
0.011765814224416
-0.020574466909421
0.011765814224416
-0.020574466909421
0.011765814224416
-0.020574466909421
0.011765814224416
-0.020574466909421
0.011765814224416
-0.020574466909421
0.011765814224416
-0.020574466909421
0.011765814224416
-0.020574466909421
0.011765814224416
-0.020574466909421
0.011765814224416
-0.020574466909421
-0.002961446966063
-0.010171053551227
-0.002961446966063
-0.010171053551227
-0.002961446966063
-0.010171053551227
-0.002961446966063
-0.010171053551227
-0.002961446966063
-0.010171053551227
-0.002961446966063
-0.010171053551227
-0.002961446966063
-0.010171053551227
-0.002961446966063
-0.010171053551227
-0.002961446966063
-0.010171053551227
-0.002961446966063
-0.010171053551227
-0.002961446966063
-0.010171053551227
-0.002961446966063
-0.010171053551227
-0.002961446966063
-0.010171053551227
-0.002961446966063
-0.010171053551227
-0.002961446966063
-0.010171053551227
-0.002961446966063
-0.010171053551227
0.011765814224416
-0.020574466909421
0.011765814224416
-0.020574466909421
0.011765814224416
-0.020574466909421
0.011765814224416
-0.020574466909421
0.011765814224416
-0.020574466909421
0.011765814224416
-0.020574466909421
0.011765814224416
-0.020574466909421
0.011765814224416
-0.020574466909421
0.011765814224416
-0.020574466909421
0.011765814224416
-0.020574466909421
0.011765814224416
-0.020574466909421
0.011765814224416
-0.020574466909421
0.011765814224416
-0.020574466909421
0.011765814224416
-0.020574466909421
0.011765814224416
-0.020574466909421
0.011765814224416
-0.020574466909421
-0.002961446966063
-0.010171053551227
-0.002961446966063
-0.010171053551227
-0.002961446966063
-0.010171053551227
-0.002961446966063
-0.010171053551227
-0.002961446966063
-0.010171053551227
-0.002961446966063
-0.010171053551227
-0.002961446966063
-0.010171053551227
-0.002961446966063
-0.010171053551227
-0.002961446966063
-0.010171053551227
-0.002961446966063
-0.010171053551227
-0.002961446966063
-0.010171053551227
-0.002961446966063
-0.010171053551227
-0.002961446966063
-0.010171053551227
-0.002961446966063
-0.010171053551227
-0.002961446966063
-0.010171053551227
-0.002961446966063
-0.010171053551227
0.011765814224416
-0.020574466909421
0.011765814224416
-0.020574466909421
0.011765814224416
-0.020574466909421
0.011765814224416
-0.020574466909421
0.011765814224416
-0.020574466909421
0.011765814224416
-0.020574466909421
0.011765814224416
-0.020574466909421
0.011765814224416
-0.020574466909421
0.011765814224416
-0.020574466909421
0.011765814224416
-0.020574466909421
0.011765814224416
-0.020574466909421
0.011765814224416
-0.020574466909421
0.011765814224416
-0.020574466909421
0.011765814224416
-0.020574466909421
0.011765814224416
-0.020574466909421
0.011765814224416
-0.020574466909421
-0.002961446966063
-0.010171053551227
-0.002961446966063
-0.010171053551227
-0.002961446966063
-0.010171053551227
-0.002961446966063
-0.010171053551227
-0.002961446966063
-0.010171053551227
-0.002961446966063
-0.010171053551227
-0.002961446966063
-0.010171053551227
-0.002961446966063
-0.010171053551227
-0.002961446966063
-0.010171053551227
-0.002961446966063
-0.010171053551227
-0.002961446966063
-0.010171053551227
-0.002961446966063
-0.010171053551227
-0.002961446966063
-0.010171053551227
-0.002961446966063
-0.010171053551227
-0.002961446966063
-0.010171053551227
-0.002961446966063
-0.010171053551227
0.011765814224416
-0.020574466909421
0.011765814224416
-0.020574466909421
0.011765814224416
-0.020574466909421
0.011765814224416
-0.020574466909421
0.011765814224416
-0.020574466909421
0.011765814224416
-0.020574466909421
0.011765814224416
-0.020574466909421
0.011765814224416
-0.020574466909421
0.011765814224416
-0.020574466909421
0.011765814224416
-0.020574466909421
0.011765814224416
-0.020574466909421
0.011765814224416
-0.020574466909421
0.011765814224416
-0.020574466909421
0.011765814224416
-0.020574466909421
0.011765814224416
-0.020574466909421
0.011765814224416
-0.020574466909421
-0.002961446966063
-0.010171053551227
-0.002961446966063
-0.010171053551227
-0.002961446966063
-0.010171053551227
-0.002961446966063
-0.010171053551227
-0.002961446966063
-0.010171053551227
-0.002961446966063
-0.010171053551227
-0.002961446966063
-0.010171053551227
-0.002961446966063
-0.010171053551227
-0.002961446966063
-0.010171053551227
-0.002961446966063
-0.010171053551227
-0.002961446966063
-0.010171053551227
-0.002961446966063
-0.010171053551227
-0.002961446966063
-0.010171053551227
-0.002961446966063
-0.010171053551227
-0.002961446966063
-0.010171053551227
-0.002961446966063
-0.010171053551227
0.011765814224416
-0.020574466909421
0.011765814224416
-0.020574466909421
0.011765814224416
-0.020574466909421
0.011765814224416
-0.020574466909421
0.011765814224416
-0.020574466909421
0.011765814224416
-0.020574466909421
0.011765814224416
-0.020574466909421
0.011765814224416
-0.020574466909421
0.011765814224416
-0.020574466909421
0.011765814224416
-0.020574466909421
0.011765814224416
-0.020574466909421
0.011765814224416
-0.020574466909421
0.011765814224416
-0.020574466909421
0.011765814224416
-0.020574466909421
0.011765814224416
-0.020574466909421
0.011765814224416
-0.020574466909421
-0.000000000000000
-0.000000000000000
-0.000000000000000
-0.000000000000000
-0.000000000000000
-0.000000000000000
-0.000000000000000
-0.000000000000000
-0.000000000000000
-0.000000000000000
-0.000000000000000
-0.000000000000000
-0.000000000000000
-0.000000000000000
-0.000000000000000
-0.000000000000000
-0.000000000000000
-0.000000000000000
-0.000000000000000
-0.000000000000000
-0.000000000000000
-0.000000000000000
-0.000000000000000
-0.000000000000000
-0.000000000000000
-0.000000000000000
-0.000000000000000
-0.000000000000000
-0.000000000000000
-0.000000000000000
-0.000000000000000
-0.000000000000000
0.000000000000000
-0.000000000000000
0.000000000000000
-0.000000000000000
0.000000000000000
-0.000000000000000
0.000000000000000
-0.000000000000000
0.000000000000000
-0.000000000000000
0.000000000000000
-0.000000000000000
0.000000000000000
-0.000000000000000
0.000000000000000
-0.000000000000000
0.000000000000000
-0.000000000000000
0.000000000000000
-0.000000000000000
0.000000000000000
-0.000000000000000
0.000000000000000
-0.000000000000000
0.000000000000000
-0.000000000000000
0.000000000000000
-0.000000000000000
0.000000000000000
-0.000000000000000
0.000000000000000
-0.000000000000000
0.002954899937251
-0.069201406903485
0.002954899937251
-0.069201406903485
0.002954899937251
-0.069201406903485
0.002954899937251
-0.069201406903485
0.002954899937251
-0.069201406903485
0.002954899937251
-0.069201406903485
0.002954899937251
-0.069201406903485
0.002954899937251
-0.069201406903485
0.002954899937251
-0.069201406903485
0.002954899937251
-0.069201406903485
0.002954899937251
-0.069201406903485
0.002954899937251
-0.069201406903485
0.002954899937251
-0.069201406903485
0.002954899937251
-0.069201406903485
0.002954899937251
-0.069201406903485
0.002954899937251
-0.069201406903485
-0.048291702441932
0.002824415734887
-0.048291702441932
0.002824415734887
-0.048291702441932
0.002824415734887
-0.048291702441932
0.002824415734887
-0.048291702441932
0.002824415734887
-0.048291702441932
0.002824415734887
-0.048291702441932
0.002824415734887
-0.048291702441932
0.002824415734887
-0.048291702441932
0.002824415734887
-0.048291702441932
0.002824415734887
-0.048291702441932
0.002824415734887
-0.048291702441932
0.002824415734887
-0.048291702441932
0.002824415734887
-0.048291702441932
0.002824415734887
-0.048291702441932
0.002824415734887
-0.048291702441932
0.002824415734887
0.002954899937251
-0.069201406903485
0.002954899937251
-0.069201406903485
0.002954899937251
-0.069201406903485
0.002954899937251
-0.069201406903485
0.002954899937251
-0.069201406903485
0.002954899937251
-0.069201406903485
0.002954899937251
-0.069201406903485
0.002954899937251
-0.069201406903485
0.002954899937251
-0.069201406903485
0.002954899937251
-0.069201406903485
0.002954899937251
-0.069201406903485
0.002954899937251
-0.069201406903485
0.002954899937251
-0.069201406903485
0.002954899937251
-0.069201406903485
0.002954899937251
-0.069201406903485
0.002954899937251
-0.069201406903485
-0.048291702441932
0.002824415734887
-0.048291702441932
0.002824415734887
-0.048291702441932
0.002824415734887
-0.048291702441932
0.002824415734887
-0.048291702441932
0.002824415734887
-0.048291702441932
0.002824415734887
-0.048291702441932
0.002824415734887
-0.048291702441932
0.002824415734887
-0.048291702441932
0.002824415734887
-0.048291702441932
0.002824415734887
-0.048291702441932
0.002824415734887
-0.048291702441932
0.002824415734887
-0.048291702441932
0.002824415734887
-0.048291702441932
0.002824415734887
-0.048291702441932
0.002824415734887
-0.048291702441932
0.002824415734887
0.002954899937251
-0.069201406903485
0.002954899937251
-0.069201406903485
0.002954899937251
-0.069201406903485
0.002954899937251
-0.069201406903485
0.002954899937251
-0.069201406903485
0.002954899937251
-0.069201406903485
0.002954899937251
-0.069201406903485
0.002954899937251
-0.069201406903485
0.002954899937251
-0.069201406903485
0.002954899937251
-0.069201406903485
0.002954899937251
-0.069201406903485
0.002954899937251
-0.069201406903485
0.002954899937251
-0.069201406903485
0.002954899937251
-0.069201406903485
0.002954899937251
-0.069201406903485
0.002954899937251
-0.069201406903485
-0.048291702441932
0.002824415734887
-0.048291702441932
0.002824415734887
-0.048291702441932
0.002824415734887
-0.048291702441932
0.002824415734887
-0.048291702441932
0.002824415734887
-0.048291702441932
0.002824415734887
-0.048291702441932
0.002824415734887
-0.048291702441932
0.002824415734887
-0.048291702441932
0.002824415734887
-0.048291702441932
0.002824415734887
-0.048291702441932
0.002824415734887
-0.048291702441932
0.002824415734887
-0.048291702441932
0.002824415734887
-0.048291702441932
0.002824415734887
-0.048291702441932
0.002824415734887
-0.048291702441932
0.002824415734887
0.002954899937251
-0.069201406903485
0.002954899937251
-0.069201406903485
0.002954899937251
-0.069201406903485
0.002954899937251
-0.069201406903485
0.002954899937251
-0.069201406903485
0.002954899937251
-0.069201406903485
0.002954899937251
-0.069201406903485
0.002954899937251
-0.069201406903485
0.002954899937251
-0.069201406903485
0.002954899937251
-0.069201406903485
0.002954899937251
-0.069201406903485
0.002954899937251
-0.069201406903485
0.002954899937251
-0.069201406903485
0.002954899937251
-0.069201406903485
0.002954899937251
-0.069201406903485
0.002954899937251
-0.069201406903485
-0.048291702441932
0.002824415734887
-0.048291702441932
0.002824415734887
-0.048291702441932
0.002824415734887
-0.048291702441932
0.002824415734887
-0.048291702441932
0.002824415734887
-0.048291702441932
0.002824415734887
-0.048291702441932
0.002824415734887
-0.048291702441932
0.002824415734887
-0.048291702441932
0.002824415734887
-0.048291702441932
0.002824415734887
-0.048291702441932
0.002824415734887
-0.048291702441932
0.002824415734887
-0.048291702441932
0.002824415734887
-0.048291702441932
0.002824415734887
-0.048291702441932
0.002824415734887
-0.048291702441932
0.002824415734887
0.002954899937251
-0.069201406903485
0.002954899937251
-0.069201406903485
0.002954899937251
-0.069201406903485
0.002954899937251
-0.069201406903485
0.002954899937251
-0.069201406903485
0.002954899937251
-0.069201406903485
0.002954899937251
-0.069201406903485
0.002954899937251
-0.069201406903485
0.002954899937251
-0.069201406903485
0.002954899937251
-0.069201406903485
0.002954899937251
-0.069201406903485
0.002954899937251
-0.069201406903485
0.002954899937251
-0.069201406903485
0.002954899937251
-0.069201406903485
0.002954899937251
-0.069201406903485
0.002954899937251
-0.069201406903485
-0.048291702441932
0.002824415734887
-0.048291702441932
0.002824415734887
-0.048291702441932
0.002824415734887
-0.048291702441932
0.002824415734887
-0.048291702441932
0.002824415734887
-0.048291702441932
0.002824415734887
-0.048291702441932
0.002824415734887
-0.048291702441932
0.002824415734887
-0.048291702441932
0.002824415734887
-0.048291702441932
0.002824415734887
-0.048291702441932
0.002824415734887
-0.048291702441932
0.002824415734887
-0.048291702441932
0.002824415734887
-0.048291702441932
0.002824415734887
-0.048291702441932
0.002824415734887
-0.048291702441932
0.002824415734887
0.002954899937251
-0.069201406903485
0.002954899937251
-0.069201406903485
0.002954899937251
-0.069201406903485
0.002954899937251
-0.069201406903485
0.002954899937251
-0.069201406903485
0.002954899937251
-0.069201406903485
0.002954899937251
-0.069201406903485
0.002954899937251
-0.069201406903485
0.002954899937251
-0.069201406903485
0.002954899937251
-0.069201406903485
0.002954899937251
-0.069201406903485
0.002954899937251
-0.069201406903485
0.002954899937251
-0.069201406903485
0.002954899937251
-0.069201406903485
0.002954899937251
-0.069201406903485
0.002954899937251
-0.069201406903485
-0.048291702441932
0.002824415734887
-0.048291702441932
0.002824415734887
-0.048291702441932
0.002824415734887
-0.048291702441932
0.002824415734887
-0.048291702441932
0.002824415734887
-0.048291702441932
0.002824415734887
-0.048291702441932
0.002824415734887
-0.048291702441932
0.002824415734887
-0.048291702441932
0.002824415734887
-0.048291702441932
0.002824415734887
-0.048291702441932
0.002824415734887
-0.048291702441932
0.002824415734887
-0.048291702441932
0.002824415734887
-0.048291702441932
0.002824415734887
-0.048291702441932
0.002824415734887
-0.048291702441932
0.002824415734887
0.002954899937251
-0.069201406903485
0.002954899937251
-0.069201406903485
0.002954899937251
-0.069201406903485
0.002954899937251
-0.069201406903485
0.002954899937251
-0.069201406903485
0.002954899937251
-0.069201406903485
0.002954899937251
-0.069201406903485
0.002954899937251
-0.069201406903485
0.002954899937251
-0.069201406903485
0.002954899937251
-0.069201406903485
0.002954899937251
-0.069201406903485
0.002954899937251
-0.069201406903485
0.002954899937251
-0.069201406903485
0.002954899937251
-0.069201406903485
0.002954899937251
-0.069201406903485
0.002954899937251
-0.069201406903485
-0.048291702441932
0.002824415734887
-0.048291702441932
0.002824415734887
-0.048291702441932
0.002824415734887
-0.048291702441932
0.002824415734887
-0.048291702441932
0.002824415734887
-0.048291702441932
0.002824415734887
-0.048291702441932
0.002824415734887
-0.048291702441932
0.002824415734887
-0.048291702441932
0.002824415734887
-0.048291702441932
0.002824415734887
-0.048291702441932
0.002824415734887
-0.048291702441932
0.002824415734887
-0.048291702441932
0.002824415734887
-0.048291702441932
0.002824415734887
-0.048291702441932
0.002824415734887
-0.048291702441932
0.002824415734887
0.002954899937251
-0.069201406903485
0.002954899937251
-0.069201406903485
0.002954899937251
-0.069201406903485
0.002954899937251
-0.069201406903485
0.002954899937251
-0.069201406903485
0.002954899937251
-0.069201406903485
0.002954899937251
-0.069201406903485
0.002954899937251
-0.069201406903485
0.002954899937251
-0.069201406903485
0.002954899937251
-0.069201406903485
0.002954899937251
-0.069201406903485
0.002954899937251
-0.069201406903485
0.002954899937251
-0.069201406903485
0.002954899937251
-0.069201406903485
0.002954899937251
-0.069201406903485
0.002954899937251
-0.069201406903485
-0.048291702441932
0.002824415734887
-0.048291702441932
0.002824415734887
-0.048291702441932
0.002824415734887
-0.048291702441932
0.002824415734887
-0.048291702441932
0.002824415734887
-0.048291702441932
0.002824415734887
-0.048291702441932
0.002824415734887
-0.048291702441932
0.002824415734887
-0.048291702441932
0.002824415734887
-0.048291702441932
0.002824415734887
-0.048291702441932
0.002824415734887
-0.048291702441932
0.002824415734887
-0.048291702441932
0.002824415734887
-0.048291702441932
0.002824415734887
-0.048291702441932
0.002824415734887
-0.048291702441932
0.002824415734887
0.002954899937251
-0.069201406903485
0.002954899937251
-0.069201406903485
0.002954899937251
-0.069201406903485
0.002954899937251
-0.069201406903485
0.002954899937251
-0.069201406903485
0.002954899937251
-0.069201406903485
0.002954899937251
-0.069201406903485
0.002954899937251
-0.069201406903485
0.002954899937251
-0.069201406903485
0.002954899937251
-0.069201406903485
0.002954899937251
-0.069201406903485
0.002954899937251
-0.069201406903485
0.002954899937251
-0.069201406903485
0.002954899937251
-0.069201406903485
0.002954899937251
-0.069201406903485
0.002954899937251
-0.069201406903485
-0.048291702441932
0.002824415734887
-0.048291702441932
0.002824415734887
-0.048291702441932
0.002824415734887
-0.048291702441932
0.002824415734887
-0.048291702441932
0.002824415734887
-0.048291702441932
0.002824415734887
-0.048291702441932
0.002824415734887
-0.048291702441932
0.002824415734887
-0.048291702441932
0.002824415734887
-0.048291702441932
0.002824415734887
-0.048291702441932
0.002824415734887
-0.048291702441932
0.002824415734887
-0.048291702441932
0.002824415734887
-0.048291702441932
0.002824415734887
-0.048291702441932
0.002824415734887
-0.048291702441932
0.002824415734887
0.002954899937251
-0.069201406903485
0.002954899937251
-0.069201406903485
0.002954899937251
-0.069201406903485
0.002954899937251
-0.069201406903485
0.002954899937251
-0.069201406903485
0.002954899937251
-0.069201406903485
0.002954899937251
-0.069201406903485
0.002954899937251
-0.069201406903485
0.002954899937251
-0.069201406903485
0.002954899937251
-0.069201406903485
0.002954899937251
-0.069201406903485
0.002954899937251
-0.069201406903485
0.002954899937251
-0.069201406903485
0.002954899937251
-0.069201406903485
0.002954899937251
-0.069201406903485
0.002954899937251
-0.069201406903485
-0.048291702441932
0.002824415734887
-0.048291702441932
0.002824415734887
-0.048291702441932
0.002824415734887
-0.048291702441932
0.002824415734887
-0.048291702441932
0.002824415734887
-0.048291702441932
0.002824415734887
-0.048291702441932
0.002824415734887
-0.048291702441932
0.002824415734887
-0.048291702441932
0.002824415734887
-0.048291702441932
0.002824415734887
-0.048291702441932
0.002824415734887
-0.048291702441932
0.002824415734887
-0.048291702441932
0.002824415734887
-0.048291702441932
0.002824415734887
-0.048291702441932
0.002824415734887
-0.048291702441932
0.002824415734887
0.002954899937251
-0.069201406903485
0.002954899937251
-0.069201406903485
0.002954899937251
-0.069201406903485
0.002954899937251
-0.069201406903485
0.002954899937251
-0.069201406903485
0.002954899937251
-0.069201406903485
0.002954899937251
-0.069201406903485
0.002954899937251
-0.069201406903485
0.002954899937251
-0.069201406903485
0.002954899937251
-0.069201406903485
0.002954899937251
-0.069201406903485
0.002954899937251
-0.069201406903485
0.002954899937251
-0.069201406903485
0.002954899937251
-0.069201406903485
0.002954899937251
-0.069201406903485
0.002954899937251
-0.069201406903485
-0.048291702441932
0.002824415734887
-0.048291702441932
0.002824415734887
-0.048291702441932
0.002824415734887
-0.048291702441932
0.002824415734887
-0.048291702441932
0.002824415734887
-0.048291702441932
0.002824415734887
-0.048291702441932
0.002824415734887
-0.048291702441932
0.002824415734887
-0.048291702441932
0.002824415734887
-0.048291702441932
0.002824415734887
-0.048291702441932
0.002824415734887
-0.048291702441932
0.002824415734887
-0.048291702441932
0.002824415734887
-0.048291702441932
0.002824415734887
-0.048291702441932
0.002824415734887
-0.048291702441932
0.002824415734887
0.002954899937251
-0.069201406903485
0.002954899937251
-0.069201406903485
0.002954899937251
-0.069201406903485
0.002954899937251
-0.069201406903485
0.002954899937251
-0.069201406903485
0.002954899937251
-0.069201406903485
0.002954899937251
-0.069201406903485
0.002954899937251
-0.069201406903485
0.002954899937251
-0.069201406903485
0.002954899937251
-0.069201406903485
0.002954899937251
-0.069201406903485
0.002954899937251
-0.069201406903485
0.002954899937251
-0.069201406903485
0.002954899937251
-0.069201406903485
0.002954899937251
-0.069201406903485
0.002954899937251
-0.069201406903485
-0.048291702441932
0.002824415734887
-0.048291702441932
0.002824415734887
-0.048291702441932
0.002824415734887
-0.048291702441932
0.002824415734887
-0.048291702441932
0.002824415734887
-0.048291702441932
0.002824415734887
-0.048291702441932
0.002824415734887
-0.048291702441932
0.002824415734887
-0.048291702441932
0.002824415734887
-0.048291702441932
0.002824415734887
-0.048291702441932
0.002824415734887
-0.048291702441932
0.002824415734887
-0.048291702441932
0.002824415734887
-0.048291702441932
0.002824415734887
-0.048291702441932
0.002824415734887
-0.048291702441932
0.002824415734887
0.002954899937251
-0.069201406903485
0.002954899937251
-0.069201406903485
0.002954899937251
-0.069201406903485
0.002954899937251
-0.069201406903485
0.002954899937251
-0.069201406903485
0.002954899937251
-0.069201406903485
0.002954899937251
-0.069201406903485
0.002954899937251
-0.069201406903485
0.002954899937251
-0.069201406903485
0.002954899937251
-0.069201406903485
0.002954899937251
-0.069201406903485
0.002954899937251
-0.069201406903485
0.002954899937251
-0.069201406903485
0.002954899937251
-0.069201406903485
0.002954899937251
-0.069201406903485
0.002954899937251
-0.069201406903485
-0.048291702441932
0.002824415734887
-0.048291702441932
0.002824415734887
-0.048291702441932
0.002824415734887
-0.048291702441932
0.002824415734887
-0.048291702441932
0.002824415734887
-0.048291702441932
0.002824415734887
-0.048291702441932
0.002824415734887
-0.048291702441932
0.002824415734887
-0.048291702441932
0.002824415734887
-0.048291702441932
0.002824415734887
-0.048291702441932
0.002824415734887
-0.048291702441932
0.002824415734887
-0.048291702441932
0.002824415734887
-0.048291702441932
0.002824415734887
-0.048291702441932
0.002824415734887
-0.048291702441932
0.002824415734887
0.002954899937251
-0.069201406903485
0.002954899937251
-0.069201406903485
0.002954899937251
-0.069201406903485
0.002954899937251
-0.069201406903485
0.002954899937251
-0.069201406903485
0.002954899937251
-0.069201406903485
0.002954899937251
-0.069201406903485
0.002954899937251
-0.069201406903485
0.002954899937251
-0.069201406903485
0.002954899937251
-0.069201406903485
0.002954899937251
-0.069201406903485
0.002954899937251
-0.069201406903485
0.002954899937251
-0.069201406903485
0.002954899937251
-0.069201406903485
0.002954899937251
-0.069201406903485
0.002954899937251
-0.069201406903485
-0.048291702441932
0.002824415734887
-0.048291702441932
0.002824415734887
-0.048291702441932
0.002824415734887
-0.048291702441932
0.002824415734887
-0.048291702441932
0.002824415734887
-0.048291702441932
0.002824415734887
-0.048291702441932
0.002824415734887
-0.048291702441932
0.002824415734887
-0.048291702441932
0.002824415734887
-0.048291702441932
0.002824415734887
-0.048291702441932
0.002824415734887
-0.048291702441932
0.002824415734887
-0.048291702441932
0.002824415734887
-0.048291702441932
0.002824415734887
-0.048291702441932
0.002824415734887
-0.048291702441932
0.002824415734887
0.002954899937251
-0.069201406903485
0.002954899937251
-0.069201406903485
0.002954899937251
-0.069201406903485
0.002954899937251
-0.069201406903485
0.002954899937251
-0.069201406903485
0.002954899937251
-0.069201406903485
0.002954899937251
-0.069201406903485
0.002954899937251
-0.069201406903485
0.002954899937251
-0.069201406903485
0.002954899937251
-0.069201406903485
0.002954899937251
-0.069201406903485
0.002954899937251
-0.069201406903485
0.002954899937251
-0.069201406903485
0.002954899937251
-0.069201406903485
0.002954899937251
-0.069201406903485
0.002954899937251
-0.069201406903485
-0.048291702441932
0.002824415734887
-0.048291702441932
0.002824415734887
-0.048291702441932
0.002824415734887
-0.048291702441932
0.002824415734887
-0.048291702441932
0.002824415734887
-0.048291702441932
0.002824415734887
-0.048291702441932
0.002824415734887
-0.048291702441932
0.002824415734887
-0.048291702441932
0.002824415734887
-0.048291702441932
0.002824415734887
-0.048291702441932
0.002824415734887
-0.048291702441932
0.002824415734887
-0.048291702441932
0.002824415734887
-0.048291702441932
0.002824415734887
-0.048291702441932
0.002824415734887
-0.048291702441932
0.002824415734887
0.000000000000000
-0.000000000000000
0.000000000000000
-0.000000000000000
0.000000000000000
-0.000000000000000
0.000000000000000
-0.000000000000000
0.000000000000000
-0.000000000000000
0.000000000000000
-0.000000000000000
0.000000000000000
-0.000000000000000
0.000000000000000
-0.000000000000000
0.000000000000000
-0.000000000000000
0.000000000000000
-0.000000000000000
0.000000000000000
-0.000000000000000
0.000000000000000
-0.000000000000000
0.000000000000000
-0.000000000000000
0.000000000000000
-0.000000000000000
0.000000000000000
-0.000000000000000
0.000000000000000
-0.000000000000000
-0.000000000000000
0.000000000000000
-0.000000000000000
0.000000000000000
-0.000000000000000
0.000000000000000
-0.000000000000000
0.000000000000000
-0.000000000000000
0.000000000000000
-0.000000000000000
0.000000000000000
-0.000000000000000
0.000000000000000
-0.000000000000000
0.000000000000000
-0.000000000000000
0.000000000000000
-0.000000000000000
0.000000000000000
-0.000000000000000
0.000000000000000
-0.000000000000000
0.000000000000000
-0.000000000000000
0.000000000000000
-0.000000000000000
0.000000000000000
-0.000000000000000
0.000000000000000
-0.000000000000000
0.000000000000000
-0.004041919887502
0.008305092433588
-0.004041919887502
0.008305092433588
-0.004041919887502
0.008305092433588
-0.004041919887502
0.008305092433588
-0.004041919887502
0.008305092433588
-0.004041919887502
0.008305092433588
-0.004041919887502
0.008305092433588
-0.004041919887502
0.008305092433588
-0.004041919887502
0.008305092433588
-0.004041919887502
0.008305092433588
-0.004041919887502
0.008305092433588
-0.004041919887502
0.008305092433588
-0.004041919887502
0.008305092433588
-0.004041919887502
0.008305092433588
-0.004041919887502
0.008305092433588
-0.004041919887502
0.008305092433588
0.007529217041825
-0.008285433251440
0.007529217041825
-0.008285433251440
0.007529217041825
-0.008285433251440
0.007529217041825
-0.008285433251440
0.007529217041825
-0.008285433251440
0.007529217041825
-0.008285433251440
0.007529217041825
-0.008285433251440
0.007529217041825
-0.008285433251440
0.007529217041825
-0.008285433251440
0.007529217041825
-0.008285433251440
0.007529217041825
-0.008285433251440
0.007529217041825
-0.008285433251440
0.007529217041825
-0.008285433251440
0.007529217041825
-0.008285433251440
0.007529217041825
-0.008285433251440
0.007529217041825
-0.008285433251440
-0.004041919887502
0.008305092433588
-0.004041919887502
0.008305092433588
-0.004041919887502
0.008305092433588
-0.004041919887502
0.008305092433588
-0.004041919887502
0.008305092433588
-0.004041919887502
0.008305092433588
-0.004041919887502
0.008305092433588
-0.004041919887502
0.008305092433588
-0.004041919887502
0.008305092433588
-0.004041919887502
0.008305092433588
-0.004041919887502
0.008305092433588
-0.004041919887502
0.008305092433588
-0.004041919887502
0.008305092433588
-0.004041919887502
0.008305092433588
-0.004041919887502
0.008305092433588
-0.004041919887502
0.008305092433588
0.007529217041825
-0.008285433251440
0.007529217041825
-0.008285433251440
0.007529217041825
-0.008285433251440
0.007529217041825
-0.008285433251440
0.007529217041825
-0.008285433251440
0.007529217041825
-0.008285433251440
0.007529217041825
-0.008285433251440
0.007529217041825
-0.008285433251440
0.007529217041825
-0.008285433251440
0.007529217041825
-0.008285433251440
0.007529217041825
-0.008285433251440
0.007529217041825
-0.008285433251440
0.007529217041825
-0.008285433251440
0.007529217041825
-0.008285433251440
0.007529217041825
-0.008285433251440
0.007529217041825
-0.008285433251440
-0.004041919887502
0.008305092433588
-0.004041919887502
0.008305092433588
-0.004041919887502
0.008305092433588
-0.004041919887502
0.008305092433588
-0.004041919887502
0.008305092433588
-0.004041919887502
0.008305092433588
-0.004041919887502
0.008305092433588
-0.004041919887502
0.008305092433588
-0.004041919887502
0.008305092433588
-0.004041919887502
0.008305092433588
-0.004041919887502
0.008305092433588
-0.004041919887502
0.008305092433588
-0.004041919887502
0.008305092433588
-0.004041919887502
0.008305092433588
-0.004041919887502
0.008305092433588
-0.004041919887502
0.008305092433588
0.007529217041825
-0.008285433251440
0.007529217041825
-0.008285433251440
0.007529217041825
-0.008285433251440
0.007529217041825
-0.008285433251440
0.007529217041825
-0.008285433251440
0.007529217041825
-0.008285433251440
0.007529217041825
-0.008285433251440
0.007529217041825
-0.008285433251440
0.007529217041825
-0.008285433251440
0.007529217041825
-0.008285433251440
0.007529217041825
-0.008285433251440
0.007529217041825
-0.008285433251440
0.007529217041825
-0.008285433251440
0.007529217041825
-0.008285433251440
0.007529217041825
-0.008285433251440
0.007529217041825
-0.008285433251440
-0.004041919887502
0.008305092433588
-0.004041919887502
0.008305092433588
-0.004041919887502
0.008305092433588
-0.004041919887502
0.008305092433588
-0.004041919887502
0.008305092433588
-0.004041919887502
0.008305092433588
-0.004041919887502
0.008305092433588
-0.004041919887502
0.008305092433588
-0.004041919887502
0.008305092433588
-0.004041919887502
0.008305092433588
-0.004041919887502
0.008305092433588
-0.004041919887502
0.008305092433588
-0.004041919887502
0.008305092433588
-0.004041919887502
0.008305092433588
-0.004041919887502
0.008305092433588
-0.004041919887502
0.008305092433588
0.007529217041825
-0.008285433251440
0.007529217041825
-0.008285433251440
0.007529217041825
-0.008285433251440
0.007529217041825
-0.008285433251440
0.007529217041825
-0.008285433251440
0.007529217041825
-0.008285433251440
0.007529217041825
-0.008285433251440
0.007529217041825
-0.008285433251440
0.007529217041825
-0.008285433251440
0.007529217041825
-0.008285433251440
0.007529217041825
-0.008285433251440
0.007529217041825
-0.008285433251440
0.007529217041825
-0.008285433251440
0.007529217041825
-0.008285433251440
0.007529217041825
-0.008285433251440
0.007529217041825
-0.008285433251440
-0.004041919887502
0.008305092433588
-0.004041919887502
0.008305092433588
-0.004041919887502
0.008305092433588
-0.004041919887502
0.008305092433588
-0.004041919887502
0.008305092433588
-0.004041919887502
0.008305092433588
-0.004041919887502
0.008305092433588
-0.004041919887502
0.008305092433588
-0.004041919887502
0.008305092433588
-0.004041919887502
0.008305092433588
-0.004041919887502
0.008305092433588
-0.004041919887502
0.008305092433588
-0.004041919887502
0.008305092433588
-0.004041919887502
0.008305092433588
-0.004041919887502
0.008305092433588
-0.004041919887502
0.008305092433588
0.007529217041825
-0.008285433251440
0.007529217041825
-0.008285433251440
0.007529217041825
-0.008285433251440
0.007529217041825
-0.008285433251440
0.007529217041825
-0.008285433251440
0.007529217041825
-0.008285433251440
0.007529217041825
-0.008285433251440
0.007529217041825
-0.008285433251440
0.007529217041825
-0.008285433251440
0.007529217041825
-0.008285433251440
0.007529217041825
-0.008285433251440
0.007529217041825
-0.008285433251440
0.007529217041825
-0.008285433251440
0.007529217041825
-0.008285433251440
0.007529217041825
-0.008285433251440
0.007529217041825
-0.008285433251440
-0.004041919887502
0.008305092433588
-0.004041919887502
0.008305092433588
-0.004041919887502
0.008305092433588
-0.004041919887502
0.008305092433588
-0.004041919887502
0.008305092433588
-0.004041919887502
0.008305092433588
-0.004041919887502
0.008305092433588
-0.004041919887502
0.008305092433588
-0.004041919887502
0.008305092433588
-0.004041919887502
0.008305092433588
-0.004041919887502
0.008305092433588
-0.004041919887502
0.008305092433588
-0.004041919887502
0.008305092433588
-0.004041919887502
0.008305092433588
-0.004041919887502
0.008305092433588
-0.004041919887502
0.008305092433588
0.007529217041825
-0.008285433251440
0.007529217041825
-0.008285433251440
0.007529217041825
-0.008285433251440
0.007529217041825
-0.008285433251440
0.007529217041825
-0.008285433251440
0.007529217041825
-0.008285433251440
0.007529217041825
-0.008285433251440
0.007529217041825
-0.008285433251440
0.007529217041825
-0.008285433251440
0.007529217041825
-0.008285433251440
0.007529217041825
-0.008285433251440
0.007529217041825
-0.008285433251440
0.007529217041825
-0.008285433251440
0.007529217041825
-0.008285433251440
0.007529217041825
-0.008285433251440
0.007529217041825
-0.008285433251440
-0.004041919887502
0.008305092433588
-0.004041919887502
0.008305092433588
-0.004041919887502
0.008305092433588
-0.004041919887502
0.008305092433588
-0.004041919887502
0.008305092433588
-0.004041919887502
0.008305092433588
-0.004041919887502
0.008305092433588
-0.004041919887502
0.008305092433588
-0.004041919887502
0.008305092433588
-0.004041919887502
0.008305092433588
-0.004041919887502
0.008305092433588
-0.004041919887502
0.008305092433588
-0.004041919887502
0.008305092433588
-0.004041919887502
0.008305092433588
-0.004041919887502
0.008305092433588
-0.004041919887502
0.008305092433588
0.007529217041825
-0.008285433251440
0.007529217041825
-0.008285433251440
0.007529217041825
-0.008285433251440
0.007529217041825
-0.008285433251440
0.007529217041825
-0.008285433251440
0.007529217041825
-0.008285433251440
0.007529217041825
-0.008285433251440
0.007529217041825
-0.008285433251440
0.007529217041825
-0.008285433251440
0.007529217041825
-0.008285433251440
0.007529217041825
-0.008285433251440
0.007529217041825
-0.008285433251440
0.007529217041825
-0.008285433251440
0.007529217041825
-0.008285433251440
0.007529217041825
-0.008285433251440
0.007529217041825
-0.008285433251440
-0.004041919887502
0.008305092433588
-0.004041919887502
0.008305092433588
-0.004041919887502
0.008305092433588
-0.004041919887502
0.008305092433588
-0.004041919887502
0.008305092433588
-0.004041919887502
0.008305092433588
-0.004041919887502
0.008305092433588
-0.004041919887502
0.008305092433588
-0.004041919887502
0.008305092433588
-0.004041919887502
0.008305092433588
-0.004041919887502
0.008305092433588
-0.004041919887502
0.008305092433588
-0.004041919887502
0.008305092433588
-0.004041919887502
0.008305092433588
-0.004041919887502
0.008305092433588
-0.004041919887502
0.008305092433588
0.007529217041825
-0.008285433251440
0.007529217041825
-0.008285433251440
0.007529217041825
-0.008285433251440
0.007529217041825
-0.008285433251440
0.007529217041825
-0.008285433251440
0.007529217041825
-0.008285433251440
0.007529217041825
-0.008285433251440
0.007529217041825
-0.008285433251440
0.007529217041825
-0.008285433251440
0.007529217041825
-0.008285433251440
0.007529217041825
-0.008285433251440
0.007529217041825
-0.008285433251440
0.007529217041825
-0.008285433251440
0.007529217041825
-0.008285433251440
0.007529217041825
-0.008285433251440
0.007529217041825
-0.008285433251440
-0.004041919887502
0.008305092433588
-0.004041919887502
0.008305092433588
-0.004041919887502
0.008305092433588
-0.004041919887502
0.008305092433588
-0.004041919887502
0.008305092433588
-0.004041919887502
0.008305092433588
-0.004041919887502
0.008305092433588
-0.004041919887502
0.008305092433588
-0.004041919887502
0.008305092433588
-0.004041919887502
0.008305092433588
-0.004041919887502
0.008305092433588
-0.004041919887502
0.008305092433588
-0.004041919887502
0.008305092433588
-0.004041919887502
0.008305092433588
-0.004041919887502
0.008305092433588
-0.004041919887502
0.008305092433588
0.007529217041825
-0.008285433251440
0.007529217041825
-0.008285433251440
0.007529217041825
-0.008285433251440
0.007529217041825
-0.008285433251440
0.007529217041825
-0.008285433251440
0.007529217041825
-0.008285433251440
0.007529217041825
-0.008285433251440
0.007529217041825
-0.008285433251440
0.007529217041825
-0.008285433251440
0.007529217041825
-0.008285433251440
0.007529217041825
-0.008285433251440
0.007529217041825
-0.008285433251440
0.007529217041825
-0.008285433251440
0.007529217041825
-0.008285433251440
0.007529217041825
-0.008285433251440
0.007529217041825
-0.008285433251440
-0.004041919887502
0.008305092433588
-0.004041919887502
0.008305092433588
-0.004041919887502
0.008305092433588
-0.004041919887502
0.008305092433588
-0.004041919887502
0.008305092433588
-0.004041919887502
0.008305092433588
-0.004041919887502
0.008305092433588
-0.004041919887502
0.008305092433588
-0.004041919887502
0.008305092433588
-0.004041919887502
0.008305092433588
-0.004041919887502
0.008305092433588
-0.004041919887502
0.008305092433588
-0.004041919887502
0.008305092433588
-0.004041919887502
0.008305092433588
-0.004041919887502
0.008305092433588
-0.004041919887502
0.008305092433588
0.007529217041825
-0.008285433251440
0.007529217041825
-0.008285433251440
0.007529217041825
-0.008285433251440
0.007529217041825
-0.008285433251440
0.007529217041825
-0.008285433251440
0.007529217041825
-0.008285433251440
0.007529217041825
-0.008285433251440
0.007529217041825
-0.008285433251440
0.007529217041825
-0.008285433251440
0.007529217041825
-0.008285433251440
0.007529217041825
-0.008285433251440
0.007529217041825
-0.008285433251440
0.007529217041825
-0.008285433251440
0.007529217041825
-0.008285433251440
0.007529217041825
-0.008285433251440
0.007529217041825
-0.008285433251440
-0.004041919887502
0.008305092433588
-0.004041919887502
0.008305092433588
-0.004041919887502
0.008305092433588
-0.004041919887502
0.008305092433588
-0.004041919887502
0.008305092433588
-0.004041919887502
0.008305092433588
-0.004041919887502
0.008305092433588
-0.004041919887502
0.008305092433588
-0.004041919887502
0.008305092433588
-0.004041919887502
0.008305092433588
-0.004041919887502
0.008305092433588
-0.004041919887502
0.008305092433588
-0.004041919887502
0.008305092433588
-0.004041919887502
0.008305092433588
-0.004041919887502
0.008305092433588
-0.004041919887502
0.008305092433588
0.007529217041825
-0.008285433251440
0.007529217041825
-0.008285433251440
0.007529217041825
-0.008285433251440
0.007529217041825
-0.008285433251440
0.007529217041825
-0.008285433251440
0.007529217041825
-0.008285433251440
0.007529217041825
-0.008285433251440
0.007529217041825
-0.008285433251440
0.007529217041825
-0.008285433251440
0.007529217041825
-0.008285433251440
0.007529217041825
-0.008285433251440
0.007529217041825
-0.008285433251440
0.007529217041825
-0.008285433251440
0.007529217041825
-0.008285433251440
0.007529217041825
-0.008285433251440
0.007529217041825
-0.008285433251440
-0.004041919887502
0.008305092433588
-0.004041919887502
0.008305092433588
-0.004041919887502
0.008305092433588
-0.004041919887502
0.008305092433588
-0.004041919887502
0.008305092433588
-0.004041919887502
0.008305092433588
-0.004041919887502
0.008305092433588
-0.004041919887502
0.008305092433588
-0.004041919887502
0.008305092433588
-0.004041919887502
0.008305092433588
-0.004041919887502
0.008305092433588
-0.004041919887502
0.008305092433588
-0.004041919887502
0.008305092433588
-0.004041919887502
0.008305092433588
-0.004041919887502
0.008305092433588
-0.004041919887502
0.008305092433588
0.007529217041825
-0.008285433251440
0.007529217041825
-0.008285433251440
0.007529217041825
-0.008285433251440
0.007529217041825
-0.008285433251440
0.007529217041825
-0.008285433251440
0.007529217041825
-0.008285433251440
0.007529217041825
-0.008285433251440
0.007529217041825
-0.008285433251440
0.007529217041825
-0.008285433251440
0.007529217041825
-0.008285433251440
0.007529217041825
-0.008285433251440
0.007529217041825
-0.008285433251440
0.007529217041825
-0.008285433251440
0.007529217041825
-0.008285433251440
0.007529217041825
-0.008285433251440
0.007529217041825
-0.008285433251440
-0.004041919887502
0.008305092433588
-0.004041919887502
0.008305092433588
-0.004041919887502
0.008305092433588
-0.004041919887502
0.008305092433588
-0.004041919887502
0.008305092433588
-0.004041919887502
0.008305092433588
-0.004041919887502
0.008305092433588
-0.004041919887502
0.008305092433588
-0.004041919887502
0.008305092433588
-0.004041919887502
0.008305092433588
-0.004041919887502
0.008305092433588
-0.004041919887502
0.008305092433588
-0.004041919887502
0.008305092433588
-0.004041919887502
0.008305092433588
-0.004041919887502
0.008305092433588
-0.004041919887502
0.008305092433588
0.007529217041825
-0.008285433251440
0.007529217041825
-0.008285433251440
0.007529217041825
-0.008285433251440
0.007529217041825
-0.008285433251440
0.007529217041825
-0.008285433251440
0.007529217041825
-0.008285433251440
0.007529217041825
-0.008285433251440
0.007529217041825
-0.008285433251440
0.007529217041825
-0.008285433251440
0.007529217041825
-0.008285433251440
0.007529217041825
-0.008285433251440
0.007529217041825
-0.008285433251440
0.007529217041825
-0.008285433251440
0.007529217041825
-0.008285433251440
0.007529217041825
-0.008285433251440
0.007529217041825
-0.008285433251440
-0.004041919887502
0.008305092433588
-0.004041919887502
0.008305092433588
-0.004041919887502
0.008305092433588
-0.004041919887502
0.008305092433588
-0.004041919887502
0.008305092433588
-0.004041919887502
0.008305092433588
-0.004041919887502
0.008305092433588
-0.004041919887502
0.008305092433588
-0.004041919887502
0.008305092433588
-0.004041919887502
0.008305092433588
-0.004041919887502
0.008305092433588
-0.004041919887502
0.008305092433588
-0.004041919887502
0.008305092433588
-0.004041919887502
0.008305092433588
-0.004041919887502
0.008305092433588
-0.004041919887502
0.008305092433588
0.007529217041825
-0.008285433251440
0.007529217041825
-0.008285433251440
0.007529217041825
-0.008285433251440
0.007529217041825
-0.008285433251440
0.007529217041825
-0.008285433251440
0.007529217041825
-0.008285433251440
0.007529217041825
-0.008285433251440
0.007529217041825
-0.008285433251440
0.007529217041825
-0.008285433251440
0.007529217041825
-0.008285433251440
0.007529217041825
-0.008285433251440
0.007529217041825
-0.008285433251440
0.007529217041825
-0.008285433251440
0.007529217041825
-0.008285433251440
0.007529217041825
-0.008285433251440
0.007529217041825
-0.008285433251440
-0.004041919887502
0.008305092433588
-0.004041919887502
0.008305092433588
-0.004041919887502
0.008305092433588
-0.004041919887502
0.008305092433588
-0.004041919887502
0.008305092433588
-0.004041919887502
0.008305092433588
-0.004041919887502
0.008305092433588
-0.004041919887502
0.008305092433588
-0.004041919887502
0.008305092433588
-0.004041919887502
0.008305092433588
-0.004041919887502
0.008305092433588
-0.004041919887502
0.008305092433588
-0.004041919887502
0.008305092433588
-0.004041919887502
0.008305092433588
-0.004041919887502
0.008305092433588
-0.004041919887502
0.008305092433588
0.007529217041825
-0.008285433251440
0.007529217041825
-0.008285433251440
0.007529217041825
-0.008285433251440
0.007529217041825
-0.008285433251440
0.007529217041825
-0.008285433251440
0.007529217041825
-0.008285433251440
0.007529217041825
-0.008285433251440
0.007529217041825
-0.008285433251440
0.007529217041825
-0.008285433251440
0.007529217041825
-0.008285433251440
0.007529217041825
-0.008285433251440
0.007529217041825
-0.008285433251440
0.007529217041825
-0.008285433251440
0.007529217041825
-0.008285433251440
0.007529217041825
-0.008285433251440
0.007529217041825
-0.008285433251440
-0.000000000000000
0.000000000000000
-0.000000000000000
0.000000000000000
-0.000000000000000
0.000000000000000
-0.000000000000000
0.000000000000000
-0.000000000000000
0.000000000000000
-0.000000000000000
0.000000000000000
-0.000000000000000
0.000000000000000
-0.000000000000000
0.000000000000000
-0.000000000000000
0.000000000000000
-0.000000000000000
0.000000000000000
-0.000000000000000
0.000000000000000
-0.000000000000000
0.000000000000000
-0.000000000000000
0.000000000000000
-0.000000000000000
0.000000000000000
-0.000000000000000
0.000000000000000
-0.000000000000000
0.000000000000000
0.000000000000000
-0.000000000000000
0.000000000000000
-0.000000000000000
0.000000000000000
-0.000000000000000
0.000000000000000
-0.000000000000000
0.000000000000000
-0.000000000000000
0.000000000000000
-0.000000000000000
0.000000000000000
-0.000000000000000
0.000000000000000
-0.000000000000000
0.000000000000000
-0.000000000000000
0.000000000000000
-0.000000000000000
0.000000000000000
-0.000000000000000
0.000000000000000
-0.000000000000000
0.000000000000000
-0.000000000000000
0.000000000000000
-0.000000000000000
0.000000000000000
-0.000000000000000
0.000000000000000
-0.000000000000000
0.010430897126462
0.049621737316631
0.010430897126462
0.049621737316631
0.010430897126462
0.049621737316631
0.010430897126462
0.049621737316631
0.010430897126462
0.049621737316631
0.010430897126462
0.049621737316631
0.010430897126462
0.049621737316631
0.010430897126462
0.049621737316631
0.010430897126462
0.049621737316631
0.010430897126462
0.049621737316631
0.010430897126462
0.049621737316631
0.010430897126462
0.049621737316631
0.010430897126462
0.049621737316631
0.010430897126462
0.049621737316631
0.010430897126462
0.049621737316631
0.010430897126462
0.049621737316631
-0.042964469423803
0.028436522011890
-0.042964469423803
0.028436522011890
-0.042964469423803
0.028436522011890
-0.042964469423803
0.028436522011890
-0.042964469423803
0.028436522011890
-0.042964469423803
0.028436522011890
-0.042964469423803
0.028436522011890
-0.042964469423803
0.028436522011890
-0.042964469423803
0.028436522011890
-0.042964469423803
0.028436522011890
-0.042964469423803
0.028436522011890
-0.042964469423803
0.028436522011890
-0.042964469423803
0.028436522011890
-0.042964469423803
0.028436522011890
-0.042964469423803
0.028436522011890
-0.042964469423803
0.028436522011890
0.010430897126462
0.049621737316631
0.010430897126462
0.049621737316631
0.010430897126462
0.049621737316631
0.010430897126462
0.049621737316631
0.010430897126462
0.049621737316631
0.010430897126462
0.049621737316631
0.010430897126462
0.049621737316631
0.010430897126462
0.049621737316631
0.010430897126462
0.049621737316631
0.010430897126462
0.049621737316631
0.010430897126462
0.049621737316631
0.010430897126462
0.049621737316631
0.010430897126462
0.049621737316631
0.010430897126462
0.049621737316631
0.010430897126462
0.049621737316631
0.010430897126462
0.049621737316631
-0.042964469423803
0.028436522011890
-0.042964469423803
0.028436522011890
-0.042964469423803
0.028436522011890
-0.042964469423803
0.028436522011890
-0.042964469423803
0.028436522011890
-0.042964469423803
0.028436522011890
-0.042964469423803
0.028436522011890
-0.042964469423803
0.028436522011890
-0.042964469423803
0.028436522011890
-0.042964469423803
0.028436522011890
-0.042964469423803
0.028436522011890
-0.042964469423803
0.028436522011890
-0.042964469423803
0.028436522011890
-0.042964469423803
0.028436522011890
-0.042964469423803
0.028436522011890
-0.042964469423803
0.028436522011890
0.010430897126462
0.049621737316631
0.010430897126462
0.049621737316631
0.010430897126462
0.049621737316631
0.010430897126462
0.049621737316631
0.010430897126462
0.049621737316631
0.010430897126462
0.049621737316631
0.010430897126462
0.049621737316631
0.010430897126462
0.049621737316631
0.010430897126462
0.049621737316631
0.010430897126462
0.049621737316631
0.010430897126462
0.049621737316631
0.010430897126462
0.049621737316631
0.010430897126462
0.049621737316631
0.010430897126462
0.049621737316631
0.010430897126462
0.049621737316631
0.010430897126462
0.049621737316631
-0.042964469423803
0.028436522011890
-0.042964469423803
0.028436522011890
-0.042964469423803
0.028436522011890
-0.042964469423803
0.028436522011890
-0.042964469423803
0.028436522011890
-0.042964469423803
0.028436522011890
-0.042964469423803
0.028436522011890
-0.042964469423803
0.028436522011890
-0.042964469423803
0.028436522011890
-0.042964469423803
0.028436522011890
-0.042964469423803
0.028436522011890
-0.042964469423803
0.028436522011890
-0.042964469423803
0.028436522011890
-0.042964469423803
0.028436522011890
-0.042964469423803
0.028436522011890
-0.042964469423803
0.028436522011890
0.010430897126462
0.049621737316631
0.010430897126462
0.049621737316631
0.010430897126462
0.049621737316631
0.010430897126462
0.049621737316631
0.010430897126462
0.049621737316631
0.010430897126462
0.049621737316631
0.010430897126462
0.049621737316631
0.010430897126462
0.049621737316631
0.010430897126462
0.049621737316631
0.010430897126462
0.049621737316631
0.010430897126462
0.049621737316631
0.010430897126462
0.049621737316631
0.010430897126462
0.049621737316631
0.010430897126462
0.049621737316631
0.010430897126462
0.049621737316631
0.010430897126462
0.049621737316631
-0.042964469423803
0.028436522011890
-0.042964469423803
0.028436522011890
-0.042964469423803
0.028436522011890
-0.042964469423803
0.028436522011890
-0.042964469423803
0.028436522011890
-0.042964469423803
0.028436522011890
-0.042964469423803
0.028436522011890
-0.042964469423803
0.028436522011890
-0.042964469423803
0.028436522011890
-0.042964469423803
0.028436522011890
-0.042964469423803
0.028436522011890
-0.042964469423803
0.028436522011890
-0.042964469423803
0.028436522011890
-0.042964469423803
0.028436522011890
-0.042964469423803
0.028436522011890
-0.042964469423803
0.028436522011890
0.010430897126462
0.049621737316631
0.010430897126462
0.049621737316631
0.010430897126462
0.049621737316631
0.010430897126462
0.049621737316631
0.010430897126462
0.049621737316631
0.010430897126462
0.049621737316631
0.010430897126462
0.049621737316631
0.010430897126462
0.049621737316631
0.010430897126462
0.049621737316631
0.010430897126462
0.049621737316631
0.010430897126462
0.049621737316631
0.010430897126462
0.049621737316631
0.010430897126462
0.049621737316631
0.010430897126462
0.049621737316631
0.010430897126462
0.049621737316631
0.010430897126462
0.049621737316631
-0.042964469423803
0.028436522011890
-0.042964469423803
0.028436522011890
-0.042964469423803
0.028436522011890
-0.042964469423803
0.028436522011890
-0.042964469423803
0.028436522011890
-0.042964469423803
0.028436522011890
-0.042964469423803
0.028436522011890
-0.042964469423803
0.028436522011890
-0.042964469423803
0.028436522011890
-0.042964469423803
0.028436522011890
-0.042964469423803
0.028436522011890
-0.042964469423803
0.028436522011890
-0.042964469423803
0.028436522011890
-0.042964469423803
0.028436522011890
-0.042964469423803
0.028436522011890
-0.042964469423803
0.028436522011890
0.010430897126462
0.049621737316631
0.010430897126462
0.049621737316631
0.010430897126462
0.049621737316631
0.010430897126462
0.049621737316631
0.010430897126462
0.049621737316631
0.010430897126462
0.049621737316631
0.010430897126462
0.049621737316631
0.010430897126462
0.049621737316631
0.010430897126462
0.049621737316631
0.010430897126462
0.049621737316631
0.010430897126462
0.049621737316631
0.010430897126462
0.049621737316631
0.010430897126462
0.049621737316631
0.010430897126462
0.049621737316631
0.010430897126462
0.049621737316631
0.010430897126462
0.049621737316631
-0.042964469423803
0.028436522011890
-0.042964469423803
0.028436522011890
-0.042964469423803
0.028436522011890
-0.042964469423803
0.028436522011890
-0.042964469423803
0.028436522011890
-0.042964469423803
0.028436522011890
-0.042964469423803
0.028436522011890
-0.042964469423803
0.028436522011890
-0.042964469423803
0.028436522011890
-0.042964469423803
0.028436522011890
-0.042964469423803
0.028436522011890
-0.042964469423803
0.028436522011890
-0.042964469423803
0.028436522011890
-0.042964469423803
0.028436522011890
-0.042964469423803
0.028436522011890
-0.042964469423803
0.028436522011890
0.010430897126462
0.049621737316631
0.010430897126462
0.049621737316631
0.010430897126462
0.049621737316631
0.010430897126462
0.049621737316631
0.010430897126462
0.049621737316631
0.010430897126462
0.049621737316631
0.010430897126462
0.049621737316631
0.010430897126462
0.049621737316631
0.010430897126462
0.049621737316631
0.010430897126462
0.049621737316631
0.010430897126462
0.049621737316631
0.010430897126462
0.049621737316631
0.010430897126462
0.049621737316631
0.010430897126462
0.049621737316631
0.010430897126462
0.049621737316631
0.010430897126462
0.049621737316631
-0.042964469423803
0.028436522011890
-0.042964469423803
0.028436522011890
-0.042964469423803
0.028436522011890
-0.042964469423803
0.028436522011890
-0.042964469423803
0.028436522011890
-0.042964469423803
0.028436522011890
-0.042964469423803
0.028436522011890
-0.042964469423803
0.028436522011890
-0.042964469423803
0.028436522011890
-0.042964469423803
0.028436522011890
-0.042964469423803
0.028436522011890
-0.042964469423803
0.028436522011890
-0.042964469423803
0.028436522011890
-0.042964469423803
0.028436522011890
-0.042964469423803
0.028436522011890
-0.042964469423803
0.028436522011890
0.010430897126462
0.049621737316631
0.010430897126462
0.049621737316631
0.010430897126462
0.049621737316631
0.010430897126462
0.049621737316631
0.010430897126462
0.049621737316631
0.010430897126462
0.049621737316631
0.010430897126462
0.049621737316631
0.010430897126462
0.049621737316631
0.010430897126462
0.049621737316631
0.010430897126462
0.049621737316631
0.010430897126462
0.049621737316631
0.010430897126462
0.049621737316631
0.010430897126462
0.049621737316631
0.010430897126462
0.049621737316631
0.010430897126462
0.049621737316631
0.010430897126462
0.049621737316631
-0.042964469423803
0.028436522011890
-0.042964469423803
0.028436522011890
-0.042964469423803
0.028436522011890
-0.042964469423803
0.028436522011890
-0.042964469423803
0.028436522011890
-0.042964469423803
0.028436522011890
-0.042964469423803
0.028436522011890
-0.042964469423803
0.028436522011890
-0.042964469423803
0.028436522011890
-0.042964469423803
0.028436522011890
-0.042964469423803
0.028436522011890
-0.042964469423803
0.028436522011890
-0.042964469423803
0.028436522011890
-0.042964469423803
0.028436522011890
-0.042964469423803
0.028436522011890
-0.042964469423803
0.028436522011890
0.010430897126462
0.049621737316631
0.010430897126462
0.049621737316631
0.010430897126462
0.049621737316631
0.010430897126462
0.049621737316631
0.010430897126462
0.049621737316631
0.010430897126462
0.049621737316631
0.010430897126462
0.049621737316631
0.010430897126462
0.049621737316631
0.010430897126462
0.049621737316631
0.010430897126462
0.049621737316631
0.010430897126462
0.049621737316631
0.010430897126462
0.049621737316631
0.010430897126462
0.049621737316631
0.010430897126462
0.049621737316631
0.010430897126462
0.049621737316631
0.010430897126462
0.049621737316631
-0.042964469423803
0.028436522011890
-0.042964469423803
0.028436522011890
-0.042964469423803
0.028436522011890
-0.042964469423803
0.028436522011890
-0.042964469423803
0.028436522011890
-0.042964469423803
0.028436522011890
-0.042964469423803
0.028436522011890
-0.042964469423803
0.028436522011890
-0.042964469423803
0.028436522011890
-0.042964469423803
0.028436522011890
-0.042964469423803
0.028436522011890
-0.042964469423803
0.028436522011890
-0.042964469423803
0.028436522011890
-0.042964469423803
0.028436522011890
-0.042964469423803
0.028436522011890
-0.042964469423803
0.028436522011890
0.010430897126462
0.049621737316631
0.010430897126462
0.049621737316631
0.010430897126462
0.049621737316631
0.010430897126462
0.049621737316631
0.010430897126462
0.049621737316631
0.010430897126462
0.049621737316631
0.010430897126462
0.049621737316631
0.010430897126462
0.049621737316631
0.010430897126462
0.049621737316631
0.010430897126462
0.049621737316631
0.010430897126462
0.049621737316631
0.010430897126462
0.049621737316631
0.010430897126462
0.049621737316631
0.010430897126462
0.049621737316631
0.010430897126462
0.049621737316631
0.010430897126462
0.049621737316631
-0.042964469423803
0.028436522011890
-0.042964469423803
0.028436522011890
-0.042964469423803
0.028436522011890
-0.042964469423803
0.028436522011890
-0.042964469423803
0.028436522011890
-0.042964469423803
0.028436522011890
-0.042964469423803
0.028436522011890
-0.042964469423803
0.028436522011890
-0.042964469423803
0.028436522011890
-0.042964469423803
0.028436522011890
-0.042964469423803
0.028436522011890
-0.042964469423803
0.028436522011890
-0.042964469423803
0.028436522011890
-0.042964469423803
0.028436522011890
-0.042964469423803
0.028436522011890
-0.042964469423803
0.028436522011890
0.010430897126462
0.049621737316631
0.010430897126462
0.049621737316631
0.010430897126462
0.049621737316631
0.010430897126462
0.049621737316631
0.010430897126462
0.049621737316631
0.010430897126462
0.049621737316631
0.010430897126462
0.049621737316631
0.010430897126462
0.049621737316631
0.010430897126462
0.049621737316631
0.010430897126462
0.049621737316631
0.010430897126462
0.049621737316631
0.010430897126462
0.049621737316631
0.010430897126462
0.049621737316631
0.010430897126462
0.049621737316631
0.010430897126462
0.049621737316631
0.010430897126462
0.049621737316631
-0.042964469423803
0.028436522011890
-0.042964469423803
0.028436522011890
-0.042964469423803
0.028436522011890
-0.042964469423803
0.028436522011890
-0.042964469423803
0.028436522011890
-0.042964469423803
0.028436522011890
-0.042964469423803
0.028436522011890
-0.042964469423803
0.028436522011890
-0.042964469423803
0.028436522011890
-0.042964469423803
0.028436522011890
-0.042964469423803
0.028436522011890
-0.042964469423803
0.028436522011890
-0.042964469423803
0.028436522011890
-0.042964469423803
0.028436522011890
-0.042964469423803
0.028436522011890
-0.042964469423803
0.028436522011890
0.010430897126462
0.049621737316631
0.010430897126462
0.049621737316631
0.010430897126462
0.049621737316631
0.010430897126462
0.049621737316631
0.010430897126462
0.049621737316631
0.010430897126462
0.049621737316631
0.010430897126462
0.049621737316631
0.010430897126462
0.049621737316631
0.010430897126462
0.049621737316631
0.010430897126462
0.049621737316631
0.010430897126462
0.049621737316631
0.010430897126462
0.049621737316631
0.010430897126462
0.049621737316631
0.010430897126462
0.049621737316631
0.010430897126462
0.049621737316631
0.010430897126462
0.049621737316631
-0.042964469423803
0.028436522011890
-0.042964469423803
0.028436522011890
-0.042964469423803
0.028436522011890
-0.042964469423803
0.028436522011890
-0.042964469423803
0.028436522011890
-0.042964469423803
0.028436522011890
-0.042964469423803
0.028436522011890
-0.042964469423803
0.028436522011890
-0.042964469423803
0.028436522011890
-0.042964469423803
0.028436522011890
-0.042964469423803
0.028436522011890
-0.042964469423803
0.028436522011890
-0.042964469423803
0.028436522011890
-0.042964469423803
0.028436522011890
-0.042964469423803
0.028436522011890
-0.042964469423803
0.028436522011890
0.010430897126462
0.049621737316631
0.010430897126462
0.049621737316631
0.010430897126462
0.049621737316631
0.010430897126462
0.049621737316631
0.010430897126462
0.049621737316631
0.010430897126462
0.049621737316631
0.010430897126462
0.049621737316631
0.010430897126462
0.049621737316631
0.010430897126462
0.049621737316631
0.010430897126462
0.049621737316631
0.010430897126462
0.049621737316631
0.010430897126462
0.049621737316631
0.010430897126462
0.049621737316631
0.010430897126462
0.049621737316631
0.010430897126462
0.049621737316631
0.010430897126462
0.049621737316631
-0.042964469423803
0.028436522011890
-0.042964469423803
0.028436522011890
-0.042964469423803
0.028436522011890
-0.042964469423803
0.028436522011890
-0.042964469423803
0.028436522011890
-0.042964469423803
0.028436522011890
-0.042964469423803
0.028436522011890
-0.042964469423803
0.028436522011890
-0.042964469423803
0.028436522011890
-0.042964469423803
0.028436522011890
-0.042964469423803
0.028436522011890
-0.042964469423803
0.028436522011890
-0.042964469423803
0.028436522011890
-0.042964469423803
0.028436522011890
-0.042964469423803
0.028436522011890
-0.042964469423803
0.028436522011890
0.010430897126462
0.049621737316631
0.010430897126462
0.049621737316631
0.010430897126462
0.049621737316631
0.010430897126462
0.049621737316631
0.010430897126462
0.049621737316631
0.010430897126462
0.049621737316631
0.010430897126462
0.049621737316631
0.010430897126462
0.049621737316631
0.010430897126462
0.049621737316631
0.010430897126462
0.049621737316631
0.010430897126462
0.049621737316631
0.010430897126462
0.049621737316631
0.010430897126462
0.049621737316631
0.010430897126462
0.049621737316631
0.010430897126462
0.049621737316631
0.010430897126462
0.049621737316631
-0.042964469423803
0.028436522011890
-0.042964469423803
0.028436522011890
-0.042964469423803
0.028436522011890
-0.042964469423803
0.028436522011890
-0.042964469423803
0.028436522011890
-0.042964469423803
0.028436522011890
-0.042964469423803
0.028436522011890
-0.042964469423803
0.028436522011890
-0.042964469423803
0.028436522011890
-0.042964469423803
0.028436522011890
-0.042964469423803
0.028436522011890
-0.042964469423803
0.028436522011890
-0.042964469423803
0.028436522011890
-0.042964469423803
0.028436522011890
-0.042964469423803
0.028436522011890
-0.042964469423803
0.028436522011890
0.010430897126462
0.049621737316631
0.010430897126462
0.049621737316631
0.010430897126462
0.049621737316631
0.010430897126462
0.049621737316631
0.010430897126462
0.049621737316631
0.010430897126462
0.049621737316631
0.010430897126462
0.049621737316631
0.010430897126462
0.049621737316631
0.010430897126462
0.049621737316631
0.010430897126462
0.049621737316631
0.010430897126462
0.049621737316631
0.010430897126462
0.049621737316631
0.010430897126462
0.049621737316631
0.010430897126462
0.049621737316631
0.010430897126462
0.049621737316631
0.010430897126462
0.049621737316631
-0.042964469423803
0.028436522011890
-0.042964469423803
0.028436522011890
-0.042964469423803
0.028436522011890
-0.042964469423803
0.028436522011890
-0.042964469423803
0.028436522011890
-0.042964469423803
0.028436522011890
-0.042964469423803
0.028436522011890
-0.042964469423803
0.028436522011890
-0.042964469423803
0.028436522011890
-0.042964469423803
0.028436522011890
-0.042964469423803
0.028436522011890
-0.042964469423803
0.028436522011890
-0.042964469423803
0.028436522011890
-0.042964469423803
0.028436522011890
-0.042964469423803
0.028436522011890
-0.042964469423803
0.028436522011890
0.000000000000000
0.000000000000000
0.000000000000000
0.000000000000000
0.000000000000000
0.000000000000000
0.000000000000000
0.000000000000000
0.000000000000000
0.000000000000000
0.000000000000000
0.000000000000000
0.000000000000000
0.000000000000000
0.000000000000000
0.000000000000000
0.000000000000000
0.000000000000000
0.000000000000000
0.000000000000000
0.000000000000000
0.000000000000000
0.000000000000000
0.000000000000000
0.000000000000000
0.000000000000000
0.000000000000000
0.000000000000000
0.000000000000000
0.000000000000000
0.000000000000000
0.000000000000000
-0.000000000000000
0.000000000000000
-0.000000000000000
0.000000000000000
-0.000000000000000
0.000000000000000
-0.000000000000000
0.000000000000000
-0.000000000000000
0.000000000000000
-0.000000000000000
0.000000000000000
-0.000000000000000
0.000000000000000
-0.000000000000000
0.000000000000000
-0.000000000000000
0.000000000000000
-0.000000000000000
0.000000000000000
-0.000000000000000
0.000000000000000
-0.000000000000000
0.000000000000000
-0.000000000000000
0.000000000000000
-0.000000000000000
0.000000000000000
-0.000000000000000
0.000000000000000
-0.000000000000000
0.000000000000000
-0.017369864596180
-0.014048403790233
-0.017369864596180
-0.014048403790233
-0.017369864596180
-0.014048403790233
-0.017369864596180
-0.014048403790233
-0.017369864596180
-0.014048403790233
-0.017369864596180
-0.014048403790233
-0.017369864596180
-0.014048403790233
-0.017369864596180
-0.014048403790233
-0.017369864596180
-0.014048403790233
-0.017369864596180
-0.014048403790233
-0.017369864596180
-0.014048403790233
-0.017369864596180
-0.014048403790233
-0.017369864596180
-0.014048403790233
-0.017369864596180
-0.014048403790233
-0.017369864596180
-0.014048403790233
-0.017369864596180
-0.014048403790233
0.033464223937952
0.008053334022735
0.033464223937952
0.008053334022735
0.033464223937952
0.008053334022735
0.033464223937952
0.008053334022735
0.033464223937952
0.008053334022735
0.033464223937952
0.008053334022735
0.033464223937952
0.008053334022735
0.033464223937952
0.008053334022735
0.033464223937952
0.008053334022735
0.033464223937952
0.008053334022735
0.033464223937952
0.008053334022735
0.033464223937952
0.008053334022735
0.033464223937952
0.008053334022735
0.033464223937952
0.008053334022735
0.033464223937952
0.008053334022735
0.033464223937952
0.008053334022735
-0.017369864596180
-0.014048403790233
-0.017369864596180
-0.014048403790233
-0.017369864596180
-0.014048403790233
-0.017369864596180
-0.014048403790233
-0.017369864596180
-0.014048403790233
-0.017369864596180
-0.014048403790233
-0.017369864596180
-0.014048403790233
-0.017369864596180
-0.014048403790233
-0.017369864596180
-0.014048403790233
-0.017369864596180
-0.014048403790233
-0.017369864596180
-0.014048403790233
-0.017369864596180
-0.014048403790233
-0.017369864596180
-0.014048403790233
-0.017369864596180
-0.014048403790233
-0.017369864596180
-0.014048403790233
-0.017369864596180
-0.014048403790233
0.033464223937952
0.008053334022735
0.033464223937952
0.008053334022735
0.033464223937952
0.008053334022735
0.033464223937952
0.008053334022735
0.033464223937952
0.008053334022735
0.033464223937952
0.008053334022735
0.033464223937952
0.008053334022735
0.033464223937952
0.008053334022735
0.033464223937952
0.008053334022735
0.033464223937952
0.008053334022735
0.033464223937952
0.008053334022735
0.033464223937952
0.008053334022735
0.033464223937952
0.008053334022735
0.033464223937952
0.008053334022735
0.033464223937952
0.008053334022735
0.033464223937952
0.008053334022735
-0.017369864596180
-0.014048403790233
-0.017369864596180
-0.014048403790233
-0.017369864596180
-0.014048403790233
-0.017369864596180
-0.014048403790233
-0.017369864596180
-0.014048403790233
-0.017369864596180
-0.014048403790233
-0.017369864596180
-0.014048403790233
-0.017369864596180
-0.014048403790233
-0.017369864596180
-0.014048403790233
-0.017369864596180
-0.014048403790233
-0.017369864596180
-0.014048403790233
-0.017369864596180
-0.014048403790233
-0.017369864596180
-0.014048403790233
-0.017369864596180
-0.014048403790233
-0.017369864596180
-0.014048403790233
-0.017369864596180
-0.014048403790233
0.033464223937952
0.008053334022735
0.033464223937952
0.008053334022735
0.033464223937952
0.008053334022735
0.033464223937952
0.008053334022735
0.033464223937952
0.008053334022735
0.033464223937952
0.008053334022735
0.033464223937952
0.008053334022735
0.033464223937952
0.008053334022735
0.033464223937952
0.008053334022735
0.033464223937952
0.008053334022735
0.033464223937952
0.008053334022735
0.033464223937952
0.008053334022735
0.033464223937952
0.008053334022735
0.033464223937952
0.008053334022735
0.033464223937952
0.008053334022735
0.033464223937952
0.008053334022735
-0.017369864596180
-0.014048403790233
-0.017369864596180
-0.014048403790233
-0.017369864596180
-0.014048403790233
-0.017369864596180
-0.014048403790233
-0.017369864596180
-0.014048403790233
-0.017369864596180
-0.014048403790233
-0.017369864596180
-0.014048403790233
-0.017369864596180
-0.014048403790233
-0.017369864596180
-0.014048403790233
-0.017369864596180
-0.014048403790233
-0.017369864596180
-0.014048403790233
-0.017369864596180
-0.014048403790233
-0.017369864596180
-0.014048403790233
-0.017369864596180
-0.014048403790233
-0.017369864596180
-0.014048403790233
-0.017369864596180
-0.014048403790233
0.033464223937952
0.008053334022735
0.033464223937952
0.008053334022735
0.033464223937952
0.008053334022735
0.033464223937952
0.008053334022735
0.033464223937952
0.008053334022735
0.033464223937952
0.008053334022735
0.033464223937952
0.008053334022735
0.033464223937952
0.008053334022735
0.033464223937952
0.008053334022735
0.033464223937952
0.008053334022735
0.033464223937952
0.008053334022735
0.033464223937952
0.008053334022735
0.033464223937952
0.008053334022735
0.033464223937952
0.008053334022735
0.033464223937952
0.008053334022735
0.033464223937952
0.008053334022735
-0.017369864596180
-0.014048403790233
-0.017369864596180
-0.014048403790233
-0.017369864596180
-0.014048403790233
-0.017369864596180
-0.014048403790233
-0.017369864596180
-0.014048403790233
-0.017369864596180
-0.014048403790233
-0.017369864596180
-0.014048403790233
-0.017369864596180
-0.014048403790233
-0.017369864596180
-0.014048403790233
-0.017369864596180
-0.014048403790233
-0.017369864596180
-0.014048403790233
-0.017369864596180
-0.014048403790233
-0.017369864596180
-0.014048403790233
-0.017369864596180
-0.014048403790233
-0.017369864596180
-0.014048403790233
-0.017369864596180
-0.014048403790233
0.033464223937952
0.008053334022735
0.033464223937952
0.008053334022735
0.033464223937952
0.008053334022735
0.033464223937952
0.008053334022735
0.033464223937952
0.008053334022735
