-0.011215068867865
-0.008770048804028
0.012378276506312
-0.003671289402253
-0.011215068867865
-0.008770048804028
0.012378276506312
-0.003671289402253
-0.011215068867865
-0.008770048804028
0.012378276506312
-0.003671289402253
-0.011215068867865
-0.008770048804028
0.012378276506312
-0.003671289402253
-0.011215068867865
-0.008770048804028
0.012378276506312
-0.003671289402253
-0.011215068867865
-0.008770048804028
0.012378276506312
-0.003671289402253
-0.011215068867865
-0.008770048804028
0.012378276506312
-0.003671289402253
-0.000000000000000
-0.000000000000000
0.000000000000000
-0.000000000000000
0.015369126988702
-0.024925624045315
0.046666680011135
0.002265633156397
0.015369126988702
-0.024925624045315
0.046666680011135
0.002265633156397
0.015369126988702
-0.024925624045315
0.046666680011135
0.002265633156397
0.015369126988702
-0.024925624045315
0.046666680011135
0.002265633156397
0.015369126988702
-0.024925624045315
0.046666680011135
0.002265633156397
0.015369126988702
-0.024925624045315
0.046666680011135
0.002265633156397
0.015369126988702
-0.024925624045315
0.046666680011135
0.002265633156397
0.000000000000000
-0.000000000000000
0.000000000000000
0.000000000000000
0.025641825256786
0.000726215586282
0.014319111802309
-0.005811912286700
0.025641825256786
0.000726215586282
0.014319111802309
-0.005811912286700
0.025641825256786
0.000726215586282
0.014319111802309
-0.005811912286700
0.025641825256786
0.000726215586282
0.014319111802309
-0.005811912286700
0.025641825256786
0.000726215586282
0.014319111802309
-0.005811912286700
0.025641825256786
0.000726215586282
0.014319111802309
-0.005811912286700
0.025641825256786
0.000726215586282
0.014319111802309
-0.005811912286700
0.000000000000000
0.000000000000000
0.000000000000000
-0.000000000000000
-0.004391887580368
-0.004033789196444
-0.001147434770383
0.006825545295839
-0.004391887580368
-0.004033789196444
-0.001147434770383
0.006825545295839
-0.004391887580368
-0.004033789196444
-0.001147434770383
0.006825545295839
-0.004391887580368
-0.004033789196444
-0.001147434770383
0.006825545295839
-0.004391887580368
-0.004033789196444
-0.001147434770383
0.006825545295839
-0.004391887580368
-0.004033789196444
-0.001147434770383
0.006825545295839
-0.004391887580368
-0.004033789196444
-0.001147434770383
0.006825545295839
-0.000000000000000
-0.000000000000000
-0.000000000000000
0.000000000000000
-0.011215068867865
-0.008770048804028
0.012378276506312
-0.003671289402253
-0.011215068867865
-0.008770048804028
0.012378276506312
-0.003671289402253
-0.011215068867865
-0.008770048804028
0.012378276506312
-0.003671289402253
-0.011215068867865
-0.008770048804028
0.012378276506312
-0.003671289402253
-0.011215068867865
-0.008770048804028
0.012378276506312
-0.003671289402253
-0.011215068867865
-0.008770048804028
0.012378276506312
-0.003671289402253
-0.011215068867865
-0.008770048804028
0.012378276506312
-0.003671289402253
-0.000000000000000
-0.000000000000000
0.000000000000000
-0.000000000000000
0.015369126988702
-0.024925624045315
0.046666680011135
0.002265633156397
0.015369126988702
-0.024925624045315
0.046666680011135
0.002265633156397
0.015369126988702
-0.024925624045315
0.046666680011135
0.002265633156397
0.015369126988702
-0.024925624045315
0.046666680011135
0.002265633156397
0.015369126988702
-0.024925624045315
0.046666680011135
0.002265633156397
0.015369126988702
-0.024925624045315
0.046666680011135
0.002265633156397
0.015369126988702
-0.024925624045315
0.046666680011135
0.002265633156397
0.000000000000000
-0.000000000000000
0.000000000000000
0.000000000000000
0.025641825256786
0.000726215586282
0.014319111802309
-0.005811912286700
0.025641825256786
0.000726215586282
0.014319111802309
-0.005811912286700
0.025641825256786
0.000726215586282
0.014319111802309
-0.005811912286700
0.025641825256786
0.000726215586282
0.014319111802309
-0.005811912286700
0.025641825256786
0.000726215586282
0.014319111802309
-0.005811912286700
0.025641825256786
0.000726215586282
0.014319111802309
-0.005811912286700
0.025641825256786
0.000726215586282
0.014319111802309
-0.005811912286700
0.000000000000000
0.000000000000000
0.000000000000000
-0.000000000000000
-0.004391887580368
-0.004033789196444
-0.001147434770383
0.006825545295839
-0.004391887580368
-0.004033789196444
-0.001147434770383
0.006825545295839
-0.004391887580368
-0.004033789196444
-0.001147434770383
0.006825545295839
-0.004391887580368
-0.004033789196444
-0.001147434770383
0.006825545295839
-0.004391887580368
-0.004033789196444
-0.001147434770383
0.006825545295839
-0.004391887580368
-0.004033789196444
-0.001147434770383
0.006825545295839
-0.004391887580368
-0.004033789196444
-0.001147434770383
0.006825545295839
-0.000000000000000
-0.000000000000000
-0.000000000000000
0.000000000000000
-0.011215068867865
-0.008770048804028
0.012378276506312
-0.003671289402253
-0.011215068867865
-0.008770048804028
0.012378276506312
-0.003671289402253
-0.011215068867865
-0.008770048804028
0.012378276506312
-0.003671289402253
-0.011215068867865
-0.008770048804028
0.012378276506312
-0.003671289402253
-0.011215068867865
-0.008770048804028
0.012378276506312
-0.003671289402253
-0.011215068867865
-0.008770048804028
0.012378276506312
-0.003671289402253
-0.011215068867865
-0.008770048804028
0.012378276506312
-0.003671289402253
-0.000000000000000
-0.000000000000000
0.000000000000000
-0.000000000000000
0.015369126988702
-0.024925624045315
0.046666680011135
0.002265633156397
0.015369126988702
-0.024925624045315
0.046666680011135
0.002265633156397
0.015369126988702
-0.024925624045315
0.046666680011135
0.002265633156397
0.015369126988702
-0.024925624045315
0.046666680011135
0.002265633156397
0.015369126988702
-0.024925624045315
0.046666680011135
0.002265633156397
0.015369126988702
-0.024925624045315
0.046666680011135
0.002265633156397
0.015369126988702
-0.024925624045315
0.046666680011135
0.002265633156397
0.000000000000000
-0.000000000000000
0.000000000000000
0.000000000000000
0.025641825256786
0.000726215586282
0.014319111802309
-0.005811912286700
0.025641825256786
0.000726215586282
0.014319111802309
-0.005811912286700
0.025641825256786
0.000726215586282
0.014319111802309
-0.005811912286700
0.025641825256786
0.000726215586282
0.014319111802309
-0.005811912286700
0.025641825256786
0.000726215586282
0.014319111802309
-0.005811912286700
0.025641825256786
0.000726215586282
0.014319111802309
-0.005811912286700
0.025641825256786
0.000726215586282
0.014319111802309
-0.005811912286700
0.000000000000000
0.000000000000000
0.000000000000000
-0.000000000000000
-0.004391887580368
-0.004033789196444
-0.001147434770383
0.006825545295839
-0.004391887580368
-0.004033789196444
-0.001147434770383
0.006825545295839
-0.004391887580368
-0.004033789196444
-0.001147434770383
0.006825545295839
-0.004391887580368
-0.004033789196444
-0.001147434770383
0.006825545295839
-0.004391887580368
-0.004033789196444
-0.001147434770383
0.006825545295839
-0.004391887580368
-0.004033789196444
-0.001147434770383
0.006825545295839
-0.004391887580368
-0.004033789196444
-0.001147434770383
0.006825545295839
-0.000000000000000
-0.000000000000000
-0.000000000000000
0.000000000000000
-0.011215068867865
-0.008770048804028
0.012378276506312
-0.003671289402253
-0.011215068867865
-0.008770048804028
0.012378276506312
-0.003671289402253
-0.011215068867865
-0.008770048804028
0.012378276506312
-0.003671289402253
-0.011215068867865
-0.008770048804028
0.012378276506312
-0.003671289402253
-0.011215068867865
-0.008770048804028
0.012378276506312
-0.003671289402253
-0.011215068867865
-0.008770048804028
0.012378276506312
-0.003671289402253
-0.011215068867865
-0.008770048804028
0.012378276506312
-0.003671289402253
-0.000000000000000
-0.000000000000000
0.000000000000000
-0.000000000000000
0.015369126988702
-0.024925624045315
0.046666680011135
0.002265633156397
0.015369126988702
-0.024925624045315
0.046666680011135
0.002265633156397
0.015369126988702
-0.024925624045315
0.046666680011135
0.002265633156397
0.015369126988702
-0.024925624045315
0.046666680011135
0.002265633156397
0.015369126988702
-0.024925624045315
0.046666680011135
0.002265633156397
0.015369126988702
-0.024925624045315
0.046666680011135
0.002265633156397
0.015369126988702
-0.024925624045315
0.046666680011135
0.002265633156397
0.000000000000000
-0.000000000000000
0.000000000000000
0.000000000000000
0.025641825256786
0.000726215586282
0.014319111802309
-0.005811912286700
0.025641825256786
0.000726215586282
0.014319111802309
-0.005811912286700
0.025641825256786
0.000726215586282
0.014319111802309
-0.005811912286700
0.025641825256786
0.000726215586282
0.014319111802309
-0.005811912286700
0.025641825256786
0.000726215586282
0.014319111802309
-0.005811912286700
0.025641825256786
0.000726215586282
0.014319111802309
-0.005811912286700
0.025641825256786
0.000726215586282
0.014319111802309
-0.005811912286700
0.000000000000000
0.000000000000000
0.000000000000000
-0.000000000000000
-0.004391887580368
-0.004033789196444
-0.001147434770383
0.006825545295839
-0.004391887580368
-0.004033789196444
-0.001147434770383
0.006825545295839
-0.004391887580368
-0.004033789196444
-0.001147434770383
0.006825545295839
-0.004391887580368
-0.004033789196444
-0.001147434770383
0.006825545295839
-0.004391887580368
-0.004033789196444
-0.001147434770383
0.006825545295839
-0.004391887580368
-0.004033789196444
-0.001147434770383
0.006825545295839
-0.004391887580368
-0.004033789196444
-0.001147434770383
0.006825545295839
-0.000000000000000
-0.000000000000000
-0.000000000000000
0.000000000000000
-0.011215068867865
-0.008770048804028
0.012378276506312
-0.003671289402253
-0.011215068867865
-0.008770048804028
0.012378276506312
-0.003671289402253
-0.011215068867865
-0.008770048804028
0.012378276506312
-0.003671289402253
-0.011215068867865
-0.008770048804028
0.012378276506312
-0.003671289402253
-0.011215068867865
-0.008770048804028
0.012378276506312
-0.003671289402253
-0.011215068867865
-0.008770048804028
0.012378276506312
-0.003671289402253
-0.011215068867865
-0.008770048804028
0.012378276506312
-0.003671289402253
-0.000000000000000
-0.000000000000000
0.000000000000000
-0.000000000000000
0.015369126988702
-0.024925624045315
0.046666680011135
0.002265633156397
0.015369126988702
-0.024925624045315
0.046666680011135
0.002265633156397
0.015369126988702
-0.024925624045315
0.046666680011135
0.002265633156397
0.015369126988702
-0.024925624045315
0.046666680011135
0.002265633156397
0.015369126988702
-0.024925624045315
0.046666680011135
0.002265633156397
0.015369126988702
-0.024925624045315
0.046666680011135
0.002265633156397
0.015369126988702
-0.024925624045315
0.046666680011135
0.002265633156397
0.000000000000000
-0.000000000000000
0.000000000000000
0.000000000000000
0.025641825256786
0.000726215586282
0.014319111802309
-0.005811912286700
0.025641825256786
0.000726215586282
0.014319111802309
-0.005811912286700
0.025641825256786
0.000726215586282
0.014319111802309
-0.005811912286700
0.025641825256786
0.000726215586282
0.014319111802309
-0.005811912286700
0.025641825256786
0.000726215586282
0.014319111802309
-0.005811912286700
0.025641825256786
0.000726215586282
0.014319111802309
-0.005811912286700
0.025641825256786
0.000726215586282
0.014319111802309
-0.005811912286700
0.000000000000000
0.000000000000000
0.000000000000000
-0.000000000000000
-0.004391887580368
-0.004033789196444
-0.001147434770383
0.006825545295839
-0.004391887580368
-0.004033789196444
-0.001147434770383
0.006825545295839
-0.004391887580368
-0.004033789196444
-0.001147434770383
0.006825545295839
-0.004391887580368
-0.004033789196444
-0.001147434770383
0.006825545295839
-0.004391887580368
-0.004033789196444
-0.001147434770383
0.006825545295839
-0.004391887580368
-0.004033789196444
-0.001147434770383
0.006825545295839
-0.004391887580368
-0.004033789196444
-0.001147434770383
0.006825545295839
-0.000000000000000
-0.000000000000000
-0.000000000000000
0.000000000000000
-0.011215068867865
-0.008770048804028
0.012378276506312
-0.003671289402253
-0.011215068867865
-0.008770048804028
0.012378276506312
-0.003671289402253
-0.011215068867865
-0.008770048804028
0.012378276506312
-0.003671289402253
-0.011215068867865
-0.008770048804028
0.012378276506312
-0.003671289402253
-0.011215068867865
-0.008770048804028
0.012378276506312
-0.003671289402253
-0.011215068867865
-0.008770048804028
0.012378276506312
-0.003671289402253
-0.011215068867865
-0.008770048804028
0.012378276506312
-0.003671289402253
-0.000000000000000
-0.000000000000000
0.000000000000000
-0.000000000000000
0.015369126988702
-0.024925624045315
0.046666680011135
0.002265633156397
0.015369126988702
-0.024925624045315
0.046666680011135
0.002265633156397
0.015369126988702
-0.024925624045315
0.046666680011135
0.002265633156397
0.015369126988702
-0.024925624045315
0.046666680011135
0.002265633156397
0.015369126988702
-0.024925624045315
0.046666680011135
0.002265633156397
0.015369126988702
-0.024925624045315
0.046666680011135
0.002265633156397
0.015369126988702
-0.024925624045315
0.046666680011135
0.002265633156397
0.000000000000000
-0.000000000000000
0.000000000000000
0.000000000000000
0.025641825256786
0.000726215586282
0.014319111802309
-0.005811912286700
0.025641825256786
0.000726215586282
0.014319111802309
-0.005811912286700
0.025641825256786
0.000726215586282
0.014319111802309
-0.005811912286700
0.025641825256786
0.000726215586282
0.014319111802309
-0.005811912286700
0.025641825256786
0.000726215586282
0.014319111802309
-0.005811912286700
0.025641825256786
0.000726215586282
0.014319111802309
-0.005811912286700
0.025641825256786
0.000726215586282
0.014319111802309
-0.005811912286700
0.000000000000000
0.000000000000000
0.000000000000000
-0.000000000000000
-0.004391887580368
-0.004033789196444
-0.001147434770383
0.006825545295839
-0.004391887580368
-0.004033789196444
-0.001147434770383
0.006825545295839
-0.004391887580368
-0.004033789196444
-0.001147434770383
0.006825545295839
-0.004391887580368
-0.004033789196444
-0.001147434770383
0.006825545295839
-0.004391887580368
-0.004033789196444
-0.001147434770383
0.006825545295839
-0.004391887580368
-0.004033789196444
-0.001147434770383
0.006825545295839
-0.004391887580368
-0.004033789196444
-0.001147434770383
0.006825545295839
-0.000000000000000
-0.000000000000000
-0.000000000000000
0.000000000000000
-0.011215068867865
-0.008770048804028
0.012378276506312
-0.003671289402253
-0.011215068867865
-0.008770048804028
0.012378276506312
-0.003671289402253
-0.011215068867865
-0.008770048804028
0.012378276506312
-0.003671289402253
-0.011215068867865
-0.008770048804028
0.012378276506312
-0.003671289402253
-0.011215068867865
-0.008770048804028
0.012378276506312
-0.003671289402253
-0.011215068867865
-0.008770048804028
0.012378276506312
-0.003671289402253
-0.011215068867865
-0.008770048804028
0.012378276506312
-0.003671289402253
-0.000000000000000
-0.000000000000000
0.000000000000000
-0.000000000000000
0.015369126988702
-0.024925624045315
0.046666680011135
0.002265633156397
0.015369126988702
-0.024925624045315
0.046666680011135
0.002265633156397
0.015369126988702
-0.024925624045315
0.046666680011135
0.002265633156397
0.015369126988702
-0.024925624045315
0.046666680011135
0.002265633156397
0.015369126988702
-0.024925624045315
0.046666680011135
0.002265633156397
0.015369126988702
-0.024925624045315
0.046666680011135
0.002265633156397
0.015369126988702
-0.024925624045315
0.046666680011135
0.002265633156397
0.000000000000000
-0.000000000000000
0.000000000000000
0.000000000000000
0.025641825256786
0.000726215586282
0.014319111802309
-0.005811912286700
0.025641825256786
0.000726215586282
0.014319111802309
-0.005811912286700
0.025641825256786
0.000726215586282
0.014319111802309
-0.005811912286700
0.025641825256786
0.000726215586282
0.014319111802309
-0.005811912286700
0.025641825256786
0.000726215586282
0.014319111802309
-0.005811912286700
0.025641825256786
0.000726215586282
0.014319111802309
-0.005811912286700
0.025641825256786
0.000726215586282
0.014319111802309
-0.005811912286700
0.000000000000000
0.000000000000000
0.000000000000000
-0.000000000000000
-0.004391887580368
-0.004033789196444
-0.001147434770383
0.006825545295839
-0.004391887580368
-0.004033789196444
-0.001147434770383
0.006825545295839
-0.004391887580368
-0.004033789196444
-0.001147434770383
0.006825545295839
-0.004391887580368
-0.004033789196444
-0.001147434770383
0.006825545295839
-0.004391887580368
-0.004033789196444
-0.001147434770383
0.006825545295839
-0.004391887580368
-0.004033789196444
-0.001147434770383
0.006825545295839
-0.004391887580368
-0.004033789196444
-0.001147434770383
0.006825545295839
-0.000000000000000
-0.000000000000000
-0.000000000000000
0.000000000000000
-0.000000000000000
-0.000000000000000
0.000000000000000
-0.000000000000000
-0.000000000000000
-0.000000000000000
0.000000000000000
-0.000000000000000
-0.000000000000000
-0.000000000000000
0.000000000000000
-0.000000000000000
-0.000000000000000
-0.000000000000000
0.000000000000000
-0.000000000000000
-0.000000000000000
-0.000000000000000
0.000000000000000
-0.000000000000000
-0.000000000000000
-0.000000000000000
0.000000000000000
-0.000000000000000
-0.000000000000000
-0.000000000000000
0.000000000000000
-0.000000000000000
-0.000000000000000
-0.000000000000000
0.000000000000000
-0.000000000000000
0.000000000000000
-0.000000000000000
0.000000000000000
0.000000000000000
0.000000000000000
-0.000000000000000
0.000000000000000
0.000000000000000
0.000000000000000
-0.000000000000000
0.000000000000000
0.000000000000000
0.000000000000000
-0.000000000000000
0.000000000000000
0.000000000000000
0.000000000000000
-0.000000000000000
0.000000000000000
0.000000000000000
0.000000000000000
-0.000000000000000
0.000000000000000
0.000000000000000
0.000000000000000
-0.000000000000000
0.000000000000000
0.000000000000000
0.000000000000000
-0.000000000000000
0.000000000000000
0.000000000000000
0.000000000000000
0.000000000000000
0.000000000000000
-0.000000000000000
0.000000000000000
0.000000000000000
0.000000000000000
-0.000000000000000
0.000000000000000
0.000000000000000
0.000000000000000
-0.000000000000000
0.000000000000000
0.000000000000000
0.000000000000000
-0.000000000000000
0.000000000000000
0.000000000000000
0.000000000000000
-0.000000000000000
0.000000000000000
0.000000000000000
0.000000000000000
-0.000000000000000
0.000000000000000
0.000000000000000
0.000000000000000
-0.000000000000000
0.000000000000000
0.000000000000000
0.000000000000000
-0.000000000000000
-0.000000000000000
-0.000000000000000
-0.000000000000000
0.000000000000000
-0.000000000000000
-0.000000000000000
-0.000000000000000
0.000000000000000
-0.000000000000000
-0.000000000000000
-0.000000000000000
0.000000000000000
-0.000000000000000
-0.000000000000000
-0.000000000000000
0.000000000000000
-0.000000000000000
-0.000000000000000
-0.000000000000000
0.000000000000000
-0.000000000000000
-0.000000000000000
-0.000000000000000
0.000000000000000
-0.000000000000000
-0.000000000000000
-0.000000000000000
0.000000000000000
-0.000000000000000
-0.000000000000000
-0.000000000000000
0.000000000000000
-0.002872139048456
-0.003758395555490
-0.033469247952613
0.031588128307184
-0.002872139048456
-0.003758395555490
-0.033469247952613
0.031588128307184
-0.002872139048456
-0.003758395555490
-0.033469247952613
0.031588128307184
-0.002872139048456
-0.003758395555490
-0.033469247952613
0.031588128307184
-0.002872139048456
-0.003758395555490
-0.033469247952613
0.031588128307184
-0.002872139048456
-0.003758395555490
-0.033469247952613
0.031588128307184
-0.002872139048456
-0.003758395555490
-0.033469247952613
0.031588128307184
-0.000000000000000
-0.000000000000000
-0.000000000000000
0.000000000000000
-0.018420370774428
-0.010939739659468
-0.033937450469422
0.007352519192967
-0.018420370774428
-0.010939739659468
-0.033937450469422
0.007352519192967
-0.018420370774428
-0.010939739659468
-0.033937450469422
0.007352519192967
-0.018420370774428
-0.010939739659468
-0.033937450469422
0.007352519192967
-0.018420370774428
-0.010939739659468
-0.033937450469422
0.007352519192967
-0.018420370774428
-0.010939739659468
-0.033937450469422
0.007352519192967
-0.018420370774428
-0.010939739659468
-0.033937450469422
0.007352519192967
-0.000000000000000
-0.000000000000000
-0.000000000000000
0.000000000000000
0.001558857095102
0.009890710957759
-0.024615636786049
0.008130002432714
0.001558857095102
0.009890710957759
-0.024615636786049
0.008130002432714
0.001558857095102
0.009890710957759
-0.024615636786049
0.008130002432714
0.001558857095102
0.009890710957759
-0.024615636786049
0.008130002432714
0.001558857095102
0.009890710957759
-0.024615636786049
0.008130002432714
0.001558857095102
0.009890710957759
-0.024615636786049
0.008130002432714
0.001558857095102
0.009890710957759
-0.024615636786049
0.008130002432714
0.000000000000000
0.000000000000000
-0.000000000000000
0.000000000000000
-0.028888648518368
0.009324175469902
0.002759533154862
-0.006036555289924
-0.028888648518368
0.009324175469902
0.002759533154862
-0.006036555289924
-0.028888648518368
0.009324175469902
0.002759533154862
-0.006036555289924
-0.028888648518368
0.009324175469902
0.002759533154862
-0.006036555289924
-0.028888648518368
0.009324175469902
0.002759533154862
-0.006036555289924
-0.028888648518368
0.009324175469902
0.002759533154862
-0.006036555289924
-0.028888648518368
0.009324175469902
0.002759533154862
-0.006036555289924
-0.000000000000000
0.000000000000000
0.000000000000000
-0.000000000000000
-0.002872139048456
-0.003758395555490
-0.033469247952613
0.031588128307184
-0.002872139048456
-0.003758395555490
-0.033469247952613
0.031588128307184
-0.002872139048456
-0.003758395555490
-0.033469247952613
0.031588128307184
-0.002872139048456
-0.003758395555490
-0.033469247952613
0.031588128307184
-0.002872139048456
-0.003758395555490
-0.033469247952613
0.031588128307184
-0.002872139048456
-0.003758395555490
-0.033469247952613
0.031588128307184
-0.002872139048456
-0.003758395555490
-0.033469247952613
0.031588128307184
-0.000000000000000
-0.000000000000000
-0.000000000000000
0.000000000000000
-0.018420370774428
-0.010939739659468
-0.033937450469422
0.007352519192967
-0.018420370774428
-0.010939739659468
-0.033937450469422
0.007352519192967
-0.018420370774428
-0.010939739659468
-0.033937450469422
0.007352519192967
-0.018420370774428
-0.010939739659468
-0.033937450469422
0.007352519192967
-0.018420370774428
-0.010939739659468
-0.033937450469422
0.007352519192967
-0.018420370774428
-0.010939739659468
-0.033937450469422
0.007352519192967
-0.018420370774428
-0.010939739659468
-0.033937450469422
0.007352519192967
-0.000000000000000
-0.000000000000000
-0.000000000000000
0.000000000000000
0.001558857095102
0.009890710957759
-0.024615636786049
0.008130002432714
0.001558857095102
0.009890710957759
-0.024615636786049
0.008130002432714
0.001558857095102
0.009890710957759
-0.024615636786049
0.008130002432714
0.001558857095102
0.009890710957759
-0.024615636786049
0.008130002432714
0.001558857095102
0.009890710957759
-0.024615636786049
0.008130002432714
0.001558857095102
0.009890710957759
-0.024615636786049
0.008130002432714
0.001558857095102
0.009890710957759
-0.024615636786049
0.008130002432714
0.000000000000000
0.000000000000000
-0.000000000000000
0.000000000000000
-0.028888648518368
0.009324175469902
0.002759533154862
-0.006036555289924
-0.028888648518368
0.009324175469902
0.002759533154862
-0.006036555289924
-0.028888648518368
0.009324175469902
0.002759533154862
-0.006036555289924
-0.028888648518368
0.009324175469902
0.002759533154862
-0.006036555289924
-0.028888648518368
0.009324175469902
0.002759533154862
-0.006036555289924
-0.028888648518368
0.009324175469902
0.002759533154862
-0.006036555289924
-0.028888648518368
0.009324175469902
0.002759533154862
-0.006036555289924
-0.000000000000000
0.000000000000000
0.000000000000000
-0.000000000000000
-0.002872139048456
-0.003758395555490
-0.033469247952613
0.031588128307184
-0.002872139048456
-0.003758395555490
-0.033469247952613
0.031588128307184
-0.002872139048456
-0.003758395555490
-0.033469247952613
0.031588128307184
-0.002872139048456
-0.003758395555490
-0.033469247952613
0.031588128307184
-0.002872139048456
-0.003758395555490
-0.033469247952613
0.031588128307184
-0.002872139048456
-0.003758395555490
-0.033469247952613
0.031588128307184
-0.002872139048456
-0.003758395555490
-0.033469247952613
0.031588128307184
-0.000000000000000
-0.000000000000000
-0.000000000000000
0.000000000000000
-0.018420370774428
-0.010939739659468
-0.033937450469422
0.007352519192967
-0.018420370774428
-0.010939739659468
-0.033937450469422
0.007352519192967
-0.018420370774428
-0.010939739659468
-0.033937450469422
0.007352519192967
-0.018420370774428
-0.010939739659468
-0.033937450469422
0.007352519192967
-0.018420370774428
-0.010939739659468
-0.033937450469422
0.007352519192967
-0.018420370774428
-0.010939739659468
-0.033937450469422
0.007352519192967
-0.018420370774428
-0.010939739659468
-0.033937450469422
0.007352519192967
-0.000000000000000
-0.000000000000000
-0.000000000000000
0.000000000000000
0.001558857095102
0.009890710957759
-0.024615636786049
0.008130002432714
0.001558857095102
0.009890710957759
-0.024615636786049
0.008130002432714
0.001558857095102
0.009890710957759
-0.024615636786049
0.008130002432714
0.001558857095102
0.009890710957759
-0.024615636786049
0.008130002432714
0.001558857095102
0.009890710957759
-0.024615636786049
0.008130002432714
0.001558857095102
0.009890710957759
-0.024615636786049
0.008130002432714
0.001558857095102
0.009890710957759
-0.024615636786049
0.008130002432714
0.000000000000000
0.000000000000000
-0.000000000000000
0.000000000000000
-0.028888648518368
0.009324175469902
0.002759533154862
-0.006036555289924
-0.028888648518368
0.009324175469902
0.002759533154862
-0.006036555289924
-0.028888648518368
0.009324175469902
0.002759533154862
-0.006036555289924
-0.028888648518368
0.009324175469902
0.002759533154862
-0.006036555289924
-0.028888648518368
0.009324175469902
0.002759533154862
-0.006036555289924
-0.028888648518368
0.009324175469902
0.002759533154862
-0.006036555289924
-0.028888648518368
0.009324175469902
0.002759533154862
-0.006036555289924
-0.000000000000000
0.000000000000000
0.000000000000000
-0.000000000000000
-0.002872139048456
-0.003758395555490
-0.033469247952613
0.031588128307184
-0.002872139048456
-0.003758395555490
-0.033469247952613
0.031588128307184
-0.002872139048456
-0.003758395555490
-0.033469247952613
0.031588128307184
-0.002872139048456
-0.003758395555490
-0.033469247952613
0.031588128307184
-0.002872139048456
-0.003758395555490
-0.033469247952613
0.031588128307184
-0.002872139048456
-0.003758395555490
-0.033469247952613
0.031588128307184
-0.002872139048456
-0.003758395555490
-0.033469247952613
0.031588128307184
-0.000000000000000
-0.000000000000000
-0.000000000000000
0.000000000000000
-0.018420370774428
-0.010939739659468
-0.033937450469422
0.007352519192967
-0.018420370774428
-0.010939739659468
-0.033937450469422
0.007352519192967
-0.018420370774428
-0.010939739659468
-0.033937450469422
0.007352519192967
-0.018420370774428
-0.010939739659468
-0.033937450469422
0.007352519192967
-0.018420370774428
-0.010939739659468
-0.033937450469422
0.007352519192967
-0.018420370774428
-0.010939739659468
-0.033937450469422
0.007352519192967
-0.018420370774428
-0.010939739659468
-0.033937450469422
0.007352519192967
-0.000000000000000
-0.000000000000000
-0.000000000000000
0.000000000000000
0.001558857095102
0.009890710957759
-0.024615636786049
0.008130002432714
0.001558857095102
0.009890710957759
-0.024615636786049
0.008130002432714
0.001558857095102
0.009890710957759
-0.024615636786049
0.008130002432714
0.001558857095102
0.009890710957759
-0.024615636786049
0.008130002432714
0.001558857095102
0.009890710957759
-0.024615636786049
0.008130002432714
0.001558857095102
0.009890710957759
-0.024615636786049
0.008130002432714
0.001558857095102
0.009890710957759
-0.024615636786049
0.008130002432714
0.000000000000000
0.000000000000000
-0.000000000000000
0.000000000000000
-0.028888648518368
0.009324175469902
0.002759533154862
-0.006036555289924
-0.028888648518368
0.009324175469902
0.002759533154862
-0.006036555289924
-0.028888648518368
0.009324175469902
0.002759533154862
-0.006036555289924
-0.028888648518368
0.009324175469902
0.002759533154862
-0.006036555289924
-0.028888648518368
0.009324175469902
0.002759533154862
-0.006036555289924
-0.028888648518368
0.009324175469902
0.002759533154862
-0.006036555289924
-0.028888648518368
0.009324175469902
0.002759533154862
-0.006036555289924
-0.000000000000000
0.000000000000000
0.000000000000000
-0.000000000000000
-0.002872139048456
-0.003758395555490
-0.033469247952613
0.031588128307184
-0.002872139048456
-0.003758395555490
-0.033469247952613
0.031588128307184
-0.002872139048456
-0.003758395555490
-0.033469247952613
0.031588128307184
-0.002872139048456
-0.003758395555490
-0.033469247952613
0.031588128307184
-0.002872139048456
-0.003758395555490
-0.033469247952613
0.031588128307184
-0.002872139048456
-0.003758395555490
-0.033469247952613
0.031588128307184
-0.002872139048456
-0.003758395555490
-0.033469247952613
0.031588128307184
-0.000000000000000
-0.000000000000000
-0.000000000000000
0.000000000000000
-0.018420370774428
-0.010939739659468
-0.033937450469422
0.007352519192967
-0.018420370774428
-0.010939739659468
-0.033937450469422
0.007352519192967
-0.018420370774428
-0.010939739659468
-0.033937450469422
0.007352519192967
-0.018420370774428
-0.010939739659468
-0.033937450469422
0.007352519192967
-0.018420370774428
-0.010939739659468
-0.033937450469422
0.007352519192967
-0.018420370774428
-0.010939739659468
-0.033937450469422
0.007352519192967
-0.018420370774428
-0.010939739659468
-0.033937450469422
0.007352519192967
-0.000000000000000
-0.000000000000000
-0.000000000000000
0.000000000000000
0.001558857095102
0.009890710957759
-0.024615636786049
0.008130002432714
0.001558857095102
0.009890710957759
-0.024615636786049
0.008130002432714
0.001558857095102
0.009890710957759
-0.024615636786049
0.008130002432714
0.001558857095102
0.009890710957759
-0.024615636786049
0.008130002432714
0.001558857095102
0.009890710957759
-0.024615636786049
0.008130002432714
0.001558857095102
0.009890710957759
-0.024615636786049
0.008130002432714
0.001558857095102
0.009890710957759
-0.024615636786049
0.008130002432714
0.000000000000000
0.000000000000000
-0.000000000000000
0.000000000000000
-0.028888648518368
0.009324175469902
0.002759533154862
-0.006036555289924
-0.028888648518368
0.009324175469902
0.002759533154862
-0.006036555289924
-0.028888648518368
0.009324175469902
0.002759533154862
-0.006036555289924
-0.028888648518368
0.009324175469902
0.002759533154862
-0.006036555289924
-0.028888648518368
0.009324175469902
0.002759533154862
-0.006036555289924
-0.028888648518368
0.009324175469902
0.002759533154862
-0.006036555289924
-0.028888648518368
0.009324175469902
0.002759533154862
-0.006036555289924
-0.000000000000000
0.000000000000000
0.000000000000000
-0.000000000000000
-0.002872139048456
-0.003758395555490
-0.033469247952613
0.031588128307184
-0.002872139048456
-0.003758395555490
-0.033469247952613
0.031588128307184
-0.002872139048456
-0.003758395555490
-0.033469247952613
0.031588128307184
-0.002872139048456
-0.003758395555490
-0.033469247952613
0.031588128307184
-0.002872139048456
-0.003758395555490
-0.033469247952613
0.031588128307184
-0.002872139048456
-0.003758395555490
-0.033469247952613
0.031588128307184
-0.002872139048456
-0.003758395555490
-0.033469247952613
0.031588128307184
-0.000000000000000
-0.000000000000000
-0.000000000000000
0.000000000000000
-0.018420370774428
-0.010939739659468
-0.033937450469422
0.007352519192967
-0.018420370774428
-0.010939739659468
-0.033937450469422
0.007352519192967
-0.018420370774428
-0.010939739659468
-0.033937450469422
0.007352519192967
-0.018420370774428
-0.010939739659468
-0.033937450469422
0.007352519192967
-0.018420370774428
-0.010939739659468
-0.033937450469422
0.007352519192967
-0.018420370774428
-0.010939739659468
-0.033937450469422
0.007352519192967
-0.018420370774428
-0.010939739659468
-0.033937450469422
0.007352519192967
-0.000000000000000
-0.000000000000000
-0.000000000000000
0.000000000000000
0.001558857095102
0.009890710957759
-0.024615636786049
0.008130002432714
0.001558857095102
0.009890710957759
-0.024615636786049
0.008130002432714
0.001558857095102
0.009890710957759
-0.024615636786049
0.008130002432714
0.001558857095102
0.009890710957759
-0.024615636786049
0.008130002432714
0.001558857095102
0.009890710957759
-0.024615636786049
0.008130002432714
0.001558857095102
0.009890710957759
-0.024615636786049
0.008130002432714
0.001558857095102
0.009890710957759
-0.024615636786049
0.008130002432714
0.000000000000000
0.000000000000000
-0.000000000000000
0.000000000000000
-0.028888648518368
0.009324175469902
0.002759533154862
-0.006036555289924
-0.028888648518368
0.009324175469902
0.002759533154862
-0.006036555289924
-0.028888648518368
0.009324175469902
0.002759533154862
-0.006036555289924
-0.028888648518368
0.009324175469902
0.002759533154862
-0.006036555289924
-0.028888648518368
0.009324175469902
0.002759533154862
-0.006036555289924
-0.028888648518368
0.009324175469902
0.002759533154862
-0.006036555289924
-0.028888648518368
0.009324175469902
0.002759533154862
-0.006036555289924
-0.000000000000000
0.000000000000000
0.000000000000000
-0.000000000000000
-0.002872139048456
-0.003758395555490
-0.033469247952613
0.031588128307184
-0.002872139048456
-0.003758395555490
-0.033469247952613
0.031588128307184
-0.002872139048456
-0.003758395555490
-0.033469247952613
0.031588128307184
-0.002872139048456
-0.003758395555490
-0.033469247952613
0.031588128307184
-0.002872139048456
-0.003758395555490
-0.033469247952613
0.031588128307184
-0.002872139048456
-0.003758395555490
-0.033469247952613
0.031588128307184
-0.002872139048456
-0.003758395555490
-0.033469247952613
0.031588128307184
-0.000000000000000
-0.000000000000000
-0.000000000000000
0.000000000000000
-0.018420370774428
-0.010939739659468
-0.033937450469422
0.007352519192967
-0.018420370774428
-0.010939739659468
-0.033937450469422
0.007352519192967
-0.018420370774428
-0.010939739659468
-0.033937450469422
0.007352519192967
-0.018420370774428
-0.010939739659468
-0.033937450469422
0.007352519192967
-0.018420370774428
-0.010939739659468
-0.033937450469422
0.007352519192967
-0.018420370774428
-0.010939739659468
-0.033937450469422
0.007352519192967
-0.018420370774428
-0.010939739659468
-0.033937450469422
0.007352519192967
-0.000000000000000
-0.000000000000000
-0.000000000000000
0.000000000000000
0.001558857095102
0.009890710957759
-0.024615636786049
0.008130002432714
0.001558857095102
0.009890710957759
-0.024615636786049
0.008130002432714
0.001558857095102
0.009890710957759
-0.024615636786049
0.008130002432714
0.001558857095102
0.009890710957759
-0.024615636786049
0.008130002432714
0.001558857095102
0.009890710957759
-0.024615636786049
0.008130002432714
0.001558857095102
0.009890710957759
-0.024615636786049
0.008130002432714
0.001558857095102
0.009890710957759
-0.024615636786049
0.008130002432714
0.000000000000000
0.000000000000000
-0.000000000000000
0.000000000000000
-0.028888648518368
0.009324175469902
0.002759533154862
-0.006036555289924
-0.028888648518368
0.009324175469902
0.002759533154862
-0.006036555289924
-0.028888648518368
0.009324175469902
0.002759533154862
-0.006036555289924
-0.028888648518368
0.009324175469902
0.002759533154862
-0.006036555289924
-0.028888648518368
0.009324175469902
0.002759533154862
-0.006036555289924
-0.028888648518368
0.009324175469902
0.002759533154862
-0.006036555289924
-0.028888648518368
0.009324175469902
0.002759533154862
-0.006036555289924
-0.000000000000000
0.000000000000000
0.000000000000000
-0.000000000000000
-0.000000000000000
-0.000000000000000
-0.000000000000000
0.000000000000000
-0.000000000000000
-0.000000000000000
-0.000000000000000
0.000000000000000
-0.000000000000000
-0.000000000000000
-0.000000000000000
0.000000000000000
-0.000000000000000
-0.000000000000000
-0.000000000000000
0.000000000000000
-0.000000000000000
-0.000000000000000
-0.000000000000000
0.000000000000000
-0.000000000000000
-0.000000000000000
-0.000000000000000
0.000000000000000
-0.000000000000000
-0.000000000000000
-0.000000000000000
0.000000000000000
-0.000000000000000
-0.000000000000000
-0.000000000000000
0.000000000000000
-0.000000000000000
-0.000000000000000
-0.000000000000000
0.000000000000000
-0.000000000000000
-0.000000000000000
-0.000000000000000
0.000000000000000
-0.000000000000000
-0.000000000000000
-0.000000000000000
0.000000000000000
-0.000000000000000
-0.000000000000000
-0.000000000000000
0.000000000000000
-0.000000000000000
-0.000000000000000
-0.000000000000000
0.000000000000000
-0.000000000000000
-0.000000000000000
-0.000000000000000
0.000000000000000
-0.000000000000000
-0.000000000000000
-0.000000000000000
0.000000000000000
-0.000000000000000
-0.000000000000000
-0.000000000000000
0.000000000000000
0.000000000000000
0.000000000000000
-0.000000000000000
0.000000000000000
0.000000000000000
0.000000000000000
-0.000000000000000
0.000000000000000
0.000000000000000
0.000000000000000
-0.000000000000000
0.000000000000000
0.000000000000000
0.000000000000000
-0.000000000000000
0.000000000000000
0.000000000000000
0.000000000000000
-0.000000000000000
0.000000000000000
0.000000000000000
0.000000000000000
-0.000000000000000
0.000000000000000
0.000000000000000
0.000000000000000
-0.000000000000000
0.000000000000000
0.000000000000000
0.000000000000000
-0.000000000000000
0.000000000000000
-0.000000000000000
0.000000000000000
0.000000000000000
-0.000000000000000
-0.000000000000000
0.000000000000000
0.000000000000000
-0.000000000000000
-0.000000000000000
0.000000000000000
0.000000000000000
-0.000000000000000
-0.000000000000000
0.000000000000000
0.000000000000000
-0.000000000000000
-0.000000000000000
0.000000000000000
0.000000000000000
-0.000000000000000
-0.000000000000000
0.000000000000000
0.000000000000000
-0.000000000000000
-0.000000000000000
0.000000000000000
0.000000000000000
-0.000000000000000
-0.000000000000000
0.000000000000000
0.000000000000000
-0.000000000000000
0.001585530618925
0.011932023273723
0.034346197287707
-0.011771392906154
0.001585530618925
0.011932023273723
0.034346197287707
-0.011771392906154
0.001585530618925
0.011932023273723
0.034346197287707
-0.011771392906154
0.001585530618925
0.011932023273723
0.034346197287707
-0.011771392906154
0.001585530618925
0.011932023273723
0.034346197287707
-0.011771392906154
0.001585530618925
0.011932023273723
0.034346197287707
-0.011771392906154
0.001585530618925
0.011932023273723
0.034346197287707
-0.011771392906154
0.000000000000000
0.000000000000000
0.000000000000000
-0.000000000000000
-0.021315554460592
-0.013960513510607
0.004625779988411
0.001246569149146
-0.021315554460592
-0.013960513510607
0.004625779988411
0.001246569149146
-0.021315554460592
-0.013960513510607
0.004625779988411
0.001246569149146
-0.021315554460592
-0.013960513510607
0.004625779988411
0.001246569149146
-0.021315554460592
-0.013960513510607
0.004625779988411
0.001246569149146
-0.021315554460592
-0.013960513510607
0.004625779988411
0.001246569149146
-0.021315554460592
-0.013960513510607
0.004625779988411
0.001246569149146
-0.000000000000000
-0.000000000000000
0.000000000000000
0.000000000000000
0.003115678565729
-0.000593267000981
0.022319060449034
0.035079306491172
0.003115678565729
-0.000593267000981
0.022319060449034
0.035079306491172
0.003115678565729
-0.000593267000981
0.022319060449034
0.035079306491172
0.003115678565729
-0.000593267000981
0.022319060449034
0.035079306491172
0.003115678565729
-0.000593267000981
0.022319060449034
0.035079306491172
0.003115678565729
-0.000593267000981
0.022319060449034
0.035079306491172
0.003115678565729
-0.000593267000981
0.022319060449034
0.035079306491172
0.000000000000000
-0.000000000000000
0.000000000000000
0.000000000000000
0.002816913680649
0.014661557518216
0.000861776134184
0.017809678987900
0.002816913680649
0.014661557518216
0.000861776134184
0.017809678987900
0.002816913680649
0.014661557518216
0.000861776134184
0.017809678987900
0.002816913680649
0.014661557518216
0.000861776134184
0.017809678987900
0.002816913680649
0.014661557518216
0.000861776134184
0.017809678987900
0.002816913680649
0.014661557518216
0.000861776134184
0.017809678987900
0.002816913680649
0.014661557518216
0.000861776134184
0.017809678987900
0.000000000000000
0.000000000000000
0.000000000000000
0.000000000000000
0.001585530618925
0.011932023273723
0.034346197287707
-0.011771392906154
0.001585530618925
0.011932023273723
0.034346197287707
-0.011771392906154
0.001585530618925
0.011932023273723
0.034346197287707
-0.011771392906154
0.001585530618925
0.011932023273723
0.034346197287707
-0.011771392906154
0.001585530618925
0.011932023273723
0.034346197287707
-0.011771392906154
0.001585530618925
0.011932023273723
0.034346197287707
-0.011771392906154
0.001585530618925
0.011932023273723
0.034346197287707
-0.011771392906154
0.000000000000000
0.000000000000000
0.000000000000000
-0.000000000000000
-0.021315554460592
-0.013960513510607
0.004625779988411
0.001246569149146
-0.021315554460592
-0.013960513510607
0.004625779988411
0.001246569149146
-0.021315554460592
-0.013960513510607
0.004625779988411
0.001246569149146
-0.021315554460592
-0.013960513510607
0.004625779988411
0.001246569149146
-0.021315554460592
-0.013960513510607
0.004625779988411
0.001246569149146
-0.021315554460592
-0.013960513510607
0.004625779988411
0.001246569149146
-0.021315554460592
-0.013960513510607
0.004625779988411
0.001246569149146
-0.000000000000000
-0.000000000000000
0.000000000000000
0.000000000000000
0.003115678565729
-0.000593267000981
0.022319060449034
0.035079306491172
0.003115678565729
-0.000593267000981
0.022319060449034
0.035079306491172
0.003115678565729
-0.000593267000981
0.022319060449034
0.035079306491172
0.003115678565729
-0.000593267000981
0.022319060449034
0.035079306491172
0.003115678565729
-0.000593267000981
0.022319060449034
0.035079306491172
0.003115678565729
-0.000593267000981
0.022319060449034
0.035079306491172
0.003115678565729
-0.000593267000981
0.022319060449034
0.035079306491172
0.000000000000000
-0.000000000000000
0.000000000000000
0.000000000000000
0.002816913680649
0.014661557518216
0.000861776134184
0.017809678987900
0.002816913680649
0.014661557518216
0.000861776134184
0.017809678987900
0.002816913680649
0.014661557518216
0.000861776134184
0.017809678987900
0.002816913680649
0.014661557518216
0.000861776134184
0.017809678987900
0.002816913680649
0.014661557518216
0.000861776134184
0.017809678987900
0.002816913680649
0.014661557518216
0.000861776134184
0.017809678987900
0.002816913680649
0.014661557518216
0.000861776134184
0.017809678987900
0.000000000000000
0.000000000000000
0.000000000000000
0.000000000000000
0.001585530618925
0.011932023273723
0.034346197287707
-0.011771392906154
0.001585530618925
0.011932023273723
0.034346197287707
-0.011771392906154
0.001585530618925
0.011932023273723
0.034346197287707
-0.011771392906154
0.001585530618925
0.011932023273723
0.034346197287707
-0.011771392906154
0.001585530618925
0.011932023273723
0.034346197287707
-0.011771392906154
0.001585530618925
0.011932023273723
0.034346197287707
-0.011771392906154
0.001585530618925
0.011932023273723
0.034346197287707
-0.011771392906154
0.000000000000000
0.000000000000000
0.000000000000000
-0.000000000000000
-0.021315554460592
-0.013960513510607
0.004625779988411
0.001246569149146
-0.021315554460592
-0.013960513510607
0.004625779988411
0.001246569149146
-0.021315554460592
-0.013960513510607
0.004625779988411
0.001246569149146
-0.021315554460592
-0.013960513510607
0.004625779988411
0.001246569149146
-0.021315554460592
-0.013960513510607
0.004625779988411
0.001246569149146
-0.021315554460592
-0.013960513510607
0.004625779988411
0.001246569149146
-0.021315554460592
-0.013960513510607
0.004625779988411
0.001246569149146
-0.000000000000000
-0.000000000000000
0.000000000000000
0.000000000000000
0.003115678565729
-0.000593267000981
0.022319060449034
0.035079306491172
0.003115678565729
-0.000593267000981
0.022319060449034
0.035079306491172
0.003115678565729
-0.000593267000981
0.022319060449034
0.035079306491172
0.003115678565729
-0.000593267000981
0.022319060449034
0.035079306491172
0.003115678565729
-0.000593267000981
0.022319060449034
0.035079306491172
0.003115678565729
-0.000593267000981
0.022319060449034
0.035079306491172
0.003115678565729
-0.000593267000981
0.022319060449034
0.035079306491172
0.000000000000000
-0.000000000000000
0.000000000000000
0.000000000000000
0.002816913680649
0.014661557518216
0.000861776134184
0.017809678987900
0.002816913680649
0.014661557518216
0.000861776134184
0.017809678987900
0.002816913680649
0.014661557518216
0.000861776134184
0.017809678987900
0.002816913680649
0.014661557518216
0.000861776134184
0.017809678987900
0.002816913680649
0.014661557518216
0.000861776134184
0.017809678987900
0.002816913680649
0.014661557518216
0.000861776134184
0.017809678987900
0.002816913680649
0.014661557518216
0.000861776134184
0.017809678987900
0.000000000000000
0.000000000000000
0.000000000000000
0.000000000000000
0.001585530618925
0.011932023273723
0.034346197287707
-0.011771392906154
0.001585530618925
0.011932023273723
0.034346197287707
-0.011771392906154
0.001585530618925
0.011932023273723
0.034346197287707
-0.011771392906154
0.001585530618925
0.011932023273723
0.034346197287707
-0.011771392906154
0.001585530618925
0.011932023273723
0.034346197287707
-0.011771392906154
0.001585530618925
0.011932023273723
0.034346197287707
-0.011771392906154
0.001585530618925
0.011932023273723
0.034346197287707
-0.011771392906154
0.000000000000000
0.000000000000000
0.000000000000000
-0.000000000000000
-0.021315554460592
-0.013960513510607
0.004625779988411
0.001246569149146
-0.021315554460592
-0.013960513510607
0.004625779988411
0.001246569149146
-0.021315554460592
-0.013960513510607
0.004625779988411
0.001246569149146
-0.021315554460592
-0.013960513510607
0.004625779988411
0.001246569149146
-0.021315554460592
-0.013960513510607
0.004625779988411
0.001246569149146
-0.021315554460592
-0.013960513510607
0.004625779988411
0.001246569149146
-0.021315554460592
-0.013960513510607
0.004625779988411
0.001246569149146
-0.000000000000000
-0.000000000000000
0.000000000000000
0.000000000000000
0.003115678565729
-0.000593267000981
0.022319060449034
0.035079306491172
0.003115678565729
-0.000593267000981
0.022319060449034
0.035079306491172
0.003115678565729
-0.000593267000981
0.022319060449034
0.035079306491172
0.003115678565729
-0.000593267000981
0.022319060449034
0.035079306491172
0.003115678565729
-0.000593267000981
0.022319060449034
0.035079306491172
0.003115678565729
-0.000593267000981
0.022319060449034
0.035079306491172
0.003115678565729
-0.000593267000981
0.022319060449034
0.035079306491172
0.000000000000000
-0.000000000000000
0.000000000000000
0.000000000000000
0.002816913680649
0.014661557518216
0.000861776134184
0.017809678987900
0.002816913680649
0.014661557518216
0.000861776134184
0.017809678987900
0.002816913680649
0.014661557518216
0.000861776134184
0.017809678987900
0.002816913680649
0.014661557518216
0.000861776134184
0.017809678987900
0.002816913680649
0.014661557518216
0.000861776134184
0.017809678987900
0.002816913680649
0.014661557518216
0.000861776134184
0.017809678987900
0.002816913680649
0.014661557518216
0.000861776134184
0.017809678987900
0.000000000000000
0.000000000000000
0.000000000000000
0.000000000000000
0.001585530618925
0.011932023273723
0.034346197287707
-0.011771392906154
0.001585530618925
0.011932023273723
0.034346197287707
-0.011771392906154
0.001585530618925
0.011932023273723
0.034346197287707
-0.011771392906154
0.001585530618925
0.011932023273723
0.034346197287707
-0.011771392906154
0.001585530618925
0.011932023273723
0.034346197287707
-0.011771392906154
0.001585530618925
0.011932023273723
0.034346197287707
-0.011771392906154
0.001585530618925
0.011932023273723
0.034346197287707
-0.011771392906154
0.000000000000000
0.000000000000000
0.000000000000000
-0.000000000000000
-0.021315554460592
-0.013960513510607
0.004625779988411
0.001246569149146
-0.021315554460592
-0.013960513510607
0.004625779988411
0.001246569149146
-0.021315554460592
-0.013960513510607
0.004625779988411
0.001246569149146
-0.021315554460592
-0.013960513510607
0.004625779988411
0.001246569149146
-0.021315554460592
-0.013960513510607
0.004625779988411
0.001246569149146
-0.021315554460592
-0.013960513510607
0.004625779988411
0.001246569149146
-0.021315554460592
-0.013960513510607
0.004625779988411
0.001246569149146
-0.000000000000000
-0.000000000000000
0.000000000000000
0.000000000000000
0.003115678565729
-0.000593267000981
0.022319060449034
0.035079306491172
0.003115678565729
-0.000593267000981
0.022319060449034
0.035079306491172
0.003115678565729
-0.000593267000981
0.022319060449034
0.035079306491172
0.003115678565729
-0.000593267000981
0.022319060449034
0.035079306491172
0.003115678565729
-0.000593267000981
0.022319060449034
0.035079306491172
0.003115678565729
-0.000593267000981
0.022319060449034
0.035079306491172
0.003115678565729
-0.000593267000981
0.022319060449034
0.035079306491172
0.000000000000000
-0.000000000000000
0.000000000000000
0.000000000000000
0.002816913680649
0.014661557518216
0.000861776134184
0.017809678987900
0.002816913680649
0.014661557518216
0.000861776134184
0.017809678987900
0.002816913680649
0.014661557518216
0.000861776134184
0.017809678987900
0.002816913680649
0.014661557518216
0.000861776134184
0.017809678987900
0.002816913680649
0.014661557518216
0.000861776134184
0.017809678987900
0.002816913680649
0.014661557518216
0.000861776134184
0.017809678987900
0.002816913680649
0.014661557518216
0.000861776134184
0.017809678987900
0.000000000000000
0.000000000000000
0.000000000000000
0.000000000000000
0.001585530618925
0.011932023273723
0.034346197287707
-0.011771392906154
0.001585530618925
0.011932023273723
0.034346197287707
-0.011771392906154
0.001585530618925
0.011932023273723
0.034346197287707
-0.011771392906154
0.001585530618925
0.011932023273723
0.034346197287707
-0.011771392906154
0.001585530618925
0.011932023273723
0.034346197287707
-0.011771392906154
0.001585530618925
0.011932023273723
0.034346197287707
-0.011771392906154
0.001585530618925
0.011932023273723
0.034346197287707
-0.011771392906154
0.000000000000000
0.000000000000000
0.000000000000000
-0.000000000000000
-0.021315554460592
-0.013960513510607
0.004625779988411
0.001246569149146
-0.021315554460592
-0.013960513510607
0.004625779988411
0.001246569149146
-0.021315554460592
-0.013960513510607
0.004625779988411
0.001246569149146
-0.021315554460592
-0.013960513510607
0.004625779988411
0.001246569149146
-0.021315554460592
-0.013960513510607
0.004625779988411
0.001246569149146
-0.021315554460592
-0.013960513510607
0.004625779988411
0.001246569149146
-0.021315554460592
-0.013960513510607
0.004625779988411
0.001246569149146
-0.000000000000000
-0.000000000000000
0.000000000000000
0.000000000000000
0.003115678565729
-0.000593267000981
0.022319060449034
0.035079306491172
0.003115678565729
-0.000593267000981
0.022319060449034
0.035079306491172
0.003115678565729
-0.000593267000981
0.022319060449034
0.035079306491172
0.003115678565729
-0.000593267000981
0.022319060449034
0.035079306491172
0.003115678565729
-0.000593267000981
0.022319060449034
0.035079306491172
0.003115678565729
-0.000593267000981
0.022319060449034
0.035079306491172
0.003115678565729
-0.000593267000981
0.022319060449034
0.035079306491172
0.000000000000000
-0.000000000000000
0.000000000000000
0.000000000000000
0.002816913680649
0.014661557518216
0.000861776134184
0.017809678987900
0.002816913680649
0.014661557518216
0.000861776134184
0.017809678987900
0.002816913680649
0.014661557518216
0.000861776134184
0.017809678987900
0.002816913680649
0.014661557518216
0.000861776134184
0.017809678987900
0.002816913680649
0.014661557518216
0.000861776134184
0.017809678987900
0.002816913680649
0.014661557518216
0.000861776134184
0.017809678987900
0.002816913680649
0.014661557518216
0.000861776134184
0.017809678987900
0.000000000000000
0.000000000000000
0.000000000000000
0.000000000000000
0.001585530618925
0.011932023273723
0.034346197287707
-0.011771392906154
0.001585530618925
0.011932023273723
0.034346197287707
-0.011771392906154
0.001585530618925
0.011932023273723
0.034346197287707
-0.011771392906154
0.001585530618925
0.011932023273723
0.034346197287707
-0.011771392906154
0.001585530618925
0.011932023273723
0.034346197287707
-0.011771392906154
0.001585530618925
0.011932023273723
0.034346197287707
-0.011771392906154
0.001585530618925
0.011932023273723
0.034346197287707
-0.011771392906154
0.000000000000000
0.000000000000000
0.000000000000000
-0.000000000000000
-0.021315554460592
-0.013960513510607
0.004625779988411
0.001246569149146
-0.021315554460592
-0.013960513510607
0.004625779988411
0.001246569149146
-0.021315554460592
-0.013960513510607
0.004625779988411
0.001246569149146
-0.021315554460592
-0.013960513510607
0.004625779988411
0.001246569149146
-0.021315554460592
-0.013960513510607
0.004625779988411
0.001246569149146
-0.021315554460592
-0.013960513510607
0.004625779988411
0.001246569149146
-0.021315554460592
-0.013960513510607
0.004625779988411
0.001246569149146
-0.000000000000000
-0.000000000000000
0.000000000000000
0.000000000000000
0.003115678565729
-0.000593267000981
0.022319060449034
0.035079306491172
0.003115678565729
-0.000593267000981
0.022319060449034
0.035079306491172
0.003115678565729
-0.000593267000981
0.022319060449034
0.035079306491172
0.003115678565729
-0.000593267000981
0.022319060449034
0.035079306491172
0.003115678565729
-0.000593267000981
0.022319060449034
0.035079306491172
0.003115678565729
-0.000593267000981
0.022319060449034
0.035079306491172
0.003115678565729
-0.000593267000981
0.022319060449034
0.035079306491172
0.000000000000000
-0.000000000000000
0.000000000000000
0.000000000000000
0.002816913680649
0.014661557518216
0.000861776134184
0.017809678987900
0.002816913680649
0.014661557518216
0.000861776134184
0.017809678987900
0.002816913680649
0.014661557518216
0.000861776134184
0.017809678987900
0.002816913680649
0.014661557518216
0.000861776134184
0.017809678987900
0.002816913680649
0.014661557518216
0.000861776134184
0.017809678987900
0.002816913680649
0.014661557518216
0.000861776134184
0.017809678987900
0.002816913680649
0.014661557518216
0.000861776134184
0.017809678987900
0.000000000000000
0.000000000000000
0.000000000000000
0.000000000000000
0.000000000000000
0.000000000000000
0.000000000000000
-0.000000000000000
0.000000000000000
0.000000000000000
0.000000000000000
-0.000000000000000
0.000000000000000
0.000000000000000
0.000000000000000
-0.000000000000000
0.000000000000000
0.000000000000000
0.000000000000000
-0.000000000000000
0.000000000000000
0.000000000000000
0.000000000000000
-0.000000000000000
0.000000000000000
0.000000000000000
0.000000000000000
-0.000000000000000
0.000000000000000
0.000000000000000
0.000000000000000
-0.000000000000000
0.000000000000000
0.000000000000000
0.000000000000000
-0.000000000000000
-0.000000000000000
-0.000000000000000
0.000000000000000
0.000000000000000
-0.000000000000000
-0.000000000000000
0.000000000000000
0.000000000000000
-0.000000000000000
-0.000000000000000
0.000000000000000
0.000000000000000
-0.000000000000000
-0.000000000000000
0.000000000000000
0.000000000000000
-0.000000000000000
-0.000000000000000
0.000000000000000
0.000000000000000
-0.000000000000000
-0.000000000000000
0.000000000000000
0.000000000000000
-0.000000000000000
-0.000000000000000
0.000000000000000
0.000000000000000
-0.000000000000000
-0.000000000000000
0.000000000000000
0.000000000000000
0.000000000000000
-0.000000000000000
0.000000000000000
0.000000000000000
0.000000000000000
-0.000000000000000
0.000000000000000
0.000000000000000
0.000000000000000
-0.000000000000000
0.000000000000000
0.000000000000000
0.000000000000000
-0.000000000000000
0.000000000000000
0.000000000000000
0.000000000000000
-0.000000000000000
0.000000000000000
0.000000000000000
0.000000000000000
-0.000000000000000
0.000000000000000
0.000000000000000
0.000000000000000
-0.000000000000000
0.000000000000000
0.000000000000000
0.000000000000000
-0.000000000000000
0.000000000000000
0.000000000000000
0.000000000000000
0.000000000000000
0.000000000000000
0.000000000000000
0.000000000000000
0.000000000000000
0.000000000000000
0.000000000000000
0.000000000000000
0.000000000000000
0.000000000000000
0.000000000000000
0.000000000000000
0.000000000000000
0.000000000000000
0.000000000000000
0.000000000000000
0.000000000000000
0.000000000000000
0.000000000000000
0.000000000000000
0.000000000000000
0.000000000000000
0.000000000000000
0.000000000000000
0.000000000000000
0.000000000000000
0.000000000000000
0.000000000000000
0.000000000000000
0.000000000000000
0.000000000000000
0.001399128561167
-0.006519164038019
-0.000682265916159
0.005608294293756
0.001399128561167
-0.006519164038019
-0.000682265916159
0.005608294293756
0.001399128561167
-0.006519164038019
-0.000682265916159
0.005608294293756
0.001399128561167
-0.006519164038019
-0.000682265916159
0.005608294293756
0.001399128561167
-0.006519164038019
-0.000682265916159
0.005608294293756
0.001399128561167
-0.006519164038019
-0.000682265916159
0.005608294293756
0.001399128561167
-0.006519164038019
-0.000682265916159
0.005608294293756
0.000000000000000
-0.000000000000000
-0.000000000000000
0.000000000000000
-0.019184707550492
0.013536167347802
0.013263035511821
0.003159781540904
-0.019184707550492
0.013536167347802
0.013263035511821
0.003159781540904
-0.019184707550492
0.013536167347802
0.013263035511821
0.003159781540904
-0.019184707550492
0.013536167347802
0.013263035511821
0.003159781540904
-0.019184707550492
0.013536167347802
0.013263035511821
0.003159781540904
-0.019184707550492
0.013536167347802
0.013263035511821
0.003159781540904
-0.019184707550492
0.013536167347802
0.013263035511821
0.003159781540904
-0.000000000000000
0.000000000000000
0.000000000000000
0.000000000000000
-0.011051570140550
0.014392202763233
-0.002932752311214
-0.017058993026923
-0.011051570140550
0.014392202763233
-0.002932752311214
-0.017058993026923
-0.011051570140550
0.014392202763233
-0.002932752311214
-0.017058993026923
-0.011051570140550
0.014392202763233
-0.002932752311214
-0.017058993026923
-0.011051570140550
0.014392202763233
-0.002932752311214
-0.017058993026923
-0.011051570140550
0.014392202763233
-0.002932752311214
-0.017058993026923
-0.011051570140550
0.014392202763233
-0.002932752311214
-0.017058993026923
-0.000000000000000
0.000000000000000
-0.000000000000000
-0.000000000000000
-0.016039916577523
-0.005677421541445
-0.002253953088866
0.001234447829682
-0.016039916577523
-0.005677421541445
-0.002253953088866
0.001234447829682
-0.016039916577523
-0.005677421541445
-0.002253953088866
0.001234447829682
-0.016039916577523
-0.005677421541445
-0.002253953088866
0.001234447829682
-0.016039916577523
-0.005677421541445
-0.002253953088866
0.001234447829682
-0.016039916577523
-0.005677421541445
-0.002253953088866
0.001234447829682
-0.016039916577523
-0.005677421541445
-0.002253953088866
0.001234447829682
-0.000000000000000
-0.000000000000000
-0.000000000000000
0.000000000000000
0.001399128561167
-0.006519164038019
-0.000682265916159
0.005608294293756
0.001399128561167
-0.006519164038019
-0.000682265916159
0.005608294293756
0.001399128561167
-0.006519164038019
-0.000682265916159
0.005608294293756
0.001399128561167
-0.006519164038019
-0.000682265916159
0.005608294293756
0.001399128561167
-0.006519164038019
-0.000682265916159
0.005608294293756
0.001399128561167
-0.006519164038019
-0.000682265916159
0.005608294293756
0.001399128561167
-0.006519164038019
-0.000682265916159
0.005608294293756
0.000000000000000
-0.000000000000000
-0.000000000000000
0.000000000000000
-0.019184707550492
0.013536167347802
0.013263035511821
0.003159781540904
-0.019184707550492
0.013536167347802
0.013263035511821
0.003159781540904
-0.019184707550492
0.013536167347802
0.013263035511821
0.003159781540904
-0.019184707550492
0.013536167347802
0.013263035511821
0.003159781540904
-0.019184707550492
0.013536167347802
0.013263035511821
0.003159781540904
-0.019184707550492
0.013536167347802
0.013263035511821
0.003159781540904
-0.019184707550492
0.013536167347802
0.013263035511821
0.003159781540904
-0.000000000000000
0.000000000000000
0.000000000000000
0.000000000000000
-0.011051570140550
0.014392202763233
-0.002932752311214
-0.017058993026923
-0.011051570140550
0.014392202763233
-0.002932752311214
-0.017058993026923
-0.011051570140550
0.014392202763233
-0.002932752311214
-0.017058993026923
-0.011051570140550
0.014392202763233
-0.002932752311214
-0.017058993026923
-0.011051570140550
0.014392202763233
-0.002932752311214
-0.017058993026923
-0.011051570140550
0.014392202763233
-0.002932752311214
-0.017058993026923
-0.011051570140550
0.014392202763233
-0.002932752311214
-0.017058993026923
-0.000000000000000
0.000000000000000
-0.000000000000000
-0.000000000000000
-0.016039916577523
-0.005677421541445
-0.002253953088866
0.001234447829682
-0.016039916577523
-0.005677421541445
-0.002253953088866
0.001234447829682
-0.016039916577523
-0.005677421541445
-0.002253953088866
0.001234447829682
-0.016039916577523
-0.005677421541445
-0.002253953088866
0.001234447829682
-0.016039916577523
-0.005677421541445
-0.002253953088866
0.001234447829682
-0.016039916577523
-0.005677421541445
-0.002253953088866
0.001234447829682
-0.016039916577523
-0.005677421541445
-0.002253953088866
0.001234447829682
-0.000000000000000
-0.000000000000000
-0.000000000000000
0.000000000000000
0.001399128561167
-0.006519164038019
-0.000682265916159
0.005608294293756
0.001399128561167
-0.006519164038019
-0.000682265916159
0.005608294293756
0.001399128561167
-0.006519164038019
-0.000682265916159
0.005608294293756
0.001399128561167
-0.006519164038019
-0.000682265916159
0.005608294293756
0.001399128561167
-0.006519164038019
-0.000682265916159
0.005608294293756
0.001399128561167
-0.006519164038019
-0.000682265916159
0.005608294293756
0.001399128561167
-0.006519164038019
-0.000682265916159
0.005608294293756
0.000000000000000
-0.000000000000000
-0.000000000000000
0.000000000000000
-0.019184707550492
0.013536167347802
0.013263035511821
0.003159781540904
-0.019184707550492
0.013536167347802
0.013263035511821
0.003159781540904
-0.019184707550492
0.013536167347802
0.013263035511821
0.003159781540904
-0.019184707550492
0.013536167347802
0.013263035511821
0.003159781540904
-0.019184707550492
0.013536167347802
0.013263035511821
0.003159781540904
-0.019184707550492
0.013536167347802
0.013263035511821
0.003159781540904
-0.019184707550492
0.013536167347802
0.013263035511821
0.003159781540904
-0.000000000000000
0.000000000000000
0.000000000000000
0.000000000000000
-0.011051570140550
0.014392202763233
-0.002932752311214
-0.017058993026923
-0.011051570140550
0.014392202763233
-0.002932752311214
-0.017058993026923
-0.011051570140550
0.014392202763233
-0.002932752311214
-0.017058993026923
-0.011051570140550
0.014392202763233
-0.002932752311214
-0.017058993026923
-0.011051570140550
0.014392202763233
-0.002932752311214
-0.017058993026923
-0.011051570140550
0.014392202763233
-0.002932752311214
-0.017058993026923
-0.011051570140550
0.014392202763233
-0.002932752311214
-0.017058993026923
-0.000000000000000
0.000000000000000
-0.000000000000000
-0.000000000000000
-0.016039916577523
-0.005677421541445
-0.002253953088866
0.001234447829682
-0.016039916577523
-0.005677421541445
-0.002253953088866
0.001234447829682
-0.016039916577523
-0.005677421541445
-0.002253953088866
0.001234447829682
-0.016039916577523
-0.005677421541445
-0.002253953088866
0.001234447829682
-0.016039916577523
-0.005677421541445
-0.002253953088866
0.001234447829682
-0.016039916577523
-0.005677421541445
-0.002253953088866
0.001234447829682
-0.016039916577523
-0.005677421541445
-0.002253953088866
0.001234447829682
-0.000000000000000
-0.000000000000000
-0.000000000000000
0.000000000000000
0.001399128561167
-0.006519164038019
-0.000682265916159
0.005608294293756
0.001399128561167
-0.006519164038019
-0.000682265916159
0.005608294293756
0.001399128561167
-0.006519164038019
-0.000682265916159
0.005608294293756
0.001399128561167
-0.006519164038019
-0.000682265916159
0.005608294293756
0.001399128561167
-0.006519164038019
-0.000682265916159
0.005608294293756
0.001399128561167
-0.006519164038019
-0.000682265916159
0.005608294293756
0.001399128561167
-0.006519164038019
-0.000682265916159
0.005608294293756
0.000000000000000
-0.000000000000000
-0.000000000000000
0.000000000000000
-0.019184707550492
0.013536167347802
0.013263035511821
0.003159781540904
-0.019184707550492
0.013536167347802
0.013263035511821
0.003159781540904
-0.019184707550492
0.013536167347802
0.013263035511821
0.003159781540904
-0.019184707550492
0.013536167347802
0.013263035511821
0.003159781540904
-0.019184707550492
0.013536167347802
0.013263035511821
0.003159781540904
-0.019184707550492
0.013536167347802
0.013263035511821
0.003159781540904
-0.019184707550492
0.013536167347802
0.013263035511821
0.003159781540904
-0.000000000000000
0.000000000000000
0.000000000000000
0.000000000000000
-0.011051570140550
0.014392202763233
-0.002932752311214
-0.017058993026923
-0.011051570140550
0.014392202763233
-0.002932752311214
-0.017058993026923
-0.011051570140550
0.014392202763233
-0.002932752311214
-0.017058993026923
-0.011051570140550
0.014392202763233
-0.002932752311214
-0.017058993026923
-0.011051570140550
0.014392202763233
-0.002932752311214
-0.017058993026923
-0.011051570140550
0.014392202763233
-0.002932752311214
-0.017058993026923
-0.011051570140550
0.014392202763233
-0.002932752311214
-0.017058993026923
-0.000000000000000
0.000000000000000
-0.000000000000000
-0.000000000000000
-0.016039916577523
-0.005677421541445
-0.002253953088866
0.001234447829682
-0.016039916577523
-0.005677421541445
-0.002253953088866
0.001234447829682
-0.016039916577523
-0.005677421541445
-0.002253953088866
0.001234447829682
-0.016039916577523
-0.005677421541445
-0.002253953088866
0.001234447829682
-0.016039916577523
-0.005677421541445
-0.002253953088866
0.001234447829682
-0.016039916577523
-0.005677421541445
-0.002253953088866
0.001234447829682
-0.016039916577523
-0.005677421541445
-0.002253953088866
0.001234447829682
-0.000000000000000
-0.000000000000000
-0.000000000000000
0.000000000000000
0.001399128561167
-0.006519164038019
-0.000682265916159
0.005608294293756
0.001399128561167
-0.006519164038019
-0.000682265916159
0.005608294293756
0.001399128561167
-0.006519164038019
-0.000682265916159
0.005608294293756
0.001399128561167
-0.006519164038019
-0.000682265916159
0.005608294293756
0.001399128561167
-0.006519164038019
-0.000682265916159
0.005608294293756
0.001399128561167
-0.006519164038019
-0.000682265916159
0.005608294293756
0.001399128561167
-0.006519164038019
-0.000682265916159
0.005608294293756
0.000000000000000
-0.000000000000000
-0.000000000000000
0.000000000000000
-0.019184707550492
0.013536167347802
0.013263035511821
0.003159781540904
-0.019184707550492
0.013536167347802
0.013263035511821
0.003159781540904
-0.019184707550492
0.013536167347802
0.013263035511821
0.003159781540904
-0.019184707550492
0.013536167347802
0.013263035511821
0.003159781540904
-0.019184707550492
0.013536167347802
0.013263035511821
0.003159781540904
-0.019184707550492
0.013536167347802
0.013263035511821
0.003159781540904
-0.019184707550492
0.013536167347802
0.013263035511821
0.003159781540904
-0.000000000000000
0.000000000000000
0.000000000000000
0.000000000000000
-0.011051570140550
0.014392202763233
-0.002932752311214
-0.017058993026923
-0.011051570140550
0.014392202763233
-0.002932752311214
-0.017058993026923
-0.011051570140550
0.014392202763233
-0.002932752311214
-0.017058993026923
-0.011051570140550
0.014392202763233
-0.002932752311214
-0.017058993026923
-0.011051570140550
0.014392202763233
-0.002932752311214
-0.017058993026923
-0.011051570140550
0.014392202763233
-0.002932752311214
-0.017058993026923
-0.011051570140550
0.014392202763233
-0.002932752311214
-0.017058993026923
-0.000000000000000
0.000000000000000
-0.000000000000000
-0.000000000000000
-0.016039916577523
-0.005677421541445
-0.002253953088866
0.001234447829682
-0.016039916577523
-0.005677421541445
-0.002253953088866
0.001234447829682
-0.016039916577523
-0.005677421541445
-0.002253953088866
0.001234447829682
-0.016039916577523
-0.005677421541445
-0.002253953088866
0.001234447829682
-0.016039916577523
-0.005677421541445
-0.002253953088866
0.001234447829682
-0.016039916577523
-0.005677421541445
-0.002253953088866
0.001234447829682
-0.016039916577523
-0.005677421541445
-0.002253953088866
0.001234447829682
-0.000000000000000
-0.000000000000000
-0.000000000000000
0.000000000000000
0.001399128561167
-0.006519164038019
-0.000682265916159
0.005608294293756
0.001399128561167
-0.006519164038019
-0.000682265916159
0.005608294293756
0.001399128561167
-0.006519164038019
-0.000682265916159
0.005608294293756
0.001399128561167
-0.006519164038019
-0.000682265916159
0.005608294293756
0.001399128561167
-0.006519164038019
-0.000682265916159
0.005608294293756
0.001399128561167
-0.006519164038019
-0.000682265916159
0.005608294293756
0.001399128561167
-0.006519164038019
-0.000682265916159
0.005608294293756
0.000000000000000
-0.000000000000000
-0.000000000000000
0.000000000000000
-0.019184707550492
0.013536167347802
0.013263035511821
0.003159781540904
-0.019184707550492
0.013536167347802
0.013263035511821
0.003159781540904
-0.019184707550492
0.013536167347802
0.013263035511821
0.003159781540904
-0.019184707550492
0.013536167347802
0.013263035511821
0.003159781540904
-0.019184707550492
0.013536167347802
0.013263035511821
0.003159781540904
-0.019184707550492
0.013536167347802
0.013263035511821
0.003159781540904
-0.019184707550492
0.013536167347802
0.013263035511821
0.003159781540904
-0.000000000000000
0.000000000000000
0.000000000000000
0.000000000000000
-0.011051570140550
0.014392202763233
-0.002932752311214
-0.017058993026923
-0.011051570140550
0.014392202763233
-0.002932752311214
-0.017058993026923
-0.011051570140550
0.014392202763233
-0.002932752311214
-0.017058993026923
-0.011051570140550
0.014392202763233
-0.002932752311214
-0.017058993026923
-0.011051570140550
0.014392202763233
-0.002932752311214
-0.017058993026923
-0.011051570140550
0.014392202763233
-0.002932752311214
-0.017058993026923
-0.011051570140550
0.014392202763233
-0.002932752311214
-0.017058993026923
-0.000000000000000
0.000000000000000
-0.000000000000000
-0.000000000000000
-0.016039916577523
-0.005677421541445
-0.002253953088866
0.001234447829682
-0.016039916577523
-0.005677421541445
-0.002253953088866
0.001234447829682
-0.016039916577523
-0.005677421541445
-0.002253953088866
0.001234447829682
-0.016039916577523
-0.005677421541445
-0.002253953088866
0.001234447829682
-0.016039916577523
-0.005677421541445
-0.002253953088866
0.001234447829682
-0.016039916577523
-0.005677421541445
-0.002253953088866
0.001234447829682
-0.016039916577523
-0.005677421541445
-0.002253953088866
0.001234447829682
-0.000000000000000
-0.000000000000000
-0.000000000000000
0.000000000000000
0.001399128561167
-0.006519164038019
-0.000682265916159
0.005608294293756
0.001399128561167
-0.006519164038019
-0.000682265916159
0.005608294293756
0.001399128561167
-0.006519164038019
-0.000682265916159
0.005608294293756
0.001399128561167
-0.006519164038019
-0.000682265916159
0.005608294293756
0.001399128561167
-0.006519164038019
-0.000682265916159
0.005608294293756
0.001399128561167
-0.006519164038019
-0.000682265916159
0.005608294293756
0.001399128561167
-0.006519164038019
-0.000682265916159
0.005608294293756
0.000000000000000
-0.000000000000000
-0.000000000000000
0.000000000000000
-0.019184707550492
0.013536167347802
0.013263035511821
0.003159781540904
-0.019184707550492
0.013536167347802
0.013263035511821
0.003159781540904
-0.019184707550492
0.013536167347802
0.013263035511821
0.003159781540904
-0.019184707550492
0.013536167347802
0.013263035511821
0.003159781540904
-0.019184707550492
0.013536167347802
0.013263035511821
0.003159781540904
-0.019184707550492
0.013536167347802
0.013263035511821
0.003159781540904
-0.019184707550492
0.013536167347802
0.013263035511821
0.003159781540904
-0.000000000000000
0.000000000000000
0.000000000000000
0.000000000000000
-0.011051570140550
0.014392202763233
-0.002932752311214
-0.017058993026923
-0.011051570140550
0.014392202763233
-0.002932752311214
-0.017058993026923
-0.011051570140550
0.014392202763233
-0.002932752311214
-0.017058993026923
-0.011051570140550
0.014392202763233
-0.002932752311214
-0.017058993026923
-0.011051570140550
0.014392202763233
-0.002932752311214
-0.017058993026923
-0.011051570140550
0.014392202763233
-0.002932752311214
-0.017058993026923
-0.011051570140550
0.014392202763233
-0.002932752311214
-0.017058993026923
-0.000000000000000
0.000000000000000
-0.000000000000000
-0.000000000000000
-0.016039916577523
-0.005677421541445
-0.002253953088866
0.001234447829682
-0.016039916577523
-0.005677421541445
-0.002253953088866
0.001234447829682
-0.016039916577523
-0.005677421541445
-0.002253953088866
0.001234447829682
-0.016039916577523
-0.005677421541445
-0.002253953088866
0.001234447829682
-0.016039916577523
-0.005677421541445
-0.002253953088866
0.001234447829682
-0.016039916577523
-0.005677421541445
-0.002253953088866
0.001234447829682
-0.016039916577523
-0.005677421541445
-0.002253953088866
0.001234447829682
-0.000000000000000
-0.000000000000000
-0.000000000000000
0.000000000000000
0.000000000000000
-0.000000000000000
-0.000000000000000
0.000000000000000
0.000000000000000
-0.000000000000000
-0.000000000000000
0.000000000000000
0.000000000000000
-0.000000000000000
-0.000000000000000
0.000000000000000
0.000000000000000
-0.000000000000000
-0.000000000000000
0.000000000000000
0.000000000000000
-0.000000000000000
-0.000000000000000
0.000000000000000
0.000000000000000
-0.000000000000000
-0.000000000000000
0.000000000000000
0.000000000000000
-0.000000000000000
-0.000000000000000
0.000000000000000
0.000000000000000
-0.000000000000000
-0.000000000000000
0.000000000000000
-0.000000000000000
0.000000000000000
0.000000000000000
0.000000000000000
-0.000000000000000
0.000000000000000
0.000000000000000
0.000000000000000
-0.000000000000000
0.000000000000000
0.000000000000000
0.000000000000000
-0.000000000000000
0.000000000000000
0.000000000000000
0.000000000000000
-0.000000000000000
0.000000000000000
0.000000000000000
0.000000000000000
-0.000000000000000
0.000000000000000
0.000000000000000
0.000000000000000
-0.000000000000000
0.000000000000000
0.000000000000000
0.000000000000000
-0.000000000000000
0.000000000000000
0.000000000000000
0.000000000000000
-0.000000000000000
0.000000000000000
-0.000000000000000
-0.000000000000000
-0.000000000000000
0.000000000000000
-0.000000000000000
-0.000000000000000
-0.000000000000000
0.000000000000000
-0.000000000000000
-0.000000000000000
-0.000000000000000
0.000000000000000
-0.000000000000000
-0.000000000000000
-0.000000000000000
0.000000000000000
-0.000000000000000
-0.000000000000000
-0.000000000000000
0.000000000000000
-0.000000000000000
-0.000000000000000
-0.000000000000000
0.000000000000000
-0.000000000000000
-0.000000000000000
-0.000000000000000
0.000000000000000
-0.000000000000000
-0.000000000000000
-0.000000000000000
-0.000000000000000
-0.000000000000000
0.000000000000000
-0.000000000000000
-0.000000000000000
-0.000000000000000
0.000000000000000
-0.000000000000000
-0.000000000000000
-0.000000000000000
0.000000000000000
-0.000000000000000
-0.000000000000000
-0.000000000000000
0.000000000000000
-0.000000000000000
-0.000000000000000
-0.000000000000000
0.000000000000000
-0.000000000000000
-0.000000000000000
-0.000000000000000
0.000000000000000
-0.000000000000000
-0.000000000000000
-0.000000000000000
0.000000000000000
-0.000000000000000
-0.000000000000000
-0.000000000000000
0.000000000000000
0.002237351198429
-0.004532606499781
-0.010358085448163
-0.020720243712755
0.002237351198429
-0.004532606499781
-0.010358085448163
-0.020720243712755
0.002237351198429
-0.004532606499781
-0.010358085448163
-0.020720243712755
0.002237351198429
-0.004532606499781
-0.010358085448163
-0.020720243712755
0.002237351198429
-0.004532606499781
-0.010358085448163
-0.020720243712755
0.002237351198429
-0.004532606499781
-0.010358085448163
-0.020720243712755
0.002237351198429
-0.004532606499781
-0.010358085448163
-0.020720243712755
0.000000000000000
-0.000000000000000
-0.000000000000000
-0.000000000000000
-0.012387122925589
-0.001767397766689
-0.003080562112182
-0.002774462052093
-0.012387122925589
-0.001767397766689
-0.003080562112182
-0.002774462052093
-0.012387122925589
-0.001767397766689
-0.003080562112182
-0.002774462052093
-0.012387122925589
-0.001767397766689
-0.003080562112182
-0.002774462052093
-0.012387122925589
-0.001767397766689
-0.003080562112182
-0.002774462052093
-0.012387122925589
-0.001767397766689
-0.003080562112182
-0.002774462052093
-0.012387122925589
-0.001767397766689
-0.003080562112182
-0.002774462052093
-0.000000000000000
-0.000000000000000
-0.000000000000000
-0.000000000000000
0.005766884357782
-0.007753565466845
0.001997103229518
0.003356528865670
0.005766884357782
-0.007753565466845
0.001997103229518
0.003356528865670
0.005766884357782
-0.007753565466845
0.001997103229518
0.003356528865670
0.005766884357782
-0.007753565466845
0.001997103229518
0.003356528865670
0.005766884357782
-0.007753565466845
0.001997103229518
0.003356528865670
0.005766884357782
-0.007753565466845
0.001997103229518
0.003356528865670
0.005766884357782
-0.007753565466845
0.001997103229518
0.003356528865670
0.000000000000000
-0.000000000000000
0.000000000000000
0.000000000000000
-0.016609547323900
-0.014010430858376
0.029573282810034
-0.010178065117029
-0.016609547323900
-0.014010430858376
0.029573282810034
-0.010178065117029
-0.016609547323900
-0.014010430858376
0.029573282810034
-0.010178065117029
-0.016609547323900
-0.014010430858376
0.029573282810034
-0.010178065117029
-0.016609547323900
-0.014010430858376
0.029573282810034
-0.010178065117029
-0.016609547323900
-0.014010430858376
0.029573282810034
-0.010178065117029
-0.016609547323900
-0.014010430858376
0.029573282810034
-0.010178065117029
-0.000000000000000
-0.000000000000000
0.000000000000000
-0.000000000000000
0.002237351198429
-0.004532606499781
-0.010358085448163
-0.020720243712755
0.002237351198429
-0.004532606499781
-0.010358085448163
-0.020720243712755
0.002237351198429
-0.004532606499781
-0.010358085448163
-0.020720243712755
0.002237351198429
-0.004532606499781
-0.010358085448163
-0.020720243712755
0.002237351198429
-0.004532606499781
-0.010358085448163
-0.020720243712755
0.002237351198429
-0.004532606499781
-0.010358085448163
-0.020720243712755
0.002237351198429
-0.004532606499781
-0.010358085448163
-0.020720243712755
0.000000000000000
-0.000000000000000
-0.000000000000000
-0.000000000000000
-0.012387122925589
-0.001767397766689
-0.003080562112182
-0.002774462052093
-0.012387122925589
-0.001767397766689
-0.003080562112182
-0.002774462052093
-0.012387122925589
-0.001767397766689
-0.003080562112182
-0.002774462052093
-0.012387122925589
-0.001767397766689
-0.003080562112182
-0.002774462052093
-0.012387122925589
-0.001767397766689
-0.003080562112182
-0.002774462052093
-0.012387122925589
-0.001767397766689
-0.003080562112182
-0.002774462052093
-0.012387122925589
-0.001767397766689
-0.003080562112182
-0.002774462052093
-0.000000000000000
-0.000000000000000
-0.000000000000000
-0.000000000000000
0.005766884357782
-0.007753565466845
0.001997103229518
0.003356528865670
0.005766884357782
-0.007753565466845
0.001997103229518
0.003356528865670
0.005766884357782
-0.007753565466845
0.001997103229518
0.003356528865670
0.005766884357782
-0.007753565466845
0.001997103229518
0.003356528865670
0.005766884357782
-0.007753565466845
0.001997103229518
0.003356528865670
0.005766884357782
-0.007753565466845
0.001997103229518
0.003356528865670
0.005766884357782
-0.007753565466845
0.001997103229518
0.003356528865670
0.000000000000000
-0.000000000000000
0.000000000000000
0.000000000000000
-0.016609547323900
-0.014010430858376
0.029573282810034
-0.010178065117029
-0.016609547323900
-0.014010430858376
0.029573282810034
-0.010178065117029
-0.016609547323900
-0.014010430858376
0.029573282810034
-0.010178065117029
-0.016609547323900
-0.014010430858376
0.029573282810034
-0.010178065117029
-0.016609547323900
-0.014010430858376
0.029573282810034
-0.010178065117029
-0.016609547323900
-0.014010430858376
0.029573282810034
-0.010178065117029
-0.016609547323900
-0.014010430858376
0.029573282810034
-0.010178065117029
-0.000000000000000
-0.000000000000000
0.000000000000000
-0.000000000000000
0.002237351198429
-0.004532606499781
-0.010358085448163
-0.020720243712755
0.002237351198429
-0.004532606499781
-0.010358085448163
-0.020720243712755
0.002237351198429
-0.004532606499781
-0.010358085448163
-0.020720243712755
0.002237351198429
-0.004532606499781
-0.010358085448163
-0.020720243712755
0.002237351198429
-0.004532606499781
-0.010358085448163
-0.020720243712755
0.002237351198429
-0.004532606499781
-0.010358085448163
-0.020720243712755
0.002237351198429
-0.004532606499781
-0.010358085448163
-0.020720243712755
0.000000000000000
-0.000000000000000
-0.000000000000000
-0.000000000000000
-0.012387122925589
-0.001767397766689
-0.003080562112182
-0.002774462052093
-0.012387122925589
-0.001767397766689
-0.003080562112182
-0.002774462052093
-0.012387122925589
-0.001767397766689
-0.003080562112182
-0.002774462052093
-0.012387122925589
-0.001767397766689
-0.003080562112182
-0.002774462052093
-0.012387122925589
-0.001767397766689
-0.003080562112182
-0.002774462052093
-0.012387122925589
-0.001767397766689
-0.003080562112182
-0.002774462052093
-0.012387122925589
-0.001767397766689
-0.003080562112182
-0.002774462052093
-0.000000000000000
-0.000000000000000
-0.000000000000000
-0.000000000000000
0.005766884357782
-0.007753565466845
0.001997103229518
0.003356528865670
0.005766884357782
-0.007753565466845
0.001997103229518
0.003356528865670
0.005766884357782
-0.007753565466845
0.001997103229518
0.003356528865670
0.005766884357782
-0.007753565466845
0.001997103229518
0.003356528865670
0.005766884357782
-0.007753565466845
0.001997103229518
0.003356528865670
0.005766884357782
-0.007753565466845
0.001997103229518
0.003356528865670
0.005766884357782
-0.007753565466845
0.001997103229518
0.003356528865670
0.000000000000000
-0.000000000000000
0.000000000000000
0.000000000000000
-0.016609547323900
-0.014010430858376
0.029573282810034
-0.010178065117029
-0.016609547323900
-0.014010430858376
0.029573282810034
-0.010178065117029
-0.016609547323900
-0.014010430858376
0.029573282810034
-0.010178065117029
-0.016609547323900
-0.014010430858376
0.029573282810034
-0.010178065117029
-0.016609547323900
-0.014010430858376
0.029573282810034
-0.010178065117029
-0.016609547323900
-0.014010430858376
0.029573282810034
-0.010178065117029
-0.016609547323900
-0.014010430858376
0.029573282810034
-0.010178065117029
-0.000000000000000
-0.000000000000000
0.000000000000000
-0.000000000000000
0.002237351198429
-0.004532606499781
-0.010358085448163
-0.020720243712755
0.002237351198429
-0.004532606499781
-0.010358085448163
-0.020720243712755
0.002237351198429
-0.004532606499781
-0.010358085448163
-0.020720243712755
0.002237351198429
-0.004532606499781
-0.010358085448163
-0.020720243712755
0.002237351198429
-0.004532606499781
-0.010358085448163
-0.020720243712755
0.002237351198429
-0.004532606499781
-0.010358085448163
-0.020720243712755
0.002237351198429
-0.004532606499781
-0.010358085448163
-0.020720243712755
0.000000000000000
-0.000000000000000
-0.000000000000000
-0.000000000000000
-0.012387122925589
-0.001767397766689
-0.003080562112182
-0.002774462052093
-0.012387122925589
-0.001767397766689
-0.003080562112182
-0.002774462052093
-0.012387122925589
-0.001767397766689
-0.003080562112182
-0.002774462052093
-0.012387122925589
-0.001767397766689
-0.003080562112182
-0.002774462052093
-0.012387122925589
-0.001767397766689
-0.003080562112182
-0.002774462052093
-0.012387122925589
-0.001767397766689
-0.003080562112182
-0.002774462052093
-0.012387122925589
-0.001767397766689
-0.003080562112182
-0.002774462052093
-0.000000000000000
-0.000000000000000
-0.000000000000000
-0.000000000000000
0.005766884357782
-0.007753565466845
0.001997103229518
0.003356528865670
0.005766884357782
-0.007753565466845
0.001997103229518
0.003356528865670
0.005766884357782
-0.007753565466845
0.001997103229518
0.003356528865670
0.005766884357782
-0.007753565466845
0.001997103229518
0.003356528865670
0.005766884357782
-0.007753565466845
0.001997103229518
0.003356528865670
0.005766884357782
-0.007753565466845
0.001997103229518
0.003356528865670
0.005766884357782
-0.007753565466845
0.001997103229518
0.003356528865670
0.000000000000000
-0.000000000000000
0.000000000000000
0.000000000000000
-0.016609547323900
-0.014010430858376
0.029573282810034
-0.010178065117029
-0.016609547323900
-0.014010430858376
0.029573282810034
-0.010178065117029
-0.016609547323900
-0.014010430858376
0.029573282810034
-0.010178065117029
-0.016609547323900
-0.014010430858376
0.029573282810034
-0.010178065117029
-0.016609547323900
-0.014010430858376
0.029573282810034
-0.010178065117029
-0.016609547323900
-0.014010430858376
0.029573282810034
-0.010178065117029
-0.016609547323900
-0.014010430858376
0.029573282810034
-0.010178065117029
-0.000000000000000
-0.000000000000000
0.000000000000000
-0.000000000000000
0.002237351198429
-0.004532606499781
-0.010358085448163
-0.020720243712755
0.002237351198429
-0.004532606499781
-0.010358085448163
-0.020720243712755
0.002237351198429
-0.004532606499781
-0.010358085448163
-0.020720243712755
0.002237351198429
-0.004532606499781
-0.010358085448163
-0.020720243712755
0.002237351198429
-0.004532606499781
-0.010358085448163
-0.020720243712755
0.002237351198429
-0.004532606499781
-0.010358085448163
-0.020720243712755
0.002237351198429
-0.004532606499781
-0.010358085448163
-0.020720243712755
0.000000000000000
-0.000000000000000
-0.000000000000000
-0.000000000000000
-0.012387122925589
-0.001767397766689
-0.003080562112182
-0.002774462052093
-0.012387122925589
-0.001767397766689
-0.003080562112182
-0.002774462052093
-0.012387122925589
-0.001767397766689
-0.003080562112182
-0.002774462052093
-0.012387122925589
-0.001767397766689
-0.003080562112182
-0.002774462052093
-0.012387122925589
-0.001767397766689
-0.003080562112182
-0.002774462052093
-0.012387122925589
-0.001767397766689
-0.003080562112182
-0.002774462052093
-0.012387122925589
-0.001767397766689
-0.003080562112182
-0.002774462052093
-0.000000000000000
-0.000000000000000
-0.000000000000000
-0.000000000000000
0.005766884357782
-0.007753565466845
0.001997103229518
0.003356528865670
0.005766884357782
-0.007753565466845
0.001997103229518
0.003356528865670
0.005766884357782
-0.007753565466845
0.001997103229518
0.003356528865670
0.005766884357782
-0.007753565466845
0.001997103229518
0.003356528865670
0.005766884357782
-0.007753565466845
0.001997103229518
0.003356528865670
0.005766884357782
-0.007753565466845
0.001997103229518
0.003356528865670
0.005766884357782
-0.007753565466845
0.001997103229518
0.003356528865670
0.000000000000000
-0.000000000000000
0.000000000000000
0.000000000000000
-0.016609547323900
-0.014010430858376
0.029573282810034
-0.010178065117029
-0.016609547323900
-0.014010430858376
0.029573282810034
-0.010178065117029
-0.016609547323900
-0.014010430858376
0.029573282810034
-0.010178065117029
-0.016609547323900
-0.014010430858376
0.029573282810034
-0.010178065117029
-0.016609547323900
-0.014010430858376
0.029573282810034
-0.010178065117029
-0.016609547323900
-0.014010430858376
0.029573282810034
-0.010178065117029
-0.016609547323900
-0.014010430858376
0.029573282810034
-0.010178065117029
-0.000000000000000
-0.000000000000000
0.000000000000000
-0.000000000000000
0.002237351198429
-0.004532606499781
-0.010358085448163
-0.020720243712755
0.002237351198429
-0.004532606499781
-0.010358085448163
-0.020720243712755
0.002237351198429
-0.004532606499781
-0.010358085448163
-0.020720243712755
0.002237351198429
-0.004532606499781
-0.010358085448163
-0.020720243712755
0.002237351198429
-0.004532606499781
-0.010358085448163
-0.020720243712755
0.002237351198429
-0.004532606499781
-0.010358085448163
-0.020720243712755
0.002237351198429
-0.004532606499781
-0.010358085448163
-0.020720243712755
0.000000000000000
-0.000000000000000
-0.000000000000000
-0.000000000000000
-0.012387122925589
-0.001767397766689
-0.003080562112182
-0.002774462052093
-0.012387122925589
-0.001767397766689
-0.003080562112182
-0.002774462052093
-0.012387122925589
-0.001767397766689
-0.003080562112182
-0.002774462052093
-0.012387122925589
-0.001767397766689
-0.003080562112182
-0.002774462052093
-0.012387122925589
-0.001767397766689
-0.003080562112182
-0.002774462052093
-0.012387122925589
-0.001767397766689
-0.003080562112182
-0.002774462052093
-0.012387122925589
-0.001767397766689
-0.003080562112182
-0.002774462052093
-0.000000000000000
-0.000000000000000
-0.000000000000000
-0.000000000000000
0.005766884357782
-0.007753565466845
0.001997103229518
0.003356528865670
0.005766884357782
-0.007753565466845
0.001997103229518
0.003356528865670
0.005766884357782
-0.007753565466845
0.001997103229518
0.003356528865670
0.005766884357782
-0.007753565466845
0.001997103229518
0.003356528865670
0.005766884357782
-0.007753565466845
0.001997103229518
0.003356528865670
0.005766884357782
-0.007753565466845
0.001997103229518
0.003356528865670
0.005766884357782
-0.007753565466845
0.001997103229518
0.003356528865670
0.000000000000000
-0.000000000000000
0.000000000000000
0.000000000000000
-0.016609547323900
-0.014010430858376
0.029573282810034
-0.010178065117029
-0.016609547323900
-0.014010430858376
0.029573282810034
-0.010178065117029
-0.016609547323900
-0.014010430858376
0.029573282810034
-0.010178065117029
-0.016609547323900
-0.014010430858376
0.029573282810034
-0.010178065117029
-0.016609547323900
-0.014010430858376
0.029573282810034
-0.010178065117029
-0.016609547323900
-0.014010430858376
0.029573282810034
-0.010178065117029
-0.016609547323900
-0.014010430858376
0.029573282810034
-0.010178065117029
-0.000000000000000
-0.000000000000000
0.000000000000000
-0.000000000000000
0.002237351198429
-0.004532606499781
-0.010358085448163
-0.020720243712755
0.002237351198429
-0.004532606499781
-0.010358085448163
-0.020720243712755
0.002237351198429
-0.004532606499781
-0.010358085448163
-0.020720243712755
0.002237351198429
-0.004532606499781
-0.010358085448163
-0.020720243712755
0.002237351198429
-0.004532606499781
-0.010358085448163
-0.020720243712755
0.002237351198429
-0.004532606499781
-0.010358085448163
-0.020720243712755
0.002237351198429
-0.004532606499781
-0.010358085448163
-0.020720243712755
0.000000000000000
-0.000000000000000
-0.000000000000000
-0.000000000000000
-0.012387122925589
-0.001767397766689
-0.003080562112182
-0.002774462052093
-0.012387122925589
-0.001767397766689
-0.003080562112182
-0.002774462052093
-0.012387122925589
-0.001767397766689
-0.003080562112182
-0.002774462052093
-0.012387122925589
-0.001767397766689
-0.003080562112182
-0.002774462052093
-0.012387122925589
-0.001767397766689
-0.003080562112182
-0.002774462052093
-0.012387122925589
-0.001767397766689
-0.003080562112182
-0.002774462052093
-0.012387122925589
-0.001767397766689
-0.003080562112182
-0.002774462052093
-0.000000000000000
-0.000000000000000
-0.000000000000000
-0.000000000000000
0.005766884357782
-0.007753565466845
0.001997103229518
0.003356528865670
0.005766884357782
-0.007753565466845
0.001997103229518
0.003356528865670
0.005766884357782
-0.007753565466845
0.001997103229518
0.003356528865670
0.005766884357782
-0.007753565466845
0.001997103229518
0.003356528865670
0.005766884357782
-0.007753565466845
0.001997103229518
0.003356528865670
0.005766884357782
-0.007753565466845
0.001997103229518
0.003356528865670
0.005766884357782
-0.007753565466845
0.001997103229518
0.003356528865670
0.000000000000000
-0.000000000000000
0.000000000000000
0.000000000000000
-0.016609547323900
-0.014010430858376
0.029573282810034
-0.010178065117029
-0.016609547323900
-0.014010430858376
0.029573282810034
-0.010178065117029
-0.016609547323900
-0.014010430858376
0.029573282810034
-0.010178065117029
-0.016609547323900
-0.014010430858376
0.029573282810034
-0.010178065117029
-0.016609547323900
-0.014010430858376
0.029573282810034
-0.010178065117029
-0.016609547323900
-0.014010430858376
0.029573282810034
-0.010178065117029
-0.016609547323900
-0.014010430858376
0.029573282810034
-0.010178065117029
-0.000000000000000
-0.000000000000000
0.000000000000000
-0.000000000000000
0.000000000000000
-0.000000000000000
-0.000000000000000
-0.000000000000000
0.000000000000000
-0.000000000000000
-0.000000000000000
-0.000000000000000
0.000000000000000
-0.000000000000000
-0.000000000000000
-0.000000000000000
0.000000000000000
-0.000000000000000
-0.000000000000000
-0.000000000000000
0.000000000000000
-0.000000000000000
-0.000000000000000
-0.000000000000000
0.000000000000000
-0.000000000000000
-0.000000000000000
-0.000000000000000
0.000000000000000
-0.000000000000000
-0.000000000000000
-0.000000000000000
0.000000000000000
-0.000000000000000
-0.000000000000000
-0.000000000000000
-0.000000000000000
-0.000000000000000
-0.000000000000000
-0.000000000000000
-0.000000000000000
-0.000000000000000
-0.000000000000000
-0.000000000000000
-0.000000000000000
-0.000000000000000
-0.000000000000000
-0.000000000000000
-0.000000000000000
-0.000000000000000
-0.000000000000000
-0.000000000000000
-0.000000000000000
-0.000000000000000
-0.000000000000000
-0.000000000000000
-0.000000000000000
-0.000000000000000
-0.000000000000000
-0.000000000000000
-0.000000000000000
-0.000000000000000
-0.000000000000000
-0.000000000000000
-0.000000000000000
-0.000000000000000
-0.000000000000000
-0.000000000000000
0.000000000000000
-0.000000000000000
0.000000000000000
0.000000000000000
0.000000000000000
-0.000000000000000
0.000000000000000
0.000000000000000
0.000000000000000
-0.000000000000000
0.000000000000000
0.000000000000000
0.000000000000000
-0.000000000000000
0.000000000000000
0.000000000000000
0.000000000000000
-0.000000000000000
0.000000000000000
0.000000000000000
0.000000000000000
-0.000000000000000
0.000000000000000
0.000000000000000
0.000000000000000
-0.000000000000000
0.000000000000000
0.000000000000000
0.000000000000000
-0.000000000000000
0.000000000000000
0.000000000000000
-0.000000000000000
-0.000000000000000
0.000000000000000
-0.000000000000000
-0.000000000000000
-0.000000000000000
0.000000000000000
-0.000000000000000
-0.000000000000000
-0.000000000000000
0.000000000000000
-0.000000000000000
-0.000000000000000
-0.000000000000000
0.000000000000000
-0.000000000000000
-0.000000000000000
-0.000000000000000
0.000000000000000
-0.000000000000000
-0.000000000000000
-0.000000000000000
0.000000000000000
-0.000000000000000
-0.000000000000000
-0.000000000000000
0.000000000000000
-0.000000000000000
-0.000000000000000
-0.000000000000000
0.000000000000000
-0.000000000000000
-0.011059739930533
-0.007356537358438
-0.022001640320729
0.010616040482338
-0.011059739930533
-0.007356537358438
-0.022001640320729
0.010616040482338
-0.011059739930533
-0.007356537358438
-0.022001640320729
0.010616040482338
-0.011059739930533
-0.007356537358438
-0.022001640320729
0.010616040482338
-0.011059739930533
-0.007356537358438
-0.022001640320729
0.010616040482338
-0.011059739930533
-0.007356537358438
-0.022001640320729
0.010616040482338
-0.011059739930533
-0.007356537358438
-0.022001640320729
0.010616040482338
-0.000000000000000
-0.000000000000000
-0.000000000000000
0.000000000000000
-0.019063077898887
-0.013679035979154
0.004636117382999
-0.014494667053096
-0.019063077898887
-0.013679035979154
0.004636117382999
-0.014494667053096
-0.019063077898887
-0.013679035979154
0.004636117382999
-0.014494667053096
-0.019063077898887
-0.013679035979154
0.004636117382999
-0.014494667053096
-0.019063077898887
-0.013679035979154
0.004636117382999
-0.014494667053096
-0.019063077898887
-0.013679035979154
0.004636117382999
-0.014494667053096
-0.019063077898887
-0.013679035979154
0.004636117382999
-0.014494667053096
-0.000000000000000
-0.000000000000000
0.000000000000000
-0.000000000000000
-0.024380095927880
-0.003130727402643
0.003827983889017
0.000491596784139
-0.024380095927880
-0.003130727402643
0.003827983889017
0.000491596784139
-0.024380095927880
-0.003130727402643
0.003827983889017
0.000491596784139
-0.024380095927880
-0.003130727402643
0.003827983889017
0.000491596784139
-0.024380095927880
-0.003130727402643
0.003827983889017
0.000491596784139
-0.024380095927880
-0.003130727402643
0.003827983889017
0.000491596784139
-0.024380095927880
-0.003130727402643
0.003827983889017
0.000491596784139
-0.000000000000000
-0.000000000000000
0.000000000000000
0.000000000000000
0.001916164651393
0.001554024851235
-0.018468036189938
0.003027873797274
0.001916164651393
0.001554024851235
-0.018468036189938
0.003027873797274
0.001916164651393
0.001554024851235
-0.018468036189938
0.003027873797274
0.001916164651393
0.001554024851235
-0.018468036189938
0.003027873797274
0.001916164651393
0.001554024851235
-0.018468036189938
0.003027873797274
0.001916164651393
0.001554024851235
-0.018468036189938
0.003027873797274
0.001916164651393
0.001554024851235
-0.018468036189938
0.003027873797274
0.000000000000000
0.000000000000000
-0.000000000000000
0.000000000000000
-0.011059739930533
-0.007356537358438
-0.022001640320729
0.010616040482338
-0.011059739930533
-0.007356537358438
-0.022001640320729
0.010616040482338
-0.011059739930533
-0.007356537358438
-0.022001640320729
0.010616040482338
-0.011059739930533
-0.007356537358438
-0.022001640320729
0.010616040482338
-0.011059739930533
-0.007356537358438
-0.022001640320729
0.010616040482338
-0.011059739930533
-0.007356537358438
-0.022001640320729
0.010616040482338
-0.011059739930533
-0.007356537358438
-0.022001640320729
0.010616040482338
-0.000000000000000
-0.000000000000000
-0.000000000000000
0.000000000000000
-0.019063077898887
-0.013679035979154
0.004636117382999
-0.014494667053096
-0.019063077898887
-0.013679035979154
0.004636117382999
-0.014494667053096
-0.019063077898887
-0.013679035979154
0.004636117382999
-0.014494667053096
-0.019063077898887
-0.013679035979154
0.004636117382999
-0.014494667053096
-0.019063077898887
-0.013679035979154
0.004636117382999
-0.014494667053096
-0.019063077898887
-0.013679035979154
0.004636117382999
-0.014494667053096
-0.019063077898887
-0.013679035979154
0.004636117382999
-0.014494667053096
-0.000000000000000
-0.000000000000000
0.000000000000000
-0.000000000000000
-0.024380095927880
-0.003130727402643
0.003827983889017
0.000491596784139
-0.024380095927880
-0.003130727402643
0.003827983889017
0.000491596784139
-0.024380095927880
-0.003130727402643
0.003827983889017
0.000491596784139
-0.024380095927880
-0.003130727402643
0.003827983889017
0.000491596784139
-0.024380095927880
-0.003130727402643
0.003827983889017
0.000491596784139
-0.024380095927880
-0.003130727402643
0.003827983889017
0.000491596784139
-0.024380095927880
-0.003130727402643
0.003827983889017
0.000491596784139
-0.000000000000000
-0.000000000000000
0.000000000000000
0.000000000000000
0.001916164651393
0.001554024851235
-0.018468036189938
0.003027873797274
0.001916164651393
0.001554024851235
-0.018468036189938
0.003027873797274
0.001916164651393
0.001554024851235
-0.018468036189938
0.003027873797274
0.001916164651393
0.001554024851235
-0.018468036189938
0.003027873797274
0.001916164651393
0.001554024851235
-0.018468036189938
0.003027873797274
0.001916164651393
0.001554024851235
-0.018468036189938
0.003027873797274
0.001916164651393
0.001554024851235
-0.018468036189938
0.003027873797274
0.000000000000000
0.000000000000000
-0.000000000000000
0.000000000000000
-0.011059739930533
-0.007356537358438
-0.022001640320729
0.010616040482338
-0.011059739930533
-0.007356537358438
-0.022001640320729
0.010616040482338
-0.011059739930533
-0.007356537358438
-0.022001640320729
0.010616040482338
-0.011059739930533
-0.007356537358438
-0.022001640320729
0.010616040482338
-0.011059739930533
-0.007356537358438
-0.022001640320729
0.010616040482338
-0.011059739930533
-0.007356537358438
-0.022001640320729
0.010616040482338
