16 16 3
-0.05996542
-0.06885707
-0.05347219
-0.03699229
-0.1842594
-0.1292222
0.1856481
0.1122044
0.0965458
0.1339355
0.1527769
0.114338
0.1011783
0.1179298
0.03846734
0.05254177
-0.01259134
0.06210094
0.1552596
0.002148184
-0.0803003
0.1196599
0.0001954787
-0.01534805
0.01027136
0.1346791
0.1184583
0.1314078
-0.02739896
-0.01998962
-0.03761313
-0.1870947
-0.09892303
0.04231082
-0.04036498
-0.05740539
-0.1868755
-0.1640948
-0.0989574
-0.2623336
-0.4254431
-0.3655969
-0.1060093
-0.2639656
-0.1411905
0.01259235
0.1490005
0.2284276
-0.1180469
-0.1686849
-0.0180478
0.003523515
-0.01033551
-0.005550615
-0.03738108
-0.02303077
0.0827804
-0.1284705
-0.17472
0.004916416
-0.03438747
0.006612732
-0.03432108
-0.03482343
0.004154114
0.03079651
-0.02487918
0.00374287
0.002881609
0.06842957
0.114173
0.1125705
-0.1694546
-0.3059843
-0.02658977
-0.2696145
-0.46539
-0.1783844
-0.03766047
-0.1965168
-0.06810298
-0.2121123
-0.1169024
0.2117313
-0.1021723
-0.2095453
-0.03956685
-0.02194389
-0.02583123
-0.04470697
0.07927179
-0.145838
-0.2662052
0.01274677
-0.2292655
-0.3584843
0.05910245
-0.1641742
-0.2536166
-0.0141813
0.0260824
0.01494524
-0.1228656
-0.1622398
0.05790334
-0.0276763
0.006906731
0.07647132
-0.1638824
-0.2591881
-0.2824869
-0.2587305
-0.3273151
-0.2883757
-0.2406211
-0.2232682
-0.1680024
-0.0980401
-0.06919234
0.03204994
-0.211549
-0.1947497
-0.05218107
-0.1394127
-0.1385656
0.119627
0.1142436
0.06066447
0.04164258
0.08436052
0.0276352
0.01757498
0.003719621
-0.01994447
-0.0271998
-0.04373858
0.1013487
0.1715591
-0.128776
-0.09140008
0.01494357
0.09193142
-0.0469426
-0.03329953
-0.0653733
-0.08638911
-0.1411508
0.07852095
-0.07805735
-0.1317531
0.1798436
0.05158641
-0.08599505
0.08659434
0.08183138
0.1610573
-0.008749285
-0.1436505
-0.09751255
0.003245339
-0.08245324
-0.05012839
-0.06248482
-0.438426
-0.1708214
-0.26961
-0.3989355
-0.1261132
-0.2139054
-0.1609859
-0.008263104
-0.1757123
-0.2092469
-0.1732792
-0.1753226
-0.4081377
-0.2173731
0.03010137
-0.1938931
-0.1902595
0.1825564
0.03682452
-0.01181268
0.009195535
0.02577199
0.114205
0.03472981
0.1135709
0.09826503
-0.2176146
-0.2880863
-0.1244419
-0.04776783
-0.0728642
-0.08259878
-0.1112615
-0.06497727
0.05496766
-0.4409814
-0.5572155
-0.374566
-0.5379327
-0.641388
-0.5245376
-0.4516946
-0.5266854
-0.1991857
-0.02759291
-0.009598984
0.0361944
-0.1774528
-0.1608467
-0.07229023
-0.05284662
-0.08492789
-0.01895267
-0.08366481
0.05664431
0.1945362
-0.05508484
0.1845326
0.1021487
0.02585166
0.1322994
0.1171905
0.1145846
0.2019649
0.2252751
0.1147296
0.3924573
0.3583582
0.03492637
0.2396664
0.2485312
-0.1040965
0.01965062
-0.1024677
0.000351343
0.1547811
0.08841094
-0.007351533
0.1595249
0.1243407
0.1124192
0.1870986
0.08668225
0.162113
0.259194
0.281143
0.1441654
0.1804895
0.2432114
0.1996581
0.1418577
0.1151934
-0.001935897
0.004709563
0.04340164
-0.1201499
-0.05836229
0.1025581
-0.035611
-0.06452659
-0.09070649
-0.004503054
0.0086209
0.01297191
0.02895402
0.09180572
0.1122816
0.005107971
-0.1206276
-0.1531199
-0.03973205
-0.1536581
-0.161307
-0.09481008
-0.1443771
-0.1247537
0.0028545
0.0730571
-0.03399944
0.01575957
0.05109112
-0.009662314
0.1617463
0.1710043
0.09124286
0.01662236
0.02727506
0.07993068
-0.01398038
-0.0118234
0.04644005
-0.1064075
-0.07849824
-0.04675724
0.09633756
0.09339216
-0.01157494
0.08120984
0.09572988
-0.02968846
0.09150281
0.08028257
0.008705459
0.06751986
0.0602945
0.1281394
-0.05323653
0.02332795
0.15781
-0.1287854
-0.0007648504
0.09275316
-0.1518833
0.01168883
0.05181071
-0.05779864
0.03473556
0.1233905
-0.02652345
0.01624459
0.09315094
0.07015141
0.08061816
0.04790838
-0.0198398
0.05534217
0.0742854
-0.09638727
0.09767114
0.04690241
0.108219
0.0003118606
-0.001393924
0.04379019
0.05575116
0.05019934
0.01378043
-0.117126
-0.0850917
0.0372761
0.02943585
0.06059597
-0.004277463
0.0584306
0.0667266
-0.008363197
-0.08232423
-0.1106341
0.1588064
0.2311069
0.1619165
0.1081848
0.1925288
0.1029679
0.03274802
0.124268
0.06976398
-0.0749224
-0.03901852
0.1054884
-0.06688125
-0.07304265
0.04270485
-0.1009275
-0.1057378
-0.09879214
0.03185725
0.1248663
0.1253591
0.07311472
0.06897253
0.1311509
-0.006334836
0.07816569
0.1092869
-0.01008263
0.1126954
0.04949329
-0.01919408
0.07424617
0.06952522
0.0329573
0.04228849
-0.01755084
0.04755693
0.01926715
0.09827289
0.002334205
0.01012212
0.0941474
-0.0438375
-0.0001821486
0.04756585
0.08716515
0.1355487
0.109185
0.02262143
0.05009278
0.1140144
-0.1030386
-0.01379005
0.1015405
-0.1535854
-0.1341238
-0.04135616
-0.1838224
-0.1262207
-0.06825101
-0.1750755
-0.1344455
-0.09216852
0.0466738
0.0535056
0.0121781
0.05082627
0.05443049
-0.0484283
-0.0009896093
-0.02464768
-0.04051977
-0.1719984
-0.1217611
-0.08500215
-0.1751155
-0.1373509
-0.1299383
-0.0871734
-0.09274501
-0.04674692
-0.1396978
-0.3998017
-0.1887924
-0.08684911
-0.248622
-0.2845828
0.1039349
-0.03942942
-0.1016843
0.01937584
-0.1525277
-0.1325231
0.1608321
0.187876
0.2302207
-0.1391282
-0.07952606
0.02867573
-0.1544476
-0.05792128
0.1716348
-0.2715764
-0.1962611
-0.1171736
-0.1064699
-0.2592831
-0.2350617
-0.2404093
-0.1171582
0.02171054
-0.1325146
-0.1442814
-0.147815
-0.2130071
-0.2996015
-0.1990286
-0.1405208
-0.2709724
0.08791021
-0.4088501
-0.7793252
-0.2904254
-0.4771812
-0.4505684
-0.2562687
0.2443925
0.391945
0.08707988
0.1434106
0.3475847
0.2145021
0.3225576
0.2077655
0.1022115
0.2031876
0.1750143
-0.0486769
-0.2614571
-0.1785618
-0.1566482
0.1615944
0.2078978
0.01683219
-0.2008111
-0.1998515
-0.1142149
0.03968139
-0.02501737
0.1047032
0.1051629
0.084668
0.1692891
0.1157822
0.06034743
-0.2701492
-0.005958488
-0.07575528
-0.02683777
0.09238242
-0.03311395
-0.05196325
-0.04481223
0.02374104
-0.01719699
0.1860468
-0.04738958
0.04321067
0.1964617
0.06213877
0.01127734
0.09222375
0.0829462
-0.06804913
-0.01784389
0.04301553
-0.0496538
-0.1220705
-0.004382483
-0.01465322
-0.04151309
-0.1125315
0.01118504
-0.01599317
0.1580861
-0.1503053
0.06578258
0.1743646
0.06567738
-0.02356984
-0.02279908
0.02288412
-0.1907469
-0.207477
-0.1915912
-0.04903333
-0.1473865
-0.1307867
0.2086611
0.13453
0.2070668
0.03728827
0.06085796
0.09751889
0.0255446
0.04369145
0.1711155
0.09230461
0.1624141
0.1400482
0.2838675
0.228142
-0.02614357
-0.02515725
-0.07137675
0.1765238
0.1106537
0.08409552
-0.002270761
0.2249799
0.2110122
0.2311819
0.2202476
0.05286804
0.1273043
0.05933293
-0.06915279
-0.1121631
-0.03031196
-0.2088726
-0.1204477
0.06807707
-0.09042488
-0.09138167
-0.1364989
-0.004201147
-0.05940988
-0.05241922
-0.1054139
-0.1320218
0.08678496
0.09251856
0.05237427
-0.02302181
0.1510665
0.2384143
0.07095996
-0.06176351
-0.0596556
0.05982159
-0.07355446
0.08566652
0.1011044
0.1206954
0.04322229
-0.07668051
-0.2129506
0.1207279
-0.03431959
0.09129397
0.01021968
-0.03999216
-0.09639313
0.106191
-0.2497705
-0.06774858
-0.07867997
0.07796071
-0.02287419
0.02032309
0.2732913
-0.2336781
-0.1281223
0.4150102
0.2639171
-0.0313731
-0.07860656
-0.06606551
0.06129781
-0.1381505
-0.02659662
-0.04184965
0.2350938
0.2711761
0.09976391
-0.08499091
-0.07189891
-0.1574803
0.04653452
-0.0008742069
0.03629077
-0.1078853
-0.1061156
-0.04284396
-0.09926819
-0.1067878
-0.06735443
0.08397619
-0.2355567
0.03386789
-0.002516408
-0.1021577
-0.2416773
-0.005142719
-0.06863231
-0.1219771
0.2494301
0.151542
-0.2861146
0.1477295
0.1395014
-0.2527398
0.1441166
0.08700223
-0.01777854
-0.02283737
0.07099465
0.007584431
-0.2211664
0.01057758
-0.0768934
-0.1144592
0.03543286
0.01240247
-0.08082522
0.2073963
-0.1362218
0.2266615
-0.1293899
0.244404
0.05579397
0.08694014
0.02467546
0.03722673
0.06680061
-0.03495036
-0.01988887
0.003583333
-0.06952185
0.05512252
-0.06361435
-0.08280314
-0.03209992
-0.1810105
-0.1905876
-0.04423292
-0.08243772
-0.1647866
0.07373757
-0.1204155
-0.190814
0.1561228
0.264246
-0.01242102
0.02316608
-0.1058545
0.2705042
-0.005264609
0.1540272
-0.08073135
-0.1098757
-0.08513795
-0.1381585
0.004046045
-0.1545152
-0.0453407
0.05493414
-0.006520702
0.08580358
0.05253829
-0.06443214
0.121675
0.1046147
-0.01912188
0.07871067
0.05336297
0.02009488
0.005274989
0.08131588
0.06084156
-0.07864299
0.1096247
0.07970426
0.01559201
0.1413346
0.004212469
-0.01580548
-0.1238366
-0.2092802
-0.1858308
-0.0227903
-0.2892492
-0.1547998
0.1332629
0.04174918
0.03669021
0.02670932
-0.1974985
-0.166062
0.121321
-0.1758482
-0.1228966
-0.02828806
-0.04727057
-0.143971
0.0234333
0.103098
-0.1319576
-0.03226721
0.1476164
-0.1456226
-0.1174445
0.06886989
-0.0888141
0.03578202
0.1168819
0.1932816
0.2477649
0.1375206
0.012325
0.2449481
0.2459501
0.0829428
0.05949249
0.0112625
-0.1161825
0.1878795
-0.03439649
-0.2171253
0.2278694
0.1059635
0.006421491
0.04445087
0.1349669
0.0355572
-0.04884114
-0.007872785
-0.07816433
-0.08415136
-0.04132111
-0.1843359
-0.165094
0.2688895
0.2722547
-0.03811219
0.02973396
0.4637504
0.05145629
-0.009775426
0.1659293
0.0725944
0.02611899
0.1901565
0.1004357
0.2484079
0.1416359
-0.05374764
0.05808974
0.1335384
0.009065378
0.1086648
0.09026402
-0.03140166
0.185024
0.07423545
-0.01677942
0.1730743
0.1175135
0.1178489
0.1695292
-0.08967938
0.1092231
0.1627501
0.1772226
0.08184984
0.1198645
0.2845635
-0.01658093
0.07044442
0.1141605
-0.03533804
-0.01897491
-0.01492747
-0.06715979
-0.02331819
-0.009986918
-0.1827005
0.04073809
0.2136279
-0.07847331
-0.007259631
0.1179865
0.0854979
0.07104884
0.068871
0.07954413
-0.06741161
-0.1432495
0.1557416
0.04472596
-0.1095229
0.1357016
0.08378257
0.03321595
0.02452548
-0.06105157
-0.2305087
-0.05519789
0.2058048
0.03921141
0.1119632
0.1735027
0.1804091
0.09569892
0.008883553
-0.05936506
-0.009261767
-0.1918097
-0.1011104
0.03793048
-0.02722388
-0.01422805
0.09750588
0.06925387
0.1078544
0.1340836
0.0262973
0.01475021
0.2726169
0.2557038
0.153738
-0.1197634
-0.1955154
-0.1372603
-0.3321363
-0.3851935
-0.3345593
-0.1833087
-0.1845699
-0.1854147
0.1036833
0.07116728
-0.06183989
-0.1384033
-0.2567018
-0.1163296
-0.09706981
-0.1797199
-0.08353508
-0.1649809
-0.09398185
-0.0869055
-0.3007075
-0.3280095
-0.3167213
-0.06746165
-0.2044501
-0.2251835
-0.07688386
-0.1927249
-0.1537429
0.04949832
0.1714905
0.1786779
-0.04009188
-0.04787658
-0.0443031
0.06891728
-0.1273342
-0.1056295
0.08158825
-0.0293891
0.03161421
-0.2088545
-0.2899175
-0.05262075
-0.04259445
0.02705707
0.007858948
-0.1335462
-0.03924669
-0.05252717
-0.02165754
0.01200468
-0.004253465
-0.1131833
-0.2179242
0.2220818
-0.06959226
-0.1548396
-0.0335208
0.1234141
0.07535933
0.0001787942
-0.02048822
0.1131626
0.05300286
-0.09843944
-0.1155735
-0.02598804
-0.05503019
-0.2320524
-0.09233926
0.06616855
0.01974096
-0.04131446
0.1085284
-0.0368094
-0.08694476
0.2654225
0.0980344
-0.0530185
-0.1254067
-0.1464591
-0.08771148
-0.1363322
-0.3508784
-0.293208
-0.1130202
-0.3354517
-0.3547682
-0.02525726
-0.06212848
-0.1424234
-0.01185975
-0.04689727
-0.1486629
-0.02075566
-0.0217556
-0.1505984
-0.08456257
-0.1019653
0.03181173
-0.01499757
-0.05014032
0.0401187
-0.06341349
-0.1403619
-0.001735038
-0.03233762
-0.02389482
-0.2017253
-0.2797895
-0.4267935
-0.3198008
-0.2927249
-0.3438947
-0.391458
0.1020753
0.1408731
0.2497282
0.1485545
0.1137859
0.09493767
0.08324292
0.1550541
0.06954881
-0.06946903
0.07820279
0.05366376
-0.04450881
0.2034634
0.0183545
-0.0789994
0.1553112
-0.0009216157
-0.05409267
-0.07489908
-0.0333223
-0.1227902
-0.0156191
-0.06015685
-0.2041093
-0.0985318
-0.06997156
0.01037906
-0.1368315
-0.05769827
0.1650728
0.1677866
-0.02715639
0.1260274
0.2103993
0.03387892
0.02923541
-0.1574504
-0.1786352
0.1200831
0.002641452
-0.139901
0.03549746
-0.03258501
-0.1231481
-0.2928728
-0.2304501
0.01687233
0.1298113
0.1767967
0.4379605
0.2798109
0.284429
0.5814403
0.1398944
0.3500576
0.03147646
0.08236698
0.3091695
-0.03532497
-0.06370284
-0.05466055
-0.0869594
0.1624098
0.06768589
-0.1039165
-0.02724616
-0.06515301
-0.222839
0.01774386
-0.007441735
-0.1256253
0.02304239
-0.08339234
0.03149397
-0.1486865
-0.24386
-0.1337802
-0.1130243
-0.2479277
-0.07788749
0.06785005
0.3844896
-0.1582071
0.06473929
0.4396469
0.05651737
-0.01735206
0.04148022
-0.0639872
0.06791227
0.2844271
0.1816385
0.02908935
0.4304498
0.3730384
0.03252469
-0.01092837
0.03350407
0.03552813
0.08533571
0.0164719
0.07990095
0.1705776
0.1793085
0.1409897
0.09056864
0.1914704
0.002947922
0.03319698
0.1033507
0.02381764
0.1535403
0.1286164
0.02343409
0.1662538
0.06055066
-0.01447882
-0.02352008
0.0002872653
0.09669779
0.1253956
-0.04935101
0.02578052
0.05991441
-0.1632056
-0.05710279
-0.1898203
-0.1410866
0.09454272
-0.1733377
-0.144293
0.1726993
0.1043018
0.001306092
-0.144827
-0.01880024
0.1284815
-0.06535513
0.003927941
0.0408737
-0.09654522
-0.1030536
0.05303594
-0.08200471
-0.0588465
-0.07761313
-0.1658768
0.1078544
-0.05667446
-0.3053341
0.02242891
0.08494359
0.12184
0.217289
0.1584714
0.051169
0.2093056
0.163499
-0.04919869
0.09353905
0.1063273
-0.05648041
-0.06200873
-0.008367869
-0.1015951
-0.1550318
-0.101096
0.01549923
-0.02590204
0.002656893
-0.05462114
-0.06777138
0.06677584
-0.115004
-0.04903929
0.04426328
-0.1579278
0.05753038
0.07633925
0.06916059
0.08730174
0.03139111
-0.08232714
0.09094819
-0.05602228
-0.03005498
0.05170425
-0.002432425
0.01509258
0.005425924
0.08230457
0.05658381
0.04965183
0.1762453
0.07529738
0.02090395
0.184617
-0.0793834
-0.3138247
-0.2535847
0.00579501
-0.1905712
-0.192633
-0.05378225
-0.1750128
-0.1709387
-0.1372135
-0.2961533
-0.2280131
0.001475278
-0.1114587
-0.04407282
-0.114068
-0.2472027
-0.001832124
-0.0471824
-0.137721
0.02197919
-0.07475428
-0.1393628
-0.0375081
0.02907712
-0.03089697
0.1023108
0.09126746
-0.1098759
-0.1160151
0.04111322
-0.008457138
-0.2443325
-0.01613588
-0.0633333
-0.2393312
0.08199292
-0.05125458
-0.1149585
0.06638781
-0.08526594
-0.07730894
0.1195034
-0.1134648
-0.079169
-0.01831436
0.01424093
-0.1842299
0.04302492
0.02981086
-0.1368273
-0.01497177
0.0402514
-0.105091
0.08130326
0.05286549
0.009353718
0.01720574
-0.02915908
0.04073979
0.01178808
0.0505332
-0.1215046
-0.1450151
0.05861425
-0.0412486
-0.140928
0.1256365
-0.02722762
-0.09471685
0.1059968
-0.04811845
0.09858349
0.08023136
0.05097724
0.2140729
0.1459608
0.0748827
0.1725648
0.1787486
0.06173053
-0.001807071
-0.01899942
0.01485287
-0.1026208
-0.002964081
0.1344154
0.03701902
0.08686822
0.01384053
0.06638294
0.05355104
-0.06403175
-0.07050318
0.005977117
-0.1183563
-0.07255299
0.009431824
-0.04532994
0.03641089
-0.01183181
-0.08523811
0.150653
0.09374476
0.09479088
0.0491338
0.1923051
0.1877163
-0.04126049
-0.09848817
-0.09723811
-0.02383798
-0.07078352
0.01061888
0.1214682
-0.02912294
0.03086476
0.2231418
0.1705445
-0.02691757
0.2849515
0.3302701
0.03971568
0.1911227
0.165605
0.001612141
-0.02991374
0.05127316
-0.08976058
0.156188
0.2414937
0.1168755
0.1219744
0.1959602
0.1118256
-0.1399903
-0.2075068
-0.07822077
-0.2736303
-0.2754605
-0.09606586
-0.1862338
-0.1635669
-0.1313711
-0.2560144
-0.3522708
-0.1746826
-0.4541328
-0.6917462
-0.3400595
-0.4084035
-0.3526094
-0.1709851
0.1042638
-0.1225501
-0.0121223
-0.01641731
-0.2425251
-0.1583662
-0.1827399
-0.1705895
-0.09185869
0.04678459
0.01746966
-0.01310528
0.01514304
-0.05248005
-0.1104123
-0.005864802
0.0601657
0.09661993
-0.2240235
-0.3150625
-0.2739712
-0.2632519
-0.5676842
-0.3740438
-0.1496104
-0.2941181
-0.05109016
-0.06727349
-0.2356151
-0.2203682
-0.115741
-0.2984136
-0.3441953
-0.07382253
-0.2130103
-0.1897563
0.03865445
-0.003967193
0.02357727
-0.1621673
-0.1405423
0.03958765
-0.2414089
-0.08136201
0.1728181
0.1116605
-0.03277275
0.06193939
0.1214245
0.09765916
0.01323466
0.03508595
0.1681772
-0.02834387
0.1080948
0.2519133
0.06091533
0.161255
0.205415
0.01516651
0.1437387
0.08573188
0.02228373
-0.06389474
0.1580322
0.1439082
0.06978021
0.3044805
0.2437558
0.2323454
0.4056851
0.2765632
0.002616969
0.19206
0.120292
0.2551797
0.2751533
0.2045569
0.3208175
0.3496209
0.2296519
0.02659838
-0.009499568
0.03261709
-0.04281031
-0.05730825
-0.02341828
0.1783315
0.1384473
0.2418704
0.09946742
0.02621463
-0.2384596
0.1440925
0.1614726
-0.1379913
0.07390025
0.1246276
0.01391038
-0.1185516
-0.006245693
-0.002037645
-0.09611133
0.01756542
0.04206057
-0.07018104
-0.01026281
-0.06136373
-0.1041991
-0.1318675
-0.1697593
-0.0157888
-0.09086164
-0.1922799
-0.009305283
-0.003526824
-0.1068981
-0.02771985
-0.09356327
-0.2299021
-0.03732365
-0.1421339
-0.1955837
-0.1311949
-0.07150789
0.006827331
0.1144988
-0.1618672
-0.1662497
0.1703579
0.03149949
0.03111637
0.2749098
0.09258567
0.1137457
-0.2574554
-0.1109742
0.2271101
-0.05698979
-0.04890108
-0.07622378
-0.03386177
0.008640664
-0.1474889
-0.09170072
0.198103
0.09680676
0.2650761
0.5572261
0.3560717
0.03946619
0.3564677
0.280798
-0.1156868
-0.05246624
-0.06088011
-0.1539442
-0.1185769
-0.1236659
-0.1153916
-0.06029288
-0.1229327
-0.2712252
-0.2000782
0.01596028
-0.07734268
-0.1420383
-0.05219068
0.07969838
0.150273
-0.01082172
-0.1131148
-0.1111616
-0.05570072
-0.08147001
-0.03929028
-0.02368882
-0.01819851
-0.1269844
0.006364059
0.04664521
0.09468514
0.07636653
0.01022369
0.03584345
0.0224662
0.06816224
0.06660603
0.01735958
-0.06194689
-0.05531195
-0.08271081
-0.0215591
-0.02418936
0.07649861
0.1362439
0.09135314
0.03614094
0.07776157
-0.02345554
-0.1048271
0.1609046
0.09193009
-0.04148387
0.2320544
0.1544418
-0.03534754
0.03911334
-0.1786197
-0.08147957
0.1361978
-0.09152681
-0.0121721
0.151759
0.003662692
0.02547648
0.08686282
0.1463336
-0.05708136
0.05986715
0.07781515
0.006542094
-0.0189505
0.03485773
-0.0129619
0.04577667
-0.123173
-0.1673584
-0.02088172
-0.08981755
-0.08792737
0.01643243
-0.03036062
-0.2204589
-0.1599034
-0.3448637
-0.2678209
-0.2210109
-0.3201615
-0.1647402
-0.1062014
0.0638354
0.1288574
0.0477121
-0.04862351
-0.1319404
0.04576989
-0.0700905
-0.01766092
-0.007595524
-0.02910948
0.04730859
-0.1647426
-0.1246713
0.1587295
-0.09971989
-0.0121348
-0.0396924
0.08404506
0.2721404
0.09361099
-0.08140293
-0.1521032
-0.001305379
-0.002741093
0.01079669
0.1535435
0.110107
0.1811912
0.1878749
-0.1992547
-0.3862853
-0.2259388
-0.4333621
-0.3916298
-0.2195394
-0.05507546
0.219437
0.2143703
-0.1980292
-0.2178433
-0.07855253
-0.1592446
-0.2565958
-0.2057969
-0.05832933
-0.1282255
-0.08949123
0.04207307
-0.005549487
0.1192286
-0.01708402
0.03135123
0.1671904
0.06860499
-0.01981052
0.008703561
0.08491304
0.1609934
0.1564159
-0.263436
-0.1472718
-0.2291047
-0.1053267
0.02229371
-0.04166312
-0.3651534
-0.4316552
-0.1501362
-0.263739
-0.2397033
-0.1023303
0.02137302
0.1847464
0.2868748
-0.0222698
-0.1227023
0.1033721
0.05182533
0.03962056
0.1604101
0.01706076
0.1464021
0.2246038
0.08570891
-0.0761406
-0.1986784
-0.02172809
-0.1702862
-0.1672015
0.05166845
0.07280609
0.0789093
-0.1114125
-0.09562326
-0.1561621
-0.2289848
-0.1689215
-0.04389213
-0.07389797
0.05584572
0.1301126
0.1144547
0.01277164
0.1076687
-0.02435854
-0.004809351
0.04467528
0.005794466
0.05529954
0.09858919
-0.1613966
-0.2012571
-0.01260156
-0.1697824
-0.1164165
-0.006318928
0.01286703
0.01774632
0.07660732
-0.08802895
-0.2083359
-0.02975273
0.09009138
0.05776942
0.04806743
-0.1995821
-0.03268653
-0.07490298
-0.08429437
-0.1754603
-0.4619791
-0.1767249
-0.2130259
-0.2642971
0.08393378
0.07588469
0.01732714
-0.02724003
-0.2308418
-0.1040311
-0.2144735
-0.3300591
-0.1432045
-0.02995097
-0.1837677
-0.07112664
-0.01570226
0.03512253
0.01951802
-0.04433231
-0.07030048
-0.1132993
-0.0662462
-0.02095703
-0.08805203
-0.02777072
-0.03905008
-0.05434368
-0.05553711
-0.350677
-0.2045215
-0.05172149
-0.1288672
0.01959742
-0.1462094
-0.1767599
-0.06312836
-0.2950765
-0.2756055
-0.1594563
-0.2102687
-0.1939596
-0.245127
-0.1170248
-0.1420248
-0.06018865
-0.2275247
-0.3817228
-0.2781019
-0.07490495
-0.314896
-0.06744179
0.0303996
0.1596436
0.1783501
0.224733
0.3573444
0.2124865
-0.03543548
0.0356376
0.02023701
0.04353467
0.1182139
0.106645
0.2210922
0.3233276
0.2247091
-0.04657911
0.02378568
0.1117517
-0.002108254
-0.058051
0.03363874
-0.4045734
-0.5214388
-0.420843
-0.1450641
-0.2454998
-0.168285
-0.0831893
-0.1232538
-0.0410391
-0.08585079
-0.07370509
-0.05270906
-0.06355321
-0.07633302
-0.09480675
-0.04210272
0.03096132
-0.05785102
0.01240936
0.1393753
-0.06214597
-0.005862444
0.06834628
0.04245746
-0.02556331
-0.03289115
0.008306545
-0.05723422
-0.001089797
0.0006378139
0.06507834
0.0638087
0.05373216
-0.03364668
0.05414424
0.03272536
-0.1129841
-0.08222044
0.1079383
-0.1173273
-0.03035091
0.01279346
-0.06934175
-0.183975
-0.0113783
-0.09609615
-0.2249871
-0.1968115
-0.09190111
-0.242873
-0.3313033
0.100724
0.05826579
0.1201984
0.07077847
0.05562926
0.1182235
0.07024226
-0.05245635
-0.03709889
0.1992611
0.1883322
0.1418056
0.09616625
0.2538105
0.2693593
0.0956191
0.1159965
0.1208836
0.110162
0.1815195
0.2389335
0.2235062
0.1603289
0.2623553
0.1150133
0.1833714
0.02913295
0.09482452
-0.103343
-0.3986219
0.00368778
-0.1757796
-0.4727496
-0.08287258
-0.259162
-0.3651322
0.05388855
0.150627
0.1573588
0.00528431
0.03324735
0.1747316
-0.07076892
-0.01233451
0.05389697
0.04684734
0.1301735
0.06454124
0.02762562
0.01456528
0.004194434
0.03109225
0.03712198
-0.1003229
0.1041202
0.1024046
-0.03493682
0.1405893
0.0344808
-0.1561831
0.03225714
-0.05671654
-0.1164424
0.05213914
0.1285418
0.00669532
-0.257427
-0.1157066
-0.1050023
-0.05755177
-0.105026
0.09755465
-0.09553889
-0.06034145
-0.04794838
-0.1398926
-0.05732778
-0.01371071
-0.1290282
-0.09642508
-0.02948618
-0.01584527
0.05467776
0.144313
0.1144372
0.1849024
0.1454733
0.1095793
0.07307798
0.0007160547
0.123731
0.04534262
0.05404378
-0.03317791
-0.1348189
-0.09124967
-0.01238006
-0.01345784
-0.003606852
-0.05435842
-0.2253903
-0.03443641
0.03862965
-0.2669311
-0.3360593
0.08331105
-0.03839383
-0.2394995
0.1230322
0.05859101
0.06477688
0.1077119
0.06356476
-0.01375745
0.04660919
0.02383611
0.04785877
-0.007175494
-0.1113649
-0.2328519
-0.2193101
-0.1835537
-0.2494707
-0.2771449
-0.1874181
-0.1503098
0.2755953
0.2230187
0.12003
0.3138351
0.1727471
0.1556731
0.2229305
0.02048613
0.04594138
-0.1357023
-0.02593202
-0.06002602
0.01385504
-0.05323181
-0.1202855
0.2036288
-0.01697435
-0.09942182
-0.03386381
-0.0813748
-0.2168668
-0.06436407
-0.1972075
-0.2762031
0.01397219
-0.1966707
-0.2801176
-0.1961533
-0.03225721
0.03078318
0.07165551
0.1053488
0.03838562
0.0984718
0.07988074
-0.07928725
-0.3020653
-0.2147894
-0.1624761
-0.3811801
-0.4944032
-0.4367133
-0.2131499
-0.255872
-0.231044
0.1000983
0.04148438
0.1098026
0.1735596
0.0858193
0.1333655
0.2054136
0.1176559
0.03887233
-0.1100022
-0.08147331
-0.0200071
-0.1230202
-0.09219319
-0.05530804
-0.1290334
-0.07873688
-0.0899489
0.09657416
0.1097412
0.08224531
0.1675043
0.09790056
-0.01529636
-0.04522054
-0.06957709
-0.05226888
0.08328071
0.03291848
0.0334411
0.01960708
-0.01707215
0.06181834
0.0192065
-0.01887123
-0.05750277
-0.05641745
0.09802273
-0.077675
-0.07368363
-0.01463691
-0.1003105
-0.07250554
-0.03804922
-0.1691626
-0.1251196
-0.1610631
-0.04751138
-0.02569946
0.05539294
0.02194621
-0.009486664
0.1221747
0.03481138
-0.05377039
0.003063921
0.05561151
0.110526
0.2503833
0.1836443
0.1545685
0.240174
0.1779736
-0.04835013
0.1519152
0.1065761
-0.03402402
0.1437285
0.08761723
-0.1109175
0.04913818
0.0008447036
0.02697477
-0.06595585
0.05651993
0.1178033
-0.08200062
0.06954864
0.1970552
0.02094698
0.02580179
0.06194242
0.1002811
0.003596062
0.06121058
0.1051792
0.06772099
0.07483647
0.1198575
0.07268764
0.03280632
0.07199199
0.020145
-0.0419747
-0.02229095
0.0275011
-0.06065169
-0.08504778
-0.036266
0.04423604
0.03610104
0.0169605
0.0734961
-0.01486391
0.04971165
-0.0355799
-0.04328905
0.01916697
-0.03472822
-0.06023848
0.04965891
-0.01988178
-0.01477993
0.07207439
0.04408834
0.03712607
0.04418584
-0.1187421
-0.1319808
-0.1217893
-0.09579038
-0.050712
-0.09400863
-0.02919998
-0.01958472
-0.0524985
-0.007229942
-0.04203696
-0.09183573
-0.05617848
-0.1032839
-0.04160118
-0.02420452
-0.07766973
-0.093302
0.069022
-0.04722712
-0.1532727
0.04509297
0.006750518
-0.08405962
0.08603141
-0.01273374
-0.05617071
-0.1116991
0.1333055
0.1142883
-0.2180902
0.2421786
0.07164717
-0.08672471
0.03589351
0.03707464
-0.01115155
0.1624512
0.1545953
0.1266596
0.3291909
0.0229655
0.1261609
0.1203789
0.1271743
-0.01247203
0.3305393
0.1111415
0.3536237
0.0654347
0.09984016
-0.1595559
0.1698448
0.2093246
0.07626642
0.2344899
0.100187
-0.0897413
0.3537419
0.1457078
0.02411731
0.1453843
-0.001352106
-0.1686394
-0.5049433
-0.1787294
0.1613617
-0.0221296
-0.1304982
0.1386905
-0.2559192
-0.0282665
0.2152392
0.115027
-0.07873093
-0.1183194
0.3862092
0.3805768
0.02404495
-0.04587007
0.1994163
-0.03622148
-0.1472001
0.0003880742
-0.1469304
0.01830901
0.08290628
0.03415219
-0.15554
-0.1519686
0.1001872
-0.1219573
0.004823718
-0.09544326
-0.3289345
-0.134805
0.05649009
-0.07902113
0.1130978
0.02382147
0.004289247
-0.1509277
-0.1602269
-0.0009212731
-0.03091811
-0.2206479
-0.02386927
0.05994015
-0.09087755
0.1422663
-0.02545232
0.1708069
0.08640984
0.4086456
0.1147124
-0.0003249839
0.1881724
-0.1822622
-0.1330104
-0.1013408
-0.009981725
-0.07297508
-0.01378189
-0.005966663
0.05995125
-0.07741037
-0.06626583
0.469464
0.2502022
0.5743714
0.01289694
0.6066764
0.04581081
0.5961629
0.08118288
-0.007697296
-0.06056467
-0.002955953
0.06147789
0.05756057
0.01062243
-0.05614957
-0.05021197
-0.0506832
-0.2131825
-0.02690687
0.05104913
-0.0711761
0.116943
-0.05288871
0.00949887
0.2259246
-0.05628457
-0.002387746
0.1654812
0.01123155
-0.01748575
-0.07690386
0.2458982
0.2484083
0.4017949
0.1156744
0.04541602
0.01233177
0.03190114
-0.0354878
0.08078888
0.1025633
0.02180699
0.1572349
0.2137335
