16 16 3
-0.1479472
0.01832757
0.1926344
-0.00142709
-0.00961357
-0.02449998
-0.02577976
-0.1581393
0.03019896
-0.1184641
-0.08935132
0.1659727
-0.08373978
-0.1826539
0.03434916
-0.1576078
-0.235673
-0.1422566
0.02305673
0.01318638
0.1041517
0.02055097
0.01407533
-0.05478085
0.04798583
-0.04460413
0.0444689
0.1239216
0.004859514
-0.07218323
0.2150938
-0.03456391
-0.1534663
0.2471725
0.01898979
-0.03850817
0.09243704
-0.1023908
-0.1526026
0.03152749
-0.1365172
-0.1076506
0.04989905
-0.06345416
-0.009853061
-0.2043593
0.02099662
0.145879
-0.3287714
-0.1857772
0.06285837
-0.09415752
-0.1015719
-0.04065685
-0.07662112
0.01349557
0.01186977
-0.1736486
-0.1173073
0.01012635
-0.07086822
-0.002882916
0.1540356
-0.07642907
-0.2517127
-0.2319833
-0.1962541
-0.3866249
-0.3949805
-0.04889184
-0.2903914
-0.3177622
-0.09380507
-0.1035354
0.04909829
-0.008938882
-0.1082805
-0.06162725
0.005216626
-0.014311
0.07748256
-0.1503291
-0.1959118
-0.2007235
-0.166591
-0.3062136
-0.3341779
-0.200485
-0.2149361
-0.1424773
-0.04248042
-0.05988454
-0.07810719
-0.02161282
-0.2843585
-0.2727002
0.08281571
-0.1813341
-0.1948569
0.0479501
0.006691278
0.09808446
0.04684686
0.006324793
0.05457076
-0.08426083
-0.1699675
-0.1348889
0.09159357
0.03119369
-0.04249955
0.07973181
0.09026375
0.1300921
-0.02395248
-0.04896678
0.02324358
-0.06478834
-0.06499439
0.02612411
-0.2141086
-0.1386629
0.02527972
-0.07532731
-0.1884037
0.06746057
0.117147
0.01757493
-0.07445938
-0.1196831
-0.09777331
-0.01984321
-0.21172
-0.02725708
0.05240436
-0.0870171
-0.04574579
-0.07256474
-0.03937144
-0.07743996
-0.1129623
0.144988
-0.02819374
-0.09309642
-0.2027124
-0.6201371
-0.2292977
-0.3014911
-0.6117791
-0.3106403
-0.1761428
-0.4645532
-0.2147477
-0.121409
0.04601789
0.1156412
-0.01155899
-0.02153661
0.0230318
0.09860839
0.01656366
-0.08708645
-0.1461974
-0.1265419
0.1397937
-0.362643
-0.3694475
-0.1675558
-0.2859215
-0.3279962
-0.1808874
-0.009379395
-0.02193796
0.03329768
-0.05601709
-0.06393143
-0.07158746
0.08802317
0.1637876
0.005387856
0.002927643
-0.09448596
-0.05483146
-0.09079234
-0.2365749
-0.2527148
0.01114044
-0.1541139
-0.1422906
-0.07247745
-0.1017606
0.08025882
0.1527524
0.03414714
-0.01572908
-0.2359696
-0.004566325
0.1508015
-0.1056286
-0.02624746
0.02042859
-0.1529681
-0.09606792
-0.05116567
-0.1610824
-0.2545391
-0.04936181
0.002201398
0.09039896
0.09470946
0.05343749
0.1233782
-0.005848223
0.1712637
0.08953504
0.08263831
-0.06293951
-0.05399342
0.1152596
0.04957929
0.114701
0.07910689
0.1865091
0.1023048
0.0560418
0.1175539
-0.05255904
-0.05899037
0.04067695
0.03446041
-0.00315623
-0.09491962
-0.04552196
0.04273958
0.06552763
0.08838589
0.1443513
-0.02270503
0.1598829
0.2052395
-0.174867
0.1637654
0.1854671
-0.1027607
-0.1388191
-0.09062709
0.0415045
0.02084677
-0.02234062
0.05438742
0.08362473
0.01418852
0.1227969
0.2072912
0.0915564
-0.2334236
-0.07302001
0.1260115
-0.08026157
-0.08973762
-0.02770827
-0.05909444
0.2039184
-0.0002137981
0.08839073
-0.03249932
-0.04053369
0.05583656
0.1172634
0.06245895
-0.1019522
-0.3810079
-0.1787998
-0.3453425
-0.5755287
-0.4481115
-0.1673274
-0.3664058
-0.2754942
-0.09549162
0.01444611
0.08213922
0.01296496
0.04008465
0.06254753
0.1522549
0.18082
0.1354364
0.009025685
0.1160455
0.06436174
0.1473575
0.1104452
0.05157341
0.07105523
0.08461645
0.01453959
-0.1224605
-0.03849364
0.08372261
-0.05281774
-0.1448406
-0.1972058
0.004176932
-0.1214315
-0.1970033
0.127091
0.06382278
-0.09223623
-0.06927733
-0.09302484
-0.1617109
-0.08513781
-0.0547202
0.01146213
0.1441228
0.1028262
-0.06497745
0.005643246
-0.1004888
-0.1083532
-0.1661868
-0.2113026
-0.07120333
0.04716685
0.04226271
0.1544079
-0.1629332
-0.01580166
0.1139662
-0.05047036
0.003875972
0.1126566
-0.008483666
0.02618775
-0.1170282
0.1084835
0.1802812
0.04624221
0.07884934
0.0470243
-0.07142936
0.04451192
-0.06040838
-0.1619761
0.07255806
0.05510576
-0.03191889
-0.04305013
-0.08555612
-0.06481672
0.03796132
-0.01615981
-0.072901
-0.02298236
-0.1313173
-0.1274001
0.07229636
-0.03564905
-0.1211741
0.01477236
0.1825251
0.2921368
-0.03741397
0.1358842
0.07050346
-0.07648584
0.1023126
-0.007868027
-0.03414042
-0.1368074
-0.02978567
-0.2218843
-0.2294469
-0.009601586
-0.2084544
-0.1447359
0.1316337
0.1124783
0.02028213
-0.03613407
0.2030379
0.1337716
0.005841203
0.1132272
0.08331528
-0.0348084
-0.03361502
-0.1157212
-0.1315411
-0.03781105
-0.1045208
-0.1924772
-0.01203264
-0.08947226
-0.1732569
0.05515441
0.03414961
0.02742819
0.04741816
0.07798776
0.05579915
0.05010558
0.1331563
0.03190211
0.04292801
0.02367331
0.07422671
-0.04798577
0.02655345
0.143307
-0.07106736
-0.0008219775
0.176533
-0.02064533
0.02628752
0.01121139
-0.06262729
0.02381891
0.02096261
0.01118726
0.1303063
0.08219583
-0.1129897
-0.0243515
0.09431942
-0.1264075
-0.07375313
0.045957
-0.1608108
-0.1684549
0.03090215
-0.007673419
0.1994602
0.1408856
0.1318889
-0.153587
0.01637785
0.07681122
-0.05329269
-0.1107505
-0.007134748
0.1657087
0.1712402
0.05136799
0.0612733
0.1765689
0.1752087
0.06378016
0.1062756
-0.08535352
-0.07212988
-0.1493215
0.05494362
-0.07481902
-0.2456364
-0.1562619
-0.2664028
-0.3302276
-0.1684203
-0.02055529
0.006105009
-0.07288646
0.09709708
-0.05072246
0.126735
-0.04298987
-0.03947775
-0.07911142
0.04256421
-0.07207707
0.0003852789
0.05713186
-0.2354774
-0.07509567
-0.08521128
-0.0696547
0.03973617
-0.03160109
-0.07950865
-0.3493876
-0.4571791
0.1030851
0.08134069
-0.05543974
-0.08159958
0.003055991
0.01335636
0.1339676
-0.07499059
-0.07583646
0.1365364
0.08311872
-0.04044807
-0.1793468
0.08960734
0.1143878
0.06157096
-0.0368464
0.03575392
0.02509897
0.07407465
0.003983547
-0.1897233
-0.03013235
-0.1688915
0.1185207
-0.00720919
-0.1120771
0.1439708
0.1712133
0.02746499
-0.04132383
0.02654969
-0.2953144
-0.07595655
-0.1197293
-0.2361923
-0.003364891
-0.06927723
-0.1207485
0.01213718
0.02854771
0.01394382
-0.02558629
0.1701442
0.004656164
-0.003800367
0.2093679
0.2045515
0.1920081
-0.04013273
-0.1252045
-0.1358493
0.01142799
-0.124968
-0.07158353
-0.005508129
-0.094703
-0.1231064
-0.06373686
0.2283535
0.08523814
0.4842258
0.6630339
0.004225209
-0.1676748
-0.05340598
0.004173083
-0.0833208
0.004974478
-0.1082288
-0.08028805
0.3762034
-0.05574768
0.05031681
-0.1990445
-0.1406947
0.06396148
-0.04661185
-0.1259136
0.1608664
0.03990204
-0.05248289
0.1128031
0.03849801
-0.09224564
-0.07525232
0.1491578
0.1047318
0.1115875
0.2251386
0.0594935
0.191653
0.2277837
-0.1080437
-0.1672086
-0.2860419
0.227496
-0.3488833
-0.0497541
-0.05721614
-0.1455479
0.3276911
0.0360012
-0.007230228
0.09981019
0.01685308
0.1569712
0.07322952
-0.01566417
0.1022125
-0.02651761
-0.02776088
0.1088683
0.1316258
-0.2259638
0.133962
0.1714864
-0.005423889
-0.1240834
-0.1285003
-0.1225151
-0.2312647
0.005936584
0.1082151
-0.007059884
0.06054006
0.02760725
-0.1145701
-0.03023575
-0.1866115
0.05620656
0.1760659
0.01901848
0.1965602
-0.03956798
0.08884421
0.00819249
-0.002812683
0.009843465
0.03365004
0.01870212
0.2058247
0.194649
0.4121581
0.08906293
-0.02047873
0.1189471
0.02777479
0.02118146
0.04508007
0.3706554
-0.005498415
0.2501144
0.02048272
-0.02631628
-0.06420271
0.03253358
-0.2471571
-0.2217553
0.1114321
-0.1004436
-0.2359078
-0.04233413
0.189886
-0.2651035
-0.02482658
-0.4016636
0.1574309
0.1199021
-0.2553483
0.3207556
-0.1990609
-0.1661354
0.02217196
0.1106591
-0.1155245
-0.1104714
-0.08578179
-0.06892724
0.07394909
-0.01343627
-0.00572656
-0.04338297
0.06924079
0.03006099
-0.02436934
0.06512482
0.1334683
0.2727407
0.08379389
0.06224797
0.03930116
0.05333145
0.08314472
0.05504436
-0.03687705
0.1745276
0.2838893
0.1253349
0.348936
0.3296034
0.1789631
0.09112334
-0.02580313
0.1478684
-0.04892908
-0.6635098
-0.05456213
0.03812846
0.03408485
0.1831893
-0.05559587
0.1048197
0.1139008
0.5812972
-0.5231349
0.1155673
0.1487511
-0.08288041
-0.08135429
-0.1761126
0.1756142
0.3144653
-0.04861736
0.390339
0.193062
-0.08614139
-0.07455393
-0.01361772
0.2414536
0.02288672
-0.2664088
0.1461305
0.2329434
-0.03100396
0.05614034
0.1572018
0.02658864
0.2167534
-0.05270733
-0.04380337
0.3432817
0.01550848
-0.2785657
0.3406489
0.07186161
-0.1958162
0.204626
0.1259585
-0.09059743
-0.0450749
0.1602808
0.01269455
-0.2277844
0.103953
0.09676798
0.06041976
0.04471309
0.09152014
0.1071536
-0.006003117
-0.1371927
0.1447817
-0.06606109
-0.1867305
-0.1539548
-0.01265683
0.01175406
-0.1029784
-0.0897218
-0.04185045
-0.07858808
0.009091952
-0.08162038
-0.009500382
-0.0339963
-0.05585361
-0.1785934
-0.180651
-0.1454834
-0.006688785
-0.0340078
-0.1486457
-0.06190207
0.06595123
0.1281528
0.01691263
-0.1873121
-0.09848597
0.1709101
0.245938
-0.1497119
0.07393918
-0.1027999
-0.1893867
0.1104577
-0.1042489
-0.1112192
0.1046401
0.06082086
-0.0342285
-0.1685328
-0.2011958
-0.1472978
-0.09790293
0.01807978
-0.3092546
-0.08146662
0.09492498
-0.04567893
-0.06738057
0.08031445
0.0774326
0.1189961
0.2290885
0.06505457
0.02886776
0.1382813
0.08324941
-0.1007561
0.05249197
-0.09439959
-0.1595211
-0.03265145
-0.2195664
-0.1312601
-0.07351201
-0.09476572
-0.01284832
-0.05321164
-0.07613967
0.07991747
0.07930862
-0.04697196
0.04399775
0.2129176
0.02297933
-0.009965997
0.03807489
0.1574135
-0.01002276
0.08092456
0.1923195
-0.09411906
0.04535584
0.05930205
0.0372091
-0.2162053
-0.2342395
0.03732369
-0.04118203
0.1850747
-0.0917635
-0.1795133
0.2519021
-0.05097872
-0.002487861
-0.101959
-0.1422739
-0.3194135
0.208918
0.1062865
-0.2694106
0.1762092
-0.02733484
-0.02552422
-0.1434869
-0.01037985
-0.08855208
-0.2138599
0.1718051
0.01825032
-0.08026867
-0.08610646
0.01652015
0.1586568
-0.05830363
0.2427139
0.1420084
-0.1109073
0.1061868
0.1823553
0.2274102
-0.2257881
-0.09940546
0.03661087
-0.07043028
0.09544523
-0.4910666
-0.6078021
-0.370011
0.06184722
0.01588338
0.1013212
0.1539942
0.08281551
0.1378161
0.1761701
0.08830914
-0.02477814
-0.04973821
0.0308178
0.138606
-0.09973817
-0.09974504
0.02339534
-0.2167011
-0.1573459
0.01958951
-0.2553574
-0.09341563
0.008404847
-0.167372
-0.1178078
-0.1412596
0.03408177
0.04772771
0.1247759
0.09276088
0.170458
0.0786581
-0.0949537
-0.05140071
-0.1773123
0.06229588
0.002862803
0.06465655
0.05805178
-0.1406051
0.05268686
0.1077125
0.1261477
-0.03543438
0.08195826
-0.07612432
0.1774755
0.005048174
-0.04027501
0.01718077
-0.02391426
-0.02935571
0.001751438
-0.06849913
-0.1428748
-0.003713444
-0.05731755
-0.06069751
-0.02458546
-0.06575452
-0.04364272
-0.1458483
-0.0795754
-0.03485022
-0.1936617
-0.1546395
-0.1006094
0.1431876
0.0113592
-0.06014305
0.1688446
0.245724
-0.09781811
0.1113376
-0.01644921
-0.09772394
-0.03092964
0.003609923
-0.05497403
-0.1230424
-0.08501101
-0.1091737
-0.2003466
0.05136861
-0.0634354
0.02761558
-0.006405589
-0.1199705
-0.09229231
0.1448596
0.02658762
-0.07031684
0.01205467
0.0595484
0.1143471
0.0654332
0.1732763
0.182444
0.004558273
0.05970131
0.2177421
-0.1766066
-0.08778603
0.07019107
-0.2450468
-0.3566536
-0.08008962
0.1282689
0.2171466
0.04425545
-0.266125
-0.2532043
-0.01249447
-0.1810217
-0.2057724
-0.1422578
-0.07700511
0.3669716
0.2036798
-0.08439656
-0.0801971
0.09756733
-0.01825306
-0.2975263
-0.3036299
0.2437709
-0.05492231
-0.06357028
0.03706222
-0.08647883
-0.1035424
-0.01630949
-0.1668847
-0.1685302
0.2921346
-0.06277822
-0.03553115
-0.06140307
-0.07332511
-0.03921957
-0.02601162
-0.06410363
0.1594603
0.06878445
-0.03650817
-0.008742116
0.1097606
0.266284
-0.07144869
0.04184369
0.380652
0.2353185
-0.07673237
-0.0329355
0.01664635
0.1814772
0.01954579
-0.08265339
0.05493987
-0.1112993
-0.1274627
0.1267854
-0.0006148328
-0.0745102
0.130093
-0.173573
-0.2562102
0.09848165
0.03634488
-0.1332469
0.2206403
0.1070434
-0.1018669
-0.1287995
-0.07066254
-0.1723791
0.1570699
0.1652651
-0.04857774
0.2468777
0.2625388
0.07132151
-0.1846184
-0.04044577
-0.1646831
0.0274745
0.1459996
0.1859431
-0.0646719
-0.0686337
0.07930569
-0.2674376
-0.173237
-0.1599614
0.0164004
-0.05348805
-0.02213782
0.242827
0.1511026
-0.01283442
-0.1451106
-0.142938
-0.1103011
-0.1535803
0.1313716
0.1515415
-0.1769375
0.1310122
0.1398064
-0.1975099
0.02773985
0.1622529
-0.03750111
-0.1423791
0.1372666
0.09535987
-0.13006
-0.1223952
0.1364822
0.04423688
-0.05263095
0.08849602
0.09164331
0.06131325
0.1728717
0.2030442
0.1680809
0.1250741
0.15095
0.190651
0.1013271
0.1762019
0.107322
0.1566246
0.2143555
0.1131904
0.05054294
-0.05137955
-0.1779439
0.07285155
-0.06562736
-0.1332056
-0.09789589
-0.1513378
-0.07495382
-0.2535759
-0.2576023
-0.05707936
0.07076841
0.1065734
-0.2925303
0.06378942
0.1058828
-0.08022551
-0.01104751
-0.09944937
-0.1685138
0.2075956
0.3899258
-0.1468379
0.1030096
0.2379402
-0.05394489
0.1504989
-0.05870024
-0.2591653
0.2964681
0.0287146
-0.1750015
0.1799765
0.2356117
0.1213728
-0.02979181
-0.08249539
-0.07156812
-0.04776197
0.07694806
-0.2096771
0.171605
0.1486291
-0.09088998
-0.04643634
-0.154137
-0.1185959
-0.06578255
-0.1825296
-0.170178
-0.01634586
-0.1884913
-0.2617171
-0.1898409
-0.05657087
-0.1435144
-0.1929309
0.01946135
0.03930989
-0.22625
0.003733505
0.09052078
0.143569
0.09153917
0.05100097
0.005610926
-0.1212447
-0.1918423
-0.04259029
-0.2289281
-0.2449236
0.2397721
0.1630027
0.1355219
0.2743811
0.1701769
0.03624197
0.3624355
0.1340832
-0.03080064
0.1462864
0.2214523
-0.02423183
0.1771401
0.1915049
-0.1178168
0.2419111
0.1708753
-0.03277652
-0.1622067
-0.08867777
-0.04716562
0.002558115
0.01196525
-0.1160988
0.06435411
-0.04366673
-0.01824331
-0.1313548
0.06553834
0.009800875
-0.01630874
0.05543187
-0.02154391
0.04484175
0.06288859
0.006549133
-0.1053572
0.1864078
0.3106802
0.00253573
0.2728387
0.2612885
0.04683518
0.2368771
0.1287893
-0.05246327
-0.005806576
0.01934029
-0.02932191
0.0001724747
0.05211494
0.06094886
0.1277713
0.02890055
0.1950855
0.1713358
-0.2141391
0.2069013
0.2249863
-0.1957601
0.0184253
0.06057233
-0.2006325
0.1055489
0.1390362
-0.1060454
0.163451
0.1357127
-0.1574187
0.2315228
0.2319221
-0.06522558
-0.1615792
-0.2211065
-0.07521841
-0.0955854
-0.09254652
0.01604788
0.02611983
0.05126499
-0.01686301
0.09185793
0.1322767
-0.0116351
-0.1381629
-0.1192828
-0.1265724
-0.02905457
0.1362893
0.01803794
-0.03822276
0.1355006
0.07121418
-0.06530908
0.005770732
-0.1518983
-0.2047717
-0.07447331
-0.05856696
0.03189833
-0.07991334
0.05275312
-0.1496656
-0.1859101
-0.09289694
-0.06156328
-0.004268442
-0.09560512
-0.04011834
-0.03286498
-0.1587317
-0.04322714
-0.1111425
-0.2227045
-0.1453611
-0.1806936
-0.1519635
0.03273254
-0.1288441
-0.09913627
0.004563256
-0.1755621
-0.1821395
-0.1179672
-0.2653407
-0.1606168
0.09952317
-0.05267192
-0.03653713
-0.02095596
-0.05613409
-0.0226726
-0.09163443
-0.1210903
-0.0336935
0.05278794
-0.04859024
-0.1013713
0.1274259
-0.02222126
-0.03786813
0.1543724
0.04215663
-0.02796245
0.1590257
0.2510684
0.1286842
0.1051881
0.04513153
0.09047038
0.007100824
-0.03722535
0.1002679
0.1481067
0.0369789
0.1101201
-0.06782417
0.0739821
0.1986597
0.03871372
0.100766
0.1394987
0.05497492
-0.2339071
-0.1477593
-0.02219433
-0.3601694
-0.2325616
-0.253596
-0.3253779
-0.03398457
0.01579248
0.04940888
-0.01139913
-0.01249221
0.1025125
0.1519868
0.05193003
0.2319629
0.2610556
0.09556416
0.1273795
0.1281348
0.03642705
0.1964914
0.1340064
0.03599345
0.1754521
0.1320337
0.1568149
-0.03613028
0.02529935
-0.04449554
-0.2228627
-0.1013358
-0.2130726
-0.1722692
0.1075022
-0.3144954
-0.2118732
-0.1519241
-0.08824322
0.0486057
0.04881991
0.08926471
0.219987
0.1220483
-0.09247841
-0.3218544
-0.26435
-0.01768502
-0.1779829
-0.2633471
-0.1444348
-0.09215102
-0.1224365
-0.09248523
0.04036386
0.09423351
0.009152132
0.02859538
0.0646003
0.1465425
0.05067946
-0.02180645
0.02000673
0.08166207
0.0383405
-0.02891708
-0.007509504
0.03312917
0.03988453
0.0367885
0.1357055
-0.02119287
-0.03906572
-0.09149413
0.000824958
-0.01900361
-0.08419491
0.1295996
0.1609704
0.1105526
-0.07849716
0.0292974
-0.1670752
0.2357025
-0.006134667
-0.1808826
0.1375443
0.04668935
-0.008404553
0.09908295
-0.02753307
0.06704286
-0.1724233
-0.2562651
-0.1511087
-0.2889277
-0.281371
-0.05243838
-0.08625714
0.0512626
-0.01689556
0.03169012
0.09514884
0.02641995
-0.1557881
0.04178481
-0.06814079
0.07819695
0.152803
0.07612956
0.2672527
0.3030915
0.1098106
0.1922469
0.2948519
0.07549439
-0.01287845
0.1663106
0.1736097
-0.2316112
-0.206538
-0.1941869
-0.1103204
-0.1782735
-0.2790887
-0.06851624
-0.03848418
-0.04274921
-0.01256929
0.02300886
-0.08162529
-0.1033536
0.02111085
0.0001712078
-0.1254567
0.04914258
-0.04666199
-0.09143618
-0.04547406
-0.0873086
0.0979667
0.04827954
0.02486051
-0.1052621
0.03000013
0.04814422
-0.05345258
-0.1908651
-0.2863505
-0.04760106
0.158243
0.07329629
0.01375832
0.01259466
0.1110347
0.08079348
0.1218331
0.008825129
-0.05091843
-0.04321846
-0.1964804
-0.06215143
-0.1107014
-0.2277197
0.06143386
0.03290316
-0.178295
0.07496472
0.1857909
-0.08684355
0.0786478
0.01368281
0.007488891
0.07453747
0.2592747
0.06454679
-0.07974654
0.1716711
0.1736205
-0.1988494
-0.1244351
-0.03843115
-0.05112262
-0.03821781
0.03144626
0.08893494
0.02040083
0.01546412
0.06467813
0.08430973
0.1743446
0.1932057
0.06440558
0.05574463
0.1604524
0.0282541
-0.04464057
-0.03635661
0.02190173
0.03290036
0.04617854
0.04602466
-0.03085553
-0.0871628
-0.1102939
-0.1963089
0.001648666
0.001181217
0.1042016
-0.05036722
-0.0578414
0.1563402
-0.06992861
-0.1321452
-0.198389
-0.2537092
-0.0547611
-0.1618612
-0.1447547
-0.4116387
0.02576666
0.1506509
-0.09732198
-0.2229651
0.0456851
0.3235591
0.3529048
-0.3135432
-0.03294617
-0.0009966373
-0.1162786
-0.0192699
-0.1460308
-0.1258207
0.0379207
0.1164632
-0.01208385
0.149199
0.2119421
-0.1672367
-0.1063672
0.045067
0.01753147
-0.07850493
0.01700784
0.01652007
-0.07062349
-0.02030441
0.119668
0.1441068
0.02903817
-0.1092052
-0.09471758
-0.0300256
-0.1546997
-0.1677222
-0.1295734
-0.07183271
-0.006376356
0.02310665
-0.2065275
-0.2462795
-0.2143425
0.08838672
0.2736613
0.3603794
0.018561
0.09367608
0.07346992
0.09032907
0.1261173
0.06395577
0.1591468
0.09957971
-0.0186353
0.05860364
-0.04745705
0.01067675
-0.04491624
0.002438894
0.06162625
0.1603805
0.1977282
0.1690323
0.03855671
-0.007754692
-0.1521301
0.03744897
0.04728851
0.1555289
0.1391117
0.2765753
0.1177702
0.05250223
-0.08555165
-0.2866068
0.1013339
0.1143518
-0.01275875
0.004379347
0.06035226
-0.06815829
-0.01496097
0.06348153
-0.03926472
-0.238207
-0.09161256
-0.0446397
-0.131568
0.1272272
0.04698408
0.0680126
0.2342972
-0.1283244
-0.03316513
0.03048931
0.07733019
0.1408782
0.07055476
0.1091401
0.099562
0.02081526
0.1616549
-0.004675403
0.01484826
0.08303639
-0.03149382
0.001167904
-0.03388633
0.09767305
0.01945243
-0.1561148
-0.07033348
-0.1913491
-0.3034452
-0.05667851
-0.1892128
-0.1406054
-0.1597293
-0.2020392
-0.08041855
-0.102526
-0.1031062
-0.01895853
-0.07617233
0.03504284
0.1398345
-0.10546
0.05586679
0.02854925
-0.124686
-0.0994041
-0.06679554
-0.1148795
-0.08284261
0.03445982
0.03724467
-0.06034781
-0.06049218
-0.05287469
-0.1262081
-0.1285586
-0.04704977
-0.1189452
-0.1626865
0.05411233
0.04226105
-0.03337141
-0.1600062
0.02772051
0.2018521
0.05293632
0.402704
0.455178
0.0763453
0.02108363
-0.02880696
-0.01308758
-0.1068378
-0.1080952
-0.1418472
-0.1750838
0.01359167
-0.1083778
-0.08494858
0.06569608
-0.0805648
-0.209591
-0.006326582
0.2344349
0.3314147
0.1875444
0.03148417
0.08418677
0.06391178
0.138562
0.1501977
0.1451731
0.1541449
0.2111274
0.2008199
0.04273047
0.1725375
0.1679284
0.03001478
0.04199494
0.06594928
-0.1603569
-0.05784141
0.03296781
0.0007902764
0.02329073
0.1515572
-0.006673125
-0.03689847
-0.000590477
0.03998927
-0.07984243
-0.03650362
-0.02003762
-0.0578512
-0.09069304
0.01895895
-0.08103524
-0.04543195
-0.1790016
-0.1006106
-0.02134191
0.03064738
0.06879898
0.02005227
-0.1041
-0.0544098
0.0008523086
0.03670344
0.1078553
-0.05711889
0.08477239
0.1998312
0.0948552
0.01130078
-0.05035757
0.007762154
-0.04551661
-0.04602393
-0.07096563
0.1198766
0.1157578
0.1328605
0.1083537
-0.01006211
0.03531851
0.1188475
-0.07793929
0.08334382
0.03748085
0.06526981
0.1633801
-0.1246034
-0.04857128
-0.05701037
-0.0448636
-0.06061462
-0.1196231
-0.08880645
-0.238065
-0.1428624
-0.007757483
-0.03745648
0.0637989
-0.07101548
-0.1308878
-0.04706476
-0.08753073
-0.1170722
-0.05863487
-0.03839174
0.02224131
0.08929288
0.1124865
0.07597025
0.03614527
0.1104118
0.07476249
-0.01175632
-0.06464631
-0.06159825
-0.09581522
-0.0009633288
-0.05455858
-0.06497364
-0.09352459
-0.1824633
-0.1981066
0.1026447
0.02852715
-0.02989331
0.03054575
-0.09787317
0.1226743
0.2234956
0.2113317
0.06114303
0.1170363
0.1136581
0.223041
0.05578163
-0.07433899
0.1503578
0.09238769
0.2116886
0.0855392
-0.05424367
0.02041925
-0.06443241
-0.2220218
-0.2307715
-0.1772545
-0.1286789
-0.07451489
-0.04772952
0.09879106
0.1060391
0.09511744
-0.00170167
0.1271582
0.0880799
0.2295858
0.1082944
0.04202965
0.02927661
-0.005434509
0.04724389
-0.001823591
0.06476178
0.09641565
0.0558659
-0.01563364
-0.01641824
-0.203775
-0.1533636
-0.1804629
-0.2314737
-0.1900831
-0.1465538
-0.1062209
-0.1301886
0.01925489
0.1100389
0.02446925
-0.05151023
0.1916868
0.07937637
-0.04163597
-0.07515162
-0.1416418
-0.1144122
-0.1957219
-0.1913181
-0.1128514
0.0135049
-0.09908201
-0.07589382
0.07706694
0.1263684
0.09864713
0.1586523
0.101051
0.09096533
0.1271137
-0.0930675
-0.2112546
0.1362614
-0.04013311
-0.2100734
0.08482442
0.02274559
0.06315307
-0.1174659
-0.1210293
-0.02166121
0.03609296
-0.0204611
-0.006062374
0.1555265
0.08402217
0.04812885
0.02569964
0.0211011
-0.005490343
0.1595204
0.1286118
0.0561454
-0.02978063
-0.330643
-0.3054973
-0.0001757163
-0.2043156
-0.1360749
0.07734777
-0.09174616
0.05914406
-0.2647902
-0.05294898
0.06171365
-0.3826516
-0.00696494
0.07004244
-0.2066143
-0.07635071
0.124365
-0.0693856
-0.1661784
-0.1792747
0.01660044
-0.1385818
-0.1580982
0.04117138
-0.02689535
-0.1117744
-0.02019924
-0.09126326
-0.09126796
-0.1423071
-0.1635617
-0.1358729
-0.05108905
-0.01895265
-0.1454926
0.07049578
-0.04742357
-0.008576164
0.03243236
0.0003960004
-0.0344344
-0.03008297
-0.1122356
-0.1289986
-0.07237229
-0.02513766
0.0347737
-0.01365005
-0.08320218
-0.021876
-0.01999966
-0.165624
-0.2379895
-0.1281541
-0.1104748
-0.2049827
0.1032187
-0.1605444
-0.1568866
0.1299198
-0.09840118
-0.315691
0.09828188
0.03443613
0.114326
0.2078816
0.1099523
0.1334921
0.2478539
0.1217573
-0.002987847
-0.1072669
-0.1026681
-0.2014232
-0.2369852
-0.2415471
-0.1750845
-0.3218966
-0.09078781
-0.2325352
-0.1159668
0.1690501
0.2000984
0.04274728
0.2291875
0.3664714
0.02835293
0.1988403
0.1675893
0.04061702
0.00650001
0.1125697
0.1201745
0.1747694
0.2663055
-0.07311903
-0.05146692
0.0006056474
-0.1655278
-0.1274265
-0.04243473
-0.01317612
0.1175716
0.1014585
-0.04705116
0.09928454
0.1545415
-0.06101532
-0.0660096
0.05066302
-0.1236861
-0.02518612
0.1756873
-0.1030821
0.09739763
0.1719507
0.04730329
0.1044699
0.1318119
0.07200769
0.05585667
0.1427829
-0.07683046
-0.06027401
0.009677634
0.0272256
-0.02407372
-0.04186742
0.0427435
0.07487287
0.06699552
0.05130384
0.03850055
0.1924711
-0.1588029
-0.01117082
-0.01965557
-0.03714688
0.07751388
0.1219199
0.05073333
0.1045807
0.01388599
-0.01556837
-0.009814798
-0.08601505
0.04108673
0.06462721
-0.01624105
0.14325
0.05602212
-0.03575877
0.06048734
-0.06126048
0.137364
0.03253961
-0.09206881
0.1607864
0.1003269
-0.07586379
0.08034787
0.03554041
0.1667397
0.1143232
0.06188563
0.2049625
0.1409106
-0.003577157
0.1221422
-0.03024812
-0.1372005
-0.1803396
-0.01885669
-0.0891364
-0.1536937
0.01584602
-0.02085417
-0.01267607
0.01401078
0.001448303
0.08592319
0.08885644
-0.0856479
-0.0495542
-0.0572876
0.01271435
0.09838497
0.03697355
-0.1368844
-0.01173547
0.002889913
0.03254238
0.1861863
0.03933208
-0.02816041
-0.03587998
-0.09860425
0.09070271
0.2077288
-0.05344757
0.2137831
0.3272395
0.1439544
0.1572085
0.1844622
0.1068713
-0.1706389
-0.01778836
0.05912783
-0.08787196
0.137301
0.1912201
-0.01224193
0.1449116
0.3110604
0.07960785
0.01183781
0.002757096
0.0941914
0.136763
0.05010747
-0.007681667
0.02753392
-0.007791049
-0.08884091
-0.1227427
-0.02806998
-0.2128206
0.1419985
-0.03446473
-0.02967189
0.03466482
-0.04072205
-0.1657591
-0.2205506
0.09065536
-0.07986684
-0.06713164
0.1641787
-0.1407248
-0.2105839
-0.006125024
-0.06790067
0.09999117
0.04763652
0.06538195
0.2085373
-0.006026659
0.2614748
0.08245181
0.04527383
0.02887688
-0.0916106
0.04073201
0.301916
0.1653447
-0.0451666
0.3336666
0.07155412
0.0186561
0.08228566
-0.04286941
0.008517817
0.05874936
0.2014172
-0.04932236
0.02238031
0.09905402
-0.005622793
0.1742356
-0.06125689
0.148434
-0.08020017
0.4043605
0.1137644
0.1176475
-0.3834734
-0.1327253
0.04491738
-0.04226026
0.122027
0.1162145
0.1032344
-0.1424745
0.3705509
-0.1138574
0.0282671
-0.2134411
0.01808013
-0.2000946
-0.01482314
0.1879135
-0.02597467
0.3147084
0.2521197
0.05482257
-0.07629176
0.1471663
-0.1091734
0.5383629
-0.105
0.04166132
0.2930518
-0.007505031
-0.04887424
-0.03327413
-0.1158648
0.01619528
0.1156994
-0.05932865
-0.05327553
-0.01456418
-0.05262278
-0.06577092
-0.1487412
-0.1611273
-0.007135582
0.1143585
0.01469298
-0.04620686
0.07478265
-0.0874054
0.1377486
-0.1076625
-0.02004145
-0.1373926
-0.2009415
-0.1666218
-0.0626715
0.03047172
-0.2837383
0.01775699
-0.08538613
0.1893236
0.02943731
0.1757975
-0.106333
0.09790882
-0.3652806
0.8384855
0.08593111
-0.1870797
-0.1076299
0.02715909
-0.08443946
0.02994157
0.07622312
-0.8016771
0.3478613
-0.2908498
-0.01575656
0.0955841
-0.05877288
-0.04573687
0.02815221
0.2077558
0.05137745
0.2960072
0.01232187
-0.1200652
-0.1561007
-0.05096016
-0.346597
0.009162435
-0.07855035
0.1180171
-0.1571669
0.06677178
