16 3 3
-0.291884
-0.2188517
-0.1286319
-0.1131861
0.2934993
0.1017936
-0.09391942
0.2027514
0.09614202
-0.02051994
0.0445115
0.09810833
0.2190722
0.6291978
0.3770385
0.1220035
0.3744305
0.2118843
0.3090899
-0.03737111
-0.04082067
0.1277522
-0.1340481
-0.3165329
-0.1420823
-0.4631794
-0.5160008
-0.005096172
-0.002350382
-0.00179276
-0.00211244
0.006680439
-0.001375718
-0.001670464
-0.001854773
0.004328795
-0.007602235
-0.0008110306
0.004636576
-0.004425567
0.002119286
-0.002907426
0.002195843
0.001544512
-0.002405642
-0.002724209
-0.009689981
0.000257986
-0.001148359
-0.00679996
-0.00960517
5.049238e-06
-0.001313414
0.001355217
0.5132473
0.09029701
-0.186767
0.2332797
-0.393444
-0.5441766
0.349999
-0.4618312
-0.5541921
-0.03890657
0.1902196
-0.01651797
-0.09120443
0.2531875
0.07810891
-0.03907105
0.01656665
-0.03540909
-0.409304
0.1461273
-0.01840713
-0.17499
0.6982337
0.5670154
-0.1906996
0.4492903
0.4455222
0.07909473
-0.07646161
0.1512685
-0.004780932
0.6938175
0.1254161
0.2309519
0.1716972
0.2711451
-0.201962
-0.378413
-0.3299012
-0.3352689
0.2834729
-0.5983799
-0.2845663
-0.4500624
-0.4355999
0.01711195
0.249636
0.1164203
0.314852
1.245344
0.2284926
0.0712955
0.3987913
0.009892878
0.235615
0.1693403
-0.0006861173
0.2100071
-0.6135698
-0.1715954
0.1819023
0.08882281
-0.04658493
-0.05120602
-0.238952
0.006281815
-0.2575572
-1.116015
-0.2280812
0.0006780503
-0.1342591
0.1062161
-0.05100226
0.04478193
0.1231986
-0.1048925
-0.5787724
0.100971
0.0747942
0.1390554
0.2616065
-0.00296944
-0.00192089
0.007803398
0.003860297
-0.003516378
0.0006764879
0.004262651
0.001514442
-0.005115048
0.0009458983
0.0004551445
0.004437811
-0.003311507
-0.0009599708
-0.004886385
-0.002686885
0.002093115
0.008276002
0.006551079
-0.0001684025
-0.003550704
-0.002339663
0.002080124
0.004076362
-0.002676172
-0.005186233
0.006966644
0.08805795
1.674929
0.4187921
0.4559425
1.191753
1.217155
-0.3478576
0.2649238
-0.3885238
-0.4971111
-0.5340661
-0.4069202
-0.5687785
-1.54865
-0.0894897
-0.1741581
-0.3097472
-0.1550318
0.05870406
-0.09509666
-0.513241
0.3008786
-0.6515585
-0.3204022
0.4058406
0.4997551
0.2288555
0.2357063
0.4574674
0.4670944
0.08398227
-0.6197845
-0.05090107
0.04441354
-0.5093209
-0.03316589
0.3898344
0.3912768
0.3076838
0.07749554
-0.8610432
-0.1281279
0.2090024
-0.3905858
0.1512072
0.2269641
0.3824925
0.0871161
0.08191891
-0.4273048
-0.09334572
0.02339107
-0.4836904
-0.1075027
0.3016602
0.0376923
0.02134944
0.7217187
-0.45429
-0.46417
0.1345854
-0.2928226
-0.1470906
0.3162499
-0.3171168
-0.3253241
1.043311
-0.4507464
-0.6185467
0.4356927
-0.08642302
-0.2198528
0.1535309
-0.2745438
-0.3858924
0.7022176
-0.2753696
-0.4184927
0.3567949
0.08530606
-0.04418209
-0.1429388
-0.006897232
-0.06713352
0.02491627
0.1542241
0.3691559
0.05531278
0.3521999
0.3500086
-0.2741483
-0.285987
-0.2742873
-0.3821344
-0.7097285
-0.4235324
-0.2977528
-0.4095119
-0.3145138
0.3591401
0.4416569
0.1015129
0.4802222
0.2039392
-0.03312972
0.3592065
0.1799311
-0.120295
-0.0752748
-0.4243318
-0.4218073
0.03191819
-0.8475926
-0.3620377
0.2341481
0.1169467
0.007809403
-0.181232
-0.0629174
-0.07707321
-0.1042693
-0.5259355
-0.05538514
-0.1320302
-0.02209686
-0.08467987
0.2176713
0.7490374
0.5030791
0.2655975
0.3548012
0.6043774
-0.04212582
0.2133128
0.1417057
0.1297469
-0.116441
0.1411485
-0.1099686
-0.5540458
-0.2663628
0.1079203
0.5533461
-0.08763099
-0.2122601
-0.4563864
-0.1309816
-0.05125555
-0.2341723
-0.2415485
0.5240783
1.26162
0.2234911
-0.2031685
-0.3837903
-0.09928773
-0.2852235
-0.3265376
-0.09314494
0.05134719
0.6767428
0.1933597
-0.1058847
-0.08078276
0.1899738
-0.113536
0.14253
0.2411608
-0.2544362
-0.1689833
0.1183926
-0.2093214
-0.1033673
0.2124308
-0.1623096
0.1290564
0.2927088
-0.1069385
-0.0310729
0.2454327
-0.08505031
-0.1682632
-0.01708402
-0.05217998
-0.0534771
-0.05505421
-0.004364847
-0.09381295
0.02420908
-0.07356615
0.7875908
0.4015899
-0.3655337
0.4519497
-0.6821489
-0.2683384
-0.5683166
-0.06211679
-0.03093378
1.060715
0.3357413
-0.07447019
1.122521
-0.3961891
0.05527242
-0.141593
0.215001
-0.2527914
-0.8258401
-0.6193245
-0.05283948
0.1747442
-0.5931662
0.3230123
0.2262282
0.4028362
-0.01757293
-0.1328017
0.1799999
-0.01373347
-0.1267962
0.1342655
-0.06800172
-0.000381082
0.07332054
-0.08855452
-0.2435827
0.07521153
-0.09640335
-0.2231778
0.03184893
-0.08969813
-0.05678876
0.02805897
-0.006028794
-0.1787173
0.05407915
-0.01678011
-0.1706893
0.006710717
-0.01239845
-0.000453499
0.02914063
0.1644611
-0.02577878
0.1086007
-0.1919934
0.7271953
0.3039872
0.09256361
-0.7957969
-0.08233786
0.256056
0.08391108
-0.2101952
-0.1001629
0.7333321
-0.03120731
0.03015048
-0.9030836
-0.2850982
-0.1924668
-0.2086663
-0.2262852
-0.141723
0.8027521
0.03598058
0.07832256
-0.01237064
0.08131284
