16 16 3
0.1371919
0.08824881
0.05128131
-0.02096699
0.2114975
0.1743319
0.1682773
0.0808645
-0.06005727
-0.0300028
-0.07086158
-0.02311731
-0.04925016
-0.0493181
-0.0404602
-0.03167435
-0.099567
-0.01666356
0.02446071
0.005427896
0.0165742
0.04522049
-0.03878976
-0.01347508
0.02767145
-0.06539878
-0.02718358
0.03158911
-0.0696763
0.04036623
-0.04543582
0.01119207
0.03086827
-0.02741989
-0.05192016
0.03080921
-0.0679867
0.01408352
-0.00626325
-0.004730804
0.1591745
0.1601708
-0.08971087
0.02678598
-0.05186727
-0.04919994
-0.04138367
-0.04877393
0.1016997
0.1069315
0.1105709
-0.01342318
0.02338867
0.02573304
0.00938502
-0.05919769
-0.02981968
-0.07597821
-0.01762317
-0.03038558
0.02021318
-0.08896839
-0.0507471
-0.02364083
-0.01147916
0.005481087
-0.009595723
-0.008016844
0.002075337
0.02662403
-0.007390769
-0.003319788
-0.05935135
-0.005691338
0.008618749
-0.1174026
0.02940717
-0.04653945
-0.02894953
-0.09003069
-0.06124732
0.03097736
0.09010454
0.09183241
-0.08946887
-0.02201962
-0.002678598
0.005654556
0.06816269
0.04626604
-0.001895385
-0.001479242
-0.0007774592
-0.0013402
-0.001285048
0.002212418
0.0009041605
-0.001376748
0.002810226
0.06491227
0.0325329
-0.05660676
-0.004211992
-0.04263073
-0.04603529
-0.02794264
-0.06153639
-0.06453837
0.009822869
0.04283358
0.01899893
0.01798964
0.06936862
0.07380413
-0.02901294
0.0168735
0.01542047
0.01215315
0.06498049
0.07456448
0.007915113
0.06189987
0.01205677
-0.01902774
0.0113419
-0.07111239
-0.01945318
0.04896279
0.03594127
0.02160746
0.07192384
0.03097552
0.07311951
0.06866187
0.04518439
0.1066574
0.2124061
0.1729163
0.09468076
-0.02853237
0.04649563
0.1495478
0.2493645
0.1511263
-0.05607691
0.0743661
-0.01513223
-0.06859503
-0.06303003
0.01116914
0.03348874
0.1066726
0.03170851
0.1175355
0.08960484
0.08402831
0.07119194
0.1704888
0.1656496
0.09460712
0.1845601
0.1373484
0.04141321
0.03884413
0.06642907
0.02983098
0.04487578
0.01569948
-0.001720325
-0.003617463
0.02665249
0.1399051
0.2085273
0.07062297
0.1549891
0.2437188
0.2167439
0.08052221
0.2886762
0.1269916
0.07717979
-0.04644161
0.1179046
-0.004159339
-0.2413269
-0.1311458
0.0251134
-0.1462017
0.003201383
0.01025671
-0.033298
-0.02701996
0.0009929134
0.0207125
0.06114234
-0.0002139139
0.07168438
0.1049434
-0.03457243
-0.09425567
-0.01684747
-0.1084673
-0.1543269
0.009566551
-0.08302952
-0.1426919
-0.03684448
0.07872014
-0.05135335
-0.01902298
-0.005893209
-0.03154876
0.03915632
0.02198274
0.06812606
0.1249961
0.07185096
0.2752578
0.08933084
0.1678007
0.1561455
0.3190889
0.004568703
0.1620003
0.1823207
0.06900789
0.0544825
0.1104117
0.05194627
0.04190765
0.064548
-0.04868327
-0.06479114
-0.01442501
0.00256923
-0.0001909657
0.0004694124
-0.002473524
-0.0003012182
0.001530279
0.00397731
-0.003282122
-0.0009237363
-0.003753511
0.1244937
-0.004718033
0.04943069
0.2274194
0.00687823
0.08109474
-0.009059604
0.08222486
0.01498873
0.01171863
0.03840367
-0.01584798
0.01277098
0.01765377
0.01455027
0.0413991
0.06947756
-0.06856243
-0.0534006
0.05326186
-0.1157569
0.03325066
0.1635673
-0.01750462
0.06342474
0.1403888
-0.0491037
-0.09821606
0.04584002
-0.03649732
0.02490363
0.06455931
-0.02468883
-0.03519234
0.03960549
-0.06960522
-0.08242958
-0.0002763048
-0.02340003
-0.06587604
-0.01408384
-0.02952223
-0.08205712
0.03828289
0.01014667
0.01446892
-0.03946073
0.01209884
0.005862284
0.01009999
0.05967017
0.02361221
-0.03771251
0.002988613
0.03210932
0.0007188148
-0.002779774
0.04676128
-0.02892341
-0.003301429
0.003217828
-0.01399816
-0.02927377
0.003278501
-0.01084704
-0.01406556
0.006581564
0.002685486
0.01576267
0.02141111
0.02215314
0.004354226
0.007647473
-0.01649963
-0.01092864
0.05803725
-0.07844153
0.04558778
-0.04204809
-0.01623531
0.008997316
-0.01473675
-0.03373364
0.01447999
-0.007827631
0.001897174
0.001276923
-0.01706521
-0.001412716
-0.008875769
0.0001138412
0.00352871
0.02967038
0.03387386
0.0234981
-0.002295004
-0.01243106
-0.006686143
-0.0117793
0.006163219
-0.01476103
-0.005672644
-0.0110753
0.00332482
0.0141798
0.02220882
-0.0001365586
-0.007794903
-0.01957853
-0.01489934
0.003298316
-0.003853376
-0.01598145
-0.001777667
-0.02336226
-0.03318643
-0.03293463
-0.04436902
0.01331574
-0.0003253212
0.05242276
0.04887212
0.02482887
0.04080242
-0.1265195
0.02104209
-0.004393267
-0.0005974117
-0.0250627
-0.02272359
-0.01565687
0.001670749
0.004854627
0.02471352
-0.001005159
0.0005503937
-0.002069846
0.001454679
-0.0009153798
-0.001749441
-0.001269642
-0.001237985
-0.001573695
-0.0001963039
-0.03115728
0.02445278
-0.009159929
-0.0003019368
0.05244124
0.001498388
0.01044478
0.02565558
0.001620845
0.005985831
0.002103549
0.01551959
0.005125845
-0.00568799
-0.006831498
-0.009211184
-0.01488899
-0.009126537
-0.01672218
-0.01780817
-0.0166669
-0.0157276
0.01820591
-0.009298222
-0.006465382
0.01362839
-0.02577358
0.01675804
-0.006896509
-0.03466098
0.008443992
-0.02388919
-0.02467407
0.005168311
-0.008219288
0.001437021
-0.002609156
-0.0003162583
-0.0196259
-0.02429928
-0.02981273
0.00121817
0.03709419
0.03586364
-0.01480838
-0.0483501
-0.04224143
-0.05795461
-0.1223747
0.00699469
-0.009432185
-0.05420684
-0.03427864
0.0008972955
0.03471998
0.07647116
-0.01069505
0.0699292
0.03475349
0.01333509
0.06435557
0.008710254
-0.08349178
-0.06789543
0.042498
-0.04942358
-0.06662168
0.01336104
0.003452984
-0.05390734
-0.01838668
-0.1050352
-0.01876306
0.07320876
-0.103407
0.05239492
0.02514786
0.002308981
0.003244681
0.02446718
-0.03309215
0.01372188
0.0002260184
-0.0006430893
0.03286625
0.05648798
0.01018108
0.020887
0.05185517
-0.05618029
-0.05585314
-0.06344225
-0.07009815
-0.07708056
-0.08941257
-0.141546
-0.1368573
-0.1061641
0.01312349
0.01782471
0.006095428
-0.009191123
0.04465979
0.03883554
-0.06917749
0.01537669
0.02905588
-0.02325548
-0.01471617
-0.0004275164
0.008217335
-0.007449514
-0.002313559
0.04588062
0.0170888
-0.01104089
-0.05066822
-0.1031747
0.06332874
-0.133451
-0.07426435
0.08346143
-0.02539782
0.01424934
-0.05373845
-0.01449974
-0.004097097
0.01505704
-0.000450726
0.00655181
-0.0008229181
0.005826365
0.02316035
0.02622558
0.002986167
0.0009306304
-0.002238475
0.001147488
0.002246159
-0.000999383
-0.0009914882
-0.0002917235
0.001037984
-0.06078636
0.01521743
-0.02396998
-0.05117663
-0.08276348
0.04132044
-0.06568977
-0.01993234
-0.008639464
0.01967432
-0.01796048
-0.04672978
-0.003178817
-0.04071812
-0.02987904
-0.03745658
-0.07525495
-0.04224951
-0.02702821
-0.02068096
-0.02307884
0.02948372
0.005621275
0.01560926
0.02649756
-0.007512389
0.02539076
-0.02379693
0.03730067
0.006048499
-0.06585689
0.0209303
0.01353625
-0.1027801
-0.00645056
0.02241878
-0.03951203
-0.08033425
-0.01695367
-0.1081084
-0.1455048
-0.1245038
-0.04092715
-0.09419064
-0.1162449
-0.09331594
-0.09521585
-0.03601416
-0.1165702
-0.1761431
-0.2212006
-0.05723644
-0.1037498
-0.07601444
0.0465177
-0.05598776
-0.04779846
0.07592234
-0.1072667
0.02677923
0.02722234
-0.127698
0.04210348
0.03513839
0.09355548
0.06532701
0.1088502
0.2097652
0.1315117
0.05888223
0.2037055
0.1577565
0.03673374
-0.04159907
-0.06329153
-0.01682943
-0.005795333
0.08852582
-0.004900989
-0.0284582
0.02122888
0.1576528
-0.01842222
0.1024679
0.05708238
-0.2599384
-0.05564924
0.0859442
-0.2191165
0.004850664
-0.004718289
-0.04842935
0.008513886
-0.08320976
-0.07874078
-0.02047131
0.07214668
0.1008918
0.06806343
0.01667277
-0.0769337
-0.01295831
0.04594487
-0.0742562
0.04525056
0.0265251
-0.0109984
-0.006147511
-0.009020103
-0.0256566
-0.01806384
-0.05760291
-0.04027397
0.0106109
-0.1147726
-0.03087596
0.05608336
-0.02383148
-0.04882833
-0.09157427
0.01115055
0.08591501
-0.06099788
-0.02535697
0.02823358
-7.936251e-05
0.01734525
-0.06390144
-0.02238335
-0.06915466
-0.07057244
0.01181681
-0.0381821
-0.08154213
0.009450181
-0.0007428476
0.0003051263
-0.0007783757
0.001758076
0.0002244382
-0.001021901
0.001602155
-0.002179804
0.002858674
-0.01124437
0.1137903
0.007570879
0.2205214
0.26738
-0.04559949
0.2152763
0.2265343
0.03529513
-0.005870819
-0.04031867
-0.0342563
-0.01276543
-0.03028956
-0.03790234
0.03696868
0.03669656
0.01838629
-0.02365532
-0.05010077
0.05007299
0.03757152
-0.03034595
0.1595492
-0.0007850661
0.02052338
0.1987963
0.04305268
0.09492238
0.2113496
0.1870063
0.09102569
0.279943
0.1367083
0.08279572
0.2590276
0.01144847
0.009770417
-0.07535877
-0.02984588
-0.1113804
-0.04322278
-0.02964018
-0.01132633
-0.04871805
-0.02223272
-0.0361521
-0.1103237
0.006407127
-0.007156301
-0.008735637
0.05795171
0.01166865
0.02453316
0.0014446
-0.05645417
-0.00276347
-0.04252493
-0.07113749
0.0308615
-0.09647109
-0.02921356
-0.003453578
-0.02601176
0.1068576
0.02112533
0.04405912
0.05786818
-0.051786
0.02580241
0.02402394
-0.1128207
-0.02732365
-0.03329736
0.0520068
0.01616815
0.1674143
0.1388006
0.09631892
0.2124606
0.1397687
0.01528629
0.05564636
0.07335854
-0.01381813
-0.06145658
0.05603115
0.009977124
0.01767771
0.06453827
-0.007698371
-0.04057861
-0.01932941
0.02937051
-0.04468547
-0.06331442
0.03641278
0.005116277
0.008360074
0.03026074
-0.09796987
-0.0433026
-0.00343256
-0.06039334
-0.0414744
0.01182778
-0.01034932
-0.06559684
0.0064268
-0.05256693
-0.06958947
-0.004011991
-0.007582829
-0.02080619
0.05493196
0.03469542
0.01523966
0.03135449
0.09165683
0.1392307
0.1047185
0.07022492
0.2671947
0.09314971
0.1761143
0.2099087
-0.01749165
0.04287842
0.056612
0.004590135
0.04454623
0.06071086
0.01132752
0.03902097
0.0111083
-0.0005849701
0.0001825245
-0.001088709
-0.003515463
-0.002196021
0.001237376
0.003128447
-0.001797133
-0.0008249471
0.09251107
0.0192183
0.04287941
0.05893251
0.08704391
0.0585876
0.08374266
0.009655786
0.02255095
0.03973802
0.005374094
-0.01320853
0.005314659
-0.01410014
-0.03938308
0.009798379
-0.00382508
0.006135276
-0.01575664
-0.01376885
0.04571882
-0.01178205
0.003395612
0.08580711
-0.004474742
0.002281185
0.1005167
-0.02548058
-0.03062083
0.02646857
0.03939748
0.05319702
0.06618924
-0.0405833
0.0572468
0.04993371
0.04105393
0.01793202
0.03100003
0.01813227
0.01177925
0.04052581
0.005489079
-0.05364021
-0.02862092
-0.08223291
0.006532849
0.07818329
0.05024473
-0.04937661
-0.02036088
0.04399683
0.09543662
-0.003073101
0.08994712
0.01324932
-0.009092654
0.06897779
-0.04923914
-0.03764075
-0.03397067
-0.09915987
-0.000483632
-0.04366644
-0.04474901
0.006974814
-0.06001743
-0.01707285
0.02780825
-0.03882142
0.01384642
0.05136367
-0.02168942
0.05234523
-0.1153368
0.05125936
-0.1463212
-0.08812767
-0.1052343
-0.09534325
-0.01358747
0.02731903
-0.0009111647
-0.005433665
0.05354954
-0.00535568
-0.06020351
0.04820486
-0.02834058
-0.1059049
0.0185334
0.02515601
0.0335777
-0.01004073
-0.004833369
0.0279298
0.01626617
0.008778619
-0.01375106
-0.03089681
0.03653964
0.1225714
0.03027175
-0.06720267
0.07302892
0.01479571
0.02608681
-0.01482876
-0.01805574
-0.04791911
-0.05946394
-0.02184285
0.005828422
-0.02360723
-0.0511278
-0.003321285
0.01362407
-0.07941967
-0.05063655
-0.1475107
0.0423812
-0.04106677
-0.1714548
0.1031534
0.01950007
-0.06952149
-0.05752124
-0.04440023
-0.0150302
-0.02230647
-0.03075699
-0.03921104
-0.009143868
0.03357062
0.03868129
-0.0008292628
0.001488309
0.002606758
-0.0002213654
0.003540654
-7.289516e-05
-0.002566455
0.0006897216
0.002903084
-0.08566707
-0.04683256
-0.06186022
-0.05549663
-0.01081135
-0.1368195
0.0008031076
-0.03362969
-0.1423908
0.01988194
0.02316678
0.02304424
-0.001251094
0.0002729014
0.002202571
0.00226758
0.008276328
-0.02078041
-0.01764783
-0.002860572
0.01678273
-0.07806583
-0.04067468
0.01862964
-0.09423132
0.01385389
0.06222429
-0.06413637
-0.06975494
-0.04510297
-0.01983531
-0.05863306
-0.02631338
-0.04276246
-0.05114763
-0.004442225
0.01919826
-0.05073027
-0.01500161
0.06957058
0.08442638
0.02217741
0.04645855
0.03071355
0.1137574
-0.1333359
0.05610751
0.05667013
0.03108617
-0.03732615
-0.1574782
0.00547239
0.1249634
0.02828334
-0.09354799
-0.06274791
0.003700751
-0.04042078
0.003400444
0.01355014
0.02660361
-0.02381572
0.02963797
0.01697301
-0.0182251
-0.06518023
0.04398587
0.02520354
-0.04856192
0.02446941
0.0274274
0.004041678
-0.01153599
0.1162592
0.01670865
0.06329693
0.1084681
0.06498955
0.05446611
0.066061
0.00290561
-0.009761341
-0.02213194
0.008987064
-0.01900921
-0.06248976
-0.06373435
0.1072471
0.01624506
0.02168027
0.04571367
0.03222908
-0.03107966
-0.02385914
-0.02264032
-0.06316525
-0.05693475
-0.01965508
-0.06113285
-0.005189672
0.044975
0.08406042
0.09890641
-0.01357368
0.05063626
0.04379619
0.03123843
-0.0288196
0.06137669
0.0873012
0.08676341
0.02693049
0.03280557
0.04359728
0.01484279
-0.01333397
0.02649829
0.0429284
0.1905846
0.1836778
0.1125798
0.1877998
0.03061964
0.1467817
0.0829231
0.04817626
0.005791053
0.009257712
-0.004961638
-0.008525533
-0.006740473
-0.03854132
0.01315739
-0.003206058
-0.009737301
0.003402049
5.845787e-05
0.0006569247
-0.003087012
-0.002124456
0.0001373883
0.001336628
-3.288222e-05
-0.001019013
0.06712601
0.06596608
0.1118212
-0.02697241
0.07722902
0.02634579
0.05430776
0.05527525
0.05282255
0.04093261
0.04668797
0.02415365
-0.04741439
-0.01977142
-0.0308254
-0.09635186
-0.0672829
-0.04130971
0.04891039
0.03751349
0.09080524
0.01313192
-0.02539277
0.0174334
0.05431839
0.01738649
0.04524845
-0.08012178
-0.01241565
-0.06027476
-0.08200081
-0.0312687
-0.01882299
-0.04756926
-0.04062572
-0.02587363
-0.03203728
-0.1096091
-0.01813417
0.1347373
0.1768497
0.07392845
-0.04726107
-0.02567175
0.06702834
0.02063494
0.04681703
-0.04350512
-0.1054802
-0.1387272
0.04825831
0.05554068
0.02580694
-0.01347162
-0.02099087
-0.06576101
-0.0546767
-0.04951107
-0.0464054
-0.04187699
-0.1215989
-0.0003745616
-0.05415121
-0.08657628
0.02263774
0.05498555
-0.01160245
0.0965196
0.06903872
0.05364604
0.109293
0.1002002
-0.07317141
-0.04349879
-0.05634773
-0.005629621
0.09750175
-0.0332001
0.07285036
0.08050019
0.003393278
-0.03529518
0.06084019
0.1299361
-0.09167958
-0.04949928
0.0381812
-0.03115952
-0.02000233
-0.06428864
-0.0549638
-0.09075303
-0.1185097
-0.06632584
-0.04544799
-0.02316652
-0.1401564
-0.1131812
-0.08031997
-0.06858113
-0.04281837
-0.03992921
-0.04490194
0.01451343
0.008760358
-0.02612654
0.03976037
0.05673357
-0.02299845
-0.01486047
0.02911225
-0.006363471
0.0177647
0.01285982
-0.01227571
0.03151237
0.001877729
-0.08785574
-0.08230706
0.0637713
0.03307827
-0.004962245
0.1402621
0.08696476
0.09267527
0.03306431
0.00512467
0.01084909
0.008721665
0.02347656
-0.0002055104
0.006950573
-0.007303905
-0.007522217
-0.02674464
-0.001628571
-4.827564e-05
0.002057077
-0.0001721036
-0.002835872
-0.0005461719
0.001000551
-0.0005415402
-0.001902586
-0.04002778
-0.03904777
0.01195435
-0.02289685
0.03703168
0.08822495
0.03313136
0.1249361
0.08454864
-0.008431584
-0.0193626
-0.02362097
-0.03678108
-0.05687045
-0.04098893
-0.03463891
-0.0744295
-0.07815652
0.01666255
-0.03650189
-0.04298806
0.04303103
0.0004431596
-0.005245815
-0.00848398
0.04832533
-0.02562516
-0.05639763
0.002428484
0.005687805
-0.004465475
0.04752615
0.02003678
0.0507091
0.07873386
0.05957942
0.01259587
-0.01437421
0.09797956
0.0509334
0.01222155
0.0458081
-0.04561987
0.004456691
0.05830309
0.0494607
0.1018272
0.07160699
0.1099675
0.07503688
0.0499282
-0.002981744
0.08662617
0.01468431
0.01123884
-0.04097235
0.004085064
-0.02758974
-0.009639855
0.02781147
-0.002471741
0.02796815
0.04121762
0.03138572
0.08089162
0.09021687
0.09260843
0.1620091
0.1511043
0.1124206
0.1731565
0.1525508
0.01997312
-0.01364064
0.01780627
-0.002869196
-0.003004077
0.01129764
0.02354666
0.04363955
0.004286367
-0.04946156
-0.08388236
-0.03513169
0.03031731
0.0034231
0.06032319
0.01170647
0.01251914
0.01321425
0.02381937
0.002912357
-0.000750253
-0.001645599
-0.0185162
-0.01263591
0.1252668
0.08400434
0.06328005
0.08765789
0.1112743
0.03592899
0.07963158
0.03424089
0.01811336
0.047619
0.05762405
0.009484456
0.0280589
0.03700395
0.006628571
-0.01215525
-0.001751812
-0.001239618
-0.02662166
-0.01516194
-0.024929
0.0287842
-0.01467763
-0.05929997
0.008776768
-0.03024187
-0.06177707
-0.03017608
0.05988881
-0.03730779
0.05860204
0.06977627
0.09283594
-0.001052437
0.06348917
0.03673252
-0.0237282
-0.007909549
-0.03707635
0.0006882686
-0.0003898433
-0.002547276
-0.0009789364
0.0005070408
-0.002558781
0.0006824277
-6.828282e-05
-0.001652543
0.01327847
0.04019625
0.03248305
-0.01626012
0.06911863
0.0192821
-0.008292627
0.06305797
-0.01630428
-0.03730732
-0.04551845
-0.03668624
0.002040143
-0.0121868
-0.008447218
0.04586419
0.03085026
0.03243931
0.01354469
0.0117732
-0.008207822
-0.002224652
0.05236676
0.01997362
0.0024368
0.03414107
0.005704847
-0.002554511
0.01262276
0.03056506
-0.0342812
-0.005583887
-0.01462304
0.006390763
-0.0002801217
-0.01378353
0.001925516
-0.03397534
-0.02876604
-0.03041793
0.009149734
-0.05143825
0.03359191
-0.001119295
0.0109264
-0.01410611
0.04029887
0.02386908
0.06731896
0.042883
0.003340877
-0.01769082
0.06838481
0.06382983
0.02425126
0.04268832
-0.08830999
0.02248928
-0.1031082
-0.073443
-0.02095374
-0.06410674
-0.06205958
0.02033012
-0.01357664
0.01757803
0.01003612
-0.04459983
-0.02726694
-0.0171153
-0.04497478
-0.05617223
0.05531976
0.06859577
-0.09609938
0.03316471
-0.1110146
0.0541016
-0.1228587
0.06980363
0.02336567
0.01533172
-0.004353031
0.02746897
0.03200072
-0.06294254
-0.03783684
0.021438
-0.04904679
0.02682425
-0.03119648
-0.05044279
-0.02209348
-0.01317659
-0.03823848
-0.05694903
0.02104462
-0.003500203
-0.05279137
-0.01240582
-0.02705027
-0.01026911
0.002067111
-0.06248291
-0.02853633
-0.0007442902
-0.01958138
-0.04038135
-0.01491546
-0.005580234
0.0015934
-0.05688735
-0.008504284
0.005015284
-0.05127631
-0.004755508
0.02496633
0.01065615
0.0878214
-0.06530429
0.1319984
0.009934057
0.02627787
-0.0547598
0.05346584
0.05210741
0.001208113
-0.01466966
-0.02323879
0.001194556
-0.007558494
-0.003345203
0.005474691
0.005222239
0.01131935
-0.000188459
0.00221539
0.001619347
0.004416975
0.003894046
0.00148836
0.001000734
-0.003317102
-0.0003745148
0.01372142
0.0361007
0.02452841
-0.0001030421
0.04600953
-0.03329849
0.01873355
-0.03581156
0.002850268
-0.04789491
-0.02391483
-0.02283048
-0.01512433
-0.005838558
-0.04950775
0.01253656
0.01132445
-0.02496061
0.003387415
-0.01232346
0.06887253
0.01728771
-0.03356619
0.05537436
-0.009229735
-0.03279517
0.02181992
-0.0114168
-0.05196134
-0.04680457
0.0002006563
-0.09361786
-0.02502635
-0.02653333
-0.08610844
0.004542695
0.00253197
0.01085715
0.001844373
0.005363079
-0.0007058106
0.0418487
0.0128007
-0.01808851
-0.006461832
0.05640046
-0.02840399
-0.02904763
0.1379584
0.2332173
-0.01110951
-0.02502268
0.1431538
0.1417439
0.0583304
0.04106617
0.03177599
0.06059352
-0.02977915
0.003448047
0.07391699
0.04838026
0.0153593
0.01667514
0.01894491
-0.06210575
0.04575179
0.02626166
-0.03069946
0.06831732
0.02682502
-0.01613282
-0.008616613
-0.006517428
-0.05145282
0.005230939
-0.01945615
-0.001755303
0.01425972
-0.003357807
-0.01343159
-0.003047423
-0.04199166
0.001273644
0.04818983
-0.01389539
0.0001280162
0.0181168
-0.04122873
-0.004659912
-0.02396913
-0.03315836
0.003891895
-0.05010399
-0.02909141
-0.05796541
0.1031956
0.1210474
0.07445718
0.05853775
0.06153947
0.06195777
0.1118899
0.09117649
0.02691482
0.04788143
0.1183459
0.08011822
-0.04994638
-0.009612481
-0.03743402
-0.05736231
0.006177225
-0.01104602
-0.03575885
-0.003442996
-0.03479267
-0.02009261
-0.03437854
-0.1100226
0.02653388
-0.1201737
-0.07125665
-0.05628809
-0.06338017
0.0003456497
-0.0498886
-0.07482676
-0.03472976
0.003449505
-0.05405851
-0.02288676
-0.03197873
-0.05261727
-0.06666031
0.00066812
-0.001710997
-7.231531e-05
-0.0001563287
-0.0045312
0.002465321
0.0002428128
0.002298882
0.001888129
-0.015289
-0.027041
-0.06075945
-0.009538784
-0.07501465
-0.04258141
-0.001593828
-0.09180023
-0.02602185
-0.0531578
-0.03839251
-0.04494074
0.01446767
0.02824322
0.01049775
0.01538969
0.05524595
0.02034859
0.01074288
-0.05270162
0.008422678
-0.0336338
-0.04982215
0.002900488
-0.007620349
-0.04557203
0.03080058
0.0139154
-0.07481827
-0.03577652
0.04287382
-0.01458166
-0.02015478
0.01798685
-0.0003101096
-0.05100652
0.02025077
-0.00471686
0.03674999
0.007552255
0.1039442
0.1719656
-0.06067683
-0.09195733
0.07384247
-0.1314581
-0.1002735
-0.0368931
-0.162998
-0.1904494
-0.1436623
-0.05559655
-0.2084863
-0.07206364
0.04159228
0.0615784
0.05623644
0.08796141
0.05209667
0.02964931
0.08717988
0.1002289
0.08641681
0.004530392
0.03520977
0.03831116
-0.05778375
-0.007874332
-0.006031669
-0.02399095
0.00555783
0.003880214
0.0191336
-0.03674093
-0.09950131
-0.00610347
-0.1688654
-0.1071049
-0.1534691
-0.1529641
-0.09596096
-0.03638619
-0.03481115
-0.001472498
-0.00694683
-0.004476469
-0.04566164
0.07015041
0.150795
0.1223891
0.04553545
0.0297824
0.06459562
0.02577974
-0.03814141
-0.02881644
-0.02916819
-0.05777622
-0.0360054
-0.01855195
0.07986394
0.06509858
-0.02579547
0.01610864
-0.001694537
-0.008813758
0.006355103
0.002751176
0.1337315
0.08857463
0.08382481
0.122654
0.1230606
0.1024017
0.0828701
0.04458716
0.07082048
-0.03828852
-0.05700888
-0.1351171
-0.134671
-0.2041112
-0.2059476
-0.1403029
-0.2059667
-0.1052791
-0.002804177
0.02042782
0.01353084
0.04467604
0.06095297
0.09162032
0.05473367
0.1165467
0.1221271
-0.001696194
-0.002805045
0.0002722391
0.004016845
0.0005669118
0.001345144
0.002869419
-0.001866805
0.004928932
0.1146201
-0.1184627
-0.1053529
0.01597596
-0.06881218
-0.07387831
0.04733282
-0.02333659
-0.07705932
0.04901585
0.04123557
0.02364507
0.03136268
0.006788521
0.005760042
0.01208176
-0.03233255
-0.01352447
0.1076344
0.129943
0.04945286
0.1327456
0.09500849
0.04023573
0.07020697
0.1094056
-0.04039359
0.01615645
-0.01826045
0.0652274
-0.02827409
-0.05640044
0.03078581
-0.02933531
-0.07093664
-0.02017142
0.005480334
-0.06611692
-0.06280649
0.0194565
-0.02404188
-0.03708678
-0.03684247
-0.0006435875
-0.05135046
0.1381508
0.004956055
0.03748552
0.07229068
0.06842317
0.09320052
0.04954915
0.06314639
0.05421587
0.006029615
0.1412753
0.1180539
0.001760298
0.162377
0.01213129
0.00984389
0.07432118
-0.02576312
0.06660891
0.133362
-0.02543106
0.02770917
0.06489321
0.02625529
-0.02987726
0.01651637
0.03305683
0.03839083
0.007637059
0.1708019
0.1306576
0.1243965
0.0337809
0.1174043
-0.007881555
0.04464772
-0.07414366
0.2217765
0.03283685
-0.08545854
0.2005258
-0.01371551
-0.0165047
0.1007834
-0.08401217
-0.006487431
-0.003882682
-0.02567361
-0.04675279
0.01005282
0.03594359
0.01667649
0.02826531
0.05161633
-0.01698825
0.03995217
-0.01556671
-0.07093818
0.1402124
0.03364972
-0.02220539
0.01787491
0.04328518
0.02505796
0.08827402
0.04605909
0.06019415
0.06202566
-0.009047706
0.01865805
-0.03703266
-0.08813729
0.05535354
0.0004973279
0.1546577
-0.06978767
0.06223527
0.1121077
0.2270402
-0.001891454
-0.02927885
0.009101973
-0.02203907
-0.04554452
0.01988653
-0.08407858
-0.1152046
0.01059864
-0.02650678
-0.05880556
0.002449785
0.001787333
-0.001508412
-0.002828761
-0.00265372
0.003350292
0.001004932
-0.002970139
-0.00249267
-0.004164563
-0.07097465
0.02833535
-0.06972735
-0.02725948
-0.07636683
-0.1463073
0.001449915
-0.08409535
-3.334051e-06
-0.01647996
0.002604291
-0.01293594
-0.05453815
-0.009391054
-0.02029827
-0.05496278
-0.01001297
0.009188076
0.01590068
-0.01964518
-0.04027806
0.06093342
-0.06486914
-0.0274442
0.06645142
-0.04989639
-0.0233537
0.02543147
-0.09040595
-0.008681905
0.07733297
-0.04640039
-0.0256032
0.07428046
-0.006982957
-0.009112788
0.0001677181
0.04268397
0.007226693
-0.0119749
-0.01280964
-0.0007505813
-0.05178493
-0.0267519
-0.002813331
9.872689e-05
0.04526337
-0.0070986
0.08094694
0.01471788
-0.06981032
0.02629348
0.01303963
-0.0007835724
-0.005478736
-0.0005804091
0.05476975
-0.0159444
-0.01767317
0.03745054
-0.08668794
-0.03185025
0.06541555
0.02808357
-0.01431612
0.07125778
0.03743756
-0.03082789
0.09691149
0.0457159
-0.01207384
-0.01498878
-0.05163725
-0.032968
-0.03572589
-0.04303187
-0.02344888
-0.03148587
-0.0786185
0.03310581
0.03053698
0.004283804
-0.06798332
0.08494287
0.09083308
-0.01835237
0.01072028
0.03609318
-0.04896426
0.02223841
0.01383733
0.03913104
0.001782003
0.03169198
0.02967887
0.01829159
0.06831848
0.07682099
0.02574147
-0.04525641
0.002371981
0.01784839
-0.03709814
-0.03273699
-0.02491361
-0.0006963643
-0.01937582
-0.01047976
-0.003508574
-0.01245891
-0.01918165
-0.00437097
-0.002327165
0.007071815
0.01462716
0.02025728
-0.05678352
0.02307134
-0.002727129
-0.01512517
-0.02125817
-0.06208304
-0.02972321
-0.05745924
-0.04639302
0.009443722
-0.01924936
-0.00554421
-0.003363806
-0.04350575
-0.01444976
0.0006844275
-0.02693821
0.002880428
0.002734023
-0.0008339695
-0.0004028776
0.001201721
-0.001792825
-0.0004543534
-6.905767e-05
0.002599346
-0.0002391691
0.03576257
0.07762425
-0.01200969
0.01027713
0.07414181
-0.01395643
0.06997062
0.03198688
-0.05325657
0.00686617
0.000455088
0.01327278
-0.003124633
0.003680613
0.02741831
-0.01769722
-0.001730496
0.0402495
-0.04431187
-0.02244219
0.008883307
-0.04730612
-0.01624119
0.001133145
-0.03680731
-0.02881543
-0.002754914
0.0643535
-0.07175106
-0.03562611
0.04061128
-0.06567129
-0.005537841
0.02110584
-0.08821201
0.01293712
-0.05429148
-0.05911618
-0.05362261
-0.09231144
-0.0585662
-0.04805352
0.002817121
-0.01034635
0.02634228
0.03232438
0.0184208
0.01455758
0.1361541
0.04214164
0.0108058
-0.02272032
-0.06226236
0.03790309
0.0156066
-0.01820858
-0.01356432
-0.007766272
-0.01090356
0.05330583
0.0005101555
0.07361323
0.0264622
-0.002996723
0.04390376
0.05256728
0.003820907
0.04960952
0.03590492
-0.01453623
0.04338341
0.01013422
-0.01285825
0.03365186
0.03619963
-0.01683986
-0.03440018
0.06670198
0.005234031
0.05522333
-0.004084523
-0.02539845
-0.04269966
-0.01782303
-0.0169066
-0.01703129
0.02116969
-0.008731043
0.00988273
0.07180118
-0.008993538
-0.01959383
0.03474372
-0.05956815
-0.06471501
-0.0320501
0.04154291
0.01734436
0.04718661
0.02692488
-0.01211388
-0.03650911
0.01565056
-0.003471246
-0.001023004
-0.01609019
0.00507843
0.03513941
0.01071598
-0.01543377
-0.02404017
0.01045747
0.02694269
0.01587306
0.01734984
0.04805785
0.02558018
-0.09463035
-0.02085292
0.05165106
0.01648781
-0.1100268
0.001425558
-0.086817
-0.06578049
0.06093054
-0.001500629
-0.0130277
0.02129955
0.001970882
0.0017555
0.03999892
-0.007378302
0.0006006993
0.003563531
-0.004308463
-0.001393531
0.002716448
-0.0002094673
0.0005477279
-0.0005543286
-0.001178586
0.001073819
8.268507e-05
-0.01662703
-0.02900868
-0.001783835
0.02131385
-0.0318784
-0.02292182
-0.00618184
-0.06219029
-0.09510406
-0.008262001
-0.03593066
-0.03302116
0.01555234
-0.01738656
-0.01196649
0.01811402
-0.004246062
0.00749317
-0.04108757
-0.02081864
-0.00662006
0.03003415
-0.02070616
0.00676651
0.05634319
-0.01759364
-0.02510528
-0.02035123
0.01760851
0.0409159
-0.01209807
0.001909482
0.02248587
0.01402268
-0.01015644
0.04305999
0.07785888
0.01737711
0.006700023
-0.03087324
-0.04536144
-0.004456424
-0.07372949
-0.1393602
-0.1760271
