16 16 3
-0.09485857
-0.1155258
-0.1274494
-0.1550645
-0.02188316
0.06953921
0.1156867
0.1363915
-0.09288497
-0.08513352
-0.07853775
-0.02650283
-0.02006099
0.1162876
-0.01858647
0.0189815
-0.06035154
-0.05265464
0.01201999
0.0002480091
-0.06599483
-0.03933899
-0.03809853
-0.0319087
-0.01323684
0.01849476
0.022943
-0.04655914
-0.08428042
-0.07096518
-0.017983
0.01690808
0.09399906
0.09269252
0.168182
0.1393031
0.09523227
0.07788628
0.02744479
0.06640405
0.005534349
-0.0381691
-0.03736634
-0.08388681
-0.03679327
-0.07458623
-0.1167241
-0.04823621
-0.05688404
-0.003125935
0.03332766
0.0393226
0.06705165
-0.004456777
0.02105568
-0.0341277
-0.1134977
-0.1059318
-0.09886148
-0.1223203
-0.0675751
-0.0261011
0.1087307
-0.0278604
0.07524839
-0.04403233
-0.196384
-0.128614
-0.08473489
-0.03983351
0.058216
0.1616964
-0.0295231
-0.05549319
-0.004472866
0.04084643
0.04577681
-0.01462407
-0.004286063
-0.05940482
-0.0336934
-0.05328169
-0.03913346
0.004568483
0.005074817
0.05851795
0.07813751
0.04192409
0.01456823
-0.0122787
-0.08298787
0.03956303
0.1020885
0.01605535
0.1464194
-0.02839994
0.02865468
-0.1076035
-0.08793759
-0.05434727
0.02703418
0.02586491
0.08330347
0.08745266
-0.04908287
0.0218752
-0.07816037
-0.0366018
0.08742205
0.08321251
0.06083816
0.007348848
-0.02116323
-0.04506055
-0.02440445
-0.01589424
-0.06166879
0.1959401
0.1001428
-0.004862165
-0.03626567
-0.1597976
-0.01852418
-0.161478
0.08498803
0.1620187
0.01766231
0.0007018464
-0.07150098
0.06401011
-0.02487959
-0.08934505
0.02378386
-0.03729788
-0.01103348
0.1159651
0.1142264
-0.06636167
-0.01547539
-0.05768225
-0.03994085
-0.1107787
0.04795243
0.1013547
-0.01564151
0.04416044
0.02640639
0.007032756
0.0242747
0.03335926
-0.002458225
0.005598866
-0.01358872
0.02069226
0.009628012
0.01053226
-0.03428722
-0.0205876
-0.02901084
-0.04993482
-0.03793893
-0.04670234
-0.03324086
-0.01630878
0.0225027
-0.01636609
-0.01928541
-0.001355102
0.002408936
-0.03097332
-0.05007594
-0.01998709
-0.02178266
-0.01075546
-0.02182711
-0.02838514
-0.02313736
-0.02241936
-0.02983712
-0.03364474
0.01389676
-0.0006990767
0.03295142
0.007533934
-0.009039539
0.008684839
0.006896956
-0.004184224
0.008690616
-0.04171206
-0.02585298
-0.001421095
-0.0380827
-0.03227171
-0.0282274
-0.01419816
-0.01889909
-0.02126336
0.04404584
-0.02451129
-0.08377945
0.04695173
0.02082811
-0.03916971
0.03181081
0.05168534
0.03396277
0.01876207
0.02304404
0.02860139
0.002155835
0.06299147
0.07389569
-0.01728497
-0.01797989
-0.005724285
-0.01019816
-0.03471928
-0.04261687
0.03619814
0.01172162
0.000104414
0.0284323
0.01817579
0.01175997
0.01873853
0.003833405
-0.00404339
0.03994271
0.05059135
0.04033653
0.02429122
0.03963869
0.03688169
0.01611814
0.006653471
0.03494311
-0.02643883
0.0007862251
-0.009517506
-0.02108178
-0.02700708
-0.01171161
-0.01122331
0.0001688952
0.0166823
0.008953881
-0.0004543715
-0.01282577
0.01305223
-0.00788297
-0.03267333
-0.006175274
-0.004388948
-0.0239161
0.001583011
0.01689576
0.01189327
-0.004811038
0.01772852
0.01355687
0.002753696
0.03014216
-0.005227785
0.0297972
0.01550856
-0.005092342
0.01391542
0.01737109
-0.001026287
-0.0253296
-0.02256975
-0.01390945
-0.019103
-0.02161881
-0.01326044
-0.01420377
-0.002855063
0.01074726
-0.02615429
-0.0005083779
-0.01388474
-0.02760289
-0.03093384
-0.01746448
-0.02820921
-0.02782445
-0.02673564
0.01424652
-0.04986181
-0.04836906
-0.1109663
-0.03695172
0.0178788
-2.4132e-05
0.1009617
0.07415018
0.1612538
0.01698011
-0.1287616
-0.02812726
-0.03145495
0.1825427
-0.2046213
-0.02214599
0.07093795
-0.1206118
0.004497796
-0.03195414
-0.02923087
0.01684998
-0.02684218
0.06075719
0.03303596
0.01641947
-0.003338271
0.000430348
-0.08818524
0.02734859
-0.03805604
-0.04863894
-0.01548052
-0.02227349
0.04337195
0.03263977
0.00642605
0.1060646
0.01463543
0.09071355
0.1426503
0.003936678
-0.07341245
-0.2096921
0.1262618
-0.07215246
-0.108641
0.02909479
-0.1180079
0.02570232
-0.08273792
-0.05392308
0.02039914
-0.03730718
0.07630575
0.07990255
0.03538057
0.05585572
0.002407389
0.03534965
-0.01638311
-0.1350802
-0.009243757
0.01302361
-0.02998682
0.0122804
0.09406849
-0.07466231
-0.09070651
-0.07791392
-0.01603538
-0.009482877
-0.05014734
-0.005914039
-0.04336847
-0.004680636
0.008325427
0.006489581
0.0729831
-0.004020761
-0.05552578
-0.09091517
-0.03276268
-0.0555434
-0.00207406
0.06955872
-0.02561934
0.05032502
0.07436376
-0.1018114
-0.0953884
0.05334866
-0.05284717
0.1694409
0.2349788
-0.02963644
0.1140732
-0.0810634
-0.1478989
0.01775597
0.1321466
-0.02630843
0.152694
0.03846614
0.08981182
0.1483151
-0.1616718
0.01545032
0.03161097
0.02705654
-0.05942638
-0.07246671
-0.01587876
-0.03166761
-0.02818597
0.02687643
-0.09543073
0.09194621
0.06265736
0.1035588
0.0732532
-0.09195264
0.02804261
-0.2430668
-0.1273872
-0.0626052
0.02215906
0.05721418
0.02842634
0.1030023
0.07141263
-0.06219823
-0.03892214
-0.08552366
-0.06051891
0.1634134
0.0403504
0.06210718
0.1630222
-0.1265415
-0.0434185
-0.1565177
-0.1511748
-0.02746307
0.000270057
0.01670719
-0.02625292
-0.01658173
-0.04746661
-0.041345
-0.02087498
-0.06262409
-8.673677e-06
-0.09174006
-0.1349498
-0.01553763
-0.0627038
-0.05800993
-0.02809384
0.04324209
0.1023903
0.04616787
0.04312854
0.02625345
-0.006190539
-0.003638353
-0.04452085
-0.05468247
-0.0382123
-0.03636846
0.02151106
0.030236
0.002037259
-0.007944359
-0.0199679
-0.02423662
-0.03123393
-0.05476467
-0.02200664
-0.03630765
-0.1019051
-0.05810227
-0.002030553
-0.01310048
0.02385297
0.02928037
0.0903767
0.0965059
0.01864177
-0.02199782
-0.01803413
0.01253364
-0.01461293
-0.001503273
0.0003108928
-0.004979463
0.02183282
-0.03661031
0.02982672
0.03959792
-0.006287931
0.06256911
0.05900128
-0.01566451
0.02191461
-0.01616078
0.02964049
0.01403351
-0.03400616
0.02548811
0.06882551
-0.01278774
-0.03071692
0.0313047
-0.05125052
0.01857314
0.02183243
0.01199803
-0.01524117
-0.0006576814
-0.01359487
-0.001607752
0.02479095
-0.007788011
0.009516725
-0.006485464
-0.004663514
-0.006892064
-0.003200324
-0.006501636
-0.01318632
-0.005995462
-0.003180623
-0.02061822
-0.01318728
-0.004150153
-0.03087157
0.008878376
0.0088408
-0.0050273
0.08968925
0.04095074
-0.1298969
-0.08671448
0.03293026
-0.04434299
-0.006087479
0.004051541
0.01734954
0.04151699
-0.01583196
0.07148573
0.07717831
0.05619806
0.0405916
0.01056532
-0.01143088
0.01893434
-0.02227467
-0.04189882
-0.02455098
-0.0159342
0.02053916
-0.003818944
-0.006790306
-0.01338176
0.04457709
-0.06901692
-0.03841589
-0.01737516
-0.05484712
-0.01836737
-0.003817576
-0.04909952
-0.03564092
-0.002923588
-0.02653055
-0.02401633
-0.02886997
0.02069097
-0.005424971
0.06299795
0.1604722
0.04892818
0.006797379
0.01516767
-0.06078919
0.007602824
0.3371871
-0.05409989
-0.03467049
-0.1438836
-0.1959014
-0.09167235
0.0920805
0.0559044
0.114496
-0.05497258
-0.2294186
-0.04158115
-0.04458007
0.07971864
-0.06828471
-0.02640317
-0.02852607
-0.02759591
-0.01132394
-0.04384507
-0.04112127
-0.04621195
-0.09484226
0.02984096
0.001102282
0.003103382
-0.00347832
0.04225575
0.02720796
-0.04499172
-0.098209
-0.06113384
-0.04101671
-0.06034171
-0.003272844
0.1033935
-0.03184101
-0.01403284
-0.07581025
-0.04273219
0.05145461
0.0537992
0.07036595
0.04753173
-0.03674388
0.06633914
0.0179367
0.01271025
-0.04303566
-0.005901026
-0.05976071
0.01057902
-0.003175474
-0.008891783
-0.09920145
0.04692842
-0.06662903
0.04221758
0.09019896
0.05739244
0.04929432
-0.06187379
-0.261297
-0.1474935
0.03626627
0.153958
0.681119
0.1253121
-0.05196508
-0.1554989
-0.2583837
0.009325556
-0.05128963
-0.02664074
0.002160124
0.07422045
0.04534637
0.05361694
0.1192999
-0.00422362
-0.008498769
-0.03736724
-0.01831637
-0.01999927
-0.04386058
-0.03778149
-0.0124054
0.0003931221
0.03444073
0.01284727
-0.2287529
0.00968873
-0.1240841
0.0731772
0.06651223
0.09789845
0.03059875
-0.01839937
0.002129552
-0.01867309
-0.01769028
-0.05606346
-0.02016546
-0.001412294
0.04268377
0.07161438
-0.007876578
-0.0519731
-0.03277091
0.0363365
-0.06594871
-0.03063196
0.01434497
0.01625832
0.03448784
0.0310041
-0.134187
0.1402599
0.1635303
0.1761212
0.06876549
-0.2717239
0.01025601
-0.1421407
0.02057038
-0.01309566
0.009801901
-0.01344548
0.02254699
0.00739053
0.03255022
-0.03987113
-0.06924484
-0.03461095
-0.1581448
0.01551755
0.05081359
0.2077004
0.2397557
-0.03540544
-0.08022861
-0.1483773
-0.01635815
-0.1788937
-0.1491954
-0.09148124
0.1071258
0.3132592
0.191463
-0.03990523
-0.01648887
-0.008715567
-0.05865686
-0.005439276
0.07535253
-0.01702757
-0.04016196
0.04897824
-0.1039238
-0.03441051
0.07533115
-0.2687076
-0.241179
-0.2233879
0.02686431
0.07736395
0.09358265
0.1342313
0.2138151
0.2348981
-0.02609735
-0.04871005
-0.03912003
0.07728428
0.1105417
0.09608021
0.02248862
0.04709996
0.04732706
-0.05669653
-0.03891383
0.05547596
-0.03203662
-0.04662369
0.02634273
0.04577138
0.0917987
0.09193859
-0.02560968
-0.077223
-0.07967815
0.003862532
0.02117506
0.03294903
0.03544831
0.02437783
0.01744806
-0.2253479
-0.1699332
-0.150328
0.03411355
0.03922445
0.02950682
0.1390191
0.2157817
0.1754536
-0.1508187
-0.0324432
-0.04320264
-0.2012331
-0.1954634
-0.1730392
0.2210941
0.2855457
0.1967713
0.05400167
0.1392802
0.1235426
0.02469977
0.01569452
0.04028397
-0.06557441
-0.08276954
-0.07559241
-0.01559724
0.03902114
0.07257515
-0.006714823
-0.008087594
-0.02436377
-0.01045832
0.02049035
-0.01839728
0.07263327
0.1648274
0.118238
0.007583806
-0.08655734
-0.09812387
-0.03286225
0.003925592
-0.03265798
-0.04016087
0.1280857
0.07498516
-0.1004977
-0.08274043
-0.07905398
0.003589109
0.0007926532
-0.07338814
0.09678154
0.08932326
0.004114811
0.00622729
0.03179862
-0.0007945417
-0.01681425
0.05115901
0.01896588
-0.01888549
-0.0890061
-0.1099004
-0.06170529
0.02899
0.03956783
0.1232888
0.1306889
0.01242606
-0.03604615
-0.07887624
-0.04095136
-0.02197064
-0.05539515
-0.01805365
0.08056982
0.00607084
0.06429605
-0.1192854
-0.07208851
-0.1845463
0.02371152
0.05508597
-0.02623482
0.20971
0.1984512
0.1283445
-0.1964167
-0.05215276
-0.04599304
-0.149983
-0.09523915
-0.123704
0.1254615
0.4267606
0.1821979
-0.06315555
-0.1558364
-0.1536604
0.03824316
0.04578103
0.02871766
-0.001527266
-0.006334386
-0.04730271
-0.08842141
-0.004252883
-0.03973423
-0.1753396
-0.1331218
-0.1851833
0.1173828
0.1540884
0.1195033
-0.084209
-0.05374969
-0.01928838
-0.07134879
-0.07949191
-0.05122155
0.1094651
0.1456667
0.1560993
-0.05716328
-0.01924723
-0.04904217
-0.04428238
-0.0177687
-0.0784192
0.1174845
0.1493217
0.1136813
-0.08833034
-0.06212544
-0.0303078
-0.01764339
-0.01725456
-0.005014376
0.01416844
0.05898297
0.1010063
0.03989706
0.04077353
0.03141437
-0.0345631
0.01337551
0.01088737
-0.07690531
-0.08234961
-0.09706229
0.1521589
0.2458507
0.289424
-0.2551892
-0.1093397
-0.1211266
-0.1343717
-0.03101595
-0.08465405
-0.07572754
-0.08922733
-0.1585127
0.03440982
0.1211971
0.08137624
-0.01033756
-0.03296217
-0.03779379
0.07103063
0.08983172
0.03566776
-0.0330595
-0.02244883
-0.02598476
-0.01748137
-0.05372095
-0.09208576
-0.02540459
-0.1117078
-0.09310769
-0.0739579
0.05942619
0.06982731
0.0422687
-0.05046697
-0.08495425
0.02475105
-0.07990514
-0.1526219
0.1220136
0.2099144
0.1696071
-0.07657938
-0.1625911
-0.1721412
0.0351495
0.04531623
0.0108065
0.002391121
-0.02394442
-0.05399952
0.05402933
0.03066133
0.02846038
-0.03255364
0.0308389
0.05334886
-0.08004376
-0.196675
-0.2084926
0.04932873
0.1174221
0.1848021
-0.02495641
-0.1215175
-0.1212153
-0.05276938
-0.1135443
-0.08487473
-0.04214395
-0.01310547
0.03128868
0.06438649
0.2461039
0.2644064
-0.1046884
-0.09721771
-0.1673634
-0.02247684
0.07031992
-0.01564921
0.00727187
-0.02199353
-0.02966068
-0.01125296
-0.03442655
-0.021713
-0.01633276
-0.03532249
-0.03387604
-0.02948949
0.01313457
0.03023178
-0.01397832
0.02010645
0.01482998
0.002973413
0.01720763
-0.004101349
-0.02530056
-0.006788674
0.02364779
-0.02324164
0.01202662
0.03138085
-0.01436112
0.02394031
0.01011002
-0.0193823
-0.009517131
0.002823272
-0.01372994
0.001282068
0.0112167
-0.02457018
-0.01229079
-0.01340558
-0.02682886
-0.02175591
-0.007900969
-0.02295729
-0.02414406
-0.01645319
-0.00317986
-0.004960871
0.006768226
0.0005583788
0.01228902
0.01101132
0.01024417
0.01992303
0.008731615
0.006837516
0.01015567
-0.003825122
0.04114236
0.01407337
-0.0152268
0.02267257
-0.02343267
-0.02630782
0.00434636
-0.04782818
-0.0003915333
-0.01972666
-0.01774057
-0.0001362915
-0.01323461
-0.00874182
0.03914832
0.004204974
0.00285162
0.008400631
0.005937074
0.01151584
0.01233806
0.003675595
0.01769258
0.02983581
-0.00267352
0.01060522
0.03176248
-0.004366799
-0.02092675
-0.01496477
-0.02034913
-0.012798
0.01099762
-0.02407306
0.0001122205
0.02239113
-0.007805714
-0.02147471
-0.009267199
-0.01245952
-0.006304467
-0.01628192
-0.008086714
-0.01765219
-0.02050866
0.01964593
-0.02128272
-0.02201818
-0.008650283
-0.03947833
-0.04001169
-0.01175338
-0.04530392
-0.01343143
0.01583952
-0.001238976
-0.02896744
0.01156566
-0.01633994
-0.03520703
-0.007868532
-0.03811313
-0.03864379
-0.01478411
-0.008526837
0.009552364
0.001038894
0.0009332464
0.04288592
0.01075846
0.02126967
0.01606989
-0.0120704
-0.02596921
-0.02250431
-0.01512793
-0.0140979
0.0131826
-0.00212423
0.01490811
0.04101191
-0.02205516
-0.02425217
-0.009651212
-0.017675
-0.01892343
0.0183087
-0.0204936
-0.006514127
0.01324166
-0.06006718
-0.07375934
-0.07126614
0.006915933
0.02745813
0.0552328
0.02025132
-0.0344641
-0.06499258
-0.004582405
0.1637554
0.0633787
0.07958353
0.07020743
-0.07208844
-0.05118798
-0.08374034
-0.08702971
-0.01358292
0.02461734
0.0772481
0.01351383
0.002528929
0.0491386
0.02028226
-0.09141034
-0.09022284
-0.02861328
0.04493063
0.1277446
0.02993867
0.1197457
0.1609906
0.07632926
0.1199132
0.108223
0.02702257
0.00108069
-0.06213003
-0.02283397
-0.07918882
-0.08189286
-0.02582703
-0.04886084
0.08625732
-0.02492729
-0.02039076
-0.03411149
-0.006155101
0.02072942
0.01261778
0.002698555
0.05359732
0.03898657
0.05384652
-0.04853057
-0.1054572
-0.09064785
-0.1302186
-0.1016431
-0.1380522
-0.09035043
-0.01641732
-0.08159055
-0.04596021
-0.03082369
-0.05933565
-0.01574812
0.02326213
-0.08360942
-0.05898459
-0.01713299
0.05926834
0.07801213
0.05173364
0.08134278
0.06284476
0.02433979
0.01680878
0.01073508
0.02064622
-0.08149021
-0.04566243
-0.01286262
-0.03888192
0.01826423
0.03195103
0.05030726
0.0855271
0.02531568
0.00921113
-0.004906436
-0.05479153
0.06421956
0.01734785
-0.0513225
0.008086264
-0.004196323
-0.01512391
0.007235939
-0.06446876
-0.09213454
0.007995486
-0.08735659
-0.1213576
-0.02374044
-0.02672308
0.004702776
-0.05399384
0.01171075
0.1009001
-0.05265231
0.04321597
0.1332128
-0.04910357
0.006326734
0.04094679
-0.01037805
-0.05720079
-0.05965006
-0.0802635
-0.0476958
0.01756652
0.02194498
-0.01432136
-0.05407181
-0.009334642
-0.056457
-0.06541413
-0.02207625
-0.04432667
-0.03518815
0.005108908
0.03199238
0.07533949
0.1215933
0.01673852
-0.09108195
0.0160085
-0.02951818
-0.06210417
-0.08684479
-0.0761729
-0.01328999
-0.2977126
-0.2325739
-0.2197048
0.1142072
0.537309
0.2670685
-0.2532674
-0.07903098
-0.1532331
0.03833015
0.1343215
0.1417962
-0.03137005
-0.141601
-0.1655363
0.07306016
0.02558908
0.02830827
0.01300326
0.02967757
0.1080437
0.1337353
0.1222391
0.1054143
-0.1072297
-0.109215
-0.1585821
0.1012822
0.0431482
0.04960294
0.05778664
0.07328329
0.05651843
-0.03092685
-0.02864065
-0.01714243
0.07637152
0.0810631
0.1237563
0.01605521
-0.07955831
0.005125462
-0.04764043
-0.07569288
0.01540958
0.08098803
0.06467988
-0.0007631347
-0.005437319
0.03646557
-0.0116259
-0.01316825
-0.04634527
-0.09089065
0.01696531
0.08360202
0.07655443
0.03216181
-0.01891163
-0.03941714
-0.04846444
0.00279874
0.0001823636
-0.1142793
0.06353917
-0.08670095
-0.08823092
-0.1636327
-0.09787833
0.06689924
0.3199825
0.1002782
-0.01862499
0.04920537
0.04191724
-0.09366558
-0.1099027
-0.05306199
0.02110296
0.04145177
0.0320884
0.008378673
0.007745413
0.02846336
-0.01236812
-0.06190433
-0.05331578
-0.02373248
0.04218908
0.05460015
-0.04818428
0.1169292
0.02065056
-0.03350027
-0.2043287
-0.1579195
0.0186005
0.2229264
0.1017914
-0.04883226
0.1387541
0.04592877
-0.1015648
-0.1759276
-0.09099296
0.09699182
0.1264827
0.07514026
0.02247464
0.0813699
0.06476254
-0.04232713
0.04836241
0.03521025
0.007181047
0.04569964
0.01452847
0.08555572
-0.08188501
-0.1627027
0.01998907
0.2415144
0.2015688
-0.0866971
-0.2162746
-0.1774244
0.04426507
0.0270132
0.0223409
0.04013999
-0.003431172
0.04007942
-0.01147755
-0.03391228
0.04736733
-0.05700078
-0.1014969
-0.1875612
0.203195
0.4113739
0.2899106
-0.1874108
-0.2690907
-0.2035979
0.04537106
0.09144479
-0.04447998
-0.005129374
-0.07454839
0.120213
0.03699017
-0.02327099
-0.05994423
-0.0278362
-0.05376561
-0.05986281
-0.03891416
0.04609813
-0.01970583
-0.07182494
-0.004684382
0.02378101
0.06357219
0.02122071
-0.05938533
0.03219771
0.03969134
-0.05315457
0.01441153
0.0004512865
-0.001265437
-0.003736394
-0.03330489
-0.05163699
0.00590162
-0.08934549
-0.01465121
-0.02610607
-0.04808099
-0.02183121
-0.005367662
-0.05197878
0.01820076
0.004351341
0.004975746
-0.01478969
0.02310811
-0.0359889
0.02053105
-0.05087056
0.0008577145
-0.02770183
0.05772196
0.00798462
0.02289735
0.006807925
0.05625596
-0.01162789
0.0133711
-0.03589096
0.02578235
-0.01936724
0.03746302
-0.02649298
0.01958808
-0.04377925
-0.01251967
0.01626405
-0.03528833
-0.04297475
-0.02458764
0.09692921
-0.07526122
-0.03185772
-0.1030647
0.1341629
-0.06408269
-0.09320607
0.02766754
-0.03492083
-0.02760646
-0.07931923
0.006482995
-0.009222753
-0.005602305
0.02604305
-0.03275391
0.02073452
0.01234047
-0.02619669
-0.01100044
0.0177672
-0.02605561
0.03380626
0.1336446
-0.1876306
0.06024018
-0.1924334
0.286714
-0.2128779
-0.1118103
0.02700539
0.08797392
0.03028072
-0.1202646
0.04293348
0.03276201
-0.000778112
-0.0595859
-0.0663107
0.06581493
-0.07951909
0.002243077
0.007931593
0.07436842
-0.04415385
-0.04602881
0.01913914
-0.002523224
0.006347296
0.03812319
-0.3451691
0.4789351
-0.3025216
0.06672929
-0.1672906
0.2936861
0.1614349
-0.1812867
0.09450293
-0.00698425
0.009692503
0.03446034
-0.01313323
0.01047046
-0.01418027
-0.03885413
-0.03838823
-0.04880646
-0.01465765
0.0186295
-0.02846089
-0.01184526
-0.03978736
-0.02093551
0.01165064
-0.08482499
-0.05223131
-0.02942505
-0.0171815
0.004297034
0.04668299
0.01450796
0.02616054
0.04135265
0.08580312
0.09683207
0.06452705
-0.02412444
-0.07401937
0.03764952
0.026962
0.0022931
-0.04494526
-0.004375236
-0.03200849
-0.0768065
-0.04407441
-0.03525251
-0.1168892
-0.1201426
-0.1207208
-0.03823444
-0.07752326
-0.131246
-0.0775962
-0.05736651
-0.07867789
-0.04114359
-0.03843129
-0.07269959
-0.02545817
0.00958813
-0.01258957
-0.004978293
-0.05166659
-0.06036938
0.01441441
-0.02936443
-0.04962213
0.06379513
-0.009122571
-0.04475175
0.05008615
0.0007032267
-0.01414183
0.09220252
0.06651045
0.0530173
0.02574601
0.05638135
0.07113077
-0.1210494
-0.108753
-0.135003
-0.02760622
-0.01775944
-0.05990577
0.07792418
0.0885113
0.04744828
0.04744829
0.05520474
0.02338613
-0.02990462
-0.0580418
-0.04777407
-0.0002004071
-0.02770228
-0.02950329
0.01769144
-0.01296221
-0.05706513
-0.03465945
-0.001917519
-0.05207651
-0.02829617
-0.03059067
-0.04243895
0.01699584
0.01624439
-0.003887909
-0.03474376
-0.0324455
-0.04432723
-0.04532075
-0.05499982
-0.06893525
0.005501068
-0.0008040618
-0.01355344
-0.02230654
0.06193716
0.03583502
-0.0146472
-0.03695627
-0.0222583
-0.02121524
0.04201983
0.1298299
-0.05874781
-0.008810026
0.02333653
-0.01814474
-0.07315288
-0.07707769
-0.08040921
-0.04000599
-0.07523642
-0.07257268
-0.03008517
-0.0613066
-0.05103077
-0.02451263
-0.05387096
-0.1159188
-0.03753965
-0.073681
0.003988316
-0.03837896
-0.08100262
0.02636416
0.04394991
-0.03256965
-0.02182872
-0.02568962
-0.0599864
0.00865548
0.00504727
-0.04712869
0.0326502
0.02988041
-0.01886281
-0.01548738
-0.04590564
-0.02866049
-0.04226475
-0.08869489
-0.0952566
0.03389971
0.004858902
-0.005981977
-0.002183916
-0.006104882
0.1085119
0.02594836
-0.04695007
-0.1138485
-0.1611456
-0.1046184
-0.0171393
0.0113573
-0.009332155
-0.2127162
-0.07330497
-0.04684336
-0.1528427
-0.1128958
-0.1421966
-0.02655374
-0.1232638
-0.06684854
0.0310762
-0.08734128
0.07355382
0.06747672
0.03715104
0.1519654
0.08574215
0.07124514
0.1291712
0.09318907
0.1190592
0.111407
-0.01635397
0.04888009
-0.0164572
-0.0532682
0.108192
-0.1178803
-0.1953858
-0.02257313
-0.08442306
0.05132239
-0.02592382
0.1313095
0.1942779
0.07650522
0.09741727
-0.02672229
0.138523
0.02017008
-0.11681
0.03984488
-0.08727552
-0.03308406
-0.05966276
0.06221186
0.09493192
0.001506094
0.02033737
0.07277499
0.1087217
0.1083547
0.02169221
-0.1321972
-0.10924
0.06484771
-0.04115016
0.1282661
0.2264561
0.1503623
0.1263577
-0.1586788
0.01516518
-0.003000571
-0.02348828
-0.1052228
-0.04123678
0.07380018
-0.05705316
0.04699967
0.06290936
0.1073616
-0.0101695
-0.1178057
-0.003476606
-0.1108301
-0.08722746
-0.07310271
-0.06425696
0.06614187
0.05289765
-0.1249096
-0.1700912
-0.05812215
-0.2156649
0.009819103
-0.05154086
0.1065744
0.1661129
0.02823125
-0.1528219
-0.06335396
-0.102148
-0.08778565
0.0590155
-0.07212764
0.1181446
0.1071871
0.09763491
0.0445438
0.03351219
0.0004163558
-0.05191532
-0.04660942
-0.03803988
-0.03978555
0.04684759
-0.1542201
-0.003215896
0.1845204
-0.07994155
0.2173064
-0.04133415
0.2220608
0.08820987
-0.1870544
-0.04543087
-0.1318811
-0.1289525
0.009200009
0.003921121
0.02121602
0.04548069
0.1027259
0.01097327
-0.2194233
-0.09434711
0.2021743
-0.06264178
0.2791952
0.2563345
0.07264578
0.1222585
-0.06619004
-0.03124897
-0.03910087
-0.003370353
-0.02096656
0.06022121
-0.03797011
0.04774708
0.1697191
-0.06078649
0.159263
0.0201368
-0.159556
0.00284752
0.12144
0.08684528
-0.1716021
0.07140888
0.0723538
-0.004285779
0.08297172
-0.04391511
-0.03129812
0.0006054104
-0.03045533
0.0425139
-0.009949214
0.02647748
-0.01675421
-0.03450735
-0.05343685
0.0315841
-0.03950411
-0.002526565
-0.01456437
0.02037795
0.04379388
0.08464032
0.1185534
0.07492822
0.09166885
0.1305998
0.07427116
-0.05264517
-0.2082167
-0.2129255
0.02257894
-0.04918658
0.01785932
0.0102112
0.06837553
0.06181883
-0.06347475
0.09811748
-0.04318517
-0.09625576
0.1802919
0.1514231
-0.0356023
0.09269531
0.06891735
0.1048518
-0.009022946
-0.06062929
0.08002204
0.1645261
-0.1711868
-0.007778987
0.1495694
-0.0225432
-0.2333601
-0.0437148
-0.01290398
-0.01123711
-0.0678385
-0.06332486
-0.02467282
0.03284382
-0.01694409
-0.02036558
0.04660787
0.05913025
0.03011587
0.01381562
-0.03096605
-0.00727938
0.05876448
0.03907181
0.009377301
0.01469843
-0.02176723
-0.09688887
0.1064547
0.04002342
0.004773739
0.2879536
0.0549864
-0.03686874
0.09365431
-0.08363434
-0.1030005
0.1323541
0.01300431
0.07042734
0.2668797
-0.09978639
-0.02466983
0.01779508
-0.1636051
0.006577699
0.01158032
0.07627765
-0.04450541
-0.027477
0.01787061
-0.01934679
-0.01615287
0.008558809
-0.04250839
-0.002571491
0.004147164
0.08656533
-0.03949308
0.008185494
0.0085737
-0.1845264
-0.1402881
-0.04947828
-0.02029402
-0.07717352
0.1184299
0.1486105
0.03405735
-0.06619563
0.03630955
0.01102353
0.06323831
0.2857364
-0.1743502
-0.01863238
0.1446981
-0.06864065
-0.1425691
-0.1031688
-0.0617016
-0.07572962
0.01007818
0.06609095
0.008174893
0.04330769
0.03723661
0.03181221
0.06207105
0.0695134
-0.06673963
-0.06523628
-0.101511
-0.07827839
-0.07584959
-0.08564963
0.04845519
0.0790988
0.03955968
0.06611068
0.1049845
0.1094028
-0.04318406
-0.02924286
-0.03348207
-0.07364601
-0.07053351
-0.08536702
0.05360088
0.05191732
0.06048921
-0.01665607
-0.01699765
-0.02891015
-0.01436675
-0.03547188
-0.04504826
0.1096843
0.06149646
-0.02271324
-0.009541336
-0.07877108
-0.1243292
0.02386039
0.005499396
0.00435487
-0.01908919
-0.04454575
-0.04963922
-0.02492288
-0.05418583
-0.08226141
0.05953217
0.03158579
0.01558885
-0.001861184
-0.004671508
0.0126166
-0.03240249
-0.0388195
-0.03680401
-0.036039
-0.02685195
0.007016425
-0.03465637
-0.06189552
-0.07772228
-0.05110354
-0.03564928
-0.01063241
0.0631415
0.06131533
0.03047244
-0.01151796
-0.03433717
-0.07415357
0.02370622
-0.004350396
-0.0475249
-0.01548357
-0.04687519
-0.1092286
-0.02863185
-0.03045764
-0.0139472
0.01139671
-0.007500381
-0.01981667
-0.01169215
-0.0226445
-0.05180094
-0.0208797
-0.03701702
-0.05151127
-0.003287965
-0.007816757
-0.02478041
0.02597588
0.03363399
-0.001747707
-0.1464244
-0.1237178
-0.07388835
-0.08059029
-0.05040151
0.07820448
0.05595264
0.06351992
0.1090294
0.02754796
0.04146468
-0.03261927
-0.01894751
-0.005683508
-0.07095063
-0.05990565
-0.04456321
-0.1027486
-0.02794855
-0.07896461
-0.00425663
-0.05123463
-0.08935986
-0.07577928
-0.09890193
-0.155237
-0.03761268
0.0742423
0.0436804
0.06189221
-0.01956952
-0.04436288
-0.01194636
-0.01469781
-0.05017882
-0.02119008
0.03881966
0.02150839
0.1087392
0.1207299
0.1213649
0.1185323
0.000675957
-0.0538519
-0.06654052
-0.08744935
0.01822952
0.02432135
0.06139519
0.01676638
0.002728506
-0.006204619
0.03867796
0.02237514
-0.009654836
-0.009766565
0.03058239
-0.07977328
-0.06066439
-0.003819862
-0.006675955
-0.02305923
-0.02809536
0.01303199
0.02539437
0.001241797
0.02315269
0.01061234
0.010729
-0.02232726
-0.03148079
-0.03307471
0.02621979
0.02742418
0.02107977
-0.03367999
-0.03924713
-0.03842867
-0.01835994
-0.0147695
-0.01753903
0.05302735
0.03405327
0.0457096
-0.08079152
-0.0912699
-0.04463687
-0.0395695
-0.026607
0.03787826
-0.00381988
0.01951479
0.03549206
-0.007140745
-0.01255915
-0.03573824
0.0002616557
0.004125188
0.00849645
0.035857
0.01842246
0.01738477
-0.03399138
-0.03068053
-0.01830137
0.01550154
0.01300881
0.01456456
-0.03968748
-0.04695512
-0.07466557
0.06189307
0.102691
0.1389872
0.01720506
-0.02214416
-0.0621449
0.02486947
0.008724999
-0.03622622
0.0447599
0.03948893
-0.01580329
0.03512805
0.01633211
-0.04762508
-0.01859953
-0.02231124
-0.04029877
-0.0103947
-0.009415397
-0.01798904
0.01124194
0.002774158
-0.006963973
0.05738515
0.01894095
-0.003258468
-0.02283939
0.01681568
0.02967139
-0.003704855
0.03740456
-0.002059815
0.005205962
-0.04277253
-0.03983608
-0.03532503
-0.01525032
-0.006575353
0.05025261
0.05433433
0.09293716
-0.02071712
-0.01081651
-0.03228142
-0.02662007
-0.007020347
-0.02449415
-0.005684304
-0.005459814
-0.02742683
0.03637572
0.02420997
0.1071907
0.01809955
0.02090705
0.0003791492
-0.04159377
-0.05695736
-0.0217522
0.02953722
0.004328713
0.02832207
-0.03871326
-0.05971355
-0.04459945
-0.04616679
-0.07579032
-0.03554491
0.006227916
0.01289147
0.007737597
0.1295023
0.09201095
0.04151508
-0.001405219
-0.0339212
-0.0556959
