16 16 3
0.0257599
-0.05112494
-0.007979175
0.06360519
0.1394075
0.1962838
0.009215291
-0.01842497
-0.05205637
0.00406217
-0.04979128
-0.0383084
0.08656639
0.1254572
0.07229102
0.0395577
-0.07519031
-0.09795108
0.05822182
0.03153623
-0.06249839
-0.1912167
-0.1808404
-0.05617438
0.1275502
0.03656296
0.06215428
-0.03819665
0.07045897
0.04571323
-0.06372863
-0.0129733
-0.0837625
-0.05831134
-0.007774889
0.07041643
-0.004525926
0.002080397
0.04568019
-0.01668114
0.01337893
0.07378343
-0.04809371
-0.02600277
-0.007828529
0.158172
0.05585889
0.0174018
0.1293454
0.1479594
0.1628462
-0.03353008
-0.1952366
-0.1526335
-0.01759683
0.04549377
0.04515861
0.03476056
0.01738542
0.01121224
-0.0188708
-0.09068564
-0.05972721
-0.02227917
-0.005429619
-0.0005683717
0.008016949
0.05622653
0.04694998
-0.02088446
-0.09135832
-0.07679488
-0.0328084
0.06603048
0.1088831
-0.04142806
-0.02811255
-0.01441746
0.1900626
0.1902853
0.1715869
-0.05838206
-0.02226803
0.02219568
-0.0002343189
0.000504769
0.03335265
-0.04104054
-0.03020567
-0.045953
0.00145427
-0.0001723592
-0.0004007825
-0.001816212
-0.00243661
-0.0005405586
0.001121613
0.001328708
0.002320178
0.001157191
-0.003223802
-0.001795823
0.0002237021
-0.000660215
0.003228655
-0.001417764
-0.001697586
0.001218397
0.07902753
0.07020692
0.06219666
-0.03143566
-0.003882568
0.03125027
0.002540792
-0.03867385
-0.03976387
0.04090455
-0.0446559
0.01654674
-0.05892685
-0.05826605
-0.07230759
0.01988948
0.02244049
-0.0369473
0.001684138
0.002392314
-0.000971387
-0.0007347931
-0.0002536715
0.001441779
0.001136722
-0.002561078
0.004014152
0.06068405
0.08028984
0.1022288
-0.1428825
-0.07251982
-0.02431427
-0.001342497
0.02458659
0.003421399
0.03299451
-0.03451814
-0.03179413
-0.1267089
-0.1376359
0.08342847
-0.04423861
0.008068571
0.09429082
0.04488283
0.03376022
-0.04712906
0.03261973
0.01075706
-0.03412224
0.05981914
-0.03447178
-0.02572511
-0.06197739
-0.08805887
-0.03643113
-0.0565982
0.04711941
-0.01217704
-0.0322201
0.0790529
-0.01058686
-0.04575875
-0.001774181
0.02900507
0.02373932
0.04980468
-0.01924842
0.03731909
0.02048788
-0.03691895
0.02503341
-0.02437714
-0.03674573
-0.02269378
-0.05597834
-0.0476578
0.04113702
0.001572224
0.007549224
0.1133333
-0.03489348
0.01483652
-0.02669302
-0.115531
0.04423744
0.0003891968
0.05472647
0.07513208
-0.003344299
-0.01573226
0.004298477
0.008917945
-0.04324446
-0.006589293
0.01747634
0.04609516
0.04695233
0.05691202
-0.01014581
0.0198789
-0.02336958
-0.1483857
0.01575893
-0.0531778
-0.03338079
0.007138396
0.03755151
-0.04647812
0.03028114
0.01395112
-0.005239556
-0.04206168
0.01414391
-0.01274165
0.05618656
0.05862823
0.08433188
0.07314414
0.0817541
0.08393361
0.03996494
0.07737371
0.08522964
0.02257349
-0.001660612
-0.0004880338
-0.002484187
-0.0007059239
-0.001395597
-0.001118127
0.001815422
-0.0007151096
0.002924018
-0.002863607
-0.001810761
-0.001920023
0.000236113
0.001588087
0.002322311
0.002529204
0.001252769
-0.0006896932
-0.004406431
0.008655761
-0.0124803
-0.002487291
0.01817662
-0.005238184
-0.0169648
-0.02483006
-0.01612236
-0.05030888
-0.08924136
-0.0577474
-0.06175689
-0.05297006
-0.04476627
-0.0411834
0.03200065
0.01623622
0.001687564
-0.003318313
0.001139693
0.0002843306
0.0009927413
0.001632827
4.515686e-05
0.00261066
-4.629331e-05
0.1384364
0.0672636
-0.02265537
0.03299691
-0.1848657
-0.1192725
-0.05955104
-0.0939806
0.01778422
-0.02502585
0.04107665
0.1083383
0.003308448
0.01523688
0.1048422
0.01287492
-0.02786214
-0.00616795
-0.01828233
-0.0347301
-0.08888985
0.007735351
0.03673022
-0.06514107
0.06038818
0.0971753
-0.005207486
-0.1034724
-0.08234768
-0.07509337
0.007594163
-0.02088155
0.01466084
0.06191558
0.08059471
0.08312894
-0.04608884
-0.006231871
0.02846344
-0.06506814
-0.02079549
-0.02221552
-0.07431192
0.02500728
-0.01615354
0.02107093
-0.007227191
0.005366046
-0.01708518
-0.05566793
-0.05810726
-0.01334915
-0.053042
-0.07900751
-0.0203077
0.03756513
0.05859059
-0.04424821
-0.02426852
0.06926324
0.005441389
-0.06417652
-0.03469995
-0.01267959
0.0198761
0.03122831
0.004570485
0.0103193
-0.004857121
-0.01643579
0.0380756
0.02275176
0.008982248
-0.01147224
0.02725508
-0.05274711
-0.01225914
0.05574752
0.006329115
-0.02701832
0.05138114
-0.03277567
0.00830314
-0.03938537
-0.08991245
-0.07129914
-0.1389362
-0.03162591
-0.03545902
-0.08081913
0.05181743
0.009180726
-0.05238184
0.01415555
-0.04992149
-0.08917659
-0.03392718
-0.1031902
-0.1319207
-0.002502901
0.002462387
0.003168522
-0.004011567
0.0009626963
0.002102411
0.001103487
0.003150597
0.002205384
-0.0017115
4.464564e-05
0.0008271534
0.00208514
0.004253639
-0.0007913205
-0.003266015
0.00207354
0.0004276952
-0.03535281
-0.06231055
-0.05207246
-0.004287964
-0.02287527
-0.01653978
0.06206359
0.05923238
0.04522814
-0.006812549
0.003010208
0.05732528
-0.02974357
-0.02531218
0.01635115
-0.0113499
-0.03500273
-0.02461069
-0.0007025848
0.003028992
0.00155635
-0.0004849783
-0.0004698828
-0.002679148
-0.001017551
-0.00145298
-0.002449761
-0.00313212
-0.008572068
-0.02771646
-0.01177151
0.007311569
-0.035614
0.07279173
0.06192774
0.01868325
-0.02124249
0.03644846
0.02239268
0.04761031
0.1513845
0.08095159
0.08379911
0.08654523
0.07248022
-0.04015386
-0.05262226
-0.008203347
-0.02647696
0.01914988
0.05317116
0.04375749
0.09132929
0.02957482
-0.03562134
0.01678924
-0.01794081
0.001646285
0.06783789
0.02314036
0.03517579
0.04375166
0.04471108
-0.01997983
0.02474908
0.02065989
-0.03689833
-0.08749457
-0.01001466
-0.04125892
-0.03637617
0.006720073
0.01186861
0.0006681824
-0.06171992
-0.005942028
-0.02557176
-0.09676921
-0.01664816
-0.05364392
-0.1026127
-0.04892799
0.01927292
0.05174556
-0.007361148
0.1008524
0.06077442
0.02313592
0.09954188
-0.0003254701
0.04426979
0.01135162
0.02408391
-0.02333291
-0.01760332
-0.0170488
0.03679058
-0.008307107
-0.04911732
-0.0292434
-0.02616973
-0.002187012
-0.01629983
0.02043941
0.009532928
0.01521991
0.001730111
0.0243581
-0.02200372
-0.03833185
-0.09250373
-0.1493011
-0.1359101
-0.1007839
-0.1023946
-0.1283084
-0.05960552
0.03192931
0.03801985
0.06348638
-0.02502517
-0.004706335
0.02248826
-0.0253265
-0.02616831
-0.02488037
-0.001128338
0.0006700042
-0.002575969
0.001482392
0.002004416
0.004249355
0.000163643
0.003728204
-0.001161028
0.00185728
-0.001359881
-0.001528093
-0.001113758
0.002616449
0.00397757
-0.006638897
0.001089206
0.0009631901
-0.06279803
-0.02923433
-0.02567751
-0.009933619
0.05904921
0.03135692
0.04185257
0.05295746
0.06118154
-0.02545847
-0.07848515
-0.1018902
0.002097305
-0.021946
-0.06369818
0.03302025
-0.02804583
-0.01537584
0.00229289
0.002149642
0.001283774
0.001347903
-0.000530101
0.000477835
-0.003137168
-0.001197997
0.00190492
-0.05362339
-0.06753458
-0.0005717947
-0.03626777
0.01559687
0.1157514
0.07280585
0.07655568
0.07908928
0.01881626
-0.01862369
0.09993251
0.005370707
-0.1722901
0.0455993
0.03048422
-0.1062766
0.04548365
-0.02349388
0.08034845
-0.02364277
-0.04083075
0.121745
-0.04634362
0.0209688
0.05636243
-0.02471737
-0.11082
-0.06690795
-0.06244915
-0.05237542
-0.04443039
0.07879216
-0.01249267
0.09157496
0.1249623
-0.01295387
-0.009003197
-0.02586358
-0.09485002
0.1479191
-0.06063462
-0.07890031
0.1142625
-0.09457543
0.0938563
0.08644839
0.04957429
-0.01147504
0.02883247
-0.01243019
0.08294336
0.07109811
0.02645618
0.03453117
-0.07918661
0.02361502
0.05549691
-0.08767947
0.02549464
-0.001518838
-0.03870931
-0.01065974
-0.01464688
-0.005315198
-0.1057913
0.04523373
0.0170648
-0.02511621
-0.02112196
0.01795539
-0.04550181
0.03294824
-0.04060265
0.04554433
0.148172
-0.221257
0.1289197
0.0927783
-0.1627918
0.1209883
0.01520453
-0.1017324
-0.05904717
-0.08589392
-0.1054126
-0.109717
0.003602032
-0.006332505
0.006713489
0.1014064
0.04048636
-0.004576372
0.0503866
0.01208382
-0.05653762
-0.006539831
-0.003114392
-0.0785662
0.003375605
-0.00377798
-0.001499398
-0.002394883
-0.005102528
0.0003320635
0.001443237
9.651447e-05
-0.0002036508
-0.002245703
-0.001670435
0.001100188
-0.002001844
0.00194962
0.002574766
-0.0001643187
1.945089e-05
0.0002223535
-0.01498524
-0.05720541
0.0463994
-0.004588178
-0.08729618
0.07039245
-0.01438385
-0.06830302
0.05875396
-0.05439213
-0.1238359
-0.03227543
-0.05094663
-0.03256665
0.05642257
0.007665614
0.06434523
-0.01743404
0.004333308
0.002309551
-0.0007203866
0.001469343
0.0009609994
-0.003571937
-0.003244875
0.001351383
0.000782631
0.07659145
0.05534926
0.006142579
0.02783046
-0.05797676
-0.1113004
-0.0340074
-0.09723916
-0.1046294
-0.02416077
0.007433301
-0.02770198
0.0132952
0.02133543
0.003303047
-0.02761367
0.02724968
-0.03608178
-0.007919032
0.002146548
0.03744585
-0.0178398
0.02454915
0.03251914
-0.001463308
-0.03152128
0.02233933
0.03033062
-0.009559402
-0.009902085
-0.004669567
0.01578508
0.00610434
0.005376926
0.01934176
0.04299567
-0.03918023
0.1169365
0.04083749
-0.02431007
0.07518445
0.0002997955
-0.01546617
0.0260353
0.03897201
0.0129499
-0.0273603
-0.02796833
0.005470038
-0.01888796
-0.02506289
0.02875243
-0.01444847
-0.008012801
0.009963965
-0.0247063
-0.02383248
-0.001659201
0.0401233
0.008679997
-0.03973135
0.02381793
-0.01476474
0.007300489
0.005022134
-0.0009275618
0.02916276
-0.03587374
-0.02945782
-0.0199828
-0.02217075
-0.01689181
0.01458202
-0.08592779
0.06488106
0.04100505
-0.05973101
0.03185408
-0.001379373
0.01932522
-0.009082562
0.04405173
0.03079711
-0.04762812
0.00931853
0.01308792
-0.04894268
0.01665646
0.02960337
0.0269846
-0.02347054
-0.04499945
-0.03344778
-0.03980812
-0.02799555
-0.03141915
-0.0013992
0.003757091
-0.006327136
1.954573e-06
0.002284092
-0.001447516
-0.004008984
-0.002256174
-0.001175163
0.0002197877
-0.001215617
0.003702196
-0.00417392
0.001162603
0.00197478
0.0007223924
0.003189622
0.0008145322
0.002155422
-0.004502369
-0.002578249
0.02271802
-0.00618713
0.007797122
0.02344796
0.0166074
0.03169484
-0.0088758
0.01720504
0.02923144
0.0378277
0.01418478
-0.03210678
0.02040833
0.05735098
-0.05206406
0.05782664
-0.007449626
-0.02816367
0.0003156156
-0.0009096054
0.001254062
0.0008360499
7.027578e-05
-0.001737739
-0.001392227
0.002863243
-0.0001293227
-0.03799804
-0.05135522
-0.008217985
-0.04579514
-0.02895017
0.001292337
-0.01601542
-0.04007963
-0.003216458
-0.0299903
-0.05821493
-0.02106831
0.05773884
0.02888868
0.03920057
0.008469825
0.05594284
-0.003975156
-0.05403312
-0.09653688
-0.03173791
0.01564135
-0.02719173
0.01593563
0.04987098
0.0002624709
0.03368808
0.03732415
0.01560144
0.04875989
-0.02904879
0.01376269
-0.02706101
-0.07141384
-0.05077692
-0.03924762
0.08109891
0.09024841
0.09958576
0.002562018
-0.07534034
0.07132354
0.02014943
-0.0783113
0.0229751
-0.02494791
-0.02052377
0.009782489
0.01624782
0.02297642
0.04246118
-0.01458071
0.005241663
0.03724684
-0.05108378
-0.01446994
0.01730753
-0.02530192
0.0547394
0.04325691
-0.02445301
0.03028481
0.04583116
0.0285268
0.03002673
0.03011147
0.005346775
0.001678978
0.02651125
0.01458359
0.00530403
0.0122878
0.01392641
-0.008393439
0.04470632
0.05926612
-0.001824735
-0.01229649
0.01338634
0.02665633
-0.03503915
0.03773521
0.07417717
0.03687665
-0.01886351
-0.005675205
0.05504237
-0.02872284
-0.08946266
-0.08700519
0.06609435
0.01755948
-0.04898925
0.07114119
0.02653247
-0.03156675
0.04595913
0.01695024
-0.01033515
0.0001161708
0.001924694
0.002724831
0.002005921
0.003180888
-0.0003235555
0.001795901
0.001320833
0.001371081
0.003038101
-0.0008251362
-0.002543446
-0.0002257204
0.004117971
-0.0006510171
-0.002003316
0.0002891213
-0.001508261
0.02571919
0.01850781
0.01053305
0.03641819
0.01650091
-0.02855544
0.003252902
-0.001078158
-0.01227522
0.004777462
-0.04250699
-0.08485438
0.01691608
0.04769822
-0.06184366
-0.03416269
-0.01810373
-0.002643986
0.0003382424
-0.0029512
0.002570939
0.0008409251
-0.0006509156
0.002028634
-1.766413e-05
-0.000758061
-0.001317501
-0.01277772
-0.002473905
0.0309046
-0.03371097
0.01897158
0.02361102
0.009826302
-0.005196272
0.04904313
0.00952314
0.1045179
0.0707044
0.1508178
0.0303237
-0.0278062
-0.004411493
-0.1033316
-0.08166682
0.0689044
0.1005211
0.09432723
0.1343062
0.03176693
0.01576154
-0.03358407
-0.05780048
0.03296139
-0.06595744
-0.0406973
-0.1007881
0.1024101
0.05373802
-0.02550728
0.05521442
0.03633658
0.05807118
0.03670568
-0.1357096
-0.09824353
-0.07200058
-0.0627766
-0.01167252
-0.01179065
0.03961502
-0.008036938
0.01727437
0.04579788
0.02621155
-0.0475833
-0.03563412
-0.05309647
-0.03031721
0.005211383
-0.04259916
0.04043629
0.1253551
0.01205223
0.1045659
-0.06517415
-0.05593145
-0.001669753
-0.02091814
-0.02344568
0.03759553
0.03717908
-0.03787505
-0.02435264
0.01199902
0.06087479
-0.05580522
-0.05507661
0.003990036
-0.06024729
-0.02697301
-0.01783719
0.008252529
0.001822357
-0.03687535
-0.004212871
-0.01892437
0.0399147
0.0616179
-0.02263225
-0.02131697
-0.07688611
0.01413531
-0.008773265
0.03209011
0.08631269
0.0001576402
0.03192785
0.06022694
0.01992639
0.02534039
0.007631643
0.003012352
-0.01519256
-0.02158434
0.04015149
0.002423951
-0.004309289
-0.0005595781
4.089996e-05
0.004565259
-0.0004811144
-0.0008388396
-0.000646342
0.001908068
0.001039796
-0.0001681835
-0.0002039954
-0.001502677
0.0003684833
0.0001810219
0.001823666
0.0003447917
0.001265904
-0.01454781
0.006333742
-0.09827355
0.00113097
-0.04748013
-0.04031494
0.03157841
0.05867673
0.01938152
-0.03440921
0.04768802
0.04119721
-0.03019678
-0.02267735
-0.03393536
-0.006165436
-0.005124223
-0.04636683
-0.0005945033
0.0004741911
0.001848703
0.003220716
-0.001991118
0.002105719
0.003723114
-0.001427812
0.003253484
-0.1028793
0.02078417
0.01844987
0.0012919
-0.01110257
-0.04202866
0.05297806
0.02131749
-0.1047846
0.05959759
-0.0799511
-0.1326454
0.09902058
-0.12556
-0.1925402
0.08406007
-0.04301554
-0.0316536
-0.08239708
0.008881861
0.03997052
-0.03793652
-0.02462539
0.02798041
0.00676748
-0.0310997
0.02828439
0.08230574
0.03242358
0.085692
0.001509799
0.001924181
0.07131366
-0.051399
-0.01787424
-0.0003810648
0.006519569
0.009599734
-0.0940538
-0.1389968
0.04873076
-0.02932198
0.01489432
-0.006202494
-0.06361514
0.05194375
-0.02743039
-0.008038823
0.04297062
-0.04762948
-0.0159954
0.06592599
0.007848691
0.04633109
0.02245942
-0.0560306
-0.06168513
0.06058045
-0.02544558
-0.07328657
-0.01362255
0.06117205
0.0361548
0.02827688
0.06159907
-0.01905928
-0.0254465
-0.01210614
-0.005461183
-0.03921311
-0.05301446
-0.05748446
-0.01632972
-0.07395357
-0.02081229
0.04501621
-0.1131636
-0.03708257
-0.01070792
0.008640026
0.02901272
0.05515883
0.002062825
0.004858483
0.004162529
0.05007828
0.02322167
0.04376515
0.07027313
0.1035114
0.0880954
-0.01530529
-0.08451262
0.07713616
0.02636047
-0.04054049
0.03866231
0.01259612
-0.03766048
0.002642561
-0.0001987821
0.0017939
-0.001295849
0.002871993
0.001855141
0.001432321
0.002312538
-0.00270694
-0.001403325
0.001579112
-0.0003055947
-0.001357832
-0.001150733
-0.0004278892
-0.0008045735
-0.003264982
0.003261714
0.01125207
-0.009634743
0.0193483
-0.03188694
-0.05073209
-0.04153864
-0.001550884
-0.03341006
-0.01672688
-0.009877416
-0.0786451
-0.02352723
0.04997597
-0.02612665
-0.08786322
0.006308869
0.006196511
-0.02653425
-0.0009760859
0.0008698633
-0.001202479
-0.0009014373
-0.0001934037
0.0008074974
0.0002391584
-0.002963943
-0.0001597233
-0.03565121
-0.01019725
-0.09916462
0.09693088
0.04346336
-0.1003721
0.01640419
0.005278464
-0.0813641
-0.00563288
0.02100855
0.001560614
0.007178439
-0.01963245
-0.04711609
0.02945289
-0.00571504
-0.0531198
-0.01611841
-0.02700828
0.003704817
-0.01594724
-0.03564007
0.0320981
0.01561305
-0.006257472
0.02265562
-0.03194409
0.02097654
-0.01773889
0.0001939007
0.01992183
-0.02322324
-0.0381361
0.001191051
0.006963508
0.02476246
-0.03130297
-0.05783888
0.04924376
0.01448414
0.0002454106
0.04667336
0.03050639
0.00404118
0.02805758
0.03498836
0.0502904
0.00752275
0.01551479
0.0313751
0.05906494
0.06744277
0.08371841
-0.03665235
0.02340752
0.004286002
-0.0009015828
-0.008716977
-0.05761712
0.05223332
0.03046175
-0.02040591
0.001228303
0.0294849
-0.007296095
-0.005356386
0.01366069
0.007950719
-0.01420563
-0.002543096
-0.02065928
-0.0354573
0.02299094
0.00228496
-0.0412683
-0.002886999
-0.004153172
-0.01446441
0.03914435
-0.04939653
0.05024775
-0.005544601
-0.007864119
0.02340715
-0.0574537
-0.0676943
-0.005853161
0.01619967
0.05342152
-0.002650268
-0.01641963
-0.01047328
-0.02773876
-0.008001605
0.02860733
0.01542068
0.03819194
0.07262927
-0.0003325872
-0.001142817
0.002012524
-0.0005864694
0.001005272
0.001744036
0.003960017
-0.0005886123
-0.001093446
-0.001728558
-0.000745399
-0.001274924
-0.0001727034
0.002414417
0.0009438731
0.001697156
0.003075122
0.001642993
-0.04056024
-0.01804978
-0.01657467
0.007920973
0.00127472
-0.01938374
-0.007456555
0.001426601
-0.02350885
-0.01551744
0.006021411
-0.001303434
0.005200114
-0.04480451
-0.04654902
0.02435104
-0.01270569
-0.01717619
-0.003346973
0.001119056
0.00303212
0.0005781311
-0.001334763
0.0005703226
-0.0003581856
0.0003392141
-0.001023962
-0.03969594
-0.01034985
-0.0004022756
-0.009866206
-0.01472235
-0.04053115
0.01814171
0.04780109
-0.001027063
-0.08491827
-0.004997862
-0.0303032
-0.02401395
-0.08865972
-0.02358591
-0.03020061
0.02898075
-0.02428727
-0.03187846
0.03483381
-0.03459873
-0.04993226
-0.02895961
-0.02378525
-0.05117168
-0.05365956
-0.02082258
0.01045274
-0.02661816
-0.04261728
0.02359842
-0.05392574
-0.02608724
0.005906702
-0.03662337
0.007693287
0.03003515
-0.003234621
-0.04229805
-0.1442475
0.1310151
0.006923315
-0.09239525
0.09648423
0.03823075
-0.02783502
-0.06298906
-0.03392511
-0.05926456
-0.08841188
-0.05832899
-0.008030971
-0.02961192
0.009846271
-0.001978823
-0.01859355
-0.01754258
0.01816217
-0.05508656
-0.006460631
-0.01755203
0.07084705
0.0323616
-0.002922127
-0.0007151018
-0.03209796
0.002805296
-0.00774106
-0.03330598
-0.02837225
0.02626927
0.02205078
0.03456928
0.01927676
0.02516122
0.0688674
-0.1535454
0.09005123
0.09672466
-0.03027991
0.0404693
0.02763591
-0.001785739
-0.03175231
-0.03859657
0.03104633
-0.02758477
-0.01425384
0.0403985
0.0001899649
-0.01098739
-0.07257063
-0.03217
-0.01759375
-0.05377096
-0.01719248
-0.05015599
-0.0220656
-0.0006038692
-0.001491212
0.003846867
0.002836303
-0.00156407
0.002836644
-0.0006280403
-0.002213854
0.002217987
0.002003708
-0.0002644197
-0.0005101084
0.000435888
0.003198623
-0.001580146
-0.001754999
-0.001773608
-0.003139229
0.002680541
-0.006306075
-0.029239
-0.02668326
0.03970721
-0.04575704
0.02518314
-0.00210855
-0.06337738
-0.01103499
-0.04041639
0.008909578
0.03362688
-0.04150437
-0.02382756
-0.004963853
-0.02577308
0.0433765
-0.006041125
-0.002640943
0.003292069
-0.002536528
0.001143942
0.003403029
0.001001354
-0.002181059
-0.002579547
0.001793207
-0.0173138
0.04480398
0.00308848
0.009662071
-0.01495137
-0.09627541
-0.0003157169
-0.02444524
-0.09992862
-0.147943
-0.06193317
0.07221518
0.01572296
-0.0803602
-0.0485856
0.1197812
0.15447
-0.01762068
0.01197779
0.1282595
0.1292165
-0.0116459
-0.1223133
0.04043022
0.04588793
-0.09456336
-0.0276396
0.02296811
0.03459629
0.03275792
0.1320198
0.03332065
0.003158348
-0.09483227
-0.03326623
0.0127846
-0.04218356
0.03735298
-0.05077076
-0.1528733
0.07814051
0.03373745
-0.0804668
-0.1205914
0.02795946
0.02921204
0.004081242
-0.0521858
-0.0259622
-0.03662732
-0.108928
0.01898798
0.0825144
0.01290344
-0.008493358
-0.05847384
0.05770307
0.05006984
0.04518802
-0.05490194
0.0307425
0.1491784
0.1016974
-0.03410034
-0.009186682
-0.01561207
-0.05027523
0.1219138
0.09360404
-0.09993698
-0.03719564
0.03354984
-0.04002068
-0.1250835
-0.01405106
0.09148939
-0.06808338
0.01452659
0.1577154
0.05693918
-0.06924385
-0.04469796
0.01653643
-0.03445695
-0.06775907
0.01644966
-0.03039053
-0.07506088
-0.04028463
0.0763042
-0.02913428
-0.09995842
-0.1214609
-0.0895054
-0.06024753
-0.1228942
-0.1320842
-0.05433105
-0.09903336
-0.0007852425
0.0009582536
-0.00389121
0.0006166642
1.839341e-05
-0.000686264
-0.003479406
-0.002026054
0.001788019
-0.0007637052
0.001939777
0.000416886
-0.002911937
0.000139832
-0.0005020106
-0.001796603
0.0009164183
0.001671468
0.02748342
0.02455655
0.02134022
-0.05604131
-0.02423192
-0.01920926
-0.05274732
0.024908
-0.01616561
0.08129796
0.0628483
-0.01421035
0.1207656
0.2522897
0.1461839
0.01054413
0.2149087
0.1136431
0.0001972836
0.002842149
-0.002067297
0.001675997
-0.004361291
0.002030099
0.001239929
-0.003402613
0.0001527166
-0.03889365
-0.004486204
0.004602522
0.03252631
0.03703799
-0.009932991
-0.01942976
0.1038465
0.1306624
-0.04050559
-0.008100905
0.07131957
0.02181459
0.04009859
0.0409233
0.02817913
0.05597307
0.08120289
-0.03283524
-0.0005308716
-0.04253957
-0.0265929
-0.03915242
0.005194287
0.0007603182
0.02476204
0.04056601
0.001153214
0.0119958
-0.03415648
0.01864147
0.02459269
0.003118053
0.007846455
-0.002409951
-0.0153803
0.02662369
0.02460476
-0.0306168
-0.003603217
0.007643629
0.0397048
0.02049516
0.04167528
0.02396748
-0.04471195
-0.03881818
-0.01650899
-0.04308088
-0.0420205
-0.03992891
-0.03357999
-0.03474213
-0.02919053
-0.02672978
-0.05470556
0.01536349
0.01117116
0.03247249
0.02994742
0.03443888
0.05136273
0.07998195
-0.01812925
-0.02252116
-0.003824338
-0.027482
-0.03672346
-0.03063599
-0.001896618
-0.06034105
-0.01625082
-0.04043631
0.001216219
0.02524037
-0.006960191
-0.03292648
-0.04015224
0.01164829
-0.003315538
-0.01252773
0.01160009
-0.007197652
-0.01185323
0.003022162
-0.04857865
-0.08266935
0.01627611
0.02569045
0.03010526
0.03234057
-0.02043898
-0.04873095
0.006340659
-0.02984417
-0.08102775
0.008330234
-0.02944724
-0.01719286
0.00066844
-0.000259845
0.001541806
-0.0008158025
-0.00250989
-0.0004542242
-0.0006754549
-0.002222497
0.0001800597
-0.001627125
0.001649188
-0.000873708
0.003016374
0.002163195
-2.795516e-05
-0.0002256918
0.000479318
-0.002321266
-0.007087222
0.007521755
-0.007311625
0.02075119
0.03344077
0.03532188
-0.009869271
0.03544902
0.03997286
-0.04844587
-0.1069196
-0.07223351
-0.04829872
-0.07552197
-0.06806558
0.01227511
0.004128192
-0.008634964
-0.003917588
-0.001203993
-0.002627465
-0.001383922
-0.002987978
-0.002513289
0.001280641
-0.001294199
-0.0006492595
0.01547155
0.01757852
0.0271494
0.01500482
0.04191405
0.0488288
0.07096358
0.08664906
0.114339
0.0003736117
0.08666405
-0.03646715
0.07279215
0.2142115
-0.06525493
-0.02030214
-0.1059041
-0.09680278
0.03498904
-0.2666131
0.05786951
0.02628568
0.01528899
-0.06071355
-0.02970766
0.01750605
-0.1483408
-0.1492804
0.04026337
-0.08587006
-0.02943298
-0.02821429
-0.0887896
0.1347972
0.06190496
-0.07772905
0.07170218
-0.0001056818
0.1233409
0.2352618
-0.3202155
0.2648897
-0.1535396
0.08406197
-0.1050345
0.001315701
0.09824236
-0.04844426
0.02474555
0.05692919
-0.04562318
0.0225666
-0.02929797
-0.08911527
-0.1089459
0.1245148
0.02527143
-0.05989015
0.08729946
0.0401406
0.02114336
-0.2005262
0.06536897
-0.1461823
0.01001589
0.1000929
-0.0465357
-0.07450318
0.04742056
0.06520022
0.03501482
-0.02202696
-0.05393053
-0.04977584
0.07359831
-0.1356963
0.463709
-0.04023792
-0.04453962
-0.1523486
0.03441517
-0.05223033
0.07240295
-0.05712157
-0.004795371
-0.09168801
-0.05115433
0.05955078
0.08993214
-0.07314286
-0.0305867
0.08139858
0.03833782
-0.0311257
0.00619836
-0.01228088
-0.03848931
-0.05593399
0.01757197
0.001999633
0.001666197
-0.005444586
-0.002264673
-8.373348e-05
0.0003510131
0.0008947746
-0.001204911
0.002244773
0.0002117241
0.0001088436
-0.002827491
0.0002528578
-0.001023269
-0.0002208295
-0.003092182
-3.910703e-05
-0.001545878
-0.03884935
0.06669186
0.01668609
0.02587136
0.06368235
-0.005414955
-0.05441054
-0.0356093
-0.0652646
-0.01726003
0.02880832
0.005523404
0.0724711
-0.001756315
0.02269084
0.1727287
0.00536564
0.0856093
0.001537139
-0.0008032958
0.0001554818
-0.0004387489
-0.0009776206
-0.001210685
-0.0003312779
-0.0008109498
0.002366177
-0.01136123
-0.04324361
0.2204859
-0.08217074
0.1983437
0.1097331
0.03610028
-0.07274396
-0.009578539
0.1165437
-0.02253008
-0.1027583
0.2284125
0.05679467
-0.1797767
0.1623333
0.07785932
-0.02540494
-0.1358741
-0.04508929
-0.03744787
-0.06184764
0.008665765
0.02296395
0.08362565
-0.01602754
-0.03955982
0.01552119
0.01762021
-0.060021
0.05135619
0.0006523352
-0.02904356
-0.06620186
-0.04116362
-0.09714787
-0.06294079
-0.003140236
-0.03129366
-0.2437665
-0.01687111
0.1197803
-0.1260365
-0.08521675
0.1713023
0.0685174
-0.03985465
-0.09412961
0.005429197
-0.05091832
-0.1293426
0.07534953
-0.004606638
0.01481739
0.03878843
0.03129834
0.00790138
0.07408793
0.06467941
-0.04109234
-0.05438151
-0.04675998
-0.0003776943
0.02750159
-0.0148225
0.0745789
-0.061707
-0.04542918
0.0213533
-0.03437197
-0.09322052
-0.0823751
0.03139748
-0.02257041
-0.07064815
0.1308797
0.007680171
-0.1376326
0.08898275
0.07321368
-0.1204097
-0.03919228
-0.04975987
0.03374985
-0.1025852
-0.01554521
0.05487132
-0.01259353
-0.00595466
0.0538093
0.1301986
0.03550327
-0.03913356
0.05495841
0.004959292
-0.03958115
0.03941458
0.08078211
-0.003043025
-0.0007118536
-0.0009490516
-0.00185466
0.0008324957
-9.193572e-05
0.000917471
0.001337598
0.0005133901
0.0002897317
0.0002808029
0.001429784
0.001472685
0.00107597
0.0003062641
0.0001320726
0.0009539441
0.0009503281
-0.002176537
-0.0324678
-0.00454096
-0.05003517
-0.005695484
-0.03832218
-0.08074439
-0.004609213
-0.05392352
-0.1213047
-0.008011388
-0.0873264
0.011291
0.0008152333
0.05867556
-0.01921049
-0.02170085
0.05425399
0.01400108
-0.001855686
-0.001096849
0.0002751553
-0.001671975
-0.0002881199
-0.0004974292
-0.001151107
-0.0004786113
0.000239602
0.07473276
0.07385767
-0.004768114
0.2230554
0.10395
-0.06074538
0.08795877
0.06478681
-0.05668173
0.02212304
0.07425194
0.1053439
0.0232041
0.08349081
0.07352558
-0.08174546
-0.1562199
-0.06627348
0.008655846
0.0561022
0.0945361
0.06475601
0.06094812
-0.005585494
-0.06246388
-0.2317183
-0.1936055
-0.05375412
-0.02179419
-0.001961944
0.01661761
0.03908474
-0.008504057
0.09355608
0.05344418
-0.03582623
-0.04845573
-0.08240129
-0.039705
0.04866935
-0.05501653
0.08525836
-0.01869061
0.002477365
0.1483463
-0.003623205
0.03226913
0.02807803
-0.06702849
-0.01993452
-0.05556001
-0.1776451
-0.2041554
-0.2135334
0.02229917
0.1280761
0.04146642
0.04330296
0.01010561
-0.04676514
-0.1164906
-0.309838
-0.1380091
-0.09092209
-0.1339068
0.03203435
-0.009983169
0.03462149
0.07058411
-0.00886573
-0.01642244
0.06443541
-0.02978941
-0.07580625
0.02500454
-0.04694806
0.02673178
-0.05203672
0.01462317
0.01056071
-0.004126806
-0.02992354
-0.02147581
-0.08655237
0.07690997
0.2869458
0.299394
0.03995654
0.1659867
0.08585779
-0.008537361
0.00769584
-0.03387541
0.1999208
0.1068873
-0.01897143
0.005781145
-0.05453036
-0.07636962
-0.001402059
0.00310817
-1.910463e-05
0.0001591369
0.0009160968
0.004044398
-7.848258e-05
-0.001139464
-0.0008991832
-0.0003462327
-0.0005990087
-0.003557795
-0.002232017
0.0007452401
-0.002011735
0.001825742
0.0002433964
0.0003856982
0.0633878
0.08245797
-0.0258462
0.04140227
-0.007025639
-0.03705437
0.01188233
-0.03016282
-0.120743
0.01585816
0.02025239
-0.006644059
-0.01506466
-0.1190307
-0.01114444
0.04800478
0.09478016
0.03483538
0.002709465
0.002067252
-0.003041758
-0.0005168814
3.668e-05
-0.002282623
0.00334439
-2.870362e-06
-0.003112669
-0.003851793
-0.02139669
-0.01363262
0.01531022
0.06600251
0.07362771
-0.006096544
-0.05265448
-0.03793843
