16 16 3
-0.01745951
-0.04075213
0.02198566
-0.0623363
-0.008012054
0.02467236
0.01295824
-0.02013446
-0.0530448
0.02494229
0.02267084
0.01418517
0.1012908
0.07405367
0.05552705
0.04584175
-0.01944207
0.00480593
-0.06741571
-0.1045517
-0.07677201
-0.02066912
0.03238929
0.05846747
-0.03289253
0.01728148
0.02438588
-0.07760721
0.01074687
0.04800257
-0.04205739
0.04773545
0.1203911
-0.02345299
-0.02650537
0.0009777986
0.0676759
0.07785211
0.07235557
0.1279741
0.08231696
0.01458673
0.05047739
0.04360747
0.03912867
-0.03311213
-0.02495167
-0.01535518
-0.0347497
-0.01049983
0.02697002
-0.01299723
-0.000538281
0.03471214
-0.04115516
-0.04822935
0.013125
-0.03409896
-0.07141399
-0.0060774
0.02012356
-0.06952666
-0.001491225
-0.03065989
-0.05078482
0.02772121
0.04760948
-0.02594096
-0.00949109
-0.09664964
-0.05807801
0.05708958
-0.09091847
-0.1078123
-0.0821166
-0.1150552
-0.1785126
-0.1381062
-0.07447074
-0.1231563
-0.1153388
-0.0267119
-0.04173129
-0.01474199
0.05739568
-0.01565011
0.004152008
0.07486925
-0.006859321
0.04128535
-0.007567326
-0.07084507
0.0229824
0.03580492
-0.02401449
0.04487071
0.08127025
-0.02167633
0.05847096
-0.1081704
-0.1306639
-0.04752383
-0.02241496
-0.1333169
-0.1094201
0.002420705
-0.098868
-0.09059389
-0.00728415
0.03558991
0.03186641
0.03738775
0.04900794
0.07120033
0.03974186
0.04887837
0.05916767
-0.04781963
0.002671911
-0.01881269
-0.1014272
-0.0201337
0.0199499
-0.08391992
-0.03506672
0.03603487
-0.1056024
-0.06820639
-0.05495718
-0.1348781
-0.1113261
-0.05746174
-0.1738667
-0.07705833
-0.07117168
0.09284538
0.05425289
0.06256663
0.03491262
0.05637459
0.1500263
0.05637087
0.02442939
0.003565812
-0.09010246
-0.01883292
-0.05470678
-0.06744932
-0.04822389
-0.08564562
-0.1194368
0.01206005
-0.080309
0.0552041
-0.006388452
-0.03119923
-0.02126052
0.02877717
0.02614474
0.07803655
0.08740966
0.0007853699
0.02766427
0.09675094
0.09302457
0.01269336
0.04181876
0.01633366
-0.04861068
-0.02011858
-0.03071357
0.03935904
0.07982971
0.06044063
0.03196053
0.03834348
0.03494528
-0.002680942
0.07332304
0.07210165
-0.01943213
0.04495127
0.02696316
0.03187536
0.2353848
0.1798431
0.07643791
0.1997288
0.1175226
0.01765057
-0.02715663
0.06411799
-0.02583619
-0.04445102
0.04639556
-0.07638726
-0.007558342
0.0882205
0.0549555
0.0314929
0.06267217
0.01504411
-0.02313796
0.03709827
0.06524753
-0.0267144
0.01615888
-0.1410703
-0.03376252
-0.1154063
-0.1058004
0.1019563
0.0178746
-0.1261206
-0.01871013
-0.07621752
0.03151797
0.00203607
0.05274835
0.02876374
0.04969658
0.02937547
-0.01961919
0.009254085
0.1203081
0.00767023
0.008891591
0.0114421
-0.04438023
0.0227259
0.03433548
-0.01325208
0.04764859
0.02939041
0.04168931
-0.02033986
-0.02353038
0.06644934
0.1415468
0.1008687
0.02218833
0.01401988
0.04788553
-0.09669051
-0.1008814
-0.1509867
-0.08482339
-0.0008702502
-0.07915085
-0.0686702
0.007314681
0.0216261
-0.04250206
-0.04848762
-0.02604255
-0.04231776
-0.04878303
-0.04031338
-0.04489916
-0.05169148
-0.05478509
-0.01649303
0.1289671
0.1518727
0.0037856
0.008198592
-0.007638367
-0.02924293
-0.06580817
-0.02738304
-0.03019293
0.1119153
0.03327595
-0.04678189
0.14389
0.03125387
-0.1213726
0.1420273
0.03397972
-0.07497241
0.02452183
-0.01749716
-0.04850329
-0.0508864
-0.03319789
-0.01764342
-0.07451946
-0.08595145
0.02194845
-0.0309467
0.146598
-0.09054397
-0.0299658
0.1040767
-0.002012158
-0.08193313
-0.02331685
-0.01323185
-0.06668133
-0.1643895
0.02406098
-0.004349671
-0.05557838
-0.09948224
-0.09276257
0.008497326
-0.1257934
-0.07878216
-0.02890095
-0.148958
-0.008823643
0.09978018
-0.1041945
-0.02862049
0.001979731
-0.1012345
-0.01971588
0.1230072
-0.1074515
0.00596793
0.209974
-0.02630212
-0.03863687
-0.006846964
-0.02445596
-0.04911651
-0.1132896
0.05663579
0.03352403
-0.07522221
0.0133827
-0.05629371
-0.03005426
-0.04188452
-0.04760659
-0.03550049
-0.07896218
-0.0588204
-0.02661585
-0.02583569
-0.0205074
0.03149069
-0.01865117
0.06477998
0.02584782
0.1131948
-0.02054598
-0.1092796
0.1288415
-0.06350709
-0.06661852
-0.004478678
-0.04585525
-0.04288292
0.03853294
-0.1549786
-0.07733933
-0.08895823
-0.06175429
0.02942744
0.03855798
-0.1504231
-0.08983484
0.02757064
-0.2717742
-0.2116427
0.06018477
-0.1635235
-0.155368
-0.04005137
-0.08047759
-0.09343147
0.008047486
-0.07494009
-0.07335061
-0.00633629
-0.02227215
0.03552249
0.03255202
0.03495768
0.04158784
0.1393595
0.01878824
0.05812503
0.1070805
0.01049544
0.1340381
-0.08078627
-0.0544113
0.2191194
-0.002586677
-0.1250643
-0.1072558
-0.04609855
-0.1136625
-0.1431089
-0.07731377
0.01477302
0.05737831
-0.03403277
0.05887036
0.1062545
0.001233068
0.04346977
0.07755251
-0.04633546
-0.03046148
0.1290276
-0.1386318
-0.1084642
0.300955
-0.1022378
-0.0204993
0.2107309
0.09426349
-0.03212804
-0.1389827
0.07045566
-0.08332704
-0.1366803
0.05113763
-0.004443754
-0.0792911
0.1097545
-0.03053048
-0.0004418945
-0.05726951
-0.02538925
0.2084608
0.02610003
-0.00105134
0.07629424
-0.02729649
-0.02411181
0.002622131
0.03253701
0.02231377
-0.1077353
-0.1180226
-0.1107586
-0.03566896
-0.05161731
-0.03705334
0.008423772
-0.08381889
-0.1282267
-0.01473726
-0.06829327
0.0007055799
-0.01449536
-0.006477424
0.03322391
-0.04152152
0.001000402
0.02859241
-0.0953339
-0.04530396
-0.005065891
-0.1236045
0.03069808
0.03088213
-0.05201906
0.132966
0.09347655
-0.07372153
0.056585
0.005158643
-0.04226442
-0.03504976
-0.03439772
0.002206957
-0.02407737
-0.01441892
0.0318357
-0.03257228
-0.01727204
-0.04521487
0.01161969
-0.0386081
0.03499245
0.007919086
0.01324508
0.02272284
3.944722e-05
-0.037178
-0.01705666
-0.07175691
-0.01147213
0.05230287
-0.05716038
0.008051991
0.1631398
-0.04683055
0.00336973
0.01231343
-0.0456177
-0.05919411
-0.08855538
-0.1320135
-0.1192427
0.03489434
0.05538093
-0.007138738
-0.1198493
0.05698614
0.003108653
-0.09301574
0.05209415
0.09618139
0.05529505
0.04758893
0.05500935
0.03846622
-0.07215836
0.02252963
0.05964309
-0.03985015
-0.009309537
0.04892216
-0.06077109
-0.0301363
-0.01514384
0.02450974
0.0509075
-0.05004011
-0.00877323
-0.0555837
0.05017436
0.02878357
0.08672092
-0.1086103
0.1166701
0.04174732
-0.1146815
-0.03082075
-0.05998822
-0.02664784
0.0111741
0.001068724
-0.03045013
0.02286686
0.04128947
0.05528841
0.02692223
0.01980041
0.05260403
0.009316034
-0.007755328
0.02803375
-0.06194615
-0.009249745
-0.1060151
-0.03063462
0.1092193
-0.0136528
0.001209589
-0.01156916
0.110937
0.003018337
-0.02274512
-0.06207499
-0.03910436
0.01620177
-0.03574896
0.02663002
-0.05758908
-0.01517061
-0.03751024
-0.03433047
0.000330767
0.09445301
0.07038184
-0.07116714
-0.06333352
-0.01605318
-0.01059766
0.02443825
-0.01881678
0.02567332
-0.06074503
-0.02740315
-0.06658472
0.02664336
0.03901988
-0.02590988
-0.02182914
-0.0002992623
0.02928474
0.01153381
0.009378004
0.01849096
0.02920694
0.01014824
0.04300801
-0.01974861
-0.02611529
-0.01465524
-0.01433356
-0.03697946
-0.10695
-0.01125005
-0.01283855
-0.08961579
0.07041381
0.02320667
0.0004270882
-0.003651146
0.003335572
-0.05370078
0.0248411
0.06931264
-0.008018336
-0.05701423
-0.05569869
-0.07845666
0.08298762
0.02202042
0.02702061
0.1306945
0.05489217
0.1394037
0.006008722
-0.01496018
0.01768628
-0.05968187
-0.04833775
-0.002437168
-0.02382999
-0.001555373
0.02973861
0.1279171
0.07850481
0.01379909
0.002450849
-0.09641743
-0.03213948
-0.02872282
-0.08692203
0.003399303
-0.07370611
-0.003061789
-0.05182068
0.1206464
0.008528668
0.0593873
-0.1444781
-0.1334846
-0.09837762
-0.007172323
-0.01142687
0.001883803
0.02050718
-0.0110626
0.01018278
0.02103801
0.01859195
0.06794894
-0.0843596
-0.05199779
-0.03677137
-0.09278526
-0.04325178
0.000136223
-0.0142018
0.02862725
0.04046794
-0.006716154
0.04630229
0.03070759
0.1179606
0.04656557
0.08211984
0.04858813
0.04995853
0.08140446
-0.1446949
-0.1098415
-0.1513928
-0.02970578
0.007844779
-0.07704926
0.02791216
0.02944391
-0.002426644
0.01318233
0.01787412
0.03838811
-0.01064307
-0.008079114
-0.005220081
-0.03253523
-0.02269502
-0.03147956
0.1306161
0.1251766
0.1395105
0.04459621
0.1563405
0.06523704
-0.0913683
0.02878677
-0.06686815
0.03198638
0.04469901
0.03307895
0.03028272
0.02003941
0.09607818
0.06530987
0.05987243
0.09634741
-0.00745851
-0.08227993
-0.06783302
-0.07999322
-0.09975373
-0.09510624
-0.04340672
-0.0372846
-0.06546481
-0.1371917
-0.1165875
-0.0539174
0.01588549
0.1178491
-0.03453436
0.06814449
0.1015183
0.0629907
-0.1198725
0.005094942
-0.01383817
0.02449733
0.06385665
0.01343673
0.07988027
0.02879274
-0.02595674
0.01159833
-0.01424433
0.01070495
0.02403138
0.004548632
0.01569126
0.01279547
0.06823818
0.08472493
-0.01479617
-0.05922808
-0.01032198
-0.02651045
0.03323401
0.009598328
-0.01285056
0.1492419
0.05394514
0.04596287
0.164145
0.04715769
0.1296306
0.1563507
0.117062
-0.01685324
-0.1921297
-0.02897745
-0.0271562
-0.05713357
0.004673088
-0.01400913
0.02610522
0.02533174
0.02806309
0.05966405
0.0517075
-0.008604841
0.04944877
-0.03561534
-0.004271119
-0.1011532
-0.02618496
0.0370295
-0.06880625
-0.001036934
0.06544246
0.09334809
-0.137565
-0.03393143
-0.1161723
-0.1558108
-0.1968748
-0.1794043
-0.1614204
0.06463002
0.01322844
-0.09107023
0.02994303
-0.006237602
0.005269929
-0.06262851
-0.04513392
0.1568068
-0.030966
-0.001960237
0.01497229
0.05344591
0.05142549
0.01801299
0.05596716
0.0119003
0.009719832
-0.04605879
0.0539917
-0.1510861
0.01244594
-0.02019774
-0.04331496
-0.04853129
-0.121503
0.05126096
-0.1361847
-0.05643309
-0.1414061
-0.03408113
0.1846309
0.01251297
0.08299308
0.2055528
0.1077343
-0.04731386
-0.04810568
-0.01697449
-0.04354474
-0.02941193
-0.01579873
0.01841297
0.03289432
-0.02692738
0.04038013
-0.1245095
-0.02148169
-0.09946574
-0.1536298
-0.008697912
-0.09656464
0.06220668
-0.046223
0.03016505
0.1237774
0.04671053
0.04808739
0.1126073
0.1090105
-0.01905497
-0.08431272
-0.01689027
-0.05759038
-0.09417706
-0.1469249
-0.2036346
-0.2496754
-0.1788519
-0.1203452
-0.1394465
-0.08453621
-0.01441192
-0.06660237
-0.04082927
-0.02789215
-0.05808746
-0.07307958
-0.03652291
-0.07594735
-0.1014507
-0.01342452
0.01354625
0.06212201
0.01839005
0.01292272
0.03890184
0.01145859
0.02337739
0.06464722
-0.07947694
-0.02350754
-0.09665708
-0.07354476
0.06285743
-0.001663273
-0.07756169
0.02386366
0.03130512
0.02305255
0.009849468
0.05170641
0.0251209
0.04116203
0.04076875
-0.03775756
-0.03121072
-0.07036915
-0.02559345
0.01353153
-0.04143508
-0.01211757
-0.03528495
-0.03392576
0.07586338
0.03727131
0.01405612
-0.04398616
-0.06840457
-0.0550227
-0.003555496
-0.02139998
-0.002272472
-0.009826362
-0.01451073
-0.01253419
0.02832865
0.03167592
0.1390645
-0.03704079
-0.1637358
-0.04962763
-0.04406738
-0.1830606
-0.09510842
0.06564783
0.08812173
0.07181805
0.002409765
-0.03720307
0.0356336
0.02268148
0.02517836
0.03573674
0.02695948
0.07019443
0.02815889
-0.03722696
0.04941003
0.06161124
0.0127704
0.01246725
-0.009361256
-0.211914
-0.176349
-0.1108188
-0.1483526
-0.1054938
-0.06088293
-0.07577777
0.01729121
0.05389764
0.05014802
0.04105455
0.02188467
0.03262534
0.1444467
0.1005802
0.183109
0.1767404
0.1918522
0.02231428
0.07522408
0.008364202
-0.06162945
-0.04284189
-0.1069198
-0.04576699
-0.08085956
-0.131101
0.01132378
0.002455069
0.02069556
0.03026705
0.003735642
0.01946222
0.04821846
0.01607024
0.006285184
0.01251934
-0.02539371
0.04428468
0.006494326
-0.0368696
4.741223e-05
-0.04938428
-0.04708216
-0.140443
0.0304772
0.03752814
-0.01203055
0.0040241
0.05219766
0.06176881
0.09013443
0.1175115
0.07983655
0.01262378
0.006234594
0.04654771
0.02951026
0.05004857
0.03626416
-0.04791646
0.01014827
-0.002045969
0.001724993
-0.001894086
0.001044517
0.0006529064
-2.077613e-05
0.002149594
-0.0001322632
0.001195114
-0.003562382
0.00311945
-0.004086644
0.0002419829
0.001921643
0.0007417126
-0.004196201
-0.001343096
0.0006993432
-0.001143854
-0.00421275
-0.001926368
-0.0001284121
-0.002555046
-0.001807869
0.0008942956
0.0002438678
0.0003098721
-0.0008858789
-0.00205924
0.002872415
-0.002511942
-0.002474934
-0.001803058
0.0003986548
-0.004915692
-0.0005501076
0.0001116438
0.00079866
-0.002718416
-0.0006375485
-0.002778277
-0.001346981
-0.002879389
-0.004171895
-0.002530056
-0.0009805212
0.0006858176
-0.000596932
0.0002216251
0.0008668205
-0.002372055
-0.001520511
0.0002213074
-0.001246612
-0.002674022
-0.0001887539
-0.0008815403
-0.001425856
0.001221665
0.002129812
0.003812042
0.002197872
0.003505975
0.000782828
0.005485735
-0.0002488752
0.0005583915
-0.002018298
-0.0006042545
0.003204457
0.001598032
0.0003514116
-0.003496544
-0.0003385124
0.002204084
0.0003247054
0.002023469
-0.002917564
-0.001133752
-0.00373556
-0.00028473
0.0005160953
-0.001859411
-0.001869548
0.00172786
-0.002421325
1.648985e-05
0.00167076
-0.002932639
-0.002956545
-0.001003033
-0.0006986209
-0.001136624
-0.001882402
0.0006706063
-0.0003778885
-0.004088585
-0.002341826
-0.003234722
-0.0004674087
0.003460409
-0.0001686435
0.001221161
0.001643063
0.0004218559
-0.0002448268
-0.001146983
-0.0004023283
0.001865425
0.002070783
0.000480563
0.001617644
0.0003164329
-0.0004106359
0.002071471
-0.001523392
0.004290086
-0.00279866
-0.001758876
-0.0002121985
-0.001159073
0.0009710421
0.001491085
-9.043098e-05
8.50611e-05
0.004484302
0.0005230547
-0.0003437402
-0.000666785
0.0005288639
-0.0006243221
-0.000733462
0.0008630774
-0.001166134
-0.001001843
-0.0004002903
-0.001102591
0.001621702
-0.0008206076
-0.000128088
0.001083459
0.000554554
-0.001519835
0.0001748095
0.00325051
-0.1451236
-0.134295
-0.07669886
-0.1032565
-0.08891003
-0.09252697
0.04317532
-0.01039172
-0.02017532
-0.01731256
0.01132507
0.1035494
-0.04509984
-0.002052981
0.02564008
-0.01661717
0.06823926
0.0617335
-0.001823555
0.04857684
-0.009289509
-0.08422001
-0.01783802
0.09464763
-0.07179329
-0.1007145
0.04460296
0.1206125
0.1163508
0.06942526
0.07926089
0.06124282
0.0350122
0.002245041
-0.05473423
-0.09696018
-0.1134211
-0.06564827
-0.03745606
-0.03226665
-0.02878596
-0.01921968
-0.009255803
-0.04126967
0.01503689
0.01309977
0.03402544
-0.01309199
0.02013646
0.03295041
-0.01170415
0.05731187
0.03698088
-0.02379374
-0.04559704
-0.1186278
0.02044607
-0.01024502
-0.1418193
-0.2129536
0.1315059
0.03600649
-0.1245653
-0.04748255
-0.03900504
0.02169248
-0.1505089
-0.1361045
-0.04826351
-0.04088749
-0.06605452
0.03627961
-0.03150538
-0.002825923
0.1116495
-0.07082663
-0.07174153
0.01745553
0.02355755
-0.02961557
-0.01724768
-0.003922334
-0.03583073
-0.01911492
0.08978514
0.02952457
-0.05675643
0.09639097
0.04487323
-0.05431059
0.0992441
0.08553443
0.1986974
-0.01602294
0.02599378
0.04123169
0.004366486
-0.06685031
0.03140129
-0.05072428
-0.007622675
-0.007946027
-0.1024135
-0.1362593
-0.1014013
-0.0848197
-0.1057567
-0.1431801
-0.03394979
-0.0450759
-0.03883141
-0.02867274
-0.04764424
-0.04238921
-0.002205745
-0.0008897173
0.006297257
0.0184705
0.07316655
0.03128259
-0.02824925
-0.1024545
-0.07402083
0.01895431
-0.04537234
-0.1516155
-0.04103934
-0.04761945
0.000187211
-0.03672351
-0.02570147
0.01800934
0.05958271
0.02654218
0.1053551
-0.1071043
-0.07513741
-0.01167821
-0.1118005
-0.09645395
-0.007257676
-0.02494475
0.001846963
0.1187068
-0.01987954
0.05512396
0.07857642
-0.05365018
0.06647593
-0.006353118
-0.006931103
-0.08381378
0.03148534
-0.08280504
0.05761046
-0.09978116
0.1182998
-0.05989433
-0.09937149
-0.04712644
-0.0563531
0.08381284
-0.04673005
-0.07918682
0.02313619
0.01344942
0.01368931
-0.01516227
0.03064302
0.02500995
-0.0256588
-0.01776043
-0.1435132
-0.1086474
-0.02761515
0.0756681
-0.02304318
-0.01178049
0.05854277
-0.008831727
-0.01086014
0.07857138
-0.02448487
0.05356854
-0.1210184
-0.03588571
0.01429863
-0.02995882
0.006501528
-0.05515504
-0.03286593
-0.04144229
-0.06108046
-0.02321054
-0.0178854
-0.01953471
-0.08206727
-0.01745815
0.06597045
-0.07754272
-0.1163429
0.09864294
-0.2005484
-0.02453683
-0.107891
0.0860149
0.09201726
0.01800107
0.05590949
-0.02214018
0.05147233
-0.1735741
-0.02735532
-0.05453577
0.03670454
-0.07064445
0.04439543
0.07743829
0.01564225
0.1206854
-0.07279947
0.03770237
0.09053718
-0.1311228
-0.100571
-0.1670172
-0.1337326
-0.09195172
-0.07195002
-0.06444877
-0.004636354
0.01653791
0.1231219
0.06611353
-0.1793251
0.08273999
-0.2200424
0.1246556
-0.2654161
0.07899524
-0.1338423
0.07429789
-0.05688404
-0.1425906
0.1254069
0.04163638
-0.06697772
-0.01144225
0.03951291
0.0152936
-0.02502985
0.005485903
0.02053047
0.03854118
0.06140868
-0.005522595
0.06853853
0.04712876
0.003218455
0.02029308
0.04207704
0.1274972
-0.1996901
0.06658358
-0.1814559
0.1185465
-0.05623892
-0.2465937
-0.02643996
-0.175735
-0.03420719
0.1360356
0.1333411
0.04019768
0.02107416
0.1176431
0.06712691
-0.01678875
-0.06452087
0.1351279
-0.1841568
-0.04337238
0.01571534
0.1273843
-0.01780471
0.0148854
-0.02234363
0.04277909
-0.02032956
-0.02804316
-0.08495966
-0.008501063
-0.03262807
0.001908998
-0.03448524
-0.06251962
0.02376665
-0.0570778
-0.01476146
-0.001573229
-0.07376102
-0.0415978
-0.00173731
-0.07306609
-0.007355081
0.04393988
-0.0758039
-0.0574413
0.0252152
-0.1011813
-0.002101901
0.0904804
-0.03353489
0.07240349
0.1020014
0.05556284
0.04347718
0.02519393
0.08552274
0.05694417
0.05751503
0.07557649
0.07155294
0.1001223
-0.02169025
-0.02838157
0.02243248
0.08093679
0.1342795
0.2146914
0.07573345
0.1552476
0.1466355
0.04937147
-0.001295264
-0.05436871
0.01600374
-0.05198416
-0.0704141
-0.02060441
-0.07142826
-0.04733269
0.1252471
0.1014819
0.01302742
0.1511789
0.128885
-0.02693878
0.09837426
0.005201161
-0.1094541
-0.09278493
-0.116506
-0.08721977
0.04068491
0.09381752
0.05160275
0.03581899
0.003806461
-0.03820963
-0.008200306
0.003867292
0.01286865
0.01591175
0.0622711
0.05000358
0.03194096
0.06074715
0.01224775
0.05639155
-0.04509493
-0.09529637
0.004766039
-0.07484203
-0.08257975
-0.08108816
-0.08084447
-0.04814032
-0.03519937
-0.06296666
0.05212075
-0.06934153
-0.07580964
0.01047619
-0.03524896
-0.01347713
-0.04821133
0.03360547
0.0510246
0.07790078
0.04194324
0.04102911
0.08823204
0.04619716
0.06193028
0.08013783
0.003797776
-0.01933018
-0.02484287
-0.01343562
-0.045272
-0.03847596
-0.001875292
-0.009141376
-0.004960601
-0.03886772
0.00715168
0.01617635
0.03223845
0.1067324
0.05213998
0.04758433
-0.05796778
-0.01740922
-0.02593229
-0.02463861
-0.03177023
-0.08985638
-0.06732927
-0.0351284
-0.09865783
-0.06092873
-0.04357706
-0.04211895
-0.03103114
0.007695786
0.008325708
0.00967028
-0.007638601
0.03276593
0.03761061
0.0654663
-0.1144205
0.02589563
-0.02054747
0.1497802
-0.02259944
-0.1362728
-0.0441466
0.03451598
0.06696208
0.02123985
0.04149471
0.02801083
-0.1011276
0.001446302
-0.003663844
-0.09223985
0.01042851
0.02929502
0.05418646
0.03962504
0.03655247
0.07818442
-0.03145988
0.01907178
0.07205377
-0.02780345
0.03326619
0.1301177
-0.01478746
-0.006748852
0.2350942
-0.1824868
-0.05749355
0.09356909
-0.1640121
-0.04095585
0.02324948
0.02811645
0.07710057
-0.2017588
0.1136199
-0.1187632
-0.09635045
0.0889661
-0.1065115
0.001548653
-0.04471019
-0.007354861
0.02159305
-0.0139211
-0.02771962
-0.0319924
-0.01295838
-0.04143247
0.06481059
0.06452818
-0.1216363
-0.139688
0.0889844
-0.02239795
0.02219052
0.09338945
0.1448337
0.05734687
-0.01091012
-0.1589649
-0.2463074
0.1936289
-0.03921187
0.07624693
0.05189633
-0.1353545
0.06200673
-0.00126679
-0.04198267
0.1513072
0.2977157
-0.1174148
0.08142912
0.1821019
-0.03475609
0.01696628
-0.06884473
0.009162326
-0.06758133
-0.06323922
0.007937743
-0.04309144
-0.1008308
-0.002030555
0.1556599
-0.04633152
-0.1121844
-0.07284859
0.09185286
-0.01797964
-0.006577909
0.05303376
0.01084832
0.130971
-0.2314983
-0.1208291
0.02741662
-0.0307008
0.0422885
-0.108387
0.04429379
0.01163555
-0.06104733
0.01210001
0.01610095
-0.05539923
-0.01684087
0.06347781
-0.03733014
-0.02428492
0.03440623
-0.1366937
-0.04012431
0.009645198
0.168493
-0.2607807
0.1753787
0.2499093
-0.352078
0.1026706
-0.127181
-0.08249155
-0.01307896
-0.07750667
0.02242168
-0.04868078
-0.1512652
-0.02405773
-0.03393673
-0.1139834
0.1546543
0.04579081
0.01234419
-0.04531829
-0.04534122
0.1006701
-0.01791408
-0.01829313
-0.01092905
-0.111428
-0.02026535
0.02284471
-0.08757916
-0.002127666
-0.003999638
0.04984134
0.0461088
-0.001012582
-0.04637827
0.03349246
-0.04918122
0.0553247
0.03250528
-0.03929836
-0.01759371
-0.04068102
-0.03674696
-0.009227101
-0.07657639
-0.07183529
-0.03432424
0.02541851
-0.08212638
-0.08696707
-0.01816301
-0.04653765
0.01170852
0.09603315
-0.0224176
-0.05837886
0.1091775
-0.03472868
-0.02431736
0.001503595
-0.0577309
-0.02110521
-0.05827903
-0.04391845
0.088349
-0.1230928
0.06454308
0.03213043
-0.03071327
-0.07104183
-0.03110081
-0.02807826
-0.08389831
-0.02955248
-0.03926945
-0.07340088
-0.006126538
-0.01964232
0.01893155
0.07285536
0.05230116
-0.08390303
0.008744655
-0.02345186
0.1049671
-0.06095501
0.008862346
0.08253898
0.07442163
-0.02441935
0.01878538
-0.0005343693
-0.1105851
0.08342735
-0.1677109
0.01665202
-0.02475647
-0.133406
-0.1671782
0.03578898
-0.08133482
-0.2827001
0.1183113
-0.05353107
-0.1631368
-0.08500455
-0.0289961
0.01699703
-0.04000548
-0.01076547
-0.03439593
0.09159196
-0.004265284
-0.04824705
-0.02389232
-0.04883451
-0.02090485
-0.0302578
0.1430438
-0.04222706
0.1568326
-0.1186903
-0.03830302
-0.07053319
-0.2032273
-0.09688949
-0.04943943
-0.07427649
-0.1627436
0.05843767
-0.03001578
-0.1041847
0.01047955
0.01988196
0.02172199
-0.008668778
0.001909725
0.0551089
0.001022861
0.000723744
0.02918789
0.009091953
0.0795122
0.04021828
0.008955078
-0.2040796
0.139188
-0.1971232
-0.1212097
0.08288421
-0.003605616
-0.09972701
-0.0327702
-0.04267419
-0.04431981
-0.09844815
-0.0009896876
-0.114934
-0.016653
-0.03136697
0.08520227
-0.05368688
0.002903204
-0.1354187
0.0385696
-0.04917469
0.09816331
0.08203819
-0.110891
-0.06185094
-0.09933315
-0.07677272
-0.01546817
0.01276493
-0.1128603
-0.01707455
0.04368934
0.07890883
0.08457984
0.05457174
0.0451937
0.0607745
0.07598349
0.1006261
0.03273007
0.002827937
-0.1265448
-0.138697
-0.1123357
-0.01384488
-0.1235841
-0.1630241
0.1206722
0.03549869
-0.0998849
0.06417318
-0.03601625
-0.09264363
0.09686377
0.01177444
-0.08741661
0.1094655
0.1142815
0.04702255
-0.1800394
-0.1878073
-0.1247974
-0.07721275
-0.0884186
-0.03518122
0.03602459
-0.01754904
-0.0168638
0.04828761
0.06792136
0.04003732
-0.02029158
-0.01514838
0.02406701
-0.08481421
-0.06217856
0.01547125
0.04313115
-0.03095341
-0.09609455
0.1066507
0.06698892
0.04288867
-0.02605284
0.03301322
0.1209136
-0.002694395
0.05030357
0.0812788
-0.1435094
-0.09210642
-0.1551989
0.01747158
-0.04904501
-0.1250176
0.07836362
0.08599033
0.08832008
0.1231456
0.1012655
0.07552802
0.09804206
0.007527866
0.01913765
0.03515907
-0.02756695
-0.01990694
0.0190439
0.01151722
0.04111888
0.01516862
0.007443481
0.01527807
-0.04120557
-0.07340408
-0.04022058
-0.1242987
-0.1350174
-0.05716211
-0.04119268
-0.1377255
-0.1517759
0.07988112
0.1095335
0.06959895
-0.006155084
0.09546313
0.1166419
-0.03061609
0.00980331
0.04488306
0.01165692
0.03238734
0.01713585
-0.03816076
-0.002112374
-0.01002073
-0.08667001
-0.04216017
-0.03107817
0.0849765
0.0235472
0.04163643
0.06058462
0.07365041
-0.05372881
-0.01722517
0.1288516
0.05726664
-0.03081575
0.02733603
0.04027753
0.06544229
0.07308292
0.05078783
0.0342454
0.02869096
0.02929069
-0.07899614
-0.06519957
-0.04653315
0.03596889
-0.02589709
-0.1056552
0.01588195
0.06346913
0.02083604
-0.001506253
-0.01099088
0.05714203
0.01566649
0.006570976
-0.1003128
-0.1526021
-0.07064445
0.008462038
-0.0001723351
-0.02798189
0.02161962
0.01477869
-0.06262075
0.0268727
0.07992217
0.09630834
-0.01469128
0.05988853
0.006385298
-0.00114986
0.05375296
0.05091844
-0.03328938
0.01655291
0.00125977
-0.1027743
0.01263332
0.01827641
-0.1016376
0.06165845
0.1768623
-0.07918885
-0.05415161
0.06572443
-0.02218664
-0.07417876
-0.09129935
0.004387382
-0.01171441
-0.139436
0.09048574
0.05903449
-0.02638919
0.03497384
-0.04291102
-0.04934876
-0.007983794
-0.03267111
-0.01943557
0.0249998
-0.0004781253
-0.008732614
0.06295805
0.06340978
0.04352361
0.07388487
-0.0257909
-0.133961
0.03722137
0.05062921
0.07789339
0.02019957
0.01205028
-0.06110203
0.03063706
-0.08548032
-0.06967152
0.1615652
0.1370637
0.009853367
-0.06243655
-0.09010367
-0.06720052
0.07792483
-0.1281855
-0.05353483
0.3132491
-0.08796571
-0.1075984
0.1151868
-0.03709982
0.03070542
0.02265006
-0.042927
-0.0342767
0.01685114
0.009471267
0.05168498
-0.01916796
0.03260112
0.01257986
0.006580732
0.02709636
-0.0764271
0.2128236
0.08673472
0.02085059
-0.05261274
0.04812669
0.1752099
-0.06630977
-0.03709345
0.04430396
0.06990597
0.07739791
-0.07934349
-0.0820284
-0.01893315
-0.03834939
-0.009987455
0.02573293
-0.002176897
-0.001445082
0.01453018
0.009221479
0.02690792
0.03788973
-0.007146764
-0.1063844
-0.03801806
0.2775133
-0.2161945
-0.1427999
0.06474264
-0.2129373
-0.1199111
-0.1579653
-0.06520464
-0.182337
-0.09564193
-0.01414999
-0.07981724
-0.05934698
-0.00513284
-0.0356666
-0.1022541
0.01025983
0.1419237
0.04566471
-0.1434589
-0.03652
0.03356832
-0.01819471
-0.06749157
-0.02772261
0.03273918
-0.05865644
0.01140508
0.003754443
-0.05991676
0.009490893
-0.0132947
0.05262955
0.06424371
0.01662207
0.06933197
0.08636995
-0.02392105
0.1553355
0.07604291
0.016653
-0.02286193
0.0827026
-0.1061433
0.02277518
0.103683
-0.08558461
0.01834854
0.03380345
-0.06548724
0.03386147
0.02268905
0.03241703
0.05500217
0.06774463
0.04933796
-0.003784611
0.07788292
0.04472582
0.1036985
0.1089174
0.07810596
0.1978921
0.2504975
0.1620153
0.162529
0.1830124
0.1315894
-0.02948344
-0.05980766
-0.01536745
-0.0636175
-0.06721143
-0.04725913
-0.06848399
-0.04171541
-0.03231237
-0.1038673
0.004264641
-0.01810991
-0.05909327
-0.08361707
-0.04984372
-0.004648522
-0.1116762
-0.1259437
-0.07026543
-0.01464828
0.002575929
-0.1071752
-0.02185638
-0.005715142
-0.09812597
-0.02014953
-0.05269805
0.05113554
-0.03551527
-0.1049898
0.055245
0.01147372
-0.03067214
0.01367804
-0.007944109
-0.0009669669
-0.2057555
-0.1306397
-0.07321876
-0.1656467
-0.06328271
0.01552825
-0.04734724
0.06123083
0.09976944
0.1032007
0.1826712
0.07000981
0.1868801
0.3752417
0.1812619
0.1829459
0.2291091
0.1587414
-0.08911327
-0.09051833
-0.133607
-0.05926565
-0.02605034
-0.07514191
0.08859628
-0.0001762975
0.04643263
-0.08325338
-0.0897438
-0.08355098
-0.06442956
-0.08189421
-0.1092349
-0.07669342
-0.07996432
-0.09455069
-0.07261883
-0.08885045
-0.01066028
-0.06712111
-0.1578929
0.01161387
-0.1576468
-0.2164471
-0.0767846
0.08794212
0.04175293
0.03426243
0.0623302
0.1063682
0.1355313
0.01736828
0.1022069
0.07693759
-0.06052581
-0.03599494
-0.0153286
0.02419814
0.01362729
0.02151011
0.0344022
0.1107172
-0.01390645
