16 16 3
0.001301352
0.0009555764
-0.0003222368
0.0008830943
0.0009523395
-0.003469253
-0.0008494026
0.0002528842
1.863886e-06
0.01288754
-0.03422524
0.02476118
0.02190135
0.0878832
0.05561446
-0.003475899
0.02880112
-0.04029725
-0.1212664
-0.07020316
-0.1110531
-0.05864548
0.04996126
0.04590205
0.0005878247
0.01273157
0.04731911
-0.0300013
-0.01645899
0.0001299846
0.006004836
0.02796906
-0.003148169
-0.08887941
-0.05450281
-0.002812049
0.04475419
-0.2994595
-0.173174
-0.1014903
0.4843692
0.1780932
0.01641821
-0.2149981
-0.141551
-0.0432215
-0.009813013
0.02455888
-0.04487457
0.02780716
0.05581622
0.03472047
0.0293242
0.06903522
-0.0348512
-0.02874833
0.06101063
0.1026267
0.07234922
-0.006488342
0.03979906
-0.02206206
-0.03285604
-0.03853759
0.04038449
0.04350272
-0.06102416
0.02781014
0.04557316
-0.03399749
0.05990547
0.0835207
-0.1135709
-0.032761
-0.03404713
-0.03607683
0.04748195
-0.04008482
-0.03622025
-0.02948339
-0.1371388
0.1298988
0.0243322
-0.04642739
-0.01514068
-0.007090563
-0.0182529
-0.004281943
0.0430497
-0.05087148
0.008486101
0.001614319
-0.0425236
0.03517162
0.03444787
0.0001951183
0.07964733
0.09646642
0.04391054
-0.06922921
0.002077712
0.02180261
0.02535145
0.03876718
0.03480315
-0.02933862
-0.01107915
-0.01631469
-0.0002296627
0.0008464517
0.0001882415
0.001915904
0.002019366
-0.0006290188
-0.001850177
0.0008382826
-0.002215817
0.02793001
0.04549499
0.08467426
-0.002173703
0.03874747
-0.04311807
0.06317707
0.02844164
-0.03266419
-0.03922024
-0.04765409
-0.01556838
-0.07224777
-0.03848044
0.01294691
-0.05432362
-0.07032231
-0.04378173
0.04642644
0.111753
-0.01181516
0.01370533
-0.09613609
0.03668586
0.001861298
-0.1083071
-0.03914982
-0.0001253559
0.002545553
0.0002659284
0.0003395541
0.003906742
0.00147318
-0.001112453
0.0002091001
0.003067816
0.01698905
-0.04954994
-0.008559144
-0.05732872
-0.1384049
0.008654277
-0.05483782
-0.02808329
0.02454594
-0.03165402
-0.1133816
-0.0079313
-0.062483
-0.1259308
-0.008165919
-0.008788747
0.01174088
-0.005674199
-0.02623787
-0.05107697
-0.03890811
0.02559169
0.02848219
-0.01976249
0.05485734
0.006719168
-0.002815403
-0.005025916
0.01321202
-0.07883409
-0.1633286
-0.2140499
0.2002794
0.04045318
0.210275
-0.02522453
-0.04524368
-0.05764146
-0.05198205
-0.005805578
-0.03504253
-0.02998527
0.02798517
0.01617605
-0.01300207
-0.01480728
0.01382489
0.003889297
-0.03009518
0.1156279
0.2293412
0.01908287
0.05817277
0.1239849
-0.02674917
0.07259087
0.07290525
0.05577048
0.1286719
0.02246197
0.00810957
0.02596983
-0.02650104
0.01162647
-0.09744702
0.1142545
-0.011275
-0.09396186
0.04725739
-0.01783776
-0.1195355
-0.003727255
0.08668328
0.04325476
-0.01235371
0.08060278
-0.1061295
-0.1194514
-0.08322696
-0.09050191
0.01643379
-0.008138482
-0.05657272
-0.06736079
-0.1484282
-0.2069894
-0.1548394
-0.01523652
-0.04020032
0.02786312
-0.00414216
-0.03729783
0.01006968
-0.01029679
0.0003953862
0.05639714
-0.01902566
-0.00439784
0.06687454
-0.001389736
-0.002839729
-0.003393418
0.0008983475
-0.00233852
-0.001292612
0.001233269
-0.0002390107
0.001980157
0.04941688
-0.0007390195
0.06018883
0.06553587
0.07402845
0.140649
0.06929066
0.05101225
0.02325309
0.04556096
-0.04098504
-0.04875753
0.003035744
-0.06018253
-0.06042842
0.03224308
-0.01462722
-0.0104084
0.0198461
0.10155
-0.01336211
0.1358722
0.09865186
-0.1120074
0.04838391
-0.01634327
-0.07078083
-0.0009841702
0.001834412
0.001343235
4.909565e-05
2.073867e-05
0.000272564
0.001149374
-0.001149296
-0.000493751
-0.01238759
0.005017297
0.05314462
-0.01088123
0.01852912
0.0439753
-0.01104789
-0.002287026
-0.01433984
0.06214354
-0.05727739
-0.01800308
0.08955718
-0.04316565
-0.02782412
0.08466341
0.02775358
0.03276421
0.04913054
0.02756406
0.07131428
0.02101565
-0.009332773
0.03419711
-0.0172423
-0.0139569
0.02371904
-0.02733369
0.03495522
-0.02661242
-0.004053568
0.1316829
0.1169923
-0.09836083
-0.05927905
-0.01946139
0.01945274
0.02286693
0.03070696
-0.003121608
-0.01431345
0.004335124
-0.01706762
-0.04127218
-0.01887829
-0.01973743
-0.01363583
-0.03251387
0.01533697
0.03018364
-0.001420355
0.003893296
0.01093019
-0.01186428
-0.03415646
-0.09357078
0.0192555
-0.0172526
-0.09760213
-0.01839107
0.005137824
-0.02556329
-0.01491621
0.02328298
-0.05181225
-0.02093337
0.02670966
-0.06349725
-0.02692834
-8.402811e-05
-0.07075427
-0.02933148
-0.001385042
0.01047201
0.006115969
0.00385693
0.002561032
-0.007249483
0.009351114
0.03474741
0.008010859
0.05781759
0.07924233
0.08104224
0.04451101
0.04554419
0.04991453
0.03377525
0.03568489
0.03041674
0.001590803
-0.01018021
-0.0008988011
0.03463973
0.008115765
0.002101487
0.04710308
0.03248265
0.01264903
0.001326149
-0.002817754
-0.002313272
0.001488963
0.0005958466
-0.002528853
-0.001841654
-0.002398221
-0.002409928
-0.01065958
-0.01774458
-0.02680141
-0.01212138
-0.04812094
-0.05956147
0.0297883
-0.003317498
-0.004685494
-0.08063196
-0.05332329
-0.0571835
-0.06325468
-0.03579644
-0.06256318
-0.05117566
-0.0242383
-0.04664298
0.02607591
-0.124162
0.01943147
0.06666156
-0.04480346
0.1019808
0.08283957
0.04560361
0.1172514
0.00122811
0.003640012
0.003953194
0.002441076
-0.001398786
-0.001706861
-0.003267418
-0.00061974
0.001667405
0.01077369
0.00979607
0.005962958
-0.01094563
-0.005531813
-0.01078184
-0.02167972
-0.007304057
-0.006601332
0.016615
0.0223656
0.03662657
-0.01635256
0.001186499
0.01275025
-0.02091161
-0.02123954
-0.01214438
0.003852744
-0.003708694
-0.002268257
-0.004173906
0.004103239
0.005520163
0.001122855
-0.002463583
0.003143074
-0.01586212
-0.02620705
0.02918234
0.06189103
-0.007467022
0.0847736
-0.08259959
-0.06959992
-0.05052789
0.001051196
-0.01037072
-0.01412344
0.003020214
-0.01421434
-0.01611415
-0.0103959
-0.02060791
-0.01226738
-0.008121962
0.02870143
0.01602912
-0.01364978
0.01949966
0.03237218
-0.008185206
0.005361148
0.01463418
0.02321129
0.03469819
0.02215839
-0.01150725
-0.00125529
-0.01407227
0.004633707
0.003852577
-0.003928245
-0.02767821
0.063735
-0.04000343
-0.03845509
0.05726391
-0.04403869
-0.0209033
0.08003175
-0.02618378
0.009540528
-0.01941943
0.0001753409
-0.01964998
-0.04275044
-0.01296241
-0.009286522
-0.02145467
0.01592673
-0.01479506
-0.02376039
-0.02580149
-0.01338946
-0.03890177
-0.04573468
0.04650307
0.03135319
0.04403315
0.01472282
0.0029184
-0.0006024308
0.00366456
0.003252371
-0.001804269
0.004571774
-0.0004539881
-4.134097e-05
0.0003297325
0.002561052
-0.002898485
-0.001976388
0.0007250453
-0.001059979
0.0003372308
0.0005394783
-0.001259674
-0.002211025
0.02935542
0.0004548915
-0.006440063
0.02705803
0.001636051
-0.001574965
0.03372969
0.01057732
-0.01112677
-0.006181886
0.02925396
-0.00620266
-0.002470851
0.04105007
-0.02766124
-0.01822202
0.02051476
0.01083444
0.07613648
-0.03911695
-0.01377073
0.04268609
-0.06026558
-0.04129179
0.01068008
-0.05450869
-0.0006664101
-0.0006613983
-0.001644845
0.002107773
-0.0002974386
-0.001262219
0.00184381
-0.0007299521
-0.00197626
0.007815746
-0.1121318
-0.02205439
0.02491618
-0.1177455
-0.0132507
0.04633866
-0.04425731
-0.01441693
0.09216635
-0.1135849
0.040588
0.05555188
-0.08695462
0.01878898
0.01941198
-0.04411514
0.02585954
-0.002726414
-0.03383819
-0.01075522
0.001096734
0.04170373
-0.001327521
-0.02909773
0.03879271
-0.02749434
0.09921032
-0.03607057
0.05034374
0.0533526
-0.2668209
0.1814018
0.1295962
0.0783894
0.004526326
0.005109504
-0.05210465
-0.09477416
0.003270055
-0.03077437
-0.06715977
0.003127354
0.004733857
-0.01250693
-0.1859075
0.00835164
0.127771
-0.198695
0.04503594
0.3198334
-0.08906493
0.04047743
0.2483261
-0.03517682
-0.005708175
-0.0309857
-0.04363322
0.06486237
-0.1168585
-0.03209967
0.05714606
-0.06694733
-0.01086197
-0.1078763
-0.002083571
-0.03085328
-0.02880414
0.02712551
-0.02527557
0.02742689
0.03176354
0.01814561
-0.01983932
-0.04651649
0.1524379
-0.03362097
-0.1223071
0.1214739
-0.03249664
-0.02990031
0.07612785
0.03352671
0.01497967
0.04489457
-0.01466467
-0.002032218
0.0672453
-0.03991288
0.003665728
0.004887621
-0.08205742
-0.05454423
0.003169527
-0.03397712
-0.004903308
0.01517368
0.01034045
0.03273199
0.000581529
-8.557084e-05
-0.0001632813
-0.0007229503
-0.001125
-0.001420871
-0.0007381286
0.0007399487
-0.0003241069
0.02245091
-0.008967483
0.00363224
-0.01849919
-0.0213965
0.1205923
-0.0222667
-0.004871635
0.07692552
-0.005460573
-0.08154792
-0.0962965
-0.02748566
-0.07863993
-0.1137376
0.005857699
-0.02010942
-0.0553912
-0.04263313
0.1703604
-0.1000138
-0.1110969
0.3735017
-0.2339257
-0.1030888
0.1976726
-0.2502798
0.0006624655
0.00255496
0.003491436
0.001189681
-0.001817456
-0.001698034
0.00117965
0.0007258555
-0.0002576401
-0.1243047
-0.03869589
-0.0005228209
-0.1339323
-0.05476156
0.02484492
-0.01933278
0.07009543
0.08884452
0.1356438
-0.04516455
-0.11439
0.09159594
-0.2087499
-0.1906555
0.104134
-0.1661184
-0.1769778
0.07462154
-0.006770941
0.02496076
0.0555919
0.00930961
0.06112223
0.003563982
-0.02004793
0.009013904
-0.08675496
-0.02139019
-0.04965726
-0.1410023
-0.1042279
0.0380789
-0.04042977
-0.02152465
0.02278736
0.1099634
0.05424786
0.03843164
0.08975569
0.03669067
-0.002260112
0.03529725
0.013278
-0.0212791
-0.08321085
0.0204376
0.009343322
-0.09768768
0.04408233
0.1332081
-0.07635476
0.02743907
0.1164998
0.05826459
-0.1275692
-0.05990918
-0.08468405
-0.2235665
-0.04251713
-0.01301467
-0.03063304
0.03273223
-0.02590108
0.006765283
0.0894655
-0.01965734
0.07379176
0.09008624
8.782381e-05
0.1547026
0.1243402
-0.05535262
0.006748314
0.0384862
0.0222404
0.0241398
-0.03938681
0.05018839
0.03430235
-0.009756759
0.04908865
0.03687255
-0.008470523
0.07481561
0.03136692
0.0008019056
0.07483224
0.04971768
0.05290351
0.004341712
-0.02375049
-0.06678329
0.03124375
0.03182807
0.01576208
0.107614
0.1189415
0.1142936
-0.001569019
0.001537342
0.003959734
0.001747483
-0.001649579
-0.001424796
-0.0008636853
0.0008778959
-0.001775938
0.01585945
-0.01099833
-8.853742e-05
0.01156552
0.006133428
0.04847959
-0.01903336
-0.002968492
0.09039567
0.0430377
-0.03835251
-0.05898591
0.05402982
-0.03859559
-0.07635844
0.09171201
0.00703932
-0.03153549
-0.02290905
-0.1683716
0.01358992
-0.04187851
-0.0656461
0.07718294
-0.1252641
0.004145061
-0.02114019
0.001104869
0.001341762
0.001113323
-0.002795417
-0.000431601
0.0009021006
-0.0005468138
-0.003049353
0.001542576
0.09388392
0.146463
0.05632858
-0.02952757
0.02341819
0.1248388
-0.2482902
-0.0989031
0.02969865
-0.120844
0.1281911
0.272413
-0.0741311
-0.03848832
0.1219965
-0.2220206
-0.3480747
-0.3239204
-0.06212801
-0.001529503
-0.03037241
-0.07376598
-0.03761984
-0.06753215
-0.06094426
-0.09132374
-0.2122093
0.04884526
0.05357779
-0.1781308
0.1321689
-0.1432538
-0.06144155
-0.06074716
0.02103446
0.05132289
-0.03331098
-0.00437999
-0.01786496
0.07823493
0.08179408
0.09331627
0.02905542
0.0877088
0.09629149
-0.03807992
0.1468722
-0.01753103
-0.01182268
0.06531204
0.113474
-0.09640341
-0.1983569
-0.08006837
0.1226805
0.2691862
0.07098281
-0.00564116
0.09722163
0.01454171
-0.4414163
-0.4483307
-0.4348353
0.09213908
-0.04946644
0.03886579
0.03938736
-0.05125767
0.0183955
-0.07636717
-0.01730783
-0.004302735
-0.1352697
0.1520395
0.186826
-0.02218809
-0.03301848
-0.04058648
0.003292028
-0.1063915
-0.1747519
-0.1664759
-0.137653
-0.1331398
-0.3328864
-0.2324012
-0.2956925
-0.2337433
-0.1962712
-0.1758303
0.03933834
0.03564074
0.04828657
-0.03311549
0.03208258
0.06071999
-0.07157674
-0.0480301
0.04576716
8.433156e-05
0.00295923
0.002263627
-0.001857546
0.003713038
0.0004150385
-0.001859591
0.0007166694
0.001751797
-0.0614183
-0.04187047
-0.01384364
-0.09696696
-0.06778253
0.1500987
-0.08696145
-0.1101573
0.02563754
0.05562754
0.03269023
0.08549982
-0.06677756
-0.06100267
0.0317749
0.008466632
-0.03351308
0.07816351
-0.02570723
-0.04892445
0.06832468
-0.02851828
0.1282645
-0.1693232
-0.1245541
0.02177623
-0.1355083
0.0006487215
-0.002650781
0.000546719
-0.0002390663
-0.0004492245
-0.001785572
-0.0007494705
0.002580203
5.450946e-05
0.09887873
0.1333753
0.1249903
0.0184807
-0.0405028
-0.1324194
0.00640635
0.09347936
0.07410278
0.004747187
0.1103277
0.09090091
-0.08403035
-0.08805455
-0.1009309
-0.01923603
0.09855057
-0.01117918
0.08479875
0.003453635
-0.01924198
-0.06096945
-0.01104705
0.05291179
-0.002287742
0.05732001
-0.007726723
-0.0859656
0.5093784
0.1460894
0.02699673
-0.508202
-0.3225543
0.008825211
0.283318
0.1683845
0.01863355
0.0643316
0.08885389
0.00370151
-0.001097393
7.435492e-05
-0.06717257
-0.05712307
-0.03615624
0.1229106
0.1345835
-0.02132202
-0.1060611
-0.05708744
0.03781089
0.1124014
0.1236718
-0.005135706
-0.02876188
0.005330931
0.06960611
-0.08675884
-0.0481974
-0.02519027
0.06524984
0.08390461
0.02597292
0.0975548
0.1862165
-0.05443886
0.04273371
0.09764603
-0.1149413
0.05439693
0.107062
-0.02815472
-0.08932614
-0.04294819
0.01171377
0.1152614
0.04314298
-0.01340812
-0.0233035
0.000182388
0.05945395
-0.01941331
-0.02327369
-0.1252971
0.03165598
0.05663629
-0.05585401
-0.075425
-0.09520017
-0.07758989
0.1124144
0.09396772
0.05736981
0.01708171
0.05395337
0.05180465
0.04482378
0.04836153
0.04719865
0.001840051
-0.002687742
-8.417521e-05
-0.001549165
-0.0006979335
0.0008330072
0.0007842033
-0.0009772026
-0.001452775
-0.03209929
0.01830585
-0.06438243
0.02819154
-0.01831771
0.08716845
0.003468179
0.01164207
0.04786419
0.001025491
0.03358382
0.08575602
-0.02761584
-0.04113941
0.01346541
-0.0489545
-0.002565793
0.06696097
0.03445656
-0.03488805
0.03326373
-0.02259842
0.0805103
-0.0542301
-0.05381184
-0.006925866
0.01923584
0.0005577354
0.0002318378
0.0008908111
-0.001343163
0.0007307239
0.001320374
-0.00130842
-0.0005143628
0.001868431
-0.05024307
-0.02670701
-0.0549649
0.01948393
-0.004904814
-0.03481557
0.05294863
0.009216222
0.01293854
0.0082619
-0.02665005
-0.02957572
-0.0009257408
-0.04022711
-0.07098469
-0.04622252
-0.04022183
-0.04457682
0.001871532
0.005428844
-0.05822768
-0.03043722
0.01698934
-0.004778458
-0.03676069
0.03059088
0.0152985
-0.07221545
-0.1248384
-0.03049392
0.1410031
-0.1170537
-0.0380092
-0.09514664
0.04495442
0.05998176
0.03120991
0.02140456
-0.00602199
0.01656225
0.01383086
0.005986509
-0.005338751
0.001274289
0.01539662
-0.003724016
-0.0543608
0.03288432
-0.0297652
-0.1534977
0.02379348
0.04137244
-0.006532156
0.04140997
-0.008490543
-0.008963841
0.02816384
-0.03047347
0.05041184
0.05413604
-0.06536445
0.01161917
0.01224735
-0.03995183
0.08274634
-0.02044513
-0.05077114
0.06085531
-0.01520506
-0.06650545
0.04643416
-0.01548698
0.03843869
-0.02211154
-0.01026247
0.1151904
0.04890018
-0.00239809
0.04416247
0.05681747
0.03518826
0.01000581
0.02093107
0.001010555
-0.05236536
-0.05254092
-0.07805888
0.03160705
0.01319669
-0.02796162
-0.01195168
0.007272934
-0.01007549
-0.002441456
0.01099884
0.02241679
0.01546129
0.008523213
0.04349987
0.0004050123
0.003088953
-0.0003152313
0.001354129
0.0006457513
0.001001877
0.004238863
-0.002039278
0.001248518
-0.03069462
0.006600484
-0.007247762
-0.05160254
-0.06297694
0.0102388
-0.03184554
-0.04227136
-0.02006411
-0.04648757
-0.08451012
-0.05791784
-0.0376388
-0.08026961
-0.06525265
-0.02226824
-0.06275876
-0.05680756
-0.08874045
0.004796426
-0.06817607
-0.1177246
0.1475266
-0.05271356
-0.07633911
0.09822927
-0.02906004
0.0005981487
1.237704e-05
0.002721879
-0.003442674
0.001323252
-0.001216699
0.0005608131
-0.002134335
-0.001641935
0.01846392
0.05392313
0.01952857
0.01840046
0.01897955
-0.03451535
-0.0161408
-0.05333158
-0.07763271
-0.08809561
-0.01542365
0.1204969
-0.1455073
0.03808384
0.1942161
-0.05136512
0.05414934
0.1301211
-0.1773358
-0.0505877
-0.02597493
-0.1079142
0.06607086
0.08089153
-0.06005225
0.09445633
0.08734436
-0.1310347
0.02681276
-0.05418063
0.04344133
0.01587841
-0.02160255
0.1992847
0.1213998
-0.124471
-0.1272493
-0.1152881
-0.1065841
-0.06167903
-0.006376737
-0.0009971106
0.02142746
0.1053915
0.107781
-0.1243829
0.01504314
0.07966456
-0.05417087
0.1174604
0.16602
-0.009058663
0.1091515
0.0694364
-0.002582205
0.1015659
0.08144653
-0.0007099417
0.1586594
0.1609623
0.06426068
0.06789443
0.00671387
0.02872798
0.08303527
0.05789547
0.0008589538
0.04718662
0.04779302
0.04383143
0.07878735
0.09001885
0.033836
0.08412178
0.05727025
0.0009633288
0.08893123
0.08590601
0.02249833
0.09960448
0.04454127
0.01319523
-0.02594493
-0.087933
0.03189991
0.08998542
0.06809396
0.06786911
0.1614514
0.1402158
0.0005391034
-0.008099975
-0.01529176
-0.009298966
0.02983127
0.0298323
0.03168795
0.008129394
0.02057371
0.0006018364
0.0005647031
-0.001745309
-0.0008115154
0.001619814
-0.002867027
-0.0008218715
-0.001989306
-0.0003576076
-0.09064221
-0.05310926
0.0168373
-0.06068316
-0.021568
0.09893654
-0.05765193
0.02796668
0.1389443
0.1049475
0.1947322
0.1022195
0.1038506
0.175187
0.1140179
0.05820759
0.1245566
0.07967764
-0.04402978
0.08988058
0.09404679
0.03821621
0.1447849
0.03240168
0.04471008
0.001179738
-0.1172448
-0.000280294
0.0005734274
0.003219065
0.0006811283
0.002234266
0.001062747
0.002744204
-0.0002097575
0.0002479941
-0.02844286
-0.009422632
0.0663247
0.002516217
-0.03041545
-0.04589907
0.08268468
0.1160933
0.02892011
0.09128197
-0.1081406
0.08929741
0.06053144
-0.02279792
-0.03650681
-0.008114202
0.02909617
-0.04240717
-0.0953994
-0.09920945
-0.07886102
-0.1059609
0.01348881
0.05892584
0.01495818
0.1112398
0.05082529
-0.2164237
0.3112522
-0.08789995
0.210134
-0.4348994
0.02214998
-0.2633727
0.3914655
-0.1876834
-0.0531873
-0.04434385
-0.01637995
-0.06433242
-0.110573
-0.06512906
-0.08020572
-0.07744487
-0.06274122
-0.02216764
0.003876239
-0.05652402
-0.08626746
-0.09328802
0.1592753
0.0001281271
0.007122691
-0.03132482
-0.03465663
-0.01071449
0.07702956
-0.02075947
0.08491648
-0.01846085
0.00992611
0.05321044
-0.03380978
-0.02856119
-0.08216107
0.04854095
-0.1480158
-0.1361519
0.01658742
-0.1784848
-0.1163659
0.08443935
-0.06770497
-0.08905645
-0.01628175
0.1087693
-0.06174717
-0.09284367
0.03030296
-0.04062541
0.03709352
-0.01263417
0.01063483
0.05302951
-0.2064828
-0.2538325
-0.2514421
0.03965248
-0.04376148
0.07299946
0.08250389
0.06277264
0.02752198
0.01754073
0.09452523
0.06755797
0.05906195
0.07959463
0.01069534
-0.005996833
0.001761823
0.0007741947
0.002043501
0.004673386
0.002854075
-0.001464893
6.278477e-06
0.00203962
0.02096258
-0.009431302
-0.1406162
0.05344603
-0.111231
0.1081727
-0.0420516
0.008967791
-0.03033767
-0.1068695
-0.09678134
-0.1691547
-0.1086746
-0.07596959
-0.1324402
-0.1223149
-0.03729198
-0.04677146
-0.05931539
-0.05869086
-0.02179745
-0.09050224
0.2752906
-0.1093258
-0.03723912
0.00552588
-0.04281373
-7.642178e-05
-0.001678427
0.0003808747
-0.001415032
0.003121705
-0.0009631612
0.003148106
-0.002602583
-0.003660795
-0.04711551
-0.002543423
-0.05484625
-0.00875878
0.05430123
-0.003086068
0.09336774
0.1955843
0.08839164
0.08476871
0.008447676
-0.02123684
0.00735387
-0.02585545
-0.1153643
0.06481815
0.07036395
0.01460494
0.0429558
0.04353081
0.002785751
0.025176
0.06299723
0.06766502
0.01491906
0.03657589
0.05636105
0.04114092
0.06403519
0.1454486
0.01521559
-0.1900851
-0.2010951
0.003297315
0.4195245
0.07571887
0.02400243
0.01168857
0.00102412
0.01365396
0.0346399
0.007741531
0.01236412
0.06250525
0.04998017
0.01796219
0.01493315
0.04890757
-0.03082376
-0.1229627
0.01890613
0.1382474
0.07769232
-0.04570515
-0.01045585
-0.002201325
-0.0787897
0.05790782
0.04691738
0.04922122
0.0417423
0.03055568
0.08813574
-0.04644903
0.02474093
-0.009509131
-0.0335227
0.05366406
0.02816072
-0.008034735
0.03240623
-0.005301504
0.01136022
0.01038083
0.05827126
0.1171326
0.07682261
0.003192012
-0.05025388
0.03197218
-0.04009612
0.002795034
0.05693891
0.08452204
-0.07609846
-0.06497853
-0.05322002
-0.05102873
-0.04262765
-0.06147452
-0.03565422
0.01959423
-0.01351724
-0.0409554
0.02831409
0.008275809
0.04230318
0.09866063
0.04742746
0.0009324959
0.0006904386
6.95274e-06
-0.001970831
-0.002373132
-0.001645792
-0.001902443
-0.004043
0.0009925149
-0.008140585
0.002489027
0.0147828
-0.06036254
-0.009070836
0.05572754
-0.06720085
0.001632885
-0.08249962
-0.02307354
-0.09600039
-0.1060518
-0.01445574
-0.06854791
-0.07058912
0.05756649
0.03481314
0.004441819
-0.0112856
0.02222231
-0.05654315
-0.02460059
0.03095323
-0.01752233
0.08874975
-0.05465282
0.0762952
-0.002681306
0.001534999
0.002475984
-0.001967456
0.001842702
-0.001799121
-0.003319962
0.001220416
-1.896635e-05
-0.01918443
-0.03988385
0.04479267
0.009012179
-0.02236234
0.01390884
-0.02583114
-0.02796308
-0.03079229
-0.001250728
0.05712625
0.05903363
0.06485301
0.09215835
0.1189304
0.04612329
0.07327667
0.08171953
-0.03901902
-0.04678865
-0.06459382
-0.0458718
-0.0466998
-0.07226636
-0.04669159
-0.05910742
-0.05625111
-0.0008635292
0.009921492
0.08135422
-0.153957
-0.05830958
-0.01418137
-0.03260009
-0.03483895
0.03334961
-0.01995381
-0.0299691
-0.03009447
-0.01161713
-0.0201644
-0.005834254
0.03145905
0.03019455
0.02578631
-0.0108313
-0.0709475
-0.05337926
0.01661715
-0.09313793
-0.08958507
-0.01757106
-0.1152667
-0.07297439
0.05127183
0.07948723
0.0790459
0.08014255
0.08914839
0.1024862
0.01659266
0.08491652
0.123189
-0.07851975
-0.03476437
-0.00923813
-0.04227995
-0.03570588
-0.02450112
-0.07692762
-0.03825419
-0.05270635
-0.0559249
-0.08033895
-0.1017407
-0.04455936
-0.0821099
-0.08060431
-0.03378296
-0.0668596
-0.04636557
-0.01197119
-0.01567119
-0.002921984
-0.02078256
-0.04127359
-0.02449861
-0.02512681
-0.01769008
0.02204596
0.06370053
0.06899264
0.1190385
0.05119024
0.01947648
0.03645545
0.01404699
-0.01205524
-0.005944281
0.001359542
0.0001327168
-0.00164208
-0.001959351
-0.001006785
0.0009483034
0.001720659
-0.001717876
0.002927305
0.03981248
0.001736611
0.03540329
0.04597137
0.02584568
0.03278006
0.02647501
0.006775173
-0.01210422
0.0004329718
-0.004913148
-0.02567826
-0.02132063
-0.0184566
-0.04459341
-0.04599436
-0.08357248
-0.06689227
-0.02604748
-0.1032665
-0.03236898
-0.000884572
-0.06721433
0.0007738638
-0.07275315
-0.02824846
0.08254611
-0.00335087
0.001256833
-0.001883645
0.000439096
0.0003028724
-0.002685302
-0.0004220901
-0.0002677321
-0.0005052726
-0.03512002
0.06818721
0.08359395
-0.07009471
0.02547069
0.05076448
-0.01937253
-0.05363895
-0.05607561
-0.1520215
0.09694593
0.05856719
-0.04356951
-0.05926373
0.04522527
0.0009358964
-0.1050477
-0.0004965767
0.07100344
-0.01130513
0.06043959
0.002294169
-0.1081716
0.008860651
0.04228745
-0.07123202
0.0448539
-0.02325713
-0.06230683
-0.1415143
-0.1844059
0.4096266
-0.2320437
-0.07643065
-0.1376877
0.1051675
0.02776079
0.07009435
0.05721388
-0.004131929
0.04421028
0.0002514376
-0.0230616
-0.06621632
-0.05123015
0.05000624
0.03130971
-0.04857749
-0.02471731
0.03424358
-0.115379
-0.0006135507
-0.03625339
-0.0370349
-0.007466161
-0.05287803
0.1110401
-0.01414101
-0.149232
0.1125727
0.04307644
-0.02724927
-0.04845327
-0.08045843
-0.1240345
0.04078844
-0.05903107
-0.1601138
0.05011247
-0.06301507
-0.1277614
0.1013779
0.05809882
-0.04320572
0.036125
-0.1188934
-0.01994687
-0.004362522
0.0719777
0.02157097
-0.00230913
0.03185815
0.05145916
0.009346926
0.01788081
0.1447734
0.08681337
-0.07129345
0.04385989
-0.04577998
-0.01048574
0.04205754
0.0407218
-0.01044918
-0.05178273
-0.0341346
-0.009399812
-0.06664918
-0.09269697
-0.003677306
0.001453952
-0.001671368
-0.002854292
-0.001330793
-0.0007994264
-0.001381752
0.0009423464
0.0007143936
-0.04235492
0.04559311
0.03886665
-0.04102308
0.009604222
-0.1560471
0.05885867
-0.05225387
0.01850987
-0.001792557
0.03782224
0.0347327
0.04565052
-0.01897613
-0.05700395
0.03533565
-0.1094503
-0.0248732
0.177535
-0.2530096
0.06236054
0.2325712
-0.402461
0.3182859
0.09154383
-0.08503982
0.06497755
-0.0007838968
0.0001380245
-0.00254415
-0.0007613014
0.0001257853
0.000658515
-0.0006584636
0.002427318
-0.002318185
0.06742746
0.05418655
-0.06589701
0.1649361
0.1393034
-0.05400551
0.08844131
0.1036244
-0.001068469
0.1302632
0.005326056
-0.01139236
0.1321615
-0.006301086
-0.04059318
-0.04883768
-0.08002505
-0.02051788
-0.06971547
-0.0191746
-0.06387522
-0.08542631
0.02563621
0.06582496
-0.1153099
0.02462885
0.04443078
0.07805615
-0.04601767
-0.04895921
0.3026842
-0.06504489
-0.2212653
0.01729012
-0.03012707
0.06294753
-0.03392784
-0.0286021
-0.03808429
-0.05505616
-0.0351946
-0.005740848
-0.06637732
-0.02913954
0.02685172
-0.03000692
-0.1863165
0.02657192
0.03894345
-0.2958683
0.03493815
0.07123015
-0.08701778
0.02106672
0.003384891
0.02499892
0.0486376
-0.08629468
0.09301111
0.1100294
-0.1718244
-0.0675907
0.01104376
0.04672964
0.1169096
-0.04877282
0.02530118
0.05767314
-0.08057935
0.04133362
0.08225293
-0.0324072
-0.02349092
-0.05295683
-0.03939391
0.1382981
0.1415512
-0.05755087
-0.01628783
-0.009153007
-0.1423074
-0.09922026
-0.0669481
0.04410022
-0.1063446
-0.111748
-0.08306536
0.03947501
0.02485941
0.04771358
-0.03893135
-0.001540907
-0.03546916
-0.003358294
0.03885986
0.03479321
0.01626406
0.05164882
0.03418535
-6.182509e-05
2.148914e-05
0.001648686
0.0001387634
0.003525108
-0.002287183
0.001931968
0.004374367
0.005125268
-0.1036571
-0.01015321
-0.01054353
-0.09584831
-0.04306478
0.02621996
-0.07863243
-0.02418038
-0.04831307
-0.1099754
-0.03644703
0.08206832
-0.07500747
-0.01137515
0.09919234
-0.03052946
0.01976512
0.107963
-0.108664
0.08940391
0.09739292
-0.2279646
0.2938806
0.163949
-0.158453
0.08178176
0.0251471
0.003153699
-0.002368543
0.0005480824
-0.0005081155
0.001063524
0.0003681951
0.003601575
0.0003041775
0.002784014
-0.002455793
0.0008869055
0.09470089
-0.04537731
-0.058234
-0.008238747
-0.1042666
-0.1158192
-0.1250978
0.1075033
0.147417
0.06349427
0.1060196
-0.005148781
-0.007494223
-0.1226996
-0.2077921
-0.1616458
0.02141777
-0.01285351
0.0160602
0.03100216
-0.04525278
-0.01973164
0.006048169
0.02732055
0.08368729
0.1176169
0.1229388
0.06436083
-0.000289984
0.2309562
-0.03049312
-0.04774981
-0.2966916
-0.07705585
0.008000496
-0.008272129
-0.01606787
0.03279571
-0.00336809
-0.02224146
-0.002668605
-0.06024987
-0.07842381
-0.01732548
-0.003144959
-0.01643552
0.01809767
0.02902915
0.005306915
-0.1303599
-0.05419747
0.0780194
0.09632687
0.01311035
-0.02578244
-0.07234838
-0.06196509
-0.02631764
-0.1311148
-0.004848932
0.01347331
0.07642674
0.03882572
0.01765209
0.00130177
-0.01728679
-0.01675585
-0.06891333
-0.03372039
-0.02165502
-0.04797337
0.001431571
1.279646e-05
-0.08905166
-0.002037365
0.05806599
0.1357058
0.09706447
-0.02066481
0.06049029
0.03842292
0.06914644
0.03576936
0.006518619
-0.0454388
-0.06758343
-0.09310675
-0.1624163
-0.002473237
-0.001273611
-0.0378815
0.01028167
0.00823314
-0.01398681
0.006694049
0.05364669
0.05040195
-0.001439921
-0.003643853
0.003432397
0.002458857
0.004416641
-0.0006478806
-0.002195963
-0.0001954835
0.001136482
0.04839594
0.036457
-0.02786405
0.0529694
0.05235502
-0.05002559
0.05888517
0.04491585
0.1420413
-0.01711998
-0.01251991
0.008417863
-0.07381708
-0.09587242
-0.0894815
-0.07956806
-0.1211788
-0.08586798
0.0005965751
-0.005846151
-0.1075042
-0.03528124
-0.01241177
0.0493844
-0.03812943
0.1448528
-0.02635642
