32 16 3
-0.06927758
-0.05705496
-0.004656118
0.003294213
0.0006811359
0.08634195
0.02111596
0.07380632
0.1260256
-0.094308
-0.04564249
-0.030668
-0.06541197
-0.01514454
0.02482585
-0.002955534
0.07551753
0.09360201
-0.0162079
-0.01035767
-0.03201695
-0.02577023
-0.04821205
-0.03860958
-0.001173014
-0.002008709
0.01148231
-0.08712404
0.0400557
0.07669757
0.003544209
0.1242581
0.1256594
0.0510253
0.166891
0.1503462
0.0335776
0.05482878
0.04742742
-0.1169251
-0.02503167
0.01075916
-0.138486
0.03760521
0.05550034
-0.01297546
-0.04209746
-0.03928433
-0.0576488
-0.03147539
0.07003988
-0.04402931
0.03104174
0.1129151
-0.09481918
-0.2027749
-0.209658
-0.1375613
-0.0856942
-0.06495801
-0.02631541
0.06666091
0.1394638
-0.2574448
-0.2075074
-0.1016244
-0.1794965
-0.1732901
0.09062959
0.07755703
0.2488414
0.2554694
0.1068039
-0.0109557
0.002062465
0.05246148
-0.07368377
-0.03307628
-0.0944628
-0.1911056
-0.0646058
0.02408279
0.08819069
0.1054899
0.07984763
0.07886735
0.1155123
0.05287373
0.0611125
0.01767523
0.02445923
0.05059573
0.01541985
0.05655983
0.008328321
0.04114901
0.06714553
0.0518744
0.06635018
-0.0388011
-0.07561119
-0.008328456
-0.006415455
-0.03118099
-0.01418993
0.03985175
0.04932612
-0.008344224
0.2125631
0.2294685
0.1453134
0.1203474
0.08237405
-0.01856662
-0.02442206
-0.1252757
-0.1861882
-0.02067794
0.02526089
0.05729884
-0.02271102
-0.00676956
-0.003446372
0.04913643
0.1126651
0.02655437
-0.1089035
-0.09668466
0.07763536
-0.07974116
-0.03701636
0.1406181
-0.02168841
0.07660293
0.1928486
0.03475263
0.04430426
0.08724688
0.01775806
-0.08325096
0.1439933
0.08762667
0.1345042
0.2079051
0.06229764
0.04788713
-0.0238048
0.06562825
-0.02144879
0.001530149
0.0331989
0.0664981
0.02181069
-0.01843227
0.0557065
0.08351278
-0.08971546
-0.005116436
0.0409975
-0.1458673
-0.1316176
-0.1213559
0.02551798
0.009131269
-0.018658
0.03986481
0.0001733965
-0.001969294
0.09205463
0.0744305
0.05410542
-0.02999533
-0.01753569
-0.02914103
-0.08023878
-0.02381286
-0.03958059
-0.06369125
-0.00808654
-0.01147334
0.200037
0.1699845
0.2151813
-0.0402813
-0.002444787
0.006130368
-0.2340717
-0.2496695
-0.1568316
0.01501343
0.05920762
-0.003609222
-0.01072781
-0.0153963
-0.05430574
-0.1191055
-0.1082972
-0.1632166
0.1442317
0.09363891
0.02319684
0.08229844
0.04792402
0.005081076
-0.04386151
-0.05027353
-0.05729671
-0.03224839
0.01907916
-0.0466952
0.06273305
0.05090279
0.05930066
-0.04790333
-0.01449216
-0.06022216
0.02819272
-0.02848144
0.03862293
0.06394104
-0.04638034
0.06611132
0.1548233
0.09509821
0.0841447
0.005351749
0.0290042
0.03574031
-0.08138061
-0.06003724
-0.02065375
0.004922542
0.02690941
0.06217046
0.03699831
0.05705925
0.05558487
-0.01770755
0.06703033
-0.001555462
-0.09412504
-0.08876812
-0.08848793
0.1404824
0.0775842
0.06413896
0.09407028
0.008517389
-0.02034629
-0.05710926
-0.1473039
-0.1636839
-0.1491348
-0.1330393
-0.1064977
-0.04289726
-0.03218798
0.00846786
0.1284691
0.1334469
0.1397626
0.0269503
0.05464033
0.01996645
0.001328161
0.01307016
-0.001119205
-0.09601934
-0.05343674
-0.04031482
0.0288004
0.02728043
-0.03591264
-0.05049614
-0.006390063
-0.03851653
-0.165957
-0.1823637
-0.1028499
0.1357898
0.1484916
0.08591758
0.0917943
0.02917636
0.08370832
-0.07899521
-0.09182639
-0.07805578
0.04852024
0.04485705
-0.004413188
-0.02416321
-0.01742277
-0.0701966
-0.02375791
-0.03932478
-0.05440201
0.004017758
0.001124305
0.001726816
-0.06689597
-0.0216998
0.002265057
0.001694034
0.02987698
0.06085722
-0.1661091
-0.1755731
-0.1946909
-0.138248
-0.1815207
-0.1992536
-0.1443721
-0.2330167
-0.2079192
-0.08672031
-0.09093594
-0.0508126
-0.09457567
-0.1188751
-0.1020055
-0.1033118
-0.1297854
-0.1087264
-0.03823989
-0.08163168
-0.04585575
-0.04807717
-0.04691583
-0.03900247
-0.02402899
-0.06686351
-0.07173152
0.04231116
-0.02319962
-0.001200658
0.05916803
0.05941706
-0.003942398
0.02472345
0.05217343
0.01097462
0.01008225
-0.001757491
0.06913189
0.06664256
-0.02908492
0.08251967
0.1946356
0.1309844
0.1437584
-0.05378097
-0.06301254
-0.08719181
-0.03281165
0.03029282
-0.03528332
-0.01240401
-0.04862988
-0.04749031
-0.00878214
0.00534313
-0.0406234
-0.1025507
-0.04997722
-0.07773735
-0.1386796
-0.08771783
-0.08200908
-0.1230371
-0.126362
-0.1379813
-0.143004
-0.1494586
-0.1780461
-0.07906626
-0.1447363
-0.2118173
-0.002557193
0.01994457
0.02804279
0.004501234
-0.09709141
0.009882431
0.02694574
0.0333879
0.02192126
-0.04837837
-0.03355931
-0.008711345
0.0003037305
0.003060857
-0.03228439
0.05515309
-0.01457907
-0.02116218
0.09338547
0.07147059
0.1185082
0.00287343
-0.04018212
0.04986105
-0.04639791
-0.06697632
-0.03368927
-0.06732316
-0.05128869
-0.04488333
-0.029496
-0.03620801
-0.0817531
0.04609463
0.05752291
-0.02187845
0.02689454
-0.0535702
-0.06112467
0.05850168
0.05040477
-0.03229471
0.0821496
0.05717542
0.03400161
0.001025169
-0.0003512402
-0.04269408
-0.02358316
0.005961844
-0.03229543
0.09231855
0.08691698
0.1206819
-0.02958154
-0.04567697
-0.04630771
-0.03619317
-0.05207007
-0.005814756
0.01670042
0.03779053
0.05792414
0.1041709
0.03400432
0.05072064
-0.04305714
0.005483931
0.1026537
-0.04672273
0.0107122
0.04361991
-0.006398364
0.01481293
0.02128354
0.004810731
0.004308021
-0.06024661
0.003106544
-0.01345156
-0.08644482
-0.168485
-0.1078482
-0.1053171
-0.09054704
0.005983414
-0.02196294
-0.02597142
0.05794544
0.06336863
0.1775435
0.1486658
0.1708771
0.04940984
0.05672023
0.05081651
-0.1269199
-0.1740502
-0.09849726
-0.1014269
-0.07829965
-0.07248324
-0.07625061
-0.03679157
0.002757262
-0.06442511
-0.01896114
0.0143062
-0.07974067
-0.1058845
-0.08673262
-0.1063267
-0.09664501
-0.1377371
-0.01774679
-0.06441619
-0.07645266
0.04623056
0.01688087
-0.06888364
0.00350389
-0.01488995
-0.02677076
-0.1569336
-0.1073527
-0.04327952
0.1139629
0.01209832
0.03642835
0.1784005
0.03170734
0.09698039
0.1340462
0.0608822
0.04799384
-0.0702382
0.008221104
0.04878113
-0.02153851
0.06364894
0.09640224
0.08533537
0.1509497
0.1442662
0.0185669
0.003594767
0.03228576
0.07615447
0.09466417
0.1022672
0.09755
0.07630921
0.06852768
0.0676049
0.09372675
0.09242025
0.1218296
0.03010419
-0.05610788
0.03728041
-0.02102838
-0.1361616
-0.0613797
-0.08049621
-0.08684799
-0.009346402
-0.04123604
-0.02820269
0.007817443
-0.04555889
-0.04516191
-0.01912239
-0.04150376
-0.03934881
-0.0464421
-0.06442738
-0.1194231
-0.06498975
-0.1225207
-0.03623314
0.04680072
0.06693877
0.03450412
0.04337221
0.02269283
0.03648885
-0.04881303
-0.07233083
-0.02225208
0.1513025
0.1693784
0.05543131
0.05851008
-0.04273033
0.01662594
-0.09657453
-0.04005643
-0.007136839
0.01848783
0.02287591
0.04716008
0.001609882
0.007464137
0.01387179
-0.0250019
-0.04840996
-0.05687154
0.05096177
0.09605195
0.01635682
0.1069571
0.03784624
-0.02940023
0.04916131
-0.0136056
-0.03683174
-0.01973627
-0.00795785
0.0238874
0.01277182
-0.008315737
0.03537857
0.06892865
0.02545848
0.01797384
-0.05987409
-0.04371673
-0.02980123
-0.03464301
-0.002478194
0.03168218
-0.009797526
0.02533134
0.03447352
-0.04086197
-0.03852056
-0.02099168
-0.02169838
-0.02523397
-0.01139012
0.05609193
0.05203363
0.08040969
-0.02783284
-0.07568792
-0.08893528
-0.01630187
-0.01402518
-0.03504524
0.007141495
-0.004823532
0.01430853
-0.01701356
-0.0542844
-0.05221295
-0.03783618
-0.03496526
-0.02385625
-0.08005882
-0.05805776
-0.03256002
0.01095554
0.01844787
0.02113056
0.05878934
-0.005575109
0.04273262
0.1100065
0.06980795
0.02215818
0.04148784
0.00227553
-0.02742515
-0.0009231996
-0.03994869
-0.07773318
-0.04421362
-0.06258985
-0.07638369
0.03824347
0.04294015
0.04440532
0.04029649
0.05370926
0.0522863
0.07571124
0.07490628
0.03919563
-0.02521328
-0.01325072
0.01281105
0.004604425
0.009295425
0.01933376
0.004282914
-0.003383821
0.02137332
-0.05756713
-0.04530361
0.01786301
-0.03679405
0.002090371
0.01915243
-0.04069274
0.007452721
0.06409637
0.02136502
-0.007081834
-0.003562567
-0.02911614
-0.05173018
0.004174608
-0.01812258
-0.0134874
0.01812268
-0.06736623
-0.05708976
-0.02237626
-0.01046124
-0.04955285
-0.0113063
0.08062238
0.08584846
0.05573037
-0.06378698
-0.0534483
-0.04808187
-0.04480128
-0.01093258
-0.04483662
-0.0417863
-0.02650096
-0.004754195
0.08209613
0.04042295
0.008261592
0.031612
-0.007078166
-0.05067575
-0.03507121
-0.08548549
-0.08039249
0.0467888
-0.01230442
-0.02952796
0.1210784
0.0744824
0.06299822
0.06298523
0.06678449
0.03139631
0.04428973
0.0383921
-0.03405605
0.06164606
0.07338539
0.003421274
0.009618447
0.04432574
0.002223631
0.095681
0.1923856
0.2766978
0.06906144
0.165848
0.3468111
0.04727048
0.1549688
0.3105132
0.1173651
0.1508825
0.2259973
0.1364965
0.1777446
0.2659331
0.1243103
0.1176957
0.184832
0.03243403
0.1091061
0.0176465
-0.0653458
0.0374659
-0.005282651
-0.1191049
0.003280813
-0.02885061
0.04233353
0.01212063
0.008416035
0.002899627
0.004420504
0.05081697
-0.01656646
-0.02921694
-0.01039858
-0.09440027
-0.1493941
-0.2418305
0.05568511
0.02088699
-0.1687124
0.08319972
0.06870545
-0.0870259
-0.06232963
-0.007307902
-0.03559945
0.01127412
0.00282653
0.06242676
0.02942739
0.1151231
0.1139318
-0.1306622
-0.06994304
0.03964381
-0.06706776
-0.06281704
-0.00793586
-0.009945417
-0.03984776
-0.01027135
-0.1405885
-0.08777091
-0.02959959
-0.07214322
-0.05613377
0.01798078
-0.03617129
0.03756829
0.07608269
0.05439961
0.002282371
-0.03606702
0.1062247
0.1432928
0.02030451
0.0254155
0.000426519
-0.01228745
0.03246897
0.07153039
0.04622564
0.04523396
0.07082972
0.1052003
0.02491475
0.09830789
0.07889459
-0.06263146
-0.06700424
-0.04247659
0.007814183
0.009124324
-0.02388958
0.05886761
0.03488244
0.0313993
-0.02460442
0.01472395
-0.01617773
0.01932317
-0.06527165
0.03291844
-0.01044522
0.01146511
0.05899434
-0.05300454
0.07478444
0.1191171
-0.05039291
-0.001719881
0.1209696
-0.01088492
0.05318654
0.08011802
-0.02018739
-0.06207891
-0.02223833
0.03341589
0.03932328
0.03480192
-0.07121123
-0.1130866
-0.08131639
0.001618319
-0.0001290638
1.220539e-06
-0.0001679996
0.0002211641
0.00120427
0.0001381137
0.001890751
-0.002128249
8.758066e-05
-0.001515217
0.004498178
-0.002198303
0.001402729
9.24625e-05
0.001681093
0.0002795945
0.0006080255
-0.001484952
-0.002085767
-0.0009300369
-0.0003871831
0.000602984
-0.0003719659
-0.004645964
0.0004405382
-0.003012022
0.000880687
-0.003780789
-0.0002418544
-0.001155175
0.002926071
0.0007310261
0.004380804
-0.0009115668
-0.001639802
-0.00260805
-0.002383969
-0.001316255
-0.002361457
0.0004210695
0.0004750229
0.0005304966
-0.001947817
0.001535529
-0.002907532
-0.002243875
0.004340555
0.002207349
-0.001013793
0.0003475387
-0.001515066
0.0001685538
0.001071017
-8.195366e-05
0.004361226
0.0019544
-0.002746277
0.004103927
0.0002572806
2.995127e-05
0.0005989975
7.298616e-05
-0.001018961
-0.0009323792
0.00273009
-0.001732015
0.003423276
-0.002243867
0.001441352
0.002059585
0.002778308
0.002043804
0.002211069
2.204001e-05
0.0005172644
0.0005610783
0.001050734
-0.0005277565
-0.001496178
-0.0003835606
0.001142863
0.003157002
0.0002973121
-0.0007794657
0.000408907
-0.001076521
-0.002875524
-0.003880162
0.001190657
0.002158584
0.001455806
0.000119087
0.0008439338
8.937203e-05
0.002548878
0.002840704
-9.149686e-05
-0.001780653
-0.00294179
0.0027636
-0.0007376817
-0.003244576
-0.002438878
0.0003524084
0.0002703683
-0.002965558
-0.002028279
0.0003358003
-0.001738596
-0.003300576
0.001950866
0.004010783
-0.004112263
0.001487268
3.315166e-05
-0.0009650448
0.001524954
0.0007263122
-0.0009293504
-0.002130858
-0.0004022956
0.001101092
-0.00156955
-0.001694701
0.002331581
0.000208485
0.0006637104
0.001713064
-0.000595215
0.00193161
7.689598e-05
0.0009845764
0.001251754
0.001815546
0.005313861
0.001865385
0.002792857
0.003735011
-1.47214e-05
-0.005281787
-0.0005853286
0.0002090529
7.542084e-05
0.07306375
0.09285945
-0.03448421
0.0090756
-0.02168165
-0.02574824
-0.005067806
0.02637562
-0.01883193
-0.1561723
-0.1254064
-0.03816367
-0.005758873
0.04279727
0.1656907
0.1343835
0.161703
0.1768376
0.1288579
0.1182923
0.1260132
0.06185457
0.04700194
0.1140119
-0.0164747
-0.03814629
0.0523031
-0.06903707
-0.08137008
-0.05334441
-0.06620073
-0.08636267
-0.05506989
-0.0569906
-0.06552115
-0.03435627
-0.1955363
-0.1000858
0.00178871
-0.1335479
-0.03153925
0.020785
-0.06477971
-0.09488022
0.01775393
0.05915738
0.0258015
0.01926949
0.04593696
0.06015783
7.824944e-05
0.08517321
0.0006361267
-0.021371
0.1551347
0.110223
0.07574324
0.06392379
0.01600584
0.1086096
-0.0151001
-0.01088278
0.07519662
0.00172808
-0.02923545
-0.07081292
-0.1381155
-0.1377261
-0.07863963
-0.1804467
-0.1943163
-0.1047644
-0.0643982
-0.1126144
-0.2075661
0.01170851
-0.05823042
-0.2099637
0.09270716
0.01460104
-0.1148898
-0.01859109
0.001107106
0.03448677
-0.02578081
-0.0009311784
0.04418934
0.005633042
0.02006223
0.06125484
0.03179897
-0.008039173
0.01586729
0.03942193
0.09213483
0.07930054
0.08379157
0.08187468
0.08440069
-0.05709093
-0.01479123
-0.07842158
-0.07866181
-0.03211345
-0.0008153445
-0.1190064
-0.04622607
0.04539543
0.02978456
-0.01899129
-0.0386622
0.04034524
-0.05097641
-0.09279544
0.005970197
-0.05341692
-0.08021227
0.1112699
0.09462922
0.0971581
0.03901061
-0.009014668
0.005662219
-0.01427199
-0.02698586
-0.08241312
-0.1436183
-0.09837935
-0.1031898
-0.1908182
-0.09523878
-0.1739975
-0.1896878
-0.1378298
-0.1534164
0.02258718
0.001448337
-0.03232156
0.02020074
0.060092
-0.02677219
0.0240168
0.006501583
-0.04521507
0.02611535
0.08789747
0.1035259
-0.03908397
-0.03619521
0.02629133
-0.1409228
-0.13226
-0.09571788
-0.02060519
-0.01209231
-0.03625018
0.1065381
0.007619071
0.006872136
0.0564482
0.02436226
-0.02124499
-0.03608889
-0.06107346
-0.08809669
-0.06813049
-0.08144473
-0.1612669
-0.0725304
-0.1239696
-0.201712
-0.1700951
-0.1737555
-0.2099494
-0.06915255
-0.04942382
-0.1003661
-0.03113081
-0.03230986
-0.06900146
-0.07904213
-0.1533905
-0.1305005
0.08055168
0.04870599
0.05435864
0.12455
0.1459448
0.1612312
-0.06683931
-0.05181676
-0.09969772
-0.02315557
-0.002509647
-0.05409766
0.0001861479
-0.01130135
-0.005481672
-0.05358194
-0.07783813
-0.03402698
0.01865493
-0.01364688
0.06239017
0.05835936
0.05198755
0.1294383
0.1663864
0.1895647
0.1288408
0.05493413
0.03046983
0.1054678
-0.1639066
-0.1947197
-0.1507084
0.06382158
0.03907535
0.02232688
0.1213185
0.033207
0.03653126
0.08144788
0.04670052
0.02698687
0.02435455
0.08969714
0.09738431
0.04053971
0.03955721
0.06948193
-0.02194056
-0.04326867
-0.03146465
-0.03230184
-0.0546829
-0.04351331
0.01544635
0.007679322
0.003379539
0.04598359
0.01094874
0.002582085
-0.003758687
0.04601274
0.03365887
-0.0008201313
0.006997527
0.06355213
-0.0510604
-0.04693905
-0.005975957
-0.0487209
-0.07522176
-0.05643054
-0.04717949
-0.01634802
-0.00499275
-0.003346651
-0.005154987
0.001441868
-0.01118736
-0.01480689
-0.02496107
-0.00216513
-0.02165582
-0.06430846
-0.001630009
-0.04163943
-0.05720786
-0.03041672
-0.06142322
-0.1435542
0.1189541
0.04983452
-0.04668353
0.1078591
0.08839312
0.04146624
0.1010477
0.1726688
0.106022
-0.0315837
-0.02996586
-0.008721047
-0.1467374
-0.08538447
-0.06199245
-0.09340575
-0.09257035
-0.07828849
-0.08045153
-0.06479534
-0.0517236
-0.05492359
-0.05157908
-0.02174603
0.01224464
0.08725758
0.04611374
0.1150468
0.1134177
0.05010358
0.2206148
0.1567538
0.0599678
-0.009761412
-0.007381258
0.0500942
-0.01922737
-0.01322116
0.04148217
-0.01651548
0.02139913
0.0631391
0.04566813
-0.00141101
-0.02428429
-0.008462983
-0.03509878
-0.05892661
-0.0508774
-0.05390529
-0.08115803
0.1335115
0.04258801
-0.03722752
0.07769628
0.003197539
-0.08366527
-0.02708251
-0.06180752
-0.05702667
0.05680515
0.03585694
-0.02713601
0.06749197
0.03560304
-0.02702339
0.05111391
0.005276787
-0.01030909
-0.03964274
0.02646935
-0.03009859
-0.07737629
-0.02124152
-0.05417958
-0.1739056
-0.1313969
-0.1246841
-0.02348354
0.00153689
0.01953291
-0.02766501
-0.02919611
-0.01187268
0.07628891
0.05309141
-0.02830747
-0.02713239
-0.02748821
0.00721768
0.01137196
-0.006934493
0.0505842
0.06997284
0.05217401
0.02518298
0.02867592
0.0095374
0.01190592
0.003205603
-0.001215416
-0.01169803
-0.01388762
0.00425668
0.01343741
0.008474597
0.007073471
0.04641815
0.007377306
0.02199173
-0.008587585
0.01211489
0.02323642
0.03579633
-0.08062448
-0.1070945
-0.08271523
-0.1536516
-0.09203911
-0.09404767
-0.133191
-0.1524979
-0.07271904
0.008675488
-0.000115425
0.06776005
-0.0407827
-0.06807072
0.04470297
-0.05335987
-0.02433084
0.05737138
0.02910761
0.03486072
0.06790552
-0.03910505
0.03153714
0.05116334
0.01670034
0.05257291
0.07257015
0.01346756
0.02807364
-0.0164562
0.01446613
0.009355986
-0.05297874
0.03982987
0.01751285
-0.0345261
-0.106197
-0.08690467
-0.02549808
0.02338069
0.0452131
0.003675928
0.09341399
0.0100259
-0.03530183
0.04656596
0.03509561
-0.007305729
0.0710558
0.04028606
0.02599443
0.02100895
0.01154563
-0.006945886
-0.08273953
-0.07157296
-0.05652828
-0.06663746
-0.0642404
-0.08164869
-0.01334055
-0.09778639
-0.1418756
-0.03687198
-0.01844382
-0.03965518
0.00523556
0.04007444
0.02958202
0.007701888
0.07904138
0.09268468
0.04652992
0.00657511
-0.02605348
0.04843299
-0.005800628
-0.02668175
0.06153993
0.01039092
-0.0198714
-0.133062
-0.0840359
0.06128923
-0.1392643
-0.1080802
-0.0001533051
0.004889173
-0.0449283
0.03365623
-0.03837306
-0.07274906
-0.03051471
-0.03108375
-0.04756517
-0.04124502
0.04195591
-0.01955757
-0.02847049
0.08398109
0.05892565
0.05045156
0.09152022
0.07314236
0.09564003
0.09788476
0.09471367
0.1427806
-0.05156777
-0.06996111
-0.04751496
-0.02239891
-0.02664424
-0.09567937
-0.06099902
-0.1053068
-0.1251566
0.1285109
0.07490791
0.05045862
0.1207287
0.06562188
0.04942
0.07133055
0.03003627
-0.00403574
0.0575642
0.03355922
0.03448234
0.07154093
0.07483986
0.06372534
0.05642177
0.05127867
0.06528994
-0.0411627
0.01280203
0.03542759
-0.05238089
0.01655457
0.01004376
-0.02895408
-0.02844197
-0.006263034
-0.07004106
-0.01342926
-0.0299322
-0.002010458
0.0261621
0.1026306
-0.02087151
0.06721057
0.1350674
0.007097339
-0.02406571
-0.02689755
-0.01026017
-0.03199167
-0.002984302
-0.06274661
-0.05400277
-0.0495934
-0.007972402
0.01572992
-0.009884555
-0.02558744
-0.01781706
0.0245371
0.003993733
0.07026722
0.05204765
-0.01212211
-0.03370703
-0.009393058
-0.02630496
-0.03754447
-0.06049609
0.01492397
-0.04517322
-0.06847508
-0.007274059
-0.04758062
-0.05483213
-0.009623205
-0.01474938
-0.04608014
0.002765818
-0.06179296
-0.08207635
-0.09282426
-0.02994126
0.02304658
-0.02538628
0.04081685
0.04990261
0.005988691
0.07376722
0.03677411
0.05790495
0.02198637
-0.06680183
0.05299808
0.05584814
-0.005618036
-0.09142889
0.002659597
0.01988389
-0.06794403
-0.04318556
-0.06018709
-0.01863509
0.02039046
0.05570581
-0.000142571
0.08275738
0.09879784
0.02900491
0.1234802
0.1277084
0.085597
0.1807091
0.1815801
0.0543466
0.1029901
0.1177436
0.04997828
0.04996828
-0.01423844
0.05443706
0.04254668
0.04707604
-0.006743005
0.01865109
-0.01059087
0.05471556
0.04452964
0.06135977
0.02002453
0.065574
0.1379963
-0.03229305
0.03845573
0.03933117
-0.05060429
0.05505873
0.1004761
-0.03162425
0.05700422
0.1772697
0.08157448
0.2203097
0.2586634
-0.04775048
-0.005212293
0.05183405
-0.05518592
-0.1107809
0.1571825
0.001075917
0.1611855
0.2926419
-0.08888056
-0.09439215
-0.01099205
-0.07436552
-0.05232706
0.008443448
-0.08549599
-0.05263905
0.03278479
0.006562158
0.04204021
0.08548925
0.04992727
0.08990163
0.09582825
-0.01048599
-0.003654832
-0.007847121
0.007498317
0.06766944
0.08062652
0.0601281
0.07627341
0.1123148
-0.05214508
0.02536279
0.0332926
-0.04865317
0.006315286
0.04187429
5.399762e-05
0.01259833
0.0673363
-0.02438109
0.09134971
-0.02339311
-0.1186684
-0.0660255
-0.06988677
-0.09524778
-0.004201309
-0.0957941
-0.05610807
-0.06403144
-0.07896996
0.02665869
-0.02199637
-0.0233773
0.04460808
-0.04634446
0.01063955
0.07125865
0.001808231
0.03385159
-0.04537525
-0.03230044
-0.05525261
-0.01526018
0.01689607
0.002152799
-0.03176497
0.03792311
-0.01720884
-0.1027445
-0.002083438
0.0999921
-0.09198907
0.0135935
0.1430982
-0.05674176
0.07721072
0.1195576
-0.02912894
-0.09362816
-0.1171207
-0.0877417
-0.08776855
-0.1866977
-0.1083554
-0.1652566
-0.1776033
-0.01009466
0.015434
0.0008791244
0.01016632
0.001753722
0.001097641
-0.002670753
0.009340429
0.01965356
0.06131773
0.02538483
0.002729713
0.08841161
0.06003051
0.01245102
0.0307978
0.018917
-0.01672349
-0.05745076
-0.08077954
-0.05277029
-0.005818702
-0.05103202
0.01062375
0.0143029
-0.02323936
0.002848891
-0.1042284
-0.0604537
-0.02155035
-0.04356177
-0.04078192
0.04622134
-0.03142776
0.0391456
0.05026901
0.07414353
0.07775583
0.02017561
0.1251098
0.04755132
0.01850623
0.08208342
0.02607541
0.002875032
-0.04621568
-0.01599034
-0.01434833
-0.02940956
0.01892731
-0.01211144
-0.02861572
0.02268653
0.004119392
0.1456324
0.09691665
-0.02781015
0.1239193
0.02034864
-0.1294242
-0.0332142
-0.1445481
-0.2048116
-0.01055581
-0.07756551
-0.08138335
-0.01362317
-0.03436337
-0.06376152
-0.01266868
-0.05541044
-0.07855312
0.07270423
-0.0127754
-0.04314799
0.03734097
-0.01519487
-0.02643589
0.01896015
-0.02218111
-0.01789645
0.03501827
0.03850187
0.04289859
0.03241727
0.04755882
0.00242742
0.01186924
0.002739779
-0.008908669
-0.002652656
-0.03312295
-0.009705051
-0.01142257
0.02845282
-0.02994619
-0.09877263
-0.03615378
-0.04339849
-0.1271374
-0.1081906
-0.06256837
-0.08543702
-0.09799094
0.02439565
-0.02128755
-0.01126857
0.0407068
0.06393316
0.08076902
0.05094119
0.09022537
0.02688261
0.01213872
0.0970521
0.02658486
-0.0280579
-0.02261175
0.02673083
0.05029095
-0.0009901911
0.03889765
0.06564312
-0.003088469
0.02971134
0.04282712
-0.01537241
-0.1786681
-0.253474
-0.1596582
-0.1188138
-0.2378967
-0.1304902
-0.2325189
-0.1949012
0.002383842
0.002375173
-0.0003309621
0.000710259
0.003464591
0.000278902
0.001132017
-0.003891173
-0.001472572
-0.001405633
0.001697907
0.002838905
-0.0009781902
-0.0009458918
0.0002628865
-0.003939274
-0.0008742366
0.001639226
-0.00300252
0.000447056
0.0002883124
-0.002371163
-0.001364819
-0.001187685
0.00341492
-0.00167257
-0.0005536955
0.0003159436
0.00134082
0.000767519
0.001285305
0.001745058
0.001551943
-0.0007323715
0.001101825
-0.002765285
-0.0002672275
-5.552199e-05
0.0002379534
-0.001033252
-0.001736564
0.001342459
-0.0007974284
-0.0001429543
0.002882275
0.002407461
0.0002728863
-4.405948e-06
0.0003965177
-0.001970535
-0.001154397
0.0001109834
-0.001347538
-0.001933658
-0.001149316
0.003009487
0.001131813
0.0001301739
0.002528573
-0.003149517
0.0002901877
0.0009676982
-0.001617354
0.004796294
-0.003105568
-0.0005698699
-0.0005867844
0.0009558487
0.0003272524
-0.002403071
0.001666381
0.0003104086
0.001704816
0.006583605
-0.0004190657
-0.00173084
0.001991834
-0.002734111
-0.001267283
-0.002648099
0.002682768
0.003493795
-0.001395967
-0.0001546187
-0.0008599155
-0.001489279
0.004013075
-0.001173437
-0.0004823445
0.000505088
0.0002915797
0.001565753
0.002025881
-0.0005142229
0.00375272
-4.561165e-06
0.001311752
0.002208653
0.001578675
0.001007279
0.001537965
-0.0006028853
0.001317502
-0.001215473
0.0009166035
-0.00237816
-0.003588886
0.0005483894
0.003504231
-0.001608303
0.001356505
0.001675617
-0.002067911
-0.0006158926
0.0008575666
0.002284183
-0.0007029374
-0.001859633
0.002914714
0.003522246
-0.0003222181
0.001788845
0.002047146
-0.002603356
0.0006450434
0.001231643
-0.001553066
0.0001865748
0.000633251
-0.000839059
0.003418078
0.0002206872
-0.003296598
0.0009323969
-0.002625697
0.0009023098
0.0003722611
-0.001001787
0.000791066
-0.0003722434
-0.0006653412
0.002106593
-0.001343217
-0.0005733274
0.03244642
-0.0218693
-0.04441928
0.08286453
0.0214086
-0.05994547
0.1348495
0.005827121
-0.0692836
0.0491438
-0.04125493
-0.1476729
0.123998
0.06992191
-0.0122073
0.06545277
0.116867
0.01359192
-0.01907482
-0.03017031
0.001751178
0.009960256
0.01741884
0.0462772
-0.01164188
-0.02265968
-0.02325143
-0.09776887
-0.06303453
0.0375089
-0.04178845
0.03918406
0.1316204
-0.01781334
0.03213838
0.0894163
-0.04822467
-0.001433109
0.02319005
-0.04357094
-0.01017326
0.05794971
-0.1448143
-0.06735434
0.02476238
-0.1097391
0.01686214
0.05012086
-0.00668212
0.09091276
0.05947829
-0.009276511
0.0707187
-0.002732387
0.1486888
0.107357
0.003176767
0.06778039
0.01135053
0.05749289
0.01391723
0.06113928
0.05577769
0.05708587
-0.03143271
-0.1235304
0.07616674
-0.05494642
-0.09716522
0.05770941
0.1010802
-0.01195272
-0.07626779
-0.1171996
-0.1157722
0.008865108
-0.04831298
-0.09339835
-0.01468164
-0.04170143
-0.01516374
0.01992544
0.007704004
0.008596624
0.06749715
0.05786717
0.03917017
0.02467894
0.02229794
0.01169806
-0.004731912
0.01185247
-0.0105307
0.08729267
0.01794846
-0.00438773
0.0008281763
0.006790304
-0.009993215
0.03644179
0.0802221
0.03286978
0.0768524
-0.008419738
-0.04567229
0.003309981
-0.06780241
-0.120419
-0.04182825
-0.04099541
0.01254449
-0.05421284
-0.007596171
0.02197687
-0.06474485
-0.02002397
0.05186237
-0.1142899
-0.09231146
-0.04160744
-0.1236543
-0.02177583
-0.02815852
-0.06437945
-0.04723564
-0.01865901
0.03908025
0.04121768
-0.05941562
0.07187034
0.01450941
0.02208735
0.03640211
0.05183723
2.66724e-05
0.1794021
-0.03418533
-0.1604385
0.1113224
0.006633655
-0.09898277
-0.01328915
-0.01108762
-0.04377592
0.008602428
0.03736091
0.0414652
-0.02703353
-0.03000031
0.03438269
-0.05490975
-0.03671335
-0.024074
-0.06644084
-0.0005198246
0.1024219
-0.01338379
0.01530296
0.08405941
-0.02803581
-0.008895849
0.03288894
0.05119957
0.03803439
0.07097914
0.06971366
0.0463285
0.08703078
0.03112607
0.04651195
0.08236525
0.006901482
-0.002758421
-0.001018163
0.04490922
0.01978623
0.05165355
0.07364045
0.01217107
0.04678917
0.02492611
0.01395085
-0.02046426
0.008018033
-0.0003743334
0.04844064
-0.02814832
-0.01304305
0.04733836
-0.01832557
0.01208949
-0.01021248
-0.07345649
0.009757701
0.009259025
-0.08529792
-0.06767253
-0.03249896
0.1064168
0.02677623
-0.08831427
0.1809771
0.1283134
0.01442759
0.09464356
0.1179627
0.06079115
-0.03758356
0.01287481
0.1040073
-0.1124428
-0.04150226
0.1019201
-0.1807031
-0.05732559
0.0750664
-0.01782464
-0.04216253
-0.09168349
0.02794139
-0.02547205
-0.1182995
0.09081119
0.003675925
-0.1181651
0.06743081
0.02539246
0.01711742
0.1064779
0.0515853
0.05582386
0.1763363
0.1498238
0.1314345
0.01307837
0.00955959
0.06520657
0.03812117
0.0533809
0.09268717
-0.03052097
0.0100746
0.06544743
0.02582477
0.03381767
0.006505369
-0.01051811
-0.01114611
0.03372759
-0.005910864
0.02445178
0.03572241
0.001662488
-0.099461
-0.1328787
0.1009747
-0.03789179
-0.09847047
0.1415128
0.01576838
-0.02560831
-0.003801881
-0.02814503
-0.001216006
-0.03757225
-0.0212681
0.004247153
-0.05675715
-0.04868605
0.08104321
-0.07102557
-0.01696221
0.01164718
-0.09495226
-0.06473262
-0.02911957
-0.118121
-0.08710578
-0.05774289
-0.1143512
-0.08863194
0.04955167
-0.07585977
0.01820981
0.03079264
-0.125028
-0.094775
-0.06129083
0.0796845
0.09899701
0.1582018
0.02527153
0.0402203
0.1144981
-0.078855
-0.05978142
0.003798378
-0.08612305
-0.03047723
0.02506962
-0.08203122
-0.006250754
0.01426291
-0.1216158
-0.06461404
0.03310526
-0.09458174
-0.1069026
-0.1308102
0.06049738
0.003198754
-0.0598371
0.09335021
0.04597167
0.05094244
-0.05884155
-0.08048379
-0.1190496
0.04101136
-0.0169358
-0.05184139
0.1148743
0.06019313
0.04041955
-0.03135185
-0.08159836
-0.08874424
0.0772211
0.06390801
0.03883242
0.1245473
0.1410346
0.1225054
-0.08631225
-0.09326822
-0.1235994
-0.01601505
-0.003769417
-0.02170113
-0.0455153
-0.00401475
-0.001919949
0.08348756
0.1409182
0.09236825
-0.0003719981
0.06473048
0.06297473
-0.1148548
-0.0649382
-0.09851674
-0.0848112
-0.06738624
0.02866644
-0.1099832
-0.04379448
-0.05113818
-0.1333234
-0.1228356
-0.08202486
0.0002808435
0.006942728
0.01616918
-0.03528146
-0.004851714
0.0001011425
-0.04889258
-0.05064712
-0.05999805
-0.0436882
-0.02539837
-0.03370054
-0.04863222
-0.06578633
-0.07136755
-0.003778318
-0.03154251
-0.08748117
0.003147502
-0.001357734
0.01384333
-0.02594487
0.00106188
0.0256514
-0.0303084
0.02013358
0.06150347
0.06678516
0.04780132
0.01146591
-0.001724724
0.01476516
-0.005332456
-0.08052428
-0.1044064
-0.1002003
-0.004323828
-0.06602434
-0.04733741
0.0386017
-0.07964963
-0.04213837
0.1105266
0.02508001
0.0235255
-0.0822605
-0.0664086
-0.06011194
0.01539623
0.0293889
0.0398296
0.03077674
-0.01421458
0.01004339
0.005673386
0.01629803
-0.03729083
0.05804044
0.09731661
-0.01295919
0.06812885
0.07147328
-0.01665326
-0.01012495
0.0469556
0.08591155
-0.09795193
-0.00198709
-0.04754207
-0.1136905
-0.04760474
-0.04206212
-0.01365514
0.03443378
0.05491779
-0.05992685
-0.04200135
0.03017503
-0.06597274
-0.02277731
0.0272165
0.02794259
0.01208207
-0.09300093
0.03679962
-0.05137011
-0.01983808
0.03353834
0.01490491
-0.02431048
-0.103281
-0.04440238
-0.08060721
-0.1458307
-0.05805569
-0.1362377
-0.1789431
-0.1573117
-0.1785025
-0.09164182
-0.06627893
-0.08234116
-0.09051186
-0.04960627
-0.1121748
-0.09604993
-0.08369318
-0.1277614
0.1006668
-0.01465875
-0.1203721
0.1159219
0.02214815
-0.1074591
0.1387341
0.07754271
-0.05073339
0.1111122
0.04433414
0.04717983
0.1116483
0.03180533
0.02459236
0.08695247
0.05515023
0.03044187
0.05082555
0.03980473
0.01914448
0.01073156
-0.04397169
-0.004672109
0.06343557
0.04629387
0.06771729
-0.06496642
0.007288266
0.01788327
-0.06721189
-0.006524088
-0.01687437
-0.07067287
-0.08394981
-0.06482983
0.05478806
0.01291878
-0.007374922
0.1082596
0.03878922
0.06509399
0.1386179
0.1378503
0.09925406
0.03761045
0.009449412
-0.01835334
0.0431315
0.0010484
-0.01023345
0.01373728
0.000619409
-0.02356394
0.03391567
0.03092436
0.02713392
0.05605068
0.00641031
0.0172916
0.02810939
0.01199349
0.01140149
-0.03394475
-0.05719978
-0.1169303
0.01847937
-0.03902395
-0.04760257
0.01907326
-0.01178834
-0.008360086
-0.08354429
0.006712498
0.04900645
-0.1149887
-0.03198909
0.006422019
-0.09367707
-0.04637406
0.01333068
-0.01967952
-0.06221342
0.02728525
-0.05020308
-0.03926933
0.01853801
-0.01287077
-0.04973209
-0.005788734
-0.08334845
-0.09126513
-0.1654357
-0.03213125
-0.04411444
-0.188232
-0.004500732
-0.0759076
-0.2039715
-0.0806246
0.01335824
0.03121238
-0.009973024
0.01697587
0.01453122
-0.009334583
0.04942905
0.03217486
0.039682
0.01508873
0.01756752
-0.009852665
-0.02178896
-0.03840498
0.01141455
-0.01985562
-0.01329757
-0.0109215
-0.05460627
-0.06272978
-0.007183461
-0.08158726
-0.09887084
-0.007318496
-0.06911879
-0.0615322
0.005367761
-0.05142796
-0.09057914
0.08224896
0.01272167
-0.09677479
0.03554622
-0.01226432
-0.08768088
0.01003263
-0.04546941
-0.08478338
0.03025209
-0.01564135
-0.05370659
0.01050685
-0.04078627
-0.05876325
-0.1298362
-0.1373593
-0.09055024
-0.1011934
-0.03892424
-0.03064512
-0.08081008
-0.06280778
-0.02749597
-0.02610777
-0.02750528
-0.002051646
0.02974562
-0.007757878
0.02306087
-0.02414849
-0.03087341
0.003208946
0.06275659
0.04523275
0.08735349
-0.03992184
-0.06596985
0.05492276
-0.06731225
-0.05685536
0.01189581
0.027736
-0.05727828
-0.1232282
0.0864749
0.02545144
-0.1204649
0.07884567
0.01116421
-0.1278011
0.05179775
0.07992918
0.09399042
-0.0169204
0.03484263
0.1161855
0.004973609
0.01040259
0.08507021
-0.03855558
-0.06617094
0.009294259
-0.005802171
-0.01160123
0.03586383
0.005952427
-0.009853262
0.01187703
-0.07465538
-0.005855023
0.03716721
-0.03194813
0.02144586
0.04664445
0.01701152
0.02371647
0.006055219
0.03188124
0.08493227
0.05264297
-0.01921622
0.01557643
0.05871297
-0.1158662
-0.04923441
-0.07213625
-0.04280645
-0.07987218
-0.05170291
-0.0375927
-0.06173528
-0.08261954
-0.003492537
-0.04477184
-0.05873637
0.008270248
0.03285702
-0.04606164
0.01975223
0.05489236
-0.01823181
0.01796277
0.05175784
0.001000337
0.1409322
0.1195837
0.07812198
0.151214
0.09721117
0.1497127
0.1221606
0.1499158
0.1709936
0.0429905
-0.02637996
-0.1158347
0.07708367
0.001131183
-0.09546877
0.1067899
0.02350624
-0.06171399
0.02473356
0.01285639
-0.07086329
0.04787057
-0.01814391
-0.03857594
0.05325668
0.02345771
-0.04404702
0.0242493
-0.1430031
-0.2147241
0.06092599
-0.01147994
-0.0413082
0.07037383
0.06562932
0.07063545
0.09598895
0.01806179
-0.03980667
0.06547613
-0.01470088
-0.08325405
0.03582576
-0.04549923
-0.11879
-0.1476543
-0.1164939
-0.0557007
-0.1514778
-0.05688799
-0.02255564
-0.08569577
0.001288122
0.02714962
-0.03130935
-0.06417654
0.007186176
0.0002929874
-6.718693e-05
0.1063492
-0.03606256
0.03087413
0.1683792
-0.1440368
-0.03501343
0.05695127
-0.07916924
0.03698179
0.1040917
0.01232759
0.118132
0.1050409
0.1717997
0.1391184
0.09472718
-0.02096508
-0.06449085
-0.03577923
-0.1297972
-0.1158014
-0.1198914
0.117309
0.04244344
-0.1355838
0.1405837
-0.004039597
-0.1245341
-0.02190234
0.0166795
-0.05702182
-0.01952171
-0.0517763
-0.02766283
0.05382933
-0.0715972
-0.1174255
0.07338426
-0.09555047
-0.1239142
-0.03688473
-0.05038283
-0.02406935
0.0215447
0.05463234
0.04161989
0.09473353
0.1382851
0.09142155
-0.1271993
-0.01966154
-0.02495127
0.05948896
0.06847693
0.02535529
0.1943553
0.1260517
0.04232651
-0.09064777
0.07209115
0.0451856
0.1219219
0.08814435
-0.01098904
0.1087718
0.004423925
-0.06258295
0.03609502
0.01208009
-0.007314256
-0.007889727
-0.01827668
-0.06883407
-0.02532287
-0.05481241
-0.0539969
-0.06279242
-0.009775562
-0.08220214
-0.05640681
-0.0005485968
-0.03313557
-0.1129124
-0.0077304
-0.0006312325
0.05997813
0.02791396
-0.01710698
0.02633877
-0.01964401
0.02145441
0.009412196
-0.01392935
0.04716727
0.4336461
0.2763551
0.02980705
0.2217743
-0.02932591
-0.06976303
-0.01784527
-0.05539374
-0.1544047
-0.03274851
-0.05299119
-0.05809188
0.02218036
-0.01377134
-0.01984871
0.07081093
0.04924168
0.03441261
-0.03349069
0.02955884
0.08124033
-0.04155297
0.01191895
0.1158049
-0.01868876
0.03943862
0.082609
-0.01497685
-0.03584414
-0.05059324
-0.02590017
-0.05293312
-0.06562338
-0.03069876
-0.06384582
-0.06815855
0.007936838
0.01733107
0.003459831
-0.04856222
-0.05008882
-0.07278271
-0.098864
-0.1045406
-0.1129648
0.006858176
0.03512563
0.09319367
-0.04699789
0.01527042
0.05551974
-0.01882414
0.03648215
0.07426444
-0.01031174
0.00806271
0.008970593
-0.03007374
0.03095009
7.901634e-05
-0.03307638
0.006572001
-0.00847232
0.08080602
0.08140665
0.09363648
0.06787174
0.07089749
0.08927901
0.06873745
0.1062954
0.08285943
-0.0106779
-0.03675144
-0.02617243
-0.01407098
0.004290615
-0.005144746
-0.02789772
-0.05669802
-0.02482977
0.03148063
0.01915282
0.02879667
0.06290378
0.0319711
0.04719373
0.06306323
0.05025041
0.01957398
0.01407265
0.05513015
0.05851035
0.03240703
0.06724852
0.0595872
0.0411298
0.04918111
0.03056493
-0.03543001
-0.0289522
-0.03817977
-0.03506507
0.02044209
-0.009355925
-0.04488581
-0.01682183
-0.004027413
-0.04645958
-0.04729743
-0.02047829
0.01324078
-0.0235435
-0.01836644
0.0172028
0.04738281
0.04685793
0.07000986
0.03080866
0.01400074
0.02783522
-0.01027198
-0.005467264
0.01364851
-0.02298876
-0.00719345
0.02220449
-0.01710578
-0.008340379
0.04193484
-0.009372159
-0.012356
0.06086342
0.04512516
-0.0004210325
-0.007989211
0.01779328
-0.007475516
-0.0255752
0.007498619
-0.03992622
-0.03094581
-0.02685156
-0.05694968
-0.003391863
0.002071617
0.00969672
0.03767706
0.04817714
0.05154589
-0.03087131
0.01141011
-0.0002986662
-0.01780793
-0.02845717
-0.02725827
-0.01202906
-0.03081902
-0.03079361
-0.0002735143
-0.01618963
-0.01919926
0.01119798
-0.000674031
0.007089382
-0.01797698
-0.02395006
0.009562097
-0.01710496
-0.0196338
0.01640827
0.03636387
0.01870906
0.01585845
0.04510947
0.01137291
-0.01840522
0.04414047
0.02490828
-0.00500761
-0.03292361
-0.04627856
-0.03691028
-0.04309481
-0.04615243
-0.05126885
-0.04173386
-0.04249445
-0.05392357
0.01929655
0.02220906
-0.01214163
0.02189365
-0.003829326
-0.02947111
0.04334623
0.01675639
-0.01605321
-0.02460828
-0.02159551
-0.02070387
-0.04694011
-0.03128608
-0.04895682
-0.04879274
-0.03949685
-0.04187136
0.01315219
0.03453276
0.07206292
-0.04168959
-0.01787006
0.02190558
-0.07609628
-0.0714784
-0.03530678
-0.001819717
-0.0442152
-0.03804486
-0.002094163
0.001493411
-0.01865537
0.03378768
0.004432766
-0.01017505
0.06321744
0.0443342
0.003558971
0.04531661
0.0308093
0.02850265
0.02227749
0.01694471
0.03002263
0.02070849
0.01410844
0.02103616
0.02267114
0.03148822
0.03234437
0.02179946
0.02749764
0.02570209
-0.01117665
-0.038105
-0.0458397
-0.03797331
-0.04502735
-0.05143654
-0.0406352
-0.04799421
-0.06164658
0.04306985
0.0288226
0.02825861
0.009394467
0.01473642
0.03132736
0.001462719
0.003387222
0.03583284
0.0117021
0.01142214
0.02138065
0.01121654
0.001813244
0.003843997
-0.01029476
-0.02540654
-0.02906064
0.01794098
-0.009212071
0.01854704
0.0004674974
-0.02531798
-0.009984043
-0.0136683
-0.01049329
-0.007036763
0.02549928
-0.00184953
-0.01336888
0.02227826
0.01716013
0.002163464
0.0269426
0.02059781
0.02579577
0.01085989
0.005242558
-0.0105094
0.01510657
-0.009884859
0.02731281
0.01440048
0.03483032
0.04149337
-0.116211
-0.1177495
-0.1514599
-0.08244012
-0.02101071
-0.1523515
-0.01901262
-0.04402502
-0.1001416
-0.02161863
-0.02317078
-0.01550469
0.01232518
-0.003777091
0.01857552
0.07444065
-0.008501299
-0.009634054
-0.1008116
-0.09007071
-0.07860748
-0.1136
-0.0910183
-0.1201998
-0.1163004
-0.1374844
-0.1701946
0.03009978
0.001619476
0.02567675
-0.05511843
-0.08191886
-0.02894144
-0.03894537
-0.06188596
-0.04898928
-0.0174113
0.0248646
0.02128598
-0.05061109
-0.03379361
0.02454603
-0.05081719
0.007306017
0.03664172
0.1073645
0.0445024
0.07238047
0.08751109
0.05624542
0.01425403
0.02135446
0.03105869
-0.01170753
0.1057428
0.1209048
0.1032403
0.06133565
0.04442897
0.05311459
0.0614269
0.04364387
0.08512499
-0.07163806
-0.1471443
-0.1847533
-0.07578626
-0.01314733
-0.163895
-0.08188088
-0.1984886
-0.1931464
0.09078085
0.03608493
0.008458551
0.02994848
0.02495809
-0.02298334
-0.02862798
0.0002830492
-0.01687756
0.0302801
-0.03965917
-0.03046758
-0.009201327
-0.03804973
-0.03059773
-0.02150181
-0.06661057
-0.0733134
0.007880528
0.06866031
0.08601066
0.0001214395
-0.004843201
0.03921342
0.03199932
0.005020389
-0.008021685
-0.1253712
-0.1002598
-0.09953483
0.008408399
0.02137764
-0.09926421
0.1050797
0.1126862
0.04480321
0.01405297
0.03758037
0.09887917
-0.06985508
-0.09448501
0.05215771
-0.08353814
-0.0564699
0.0179912
0.08267592
-0.0002908
0.02093113
0.06942578
-0.02635032
-0.05840586
0.1237587
0.08319243
-0.02141671
0.1094509
0.07793442
0.004688438
0.06533721
0.06225457
0.01341585
0.04495247
0.1065177
0.07795277
-0.07970519
-0.1272867
-0.2174245
-0.004739346
-0.015971
-0.1407627
-0.0138319
-0.09660997
-0.1033508
0.0002889535
-0.005736179
-0.003332975
0.002241281
-0.01020665
0.0003613303
0.03131115
0.001129375
0.007288022
0.04140648
0.01270407
0.00304467
-0.0003285319
-0.007684826
0.01340284
-0.02346655
-0.01938072
0.01890079
-0.009040818
-0.0181634
-0.004041738
0.003535747
-0.0100749
0.003303557
0.01413688
-0.002148233
0.01725974
-0.0182808
-0.01926269
-0.008648242
-0.001801413
0.001046685
0.007571737
-0.0007283246
0.00455173
0.003401217
-0.03289593
-0.03532467
0.01072697
-0.03692877
-0.03221518
0.01833601
-0.07163906
-0.06520347
-0.02185998
-0.03002398
-0.02746467
-0.02187542
-0.01724613
-0.004279266
-0.0269822
-0.03139507
-0.03808596
-0.0518258
0.02015112
0.01012004
0.02064467
0.02381217
0.03195703
0.01445439
0.0303231
0.03087107
0.01073547
0.06202824
0.03256077
0.02363401
0.00309539
-0.006969477
0.009091771
-0.0384368
-0.05641925
-0.03021212
-0.05521473
-0.06702745
-0.05426983
-0.04143875
-0.04114619
-0.04438585
-0.04787103
-0.04913069
-0.02616011
-0.04007905
-0.04961391
-0.04752486
-0.06481645
-0.04714043
-0.05085808
-0.07668945
-0.07097126
-0.06626766
0.002633698
-0.009138891
0.00898761
-0.00910497
-0.01609403
-0.02057313
-0.01825576
-0.04271354
-0.04070933
0.02338639
0.01082714
0.05113849
0.01799117
-0.01119681
-0.009982039
0.004832805
-0.04845477
-0.06200438
0.02875045
-0.01307132
-0.04162294
0.05941733
-0.005028911
-0.02386297
0.07134694
0.01511841
-0.01165551
-0.01306138
-0.004495704
0.02001996
-0.01065925
-0.03188887
-0.02322318
-0.01901669
-0.04904202
-0.04168754
0.02105113
0.0434291
0.08382148
0.02489068
0.04143762
0.1050578
0.0003881614
0.04108291
0.1036552
-0.01702573
-0.009121567
0.0108554
-0.0435893
-0.03457303
0.008445183
-0.004874515
-0.01655742
0.004560605
0.0537612
0.05513709
-0.003829066
-0.01530646
-0.006092852
-0.01056342
-0.05756721
-0.04515914
-0.0326257
0.1425219
0.05363006
-0.02683145
-0.01046433
0.01071912
-0.0139033
-0.09198878
-0.02669589
0.006963721
-0.04938908
-0.09175524
-0.04026997
-0.03552791
-0.109225
-0.07802032
-0.01511989
-0.09780124
-0.05329785
-0.1049111
-0.1508252
-0.02875287
-0.1689508
-0.2053029
-0.05849643
-0.1461551
-0.1869174
-0.02910495
-0.02944805
-0.06385652
0.05033885
0.004480509
-0.03775612
0.09710011
-0.02872322
-0.06355884
0.0605668
0.04397183
-0.01822061
0.01597651
-0.002800492
0.0001967724
0.03934813
0.01999072
-0.0008014461
0.06034407
-0.07308698
-0.06162303
0.01677397
-0.1849679
-0.1189908
-0.0822633
-0.2323574
-0.2409235
-0.1189389
0.1216806
0.01161816
0.009352541
0.07012127
-0.01487529
0.0002498695
0.0110816
-0.01135684
0.04782207
-0.0259595
-0.1086031
-0.1207461
-0.06976161
-0.144487
-0.1450256
0.02888845
-0.06138704
-0.04723344
-0.1352716
-0.1367867
-0.1217648
-0.1481977
-0.1082371
-0.1205989
-0.07676987
-0.06164841
-0.05016647
0.1245113
0.09079911
0.08286739
0.1511587
0.08309708
0.04715497
0.1497099
0.09174097
0.01725748
-0.02573205
0.05822509
0.1424881
-0.05604825
0.03974339
0.01344667
-0.06103785
-0.07400197
-0.1091657
0.1013991
-0.05464967
-0.1363795
0.1567258
-0.09568191
-0.1299261
0.1371501
-0.02808321
-0.08720104
0.06404275
0.05388119
-0.009286991
0.06224562
0.005773399
0.02305674
0.05428736
0.04728642
0.04710947
0.01456871
-0.02903896
0.06230604
-0.03188029
0.02132441
0.02676629
-0.05205052
-0.07727445
-0.0163412
-0.07295156
-0.06173776
-0.02822698
-0.1010791
-0.03746369
-0.04338223
-0.03351223
0.02380366
0.01593812
-0.0621882
-0.005717115
0.04366655
-0.008253971
0.02265961
-0.01443054
0.02694073
-0.06703567
-0.04264534
0.1458845
-0.04998667
-0.1695669
0.113395
-0.03000102
-0.1966648
0.076053
-0.04797434
-0.2089023
-0.002049814
-0.01266281
-0.01128229
0.005626997
-0.01150438
0.03032407
0.03892934
0.01041037
0.06408273
-0.09641992
-0.06608614
-0.02271471
-0.07204282
-0.002356567
0.0665739
-0.01377653
0.02872697
0.1046917
0.06755929
-0.03951544
-0.1086608
0.1129772
-0.03267908
-0.093821
0.1099239
0.03635041
-0.04961814
0.03382281
0.01306151
-0.05366506
0.02846834
0.01279146
-0.03848378
0.05201032
0.01097847
-0.07962081
0.04870959
-0.01718071
-0.2017862
0.08989727
0.08699053
-0.1536545
0.0303044
0.06507667
-0.133241
0.1431832
0.07041471
-0.05298136
0.1598525
0.07045279
-0.04920883
0.0831722
-0.000377754
-0.1513118
-0.1494472
-0.07850997
-0.01681444
-0.07108072
-0.01894061
-0.02057578
-0.04193552
-0.01005924
-0.04331325
-0.00937553
-0.04395097
-0.0791923
0.01214917
-0.04827425
-0.06800537
0.02505923
0.007516024
-0.06334982
-0.0006839272
0.008801735
-0.05547452
0.08550212
0.0265673
-0.04538834
0.04880319
0.03792201
-0.03703757
0.08313321
0.06862164
-0.02818248
0.1198905
0.00475691
-0.109456
0.00824643
-0.06488046
-0.1461036
-0.2355462
0.0009120489
0.13763
-0.2035563
0.01660129
0.2014798
-0.1641913
0.05050471
0.2417791
0.0186319
0.02208568
-0.00136429
-0.05687634
0.04759658
0.003736143
-0.03204517
-0.06481519
-0.01912765
0.01415453
-0.001873728
-0.07961293
0.07688914
-0.01310197
-0.08308442
0.1029992
-0.01702112
-0.09043234
0.173955
0.05573534
-0.07140252
0.1513523
-0.01168858
-0.1178479
0.1833203
0.002329139
-0.09224031
0.05318171
0.07859132
0.02500515
0.06079028
0.06262494
0.1154759
-0.04806678
-0.01797926
0.04430191
-0.1933325
-0.1791693
-0.1196738
-0.1806747
-0.1360486
-0.133834
-0.08249756
-0.1181312
-0.1110328
0.04129618
0.08442672
0.08054388
0.01823288
0.06375761
0.1357403
-0.06092179
-0.04964197
0.03260164
0.02668527
0.0006818608
-0.02610365
0.009487693
-0.05394896
-0.06143241
0.01200985
-0.06614164
-0.1093627
-0.2058554
-0.1515236
-0.01241145
-0.1673311
-0.130847
-0.1020319
0.01877714
-0.05677257
-0.04657065
-0.08590218
-0.09540557
-0.06166662
-0.07468681
-0.02545443
-0.06040492
-0.009580961
-0.04868865
-0.06833874
0.05375308
0.008459496
-0.006796477
0.1239047
0.06719972
0.02397252
0.1548097
0.1851722
0.1265267
-0.1151625
-0.1204583
-0.1070838
-0.1386328
-0.08200806
-0.1309602
-0.1282493
-0.1162428
-0.05033184
0.02252723
0.02222773
0.007802695
-0.02026454
-0.06158713
-0.06223195
-0.007055038
-0.03510305
-0.0761467
-0.04367432
-0.03857594
-0.04063127
-0.01378046
-0.0130998
-0.01853292
-0.003870443
-0.03073887
-0.05489289
-0.02261873
0.01042552
0.02276206
0.03209176
0.051606
0.01966433
0.06105369
0.02342526
0.04478906
0.06298242
0.03699976
-0.006355962
0.1786724
0.1445435
0.169505
0.07931957
0.1724674
0.195877
0.02744495
-0.04239009
-0.02116224
-0.00150954
-0.08774591
-0.03069307
-0.0339653
-0.09387229
-0.06945985
0.03272671
0.02353963
-0.002208611
0.01627985
-0.05981556
0.007834608
0.02787244
0.01191199
-0.01843572
-0.07755782
-0.06654149
-0.04576571
-0.05113255
-0.07734277
-0.09383056
0.05747314
-0.04807967
-0.09314819
-0.1263194
-0.1582995
-0.1424852
-0.1207529
-0.06713167
-0.01521445
-0.05437122
-0.06868752
-0.01264811
-0.01576022
-0.01112502
-0.04240848
-0.003587242
-0.0450685
-0.01813597
-0.03924323
-0.01624888
-0.01462406
-0.01414652
0.06853394
0.1325699
-0.005039466
0.03329046
0.01236248
-0.01143251
-0.04768025
-0.0222674
-0.02969942
-0.144014
-0.1845998
0.1120328
0.04222472
-0.04159548
0.3233458
0.3537779
0.2284701
-0.03852701
-0.03052842
-0.0009896032
-0.07498992
-0.03055524
-0.01119889
-0.03400615
-0.02363766
0.001059812
0.05336319
0.09911141
0.06187315
-0.02787194
0.06728495
0.03093587
-0.1353259
-0.09061723
-0.001901871
-0.08288305
-0.03678994
-0.05747037
-0.09581008
-0.03472099
-0.04033704
-0.09868978
-0.09810459
-0.08953751
0.1318311
0.2024847
0.188061
0.008459707
0.05881459
0.2004594
-0.09332857
0.003370896
0.1358369
-0.01495314
0.0147598
0.06057067
-0.07604524
-0.0668501
-0.01216925
0.008693426
0.08653338
0.06180993
-0.08782549
-0.09979939
-0.04528167
0.009938622
-0.04355991
-0.02327721
-0.004688432
-0.05302077
-0.03595062
-0.03493956
-0.05397113
-0.04154601
-0.007592559
-0.05146753
-0.06351699
-0.06141484
-0.1115159
-0.1105742
0.02008397
0.05828153
0.05841328
0.008961068
0.05592512
0.05105402
-0.06595343
-0.06065167
-0.03516517
-0.05900068
-0.02142621
-0.1194119
-0.002636557
-0.03022792
-0.02783744
-0.02507703
0.07214181
0.006182108
-0.03849759
0.02289661
0.0500889
-0.06753192
-0.01490503
-0.0404312
-0.03565443
-0.0501068
-0.07518167
0.0683235
0.03265496
-0.02731688
0.04840102
0.0728831
0.09337601
0.04470233
0.1509176
0.1433565
0.04728112
0.1135204
0.1053018
-0.006749636
0.02398743
0.09370842
-0.07808994
-0.0373388
-0.00239579
0.01833687
0.02232885
0.03556054
-0.02614039
-0.06505983
-0.001616926
-0.01993482
0.05356881
-0.003046981
0.006231816
-0.0004967842
-0.02465062
0.01271474
0.004516466
0.02092344
0.01259751
0.01471055
0.03861899
-0.08478113
-0.05008582
0.0001855185
-0.04053246
0.02317094
0.06796339
0.04410951
0.1027095
0.03823404
0.03126566
0.01912565
-0.006819894
0.01081209
-0.009996471
-0.01956386
0.01076446
0.01331675
0.02205785
0.0507134
0.0169052
0.01837735
0.03159431
0.008494911
0.01004817
0.02118179
0.0183184
0.02546784
-0.07123607
-0.06188307
-0.0004051042
-0.08336543
0.01149952
0.04397197
-0.06164527
0.03266067
0.10808
-0.04148982
-0.06576523
-0.06471943
-0.07135226
-0.0652926
-0.04482162
-0.1149615
-0.09109541
-0.05299099
0.0160707
0.01662748
0.01351952
0.07413585
0.03400408
0.009354318
-0.0130422
-0.07597636
-0.07913196
0.04195962
-0.02053925
-0.009926059
-0.04794293
-0.08748309
-0.01347866
-0.04412433
-0.02769332
0.03577022
0.1012385
0.04526683
0.02959147
0.1462995
0.05820392
0.0296698
0.1389651
0.02610396
-0.0170715
-0.008405817
0.009961348
0.03379597
0.004256554
0.01465824
0.03974394
0.03518483
0.0381118
0.04344391
-0.02738786
-0.00262206
0.01028328
-0.04402109
0.00571622
0.02660031
-0.01111472
0.03875886
0.05541196
-0.1007476
-0.08872869
-0.04363279
-0.1104254
-0.07236261
-0.06147222
-0.1075373
-0.08783703
-0.02948476
0.0792501
0.03140523
-0.05347039
0.1498777
0.02708485
-0.03552869
0.1272962
0.02397726
-0.03036509
-0.04617889
-0.01224563
-0.004236944
-0.06008535
-0.02368308
-0.007685372
-0.06223794
0.02395198
0.05579676
-0.04005698
-0.08013929
-0.03207624
-0.05225145
-0.06363955
-0.03224671
-0.07775761
-0.08204977
-0.01333471
0.005239056
0.04314705
0.07227883
0.067924
0.05412193
0.06915019
0.06987079
0.06174363
0.03093871
0.02012728
0.05318461
-0.01463452
0.04655511
0.09535306
0.08468021
-0.01493985
0.08213148
0.07772266
0.0241145
0.05394189
0.1290603
0.008534038
0.08584078
0.06495991
-0.05613891
-0.04153059
-0.01126477
-0.06810948
-0.1243521
-0.1616308
0.09603491
0.0392608
0.0503361
0.2912268
0.354072
0.3379897
-0.07812379
-0.02110386
-0.03125616
0.07050793
0.1633479
0.1289185
0.1376694
0.2198911
0.2190636
0.05517621
0.02013778
0.02902349
-0.001712917
0.1209597
0.04723489
0.005607999
0.09562877
0.08448856
0.03711569
0.02826127
0.05509834
0.05827559
0.03391685
0.1037034
0.01009162
0.003346362
-0.003509663
-0.03540902
-0.03335079
-0.03555908
-0.01338293
0.03738359
-0.01262261
-0.04801041
-0.01985036
-0.1044867
-0.1376414
-0.1433308
-0.1648052
0.03226725
-0.02069454
0.05178035
0.2193118
0.3153065
0.1846821
-0.01547805
0.03197971
0.1053358
-0.009547703
0.02260187
0.07542064
-0.04150076
-0.02158568
0.003300421
-0.01411816
0.02289836
0.01678925
0.02423871
0.0403554
0.03392775
0.05504785
0.09156585
0.04159107
0.1082263
0.1248328
0.05691496
0.05522046
0.06949227
0.03952138
-0.1037972
-0.08477624
-0.06320238
0.06763904
0.1374775
0.1366289
0.1107986
0.09376103
0.2349416
-0.04369986
-0.02331758
0.06790505
-0.1261712
-0.03822239
-0.01339983
-0.07172577
0.01386768
-0.04030809
-0.03209906
0.05152579
0.02005277
-0.03812406
-0.05673928
-0.09638955
-0.00988217
-0.02623693
-0.01199973
0.005425273
0.03338925
0.07137822
-0.04235149
0.04407704
0.02609988
-0.04573929
0.004998876
0.07115791
-0.03846015
0.01477664
0.05802382
0.09347347
0.153945
0.120516
0.03589369
0.0329391
0.1326834
-0.08535523
-0.06880434
-0.08132164
-0.01826702
-0.007869396
-0.04459849
-0.0318002
-0.0496629
-0.07060807
-0.0266214
-0.01452681
-0.02409066
-0.002625579
0.009083139
-0.06557889
0.04482665
0.04187158
0.02520171
0.02021791
0.09213416
0.109431
-0.1195156
-0.09592433
-0.05432954
-0.1806153
-0.1355408
-0.04982248
-0.169258
-0.1443453
-0.06245163
-0.0329899
0.01248625
0.0394073
-0.04195384
0.003387434
0.01462758
-0.0905641
-0.06228903
-0.05560642
0.01130315
0.01343849
0.05044314
0.03205784
0.02934674
0.08881692
-0.04547312
-0.01528329
0.0172688
0.02338229
0.03459319
-0.02780516
0.0827323
0.1110704
0.0240752
0.08881529
0.1473365
0.04874117
-0.106651
0.02408004
0.08508372
0.0156201
0.07559419
0.1870098
0.1399513
0.2493735
0.2871394
0.08864755
0.08981698
0.05457513
0.04234628
-0.05437657
0.009789984
-0.0188339
0.01193167
0.03281777
-0.1146654
-0.1563211
-0.127012
-0.07909524
-0.08288169
-0.0488131
-0.09478109
-0.08477122
-0.04571155
0.006891097
0.001779393
-0.01894455
-0.01123327
-0.01543949
-0.0007917798
-0.02304227
-0.01836069
-0.008315621
-0.03452265
-0.02714757
-0.04850178
-0.00706272
0.02330716
0.05393378
0.000639873
0.07183237
0.05966139
-0.06627267
-0.03682499
0.0271341
-0.04217228
-0.01155744
0.02848477
0.04226131
0.09007607
0.01924992
0.07389881
0.003503324
-0.02761105
0.05351126
0.02874229
-0.01242991
0.01113278
-0.04951554
-0.03105923
-0.05866796
-0.05599708
-0.003268809
-0.01257587
-0.04236205
-0.0375717
0.05446577
-0.002521469
-0.03511982
-0.004777523
-0.008995034
0.10845
0.07210919
0.03062168
0.111899
0.04503581
0.03292057
0.07270172
-0.05464225
-0.05484537
-0.01630168
0.01875376
-0.01282169
0.1325662
0.05946865
0.1622973
0.1899957
-0.002141055
-0.02687379
-0.01197913
0.003193604
0.01075625
0.003625767
-0.005720095
0.01590913
0.03450309
0.03518426
0.06313477
0.05881107
-0.01463486
-0.01728118
0.01391546
-0.02302235
-0.01306645
0.03890523
-0.04521703
-0.03486111
-0.02332782
-0.02705141
-0.03999304
-0.01433681
0.01095893
-0.0155337
0.003882383
0.05369471
0.01938523
-0.01088654
0.03305545
-0.01932248
-0.03647337
0.05797972
0.02112499
-0.01009499
-0.004331198
-0.01505004
-0.01616416
-0.02541427
0.004421408
-0.0116417
-0.02135914
0.01496073
0.01557992
0.04116931
0.04560917
0.008608334
0.04636011
0.04234572
0.02585312
0.05864854
0.009216515
-0.00471134
-0.04717663
-0.03027513
-0.06911306
-0.04371441
0.007737984
-0.07024387
-0.1207312
-0.1001963
-0.1464599
-0.01969721
-0.02568621
0.02185309
-0.03784243
-0.07821378
-0.03935951
-0.05627163
-0.07995734
-0.06727821
0.01645529
0.03483295
0.02444328
0.02717957
0.02451193
0.05152076
0.02664773
0.03849807
0.03704247
-0.0613741
-0.07268064
-0.06846208
-0.05360078
-0.0528666
-0.05809497
-0.0555763
-0.03682624
-0.02511315
-0.03329717
-0.0191292
0.004814533
-0.06533644
-0.03844024
-0.01986993
-0.004242501
0.01818609
0.0368561
-0.1039348
-0.1871478
-0.1992514
-0.163205
-0.1077561
-0.2040979
-0.1914756
-0.1784308
-0.1482666
0.01080141
0.0120066
0.03467328
0.007030834
-0.04353635
0.04585293
-0.02920185
0.0005139456
0.009971472
0.006407882
0.04801101
0.04600414
0.008923073
0.06247403
0.06284938
-0.005268265
0.01124852
0.02876369
0.00458569
0.005296778
0.04846104
-0.009931513
-0.01005686
0.02532725
0.04046515
0.003455731
0.02942687
-0.1026052
-0.08794092
-0.05619657
-0.04151116
-0.00503838
0.005316706
0.006903802
0.003064526
0.01906513
