16 16 3
0.0152773
-0.006748825
-0.006692029
0.001567269
0.02203142
0.03912021
-0.009137281
0.02816398
0.03238468
-0.01470972
0.007405119
0.01050833
0.003323911
-0.009616391
-0.01826338
0.0280931
-0.007017656
-0.002887948
-0.01806454
-0.004044049
0.006841829
0.07821281
0.06586891
0.04322109
0.04036076
0.05577897
-0.03361778
0.02059264
-0.05919728
-0.04502419
0.08656668
0.06287131
0.06236435
0.07065536
0.1253472
0.01983679
-0.08527561
-0.06067523
-0.04317939
-0.0292235
-0.005481267
-0.03036194
-0.02607041
-0.008923456
-0.04299524
-0.001076716
-0.0007035821
-0.0009060131
-0.001638183
-0.0004382909
-0.001706901
0.0005057775
0.001403567
0.0007748976
0.06827383
0.07688706
0.01075361
0.03507288
0.01890895
-0.03114205
0.03331248
-0.07690194
0.01429126
-0.0561924
-0.07188056
-0.05300027
-0.05748476
-0.05681229
-0.03284009
-0.05110867
-0.02996362
0.009707436
0.01861205
0.05995147
-0.02210194
-0.02437574
0.01048794
-0.01407663
-0.01264561
-0.01332798
0.04992665
-0.03111448
-0.03478248
-0.03536453
-0.04459172
-0.03322538
-0.02297394
-0.0401563
-0.0238833
-0.003946621
-0.03071704
-0.009151893
-0.01626361
-0.03734491
-0.01287608
-0.02518626
0.02868951
0.003186232
0.02059703
0.04015899
0.06664709
0.08890266
-0.01449698
0.04954007
-0.02242286
0.02106903
0.06262881
0.03542449
-0.008280032
0.01288016
0.02957864
-0.01471035
6.547298e-06
0.01615704
-0.01957648
-0.01000406
-0.01239979
0.04217079
0.07246036
0.008318573
0.06020854
-0.003362932
0.0549807
0.03246032
0.1041946
0.08367149
-0.01026961
-0.009618509
-0.007409302
-0.01185244
-0.004382586
-0.00913745
-0.01217362
-0.008581032
-0.005291303
-0.02976548
-0.02861066
-0.02829428
0.02888382
0.02242474
0.06098588
-0.03014819
-0.03460439
-0.07651249
0.06605588
0.06262789
0.01756649
0.07562213
0.07413774
0.03613906
0.07458536
0.08131517
0.03799897
-0.01191926
-0.007078357
0.02392424
-0.03286555
0.04970717
0.01704827
-0.01840681
0.007819351
-0.04314195
-0.1167424
-0.06290848
-0.01752031
-0.1566906
-0.116927
-0.01953582
-0.1558765
-0.1559732
-0.06633224
-0.02084189
-0.1026458
-0.1069661
-0.0338698
-0.1804258
-0.10693
-0.1423158
-0.1575136
-0.1114089
-0.03876023
-0.01766534
-0.04418718
-0.1182635
-0.01907965
-0.05223852
-0.1058146
-0.0988723
-0.1171335
-0.001126702
-0.0003162045
0.0009397445
0.002295605
-0.0033491
0.00118484
-0.003206952
-0.0009220905
-0.003802093
0.006362686
0.008398427
0.1330195
-0.03802686
0.166202
0.1432569
0.1591993
0.07735277
0.1207798
-0.09791671
-0.04493581
-0.05890267
-0.02989016
0.01189156
-0.02559423
0.06227278
-0.004490894
0.01864349
0.05623952
0.08483602
0.02743705
0.04651696
0.1061041
0.01299486
0.01957533
0.03264419
0.007477108
-0.01910934
0.0091503
0.03621173
-0.01298005
0.02570719
0.02981233
0.03475564
0.02187999
0.06580843
-0.0643762
-0.08042724
-0.0957325
-0.08708462
-0.003801872
-0.05987502
-0.06071595
-0.0504602
-0.03761134
0.03434649
-0.03694341
-0.02492462
-0.05824785
-0.01706994
-0.02776575
-0.05838478
-0.06991332
-0.09738537
-0.01766031
0.004273027
0.01259865
-0.01336362
-0.02249666
-0.007773675
-0.04970041
-0.01043455
0.003233093
-0.04646176
-0.04626951
-0.07878137
0.1109794
-0.0846872
-0.01924865
-0.002615755
-0.07270042
-0.04116981
-0.03239256
-0.004500018
0.01501061
-0.06840379
-0.05085573
-0.0252839
-0.07654064
-0.05542596
-0.05349972
-0.01797319
0.0471873
-0.03262342
0.056541
-0.08362084
-0.03276622
0.04085907
0.09661591
0.05988894
-0.002768718
0.04746012
0.01233604
-0.05379161
-0.04101229
-0.06464297
-0.1025895
-0.1077131
-0.1274066
0.05269803
0.04420894
0.01695838
0.04915433
0.04612016
0.02191764
0.03435361
0.04831412
0.02715894
0.03335671
-0.008511157
-0.05927518
0.02005674
-0.04835565
-0.06014571
0.07757834
0.0200387
-0.004288961
-0.008059129
0.02196391
-0.04447262
-0.1002214
-0.096028
-0.07680623
-0.07087036
-0.0730003
-0.05050093
-0.04809844
-0.09253958
-0.01874472
0.0474625
0.03337567
0.06219374
0.04636051
0.05052607
0.08059933
0.002007541
-0.002097984
-0.001547479
0.0004977101
0.001682983
0.002229241
-0.002356135
-0.001191538
-0.001182379
-0.1097061
-0.08822471
-0.1505669
-0.1308409
-0.07112692
-0.110883
-0.07221696
-0.003388726
0.03034415
0.05257244
0.02404349
0.02748483
0.1208811
0.1279997
0.04676775
0.05536886
0.04352443
0.0104733
-0.03656097
-0.001414979
0.1086875
-0.01983636
-0.02527311
-0.01543893
0.0618859
0.02343731
-0.04127321
-0.03096542
-0.04214656
-0.05644858
-0.03088446
-0.03070456
-0.03076765
-0.001471593
-0.01738793
-0.02805212
-0.006768977
-0.08847053
-0.06016673
-0.02129757
-0.05655539
-0.06453072
0.02475653
-0.02892447
-0.02901951
-0.06420507
-0.08101723
-0.03088516
-0.07390383
-0.08060118
-0.0450252
-0.05921204
-0.0358424
-0.0375417
0.08204624
0.09839318
0.005779814
0.04852374
0.06947608
0.002353053
0.02641669
0.06674491
0.03411934
-0.05483246
0.1737919
0.0244073
0.069468
0.1555131
0.04326158
0.04091282
0.06478822
-0.0197741
0.04419327
-0.004245979
-0.04278646
0.03959285
0.01955392
-0.02791744
0.04383527
0.0429539
0.0217484
0.09585587
0.1581755
0.04896982
0.005978558
0.02665289
0.03848828
0.02794503
-0.008899438
0.0324223
0.0001275917
-0.001458493
-0.0008498458
0.0009744912
0.001302288
-0.001080717
0.0001129019
-8.951592e-05
-0.004350006
0.0001143485
-0.003234623
-0.001297272
-0.0002960432
0.0006685357
-0.0005860458
-0.002699352
0.001829277
-0.0009492525
0.0002491141
0.001926989
0.0006806778
0.0008985139
-0.001778002
0.002376
0.001609808
-0.0008969117
-0.0009730474
0.001005881
-0.001812025
0.001133747
0.001493716
-0.001836538
-0.001996472
0.002319992
-0.00034034
0.003344299
0.001194705
-0.0008355317
0.0006862734
-0.00350432
0.003882542
0.000696667
-0.002317679
0.001473138
0.004572708
0.002881923
-0.0008339367
-0.002127933
-0.001251149
-0.002114024
-0.001309726
-0.003048779
-0.001507871
0.0003536765
0.0002744325
-0.0002083455
-9.708048e-05
-0.001991319
0.001229884
0.001810444
-0.0002730309
0.0001133566
0.0001354959
-0.001947971
0.001664203
0.002041062
0.001953184
-0.001197637
0.0005135353
7.023064e-05
0.00152637
-0.004226801
-0.001893652
-0.001111333
-0.00274537
0.0006139239
0.001875633
-5.339838e-05
-0.002516922
-0.001486585
-0.003889291
-0.001810015
-0.0006615407
0.000798028
0.0005709176
0.001590927
2.313502e-05
-0.002931952
-0.001222237
0.00132242
-0.0005542152
-0.00268006
0.0007608272
0.004709732
-0.0002117389
0.00166563
0.001088835
-0.0009686743
-0.002339483
-0.002560875
0.002400854
0.0008410088
0.002514368
-0.0009346625
-0.0008311482
-0.001550084
0.002286921
0.001825534
-0.001418494
7.133296e-05
0.0004442572
-5.107266e-05
-0.002425441
-0.0004036499
-0.001381255
-0.0003421303
-0.0004779636
-0.0004343811
0.0001030927
-0.00204652
0.003088016
-0.0007676184
-0.002475396
-0.0006608198
0.0009938467
-0.0004613741
0.0005337998
-0.001524598
-0.0005781201
-0.001079013
-0.002222501
-0.0002130455
0.002185018
1.070504e-05
0.002350731
0.002333485
0.002405215
0.001607464
-0.002285363
-0.002892136
0.00102321
-0.001001908
0.0003657394
-0.002987803
0.02723375
0.04390035
0.02824543
0.00213523
0.020379
0.008279056
-0.07035412
-0.005218585
0.01300567
-0.04448361
-0.02496374
-0.06918115
-0.05424154
0.02797204
-0.06409693
-0.039242
0.0466366
-0.08599436
-0.08529934
-0.1638664
-0.08088268
0.01948436
-0.05351759
-0.03981474
0.09248306
0.05166005
0.09421288
0.04071568
0.02026638
0.05097124
-0.03712635
-0.06638524
0.01561807
-0.0454196
0.0474737
-0.01355174
0.1282868
0.2475728
-0.07271224
0.269994
0.4518888
0.09108128
0.06497315
0.1752747
0.04376921
0.001763168
0.0004504256
0.0005905612
-0.000422866
-7.630653e-05
0.0001554944
0.002200049
-0.001491623
-0.0007361233
-0.003537841
-0.0943287
-0.1109837
-0.004155497
0.002776679
-0.02349358
-0.0117412
-0.1389499
0.04511384
-0.05514855
0.166477
-0.005792443
0.08452866
0.2165841
0.04462626
-0.1298259
-0.08850983
-0.08247215
0.006574556
-0.00377468
-0.05860197
0.1061753
0.05681222
-0.02910536
-0.07456886
0.07033196
0.04056382
-0.07296824
-0.1007722
-0.07522707
0.002155521
-0.004645396
-0.01816598
-0.01532835
-0.01993004
-0.006049218
-0.06713507
-0.02023096
-0.04623573
0.006264679
0.03588301
-0.06239284
-0.02993629
-0.06839961
-0.07469934
-0.06524487
-0.07932612
-0.1065344
-0.03034103
0.05816928
-0.06435873
-0.07231682
-0.02298083
-0.09490713
0.0148358
0.09779044
0.05988244
-0.009231547
0.06070446
0.05541733
0.0106526
0.07595729
0.03380791
0.08130819
-0.1131566
0.1272171
0.1998651
-0.1234819
0.2029144
-0.0332333
-0.113498
0.02951411
-0.0116157
0.1686917
-0.03832537
-0.0213488
0.206781
0.003555432
-0.03268667
0.1493589
-0.08065155
0.07948885
0.03760995
0.02576251
-0.05047284
-0.1422456
-0.001834813
0.0349219
0.008448991
0.02093762
0.03087283
0.1364511
0.1243534
0.0483818
0.1456648
0.1034048
0.003982927
0.02158248
-0.008586363
0.003709397
-0.01065061
0.01948868
-0.03679767
0.01110436
0.01960893
0.006150225
0.007126163
0.0259374
-0.0061767
0.09417006
-0.07183916
-0.008306809
0.0601818
0.03394377
-0.06897142
0.04261715
0.06172526
0.07623558
0.2757525
0.1439181
0.144591
0.2482949
0.1598917
0.04260766
0.08863997
0.07461548
0.1180615
0.1445917
0.1167908
0.08577732
0.1476693
0.06865705
0.03158174
0.0907402
-0.001254572
0.0005229884
0.001362647
0.00348552
0.002520952
-0.0005725992
0.001977658
0.002226148
-0.0003826842
0.001142632
-0.1650622
-0.1743593
-0.08027561
-0.1133026
-0.1133728
-0.08545284
0.06600836
0.03016258
-0.02613486
-0.02980026
-0.02203386
0.02143998
-0.04426713
-0.02917262
0.00734514
-0.04630798
0.01268016
-0.0101575
-0.03963871
-0.08251616
0.01562145
-0.02700849
-0.1093804
-0.01287264
-0.0703115
-0.07555912
-0.1437884
-0.07807782
-0.02706099
-0.016157
-0.03868168
-0.006636443
-0.003471129
-0.01401495
-0.04024007
0.008404905
-0.02314716
-0.0457178
-0.06594662
-0.02897367
-0.005533259
-0.01684037
0.008017151
-0.02800333
-0.03898834
-0.1782411
-0.07532099
-0.1328871
-0.1346043
-0.1465779
-0.1076132
-0.06595007
-0.06141232
-0.09277071
0.0340207
0.002643489
0.007430612
0.08992893
0.0155103
-0.01426341
0.03143305
0.008778646
0.001086077
-0.05506894
0.04467627
-0.04178259
0.02460407
0.1464064
0.01422912
-0.03524759
0.1075683
-0.03309584
0.01770561
0.04394095
0.04396404
0.02984065
0.0333057
0.05098606
-0.0008839781
0.02292641
0.03726279
-0.06774012
0.02249358
-0.107146
0.005394415
0.07742725
-0.02999184
-0.1248613
0.05117903
0.04457762
-0.07287419
-0.1027902
-0.1012955
0.01706607
-0.01409469
-0.03607031
0.03717724
0.02526557
0.0008658022
0.002082314
0.04422308
0.04343487
0.02190191
0.03721077
0.009739364
0.04894955
0.0478136
0.01072502
0.1404617
0.1528343
0.08424915
0.1579192
0.1330454
0.07228155
0.07656098
0.07337102
0.04516443
0.1136667
0.06942219
0.07723536
0.1721931
0.1771904
0.139282
0.1100229
0.1028881
0.09880016
0.05686443
0.05390107
0.04282577
0.09764114
0.05140361
0.06911798
0.04988194
0.03288088
0.03400209
0.002067737
0.001542488
-0.002386125
-0.0003937691
0.000559944
0.001202913
-0.0004729725
0.000745804
0.0008597376
0.07937757
0.1180587
0.1440853
0.1915675
0.1281738
0.06821245
0.1014043
0.06808936
-0.03634086
-0.04817588
-0.03793434
-0.05365044
-0.1200949
-0.1079553
-0.06470674
0.02415868
0.034838
0.01481107
0.02530671
0.01396513
-0.003273957
-0.02873818
0.01335002
0.03395138
-0.06937261
0.02166079
0.05974423
0.09674187
0.102543
0.08277488
0.1201603
0.09438735
0.04940317
0.02356697
0.01881587
-0.01086065
0.1002919
0.1700166
0.080494
0.07564633
0.1217575
0.08937522
0.06562983
0.1151055
0.07659419
-0.04974905
-0.04546377
-0.1074651
0.008772793
0.02316678
0.05456141
0.01282009
0.03799913
0.04606299
-0.05413335
-0.03660329
-0.02776931
-0.02167981
0.001484947
-0.002618283
0.04264566
0.02078134
0.01308843
-0.01316099
-0.03372584
-0.05519221
-0.1185642
-0.1645389
-0.0744211
-0.02724668
-0.08896167
-0.0808903
0.04416522
0.01136839
0.02302977
0.02794934
0.005149966
0.005388864
0.01173896
-0.01646909
-0.02143749
-0.1245101
-0.09870098
-0.01696319
0.05034102
0.06411132
0.01403067
-0.05130387
-0.02807788
0.00412488
0.096636
0.06655661
0.04461806
0.06799134
0.03209512
-0.01413565
0.05915189
-0.002672092
-0.05368803
-0.01655287
-0.008447261
0.007321904
-0.02413701
-0.001343272
-0.001553802
-0.05052664
0.004355754
-0.002639799
-0.02419793
-0.08990908
-0.06970632
0.00748801
-0.07324647
-0.0321805
-0.04880039
-0.0709509
-0.003826539
-0.1073003
-0.09035843
0.02323607
-0.1205166
-0.08033887
0.01866041
-0.04792967
-0.031674
0.06234833
0.009974412
0.004771182
0.01825807
0.1020865
0.1045619
0.08866596
-0.07467835
-0.05683476
-0.07941497
-0.0009467573
-0.0001833887
0.0008215278
-0.001604822
0.0003374137
-0.002072836
0.000319247
-0.002119928
-0.001830312
-0.1289944
-0.1388626
-0.06986213
-0.2016467
-0.1801236
0.03297338
-0.1594387
-0.04960868
0.07051434
0.0167911
0.0365432
-0.04027928
0.02664478
0.07280165
0.01098657
0.01903635
0.02671112
0.0136212
0.01176885
0.002841736
-0.04299096
0.01745209
-0.0007358304
-0.0431678
-0.005116105
-0.03072688
-0.02900129
-0.03045769
-0.06850993
-0.07169261
0.001125148
-0.03561597
-0.03453112
0.009925863
-0.02039467
-0.05960083
-0.04668119
-0.0576972
-0.09067337
-0.03679374
-0.04975392
-0.06276114
-0.04991963
-0.01630575
-0.06063779
-0.04587775
-0.0390746
-0.02129231
0.07889609
0.04278882
0.01667204
0.04834741
0.05909529
0.05798791
0.02265179
0.01849348
0.0105712
-0.01539046
-0.02214119
-0.01083277
0.002723995
-0.01550637
-0.007170944
0.1431016
0.06492417
0.09581228
0.1341343
0.05527885
0.01139299
0.05212443
-0.03783705
-0.04442193
0.01140473
0.00441932
0.005372958
0.01545932
0.004436633
0.00649931
-0.003939933
-0.002606639
0.008970735
0.0490729
0.07190092
0.1306442
-0.006841164
0.02486951
0.0865934
0.006263167
-0.004518325
0.05275929
-0.007267201
-0.01617156
-0.006680264
-0.02766271
-0.024335
-0.02320871
-0.03561473
-0.04143166
-0.04381081
-0.02092007
-0.01981454
-0.01664421
-0.01143741
0.004821252
-0.01922027
0.001240734
-0.0153342
-0.03320564
0.08608848
0.05481905
-0.02370951
0.11718
0.09488369
0.02570715
0.08742461
0.08629286
0.05002801
0.1247916
0.1050675
0.07808655
0.09851298
0.09639519
0.0505982
0.0007333928
0.03043593
-0.01127804
0.01644796
0.01474119
0.03434646
0.03952175
0.02635172
0.03721963
0.06198765
0.06150068
0.08722241
-0.0001544841
0.002240703
-0.0008571685
0.0005758908
-0.0004097627
0.001695474
-1.487602e-05
-0.001800272
-0.0001610868
0.1216119
0.09606726
-0.004015999
0.1233078
0.07337452
0.04468842
0.08583818
0.002140224
-0.007450855
0.01408035
-0.01102886
-0.0242901
0.02687783
0.0342768
0.07418621
0.07451613
0.111408
0.1484492
0.02095432
0.03892321
0.02726286
-0.03735358
0.02481899
0.04693925
-0.05011911
0.01575763
0.0442213
0.07024627
0.07993734
0.05410044
0.07769389
0.09040064
0.08605295
0.0698089
0.1082987
0.1104746
0.02983432
0.04689717
-0.008043209
0.005324447
0.03107143
-0.01185676
-0.004293187
0.02108802
-0.01255619
-0.06926851
-0.05386214
-0.07993697
-0.06388293
-0.05459227
-0.08307195
-0.03124083
-0.04376042
-0.1015794
-0.01895199
-0.02025418
0.00884892
0.01009839
-0.008274482
0.006036488
0.01612752
-0.009921516
0.001942556
0.03110548
0.0002110029
-0.03610009
0.01569237
0.01389471
0.03452052
0.03976982
0.003306522
-0.00248704
-0.008910631
-0.00262496
0.02293978
-0.003096325
0.005136443
0.01093214
-0.008776909
0.007167782
0.02619607
-0.01874654
-0.003386406
0.0166149
0.0767221
0.0774759
0.06892762
-0.01231103
0.02365525
0.02046865
-0.0901048
-0.06018981
-0.05344189
-0.1182631
-0.05167314
-0.05338728
-0.1200394
-0.08113663
-0.08300883
0.03582615
0.01836281
0.05346881
0.05044074
-0.001974981
0.02029785
0.03419824
0.03038885
0.07458527
0.04979615
-0.01841246
-0.03636764
-0.05049168
-0.07524507
-0.07082777
0.03572726
-0.01830481
0.02834773
0.04876964
0.001175182
-0.03456157
-0.1404655
-0.1013986
-0.1419102
-0.04562925
-0.09343101
-0.09053036
0.06200475
0.008557303
-0.04390706
0.04469635
-0.04848437
-0.004110061
0.0003255427
-0.05329717
-0.005816796
-0.003410953
0.002815418
-0.001853532
0.0005399766
-0.0005315609
0.0001505855
0.0002487675
-0.001157825
0.002462401
0.07711991
0.03384113
0.07474815
-0.006831525
-0.1612384
-0.04647373
-0.1209565
-0.1012425
-0.07691765
0.1121533
0.06726189
0.121078
0.02399467
-0.02994349
0.001781953
-0.03415297
-0.06278647
-0.04451934
0.03932798
-0.01073487
-0.01010615
-0.04717411
-0.03132092
0.01438687
0.08758461
-0.005557883
-0.001578814
-0.08199161
-0.08809955
-0.06159181
-0.1230073
-0.1549718
-0.1253634
-0.1236099
-0.1389514
-0.1195757
-0.02092177
-0.04805134
-0.04914763
-0.1138998
-0.2088276
-0.141289
-0.06873443
-0.093849
-0.08919503
-0.05872397
0.05327485
-0.001358144
-0.0516713
-0.05627493
-0.05880005
-0.005573212
0.0003936172
0.01414861
0.03019529
-0.006850319
-0.02729536
0.02906551
0.01946172
-0.02474249
0.03038958
-0.01103549
-0.046812
-0.1710241
-0.1256755
-0.1172715
-0.04863217
0.07582981
-0.005654373
0.09564588
0.196498
0.04236829
0.0768475
0.03654705
0.03317831
0.06659488
-0.007712054
-0.009831144
0.07790212
-0.02740644
-0.02848177
-0.04510396
-0.1163296
-0.04024056
-0.04932085
0.02329417
0.003176822
-0.02109683
-0.03066169
0.01511794
0.04213934
0.04765988
0.0210351
0.02997411
0.03916874
0.0156765
-0.002269824
-0.002799594
-0.008643176
0.03461422
0.02721575
0.03494599
0.0118854
-0.006947343
0.03113342
0.004137511
-0.01075293
0.01618652
-0.04340038
-0.01975035
-0.04176792
-0.03284648
-0.02169898
-0.05336159
0.02185413
0.0220464
-0.005769543
0.06867608
0.1138937
0.1126626
0.07517236
0.1675309
0.01197516
-0.02175059
-0.01040488
-0.07451313
-0.05237288
-0.006464932
-0.01927043
-0.0656734
-0.05221916
0.03930264
0.08793436
0.1077367
0.1236402
0.001036897
-0.002636316
0.0001717915
-0.002171356
0.003356553
-0.003341143
0.001775045
0.0004683361
0.001009269
0.01240773
0.02111719
0.1141176
-0.008853202
-0.02316722
0.0372178
-0.007848912
0.01697284
-0.1105196
-0.004331123
-0.01340956
0.01972497
0.04005035
-0.01446297
0.07258356
0.09655472
0.07571053
0.03290624
0.03436303
0.02675992
0.08145618
0.01311603
0.009030609
0.1567423
0.07618799
-0.002377771
0.06516705
-0.03966478
-0.007325185
0.02214758
0.03065907
0.0251615
0.004454144
0.03933783
0.04572658
0.0006602393
0.04662238
0.00404317
-0.004875435
0.01542789
-0.02293459
0.02141275
0.01822954
-0.001900407
-0.005414971
-0.05499319
-0.01474669
-0.1170954
-0.1637647
-0.2096935
-0.1330653
-0.05117888
-0.05317386
-0.01475449
-0.0174745
-0.0341902
-0.03524993
-0.007214954
-0.02151493
-0.01797215
-0.0191071
-0.02463445
0.0146788
-0.006455423
-0.01288716
0.008988804
-0.08442364
0.09763906
0.01319007
-0.006416608
0.03560029
-0.08053708
-0.05605737
-0.03720317
-0.03393509
-0.04574291
-0.04160488
0.003810647
-0.01967726
0.0004126366
0.05565422
-0.06363501
-0.102352
0.01494075
0.09556481
0.1076682
-0.06166473
-0.02895894
-0.03671151
-0.04578766
-0.129885
-0.06488255
0.05648607
-0.1615961
-0.04342434
0.09948082
-0.1035143
-0.0214358
0.07945443
-0.03636762
-0.06282791
-0.09171966
-0.03768681
-0.0682805
-0.008892146
-0.08599586
-0.04743226
0.03741005
-0.01102628
-0.02338285
-0.02070916
0.03322924
0.002621901
-0.005329464
-0.02854493
-0.04444382
-0.03904355
-0.1315029
-0.092492
0.03389352
-0.1523166
-0.05339078
0.09434375
-0.0007616215
-0.1182211
0.03594719
0.003052581
-0.05222988
-0.07200234
0.1493117
0.01193188
-0.1077241
0.1467947
0.1883719
-0.02643446
-0.0002956592
-0.003037801
0.001808491
-0.0009850791
0.0009450751
0.001673969
0.0008621578
0.002340898
-0.001179507
-0.04517237
-0.01164724
-0.005493094
0.09900771
-0.06852923
-0.01469064
-0.05662675
0.08618474
0.0608527
0.01610705
-0.03738238
-0.187558
0.03022539
-0.006175098
-0.1529619
-0.01830158
0.05354468
-0.1041274
-0.1360998
-0.1320512
-0.107845
-0.1749995
-0.2596643
-0.2667032
-0.07075415
-0.1155346
-0.2969307
-0.06038957
-0.02015448
-0.01895238
0.0157873
-0.02866379
-0.02582431
0.0002499743
0.02487868
-0.03226618
-0.05835238
0.0978139
-0.01459585
0.003325546
0.00841675
-0.004338162
-0.03558417
0.0560158
-0.01695561
-0.03175581
0.04455626
0.2026232
-0.006792965
-0.1954648
-0.07851317
0.02763409
-0.02607361
-0.04635453
0.09076723
0.03005698
-0.02839551
0.03667397
0.06769643
0.01175858
0.04468233
0.02212726
0.01096166
0.01132766
-0.03176735
0.06984332
-0.07401674
-0.02904215
0.117232
-0.02413489
-0.1343836
0.1517653
0.02324313
-0.02067983
-0.03860298
0.05038907
0.01996847
-0.04745651
0.0384156
0.06317391
0.01502257
0.03077706
-0.06952021
0.01189048
-0.1229054
0.1321683
0.06402131
-0.0106873
-0.141193
0.03489629
-0.003623191
0.02317969
0.04836589
-0.001487849
0.00641887
0.03113818
-0.01897966
-0.009173292
0.006180267
0.02450819
-0.003402395
-0.01819643
0.002467611
0.01249532
-9.871439e-05
0.02738078
0.007252557
0.008891418
0.02856084
0.06596747
-0.03557329
0.005240908
0.03824562
0.002502623
-0.02052344
0.006465778
0.01344733
-0.01827901
0.03932846
0.03025581
-0.01504585
-0.01469592
0.01247099
-0.04107398
-0.002570339
0.02604889
0.0238594
-0.005548996
-0.0144861
0.006738104
-0.01829018
0.001986817
0.01353478
-0.009746288
0.005947683
-0.003142278
0.00181079
-0.0008607272
-0.0011223
0.0005444965
0.004027986
0.0005722094
-0.001245688
0.0004358906
-0.03638513
-0.02232667
-0.00221145
-0.07737269
-0.05277025
-0.04292854
0.02033023
-0.07762562
-0.03545099
0.02994923
-0.001871994
0.01577117
0.00119209
-0.02507129
-0.009450852
-0.02341225
-0.06188786
-0.0547476
0.02472706
-0.01708565
-0.03643334
-0.005520352
-0.01443205
-0.02329951
-0.03293343
-0.02283362
-0.006177376
-0.02464223
-0.01869211
-0.02572999
-0.03708762
-0.02265694
-0.02119729
-0.02668695
-0.02585717
-0.008958885
0.02051647
-0.0002766463
-0.03557459
0.009161072
0.03294009
-0.01773579
-0.01066064
-0.01082264
-0.009466253
-0.01132555
-0.03057414
-0.02190329
-0.03985372
-0.02419755
-0.003693357
-0.01620691
0.005240714
0.02919086
0.01051269
0.01251845
0.006941606
0.0270182
0.004945458
-0.006138456
0.01738783
0.02648891
0.000844095
-0.04756829
0.06133274
0.05971225
-0.0008896682
0.05496247
0.07227665
-0.01618201
-0.008849818
0.04272651
0.02478962
-0.02159204
-0.001454218
0.02783024
-0.005977219
-0.0004734028
0.01569747
-0.004018105
-0.001977568
0.003105316
0.0656409
0.04327846
0.001177649
-0.006089178
0.01624454
-0.002132499
0.01235378
0.01872228
0.01157171
0.0396826
0.05726549
0.02601788
0.05326588
0.08232573
0.04811649
0.05530849
0.06812142
-0.01447419
-0.01378382
0.002111134
0.002807313
-0.005140338
0.0003273872
0.01709533
0.0108488
0.002406323
0.01653346
0.00804443
-0.003634038
-0.002460865
-0.00434265
-0.007912305
-0.04005773
-0.0247626
-0.003430884
-0.06848659
-0.02593645
-0.05681298
-0.05151042
-0.00299725
-0.04118574
-0.02527963
-0.05741763
-0.03970904
0.005820805
-0.002971503
-0.0224227
0.01464031
-0.006637616
0.01850734
-0.01110628
-0.01429858
-0.01985367
0.002595585
-0.002038801
-0.0006247282
-0.0005883839
0.0007714679
1.104859e-05
-0.00127698
0.001415554
-0.0008892407
-0.02155073
0.01228598
0.04469093
-0.001179713
-3.458951e-05
0.04020984
-0.05175382
0.007523949
0.0006232744
-0.06602287
-0.08448025
-0.05099774
-0.06653897
-0.05300763
-0.03537277
-0.04284002
-0.004606541
-0.01723021
-0.05614628
-0.01293693
0.0137973
-0.05984581
-0.01141702
0.03286541
-0.05477776
0.002017046
0.01044947
-0.03449405
0.008147115
-0.002735984
-0.01646343
0.001763992
-0.002073713
-0.021678
-0.001169507
-0.008214299
0.01958372
0.01832757
-0.01114927
0.0403093
0.01224687
0.002842934
0.02164464
0.03667105
0.01656914
0.02582954
0.04931315
0.01809646
0.04184387
-0.003436305
0.0009066709
0.02834277
0.0330415
0.03530839
0.021307
0.005727051
0.007692656
0.01490513
0.007122215
0.003942399
0.01270238
-0.002397319
-0.00294099
-0.01018269
-0.004903945
-0.02515067
-0.01387908
0.05075821
0.006469147
0.02173113
-0.01882339
0.01071984
0.0004618137
0.01015304
0.00427066
0.003600317
-0.0005941483
-0.001332799
0.008341112
-0.01055973
-0.01000832
-0.00413518
-0.006951494
-0.01390381
-0.004966525
0.06713788
0.0002829306
-0.0128014
-0.0357528
-0.007076831
0.09621318
0.06546139
0.02457746
0.09320962
0.06597743
-0.01971192
0.04710557
0.02022451
-0.04262316
-0.02347739
0.02109937
-0.01662554
-0.009303327
0.01858876
-0.03426573
-0.01024325
0.001979836
-0.03598329
0.02875564
0.01669742
-0.03167174
-0.02124525
-0.02962851
-0.0333366
-0.00238504
0.00852508
0.05626076
0.0773476
0.01740751
-0.02232652
-0.04549253
-0.1089074
-0.1327549
0.07591172
0.01653488
-0.01951763
-0.03270502
0.08438187
0.1820752
0.09978059
0.1342685
0.212969
-0.1245181
-0.08832088
-0.03401151
0.003130068
0.0003776353
0.001532904
0.002074947
0.001066972
0.00171856
0.0002607871
0.001476624
0.000764615
-0.06934384
-0.07628352
-0.08891261
-0.01733002
-0.04924558
-0.06901804
0.02930469
0.09684124
0.01792487
-0.02629458
0.04570479
0.06079437
-0.05016572
0.03691566
0.04491234
-0.1049392
-0.009979727
0.05872305
0.1012628
0.1881192
0.1268229
0.02465978
0.1354422
0.07366555
0.02432527
0.1510392
0.05505739
0.01522664
0.04165072
0.04756026
-0.01119412
-0.007258368
-0.01228441
-0.04493154
-0.03226344
-0.05250762
0.01897451
0.0191426
-0.02892043
-0.0369239
-0.03727194
-0.04419598
-0.06633244
-0.07302174
-0.1053913
-0.06967723
-0.00856878
-0.02082379
0.06074016
0.1315665
0.1523498
0.06271493
0.0789893
-0.01659075
-0.02400648
0.03068376
0.02255342
-0.02713761
0.03736463
0.01821887
0.02274813
0.07553431
0.05505969
-0.02308252
-0.06835753
-0.1660612
0.0602598
0.1181169
-0.01367823
0.07735166
0.1354162
-0.02532712
0.02595147
0.05025893
0.02225523
0.03528183
0.04492825
0.0005259526
-0.009580526
0.002533808
-0.03303295
-0.07692172
-0.07119866
-0.0558207
0.01635211
0.02801946
-0.006629554
-0.0438336
0.02346018
0.08997308
0.0545181
0.01186221
-0.04246028
0.063044
0.007358981
-0.02703943
0.04583056
-0.013441
-0.03632209
-0.001980911
0.04319556
0.05174284
0.02300699
0.03722122
0.03459904
0.03337052
0.03065674
0.02890224
-0.01152722
-0.02509218
-0.0343229
0.007411309
0.01063076
-0.003215954
-0.003159851
-0.003896725
-0.01459055
0.04225717
0.04541589
0.02850187
-0.04319886
-0.0117076
0.04698534
-0.04527838
-0.05222472
0.006229045
-0.02620727
-0.02437963
0.007937241
-0.04983961
-0.07426643
-0.05579163
-0.0216113
-0.03322562
-0.04123321
0.0008190307
-0.00223995
-0.003384548
-0.0002613993
0.001305943
0.002464653
0.0002403896
0.0004973546
0.001833109
-0.007369522
0.06839254
0.1541682
-0.03164676
0.01268725
0.06628127
-0.1368822
-0.1205076
-0.005403336
-0.005567897
-0.05268798
-0.03744654
0.01556619
-0.03404937
-0.07388868
0.01801637
0.04540476
-0.00141265
0.1300176
0.06447992
0.106954
0.1277323
0.06357883
0.0940735
0.08043522
0.05581668
0.05644093
-0.05820594
-0.05517999
-0.008390165
-0.07013526
-0.07200436
-0.03533953
-0.07860254
-0.07422851
-0.01120969
0.01152299
-0.03108041
-0.009322751
0.03590948
-0.01338989
-0.0235053
0.0329061
0.03943746
0.0370093
-0.02557659
-0.005985422
0.007727459
0.007405082
-0.006153291
-0.003314386
-0.01570086
-0.001687888
0.03805393
-0.01751116
-0.009349335
-0.01896272
-0.05037199
-0.0263923
-0.02228657
-0.008738706
-0.009684999
-0.02762629
-0.05396878
0.01853745
-0.0525251
0.0202896
0.06400061
0.00641356
0.08447044
0.1030367
0.05325789
-0.004180769
-0.001908092
-0.02968358
0.001507928
-0.01854601
-0.04356959
0.008495757
-0.01944595
-0.04468191
-0.01402058
-0.03097193
-0.0617267
-0.006350314
0.0603183
0.06632064
0.01642179
-0.004629004
0.00570584
