16 16 3
0.03931525
-0.01238071
-0.03073343
-0.04120148
-0.05283364
-0.06900148
0.008327672
0.02034722
0.01139885
0.1284833
-0.007118143
-0.05984155
0.09889895
-0.007298952
0.008019703
0.03074222
-0.03915669
0.01426911
-0.05904093
0.01523667
-0.01237287
-0.02070791
0.02344526
0.01258105
0.03348846
0.05694198
0.06707337
-0.06615938
0.003068306
-0.02186115
0.001491676
0.05198125
0.01588752
0.008216658
0.04770847
0.005663303
0.005710226
0.005923615
-0.05521861
0.08467244
0.06499862
0.01275558
-0.01606176
-0.008807254
-0.0762378
-0.03184745
-0.0956566
-0.1066804
-0.03118667
-0.07155448
-0.06446292
-0.06387439
-0.08734725
-0.09854168
-0.04158106
0.06187319
0.1278048
0.01545642
0.08551941
0.1112392
0.03715128
0.07739021
0.05439399
0.0593428
-0.01365335
-0.05901323
-0.04866802
-0.09832225
-0.1178568
-0.1027902
-0.1105139
-0.1056163
-0.05467052
-0.001099079
-0.03994464
-0.05506153
0.003064394
-0.03019607
-0.05635528
0.0002325329
-0.03180559
0.04543553
0.08562125
0.0670343
0.04214252
0.07972308
0.06597571
0.03144028
0.05960595
0.02227356
0.01718874
-0.00965464
-0.01797545
0.02656074
-0.01538417
-0.02557887
-0.01405894
-0.03956665
-0.05541549
-0.1238331
-0.1112597
-0.07732847
-0.1374384
-0.09310834
-0.06593727
-0.1826158
-0.1364584
-0.06261259
-0.04820143
0.08538181
0.07028873
0.02615919
0.1465685
0.1044608
0.06124803
0.1442547
0.06913348
-0.09980033
-0.05093446
-0.09289794
-0.09146338
-0.07418169
-0.1045199
-0.08478804
-0.07302138
-0.08019157
0.06141198
0.06192933
0.0469829
0.1179564
0.1126861
0.08771778
0.1069477
0.104581
0.0900654
-0.03519491
-0.04375093
-0.05391438
-0.06992636
-0.05985193
-0.03590397
-0.01495157
-0.009360391
0.01627061
-0.1063163
0.07811602
0.02028772
0.02798915
-0.04728568
0.03872881
-0.06763853
0.04788093
-0.02497339
0.01390228
0.1194858
-0.1498945
-0.05368369
0.05316981
-0.00900747
-0.1315744
0.1270843
-0.05270618
0.02941684
0.01487642
0.01847527
0.04586268
-0.0005015623
-0.004151523
-0.07196283
0.02116484
0.013109
-0.01000056
-0.01434559
0.03700063
0.01824856
0.009703252
0.03316765
-0.03578195
-0.00415863
-0.006768486
0.2825972
-0.2262147
0.2123358
-0.1320091
-0.327419
0.02119833
0.2706652
-0.1845247
0.2789462
0.01873739
-0.02111589
0.09120563
-0.1181347
-0.003287677
-0.04785996
0.07951138
0.00810718
0.1497583
0.04661334
0.06588867
0.08336322
-0.1229103
0.03901526
-0.005157268
-0.02952497
0.009943516
-0.06770406
-0.02462489
0.08550217
-0.02057522
0.09954962
-0.05660761
0.01902721
-0.1058778
0.06637102
-0.05829032
-0.1504358
0.1169459
-0.124436
0.08439568
0.1009462
-0.06793038
-0.001247943
0.01449276
-0.0596336
0.008047987
-0.01302231
0.003053373
-0.02974413
-0.0296931
-0.01287139
0.06247555
-0.02324833
0.01914503
0.1509952
0.1370602
0.04226958
-0.2148616
-0.1741936
-0.02615376
0.09033571
-0.08701495
0.05687938
0.2858589
-0.07026132
0.0837217
-0.25923
-0.001429114
-0.1702169
0.1629458
-0.1267067
0.2194183
-0.08720423
0.03618955
0.02663605
0.0971635
0.07186633
0.1087773
-0.08946504
-0.022968
-0.08105689
0.2121931
-0.08886949
0.02520988
-0.1457984
-0.2263453
-0.06392249
0.1619553
0.0122018
0.06312579
-0.04050647
-0.03247934
0.02324389
-0.07142353
0.005964724
0.01929145
-0.006685189
-0.01821971
0.08659574
0.06857906
0.08771487
-0.001008479
-0.001217825
-0.007235455
-0.01045548
-0.02297684
0.003447111
-0.02113489
0.005895518
-0.0188358
-0.03091023
0.01765668
0.0009585003
-0.01832271
0.0002103532
-0.01725228
-0.04077125
0.02461178
-0.0347172
0.03754442
0.03858265
-0.08175893
-0.06068496
0.02708452
-0.02825262
-0.0008786627
0.1207272
-0.09367061
-0.2852991
0.2029621
0.04598509
-0.2818002
0.2015405
0.1826153
-0.1949566
0.005597714
0.004349417
-0.01935066
-0.01738007
0.04421968
0.0007019039
-0.02575428
0.06997702
0.02466578
-0.06304874
-0.1300979
-0.04024351
0.001050473
-0.09223041
0.02640775
0.004914348
-0.09510019
-0.000388
-0.08630009
0.0241879
0.1271568
-0.06902832
0.001052851
0.1035441
-0.07220805
-0.04371343
0.0729503
-0.07699551
0.1417536
0.2112162
-0.2333596
-0.01413432
0.281788
-0.2665403
-0.1212045
0.2672862
-0.01829552
-0.0721117
-0.03196932
-0.01106884
-0.07167262
-0.1037862
0.0616508
0.05033732
-0.02810244
-0.005601539
0.04533707
0.005515357
-0.07065696
-0.02201346
0.03352403
-0.04473202
-0.03598179
0.05817747
-0.0399911
0.0574161
0.01566926
-0.06729008
0.05115989
0.07010079
-0.09992621
-0.005796761
0.03404253
0.004987952
0.007779031
0.03848853
0.01038156
0.03821009
0.04332448
0.1017139
-0.0622035
0.02706566
-0.02131246
-0.01468206
-0.1224393
-0.008096078
0.07367586
-0.05430869
-0.08158918
-0.04449081
-0.09851027
-0.007942724
-0.06036548
-0.00735326
-0.04859995
-0.08806967
-0.004472989
0.001922686
-0.07715393
-0.008201488
0.09589066
0.005346077
-0.1175579
0.02377682
0.07376369
-0.05328475
-0.05596869
0.1168613
-0.06997661
-0.02857924
0.007180122
-0.00588895
-0.1256182
-0.02142376
0.044694
-0.1506115
0.003347366
0.1114976
0.07374336
-0.0764013
-0.1332181
0.07897186
-0.007321235
-0.1454394
0.04596103
0.0916656
-0.0008447908
-0.03795527
-0.01520542
-0.04406011
-0.02424799
-0.007900753
-0.0418804
0.01969946
0.0297005
-0.005028558
-0.01274425
-0.01180252
0.01092507
-0.03383269
-0.0353777
0.003866541
-0.07098996
-0.06957238
-0.01796588
-0.005013918
0.02233445
0.0401425
0.03330857
0.06715295
0.06953052
0.03472151
0.05575771
0.04556558
0.0609565
0.08111699
0.08437713
-0.02802795
-0.03089428
-0.02774892
-0.08993648
-0.09833462
-0.09902461
0.06385274
0.1010286
0.04977061
0.03317289
0.0584664
0.02782072
-0.02071577
0.0227786
-0.007946143
0.03725822
0.02079455
0.03080047
0.006199049
-0.01448646
-0.005412686
-0.0248765
-0.03991384
-0.03733466
0.0817712
0.06593233
0.06308369
0.09816536
0.0766521
0.05420453
0.09325644
0.09149135
0.08069406
-0.007349869
0.0403759
0.02003239
0.03794832
0.06925956
0.04575035
0.03994608
0.04116964
0.02548898
-0.07738694
-0.06015099
-0.04654283
-0.0317583
-0.004985162
-0.003585479
0.01905647
0.04003447
0.03133776
-0.01395524
-0.014711
-0.0116057
-0.01474349
-0.01141787
-0.001108602
-0.03398186
-0.02397567
-0.01413682
0.02830504
-0.009177043
-0.02326173
0.02862621
0.003000735
-0.02037335
-0.005058445
-0.03036982
-0.03752581
-0.04771302
-0.048086
-0.04937548
-0.07427107
-0.0928237
-0.07647747
-0.0379337
-0.08282659
-0.0972975
-0.0134762
-0.001814774
-0.04530361
-0.004898489
0.006362914
-0.02874847
-0.005377159
0.002687842
-0.02487504
0.04848235
0.02019354
0.0538956
0.02858645
0.03633699
0.08463638
0.0292558
0.02652402
0.06128681
-0.04201364
0.003003446
0.08622379
-0.02687507
-0.008940281
0.03417507
-0.02376046
-0.03281378
-0.03514983
-0.05231955
-0.04157002
-0.01784032
0.002154727
0.01782785
0.0475776
-0.0126131
0.03672906
0.06611398
-0.08780061
-0.05546826
-0.0282118
-0.03547931
-0.01445358
0.01003268
-0.02501602
-0.02360629
-0.02052489
-0.1041016
-0.09817468
-0.08208956
-0.08374358
-0.09289064
-0.09937204
-0.03551698
-0.06796299
-0.1113752
0.0277518
-0.02312188
-0.1167643
0.09990729
0.1070825
0.02016076
0.01111203
0.09925789
0.09749229
0.06065429
0.04716506
-0.003888275
0.05993341
0.04145681
-0.004056033
0.04329926
0.02266854
-0.001952028
-0.1270365
-0.06201572
0.005073932
-0.1202118
-0.1136
-0.1253019
-0.06679615
-0.06378539
-0.1322505
-0.01370126
-0.03717736
0.01650964
0.01206382
-0.0207749
-0.008733398
0.04187442
-0.003764761
-0.03923968
0.02302949
0.08540794
0.05917298
0.0007257118
0.06486817
0.1075789
-0.04407123
-0.04683141
-0.01636193
-0.08596517
-0.0528708
0.004249378
-0.1128086
-0.1101763
-0.05672958
-0.07908323
-0.1017573
-0.08858323
0.001896822
-0.04516889
-0.06220684
0.0378471
0.007509657
0.001700828
0.04471507
0.0157227
0.009554727
-0.06096126
-0.06545257
-0.06036526
-0.02200579
-0.02497486
-0.0210653
0.05334755
0.03363607
0.03546933
-0.01678763
0.0193134
0.003720553
0.02850905
0.02735261
0.02049492
0.0246813
0.02606003
-0.02446502
-0.09535208
-0.06883814
0.0143774
-0.01234228
-0.02238639
-0.01531203
0.04330087
0.03533119
0.00455085
0.0215266
-0.005599825
-0.03473386
0.02270807
0.02218027
0.0141501
-0.02244202
-0.01271862
-0.01627924
0.1168206
0.1081047
0.08159999
0.07505499
0.1203833
0.1174058
-0.07098565
-0.02849451
0.05923153
-0.09171898
-0.0433138
0.04448102
-0.1134002
-0.07584944
0.01917962
-0.09424289
-0.06431926
0.006878213
-0.1026323
-0.09678762
-0.05980086
-0.01624955
-0.04529744
-0.03989407
0.05015186
0.02819737
0.03494456
-0.05548269
0.005970511
0.02452422
-0.000764743
0.04921782
0.04015359
0.03145126
0.08415095
0.07280966
0.04014768
0.03694187
0.02625524
0.01863251
0.06467163
0.09822422
0.0003118945
0.04320113
0.04354268
0.05239502
0.05812933
0.06124341
0.004057144
-0.0044845
0.006412036
0.02249801
0.01878096
0.04272432
0.007852304
-0.02455951
-0.04154348
-0.03304348
-0.06980769
-0.07053997
-0.04938453
-0.06254263
-0.05446785
0.1208001
0.08239938
0.06300116
0.03970264
0.01571125
-5.028551e-05
-0.0525038
-0.09504507
-0.1082851
0.03354952
0.03388676
0.02339161
-0.03557261
-0.03619063
-0.05279049
-0.1186347
-0.1020484
-0.1197468
0.02808453
0.06489493
0.08680343
0.04955774
0.05430706
0.07788559
-0.022681
-0.04931453
-0.03707522
-0.00318885
-0.005408949
0.004037402
-0.010246
-0.001870067
0.004298542
-0.099829
-0.07665432
-0.03919679
0.02232157
0.005325479
-0.01639601
0.1209464
0.1345303
0.09186192
0.1225528
0.1384005
0.09414414
0.01105202
0.03050323
0.03144643
-0.01314006
0.02071541
0.03940257
0.003965945
0.03373089
0.04439975
0.07007018
0.01630684
0.06275613
0.03301972
0.01117026
0.03038784
-0.008149086
-0.04495123
-0.06298773
0.06634301
0.06034676
0.08320431
0.02047486
0.006797835
0.02363716
0.03149466
0.001607473
0.001374444
-0.03902338
-0.02143471
-0.04255209
-0.01109457
-0.009134536
-0.02132316
0.04615348
0.05109691
0.03960135
0.05994925
0.08756886
0.09286744
0.01443011
0.007188949
-0.02125582
-0.1089029
-0.1015089
-0.07762123
0.03677533
0.02721182
0.03481842
0.03010351
0.003787478
0.0167596
-0.02916183
-0.0683101
-0.04071517
-0.007189544
0.01100619
0.04701427
0.0720905
0.09206348
0.0744595
-0.02961286
-0.02994186
-0.03394284
-0.08201955
-0.06573106
-0.001762936
-0.01298121
0.005244429
0.09642515
-0.05440385
-0.02933666
0.00768229
0.1684566
0.1136749
0.02202704
0.03015579
-0.0009061626
-0.04634074
-0.05435616
-0.004788375
0.03057075
-0.01330107
0.02050387
0.05428567
0.06244453
0.03524173
0.0523092
0.05620818
-0.02037501
-0.01922582
0.04542892
0.05891951
0.04890674
0.09629402
0.09033899
0.08144698
0.04857644
0.03783148
0.03361354
-0.2093739
-0.2420457
-0.2505623
-0.2935569
-0.285222
-0.31152
-0.1793104
-0.1483865
-0.1662927
-0.0893325
-0.1499924
-0.1341665
-0.1579827
-0.1911008
-0.1636258
-0.1318743
-0.142023
-0.1458821
-0.05138331
-0.07125299
-0.02497989
0.01783952
-0.002112301
-0.01062725
0.1248214
0.08023082
0.05519083
0.06514276
0.0170989
0.004249287
0.008467392
-0.02609855
-0.02657295
0.01023115
-0.02627221
0.0297137
0.07791189
0.04903646
0.07248057
0.02693937
0.003185922
-0.003429775
0.002356376
0.004811792
-0.0007136482
-0.01481981
-0.01821188
-0.005868369
-0.01326095
-0.008659942
-0.004857762
-0.01502722
-0.02880043
-0.02338291
-0.1105353
-0.09508939
-0.08265186
-0.0601692
-0.01911123
-0.047017
-0.09737936
-0.05350219
-0.01619379
-0.01593369
0.0264178
0.1162774
-0.0825932
-0.1227074
-0.1052097
0.09585162
-0.05353332
-0.1028248
-0.0141065
-0.0008327704
0.01020541
0.07429029
0.09685138
0.09247819
-0.04064823
-0.00148455
0.004824329
-0.04341504
-0.07952797
-0.09812212
-0.04100434
-0.1481125
-0.1380995
0.04215201
-0.09883228
-0.1095059
0.04277042
0.0484794
0.09434891
0.005622374
-0.006208915
0.02863549
0.04315717
0.03753517
0.03327458
0.002988719
-0.03553292
0.003167738
-0.04938308
-0.06130726
-0.01567762
0.0571816
0.04984608
0.06831889
-0.0606448
0.01465412
-0.06660018
0.03372156
0.01724966
-0.08435161
0.1044232
-0.00413987
-0.06920471
0.0001888036
0.03088561
-0.07777482
0.03070752
0.060355
0.0235251
-0.08534236
-0.004159561
0.009964398
0.02573721
-0.01461591
-0.08448523
0.00456384
-0.03673
-0.08990555
0.03296789
-0.03301257
-0.04321283
-0.09246895
-0.1266096
-0.05483954
-0.01301715
0.03140833
0.01734611
0.03570156
0.06107201
0.07290076
0.1004499
-0.04810337
0.07261247
0.05467897
-0.05183362
0.01697483
-0.009172085
-0.1423758
0.004807139
-0.05808058
0.1171174
0.03234815
0.01078652
0.1647299
0.008468312
-0.03849179
0.06052002
-0.09624781
-0.08740852
0.01650791
-0.02487203
0.001811148
0.02134001
0.016323
0.01543303
0.05853846
-0.02738293
-0.04263991
-0.03677431
-0.1040197
-0.01344396
-0.0226988
-0.08819294
0.03351753
0.03584936
-0.1206648
-0.01590651
0.03900424
-0.05269295
-0.01648207
-0.01458061
0.02530894
-0.04857603
-0.01391151
-0.02062945
0.0009926808
0.04638462
0.068284
0.006834191
0.03297589
0.02254417
-0.0333189
-0.005558262
-0.01502906
-0.1185509
0.3706658
-0.1868873
0.09142606
0.1321114
0.02389314
-0.09478302
0.1733767
-0.1568433
-0.03017308
0.1528384
-0.04414416
0.04575832
-0.02955054
-0.04243751
0.02569589
-0.03509291
-0.1204171
-0.02675503
-0.105655
-0.04785847
-0.09938421
-0.1290143
-0.08205068
-0.03748536
-0.1109853
-0.05678356
0.02145677
-0.02927985
0.009867739
-0.06298574
0.02963111
-0.003901794
-0.07799459
-0.06690656
-0.04671758
0.03906504
-0.03402549
-0.002933587
0.03116167
-0.05034752
0.0615598
0.004234722
-0.04359888
0.05640106
0.02275356
0.01373552
-0.1212204
0.06470875
0.0636293
-0.01656914
-0.02974633
-0.01453182
-0.02576539
-0.02739367
0.0256513
0.0985838
-0.02806327
-0.009290716
0.04216128
-0.01502966
-0.0292364
-0.03277162
-0.1538407
-0.1179236
-0.02195204
-0.11385
-0.0832256
-0.03392255
-0.05369452
-0.0736215
-0.07790984
0.02014774
0.02694542
0.01618865
0.03571659
0.05860467
0.03183236
-0.002639748
0.08374872
0.08361354
0.06944507
0.08666381
0.05076761
0.07168904
0.1274733
0.08992031
0.03876297
0.1174479
0.09339548
-0.1694313
-0.09745724
-0.01789776
-0.06503254
-0.09032109
-0.03076019
0.09340737
-0.01298359
-0.04598351
-0.04485183
-0.05920635
-0.05550095
0.0002792673
-0.02869334
-0.05719231
0.006288618
-0.02182559
-0.07756612
-0.01399822
0.02636946
0.07594102
0.02245096
-0.01567905
0.02609803
0.0473113
-0.05982012
-0.06686593
-0.1075776
-0.03439827
0.07789135
-0.1174156
-0.1356949
-0.04289255
-0.09340385
-0.1623046
-0.12337
-0.02383575
-0.008278499
-0.01124119
-0.05361391
-0.009334104
0.04938322
-0.1195645
-0.07240473
0.01674329
-0.05209662
-0.03770166
-0.03146731
-0.02672379
-0.04374137
-0.01765164
0.004526287
-0.03838739
-0.007479823
-0.02192158
0.001557031
-0.05405938
0.01091971
-0.02879719
-0.05264691
0.03292663
-0.02694563
-0.1117617
-0.02736953
0.05615655
0.03363508
0.01981023
0.01506788
0.0110883
0.09534518
0.0272831
-0.03140439
0.03463759
0.06680516
0.02273356
0.01796167
0.1052671
0.08954555
-0.03292052
0.07708552
0.08543973
0.05333106
-0.02766219
-0.06867807
0.07594755
0.02624863
-0.056846
0.01056277
-0.0004050723
-0.05046067
-0.01489122
0.02119487
-0.007101917
0.00240382
0.006148925
0.04404851
0.01114286
0.02708778
0.08277513
-0.07822002
-0.06037041
0.03024489
-0.05747929
-0.1080263
-0.05697451
-0.01564973
-0.08763438
-0.01322989
-0.04580932
-0.02792371
-0.0366345
0.006048245
0.0006725043
-0.02456969
0.0005371689
0.02786731
0.02081913
0.09483644
-0.00740239
-0.02869032
0.01115139
-0.0331883
0.01611373
0.01005694
-0.02446614
-0.01586892
-0.08001121
-0.06875946
-0.03175403
-0.08368113
-0.1264342
-0.09456654
-0.002348384
-0.06223502
-0.07710611
-0.06345728
-0.06258106
-0.04873505
-0.04808363
-0.03875608
-0.02421306
-0.02077251
-0.0002021904
0.01331728
0.04437006
0.003895666
0.01544793
-0.04141981
-0.1456699
-0.1161965
0.0504947
-0.06555193
-0.08404555
0.0632643
-0.006813622
0.02991451
0.01596423
-0.03781807
0.01387011
0.01163113
-0.01384348
0.09018091
-0.01286269
-0.04122359
-0.03114873
0.00679317
-0.02863296
-0.02052807
0.0377919
0.03153835
0.01688622
0.04420948
-0.02821265
-0.03995327
-0.05093821
-0.08218137
-0.05199903
0.01976725
-0.02797333
0.07083768
-0.03537793
-0.04415118
-0.102415
-0.03212659
0.001261481
-0.03980466
-0.02575267
-0.01760719
-0.06694818
-0.0676145
-0.05257536
-0.06665939
-0.06639716
-0.05869436
-0.05060955
0.002825979
-0.00440323
-0.02109004
-0.02065436
-0.0828473
0.01206297
-0.009350318
-0.05378675
0.1988872
0.04715477
-0.1105983
-0.01263868
-0.009088426
0.03911971
0.04845613
-0.09024674
-0.03786999
0.06149977
0.01583241
-0.05113152
-0.01196251
-0.02926123
0.06347793
-0.04183358
-0.01129354
0.07223786
-0.04000087
-0.1392705
-0.04846502
-0.1520268
0.007990605
0.05950658
0.09326106
0.06258332
0.02524587
-0.08431817
-0.0623536
-0.003713279
-0.05309664
-0.002182483
-0.02505968
-0.03605276
-0.02629291
-0.06183777
-0.1079741
-0.01236205
-0.04416109
-0.09074879
0.02601611
0.004257894
0.04175418
0.0228543
-0.01039337
-0.03011355
0.05401048
0.01628106
0.04146687
-0.04597428
-0.08060324
0.05200254
-0.08296062
-0.1110405
0.004354501
-0.01377862
-0.0586983
0.02423546
-0.07458472
-0.1119598
0.006374566
-0.09597776
-0.1390807
-0.003369088
-0.102208
-0.1070543
0.09084661
0.002077667
-0.005775118
0.008233931
0.01305696
0.04215438
0.09231292
-0.03911724
-0.005925124
0.06358093
0.03766006
0.02132955
-0.05214111
0.06972154
0.02831704
-0.03835966
0.0111218
-0.05628646
-0.1226652
-0.1088884
0.1819493
-0.03865755
-0.06715171
0.2440853
0.06736594
-0.08323956
0.2510309
0.1034301
-0.007793808
-0.03461906
-0.008057172
0.01707182
-0.02384225
-0.02203773
-0.003196279
-0.05410774
-0.0419466
-0.0719295
0.01956169
0.005646156
-0.04719451
0.01795888
0.003928979
0.02973168
0.01899993
0.0393758
-0.1011573
-0.1277434
0.06145135
-0.1057616
-0.1011396
0.02584673
-0.1042101
-0.1143349
-0.01933441
0.01848559
-0.003583009
-0.09001307
-0.01105035
-0.01920151
-0.1482978
0.01664705
0.01317039
-0.1068372
0.01908658
0.01551169
-0.07914584
0.03598469
0.02703703
-0.0423821
0.03632813
0.02094603
-0.01720448
-0.001236569
-0.003409263
0.05040273
-0.03493178
-0.03364258
0.01816784
-0.02510498
-0.04531598
0.03896605
-0.1226449
-0.1209105
-0.0129883
-0.1552283
-0.126197
-0.02101642
-0.1341965
-0.09222452
0.05631459
0.0379344
0.02086757
-0.03564933
0.05484437
0.0505562
0.002940434
0.04924353
0.0484248
-0.01566264
0.07102815
-0.10486
-0.09292439
0.05035551
-0.1335707
-0.1127189
0.05753462
-0.1085295
-0.1160329
0.08531086
0.02053223
-0.09538746
0.1388253
0.08881611
-0.07098391
0.1644765
0.1404549
-0.05903754
-0.1755616
-0.1870504
-0.0208468
-0.1564733
-0.1484334
-0.02291466
-0.000896536
-0.0057387
0.08801958
-0.01584441
-0.003051876
0.005855889
-0.01183955
0.007025759
-0.01023847
0.06540354
0.02091745
0.05377372
0.03297998
-0.01005669
-0.03563932
0.0960836
-0.009293465
-0.01001491
-0.05637481
-0.0302992
-0.01107899
0.01662523
-0.04657178
-0.01134919
0.01482195
-0.01106728
-0.01360302
0.00493158
-0.01510113
-0.003419909
-0.01934439
0.008682699
-0.001977253
-0.0272082
0.04541662
-0.02163936
-0.01946631
0.001740249
-0.007065016
0.01171022
-0.09159886
-0.002192755
0.06280382
-0.04696082
0.08006733
-0.01452294
-0.1209182
0.04488914
0.008973687
-0.01718425
-0.03551307
0.02452942
-0.03507601
0.02263559
-0.004280129
-0.1011111
0.05478899
0.02561632
-0.03685416
0.05341378
0.01622992
-0.06772107
0.02173353
-0.007941144
-0.03904687
-0.01298223
0.0002868607
-0.04722136
-0.001890461
0.005737007
-0.04893976
0.02342233
-0.03971574
0.000502681
0.004842859
-0.0265823
-0.07249578
0.002783527
-0.06300113
-0.1299212
0.07397284
-0.026942
-0.02473923
0.06496156
-0.03119085
-0.01642681
-0.004134919
-0.00403355
-0.0242875
-0.02313679
0.02076373
-0.00908728
-0.01625731
0.05173785
-0.1511933
0.03807368
0.149109
-0.155642
0.2214739
-0.01840089
-0.1074982
0.0639924
-0.03311284
-0.01282988
0.05342066
-0.0719899
-0.1192805
-0.006117207
0.04818072
-0.057204
0.001534557
-0.0181213
-0.01511994
-0.008164206
-0.04564667
-0.01875147
-0.02460397
0.003957275
0.05040976
0.0259353
-0.07568011
0.06109226
0.02265066
-0.2230462
0.4242265
-0.1805356
-0.1034129
0.2486643
-0.1765344
0.0007862473
0.002705552
-0.01888745
-0.05481048
0.0278128
0.04517545
-0.004191336
0.05815832
0.04887914
-0.008099886
-0.09903131
0.01895381
-0.04732446
-0.02720247
0.0230305
-0.03405035
-0.01991745
0.009215416
-0.04844484
0.0388132
-0.05507481
0.05055602
-0.03702749
0.07937604
-0.05401736
0.03013455
-0.008015492
-0.02576937
-0.1048205
-0.04548628
-0.04036651
0.1579621
0.01156923
0.04072605
-0.1007776
0.002822326
-0.01053464
0.07686182
-0.03148534
-0.01912347
-0.08728781
-0.01227667
0.05791961
0.03687478
0.05780551
0.08549981
0.07659252
0.07368854
-0.002879504
-0.07742012
-0.04585668
0.05744864
0.01817627
-0.0466179
0.04663865
0.05745045
-0.007410921
-0.131177
0.03175559
-0.1308996
0.0188162
0.02683514
0.09121784
-0.008954002
0.03907024
-0.08362809
-0.05140151
0.09895506
-0.08915014
0.01193559
0.1033552
-0.04091147
0.06533194
0.02655666
0.03823136
0.06106703
0.0548599
0.06062879
-0.03239318
-0.08541592
-0.1069633
0.02326441
-0.03349249
-0.02690544
-0.03625299
0.1586889
0.04124272
-0.0263586
0.01559335
0.008812549
-0.05793722
-0.1168996
0.01207368
0.06369668
0.08617789
0.06460804
-0.03284379
0.03870628
0.04482534
0.01771169
0.008300756
-0.00354551
0.03364472
-0.009959943
0.03425042
-0.02639106
0.06536941
0.02758538
-0.006481053
0.0626399
-0.1190608
-0.1771118
0.7491221
-0.1716306
-0.0569052
-0.1978901
0.03911066
-0.09599257
-0.1603915
-0.03712097
0.1080434
0.2951672
0.02921269
-0.07499675
-0.06152895
-0.004992552
0.04854137
-0.08551647
0.06443893
0.02182276
-0.2206565
0.05154892
0.09660632
-0.05306749
0.03443117
-0.159347
0.1594363
0.02448423
0.09956799
-0.1700241
-0.06692306
-0.03430956
0.007948519
0.06695155
0.02693461
0.04125373
0.06644191
-0.03795534
0.01228715
-0.01444754
-0.07546348
-0.03075305
0.03620048
-0.02725353
0.05705484
-0.03018451
-0.005670897
0.0727064
-0.001442017
-0.01241113
-0.0908478
0.02119878
0.07452406
0.04381822
0.05290251
0.1734543
0.1482005
0.1549901
0.05099612
0.04414864
0.05002494
-0.01752337
-0.04714007
-0.09364501
0.009200544
-0.03839549
-0.09817038
-0.03725347
-0.03171119
-0.06532656
-0.0195894
-0.02592199
-0.05477869
-0.01718336
-0.0215246
-0.04648668
-0.04669141
-0.03732779
-0.05001088
0.01068475
0.02806512
0.008307013
-0.06674778
-0.05278991
-0.07587726
-0.03838329
-0.0329952
-0.04562364
0.03351558
-0.04031479
-0.06678809
0.1269648
0.0762316
0.05344902
0.06503765
0.02257847
0.01130486
-0.003273754
0.01264508
0.004357547
-0.005402877
0.01577972
-0.005090483
0.01228341
0.02675881
0.0172867
-0.05981908
-0.01973659
-0.00898893
-0.04262736
-0.01402501
-0.01533922
-0.0190063
0.007227633
-0.002073742
-0.06449646
-0.05377613
-0.03620047
0.03695822
0.02280852
0.00219429
0.02181156
-0.01284509
-0.03438999
0.08485765
0.0721884
0.07192797
0.1458764
0.1348714
0.1398814
0.02563902
-0.004698887
-0.003814412
0.009615284
0.01469412
0.01045313
0.0663951
0.0548833
0.03836912
-0.0183107
-0.0265727
-0.04450761
-0.02939475
-0.001570138
-0.01275756
-0.08570272
-0.05572568
-0.06990326
-0.09019813
-0.05936881
-0.06135049
-0.09621956
-0.03765211
-0.03636808
0.03032987
0.08472081
0.05788589
-0.0311626
-0.02940018
-0.07464404
-0.04958984
-0.03491147
-0.06972316
-0.0005015174
0.007965584
-0.02611166
-0.0008369663
0.003845143
-0.04424481
-0.03238368
-0.04208198
-0.04455962
0.006622024
-0.02543339
-0.04627018
-0.02347627
-0.04367516
-0.07839124
-0.02998224
-0.02093372
0.01571303
-0.09658035
-0.05118237
-0.01149402
-0.0824739
-0.05216439
-0.008525874
0.009257844
0.00281118
0.01916137
0.0160521
0.004280837
0.01416494
-0.06956826
-0.05823902
-0.04265911
0.00876412
-0.005140727
-0.01350492
0.03291364
0.01621227
-0.008576789
-0.001093818
0.01321011
-0.005596859
0.07027373
0.06246184
0.03096886
0.05235657
0.08389626
0.09074283
0.03178521
0.06268266
0.05904384
-0.0660623
-0.06226378
-0.08577047
-0.1348591
-0.09640037
-0.0686188
-0.1809653
-0.09549084
-0.03312229
-0.007778238
-0.01230762
-0.02517636
-0.03527915
-0.01954002
-0.006705663
-0.03979368
-0.01046009
0.01121209
-0.07406904
-0.1638982
-0.1495806
-0.1320761
-0.1665141
-0.0822335
-0.1355493
-0.1021352
-0.0067813
0.02792396
-0.03585938
-0.03507764
0.01532836
-0.03786528
-0.02132374
-0.04000124
-0.05814583
-0.03869117
-0.06416854
-0.004298443
0.05325385
-0.01044921
0.006390667
0.05325451
0.03518494
0.001174434
0.02426338
0.0770795
0.03582524
-0.008881208
0.1009316
0.04890664
-0.001402114
0.02967786
-0.02923259
-0.04346762
0.01271394
0.03270872
0.01110573
0.03495263
0.05785505
0.005092759
0.07341064
0.0544515
-0.007045644
0.03256761
0.02039323
0.0002943406
-0.01485257
-0.03073
-0.03259163
-0.05381958
-0.06437618
-0.04330229
-0.0339532
-0.01705186
0.0006730375
-0.002244801
0.0009524574
-0.01176788
0.002773132
-0.0287153
0.0003809498
-0.0715335
-0.09363135
-0.1098927
-0.1749811
-0.1723778
-0.2135645
-0.1238786
-0.1626144
-0.1610087
-0.05501617
0.009327078
0.01685918
0.02091553
0.07670115
0.046121
-0.03140464
0.01721272
-0.01544397
-0.001907149
0.01214061
-0.05803491
-0.005391589
-0.03741265
-0.06129139
-0.011263
0.008808577
-0.007349201
-0.006677993
-0.03802404
-0.05019386
-0.04449783
-0.07941478
-0.0729273
-0.0400014
-0.06460322
-0.02939596
-0.02860655
-0.05057515
-0.06549524
0.001974581
-0.03549035
-0.03159196
0.0117248
-0.009973832
-0.02274867
-0.02757101
-0.02675115
0.02397727
0.01909945
0.01209029
0.03684623
0.01807279
-0.01833262
0.003789798
0.08496508
0.0178373
-0.07379395
0.076591
-0.02737972
-0.08986071
0.06926274
0.04848371
0.01600082
0.009007963
-0.01495838
-0.008344554
-0.02598185
-0.03577724
-0.01521704
-0.0672088
-0.06750154
-0.01815631
-0.01730518
-0.04225445
-0.03683439
-0.01490473
-0.03482484
-0.02872825
0.0007804793
-0.001788405
-0.003824329
0.0179855
-0.07103735
-0.01110122
-0.05818925
-0.1436808
-0.06242615
-0.02263136
-0.08790993
-0.003151584
0.08990115
0.06684729
0.001273051
0.09185394
0.04337738
-0.02308889
0.04040971
0.01410811
0.005838986
-0.01116098
-0.02025315
-0.02122457
-0.01965729
-0.0586895
-0.02559726
0.03867169
-0.02507565
0.004970429
0.02516337
0.008740814
0.001574829
0.05997852
0.01418897
0.05413081
0.01802747
-0.000505687
0.0182124
-0.07959241
-0.08102585
-0.09210932
-0.06974601
-0.06732928
-0.1054838
-0.03335378
-0.02781961
-0.05471989
0.03508927
-0.001319585
0.01840637
0.009965165
-0.01536319
0.008335711
-0.01330799
-0.02794968
0.006100533
-0.1202785
0.09654729
-0.05006983
0.03917423
0.054973
0.05075864
-0.144083
0.02604968
-0.08210861
0.03620559
0.03985655
0.06769942
-0.08820122
-0.1234417
-0.09491312
-0.06170633
-0.0667766
-0.03458077
-0.03460708
-0.04931341
-0.06572121
0.0303673
0.02281377
-0.03681191
0.01402093
-0.04515311
-0.06340829
0.1058556
0.009564451
0.03137917
0.06213382
0.004048386
0.01882665
0.06792399
-0.005432782
-0.05347449
-0.0124586
-0.0472079
-0.05306833
-0.09418439
-0.1189094
-0.1283941
-0.06085805
-0.07896452
-0.07430675
-0.05418957
-0.08506934
-0.06733499
-0.03832382
-0.05257826
-0.05352647
0.01438632
0.006218484
-0.003533275
