16 16 3
-0.01208322
-0.0060447
-0.03531196
0.04638351
0.01414621
0.0470767
0.006683327
-0.01192919
0.006634256
-0.02983754
0.02645865
-0.0003323233
0.009852078
-0.01937124
0.04916493
0.003735583
-0.02866098
-0.02062099
-0.03289418
-0.06431697
-0.05325612
-0.001595091
-0.05033154
-0.01559772
-0.02806392
0.003365534
0.02430133
0.002208984
0.0009138121
-0.001064321
-0.0007482765
0.002347529
0.001987452
0.004460893
0.001421069
-0.0006910515
-0.0440386
0.03939488
-0.1255363
0.05490866
0.1099413
-0.00197508
-0.01180208
0.02313221
-0.05408936
-0.08013915
-0.1800462
-0.1095787
-0.03848076
-0.007877697
-0.0284497
0.01345357
0.1215006
-0.001333027
0.07327893
0.05299096
0.04241317
-0.02747902
-0.03011268
-0.01585413
-0.1107045
-0.1300207
-0.09240757
-0.1319039
-0.1145515
-0.1384794
-0.08383688
-0.1029569
-0.1019109
-0.1144812
-0.05934069
-0.01330803
0.02419502
-0.005969277
0.009094729
-0.02298519
0.01373595
0.01873706
-0.03844507
0.02096754
0.00747704
-0.06675566
0.008304828
0.006159601
0.006725584
0.1643214
0.1332098
0.03792528
0.07185433
0.09289829
-0.03539243
-0.07996138
-0.106466
-0.06582109
0.01338703
-0.06982766
-0.03070837
-0.04532142
-0.05934587
-0.01083893
-0.001209234
0.00300274
0.06541154
0.07840237
-0.01327362
0.07266148
0.03662388
-0.03494233
-0.04242172
-0.03879004
-0.0192767
-0.06973135
-0.05835795
-0.04557198
0.01132917
0.0286531
0.03435412
-0.01375982
-0.02124881
0.001058777
-0.001214396
0.02835578
0.04063505
0.01842823
0.01750689
0.02678677
-0.11806
-0.04642394
-0.06957539
0.04289899
0.07448988
0.03146333
0.02094516
0.055883
0.04649347
-0.03741861
-0.04508603
-0.05957507
0.01263442
0.01385211
0.02286652
-2.312403e-06
0.0654401
0.06245821
-0.06023012
0.007513521
0.02653186
-0.03870288
-0.004261328
-0.04384647
0.02375832
-0.007435973
-0.04827047
0.03064533
-0.03714783
-0.03778079
0.02733678
-0.01934916
-0.1465645
-0.08235383
-0.07233798
-0.1207416
0.03106976
-0.117816
-0.1097348
0.04898246
-0.1019886
-0.1243719
-0.04219703
-0.1016992
-0.09781145
1.41896e-05
-0.003017013
0.00101694
0.001350361
-0.001688449
-0.0002488328
-0.00158874
-0.003932601
0.002881766
-0.03435205
-0.09644074
0.1230101
0.03368333
-0.09421363
-0.04004208
0.06078396
-0.1174062
0.02154404
-0.05796674
-0.008016809
-0.06181873
-0.09788042
-0.04535944
0.02329978
-0.1372165
-0.07256231
0.007915576
0.03076907
-0.04756888
-0.0791954
-0.07895574
-0.09795101
-0.08587089
-0.04256066
0.01069009
0.03546501
0.05828093
0.04101173
-0.06311607
-0.01350621
-0.05941414
-0.1463867
0.03644793
-0.01102136
-0.05911829
0.02640219
-0.0296367
-0.02631462
-0.05781965
-0.06923378
-0.02977422
-0.06305509
-0.04201881
0.0374669
0.01763149
-0.0972914
-0.05420221
0.04459281
-0.009416129
0.06431271
0.05332567
0.07717579
0.03377461
0.09641925
0.006931861
-0.01804756
-0.04081925
-0.1266577
0.01495691
-0.1052129
-0.08000317
-0.02069108
0.009620265
0.03149292
0.01035768
0.07732802
0.1528815
0.2637905
0.05080312
0.07748701
0.0704745
-0.005835574
-0.04215818
-0.0367912
0.02539238
-0.01099345
0.0007827487
-0.02261475
-0.04040695
-0.01151234
-0.01479639
-0.02370707
-0.03868833
-0.01066016
-0.02477229
0.01889948
0.01590936
0.01590527
0.03630297
0.0219412
-0.06200618
-0.01321327
-0.004560276
-0.1359993
-0.1411376
0.115547
0.03845436
0.0400754
-0.05605348
-0.05678691
-0.03940913
-0.07705441
-0.0434848
-0.04178783
-0.05409293
-0.07277916
-0.06528109
0.02443669
0.02629745
0.007635502
-0.01447563
-0.01643145
-0.00964547
-0.09107327
-0.1014805
-0.07385595
0.06296802
0.04026693
0.1055098
0.00676267
-0.01050953
0.09337905
-0.04463776
-0.0266248
0.05034901
0.05349158
0.02115283
0.01008251
0.08530509
0.03349137
0.01526572
0.0743329
0.03727
0.01848264
-0.0001276239
-0.003866293
-0.001332203
-0.0009318159
0.003542279
0.003083257
-0.002027132
0.002627136
0.0004102144
0.01074946
-0.06799072
0.004486513
-0.107654
-0.1779927
-0.1435155
-0.07586295
-0.08505552
-0.08973789
0.01281465
0.006369081
-0.03830947
0.02173146
0.07688219
0.04703057
-0.009063772
0.04620616
0.03602054
0.0446426
0.05236106
0.02644592
0.03661844
0.04623626
0.01196214
0.001048464
-0.007735835
-0.0372612
0.0656401
0.01830581
-0.02189456
0.02429007
-0.01122804
-0.0536003
0.03553898
-0.007561291
-0.04991382
-0.02924289
0.03717986
0.01727922
-0.003281621
0.04441413
0.02008297
0.05208865
0.05998223
0.03817676
0.02192742
0.005417857
-0.01010572
0.04444683
0.006467561
0.0046586
-0.01048857
-0.0377139
-0.02850441
-0.02549423
-0.02744488
-0.04352977
-0.0138241
0.02216826
0.02573186
0.03079863
0.07429666
0.08840595
-0.01404292
-0.05351304
-0.007843588
0.05284868
0.0001202248
0.00259534
0.09594111
0.0659951
0.03045681
0.0117336
-0.00472758
-0.01094628
0.017372
0.01899811
0.006931208
0.02259172
0.02891854
0.0367007
-0.01308953
-0.01436344
0.0002355025
-0.029268
-0.006421337
0.009096932
-0.02954907
-0.02127249
-0.01188808
0.05428994
0.06692317
0.02877834
0.001772618
-0.0306745
-0.06492002
-0.008022862
-0.04108026
-0.07908063
0.06383734
0.07885191
0.04214224
0.024941
0.05413573
0.02556521
-0.0318921
-0.01274028
-0.008037435
0.09998595
0.07400677
0.1070225
0.04618634
-0.0152493
0.04122357
-0.1252524
-0.1202344
-0.05484428
-0.03233204
0.06321216
-0.03818914
0.1119984
0.0697694
0.05326244
0.2310494
0.2110182
0.04536045
0.1358632
-0.02746656
-0.03657224
0.04953877
-0.1825513
-0.1446967
-0.03605554
-0.2120498
-0.1008975
1.413153e-05
-0.0003031808
0.002658252
0.00174656
0.001143555
0.0008295467
-0.002799972
0.001254743
-0.001410643
0.03048379
0.06595521
-0.02292239
0.04210158
-0.09102568
-0.09247904
0.01309733
-0.1003156
-0.1435283
-0.04619844
-0.2496017
-0.123839
0.08284082
0.06980003
-0.03464874
0.1215217
0.1600332
-0.03264099
-0.132989
-0.128672
-0.05026977
-0.00898323
-0.05975133
-0.03323319
-0.03279085
-0.08377717
-0.07129278
0.1583462
-0.0001312918
-0.09428132
0.0964737
-0.1078122
-0.1796906
0.1114613
-0.1124395
-0.1761485
-0.1551888
-0.1904326
-0.1564224
-0.1705317
-0.121154
-0.09033336
-0.06578781
-0.006380461
0.02150436
-0.0305428
-0.1417892
-0.1371882
-0.02063608
-0.1171874
-0.1578572
-0.04275249
-0.1298828
-0.09945981
-0.1555296
-0.1453382
-0.1071032
-0.07938606
0.05378041
0.00410313
0.004865151
0.001855087
0.05964613
0.1342564
-0.01624938
0.04893261
0.1289717
0.02157923
-0.04465759
0.05141053
-0.04262877
-0.07953019
0.05416715
-0.02084074
-0.03722386
-0.01657034
-0.04709082
-0.04068488
0.01764797
-0.009186145
-0.02215188
0.06711707
0.05371486
0.0589292
0.02648259
0.04661749
0.0130075
0.03003667
0.04046737
0.02766837
-0.01026405
-0.1272276
-0.09155876
-0.04202794
-0.1398697
-0.1108633
-0.04069431
-0.09023882
-0.0976159
-0.04194543
-0.09007504
-0.04220678
0.001551152
-0.02594136
-0.01659306
-0.06264371
0.0162962
0.05569358
0.02787484
0.03273405
0.02424076
0.02028118
0.07560694
0.06868443
0.02862952
0.02324929
-0.00823043
-0.03880986
-0.138639
-0.1360623
-0.05197917
-0.1046656
-0.1288299
-0.1265476
-0.1375836
-0.0846182
0.05556591
-0.03372894
-0.04768248
0.1107187
0.02719901
0.001444396
0.02967998
-0.07725873
-0.08893067
0.0001788252
-0.001204062
0.00114859
-0.002574778
-8.205516e-05
0.000978558
0.001039715
-0.001711296
-0.001185893
0.0002932057
-0.1277325
0.08507449
0.097115
0.2092492
0.2664813
-0.02820565
0.01423413
0.05723798
0.02873645
0.1412479
0.046916
0.09926651
0.111519
0.1389983
0.1204708
0.1245183
0.2469695
0.09347066
0.08439321
0.01726283
-0.00521027
-0.03053011
-0.04847058
-0.0463111
-0.02513432
-0.06992795
0.04374023
0.009330727
-0.0405127
0.06947047
0.05552465
-0.05025017
0.05378453
-0.02912129
-0.08689836
0.03103259
-0.05382339
-0.07773489
0.01441128
-0.05996236
-0.1028008
-0.02364448
-0.05054991
-0.06231486
-0.05463881
-0.08382525
-0.1466566
-0.05022722
-0.07506532
-0.1407792
-0.01724837
-0.003106527
-0.03258478
0.08050337
0.02790224
0.05049381
0.0739108
-0.05517895
-0.02382784
-0.003224698
-0.006553589
0.03968799
-0.09035718
0.01361659
0.03622663
-0.09903645
0.0116247
0.1402859
-0.08512594
-0.01796628
-0.006125446
-0.01896489
0.02311112
-0.01440927
0.01853732
0.03030823
-0.01705811
-0.01322911
-0.002059892
-0.009822085
-0.02018169
-0.01671567
-0.04588213
-0.01268619
-0.04955917
-0.03286457
-0.005256161
-0.01791673
-0.005836072
-0.002617256
-0.02372274
0.01405744
0.04442267
-0.02177038
0.009388067
0.0543831
0.001429114
-0.01867456
0.04911162
0.04234743
-0.05686084
0.03605482
0.01449739
0.00938868
0.0631556
0.006590518
0.004849974
-0.0003928672
-0.0005033908
-0.002246376
0.002083641
0.0005338342
0.002329623
0.002736083
0.001317324
0.002775657
0.000621217
0.0006121653
0.0006926163
0.0002405396
-0.001750752
-0.0003858569
-0.002497652
0.001605601
0.0009461188
-0.001437006
-0.001668084
-0.0008547629
0.001535874
-0.001371721
0.00236864
-0.0012429
0.0003013242
0.002031091
0.0002595221
-0.0007906855
0.004073185
0.003450938
-0.001698786
-0.001925591
-0.0003500902
0.001332762
-0.0005389396
-0.0003430318
-0.0003651167
0.002261967
0.001954711
0.002794534
-5.204044e-06
-0.001912256
-0.000710769
0.003149051
0.00362566
-0.001931383
-0.001946423
0.0006186026
0.0001716496
-0.0004441603
0.0001169602
-0.0002154474
-0.0002685546
0.002144865
-0.0007255053
-0.003298296
-0.0005765849
-0.0006816942
0.0003827651
-0.001163949
0.000705069
-0.002116079
-0.000537211
-0.003095513
0.002234225
-0.0005038545
0.003100254
0.002888282
-0.00216865
0.001406731
0.0007143855
0.0005758895
-0.001552557
0.0001609944
-0.001069244
0.001332189
-0.001263678
0.001596136
0.0001967059
-0.002034117
0.001698476
-0.001692403
-0.002184717
-0.0005203843
-0.003251996
0.001209926
0.001300596
0.001587371
-0.002588396
0.001214164
0.002194156
0.001922222
0.001213949
0.001595325
0.0007767738
-0.000569799
0.002415142
9.101605e-05
0.002742363
-0.002033435
-0.003482021
-0.001629977
-0.001463881
-0.001092797
-0.001784435
0.0003746325
0.003919059
0.001561734
-0.002357456
0.001260643
-0.0001903563
0.001084705
0.001142752
-0.0001721559
0.001891433
0.002563617
0.0006287764
-0.003427403
-0.001793557
-0.000709254
0.004175896
0.002900917
-0.0007759226
0.001698823
0.001092252
0.004137935
0.0005790709
0.00217347
0.001660389
0.0020344
0.0004069708
-0.001552114
0.001877923
-0.0006452194
0.0005639489
-0.0017089
-0.00536452
-0.002668093
0.000363663
7.344944e-05
0.003044672
0.0006547278
-0.001778352
-0.01006324
-0.0008709419
-7.413497e-06
0.0171628
-0.05938629
-0.02407645
0.0001021318
-0.03129848
-0.004518602
0.0147079
0.002219182
0.0800028
-0.07288486
-0.02152249
0.1429474
-0.01017656
0.06952966
0.08244684
-0.08978778
-0.05621358
-0.02744789
0.04975421
0.0092695
-0.03162776
0.04202
0.06980439
-0.01822188
-0.002160348
0.002373257
-0.0005017671
0.004153293
-0.001959169
0.0003438402
-0.0006415975
0.002038381
-0.001259389
-0.0896108
0.1425318
-0.0203191
0.04251929
0.1296309
0.01996061
0.09077888
0.1338801
0.06360193
0.06685672
-0.1769806
-0.09907822
0.05141535
-0.06389966
-0.04110152
-0.04017719
-0.003573275
-0.07510484
0.1132709
0.04146367
0.003267966
0.2000892
0.1273456
0.07347698
0.1590855
0.1545583
0.1367853
-0.1648196
-0.0637003
-0.09499892
-0.08502442
0.04562006
0.05804524
-0.07516923
0.06510056
0.0813935
0.08749712
0.01761958
-0.0213842
0.09508568
0.05744796
0.02779755
0.1359464
0.09132519
0.07870368
-0.006531498
0.05196449
0.01871726
-0.01888358
0.06284487
0.01961251
-0.02657486
0.04298349
0.003786787
0.05542867
-0.07000312
-0.0385465
-0.003844055
0.006537792
0.01881983
0.02548195
0.008056165
0.0671654
-0.004056523
-0.03507795
-0.02434459
0.04106119
0.04970918
-0.06294193
0.04769821
0.03395397
0.05118715
-0.02332046
-0.03715931
-0.02781988
0.002924688
0.003346742
0.01598053
-0.00292509
0.02247486
0.03049763
0.01025944
0.01004684
0.06713058
-0.001014273
0.0183496
0.03538509
-0.01535445
-0.003971121
0.02943482
-0.01012718
-0.1602784
-0.2114339
0.09075651
-0.09073862
-0.1212507
0.03817636
-0.0365983
-0.08505467
0.03109502
0.0866949
0.0784489
0.03023484
0.008035605
0.02194736
-0.01288399
-0.01653424
0.01520243
0.04920244
0.04558166
0.008790581
-0.003160205
0.05412176
0.03572656
0.08002118
0.1235678
0.07070354
0.05173156
-0.01528288
0.08994023
0.00265169
0.009505508
-0.04256071
-0.01509611
-0.04030024
-0.02194869
0.0693822
0.03261439
-0.02172602
0.04653618
0.1104167
0.1010305
0.03532703
0.05915989
0.04510209
0.003265659
0.001740388
0.0005228905
-0.001728841
5.709899e-05
0.0007283706
0.0002640375
-0.001400454
-3.893204e-05
0.1205352
0.1005291
0.04221423
0.07900755
0.2335404
0.1275139
0.04657476
0.1808483
0.1149439
0.01295969
0.1738376
0.0558796
0.04937248
0.06967878
-0.0003924441
-0.01318604
-0.1509615
-0.02384893
0.09248305
0.1229407
0.05129405
0.05878965
0.04730406
0.02203954
0.02015759
0.06849043
0.04171006
0.08587679
0.02691429
-0.02157083
0.0682716
0.05328104
-0.01185847
0.07862426
0.06060255
-0.002493616
-0.03661083
-0.01105632
0.03017203
0.05387855
0.01671711
-0.02598341
0.01490087
-0.0304849
-0.07932305
0.0163014
0.07423995
0.01623435
-0.04032087
-0.0001418038
-0.01072739
0.01208217
0.08602615
0.07059293
0.05032204
0.1147595
0.09919346
0.01613604
-0.05402654
-0.0029202
-0.01821121
0.04913631
0.03525979
0.0604185
0.1544736
-0.001014272
-0.07356156
-0.02369234
-0.0745498
0.03256904
0.06043156
-0.07017752
-0.07034384
0.01255276
0.01969472
0.006435159
0.03035701
0.04259399
-0.01661129
-0.007733179
0.001618097
0.03577302
0.06607719
0.01822978
0.0120071
-0.001368733
-0.01741976
0.02928523
0.02272999
0.02118726
-0.001450179
0.09368642
-0.01870578
0.02260368
0.1509996
0.09231113
0.04256686
0.0514458
0.001470664
0.04655394
0.0776208
0.03938222
-0.02149496
0.01606243
0.04029888
0.05185283
0.01171197
0.025135
0.0404118
0.03460643
-0.01403561
-0.03357228
0.0137882
-0.0294055
-0.03809663
0.009030204
-0.01440163
0.03093223
-0.09984192
-0.0474502
0.01193795
-0.0395898
-0.01754925
-0.05130911
-0.0911058
0.01956264
-0.01098148
0.03051581
-0.00107729
-0.07622413
-0.03863682
0.01536223
-0.01526764
0.01264766
0.005186901
0.002641771
-6.189933e-05
-0.002479256
-0.001966435
0.001841454
0.001974828
0.0001569621
0.0003269985
0.001298911
-0.08442297
-0.000289549
0.02656345
-0.2941201
0.03024672
0.1889232
-0.1649246
-0.02164855
0.1440781
0.0133728
0.04525699
0.009036656
0.2103994
-0.0100175
-0.08013986
0.2708252
0.06508151
-0.02533232
-0.008780483
-0.002667875
-0.05778006
0.02599723
-0.00169443
-0.07609375
0.03685435
0.0509227
0.008398611
0.07728351
0.004479771
-0.08392344
0.04479442
0.02369432
-0.05057246
0.04851827
0.0115241
-0.01768765
-0.0211011
-0.01329182
0.06422144
0.005169955
-0.01928212
-0.0696646
-0.006127
-0.04457912
-0.1203954
-0.03349657
-0.01038526
-0.02507737
-0.01555569
-0.04562307
-0.08767392
-0.05290803
-0.003830347
0.01128381
-0.03199952
-0.05772215
-0.01300745
0.07346376
-0.01340123
0.05664419
-0.04468966
0.01056853
0.06149464
-0.2650319
0.01678478
-0.02460929
-0.2421243
-0.09534241
-0.005697163
-0.1246317
0.0133699
-0.04688678
-0.01505077
-0.02395351
0.005422804
0.0009943362
-0.0487103
-0.03260611
0.01825163
-0.01534476
0.01072998
-0.01460944
-0.006262442
-0.02540275
-2.139957e-05
-0.0303768
-0.02365802
-0.02708563
-0.02123393
-0.01644859
-0.1500381
-0.1474667
-0.1134874
-0.1637041
-0.1282157
-0.07345688
-0.0860385
-0.0542182
-0.003018448
-0.07104494
-0.03745262
-0.01738389
-0.0001927713
-0.01697843
-0.007637677
0.03947831
0.005262705
0.0150506
-0.00450158
-0.01118486
0.01207187
-0.02152153
-0.003802147
0.006863634
0.02138894
0.02000207
0.03077067
-0.05065043
-0.0133222
0.008561482
-0.03038891
0.02392723
0.01463751
-0.009840817
0.04468699
0.04528686
0.02924882
0.04756973
0.0300236
0.04001155
0.04347646
0.02636953
0.07453505
0.08410902
0.09577458
-0.001390322
0.002594631
-0.001922637
-0.001829437
0.000108292
-0.002707259
-0.0002856479
0.001745431
-0.0004372046
0.02989675
-0.03880705
-0.007622818
0.04013149
-0.02912589
0.01881755
0.0411466
-0.01458234
0.05017701
0.05196002
0.115197
0.08883543
0.04607014
0.09742258
0.09430704
0.02288319
0.08195056
0.08785357
0.005127427
0.0148936
-0.0001950282
0.03023733
0.06630248
0.04620725
0.02232651
0.05724657
0.0392147
0.004720298
0.0192224
0.05152293
0.03623144
0.0154639
0.01210211
0.04438302
0.0150357
0.02726705
-0.01665863
-0.01708359
-0.03256431
0.0002687698
0.03025432
0.04274982
-0.008876665
0.04407471
0.06711069
0.02391076
-0.02703746
-0.02978538
0.03175727
-0.02750481
-0.01672185
0.04645012
0.008867014
0.03037485
-0.0504248
-0.01250947
-0.01405117
0.01263041
0.04160741
0.04661812
-0.0006386528
0.04752897
0.0208457
-0.01791817
-0.02708523
0.000177449
0.01030291
-0.01883965
0.02134521
-0.006857455
-0.05344357
-0.03624513
0.02057977
0.05053904
0.02254264
0.01739672
0.0301162
0.0112953
0.01413454
0.03790667
0.007746777
-0.002500369
0.001775088
-0.007965528
-0.00119149
0.004311648
0.002837036
0.01870688
0.01981453
0.01167685
-0.03599932
-0.03059418
-0.04084737
-0.0288323
0.008756847
0.01231802
-0.02588669
0.02983707
0.0474529
0.02738054
-0.009420744
-0.03724073
0.02135784
0.004541998
-0.01580891
0.0286613
0.02048796
0.02243375
0.0293535
0.04312996
0.04286851
0.07848671
-0.009803197
0.02742624
-0.007652518
-0.003480047
0.02334947
0.04068954
0.1339357
-0.06752161
0.07609736
0.0429001
0.08226079
0.04112586
0.1474904
-0.009916111
-0.05085821
-0.09704562
-0.08492833
0.03540735
-0.001548556
-0.03195451
-0.00437798
-0.002404141
0.005410322
0.0015288
-0.0008092152
0.002461967
-0.0004380342
-0.0004624443
-0.001178794
0.002069814
0.001208804
-0.001620368
0.01385392
0.1133425
-0.02935628
0.1900755
0.0382476
0.01882233
0.04710325
0.008513857
-0.05431934
0.1333557
-0.02677304
0.0350301
0.0790134
0.1488775
0.006669327
0.05870631
0.2011721
0.06223566
0.1378444
0.1163966
0.1818872
0.08752423
0.1051761
0.1496385
-0.004913139
-0.009593439
0.03547375
0.003780947
-0.00907294
-0.02097281
0.04742574
-0.001264955
0.04720835
-0.06327052
-0.001058848
-0.001967693
0.04938939
0.04347605
0.02525244
0.0006789883
0.0733395
0.05953778
-0.01165693
0.02040372
-0.04519328
-0.005226035
0.003396067
0.0226928
-0.04744094
-0.03606624
-0.01497798
-0.03079201
-0.04601921
-0.02045164
0.00704709
0.00164294
0.007437749
-0.01611167
0.06901979
0.01840024
0.02635329
-0.07988589
-0.02473262
0.0802829
-0.055381
0.1081541
0.002172436
-0.01117234
-0.09960788
0.01605542
-0.06742715
0.0001045894
0.06899089
0.03045083
-0.001821647
0.03141729
0.04142488
0.0005259918
0.04192155
0.0599922
0.02741967
0.012593
-0.0290318
-0.002448
0.01491653
0.01914278
-0.01756516
0.003398051
-0.01790774
-0.01216267
0.05185689
0.01780579
0.02453289
0.09302738
0.07671926
0.06626447
-0.0411597
0.01934342
-0.04349278
-0.004991401
-0.006047008
0.03811803
0.02564154
0.05763753
0.0682118
-0.05337859
0.05036448
0.03503872
0.03543095
0.04136216
-0.003313949
0.03672374
0.02159209
0.002734273
0.002817488
-0.04124817
-0.01619473
-0.05820641
-0.05738657
-0.05838266
0.02119259
0.02627794
-0.06905747
0.009965332
-0.02200194
-0.03097448
0.0327479
0.05564759
0.05798529
0.07406008
0.08730601
0.06060513
0.0004513497
-0.04582093
-0.02383696
-0.002609827
0.0005324706
-0.004915201
0.00349129
0.003414286
-0.0007961536
0.003450038
-0.0007815878
-0.003310962
0.1040228
0.2971932
0.04712706
0.03420402
0.2641188
0.1406906
-0.004941495
-0.0182214
0.00531706
-0.06670882
-0.1039622
-0.03007258
0.07943112
-0.1320037
0.02995072
0.06711305
0.03930203
0.03083024
-0.0006292906
0.004665242
-0.002577488
0.03848495
0.0456608
0.08634159
0.08042704
0.1119641
0.1177216
-0.08595914
-0.0607311
-0.05090926
-0.01866441
-0.009821895
-0.02176474
0.001972543
0.03545303
0.04712497
-0.01697862
0.012874
-0.007034558
0.04273785
0.02057245
0.001424061
0.03490783
0.04654644
0.02258262
-0.003280708
0.01602393
0.0503031
-0.02079671
0.03957501
-0.008104535
0.05633882
0.1548702
0.07928738
0.04153212
-0.01642593
0.02850325
0.03180379
-0.04664577
-0.06571365
0.0006565265
0.03144196
-0.04176225
-0.006682905
0.09899986
0.06473079
-0.07479835
-0.0694387
0.02131775
0.003895767
0.02408691
-0.006166995
-0.01106984
-0.03714358
0.02255369
0.03519768
0.004298965
-0.007697457
0.02093986
0.03940991
-0.002771977
0.00387761
0.01945643
-0.001562788
-0.0215316
-0.03602845
0.006906526
-0.009491511
0.02146956
0.01295749
0.05849763
0.0373471
0.05257303
-0.008735008
-0.05826769
-0.04270859
0.04595513
0.02585569
0.05629285
0.08190884
0.06943911
0.01749178
0.02981032
-0.001746594
-0.01480827
0.09529177
0.04895838
0.02643107
0.02214937
0.03029383
0.005871584
0.02144792
0.02643244
-0.0189207
-0.02546765
-0.01249038
-0.04386299
-0.03113986
-0.00536277
-0.02691126
0.0023056
0.01908843
0.0270457
-0.01135752
0.01801769
-0.02342892
-0.01553118
-0.04146932
0.005783386
-0.00812037
-0.01106095
-0.01908981
-0.00478725
-0.006648523
0.001978486
-0.001850446
-0.0005848632
0.002240337
0.0001781545
-0.002222894
-0.0008297861
-0.002772384
-0.000989518
-0.003033974
-0.05018478
-0.01651846
-0.01720998
0.03423439
-0.01472428
-0.09916733
0.04082523
-0.01122294
-0.1010216
0.05538063
0.03218031
0.1139968
0.0286762
0.06153662
0.1353884
-2.491007e-05
0.06943025
0.08514229
-0.05263454
-0.07001383
-0.08474411
-0.04299023
-0.05245728
-0.08785203
-0.0772707
-0.08251712
-0.06323051
-0.08701269
-0.047945
0.03419367
-0.09293127
-0.03078011
0.05442581
-0.1094822
-0.006939344
0.06236489
-0.01441368
-0.02484433
-0.0107988
-0.03130447
-0.0370506
-0.02139949
-0.03397121
-0.03276768
-0.02053661
0.005073342
0.003661953
0.01700821
0.01182313
0.02174354
0.08587848
-0.02223586
-0.004332613
0.02649236
-0.03178691
0.002047072
-0.003152187
-0.04708621
-0.03083407
-0.0366033
-0.03545784
-0.04068324
-0.0358192
0.0186875
0.001389228
0.05371938
0.04510524
0.01191232
0.02686941
0.04155786
-0.01808688
0.02873131
-0.01691619
-0.01734943
-0.0007207196
-0.0136119
-0.006504065
-0.001985422
0.009401231
0.007809787
0.01199937
0.005683061
0.01437144
0.008800243
0.02859453
0.02984513
0.01171363
0.02390558
0.014429
0.01242712
-0.05596745
-0.0143474
0.007758766
-0.0107567
-0.01568417
-0.01896996
-0.01014221
-0.03366266
-0.03884793
-0.04802934
-0.01154598
0.0006031207
-0.03274607
-0.01399192
-0.00405514
-0.05099253
-0.01728052
-0.01359601
-0.02732953
0.0100742
-0.0072426
-0.02345331
0.01690124
-0.02129635
-0.01267757
-0.001364316
-0.01929878
-0.0008978434
-0.01289889
0.01053351
0.003834178
0.02339895
-0.01418686
0.01547691
0.03437825
0.02799578
0.01449618
0.01087568
0.06269675
-0.01950387
0.04288102
0.02134033
-0.02092935
0.007662488
-0.02637661
-0.002822377
0.002678198
0.001935057
-0.0005086575
-0.001060567
0.001858434
-0.001768723
-0.000783254
0.0004684332
0.04141708
0.1096397
0.02587697
0.03913612
0.11619
0.03183642
0.03337369
0.0202607
0.02281466
-0.03237644
-0.005381551
-0.03115067
-0.02896414
-0.07475095
-0.02388702
-0.009437436
-0.009091266
0.04128483
-0.04853955
-0.05499937
-0.07609741
-0.06147368
-0.03198865
-0.02758013
-0.05996722
-0.02121679
-0.02223241
-0.006382165
-0.01225863
-0.006707686
-0.01174927
-0.0006353701
-0.01279759
-0.02756843
-0.0109238
0.001133438
0.01282198
-0.01715134
-0.02527789
0.01047926
-0.05600823
-0.04602978
-0.02081832
-0.04740673
-0.05017349
0.004896908
-0.03428817
0.007514385
0.01806808
-0.00380128
0.02348884
0.003728605
0.03523235
-0.004407866
0.005471672
-0.001537067
-0.004243251
0.01763667
-0.02311406
0.01080011
-0.009721003
0.002146702
-0.02984063
-0.02297956
0.04737322
0.02412419
-0.03354133
0.0219762
0.006936116
0.0159828
0.02570958
0.01726686
0.0002989676
0.01162783
0.01339219
0.01043217
-0.004076255
0.01872857
0.01823076
-0.003708785
0.02166619
-0.002945363
-0.005271875
-0.01705316
-0.0004294722
-0.0153281
-0.01064762
0.02059631
-0.005132907
0.003669219
-0.02457166
-0.004268231
-0.01438582
0.02391556
0.03789954
0.0254597
0.01834078
0.03305206
0.02342793
-0.001653023
0.0007898849
-0.02105034
-0.008869068
-0.02353347
-0.01844251
-0.007343831
-0.02380695
0.003371033
-0.0552955
-0.004990363
-0.04528955
-0.09549693
0.005439741
-0.02224286
-0.0901815
0.006922103
0.0008675294
0.008808028
0.004871714
0.02204282
0.003628549
0.03161324
0.1350976
-0.0361343
-0.02123374
0.07108191
-0.07953276
-0.06986632
-0.01068692
-0.1572235
-0.09216813
-0.05190968
-0.113654
-0.05935149
-0.05874528
-0.0006823346
0.003166072
0.000985398
-0.002518158
0.0005128976
0.001910709
-0.001059595
0.0009709048
0.003288501
-0.03976047
0.2010651
-0.125347
-0.06689989
0.1379734
-0.01673009
-0.02455544
0.02195563
-0.1171155
0.0004938227
-0.002901691
-0.07848277
0.1084302
0.01612851
0.004396801
0.05657543
0.0001178145
0.003365065
-0.09862041
-0.09189095
0.00621
-0.09410476
-0.08400759
-0.03332936
-0.09295297
-0.07131675
-0.007224569
0.07423428
-0.1086799
-0.1220144
0.07709982
-0.09992297
-0.1183343
0.114473
-0.01064359
-0.03532825
-0.08898574
-0.029165
0.03913432
-0.09082518
-0.04736703
-0.04271125
-0.01579661
-0.01644378
-0.03781657
-0.09196793
-0.09109211
-0.0575917
0.02093963
-0.01588219
-0.04464401
-0.03239131
-0.04823167
0.02659809
0.05482024
0.03945905
0.008248209
0.1469038
-0.0140223
-0.1113321
0.006280419
-0.144889
-0.1263707
-0.2026003
-0.04220498
0.08923777
-0.1890561
-0.07457479
-0.001041654
-0.08432902
-0.1128505
-0.0878191
-0.04536643
-0.05982764
0.0460815
-0.01434101
-0.05222085
0.05750547
0.01884488
-0.01939028
0.03350525
0.0117729
-0.0201475
-0.06230317
0.05481767
-0.01263464
-0.03168887
0.02164325
-0.02582998
-0.007301684
-0.09443597
-0.04058046
-0.04209252
-0.1101047
-0.07139088
-0.06069803
-0.01168507
0.03942166
0.04867437
0.04252362
0.01405034
-0.04046553
0.09141956
-0.006874264
-0.04882915
0.08229078
0.03819904
0.004705697
-0.02593518
-0.05530578
-0.02693184
-0.01339383
-0.04300452
-0.0002391351
-0.05360264
-0.01825753
-0.02134242
0.06126054
0.1066259
-0.02484474
0.01441178
-0.06405291
-0.01019334
-0.06133384
-0.07595993
-0.1115622
0.04605059
-0.003067228
0.02589687
0.0529276
0.01101764
0.01610475
0.03273625
0.02588707
-0.0281722
-0.00284612
-0.0001337699
-0.004278162
0.00183369
-0.001065681
-0.002447074
-0.0007431145
-0.0002540334
0.001849719
0.06754535
-0.1342249
0.07781722
0.00432176
-0.08927447
0.01877755
0.007819372
0.107314
0.09262123
0.0653308
-0.008801023
-0.0624369
-0.05631961
0.05355033
-0.09300521
-0.02817718
-0.003846324
-0.05223915
-0.08474885
-0.09080221
-0.02246655
-0.09517519
-0.07285318
-0.07522485
-0.07803341
-0.1111262
-0.09629345
0.09636458
0.04361696
0.03785457
0.01621081
-0.01669905
-0.006374062
-0.008605473
-0.04153195
-0.1157068
0.003847087
0.01995237
-0.01594696
-0.05237113
-0.01849926
-0.04510434
0.009148181
-0.03432574
-0.06298835
-0.02810257
0.05362376
-0.03591626
0.02249444
0.03086749
-0.00701696
-0.03279854
-0.04599817
-0.06598814
-0.01153603
0.02949512
-0.02010812
-0.01082242
0.0555729
0.02360171
0.03878607
-0.0126872
0.01206993
-0.03086077
-0.07124472
0.05028041
0.005109735
0.09245467
0.02037511
0.0166046
0.02482229
0.02430205
0.03433888
0.03413391
-0.006317924
-0.04208999
-0.006798024
-0.02032988
-0.007423896
-0.03261843
-0.005142704
-0.0129727
-0.03968054
0.004237276
-0.006012875
0.01998658
-0.002429134
-0.03489663
-0.0267715
-0.01929644
0.03188192
-0.009728767
-0.005769989
-0.002315275
-0.01657978
-0.07510297
0.02848165
0.02652157
-0.04054527
-0.03855332
-0.009537331
0.004915697
0.01677886
0.02090181
-0.01338693
-0.05368324
-0.05033028
-0.04503234
