16 16 3
0.02167537
0.001861365
-0.02602236
0.02419752
0.003757495
-0.004226458
-0.01822943
-0.03061335
-0.02126217
-0.01085349
-0.004656347
0.01048858
-0.08980046
-0.05843901
-0.003120529
0.01108071
-0.0702466
-0.1160623
-0.05472967
-0.04176354
-0.04448404
-0.1753542
-0.1215031
-0.1466308
-0.128976
-0.1967179
-0.1664831
-0.0228574
-0.08112264
-0.0332908
-0.02591021
-0.05993279
-0.01361281
0.03030814
-0.1003292
-0.01637431
0.01632928
-0.1215231
-0.06878085
-0.1066513
-0.0632507
-0.0467454
-0.02789873
-0.1235203
-0.1199625
0.03020706
0.1366041
0.02930823
0.05978538
-0.00825972
-0.0120467
-0.07814371
-0.08208432
0.02733178
-0.03311956
-0.01765978
-0.002769785
-0.01338411
0.003582972
0.0137248
-0.04777074
-0.02138239
-0.01887967
-0.007359252
-0.06593872
-0.003068839
0.01693076
-0.008945477
0.07877755
0.1001434
0.06144644
0.05112221
-0.000316866
0.001663929
0.001285974
0.001364995
0.0006974333
-0.0005420592
0.002049782
-0.00208869
-0.001127704
-0.09057227
-0.0199869
0.004725871
-0.03346141
-0.01728927
0.007188963
-0.03393279
0.02199081
-0.05544307
-0.06410793
-0.09797166
-0.03336089
-0.1296045
-0.2243399
-0.01332657
-0.08560147
-0.1230948
-0.04175279
-0.01150744
-0.06819317
-0.06522715
0.13457
0.2126325
0.1662968
0.0807197
0.2196442
0.2249454
-0.0421353
-0.05413662
-0.1212944
-0.05708251
-0.1552588
-0.09786377
-0.139305
-0.1160756
-0.1440682
-0.01966436
-0.01173183
0.04942756
-0.05060269
-0.1007149
-0.06802559
-0.1061332
-0.2194736
-0.2389762
0.1682103
0.1376112
0.113622
-0.03200572
-0.07427321
0.1540206
0.1444095
0.1561394
0.1322384
0.0006629864
-0.001723167
0.0009064484
0.0001399608
-0.001827669
0.000806898
-0.001274413
-0.0002754657
-0.0003724417
-0.01354559
0.00476811
-0.02594399
0.04401018
0.03506955
0.02874888
0.03133507
0.01814429
0.02561187
-0.002783223
0.09086945
0.06087254
0.1074785
0.0603745
-0.02710419
0.002941155
-0.06704661
-0.0036505
0.03375176
0.0001430474
0.0009693656
-0.03614299
0.02385987
0.06343045
0.02116601
-0.008466502
-0.003761116
-0.004824787
-0.0007535678
-0.05165327
-0.02714479
-0.01555143
-0.02735756
0.02665883
0.03695135
-0.02372476
0.1110348
0.07168716
0.05494817
0.09655259
-0.06166228
-0.1048421
0.06553704
0.0427268
0.07491268
-0.06413956
0.03917251
-0.0788178
-0.1204739
-0.0860227
0.02928132
-0.05925515
0.02864684
0.04707656
0.00223954
0.002300733
-0.01468704
0.01461173
0.02937778
0.01216365
0.003321579
0.01329626
0.004814745
0.03305223
0.005611688
-0.03917295
-0.04396059
-0.04383192
-0.01983554
-0.06144711
-0.04189337
0.01042898
-0.0004013375
0.0004517355
-0.0001877998
-0.0001876182
0.002121297
0.001375802
-0.0006761648
-0.00123983
-0.001835779
-0.04768302
-0.01096978
-0.02828935
-0.07810402
0.06094269
0.06826658
-0.1297541
0.05906492
0.03323639
0.005413694
0.2383022
0.0241983
0.3095632
0.105076
0.1008074
0.1038466
0.2000116
0.02316367
-0.01228511
-0.03375907
0.00766135
-0.0786693
-0.06219524
0.01062775
0.002300832
-0.04461556
-0.01508605
-0.07362156
-0.04906094
-0.06889077
0.0134367
-0.09681702
-0.01322574
0.02037285
-0.02695019
0.001278871
0.04998033
0.1211173
0.007880057
0.148059
0.2012528
-0.1069402
0.05282198
-0.05858573
-0.08318099
0.006566101
-0.0613558
-0.0189385
-0.02436442
-0.1292447
-0.09483615
-0.05001289
-0.02434842
0.003408093
-0.001067662
0.0004311298
-0.002396785
0.001733832
1.855862e-05
0.0009425508
0.002082791
-0.0007360629
-0.00199932
-0.009222096
-0.0006880346
-0.01848545
0.00224887
0.0005366124
-0.006425707
-0.007934684
-0.00693274
-0.01074677
0.006972311
-0.01079224
-0.03291677
-0.008840913
-0.007528044
-0.0455584
-0.01345167
-0.03918371
-0.03098759
-0.007532695
0.04957737
0.02513234
-0.02166096
0.01097979
-0.001577475
0.02752772
-0.01197532
-0.0241152
-0.02463121
0.02358894
0.01614605
-0.01520105
-0.02161972
0.006047015
0.03226569
0.007431361
-0.03803107
0.03723392
-0.04747806
0.01618487
0.03385862
0.04172745
-0.01154179
0.03465893
0.04031652
0.01222328
-0.08812794
0.005835504
0.05319211
-0.003150905
-0.07590739
0.008481412
0.04763338
0.0171092
-0.05246404
-0.006021488
-0.01596691
-0.02234539
0.0003364401
-0.003514844
-0.01216016
-0.001599725
0.001988275
-0.002455599
-0.02446501
-0.03489238
-0.05207062
-0.001587103
-0.02003488
-0.06203601
0.04473756
0.002286136
-0.04213324
-0.0003455104
0.001419529
0.0007207973
-0.002164824
-0.001967633
0.0007227554
-0.001136663
-0.001118727
0.000847931
-0.01025849
-0.01231135
-0.02241837
-0.0151509
-0.04114696
-0.01767147
0.02984444
-0.05480291
-0.03536363
0.05070292
-0.03383323
-0.02317244
0.02778623
0.006286982
-0.01458672
0.03467905
0.008613866
0.02312301
-0.02580034
-0.004280001
-0.002323311
0.05968723
0.0971268
0.07364292
-0.03301198
-0.05580688
-0.05098728
0.0006013263
-0.0106521
-0.006220009
-0.009463814
0.002993598
-0.0009413615
-0.05747633
-0.009303792
-0.05118654
-0.03278371
0.05730554
0.04191666
0.006378166
0.05500507
0.0302063
0.007420639
0.002151819
-0.04249433
0.05140438
0.04371934
0.04553314
0.01117646
0.02438884
-0.002551122
0.05919157
0.05896862
0.04465021
-0.001382815
-0.002041137
0.003056234
-0.002646099
-0.0003926294
-0.0004965428
-0.002317339
-0.003812836
-0.0004321523
-0.004999965
-0.009155756
-0.003159374
-0.002686243
-0.006066609
0.004609626
0.001584381
-0.00650683
0.003344663
-0.003945048
-0.007631169
-0.01207481
-0.01665857
0.0173957
0.0007146485
0.00866065
-0.005961186
-0.01108011
0.02056391
0.02269537
-0.006080138
-0.001482116
0.03607669
0.006102882
0.01259875
0.01711414
0.03687157
0.008616748
0.01240782
-0.01865057
-0.02154117
0.02391499
0.008737673
0.00312069
-0.03814527
0.05665732
0.008990939
-0.002579916
0.02351052
-0.002896963
0.008402329
-0.02634485
0.002566158
0.006418731
0.006149823
-0.003331746
0.02177652
-0.03401705
-0.04283971
-0.01302988
0.05045359
-0.04195611
-0.08031012
0.0398629
0.008456935
0.007703992
0.005714464
0.009910872
0.009198276
0.01056391
0.008048931
0.003551442
-0.002108617
-0.005279424
-0.003915992
-0.0108717
0.0006474853
0.004860313
-0.006541184
-0.02130982
-0.01633894
0.0004152259
-0.001298134
0.002268205
-0.001557041
0.001234922
-0.002446558
-0.002338664
0.002093077
-0.0008359625
-0.003028932
0.04354669
-0.001271061
-0.02025589
0.003633809
0.03151655
-0.01109511
-0.01146606
0.01019102
0.006751892
0.06930009
-0.06877894
-0.01775956
0.02237605
-0.01686658
-0.03187688
-0.01322421
0.01657583
0.02902183
0.02658812
0.006858263
0.001721073
-0.01891308
0.003415191
-0.0157845
-0.02495223
-0.00261914
0.005856256
-0.03511862
-0.02568536
0.01749546
0.01215335
-0.02850646
-0.06186276
0.05590102
0.01416919
-0.001232855
-0.02289212
0.001596124
-0.01032959
-0.02239637
0.01981317
0.03667688
0.01334225
-0.007232905
0.001242854
-0.01268375
-0.006798129
0.03008826
0.006212194
-0.02061679
-0.0114174
-0.01713404
-0.01109892
-0.02249136
-0.001757822
-0.0006667506
-8.944692e-05
0.0005828149
-0.001941335
0.001346693
0.001073589
0.001685068
0.002899925
0.02796075
0.0205016
-0.001260571
0.03689291
0.05307233
0.01770999
0.02258507
0.04280236
0.01553424
-0.0758776
0.01476524
-0.05763843
-0.06891835
-0.0990216
-0.08244008
-0.07258846
-0.1159586
-0.0823926
-0.05993363
0.06460507
-0.02858596
-0.002629562
0.05412977
0.0882402
0.0175537
-0.01712045
0.06928457
-0.0124657
-0.002696859
0.03738389
-0.001659451
0.01893344
0.0364245
-0.0156516
0.02115095
-0.01434221
-0.0781278
0.02599398
-0.09486351
-0.03386907
0.0765224
-0.2006371
-0.03636078
-0.08561683
-0.1675442
-0.1097054
0.01340282
-0.0487628
-0.05627459
-0.08935364
0.006369629
-0.1276593
-0.03437488
-0.08377136
0.006242467
-0.00162562
0.0007383334
-0.01315632
-0.00129389
-0.008913826
-0.008256497
-0.01476653
0.01605782
-0.008887066
0.04873124
0.04589425
-0.05540121
0.009968597
0.01487824
-0.004640404
-0.01900921
0.01898271
-0.002330374
0.00122559
-0.002744764
-0.002555699
-0.002253738
-0.0001502566
-0.001299725
-0.002762041
-0.002780021
-0.01553069
0.1691028
0.1361566
-0.004840098
0.3054842
0.1648286
0.0242095
0.2288091
0.1286183
0.003737143
0.08644548
0.006245899
0.05651719
0.2147671
0.1421833
0.1233762
0.1191819
0.07349893
0.03312204
-0.004911486
0.027661
-0.06671047
-0.01246814
0.003979614
0.05468206
-0.009970417
-0.03552008
-0.0890734
-0.08382428
-0.03792773
0.03222387
0.02828783
-0.0380269
-0.01758096
-0.04150679
-0.05126925
-0.009801746
-0.01458351
-0.01379266
0.07482661
0.08620656
-0.08897121
0.06465167
-0.02535754
-0.1295649
0.05971607
0.005035956
0.01507246
0.001280316
-0.08131541
-0.01580327
0.08698756
0.003991892
-0.0004944655
0.004441622
0.0006528847
-0.0005066167
-0.002656645
0.001644707
-0.00217903
-0.0007656815
0.003061275
-0.002253815
0.003966894
0.01245986
0.01278544
-0.0006394329
0.01149857
0.0202815
0.01425336
0.01418902
0.02103616
0.03664731
0.03452518
0.06288069
0.06344201
0.04469531
0.008668358
0.05773365
-0.007315523
-0.02553517
-0.006725738
-0.002469043
-0.03256966
-0.01733184
0.02546243
-0.04257841
-0.04692677
-0.004644123
-0.008642676
-0.001903477
0.01458698
0.01498148
-0.03923029
-0.02309084
0.01513101
-0.07707477
-0.03109886
0.004657347
-0.02582542
-0.06865982
3.105831e-05
-0.06620958
-0.09139813
-0.005931092
-0.03266539
-0.05212926
-0.03210832
-0.01724168
0.04689498
0.00620993
0.004471563
0.03378404
0.07563394
0.009151384
0.03317314
0.02373741
0.02410673
0.01203496
0.01363837
0.02006431
0.01902729
0.01271391
0.02526136
0.01530923
-0.005021228
0.05731969
0.02921368
0.03131726
0.04787111
0.05956082
0.0122662
0.04256486
0.0472737
0.07423108
-0.003348198
-0.002037542
0.001714971
-0.0002057362
-0.0002230503
-0.002009922
0.001521563
-0.002494202
0.0002212138
0.02631789
-0.05903148
-0.02019101
0.008532641
-0.05781429
-0.006339998
-0.02370611
-0.03338892
0.0004108177
0.04520353
-0.03559318
0.0291524
-0.03474147
-0.07293944
-0.03047905
-0.05370635
-0.05504196
0.01762487
-0.01623882
-0.03640056
-0.02565668
-0.02487069
-0.0377541
-0.02611768
0.004395026
0.02034519
0.02113562
-0.08999032
-0.0154997
0.06850491
-0.004990892
-0.03156551
0.02670918
-0.009173341
0.03809503
-0.06723471
-0.05759917
0.01796338
0.04053313
-0.03136881
0.03266321
0.0163192
-0.008195172
-0.01048624
-0.02873759
-0.0251807
0.007849172
0.001431729
-0.00387778
-0.006992898
-0.00416863
-0.03514405
-0.005077038
-0.008876845
0.0001006583
0.0002493392
-0.002596242
-0.001866432
-0.003351259
0.002361179
0.0006393318
0.003124146
-0.001452843
0.005113168
-0.01180562
-0.0005458177
-0.01245283
-0.01666101
-0.01681609
-0.01619103
-0.04218829
-0.03224268
-0.05302986
-0.02331398
0.0219601
-0.0480944
-0.02524074
-0.01162151
-0.01840139
-0.0007018976
0.05275917
-0.04403313
0.01655466
-0.03395661
-0.04247573
-0.0003887571
0.02745645
-0.05402965
-0.06538215
0.01376178
-0.04689589
0.02679722
0.04078362
-0.02822529
-0.01618385
0.06082868
-0.00836506
-0.08974005
-0.09584273
-0.06019496
-0.0166311
0.03536969
-0.03239933
-0.03087375
-0.06141816
-0.02913751
-0.04491625
-0.0595092
-0.02264623
0.06840201
0.08309287
0.05694377
0.02629055
0.06060317
0.1528423
0.03498094
-0.02053234
0.003094345
0.01355519
0.02793112
0.00125809
0.01085946
0.02498534
0.01043873
0.01361587
0.02032129
0.02942554
0.07420335
0.04924871
0.005117166
0.09048244
0.1287619
-0.03612622
0.01041379
0.06551406
0.001186463
-0.00106792
0.0002141451
0.0003940127
-0.0003005414
-0.003483298
0.0001291651
-0.0004057368
-0.003201254
-0.06944446
0.00183868
-0.01668699
-0.07609285
0.02674147
0.02974542
0.007449165
-0.007152124
-0.00850365
0.05479066
0.02060195
-0.06674834
0.02269042
0.03500702
-0.01700344
-0.00902397
-0.01689948
-0.08094528
0.007517041
0.01619021
0.004537256
0.03747763
-0.002201538
0.01688733
-0.01687673
-0.04226767
-0.08218234
0.08192423
0.0513745
0.04764829
0.1193443
0.1759737
0.05062849
-0.02922263
0.05985507
0.1559137
-0.007516525
-0.01189304
0.0574738
-0.003945875
-0.07702612
-0.0893281
-0.00947092
-0.1060306
-0.1015724
-0.01415522
-0.005389427
-0.003322131
-0.01693273
-0.02145352
0.002260526
0.01075658
0.008028548
0.006774139
-0.0007237661
0.002247263
-0.002522137
8.466316e-05
-0.001842349
-0.0003110185
-0.0005325744
-0.001444927
-0.001901014
0.004796292
0.02522204
-0.007936059
0.01022695
0.001109081
0.00136614
-0.00386305
-0.03716752
-0.02577035
-0.02159153
-0.02760023
0.09282592
0.06556521
0.1553196
0.1209342
0.0247879
0.08747052
0.05203193
0.0262736
0.04975553
0.03692735
0.04569566
-0.03396185
-0.06917021
0.006079704
-0.05358777
-0.07803155
0.07609109
0.0432439
0.002180309
-0.08301418
0.01583779
0.004227798
-0.04315609
0.0117626
-0.004697703
-0.001574979
-0.06006294
0.003479322
0.09851913
-0.008713544
-0.05947382
0.007367757
0.01485683
-0.09717705
-0.002200302
-0.0429353
-0.08847743
-0.1502379
-0.02586605
-0.01041989
-0.04806677
0.04711897
-0.001773066
-0.0008345593
0.02760309
0.05824415
-0.007418277
0.04184428
0.06860024
-0.02874973
0.0171382
0.007326568
-0.08564346
-0.1089578
-0.1419753
-0.004566489
0.02440808
-0.04832089
-0.06976219
-0.06071917
-0.07416256
0.001409776
0.002566485
-0.001655704
0.0007063188
-0.002660858
0.002432781
-0.00273663
-0.002965534
-0.001683779
-0.01791062
-0.01150263
-0.05025248
0.05308321
-0.06506855
-0.02129243
0.01122024
-0.0005024594
0.03909741
-0.04220769
-0.01490609
-0.04975462
0.09820752
0.01938293
0.06798535
0.01100604
0.09720883
0.07207904
-0.01605367
0.01141975
-0.00782131
-0.009707971
0.04514764
0.05746496
-0.06492754
-0.05167711
-0.1096286
0.04649287
0.02842011
0.1168187
-0.06791528
0.1256744
0.07318858
-0.05998934
-0.03205252
-0.0142166
-0.04680623
0.1833539
0.2095399
0.0842595
0.3031723
0.2674663
0.1063952
0.2592477
0.1061391
-0.05095434
-0.1145583
-0.0756369
0.07737274
0.07690039
-0.02215871
-0.05895738
-0.01830128
-0.04680838
-0.001886026
0.0001330133
-0.0001600962
0.0009502759
0.002022253
0.0005742051
-0.002847088
0.002542135
0.002656425
0.02350082
-0.02209797
0.00910783
-0.0006887785
-0.04669435
-0.007433158
-0.008256255
-0.02919077
-0.006082686
-0.04012991
-0.03784476
0.09208766
0.01966654
0.1031435
0.05503854
0.06615727
0.001886289
-0.01497217
0.00226231
-0.01577314
-0.0007473109
0.02388255
-0.02789994
-0.003799679
-0.005153134
-0.01044137
-0.007694938
-0.01274897
-0.11898
0.01872499
-0.05731285
-0.06633407
-0.1249372
0.001661703
-0.05644384
-0.07419602
0.1812608
0.08235858
-0.02705481
0.08573843
0.01978067
-0.02939049
0.05399003
-0.01473206
-0.008612701
-0.05091892
-0.1244494
-0.07171971
-0.02709936
-0.06749542
-0.173579
-0.05989264
-0.05380943
-0.1467911
-0.0293595
0.005866676
0.01885742
-0.02719935
0.002648109
0.01369692
-0.01423371
0.007603076
0.02883616
0.0409347
0.08783054
0.06697349
0.09068022
0.02817849
-0.01602168
0.08462366
0.001354771
0.006058837
-0.001402386
-0.001222343
0.002399682
-0.001225208
-0.002196197
-0.001315633
0.0007337511
-0.003588924
0.0003835816
-0.09246636
-0.07839808
-0.07480643
-0.1220168
-0.1690269
-0.1574287
-0.1751637
-0.1826961
-0.2109481
-0.03792136
0.009135023
0.06890334
-0.1042597
-0.137906
-0.0506345
-0.108991
-0.1155099
-0.1342577
0.05033651
0.03068822
-0.05938254
0.01792446
-0.07756984
-0.09278237
0.0395386
-0.02204456
-0.03490206
-0.07570685
-0.08673887
-0.1014778
-0.07587485
-0.1389552
-0.1809359
-0.0272837
-0.1012838
-0.08560889
-0.141977
-0.001911464
0.01295537
0.00753966
0.08833621
0.05739504
0.06494623
0.02224642
0.01548985
0.03072887
-0.02592816
-0.07775734
0.03620183
-0.0390979
-0.1293868
0.02455983
0.01891648
-0.05687007
0.002220528
0.0004392297
-0.0007887894
0.001447667
0.001242295
-2.254817e-05
0.001695899
-0.001326723
0.001841813
-0.002447104
0.008541835
0.01463558
-0.002743968
0.01173293
0.0116131
0.01313259
0.0068568
0.01093388
-0.00787688
-0.03699
-0.005331332
-0.02893136
-0.01055937
0.006226301
-0.009941118
-0.02511345
0.01097199
0.01792389
0.02549735
0.04823938
0.01488407
-0.01983714
0.007834728
0.01087505
-0.02853439
-0.02376546
0.01177965
-0.03430047
-0.008812687
-0.02048177
-0.04585465
-0.0573375
0.01177666
-0.02374367
-0.01456535
0.03261713
-0.02831464
-0.006230857
-0.03772799
0.002683648
-0.01610291
0.03288477
0.01943749
0.005491081
-0.009076706
-0.03746247
-0.1037651
-0.0002447318
-0.06254397
-0.1149381
-0.008664232
-0.04380468
-0.08090398
-0.01744848
-0.01392221
-0.0192838
-0.02790575
-0.02567285
-0.01853511
-0.02285808
-0.01314724
-0.01498125
0.008219548
0.01057923
0.04047171
0.01639101
-0.01358353
-0.002629953
0.04227467
0.02606375
0.04703528
-0.002447257
-0.002019789
-0.00114921
4.523272e-05
0.0009616093
-0.004587632
-0.001591661
-0.002390718
-0.002141263
-0.02943183
-0.03080007
-0.003956598
0.002581481
-0.06124607
-0.04435677
0.01187677
-0.06092741
-0.02784178
-0.02588637
-0.01255747
0.02051474
-0.03548617
-0.09422557
-0.03667755
-0.006455299
-0.06851225
-0.0315255
-0.004156522
-0.02305425
-0.02092279
-0.01801788
-0.03908696
-0.03354228
0.03666161
0.009834391
-0.00544929
-0.01239522
0.0280113
0.03205432
-0.09398194
-0.0259494
-0.03949466
-0.05219008
-0.08088193
-0.01302313
-0.005524827
0.02388297
0.01736346
-0.02534206
0.02042267
0.01880605
-0.01257877
-0.007302705
0.01853768
0.01194615
-0.004723819
-0.0231654
0.008116363
0.01107455
-0.02639775
0.0109469
-0.0299715
-0.03544064
0.002159361
0.001862767
-0.002704073
-0.0017565
0.002642771
-0.002636365
-0.002724129
-0.0008633434
0.001617537
0.006455913
-0.01065899
0.002537984
0.004068885
-0.007839414
-0.0002311461
0.0004934702
-0.005049229
-0.003731704
-0.02490248
0.01240633
0.01427719
0.01052528
0.03856815
-0.008350493
0.01413254
0.0008470813
0.01693835
-0.04076929
-0.002608959
-0.01322998
0.006491194
-0.04377216
0.01058417
0.03313357
-0.03831645
0.008683492
-0.002137772
0.04021218
0.02976878
0.03069612
-0.00639068
0.008901757
0.01616779
0.04533087
-0.0168304
0.0125651
0.004476215
-0.101727
0.01957156
0.01157393
-0.07436431
-0.03214398
0.001575362
0.0223028
-0.006925158
0.02254406
-0.03642114
0.04462526
-0.01505667
-0.02184179
0.002939825
0.02600007
-0.05246068
-0.01058198
0.007316131
0.01442202
-0.02388853
-0.008537173
-0.005939456
-0.01933204
-0.0172392
-0.009153323
0.001382192
0.01675355
0.01632453
-0.01484075
-0.01193313
0.004937862
-0.001467986
-0.02167119
-0.02269444
0.001953574
-0.0009302207
0.001868062
-0.002497942
-0.001016339
-0.0004207649
-0.0004424759
0.0004970299
0.001289229
-0.01697492
0.02250044
0.01594276
-0.0533928
0.05205652
0.01602014
-0.03883747
0.01661676
-0.007497174
-0.05821445
0.008820276
-0.04154607
-0.01258552
0.02765813
0.02429417
0.0172731
-0.01247676
-0.01163638
-0.002000196
0.009645936
0.0149513
-0.04715843
-0.04511559
-0.02419673
0.03661561
-0.005770275
-0.01838017
0.05172964
0.02664351
-0.03568826
0.01621579
0.03242883
-0.04643681
0.02805822
0.02708185
0.05722497
-0.02408917
0.03838329
0.01985721
0.04975206
0.04289233
-0.03625515
0.04792946
0.005126607
0.004709375
0.01146148
-0.02018529
-0.01826345
0.01013526
0.005727597
0.02211813
0.006226844
-0.005872129
-0.01067859
-0.001379947
0.004006689
-0.0002366774
-0.00178517
-0.0002245521
0.0007517336
0.0004568631
-0.0005280029
0.004982246
-0.03920599
-0.02284366
-0.04136039
-0.05186817
-0.01719609
-0.031587
-0.02301746
-0.01304073
-0.01944751
0.0121724
-0.05146505
-0.05628842
-0.007431848
-0.1000467
-0.09633254
-0.01948009
-0.0946506
-0.06721161
0.0005091142
0.02406887
0.03453692
0.167765
0.05872376
0.04571288
0.1416836
0.08473587
-0.02833086
0.03921799
0.1009237
0.09452128
0.214655
0.1633956
0.1005582
0.1916893
0.253866
0.06776316
0.0642999
0.1410931
-0.05159594
-0.125435
0.1659513
0.09680277
-0.1040797
0.07885556
0.1696694
0.1311499
0.126822
0.1894664
0.2891907
0.2459151
0.1958381
0.259509
0.3331897
0.1637085
0.06934555
0.08151289
0.09425937
0.01721856
0.01551696
0.04140313
0.02458181
0.009758355
0.02545993
0.0322518
0.03108937
0.03896337
0.09138083
0.08367585
-0.0007190022
0.1223604
0.1033918
0.02468142
0.000241212
0.001732749
0.0001876
0.0001298441
-0.000775224
0.002563526
0.002063225
-0.001641388
-0.001118675
-0.114341
-0.01130491
-0.05827745
0.06468204
0.01660367
0.1275214
0.09090599
-0.01342131
-0.001052797
-0.02750725
-0.02554232
-0.02969847
0.002613147
0.04558576
-0.02170227
0.1427953
0.01111194
-0.03220236
0.04448226
0.07735047
0.03320518
-0.01313188
-0.006784489
-0.04415109
0.06496519
0.08540119
-0.02477125
0.1074729
0.15992
-0.04022983
0.1191417
0.3474094
0.1550259
0.06681723
0.2657046
0.2460218
0.02568249
0.043339
0.04386582
-0.009305928
-0.06764551
-0.004169255
-0.02374865
-0.05852742
-0.002751911
-0.07414129
-0.08611554
-0.03277817
0.08359415
0.1310011
0.1645496
-0.01061342
0.01855164
0.07535049
-0.0001322822
-0.001280738
-0.001658501
0.0007377572
-0.001742367
0.002243241
0.001949004
-0.001568374
-0.0009121729
-0.01299463
-0.02732969
-0.01616781
-0.01243293
-0.03607441
-0.01755778
-0.01261296
-0.009802517
-0.01668039
0.0171082
0.05355752
0.0553504
0.04951506
0.04958477
0.07766297
0.04495599
0.07399553
0.05482733
-0.07218864
0.01269604
0.09111982
-0.008339252
-0.03248965
0.0246133
0.01303828
-0.04317915
0.01819836
-0.03063512
-0.09202708
0.01872938
-0.03535356
-0.1051452
-0.04566508
-0.04450843
-0.1011004
-0.06360716
0.0368418
0.008754984
-0.1188781
0.01875504
-0.01579414
0.03176849
0.05206609
-0.001637304
-0.01989575
-0.00971874
-0.1057594
-0.03771629
-0.06827116
-0.1028458
-0.1125048
0.02606562
-0.1040211
-0.09056491
0.0234835
0.04429219
0.0330062
0.03969605
0.04744674
0.04218912
0.0341372
0.05025799
0.03690225
0.0079459
-0.02039414
-0.01527846
-0.0125735
-0.06347438
-0.07509524
-0.05522998
-0.04215671
-0.0529463
-0.0005519504
3.875609e-05
0.0004393398
0.0001248699
-0.0007896388
0.0002364288
0.001200375
0.000224195
0.0005286773
0.01507646
-0.01253826
-0.02096412
-0.01344813
-0.04244777
-0.1167375
0.03617103
-0.02469538
-0.08795577
0.0320822
-0.06164188
-0.003370946
-0.02785859
-0.1475016
-0.08921063
-0.04140224
-0.07677237
-0.08910424
0.01301299
0.02154944
0.0598712
0.01070447
0.002642721
-0.005755708
-0.08574222
-0.06448462
-0.04964627
-0.05282201
-0.1140302
-0.02075042
-0.1585332
-0.09626159
-0.1171519
-0.1039848
-0.152135
-0.118991
0.1184521
0.007030881
0.01416241
0.08648152
0.01734509
-0.007044249
0.01845219
-0.02712768
0.06272893
-0.09750821
-0.03896038
-0.04194403
-0.06120401
-0.006076015
-0.01338018
-0.06408312
-0.01051947
-0.01738873
-0.003191753
-0.00621982
1.968646e-05
0.003604816
0.0001588966
-0.001100518
-0.0009135202
0.002172206
0.001423195
-0.01229866
0.002135119
-0.0392872
-0.02003005
-0.01369883
-0.01630424
-0.03715824
-0.02527956
-0.02572292
0.01235
-0.1113037
-0.065715
-0.0582209
-0.03774312
-0.02404247
-0.008124948
-0.04958354
-0.02253594
0.02897876
0.03158072
0.05436489
0.06383826
0.155349
-0.05193501
-0.0465503
0.04750768
-0.03303173
-0.007575648
0.1129594
-0.0001497722
0.07581352
0.001985576
0.0779264
-0.02599107
0.0161055
0.04143605
-0.06189677
-0.08298495
0.2956449
0.05625355
-0.0808655
0.1410923
0.01271961
-0.02096234
-0.04420073
-0.02622744
0.0430988
0.1330472
0.004082959
-0.02880551
0.06703116
-0.04007342
-0.04191099
0.07045205
0.009271702
-0.03761397
-0.01409567
0.02657982
-0.008461269
0.004961668
0.01033326
0.01288613
-0.007491383
0.01960131
0.0370365
0.07780761
0.02584435
0.05089662
0.05365519
0.1141205
0.1215974
0.04378958
0.0003379322
0.001869904
0.0006162208
0.001083592
0.001099351
-0.0004836854
0.002776747
-0.0009163382
-0.00210715
-0.05177845
-0.04761833
0.02328465
-0.04267301
-0.08737744
0.009681708
-0.1341745
-0.04158009
-0.007200089
-0.06289271
-0.0547616
-0.004805404
-0.1353389
0.118499
-0.04646792
-0.1174938
0.02865435
-0.009295388
0.06838636
0.03982207
0.01955333
0.01572381
0.001059445
-0.08331223
-0.01502691
0.04336644
0.01523702
-0.07333335
0.01816088
0.00727179
-0.01198008
-0.05189484
0.08049102
-0.03625567
0.01630924
-0.009805404
-0.01572746
-0.05472603
-0.06463218
-0.100028
-0.01223118
0.04958088
0.01672178
0.05217908
0.06633744
0.01111745
0.03777875
0.02745364
-0.05057962
-0.001979065
0.03214641
-0.03150658
0.02473197
-0.03661889
0.0002306407
-0.0003664142
-0.0002569306
-0.002129377
-0.0007571297
-0.002710689
0.0006760944
-0.001272058
0.001611902
0.01902833
0.01354552
-0.005562511
0.03351955
-0.007318197
-0.02724368
0.02801985
-0.02092399
-0.04541781
-0.1476761
-0.03426127
0.00689231
-0.08724857
-0.03853442
0.0431883
-0.02572331
-0.001616361
0.05704878
-0.08339514
-0.04192241
-0.03960375
-0.00726846
-0.03536921
-0.04414001
0.02417587
-0.0164137
-0.04164698
0.02843626
-0.09864873
-0.08178598
0.08748271
-0.002512285
-0.0141393
0.04410438
0.02818951
-0.01235836
0.01058457
0.03114323
-0.100913
0.001973497
0.06072349
-0.03951076
-0.1450751
-0.009558133
0.03681624
-0.03283117
-0.1042932
-0.02872448
0.007763062
0.05140953
0.05529014
-0.02589385
0.06381421
0.07110318
-0.05002726
-0.04593419
-0.02124453
-0.06207218
-0.0690183
-0.01880629
-0.0517535
-0.07757532
-0.001400928
-0.01704057
0.01701154
0.1444259
0.01982887
0.001547109
0.01717844
0.07380329
0.05808633
0.01370421
0.004191213
-0.002143597
0.001440071
0.001926664
0.001347828
-0.0003645197
-0.0003819873
0.001590722
0.001353377
0.02661578
0.003649932
0.1855248
0.143249
-0.02201373
0.1365812
0.1383788
0.05710661
0.07123777
0.07967574
0.2470042
0.2190374
0.1437251
0.21243
0.3154884
0.1723055
0.3639293
0.2875844
-0.05250775
-0.03738103
0.01204181
0.07607038
0.01921053
0.04123763
0.128129
0.06370875
0.004203216
-0.04193448
0.003651758
-0.0596276
0.03711596
0.1104852
-1.611817e-05
-0.02531249
0.01114381
0.01991699
-0.02287048
-0.0234647
-0.07097809
0.1028621
0.1520867
-0.02901542
0.08174114
0.09030086
-0.03484921
0.0698972
-0.03615385
-0.07167467
-0.01703003
0.03145063
-0.05293981
0.02612364
-0.002385645
0.000838318
-0.000386789
-0.0002810274
-0.0003595803
-0.001110515
0.003477839
-0.0005131943
-0.0005143865
0.0004855831
0.002163883
0.01010168
-0.01052109
0.01082518
-0.01003103
0.0002661775
0.002414191
0.003667376
0.0007177614
-0.001591
0.006737589
0.03133642
-0.002182946
0.01158813
-0.003487132
0.003835161
0.02261463
0.03069964
0.05973173
0.02074295
-0.02686371
-0.00161074
0.03489704
0.0264448
0.04237028
-0.005274392
0.03717094
0.0644317
0.008689172
-0.03607634
-0.02852125
0.01408364
-0.007562994
-0.03720206
-0.04095989
0.01027453
-0.01069357
-0.03158445
0.07738429
0.0295819
-0.05675677
0.02191829
0.08342929
-0.06753463
0.006548477
0.05765494
0.05709518
-0.01929596
0.001301669
0.05697727
-0.007625744
-0.05541628
-0.08837225
-0.03990338
-0.02561638
0.00900555
0.01895482
-0.0002968745
0.01266734
0.0141889
-0.003764321
0.02376315
0.02256834
0.01763615
0.02470073
0.03201843
0.05078429
-0.02327821
-0.02086622
0.0004129479
-0.01790822
-0.02587765
0.003153963
-9.579329e-05
0.001077066
0.000328868
0.002171925
-0.002524429
0.002054039
0.00181704
-0.001776313
0.002613813
0.01254376
-0.02487673
0.03223626
0.01241514
-0.04112232
-0.01117006
0.02125575
-0.03322643
-0.02213486
0.04519711
0.04758116
0.05391075
0.02648324
-0.06138756
0.03722342
0.05526554
-0.06873734
0.02972482
0.02018729
0.02321797
0.03829554
-0.03515172
-0.04505125
-0.04736096
0.00470706
-0.01685381
-0.01029831
0.05492635
0.0406431
-0.03918249
-0.005550233
0.01376669
-0.01227542
0.00434058
-0.06767625
0.005328798
0.0352052
-0.0225623
-0.02704961
0.04811043
-0.04674473
-0.03131322
-0.01004026
-0.03121476
-0.00473371
0.06202176
0.03959717
0.03277127
-0.002211888
0.03475777
0.06331989
-0.02671576
-0.07297964
-0.02671975
0.002390294
0.002550291
-0.0002184068
-0.001331128
0.003073315
0.001287774
0.0005626787
0.0004281685
0.0004073703
