16 16 3
-0.0276386
-0.03058357
-0.03433285
0.006206197
-0.02970972
-0.01162106
-0.03391087
-0.05500538
-0.04168214
0.01516218
0.01593305
-0.03073698
0.008539787
0.03405993
0.01082375
0.003571256
0.04835934
0.01249268
-0.07035336
-0.06678414
-0.02215828
-0.07586948
-0.09699702
-0.06575467
-0.05433681
-0.09130074
-0.08113839
-0.03751932
-0.03955308
-0.04037512
-0.03454551
-0.04591369
-0.05412165
-0.0485376
-0.04694464
-0.04000997
0.03336798
0.06281093
0.003879891
0.01901606
0.04032927
-0.01427859
0.01610508
0.03413715
-0.03192621
0.02241053
0.03365511
0.005270033
0.02778775
0.02975827
-0.003283179
0.00704904
0.01941753
-0.007845107
-0.0125592
-0.01859522
-0.04987907
0.01653578
-0.007130034
-0.04704507
0.05827774
0.05758099
-0.009049932
0.009146676
0.01589863
0.03877369
0.004216854
0.006216427
0.01990146
-0.0139377
-0.03649886
-0.03752324
0.01961222
0.0005354926
-0.02116798
0.03676457
0.02646556
0.01361463
0.007947297
0.01995625
0.007500387
0.006708411
-0.02379186
-0.02551701
-0.01095501
-0.03244283
-0.03287836
-0.01324154
-0.03782755
-0.04966895
-0.02000113
0.008215971
-0.002783458
0.01572381
0.004878362
-0.02336709
-0.0436311
0.0002789854
-0.05490531
-0.01177446
0.03162498
0.04013889
-0.007849265
-0.007838968
0.0187786
-0.05307961
-0.03010652
-0.04078234
-0.05418989
-0.03260576
-0.03200203
-0.06196395
-0.03054848
-0.03458101
-0.05585602
-0.02013088
-0.02239262
-0.06462998
-0.1055146
-0.0385389
-0.03727529
-0.05879493
-0.05268027
0.00499332
-0.04573326
-0.03836022
-0.001626029
0.005762766
0.008509021
0.03117056
0.02916215
0.03117956
0.01572883
0.04019492
0.03323742
-0.0326198
-0.01286812
0.04668785
0.0001289142
0.00303377
0.04137402
0.03039414
0.01170268
0.01621113
-0.02544503
0.003758383
0.03088965
0.01471361
0.02164526
-0.003929093
-0.01209901
0.004712618
0.01703431
-0.01947302
0.06547035
-0.04091106
0.01068209
0.04394416
-0.06899965
0.01857454
-0.005151921
-0.06829413
0.0636396
0.01256111
-0.07604014
0.07346753
-0.004171009
-0.05815777
0.02855613
-0.01280956
-0.003796541
-0.03992078
0.01249241
0.04323039
0.01144113
0.04950457
0.05250086
0.02070468
0.04810923
0.01579306
-0.03199491
0.01572921
-0.09938185
0.04302697
-0.035091
-0.08853681
0.07453304
-0.07851128
-0.06939946
-0.02751921
0.04087809
0.04145201
0.01124987
0.06468919
0.02369912
0.009297047
0.04512383
0.0005186329
-0.0659512
-0.07828242
0.02319016
-0.09340074
-0.01937667
0.07132437
-0.02287068
0.06287355
0.08202747
-0.02078825
-0.06114507
-0.0333479
-0.02733078
0.004233453
-0.02066972
0.004276939
-0.009599009
-0.0320455
0.04737511
0.03371651
-0.02292587
0.01123963
-0.022927
-0.04587552
-0.051073
-0.04685347
-0.01401233
-0.03512967
0.06757811
0.04929084
0.0341296
0.06755616
-0.01078286
0.02442767
0.01546607
-0.03352026
0.05542805
0.03964011
-0.05903251
0.07139782
0.007431526
-0.09121664
0.009042465
-0.00763387
-0.03704691
0.09620782
0.02790082
0.03074458
0.04140446
-0.02322714
-0.03377948
0.01537775
0.0629269
0.09498528
-0.02527293
-0.01810272
-0.007708063
-0.02327209
0.008778227
0.01358094
-0.01161464
0.03058723
0.002386655
0.001909801
-0.0527364
0.04533819
-0.08453413
-0.02023904
0.0864819
-0.06308445
-0.02723954
-0.0107634
0.007823396
0.02038618
0.002140324
0.04589584
0.01767733
-0.01598171
0.008260093
0.004582903
-0.01284531
-0.03895307
-0.0506962
-0.04588674
-0.06155045
-0.02043971
0.008959652
-0.05114077
-0.03022721
0.03532707
-0.02635368
0.009240163
-0.03147961
-0.0530091
-0.01662591
-0.05227733
-0.01515877
-0.04318326
-0.07632977
-0.08376819
-0.07823135
-0.009031515
-0.06673618
-0.04135234
-0.08100207
-0.07048917
-0.05793998
-0.04850667
-0.06288965
-0.01858447
0.02815087
-0.03960155
-0.02167113
-0.01992025
-0.03334096
-0.002182115
-0.02124116
-0.03121149
0.009503786
0.04197544
-0.02337556
-0.009925586
0.00558898
-0.02167458
-0.01965307
6.640268e-05
0.1960796
0.05695869
0.01801057
0.1407379
0.08348916
-0.001653284
0.06701838
0.1382952
-0.003127071
-0.03316286
-0.00933857
0.02163105
-0.02827105
0.002473753
0.02044561
-0.04559442
-0.01170333
-0.01861691
-0.06442321
-0.05576686
-0.03667115
-0.03839606
-0.00980308
-0.07648686
-0.02017188
0.02176243
-0.08582032
0.04710885
0.02635788
0.01948841
0.09527588
0.1070671
0.03172383
0.09545287
0.09309877
0.01087395
0.04858497
-0.02469635
-0.09217403
0.06072024
-0.005328385
-0.0586329
0.03326694
-0.01349857
-0.03151007
-0.00387604
-0.008293761
-0.04002324
0.009628059
-0.01141722
-0.02912878
-0.006364414
-0.03506437
-0.03262895
-0.0178872
-0.03704926
0.08418941
-0.03362649
-0.01092886
-0.00311042
-0.140956
0.02185881
-0.02754885
0.08110142
0.05758889
-0.06321807
0.1153023
0.0386605
-0.05617311
-0.001116086
-0.01064583
-0.08806527
0.003511488
0.01599853
0.05707407
-0.006615688
0.006863112
0.06850517
0.002957933
0.022562
0.08584675
-0.05265574
0.09603427
-0.09544097
-0.1100991
0.0617652
-0.003483408
-0.04351365
0.02371718
0.1084321
0.06088478
0.02754599
-0.04909323
0.07712448
0.02923743
-0.02759347
0.03535612
0.01931014
-0.02092482
-0.001734152
-0.005512212
0.003664429
-0.02176386
-0.06012176
0.005313855
-0.03700374
-0.03058275
0.01439216
-0.004059542
0.002560761
0.001870733
0.001714294
0.0007438787
0.002898471
-0.0001810998
-0.001080567
-0.000660084
-0.0007649853
-0.0008659427
0.0003766308
-0.0001625796
-0.001154443
-8.843034e-05
0.001591463
-0.003133512
-0.0003927201
-0.003689505
0.0005795234
0.0002188128
0.002426288
0.003659496
0.002991415
-0.001272344
0.0008003566
-0.0007716261
-0.001064182
0.0009842976
0.0001060169
0.002778122
0.0009325807
0.004744009
0.001587843
0.001244628
0.00188886
-0.0006889427
-0.002642355
0.0001319129
-0.001413775
-0.002483035
-0.00166965
-0.0006132197
0.002699
-0.0007416788
0.002615651
-0.001843734
0.001835851
-0.0010512
0.001020699
0.00114415
-0.001387338
-0.004549695
-0.002931556
-0.0001405288
-0.002317308
0.001204665
0.0002413882
-9.070394e-05
-0.002210164
-0.001617877
0.001680457
0.000993047
0.0003831513
-0.002117597
-0.003921244
0.001488961
0.003238922
-0.001941066
-0.002218196
-0.001192431
0.002356828
0.0004709162
0.001653127
-0.000371362
0.001247012
0.002231548
-0.0003183271
-0.0003698916
-0.0008286936
-8.134672e-06
-0.001779312
0.001210236
-0.001528397
-0.004941275
-0.0009596085
3.122534e-05
0.0001436693
-0.0009990366
-0.0008124665
0.0008498097
-0.002225032
2.742157e-05
-0.002547672
0.0009732826
-0.001691507
-5.628008e-05
0.001756699
0.0006419359
0.0002243679
-0.0002961626
0.0009385062
-0.0005034205
-0.001396858
0.001917208
0.002155642
-0.001094369
0.0005257659
-0.001177562
0.003648039
-0.003256442
0.001585765
-0.001475792
0.002162833
-0.0001801921
0.0005230209
0.002790985
-0.002641569
0.00089325
-0.003379845
0.0008778122
-0.0006498188
-0.004227987
0.00280288
-0.001213513
-0.001758142
3.379677e-05
0.001794174
-0.004235886
0.002067906
-0.001101652
0.00329499
-0.001658547
-0.002282938
0.0003879493
0.002703238
0.003691192
0.0006091642
0.004111869
-0.0001855788
0.0008765879
0.001560125
0.000706733
0.0008112403
-0.03637935
-0.014148
0.04124317
0.02676175
0.03292083
-0.02643459
0.02443829
0.03957415
-0.02702446
-0.02483752
0.01579186
-0.005654669
0.02164313
-0.01532141
0.001264578
0.03380533
0.05371146
0.01069638
0.01980565
-0.008777639
-0.02098838
0.0505595
0.00228348
-0.05426716
0.02526393
0.03444185
-0.0346937
0.02375264
0.01928333
0.01444493
0.00028782
0.03202271
0.01903158
-0.004953046
0.01140696
0.02422694
-0.01426156
-0.01849612
-0.008831869
0.01870445
-0.0350612
-0.03836783
-0.002759785
-0.03258616
-0.05761272
0.001765666
0.005446146
0.02990211
-0.02757947
0.03715432
0.03258748
0.0177608
0.01743978
0.009592185
0.004495142
0.06132817
-0.04550827
-0.01164244
0.0497215
0.06240316
-0.08376884
-0.007061531
0.004640069
-0.03029948
0.01347022
-0.009448863
-0.01131719
-0.01783983
-0.02623527
-0.0555241
-0.02750965
-0.0736483
-0.0158034
-0.01295966
-0.006813676
0.003864385
-0.01136361
0.02131003
-0.01457116
-0.009510331
-0.00339772
-0.01163225
0.01147925
0.006125422
-0.02842932
0.003566114
0.03105501
-0.04011907
-0.004240914
-0.01364573
-0.06155467
0.04687832
0.02209364
0.0764683
-0.02795575
0.04317199
0.1125259
0.05461375
-0.06120326
-0.08082028
0.008602556
-0.0822456
-0.019282
-0.03346439
0.00262259
0.03383236
-0.00804537
-0.04712069
0.02481178
0.02832705
0.04329759
-0.0002846414
-0.01592545
0.01211983
0.005775906
-0.03553237
-0.0148875
0.07697398
-0.03660988
-0.07032643
-0.01408249
0.09942872
-0.07615624
-0.1349535
0.01579604
0.157049
-0.01648679
0.02329802
0.03304925
0.03835417
0.01244814
0.04215118
0.01233908
0.01939858
0.0255142
0.00488306
-0.004505671
-0.03412449
0.07664438
0.04613209
-0.007651719
-0.01790594
-0.009702281
-0.0120238
0.01688326
-0.008926517
0.05648122
0.03027926
-0.01958619
-0.02847666
0.06606929
-0.01213088
0.02132115
-0.08707533
-0.08989601
-0.04091706
-0.06940895
-0.0869861
-0.02262765
-0.05431459
-0.0438375
0.02465557
0.01913778
0.004249117
0.02568845
0.02305032
-0.03066961
-0.02250835
0.02217583
-0.03540479
-0.03178499
0.01160482
-0.007347986
-0.0178587
0.02261545
-0.02373055
-0.05390142
-0.020741
-0.05898184
-0.07684505
-0.06222342
-0.05336285
-0.02844013
-0.06206628
-0.04510909
0.009264215
-0.03942188
-0.007605663
0.05092374
0.03471301
0.03249009
0.01754269
0.03355761
0.03887678
0.004854672
0.02414406
0.01119758
-0.0131896
-0.03074078
0.008232147
0.004823558
0.0143419
0.03929643
0.02894597
0.01128001
0.03579461
0.04576357
-0.02096345
-0.04694567
-0.03527131
0.04733196
0.003185481
0.02014101
0.0371982
-0.04674358
-0.05927263
0.004811439
0.02928831
0.005107077
0.02594887
0.0477372
0.03589448
0.02903853
0.03266839
0.004119636
0.00210246
-0.002996923
-0.0107236
0.01908681
0.01915
-0.007734543
0.005358445
0.001402759
-0.0133503
0.006208049
0.01790911
-0.02402755
0.05945538
0.01458082
0.02442997
0.008256933
0.01462439
0.007483688
-0.004319448
-0.02169677
-0.0289338
0.04633304
-0.02381556
-0.02240229
0.01174317
-0.003427844
-0.02982066
0.02399424
0.01787705
0.01454623
-0.01799889
-0.01869475
0.01052767
-0.04120167
-0.03523656
-0.005908508
0.0581021
-0.03625118
-0.04826422
0.0164912
-0.01870855
-0.03240829
0.01747245
-0.07369606
-0.07514419
-0.06959302
-0.02015053
-0.02922104
-0.0531701
0.01577111
-0.003706874
-0.01255889
0.01711788
-0.01011468
-0.01532349
-0.06785921
-0.01255316
0.03487971
-0.01264202
-0.02783348
0.0007075375
-0.05864068
-0.05996255
0.00386019
-0.07777075
0.09096646
0.1192072
-0.01238978
-0.0394782
0.04619654
0.09466306
-0.1068936
-0.04213052
0.0296513
-0.07008855
0.003290677
-0.02182964
0.04454923
0.01442674
0.04335611
-0.0380661
0.0155385
0.05010262
-0.02480577
-0.01836758
0.0178528
0.02863182
-0.08157421
0.0004884995
-0.0173294
0.01120868
-0.02087018
0.03871465
0.05126639
0.02283727
-0.02707552
0.001400997
0.04876272
0.04380774
0.01575533
0.1159536
0.05596472
-0.03508545
0.03975786
0.09631068
-0.01551377
0.04250995
-0.05225174
0.005472419
-0.08577537
0.01825817
-0.03775121
0.01715261
-0.04305286
-0.03663
-0.02876433
0.01911204
-0.08598234
0.09992375
-0.03540436
-0.03127728
-0.05526994
0.05575145
0.07319143
-0.04087545
-0.05740064
-0.02484108
0.03949755
-0.08670909
-0.01368478
-0.1048644
0.02765555
0.06834804
-0.03076397
-0.1092368
0.07797207
0.003153102
-0.08783266
-0.08651616
0.07085037
0.05669193
-0.03319181
-0.04257837
0.07031292
0.01231412
0.004176977
-0.07075827
0.006319101
-0.005887598
0.03458005
0.05893444
-0.03003572
-0.03672752
0.0004099345
0.1594395
-0.1659973
-0.1849023
-0.0344004
0.1811168
0.1090496
-0.1400521
-0.03502307
0.1063993
0.03116343
-0.2510421
-0.1969559
0.1902261
-0.06660909
0.002983033
-0.2041375
0.04160605
0.06691778
0.06210389
0.05016968
0.04880783
-0.01521844
0.03336595
0.1258653
0.01661753
0.03753781
-0.159091
-0.1190132
0.2661733
0.2100374
-0.06548814
-0.1928739
-0.2244742
0.1148695
-0.1016175
0.09240261
-0.07969499
-0.06861318
-0.07587519
0.04335993
0.06078878
0.0007356268
-0.03270523
0.1200052
-0.02361068
-0.04434064
-0.02117137
0.0628394
-0.05531031
-0.04373142
0.06832279
0.09879781
-0.1113034
-0.03296831
0.001341444
-0.001068744
0.001139308
0.0932522
-0.04919136
-0.0563541
0.02898964
0.0762342
-0.01793484
-0.01434882
-0.007406641
0.06859587
0.01063553
-0.1132781
0.07924962
0.1227965
-0.03234983
0.05220749
-0.02711066
-0.1655658
0.08481716
0.08614111
-0.0945269
-0.0629136
0.08289085
0.02489565
0.05159866
0.002290701
-0.03800759
0.005192653
0.03710906
0.01373735
-0.03628616
0.0306068
0.07307128
-0.04300442
-0.109399
0.08817171
0.04096394
-0.02894967
0.03491937
0.1429239
-0.008877506
0.02308782
0.01662411
-0.05949495
-0.003251386
-0.02817338
-0.02473089
-0.03386839
0.05058398
-0.03792251
-0.09198379
-0.02702668
0.09198017
0.05685427
-0.02895954
-0.04382026
0.03914854
-0.03277092
-0.1056582
-0.07287803
0.02369868
0.02678498
0.01951267
0.04961533
-0.0477131
-0.05551341
0.1339898
0.0942209
-0.02106416
0.08248532
0.1406672
0.1233557
-0.02232015
0.007380656
0.1203603
-0.008706522
-0.08355743
-0.007546293
-0.01795573
0.01466197
0.002555011
0.002440837
-0.02189169
-0.0002164404
-0.03375452
-0.0222808
-0.04261075
-0.07657308
0.08392984
-0.01464761
0.04315156
-0.104716
-0.03752221
0.06737579
0.01168892
-0.1498925
-0.07707669
0.06013484
-0.06715953
-0.1450512
-0.02950609
0.0726603
-0.1388532
-0.1438901
-0.1358314
0.04429317
0.01558603
0.011376
0.09811011
0.04190981
0.006089133
0.1190318
0.0856635
0.01250681
0.08885585
-0.03377042
-0.1295901
-0.06901054
0.1936304
0.03426041
-0.1607047
0.09761793
0.1415863
0.01854786
0.08652233
0.08478266
-0.04168601
-0.04720159
0.1613835
-0.01495206
-0.1404365
0.04652764
-0.05486946
-0.05858355
-0.1165447
0.05046052
0.003705657
-0.1359212
0.03833531
0.09105264
0.006823451
-0.003455236
-0.02428455
-0.03346124
-0.01253703
-0.03636686
0.001216522
0.03624308
-0.02639826
-0.05287886
-0.0487285
0.003139368
0.04000686
-0.07697032
-0.00743372
-0.001111692
-0.03494948
0.0009741013
0.03895304
0.007852319
0.0272342
0.007460672
-0.04046956
-0.03366864
-0.01357138
-0.03749621
-0.06244118
-0.02824266
-0.01048223
-0.006996565
-0.01177277
-0.01233211
-0.02862432
-0.02732297
-0.01667484
-0.04057216
-0.03603828
-0.07473722
0.01128091
0.01700763
-0.01037876
0.06853346
0.01363876
-0.005396015
0.01742119
0.04744746
-0.009188733
-0.004538582
0.008376434
-0.03572715
-0.00894857
-0.009468491
-0.04074144
-0.01853864
-0.04368749
-0.01023517
0.003384792
-0.05461586
0.02600546
0.03757588
-0.02295872
0.03752501
0.07341059
0.05650822
0.0156714
-0.04097974
-0.0549209
0.04661861
0.03232253
0.03178581
-0.01248022
-0.04986161
0.007749385
-0.04501614
-0.04732718
-0.0530601
0.05693307
-0.01143897
-0.05745676
0.1052496
0.0475885
-0.01365537
-0.001044158
-0.001299272
-0.01540844
0.04354512
0.06040726
0.0378241
0.03358585
0.04018417
0.04461845
-0.0189431
0.01255332
-0.00288098
0.01497439
0.03533839
0.0001100886
-0.02544023
-0.06969053
-0.03608841
-0.02989248
-0.05349915
0.006736894
0.01674768
-0.0008789431
0.01443157
-0.02713814
-0.03503507
-0.008058393
0.01198061
0.01181197
0.0227706
0.0205892
0.01283743
0.02581652
0.01971463
0.01554124
0.01016213
-0.01609626
-0.0591115
-0.05033898
-0.02933512
-0.1204756
-0.04518444
-0.03684388
-0.06291299
-0.08763833
-0.03965769
-0.1028163
-0.06264431
-8.384989e-05
-0.09326062
-0.05721577
0.07206716
-0.02639595
-0.012016
0.02405382
0.0125035
-0.02572613
-0.006907627
-0.03804975
0.0008941034
0.02936591
-0.0103939
-0.04158437
-0.03824089
0.008411392
-0.009379276
0.134304
0.04029131
-0.01408822
-0.01763719
-0.1159612
-0.1182963
0.1060872
0.03125935
-0.04209544
-0.02736132
-0.1032272
-0.1389889
-0.0950226
-0.1130649
-0.02667749
-0.3136412
-0.07413638
0.1706978
-0.1060127
0.1535417
0.2214088
0.03733743
0.1384625
0.02140924
-0.1040107
-0.04535454
-0.006829605
-0.01718746
0.03878749
0.04170459
-0.01498008
-0.03468549
-0.06455221
0.02509189
-0.08147242
-0.06832774
-0.1038392
-0.1042727
0.007287767
-0.1361126
0.05061399
0.05893959
-0.03648416
-0.04236714
0.01498697
-0.0237144
-0.04920611
0.07371715
-0.06631668
-0.032551
0.1373464
0.3186856
0.08937547
-0.1309069
0.1290356
-0.09723052
-0.2017553
0.03483193
-0.1040566
-0.06771559
-0.07405231
-0.0948346
-0.07193276
-0.08375267
-0.007867437
-0.02757792
-0.02373423
0.00689639
-0.007702043
0.003951532
-0.02529868
0.09604612
0.004690171
-0.005242531
0.09008986
-0.01982216
0.09268655
0.1025246
-0.04195884
-0.1679275
-0.1103647
-0.1533399
-0.1127009
0.02743539
-0.1379094
0.006029715
0.1350105
-0.009749394
-0.09163396
0.01896924
-0.1110944
-0.06322762
0.08066917
-0.03443759
0.06385916
0.1164056
0.02820348
0.1029672
-0.01547997
0.05136371
-0.03466922
-0.1525315
0.01470245
0.02374828
-0.1381774
-0.02169631
-0.03225151
0.01932038
-0.0525124
-0.01011507
0.07860222
0.02017834
0.04662179
0.09415925
-0.1163527
0.007829645
-0.001095523
0.01034318
0.06190506
0.03719981
0.07312246
-0.04316812
-0.1209657
-0.05294139
-0.1486873
-0.06481959
-0.0795406
-0.09909868
-0.04273472
0.01639388
0.07829782
0.01273069
0.0002636147
0.02636484
-0.03566498
0.008166128
-0.02438403
-0.09112391
0.0113573
-0.04846919
-0.02907444
-0.01179926
-0.06954274
-0.04837707
-0.05441656
-0.07733515
-0.07330304
-0.03516816
-0.07516319
-0.04521099
0.0183562
0.01112755
-0.02584301
0.01924185
-0.01601966
-0.02787052
-0.04659106
-0.07234674
-0.02745123
0.02855164
0.004769785
0.007797622
-0.01336638
-0.007114506
0.01478081
-0.02133507
-0.0082018
0.0153582
0.003459926
0.005259796
0.01966878
-0.01800212
-0.001027147
0.01620343
-0.01849161
-0.02509345
-0.01053035
-0.0004026088
0.09129369
0.04233636
0.06709357
0.05734264
0.01272461
0.05884545
0.1082461
-0.02918891
-0.0117511
0.009039007
0.007012442
0.003974832
0.001167148
0.001232121
-0.0217453
-0.02494776
-0.03041434
-0.05133029
-0.002630168
0.09103775
-0.0347584
0.01450539
0.06525812
0.0161686
0.08377569
0.05756557
0.155313
0.08688409
-0.07172155
0.0938489
0.07780264
-0.06884179
0.02441351
0.05259516
-0.06491113
0.02213925
0.07601794
-0.0007834727
0.03793447
0.06281044
-0.01351264
0.06726732
0.06938891
-0.03914927
0.01413798
0.02748152
-0.0276641
0.05407039
0.0397648
-0.01722679
0.05104021
0.02165711
-0.02359765
0.01121502
-0.0490524
0.0295386
0.03901529
-0.08975381
0.05016552
-0.02925091
-0.06872477
0.02582964
-0.1055038
-0.04834326
-0.02531192
-0.07717242
-0.08377492
0.0006515743
-0.06829972
-0.1077636
-0.005088593
-0.03740726
-0.0263313
0.01822736
-0.02184292
-0.001480459
0.04874866
0.009170906
0.03244715
0.06969199
0.0996564
-0.01264228
-0.03975829
-0.02592443
0.00108962
-0.04837304
-0.02333756
0.02150399
-0.02680982
0.0251988
0.0469177
0.08284788
0.01128444
-0.005317546
0.05986655
0.05565521
-0.007397342
0.03456283
0.08067346
-0.01097766
-0.0838759
-0.003198664
-0.0148766
-0.07528312
0.01133077
0.02285724
-0.02218717
0.07292577
0.08874592
-0.01342332
0.1039872
0.04545356
0.1115645
0.01253789
0.1123685
-0.07973727
-0.01032207
-0.05734864
-0.1842776
-0.08007822
0.08975224
-0.02095453
0.04794765
-0.08192604
-0.1139675
0.06943635
0.03685787
0.009790586
-0.02011948
-0.01143697
-0.006369769
-0.03063625
0.001319027
-0.002267659
0.01291487
0.03396488
0.0282009
0.04034942
-0.01524589
0.02431276
0.0286752
0.1159427
-0.03465881
-0.04236574
0.06380358
-0.1558698
-0.06793486
0.1393042
-0.03506362
0.09916699
-0.1373734
0.2404847
-0.2310524
-0.01910406
-0.1203862
-0.1462993
-0.0271413
-0.07422823
-0.2081713
-0.00335941
-0.08031557
-0.07679809
0.008207439
-0.08140987
-0.07938822
0.1043312
0.0007150911
0.0663293
-0.09043519
0.09728266
0.03521791
-0.0290703
0.06149455
-0.004588776
0.01004198
-0.1100318
-0.02965303
-0.1070391
-0.05240601
0.02533493
-0.01784795
-0.06783255
-0.07597554
0.1064279
-0.08618066
-0.01818503
-0.02438742
0.1488732
0.08333617
-0.01550757
-0.02441702
-0.01039087
0.04325864
-0.08433307
0.02109205
-0.005301977
0.01038738
0.05336247
-0.1918854
-0.05658415
-0.318624
0.3550266
-0.2973301
0.08230085
-0.3346564
0.2282754
0.002797198
0.01368856
-0.005201756
-0.1790849
0.265866
-0.3068048
-0.121566
0.0008866047
-0.1250293
0.1957722
0.1754974
0.1303822
0.07400719
0.06355944
0.06948026
0.1087976
0.05185689
0.09416077
-0.3295518
0.0273687
0.008639256
0.3051805
-0.4218828
0.2380276
-0.1474675
0.1251063
-0.2922763
-0.01838308
-0.08369466
-0.08479805
-0.007200162
0.09177909
-0.02116867
-0.06693847
-0.02162045
0.190573
-0.06535255
0.129845
-0.03436574
0.1218893
-0.1092417
-0.03649143
0.02877812
0.06295002
-0.0167173
0.05474924
0.01071996
0.0008454432
0.03843275
-0.0237395
-0.05023567
0.06245247
0.07047923
0.08879673
0.005051694
0.01900903
0.009690549
-0.04168182
0.02702796
0.01898582
-0.1046342
-0.03415329
-0.05290968
-0.1172449
-0.02662674
0.08060538
-0.0660841
0.02538569
0.08249844
0.0625288
0.09118222
0.0575735
-0.07066246
-0.04177205
0.008779895
-0.03545798
-0.02415945
0.03844187
-0.003068364
0.02181991
0.04675006
-0.02080116
0.005965787
0.007440684
-0.07918135
0.01702476
0.007070653
-0.04390607
-0.01003217
-0.009073177
0.004084729
-0.02464764
-0.04468859
-0.0098359
-0.0320067
-0.03003218
-0.0318433
-0.02967118
0.01261294
0.105399
0.01793328
-0.05422796
0.02576932
-0.04749384
-0.06654294
-0.06820824
-0.1383031
-0.06434903
-0.04797206
-0.02705841
-0.02971193
-0.01531713
-0.04289693
-0.00794384
0.01608279
-0.04699893
-0.008353561
0.02445451
-0.01254604
-0.01849044
0.0232432
0.01689817
-0.01621378
0.02108468
0.02150473
-0.005687828
-0.01237158
-0.04994824
0.006705129
-0.06421181
-0.04360404
0.03452462
-0.0475546
0.02852097
0.06816684
0.008333976
-0.006853518
0.003016014
-0.0005132076
0.03760942
-0.00220162
0.0266198
0.02816899
-0.01613419
0.0151939
-0.07357374
-0.0269814
-0.001229857
-0.01521955
-0.01907774
-0.07553694
-0.04742103
-0.03573679
0.005197178
0.0190237
0.06196835
0.02905111
0.04416384
0.08247911
0.07598177
0.0614051
0.06892874
0.004671529
0.02084804
-0.03287325
0.01946712
-0.03666197
-0.01495281
-0.03593304
-0.05682406
0.01623664
-0.03306695
-0.1002354
-0.1369018
-0.01221988
-0.07074293
-0.1116112
-0.008381333
-0.048682
-0.06186474
-0.01833948
-0.0006874903
-0.06082557
-0.01716263
-0.02157688
-0.06304464
-0.02486478
-0.04126981
0.008678883
-0.04186587
-0.03399851
0.01912733
-0.04151829
0.01996683
0.09899863
-0.01879761
-0.0783917
0.02514621
0.03137885
-0.06789447
-0.03149622
-0.05002295
-0.1276165
-0.1335047
-0.1043256
-0.1514771
-0.1070166
0.03745222
0.02552683
0.1138636
0.02582607
-0.01055468
0.06375385
0.001213224
-0.07315108
-0.02863669
-0.05382126
0.06674849
0.0290515
0.0393704
0.07521884
-0.05261081
0.0408147
0.003954142
-0.1314546
0.1283396
-0.02696211
-0.1979862
-0.0112293
-0.129852
-0.03916971
-0.05609199
-0.01721249
0.04248782
0.005365293
0.03058407
-0.02856227
0.04592662
0.0128051
-0.0118741
0.002323983
0.002132832
0.0365364
-0.05794044
-0.0330422
0.007307594
-0.0113066
0.04189432
0.07987328
-0.002591136
0.07886352
0.0503002
-0.150513
-0.08647238
-0.02246043
-0.1528708
0.04170106
0.1110858
-0.1399218
0.03834302
0.07452228
0.02644023
-0.06639445
-0.09222183
0.06548332
-0.0156453
-0.01203543
0.02966723
0.01192231
0.004854207
0.04435268
0.01384132
-0.01874626
0.07087182
0.02473923
-0.01840428
0.1039102
0.01736029
-0.04095453
-0.02967411
-0.09410087
-0.160705
0.01239967
-0.1629766
-0.02228498
-0.07767388
-0.08035988
0.08600008
-0.09787754
-0.1101053
-0.07979091
-0.07906303
-0.07375618
-0.01027213
-0.1180405
-0.06179811
0.1571023
0.1761229
0.1122066
0.06164883
0.1016086
-0.001119728
-0.03240848
0.01131152
-0.0523761
-0.02323634
0.01745122
-0.01987457
0.04494875
-0.05740453
0.05366649
-0.08207339
0.006315675
0.07769122
-0.09734691
-0.08469309
-0.1286958
-0.08923607
-0.07648299
0.01826331
-0.002514724
-0.06161002
0.07605522
0.05948599
-0.1025302
-0.03048503
0.1319864
-0.1372233
0.01746194
0.1172562
0.05575361
0.05798804
0.03783273
-0.01227898
0.03232643
-0.05380271
0.1012655
0.1509304
0.06972829
-0.01560675
0.006236637
-0.004041083
-0.05347374
0.04002236
-0.05374884
-0.03871073
-0.02816285
-0.04177098
-0.037382
-0.01473627
-0.03740728
0.01440447
-0.058222
-0.1405439
0.0001281366
-0.02050557
-0.05469139
-0.01375002
0.01366697
-0.005172056
-0.01678678
-0.03224539
-0.002204414
0.02265287
0.06709303
0.05935087
0.07087736
0.0944588
0.07820283
-0.1427973
-0.02272137
0.1203463
-0.001910712
0.06111235
0.2584667
0.03054661
0.08580693
0.2688238
-0.04419246
-0.007560266
-0.02492833
-0.01567494
0.007078311
-0.02533264
-0.007065762
-0.0144481
0.01603289
-0.008231135
-0.006787888
-0.05963049
-0.02474878
-0.03206674
-0.0283561
0.01631909
0.08280637
0.08679912
-0.0469362
-0.09409146
-0.02193605
-0.05736497
-0.002153931
0.05954477
-0.02777658
0.0665236
0.1247593
-0.02643648
0.009774745
-0.02171716
-0.04632077
-0.04520414
-0.03461271
-0.05270413
-0.05311158
-0.02804701
-0.0571824
-0.01052385
-0.05984425
-0.02988249
0.004517013
-0.03476537
-0.007421177
0.06765425
0.04185304
0.02830976
0.07706369
-0.07639222
0.00552296
-0.01307738
0.0004042214
-0.03428051
-0.039941
-0.05995226
-0.04023331
0.07394432
0.04667665
-0.07975163
-0.01067682
-0.01638928
-0.0581712
-0.05697902
0.006785931
0.01306397
-0.0008691396
0.003100366
0.02104083
-0.004063921
-0.004897164
0.05613109
0.04842862
0.04352447
0.03612056
-0.05296064
0.1048331
-0.04565892
0.07230455
-0.004787383
-0.06775053
0.1363569
-0.08497614
0.08312728
0.08479888
0.08249217
0.0343959
0.03028679
0.03602669
0.01111504
0.002551044
0.09233563
0.01268895
0.07532707
0.03254701
-0.06748289
0.03829535
-0.05429868
-0.05556591
0.01833885
-0.05457019
0.05159016
0.07212281
0.03234684
0.09841502
0.07525077
0.07638344
0.1478551
-0.009532515
0.04155672
-0.1661094
-0.00949112
-0.2225598
0.04723164
0.1294579
-0.08403104
-0.07837235
-0.009903938
9.034519e-05
-0.05350888
-0.01274799
0.01189989
-0.1017283
0.01441977
0.07400367
-0.05189773
-0.004872247
0.01535571
-0.2363953
-0.06493896
0.08468003
-0.1976133
0.06567284
0.2434566
-0.08611193
0.0767462
0.1698323
-0.1140499
-0.2206581
-0.2213763
0.05503779
-0.1489539
-0.2117891
-0.1441319
-0.2079428
-0.1975411
-0.101096
-0.09182093
-0.02598611
-0.1126471
-0.09181646
0.006842623
-0.1054965
-0.1409308
-0.001487917
0.07322437
-0.006286639
-0.01279774
0.07088958
-0.006470368
0.0002897852
-0.05438438
0.02428857
0.04358497
-0.04657464
0.01050217
0.01718499
-0.06270462
-0.1159504
-0.05088291
-0.103076
-0.154375
-0.04545745
0.03778995
0.006637297
-0.05286457
0.1392154
-0.1120833
-0.09516943
0.1279116
-0.07205702
-0.08210909
-0.03554894
0.002649901
0.02705647
0.04570928
0.03782117
0.03099917
0.03873863
0.05925636
-0.003734389
-0.03298211
-0.1586319
-0.04994295
0.1242764
-0.1376296
-0.0403978
-0.05009955
-0.08392913
-0.1009062
-0.1290923
-0.1121077
0.05771626
0.01750284
-0.15804
-0.08689991
-0.03984996
-0.135807
-0.09987471
0.0674143
0.0848524
0.08364766
0.04130546
0.09935206
0.05656948
0.08945853
0.08890039
0.07316289
0.112237
0.04805185
0.006622647
-0.2116509
0.05426691
0.1226005
-0.1825224
-0.04452663
0.08025662
-0.08971836
-0.1938156
-0.1947764
-0.02511319
-0.3298667
-0.1849213
0.01144266
-0.1995052
-0.1441319
0.08343928
0.002266601
-0.09463248
-0.008132455
-0.08746781
-0.02303633
0.02859873
-0.005309912
0.04028077
