0.000000000000000
-0.000000000000000
0.000000000000000
0.000000000000000
0.000000000000000
-0.000000000000000
0.000000000000000
0.000000000000000
0.000000000000000
-0.000000000000000
0.000000000000000
0.000000000000000
0.000000000000000
-0.000000000000000
0.000000000000000
0.000000000000000
0.000000000000000
-0.000000000000000
0.000000000000000
0.000000000000000
0.000000000000000
-0.000000000000000
0.000000000000000
0.000000000000000
0.000000000000000
-0.000000000000000
0.000000000000000
0.000000000000000
0.000000000000000
-0.000000000000000
0.000000000000000
0.000000000000000
-0.000000000000000
-0.000000000000000
0.000000000000000
0.000000000000000
-0.000000000000000
-0.000000000000000
0.000000000000000
0.000000000000000
-0.000000000000000
-0.000000000000000
0.000000000000000
0.000000000000000
-0.000000000000000
-0.000000000000000
0.000000000000000
0.000000000000000
-0.000000000000000
-0.000000000000000
0.000000000000000
0.000000000000000
-0.000000000000000
-0.000000000000000
0.000000000000000
0.000000000000000
-0.000000000000000
-0.000000000000000
0.000000000000000
0.000000000000000
-0.000000000000000
-0.000000000000000
0.000000000000000
0.000000000000000
-0.000000000000000
-0.000000000000000
-0.000000000000000
0.000000000000000
-0.000000000000000
-0.000000000000000
-0.000000000000000
0.000000000000000
-0.000000000000000
-0.000000000000000
-0.000000000000000
0.000000000000000
-0.000000000000000
-0.000000000000000
-0.000000000000000
0.000000000000000
-0.000000000000000
-0.000000000000000
-0.000000000000000
0.000000000000000
-0.000000000000000
-0.000000000000000
-0.000000000000000
0.000000000000000
-0.000000000000000
-0.000000000000000
-0.000000000000000
0.000000000000000
-0.000000000000000
-0.000000000000000
-0.000000000000000
0.000000000000000
-0.000000000000000
0.000000000000000
0.000000000000000
-0.000000000000000
-0.000000000000000
0.000000000000000
0.000000000000000
-0.000000000000000
-0.000000000000000
0.000000000000000
0.000000000000000
-0.000000000000000
-0.000000000000000
0.000000000000000
0.000000000000000
-0.000000000000000
-0.000000000000000
0.000000000000000
0.000000000000000
-0.000000000000000
-0.000000000000000
0.000000000000000
0.000000000000000
-0.000000000000000
-0.000000000000000
0.000000000000000
0.000000000000000
-0.000000000000000
-0.000000000000000
0.000000000000000
0.000000000000000
-0.000000000000000
0.000000000000000
-0.000000000000000
0.000000000000000
0.000000000000000
0.146026617921270
-0.209564024599556
0.080345265548805
0.029848805058199
0.146026617921270
-0.209564024599556
0.080345265548805
0.029848805058199
0.146026617921270
-0.209564024599556
0.080345265548805
0.029848805058199
0.146026617921270
-0.209564024599556
0.080345265548805
0.029848805058199
0.146026617921270
-0.209564024599556
0.080345265548805
0.029848805058199
0.146026617921270
-0.209564024599556
0.080345265548805
0.029848805058199
0.146026617921270
-0.209564024599556
0.080345265548805
0.029848805058199
-0.000000000000000
-0.000000000000000
0.000000000000000
0.000000000000000
-0.060234072637832
-0.093427846578768
0.053493017338080
0.034847911434750
-0.060234072637832
-0.093427846578768
0.053493017338080
0.034847911434750
-0.060234072637832
-0.093427846578768
0.053493017338080
0.034847911434750
-0.060234072637832
-0.093427846578768
0.053493017338080
0.034847911434750
-0.060234072637832
-0.093427846578768
0.053493017338080
0.034847911434750
-0.060234072637832
-0.093427846578768
0.053493017338080
0.034847911434750
-0.060234072637832
-0.093427846578768
0.053493017338080
0.034847911434750
-0.000000000000000
-0.000000000000000
-0.000000000000000
0.000000000000000
-0.001835652841113
-0.001440074066021
-0.062096384343065
0.126594854329050
-0.001835652841113
-0.001440074066021
-0.062096384343065
0.126594854329050
-0.001835652841113
-0.001440074066021
-0.062096384343065
0.126594854329050
-0.001835652841113
-0.001440074066021
-0.062096384343065
0.126594854329050
-0.001835652841113
-0.001440074066021
-0.062096384343065
0.126594854329050
-0.001835652841113
-0.001440074066021
-0.062096384343065
0.126594854329050
-0.001835652841113
-0.001440074066021
-0.062096384343065
0.126594854329050
-0.000000000000000
0.000000000000000
0.000000000000000
-0.000000000000000
-0.039320221222286
0.041373135691039
0.089374797427968
-0.053700537119409
-0.039320221222286
0.041373135691039
0.089374797427968
-0.053700537119409
-0.039320221222286
0.041373135691039
0.089374797427968
-0.053700537119409
-0.039320221222286
0.041373135691039
0.089374797427968
-0.053700537119409
-0.039320221222286
0.041373135691039
0.089374797427968
-0.053700537119409
-0.039320221222286
0.041373135691039
0.089374797427968
-0.053700537119409
-0.039320221222286
0.041373135691039
0.089374797427968
-0.053700537119409
0.000000000000000
-0.000000000000000
0.000000000000000
0.000000000000000
0.146026617921270
-0.209564024599556
0.080345265548805
0.029848805058199
0.146026617921270
-0.209564024599556
0.080345265548805
0.029848805058199
0.146026617921270
-0.209564024599556
0.080345265548805
0.029848805058199
0.146026617921270
-0.209564024599556
0.080345265548805
0.029848805058199
0.146026617921270
-0.209564024599556
0.080345265548805
0.029848805058199
0.146026617921270
-0.209564024599556
0.080345265548805
0.029848805058199
0.146026617921270
-0.209564024599556
0.080345265548805
0.029848805058199
-0.000000000000000
-0.000000000000000
0.000000000000000
0.000000000000000
-0.060234072637832
-0.093427846578768
0.053493017338080
0.034847911434750
-0.060234072637832
-0.093427846578768
0.053493017338080
0.034847911434750
-0.060234072637832
-0.093427846578768
0.053493017338080
0.034847911434750
-0.060234072637832
-0.093427846578768
0.053493017338080
0.034847911434750
-0.060234072637832
-0.093427846578768
0.053493017338080
0.034847911434750
-0.060234072637832
-0.093427846578768
0.053493017338080
0.034847911434750
-0.060234072637832
-0.093427846578768
0.053493017338080
0.034847911434750
-0.000000000000000
-0.000000000000000
-0.000000000000000
0.000000000000000
-0.001835652841113
-0.001440074066021
-0.062096384343065
0.126594854329050
-0.001835652841113
-0.001440074066021
-0.062096384343065
0.126594854329050
-0.001835652841113
-0.001440074066021
-0.062096384343065
0.126594854329050
-0.001835652841113
-0.001440074066021
-0.062096384343065
0.126594854329050
-0.001835652841113
-0.001440074066021
-0.062096384343065
0.126594854329050
-0.001835652841113
-0.001440074066021
-0.062096384343065
0.126594854329050
-0.001835652841113
-0.001440074066021
-0.062096384343065
0.126594854329050
-0.000000000000000
0.000000000000000
0.000000000000000
-0.000000000000000
-0.039320221222286
0.041373135691039
0.089374797427968
-0.053700537119409
-0.039320221222286
0.041373135691039
0.089374797427968
-0.053700537119409
-0.039320221222286
0.041373135691039
0.089374797427968
-0.053700537119409
-0.039320221222286
0.041373135691039
0.089374797427968
-0.053700537119409
-0.039320221222286
0.041373135691039
0.089374797427968
-0.053700537119409
-0.039320221222286
0.041373135691039
0.089374797427968
-0.053700537119409
-0.039320221222286
0.041373135691039
0.089374797427968
-0.053700537119409
0.000000000000000
-0.000000000000000
0.000000000000000
0.000000000000000
0.146026617921270
-0.209564024599556
0.080345265548805
0.029848805058199
0.146026617921270
-0.209564024599556
0.080345265548805
0.029848805058199
0.146026617921270
-0.209564024599556
0.080345265548805
0.029848805058199
0.146026617921270
-0.209564024599556
0.080345265548805
0.029848805058199
0.146026617921270
-0.209564024599556
0.080345265548805
0.029848805058199
0.146026617921270
-0.209564024599556
0.080345265548805
0.029848805058199
0.146026617921270
-0.209564024599556
0.080345265548805
0.029848805058199
-0.000000000000000
-0.000000000000000
0.000000000000000
0.000000000000000
-0.060234072637832
-0.093427846578768
0.053493017338080
0.034847911434750
-0.060234072637832
-0.093427846578768
0.053493017338080
0.034847911434750
-0.060234072637832
-0.093427846578768
0.053493017338080
0.034847911434750
-0.060234072637832
-0.093427846578768
0.053493017338080
0.034847911434750
-0.060234072637832
-0.093427846578768
0.053493017338080
0.034847911434750
-0.060234072637832
-0.093427846578768
0.053493017338080
0.034847911434750
-0.060234072637832
-0.093427846578768
0.053493017338080
0.034847911434750
-0.000000000000000
-0.000000000000000
-0.000000000000000
0.000000000000000
-0.001835652841113
-0.001440074066021
-0.062096384343065
0.126594854329050
-0.001835652841113
-0.001440074066021
-0.062096384343065
0.126594854329050
-0.001835652841113
-0.001440074066021
-0.062096384343065
0.126594854329050
-0.001835652841113
-0.001440074066021
-0.062096384343065
0.126594854329050
-0.001835652841113
-0.001440074066021
-0.062096384343065
0.126594854329050
-0.001835652841113
-0.001440074066021
-0.062096384343065
0.126594854329050
-0.001835652841113
-0.001440074066021
-0.062096384343065
0.126594854329050
-0.000000000000000
0.000000000000000
0.000000000000000
-0.000000000000000
-0.039320221222286
0.041373135691039
0.089374797427968
-0.053700537119409
-0.039320221222286
0.041373135691039
0.089374797427968
-0.053700537119409
-0.039320221222286
0.041373135691039
0.089374797427968
-0.053700537119409
-0.039320221222286
0.041373135691039
0.089374797427968
-0.053700537119409
-0.039320221222286
0.041373135691039
0.089374797427968
-0.053700537119409
-0.039320221222286
0.041373135691039
0.089374797427968
-0.053700537119409
-0.039320221222286
0.041373135691039
0.089374797427968
-0.053700537119409
0.000000000000000
-0.000000000000000
0.000000000000000
0.000000000000000
0.146026617921270
-0.209564024599556
0.080345265548805
0.029848805058199
0.146026617921270
-0.209564024599556
0.080345265548805
0.029848805058199
0.146026617921270
-0.209564024599556
0.080345265548805
0.029848805058199
0.146026617921270
-0.209564024599556
0.080345265548805
0.029848805058199
0.146026617921270
-0.209564024599556
0.080345265548805
0.029848805058199
0.146026617921270
-0.209564024599556
0.080345265548805
0.029848805058199
0.146026617921270
-0.209564024599556
0.080345265548805
0.029848805058199
-0.000000000000000
-0.000000000000000
0.000000000000000
0.000000000000000
-0.060234072637832
-0.093427846578768
0.053493017338080
0.034847911434750
-0.060234072637832
-0.093427846578768
0.053493017338080
0.034847911434750
-0.060234072637832
-0.093427846578768
0.053493017338080
0.034847911434750
-0.060234072637832
-0.093427846578768
0.053493017338080
0.034847911434750
-0.060234072637832
-0.093427846578768
0.053493017338080
0.034847911434750
-0.060234072637832
-0.093427846578768
0.053493017338080
0.034847911434750
-0.060234072637832
-0.093427846578768
0.053493017338080
0.034847911434750
-0.000000000000000
-0.000000000000000
-0.000000000000000
0.000000000000000
-0.001835652841113
-0.001440074066021
-0.062096384343065
0.126594854329050
-0.001835652841113
-0.001440074066021
-0.062096384343065
0.126594854329050
-0.001835652841113
-0.001440074066021
-0.062096384343065
0.126594854329050
-0.001835652841113
-0.001440074066021
-0.062096384343065
0.126594854329050
-0.001835652841113
-0.001440074066021
-0.062096384343065
0.126594854329050
-0.001835652841113
-0.001440074066021
-0.062096384343065
0.126594854329050
-0.001835652841113
-0.001440074066021
-0.062096384343065
0.126594854329050
-0.000000000000000
0.000000000000000
0.000000000000000
-0.000000000000000
-0.039320221222286
0.041373135691039
0.089374797427968
-0.053700537119409
-0.039320221222286
0.041373135691039
0.089374797427968
-0.053700537119409
-0.039320221222286
0.041373135691039
0.089374797427968
-0.053700537119409
-0.039320221222286
0.041373135691039
0.089374797427968
-0.053700537119409
-0.039320221222286
0.041373135691039
0.089374797427968
-0.053700537119409
-0.039320221222286
0.041373135691039
0.089374797427968
-0.053700537119409
-0.039320221222286
0.041373135691039
0.089374797427968
-0.053700537119409
0.000000000000000
-0.000000000000000
0.000000000000000
0.000000000000000
0.146026617921270
-0.209564024599556
0.080345265548805
0.029848805058199
0.146026617921270
-0.209564024599556
0.080345265548805
0.029848805058199
0.146026617921270
-0.209564024599556
0.080345265548805
0.029848805058199
0.146026617921270
-0.209564024599556
0.080345265548805
0.029848805058199
0.146026617921270
-0.209564024599556
0.080345265548805
0.029848805058199
0.146026617921270
-0.209564024599556
0.080345265548805
0.029848805058199
0.146026617921270
-0.209564024599556
0.080345265548805
0.029848805058199
-0.000000000000000
-0.000000000000000
0.000000000000000
0.000000000000000
-0.060234072637832
-0.093427846578768
0.053493017338080
0.034847911434750
-0.060234072637832
-0.093427846578768
0.053493017338080
0.034847911434750
-0.060234072637832
-0.093427846578768
0.053493017338080
0.034847911434750
-0.060234072637832
-0.093427846578768
0.053493017338080
0.034847911434750
-0.060234072637832
-0.093427846578768
0.053493017338080
0.034847911434750
-0.060234072637832
-0.093427846578768
0.053493017338080
0.034847911434750
-0.060234072637832
-0.093427846578768
0.053493017338080
0.034847911434750
-0.000000000000000
-0.000000000000000
-0.000000000000000
0.000000000000000
-0.001835652841113
-0.001440074066021
-0.062096384343065
0.126594854329050
-0.001835652841113
-0.001440074066021
-0.062096384343065
0.126594854329050
-0.001835652841113
-0.001440074066021
-0.062096384343065
0.126594854329050
-0.001835652841113
-0.001440074066021
-0.062096384343065
0.126594854329050
-0.001835652841113
-0.001440074066021
-0.062096384343065
0.126594854329050
-0.001835652841113
-0.001440074066021
-0.062096384343065
0.126594854329050
-0.001835652841113
-0.001440074066021
-0.062096384343065
0.126594854329050
-0.000000000000000
0.000000000000000
0.000000000000000
-0.000000000000000
-0.039320221222286
0.041373135691039
0.089374797427968
-0.053700537119409
-0.039320221222286
0.041373135691039
0.089374797427968
-0.053700537119409
-0.039320221222286
0.041373135691039
0.089374797427968
-0.053700537119409
-0.039320221222286
0.041373135691039
0.089374797427968
-0.053700537119409
-0.039320221222286
0.041373135691039
0.089374797427968
-0.053700537119409
-0.039320221222286
0.041373135691039
0.089374797427968
-0.053700537119409
-0.039320221222286
0.041373135691039
0.089374797427968
-0.053700537119409
0.000000000000000
-0.000000000000000
0.000000000000000
0.000000000000000
0.146026617921270
-0.209564024599556
0.080345265548805
0.029848805058199
0.146026617921270
-0.209564024599556
0.080345265548805
0.029848805058199
0.146026617921270
-0.209564024599556
0.080345265548805
0.029848805058199
0.146026617921270
-0.209564024599556
0.080345265548805
0.029848805058199
0.146026617921270
-0.209564024599556
0.080345265548805
0.029848805058199
0.146026617921270
-0.209564024599556
0.080345265548805
0.029848805058199
0.146026617921270
-0.209564024599556
0.080345265548805
0.029848805058199
-0.000000000000000
-0.000000000000000
0.000000000000000
0.000000000000000
-0.060234072637832
-0.093427846578768
0.053493017338080
0.034847911434750
-0.060234072637832
-0.093427846578768
0.053493017338080
0.034847911434750
-0.060234072637832
-0.093427846578768
0.053493017338080
0.034847911434750
-0.060234072637832
-0.093427846578768
0.053493017338080
0.034847911434750
-0.060234072637832
-0.093427846578768
0.053493017338080
0.034847911434750
-0.060234072637832
-0.093427846578768
0.053493017338080
0.034847911434750
-0.060234072637832
-0.093427846578768
0.053493017338080
0.034847911434750
-0.000000000000000
-0.000000000000000
-0.000000000000000
0.000000000000000
-0.001835652841113
-0.001440074066021
-0.062096384343065
0.126594854329050
-0.001835652841113
-0.001440074066021
-0.062096384343065
0.126594854329050
-0.001835652841113
-0.001440074066021
-0.062096384343065
0.126594854329050
-0.001835652841113
-0.001440074066021
-0.062096384343065
0.126594854329050
-0.001835652841113
-0.001440074066021
-0.062096384343065
0.126594854329050
-0.001835652841113
-0.001440074066021
-0.062096384343065
0.126594854329050
-0.001835652841113
-0.001440074066021
-0.062096384343065
0.126594854329050
-0.000000000000000
0.000000000000000
0.000000000000000
-0.000000000000000
-0.039320221222286
0.041373135691039
0.089374797427968
-0.053700537119409
-0.039320221222286
0.041373135691039
0.089374797427968
-0.053700537119409
-0.039320221222286
0.041373135691039
0.089374797427968
-0.053700537119409
-0.039320221222286
0.041373135691039
0.089374797427968
-0.053700537119409
-0.039320221222286
0.041373135691039
0.089374797427968
-0.053700537119409
-0.039320221222286
0.041373135691039
0.089374797427968
-0.053700537119409
-0.039320221222286
0.041373135691039
0.089374797427968
-0.053700537119409
0.000000000000000
-0.000000000000000
0.000000000000000
0.000000000000000
0.146026617921270
-0.209564024599556
0.080345265548805
0.029848805058199
0.146026617921270
-0.209564024599556
0.080345265548805
0.029848805058199
0.146026617921270
-0.209564024599556
0.080345265548805
0.029848805058199
0.146026617921270
-0.209564024599556
0.080345265548805
0.029848805058199
0.146026617921270
-0.209564024599556
0.080345265548805
0.029848805058199
0.146026617921270
-0.209564024599556
0.080345265548805
0.029848805058199
0.146026617921270
-0.209564024599556
0.080345265548805
0.029848805058199
-0.000000000000000
-0.000000000000000
0.000000000000000
0.000000000000000
-0.060234072637832
-0.093427846578768
0.053493017338080
0.034847911434750
-0.060234072637832
-0.093427846578768
0.053493017338080
0.034847911434750
-0.060234072637832
-0.093427846578768
0.053493017338080
0.034847911434750
-0.060234072637832
-0.093427846578768
0.053493017338080
0.034847911434750
-0.060234072637832
-0.093427846578768
0.053493017338080
0.034847911434750
-0.060234072637832
-0.093427846578768
0.053493017338080
0.034847911434750
-0.060234072637832
-0.093427846578768
0.053493017338080
0.034847911434750
-0.000000000000000
-0.000000000000000
-0.000000000000000
0.000000000000000
-0.001835652841113
-0.001440074066021
-0.062096384343065
0.126594854329050
-0.001835652841113
-0.001440074066021
-0.062096384343065
0.126594854329050
-0.001835652841113
-0.001440074066021
-0.062096384343065
0.126594854329050
-0.001835652841113
-0.001440074066021
-0.062096384343065
0.126594854329050
-0.001835652841113
-0.001440074066021
-0.062096384343065
0.126594854329050
-0.001835652841113
-0.001440074066021
-0.062096384343065
0.126594854329050
-0.001835652841113
-0.001440074066021
-0.062096384343065
0.126594854329050
-0.000000000000000
0.000000000000000
0.000000000000000
-0.000000000000000
-0.039320221222286
0.041373135691039
0.089374797427968
-0.053700537119409
-0.039320221222286
0.041373135691039
0.089374797427968
-0.053700537119409
-0.039320221222286
0.041373135691039
0.089374797427968
-0.053700537119409
-0.039320221222286
0.041373135691039
0.089374797427968
-0.053700537119409
-0.039320221222286
0.041373135691039
0.089374797427968
-0.053700537119409
-0.039320221222286
0.041373135691039
0.089374797427968
-0.053700537119409
-0.039320221222286
0.041373135691039
0.089374797427968
-0.053700537119409
0.000000000000000
-0.000000000000000
0.000000000000000
0.000000000000000
0.000000000000000
-0.000000000000000
0.000000000000000
0.000000000000000
0.000000000000000
-0.000000000000000
0.000000000000000
0.000000000000000
0.000000000000000
-0.000000000000000
0.000000000000000
0.000000000000000
0.000000000000000
-0.000000000000000
0.000000000000000
0.000000000000000
0.000000000000000
-0.000000000000000
0.000000000000000
0.000000000000000
0.000000000000000
-0.000000000000000
0.000000000000000
0.000000000000000
0.000000000000000
-0.000000000000000
0.000000000000000
0.000000000000000
-0.000000000000000
-0.000000000000000
-0.000000000000000
0.000000000000000
-0.000000000000000
-0.000000000000000
-0.000000000000000
0.000000000000000
-0.000000000000000
-0.000000000000000
-0.000000000000000
0.000000000000000
-0.000000000000000
-0.000000000000000
-0.000000000000000
0.000000000000000
-0.000000000000000
-0.000000000000000
-0.000000000000000
0.000000000000000
-0.000000000000000
-0.000000000000000
-0.000000000000000
0.000000000000000
-0.000000000000000
-0.000000000000000
-0.000000000000000
0.000000000000000
-0.000000000000000
-0.000000000000000
-0.000000000000000
0.000000000000000
0.000000000000000
-0.000000000000000
-0.000000000000000
0.000000000000000
0.000000000000000
-0.000000000000000
-0.000000000000000
0.000000000000000
0.000000000000000
-0.000000000000000
-0.000000000000000
0.000000000000000
0.000000000000000
-0.000000000000000
-0.000000000000000
0.000000000000000
0.000000000000000
-0.000000000000000
-0.000000000000000
0.000000000000000
0.000000000000000
-0.000000000000000
-0.000000000000000
0.000000000000000
0.000000000000000
-0.000000000000000
-0.000000000000000
0.000000000000000
0.000000000000000
-0.000000000000000
-0.000000000000000
0.000000000000000
0.000000000000000
-0.000000000000000
-0.000000000000000
0.000000000000000
0.000000000000000
-0.000000000000000
-0.000000000000000
0.000000000000000
0.000000000000000
-0.000000000000000
-0.000000000000000
0.000000000000000
0.000000000000000
-0.000000000000000
-0.000000000000000
0.000000000000000
0.000000000000000
-0.000000000000000
-0.000000000000000
0.000000000000000
0.000000000000000
-0.000000000000000
-0.000000000000000
0.000000000000000
0.000000000000000
-0.000000000000000
-0.000000000000000
0.000000000000000
0.000000000000000
-0.000000000000000
-0.000000000000000
0.000000000000000
0.000000000000000
-0.000000000000000
0.000000000000000
0.000000000000000
0.023010707592648
-0.163353963396707
0.122370050001303
0.055064303982583
0.023010707592648
-0.163353963396707
0.122370050001303
0.055064303982583
0.023010707592648
-0.163353963396707
0.122370050001303
0.055064303982583
0.023010707592648
-0.163353963396707
0.122370050001303
0.055064303982583
0.023010707592648
-0.163353963396707
0.122370050001303
0.055064303982583
0.023010707592648
-0.163353963396707
0.122370050001303
0.055064303982583
0.023010707592648
-0.163353963396707
0.122370050001303
0.055064303982583
-0.000000000000000
-0.000000000000000
-0.000000000000000
0.000000000000000
-0.148625556135063
-0.012382026707928
-0.006611262180134
0.036174212175309
-0.148625556135063
-0.012382026707928
-0.006611262180134
0.036174212175309
-0.148625556135063
-0.012382026707928
-0.006611262180134
0.036174212175309
-0.148625556135063
-0.012382026707928
-0.006611262180134
0.036174212175309
-0.148625556135063
-0.012382026707928
-0.006611262180134
0.036174212175309
-0.148625556135063
-0.012382026707928
-0.006611262180134
0.036174212175309
-0.148625556135063
-0.012382026707928
-0.006611262180134
0.036174212175309
0.000000000000000
-0.000000000000000
-0.000000000000000
0.000000000000000
0.065117037306429
-0.106283045874191
-0.061695055090778
0.067621279486294
0.065117037306429
-0.106283045874191
-0.061695055090778
0.067621279486294
0.065117037306429
-0.106283045874191
-0.061695055090778
0.067621279486294
0.065117037306429
-0.106283045874191
-0.061695055090778
0.067621279486294
0.065117037306429
-0.106283045874191
-0.061695055090778
0.067621279486294
0.065117037306429
-0.106283045874191
-0.061695055090778
0.067621279486294
0.065117037306429
-0.106283045874191
-0.061695055090778
0.067621279486294
0.000000000000000
-0.000000000000000
-0.000000000000000
0.000000000000000
0.089365831735744
-0.180085613883322
-0.087854294558397
0.072786009029855
0.089365831735744
-0.180085613883322
-0.087854294558397
0.072786009029855
0.089365831735744
-0.180085613883322
-0.087854294558397
0.072786009029855
0.089365831735744
-0.180085613883322
-0.087854294558397
0.072786009029855
0.089365831735744
-0.180085613883322
-0.087854294558397
0.072786009029855
0.089365831735744
-0.180085613883322
-0.087854294558397
0.072786009029855
0.089365831735744
-0.180085613883322
-0.087854294558397
0.072786009029855
0.000000000000000
-0.000000000000000
0.000000000000000
0.000000000000000
0.023010707592648
-0.163353963396707
0.122370050001303
0.055064303982583
0.023010707592648
-0.163353963396707
0.122370050001303
0.055064303982583
0.023010707592648
-0.163353963396707
0.122370050001303
0.055064303982583
0.023010707592648
-0.163353963396707
0.122370050001303
0.055064303982583
0.023010707592648
-0.163353963396707
0.122370050001303
0.055064303982583
0.023010707592648
-0.163353963396707
0.122370050001303
0.055064303982583
0.023010707592648
-0.163353963396707
0.122370050001303
0.055064303982583
-0.000000000000000
-0.000000000000000
-0.000000000000000
0.000000000000000
-0.148625556135063
-0.012382026707928
-0.006611262180134
0.036174212175309
-0.148625556135063
-0.012382026707928
-0.006611262180134
0.036174212175309
-0.148625556135063
-0.012382026707928
-0.006611262180134
0.036174212175309
-0.148625556135063
-0.012382026707928
-0.006611262180134
0.036174212175309
-0.148625556135063
-0.012382026707928
-0.006611262180134
0.036174212175309
-0.148625556135063
-0.012382026707928
-0.006611262180134
0.036174212175309
-0.148625556135063
-0.012382026707928
-0.006611262180134
0.036174212175309
0.000000000000000
-0.000000000000000
-0.000000000000000
0.000000000000000
0.065117037306429
-0.106283045874191
-0.061695055090778
0.067621279486294
0.065117037306429
-0.106283045874191
-0.061695055090778
0.067621279486294
0.065117037306429
-0.106283045874191
-0.061695055090778
0.067621279486294
0.065117037306429
-0.106283045874191
-0.061695055090778
0.067621279486294
0.065117037306429
-0.106283045874191
-0.061695055090778
0.067621279486294
0.065117037306429
-0.106283045874191
-0.061695055090778
0.067621279486294
0.065117037306429
-0.106283045874191
-0.061695055090778
0.067621279486294
0.000000000000000
-0.000000000000000
-0.000000000000000
0.000000000000000
0.089365831735744
-0.180085613883322
-0.087854294558397
0.072786009029855
0.089365831735744
-0.180085613883322
-0.087854294558397
0.072786009029855
0.089365831735744
-0.180085613883322
-0.087854294558397
0.072786009029855
0.089365831735744
-0.180085613883322
-0.087854294558397
0.072786009029855
0.089365831735744
-0.180085613883322
-0.087854294558397
0.072786009029855
0.089365831735744
-0.180085613883322
-0.087854294558397
0.072786009029855
0.089365831735744
-0.180085613883322
-0.087854294558397
0.072786009029855
0.000000000000000
-0.000000000000000
0.000000000000000
0.000000000000000
0.023010707592648
-0.163353963396707
0.122370050001303
0.055064303982583
0.023010707592648
-0.163353963396707
0.122370050001303
0.055064303982583
0.023010707592648
-0.163353963396707
0.122370050001303
0.055064303982583
0.023010707592648
-0.163353963396707
0.122370050001303
0.055064303982583
0.023010707592648
-0.163353963396707
0.122370050001303
0.055064303982583
0.023010707592648
-0.163353963396707
0.122370050001303
0.055064303982583
0.023010707592648
-0.163353963396707
0.122370050001303
0.055064303982583
-0.000000000000000
-0.000000000000000
-0.000000000000000
0.000000000000000
-0.148625556135063
-0.012382026707928
-0.006611262180134
0.036174212175309
-0.148625556135063
-0.012382026707928
-0.006611262180134
0.036174212175309
-0.148625556135063
-0.012382026707928
-0.006611262180134
0.036174212175309
-0.148625556135063
-0.012382026707928
-0.006611262180134
0.036174212175309
-0.148625556135063
-0.012382026707928
-0.006611262180134
0.036174212175309
-0.148625556135063
-0.012382026707928
-0.006611262180134
0.036174212175309
-0.148625556135063
-0.012382026707928
-0.006611262180134
0.036174212175309
0.000000000000000
-0.000000000000000
-0.000000000000000
0.000000000000000
0.065117037306429
-0.106283045874191
-0.061695055090778
0.067621279486294
0.065117037306429
-0.106283045874191
-0.061695055090778
0.067621279486294
0.065117037306429
-0.106283045874191
-0.061695055090778
0.067621279486294
0.065117037306429
-0.106283045874191
-0.061695055090778
0.067621279486294
0.065117037306429
-0.106283045874191
-0.061695055090778
0.067621279486294
0.065117037306429
-0.106283045874191
-0.061695055090778
0.067621279486294
0.065117037306429
-0.106283045874191
-0.061695055090778
0.067621279486294
0.000000000000000
-0.000000000000000
-0.000000000000000
0.000000000000000
0.089365831735744
-0.180085613883322
-0.087854294558397
0.072786009029855
0.089365831735744
-0.180085613883322
-0.087854294558397
0.072786009029855
0.089365831735744
-0.180085613883322
-0.087854294558397
0.072786009029855
0.089365831735744
-0.180085613883322
-0.087854294558397
0.072786009029855
0.089365831735744
-0.180085613883322
-0.087854294558397
0.072786009029855
0.089365831735744
-0.180085613883322
-0.087854294558397
0.072786009029855
0.089365831735744
-0.180085613883322
-0.087854294558397
0.072786009029855
0.000000000000000
-0.000000000000000
0.000000000000000
0.000000000000000
0.023010707592648
-0.163353963396707
0.122370050001303
0.055064303982583
0.023010707592648
-0.163353963396707
0.122370050001303
0.055064303982583
0.023010707592648
-0.163353963396707
0.122370050001303
0.055064303982583
0.023010707592648
-0.163353963396707
0.122370050001303
0.055064303982583
0.023010707592648
-0.163353963396707
0.122370050001303
0.055064303982583
0.023010707592648
-0.163353963396707
0.122370050001303
0.055064303982583
0.023010707592648
-0.163353963396707
0.122370050001303
0.055064303982583
-0.000000000000000
-0.000000000000000
-0.000000000000000
0.000000000000000
-0.148625556135063
-0.012382026707928
-0.006611262180134
0.036174212175309
-0.148625556135063
-0.012382026707928
-0.006611262180134
0.036174212175309
-0.148625556135063
-0.012382026707928
-0.006611262180134
0.036174212175309
-0.148625556135063
-0.012382026707928
-0.006611262180134
0.036174212175309
-0.148625556135063
-0.012382026707928
-0.006611262180134
0.036174212175309
-0.148625556135063
-0.012382026707928
-0.006611262180134
0.036174212175309
-0.148625556135063
-0.012382026707928
-0.006611262180134
0.036174212175309
0.000000000000000
-0.000000000000000
-0.000000000000000
0.000000000000000
0.065117037306429
-0.106283045874191
-0.061695055090778
0.067621279486294
0.065117037306429
-0.106283045874191
-0.061695055090778
0.067621279486294
0.065117037306429
-0.106283045874191
-0.061695055090778
0.067621279486294
0.065117037306429
-0.106283045874191
-0.061695055090778
0.067621279486294
0.065117037306429
-0.106283045874191
-0.061695055090778
0.067621279486294
0.065117037306429
-0.106283045874191
-0.061695055090778
0.067621279486294
0.065117037306429
-0.106283045874191
-0.061695055090778
0.067621279486294
0.000000000000000
-0.000000000000000
-0.000000000000000
0.000000000000000
0.089365831735744
-0.180085613883322
-0.087854294558397
0.072786009029855
0.089365831735744
-0.180085613883322
-0.087854294558397
0.072786009029855
0.089365831735744
-0.180085613883322
-0.087854294558397
0.072786009029855
0.089365831735744
-0.180085613883322
-0.087854294558397
0.072786009029855
0.089365831735744
-0.180085613883322
-0.087854294558397
0.072786009029855
0.089365831735744
-0.180085613883322
-0.087854294558397
0.072786009029855
0.089365831735744
-0.180085613883322
-0.087854294558397
0.072786009029855
0.000000000000000
-0.000000000000000
0.000000000000000
0.000000000000000
0.023010707592648
-0.163353963396707
0.122370050001303
0.055064303982583
0.023010707592648
-0.163353963396707
0.122370050001303
0.055064303982583
0.023010707592648
-0.163353963396707
0.122370050001303
0.055064303982583
0.023010707592648
-0.163353963396707
0.122370050001303
0.055064303982583
0.023010707592648
-0.163353963396707
0.122370050001303
0.055064303982583
0.023010707592648
-0.163353963396707
0.122370050001303
0.055064303982583
0.023010707592648
-0.163353963396707
0.122370050001303
0.055064303982583
-0.000000000000000
-0.000000000000000
-0.000000000000000
0.000000000000000
-0.148625556135063
-0.012382026707928
-0.006611262180134
0.036174212175309
-0.148625556135063
-0.012382026707928
-0.006611262180134
0.036174212175309
-0.148625556135063
-0.012382026707928
-0.006611262180134
0.036174212175309
-0.148625556135063
-0.012382026707928
-0.006611262180134
0.036174212175309
-0.148625556135063
-0.012382026707928
-0.006611262180134
0.036174212175309
-0.148625556135063
-0.012382026707928
-0.006611262180134
0.036174212175309
-0.148625556135063
-0.012382026707928
-0.006611262180134
0.036174212175309
0.000000000000000
-0.000000000000000
-0.000000000000000
0.000000000000000
0.065117037306429
-0.106283045874191
-0.061695055090778
0.067621279486294
0.065117037306429
-0.106283045874191
-0.061695055090778
0.067621279486294
0.065117037306429
-0.106283045874191
-0.061695055090778
0.067621279486294
0.065117037306429
-0.106283045874191
-0.061695055090778
0.067621279486294
0.065117037306429
-0.106283045874191
-0.061695055090778
0.067621279486294
0.065117037306429
-0.106283045874191
-0.061695055090778
0.067621279486294
0.065117037306429
-0.106283045874191
-0.061695055090778
0.067621279486294
0.000000000000000
-0.000000000000000
-0.000000000000000
0.000000000000000
0.089365831735744
-0.180085613883322
-0.087854294558397
0.072786009029855
0.089365831735744
-0.180085613883322
-0.087854294558397
0.072786009029855
0.089365831735744
-0.180085613883322
-0.087854294558397
0.072786009029855
0.089365831735744
-0.180085613883322
-0.087854294558397
0.072786009029855
0.089365831735744
-0.180085613883322
-0.087854294558397
0.072786009029855
0.089365831735744
-0.180085613883322
-0.087854294558397
0.072786009029855
0.089365831735744
-0.180085613883322
-0.087854294558397
0.072786009029855
0.000000000000000
-0.000000000000000
0.000000000000000
0.000000000000000
0.023010707592648
-0.163353963396707
0.122370050001303
0.055064303982583
0.023010707592648
-0.163353963396707
0.122370050001303
0.055064303982583
0.023010707592648
-0.163353963396707
0.122370050001303
0.055064303982583
0.023010707592648
-0.163353963396707
0.122370050001303
0.055064303982583
0.023010707592648
-0.163353963396707
0.122370050001303
0.055064303982583
0.023010707592648
-0.163353963396707
0.122370050001303
0.055064303982583
0.023010707592648
-0.163353963396707
0.122370050001303
0.055064303982583
-0.000000000000000
-0.000000000000000
-0.000000000000000
0.000000000000000
-0.148625556135063
-0.012382026707928
-0.006611262180134
0.036174212175309
-0.148625556135063
-0.012382026707928
-0.006611262180134
0.036174212175309
-0.148625556135063
-0.012382026707928
-0.006611262180134
0.036174212175309
-0.148625556135063
-0.012382026707928
-0.006611262180134
0.036174212175309
-0.148625556135063
-0.012382026707928
-0.006611262180134
0.036174212175309
-0.148625556135063
-0.012382026707928
-0.006611262180134
0.036174212175309
-0.148625556135063
-0.012382026707928
-0.006611262180134
0.036174212175309
0.000000000000000
-0.000000000000000
-0.000000000000000
0.000000000000000
0.065117037306429
-0.106283045874191
-0.061695055090778
0.067621279486294
0.065117037306429
-0.106283045874191
-0.061695055090778
0.067621279486294
0.065117037306429
-0.106283045874191
-0.061695055090778
0.067621279486294
0.065117037306429
-0.106283045874191
-0.061695055090778
0.067621279486294
0.065117037306429
-0.106283045874191
-0.061695055090778
0.067621279486294
0.065117037306429
-0.106283045874191
-0.061695055090778
0.067621279486294
0.065117037306429
-0.106283045874191
-0.061695055090778
0.067621279486294
0.000000000000000
-0.000000000000000
-0.000000000000000
0.000000000000000
0.089365831735744
-0.180085613883322
-0.087854294558397
0.072786009029855
0.089365831735744
-0.180085613883322
-0.087854294558397
0.072786009029855
0.089365831735744
-0.180085613883322
-0.087854294558397
0.072786009029855
0.089365831735744
-0.180085613883322
-0.087854294558397
0.072786009029855
0.089365831735744
-0.180085613883322
-0.087854294558397
0.072786009029855
0.089365831735744
-0.180085613883322
-0.087854294558397
0.072786009029855
0.089365831735744
-0.180085613883322
-0.087854294558397
0.072786009029855
0.000000000000000
-0.000000000000000
0.000000000000000
0.000000000000000
0.023010707592648
-0.163353963396707
0.122370050001303
0.055064303982583
0.023010707592648
-0.163353963396707
0.122370050001303
0.055064303982583
0.023010707592648
-0.163353963396707
0.122370050001303
0.055064303982583
0.023010707592648
-0.163353963396707
0.122370050001303
0.055064303982583
0.023010707592648
-0.163353963396707
0.122370050001303
0.055064303982583
0.023010707592648
-0.163353963396707
0.122370050001303
0.055064303982583
0.023010707592648
-0.163353963396707
0.122370050001303
0.055064303982583
-0.000000000000000
-0.000000000000000
-0.000000000000000
0.000000000000000
-0.148625556135063
-0.012382026707928
-0.006611262180134
0.036174212175309
-0.148625556135063
-0.012382026707928
-0.006611262180134
0.036174212175309
-0.148625556135063
-0.012382026707928
-0.006611262180134
0.036174212175309
-0.148625556135063
-0.012382026707928
-0.006611262180134
0.036174212175309
-0.148625556135063
-0.012382026707928
-0.006611262180134
0.036174212175309
-0.148625556135063
-0.012382026707928
-0.006611262180134
0.036174212175309
-0.148625556135063
-0.012382026707928
-0.006611262180134
0.036174212175309
0.000000000000000
-0.000000000000000
-0.000000000000000
0.000000000000000
0.065117037306429
-0.106283045874191
-0.061695055090778
0.067621279486294
0.065117037306429
-0.106283045874191
-0.061695055090778
0.067621279486294
0.065117037306429
-0.106283045874191
-0.061695055090778
0.067621279486294
0.065117037306429
-0.106283045874191
-0.061695055090778
0.067621279486294
0.065117037306429
-0.106283045874191
-0.061695055090778
0.067621279486294
0.065117037306429
-0.106283045874191
-0.061695055090778
0.067621279486294
0.065117037306429
-0.106283045874191
-0.061695055090778
0.067621279486294
0.000000000000000
-0.000000000000000
-0.000000000000000
0.000000000000000
0.089365831735744
-0.180085613883322
-0.087854294558397
0.072786009029855
0.089365831735744
-0.180085613883322
-0.087854294558397
0.072786009029855
0.089365831735744
-0.180085613883322
-0.087854294558397
0.072786009029855
0.089365831735744
-0.180085613883322
-0.087854294558397
0.072786009029855
0.089365831735744
-0.180085613883322
-0.087854294558397
0.072786009029855
0.089365831735744
-0.180085613883322
-0.087854294558397
0.072786009029855
0.089365831735744
-0.180085613883322
-0.087854294558397
0.072786009029855
-0.000000000000000
-0.000000000000000
0.000000000000000
0.000000000000000
-0.000000000000000
-0.000000000000000
0.000000000000000
0.000000000000000
-0.000000000000000
-0.000000000000000
0.000000000000000
0.000000000000000
-0.000000000000000
-0.000000000000000
0.000000000000000
0.000000000000000
-0.000000000000000
-0.000000000000000
0.000000000000000
0.000000000000000
-0.000000000000000
-0.000000000000000
0.000000000000000
0.000000000000000
-0.000000000000000
-0.000000000000000
0.000000000000000
0.000000000000000
-0.000000000000000
-0.000000000000000
0.000000000000000
0.000000000000000
0.000000000000000
0.000000000000000
0.000000000000000
-0.000000000000000
0.000000000000000
0.000000000000000
0.000000000000000
-0.000000000000000
0.000000000000000
0.000000000000000
0.000000000000000
-0.000000000000000
0.000000000000000
0.000000000000000
0.000000000000000
-0.000000000000000
0.000000000000000
0.000000000000000
0.000000000000000
-0.000000000000000
0.000000000000000
0.000000000000000
0.000000000000000
-0.000000000000000
0.000000000000000
0.000000000000000
0.000000000000000
-0.000000000000000
0.000000000000000
0.000000000000000
0.000000000000000
-0.000000000000000
0.000000000000000
-0.000000000000000
-0.000000000000000
0.000000000000000
0.000000000000000
-0.000000000000000
-0.000000000000000
0.000000000000000
0.000000000000000
-0.000000000000000
-0.000000000000000
0.000000000000000
0.000000000000000
-0.000000000000000
-0.000000000000000
0.000000000000000
0.000000000000000
-0.000000000000000
-0.000000000000000
0.000000000000000
0.000000000000000
-0.000000000000000
-0.000000000000000
0.000000000000000
0.000000000000000
-0.000000000000000
-0.000000000000000
0.000000000000000
0.000000000000000
-0.000000000000000
-0.000000000000000
0.000000000000000
-0.000000000000000
0.000000000000000
0.000000000000000
-0.000000000000000
-0.000000000000000
0.000000000000000
0.000000000000000
-0.000000000000000
-0.000000000000000
0.000000000000000
0.000000000000000
-0.000000000000000
-0.000000000000000
0.000000000000000
0.000000000000000
-0.000000000000000
-0.000000000000000
0.000000000000000
0.000000000000000
-0.000000000000000
-0.000000000000000
0.000000000000000
0.000000000000000
-0.000000000000000
-0.000000000000000
0.000000000000000
0.000000000000000
-0.000000000000000
-0.000000000000000
0.000000000000000
0.000000000000000
-0.000000000000000
-0.000000000000000
-0.000000000000000
0.000000000000000
0.000000000000000
-0.128104886317192
-0.213956166701148
0.004303100343636
0.129966510870831
-0.128104886317192
-0.213956166701148
0.004303100343636
0.129966510870831
-0.128104886317192
-0.213956166701148
0.004303100343636
0.129966510870831
-0.128104886317192
-0.213956166701148
0.004303100343636
0.129966510870831
-0.128104886317192
-0.213956166701148
0.004303100343636
0.129966510870831
-0.128104886317192
-0.213956166701148
0.004303100343636
0.129966510870831
-0.128104886317192
-0.213956166701148
0.004303100343636
0.129966510870831
0.000000000000000
0.000000000000000
0.000000000000000
-0.000000000000000
0.147218073341921
0.084878699106685
0.037692915362135
-0.022641975503111
0.147218073341921
0.084878699106685
0.037692915362135
-0.022641975503111
0.147218073341921
0.084878699106685
0.037692915362135
-0.022641975503111
0.147218073341921
0.084878699106685
0.037692915362135
-0.022641975503111
0.147218073341921
0.084878699106685
0.037692915362135
-0.022641975503111
0.147218073341921
0.084878699106685
0.037692915362135
-0.022641975503111
0.147218073341921
0.084878699106685
0.037692915362135
-0.022641975503111
0.000000000000000
-0.000000000000000
-0.000000000000000
0.000000000000000
0.131317418182749
-0.103126860439326
-0.025963021693932
0.074227751238174
0.131317418182749
-0.103126860439326
-0.025963021693932
0.074227751238174
0.131317418182749
-0.103126860439326
-0.025963021693932
0.074227751238174
0.131317418182749
-0.103126860439326
-0.025963021693932
0.074227751238174
0.131317418182749
-0.103126860439326
-0.025963021693932
0.074227751238174
0.131317418182749
-0.103126860439326
-0.025963021693932
0.074227751238174
0.131317418182749
-0.103126860439326
-0.025963021693932
0.074227751238174
-0.000000000000000
0.000000000000000
0.000000000000000
-0.000000000000000
-0.073289887477142
0.028158588833559
0.093307136948790
-0.062353444482158
-0.073289887477142
0.028158588833559
0.093307136948790
-0.062353444482158
-0.073289887477142
0.028158588833559
0.093307136948790
-0.062353444482158
-0.073289887477142
0.028158588833559
0.093307136948790
-0.062353444482158
-0.073289887477142
0.028158588833559
0.093307136948790
-0.062353444482158
-0.073289887477142
0.028158588833559
0.093307136948790
-0.062353444482158
-0.073289887477142
0.028158588833559
0.093307136948790
-0.062353444482158
-0.000000000000000
-0.000000000000000
0.000000000000000
0.000000000000000
-0.128104886317192
-0.213956166701148
0.004303100343636
0.129966510870831
-0.128104886317192
-0.213956166701148
0.004303100343636
0.129966510870831
-0.128104886317192
-0.213956166701148
0.004303100343636
0.129966510870831
-0.128104886317192
-0.213956166701148
0.004303100343636
0.129966510870831
-0.128104886317192
-0.213956166701148
0.004303100343636
0.129966510870831
-0.128104886317192
-0.213956166701148
0.004303100343636
0.129966510870831
-0.128104886317192
-0.213956166701148
0.004303100343636
0.129966510870831
0.000000000000000
0.000000000000000
0.000000000000000
-0.000000000000000
0.147218073341921
0.084878699106685
0.037692915362135
-0.022641975503111
0.147218073341921
0.084878699106685
0.037692915362135
-0.022641975503111
0.147218073341921
0.084878699106685
0.037692915362135
-0.022641975503111
0.147218073341921
0.084878699106685
0.037692915362135
-0.022641975503111
0.147218073341921
0.084878699106685
0.037692915362135
-0.022641975503111
0.147218073341921
0.084878699106685
0.037692915362135
-0.022641975503111
0.147218073341921
0.084878699106685
0.037692915362135
-0.022641975503111
0.000000000000000
-0.000000000000000
-0.000000000000000
0.000000000000000
0.131317418182749
-0.103126860439326
-0.025963021693932
0.074227751238174
0.131317418182749
-0.103126860439326
-0.025963021693932
0.074227751238174
0.131317418182749
-0.103126860439326
-0.025963021693932
0.074227751238174
0.131317418182749
-0.103126860439326
-0.025963021693932
0.074227751238174
0.131317418182749
-0.103126860439326
-0.025963021693932
0.074227751238174
0.131317418182749
-0.103126860439326
-0.025963021693932
0.074227751238174
0.131317418182749
-0.103126860439326
-0.025963021693932
0.074227751238174
-0.000000000000000
0.000000000000000
0.000000000000000
-0.000000000000000
-0.073289887477142
0.028158588833559
0.093307136948790
-0.062353444482158
-0.073289887477142
0.028158588833559
0.093307136948790
-0.062353444482158
-0.073289887477142
0.028158588833559
0.093307136948790
-0.062353444482158
-0.073289887477142
0.028158588833559
0.093307136948790
-0.062353444482158
-0.073289887477142
0.028158588833559
0.093307136948790
-0.062353444482158
-0.073289887477142
0.028158588833559
0.093307136948790
-0.062353444482158
-0.073289887477142
0.028158588833559
0.093307136948790
-0.062353444482158
-0.000000000000000
-0.000000000000000
0.000000000000000
0.000000000000000
-0.128104886317192
-0.213956166701148
0.004303100343636
0.129966510870831
-0.128104886317192
-0.213956166701148
0.004303100343636
0.129966510870831
-0.128104886317192
-0.213956166701148
0.004303100343636
0.129966510870831
-0.128104886317192
-0.213956166701148
0.004303100343636
0.129966510870831
-0.128104886317192
-0.213956166701148
0.004303100343636
0.129966510870831
-0.128104886317192
-0.213956166701148
0.004303100343636
0.129966510870831
-0.128104886317192
-0.213956166701148
0.004303100343636
0.129966510870831
0.000000000000000
0.000000000000000
0.000000000000000
-0.000000000000000
0.147218073341921
0.084878699106685
0.037692915362135
-0.022641975503111
0.147218073341921
0.084878699106685
0.037692915362135
-0.022641975503111
0.147218073341921
0.084878699106685
0.037692915362135
-0.022641975503111
0.147218073341921
0.084878699106685
0.037692915362135
-0.022641975503111
0.147218073341921
0.084878699106685
0.037692915362135
-0.022641975503111
0.147218073341921
0.084878699106685
0.037692915362135
-0.022641975503111
0.147218073341921
0.084878699106685
0.037692915362135
-0.022641975503111
0.000000000000000
-0.000000000000000
-0.000000000000000
0.000000000000000
0.131317418182749
-0.103126860439326
-0.025963021693932
0.074227751238174
0.131317418182749
-0.103126860439326
-0.025963021693932
0.074227751238174
0.131317418182749
-0.103126860439326
-0.025963021693932
0.074227751238174
0.131317418182749
-0.103126860439326
-0.025963021693932
0.074227751238174
0.131317418182749
-0.103126860439326
-0.025963021693932
0.074227751238174
0.131317418182749
-0.103126860439326
-0.025963021693932
0.074227751238174
0.131317418182749
-0.103126860439326
-0.025963021693932
0.074227751238174
-0.000000000000000
0.000000000000000
0.000000000000000
-0.000000000000000
-0.073289887477142
0.028158588833559
0.093307136948790
-0.062353444482158
-0.073289887477142
0.028158588833559
0.093307136948790
-0.062353444482158
-0.073289887477142
0.028158588833559
0.093307136948790
-0.062353444482158
-0.073289887477142
0.028158588833559
0.093307136948790
-0.062353444482158
-0.073289887477142
0.028158588833559
0.093307136948790
-0.062353444482158
-0.073289887477142
0.028158588833559
0.093307136948790
-0.062353444482158
-0.073289887477142
0.028158588833559
0.093307136948790
-0.062353444482158
-0.000000000000000
-0.000000000000000
0.000000000000000
0.000000000000000
-0.128104886317192
-0.213956166701148
0.004303100343636
0.129966510870831
-0.128104886317192
-0.213956166701148
0.004303100343636
0.129966510870831
-0.128104886317192
-0.213956166701148
0.004303100343636
0.129966510870831
-0.128104886317192
-0.213956166701148
0.004303100343636
0.129966510870831
-0.128104886317192
-0.213956166701148
0.004303100343636
0.129966510870831
-0.128104886317192
-0.213956166701148
0.004303100343636
0.129966510870831
-0.128104886317192
-0.213956166701148
0.004303100343636
0.129966510870831
0.000000000000000
0.000000000000000
0.000000000000000
-0.000000000000000
0.147218073341921
0.084878699106685
0.037692915362135
-0.022641975503111
0.147218073341921
0.084878699106685
0.037692915362135
-0.022641975503111
0.147218073341921
0.084878699106685
0.037692915362135
-0.022641975503111
0.147218073341921
0.084878699106685
0.037692915362135
-0.022641975503111
0.147218073341921
0.084878699106685
0.037692915362135
-0.022641975503111
0.147218073341921
0.084878699106685
0.037692915362135
-0.022641975503111
0.147218073341921
0.084878699106685
0.037692915362135
-0.022641975503111
0.000000000000000
-0.000000000000000
-0.000000000000000
0.000000000000000
0.131317418182749
-0.103126860439326
-0.025963021693932
0.074227751238174
0.131317418182749
-0.103126860439326
-0.025963021693932
0.074227751238174
0.131317418182749
-0.103126860439326
-0.025963021693932
0.074227751238174
0.131317418182749
-0.103126860439326
-0.025963021693932
0.074227751238174
0.131317418182749
-0.103126860439326
-0.025963021693932
0.074227751238174
0.131317418182749
-0.103126860439326
-0.025963021693932
0.074227751238174
0.131317418182749
-0.103126860439326
-0.025963021693932
0.074227751238174
-0.000000000000000
0.000000000000000
0.000000000000000
-0.000000000000000
-0.073289887477142
0.028158588833559
0.093307136948790
-0.062353444482158
-0.073289887477142
0.028158588833559
0.093307136948790
-0.062353444482158
-0.073289887477142
0.028158588833559
0.093307136948790
-0.062353444482158
-0.073289887477142
0.028158588833559
0.093307136948790
-0.062353444482158
-0.073289887477142
0.028158588833559
0.093307136948790
-0.062353444482158
-0.073289887477142
0.028158588833559
0.093307136948790
-0.062353444482158
-0.073289887477142
0.028158588833559
0.093307136948790
-0.062353444482158
-0.000000000000000
-0.000000000000000
0.000000000000000
0.000000000000000
-0.128104886317192
-0.213956166701148
0.004303100343636
0.129966510870831
-0.128104886317192
-0.213956166701148
0.004303100343636
0.129966510870831
-0.128104886317192
-0.213956166701148
0.004303100343636
0.129966510870831
-0.128104886317192
-0.213956166701148
0.004303100343636
0.129966510870831
-0.128104886317192
-0.213956166701148
0.004303100343636
0.129966510870831
-0.128104886317192
-0.213956166701148
0.004303100343636
0.129966510870831
-0.128104886317192
-0.213956166701148
0.004303100343636
0.129966510870831
0.000000000000000
0.000000000000000
0.000000000000000
-0.000000000000000
0.147218073341921
0.084878699106685
0.037692915362135
-0.022641975503111
0.147218073341921
0.084878699106685
0.037692915362135
-0.022641975503111
0.147218073341921
0.084878699106685
0.037692915362135
-0.022641975503111
0.147218073341921
0.084878699106685
0.037692915362135
-0.022641975503111
0.147218073341921
0.084878699106685
0.037692915362135
-0.022641975503111
0.147218073341921
0.084878699106685
0.037692915362135
-0.022641975503111
0.147218073341921
0.084878699106685
0.037692915362135
-0.022641975503111
0.000000000000000
-0.000000000000000
-0.000000000000000
0.000000000000000
0.131317418182749
-0.103126860439326
-0.025963021693932
0.074227751238174
0.131317418182749
-0.103126860439326
-0.025963021693932
0.074227751238174
0.131317418182749
-0.103126860439326
-0.025963021693932
0.074227751238174
0.131317418182749
-0.103126860439326
-0.025963021693932
0.074227751238174
0.131317418182749
-0.103126860439326
-0.025963021693932
0.074227751238174
0.131317418182749
-0.103126860439326
-0.025963021693932
0.074227751238174
0.131317418182749
-0.103126860439326
-0.025963021693932
0.074227751238174
-0.000000000000000
0.000000000000000
0.000000000000000
-0.000000000000000
-0.073289887477142
0.028158588833559
0.093307136948790
-0.062353444482158
-0.073289887477142
0.028158588833559
0.093307136948790
-0.062353444482158
-0.073289887477142
0.028158588833559
0.093307136948790
-0.062353444482158
-0.073289887477142
0.028158588833559
0.093307136948790
-0.062353444482158
-0.073289887477142
0.028158588833559
0.093307136948790
-0.062353444482158
-0.073289887477142
0.028158588833559
0.093307136948790
-0.062353444482158
-0.073289887477142
0.028158588833559
0.093307136948790
-0.062353444482158
-0.000000000000000
-0.000000000000000
0.000000000000000
0.000000000000000
-0.128104886317192
-0.213956166701148
0.004303100343636
0.129966510870831
-0.128104886317192
-0.213956166701148
0.004303100343636
0.129966510870831
-0.128104886317192
-0.213956166701148
0.004303100343636
0.129966510870831
-0.128104886317192
-0.213956166701148
0.004303100343636
0.129966510870831
-0.128104886317192
-0.213956166701148
0.004303100343636
0.129966510870831
-0.128104886317192
-0.213956166701148
0.004303100343636
0.129966510870831
-0.128104886317192
-0.213956166701148
0.004303100343636
0.129966510870831
0.000000000000000
0.000000000000000
0.000000000000000
-0.000000000000000
0.147218073341921
0.084878699106685
0.037692915362135
-0.022641975503111
0.147218073341921
0.084878699106685
0.037692915362135
-0.022641975503111
0.147218073341921
0.084878699106685
0.037692915362135
-0.022641975503111
0.147218073341921
0.084878699106685
0.037692915362135
-0.022641975503111
0.147218073341921
0.084878699106685
0.037692915362135
-0.022641975503111
0.147218073341921
0.084878699106685
0.037692915362135
-0.022641975503111
0.147218073341921
0.084878699106685
0.037692915362135
-0.022641975503111
0.000000000000000
-0.000000000000000
-0.000000000000000
0.000000000000000
0.131317418182749
-0.103126860439326
-0.025963021693932
0.074227751238174
0.131317418182749
-0.103126860439326
-0.025963021693932
0.074227751238174
0.131317418182749
-0.103126860439326
-0.025963021693932
0.074227751238174
0.131317418182749
-0.103126860439326
-0.025963021693932
0.074227751238174
0.131317418182749
-0.103126860439326
-0.025963021693932
0.074227751238174
0.131317418182749
-0.103126860439326
-0.025963021693932
0.074227751238174
0.131317418182749
-0.103126860439326
-0.025963021693932
0.074227751238174
-0.000000000000000
0.000000000000000
0.000000000000000
-0.000000000000000
-0.073289887477142
0.028158588833559
0.093307136948790
-0.062353444482158
-0.073289887477142
0.028158588833559
0.093307136948790
-0.062353444482158
-0.073289887477142
0.028158588833559
0.093307136948790
-0.062353444482158
-0.073289887477142
0.028158588833559
0.093307136948790
-0.062353444482158
-0.073289887477142
0.028158588833559
0.093307136948790
-0.062353444482158
-0.073289887477142
0.028158588833559
0.093307136948790
-0.062353444482158
-0.073289887477142
0.028158588833559
0.093307136948790
-0.062353444482158
-0.000000000000000
-0.000000000000000
0.000000000000000
0.000000000000000
-0.128104886317192
-0.213956166701148
0.004303100343636
0.129966510870831
-0.128104886317192
-0.213956166701148
0.004303100343636
0.129966510870831
-0.128104886317192
-0.213956166701148
0.004303100343636
0.129966510870831
-0.128104886317192
-0.213956166701148
0.004303100343636
0.129966510870831
-0.128104886317192
-0.213956166701148
0.004303100343636
0.129966510870831
-0.128104886317192
-0.213956166701148
0.004303100343636
0.129966510870831
-0.128104886317192
-0.213956166701148
0.004303100343636
0.129966510870831
0.000000000000000
0.000000000000000
0.000000000000000
-0.000000000000000
0.147218073341921
0.084878699106685
0.037692915362135
-0.022641975503111
0.147218073341921
0.084878699106685
0.037692915362135
-0.022641975503111
0.147218073341921
0.084878699106685
0.037692915362135
-0.022641975503111
0.147218073341921
0.084878699106685
0.037692915362135
-0.022641975503111
0.147218073341921
0.084878699106685
0.037692915362135
-0.022641975503111
0.147218073341921
0.084878699106685
0.037692915362135
-0.022641975503111
0.147218073341921
0.084878699106685
0.037692915362135
-0.022641975503111
0.000000000000000
-0.000000000000000
-0.000000000000000
0.000000000000000
0.131317418182749
-0.103126860439326
-0.025963021693932
0.074227751238174
0.131317418182749
-0.103126860439326
-0.025963021693932
0.074227751238174
0.131317418182749
-0.103126860439326
-0.025963021693932
0.074227751238174
0.131317418182749
-0.103126860439326
-0.025963021693932
0.074227751238174
0.131317418182749
-0.103126860439326
-0.025963021693932
0.074227751238174
0.131317418182749
-0.103126860439326
-0.025963021693932
0.074227751238174
0.131317418182749
-0.103126860439326
-0.025963021693932
0.074227751238174
-0.000000000000000
0.000000000000000
0.000000000000000
-0.000000000000000
-0.073289887477142
0.028158588833559
0.093307136948790
-0.062353444482158
-0.073289887477142
0.028158588833559
0.093307136948790
-0.062353444482158
-0.073289887477142
0.028158588833559
0.093307136948790
-0.062353444482158
-0.073289887477142
0.028158588833559
0.093307136948790
-0.062353444482158
-0.073289887477142
0.028158588833559
0.093307136948790
-0.062353444482158
-0.073289887477142
0.028158588833559
0.093307136948790
-0.062353444482158
-0.073289887477142
0.028158588833559
0.093307136948790
-0.062353444482158
0.000000000000000
0.000000000000000
-0.000000000000000
-0.000000000000000
0.000000000000000
0.000000000000000
-0.000000000000000
-0.000000000000000
0.000000000000000
0.000000000000000
-0.000000000000000
-0.000000000000000
0.000000000000000
0.000000000000000
-0.000000000000000
-0.000000000000000
0.000000000000000
0.000000000000000
-0.000000000000000
-0.000000000000000
0.000000000000000
0.000000000000000
-0.000000000000000
-0.000000000000000
0.000000000000000
0.000000000000000
-0.000000000000000
-0.000000000000000
0.000000000000000
0.000000000000000
-0.000000000000000
-0.000000000000000
-0.000000000000000
0.000000000000000
0.000000000000000
-0.000000000000000
-0.000000000000000
0.000000000000000
0.000000000000000
-0.000000000000000
-0.000000000000000
0.000000000000000
0.000000000000000
-0.000000000000000
-0.000000000000000
0.000000000000000
0.000000000000000
-0.000000000000000
-0.000000000000000
0.000000000000000
0.000000000000000
-0.000000000000000
-0.000000000000000
0.000000000000000
0.000000000000000
-0.000000000000000
-0.000000000000000
0.000000000000000
0.000000000000000
-0.000000000000000
-0.000000000000000
0.000000000000000
0.000000000000000
-0.000000000000000
-0.000000000000000
-0.000000000000000
0.000000000000000
0.000000000000000
-0.000000000000000
-0.000000000000000
0.000000000000000
0.000000000000000
-0.000000000000000
-0.000000000000000
0.000000000000000
0.000000000000000
-0.000000000000000
-0.000000000000000
0.000000000000000
0.000000000000000
-0.000000000000000
-0.000000000000000
0.000000000000000
0.000000000000000
-0.000000000000000
-0.000000000000000
0.000000000000000
0.000000000000000
-0.000000000000000
-0.000000000000000
0.000000000000000
0.000000000000000
-0.000000000000000
-0.000000000000000
0.000000000000000
0.000000000000000
0.000000000000000
-0.000000000000000
-0.000000000000000
0.000000000000000
0.000000000000000
-0.000000000000000
-0.000000000000000
0.000000000000000
0.000000000000000
-0.000000000000000
-0.000000000000000
0.000000000000000
0.000000000000000
-0.000000000000000
-0.000000000000000
0.000000000000000
0.000000000000000
-0.000000000000000
-0.000000000000000
0.000000000000000
0.000000000000000
-0.000000000000000
-0.000000000000000
0.000000000000000
0.000000000000000
-0.000000000000000
-0.000000000000000
0.000000000000000
0.000000000000000
-0.000000000000000
-0.000000000000000
0.000000000000000
0.000000000000000
0.000000000000000
-0.000000000000000
-0.000000000000000
0.101500307173777
0.157288738050215
-0.091826717922191
-0.019744554997721
0.101500307173777
0.157288738050215
-0.091826717922191
-0.019744554997721
0.101500307173777
0.157288738050215
-0.091826717922191
-0.019744554997721
0.101500307173777
0.157288738050215
-0.091826717922191
-0.019744554997721
0.101500307173777
0.157288738050215
-0.091826717922191
-0.019744554997721
0.101500307173777
0.157288738050215
-0.091826717922191
-0.019744554997721
0.101500307173777
0.157288738050215
-0.091826717922191
-0.019744554997721
-0.000000000000000
0.000000000000000
0.000000000000000
-0.000000000000000
-0.075162146519733
0.072323097906161
0.068512057002398
-0.018476135326413
-0.075162146519733
0.072323097906161
0.068512057002398
-0.018476135326413
-0.075162146519733
0.072323097906161
0.068512057002398
-0.018476135326413
-0.075162146519733
0.072323097906161
0.068512057002398
-0.018476135326413
-0.075162146519733
0.072323097906161
0.068512057002398
-0.018476135326413
-0.075162146519733
0.072323097906161
0.068512057002398
-0.018476135326413
-0.075162146519733
0.072323097906161
0.068512057002398
-0.018476135326413
-0.000000000000000
-0.000000000000000
0.000000000000000
0.000000000000000
-0.002003076345299
-0.007339780299887
0.021557090750358
0.002417118883717
-0.002003076345299
-0.007339780299887
0.021557090750358
0.002417118883717
-0.002003076345299
-0.007339780299887
0.021557090750358
0.002417118883717
-0.002003076345299
-0.007339780299887
0.021557090750358
0.002417118883717
-0.002003076345299
-0.007339780299887
0.021557090750358
0.002417118883717
-0.002003076345299
-0.007339780299887
0.021557090750358
0.002417118883717
-0.002003076345299
-0.007339780299887
0.021557090750358
0.002417118883717
0.000000000000000
-0.000000000000000
-0.000000000000000
0.000000000000000
0.055962051179139
-0.054015154384859
-0.103237982668495
0.024377088904029
0.055962051179139
-0.054015154384859
-0.103237982668495
0.024377088904029
0.055962051179139
-0.054015154384859
-0.103237982668495
0.024377088904029
0.055962051179139
-0.054015154384859
-0.103237982668495
0.024377088904029
0.055962051179139
-0.054015154384859
-0.103237982668495
0.024377088904029
0.055962051179139
-0.054015154384859
-0.103237982668495
0.024377088904029
0.055962051179139
-0.054015154384859
-0.103237982668495
0.024377088904029
0.000000000000000
0.000000000000000
-0.000000000000000
-0.000000000000000
0.101500307173777
0.157288738050215
-0.091826717922191
-0.019744554997721
0.101500307173777
0.157288738050215
-0.091826717922191
-0.019744554997721
0.101500307173777
0.157288738050215
-0.091826717922191
-0.019744554997721
0.101500307173777
0.157288738050215
-0.091826717922191
-0.019744554997721
0.101500307173777
0.157288738050215
-0.091826717922191
-0.019744554997721
0.101500307173777
0.157288738050215
-0.091826717922191
-0.019744554997721
0.101500307173777
0.157288738050215
-0.091826717922191
-0.019744554997721
-0.000000000000000
0.000000000000000
0.000000000000000
-0.000000000000000
-0.075162146519733
0.072323097906161
0.068512057002398
-0.018476135326413
-0.075162146519733
0.072323097906161
0.068512057002398
-0.018476135326413
-0.075162146519733
0.072323097906161
0.068512057002398
-0.018476135326413
-0.075162146519733
0.072323097906161
0.068512057002398
-0.018476135326413
-0.075162146519733
0.072323097906161
0.068512057002398
-0.018476135326413
-0.075162146519733
0.072323097906161
0.068512057002398
-0.018476135326413
-0.075162146519733
0.072323097906161
0.068512057002398
-0.018476135326413
-0.000000000000000
-0.000000000000000
0.000000000000000
0.000000000000000
-0.002003076345299
-0.007339780299887
0.021557090750358
0.002417118883717
-0.002003076345299
-0.007339780299887
0.021557090750358
0.002417118883717
-0.002003076345299
-0.007339780299887
0.021557090750358
0.002417118883717
-0.002003076345299
-0.007339780299887
0.021557090750358
0.002417118883717
-0.002003076345299
-0.007339780299887
0.021557090750358
0.002417118883717
-0.002003076345299
-0.007339780299887
0.021557090750358
0.002417118883717
-0.002003076345299
-0.007339780299887
0.021557090750358
0.002417118883717
0.000000000000000
-0.000000000000000
-0.000000000000000
0.000000000000000
0.055962051179139
-0.054015154384859
-0.103237982668495
0.024377088904029
0.055962051179139
-0.054015154384859
-0.103237982668495
0.024377088904029
0.055962051179139
-0.054015154384859
-0.103237982668495
0.024377088904029
0.055962051179139
-0.054015154384859
-0.103237982668495
0.024377088904029
0.055962051179139
-0.054015154384859
-0.103237982668495
0.024377088904029
0.055962051179139
-0.054015154384859
-0.103237982668495
0.024377088904029
0.055962051179139
-0.054015154384859
-0.103237982668495
0.024377088904029
0.000000000000000
0.000000000000000
-0.000000000000000
-0.000000000000000
0.101500307173777
0.157288738050215
-0.091826717922191
-0.019744554997721
0.101500307173777
0.157288738050215
-0.091826717922191
-0.019744554997721
0.101500307173777
0.157288738050215
-0.091826717922191
-0.019744554997721
0.101500307173777
0.157288738050215
-0.091826717922191
-0.019744554997721
0.101500307173777
0.157288738050215
-0.091826717922191
-0.019744554997721
0.101500307173777
0.157288738050215
-0.091826717922191
-0.019744554997721
0.101500307173777
0.157288738050215
-0.091826717922191
-0.019744554997721
-0.000000000000000
0.000000000000000
0.000000000000000
-0.000000000000000
-0.075162146519733
0.072323097906161
0.068512057002398
-0.018476135326413
-0.075162146519733
0.072323097906161
0.068512057002398
-0.018476135326413
-0.075162146519733
0.072323097906161
0.068512057002398
-0.018476135326413
-0.075162146519733
0.072323097906161
0.068512057002398
-0.018476135326413
-0.075162146519733
0.072323097906161
0.068512057002398
-0.018476135326413
-0.075162146519733
0.072323097906161
0.068512057002398
-0.018476135326413
-0.075162146519733
0.072323097906161
0.068512057002398
-0.018476135326413
-0.000000000000000
-0.000000000000000
0.000000000000000
0.000000000000000
-0.002003076345299
-0.007339780299887
0.021557090750358
0.002417118883717
-0.002003076345299
-0.007339780299887
0.021557090750358
0.002417118883717
-0.002003076345299
-0.007339780299887
0.021557090750358
0.002417118883717
-0.002003076345299
-0.007339780299887
0.021557090750358
0.002417118883717
-0.002003076345299
-0.007339780299887
0.021557090750358
0.002417118883717
-0.002003076345299
-0.007339780299887
0.021557090750358
0.002417118883717
-0.002003076345299
-0.007339780299887
0.021557090750358
0.002417118883717
0.000000000000000
-0.000000000000000
-0.000000000000000
0.000000000000000
0.055962051179139
-0.054015154384859
-0.103237982668495
0.024377088904029
0.055962051179139
-0.054015154384859
-0.103237982668495
0.024377088904029
0.055962051179139
-0.054015154384859
-0.103237982668495
0.024377088904029
0.055962051179139
-0.054015154384859
-0.103237982668495
0.024377088904029
0.055962051179139
-0.054015154384859
-0.103237982668495
0.024377088904029
0.055962051179139
-0.054015154384859
-0.103237982668495
0.024377088904029
0.055962051179139
-0.054015154384859
-0.103237982668495
0.024377088904029
0.000000000000000
0.000000000000000
-0.000000000000000
-0.000000000000000
0.101500307173777
0.157288738050215
-0.091826717922191
-0.019744554997721
0.101500307173777
0.157288738050215
-0.091826717922191
-0.019744554997721
0.101500307173777
0.157288738050215
-0.091826717922191
-0.019744554997721
0.101500307173777
0.157288738050215
-0.091826717922191
-0.019744554997721
0.101500307173777
0.157288738050215
-0.091826717922191
-0.019744554997721
0.101500307173777
0.157288738050215
-0.091826717922191
-0.019744554997721
0.101500307173777
0.157288738050215
-0.091826717922191
-0.019744554997721
-0.000000000000000
0.000000000000000
0.000000000000000
-0.000000000000000
-0.075162146519733
0.072323097906161
0.068512057002398
-0.018476135326413
-0.075162146519733
0.072323097906161
0.068512057002398
-0.018476135326413
-0.075162146519733
0.072323097906161
0.068512057002398
-0.018476135326413
-0.075162146519733
0.072323097906161
0.068512057002398
-0.018476135326413
-0.075162146519733
0.072323097906161
0.068512057002398
-0.018476135326413
-0.075162146519733
0.072323097906161
0.068512057002398
-0.018476135326413
-0.075162146519733
0.072323097906161
0.068512057002398
-0.018476135326413
-0.000000000000000
-0.000000000000000
0.000000000000000
0.000000000000000
-0.002003076345299
-0.007339780299887
0.021557090750358
0.002417118883717
-0.002003076345299
-0.007339780299887
0.021557090750358
0.002417118883717
-0.002003076345299
-0.007339780299887
0.021557090750358
0.002417118883717
-0.002003076345299
-0.007339780299887
0.021557090750358
0.002417118883717
-0.002003076345299
-0.007339780299887
0.021557090750358
0.002417118883717
-0.002003076345299
-0.007339780299887
0.021557090750358
0.002417118883717
-0.002003076345299
-0.007339780299887
0.021557090750358
0.002417118883717
0.000000000000000
-0.000000000000000
-0.000000000000000
0.000000000000000
0.055962051179139
-0.054015154384859
-0.103237982668495
0.024377088904029
0.055962051179139
-0.054015154384859
-0.103237982668495
0.024377088904029
0.055962051179139
-0.054015154384859
-0.103237982668495
0.024377088904029
0.055962051179139
-0.054015154384859
-0.103237982668495
0.024377088904029
0.055962051179139
-0.054015154384859
-0.103237982668495
0.024377088904029
0.055962051179139
-0.054015154384859
-0.103237982668495
0.024377088904029
0.055962051179139
-0.054015154384859
-0.103237982668495
0.024377088904029
0.000000000000000
0.000000000000000
-0.000000000000000
-0.000000000000000
0.101500307173777
0.157288738050215
-0.091826717922191
-0.019744554997721
0.101500307173777
0.157288738050215
-0.091826717922191
-0.019744554997721
0.101500307173777
0.157288738050215
-0.091826717922191
-0.019744554997721
0.101500307173777
0.157288738050215
-0.091826717922191
-0.019744554997721
0.101500307173777
0.157288738050215
-0.091826717922191
-0.019744554997721
0.101500307173777
0.157288738050215
-0.091826717922191
-0.019744554997721
0.101500307173777
0.157288738050215
-0.091826717922191
-0.019744554997721
-0.000000000000000
0.000000000000000
0.000000000000000
-0.000000000000000
-0.075162146519733
0.072323097906161
0.068512057002398
-0.018476135326413
-0.075162146519733
0.072323097906161
0.068512057002398
-0.018476135326413
-0.075162146519733
0.072323097906161
0.068512057002398
-0.018476135326413
-0.075162146519733
0.072323097906161
0.068512057002398
-0.018476135326413
-0.075162146519733
0.072323097906161
0.068512057002398
-0.018476135326413
-0.075162146519733
0.072323097906161
0.068512057002398
-0.018476135326413
-0.075162146519733
0.072323097906161
0.068512057002398
-0.018476135326413
-0.000000000000000
-0.000000000000000
0.000000000000000
0.000000000000000
-0.002003076345299
-0.007339780299887
0.021557090750358
0.002417118883717
-0.002003076345299
-0.007339780299887
0.021557090750358
0.002417118883717
-0.002003076345299
-0.007339780299887
0.021557090750358
0.002417118883717
-0.002003076345299
-0.007339780299887
0.021557090750358
0.002417118883717
-0.002003076345299
-0.007339780299887
0.021557090750358
0.002417118883717
-0.002003076345299
-0.007339780299887
0.021557090750358
0.002417118883717
-0.002003076345299
-0.007339780299887
0.021557090750358
0.002417118883717
0.000000000000000
-0.000000000000000
-0.000000000000000
0.000000000000000
0.055962051179139
-0.054015154384859
-0.103237982668495
0.024377088904029
0.055962051179139
-0.054015154384859
-0.103237982668495
0.024377088904029
0.055962051179139
-0.054015154384859
-0.103237982668495
0.024377088904029
0.055962051179139
-0.054015154384859
-0.103237982668495
0.024377088904029
0.055962051179139
-0.054015154384859
-0.103237982668495
0.024377088904029
0.055962051179139
-0.054015154384859
-0.103237982668495
0.024377088904029
0.055962051179139
-0.054015154384859
-0.103237982668495
0.024377088904029
0.000000000000000
0.000000000000000
-0.000000000000000
-0.000000000000000
0.101500307173777
0.157288738050215
-0.091826717922191
-0.019744554997721
0.101500307173777
0.157288738050215
-0.091826717922191
-0.019744554997721
0.101500307173777
0.157288738050215
-0.091826717922191
-0.019744554997721
0.101500307173777
0.157288738050215
-0.091826717922191
-0.019744554997721
0.101500307173777
0.157288738050215
-0.091826717922191
-0.019744554997721
0.101500307173777
0.157288738050215
-0.091826717922191
-0.019744554997721
0.101500307173777
0.157288738050215
-0.091826717922191
-0.019744554997721
-0.000000000000000
0.000000000000000
0.000000000000000
-0.000000000000000
-0.075162146519733
0.072323097906161
0.068512057002398
-0.018476135326413
-0.075162146519733
0.072323097906161
0.068512057002398
-0.018476135326413
-0.075162146519733
0.072323097906161
0.068512057002398
-0.018476135326413
-0.075162146519733
0.072323097906161
0.068512057002398
-0.018476135326413
-0.075162146519733
0.072323097906161
0.068512057002398
-0.018476135326413
-0.075162146519733
0.072323097906161
0.068512057002398
-0.018476135326413
-0.075162146519733
0.072323097906161
0.068512057002398
-0.018476135326413
-0.000000000000000
-0.000000000000000
0.000000000000000
0.000000000000000
-0.002003076345299
-0.007339780299887
0.021557090750358
0.002417118883717
-0.002003076345299
-0.007339780299887
0.021557090750358
0.002417118883717
-0.002003076345299
-0.007339780299887
0.021557090750358
0.002417118883717
-0.002003076345299
-0.007339780299887
0.021557090750358
0.002417118883717
-0.002003076345299
-0.007339780299887
0.021557090750358
0.002417118883717
-0.002003076345299
-0.007339780299887
0.021557090750358
0.002417118883717
-0.002003076345299
-0.007339780299887
0.021557090750358
0.002417118883717
0.000000000000000
-0.000000000000000
-0.000000000000000
0.000000000000000
0.055962051179139
-0.054015154384859
-0.103237982668495
0.024377088904029
0.055962051179139
-0.054015154384859
-0.103237982668495
0.024377088904029
0.055962051179139
-0.054015154384859
-0.103237982668495
0.024377088904029
0.055962051179139
-0.054015154384859
-0.103237982668495
0.024377088904029
0.055962051179139
-0.054015154384859
-0.103237982668495
0.024377088904029
0.055962051179139
-0.054015154384859
-0.103237982668495
0.024377088904029
0.055962051179139
-0.054015154384859
-0.103237982668495
0.024377088904029
0.000000000000000
0.000000000000000
-0.000000000000000
-0.000000000000000
0.101500307173777
0.157288738050215
-0.091826717922191
-0.019744554997721
0.101500307173777
0.157288738050215
-0.091826717922191
-0.019744554997721
0.101500307173777
0.157288738050215
-0.091826717922191
-0.019744554997721
0.101500307173777
0.157288738050215
-0.091826717922191
-0.019744554997721
0.101500307173777
0.157288738050215
-0.091826717922191
-0.019744554997721
0.101500307173777
0.157288738050215
-0.091826717922191
-0.019744554997721
0.101500307173777
0.157288738050215
-0.091826717922191
-0.019744554997721
-0.000000000000000
0.000000000000000
0.000000000000000
-0.000000000000000
-0.075162146519733
0.072323097906161
0.068512057002398
-0.018476135326413
-0.075162146519733
0.072323097906161
0.068512057002398
-0.018476135326413
-0.075162146519733
0.072323097906161
0.068512057002398
-0.018476135326413
-0.075162146519733
0.072323097906161
0.068512057002398
-0.018476135326413
-0.075162146519733
0.072323097906161
0.068512057002398
-0.018476135326413
-0.075162146519733
0.072323097906161
0.068512057002398
-0.018476135326413
-0.075162146519733
0.072323097906161
0.068512057002398
-0.018476135326413
-0.000000000000000
-0.000000000000000
0.000000000000000
0.000000000000000
-0.002003076345299
-0.007339780299887
0.021557090750358
0.002417118883717
-0.002003076345299
-0.007339780299887
0.021557090750358
0.002417118883717
-0.002003076345299
-0.007339780299887
0.021557090750358
0.002417118883717
-0.002003076345299
-0.007339780299887
0.021557090750358
0.002417118883717
-0.002003076345299
-0.007339780299887
0.021557090750358
0.002417118883717
-0.002003076345299
-0.007339780299887
0.021557090750358
0.002417118883717
-0.002003076345299
-0.007339780299887
0.021557090750358
0.002417118883717
0.000000000000000
-0.000000000000000
-0.000000000000000
0.000000000000000
0.055962051179139
-0.054015154384859
-0.103237982668495
0.024377088904029
0.055962051179139
-0.054015154384859
-0.103237982668495
0.024377088904029
0.055962051179139
-0.054015154384859
-0.103237982668495
0.024377088904029
0.055962051179139
-0.054015154384859
-0.103237982668495
0.024377088904029
0.055962051179139
-0.054015154384859
-0.103237982668495
0.024377088904029
0.055962051179139
-0.054015154384859
-0.103237982668495
0.024377088904029
0.055962051179139
-0.054015154384859
-0.103237982668495
0.024377088904029
-0.000000000000000
-0.000000000000000
-0.000000000000000
-0.000000000000000
-0.000000000000000
-0.000000000000000
-0.000000000000000
-0.000000000000000
-0.000000000000000
-0.000000000000000
-0.000000000000000
-0.000000000000000
-0.000000000000000
-0.000000000000000
-0.000000000000000
-0.000000000000000
-0.000000000000000
-0.000000000000000
-0.000000000000000
-0.000000000000000
-0.000000000000000
-0.000000000000000
-0.000000000000000
-0.000000000000000
-0.000000000000000
-0.000000000000000
-0.000000000000000
-0.000000000000000
-0.000000000000000
-0.000000000000000
-0.000000000000000
-0.000000000000000
0.000000000000000
0.000000000000000
-0.000000000000000
0.000000000000000
0.000000000000000
0.000000000000000
-0.000000000000000
0.000000000000000
0.000000000000000
0.000000000000000
-0.000000000000000
0.000000000000000
0.000000000000000
0.000000000000000
-0.000000000000000
0.000000000000000
0.000000000000000
0.000000000000000
-0.000000000000000
0.000000000000000
0.000000000000000
0.000000000000000
-0.000000000000000
0.000000000000000
0.000000000000000
0.000000000000000
-0.000000000000000
0.000000000000000
0.000000000000000
0.000000000000000
-0.000000000000000
0.000000000000000
-0.000000000000000
-0.000000000000000
0.000000000000000
-0.000000000000000
-0.000000000000000
-0.000000000000000
0.000000000000000
-0.000000000000000
-0.000000000000000
-0.000000000000000
0.000000000000000
-0.000000000000000
-0.000000000000000
-0.000000000000000
0.000000000000000
-0.000000000000000
-0.000000000000000
-0.000000000000000
0.000000000000000
-0.000000000000000
-0.000000000000000
-0.000000000000000
0.000000000000000
-0.000000000000000
-0.000000000000000
-0.000000000000000
0.000000000000000
-0.000000000000000
-0.000000000000000
-0.000000000000000
0.000000000000000
-0.000000000000000
-0.000000000000000
0.000000000000000
-0.000000000000000
0.000000000000000
-0.000000000000000
0.000000000000000
-0.000000000000000
0.000000000000000
-0.000000000000000
0.000000000000000
-0.000000000000000
0.000000000000000
-0.000000000000000
0.000000000000000
-0.000000000000000
0.000000000000000
-0.000000000000000
0.000000000000000
-0.000000000000000
0.000000000000000
-0.000000000000000
0.000000000000000
-0.000000000000000
0.000000000000000
-0.000000000000000
0.000000000000000
-0.000000000000000
0.000000000000000
-0.000000000000000
0.000000000000000
-0.000000000000000
0.000000000000000
-0.000000000000000
-0.000000000000000
-0.000000000000000
-0.000000000000000
-0.308560704668632
-0.176412614733971
-0.224155367559749
-0.053131070479034
-0.308560704668632
-0.176412614733971
-0.224155367559749
-0.053131070479034
-0.308560704668632
-0.176412614733971
-0.224155367559749
-0.053131070479034
-0.308560704668632
-0.176412614733971
-0.224155367559749
-0.053131070479034
-0.308560704668632
-0.176412614733971
-0.224155367559749
-0.053131070479034
-0.308560704668632
-0.176412614733971
-0.224155367559749
-0.053131070479034
-0.308560704668632
-0.176412614733971
-0.224155367559749
-0.053131070479034
0.000000000000000
0.000000000000000
-0.000000000000000
0.000000000000000
0.095783128427572
0.036569311778163
-0.105268017115422
0.070504790307788
0.095783128427572
0.036569311778163
-0.105268017115422
0.070504790307788
0.095783128427572
0.036569311778163
-0.105268017115422
0.070504790307788
0.095783128427572
0.036569311778163
-0.105268017115422
0.070504790307788
0.095783128427572
0.036569311778163
-0.105268017115422
0.070504790307788
0.095783128427572
0.036569311778163
-0.105268017115422
0.070504790307788
0.095783128427572
0.036569311778163
-0.105268017115422
0.070504790307788
-0.000000000000000
-0.000000000000000
0.000000000000000
-0.000000000000000
-0.000648209496473
-0.003841351143971
0.132922399098340
-0.365926464303558
-0.000648209496473
-0.003841351143971
0.132922399098340
-0.365926464303558
-0.000648209496473
-0.003841351143971
0.132922399098340
-0.365926464303558
-0.000648209496473
-0.003841351143971
0.132922399098340
-0.365926464303558
-0.000648209496473
-0.003841351143971
0.132922399098340
-0.365926464303558
-0.000648209496473
-0.003841351143971
0.132922399098340
-0.365926464303558
-0.000648209496473
-0.003841351143971
0.132922399098340
-0.365926464303558
-0.000000000000000
0.000000000000000
-0.000000000000000
0.000000000000000
-0.082457218337211
0.052717532691874
-0.095895660477975
0.286518265709347
-0.082457218337211
0.052717532691874
-0.095895660477975
0.286518265709347
-0.082457218337211
0.052717532691874
-0.095895660477975
0.286518265709347
-0.082457218337211
0.052717532691874
-0.095895660477975
0.286518265709347
-0.082457218337211
0.052717532691874
-0.095895660477975
0.286518265709347
-0.082457218337211
0.052717532691874
-0.095895660477975
0.286518265709347
-0.082457218337211
0.052717532691874
-0.095895660477975
0.286518265709347
-0.000000000000000
-0.000000000000000
-0.000000000000000
-0.000000000000000
-0.308560704668632
-0.176412614733971
-0.224155367559749
-0.053131070479034
-0.308560704668632
-0.176412614733971
-0.224155367559749
-0.053131070479034
-0.308560704668632
-0.176412614733971
-0.224155367559749
-0.053131070479034
-0.308560704668632
-0.176412614733971
-0.224155367559749
-0.053131070479034
-0.308560704668632
-0.176412614733971
-0.224155367559749
-0.053131070479034
-0.308560704668632
-0.176412614733971
-0.224155367559749
-0.053131070479034
-0.308560704668632
-0.176412614733971
-0.224155367559749
-0.053131070479034
0.000000000000000
0.000000000000000
-0.000000000000000
0.000000000000000
0.095783128427572
0.036569311778163
-0.105268017115422
0.070504790307788
0.095783128427572
0.036569311778163
-0.105268017115422
0.070504790307788
0.095783128427572
0.036569311778163
-0.105268017115422
0.070504790307788
0.095783128427572
0.036569311778163
-0.105268017115422
0.070504790307788
0.095783128427572
0.036569311778163
-0.105268017115422
0.070504790307788
0.095783128427572
0.036569311778163
-0.105268017115422
0.070504790307788
0.095783128427572
0.036569311778163
-0.105268017115422
0.070504790307788
-0.000000000000000
-0.000000000000000
0.000000000000000
-0.000000000000000
-0.000648209496473
-0.003841351143971
0.132922399098340
-0.365926464303558
-0.000648209496473
-0.003841351143971
0.132922399098340
-0.365926464303558
-0.000648209496473
-0.003841351143971
0.132922399098340
-0.365926464303558
-0.000648209496473
-0.003841351143971
0.132922399098340
-0.365926464303558
-0.000648209496473
-0.003841351143971
0.132922399098340
-0.365926464303558
-0.000648209496473
-0.003841351143971
0.132922399098340
-0.365926464303558
-0.000648209496473
-0.003841351143971
0.132922399098340
-0.365926464303558
-0.000000000000000
0.000000000000000
-0.000000000000000
0.000000000000000
-0.082457218337211
0.052717532691874
-0.095895660477975
0.286518265709347
-0.082457218337211
0.052717532691874
-0.095895660477975
0.286518265709347
-0.082457218337211
0.052717532691874
-0.095895660477975
0.286518265709347
-0.082457218337211
0.052717532691874
-0.095895660477975
0.286518265709347
-0.082457218337211
0.052717532691874
-0.095895660477975
0.286518265709347
-0.082457218337211
0.052717532691874
-0.095895660477975
0.286518265709347
-0.082457218337211
0.052717532691874
-0.095895660477975
0.286518265709347
-0.000000000000000
-0.000000000000000
-0.000000000000000
-0.000000000000000
-0.308560704668632
-0.176412614733971
-0.224155367559749
-0.053131070479034
-0.308560704668632
-0.176412614733971
-0.224155367559749
-0.053131070479034
-0.308560704668632
-0.176412614733971
-0.224155367559749
-0.053131070479034
-0.308560704668632
-0.176412614733971
-0.224155367559749
-0.053131070479034
-0.308560704668632
-0.176412614733971
-0.224155367559749
-0.053131070479034
-0.308560704668632
-0.176412614733971
-0.224155367559749
-0.053131070479034
-0.308560704668632
-0.176412614733971
-0.224155367559749
-0.053131070479034
0.000000000000000
0.000000000000000
-0.000000000000000
0.000000000000000
0.095783128427572
0.036569311778163
-0.105268017115422
0.070504790307788
0.095783128427572
0.036569311778163
-0.105268017115422
0.070504790307788
0.095783128427572
0.036569311778163
-0.105268017115422
0.070504790307788
0.095783128427572
0.036569311778163
-0.105268017115422
0.070504790307788
0.095783128427572
0.036569311778163
-0.105268017115422
0.070504790307788
0.095783128427572
0.036569311778163
-0.105268017115422
0.070504790307788
0.095783128427572
0.036569311778163
-0.105268017115422
0.070504790307788
-0.000000000000000
-0.000000000000000
0.000000000000000
-0.000000000000000
-0.000648209496473
-0.003841351143971
0.132922399098340
-0.365926464303558
-0.000648209496473
-0.003841351143971
0.132922399098340
-0.365926464303558
-0.000648209496473
-0.003841351143971
0.132922399098340
-0.365926464303558
-0.000648209496473
-0.003841351143971
0.132922399098340
-0.365926464303558
-0.000648209496473
-0.003841351143971
0.132922399098340
-0.365926464303558
-0.000648209496473
-0.003841351143971
0.132922399098340
-0.365926464303558
-0.000648209496473
-0.003841351143971
0.132922399098340
-0.365926464303558
-0.000000000000000
0.000000000000000
-0.000000000000000
0.000000000000000
-0.082457218337211
0.052717532691874
-0.095895660477975
0.286518265709347
-0.082457218337211
0.052717532691874
-0.095895660477975
0.286518265709347
-0.082457218337211
0.052717532691874
-0.095895660477975
0.286518265709347
-0.082457218337211
0.052717532691874
-0.095895660477975
0.286518265709347
-0.082457218337211
0.052717532691874
-0.095895660477975
0.286518265709347
-0.082457218337211
0.052717532691874
-0.095895660477975
0.286518265709347
-0.082457218337211
0.052717532691874
-0.095895660477975
0.286518265709347
-0.000000000000000
-0.000000000000000
-0.000000000000000
-0.000000000000000
-0.308560704668632
-0.176412614733971
-0.224155367559749
-0.053131070479034
-0.308560704668632
-0.176412614733971
-0.224155367559749
-0.053131070479034
-0.308560704668632
-0.176412614733971
-0.224155367559749
-0.053131070479034
-0.308560704668632
-0.176412614733971
-0.224155367559749
-0.053131070479034
-0.308560704668632
-0.176412614733971
-0.224155367559749
-0.053131070479034
-0.308560704668632
-0.176412614733971
-0.224155367559749
-0.053131070479034
-0.308560704668632
-0.176412614733971
-0.224155367559749
-0.053131070479034
0.000000000000000
0.000000000000000
-0.000000000000000
0.000000000000000
0.095783128427572
0.036569311778163
-0.105268017115422
0.070504790307788
0.095783128427572
0.036569311778163
-0.105268017115422
0.070504790307788
0.095783128427572
0.036569311778163
-0.105268017115422
0.070504790307788
0.095783128427572
0.036569311778163
-0.105268017115422
0.070504790307788
0.095783128427572
0.036569311778163
-0.105268017115422
0.070504790307788
0.095783128427572
0.036569311778163
-0.105268017115422
0.070504790307788
0.095783128427572
0.036569311778163
-0.105268017115422
0.070504790307788
-0.000000000000000
-0.000000000000000
0.000000000000000
-0.000000000000000
-0.000648209496473
-0.003841351143971
0.132922399098340
-0.365926464303558
-0.000648209496473
-0.003841351143971
0.132922399098340
-0.365926464303558
-0.000648209496473
-0.003841351143971
0.132922399098340
-0.365926464303558
-0.000648209496473
-0.003841351143971
0.132922399098340
-0.365926464303558
-0.000648209496473
-0.003841351143971
0.132922399098340
-0.365926464303558
-0.000648209496473
-0.003841351143971
0.132922399098340
-0.365926464303558
-0.000648209496473
-0.003841351143971
0.132922399098340
-0.365926464303558
-0.000000000000000
0.000000000000000
-0.000000000000000
0.000000000000000
-0.082457218337211
0.052717532691874
-0.095895660477975
0.286518265709347
-0.082457218337211
0.052717532691874
-0.095895660477975
0.286518265709347
-0.082457218337211
0.052717532691874
-0.095895660477975
0.286518265709347
-0.082457218337211
0.052717532691874
-0.095895660477975
0.286518265709347
-0.082457218337211
0.052717532691874
-0.095895660477975
0.286518265709347
-0.082457218337211
0.052717532691874
-0.095895660477975
0.286518265709347
-0.082457218337211
0.052717532691874
-0.095895660477975
0.286518265709347
-0.000000000000000
-0.000000000000000
-0.000000000000000
-0.000000000000000
-0.308560704668632
-0.176412614733971
-0.224155367559749
-0.053131070479034
-0.308560704668632
-0.176412614733971
-0.224155367559749
-0.053131070479034
-0.308560704668632
-0.176412614733971
-0.224155367559749
-0.053131070479034
-0.308560704668632
-0.176412614733971
-0.224155367559749
-0.053131070479034
-0.308560704668632
-0.176412614733971
-0.224155367559749
-0.053131070479034
-0.308560704668632
-0.176412614733971
-0.224155367559749
-0.053131070479034
-0.308560704668632
-0.176412614733971
-0.224155367559749
-0.053131070479034
0.000000000000000
0.000000000000000
-0.000000000000000
0.000000000000000
0.095783128427572
0.036569311778163
-0.105268017115422
0.070504790307788
0.095783128427572
0.036569311778163
-0.105268017115422
0.070504790307788
0.095783128427572
0.036569311778163
-0.105268017115422
0.070504790307788
0.095783128427572
0.036569311778163
-0.105268017115422
0.070504790307788
0.095783128427572
0.036569311778163
-0.105268017115422
0.070504790307788
0.095783128427572
0.036569311778163
-0.105268017115422
0.070504790307788
0.095783128427572
0.036569311778163
-0.105268017115422
0.070504790307788
-0.000000000000000
-0.000000000000000
0.000000000000000
-0.000000000000000
-0.000648209496473
-0.003841351143971
0.132922399098340
-0.365926464303558
-0.000648209496473
-0.003841351143971
0.132922399098340
-0.365926464303558
-0.000648209496473
-0.003841351143971
0.132922399098340
-0.365926464303558
-0.000648209496473
-0.003841351143971
0.132922399098340
-0.365926464303558
-0.000648209496473
-0.003841351143971
0.132922399098340
-0.365926464303558
-0.000648209496473
-0.003841351143971
0.132922399098340
-0.365926464303558
-0.000648209496473
-0.003841351143971
0.132922399098340
-0.365926464303558
-0.000000000000000
0.000000000000000
-0.000000000000000
0.000000000000000
-0.082457218337211
0.052717532691874
-0.095895660477975
0.286518265709347
-0.082457218337211
0.052717532691874
-0.095895660477975
0.286518265709347
-0.082457218337211
0.052717532691874
-0.095895660477975
0.286518265709347
-0.082457218337211
0.052717532691874
-0.095895660477975
0.286518265709347
-0.082457218337211
0.052717532691874
-0.095895660477975
0.286518265709347
-0.082457218337211
0.052717532691874
-0.095895660477975
0.286518265709347
-0.082457218337211
0.052717532691874
-0.095895660477975
0.286518265709347
-0.000000000000000
-0.000000000000000
-0.000000000000000
-0.000000000000000
-0.308560704668632
-0.176412614733971
-0.224155367559749
-0.053131070479034
-0.308560704668632
-0.176412614733971
-0.224155367559749
-0.053131070479034
-0.308560704668632
-0.176412614733971
-0.224155367559749
-0.053131070479034
-0.308560704668632
-0.176412614733971
-0.224155367559749
-0.053131070479034
-0.308560704668632
-0.176412614733971
-0.224155367559749
-0.053131070479034
-0.308560704668632
-0.176412614733971
-0.224155367559749
-0.053131070479034
-0.308560704668632
-0.176412614733971
-0.224155367559749
-0.053131070479034
0.000000000000000
0.000000000000000
-0.000000000000000
0.000000000000000
0.095783128427572
0.036569311778163
-0.105268017115422
0.070504790307788
0.095783128427572
0.036569311778163
-0.105268017115422
0.070504790307788
0.095783128427572
0.036569311778163
-0.105268017115422
0.070504790307788
0.095783128427572
0.036569311778163
-0.105268017115422
0.070504790307788
0.095783128427572
0.036569311778163
-0.105268017115422
0.070504790307788
0.095783128427572
0.036569311778163
-0.105268017115422
0.070504790307788
0.095783128427572
0.036569311778163
-0.105268017115422
0.070504790307788
-0.000000000000000
-0.000000000000000
0.000000000000000
-0.000000000000000
-0.000648209496473
-0.003841351143971
0.132922399098340
-0.365926464303558
-0.000648209496473
-0.003841351143971
0.132922399098340
-0.365926464303558
-0.000648209496473
-0.003841351143971
0.132922399098340
-0.365926464303558
-0.000648209496473
-0.003841351143971
0.132922399098340
-0.365926464303558
-0.000648209496473
-0.003841351143971
0.132922399098340
-0.365926464303558
-0.000648209496473
-0.003841351143971
0.132922399098340
-0.365926464303558
-0.000648209496473
-0.003841351143971
0.132922399098340
-0.365926464303558
-0.000000000000000
0.000000000000000
-0.000000000000000
0.000000000000000
-0.082457218337211
0.052717532691874
-0.095895660477975
0.286518265709347
-0.082457218337211
0.052717532691874
-0.095895660477975
0.286518265709347
-0.082457218337211
0.052717532691874
-0.095895660477975
0.286518265709347
-0.082457218337211
0.052717532691874
-0.095895660477975
0.286518265709347
-0.082457218337211
0.052717532691874
-0.095895660477975
0.286518265709347
-0.082457218337211
0.052717532691874
-0.095895660477975
0.286518265709347
-0.082457218337211
0.052717532691874
-0.095895660477975
0.286518265709347
-0.000000000000000
-0.000000000000000
-0.000000000000000
-0.000000000000000
-0.308560704668632
-0.176412614733971
-0.224155367559749
-0.053131070479034
-0.308560704668632
-0.176412614733971
-0.224155367559749
-0.053131070479034
-0.308560704668632
-0.176412614733971
-0.224155367559749
-0.053131070479034
-0.308560704668632
-0.176412614733971
-0.224155367559749
-0.053131070479034
-0.308560704668632
-0.176412614733971
-0.224155367559749
-0.053131070479034
-0.308560704668632
-0.176412614733971
-0.224155367559749
-0.053131070479034
-0.308560704668632
-0.176412614733971
-0.224155367559749
-0.053131070479034
0.000000000000000
0.000000000000000
-0.000000000000000
0.000000000000000
0.095783128427572
0.036569311778163
-0.105268017115422
0.070504790307788
0.095783128427572
0.036569311778163
-0.105268017115422
0.070504790307788
0.095783128427572
0.036569311778163
-0.105268017115422
0.070504790307788
0.095783128427572
0.036569311778163
-0.105268017115422
0.070504790307788
0.095783128427572
0.036569311778163
-0.105268017115422
0.070504790307788
0.095783128427572
0.036569311778163
-0.105268017115422
0.070504790307788
0.095783128427572
0.036569311778163
-0.105268017115422
0.070504790307788
-0.000000000000000
-0.000000000000000
0.000000000000000
-0.000000000000000
-0.000648209496473
-0.003841351143971
0.132922399098340
-0.365926464303558
-0.000648209496473
-0.003841351143971
0.132922399098340
-0.365926464303558
-0.000648209496473
-0.003841351143971
0.132922399098340
-0.365926464303558
-0.000648209496473
-0.003841351143971
0.132922399098340
-0.365926464303558
-0.000648209496473
-0.003841351143971
0.132922399098340
-0.365926464303558
-0.000648209496473
-0.003841351143971
0.132922399098340
-0.365926464303558
-0.000648209496473
-0.003841351143971
0.132922399098340
-0.365926464303558
-0.000000000000000
0.000000000000000
-0.000000000000000
0.000000000000000
-0.082457218337211
0.052717532691874
-0.095895660477975
0.286518265709347
-0.082457218337211
0.052717532691874
-0.095895660477975
0.286518265709347
-0.082457218337211
0.052717532691874
-0.095895660477975
0.286518265709347
-0.082457218337211
0.052717532691874
-0.095895660477975
0.286518265709347
-0.082457218337211
0.052717532691874
-0.095895660477975
0.286518265709347
-0.082457218337211
0.052717532691874
-0.095895660477975
0.286518265709347
-0.082457218337211
0.052717532691874
-0.095895660477975
0.286518265709347
0.000000000000000
-0.000000000000000
-0.000000000000000
0.000000000000000
0.000000000000000
-0.000000000000000
-0.000000000000000
0.000000000000000
0.000000000000000
-0.000000000000000
-0.000000000000000
0.000000000000000
0.000000000000000
-0.000000000000000
-0.000000000000000
0.000000000000000
0.000000000000000
-0.000000000000000
-0.000000000000000
0.000000000000000
0.000000000000000
-0.000000000000000
-0.000000000000000
0.000000000000000
0.000000000000000
-0.000000000000000
-0.000000000000000
0.000000000000000
0.000000000000000
-0.000000000000000
-0.000000000000000
0.000000000000000
-0.000000000000000
-0.000000000000000
0.000000000000000
-0.000000000000000
-0.000000000000000
-0.000000000000000
0.000000000000000
-0.000000000000000
-0.000000000000000
-0.000000000000000
0.000000000000000
-0.000000000000000
-0.000000000000000
-0.000000000000000
0.000000000000000
-0.000000000000000
-0.000000000000000
-0.000000000000000
0.000000000000000
-0.000000000000000
-0.000000000000000
-0.000000000000000
0.000000000000000
-0.000000000000000
-0.000000000000000
-0.000000000000000
0.000000000000000
-0.000000000000000
-0.000000000000000
-0.000000000000000
0.000000000000000
-0.000000000000000
-0.000000000000000
-0.000000000000000
-0.000000000000000
0.000000000000000
-0.000000000000000
-0.000000000000000
-0.000000000000000
0.000000000000000
-0.000000000000000
-0.000000000000000
-0.000000000000000
0.000000000000000
-0.000000000000000
-0.000000000000000
-0.000000000000000
0.000000000000000
-0.000000000000000
-0.000000000000000
-0.000000000000000
0.000000000000000
-0.000000000000000
-0.000000000000000
-0.000000000000000
0.000000000000000
-0.000000000000000
-0.000000000000000
-0.000000000000000
0.000000000000000
-0.000000000000000
-0.000000000000000
-0.000000000000000
0.000000000000000
-0.000000000000000
-0.000000000000000
-0.000000000000000
0.000000000000000
-0.000000000000000
-0.000000000000000
-0.000000000000000
0.000000000000000
-0.000000000000000
-0.000000000000000
-0.000000000000000
0.000000000000000
-0.000000000000000
-0.000000000000000
-0.000000000000000
0.000000000000000
-0.000000000000000
-0.000000000000000
-0.000000000000000
0.000000000000000
-0.000000000000000
-0.000000000000000
-0.000000000000000
0.000000000000000
-0.000000000000000
-0.000000000000000
-0.000000000000000
0.000000000000000
-0.000000000000000
-0.000000000000000
-0.000000000000000
0.000000000000000
0.000000000000000
-0.000000000000000
-0.000000000000000
0.000000000000000
0.020652800344462
-0.120673553715694
-0.017228069759232
0.062515209152166
0.020652800344462
-0.120673553715694
-0.017228069759232
0.062515209152166
0.020652800344462
-0.120673553715694
-0.017228069759232
0.062515209152166
0.020652800344462
-0.120673553715694
-0.017228069759232
0.062515209152166
0.020652800344462
-0.120673553715694
-0.017228069759232
0.062515209152166
0.020652800344462
-0.120673553715694
-0.017228069759232
0.062515209152166
0.020652800344462
-0.120673553715694
-0.017228069759232
0.062515209152166
-0.000000000000000
-0.000000000000000
0.000000000000000
-0.000000000000000
-0.193371746891197
-0.192656658982793
0.096144133111727
-0.102896483866610
-0.193371746891197
-0.192656658982793
0.096144133111727
-0.102896483866610
-0.193371746891197
-0.192656658982793
0.096144133111727
-0.102896483866610
-0.193371746891197
-0.192656658982793
0.096144133111727
-0.102896483866610
-0.193371746891197
-0.192656658982793
0.096144133111727
-0.102896483866610
-0.193371746891197
-0.192656658982793
0.096144133111727
-0.102896483866610
-0.193371746891197
-0.192656658982793
0.096144133111727
-0.102896483866610
-0.000000000000000
-0.000000000000000
-0.000000000000000
0.000000000000000
-0.180307919046766
-0.020781558941041
-0.007292002985399
0.107085055879523
-0.180307919046766
-0.020781558941041
-0.007292002985399
0.107085055879523
-0.180307919046766
-0.020781558941041
-0.007292002985399
0.107085055879523
-0.180307919046766
-0.020781558941041
-0.007292002985399
0.107085055879523
-0.180307919046766
-0.020781558941041
-0.007292002985399
0.107085055879523
-0.180307919046766
-0.020781558941041
-0.007292002985399
0.107085055879523
-0.180307919046766
-0.020781558941041
-0.007292002985399
0.107085055879523
-0.000000000000000
-0.000000000000000
-0.000000000000000
0.000000000000000
-0.238857948248758
-0.111822522993852
-0.373872766892456
0.005707933562550
-0.238857948248758
-0.111822522993852
-0.373872766892456
0.005707933562550
-0.238857948248758
-0.111822522993852
-0.373872766892456
0.005707933562550
-0.238857948248758
-0.111822522993852
-0.373872766892456
0.005707933562550
-0.238857948248758
-0.111822522993852
-0.373872766892456
0.005707933562550
-0.238857948248758
-0.111822522993852
-0.373872766892456
0.005707933562550
-0.238857948248758
-0.111822522993852
-0.373872766892456
0.005707933562550
0.000000000000000
-0.000000000000000
-0.000000000000000
0.000000000000000
0.020652800344462
-0.120673553715694
-0.017228069759232
0.062515209152166
0.020652800344462
-0.120673553715694
-0.017228069759232
0.062515209152166
0.020652800344462
-0.120673553715694
-0.017228069759232
0.062515209152166
0.020652800344462
-0.120673553715694
-0.017228069759232
0.062515209152166
0.020652800344462
-0.120673553715694
-0.017228069759232
