-0.012293634997534
-0.002250192693670
-0.003826605224462
0.003087714386709
-0.012293634997534
-0.002250192693670
-0.003826605224462
0.003087714386709
-0.012293634997534
-0.002250192693670
-0.003826605224462
0.003087714386709
-0.012293634997534
-0.002250192693670
-0.003826605224462
0.003087714386709
-0.012293634997534
-0.002250192693670
-0.003826605224462
0.003087714386709
-0.012293634997534
-0.002250192693670
-0.003826605224462
0.003087714386709
-0.012293634997534
-0.002250192693670
-0.003826605224462
0.003087714386709
-0.000000000000000
-0.000000000000000
-0.000000000000000
0.000000000000000
-0.003946442046067
0.001067436570904
-0.001508579558195
-0.002901980135581
-0.003946442046067
0.001067436570904
-0.001508579558195
-0.002901980135581
-0.003946442046067
0.001067436570904
-0.001508579558195
-0.002901980135581
-0.003946442046067
0.001067436570904
-0.001508579558195
-0.002901980135581
-0.003946442046067
0.001067436570904
-0.001508579558195
-0.002901980135581
-0.003946442046067
0.001067436570904
-0.001508579558195
-0.002901980135581
-0.003946442046067
0.001067436570904
-0.001508579558195
-0.002901980135581
-0.000000000000000
0.000000000000000
-0.000000000000000
-0.000000000000000
-0.009699575117577
-0.002147124668811
-0.001220134725266
-0.001800810153177
-0.009699575117577
-0.002147124668811
-0.001220134725266
-0.001800810153177
-0.009699575117577
-0.002147124668811
-0.001220134725266
-0.001800810153177
-0.009699575117577
-0.002147124668811
-0.001220134725266
-0.001800810153177
-0.009699575117577
-0.002147124668811
-0.001220134725266
-0.001800810153177
-0.009699575117577
-0.002147124668811
-0.001220134725266
-0.001800810153177
-0.009699575117577
-0.002147124668811
-0.001220134725266
-0.001800810153177
-0.000000000000000
-0.000000000000000
-0.000000000000000
-0.000000000000000
-0.018249589301393
0.002482530680869
-0.005114041348460
0.003201893540083
-0.018249589301393
0.002482530680869
-0.005114041348460
0.003201893540083
-0.018249589301393
0.002482530680869
-0.005114041348460
0.003201893540083
-0.018249589301393
0.002482530680869
-0.005114041348460
0.003201893540083
-0.018249589301393
0.002482530680869
-0.005114041348460
0.003201893540083
-0.018249589301393
0.002482530680869
-0.005114041348460
0.003201893540083
-0.018249589301393
0.002482530680869
-0.005114041348460
0.003201893540083
-0.000000000000000
0.000000000000000
-0.000000000000000
0.000000000000000
-0.012293634997534
-0.002250192693670
-0.003826605224462
0.003087714386709
-0.012293634997534
-0.002250192693670
-0.003826605224462
0.003087714386709
-0.012293634997534
-0.002250192693670
-0.003826605224462
0.003087714386709
-0.012293634997534
-0.002250192693670
-0.003826605224462
0.003087714386709
-0.012293634997534
-0.002250192693670
-0.003826605224462
0.003087714386709
-0.012293634997534
-0.002250192693670
-0.003826605224462
0.003087714386709
-0.012293634997534
-0.002250192693670
-0.003826605224462
0.003087714386709
-0.000000000000000
-0.000000000000000
-0.000000000000000
0.000000000000000
-0.003946442046067
0.001067436570904
-0.001508579558195
-0.002901980135581
-0.003946442046067
0.001067436570904
-0.001508579558195
-0.002901980135581
-0.003946442046067
0.001067436570904
-0.001508579558195
-0.002901980135581
-0.003946442046067
0.001067436570904
-0.001508579558195
-0.002901980135581
-0.003946442046067
0.001067436570904
-0.001508579558195
-0.002901980135581
-0.003946442046067
0.001067436570904
-0.001508579558195
-0.002901980135581
-0.003946442046067
0.001067436570904
-0.001508579558195
-0.002901980135581
-0.000000000000000
0.000000000000000
-0.000000000000000
-0.000000000000000
-0.009699575117577
-0.002147124668811
-0.001220134725266
-0.001800810153177
-0.009699575117577
-0.002147124668811
-0.001220134725266
-0.001800810153177
-0.009699575117577
-0.002147124668811
-0.001220134725266
-0.001800810153177
-0.009699575117577
-0.002147124668811
-0.001220134725266
-0.001800810153177
-0.009699575117577
-0.002147124668811
-0.001220134725266
-0.001800810153177
-0.009699575117577
-0.002147124668811
-0.001220134725266
-0.001800810153177
-0.009699575117577
-0.002147124668811
-0.001220134725266
-0.001800810153177
-0.000000000000000
-0.000000000000000
-0.000000000000000
-0.000000000000000
-0.018249589301393
0.002482530680869
-0.005114041348460
0.003201893540083
-0.018249589301393
0.002482530680869
-0.005114041348460
0.003201893540083
-0.018249589301393
0.002482530680869
-0.005114041348460
0.003201893540083
-0.018249589301393
0.002482530680869
-0.005114041348460
0.003201893540083
-0.018249589301393
0.002482530680869
-0.005114041348460
0.003201893540083
-0.018249589301393
0.002482530680869
-0.005114041348460
0.003201893540083
-0.018249589301393
0.002482530680869
-0.005114041348460
0.003201893540083
-0.000000000000000
0.000000000000000
-0.000000000000000
0.000000000000000
-0.012293634997534
-0.002250192693670
-0.003826605224462
0.003087714386709
-0.012293634997534
-0.002250192693670
-0.003826605224462
0.003087714386709
-0.012293634997534
-0.002250192693670
-0.003826605224462
0.003087714386709
-0.012293634997534
-0.002250192693670
-0.003826605224462
0.003087714386709
-0.012293634997534
-0.002250192693670
-0.003826605224462
0.003087714386709
-0.012293634997534
-0.002250192693670
-0.003826605224462
0.003087714386709
-0.012293634997534
-0.002250192693670
-0.003826605224462
0.003087714386709
-0.000000000000000
-0.000000000000000
-0.000000000000000
0.000000000000000
-0.003946442046067
0.001067436570904
-0.001508579558195
-0.002901980135581
-0.003946442046067
0.001067436570904
-0.001508579558195
-0.002901980135581
-0.003946442046067
0.001067436570904
-0.001508579558195
-0.002901980135581
-0.003946442046067
0.001067436570904
-0.001508579558195
-0.002901980135581
-0.003946442046067
0.001067436570904
-0.001508579558195
-0.002901980135581
-0.003946442046067
0.001067436570904
-0.001508579558195
-0.002901980135581
-0.003946442046067
0.001067436570904
-0.001508579558195
-0.002901980135581
-0.000000000000000
0.000000000000000
-0.000000000000000
-0.000000000000000
-0.009699575117577
-0.002147124668811
-0.001220134725266
-0.001800810153177
-0.009699575117577
-0.002147124668811
-0.001220134725266
-0.001800810153177
-0.009699575117577
-0.002147124668811
-0.001220134725266
-0.001800810153177
-0.009699575117577
-0.002147124668811
-0.001220134725266
-0.001800810153177
-0.009699575117577
-0.002147124668811
-0.001220134725266
-0.001800810153177
-0.009699575117577
-0.002147124668811
-0.001220134725266
-0.001800810153177
-0.009699575117577
-0.002147124668811
-0.001220134725266
-0.001800810153177
-0.000000000000000
-0.000000000000000
-0.000000000000000
-0.000000000000000
-0.018249589301393
0.002482530680869
-0.005114041348460
0.003201893540083
-0.018249589301393
0.002482530680869
-0.005114041348460
0.003201893540083
-0.018249589301393
0.002482530680869
-0.005114041348460
0.003201893540083
-0.018249589301393
0.002482530680869
-0.005114041348460
0.003201893540083
-0.018249589301393
0.002482530680869
-0.005114041348460
0.003201893540083
-0.018249589301393
0.002482530680869
-0.005114041348460
0.003201893540083
-0.018249589301393
0.002482530680869
-0.005114041348460
0.003201893540083
-0.000000000000000
0.000000000000000
-0.000000000000000
0.000000000000000
-0.012293634997534
-0.002250192693670
-0.003826605224462
0.003087714386709
-0.012293634997534
-0.002250192693670
-0.003826605224462
0.003087714386709
-0.012293634997534
-0.002250192693670
-0.003826605224462
0.003087714386709
-0.012293634997534
-0.002250192693670
-0.003826605224462
0.003087714386709
-0.012293634997534
-0.002250192693670
-0.003826605224462
0.003087714386709
-0.012293634997534
-0.002250192693670
-0.003826605224462
0.003087714386709
-0.012293634997534
-0.002250192693670
-0.003826605224462
0.003087714386709
-0.000000000000000
-0.000000000000000
-0.000000000000000
0.000000000000000
-0.003946442046067
0.001067436570904
-0.001508579558195
-0.002901980135581
-0.003946442046067
0.001067436570904
-0.001508579558195
-0.002901980135581
-0.003946442046067
0.001067436570904
-0.001508579558195
-0.002901980135581
-0.003946442046067
0.001067436570904
-0.001508579558195
-0.002901980135581
-0.003946442046067
0.001067436570904
-0.001508579558195
-0.002901980135581
-0.003946442046067
0.001067436570904
-0.001508579558195
-0.002901980135581
-0.003946442046067
0.001067436570904
-0.001508579558195
-0.002901980135581
-0.000000000000000
0.000000000000000
-0.000000000000000
-0.000000000000000
-0.009699575117577
-0.002147124668811
-0.001220134725266
-0.001800810153177
-0.009699575117577
-0.002147124668811
-0.001220134725266
-0.001800810153177
-0.009699575117577
-0.002147124668811
-0.001220134725266
-0.001800810153177
-0.009699575117577
-0.002147124668811
-0.001220134725266
-0.001800810153177
-0.009699575117577
-0.002147124668811
-0.001220134725266
-0.001800810153177
-0.009699575117577
-0.002147124668811
-0.001220134725266
-0.001800810153177
-0.009699575117577
-0.002147124668811
-0.001220134725266
-0.001800810153177
-0.000000000000000
-0.000000000000000
-0.000000000000000
-0.000000000000000
-0.018249589301393
0.002482530680869
-0.005114041348460
0.003201893540083
-0.018249589301393
0.002482530680869
-0.005114041348460
0.003201893540083
-0.018249589301393
0.002482530680869
-0.005114041348460
0.003201893540083
-0.018249589301393
0.002482530680869
-0.005114041348460
0.003201893540083
-0.018249589301393
0.002482530680869
-0.005114041348460
0.003201893540083
-0.018249589301393
0.002482530680869
-0.005114041348460
0.003201893540083
-0.018249589301393
0.002482530680869
-0.005114041348460
0.003201893540083
-0.000000000000000
0.000000000000000
-0.000000000000000
0.000000000000000
-0.012293634997534
-0.002250192693670
-0.003826605224462
0.003087714386709
-0.012293634997534
-0.002250192693670
-0.003826605224462
0.003087714386709
-0.012293634997534
-0.002250192693670
-0.003826605224462
0.003087714386709
-0.012293634997534
-0.002250192693670
-0.003826605224462
0.003087714386709
-0.012293634997534
-0.002250192693670
-0.003826605224462
0.003087714386709
-0.012293634997534
-0.002250192693670
-0.003826605224462
0.003087714386709
-0.012293634997534
-0.002250192693670
-0.003826605224462
0.003087714386709
-0.000000000000000
-0.000000000000000
-0.000000000000000
0.000000000000000
-0.003946442046067
0.001067436570904
-0.001508579558195
-0.002901980135581
-0.003946442046067
0.001067436570904
-0.001508579558195
-0.002901980135581
-0.003946442046067
0.001067436570904
-0.001508579558195
-0.002901980135581
-0.003946442046067
0.001067436570904
-0.001508579558195
-0.002901980135581
-0.003946442046067
0.001067436570904
-0.001508579558195
-0.002901980135581
-0.003946442046067
0.001067436570904
-0.001508579558195
-0.002901980135581
-0.003946442046067
0.001067436570904
-0.001508579558195
-0.002901980135581
-0.000000000000000
0.000000000000000
-0.000000000000000
-0.000000000000000
-0.009699575117577
-0.002147124668811
-0.001220134725266
-0.001800810153177
-0.009699575117577
-0.002147124668811
-0.001220134725266
-0.001800810153177
-0.009699575117577
-0.002147124668811
-0.001220134725266
-0.001800810153177
-0.009699575117577
-0.002147124668811
-0.001220134725266
-0.001800810153177
-0.009699575117577
-0.002147124668811
-0.001220134725266
-0.001800810153177
-0.009699575117577
-0.002147124668811
-0.001220134725266
-0.001800810153177
-0.009699575117577
-0.002147124668811
-0.001220134725266
-0.001800810153177
-0.000000000000000
-0.000000000000000
-0.000000000000000
-0.000000000000000
-0.018249589301393
0.002482530680869
-0.005114041348460
0.003201893540083
-0.018249589301393
0.002482530680869
-0.005114041348460
0.003201893540083
-0.018249589301393
0.002482530680869
-0.005114041348460
0.003201893540083
-0.018249589301393
0.002482530680869
-0.005114041348460
0.003201893540083
-0.018249589301393
0.002482530680869
-0.005114041348460
0.003201893540083
-0.018249589301393
0.002482530680869
-0.005114041348460
0.003201893540083
-0.018249589301393
0.002482530680869
-0.005114041348460
0.003201893540083
-0.000000000000000
0.000000000000000
-0.000000000000000
0.000000000000000
-0.012293634997534
-0.002250192693670
-0.003826605224462
0.003087714386709
-0.012293634997534
-0.002250192693670
-0.003826605224462
0.003087714386709
-0.012293634997534
-0.002250192693670
-0.003826605224462
0.003087714386709
-0.012293634997534
-0.002250192693670
-0.003826605224462
0.003087714386709
-0.012293634997534
-0.002250192693670
-0.003826605224462
0.003087714386709
-0.012293634997534
-0.002250192693670
-0.003826605224462
0.003087714386709
-0.012293634997534
-0.002250192693670
-0.003826605224462
0.003087714386709
-0.000000000000000
-0.000000000000000
-0.000000000000000
0.000000000000000
-0.003946442046067
0.001067436570904
-0.001508579558195
-0.002901980135581
-0.003946442046067
0.001067436570904
-0.001508579558195
-0.002901980135581
-0.003946442046067
0.001067436570904
-0.001508579558195
-0.002901980135581
-0.003946442046067
0.001067436570904
-0.001508579558195
-0.002901980135581
-0.003946442046067
0.001067436570904
-0.001508579558195
-0.002901980135581
-0.003946442046067
0.001067436570904
-0.001508579558195
-0.002901980135581
-0.003946442046067
0.001067436570904
-0.001508579558195
-0.002901980135581
-0.000000000000000
0.000000000000000
-0.000000000000000
-0.000000000000000
-0.009699575117577
-0.002147124668811
-0.001220134725266
-0.001800810153177
-0.009699575117577
-0.002147124668811
-0.001220134725266
-0.001800810153177
-0.009699575117577
-0.002147124668811
-0.001220134725266
-0.001800810153177
-0.009699575117577
-0.002147124668811
-0.001220134725266
-0.001800810153177
-0.009699575117577
-0.002147124668811
-0.001220134725266
-0.001800810153177
-0.009699575117577
-0.002147124668811
-0.001220134725266
-0.001800810153177
-0.009699575117577
-0.002147124668811
-0.001220134725266
-0.001800810153177
-0.000000000000000
-0.000000000000000
-0.000000000000000
-0.000000000000000
-0.018249589301393
0.002482530680869
-0.005114041348460
0.003201893540083
-0.018249589301393
0.002482530680869
-0.005114041348460
0.003201893540083
-0.018249589301393
0.002482530680869
-0.005114041348460
0.003201893540083
-0.018249589301393
0.002482530680869
-0.005114041348460
0.003201893540083
-0.018249589301393
0.002482530680869
-0.005114041348460
0.003201893540083
-0.018249589301393
0.002482530680869
-0.005114041348460
0.003201893540083
-0.018249589301393
0.002482530680869
-0.005114041348460
0.003201893540083
-0.000000000000000
0.000000000000000
-0.000000000000000
0.000000000000000
-0.012293634997534
-0.002250192693670
-0.003826605224462
0.003087714386709
-0.012293634997534
-0.002250192693670
-0.003826605224462
0.003087714386709
-0.012293634997534
-0.002250192693670
-0.003826605224462
0.003087714386709
-0.012293634997534
-0.002250192693670
-0.003826605224462
0.003087714386709
-0.012293634997534
-0.002250192693670
-0.003826605224462
0.003087714386709
-0.012293634997534
-0.002250192693670
-0.003826605224462
0.003087714386709
-0.012293634997534
-0.002250192693670
-0.003826605224462
0.003087714386709
-0.000000000000000
-0.000000000000000
-0.000000000000000
0.000000000000000
-0.003946442046067
0.001067436570904
-0.001508579558195
-0.002901980135581
-0.003946442046067
0.001067436570904
-0.001508579558195
-0.002901980135581
-0.003946442046067
0.001067436570904
-0.001508579558195
-0.002901980135581
-0.003946442046067
0.001067436570904
-0.001508579558195
-0.002901980135581
-0.003946442046067
0.001067436570904
-0.001508579558195
-0.002901980135581
-0.003946442046067
0.001067436570904
-0.001508579558195
-0.002901980135581
-0.003946442046067
0.001067436570904
-0.001508579558195
-0.002901980135581
-0.000000000000000
0.000000000000000
-0.000000000000000
-0.000000000000000
-0.009699575117577
-0.002147124668811
-0.001220134725266
-0.001800810153177
-0.009699575117577
-0.002147124668811
-0.001220134725266
-0.001800810153177
-0.009699575117577
-0.002147124668811
-0.001220134725266
-0.001800810153177
-0.009699575117577
-0.002147124668811
-0.001220134725266
-0.001800810153177
-0.009699575117577
-0.002147124668811
-0.001220134725266
-0.001800810153177
-0.009699575117577
-0.002147124668811
-0.001220134725266
-0.001800810153177
-0.009699575117577
-0.002147124668811
-0.001220134725266
-0.001800810153177
-0.000000000000000
-0.000000000000000
-0.000000000000000
-0.000000000000000
-0.018249589301393
0.002482530680869
-0.005114041348460
0.003201893540083
-0.018249589301393
0.002482530680869
-0.005114041348460
0.003201893540083
-0.018249589301393
0.002482530680869
-0.005114041348460
0.003201893540083
-0.018249589301393
0.002482530680869
-0.005114041348460
0.003201893540083
-0.018249589301393
0.002482530680869
-0.005114041348460
0.003201893540083
-0.018249589301393
0.002482530680869
-0.005114041348460
0.003201893540083
-0.018249589301393
0.002482530680869
-0.005114041348460
0.003201893540083
-0.000000000000000
0.000000000000000
-0.000000000000000
0.000000000000000
-0.012293634997534
-0.002250192693670
-0.003826605224462
0.003087714386709
-0.012293634997534
-0.002250192693670
-0.003826605224462
0.003087714386709
-0.012293634997534
-0.002250192693670
-0.003826605224462
0.003087714386709
-0.012293634997534
-0.002250192693670
-0.003826605224462
0.003087714386709
-0.012293634997534
-0.002250192693670
-0.003826605224462
0.003087714386709
-0.012293634997534
-0.002250192693670
-0.003826605224462
0.003087714386709
-0.012293634997534
-0.002250192693670
-0.003826605224462
0.003087714386709
-0.000000000000000
-0.000000000000000
-0.000000000000000
0.000000000000000
-0.003946442046067
0.001067436570904
-0.001508579558195
-0.002901980135581
-0.003946442046067
0.001067436570904
-0.001508579558195
-0.002901980135581
-0.003946442046067
0.001067436570904
-0.001508579558195
-0.002901980135581
-0.003946442046067
0.001067436570904
-0.001508579558195
-0.002901980135581
-0.003946442046067
0.001067436570904
-0.001508579558195
-0.002901980135581
-0.003946442046067
0.001067436570904
-0.001508579558195
-0.002901980135581
-0.003946442046067
0.001067436570904
-0.001508579558195
-0.002901980135581
-0.000000000000000
0.000000000000000
-0.000000000000000
-0.000000000000000
-0.009699575117577
-0.002147124668811
-0.001220134725266
-0.001800810153177
-0.009699575117577
-0.002147124668811
-0.001220134725266
-0.001800810153177
-0.009699575117577
-0.002147124668811
-0.001220134725266
-0.001800810153177
-0.009699575117577
-0.002147124668811
-0.001220134725266
-0.001800810153177
-0.009699575117577
-0.002147124668811
-0.001220134725266
-0.001800810153177
-0.009699575117577
-0.002147124668811
-0.001220134725266
-0.001800810153177
-0.009699575117577
-0.002147124668811
-0.001220134725266
-0.001800810153177
-0.000000000000000
-0.000000000000000
-0.000000000000000
-0.000000000000000
-0.018249589301393
0.002482530680869
-0.005114041348460
0.003201893540083
-0.018249589301393
0.002482530680869
-0.005114041348460
0.003201893540083
-0.018249589301393
0.002482530680869
-0.005114041348460
0.003201893540083
-0.018249589301393
0.002482530680869
-0.005114041348460
0.003201893540083
-0.018249589301393
0.002482530680869
-0.005114041348460
0.003201893540083
-0.018249589301393
0.002482530680869
-0.005114041348460
0.003201893540083
-0.018249589301393
0.002482530680869
-0.005114041348460
0.003201893540083
-0.000000000000000
0.000000000000000
-0.000000000000000
0.000000000000000
0.013576052988266
0.002626307322467
0.001898298077165
-0.002702043142604
0.013576052988266
0.002626307322467
0.001898298077165
-0.002702043142604
0.013576052988266
0.002626307322467
0.001898298077165
-0.002702043142604
0.013576052988266
0.002626307322467
0.001898298077165
-0.002702043142604
0.013576052988266
0.002626307322467
0.001898298077165
-0.002702043142604
0.013576052988266
0.002626307322467
0.001898298077165
-0.002702043142604
0.013576052988266
0.002626307322467
0.001898298077165
-0.002702043142604
0.000000000000000
0.000000000000000
0.000000000000000
-0.000000000000000
-0.005982153075326
-0.003248497276154
0.004032928069046
-0.006115838045135
-0.005982153075326
-0.003248497276154
0.004032928069046
-0.006115838045135
-0.005982153075326
-0.003248497276154
0.004032928069046
-0.006115838045135
-0.005982153075326
-0.003248497276154
0.004032928069046
-0.006115838045135
-0.005982153075326
-0.003248497276154
0.004032928069046
-0.006115838045135
-0.005982153075326
-0.003248497276154
0.004032928069046
-0.006115838045135
-0.005982153075326
-0.003248497276154
0.004032928069046
-0.006115838045135
-0.000000000000000
-0.000000000000000
0.000000000000000
-0.000000000000000
-0.008033070473086
-0.001014462496698
0.005924009215751
-0.004859724887361
-0.008033070473086
-0.001014462496698
0.005924009215751
-0.004859724887361
-0.008033070473086
-0.001014462496698
0.005924009215751
-0.004859724887361
-0.008033070473086
-0.001014462496698
0.005924009215751
-0.004859724887361
-0.008033070473086
-0.001014462496698
0.005924009215751
-0.004859724887361
-0.008033070473086
-0.001014462496698
0.005924009215751
-0.004859724887361
-0.008033070473086
-0.001014462496698
0.005924009215751
-0.004859724887361
-0.000000000000000
-0.000000000000000
0.000000000000000
-0.000000000000000
0.005213212009250
-0.000060905922441
-0.005063999320448
-0.000014444742513
0.005213212009250
-0.000060905922441
-0.005063999320448
-0.000014444742513
0.005213212009250
-0.000060905922441
-0.005063999320448
-0.000014444742513
0.005213212009250
-0.000060905922441
-0.005063999320448
-0.000014444742513
0.005213212009250
-0.000060905922441
-0.005063999320448
-0.000014444742513
0.005213212009250
-0.000060905922441
-0.005063999320448
-0.000014444742513
0.005213212009250
-0.000060905922441
-0.005063999320448
-0.000014444742513
0.000000000000000
-0.000000000000000
-0.000000000000000
-0.000000000000000
0.013576052988266
0.002626307322467
0.001898298077165
-0.002702043142604
0.013576052988266
0.002626307322467
0.001898298077165
-0.002702043142604
0.013576052988266
0.002626307322467
0.001898298077165
-0.002702043142604
0.013576052988266
0.002626307322467
0.001898298077165
-0.002702043142604
0.013576052988266
0.002626307322467
0.001898298077165
-0.002702043142604
0.013576052988266
0.002626307322467
0.001898298077165
-0.002702043142604
0.013576052988266
0.002626307322467
0.001898298077165
-0.002702043142604
0.000000000000000
0.000000000000000
0.000000000000000
-0.000000000000000
-0.005982153075326
-0.003248497276154
0.004032928069046
-0.006115838045135
-0.005982153075326
-0.003248497276154
0.004032928069046
-0.006115838045135
-0.005982153075326
-0.003248497276154
0.004032928069046
-0.006115838045135
-0.005982153075326
-0.003248497276154
0.004032928069046
-0.006115838045135
-0.005982153075326
-0.003248497276154
0.004032928069046
-0.006115838045135
-0.005982153075326
-0.003248497276154
0.004032928069046
-0.006115838045135
-0.005982153075326
-0.003248497276154
0.004032928069046
-0.006115838045135
-0.000000000000000
-0.000000000000000
0.000000000000000
-0.000000000000000
-0.008033070473086
-0.001014462496698
0.005924009215751
-0.004859724887361
-0.008033070473086
-0.001014462496698
0.005924009215751
-0.004859724887361
-0.008033070473086
-0.001014462496698
0.005924009215751
-0.004859724887361
-0.008033070473086
-0.001014462496698
0.005924009215751
-0.004859724887361
-0.008033070473086
-0.001014462496698
0.005924009215751
-0.004859724887361
-0.008033070473086
-0.001014462496698
0.005924009215751
-0.004859724887361
-0.008033070473086
-0.001014462496698
0.005924009215751
-0.004859724887361
-0.000000000000000
-0.000000000000000
0.000000000000000
-0.000000000000000
0.005213212009250
-0.000060905922441
-0.005063999320448
-0.000014444742513
0.005213212009250
-0.000060905922441
-0.005063999320448
-0.000014444742513
0.005213212009250
-0.000060905922441
-0.005063999320448
-0.000014444742513
0.005213212009250
-0.000060905922441
-0.005063999320448
-0.000014444742513
0.005213212009250
-0.000060905922441
-0.005063999320448
-0.000014444742513
0.005213212009250
-0.000060905922441
-0.005063999320448
-0.000014444742513
0.005213212009250
-0.000060905922441
-0.005063999320448
-0.000014444742513
0.000000000000000
-0.000000000000000
-0.000000000000000
-0.000000000000000
0.013576052988266
0.002626307322467
0.001898298077165
-0.002702043142604
0.013576052988266
0.002626307322467
0.001898298077165
-0.002702043142604
0.013576052988266
0.002626307322467
0.001898298077165
-0.002702043142604
0.013576052988266
0.002626307322467
0.001898298077165
-0.002702043142604
0.013576052988266
0.002626307322467
0.001898298077165
-0.002702043142604
0.013576052988266
0.002626307322467
0.001898298077165
-0.002702043142604
0.013576052988266
0.002626307322467
0.001898298077165
-0.002702043142604
0.000000000000000
0.000000000000000
0.000000000000000
-0.000000000000000
-0.005982153075326
-0.003248497276154
0.004032928069046
-0.006115838045135
-0.005982153075326
-0.003248497276154
0.004032928069046
-0.006115838045135
-0.005982153075326
-0.003248497276154
0.004032928069046
-0.006115838045135
-0.005982153075326
-0.003248497276154
0.004032928069046
-0.006115838045135
-0.005982153075326
-0.003248497276154
0.004032928069046
-0.006115838045135
-0.005982153075326
-0.003248497276154
0.004032928069046
-0.006115838045135
-0.005982153075326
-0.003248497276154
0.004032928069046
-0.006115838045135
-0.000000000000000
-0.000000000000000
0.000000000000000
-0.000000000000000
-0.008033070473086
-0.001014462496698
0.005924009215751
-0.004859724887361
-0.008033070473086
-0.001014462496698
0.005924009215751
-0.004859724887361
-0.008033070473086
-0.001014462496698
0.005924009215751
-0.004859724887361
-0.008033070473086
-0.001014462496698
0.005924009215751
-0.004859724887361
-0.008033070473086
-0.001014462496698
0.005924009215751
-0.004859724887361
-0.008033070473086
-0.001014462496698
0.005924009215751
-0.004859724887361
-0.008033070473086
-0.001014462496698
0.005924009215751
-0.004859724887361
-0.000000000000000
-0.000000000000000
0.000000000000000
-0.000000000000000
0.005213212009250
-0.000060905922441
-0.005063999320448
-0.000014444742513
0.005213212009250
-0.000060905922441
-0.005063999320448
-0.000014444742513
0.005213212009250
-0.000060905922441
-0.005063999320448
-0.000014444742513
0.005213212009250
-0.000060905922441
-0.005063999320448
-0.000014444742513
0.005213212009250
-0.000060905922441
-0.005063999320448
-0.000014444742513
0.005213212009250
-0.000060905922441
-0.005063999320448
-0.000014444742513
0.005213212009250
-0.000060905922441
-0.005063999320448
-0.000014444742513
0.000000000000000
-0.000000000000000
-0.000000000000000
-0.000000000000000
0.013576052988266
0.002626307322467
0.001898298077165
-0.002702043142604
0.013576052988266
0.002626307322467
0.001898298077165
-0.002702043142604
0.013576052988266
0.002626307322467
0.001898298077165
-0.002702043142604
0.013576052988266
0.002626307322467
0.001898298077165
-0.002702043142604
0.013576052988266
0.002626307322467
0.001898298077165
-0.002702043142604
0.013576052988266
0.002626307322467
0.001898298077165
-0.002702043142604
0.013576052988266
0.002626307322467
0.001898298077165
-0.002702043142604
0.000000000000000
0.000000000000000
0.000000000000000
-0.000000000000000
-0.005982153075326
-0.003248497276154
0.004032928069046
-0.006115838045135
-0.005982153075326
-0.003248497276154
0.004032928069046
-0.006115838045135
-0.005982153075326
-0.003248497276154
0.004032928069046
-0.006115838045135
-0.005982153075326
-0.003248497276154
0.004032928069046
-0.006115838045135
-0.005982153075326
-0.003248497276154
0.004032928069046
-0.006115838045135
-0.005982153075326
-0.003248497276154
0.004032928069046
-0.006115838045135
-0.005982153075326
-0.003248497276154
0.004032928069046
-0.006115838045135
-0.000000000000000
-0.000000000000000
0.000000000000000
-0.000000000000000
-0.008033070473086
-0.001014462496698
0.005924009215751
-0.004859724887361
-0.008033070473086
-0.001014462496698
0.005924009215751
-0.004859724887361
-0.008033070473086
-0.001014462496698
0.005924009215751
-0.004859724887361
-0.008033070473086
-0.001014462496698
0.005924009215751
-0.004859724887361
-0.008033070473086
-0.001014462496698
0.005924009215751
-0.004859724887361
-0.008033070473086
-0.001014462496698
0.005924009215751
-0.004859724887361
-0.008033070473086
-0.001014462496698
0.005924009215751
-0.004859724887361
-0.000000000000000
-0.000000000000000
0.000000000000000
-0.000000000000000
0.005213212009250
-0.000060905922441
-0.005063999320448
-0.000014444742513
0.005213212009250
-0.000060905922441
-0.005063999320448
-0.000014444742513
0.005213212009250
-0.000060905922441
-0.005063999320448
-0.000014444742513
0.005213212009250
-0.000060905922441
-0.005063999320448
-0.000014444742513
0.005213212009250
-0.000060905922441
-0.005063999320448
-0.000014444742513
0.005213212009250
-0.000060905922441
-0.005063999320448
-0.000014444742513
0.005213212009250
-0.000060905922441
-0.005063999320448
-0.000014444742513
0.000000000000000
-0.000000000000000
-0.000000000000000
-0.000000000000000
0.013576052988266
0.002626307322467
0.001898298077165
-0.002702043142604
0.013576052988266
0.002626307322467
0.001898298077165
-0.002702043142604
0.013576052988266
0.002626307322467
0.001898298077165
-0.002702043142604
0.013576052988266
0.002626307322467
0.001898298077165
-0.002702043142604
0.013576052988266
0.002626307322467
0.001898298077165
-0.002702043142604
0.013576052988266
0.002626307322467
0.001898298077165
-0.002702043142604
0.013576052988266
0.002626307322467
0.001898298077165
-0.002702043142604
0.000000000000000
0.000000000000000
0.000000000000000
-0.000000000000000
-0.005982153075326
-0.003248497276154
0.004032928069046
-0.006115838045135
-0.005982153075326
-0.003248497276154
0.004032928069046
-0.006115838045135
-0.005982153075326
-0.003248497276154
0.004032928069046
-0.006115838045135
-0.005982153075326
-0.003248497276154
0.004032928069046
-0.006115838045135
-0.005982153075326
-0.003248497276154
0.004032928069046
-0.006115838045135
-0.005982153075326
-0.003248497276154
0.004032928069046
-0.006115838045135
-0.005982153075326
-0.003248497276154
0.004032928069046
-0.006115838045135
-0.000000000000000
-0.000000000000000
0.000000000000000
-0.000000000000000
-0.008033070473086
-0.001014462496698
0.005924009215751
-0.004859724887361
-0.008033070473086
-0.001014462496698
0.005924009215751
-0.004859724887361
-0.008033070473086
-0.001014462496698
0.005924009215751
-0.004859724887361
-0.008033070473086
-0.001014462496698
0.005924009215751
-0.004859724887361
-0.008033070473086
-0.001014462496698
0.005924009215751
-0.004859724887361
-0.008033070473086
-0.001014462496698
0.005924009215751
-0.004859724887361
-0.008033070473086
-0.001014462496698
0.005924009215751
-0.004859724887361
-0.000000000000000
-0.000000000000000
0.000000000000000
-0.000000000000000
0.005213212009250
-0.000060905922441
-0.005063999320448
-0.000014444742513
0.005213212009250
-0.000060905922441
-0.005063999320448
-0.000014444742513
0.005213212009250
-0.000060905922441
-0.005063999320448
-0.000014444742513
0.005213212009250
-0.000060905922441
-0.005063999320448
-0.000014444742513
0.005213212009250
-0.000060905922441
-0.005063999320448
-0.000014444742513
0.005213212009250
-0.000060905922441
-0.005063999320448
-0.000014444742513
0.005213212009250
-0.000060905922441
-0.005063999320448
-0.000014444742513
0.000000000000000
-0.000000000000000
-0.000000000000000
-0.000000000000000
0.013576052988266
0.002626307322467
0.001898298077165
-0.002702043142604
0.013576052988266
0.002626307322467
0.001898298077165
-0.002702043142604
0.013576052988266
0.002626307322467
0.001898298077165
-0.002702043142604
0.013576052988266
0.002626307322467
0.001898298077165
-0.002702043142604
0.013576052988266
0.002626307322467
0.001898298077165
-0.002702043142604
0.013576052988266
0.002626307322467
0.001898298077165
-0.002702043142604
0.013576052988266
0.002626307322467
0.001898298077165
-0.002702043142604
0.000000000000000
0.000000000000000
0.000000000000000
-0.000000000000000
-0.005982153075326
-0.003248497276154
0.004032928069046
-0.006115838045135
-0.005982153075326
-0.003248497276154
0.004032928069046
-0.006115838045135
-0.005982153075326
-0.003248497276154
0.004032928069046
-0.006115838045135
-0.005982153075326
-0.003248497276154
0.004032928069046
-0.006115838045135
-0.005982153075326
-0.003248497276154
0.004032928069046
-0.006115838045135
-0.005982153075326
-0.003248497276154
0.004032928069046
-0.006115838045135
-0.005982153075326
-0.003248497276154
0.004032928069046
-0.006115838045135
-0.000000000000000
-0.000000000000000
0.000000000000000
-0.000000000000000
-0.008033070473086
-0.001014462496698
0.005924009215751
-0.004859724887361
-0.008033070473086
-0.001014462496698
0.005924009215751
-0.004859724887361
-0.008033070473086
-0.001014462496698
0.005924009215751
-0.004859724887361
-0.008033070473086
-0.001014462496698
0.005924009215751
-0.004859724887361
-0.008033070473086
-0.001014462496698
0.005924009215751
-0.004859724887361
-0.008033070473086
-0.001014462496698
0.005924009215751
-0.004859724887361
-0.008033070473086
-0.001014462496698
0.005924009215751
-0.004859724887361
-0.000000000000000
-0.000000000000000
0.000000000000000
-0.000000000000000
0.005213212009250
-0.000060905922441
-0.005063999320448
-0.000014444742513
0.005213212009250
-0.000060905922441
-0.005063999320448
-0.000014444742513
0.005213212009250
-0.000060905922441
-0.005063999320448
-0.000014444742513
0.005213212009250
-0.000060905922441
-0.005063999320448
-0.000014444742513
0.005213212009250
-0.000060905922441
-0.005063999320448
-0.000014444742513
0.005213212009250
-0.000060905922441
-0.005063999320448
-0.000014444742513
0.005213212009250
-0.000060905922441
-0.005063999320448
-0.000014444742513
0.000000000000000
-0.000000000000000
-0.000000000000000
-0.000000000000000
0.013576052988266
0.002626307322467
0.001898298077165
-0.002702043142604
0.013576052988266
0.002626307322467
0.001898298077165
-0.002702043142604
0.013576052988266
0.002626307322467
0.001898298077165
-0.002702043142604
0.013576052988266
0.002626307322467
0.001898298077165
-0.002702043142604
0.013576052988266
0.002626307322467
0.001898298077165
-0.002702043142604
0.013576052988266
0.002626307322467
0.001898298077165
-0.002702043142604
0.013576052988266
0.002626307322467
0.001898298077165
-0.002702043142604
0.000000000000000
0.000000000000000
0.000000000000000
-0.000000000000000
-0.005982153075326
-0.003248497276154
0.004032928069046
-0.006115838045135
-0.005982153075326
-0.003248497276154
0.004032928069046
-0.006115838045135
-0.005982153075326
-0.003248497276154
0.004032928069046
-0.006115838045135
-0.005982153075326
-0.003248497276154
0.004032928069046
-0.006115838045135
-0.005982153075326
-0.003248497276154
0.004032928069046
-0.006115838045135
-0.005982153075326
-0.003248497276154
0.004032928069046
-0.006115838045135
-0.005982153075326
-0.003248497276154
0.004032928069046
-0.006115838045135
-0.000000000000000
-0.000000000000000
0.000000000000000
-0.000000000000000
-0.008033070473086
-0.001014462496698
0.005924009215751
-0.004859724887361
-0.008033070473086
-0.001014462496698
0.005924009215751
-0.004859724887361
-0.008033070473086
-0.001014462496698
0.005924009215751
-0.004859724887361
-0.008033070473086
-0.001014462496698
0.005924009215751
-0.004859724887361
-0.008033070473086
-0.001014462496698
0.005924009215751
-0.004859724887361
-0.008033070473086
-0.001014462496698
0.005924009215751
-0.004859724887361
-0.008033070473086
-0.001014462496698
0.005924009215751
-0.004859724887361
-0.000000000000000
-0.000000000000000
0.000000000000000
-0.000000000000000
0.005213212009250
-0.000060905922441
-0.005063999320448
-0.000014444742513
0.005213212009250
-0.000060905922441
-0.005063999320448
-0.000014444742513
0.005213212009250
-0.000060905922441
-0.005063999320448
-0.000014444742513
0.005213212009250
-0.000060905922441
-0.005063999320448
-0.000014444742513
0.005213212009250
-0.000060905922441
-0.005063999320448
-0.000014444742513
0.005213212009250
-0.000060905922441
-0.005063999320448
-0.000014444742513
0.005213212009250
-0.000060905922441
-0.005063999320448
-0.000014444742513
0.000000000000000
-0.000000000000000
-0.000000000000000
-0.000000000000000
0.013576052988266
0.002626307322467
0.001898298077165
-0.002702043142604
0.013576052988266
0.002626307322467
0.001898298077165
-0.002702043142604
0.013576052988266
0.002626307322467
0.001898298077165
-0.002702043142604
0.013576052988266
0.002626307322467
0.001898298077165
-0.002702043142604
0.013576052988266
0.002626307322467
0.001898298077165
-0.002702043142604
0.013576052988266
0.002626307322467
0.001898298077165
-0.002702043142604
0.013576052988266
0.002626307322467
0.001898298077165
-0.002702043142604
0.000000000000000
0.000000000000000
0.000000000000000
-0.000000000000000
-0.005982153075326
-0.003248497276154
0.004032928069046
-0.006115838045135
-0.005982153075326
-0.003248497276154
0.004032928069046
-0.006115838045135
-0.005982153075326
-0.003248497276154
0.004032928069046
-0.006115838045135
-0.005982153075326
-0.003248497276154
0.004032928069046
-0.006115838045135
-0.005982153075326
-0.003248497276154
0.004032928069046
-0.006115838045135
-0.005982153075326
-0.003248497276154
0.004032928069046
-0.006115838045135
-0.005982153075326
-0.003248497276154
0.004032928069046
-0.006115838045135
-0.000000000000000
-0.000000000000000
0.000000000000000
-0.000000000000000
-0.008033070473086
-0.001014462496698
0.005924009215751
-0.004859724887361
-0.008033070473086
-0.001014462496698
0.005924009215751
-0.004859724887361
-0.008033070473086
-0.001014462496698
0.005924009215751
-0.004859724887361
-0.008033070473086
-0.001014462496698
0.005924009215751
-0.004859724887361
-0.008033070473086
-0.001014462496698
0.005924009215751
-0.004859724887361
-0.008033070473086
-0.001014462496698
0.005924009215751
-0.004859724887361
-0.008033070473086
-0.001014462496698
0.005924009215751
-0.004859724887361
-0.000000000000000
-0.000000000000000
0.000000000000000
-0.000000000000000
0.005213212009250
-0.000060905922441
-0.005063999320448
-0.000014444742513
0.005213212009250
-0.000060905922441
-0.005063999320448
-0.000014444742513
0.005213212009250
-0.000060905922441
-0.005063999320448
-0.000014444742513
0.005213212009250
-0.000060905922441
-0.005063999320448
-0.000014444742513
0.005213212009250
-0.000060905922441
-0.005063999320448
-0.000014444742513
0.005213212009250
-0.000060905922441
-0.005063999320448
-0.000014444742513
0.005213212009250
-0.000060905922441
-0.005063999320448
-0.000014444742513
0.000000000000000
-0.000000000000000
-0.000000000000000
-0.000000000000000
-0.000386445809596
-0.002773150249281
-0.005439029589218
0.005310869315023
-0.000386445809596
-0.002773150249281
-0.005439029589218
0.005310869315023
-0.000386445809596
-0.002773150249281
-0.005439029589218
0.005310869315023
-0.000386445809596
-0.002773150249281
-0.005439029589218
0.005310869315023
-0.000386445809596
-0.002773150249281
-0.005439029589218
0.005310869315023
-0.000386445809596
-0.002773150249281
-0.005439029589218
0.005310869315023
-0.000386445809596
-0.002773150249281
-0.005439029589218
0.005310869315023
-0.000000000000000
-0.000000000000000
-0.000000000000000
0.000000000000000
-0.003280265067441
-0.014041219694939
0.005690846481728
0.002868277909326
-0.003280265067441
-0.014041219694939
0.005690846481728
0.002868277909326
-0.003280265067441
-0.014041219694939
0.005690846481728
0.002868277909326
-0.003280265067441
-0.014041219694939
0.005690846481728
0.002868277909326
-0.003280265067441
-0.014041219694939
0.005690846481728
0.002868277909326
-0.003280265067441
-0.014041219694939
0.005690846481728
0.002868277909326
-0.003280265067441
-0.014041219694939
0.005690846481728
0.002868277909326
-0.000000000000000
-0.000000000000000
0.000000000000000
0.000000000000000
0.000801693646228
-0.009462029036231
-0.010957249120588
0.007488582434652
0.000801693646228
-0.009462029036231
-0.010957249120588
0.007488582434652
0.000801693646228
-0.009462029036231
-0.010957249120588
0.007488582434652
0.000801693646228
-0.009462029036231
-0.010957249120588
0.007488582434652
0.000801693646228
-0.009462029036231
-0.010957249120588
0.007488582434652
0.000801693646228
-0.009462029036231
-0.010957249120588
0.007488582434652
0.000801693646228
-0.009462029036231
-0.010957249120588
0.007488582434652
0.000000000000000
-0.000000000000000
-0.000000000000000
0.000000000000000
0.000735235515506
-0.000967954215970
0.000578339067379
0.001788182503631
0.000735235515506
-0.000967954215970
0.000578339067379
0.001788182503631
0.000735235515506
-0.000967954215970
0.000578339067379
0.001788182503631
0.000735235515506
-0.000967954215970
0.000578339067379
0.001788182503631
0.000735235515506
-0.000967954215970
0.000578339067379
0.001788182503631
0.000735235515506
-0.000967954215970
0.000578339067379
0.001788182503631
0.000735235515506
-0.000967954215970
0.000578339067379
0.001788182503631
0.000000000000000
-0.000000000000000
0.000000000000000
0.000000000000000
-0.000386445809596
-0.002773150249281
-0.005439029589218
0.005310869315023
-0.000386445809596
-0.002773150249281
-0.005439029589218
0.005310869315023
-0.000386445809596
-0.002773150249281
-0.005439029589218
0.005310869315023
-0.000386445809596
-0.002773150249281
-0.005439029589218
0.005310869315023
-0.000386445809596
-0.002773150249281
-0.005439029589218
0.005310869315023
-0.000386445809596
-0.002773150249281
-0.005439029589218
0.005310869315023
-0.000386445809596
-0.002773150249281
-0.005439029589218
0.005310869315023
-0.000000000000000
-0.000000000000000
-0.000000000000000
0.000000000000000
-0.003280265067441
-0.014041219694939
0.005690846481728
0.002868277909326
-0.003280265067441
-0.014041219694939
0.005690846481728
0.002868277909326
-0.003280265067441
-0.014041219694939
0.005690846481728
0.002868277909326
-0.003280265067441
-0.014041219694939
0.005690846481728
0.002868277909326
-0.003280265067441
-0.014041219694939
0.005690846481728
0.002868277909326
-0.003280265067441
-0.014041219694939
0.005690846481728
0.002868277909326
-0.003280265067441
-0.014041219694939
0.005690846481728
0.002868277909326
-0.000000000000000
-0.000000000000000
0.000000000000000
0.000000000000000
0.000801693646228
-0.009462029036231
-0.010957249120588
0.007488582434652
0.000801693646228
-0.009462029036231
-0.010957249120588
0.007488582434652
0.000801693646228
-0.009462029036231
-0.010957249120588
0.007488582434652
0.000801693646228
-0.009462029036231
-0.010957249120588
0.007488582434652
0.000801693646228
-0.009462029036231
-0.010957249120588
0.007488582434652
0.000801693646228
-0.009462029036231
-0.010957249120588
0.007488582434652
0.000801693646228
-0.009462029036231
-0.010957249120588
0.007488582434652
0.000000000000000
-0.000000000000000
-0.000000000000000
0.000000000000000
0.000735235515506
-0.000967954215970
0.000578339067379
0.001788182503631
0.000735235515506
-0.000967954215970
0.000578339067379
0.001788182503631
0.000735235515506
-0.000967954215970
0.000578339067379
0.001788182503631
0.000735235515506
-0.000967954215970
0.000578339067379
0.001788182503631
0.000735235515506
-0.000967954215970
0.000578339067379
0.001788182503631
0.000735235515506
-0.000967954215970
0.000578339067379
0.001788182503631
0.000735235515506
-0.000967954215970
0.000578339067379
0.001788182503631
0.000000000000000
-0.000000000000000
0.000000000000000
0.000000000000000
-0.000386445809596
-0.002773150249281
-0.005439029589218
0.005310869315023
-0.000386445809596
-0.002773150249281
-0.005439029589218
0.005310869315023
-0.000386445809596
-0.002773150249281
-0.005439029589218
0.005310869315023
-0.000386445809596
-0.002773150249281
-0.005439029589218
0.005310869315023
-0.000386445809596
-0.002773150249281
-0.005439029589218
0.005310869315023
-0.000386445809596
-0.002773150249281
-0.005439029589218
0.005310869315023
-0.000386445809596
-0.002773150249281
-0.005439029589218
0.005310869315023
-0.000000000000000
-0.000000000000000
-0.000000000000000
0.000000000000000
-0.003280265067441
-0.014041219694939
0.005690846481728
0.002868277909326
-0.003280265067441
-0.014041219694939
0.005690846481728
0.002868277909326
-0.003280265067441
-0.014041219694939
0.005690846481728
0.002868277909326
-0.003280265067441
-0.014041219694939
0.005690846481728
0.002868277909326
-0.003280265067441
-0.014041219694939
0.005690846481728
0.002868277909326
-0.003280265067441
-0.014041219694939
0.005690846481728
0.002868277909326
-0.003280265067441
-0.014041219694939
0.005690846481728
0.002868277909326
-0.000000000000000
-0.000000000000000
0.000000000000000
0.000000000000000
0.000801693646228
-0.009462029036231
-0.010957249120588
0.007488582434652
0.000801693646228
-0.009462029036231
-0.010957249120588
0.007488582434652
0.000801693646228
-0.009462029036231
-0.010957249120588
0.007488582434652
0.000801693646228
-0.009462029036231
-0.010957249120588
0.007488582434652
0.000801693646228
-0.009462029036231
-0.010957249120588
0.007488582434652
0.000801693646228
-0.009462029036231
-0.010957249120588
0.007488582434652
0.000801693646228
-0.009462029036231
-0.010957249120588
0.007488582434652
0.000000000000000
-0.000000000000000
-0.000000000000000
0.000000000000000
0.000735235515506
-0.000967954215970
0.000578339067379
0.001788182503631
0.000735235515506
-0.000967954215970
0.000578339067379
0.001788182503631
0.000735235515506
-0.000967954215970
0.000578339067379
0.001788182503631
0.000735235515506
-0.000967954215970
0.000578339067379
0.001788182503631
0.000735235515506
-0.000967954215970
0.000578339067379
0.001788182503631
0.000735235515506
-0.000967954215970
0.000578339067379
0.001788182503631
0.000735235515506
-0.000967954215970
0.000578339067379
0.001788182503631
0.000000000000000
-0.000000000000000
0.000000000000000
0.000000000000000
-0.000386445809596
-0.002773150249281
-0.005439029589218
0.005310869315023
-0.000386445809596
-0.002773150249281
-0.005439029589218
0.005310869315023
-0.000386445809596
-0.002773150249281
-0.005439029589218
0.005310869315023
-0.000386445809596
-0.002773150249281
-0.005439029589218
0.005310869315023
-0.000386445809596
-0.002773150249281
-0.005439029589218
0.005310869315023
-0.000386445809596
-0.002773150249281
-0.005439029589218
0.005310869315023
-0.000386445809596
-0.002773150249281
-0.005439029589218
0.005310869315023
-0.000000000000000
-0.000000000000000
-0.000000000000000
0.000000000000000
-0.003280265067441
-0.014041219694939
0.005690846481728
0.002868277909326
-0.003280265067441
-0.014041219694939
0.005690846481728
0.002868277909326
-0.003280265067441
-0.014041219694939
0.005690846481728
0.002868277909326
-0.003280265067441
-0.014041219694939
0.005690846481728
0.002868277909326
-0.003280265067441
-0.014041219694939
0.005690846481728
0.002868277909326
-0.003280265067441
-0.014041219694939
0.005690846481728
0.002868277909326
-0.003280265067441
-0.014041219694939
0.005690846481728
0.002868277909326
-0.000000000000000
-0.000000000000000
0.000000000000000
0.000000000000000
0.000801693646228
-0.009462029036231
-0.010957249120588
0.007488582434652
0.000801693646228
-0.009462029036231
-0.010957249120588
0.007488582434652
0.000801693646228
-0.009462029036231
-0.010957249120588
0.007488582434652
0.000801693646228
-0.009462029036231
-0.010957249120588
0.007488582434652
0.000801693646228
-0.009462029036231
-0.010957249120588
0.007488582434652
0.000801693646228
-0.009462029036231
-0.010957249120588
0.007488582434652
0.000801693646228
-0.009462029036231
-0.010957249120588
0.007488582434652
0.000000000000000
-0.000000000000000
-0.000000000000000
0.000000000000000
0.000735235515506
-0.000967954215970
0.000578339067379
0.001788182503631
0.000735235515506
-0.000967954215970
0.000578339067379
0.001788182503631
0.000735235515506
-0.000967954215970
0.000578339067379
0.001788182503631
0.000735235515506
-0.000967954215970
0.000578339067379
0.001788182503631
0.000735235515506
-0.000967954215970
0.000578339067379
0.001788182503631
0.000735235515506
-0.000967954215970
0.000578339067379
0.001788182503631
0.000735235515506
-0.000967954215970
0.000578339067379
0.001788182503631
0.000000000000000
-0.000000000000000
0.000000000000000
0.000000000000000
-0.000386445809596
-0.002773150249281
-0.005439029589218
0.005310869315023
-0.000386445809596
-0.002773150249281
-0.005439029589218
0.005310869315023
-0.000386445809596
-0.002773150249281
-0.005439029589218
0.005310869315023
-0.000386445809596
-0.002773150249281
-0.005439029589218
0.005310869315023
-0.000386445809596
-0.002773150249281
-0.005439029589218
0.005310869315023
-0.000386445809596
-0.002773150249281
-0.005439029589218
0.005310869315023
-0.000386445809596
-0.002773150249281
-0.005439029589218
0.005310869315023
-0.000000000000000
-0.000000000000000
-0.000000000000000
0.000000000000000
-0.003280265067441
-0.014041219694939
0.005690846481728
0.002868277909326
-0.003280265067441
-0.014041219694939
0.005690846481728
0.002868277909326
-0.003280265067441
-0.014041219694939
0.005690846481728
0.002868277909326
-0.003280265067441
-0.014041219694939
0.005690846481728
0.002868277909326
-0.003280265067441
-0.014041219694939
0.005690846481728
0.002868277909326
-0.003280265067441
-0.014041219694939
0.005690846481728
0.002868277909326
-0.003280265067441
-0.014041219694939
0.005690846481728
0.002868277909326
-0.000000000000000
-0.000000000000000
0.000000000000000
0.000000000000000
0.000801693646228
-0.009462029036231
-0.010957249120588
0.007488582434652
0.000801693646228
-0.009462029036231
-0.010957249120588
0.007488582434652
0.000801693646228
-0.009462029036231
-0.010957249120588
0.007488582434652
0.000801693646228
-0.009462029036231
-0.010957249120588
0.007488582434652
0.000801693646228
-0.009462029036231
-0.010957249120588
0.007488582434652
0.000801693646228
-0.009462029036231
-0.010957249120588
0.007488582434652
0.000801693646228
-0.009462029036231
-0.010957249120588
0.007488582434652
0.000000000000000
-0.000000000000000
-0.000000000000000
0.000000000000000
0.000735235515506
-0.000967954215970
0.000578339067379
0.001788182503631
0.000735235515506
-0.000967954215970
0.000578339067379
0.001788182503631
0.000735235515506
-0.000967954215970
0.000578339067379
0.001788182503631
0.000735235515506
-0.000967954215970
0.000578339067379
0.001788182503631
0.000735235515506
-0.000967954215970
0.000578339067379
0.001788182503631
0.000735235515506
-0.000967954215970
0.000578339067379
0.001788182503631
0.000735235515506
-0.000967954215970
0.000578339067379
0.001788182503631
0.000000000000000
-0.000000000000000
0.000000000000000
0.000000000000000
-0.000386445809596
-0.002773150249281
-0.005439029589218
0.005310869315023
-0.000386445809596
-0.002773150249281
-0.005439029589218
0.005310869315023
-0.000386445809596
-0.002773150249281
-0.005439029589218
0.005310869315023
-0.000386445809596
-0.002773150249281
-0.005439029589218
0.005310869315023
-0.000386445809596
-0.002773150249281
-0.005439029589218
0.005310869315023
-0.000386445809596
-0.002773150249281
-0.005439029589218
0.005310869315023
-0.000386445809596
-0.002773150249281
-0.005439029589218
0.005310869315023
-0.000000000000000
-0.000000000000000
-0.000000000000000
0.000000000000000
-0.003280265067441
-0.014041219694939
0.005690846481728
0.002868277909326
-0.003280265067441
-0.014041219694939
0.005690846481728
0.002868277909326
-0.003280265067441
-0.014041219694939
0.005690846481728
0.002868277909326
-0.003280265067441
-0.014041219694939
0.005690846481728
0.002868277909326
-0.003280265067441
-0.014041219694939
0.005690846481728
0.002868277909326
-0.003280265067441
-0.014041219694939
0.005690846481728
0.002868277909326
-0.003280265067441
-0.014041219694939
0.005690846481728
0.002868277909326
-0.000000000000000
-0.000000000000000
0.000000000000000
0.000000000000000
0.000801693646228
-0.009462029036231
-0.010957249120588
0.007488582434652
0.000801693646228
-0.009462029036231
-0.010957249120588
0.007488582434652
0.000801693646228
-0.009462029036231
-0.010957249120588
0.007488582434652
0.000801693646228
-0.009462029036231
-0.010957249120588
0.007488582434652
0.000801693646228
-0.009462029036231
-0.010957249120588
0.007488582434652
0.000801693646228
-0.009462029036231
-0.010957249120588
0.007488582434652
0.000801693646228
-0.009462029036231
-0.010957249120588
0.007488582434652
0.000000000000000
-0.000000000000000
-0.000000000000000
0.000000000000000
0.000735235515506
-0.000967954215970
0.000578339067379
0.001788182503631
0.000735235515506
-0.000967954215970
0.000578339067379
0.001788182503631
0.000735235515506
-0.000967954215970
0.000578339067379
0.001788182503631
0.000735235515506
-0.000967954215970
0.000578339067379
0.001788182503631
0.000735235515506
-0.000967954215970
0.000578339067379
0.001788182503631
0.000735235515506
-0.000967954215970
0.000578339067379
0.001788182503631
0.000735235515506
-0.000967954215970
0.000578339067379
0.001788182503631
0.000000000000000
-0.000000000000000
0.000000000000000
0.000000000000000
-0.000386445809596
-0.002773150249281
-0.005439029589218
0.005310869315023
-0.000386445809596
-0.002773150249281
-0.005439029589218
0.005310869315023
-0.000386445809596
-0.002773150249281
-0.005439029589218
0.005310869315023
-0.000386445809596
-0.002773150249281
-0.005439029589218
0.005310869315023
-0.000386445809596
-0.002773150249281
-0.005439029589218
0.005310869315023
-0.000386445809596
-0.002773150249281
-0.005439029589218
0.005310869315023
-0.000386445809596
-0.002773150249281
-0.005439029589218
0.005310869315023
-0.000000000000000
-0.000000000000000
-0.000000000000000
0.000000000000000
-0.003280265067441
-0.014041219694939
0.005690846481728
0.002868277909326
-0.003280265067441
-0.014041219694939
0.005690846481728
0.002868277909326
-0.003280265067441
-0.014041219694939
0.005690846481728
0.002868277909326
-0.003280265067441
-0.014041219694939
0.005690846481728
0.002868277909326
-0.003280265067441
-0.014041219694939
0.005690846481728
0.002868277909326
-0.003280265067441
-0.014041219694939
0.005690846481728
0.002868277909326
-0.003280265067441
-0.014041219694939
0.005690846481728
0.002868277909326
-0.000000000000000
-0.000000000000000
0.000000000000000
0.000000000000000
0.000801693646228
-0.009462029036231
-0.010957249120588
0.007488582434652
0.000801693646228
-0.009462029036231
-0.010957249120588
0.007488582434652
0.000801693646228
-0.009462029036231
-0.010957249120588
0.007488582434652
0.000801693646228
-0.009462029036231
-0.010957249120588
0.007488582434652
0.000801693646228
-0.009462029036231
-0.010957249120588
0.007488582434652
0.000801693646228
-0.009462029036231
-0.010957249120588
0.007488582434652
0.000801693646228
-0.009462029036231
-0.010957249120588
0.007488582434652
0.000000000000000
-0.000000000000000
-0.000000000000000
0.000000000000000
0.000735235515506
-0.000967954215970
0.000578339067379
0.001788182503631
0.000735235515506
-0.000967954215970
0.000578339067379
0.001788182503631
0.000735235515506
-0.000967954215970
0.000578339067379
0.001788182503631
0.000735235515506
-0.000967954215970
0.000578339067379
0.001788182503631
0.000735235515506
-0.000967954215970
0.000578339067379
0.001788182503631
0.000735235515506
-0.000967954215970
0.000578339067379
0.001788182503631
0.000735235515506
-0.000967954215970
0.000578339067379
0.001788182503631
0.000000000000000
-0.000000000000000
0.000000000000000
0.000000000000000
-0.000386445809596
-0.002773150249281
-0.005439029589218
0.005310869315023
-0.000386445809596
-0.002773150249281
-0.005439029589218
0.005310869315023
-0.000386445809596
-0.002773150249281
-0.005439029589218
0.005310869315023
-0.000386445809596
-0.002773150249281
-0.005439029589218
0.005310869315023
-0.000386445809596
-0.002773150249281
-0.005439029589218
0.005310869315023
-0.000386445809596
-0.002773150249281
-0.005439029589218
0.005310869315023
-0.000386445809596
-0.002773150249281
-0.005439029589218
0.005310869315023
-0.000000000000000
-0.000000000000000
-0.000000000000000
0.000000000000000
-0.003280265067441
-0.014041219694939
0.005690846481728
0.002868277909326
-0.003280265067441
-0.014041219694939
0.005690846481728
0.002868277909326
-0.003280265067441
-0.014041219694939
0.005690846481728
0.002868277909326
-0.003280265067441
-0.014041219694939
0.005690846481728
0.002868277909326
-0.003280265067441
-0.014041219694939
0.005690846481728
0.002868277909326
-0.003280265067441
-0.014041219694939
0.005690846481728
0.002868277909326
-0.003280265067441
-0.014041219694939
0.005690846481728
0.002868277909326
-0.000000000000000
-0.000000000000000
0.000000000000000
0.000000000000000
0.000801693646228
-0.009462029036231
-0.010957249120588
0.007488582434652
0.000801693646228
-0.009462029036231
-0.010957249120588
0.007488582434652
0.000801693646228
-0.009462029036231
-0.010957249120588
0.007488582434652
0.000801693646228
-0.009462029036231
-0.010957249120588
0.007488582434652
0.000801693646228
-0.009462029036231
-0.010957249120588
0.007488582434652
0.000801693646228
-0.009462029036231
-0.010957249120588
0.007488582434652
0.000801693646228
-0.009462029036231
-0.010957249120588
0.007488582434652
0.000000000000000
-0.000000000000000
-0.000000000000000
0.000000000000000
0.000735235515506
-0.000967954215970
0.000578339067379
0.001788182503631
0.000735235515506
-0.000967954215970
0.000578339067379
0.001788182503631
0.000735235515506
-0.000967954215970
0.000578339067379
0.001788182503631
0.000735235515506
-0.000967954215970
0.000578339067379
0.001788182503631
0.000735235515506
-0.000967954215970
0.000578339067379
0.001788182503631
0.000735235515506
-0.000967954215970
0.000578339067379
0.001788182503631
0.000735235515506
-0.000967954215970
0.000578339067379
0.001788182503631
0.000000000000000
-0.000000000000000
0.000000000000000
0.000000000000000
0.001429863885042
-0.003085289219465
-0.007505788141424
-0.010761785706352
0.001429863885042
-0.003085289219465
-0.007505788141424
-0.010761785706352
0.001429863885042
-0.003085289219465
-0.007505788141424
-0.010761785706352
0.001429863885042
-0.003085289219465
-0.007505788141424
-0.010761785706352
0.001429863885042
-0.003085289219465
-0.007505788141424
-0.010761785706352
0.001429863885042
-0.003085289219465
-0.007505788141424
-0.010761785706352
0.001429863885042
-0.003085289219465
-0.007505788141424
-0.010761785706352
0.000000000000000
-0.000000000000000
-0.000000000000000
-0.000000000000000
-0.002793240195425
0.010055989220036
0.000856103349791
-0.000124544210530
-0.002793240195425
0.010055989220036
0.000856103349791
-0.000124544210530
-0.002793240195425
0.010055989220036
0.000856103349791
-0.000124544210530
-0.002793240195425
0.010055989220036
0.000856103349791
-0.000124544210530
-0.002793240195425
0.010055989220036
0.000856103349791
-0.000124544210530
-0.002793240195425
0.010055989220036
0.000856103349791
-0.000124544210530
-0.002793240195425
0.010055989220036
0.000856103349791
-0.000124544210530
-0.000000000000000
0.000000000000000
0.000000000000000
-0.000000000000000
-0.000855910856098
0.004258302406959
0.001637361479373
0.000912916216795
-0.000855910856098
0.004258302406959
0.001637361479373
0.000912916216795
-0.000855910856098
0.004258302406959
0.001637361479373
0.000912916216795
-0.000855910856098
0.004258302406959
0.001637361479373
0.000912916216795
-0.000855910856098
0.004258302406959
0.001637361479373
0.000912916216795
-0.000855910856098
0.004258302406959
0.001637361479373
0.000912916216795
-0.000855910856098
0.004258302406959
0.001637361479373
0.000912916216795
-0.000000000000000
0.000000000000000
0.000000000000000
0.000000000000000
0.000296540174163
-0.001846247212839
0.003261099597583
-0.011321912274292
0.000296540174163
-0.001846247212839
0.003261099597583
-0.011321912274292
0.000296540174163
-0.001846247212839
0.003261099597583
-0.011321912274292
0.000296540174163
-0.001846247212839
0.003261099597583
-0.011321912274292
0.000296540174163
-0.001846247212839
0.003261099597583
-0.011321912274292
0.000296540174163
-0.001846247212839
0.003261099597583
-0.011321912274292
0.000296540174163
-0.001846247212839
0.003261099597583
-0.011321912274292
0.000000000000000
-0.000000000000000
0.000000000000000
-0.000000000000000
0.001429863885042
-0.003085289219465
-0.007505788141424
-0.010761785706352
0.001429863885042
-0.003085289219465
-0.007505788141424
-0.010761785706352
0.001429863885042
-0.003085289219465
-0.007505788141424
-0.010761785706352
0.001429863885042
-0.003085289219465
-0.007505788141424
-0.010761785706352
0.001429863885042
-0.003085289219465
-0.007505788141424
-0.010761785706352
0.001429863885042
-0.003085289219465
-0.007505788141424
-0.010761785706352
0.001429863885042
-0.003085289219465
-0.007505788141424
-0.010761785706352
0.000000000000000
-0.000000000000000
-0.000000000000000
-0.000000000000000
-0.002793240195425
0.010055989220036
0.000856103349791
-0.000124544210530
-0.002793240195425
0.010055989220036
0.000856103349791
-0.000124544210530
-0.002793240195425
0.010055989220036
0.000856103349791
-0.000124544210530
-0.002793240195425
0.010055989220036
0.000856103349791
-0.000124544210530
-0.002793240195425
0.010055989220036
0.000856103349791
-0.000124544210530
-0.002793240195425
0.010055989220036
0.000856103349791
-0.000124544210530
-0.002793240195425
0.010055989220036
0.000856103349791
-0.000124544210530
-0.000000000000000
0.000000000000000
0.000000000000000
-0.000000000000000
-0.000855910856098
0.004258302406959
0.001637361479373
0.000912916216795
-0.000855910856098
0.004258302406959
0.001637361479373
0.000912916216795
-0.000855910856098
0.004258302406959
0.001637361479373
0.000912916216795
-0.000855910856098
0.004258302406959
0.001637361479373
0.000912916216795
-0.000855910856098
0.004258302406959
0.001637361479373
0.000912916216795
-0.000855910856098
0.004258302406959
0.001637361479373
0.000912916216795
-0.000855910856098
0.004258302406959
0.001637361479373
0.000912916216795
-0.000000000000000
0.000000000000000
0.000000000000000
0.000000000000000
0.000296540174163
-0.001846247212839
0.003261099597583
-0.011321912274292
0.000296540174163
-0.001846247212839
0.003261099597583
-0.011321912274292
0.000296540174163
-0.001846247212839
0.003261099597583
-0.011321912274292
0.000296540174163
-0.001846247212839
0.003261099597583
-0.011321912274292
0.000296540174163
-0.001846247212839
0.003261099597583
-0.011321912274292
0.000296540174163
-0.001846247212839
0.003261099597583
-0.011321912274292
0.000296540174163
-0.001846247212839
0.003261099597583
-0.011321912274292
0.000000000000000
-0.000000000000000
0.000000000000000
-0.000000000000000
0.001429863885042
-0.003085289219465
-0.007505788141424
-0.010761785706352
0.001429863885042
-0.003085289219465
-0.007505788141424
-0.010761785706352
0.001429863885042
-0.003085289219465
-0.007505788141424
-0.010761785706352
0.001429863885042
-0.003085289219465
-0.007505788141424
-0.010761785706352
0.001429863885042
-0.003085289219465
-0.007505788141424
-0.010761785706352
0.001429863885042
-0.003085289219465
-0.007505788141424
-0.010761785706352
0.001429863885042
-0.003085289219465
-0.007505788141424
-0.010761785706352
0.000000000000000
-0.000000000000000
-0.000000000000000
-0.000000000000000
-0.002793240195425
0.010055989220036
0.000856103349791
-0.000124544210530
-0.002793240195425
0.010055989220036
0.000856103349791
-0.000124544210530
-0.002793240195425
0.010055989220036
0.000856103349791
-0.000124544210530
-0.002793240195425
0.010055989220036
0.000856103349791
-0.000124544210530
-0.002793240195425
0.010055989220036
0.000856103349791
-0.000124544210530
-0.002793240195425
0.010055989220036
0.000856103349791
-0.000124544210530
-0.002793240195425
0.010055989220036
0.000856103349791
-0.000124544210530
-0.000000000000000
0.000000000000000
0.000000000000000
-0.000000000000000
-0.000855910856098
0.004258302406959
0.001637361479373
0.000912916216795
-0.000855910856098
0.004258302406959
0.001637361479373
0.000912916216795
-0.000855910856098
0.004258302406959
0.001637361479373
0.000912916216795
-0.000855910856098
0.004258302406959
0.001637361479373
0.000912916216795
-0.000855910856098
0.004258302406959
0.001637361479373
0.000912916216795
-0.000855910856098
0.004258302406959
0.001637361479373
0.000912916216795
-0.000855910856098
0.004258302406959
0.001637361479373
0.000912916216795
-0.000000000000000
0.000000000000000
0.000000000000000
0.000000000000000
0.000296540174163
-0.001846247212839
0.003261099597583
-0.011321912274292
0.000296540174163
-0.001846247212839
0.003261099597583
-0.011321912274292
0.000296540174163
-0.001846247212839
0.003261099597583
-0.011321912274292
0.000296540174163
-0.001846247212839
0.003261099597583
-0.011321912274292
0.000296540174163
-0.001846247212839
0.003261099597583
-0.011321912274292
0.000296540174163
-0.001846247212839
0.003261099597583
-0.011321912274292
0.000296540174163
-0.001846247212839
0.003261099597583
-0.011321912274292
0.000000000000000
-0.000000000000000
0.000000000000000
-0.000000000000000
0.001429863885042
-0.003085289219465
-0.007505788141424
-0.010761785706352
0.001429863885042
-0.003085289219465
-0.007505788141424
-0.010761785706352
0.001429863885042
-0.003085289219465
-0.007505788141424
-0.010761785706352
0.001429863885042
-0.003085289219465
-0.007505788141424
-0.010761785706352
0.001429863885042
-0.003085289219465
-0.007505788141424
-0.010761785706352
0.001429863885042
-0.003085289219465
-0.007505788141424
-0.010761785706352
0.001429863885042
-0.003085289219465
-0.007505788141424
-0.010761785706352
0.000000000000000
-0.000000000000000
-0.000000000000000
-0.000000000000000
-0.002793240195425
0.010055989220036
0.000856103349791
-0.000124544210530
-0.002793240195425
0.010055989220036
0.000856103349791
-0.000124544210530
-0.002793240195425
0.010055989220036
0.000856103349791
-0.000124544210530
-0.002793240195425
0.010055989220036
0.000856103349791
-0.000124544210530
-0.002793240195425
0.010055989220036
0.000856103349791
-0.000124544210530
-0.002793240195425
0.010055989220036
0.000856103349791
-0.000124544210530
-0.002793240195425
0.010055989220036
0.000856103349791
-0.000124544210530
-0.000000000000000
0.000000000000000
0.000000000000000
-0.000000000000000
-0.000855910856098
0.004258302406959
0.001637361479373
0.000912916216795
-0.000855910856098
0.004258302406959
0.001637361479373
0.000912916216795
-0.000855910856098
0.004258302406959
0.001637361479373
0.000912916216795
-0.000855910856098
0.004258302406959
0.001637361479373
0.000912916216795
-0.000855910856098
0.004258302406959
0.001637361479373
0.000912916216795
-0.000855910856098
0.004258302406959
0.001637361479373
0.000912916216795
-0.000855910856098
0.004258302406959
0.001637361479373
0.000912916216795
-0.000000000000000
0.000000000000000
0.000000000000000
0.000000000000000
0.000296540174163
-0.001846247212839
0.003261099597583
-0.011321912274292
0.000296540174163
-0.001846247212839
0.003261099597583
-0.011321912274292
0.000296540174163
-0.001846247212839
0.003261099597583
-0.011321912274292
0.000296540174163
-0.001846247212839
0.003261099597583
-0.011321912274292
0.000296540174163
-0.001846247212839
0.003261099597583
-0.011321912274292
0.000296540174163
-0.001846247212839
0.003261099597583
-0.011321912274292
0.000296540174163
-0.001846247212839
0.003261099597583
-0.011321912274292
0.000000000000000
-0.000000000000000
0.000000000000000
-0.000000000000000
0.001429863885042
-0.003085289219465
-0.007505788141424
-0.010761785706352
0.001429863885042
-0.003085289219465
-0.007505788141424
-0.010761785706352
0.001429863885042
-0.003085289219465
-0.007505788141424
-0.010761785706352
0.001429863885042
-0.003085289219465
-0.007505788141424
-0.010761785706352
0.001429863885042
-0.003085289219465
-0.007505788141424
-0.010761785706352
0.001429863885042
-0.003085289219465
-0.007505788141424
-0.010761785706352
0.001429863885042
-0.003085289219465
-0.007505788141424
-0.010761785706352
0.000000000000000
-0.000000000000000
-0.000000000000000
-0.000000000000000
-0.002793240195425
0.010055989220036
0.000856103349791
-0.000124544210530
-0.002793240195425
0.010055989220036
0.000856103349791
-0.000124544210530
-0.002793240195425
0.010055989220036
0.000856103349791
-0.000124544210530
-0.002793240195425
0.010055989220036
0.000856103349791
-0.000124544210530
-0.002793240195425
0.010055989220036
0.000856103349791
-0.000124544210530
-0.002793240195425
0.010055989220036
0.000856103349791
-0.000124544210530
-0.002793240195425
0.010055989220036
0.000856103349791
-0.000124544210530
-0.000000000000000
0.000000000000000
0.000000000000000
-0.000000000000000
-0.000855910856098
0.004258302406959
0.001637361479373
0.000912916216795
-0.000855910856098
0.004258302406959
0.001637361479373
0.000912916216795
-0.000855910856098
0.004258302406959
0.001637361479373
0.000912916216795
-0.000855910856098
0.004258302406959
0.001637361479373
0.000912916216795
-0.000855910856098
0.004258302406959
0.001637361479373
0.000912916216795
-0.000855910856098
0.004258302406959
0.001637361479373
0.000912916216795
-0.000855910856098
0.004258302406959
0.001637361479373
0.000912916216795
-0.000000000000000
0.000000000000000
0.000000000000000
0.000000000000000
0.000296540174163
-0.001846247212839
0.003261099597583
-0.011321912274292
0.000296540174163
-0.001846247212839
0.003261099597583
-0.011321912274292
0.000296540174163
-0.001846247212839
0.003261099597583
-0.011321912274292
0.000296540174163
-0.001846247212839
0.003261099597583
-0.011321912274292
0.000296540174163
-0.001846247212839
0.003261099597583
-0.011321912274292
0.000296540174163
-0.001846247212839
0.003261099597583
-0.011321912274292
0.000296540174163
-0.001846247212839
0.003261099597583
-0.011321912274292
0.000000000000000
-0.000000000000000
0.000000000000000
-0.000000000000000
0.001429863885042
-0.003085289219465
-0.007505788141424
-0.010761785706352
0.001429863885042
-0.003085289219465
-0.007505788141424
-0.010761785706352
0.001429863885042
-0.003085289219465
-0.007505788141424
-0.010761785706352
0.001429863885042
-0.003085289219465
-0.007505788141424
-0.010761785706352
0.001429863885042
-0.003085289219465
-0.007505788141424
-0.010761785706352
0.001429863885042
-0.003085289219465
-0.007505788141424
-0.010761785706352
0.001429863885042
-0.003085289219465
-0.007505788141424
-0.010761785706352
0.000000000000000
-0.000000000000000
-0.000000000000000
-0.000000000000000
-0.002793240195425
0.010055989220036
0.000856103349791
-0.000124544210530
-0.002793240195425
0.010055989220036
0.000856103349791
-0.000124544210530
-0.002793240195425
0.010055989220036
0.000856103349791
-0.000124544210530
-0.002793240195425
0.010055989220036
0.000856103349791
-0.000124544210530
-0.002793240195425
0.010055989220036
0.000856103349791
-0.000124544210530
-0.002793240195425
0.010055989220036
0.000856103349791
-0.000124544210530
-0.002793240195425
0.010055989220036
0.000856103349791
-0.000124544210530
-0.000000000000000
0.000000000000000
0.000000000000000
-0.000000000000000
-0.000855910856098
0.004258302406959
0.001637361479373
0.000912916216795
-0.000855910856098
0.004258302406959
0.001637361479373
0.000912916216795
-0.000855910856098
0.004258302406959
0.001637361479373
0.000912916216795
-0.000855910856098
0.004258302406959
0.001637361479373
0.000912916216795
-0.000855910856098
0.004258302406959
0.001637361479373
0.000912916216795
-0.000855910856098
0.004258302406959
0.001637361479373
0.000912916216795
-0.000855910856098
0.004258302406959
0.001637361479373
0.000912916216795
-0.000000000000000
0.000000000000000
0.000000000000000
0.000000000000000
0.000296540174163
-0.001846247212839
0.003261099597583
-0.011321912274292
0.000296540174163
-0.001846247212839
0.003261099597583
-0.011321912274292
0.000296540174163
-0.001846247212839
0.003261099597583
-0.011321912274292
0.000296540174163
-0.001846247212839
0.003261099597583
-0.011321912274292
0.000296540174163
-0.001846247212839
0.003261099597583
-0.011321912274292
0.000296540174163
-0.001846247212839
0.003261099597583
-0.011321912274292
0.000296540174163
-0.001846247212839
0.003261099597583
-0.011321912274292
0.000000000000000
-0.000000000000000
0.000000000000000
-0.000000000000000
0.001429863885042
-0.003085289219465
-0.007505788141424
-0.010761785706352
0.001429863885042
-0.003085289219465
-0.007505788141424
-0.010761785706352
0.001429863885042
-0.003085289219465
-0.007505788141424
-0.010761785706352
0.001429863885042
-0.003085289219465
-0.007505788141424
-0.010761785706352
0.001429863885042
-0.003085289219465
-0.007505788141424
-0.010761785706352
0.001429863885042
-0.003085289219465
-0.007505788141424
-0.010761785706352
0.001429863885042
-0.003085289219465
-0.007505788141424
-0.010761785706352
0.000000000000000
-0.000000000000000
-0.000000000000000
-0.000000000000000
-0.002793240195425
0.010055989220036
0.000856103349791
-0.000124544210530
-0.002793240195425
0.010055989220036
0.000856103349791
-0.000124544210530
-0.002793240195425
0.010055989220036
0.000856103349791
-0.000124544210530
-0.002793240195425
0.010055989220036
0.000856103349791
-0.000124544210530
-0.002793240195425
0.010055989220036
0.000856103349791
-0.000124544210530
-0.002793240195425
0.010055989220036
0.000856103349791
-0.000124544210530
-0.002793240195425
0.010055989220036
0.000856103349791
-0.000124544210530
-0.000000000000000
0.000000000000000
0.000000000000000
-0.000000000000000
-0.000855910856098
0.004258302406959
0.001637361479373
0.000912916216795
-0.000855910856098
0.004258302406959
0.001637361479373
0.000912916216795
-0.000855910856098
0.004258302406959
0.001637361479373
0.000912916216795
-0.000855910856098
0.004258302406959
0.001637361479373
0.000912916216795
-0.000855910856098
0.004258302406959
0.001637361479373
0.000912916216795
-0.000855910856098
0.004258302406959
0.001637361479373
0.000912916216795
-0.000855910856098
0.004258302406959
0.001637361479373
0.000912916216795
-0.000000000000000
0.000000000000000
0.000000000000000
0.000000000000000
0.000296540174163
-0.001846247212839
0.003261099597583
-0.011321912274292
0.000296540174163
-0.001846247212839
0.003261099597583
-0.011321912274292
0.000296540174163
-0.001846247212839
0.003261099597583
-0.011321912274292
0.000296540174163
-0.001846247212839
0.003261099597583
-0.011321912274292
0.000296540174163
-0.001846247212839
0.003261099597583
-0.011321912274292
0.000296540174163
-0.001846247212839
0.003261099597583
-0.011321912274292
0.000296540174163
-0.001846247212839
0.003261099597583
-0.011321912274292
0.000000000000000
-0.000000000000000
0.000000000000000
-0.000000000000000
0.001429863885042
-0.003085289219465
-0.007505788141424
-0.010761785706352
0.001429863885042
-0.003085289219465
-0.007505788141424
-0.010761785706352
0.001429863885042
-0.003085289219465
-0.007505788141424
-0.010761785706352
0.001429863885042
-0.003085289219465
-0.007505788141424
-0.010761785706352
0.001429863885042
-0.003085289219465
-0.007505788141424
-0.010761785706352
0.001429863885042
-0.003085289219465
-0.007505788141424
-0.010761785706352
0.001429863885042
-0.003085289219465
-0.007505788141424
-0.010761785706352
0.000000000000000
-0.000000000000000
-0.000000000000000
-0.000000000000000
-0.002793240195425
0.010055989220036
0.000856103349791
-0.000124544210530
-0.002793240195425
0.010055989220036
0.000856103349791
-0.000124544210530
-0.002793240195425
0.010055989220036
0.000856103349791
-0.000124544210530
-0.002793240195425
0.010055989220036
0.000856103349791
-0.000124544210530
-0.002793240195425
0.010055989220036
0.000856103349791
-0.000124544210530
-0.002793240195425
0.010055989220036
0.000856103349791
-0.000124544210530
-0.002793240195425
0.010055989220036
0.000856103349791
-0.000124544210530
-0.000000000000000
0.000000000000000
0.000000000000000
-0.000000000000000
-0.000855910856098
0.004258302406959
0.001637361479373
0.000912916216795
-0.000855910856098
0.004258302406959
0.001637361479373
0.000912916216795
-0.000855910856098
0.004258302406959
0.001637361479373
0.000912916216795
-0.000855910856098
0.004258302406959
0.001637361479373
0.000912916216795
-0.000855910856098
0.004258302406959
0.001637361479373
0.000912916216795
-0.000855910856098
0.004258302406959
0.001637361479373
0.000912916216795
-0.000855910856098
0.004258302406959
0.001637361479373
0.000912916216795
-0.000000000000000
0.000000000000000
0.000000000000000
0.000000000000000
0.000296540174163
-0.001846247212839
0.003261099597583
-0.011321912274292
0.000296540174163
-0.001846247212839
0.003261099597583
-0.011321912274292
0.000296540174163
-0.001846247212839
0.003261099597583
-0.011321912274292
0.000296540174163
-0.001846247212839
0.003261099597583
-0.011321912274292
0.000296540174163
-0.001846247212839
0.003261099597583
-0.011321912274292
0.000296540174163
-0.001846247212839
0.003261099597583
-0.011321912274292
0.000296540174163
-0.001846247212839
0.003261099597583
-0.011321912274292
0.000000000000000
-0.000000000000000
0.000000000000000
-0.000000000000000
0.002369254847044
0.010391075600790
-0.016892346560514
0.001385606361828
0.002369254847044
0.010391075600790
-0.016892346560514
0.001385606361828
0.002369254847044
0.010391075600790
-0.016892346560514
0.001385606361828
0.002369254847044
0.010391075600790
-0.016892346560514
0.001385606361828
0.002369254847044
0.010391075600790
-0.016892346560514
0.001385606361828
0.002369254847044
0.010391075600790
-0.016892346560514
0.001385606361828
0.002369254847044
0.010391075600790
-0.016892346560514
0.001385606361828
0.000000000000000
0.000000000000000
-0.000000000000000
0.000000000000000
-0.008708329126588
-0.000206236345227
0.000342027475619
-0.003107439248165
-0.008708329126588
-0.000206236345227
0.000342027475619
-0.003107439248165
-0.008708329126588
-0.000206236345227
0.000342027475619
-0.003107439248165
-0.008708329126588
-0.000206236345227
0.000342027475619
-0.003107439248165
-0.008708329126588
-0.000206236345227
0.000342027475619
-0.003107439248165
-0.008708329126588
-0.000206236345227
0.000342027475619
-0.003107439248165
-0.008708329126588
-0.000206236345227
0.000342027475619
-0.003107439248165
-0.000000000000000
-0.000000000000000
0.000000000000000
-0.000000000000000
-0.006803546293012
0.004599831198227
0.007387347625556
-0.000735564219217
-0.006803546293012
0.004599831198227
0.007387347625556
-0.000735564219217
-0.006803546293012
0.004599831198227
0.007387347625556
-0.000735564219217
-0.006803546293012
0.004599831198227
0.007387347625556
-0.000735564219217
-0.006803546293012
0.004599831198227
0.007387347625556
-0.000735564219217
-0.006803546293012
0.004599831198227
0.007387347625556
-0.000735564219217
-0.006803546293012
0.004599831198227
0.007387347625556
-0.000735564219217
-0.000000000000000
0.000000000000000
0.000000000000000
-0.000000000000000
0.002612937270373
-0.003104819852866
0.001838574274321
0.012686060496340
0.002612937270373
-0.003104819852866
0.001838574274321
0.012686060496340
0.002612937270373
-0.003104819852866
0.001838574274321
0.012686060496340
0.002612937270373
-0.003104819852866
0.001838574274321
0.012686060496340
0.002612937270373
-0.003104819852866
0.001838574274321
0.012686060496340
0.002612937270373
-0.003104819852866
0.001838574274321
0.012686060496340
0.002612937270373
-0.003104819852866
0.001838574274321
0.012686060496340
0.000000000000000
-0.000000000000000
0.000000000000000
0.000000000000000
0.002369254847044
0.010391075600790
-0.016892346560514
0.001385606361828
0.002369254847044
0.010391075600790
-0.016892346560514
0.001385606361828
0.002369254847044
0.010391075600790
-0.016892346560514
0.001385606361828
0.002369254847044
0.010391075600790
-0.016892346560514
0.001385606361828
0.002369254847044
0.010391075600790
-0.016892346560514
0.001385606361828
0.002369254847044
0.010391075600790
-0.016892346560514
0.001385606361828
0.002369254847044
0.010391075600790
-0.016892346560514
0.001385606361828
0.000000000000000
0.000000000000000
-0.000000000000000
0.000000000000000
-0.008708329126588
-0.000206236345227
0.000342027475619
-0.003107439248165
-0.008708329126588
-0.000206236345227
0.000342027475619
-0.003107439248165
-0.008708329126588
-0.000206236345227
0.000342027475619
-0.003107439248165
-0.008708329126588
-0.000206236345227
0.000342027475619
-0.003107439248165
-0.008708329126588
-0.000206236345227
0.000342027475619
-0.003107439248165
-0.008708329126588
-0.000206236345227
0.000342027475619
-0.003107439248165
-0.008708329126588
-0.000206236345227
0.000342027475619
-0.003107439248165
-0.000000000000000
-0.000000000000000
0.000000000000000
-0.000000000000000
-0.006803546293012
0.004599831198227
0.007387347625556
-0.000735564219217
-0.006803546293012
0.004599831198227
0.007387347625556
-0.000735564219217
-0.006803546293012
0.004599831198227
0.007387347625556
-0.000735564219217
-0.006803546293012
0.004599831198227
0.007387347625556
-0.000735564219217
-0.006803546293012
0.004599831198227
0.007387347625556
-0.000735564219217
-0.006803546293012
0.004599831198227
0.007387347625556
-0.000735564219217
-0.006803546293012
0.004599831198227
0.007387347625556
-0.000735564219217
-0.000000000000000
0.000000000000000
0.000000000000000
-0.000000000000000
0.002612937270373
-0.003104819852866
0.001838574274321
0.012686060496340
0.002612937270373
-0.003104819852866
0.001838574274321
0.012686060496340
0.002612937270373
-0.003104819852866
0.001838574274321
0.012686060496340
0.002612937270373
-0.003104819852866
0.001838574274321
0.012686060496340
0.002612937270373
-0.003104819852866
0.001838574274321
0.012686060496340
0.002612937270373
-0.003104819852866
0.001838574274321
0.012686060496340
0.002612937270373
-0.003104819852866
0.001838574274321
0.012686060496340
0.000000000000000
-0.000000000000000
0.000000000000000
0.000000000000000
0.002369254847044
0.010391075600790
-0.016892346560514
0.001385606361828
0.002369254847044
0.010391075600790
-0.016892346560514
0.001385606361828
0.002369254847044
0.010391075600790
-0.016892346560514
0.001385606361828
0.002369254847044
0.010391075600790
-0.016892346560514
0.001385606361828
0.002369254847044
0.010391075600790
-0.016892346560514
0.001385606361828
0.002369254847044
0.010391075600790
-0.016892346560514
0.001385606361828
0.002369254847044
0.010391075600790
-0.016892346560514
0.001385606361828
0.000000000000000
0.000000000000000
-0.000000000000000
0.000000000000000
-0.008708329126588
-0.000206236345227
0.000342027475619
-0.003107439248165
-0.008708329126588
-0.000206236345227
0.000342027475619
-0.003107439248165
-0.008708329126588
-0.000206236345227
0.000342027475619
-0.003107439248165
-0.008708329126588
-0.000206236345227
0.000342027475619
-0.003107439248165
-0.008708329126588
-0.000206236345227
0.000342027475619
-0.003107439248165
-0.008708329126588
-0.000206236345227
0.000342027475619
-0.003107439248165
-0.008708329126588
-0.000206236345227
0.000342027475619
-0.003107439248165
-0.000000000000000
-0.000000000000000
0.000000000000000
-0.000000000000000
-0.006803546293012
0.004599831198227
0.007387347625556
-0.000735564219217
-0.006803546293012
0.004599831198227
0.007387347625556
-0.000735564219217
-0.006803546293012
0.004599831198227
0.007387347625556
-0.000735564219217
-0.006803546293012
0.004599831198227
0.007387347625556
-0.000735564219217
-0.006803546293012
0.004599831198227
0.007387347625556
-0.000735564219217
-0.006803546293012
0.004599831198227
0.007387347625556
-0.000735564219217
-0.006803546293012
0.004599831198227
0.007387347625556
-0.000735564219217
-0.000000000000000
0.000000000000000
0.000000000000000
-0.000000000000000
0.002612937270373
-0.003104819852866
0.001838574274321
0.012686060496340
0.002612937270373
-0.003104819852866
0.001838574274321
0.012686060496340
0.002612937270373
-0.003104819852866
0.001838574274321
0.012686060496340
0.002612937270373
-0.003104819852866
0.001838574274321
0.012686060496340
0.002612937270373
-0.003104819852866
0.001838574274321
0.012686060496340
0.002612937270373
-0.003104819852866
0.001838574274321
0.012686060496340
0.002612937270373
-0.003104819852866
0.001838574274321
0.012686060496340
0.000000000000000
-0.000000000000000
0.000000000000000
0.000000000000000
0.002369254847044
0.010391075600790
-0.016892346560514
0.001385606361828
0.002369254847044
0.010391075600790
-0.016892346560514
0.001385606361828
0.002369254847044
0.010391075600790
-0.016892346560514
0.001385606361828
0.002369254847044
0.010391075600790
-0.016892346560514
0.001385606361828
0.002369254847044
0.010391075600790
-0.016892346560514
0.001385606361828
0.002369254847044
0.010391075600790
-0.016892346560514
0.001385606361828
0.002369254847044
0.010391075600790
-0.016892346560514
0.001385606361828
0.000000000000000
0.000000000000000
-0.000000000000000
0.000000000000000
-0.008708329126588
-0.000206236345227
0.000342027475619
-0.003107439248165
-0.008708329126588
-0.000206236345227
0.000342027475619
-0.003107439248165
-0.008708329126588
-0.000206236345227
0.000342027475619
-0.003107439248165
-0.008708329126588
-0.000206236345227
0.000342027475619
-0.003107439248165
-0.008708329126588
-0.000206236345227
0.000342027475619
-0.003107439248165
-0.008708329126588
-0.000206236345227
0.000342027475619
-0.003107439248165
-0.008708329126588
-0.000206236345227
0.000342027475619
-0.003107439248165
-0.000000000000000
-0.000000000000000
0.000000000000000
-0.000000000000000
-0.006803546293012
0.004599831198227
0.007387347625556
-0.000735564219217
-0.006803546293012
0.004599831198227
0.007387347625556
-0.000735564219217
-0.006803546293012
0.004599831198227
0.007387347625556
-0.000735564219217
-0.006803546293012
0.004599831198227
0.007387347625556
-0.000735564219217
-0.006803546293012
0.004599831198227
0.007387347625556
-0.000735564219217
-0.006803546293012
0.004599831198227
0.007387347625556
-0.000735564219217
-0.006803546293012
0.004599831198227
0.007387347625556
-0.000735564219217
-0.000000000000000
0.000000000000000
0.000000000000000
-0.000000000000000
0.002612937270373
-0.003104819852866
0.001838574274321
0.012686060496340
0.002612937270373
-0.003104819852866
0.001838574274321
0.012686060496340
0.002612937270373
-0.003104819852866
0.001838574274321
0.012686060496340
0.002612937270373
-0.003104819852866
0.001838574274321
0.012686060496340
0.002612937270373
-0.003104819852866
0.001838574274321
0.012686060496340
0.002612937270373
-0.003104819852866
0.001838574274321
0.012686060496340
0.002612937270373
-0.003104819852866
0.001838574274321
0.012686060496340
0.000000000000000
-0.000000000000000
0.000000000000000
0.000000000000000
0.002369254847044
0.010391075600790
-0.016892346560514
0.001385606361828
0.002369254847044
0.010391075600790
-0.016892346560514
0.001385606361828
0.002369254847044
0.010391075600790
-0.016892346560514
0.001385606361828
0.002369254847044
0.010391075600790
-0.016892346560514
0.001385606361828
0.002369254847044
0.010391075600790
-0.016892346560514
0.001385606361828
0.002369254847044
0.010391075600790
-0.016892346560514
0.001385606361828
0.002369254847044
0.010391075600790
-0.016892346560514
0.001385606361828
0.000000000000000
0.000000000000000
-0.000000000000000
0.000000000000000
-0.008708329126588
-0.000206236345227
0.000342027475619
-0.003107439248165
-0.008708329126588
-0.000206236345227
0.000342027475619
-0.003107439248165
-0.008708329126588
-0.000206236345227
0.000342027475619
-0.003107439248165
-0.008708329126588
-0.000206236345227
0.000342027475619
-0.003107439248165
-0.008708329126588
-0.000206236345227
0.000342027475619
-0.003107439248165
-0.008708329126588
-0.000206236345227
0.000342027475619
-0.003107439248165
-0.008708329126588
-0.000206236345227
0.000342027475619
-0.003107439248165
-0.000000000000000
-0.000000000000000
0.000000000000000
-0.000000000000000
-0.006803546293012
0.004599831198227
0.007387347625556
-0.000735564219217
-0.006803546293012
0.004599831198227
0.007387347625556
-0.000735564219217
-0.006803546293012
0.004599831198227
0.007387347625556
-0.000735564219217
-0.006803546293012
0.004599831198227
0.007387347625556
-0.000735564219217
-0.006803546293012
0.004599831198227
0.007387347625556
-0.000735564219217
-0.006803546293012
0.004599831198227
0.007387347625556
-0.000735564219217
-0.006803546293012
0.004599831198227
0.007387347625556
-0.000735564219217
-0.000000000000000
0.000000000000000
0.000000000000000
-0.000000000000000
0.002612937270373
-0.003104819852866
0.001838574274321
0.012686060496340
0.002612937270373
-0.003104819852866
0.001838574274321
0.012686060496340
0.002612937270373
-0.003104819852866
0.001838574274321
0.012686060496340
0.002612937270373
-0.003104819852866
0.001838574274321
0.012686060496340
0.002612937270373
-0.003104819852866
0.001838574274321
0.012686060496340
0.002612937270373
-0.003104819852866
0.001838574274321
0.012686060496340
0.002612937270373
-0.003104819852866
0.001838574274321
0.012686060496340
0.000000000000000
-0.000000000000000
0.000000000000000
0.000000000000000
0.002369254847044
0.010391075600790
-0.016892346560514
0.001385606361828
0.002369254847044
0.010391075600790
-0.016892346560514
0.001385606361828
0.002369254847044
0.010391075600790
-0.016892346560514
0.001385606361828
0.002369254847044
0.010391075600790
-0.016892346560514
0.001385606361828
0.002369254847044
0.010391075600790
-0.016892346560514
0.001385606361828
0.002369254847044
0.010391075600790
-0.016892346560514
0.001385606361828
0.002369254847044
0.010391075600790
-0.016892346560514
0.001385606361828
0.000000000000000
0.000000000000000
-0.000000000000000
0.000000000000000
-0.008708329126588
-0.000206236345227
0.000342027475619
-0.003107439248165
-0.008708329126588
-0.000206236345227
0.000342027475619
-0.003107439248165
-0.008708329126588
-0.000206236345227
0.000342027475619
-0.003107439248165
-0.008708329126588
-0.000206236345227
0.000342027475619
-0.003107439248165
-0.008708329126588
-0.000206236345227
0.000342027475619
-0.003107439248165
-0.008708329126588
-0.000206236345227
0.000342027475619
-0.003107439248165
-0.008708329126588
-0.000206236345227
0.000342027475619
-0.003107439248165
-0.000000000000000
-0.000000000000000
0.000000000000000
-0.000000000000000
-0.006803546293012
0.004599831198227
0.007387347625556
-0.000735564219217
-0.006803546293012
0.004599831198227
0.007387347625556
-0.000735564219217
-0.006803546293012
0.004599831198227
0.007387347625556
-0.000735564219217
-0.006803546293012
0.004599831198227
0.007387347625556
-0.000735564219217
-0.006803546293012
0.004599831198227
0.007387347625556
-0.000735564219217
-0.006803546293012
0.004599831198227
0.007387347625556
-0.000735564219217
-0.006803546293012
0.004599831198227
0.007387347625556
-0.000735564219217
-0.000000000000000
0.000000000000000
0.000000000000000
-0.000000000000000
0.002612937270373
-0.003104819852866
0.001838574274321
0.012686060496340
0.002612937270373
-0.003104819852866
0.001838574274321
0.012686060496340
0.002612937270373
-0.003104819852866
0.001838574274321
0.012686060496340
0.002612937270373
-0.003104819852866
0.001838574274321
0.012686060496340
0.002612937270373
-0.003104819852866
0.001838574274321
0.012686060496340
0.002612937270373
-0.003104819852866
0.001838574274321
0.012686060496340
0.002612937270373
-0.003104819852866
0.001838574274321
0.012686060496340
0.000000000000000
-0.000000000000000
0.000000000000000
0.000000000000000
0.002369254847044
0.010391075600790
-0.016892346560514
0.001385606361828
0.002369254847044
0.010391075600790
-0.016892346560514
0.001385606361828
0.002369254847044
0.010391075600790
-0.016892346560514
0.001385606361828
0.002369254847044
0.010391075600790
-0.016892346560514
0.001385606361828
0.002369254847044
0.010391075600790
-0.016892346560514
0.001385606361828
0.002369254847044
0.010391075600790
-0.016892346560514
0.001385606361828
0.002369254847044
0.010391075600790
-0.016892346560514
0.001385606361828
0.000000000000000
0.000000000000000
-0.000000000000000
0.000000000000000
-0.008708329126588
-0.000206236345227
0.000342027475619
-0.003107439248165
-0.008708329126588
-0.000206236345227
0.000342027475619
-0.003107439248165
-0.008708329126588
-0.000206236345227
0.000342027475619
-0.003107439248165
-0.008708329126588
-0.000206236345227
0.000342027475619
-0.003107439248165
-0.008708329126588
-0.000206236345227
0.000342027475619
-0.003107439248165
-0.008708329126588
-0.000206236345227
0.000342027475619
-0.003107439248165
-0.008708329126588
-0.000206236345227
0.000342027475619
-0.003107439248165
-0.000000000000000
-0.000000000000000
0.000000000000000
-0.000000000000000
-0.006803546293012
0.004599831198227
0.007387347625556
-0.000735564219217
-0.006803546293012
0.004599831198227
0.007387347625556
-0.000735564219217
-0.006803546293012
0.004599831198227
0.007387347625556
-0.000735564219217
-0.006803546293012
0.004599831198227
0.007387347625556
-0.000735564219217
-0.006803546293012
0.004599831198227
0.007387347625556
-0.000735564219217
-0.006803546293012
0.004599831198227
0.007387347625556
-0.000735564219217
-0.006803546293012
0.004599831198227
0.007387347625556
-0.000735564219217
-0.000000000000000
0.000000000000000
0.000000000000000
-0.000000000000000
0.002612937270373
-0.003104819852866
0.001838574274321
0.012686060496340
0.002612937270373
-0.003104819852866
0.001838574274321
0.012686060496340
0.002612937270373
-0.003104819852866
0.001838574274321
0.012686060496340
0.002612937270373
-0.003104819852866
0.001838574274321
0.012686060496340
0.002612937270373
-0.003104819852866
0.001838574274321
0.012686060496340
0.002612937270373
-0.003104819852866
0.001838574274321
0.012686060496340
0.002612937270373
-0.003104819852866
0.001838574274321
0.012686060496340
0.000000000000000
-0.000000000000000
0.000000000000000
0.000000000000000
0.002369254847044
0.010391075600790
-0.016892346560514
0.001385606361828
0.002369254847044
0.010391075600790
-0.016892346560514
0.001385606361828
0.002369254847044
0.010391075600790
-0.016892346560514
0.001385606361828
0.002369254847044
0.010391075600790
-0.016892346560514
0.001385606361828
0.002369254847044
0.010391075600790
-0.016892346560514
0.001385606361828
0.002369254847044
0.010391075600790
-0.016892346560514
0.001385606361828
0.002369254847044
0.010391075600790
-0.016892346560514
0.001385606361828
0.000000000000000
0.000000000000000
-0.000000000000000
0.000000000000000
-0.008708329126588
-0.000206236345227
0.000342027475619
-0.003107439248165
-0.008708329126588
-0.000206236345227
0.000342027475619
-0.003107439248165
-0.008708329126588
-0.000206236345227
0.000342027475619
-0.003107439248165
-0.008708329126588
-0.000206236345227
0.000342027475619
-0.003107439248165
-0.008708329126588
-0.000206236345227
0.000342027475619
-0.003107439248165
-0.008708329126588
-0.000206236345227
0.000342027475619
-0.003107439248165
-0.008708329126588
-0.000206236345227
0.000342027475619
-0.003107439248165
-0.000000000000000
-0.000000000000000
0.000000000000000
-0.000000000000000
-0.006803546293012
0.004599831198227
0.007387347625556
-0.000735564219217
-0.006803546293012
0.004599831198227
0.007387347625556
-0.000735564219217
-0.006803546293012
0.004599831198227
0.007387347625556
-0.000735564219217
-0.006803546293012
0.004599831198227
0.007387347625556
-0.000735564219217
-0.006803546293012
0.004599831198227
0.007387347625556
-0.000735564219217
-0.006803546293012
0.004599831198227
0.007387347625556
-0.000735564219217
-0.006803546293012
0.004599831198227
0.007387347625556
-0.000735564219217
-0.000000000000000
0.000000000000000
0.000000000000000
-0.000000000000000
0.002612937270373
-0.003104819852866
0.001838574274321
0.012686060496340
0.002612937270373
-0.003104819852866
0.001838574274321
0.012686060496340
0.002612937270373
-0.003104819852866
0.001838574274321
0.012686060496340
0.002612937270373
-0.003104819852866
0.001838574274321
0.012686060496340
0.002612937270373
-0.003104819852866
0.001838574274321
0.012686060496340
0.002612937270373
-0.003104819852866
0.001838574274321
0.012686060496340
0.002612937270373
-0.003104819852866
0.001838574274321
0.012686060496340
0.000000000000000
-0.000000000000000
0.000000000000000
0.000000000000000
-0.002630655552388
-0.005744927777679
-0.003617434726279
-0.007182901069349
-0.002630655552388
-0.005744927777679
-0.003617434726279
-0.007182901069349
-0.002630655552388
-0.005744927777679
-0.003617434726279
-0.007182901069349
-0.002630655552388
-0.005744927777679
-0.003617434726279
-0.007182901069349
-0.002630655552388
-0.005744927777679
-0.003617434726279
-0.007182901069349
-0.002630655552388
-0.005744927777679
-0.003617434726279
-0.007182901069349
-0.002630655552388
-0.005744927777679
-0.003617434726279
-0.007182901069349
-0.000000000000000
-0.000000000000000
-0.000000000000000
-0.000000000000000
0.006602779738109
0.005509873102330
0.002095264525556
-0.005913408122357
0.006602779738109
0.005509873102330
0.002095264525556
-0.005913408122357
0.006602779738109
0.005509873102330
0.002095264525556
-0.005913408122357
0.006602779738109
0.005509873102330
0.002095264525556
-0.005913408122357
0.006602779738109
0.005509873102330
0.002095264525556
-0.005913408122357
0.006602779738109
0.005509873102330
0.002095264525556
-0.005913408122357
0.006602779738109
0.005509873102330
0.002095264525556
-0.005913408122357
0.000000000000000
0.000000000000000
0.000000000000000
-0.000000000000000
-0.003132930500514
0.012758619581535
-0.001861228503934
0.006731544386497
-0.003132930500514
0.012758619581535
-0.001861228503934
0.006731544386497
-0.003132930500514
0.012758619581535
-0.001861228503934
0.006731544386497
-0.003132930500514
0.012758619581535
-0.001861228503934
0.006731544386497
-0.003132930500514
0.012758619581535
-0.001861228503934
0.006731544386497
-0.003132930500514
0.012758619581535
-0.001861228503934
0.006731544386497
-0.003132930500514
0.012758619581535
-0.001861228503934
0.006731544386497
-0.000000000000000
0.000000000000000
-0.000000000000000
0.000000000000000
-0.001988924680266
-0.002010043718740
0.005487542691855
0.002530911391657
-0.001988924680266
-0.002010043718740
0.005487542691855
0.002530911391657
-0.001988924680266
-0.002010043718740
0.005487542691855
0.002530911391657
-0.001988924680266
-0.002010043718740
0.005487542691855
0.002530911391657
-0.001988924680266
-0.002010043718740
0.005487542691855
0.002530911391657
-0.001988924680266
-0.002010043718740
0.005487542691855
0.002530911391657
-0.001988924680266
-0.002010043718740
0.005487542691855
0.002530911391657
-0.000000000000000
-0.000000000000000
0.000000000000000
0.000000000000000
-0.002630655552388
-0.005744927777679
-0.003617434726279
-0.007182901069349
-0.002630655552388
-0.005744927777679
-0.003617434726279
-0.007182901069349
-0.002630655552388
-0.005744927777679
-0.003617434726279
-0.007182901069349
-0.002630655552388
-0.005744927777679
-0.003617434726279
-0.007182901069349
-0.002630655552388
-0.005744927777679
-0.003617434726279
-0.007182901069349
-0.002630655552388
-0.005744927777679
-0.003617434726279
-0.007182901069349
-0.002630655552388
-0.005744927777679
-0.003617434726279
-0.007182901069349
-0.000000000000000
-0.000000000000000
-0.000000000000000
-0.000000000000000
0.006602779738109
0.005509873102330
0.002095264525556
-0.005913408122357
0.006602779738109
0.005509873102330
0.002095264525556
-0.005913408122357
0.006602779738109
0.005509873102330
0.002095264525556
-0.005913408122357
0.006602779738109
0.005509873102330
0.002095264525556
-0.005913408122357
0.006602779738109
0.005509873102330
0.002095264525556
-0.005913408122357
0.006602779738109
0.005509873102330
0.002095264525556
-0.005913408122357
0.006602779738109
0.005509873102330
0.002095264525556
-0.005913408122357
0.000000000000000
0.000000000000000
0.000000000000000
-0.000000000000000
-0.003132930500514
0.012758619581535
-0.001861228503934
0.006731544386497
-0.003132930500514
0.012758619581535
-0.001861228503934
0.006731544386497
-0.003132930500514
0.012758619581535
-0.001861228503934
0.006731544386497
-0.003132930500514
0.012758619581535
-0.001861228503934
0.006731544386497
-0.003132930500514
0.012758619581535
-0.001861228503934
0.006731544386497
-0.003132930500514
0.012758619581535
-0.001861228503934
0.006731544386497
-0.003132930500514
0.012758619581535
-0.001861228503934
0.006731544386497
-0.000000000000000
0.000000000000000
-0.000000000000000
0.000000000000000
-0.001988924680266
-0.002010043718740
0.005487542691855
0.002530911391657
-0.001988924680266
-0.002010043718740
0.005487542691855
0.002530911391657
-0.001988924680266
-0.002010043718740
0.005487542691855
0.002530911391657
-0.001988924680266
-0.002010043718740
0.005487542691855
0.002530911391657
-0.001988924680266
-0.002010043718740
0.005487542691855
0.002530911391657
-0.001988924680266
-0.002010043718740
0.005487542691855
0.002530911391657
-0.001988924680266
-0.002010043718740
0.005487542691855
0.002530911391657
-0.000000000000000
-0.000000000000000
0.000000000000000
0.000000000000000
-0.002630655552388
-0.005744927777679
-0.003617434726279
-0.007182901069349
-0.002630655552388
-0.005744927777679
-0.003617434726279
-0.007182901069349
-0.002630655552388
-0.005744927777679
