16 16 3
-0.02597285
-0.002306748
-0.1281739
0.09685697
0.1719376
0.00235295
0.081242
0.161385
0.01707918
-0.1549817
-0.08228035
-0.1437507
-0.0100548
-0.00722305
-0.06185056
0.08452246
0.0561667
-0.06213584
0.05333601
0.097651
-0.0475282
0.04552269
0.06602563
-0.04203741
-0.01037449
0.01465579
-0.0005632567
0.03116095
0.02966196
0.006534261
0.001143568
0.008148707
-0.01361861
-0.005896401
0.01560951
0.01007314
-0.01328084
-0.1947063
-0.1183163
0.147072
0.01419951
0.01094062
0.1888986
0.04715184
-0.07352449
-0.2474445
-0.2307201
-0.07073704
-0.1923927
-0.2499667
-0.0626747
0.02650096
0.06934653
0.1377108
0.01326324
0.01656176
-0.01857472
0.0454203
0.07127332
0.023185
-0.01891465
0.0177571
-0.0422403
-0.04731819
0.05006413
-0.002933214
0.005295098
-0.002800349
-0.05337771
0.07447631
0.05721069
0.0365436
0.03340871
0.2168324
0.2257525
-0.07858666
0.2013946
0.4051476
-0.3201429
-0.1662099
0.1366425
-0.07680531
-0.09842098
-0.1264963
0.1504426
0.1306276
-0.07998309
0.2606708
0.2396448
-0.02632408
-0.05605188
-0.1034865
-0.09999309
-0.06652604
-0.1108466
-0.06354187
-0.04175052
-0.05933147
-0.04038446
0.02123385
0.05046323
0.06394397
-0.0001102461
-0.003902627
0.07883802
-0.007841002
0.01609577
0.121796
0.0291844
0.0968392
0.04909659
-0.04582816
-0.01786817
-0.02473243
-0.05390332
-0.08221789
-0.07516737
0.1000154
0.07450137
0.02961905
0.03121017
0.007494543
-0.01673325
0.06192187
-0.01417919
-0.05563484
0.008027971
-0.0006602661
0.05731248
-0.02911688
-0.06898142
0.002437292
-0.03986942
-0.0962975
-0.04129095
0.0007742947
0.0009259791
0.001594443
0.0004408688
0.0005847784
0.001753646
0.0006457019
-0.002623026
-0.001243375
-0.2113401
-0.07607514
-0.0619611
-0.1735383
-0.02424954
-0.06235463
-0.1368672
-0.05819017
-0.07726248
-0.1575631
-0.1556096
0.0491939
-0.1840152
-0.1697386
-0.03968148
-0.06296961
-0.04265928
-0.06857829
0.05513188
0.06575161
-0.01246423
-0.1150191
-0.08452687
-0.02645972
-0.1058755
-0.0715253
-0.02399056
-0.0504943
-0.05796458
-0.06468771
-0.008355528
0.00303247
-0.003117652
-0.03311732
-0.08563218
-0.0857384
-0.1011681
0.08979776
0.0882982
-0.1773106
-0.09330476
0.05972536
-0.09324256
-0.1401821
0.05046794
-0.1876215
-0.2323431
-0.1657291
-0.07577844
-0.3273975
-0.3080048
0.1788951
0.03434677
0.03231847
-0.08123622
-0.1180275
-0.2714365
-0.04807264
0.004959441
-0.08574219
-0.06534087
0.0643195
0.04136216
-0.235769
-0.001206916
-0.01113915
0.07417546
-0.07093564
-0.1416741
0.1285446
-0.1750577
-0.1502609
-0.0423093
0.03667485
-0.01821291
-0.1084052
0.07073981
0.1523843
-0.1934364
-0.09345269
0.06317291
-0.2528388
-0.2412306
-0.2103267
-0.1195486
-0.01771808
-0.06691472
-0.03086929
0.04985389
-0.1242583
-0.1122403
-0.1380352
-0.09159325
-0.1898772
-0.09663452
-0.03418548
-0.2064804
-0.03045348
0.01924646
0.0201766
-0.07499905
-0.01250053
0.01353228
-0.04271869
0.009560944
-0.05900878
-0.03849906
0.06833563
0.1777186
0.1514835
0.07510324
0.09678756
-0.1464063
-0.05039862
0.1109327
-0.1893412
-0.1678503
-0.05414384
-0.07183276
-0.0005990809
-0.02076472
-0.09213167
-0.06916888
-0.008544434
-0.06836233
-0.06767985
0.07917095
0.07660808
-0.01461599
-0.02868354
0.01345515
0.002528579
-0.01178923
0.03642924
0.05165456
0.005587469
0.0005116282
0.002707864
-0.004226889
0.003126084
0.002650846
-0.004876839
-0.0002877733
-0.001281768
-0.0208409
0.05173436
0.001748429
2.9701e-05
0.06769025
-0.01779903
-0.02376621
0.04180248
-0.004912788
0.001410293
-0.2068709
-0.1770031
0.1116319
0.1954995
0.03123008
0.0720693
0.2876466
0.143739
-0.02512766
-0.2368811
0.05850552
0.08977305
0.1232709
0.05590238
0.09705517
0.07199515
-0.1070713
0.03242186
0.1287641
0.02460424
0.08568062
0.1367801
0.08101435
-0.0879298
-0.2197402
-0.1548195
-0.02900034
0.4110602
0.01950661
-0.05053357
-0.1915666
-0.1335709
0.07805427
-0.1232681
0.07899611
-0.03536642
0.08528551
-0.02099354
-0.08229851
-0.1518221
-0.2223773
0.05678661
-0.06444795
-0.09247259
-0.1643998
-0.3176908
-0.1341029
0.01351707
-0.1741533
-0.05626532
0.1572339
0.01828434
0.0357236
-0.1160733
-0.08822483
0.07392936
-0.2084947
-0.1249174
-0.009549747
-0.1158392
-0.1083478
-0.09225339
0.02198206
-0.03523172
0.00463511
-0.03810305
0.01874881
0.06404924
-0.08212929
0.03110265
0.1158386
0.1382386
0.1325743
0.03519132
0.048418
0.08520697
-0.001709055
-0.03912448
-0.004389101
-0.09609879
0.04756241
0.1097096
0.0009224678
0.0141265
0.0527345
-0.01869434
0.02022253
0.03718334
0.05308573
0.016358
0.1240769
0.0510121
0.04097298
0.06067762
0.03410668
0.03284837
0.0300434
-0.002180347
-0.1775398
-0.1789482
-0.0786932
0.07802293
0.3303623
0.1796594
-0.01323369
0.1868287
0.06120723
0.1612217
-0.05230731
-0.3024576
-0.09022353
0.03556563
-0.05781361
-0.2301761
0.009643456
0.01655277
-0.00531423
0.009106574
-0.05518135
-0.06971889
-0.04303623
-0.06149568
-0.1152043
-0.08695674
-0.07554083
0.001647749
0.001463088
0.00260068
0.000190323
-0.0005511426
0.0005035012
-0.002137641
-0.001066231
0.0008453807
0.03158072
0.04823945
0.05095816
0.02877489
0.04965851
0.0277325
0.01551611
0.02587406
0.003029213
0.03462804
0.006636196
0.04400479
-0.02993927
-0.02816473
-0.001681448
0.01207489
0.03194121
0.02214053
0.0186267
0.03073971
0.08526927
-0.01827621
0.01222069
0.0687822
0.04690356
0.06328142
0.04606073
-0.01877772
-0.01260964
-0.006342931
-0.01856803
-0.03106086
-0.02961203
-0.0114247
-0.0279641
-0.02409987
0.03942891
0.04845757
-0.03502588
0.09778788
0.04475035
-0.03338047
0.04822486
0.04573651
0.008596064
0.008450283
0.02250172
0.04994712
0.04325756
0.06785213
0.07189311
0.04038754
0.06758128
0.07261088
0.04811773
0.04449288
0.05474528
0.01742138
0.01356318
0.05287478
-0.009695529
0.007400041
0.02266118
0.008169539
-0.008843468
-0.001552208
0.002046088
0.00622035
0.02305433
0.03187223
0.03762003
0.05276847
-0.007461776
-0.01654171
0.00379966
-0.05349585
-0.03024229
0.009838919
-0.05459744
-0.04383401
-0.008180532
-0.0006493244
-0.002447372
-0.01895283
-0.01042663
-0.01090992
-0.03387946
-0.032725
-0.04163051
-0.04346239
0.005275086
0.002613631
0.02620532
-0.002077485
-0.001512033
0.001884352
0.03023774
0.02538631
0.02121549
0.001038608
0.007493789
0.01382199
0.0119643
0.01049292
0.01750352
0.03281002
0.02618988
0.0374748
0.03339529
-0.01611513
0.02501553
-0.005136182
-0.01071043
0.02603338
0.01817472
-0.002140585
-0.003586191
0.00411173
-0.03256572
-0.00108441
-0.03598408
-0.03787033
0.003597326
-0.04403309
-0.01779201
0.02790439
0.008320765
0.002586975
0.02978938
0.01599698
0.0143958
0.05183825
0.03243761
0.02854079
0.05701023
0.0005873971
-0.0005532684
-0.0007152748
0.0006258058
0.001843852
-0.006258841
0.0003305922
-0.0006471507
0.001368711
-0.1330667
-0.01822544
-0.06361429
-0.2001604
-0.1438638
-0.1461361
-0.2786203
-0.2745664
-0.2385984
-0.1341442
-0.002655391
0.1679815
-0.2466529
0.1001454
0.2059895
-0.1593726
0.02235861
0.08083481
-0.237319
-0.1149856
0.106534
-0.09321052
0.2245944
0.3376547
-0.004293163
0.1589998
0.2289625
-0.2204048
-0.01639704
-0.05988893
0.08269667
0.06620201
0.04924057
-0.01440478
-0.07506616
-0.05703482
-0.04822405
0.006650868
-0.07535566
0.2577673
-0.1261119
-0.268068
0.04279044
-0.01266856
-0.202253
-0.06651431
-0.07105777
-0.002336906
-0.1276141
-0.02550291
0.1276515
-0.06528836
0.08381427
0.1768274
-0.2438776
-0.3293138
-0.1666059
-0.1854425
-0.03322823
0.07947569
0.02612214
0.1909202
0.1949101
0.1603218
0.08135052
-0.07827441
0.009107345
-0.0350272
-0.1475379
-0.02457041
0.08504186
-0.005985699
-0.04758751
0.1251305
0.2595627
-0.1451365
0.03977874
0.1075966
-0.2766574
-0.2200273
-0.2750373
0.02400642
0.1482088
0.08213656
0.08520622
0.1056661
-0.01183682
0.006669178
-0.03032114
-0.1032857
-0.009205501
0.0005439047
0.0347456
0.02866902
0.02285588
0.01590489
0.1645812
0.1301401
0.04620164
-0.02336325
0.06121662
0.1491433
-0.07042237
0.08854593
0.1580436
-0.2062897
-0.06192965
-0.07537299
0.02674148
-0.1284764
-0.0215489
-0.04165285
0.109808
0.1007445
0.1062746
0.03032529
0.01856609
-0.2962871
-0.08876818
-0.06238138
-0.4795512
-0.14025
-0.008459807
-0.2459566
-0.0645345
0.0187387
-0.008324563
0.03397543
0.2143367
-0.09349355
-0.05884635
0.1616913
0.1004967
0.1211577
0.2858841
0.002107889
0.001294942
0.004150734
0.0002968741
-6.000756e-05
0.000367241
-0.0008809055
-0.001955881
0.0001716731
-0.03448493
-0.03767102
-0.08029555
-0.02694508
-0.04789405
-0.09095346
-0.0216646
-0.0448013
-0.1340927
-0.0111105
-0.01603813
-0.110052
-0.02018799
-0.06410618
-0.1454651
-0.07350039
-0.1014689
-0.1234414
-0.008402037
0.02697862
-0.03019142
0.09184703
0.02757797
-0.07227099
-0.09085117
-0.09663356
-0.1119127
-0.07304602
-0.06223897
-0.02465648
0.08079297
0.125484
0.09691876
0.2723782
0.2690364
0.1798041
-0.02571062
-0.02103877
-0.007098031
0.0172652
0.01509996
0.03936063
0.1474979
0.2350295
0.03688071
0.07917031
0.05320485
0.1325714
-0.02921577
-0.03175797
0.05668364
0.01023357
0.02669082
0.08158962
-0.02926765
-0.01191489
0.00323586
0.04747076
0.159332
0.0818966
-0.114109
-0.06199105
-0.09736859
0.04061238
-0.03070831
0.07832289
0.02295065
0.02013346
0.1017171
0.07812972
0.049968
0.03977848
0.03649697
-0.002180363
-0.02661922
0.1592204
0.1332907
0.06072771
0.0229785
0.03373886
0.005646287
-0.1409924
-0.1695982
-0.1760984
-0.0899763
-0.1449551
-0.1601954
-0.0283607
-0.05680861
-0.09811717
0.02154629
0.01423879
-0.02925805
-0.06077166
-0.07706185
-0.1114475
0.01621495
0.01131322
-0.02076694
0.02337714
-0.02395683
-0.02216666
-0.002602678
-0.01944507
0.01005075
-0.04353401
-0.05818936
0.0006770497
-0.04047875
0.009660045
0.05617792
-0.05170634
0.01087987
0.02423763
-0.2145703
-0.1828137
-0.07021
0.02486318
0.01312655
-0.02239747
0.09671181
0.01986633
-0.02357749
0.05604543
-0.06350357
-0.1197015
0.01779035
0.02584394
0.06551345
0.02653151
0.006617529
0.05870241
-0.04190497
-0.07866779
-0.02442038
0.001589982
0.002229965
0.001634493
0.002000809
-0.001387082
0.0002637827
-5.5933e-05
0.001644158
-0.0003640805
-0.0912508
-0.09113865
0.05321695
-0.1133455
-0.09542204
-0.03039769
-0.002801648
0.08494651
-0.005240327
0.01515862
0.08436399
-0.2437869
-0.01007727
0.05459082
-0.1642178
-0.1396549
0.01153745
0.02731381
-0.1425682
-0.06411644
-0.2439253
0.04925009
0.09761582
-0.2072454
-0.002309424
0.0123436
-0.1745264
-0.01368551
-0.03261567
-0.02805484
-0.006472872
-0.08845723
-0.01124051
0.02471738
-0.02196369
-0.1144509
0.1240393
-0.1832249
-0.252033
0.1449075
0.2555116
-0.2222675
0.03669129
0.1609769
-0.1232725
-0.1283505
0.1865413
0.3135822
-0.1773164
0.1080947
0.2974855
-0.2839634
-0.291607
-0.1496701
-0.2447377
-0.07363231
-0.09881121
-0.07780021
-0.0910666
-0.1898573
0.05348811
0.03425768
-0.1570402
-0.1907916
-0.0201134
0.2335609
-0.2912392
0.02166823
0.3087983
-0.02497614
0.04389087
-0.0421108
0.1893804
-0.003591402
-0.06034181
0.1328493
-0.0684874
-0.1425648
0.03324715
-0.03676442
-0.07261342
-0.1337799
-0.2083478
-0.006223282
-0.269813
-0.3629431
-0.09602053
-0.08372035
-0.148211
0.1476919
0.1073585
0.003396744
-0.07068802
0.03372553
-0.08844281
-0.07284427
-0.08908487
-0.1392787
-0.0006737211
0.221302
0.4132844
0.1259328
0.1212622
0.185408
-0.0335579
-0.3112178
-0.4627779
-0.4092644
-0.01978587
0.2751324
0.0910176
0.003037789
0.3402984
0.1761031
-0.1585172
0.1005857
-0.03028138
-0.004801836
0.03116802
0.01243928
0.003741524
-0.01761487
-0.1225989
-0.06312592
-0.1142568
-0.1176983
-0.04883195
-0.1218427
-0.03166915
-0.09070301
-0.1620512
-0.1043972
0.1296444
0.08359738
0.08054167
-0.003470183
-0.001922518
0.001038104
0.001997399
-0.001772859
-0.002332815
0.001549112
-0.0002046677
-0.001960727
-0.05253484
-0.02626289
-0.0867665
-0.191648
-0.03610896
-0.1002554
-0.1118755
0.1661034
0.01961338
-0.0585268
0.01681941
-0.1043679
0.4888002
-0.07107755
0.02973564
0.005944496
-0.194061
0.1192649
-0.01616596
-0.06056662
0.1022642
0.559571
-0.1568619
-0.1515303
-0.008793888
-0.08802643
-0.02961202
0.05054465
0.0383118
-0.1439824
-0.2046718
0.0568557
0.1817151
-0.2453626
0.06833453
0.05399673
0.1936364
-0.204896
0.01517883
-0.5809909
0.2941989
-0.03726641
0.07529977
0.06288576
0.02834849
0.07314514
-0.03676321
0.04308232
0.04872913
-0.1324392
0.1333539
-0.1109009
0.06987055
0.07614936
-0.2690729
-0.09866317
0.04722485
-0.1096209
-0.08010544
-0.09636243
-0.1071169
0.06877197
0.05439414
0.06990131
0.09466886
0.01298516
0.1012889
0.05594761
0.06344752
-0.02230706
-0.08675223
0.0218491
-0.1065986
0.05036674
0.06144565
0.1318794
0.02019428
0.02600894
0.02529693
-0.1173216
-0.05764236
-0.1298491
-0.03748619
0.03894277
-0.1471272
0.00206003
0.004000321
0.000953276
0.04068876
0.06600477
0.09424995
-0.06209475
-0.03679441
-0.03423298
0.05490829
0.09682803
-0.0438101
-0.003075495
0.09660003
-0.1239584
-0.1537285
0.08960494
-0.0342798
0.1013602
0.1145176
0.09672026
-0.1216621
0.1213739
-0.05376984
0.03540286
-0.05462332
0.8274576
-0.1332108
0.08956951
-0.008285611
0.01593358
0.04024588
0.3551767
0.07474202
-0.08190766
0.6192153
0.4716375
0.2723706
0.1366571
0.03105516
-0.08245562
0.07418229
-0.03789078
-0.01978322
-0.09459932
-0.01935793
-0.03754736
-0.108894
-0.06068438
4.781198e-05
-0.0004197656
0.000668927
0.001536046
0.0002787469
0.0006903526
-0.0006283518
0.0001355902
0.00138568
-0.003179825
0.0863739
0.03360983
0.05806915
0.2010334
0.07247069
0.1243277
0.015453
-0.1327608
0.1057042
-0.1457815
0.09788483
0.08846911
-0.136177
0.0364116
-0.3474721
-0.1103767
0.1431012
-0.09761868
0.07254435
0.1632877
0.03676647
0.03185076
0.1794215
-0.3288271
0.01812858
0.1421807
-0.1141068
-0.01758482
0.02874047
-0.06614092
0.1109713
-0.1815877
0.0968128
0.06791704
-0.335331
-0.03033133
0.09788917
-0.1714753
0.05420438
0.1992012
-0.7649704
0.4745266
0.1963196
-0.3130177
0.1809667
0.04481964
0.06229459
0.1195748
0.05308483
-0.09870002
-0.007262394
0.07022838
-0.2173495
-0.2176214
0.2111911
-0.253022
0.1473582
0.06596457
-0.2566794
-0.03420589
0.04098507
0.01759314
-0.07404108
0.02440654
0.1033724
-0.09609032
0.07836499
-0.003024822
-0.1416515
0.04130071
-0.0695428
-0.1217321
0.00673478
0.03040354
-0.07742839
-0.02287347
-0.02743307
-0.07300954
-0.05740953
-0.06828026
-0.1017871
-0.06332377
-0.01675616
-0.02151315
0.02048501
0.08828515
0.02190227
0.02400591
0.08973779
-0.07111163
0.01567877
0.1265268
0.07613119
0.07109298
0.01731949
0.1047361
0.1011152
0.05401558
0.08740804
-0.03831507
0.1540639
0.05257252
-0.03211402
-0.003485981
0.1066481
-0.0785054
0.05467754
0.1191315
-0.02690661
-0.0689921
-0.03097271
-0.07432041
0.108048
-0.3365709
-0.02530939
0.1097364
-0.02989301
-0.06938808
0.02857329
0.05752318
-0.2744723
0.2804723
0.09099162
-0.06948364
0.06341719
0.2177272
0.03770649
0.1290233
-0.09888173
0.02503108
0.0006572063
-0.05257242
0.05516896
-0.007501164
-0.01097219
-0.002590595
0.0005300073
-0.0004588079
-0.001447327
-0.003529813
0.001801352
0.001147955
-0.002421887
-0.0007991724
0.09016029
0.1209881
0.1217304
0.04692946
0.05425505
0.01810152
-0.02596554
-0.0391246
-0.03081654
0.0164992
0.03462021
0.1018899
0.04602672
0.1054901
0.1193298
-0.01178033
0.06609967
0.02617281
0.004349309
0.0443236
-0.09103424
0.09738417
0.1742075
-0.09020694
0.04114245
0.07053617
-0.164813
0.1169626
0.02436979
0.09788931
0.100406
-0.04975407
0.06702703
-0.04771765
-0.2142209
-0.03973098
0.01605048
0.006912136
0.07828456
-0.1633404
-0.2306194
0.1722673
-0.1963274
-0.3236754
0.178599
0.05617547
0.002193217
0.04305094
0.1477547
-0.1101433
-0.06054018
0.09915526
-0.1089767
-0.089162
-0.0121933
-0.1367201
-0.06686284
-0.01710512
-0.1280933
-0.03106758
0.0151519
0.02512143
0.03938554
-0.154254
0.092531
0.1266582
0.04587376
0.006797614
-0.07673074
0.08123899
-0.08789187
-0.1256066
-0.1846809
-0.09242424
-0.06216297
-0.08444979
0.005821064
0.0999814
-0.09629701
-0.06354961
0.0205545
-0.161323
-0.127725
-0.06428542
-0.06646614
0.04059018
0.02674171
0.0302614
0.1148391
0.01888073
-0.01921257
-0.03854465
-0.009034889
-0.0548322
-0.0057944
0.07020618
-0.09743384
0.006581028
0.07953151
-0.05066359
-0.08868774
-0.05058087
0.009025868
-0.09837152
0.04271321
-0.0257064
-0.06675959
0.0830454
-0.02481657
0.03035336
-0.0218853
0.1247477
0.05767004
-0.0769655
0.01496895
-0.09544063
-0.1905447
-0.1155999
-0.07553101
-0.02295636
-0.0953242
0.03287638
0.09961209
-0.09615509
0.01153023
0.140579
0.1332365
0.07900146
-0.07843917
0.1282823
0.07139775
-0.05301397
0.0364476
0.01959359
-0.05722675
0.001333824
-0.001801183
-0.001070473
0.001372331
0.0008741562
-0.0003466148
-0.0008501036
0.001140357
-0.002644684
-0.02329539
-0.0318296
-0.03982593
-0.1103269
-0.0915603
-0.09578075
-0.07680133
-0.09480748
-0.1385704
-0.01148391
-0.01764327
0.1081467
-0.1957169
-0.09520035
0.1242754
-0.1759304
-0.1537522
-0.05813801
0.007283376
0.001546567
0.04003545
-0.05204853
0.0496592
0.1460031
0.01511963
0.01874533
0.06677399
-0.09140258
-0.09429556
-0.04797725
0.005965131
0.00635622
-0.1103729
0.04967297
0.04102664
-0.133084
0.004310655
-0.06665619
-0.1492893
0.1539029
0.01699723
-0.213019
-0.02710486
-0.05321205
-0.1561187
0.0289324
0.1005106
0.08706056
0.01935418
0.06126586
0.04565317
-0.07887071
-0.002006451
0.06251235
0.1403893
-0.01899158
-0.1538959
-0.02688476
-0.1045062
-0.09692267
-0.003221209
-0.05204393
0.01811117
-0.01000384
-0.00758193
0.07118034
0.01718
0.08102317
0.105281
0.1575918
0.1579618
0.07273106
-0.01827998
-0.06004849
0.02898487
-0.03553017
-0.02949039
0.02786973
-0.05382325
-0.0254771
-0.02070919
0.07682952
0.06492337
0.05624573
0.06444523
0.03903094
0.04880732
0.06561952
0.06812232
0.1075253
-0.01682352
0.001569421
0.0486703
-0.01129972
-0.009780057
-0.001850304
0.008183347
-0.01173359
-0.04091356
-0.02930014
-0.04779482
-0.053044
0.05204392
0.01671111
-0.04976695
-0.002379411
-0.02229688
-0.0787742
-0.01678374
0.03022626
0.03839679
-0.005624061
0.07292466
0.1902472
0.07084446
0.06814825
0.1005622
-0.1690687
-0.09674447
-0.08925608
-0.1970369
-0.1642717
-0.08761271
-0.1761665
-0.00914187
-0.06628234
-0.1371837
-0.07227514
0.02451828
-0.1080906
-0.07742137
0.008936943
-0.1233172
-0.07204562
-0.01224317
0.0003768204
-0.003799723
-0.0004864744
-0.0007560062
-0.001232851
-4.729935e-06
0.0004541436
0.001858547
-0.0004543085
-0.04189647
-0.05723403
-0.09739432
-0.07520159
-0.08326114
-0.1163183
-0.07067209
-0.1106128
-0.1446978
-0.1440954
-0.06250136
0.1976183
-0.07395209
-0.1450626
0.04472382
-0.01389991
-0.2058256
-0.1485633
-0.03446442
0.04539266
-0.03209667
-0.1467319
-0.05991359
-0.1074825
-0.1467108
-0.1595704
-0.1186659
0.003157037
-0.05083773
-0.09597832
-0.127768
-0.2357894
-0.2137443
-0.149621
-0.2946561
-0.2567765
-0.08121932
-0.0150296
0.01284382
-0.1273139
-0.08431153
0.07827406
-0.1833298
-0.2506683
-0.07779063
0.1208325
0.1475123
-0.009844519
0.2075394
0.09183692
-0.2049202
0.08552584
-0.02479923
-0.3249431
-0.004678329
-0.09875907
-0.1339036
-0.1040012
-0.202018
-0.1237834
-0.1405988
-0.2167947
-0.08227859
0.03836625
-0.0891604
-0.05430804
-0.0525873
-0.1714146
-0.1465516
-0.1535178
-0.1165411
-0.08154179
0.09451567
-0.1207854
-0.2234964
0.2379568
0.1096508
-0.05052085
0.2271251
0.27173
0.1712109
-0.1073082
-0.002106059
-0.02516625
-0.1189757
-0.08563331
-0.1146182
-0.09435775
-0.1189988
-0.1186941
-0.03681178
0.09177319
0.1878753
-0.02179019
0.03268485
0.08760244
-0.009085632
-0.06337786
-0.08653271
-0.2137246
-0.2845261
-0.3640382
0.0733936
-0.02338338
-0.2168206
0.2095056
0.2110876
0.04498779
-0.1495999
0.0666731
0.08076715
-0.05326028
0.1784298
0.2828282
-0.2059207
0.1154716
0.1574671
0.01306198
-0.1559434
0.0806817
-0.03429503
-0.2617916
-0.1163712
0.1009132
-0.0668146
-0.07512061
-0.1735815
0.1167303
-0.002181093
0.01980258
0.3411294
0.1563728
-0.1261616
0.09156094
-0.04320036
0.002491483
-0.002287528
0.003246127
0.0007091839
0.001757031
-0.001124167
0.002088618
0.002359798
0.001387844
-0.03347503
-0.1154608
-0.03230131
0.1071358
0.03631919
0.0559949
0.2999215
0.3189353
0.2763917
-0.01090286
0.170603
0.1285279
-0.04640253
0.02470782
0.1483362
-0.1182869
-0.1872322
0.07641394
-0.02170252
0.167439
0.06989814
0.1086082
0.1751399
0.1438724
-0.03234433
-0.0191875
-0.02306338
0.2224013
0.1696461
0.1482334
0.01095698
-0.1161923
-0.1052806
-0.0160477
-0.07304908
-0.06766925
0.05385707
-0.07477415
-0.03900458
-0.0203183
0.04717258
0.027524
0.02559008
0.1235901
0.1414927
-0.06493159
0.04595695
0.1554262
-0.1106921
-0.1908876
-0.0121195
-0.1388191
-0.235485
-0.1954643
0.0671129
0.02966321
0.01721567
0.03869792
0.08900303
0.02822264
0.09458034
0.1002384
0.009855621
-0.3287573
-0.05804508
0.1785552
-0.3011719
-0.0882064
0.1591491
0.03228436
-0.08815807
-0.04495388
0.1066312
-0.04363126
-0.234844
0.1510092
0.1132464
-0.002187226
0.04305679
0.05340857
0.09587219
0.02317274
-0.1296134
0.01324417
0.07189494
-0.1253394
-0.04604839
0.2488799
0.1099007
0.07848704
0.1815998
0.01981099
-0.02888178
0.02605192
-0.16141
-0.1617629
-0.1029639
-0.2552714
-0.1669949
0.0627184
0.1987677
0.09941594
-0.02735538
0.07010934
-0.05656195
-0.07808676
-0.09253868
-0.1484247
-0.1113432
0.2437797
0.2294188
-0.0764602
0.1960899
0.2505933
-0.3228554
-0.2518461
-0.1898906
-0.1260103
-0.001829561
0.1444256
-0.06383189
-0.01764182
0.2364743
-0.03464205
-0.005713244
0.2140175
0.2399465
0.075449
-0.09930417
0.1991259
0.02706915
-0.1361976
0.01530086
-0.07148058
-0.181993
-0.001674785
-0.0004491669
0.00140516
0.001806521
0.0008397736
0.00226155
-0.0003794509
-0.001275247
-0.001067874
-0.02674703
-0.06904308
-0.06525262
-0.2116741
-0.1696297
-0.1077812
-0.006644414
0.07210799
-0.1053005
0.1716671
0.2586144
-0.1719013
-0.1638331
-0.07862859
-0.09767006
0.1679809
0.2902458
0.09136636
0.035099
0.07262021
0.02705981
-0.07400026
-0.3263457
0.2138358
-0.02576857
0.1948065
0.1211467
-0.02961033
-0.3302889
-0.06386105
-0.06081092
0.03975357
-0.01776368
-0.05174534
0.3035048
-0.007180081
0.06624123
-0.3872432
-0.05579522
-0.126399
1.078628
-0.1415936
0.002392769
-0.382483
0.05890449
-0.02874147
0.1486295
0.05549453
-0.01745785
0.004705413
0.161357
-0.1041843
-0.03575841
-0.05050622
-0.1184575
0.5065576
0.1713797
-0.1113448
-0.1697564
-0.05456647
-0.1096369
-0.06859878
0.1763667
0.02690105
-0.07509624
-0.1069305
-0.01268959
-0.1433751
-0.1305374
-0.05444829
0.06087437
-0.1603567
0.02107141
0.137305
0.05054783
-0.09603887
0.1274065
-0.04563695
-0.07959753
0.1457933
0.07147166
-0.07646343
-0.2359952
-0.1234452
-0.08167999
-0.1958112
-0.1557964
0.03478961
-0.04069589
0.04151
0.0938915
-0.01771757
0.1121238
-0.04158677
0.1152975
-0.01808701
0.1344959
0.1206496
0.05727061
0.04603945
-0.08171967
0.07513587
-0.1499413
0.1496533
-0.01169853
-0.06838468
-0.1217753
0.05224385
-0.05060115
0.3724361
-0.1533715
-0.1151937
-0.5446258
0.03130813
0.06485432
0.2181218
-0.002073149
-0.06923713
0.043547
0.06342279
0.3968099
0.1380863
-0.08440597
-0.158572
0.2004069
0.01849929
-0.02778175
0.04493735
0.2267762
0.04370665
0.159198
0.1942285
0.1363304
0.1360806
0.1092557
0.0003663736
0.0006034707
0.004731304
0.0008720148
0.001691061
0.00139696
0.0003431506
0.001879402
0.0004554718
0.02982164
-0.0239147
-0.008447833
0.009233844
-0.07862645
-0.05181793
-0.009151234
-0.1027369
-0.05991571
-0.099094
0.05175979
0.165611
-0.1751229
-0.04092695
0.08387978
-0.1537454
-0.1405396
0.08473493
0.07058261
0.207386
0.05074034
-0.02903529
0.07308289
-0.003036125
-0.07798369
-0.08666035
-0.02405992
-0.1000899
-0.2310518
-0.06285796
-0.01952096
-0.1782179
-0.09120577
-0.05815166
-0.08785978
-0.1226393
0.0304041
-0.1020604
-0.05572468
0.08968018
-0.02419753
0.01202423
-0.006870636
0.08253371
-0.01830168
-0.09705751
-0.03393951
-0.042444
-0.2143687
-0.06211239
-0.01143866
-0.05138965
0.1305835
0.1542591
-0.05240482
0.004214322
0.01371283
-0.09052557
-0.01630935
0.0004772617
-0.01009009
0.03100232
0.0199926
-0.1613371
-0.2202839
-0.273874
-0.2081918
-0.272846
-0.2073096
-0.2169894
-0.1970779
-0.1215172
0.05968834
0.02879203
0.01652727
0.07738563
0.09784188
0.08778935
-0.09565946
-0.09462346
-0.1473888
0.02194199
0.01645921
0.06152247
0.09093294
0.008654052
0.02012153
0.02972769
-0.07030505
-0.0395856
-0.0709599
-0.04311044
0.03251773
0.01183987
0.00309589
0.07961569
0.1182397
0.1001743
0.1469178
0.07350357
0.113616
0.1600332
-0.03607456
0.05897152
0.07521812
-0.1037618
-0.005664136
-0.04789539
0.01704023
0.1138507
0.01830648
0.008984617
0.08125946
0.03554177
-0.09834228
-0.09380879
-0.0633262
-0.0938371
-0.05097228
0.1424999
-0.09016575
-0.191247
0.1097859
-0.06615676
-0.1582755
0.04862022
-0.0003538562
-0.01685979
-0.009842834
-0.0244349
-0.09158469
-0.04596796
-0.003180217
-0.06483349
-5.720238e-05
0.0009681925
0.0004266018
-0.00410616
-9.370485e-05
0.001596351
0.000156005
-0.0003937634
-0.002580365
-0.001757347
0.1841189
0.2930593
0.1844475
0.07505331
0.2190864
0.1784419
-0.1671663
-0.05606616
-0.02224794
-0.002843732
0.08405337
0.05210475
0.1726415
0.1360124
0.03137103
-0.002994147
-0.08617771
-0.1112493
-0.03772915
0.00177845
-0.07446941
0.1854824
0.2363427
0.04345854
0.116203
0.1553127
-0.007994358
0.03034247
0.09473702
-0.009003743
-0.01960995
0.02528159
-0.03861755
-0.06611197
-0.07860669
-0.1853168
0.005350146
0.134201
-0.09476802
-0.01959793
0.04695692
-0.08585028
-0.04003874
0.02017591
0.0236153
-0.08507056
0.09399916
0.1117676
0.1314174
0.2631306
0.1786737
0.02752882
0.05495889
-0.09289775
0.03247196
0.04758469
0.02017281
0.1814477
0.1400574
0.08481082
0.1264994
0.1846345
0.09984621
0.03953293
0.02365014
0.05653486
-0.09120701
-0.009061975
0.1068014
-0.1258756
0.0427168
0.1925169
-0.1828602
-0.2567058
-0.1898649
0.06511298
-0.09392381
-0.1810419
0.2613014
0.1530249
-0.0877625
0.09481137
0.2062756
0.06913887
0.09900868
0.1703871
0.07907063
0.08697269
0.1324224
0.1035682
0.03370439
0.1430121
0.1037205
0.1211516
0.1832989
0.09467193
0.004909021
-0.01148823
-0.1044723
-0.07944255
-0.02883758
-0.04001527
0.115381
0.1602327
0.01725617
0.2587502
0.1959613
-0.02803604
-0.180557
-0.06723997
0.06853535
0.035545
0.2449059
0.2260828
-0.05146187
0.1197806
0.1338464
0.05872297
0.005759531
0.1278812
-0.03186811
0.04055524
0.1547914
-0.02661772
0.04847376
0.03094808
-0.01181598
0.1579021
-0.07129677
0.3491478
0.4979875
0.1416637
0.4128874
0.4686043
0.08402053
5.235333e-05
-0.002975781
-0.002006694
0.003156232
-0.0009572836
0.001398216
-0.0007689851
-0.001065408
0.0009276608
