16 16 3
-0.00838213
-0.08514915
-0.0884173
-0.00769486
-0.02163399
-0.06691422
0.02346367
-0.03459209
-0.06265487
-0.03121528
0.03675842
0.06891997
0.08824287
0.05317641
0.08374954
-0.008654365
0.0528531
0.1798755
-0.0976763
0.01211696
-0.0676541
-0.01994913
-0.09015116
-0.1361434
-0.1750065
-0.1054477
-0.1118758
-0.06690867
-0.1587165
-0.190148
-0.2068518
-0.1967339
-0.2411456
-0.1627338
-0.1454409
-0.1632419
-0.01249383
-0.06307855
-0.05167826
-0.06376375
-0.0955958
-0.05160202
-0.1467292
-0.1294288
-0.04042724
-0.1549597
-0.1148764
-0.100264
0.01640976
-0.02791664
-0.1261742
0.09083678
0.05619652
0.03506379
-0.02113281
-0.001403237
-0.03242897
-0.005426476
0.03748439
-0.03048762
0.01306529
-0.0254299
-0.09253922
-0.04696467
-0.1832906
-0.03603308
-0.000634701
0.03317829
-0.1388281
0.03454666
-0.2934988
-0.02222993
0.0300285
-0.1163378
-0.06156148
-0.1837626
-0.04857499
-0.1358561
0.01749443
-0.02023913
0.06645301
-0.00564515
-0.01945717
0.04056944
0.08306123
0.01075511
0.05487991
0.02385796
-0.05476573
-0.05448908
0.0382137
0.05999124
0.07516588
0.1404274
0.1132894
0.09455571
0.1502988
0.06229877
0.0638366
-0.06481382
-0.06536109
0.0001851404
-0.04795001
-0.01509205
0.04202613
-0.08664542
-0.05195299
0.03803875
-0.00745456
-0.03459175
0.0001909263
-0.06879495
-0.06670126
-0.05239011
0.05610597
0.006813928
-0.01583103
0.1921721
-0.1885412
-0.03177005
-0.1651531
0.1244521
0.06872039
0.1942302
-0.1690863
-0.1499976
-0.01164129
-0.02332061
-0.00342199
0.006868113
0.07735939
0.08086938
0.02320585
0.002282593
0.01261919
-0.009488096
0.02700783
0.04637766
-0.04507007
-0.02824806
-0.05373895
-0.02520104
-0.0605216
-0.01948463
0.001519556
-0.0008280395
0.0005203496
-0.001585043
-0.0001286469
0.0003392469
-0.001712766
-0.001448931
-0.003126678
-0.00110548
0.002574139
-0.0006265087
0.001037143
-0.000290442
-0.001055866
0.0002467998
-0.0006058989
-0.00215379
0.0005311596
-0.002740782
-0.0005462282
0.00032804
-0.0005929104
0.003703992
-0.002155384
-0.0002921284
0.001826624
-0.005432746
-0.002035308
0.002067334
0.0006230542
-0.0009712121
-0.001626227
-0.002718136
-0.001236159
-0.000310546
0.0002006021
-0.0006991513
-0.001003955
0.002423059
0.002191532
-0.0001423594
-0.001225885
8.792344e-05
-0.0005836864
0.0006156809
0.0008376236
0.001092195
-0.002369629
-0.001746318
0.0003739004
0.0003659848
0.0002229506
0.000106886
-0.001260303
0.0009402323
0.003759181
-0.0004666469
-0.001986658
0.003350717
0.002082807
0.0008516393
0.0008512285
0.001909403
0.00178038
0.001465289
0.001231369
-0.001544205
0.001510133
5.403587e-05
-0.001282026
-0.0005333709
-0.000235093
0.002974358
-0.002316752
0.0005547293
0.0001754604
0.0003745338
-4.108181e-05
-0.0005602142
0.0009341123
0.0001243256
0.001693417
0.0003374513
0.0002808158
0.001291489
-0.003039283
0.001654071
0.001804748
-0.0003451306
-0.0004457051
-0.001301253
0.001664948
-0.0006351778
-0.003251424
0.001940591
0.001384923
-0.0001812094
0.002298317
0.001073871
-0.002867464
-0.004564791
-0.0003182051
0.0003731081
-0.0003251406
-0.0006638888
0.00119445
0.0006881226
0.002640401
0.002549164
-0.0009059935
-0.0009643614
0.001907168
-0.0009087107
0.00231039
0.0002696154
-0.0007210466
-0.003027915
0.000728
0.001051488
0.0002957679
0.001649154
-0.002361877
0.002306873
-0.001541737
-0.001592154
0.0005854384
0.0001236043
-0.001569018
0.0003049773
-0.001588948
0.002144697
0.0003170153
0.005829588
0.002175947
-0.0007343598
-0.0002645516
0.0005880995
0.001041272
-0.0003322718
0.0006175052
0.001447089
0.004428598
0.00344345
0.02561918
-0.05031694
0.08266247
-0.09163004
-0.192361
0.03440635
0.09073041
-0.03346223
0.1670249
0.02873152
0.05729397
-0.07515797
-0.0165398
-0.001079824
-0.04551867
-0.02188755
0.03213243
0.07001909
0.03853557
-0.03972878
0.1301876
-0.01584778
-0.1646247
0.1493186
-0.1832326
-0.1960088
0.04330028
-0.2971851
-0.08396725
-0.1079274
-0.140661
0.08190042
0.0009416286
-0.2090611
0.01984978
-0.08569247
-0.304642
-0.07497587
0.166002
-0.3146937
-0.08818544
0.2725365
-0.3028804
-0.103312
0.2317632
0.03259378
0.04676273
-0.03246354
0.04809325
0.06537739
-0.03193603
0.05590555
0.05572741
-0.0550125
-0.09505448
-0.07217104
0.1383878
-0.07534914
-0.04190275
0.2121361
-0.07991765
-0.0927973
0.2191245
0.2799677
-0.176038
-0.3895044
0.4350463
0.1293489
-0.7634105
0.1728396
0.120996
-0.5931101
-0.1723597
0.1718849
-0.07762639
-0.08506147
0.4821921
-0.1874398
-0.1041263
0.3830882
-0.04550481
0.1363232
-0.05955402
-0.1631315
0.1890911
-0.08961621
-0.1162036
0.1574345
-0.0823154
-0.09639793
-0.07814754
-0.0595528
0.00549271
-0.007195355
-0.02037799
0.03099181
-0.004754842
-0.03641945
0.0510972
-0.01669779
0.06098221
0.08682255
-0.08090822
0.0428841
0.1191253
-0.1116646
0.006234312
0.09742699
0.1441205
-0.03726124
-0.06559426
0.1500934
-0.03526103
-0.1064066
0.1172981
0.03015747
-0.1544763
0.04204119
-0.02586079
-0.006974541
0.02816871
0.03806132
-0.2328297
-0.08376226
-0.07070433
-0.1347057
0.1154919
0.03995437
0.1647184
-0.03222709
-0.09965577
0.1014227
0.1791064
-0.01519532
0.2673605
-0.1379084
-0.08906116
0.1028177
-0.1266588
-0.08918891
0.1868827
-0.1220093
-0.07140336
0.2048966
0.08271289
0.008793952
-0.02694477
-0.03225529
0.04198902
0.1292403
-0.1295845
-0.03536802
0.007458377
-0.01847902
-0.06419327
0.02706942
-0.08691832
-0.04612828
0.1237084
-0.04143516
-0.004453096
0.1478284
0.04506256
0.06114038
0.09279121
-0.01602477
0.003409252
-0.04055303
-0.1729495
-0.0424866
-0.04049286
-0.08222774
-0.03405344
-0.07741855
-0.03319981
-0.02421443
-0.09593425
0.1335662
0.1259533
0.08500983
0.02833014
0.06058962
-0.003217537
-0.01320986
-0.03279541
-0.06703572
-0.07104359
-0.03648133
-0.01475819
-0.2159281
-0.223792
-0.158957
0.02511081
0.08505202
0.1198696
0.09268788
0.1095475
0.1148615
0.09972695
0.1730886
0.3078795
0.3004563
0.219404
0.1639394
0.0327367
-0.1656584
-0.2579277
0.02446222
0.05509886
-0.06816217
-0.007897045
0.01967446
0.003724325
0.05952771
-0.06313216
-0.06595775
0.01525442
-0.01696224
-0.05331479
0.05794686
0.04551718
-0.00623696
0.1290939
-0.02751985
-0.008631328
-0.3087323
-0.3056683
-0.3006479
-0.05346662
0.108898
0.1071456
0.08068424
0.1930128
0.1276021
-0.06552745
0.03406851
0.01750564
0.1968945
0.1034429
-0.03540958
0.02686848
-0.0822015
-0.1044822
0.1396719
0.125841
0.06059583
-0.04226952
-0.0003986171
-0.02191829
-0.1246088
-0.0162626
0.02943186
-0.02146375
-0.08003081
-0.09568904
-0.1964625
-0.1690167
-0.1519585
0.02633578
0.1901071
0.1820269
0.003664201
0.01535283
0.08007397
0.02247246
0.02329624
0.1276081
-0.05338386
0.04813725
0.1206763
0.02092754
0.01020263
0.001759709
0.06903924
0.09060771
0.0774539
-0.05676256
-0.07606784
-0.1264418
0.06922331
0.0229365
-0.03451435
-0.02545629
-0.1272313
-0.1586749
-0.1035441
-0.1369603
-0.08532851
0.02487203
0.0320054
0.009991927
0.05751003
-0.02251273
0.02593424
0.02820995
-0.05828177
-0.03458779
-0.02006686
-0.07408326
0.005508385
-0.02981327
-0.09876582
-0.007057258
0.03872484
-0.04938921
0.06684384
0.087309
-0.09161267
0.06005539
0.03404747
-0.1347008
0.1239147
0.02953867
-0.08733258
0.1111804
-0.1235937
-0.0005769943
-0.05936405
-0.09814788
0.1217391
-0.02709102
-0.09166855
0.1420311
-0.08145708
-0.05989614
-0.05257324
-0.02739482
-0.02981281
-0.04636068
-0.008537027
-0.03167561
-0.04626172
0.05316083
0.02720908
-0.01114322
-0.008432162
0.01556607
0.003456939
0.007073372
0.03381045
0.002727773
0.01359585
0.0003545747
0.03463431
-0.04008333
-0.02987451
0.06257065
-0.05582992
-0.007846528
0.02680737
-0.04761481
-0.04360551
0.07637864
-0.08213563
-0.3282583
0.3944597
-0.3310888
-0.3101877
0.3050193
-0.280733
-0.001626761
0.009887172
-0.01896599
-0.133973
0.1814053
-0.2037307
-0.182812
0.2470072
-0.1449131
-0.04348765
-0.004782855
-0.02607913
-0.05367635
-0.05414276
0.02038042
-0.01006789
0.01896839
0.1080464
-0.02262973
-0.06052531
-0.08015165
-0.0416517
-0.07085507
-0.0864091
-0.09928232
-0.1103442
-0.1137724
-0.004774021
0.01482868
0.004020037
0.01291724
0.0482131
0.0524584
-0.003866304
0.01244371
0.01779543
-0.0599907
-0.00923379
-0.05216165
-0.03197806
0.02634765
-0.008522158
-0.002953393
0.01423113
-0.02050001
0.02432971
0.02478377
0.05132145
-0.1386795
0.2394895
-0.2135211
-0.16443
0.2120557
-0.2215901
0.08743939
0.06287829
0.03117658
0.08663031
0.01022601
0.01601658
0.1084573
-0.0195543
0.04001172
-0.03132607
-0.04051044
0.009186652
0.003808047
-0.03887806
0.02285682
-0.02558049
-0.05551283
0.02642001
0.04644282
0.06592521
0.01709233
0.001893716
-0.04217403
-0.1523116
0.02156068
-0.06705579
-0.1491689
0.2373983
0.1083327
0.000671202
0.04256099
-0.06888214
-0.1139526
-0.01559024
-0.05933284
-0.04706079
-0.08310657
-0.06117907
0.03640795
0.07452634
0.04604649
0.1107527
0.1447424
0.1343136
0.1036792
0.02523768
0.03586878
0.09091642
-0.02161825
0.07004248
0.1019035
-0.0423799
0.09607232
0.09504181
-0.2307767
-0.06959298
0.1389658
-0.1031022
0.03543494
0.1436631
0.1207527
0.1557817
0.1144855
-0.1598401
-0.1543978
-0.1289655
-0.1114106
-0.08247611
-0.02692199
-0.07712132
-0.02592908
-0.009311581
-0.1625832
-0.2566926
-0.02075111
-0.1684873
-0.101471
0.1731566
0.02212361
0.1854075
0.3246511
-0.165767
0.004847216
0.05872224
-0.04971916
-0.0218055
-0.01044472
0.01719259
-0.002142196
0.001869112
-0.05167443
-0.07508958
-0.05965491
-0.03125155
0.02520124
-0.06738911
-0.00952952
0.0213982
-0.003003818
0.2903143
0.1306089
-0.08815858
0.006211745
-0.2236608
-0.3297935
-0.03299621
-0.07620843
-0.05439473
-0.04383726
-0.02507587
0.04263956
-0.05215785
-0.007828672
0.06584677
0.05050078
0.01946503
0.04180288
0.2777086
0.1925353
0.02878605
0.2916082
0.06096191
-0.1125576
0.1671755
-0.1097713
-0.2307643
0.06381466
0.009501929
-0.03411964
0.1029667
0.05438857
-0.04404351
0.1078804
0.008759525
-0.1337933
-0.1319868
-0.01867583
-0.01194472
0.001508667
0.004712711
-0.07278171
-0.04358161
0.04706034
-0.03929254
0.08439772
0.03096282
0.02753955
0.003255966
-0.05463302
-0.07108732
0.007734464
-0.1209627
-0.08671372
0.02650863
0.004244015
-0.02282481
-0.003099885
-0.01771754
-0.07693084
-0.01602642
-0.07154346
-0.1440978
0.03986082
-0.06397074
-0.04408399
0.1133199
-0.02067571
-0.135217
0.04395138
0.08932462
0.003098633
0.02525303
-0.1243056
-0.1973319
0.1578134
0.07812528
-0.1311546
-0.0902863
0.05493816
-0.06427614
0.05853939
0.06154962
0.07682113
-0.07003061
-0.02725793
0.1822622
-0.1004255
-0.2099831
0.008352662
0.01938075
-0.02897013
-0.07373077
0.09182109
0.0133726
-0.003764006
0.1377835
0.04643799
0.0151352
-0.04113893
-0.03997103
-0.1610736
0.03930725
0.1333815
-0.01736984
-0.02679632
0.09555362
0.04011961
0.07915633
0.0751407
0.08893756
-0.009803509
-0.01338791
0.04287887
-0.07096273
-0.08993101
-0.03529509
-0.1901857
0.487302
0.5915477
-0.5289473
-0.01774669
0.4856728
-0.4593445
-0.4273056
0.09302346
-0.1175399
-0.00483596
0.05138776
-0.09231273
-0.04273804
-0.01316449
-0.02162692
-0.08747629
-0.06999571
-0.06673031
0.09434337
-0.0006340619
-0.09834384
-0.06174375
0.002285484
0.1020812
-0.07877276
-0.03374298
0.1656276
-0.1847312
-0.3061789
0.2219432
0.1844607
-0.1394421
-0.09645389
0.1334105
0.02151037
0.04212142
-0.07250309
0.02004292
0.05682711
-0.0416761
-0.009464088
0.1551301
0.03228457
0.05596039
0.02043989
0.03656134
0.102817
0.005153636
0.0629634
0.1450163
2.404931e-05
0.02267646
0.05298125
-0.1282801
-0.0704358
0.02520053
0.09545211
-0.1039657
-0.06928587
0.333589
0.01201746
-0.1698214
0.04597158
0.00327736
0.03954579
0.02798606
-0.02908719
-0.01296755
0.04744616
0.00415725
0.1360255
0.04409935
-0.0007074291
0.03702006
0.04264985
-0.0200487
-0.02068053
0.06886715
0.01979267
0.003731332
-0.1704077
0.05079567
0.1137447
-0.1401201
0.0329833
0.141477
-0.1438789
-0.08887386
-0.01922792
-0.04091731
-0.09407002
-0.02401023
-0.03897329
0.008175348
0.1244556
-0.1029274
0.04105686
0.05540955
-0.02338533
0.0105064
0.01687545
-0.03219798
0.1028808
0.09218946
0.07494414
0.1312049
0.06144162
0.1250934
0.06320036
-0.03962334
-0.04871971
-0.08755112
-0.1267897
-0.1166218
-0.1134079
-0.1333231
-0.07818004
0.006419471
0.02621501
0.01206707
0.05492331
0.05036501
0.02392254
0.04412445
0.1201241
0.03931022
-0.109696
-0.1005456
-0.06915665
-0.1957929
-0.03264536
-0.09097905
-0.07619208
0.1833319
-0.02840255
-0.01257465
-0.0553422
-0.1196873
-0.08216187
-0.07517039
-0.07853551
-0.02873001
-0.01967332
0.3542225
0.4255932
0.1345369
0.2982098
0.0225618
-0.2675272
-0.1102259
-0.4005337
-0.3847394
-0.1000769
-0.01400103
-0.04879927
0.024855
0.06536691
0.03672656
0.01086404
0.04322837
0.02773095
0.02869081
-0.01704372
0.06042111
-0.06823733
-0.0568803
-0.07138848
-0.05590983
0.01919657
0.02712473
-0.40806
-0.05820126
0.1243404
-0.02164613
0.4217128
0.3021704
0.1035753
0.1563384
-0.2387639
-0.04093397
0.02967778
0.02250698
0.05512901
0.05262126
0.00294576
-0.01392529
-0.1177552
-0.0893489
0.1483068
0.09105673
0.08332898
-0.01179521
-0.04896662
-0.05896193
-0.08871062
-0.08076186
-0.08274948
-0.1601147
-0.2291539
-0.1424663
-0.1976964
-0.121707
-0.05668776
0.03301653
0.2088014
0.1583709
-0.04221069
0.01246414
0.04200577
-0.08542405
-0.03952388
0.01422714
-0.07208741
-0.01105274
0.05768681
-0.0558691
-0.04820486
-0.04406704
-0.05006645
0.01151223
0.06006637
0.03590406
0.08247325
0.02010174
0.02067952
-0.005736491
-0.1196092
-0.02606654
-0.08848158
-0.1137831
-0.1234152
-0.04693788
0.04510027
0.001722259
0.0003399978
-0.0009839729
-0.0001127644
0.000618147
0.0001758927
0.0008553105
0.00144499
-0.002317093
-0.00183534
0.0003513355
-0.001615161
-5.123972e-05
0.0001173754
-0.0005192094
-0.002576181
7.129632e-05
-0.002232709
0.001013349
0.0003066568
0.0009811873
-0.0009660525
0.001900486
-0.0006771701
0.0009831673
9.439351e-05
0.0003828311
-0.004930597
0.001084179
-0.003549443
-0.001907025
-0.001040739
-0.001645188
8.474053e-06
0.001272425
-0.0006080542
0.0002719078
-0.0009251296
0.002566532
-0.002058204
-0.003076078
-0.001311459
0.0002982236
0.001620764
0.001917758
-0.001273519
0.0003018262
-0.002624253
0.0003716764
0.000449934
-0.0008709723
-0.0008916986
3.151923e-05
-0.0007146911
-0.002222391
-0.0001921399
-0.001636042
0.001475531
0.0002605637
-0.0002995535
-0.0001361158
0.001391096
7.985922e-05
-9.360316e-05
-0.001427004
0.0004331878
-0.0004803805
-0.0002182263
0.001842363
-0.004030658
0.001200633
-0.0001498663
-0.0001583543
0.00136889
-0.0008987053
-0.001784795
-0.002987328
-0.0009416766
-0.0002020115
0.001516898
0.001435287
-0.0009220375
0.0003149187
0.001076331
0.002653875
0.001999874
-0.000279649
0.004208304
-0.003014126
-0.002282919
-0.003639884
0.0006486593
-0.001101502
0.000305063
-0.002367943
0.0006865119
0.003638919
0.002003939
0.000269278
0.0007486889
0.002019483
0.002307395
0.001958132
0.001097171
0.003582338
0.003631613
0.0004352313
-0.002654793
-0.0005344845
-0.001592286
-0.0007327609
-0.0005070653
0.001699482
0.003551021
-0.001021405
0.001743941
-0.0001904074
0.001019229
0.002941244
-9.701178e-05
-0.001321526
0.001977942
-0.000752996
-0.002309412
0.004519467
-0.0005939176
-0.001288249
-0.001234227
-0.001917626
-0.001567484
0.00263791
-0.002356899
-0.0009555334
-0.003425576
0.00145408
-0.003878393
0.0006680221
0.002942014
-0.0004961287
-0.001701852
0.004378904
0.001070147
-0.003037813
0.000149681
0.0002847239
0.03847633
0.06774405
0.1184781
0.07382649
0.05773474
-0.005033072
0.01854896
0.02617871
0.1236249
-0.002128043
-0.09142403
0.05055553
0.008646358
0.07373688
0.03271184
0.03583314
0.06189106
-0.0666352
-0.01132905
-0.0129459
-0.1290604
-0.02108344
0.08611775
0.0287193
-0.04768746
-0.1594618
-0.05587394
0.003772879
0.02103188
-0.009627693
0.005994089
-0.03566273
-0.0338093
-0.07094532
-0.06015781
-0.1200604
-0.0406564
0.01690984
0.0462506
0.1037073
0.144158
0.04697789
-0.03429006
-0.1146344
-0.02637274
-0.03144794
-0.06961801
-0.1608734
-0.1230877
-0.04177698
-0.1070321
-0.04756594
0.03369114
-0.04277756
-0.07781298
-0.005463867
0.02637086
0.02334242
0.0747309
0.09263512
0.073557
0.06599795
0.07499543
0.1629746
-0.02381269
-0.2990921
-0.1585162
-0.1303093
0.07188543
-0.03404431
0.09064244
-0.02026893
-0.04300509
0.03657142
0.1656892
0.1763473
-0.02355809
-0.01355086
-0.03989203
-0.01916555
0.06780979
0.0148396
-0.05124868
-0.06966937
-0.03509315
0.05579083
-0.08552645
-0.0703865
-0.02290693
-0.1415693
-0.0545865
-0.01059974
0.03460478
0.03309814
0.01507676
-0.02261448
-0.0570214
-0.06925353
0.004052865
-0.05506563
-0.09407612
0.06384165
0.01034107
-0.04581714
0.02340073
0.04672932
-0.008111416
0.01600795
0.09154549
0.04241695
0.09147436
0.02923393
-0.04244444
0.02097764
0.02674886
-0.013435
-0.2341427
0.08001103
0.2901461
0.2658776
0.05203363
-0.3410775
-0.1883149
-0.1040876
0.1808263
-0.05981783
-0.08532842
-0.07648505
0.1436071
0.1008022
0.05123825
0.09689981
0.1360775
0.09924915
0.01145149
-0.01247511
-0.03976106
-0.06284606
0.01596725
0.01659559
-0.05113914
0.0307855
0.01505369
0.007590577
0.002873648
-0.005479202
0.1020628
0.04608796
0.03599032
0.07765715
0.07441582
0.03666833
-0.04565332
-0.04526944
-0.01150675
-0.05439287
-0.06707254
-0.1810481
0.1340801
0.1587763
-0.04567888
0.03329286
-0.01870234
-0.1218072
-0.06682292
-0.03744221
-0.05782607
-0.05032862
0.02909347
0.01796955
0.1696239
0.1836545
0.05925043
-0.04932242
-0.0370979
-0.08619095
-0.1587539
-0.205579
-0.2095349
0.1127549
0.1281746
0.003692722
0.01629174
-0.06923557
-0.08477903
-0.002719713
-0.04888958
-0.04378358
0.04442004
0.10447
0.1108209
-0.07436728
0.03565258
0.1032878
-0.1444
-0.1510362
-0.131733
0.005054662
0.01802872
0.02612443
0.01153608
0.06896172
0.1174772
0.03576632
-0.02277727
-0.04144005
0.1787607
0.1064241
0.07537911
0.0101723
0.05726667
0.009704661
-0.03191772
-0.07563685
-0.2143482
-0.06091384
0.08461989
0.02871135
-0.09613864
0.07164615
0.03058316
-0.1838063
-0.2023508
-0.1699361
-0.06359822
-0.1660906
-0.1885113
-0.04271278
-0.1110667
-0.1787112
-0.03477997
0.06948229
0.05153216
0.07492416
0.080446
0.04251742
-0.04395352
-0.04049599
0.07495098
-0.04033035
-0.03364165
0.09514902
0.06989799
0.006536902
-0.003409304
0.02790339
-0.05735537
-0.07043075
0.04193658
0.02174728
-0.05377394
-0.02608432
-0.08419649
-0.00316043
-0.04348358
-0.1591429
-0.1258278
0.008433058
-0.03682892
-0.07274702
-0.1795119
-0.0120308
-0.1728359
-0.003857864
0.1845366
0.1952734
-0.2638094
0.0461455
0.08604962
-0.1282566
0.001365053
0.03785647
-0.1479605
-0.1390627
-0.04832914
0.02184734
-0.04362247
0.0008450896
-0.194866
-0.1144622
0.005500167
-0.1033573
-0.0926619
-0.09186172
-0.01941692
-0.09626189
-0.1711236
0.09816273
-0.00748077
0.09551104
0.1551625
0.03780059
0.007325702
0.01735931
-0.009025406
0.04047873
0.1595935
0.03883881
0.1110034
0.03980088
-0.0617871
0.1531231
0.1310721
0.1545523
0.2931975
-0.3867606
-0.09813809
0.1282286
-0.3496925
0.1566784
0.1561338
0.09488187
0.1790986
-0.1626155
-0.1118717
-0.004829231
-0.04998613
0.04452671
0.1037566
-0.03600923
-0.005692623
-0.01718882
-0.06607635
-0.1934086
-0.2109986
0.01045356
-0.1584709
0.09486171
0.2486448
0.0814506
0.195197
0.102418
0.04506694
-0.05226292
-0.07175212
0.02092221
-0.06496267
-0.002736606
-0.1015616
-0.06218292
0.00151991
-0.08256667
0.04008236
0.05721223
0.05841807
0.05368566
0.09983023
0.02759722
0.07684424
0.09578025
0.408544
0.08921414
-0.3905057
0.2714239
-0.4733532
-0.2074159
-0.4218788
-0.09511618
0.3613961
-0.1621559
0.420646
-0.1141302
0.4502375
0.0693395
-0.3751836
0.06384147
-0.3253632
-0.1009357
0.01265526
-0.09911469
-0.00759701
-0.1559683
-0.03430178
0.13019
-0.04049641
0.08473714
0.01609199
-0.111417
-0.07018145
-0.06830113
0.04989692
0.1160364
0.01510296
-0.08816268
-0.02628818
-0.05250852
0.008784851
0.009860564
0.03601494
0.1187797
0.04122072
0.03231692
0.1442908
0.06065929
0.0326637
0.09152263
0.1434399
0.1183462
0.1025995
-0.02860442
-0.1125303
0.1134489
-0.05630133
-0.01924254
-0.07093737
0.3612496
-0.04536059
0.5009089
-0.03979546
-0.3306858
-0.1635828
-0.4625945
0.06117103
0.1722959
-0.01660353
-0.07610237
0.09305552
-0.1203504
-0.02549514
-0.007003027
-0.097867
0.1095641
-0.07628725
0.02551013
-0.00843607
-0.08226229
-0.07816328
0.0005315414
-0.1309412
-0.1064344
0.001949046
0.001918691
0.002045104
0.01471482
-0.01394239
-0.005333345
0.09734467
0.02193673
0.05601357
0.1324212
0.05468371
0.06820062
0.1362307
0.08704644
0.001228771
-0.08103202
0.1337119
0.02329008
0.01315302
0.04086408
-0.2568223
-0.02426012
-0.2931191
-0.3238782
0.04811304
-0.2867229
-0.1686021
0.3189037
-0.1058465
-0.09144677
-0.09448911
0.02166981
0.02515545
-0.01671963
0.02671628
0.02149249
-0.1096544
0.06043401
-0.232827
-0.2049365
-0.1075779
-0.2373849
0.00912373
-0.08447345
0.003585949
0.2987318
-0.1121942
0.03377046
0.05534947
0.06046525
0.1187107
0.05081788
0.03727291
0.0001099949
-0.01501721
0.161004
0.05721588
-0.1422481
0.2193119
0.02306774
-0.03648267
0.05669444
-0.08594423
0.03592441
-0.1149758
0.4069502
0.1430242
0.06437261
0.4460979
-0.2337698
0.1869721
-0.09243249
-0.4333015
-0.2240674
-0.2136307
0.1864699
-0.3792339
0.05991237
0.1886452
-0.0952016
0.4087496
0.07235898
0.05001146
0.0986374
-0.005807621
0.1230992
0.0887856
-0.0663267
-0.01286037
-0.0753013
-0.09597656
-0.07062343
-0.1042801
-0.11452
0.01755415
0.1014162
0.1260623
-0.01244581
0.1212937
0.03969445
-0.0958593
-0.1017827
-0.01328239
-0.1532819
-0.01602637
0.1474924
-0.1707661
0.03212603
0.1558969
-0.1085566
-0.07107431
0.08743726
-0.01773748
0.09105573
0.2103018
0.0647893
0.09187762
0.06421295
-0.2228764
-0.1516887
0.1143654
-0.08389627
0.2325788
0.2086563
0.06953413
0.06744046
-0.2438334
0.1184008
0.02608544
-0.01223025
0.1626554
0.05959135
-0.05847821
0.08741625
-0.03543153
-0.1217587
0.09172933
-0.07166888
-0.07801306
0.02930888
-0.1072282
-0.05849872
-0.01348461
-0.01206941
0.1091934
0.06199116
0.02713031
0.02507289
0.1313998
0.1111457
0.07973073
-0.03562927
-0.003482881
-0.03496926
-0.01808959
-0.03146951
-0.01765179
0.003495541
0.02258098
0.0555535
-0.06077849
-0.07920397
-0.07532834
-0.01139248
-0.02960992
-0.01947839
0.2024724
0.1657028
0.1500875
0.1076436
-0.01406049
-0.04949383
-0.09883163
-0.06007374
-0.0759588
-0.04320767
-0.01795797
-0.02000874
-0.006868534
0.01836291
0.0375106
-0.0857479
-0.08437636
-0.190261
-0.0127999
0.003021054
-0.07863438
-0.006621412
-0.007658132
-0.05259104
0.2188295
0.2118547
0.2287495
0.05865905
0.05563258
0.07037389
-0.09755012
-0.0450061
-0.02414404
0.02621261
0.04381105
0.00210805
-0.0117522
0.00349146
-0.03104038
-0.1112109
-0.07375184
-0.0830391
-0.1679242
-0.07934564
-0.0351282
-0.06316537
-0.02483794
0.009325024
-0.03841808
0.06270473
-0.07167342
0.01403331
-0.02892994
-0.05634768
0.01969339
3.475885e-05
0.02021259
0.02391213
0.02219833
0.003350659
-0.1144955
-0.05493136
-0.03009093
0.03571335
0.06714678
0.03002691
0.09437512
0.06578824
0.02646609
-0.0447946
-0.00866549
-0.01288802
0.05739849
0.07820687
0.04351564
0.01189382
0.04500761
0.02992264
-0.04681699
-0.06906155
-0.06815107
0.03235788
0.02563333
0.0122801
0.07581171
0.07305651
0.05313187
0.03467974
0.08461523
0.1187586
0.07177909
0.09005541
0.1547934
-0.05052631
-0.05559533
0.02932645
-0.01261945
0.04520115
0.008043615
0.05410358
-0.0346017
-0.1164598
0.04050373
0.07533188
0.09462406
0.01150822
0.01870067
0.001140786
0.09322309
0.07041129
0.03667279
-0.0007130861
0.004668429
-0.06127255
-0.03353995
-0.03685101
-0.06568786
-0.08111838
-0.05985123
-0.05768165
-0.05219221
-0.02979551
-0.04336643
-0.09483542
-0.07260307
-0.04909377
0.01604915
-0.01985753
-0.04299917
0.04056943
0.06581686
0.01823441
-0.1157211
-0.03722287
0.0257673
-0.07122602
-0.03033859
0.02549503
0.02792138
-0.04108598
-0.08369169
-0.007284217
-0.04971001
-0.03871441
0.02511385
0.05323038
0.01194952
0.104476
0.1581533
0.07153423
0.01184897
0.1057921
0.1210708
-0.1359539
-0.0787991
0.01262175
-0.04196101
-0.01629283
0.08179323
-0.08673107
-0.07040316
-0.09491286
0.04370974
-0.0007703637
-0.08943795
0.1196997
0.1345911
0.06500026
-0.02896762
-0.03707474
-0.05025969
-0.06515175
-0.07048605
-0.100392
-0.03343181
-0.03102217
-0.07712338
-0.1301418
-0.309313
-0.3354033
0.1954639
0.06166961
-0.1456689
0.2123732
0.2926522
0.1919477
0.09789653
0.005403964
0.006776491
0.02696466
0.03120181
-0.02612333
0.05304357
0.09956573
0.1675502
-0.01956842
-0.07825157
-0.07116055
0.04118949
0.03443694
-0.01204222
0.01832914
0.01383964
0.0008307943
-0.1786674
-0.1092374
0.04339911
-0.2636129
-0.332529
-0.3116085
0.00657966
-0.08070326
-0.2122028
-0.07826226
0.02348227
0.1307004
-0.1256825
-0.06880387
0.02093436
-0.07434729
-0.01920749
0.009407533
0.2203239
0.2239573
0.2329415
-0.05724846
3.042394e-05
0.1340676
-0.1654869
-0.1359064
-0.01486943
0.1004777
0.1615059
0.01300782
-0.02592297
0.05296632
0.1038367
-0.1207993
-0.1560261
-0.05235866
-0.04780304
0.02043912
-0.127777
0.002775695
0.110828
-0.008036639
0.05833672
0.08882699
0.03649164
-0.0181171
-0.02185709
-0.0565748
0.04377228
-0.006911071
-0.043088
0.1641411
0.1026482
-0.01508923
-0.09113328
0.03670351
0.05353414
-0.109657
-0.01401501
0.00928487
-0.1816236
-0.08639818
-0.01887782
0.03200706
0.07701658
0.03660988
-0.05955936
-0.02802423
0.01966045
-0.05255398
-0.02553921
-0.004953531
-0.03701309
-0.008416595
0.01247723
-0.04017809
-0.01856595
-0.01489269
-0.1080457
-0.03682676
-0.03534944
-0.1580714
-0.2146917
-0.1962402
-0.01903182
-0.04589871
-0.02173345
0.04575497
0.0106617
0.08068577
-0.09376945
-0.09888566
-0.1054987
0.05680155
0.07234714
0.0188163
0.07875776
0.0908914
0.02340668
-0.008005103
-0.08094614
-0.1241239
0.07368789
0.01126511
-0.03021174
0.07031273
0.1135712
0.04910912
0.02090775
0.01886344
0.03220617
-0.05397307
-0.06872792
-0.05505871
-0.02712957
-0.00996233
-0.0001265637
0.07811724
0.07432554
0.05351138
-0.009862895
-0.008708677
-0.02458094
-0.07294746
-0.06319033
-0.04134329
-0.1829516
-0.183487
-0.1709705
0.008823883
-0.0669805
-0.01623891
0.0668435
0.09230954
0.2170086
-0.001410758
-0.1317803
-0.0688786
0.02375542
-0.06893146
-0.08204099
0.05556922
0.07801108
0.0612024
-0.05442602
-0.001232478
-0.0002165623
-0.01871783
0.003165152
0.006504639
0.0636214
0.04907422
0.04113162
-0.01979234
0.01651803
0.05739416
-0.02706495
-0.009185396
-0.02043828
-0.01153604
-0.03988687
-0.09361217
0.0339491
0.02101575
-0.01997035
0.01290331
-0.004049207
0.0007619624
-0.02525081
-0.03051751
0.005536843
-0.04398523
-0.03156955
-0.05830029
0.1172393
0.1166499
0.1202687
-0.01036387
-0.01966588
-0.01858341
0.1133367
0.193365
0.2627897
-0.008244365
-0.01584587
-0.01271213
-0.168928
-0.2583199
-0.2504509
0.1560988
0.1950181
0.1324455
0.1092016
0.1309524
0.04071123
0.02920319
0.04419925
-0.04570565
-0.09289314
-0.07934872
-0.13971
-0.109859
-0.09485713
-0.1217936
0.0002042357
0.07739824
0.04785459
