16 16 3
0.002097047
0.001494114
-0.0005793526
-0.002545572
0.00045496
-0.001668351
-0.0008329291
-0.001518016
-0.001291522
-2.716441e-05
-0.00041944
-0.0009501522
0.0007142882
0.002897131
0.002395454
-0.000579775
-0.0006105005
-0.004070873
-0.0006513428
0.001667936
-0.0002679671
0.0007359427
-0.0001563017
-0.00302476
-0.002567213
-0.0007897452
-0.003285917
-0.002302619
0.002573279
0.002114702
0.0005433339
-0.002567084
-0.001405182
-0.0004956018
-0.00304493
0.0002713495
-0.0008335278
-0.001658718
-0.002763826
-0.001625688
0.0003978117
0.0007632021
-0.003447526
0.0005648067
-0.001045946
-0.002806582
-0.001786264
-0.001221741
-0.001615221
0.0001133809
-0.001596852
-0.001071704
-0.00267522
0.003164789
-0.001136457
0.002373854
-0.0004946937
-0.0007966889
-0.0003480134
0.003454054
0.0009307609
0.001964204
-0.002206134
0.001049606
-0.00015088
-0.002080033
0.0004545993
0.003732797
0.0002011721
0.002429817
0.0002441818
-0.003302914
-0.00391927
0.0002276946
0.001547186
-0.001189602
0.002895093
0.0001890212
2.303814e-05
-0.0006127424
-0.002362129
0.0002430419
-0.001975381
-0.0004602215
-0.001803346
0.001166307
-0.003810111
0.002273266
-0.0002717718
0.001536724
0.003159011
-0.002109397
0.001458982
0.001997129
-0.001555594
-0.002143612
0.0006091707
0.001658927
-0.0002855021
0.000615074
-0.002322063
-0.003411771
-0.0007893109
0.0001385781
0.000590949
0.001075075
0.0001684499
0.002082947
-0.0001856965
-0.0003978545
-0.004081005
-0.002612868
0.001398016
-0.0008504429
-0.005159788
0.00298472
-0.0001794202
5.18978e-05
-0.0003581429
-0.002639296
0.002570654
0.0001065078
0.003044592
0.0006902709
4.342184e-07
-0.001181946
-0.0002064275
-0.0007233705
0.002351888
-0.003640378
0.001836646
0.0001342001
0.003580974
-0.0005243224
0.00201847
-0.00252698
0.002394193
-0.003950016
0.0002978557
-0.0006535864
0.003122761
-0.005723105
0.001406165
-0.001450343
-0.01920236
0.05995366
0.08055967
-0.007954781
0.0670256
0.08057716
-0.002383714
0.05669802
0.08329155
0.04477498
0.05099035
-0.09562747
0.09192569
0.1094395
-0.01384206
-0.0542466
0.001414328
0.01646527
-0.08015902
0.0251199
-0.0132186
-0.06777943
-0.03463787
-0.03312736
-0.05306575
-0.04405798
0.00196137
-0.005544564
-0.009503521
-0.01465657
0.0002593732
-0.0008233885
-0.01506349
0.003394591
-0.00349613
-0.02322489
-0.006038124
-0.00364008
0.1044296
-0.004993708
0.06070655
0.1526656
-0.04333839
0.030128
0.1032744
-0.03818102
0.1478472
-0.02316067
-0.02994298
0.06144879
0.01545259
-0.03023385
0.1110193
0.05753418
0.09854893
0.02508426
0.1642985
0.08887975
0.01494876
0.09421135
-0.03393852
-0.0930765
-0.02577018
0.12063
0.1373555
-0.01917897
0.1646883
0.1842244
-0.1016196
-0.07290838
0.1600099
-0.0835169
0.0325035
0.2375813
0.06842577
0.06094109
0.2495093
0.03183023
-0.005141126
0.2276758
-0.1182123
0.03817641
-0.1577296
-0.1320982
0.02960722
-0.09251384
-0.06161986
0.04033962
-0.06203596
0.05301177
-0.04920498
0.02174399
0.2259124
-0.02783523
0.04712442
0.1888772
0.0234213
0.09902509
0.1103648
-0.02443793
-0.08462992
-0.02984765
-0.0605203
-0.1010916
-0.02000643
-0.02007829
-0.02436854
0.006765736
-0.05786797
0.0009899318
-0.1693917
0.03433333
0.01948471
-0.126915
0.1038207
0.1545442
-0.01830474
-0.008586222
-0.02401992
0.03026573
-0.1042809
0.1390037
-0.0227057
0.06565562
0.07593323
0.08402749
-0.1032883
-0.1427962
-0.0510162
-0.07305032
-0.1171296
-0.03827535
-0.04503967
-0.09345618
-0.02914385
-0.1367115
-0.09051356
-0.09380447
-0.0721774
-0.0575011
-0.04173227
-0.001518538
0.006004441
0.01210222
-0.008592092
-0.09911209
0.01833631
0.004523417
-0.04081681
0.01540245
-0.01031703
-0.02088579
-0.05206076
-0.1535903
-0.06286044
-0.1554065
0.03890159
0.08657926
-0.08099017
0.2376894
0.1026967
-0.02851645
-0.1150044
0.0832786
-0.03418654
-0.08378912
0.01021226
-0.1094173
0.06866176
-0.05047553
-0.0580901
0.009320075
0.003135866
0.02719099
-0.009304945
0.04458312
0.07149883
-0.03486511
0.02926705
0.05368254
0.051783
-0.1116757
-0.0570129
0.07246426
0.228435
-0.06864955
0.09251831
-0.105332
-0.2411127
0.0505299
0.05721293
-0.1337711
-0.09364124
-0.1055154
-0.1730229
-0.1406486
-0.01371916
-0.09595817
0.0662204
-0.06151843
0.003914331
0.0193282
0.04603495
0.02060899
-0.123484
0.1010915
-0.08544961
0.1328479
-0.050486
-0.2801679
-0.1126505
-0.4627588
0.3768813
0.0523506
-0.1459071
-0.05804064
-0.05570367
-0.09414016
0.1432996
0.4621952
-0.4435313
0.1918941
0.004146094
-0.1877076
0.2539752
-0.1648858
-0.1251034
-0.1054929
-0.1669144
0.058895
-0.00249321
-0.009281317
0.04384302
-0.07779383
0.175898
-0.04756848
-0.1263631
0.2562266
-0.03120032
-0.1848512
0.04412292
-0.1596186
-0.07419615
-0.03094236
-0.02679403
-0.0376301
-0.04778852
-0.01108105
0.002752969
-0.01214078
-0.02574541
0.01073767
0.07319882
0.1259286
-0.0483958
0.01385671
0.05506272
-0.03856255
0.01187783
-0.07691272
-0.02065854
-0.238075
0.3137881
-0.02174443
0.3670774
-0.3672605
-0.02344162
-0.1724418
-0.04082614
0.1166722
0.00716137
-0.1454883
-0.1116566
0.01384186
0.02894822
-0.05120927
-0.104116
0.02098875
-0.0616835
-0.02325942
0.06722206
0.03974909
-0.0278677
0.04670623
0.02106219
-0.1005099
-0.09314864
-0.1197932
0.001254118
-0.02437395
-0.06416584
0.0949842
0.04164588
-0.06022807
-0.005762808
0.03187994
0.02465566
0.2487729
-0.150278
-0.4020551
0.3023499
-0.1800336
-0.432084
0.1605839
-0.09783889
-0.1969568
0.06059015
0.0582055
0.1244538
0.0231392
-0.04036267
0.1071218
0.08036418
-0.01323278
0.1672277
0.01360611
0.0209216
0.002916765
0.03556882
0.03736497
0.001920102
0.02536217
0.01363888
-0.01629827
-0.1052516
0.1323079
0.1882361
0.06611036
0.2787591
-0.006563862
0.09506698
0.1711085
-0.1607682
-0.0664339
0.01109748
0.002254331
-0.1057997
-0.03115834
-0.05373001
-0.1051548
-0.06452357
-0.06273048
-0.1773908
-0.1035158
0.1716626
-0.3494567
-0.144406
0.2860116
-0.3585323
-0.1339955
0.2417732
-0.07578252
-0.03848745
0.01244899
0.1104173
0.01048429
0.03913016
0.01169639
-0.1625814
-0.07094245
-0.008736092
-0.006592858
-0.06812108
0.00274293
-0.05563212
-0.09854315
0.07949991
-0.1292634
-0.156527
0.2529912
-0.1549323
-0.3651404
0.3171185
-0.1285373
-0.2692173
0.04433629
-0.1153568
0.05110924
-0.07911531
-0.1123741
-0.1445346
-0.1697082
-0.1115622
-0.1327607
-0.1815971
-0.01310732
-0.03476567
0.09010243
0.008004906
0.02831533
0.1256935
0.003941789
0.01474272
0.1480908
0.04469578
0.1037028
-0.09418941
-0.02836538
-0.03187016
0.02459651
-0.0695947
-0.1394098
0.1398657
-0.1193202
-0.2965598
-0.02159121
-0.06863847
0.09739511
-0.0412073
-0.1340736
0.09012895
0.0531318
-0.1131044
0.05505808
0.218177
0.1650919
0.2485636
0.2123677
0.1894605
0.1619845
0.1250706
0.06076161
0.04511782
-0.1378484
-0.1216442
-0.02041697
-0.08995359
-0.03637078
0.000720949
-0.01987451
0.054024
0.005753804
0.004931777
-0.01410712
-0.03132694
0.008912037
-0.02049741
-0.03653703
0.0004126641
-0.02480496
-0.03930897
0.03049492
0.02648327
0.07100567
0.008650012
0.01333481
0.07202896
-0.006961181
0.01286263
0.05527597
0.03887372
0.0433351
-0.007839365
0.007672699
0.05047616
0.04523761
-0.02179761
0.0002496714
-0.009717179
0.02539367
0.02198092
0.02281021
0.03193083
0.03270728
0.03102446
0.03183841
0.03556436
0.03245466
-0.02991769
-0.08048341
-0.02893532
-0.004505272
-0.07147375
-0.02917029
-0.02149138
-0.07721659
-0.02574412
0.08683839
0.08150135
0.02506713
0.02573865
0.008147647
-0.04276303
-0.016804
-0.06795593
-0.1056061
0.2500412
0.06178592
-0.04319928
0.3035934
0.1595702
0.007983009
0.241176
0.1560294
0.02937593
0.01685782
-0.09766145
-0.04613316
-0.03213445
-0.04014238
-0.02465159
-0.1380247
-0.1197459
-0.1406872
0.02673261
-0.05504415
0.009874898
0.01261044
-0.06562202
-0.01119895
-0.01482123
-0.1054063
-0.03778258
-0.04230186
-0.001965456
0.03939693
-0.01218174
0.03683038
0.0694247
-0.009230294
0.04719163
0.1069901
-0.09742405
-0.05777488
-0.05282798
-0.03975572
-0.04468819
-0.04385089
-0.008608302
-0.005580877
-0.0102038
-0.03857545
-0.02826753
-0.04159794
-0.01005503
-0.0003601042
-0.02261297
-0.006710921
0.02265317
-0.000628115
0.02157155
0.07824016
0.03272323
-0.01444286
0.006381052
-0.004481624
-0.003600781
0.00814788
-0.04225881
0.08817214
0.06015808
0.0216972
0.04917413
0.01674506
-0.07771807
0.03377742
0.03263581
-0.0322108
-0.0765838
-0.03038367
0.04261998
-0.02207867
-0.01099549
0.03154046
0.02482448
0.02267154
0.03972141
0.1579404
0.1067654
0.05892864
0.1447356
0.1134593
0.0558194
0.09074245
0.09110786
0.04102954
-0.0290726
0.002281388
0.09847565
-0.06625977
0.008572497
0.09316061
-0.01717797
0.061809
0.1329688
0.01215843
0.01863063
0.01205842
0.01284815
-0.01112145
-0.001037783
0.02160611
-0.02724855
-0.02300009
-0.03649563
0.1314016
-0.02669908
-0.0249009
0.07929406
0.02120069
0.01829844
-0.03350408
0.004424015
0.01687612
0.001600499
-0.001737394
0.01326861
0.01892363
0.0173191
0.0075252
0.03005645
0.03133032
-0.05582887
-0.02593114
-0.09252761
0.04226986
0.1070029
-0.0205558
-0.0280068
-0.00711688
-0.1294419
0.1453287
0.4083299
0.1576273
0.03035127
0.318442
0.06526776
0.05083917
0.4111779
0.09877097
-0.004522895
-0.1725309
0.06589484
0.01687433
-0.003794871
0.1055852
-0.1211038
-0.03136355
0.04983934
-0.1543685
0.07542597
0.000124673
-0.1359702
0.1043537
0.1623795
-0.1848307
0.09512648
0.1238158
0.1177668
0.2597928
0.009964366
0.09034689
0.07370762
-0.03892137
-0.02751987
0.2452807
-0.03519554
-0.02528965
-0.03857096
0.008105754
0.0411412
0.09332396
0.03904404
0.09398434
0.0564465
0.03723057
-0.1374112
0.0892529
-0.02200992
-0.007424411
0.1646051
-0.04228982
-0.06244377
0.1610651
-0.02551122
0.04167058
-0.01205656
0.05532485
0.03968839
-0.02407688
0.05288981
0.06924601
-0.002228016
0.05950557
-0.05649317
0.1364469
-0.05412834
-0.02029959
0.0822086
0.07982924
-0.06055097
0.00417363
-0.01389703
-0.1535891
0.04963259
0.01092102
-0.08367394
0.0595875
-0.04619144
-0.1197139
-0.05218146
-0.0265185
-0.04811857
-0.1499912
0.03743958
-0.05218623
-0.07271995
-0.04070036
0.002764944
-0.01013217
0.03434278
-0.04469514
0.03575799
0.002429368
0.03964885
0.09409671
0.0703717
0.03353617
0.08406519
0.03561905
0.09480577
0.04391325
0.03972889
0.1376542
0.100778
0.1138449
0.05650641
0.03261687
0.03259288
-0.02192953
-0.08715552
-0.05761991
0.04776449
0.007263125
0.04112142
-0.09887568
-0.08584996
-0.08737805
-0.1089573
-0.03356621
-0.07018347
-0.1078598
-0.1044581
-0.1427869
-0.114912
-0.132116
-0.1833967
0.1181298
0.1731861
0.1599552
0.1128838
0.1610691
0.1458276
0.05529591
0.06371043
0.02750093
0.02384576
0.001590691
-0.151485
0.1009018
-0.0008325652
-0.1163771
0.05769993
-0.01690477
-0.02508051
-0.008977309
0.1095264
0.06999782
-0.1365948
0.001441114
-0.07666411
-0.1446966
-0.1692638
-0.1929538
-0.09979423
0.02219144
-0.03874353
0.0158929
0.07497998
0.03881956
0.0454994
0.01662076
0.06709648
-0.1868141
-0.02244364
0.1238902
-0.131025
-0.07923902
0.1308334
-0.1097516
0.07947343
0.09681936
0.05642748
0.1141561
-0.05127481
-0.01132119
0.1403755
-0.04054254
-0.004220524
0.1727761
-0.0602323
0.1125801
0.2466114
0.1665812
0.1249181
0.1741268
0.1534741
0.0006416915
-0.02277532
-0.0616306
0.1026381
0.02653583
-0.02504156
0.03516581
0.0006886437
-0.0184903
-0.1319877
0.01047738
-0.03175184
-0.05105344
-0.03563679
-0.00719031
-0.01874013
0.0003314079
-0.004486197
0.02409568
0.04746826
0.02384065
0.05124568
-0.008634794
0.00482029
0.07120217
0.0371915
0.01336213
0.01715397
-0.01492502
0.01100027
0.007621796
0.09147902
-0.03052839
0.01596494
-0.01883604
-0.02296606
-0.01125601
0.03792702
-0.1296555
-0.05201803
-0.06357306
-0.1026688
0.1209311
0.1317102
0.05383155
0.1122494
0.09233659
0.06187837
0.00462018
0.0433014
0.02694774
-0.05335695
-0.01471198
-0.01352634
-0.01534038
-0.00266557
0.02185603
0.02191706
0.00737284
0.002188376
0.0164004
0.008466728
0.04936992
-0.02984464
-0.07582579
-0.04386973
-0.02092751
0.008348244
0.09463584
-0.03069456
0.01083611
0.06857396
-0.06941503
-0.03283698
0.0570181
-0.06413284
0.0008418373
0.1353151
0.0008305517
-0.0608899
0.04278787
0.06146737
-0.05986392
-0.0861726
0.04006913
0.04682928
0.03653947
0.03823473
0.06911818
0.08843178
0.0129269
0.03877769
0.05141244
0.05204437
-0.02158502
-0.06581162
-0.01956864
0.06691916
0.1919108
0.06003629
-0.01682222
0.05869883
0.1107656
0.1652033
0.1301764
-0.06209098
-0.004244458
0.04891741
-0.1699638
-0.1690854
-0.03602403
0.09739268
-0.02156541
-0.007059841
0.126111
0.06845862
0.144459
0.1488613
0.08572945
0.1527485
-0.1970813
-0.08968221
-0.1547989
-0.222084
-0.2861823
-0.2782113
-0.0821498
-0.1908961
-0.3513915
-0.0331544
-0.1005683
-0.0697153
0.1996388
0.045451
-0.1121143
-0.06554315
-0.2413782
-0.05174731
-0.06781383
0.0002597506
0.1671194
-0.09579088
-0.04531828
0.1995297
-0.04407302
-0.007334401
0.1095352
-0.03857557
0.05693293
0.04002218
0.1219246
0.2509184
0.1575893
0.03242263
0.06465399
0.06059701
-0.0702027
-0.005578614
0.1228919
-0.0766314
-0.000902184
0.1321436
-0.03528553
0.03009161
0.1358905
0.1829581
0.1585619
0.09790944
0.1875964
0.1141266
0.0344675
0.104669
0.1622784
0.1002755
-0.1469236
-0.06360967
0.04276738
0.1959024
0.04752882
-0.1448446
-0.1385752
-0.1643512
-0.1191875
0.1080359
-0.01039816
0.02790843
0.0780249
0.07304005
0.2176128
0.02626966
0.01189024
0.2266984
-0.02158111
-0.05538066
0.03829973
-0.01387332
-0.0440526
0.06643045
-0.01375582
-0.06781152
0.002985448
-0.04513659
0.02616227
0.03416933
0.02746141
0.06624583
0.06393017
0.04013643
0.09294097
0.1053885
-0.1372441
0.01677956
0.09533238
-0.09112764
-0.02773769
0.03851985
-0.1347561
-0.1206662
-0.04800394
0.07875083
-0.02615985
-0.08057338
-0.01032064
-0.02383777
0.02481404
-0.02029124
-0.009733831
0.09455344
0.04330717
0.03002632
0.0073843
0.06379414
0.04147607
-0.004887176
0.04583883
0.02271194
-0.02198664
0.02523682
-0.01266189
-0.2155934
-0.006451856
-0.05427549
-0.1960874
-0.01979831
-0.02849217
-0.03492418
-0.06384477
-0.00517989
-0.0269641
-0.0919368
-0.004311756
-0.02262259
-0.1439264
-0.09169674
-0.06468134
-0.03732902
0.05560317
0.1525722
0.04187256
0.06645226
0.08183122
0.07583417
0.03254632
0.05226607
0.2218399
0.1561031
0.2503936
0.2971286
0.3429709
0.3129794
0.1376435
0.2645339
0.1662976
0.133127
-0.01015353
-0.1420692
0.2120068
0.1021237
-0.1741989
0.0716036
0.07157334
-0.08955329
0.06574354
0.02565605
-0.004440072
0.1485693
0.01693202
-0.02222931
0.1766212
0.01371489
-0.01704463
-0.1326613
-0.2031972
-0.2965479
-0.2299229
-0.2473686
-0.2975956
-0.2666183
-0.2238322
-0.267743
0.06933008
0.05728132
0.1437901
-0.01198341
0.01306018
0.09109397
0.01483559
0.03706234
0.04356746
-0.01190925
0.07636462
0.09296069
-0.02142332
0.05566678
0.07704499
0.03258811
0.09266889
0.08321179
-0.00926458
-0.09388616
0.08157267
0.1490836
0.034821
0.03794249
0.04619189
-0.0801715
-0.06439593
-0.03145797
-0.004742008
0.003802318
-0.006193145
-0.02451125
-0.04420305
0.02320411
-0.01082479
-0.05317278
-0.09016252
-0.06602856
-0.01584771
-0.08738573
-0.06903701
-0.04610632
0.02296926
0.05097493
0.06551404
-0.004359334
0.006698566
-0.00433186
0.07968009
-0.01230077
0.004420242
0.04458648
-0.008708598
-0.05452694
0.025357
-0.06643333
0.1090144
-0.01627722
-0.01279624
0.06171176
-0.09247711
0.07662661
-0.03295416
0.1017777
0.03817095
0.06651916
0.04168023
0.05646288
-0.07559936
-0.03510535
0.06421456
0.1338538
0.001417432
0.01556752
0.01564629
0.05901464
0.02056897
-0.001732428
0.08089702
0.02261475
-0.001769687
0.06104472
-0.09666775
0.1186493
0.175032
-0.2597052
0.06893293
-0.09040709
-0.0195241
0.02268596
-0.006395284
0.06334389
0.01611399
0.02200494
0.02393483
-0.06818612
0.1159096
0.0391177
-0.0346928
-0.02107288
-0.055588
-0.02686725
0.04962105
-0.05014393
-0.01613735
0.08634382
-0.0561884
0.1099428
-0.1352813
-0.08368446
-0.1388939
-0.009898965
0.4135397
-0.3713188
0.04774128
-0.2053772
-0.003591348
-0.2927978
0.2215857
-0.3122587
-0.4463878
0.3479885
-0.1336102
-0.02105515
-0.2732677
0.1708285
0.1373485
-0.1171692
0.1537195
0.1359766
-0.09994268
-0.04269468
-0.08970469
-0.02342971
-0.100065
-0.2393117
0.1350719
0.1188518
-0.2433719
0.07268263
0.06354715
-0.1871898
-0.06610178
-0.05107756
-0.02994009
0.03579899
0.05925595
-0.03495348
-0.04248251
0.01993872
0.00244053
-0.08675089
-0.08466537
0.08215979
0.05201911
0.0371534
0.01972241
-0.02929276
0.005897316
-0.06543406
-0.0637362
-0.0480283
0.1217628
-0.1864029
-0.07771095
-0.1667422
0.5942912
-0.03210907
0.1370302
-0.2288511
0.09572943
0.04619398
-0.03957001
0.1575965
0.05347084
-0.1483261
0.1084429
0.04216131
-0.09073313
-0.02302394
-0.009693742
0.005102101
0.04586941
0.01079667
-0.01064468
0.005699342
-0.02281724
-0.04912353
-0.01716481
-0.005774281
-0.02281373
-0.0853681
0.05283742
-0.001805355
-0.05328275
0.09438191
0.08226397
0.04444292
-0.05652004
-0.2327676
0.03286907
0.1181782
-0.01565246
0.07759247
0.2392305
0.259902
0.1643123
0.1344542
-0.05770098
-0.05406924
0.1129969
-0.002037473
0.1080148
0.07459944
0.1185246
0.2092633
0.04901261
0.03907458
0.01970392
0.07005079
0.04295596
0.01085036
0.09528498
0.0610659
0.03079281
0.2373686
0.08071019
0.002191306
0.09536505
-0.1541689
-0.07296133
-0.003828333
-0.146438
-0.03471252
-0.01180032
0.05974656
0.06054446
0.03368713
0.1985236
0.1230101
-0.02083661
0.0921635
0.07955263
-0.05113319
0.1089789
0.01867985
-0.07407837
-0.04043904
-0.0003808164
-0.1148955
-0.2737486
-0.122246
0.04850192
-0.1104673
-0.05883661
0.4442677
0.1723722
-0.05726783
0.1198564
0.007902032
-0.2523994
-0.1132386
0.07306556
-0.05011826
-0.2018358
0.2413989
-0.03008102
-0.1916215
0.09326898
-0.1157124
0.0207954
-0.2146092
-0.1235974
0.224291
-0.05985829
-0.00587142
0.1588364
0.09836062
0.1150476
-0.3178823
-0.05419453
-0.1162704
-0.3592528
-0.05173644
-0.02265115
-0.156716
0.0199232
0.02042322
-0.07652923
-0.1026976
-0.07713579
0.02145326
-0.02022283
0.009343454
0.04030572
0.009266417
0.01369207
-0.01134658
-0.04403998
0.1501924
-0.03794801
-0.04958779
0.05805713
0.09692719
-0.02179506
-0.02131166
-0.05286347
-0.005087584
-0.09129813
-0.05302424
0.1449408
0.1790322
-0.145411
0.1902336
-0.04321829
0.0715008
0.07342534
0.08064185
-0.004370066
-0.06148858
0.02028547
0.06842662
-0.09287214
-0.02966083
0.0290949
-0.0145386
0.05439453
0.06824257
-0.005607634
0.05146763
0.00789335
-0.03166577
0.04396039
-0.01468515
-0.09876409
-0.05050385
0.06858683
0.01099138
-0.01297776
0.01965033
0.06941031
0.065323
-0.1670871
-0.3135325
-0.2256299
0.006439129
-0.08452415
-0.09155349
0.2055015
0.2685464
0.1340264
-0.03519329
0.0365074
0.06232458
-0.03152061
0.002977971
0.02081126
-0.05284936
-0.03600221
-0.05860581
0.000802986
-0.006194995
-0.02235657
-0.01358297
-0.02021635
-0.03144114
-0.01161352
-0.01423306
-0.007655498
0.08259962
0.1050106
-0.1097801
-0.05369485
-0.1088552
-0.1674934
-0.1459466
-0.06045049
-0.1070558
-0.1325279
-0.1291647
-0.2244318
0.04401845
0.01649408
-0.1440977
0.04777864
0.01522578
-0.01048566
-0.2288408
0.02142813
-0.02710853
-0.2429144
0.08107616
0.06649951
-0.297531
-0.1733536
-0.02710547
0.02792268
-0.139461
0.03114819
-0.07255659
-0.116789
-0.07590963
-0.06613804
-0.1455906
0.09138802
-0.09764928
-0.05221119
-0.0992633
-0.04587209
0.0450503
0.0154766
0.1256617
-0.08723189
0.0898489
0.0106812
-0.222517
-0.09977439
0.04022768
-0.003070154
0.005618109
-0.01202392
0.1556933
0.1047323
-0.09658984
-0.04751768
-0.07465296
-0.02801268
0.0457287
0.02179153
0.05121179
0.1183003
0.06705371
0.06485811
0.01565292
0.00519322
0.07848877
-0.01964231
-0.04365119
0.05909821
-0.0157421
0.002484421
-0.1391193
-0.1433666
0.01110576
-0.2384138
-0.3316471
-0.1088892
-0.1213316
-0.215612
-0.06551082
-0.05681466
-0.3334396
-0.1745809
-0.2289477
-0.0512557
-0.1152084
-0.1284297
-0.1107342
0.1147044
0.1777895
0.05522434
-0.01924104
0.1625475
0.1086746
-0.006610345
-0.01434086
0.008195127
-0.03143867
-0.0525521
0.01390678
-0.07728269
-0.02859209
-0.02582311
-0.1137608
-0.1117143
-0.1157022
-0.1180872
-0.128416
-0.1138351
0.02362308
0.009855666
0.03853453
0.07675807
0.05895399
0.02424618
0.05784835
0.02326834
0.05343723
-0.01819772
0.06982414
0.04431236
-0.09238112
0.03094937
0.0513916
-0.0333609
0.1560087
0.180164
0.08610044
-0.2252127
-0.2140896
-0.174459
-0.4548742
-0.4135182
-0.2761168
0.02010033
0.03768957
0.06133322
0.08654135
0.1216505
0.101335
0.03418981
0.0675323
0.01442361
-0.03712407
-0.05727518
0.1358083
0.3327346
0.0799549
0.1051625
-0.2303397
-0.1629227
-0.0670061
-0.1500135
-0.05660404
-0.06151314
-0.1861743
-0.01537206
-0.05117548
0.03515655
0.08420561
0.005918887
0.05395465
0.01088221
0.06222837
0.03543004
0.03540249
0.08227263
0.07936449
-0.09280264
-0.03562815
-0.0608295
-0.1302021
-0.06205688
-0.2535987
0.4037986
0.06527054
0.007759123
-0.3299001
-0.0928157
0.02507504
0.02020192
0.09540883
-0.3504025
-0.2869681
-0.1695997
0.2620216
0.3330809
0.01422247
0.07527088
0.09924447
0.04799005
0.1410628
0.1450398
-0.0261413
-0.1871798
-0.2873852
-0.1476768
0.1549444
-0.0659676
-0.04635533
0.08349431
-0.2246832
-0.1151932
-0.006087008
-0.09215943
-0.1114706
0.08442317
0.07291932
0.09389301
0.07972968
0.1313508
0.1173365
-0.05310291
-0.0104449
0.05760733
0.1066698
0.1241294
0.1082722
0.1076428
0.1279441
0.01248736
0.05891687
0.1874641
-0.1215739
0.2583039
0.178441
0.08695555
-0.3709337
-0.09458396
0.02491229
0.113326
0.131399
0.1035442
-0.183789
-0.1736991
-0.124509
0.01392395
-0.001105261
0.07837554
0.1000784
0.1532007
0.09599105
-0.1369231
-0.06423082
0.1593643
-0.14828
-0.04308092
0.1398531
-0.1983838
-0.1172406
0.1238993
0.06341214
0.02923584
-0.01206274
0.09008733
0.05743337
0.04470469
0.07775215
0.0707309
0.01073891
-0.1135847
-0.07500922
0.0318098
0.1019493
0.1185907
0.101964
0.08397952
0.08877252
-0.02743733
-0.09005367
-0.1058214
-0.1035199
0.161918
0.01631252
-0.09533057
0.1541141
0.1054925
-0.03660588
0.0001724033
0.001391706
-0.0008528844
0.01422611
0.008903531
0.02227988
0.03508665
0.03913558
0.04224491
0.0737953
0.1005809
0.07469962
0.002496681
-0.1035402
0.2001017
0.01429473
0.03374452
0.1195643
0.1471941
0.1305961
0.02695607
-0.07123317
0.01540799
0.02404259
-0.2783425
-0.1788827
-0.05703385
0.149523
0.1530426
0.1357622
0.1277057
0.06622413
0.03691408
0.01204079
-0.1747105
-0.06041761
-0.01904203
-0.1826524
0.0631472
-0.1252632
0.02805527
-0.1995568
-0.09174951
0.04435134
0.05379412
0.1391939
0.0457326
-0.184104
-0.2446778
0.05868066
-0.1139577
-0.2318077
-0.09815333
-0.1234966
-0.2565868
-0.2057616
-0.02819268
0.05783809
0.03511354
-0.003147326
0.1860866
0.1321591
-0.009515551
-0.04810164
0.0558012
0.0390262
-0.1022766
-0.01862978
0.06532713
-0.04478496
-0.2142534
-0.08899306
-0.04291177
-0.05986618
-0.01366354
0.02135172
-0.007866655
0.047897
0.1113872
0.01838371
-0.007179829
0.1326094
0.05663325
-0.01284826
0.105472
-0.0001562742
0.03212436
-0.00667643
0.08595283
0.08108166
0.1402373
-0.2646202
-0.02129015
-0.2532345
0.1519876
-0.07959571
-0.03325994
-0.1898237
-0.0749696
-0.1145201
-0.08864085
-0.1113184
-0.277821
-0.2587969
-0.1351407
-0.2049228
-0.2578144
-0.09882111
-0.008652039
-0.06167731
-0.1025682
0.04922616
-0.08758243
-0.1100663
0.06047535
-0.02406777
-0.02497854
0.007162465
0.005352691
0.02201142
0.08463198
0.1002403
0.09353106
0.08684339
0.1636123
0.1205296
-0.1030808
-0.1300007
-0.07007644
0.105669
0.02944121
-0.1007521
0.1888469
0.1805844
-0.02723046
0.1532445
0.1386392
0.08960964
-0.06007827
-0.004284901
-0.0488457
-0.1467569
-0.1489926
-0.1799326
0.02051768
0.02104597
0.01420421
0.0370158
0.05705313
0.03470007
0.04616066
0.06070786
0.04132351
0.109673
0.02596612
0.01227899
-0.09110308
-0.1125844
-0.04180752
-0.1364188
-0.0977846
-0.07535671
0.06006639
-0.009776684
-0.03266221
0.04737104
0.06570518
0.02694045
0.1410074
0.1809346
0.1712427
0.07899661
0.2418534
0.02354747
0.02295039
0.1454332
0.1158163
-0.1456005
-0.1395995
0.02280263
-0.000801118
0.0101558
0.007814053
-0.1352362
-0.04759995
-0.001055568
0.06240087
-0.01939615
-0.00488308
-0.04056794
0.00815624
-0.03132951
-0.1022895
-0.08813537
-0.1656137
0.08752701
-0.07708052
0.02952079
0.02816407
-0.01974514
0.02614157
0.2378409
0.2036559
0.03592096
0.08596809
0.087092
-0.1191715
-0.06706122
-0.0635716
-0.02610756
-0.03505586
-0.08889871
-0.04428184
0.01707565
-0.04982627
0.01270369
0.05865622
0.01771067
0.0248923
0.1071915
0.06506277
0.04843624
0.1039298
0.05735135
0.04681694
-0.140772
-0.1586504
-0.01939901
-0.1724231
-0.1831826
-0.09708741
-0.01858408
-0.07503627
-0.07117404
-0.0867513
0.02931758
0.1410253
-0.03354461
-0.002979778
-0.0628701
-0.02094194
0.01054186
0.07454763
-0.02541443
-0.03153684
-0.08472286
0.005085343
0.01698124
0.01262568
0.01843554
0.03988168
0.03369909
-0.09388496
-0.116152
-0.2107764
-0.03601206
-0.06287339
-0.1395895
-0.03476412
-0.04465136
-0.1200903
-0.01848292
-0.07986805
-0.1018116
0.002728075
-0.03376722
-0.06922384
-0.09655655
-0.06653117
-0.06584721
0.06944601
-0.01453253
-0.09148859
0.2634143
0.09163543
-0.09450325
0.07245059
-0.0185143
-0.09359504
-0.07583147
-0.06341785
0.06503483
-0.09260009
-0.113466
-0.02624255
0.1077951
-0.01074172
-0.02626934
0.02810465
0.02172106
0.003304023
3.932595e-05
0.01085882
0.0199973
-0.009473461
0.0002641822
0.009467048
-0.2295044
-0.06354547
9.3974e-05
-0.1543186
0.2268729
0.2592976
0.04753116
0.2306655
0.107915
0.09807714
0.09632137
-0.03392288
-0.02286329
0.0139226
-0.02585074
-0.1275851
-0.0862112
-0.03388307
-0.05360432
-0.05973152
0.04230275
-0.2504281
-0.1101882
0.1367975
-0.2422076
-0.07328013
0.1706468
0.05389765
-0.01371389
-0.06808545
-0.0788023
-0.1616524
-0.05412176
0.06965289
-0.07586694
-0.2153823
-0.1398193
-0.1433944
-0.06483141
-0.003631588
-0.1118676
-0.1384109
-0.1313759
-0.1264762
-0.08895161
0.1635383
0.0461234
-0.05238261
0.1245469
-0.01639017
-0.1069399
-0.0432591
-0.1192979
-0.09874219
-0.09767727
-0.07118935
-0.1480177
-0.03394955
0.0334009
-0.0432223
-0.1320586
-0.0420262
-0.03233654
0.03747388
0.07607669
0.1441124
0.01298071
-0.03288147
0.06502445
0.005946465
-0.07656725
-0.0004909069
-0.05106348
-0.003744239
0.08923692
0.07044391
-0.06042587
8.351399e-05
0.1017515
-0.002817326
-0.006255542
-0.1197563
-0.1221585
0.07763344
0.01649865
-0.1703647
-0.1021956
-0.06770261
-0.1920907
0.08841693
0.09316127
0.09223795
0.04837313
0.03920373
0.09071407
0.10235
-0.03896496
-0.004256445
0.0275592
0.004448768
0.01246874
0.01147712
-0.09078958
-0.08603879
-0.06821657
-0.06671146
-0.06477297
-0.0826247
