16 16 3
0.02865768
0.006322851
-0.01651432
0.02092646
0.01072595
-0.004612832
0.01664462
0.03253172
0.0343946
-0.1873672
-0.1434424
-0.1543857
0.01916543
0.153076
0.1137856
0.08852909
0.2171882
0.17744
-0.009301975
0.02301652
-0.05856677
0.07323956
0.1342519
0.08354462
-0.01938372
0.009488448
0.02545918
0.05811326
-0.01577251
-0.05581331
0.05622825
-0.01398263
-0.06600474
0.007450898
-0.03269123
-0.0783672
0.09915389
0.1281755
0.1011527
0.1967575
0.3271702
0.2754238
0.2125407
0.2858813
0.2508564
0.05557173
0.05992753
0.0501342
0.145214
0.1608036
0.1754466
0.1321893
0.2137852
0.203563
0.04852302
0.04386661
0.04774308
0.0516172
0.01806569
0.001691618
0.002706398
-0.0360325
-0.0820337
0.2003155
0.1675332
-0.03121585
-0.07364365
0.150314
0.1715312
-0.1851966
0.05042669
0.08635682
-0.04999075
0.1715343
0.0520006
0.02936657
0.01193332
-0.1764809
0.08967794
0.2489041
0.02955748
0.008423819
-0.1021053
-0.1671479
0.06466372
0.07967591
0.002043005
0.06435778
0.05078165
-0.04338824
-0.06931137
0.167613
0.05739134
-0.005400807
0.09785154
-0.04633797
0.05141168
0.00235676
-0.1195782
0.002094566
-0.0003066389
0.001681736
0.0002809258
0.002483406
0.003359585
-3.292297e-05
0.003029427
0.003623136
-0.05508928
-0.07966284
-0.09680627
0.008255512
0.03932983
0.01985395
0.08357865
0.1371356
0.1251091
-0.1271248
0.1325211
0.07637829
0.02167411
0.1599633
0.07953503
0.1176285
0.332325
0.1249571
0.06748274
0.006734344
0.0341507
0.1271299
0.01202034
0.002976602
0.12833
0.0714561
0.009159048
-0.0007682016
0.004343609
0.0001957775
2.967946e-05
0.002529551
0.002367493
0.00104985
-0.001893844
-0.0001777859
0.0244038
0.04536175
0.05318684
0.05623737
0.08007538
0.08758712
0.04891838
0.05498738
0.03790066
0.04315398
0.1438719
0.2226105
0.1557897
0.1245495
0.03314276
0.1729454
-0.07616306
-0.01722326
0.007130433
0.1499772
0.1106926
-0.1430975
-0.0495267
-0.09598726
-0.09133063
0.01578693
0.03429402
0.06847838
0.05638861
0.02518558
0.1868085
0.1780874
0.1085674
0.1318808
0.1292525
0.04224737
-0.02712174
0.06513318
-0.1213053
-0.04251641
0.3073968
-0.1087517
-0.08015043
-0.04948988
-0.2098821
0.02558167
0.001610428
0.05893829
-0.1081922
-0.1692264
-0.06538748
-0.09393246
-0.03135936
-0.1299308
-0.06345811
-0.009214214
-0.09253479
0.04334255
0.1785881
0.0316307
0.08044632
0.2687021
0.1575783
0.1697958
-0.08794116
0.09365879
-0.03067462
-0.2120186
0.3413452
-0.1731628
-0.09731279
-0.1311575
0.006698073
-0.01095176
0.1693255
-0.1119581
-0.4258172
-0.2131629
-0.06098009
0.2004265
0.04766165
-0.03473527
-0.00774049
-0.1458754
0.1098278
0.06883754
-0.1225335
0.1071214
-0.00499344
-0.05116376
-0.08243523
-0.1974071
-0.2233112
0.007143513
-0.1814829
-0.2458121
0.09523239
0.006321979
-0.1126074
-0.001431219
-0.001376958
0.000423287
0.001760059
0.002833134
0.0006309242
0.002433079
0.00170499
-0.001131961
0.06267811
0.145498
0.2050165
-0.007841616
0.1509981
0.1390496
-0.0680578
-0.1402955
-0.08202072
-0.05562379
0.1260692
0.08403814
0.06747763
-0.3388157
0.06234308
-0.1546448
-0.07733433
-0.1009585
-0.2025828
-0.2201205
-0.3909764
-0.1051091
-0.06032375
-0.2752192
0.1479284
0.1725039
0.07698333
-0.001759621
-0.001852028
0.001352767
0.001196427
0.0007994712
0.002405284
0.002171645
0.0009601589
0.0003096499
0.004143833
0.0461533
0.0709092
0.01020555
0.08861737
0.1235311
0.005478589
0.06276154
0.0809472
-0.07942824
-0.1474067
-0.1199222
-0.03960033
-0.02969262
-0.1053461
0.02367619
0.03316049
0.08298822
-0.01892479
0.2471536
0.1600447
-0.06826274
0.06495401
-0.03999627
-0.04644258
-0.1183385
-0.1037219
0.04681931
0.07822762
0.139424
0.1034624
0.1784643
0.2385782
0.08145445
0.1890517
0.2042993
-0.07615735
0.0897569
-0.03915092
0.01289243
0.3291846
-0.2421846
-0.1366415
-0.1596407
-0.3078672
0.06077711
0.1800233
0.1125416
-0.07107314
0.04905729
0.05714944
-0.1271415
-0.006149677
-0.03953141
-0.06358615
0.1247982
0.1154848
0.01134961
0.3547551
0.1913615
-0.03392577
0.2827232
0.05720539
0.1786086
-0.1762261
-0.1481026
-0.1488584
-0.3152673
0.3637865
0.03238167
-0.2476786
-0.1439702
0.1538261
-0.1514101
0.05243748
0.1831842
-0.360489
-0.06050281
-0.003365352
0.2643154
-0.04457903
-0.0941551
-0.1331708
-0.1706544
-0.2122645
0.02910291
-0.005681447
0.04496578
0.09186558
0.1184943
0.1594825
-0.07844242
-0.07941963
0.2752601
-0.02170926
-0.1665282
0.07369369
-0.03325379
-0.1287528
0.001617415
-0.001004842
0.002429218
0.0004501439
-0.0001015814
0.001009964
-0.0007624982
-0.0007870509
-0.001257738
-0.02469239
0.008971754
-0.09435332
0.003386609
0.04326912
-0.1147841
0.01245005
-0.004516153
-0.1120449
-0.1195943
-0.03978511
0.03441833
0.08496242
-0.2896417
0.2008223
-0.003139771
0.1354126
0.04495798
-0.05801003
-0.07143924
-0.1408695
-0.112271
0.04436573
-0.04851754
-0.1350574
0.06266395
0.05728156
0.001836195
0.001533844
-0.0001683852
-0.0003905569
-0.0004551824
-0.0001618716
0.002316856
0.003409491
-0.0007311818
-0.00659542
0.008775356
0.008761239
-0.006540511
0.007295955
0.00103345
-0.008672257
-0.00923042
-0.01653108
-0.0321571
-0.1143522
-0.03859902
0.03240948
0.04940881
0.06641279
-0.02288046
0.0718002
0.06064779
-0.1232257
-0.1195196
-0.160995
0.1217422
0.1284004
0.02024726
0.05626867
0.04190572
-0.01449758
0.0001001382
0.001294972
-0.03608214
-0.001240832
0.01778267
-0.008783382
-0.03905163
-0.03389261
-0.05420367
-0.05753283
-0.1615418
0.02373367
-0.05242199
-0.1121282
0.06179971
-0.02620296
0.03841352
0.04544315
0.150401
0.4951296
0.1924282
0.002694394
0.03713181
0.003319589
0.02797021
-0.0383576
0.002906978
0.1173526
0.08262829
0.1186288
0.08737466
0.02208948
0.1168886
0.07258295
0.02625369
0.09003669
0.1604874
0.03690145
-0.3048808
0.2544054
0.06380166
-0.1186581
0.04269018
0.05421383
0.01297831
-0.05167191
0.3504438
-0.03103365
-0.02653035
0.1257504
-0.04248817
-0.04532844
-0.04020308
-0.04501817
0.003114106
-0.124121
-0.06259351
-0.06589391
-0.1055106
-0.08893459
-0.0649356
-0.04386451
-0.1159934
-0.1627074
0.06134744
0.08422006
-0.1019941
0.05683785
0.1329431
-0.02788673
0.02880548
0.0003290494
-0.001705929
0.001584149
0.000107293
0.0008203907
-0.0006220332
-0.002078195
-0.002052481
-0.002416969
-0.001743471
0.09931013
0.1060688
0.08812083
0.1622017
0.1661994
0.07154875
-0.01432185
0.01954628
-0.002012393
-0.07948512
0.1522418
-0.01460476
-0.04111866
0.1978127
0.07778836
0.01719587
0.08513165
0.04016035
-0.06586736
-0.06573709
0.02938372
-0.1802351
-0.2398614
-0.1670783
-0.09502847
-0.06770344
-0.09748896
0.004805206
0.001509949
-0.0001672626
0.0006830379
0.001149931
0.002467392
0.002146796
-0.0005379802
0.000301862
0.01184085
-0.0003160126
-0.002984388
-0.02023088
-0.05210971
-0.06692001
-0.01819741
-0.01561157
-0.02084721
-0.004451074
-0.1724347
-0.032367
0.2451093
-0.2351898
0.04952314
0.1203794
0.02670389
-0.04047554
-0.005098432
-0.1639983
0.01795226
0.07068796
0.04984802
0.03543787
0.234164
0.08233684
0.07560363
-0.01684935
-0.07578319
-0.2068474
-0.1460761
-0.1046613
-0.1638208
-0.08552759
-0.06157306
-0.07880023
-0.001278852
0.2600515
0.1602041
0.1814289
-0.109217
0.3505221
0.02187359
0.2463216
4.560926e-05
-0.1053743
0.241443
-0.0724666
-0.1004092
0.3313406
-0.1022313
-0.01254619
-0.02020519
0.06878654
-0.02327217
0.007544181
0.131106
-0.1839687
-0.1443144
0.2488959
-0.1607212
-0.2128908
0.236921
-0.04131127
0.1079178
-0.04838363
0.03106631
0.3431015
-0.6218056
0.1178523
0.05830146
-0.0362481
-0.192673
-0.2100518
-0.2183447
-0.262964
0.8468456
-0.1719326
-0.09541684
-0.4879867
0.0348618
0.2845328
-0.2466514
0.02437477
0.5424842
-0.1338199
-0.07578101
0.2029877
0.1198895
0.1370937
-0.2383916
0.1105355
-0.09382552
-0.1534853
0.2873381
0.08338003
0.06114883
0.148817
0.03733288
-0.0003883542
-0.0001393384
0.00445334
7.321296e-05
0.002251355
-0.0004731369
0.001667995
-0.001036696
-0.002519529
0.006391442
0.1936868
0.2788132
0.07994466
-0.1628653
0.263685
0.03152848
-0.01205269
0.0574305
-0.1687902
-0.2453791
0.3388229
-0.4613963
0.3288546
-0.1360148
-0.08243642
-0.3020403
0.128498
0.2637859
0.1120929
0.1628685
0.1588248
-0.1476781
0.07188644
-0.03483429
-0.1393909
-0.1683962
-0.0001858667
0.003972038
0.002647717
8.178752e-05
-3.852989e-05
-0.003001875
0.0002706249
-0.0001443323
-0.001331025
0.02883913
0.02356009
0.01774509
-0.001989492
-0.01642565
-0.007940585
-0.01443677
-0.03195425
-0.03985393
0.177837
0.3350077
0.4149737
-0.2287506
-0.1569434
0.06974211
-0.08315355
-0.1883738
-0.1286764
-0.01207872
0.01643887
0.02635301
-0.02414554
0.05390205
0.1272876
0.01829438
0.04747537
0.05563885
-0.01631917
0.005860575
-0.02120745
0.004230123
0.01443386
0.002498111
0.007384993
0.008641405
0.02334646
0.5961438
0.2771718
0.1951476
0.2563995
-0.1524233
-0.1688104
-0.1633681
-0.4919422
-0.3310186
-0.09746114
-0.05701715
-0.07016955
-0.07299681
0.003481819
0.05578801
-0.1068801
-0.05703196
0.006302895
-0.06088806
-0.2066889
-0.3650357
0.1979817
0.02132139
-0.2177833
0.2486905
0.1184348
-0.1646928
-0.06194553
0.2259506
0.1030848
-0.03403636
-0.1368597
-0.0509195
-0.03679327
-0.1758078
-0.1571519
-0.1117619
0.02442365
-0.1967193
0.039779
0.08504634
-0.02436064
-0.03266015
0.02146582
0.0250266
-0.2247434
-0.1097212
0.1725078
-0.4689788
-0.4447885
0.04164508
0.01366742
0.07663085
0.1651508
-0.2049584
-0.1091365
0.05264559
-0.1538364
-0.1325999
0.0590361
-0.06346603
-0.1309411
0.02644452
0.001413525
-6.907855e-05
0.004199726
2.898854e-05
0.001504903
0.0004713922
1.208111e-05
0.0002851586
-0.0004324837
0.1522878
0.1748117
0.04025942
-0.08325632
-0.03039451
-0.1218321
-0.2510534
-0.283332
-0.2081118
0.2272734
0.3673486
-0.03423893
0.0745187
0.1542349
-0.03986526
-0.1021815
-0.05826745
-0.2663049
0.05131639
0.01706392
0.02763587
0.08060102
0.04679544
0.06822607
0.03534153
0.01496865
0.005114372
-0.002556823
-0.0001855648
-0.001513973
0.0001541453
-0.0003916011
-0.001840923
0.001350334
-0.0002731438
0.002131034
0.08958213
0.09010024
0.08999892
0.06442969
0.08244557
0.08747736
0.03376351
0.02943901
0.03962179
0.04931172
0.05862467
-0.02468246
-0.04250458
-0.02186573
0.01278253
-0.1369232
-0.1353752
0.1148178
-0.2132491
-0.103928
-0.1471575
-0.1478578
-0.1707305
-0.07687879
-0.1592148
-0.1668077
-0.1422971
0.1370123
0.143666
0.08776984
0.1001193
0.1262268
0.06084354
0.003341607
0.05539778
0.02831128
0.1266914
0.2894199
0.06626556
0.1958462
0.2536945
-0.01124012
-0.1435143
-0.1219644
-0.06618863
0.005650679
-0.08251291
-0.04328328
-0.01987929
0.1330468
-0.04143188
0.003611594
0.07600953
-0.02088511
0.05312695
0.2480561
0.1674235
0.1084082
0.2326415
0.141817
0.01945062
0.03238415
0.01389671
-0.04299437
-0.003654511
-0.02505005
0.03818473
0.006018842
0.003952883
0.1983726
0.02505727
-0.2300534
0.1109821
0.007180986
0.0009727901
-0.1432514
-0.1640244
-0.1637998
0.126704
0.5549625
-0.06922292
-0.04907615
0.04645631
-0.07101342
-0.05377126
0.03012802
0.1706023
-0.09567431
-0.1221916
0.1877646
0.02688728
0.07498427
-0.06970351
-0.07283159
0.05465252
0.03206895
-0.1286919
0.1943407
0.148385
0.004723286
0.002149547
-0.001590963
0.0002868173
0.001864825
0.001530002
-0.0001673247
-0.001013424
-0.0008707395
0.1322199
0.124811
0.05877566
0.1608839
0.1473447
0.05754539
0.1180485
0.1114766
0.1012967
-0.0457392
0.0674829
0.103091
-0.1215377
-0.185392
0.1145203
-0.02296366
0.068507
0.05793461
-0.04962264
-0.03245625
-0.04941124
0.1223938
0.189295
0.1001852
0.1048015
0.130975
0.148339
-0.002889461
-0.003936931
0.0009838624
0.001977835
-0.00267864
0.0008916016
-0.002242184
0.003814611
-0.002480822
-0.03963849
-0.02190091
0.006524541
-0.03548006
-0.01564817
0.01379631
-0.01545259
-0.001644379
-0.001715352
-0.5289469
-0.1364727
0.4776268
-0.4612153
-0.03464881
0.5240215
-0.2002128
-0.06256733
0.1467465
0.1514273
-0.004354882
-0.04921234
0.1194313
-0.05584859
-0.09141953
0.1949049
0.002308807
-0.04381485
0.0637174
-0.01500224
-0.0006792667
0.03084842
-0.02416791
-0.01170801
0.04889656
0.009323759
-0.008027112
0.1265807
0.02090346
0.0561809
-0.04265526
-0.1627661
-0.02314155
-0.09945424
-0.2035469
0.03014714
-0.0938928
-0.09967802
-0.1025388
-0.03469903
-0.1146977
-0.1106822
-0.02121296
-0.0774406
-0.131566
0.03535579
-0.08817904
-0.3055989
0.2551641
0.02117541
-0.3134227
0.3016308
0.08604919
-0.2331712
0.02031627
-0.1064473
0.07620548
-0.08771062
-0.280827
0.05299446
-0.1128489
-0.2158094
-0.04057948
-0.0108667
0.0383483
0.05090057
-0.008419587
0.06194324
0.1540333
-0.02817755
0.1380426
0.0725046
-0.2621819
-0.1418491
0.2649342
-0.09471998
0.005727024
0.2060976
0.1085765
-0.05370398
-0.1832459
0.003190018
-0.01427034
-0.1138973
-0.002620409
-0.1668031
-0.1853993
0.01625864
-0.1799159
-0.1633818
0.0005284968
-0.00167687
-0.001282177
0.001751407
-0.003681963
0.002612208
0.0003513084
0.00165087
-0.002222292
-0.1776956
-0.07016073
0.08357128
-0.2929134
-0.06119026
0.1720294
-0.2404348
-0.08631257
0.1164305
-0.2647496
0.1689263
0.2635618
-0.1282523
0.2091547
0.3904143
-0.005164055
0.1977536
0.09404946
0.1683862
0.06530726
0.06230516
0.09440248
-0.03105904
-0.03115367
0.08411806
0.002841355
-0.0198986
-9.264774e-05
-0.0004255009
0.002445549
0.0004014847
0.0007812954
0.003171531
-0.002484363
-0.003182066
0.001503645
-0.02697673
-0.0402556
-0.04697946
0.01537936
0.0003720415
-0.02159933
0.05198246
0.04393902
0.01861296
0.1236186
-0.1821523
-0.2551394
0.2131586
-0.08571745
-0.3025157
0.2241679
0.07938986
-0.0204277
0.02080774
0.03781454
0.1197596
-0.1546748
-0.09558058
-0.01039167
-0.1321275
-0.1002894
-0.0362481
-0.1146024
-0.05209433
-0.03134612
-0.08022871
-0.04693975
-0.02710379
-0.04243176
-0.03078129
-0.04317915
0.03690023
-0.2445497
-0.4156177
0.1987583
-0.0004758167
-0.2800336
0.5916225
0.4021652
0.09252811
0.0869517
0.06591818
0.04112672
-0.03709264
-0.01291958
-0.02789904
-0.06591126
-0.03042333
-0.01901535
0.005786588
0.03210222
-0.03803313
-0.155454
-0.1296477
-0.1129618
-0.1039357
-0.1389495
-0.1203478
0.09644715
-0.1094478
-0.1604921
0.07694837
-0.02647003
-0.04799713
0.02018644
0.09974606
0.08955522
-0.01023198
-0.0206994
0.05891365
-0.04328531
-0.2632426
-0.1859078
0.2133909
0.02679381
0.08634621
0.1321317
-0.00927302
0.0872151
0.08065142
-0.1293814
-0.09956358
-0.08451073
-0.2868167
-0.2352285
-0.02210964
-0.01923321
0.01675241
-0.02642592
-0.03169076
-0.06067091
0.063604
0.02209349
-0.06001917
-0.0007103638
0.002636436
-0.001345046
0.003301877
-0.001821512
-0.001889408
0.001360731
-0.00161505
-0.001863284
-0.1031646
-0.2128018
-0.1636184
0.06062093
-0.1119328
-0.1731773
0.2350494
0.05024823
-0.02616624
-0.01927316
-0.252436
-0.2961292
0.1210812
-0.2603134
-0.2556993
0.3425677
0.2140321
0.1769568
0.097517
0.147907
0.1680377
-0.1899429
-0.139721
-0.06789522
-0.1786903
-0.1618829
-0.04757546
0.0001538092
-0.0002120198
-0.001013006
0.001468319
-0.001965328
-0.0005990629
0.001630104
-0.002784317
0.002202376
0.02863697
0.02824842
0.02252998
0.02396593
0.02253312
0.01456979
0.01113195
0.005352461
0.009463749
-0.07664919
0.1405838
-0.002257451
0.1573613
0.2995816
0.1634521
-0.005198466
0.01171994
-0.075258
-0.1346999
-0.1066647
-0.1236476
0.01348499
0.037896
0.04719212
0.07143938
0.06779239
0.06891075
0.0614047
0.06808313
0.05292564
0.07173271
0.07443646
0.07306816
0.02808155
0.03693264
0.04721156
-0.2878714
-0.1050933
-0.03519979
-0.2217558
0.02317053
0.117879
-0.182209
0.05006099
0.03997887
-0.03977594
0.0259262
0.01038111
-0.05362825
0.06162593
0.07420983
-0.09761043
-0.01021599
-0.02092026
-0.1156708
-0.1153693
-0.08765088
-0.1496948
-0.125819
-0.07700945
-0.08866446
-0.04785672
0.03279541
-0.1605697
0.004586101
-0.0341721
-0.07528205
0.1252814
0.06008905
0.0613178
0.1254943
0.0299263
-0.04791998
-0.0119846
-0.07031984
0.04528041
0.1401069
0.004306734
0.02222998
0.06160161
0.02924982
-0.0224579
0.09648523
-0.07415199
0.1947321
0.1697224
0.007922854
0.005696254
-0.1068192
-0.1494347
-0.06885858
0.01212429
0.0474758
0.001837477
0.04555108
0.1009055
-0.05466067
-0.0002792383
0.104282
0.0004342674
0.003082494
0.002544032
0.002482851
-0.0007512029
-0.0009488633
0.001698675
0.001505524
-0.002153918
0.06869779
0.1512794
0.0340848
0.1366349
0.2673284
0.1431855
0.0836266
0.2225832
0.09706949
0.009058941
0.1245953
0.04631959
0.08740631
0.2394163
0.05508503
-0.01021387
-0.01242889
0.009976428
-0.07422157
-0.04333597
-0.02780838
0.021112
0.05227811
0.03803884
0.01160986
0.02777207
0.01262977
-0.0001619147
9.178859e-05
-0.001116198
0.002018576
-0.004628259
-0.001036527
-0.001482385
-2.619189e-05
0.0006088043
0.01253345
-9.345206e-05
-0.009617084
0.01578433
0.006916612
-0.005587586
-0.001361316
-0.01296388
-0.01466211
0.3032037
0.2925509
0.1144418
0.1503189
0.02624327
-0.1010602
-0.0531138
-0.1669921
-0.2304755
-0.02401008
-0.0200618
-0.01752713
-0.05201305
-0.04168778
-0.08617368
0.09554242
0.09240833
0.05955793
-0.07739858
-0.07172774
-0.07254213
0.009375189
0.003279337
-0.01328775
0.04072986
0.02522401
0.008471894
0.005686683
0.1313421
0.1372164
-0.02267058
0.008151224
-0.04035352
-0.1486942
-0.165679
-0.2889284
-0.0592443
-0.0007673214
-0.04204261
-0.08600728
-0.01839995
0.04621182
-0.108054
-0.07721449
-0.02729255
-0.08327536
-0.1175494
-0.01548916
0.009006996
0.01553202
0.1071836
0.09452305
0.1372667
0.1919282
-0.03193216
0.08780004
0.1291699
-0.03174113
0.04905359
-0.0006374261
-0.06297544
0.0007769646
0.01062763
0.1439348
0.1041939
-0.005354499
-0.001114731
0.02663824
-0.05289636
0.1131971
0.02632411
0.1612471
0.1411007
0.03517684
-0.05493176
0.06458192
-0.08894864
-0.1242802
-0.02936478
-0.01947758
0.0177528
-0.04874768
-0.004647959
0.01315454
-0.07080379
-0.06526575
-0.006683951
0.02252322
-0.02859804
0.0489058
0.003974638
0.0001194867
-0.001457412
0.001137136
-0.0006949906
-7.872879e-06
0.001148686
-0.0005976968
0.001314711
0.05238192
0.07008631
-0.006578669
0.01370749
-0.02867304
-0.05333284
-0.1315504
-0.1751703
-0.1729798
0.2781054
0.08961588
-0.001273982
0.03018486
-0.1129597
-0.2043066
-0.09719073
-0.279279
-0.1922965
-0.1571726
-0.1176233
-0.09719243
-0.1317884
-0.1066297
-0.08007301
-0.03973834
-0.04983585
-0.06935195
0.004365769
-4.682952e-05
0.003587172
-0.0003966889
1.149689e-05
-0.0007817075
-0.002811692
0.003719571
0.0004503678
0.02154874
0.01447179
0.00862999
0.01349993
0.002150357
-0.004288377
-0.02642558
-0.02099188
-0.01867364
0.117064
0.02522918
0.01467994
-0.1419725
-0.4210037
-0.2347085
-0.02353001
-0.1841695
-0.04001035
0.04552073
0.01842664
0.04235803
-0.1934463
-0.03631934
0.04508899
-0.0974133
-0.04882543
-0.01046203
0.08187156
0.1336955
0.1301219
0.08665527
0.1156736
0.1246641
0.02359269
0.03804636
0.06917273
0.02021909
-0.04074949
-0.1775785
0.2728881
-0.03470553
-0.1658685
0.3548312
0.1144292
-0.0104278
-0.04186444
0.04080419
0.07013354
-0.0983825
-0.04590398
-0.09888611
-0.1404292
-0.1855505
-0.04241195
-0.2389799
-0.2517886
-0.274018
-0.08181653
-0.01208543
-0.09354898
0.1237912
0.2229916
0.03836643
0.06193034
0.007235219
0.1607726
0.06111299
-0.02134594
-0.1700894
0.05007221
-0.02006398
0.1007994
0.1362012
0.0167637
0.05156213
-0.06273075
0.1656451
-0.03855244
0.04130116
0.003250779
0.08181594
-0.08979813
-0.188023
0.1211228
-0.3651384
-0.6218774
-0.1981856
-0.08649563
-0.2333175
0.03926183
-0.005047651
-0.03501964
0.03862151
-0.06300002
-0.08701228
0.002304118
0.08934084
-0.006744977
0.05386252
-0.0009900253
0.0005657033
0.0007032348
0.003104096
0.001722735
-0.0006564013
-0.0010606
0.0004767008
-0.002742772
-0.03862599
-0.05661983
-0.1000185
-0.03354624
-0.1713404
-0.1086664
-0.09868939
-0.1610601
-0.1227177
0.2484302
-0.1878955
-0.1820419
-0.07490332
-0.008342003
-0.1394278
0.03746365
0.09597947
0.2533127
-0.01711377
0.05422352
0.05243972
-0.08152292
-0.1186071
-0.04580062
-0.04560855
-0.03077653
0.04352253
-0.004586875
-0.0005172511
0.002406211
-0.001444593
-0.002469492
-0.00120346
-0.001357175
0.0006374977
-0.0002083972
-0.06839878
-0.05539444
-0.03767294
-0.05080299
-0.01630854
0.02077782
-0.06549016
-0.04324492
-0.02420427
-0.1797912
-0.1919319
0.1934962
-0.3328712
-0.3133663
-0.04816782
0.00969133
-0.07772778
0.1421813
0.2003455
0.1912801
0.003968179
-0.1487893
-0.1609483
-0.26959
-0.09268957
-0.07721083
-0.09204873
0.02048223
0.01453576
-0.0237169
0.1262725
0.08866591
0.0001038846
0.03306494
0.01398725
-0.03087571
0.08248258
-0.1560591
0.03387656
-0.1430523
0.02041217
-0.2073627
-0.03197173
-0.2179464
0.04296298
0.1036469
-0.03117702
0.02388451
-0.1655864
-0.3484606
-0.2080457
0.04595353
0.08172132
0.002346416
-0.1503564
-0.09816482
-0.2414104
0.01774972
0.1341886
-0.1152815
-0.1177166
0.06265273
-0.1600244
-0.07368394
-0.1969969
-0.1934969
-0.05723387
-0.4770815
0.1780932
0.04353879
-0.0983008
-0.2467925
-0.04959996
0.1759377
0.2728466
-0.09061928
-0.622458
0.01752044
-0.1676634
0.2949647
0.07138097
-0.1653333
-0.1754208
-0.05090756
-0.2374432
-0.07961474
0.05779688
0.1225166
0.08867386
-0.04030189
0.08678444
-0.2182082
-0.07366139
0.05751694
-0.2397817
-0.1414097
0.07714972
-0.0566775
0.01687878
0.0008173842
6.030206e-06
0.00361477
0.001559592
0.001951723
0.0006896176
-0.001023757
-0.002521557
0.0007733629
-0.04864793
-0.1091175
0.0196777
-0.2964941
-0.1429943
-0.07752046
-0.2427063
-0.3088341
-0.02545509
-0.1806376
0.2140467
0.0767127
0.0209145
-0.4946618
0.2939807
-0.06167677
0.09656149
0.04132995
-0.199606
-0.1980717
-0.1492909
-0.1585177
-0.06425297
-0.2422136
0.1690792
0.1872904
0.1168133
0.001398619
-0.001161269
-0.0005344016
0.0009344679
0.002272204
-0.0009013474
-0.001546013
0.002880127
-0.0006971523
-0.0107538
0.01543344
-0.008466613
0.02050833
0.04219672
-0.004247187
-0.00869224
0.004847036
-0.02666689
0.01915467
0.02244812
0.04271669
-0.03880415
-0.01577977
-0.03928356
-0.02927379
0.0598201
0.09701659
0.1304997
0.008496959
-0.1229898
-0.07565516
-0.1434223
-0.1153698
-0.1706392
-0.06203359
0.1585033
0.02936126
-0.01343675
-0.1047105
0.06452117
-0.03118168
-0.1665513
0.04119353
-0.02382737
-0.1388495
0.09921159
0.03332684
0.01406204
0.2733614
0.09648247
-0.2619808
0.1829647
0.1514045
-0.07734141
-0.1510803
0.02738235
0.2874451
-0.1975852
-0.1495231
0.2430064
-0.1343769
-0.2085137
0.01335965
0.07757406
0.07411335
0.01023837
0.1171379
0.02993048
-0.1798381
0.07155574
0.02804373
-0.2136477
-0.2643548
-0.1797323
-0.1448464
-0.0989373
0.1927743
0.346577
-0.1655426
-0.2220674
0.1278941
0.01687366
0.1003114
0.008126383
-0.1945079
-0.2438726
0.532743
0.1628389
-0.1344222
0.06885889
0.1836466
-0.02899659
-0.1035485
0.1568221
0.02559222
-0.2712375
0.04309813
-0.02559998
-0.1107807
-0.1675141
-0.4576695
-0.3030902
-0.2511611
-0.5938984
-0.3708031
-0.3055233
-0.388501
-0.2676629
-0.0003953617
2.380804e-05
-0.0004773034
-0.001598499
-0.001473296
0.000258447
-0.002905814
-0.001148281
0.001452114
-0.08707009
-0.03166747
0.09505666
-0.08217507
0.06585351
0.1429645
-0.04446983
0.1037376
0.1827724
-0.07305652
-0.001884145
-0.1787938
-0.2234743
-0.1099195
0.3285438
-0.04212964
-0.1426893
0.1250217
-0.01617222
0.05655637
0.1599316
0.0652389
-0.04620035
-0.08438887
0.2068902
0.1325248
-0.1749307
-0.0004343445
5.238686e-05
-0.000268498
0.003229899
0.002131534
-0.001917377
-7.310291e-05
0.002372521
-0.0007915509
0.007253108
0.001166229
-0.01923477
0.01714591
0.00343034
-0.02040659
0.01240415
-0.00481789
-0.02496148
0.2818021
0.06728192
-0.05608468
0.1782224
-0.0742069
-0.2125847
0.07797751
-0.1767182
-0.2854923
-0.04142364
-0.01399818
-0.027137
-0.09994999
-0.01524106
-0.008854228
-0.01161752
0.1002756
0.1143856
-0.06031665
0.04668866
0.05180693
0.00894542
0.1139352
0.1065563
0.03796206
0.1154208
0.1074784
0.2169336
-0.1022791
-0.1938111
-0.0214915
-0.4468853
-0.4489608
0.04930153
-0.2499073
-0.2180152
0.01683737
0.1328956
0.1218793
-0.04718387
0.02037158
0.04510594
-0.07225866
-0.01985739
0.01152162
0.002643637
0.01245368
-0.001474012
-0.075696
-0.07693299
-0.09119171
-0.1014256
-0.1354383
-0.1534312
-0.05178507
-0.06877
-0.1083007
-0.1018277
0.02193285
-0.1131625
0.08658707
0.1860129
0.1628408
-0.07360306
-0.120213
-0.04251825
-0.06124922
-0.1028864
0.01258072
0.1080775
-0.0723514
0.08609294
-0.0613371
0.04604549
0.1417521
-0.1405912
0.0652908
0.1786397
-0.1889488
-0.07307512
0.04734387
-0.07358991
-0.06747899
0.06803723
-0.06702129
-0.07315334
0.1025231
-0.03127426
-0.02560336
0.1740353
-0.001908256
-0.0006583568
0.0001690194
0.002365353
0.002579379
0.001298403
0.001352817
-0.00054888
0.0002041948
0.01384427
-0.09724232
-0.1381931
0.0350019
-0.1615706
-0.2248928
0.08290263
-0.04725194
-0.07616094
0.2533021
-0.09440032
-0.232771
0.09336626
-0.225482
-0.4487481
0.1893686
-0.1537618
-0.237996
0.008373959
0.04436926
0.1115098
-0.002271213
0.06412088
0.1219774
-0.05427035
0.02087933
0.06624009
-0.002835538
0.003823076
0.001538293
0.0009811445
0.0006504237
-0.002331685
0.001951301
0.001777415
-0.0008366337
0.004344142
-0.001652119
-0.002569903
-0.0009741049
-0.0001610895
-0.002374644
0.001950547
-0.002630469
0.0006432124
0.00154273
-0.00113156
0.0007782333
-0.002241546
-0.0004696803
-0.003947441
-3.665185e-05
0.003908956
-0.001903398
0.001048236
0.003408249
-0.001298861
0.001947651
-3.295846e-05
-0.0009587705
-0.001846941
9.24546e-05
0.001421033
0.00168128
-0.0006530081
0.001750691
-0.004456411
9.957562e-05
0.0002319508
-0.002836611
0.003537176
0.0005480658
0.001456972
0.002203249
4.324106e-05
-0.001550792
-0.001761877
-0.0009908648
-0.0002611808
0.002068919
0.001267658
-0.00108888
-0.002044397
0.001845345
0.001794281
-0.001261835
-0.001546805
-0.003296129
-0.0008656477
9.771979e-05
-0.0004013418
0.003229729
0.001300611
-0.001644776
0.0002503373
-0.002038094
-0.0006603401
0.0007209135
-0.002284097
0.002037002
0.002158501
-0.002930252
0.001222087
0.0002574071
-0.001904594
-0.0002485971
0.002963375
-0.001872986
-0.0004725771
0.0008957314
-0.003741481
-0.0001295951
0.002203858
0.0008482832
0.00126597
-0.000853635
0.0008579483
0.0003860386
0.003317103
-0.00257223
-0.0001224999
-0.0009494016
0.002145736
-0.001380489
0.0006328482
-0.000240886
-0.0002736869
0.0007264799
0.001392164
-0.00136732
-0.002040484
0.002124455
0.0008568611
-0.002649466
-0.0001376907
0.00217095
0.001092743
0.0006744948
-0.001276577
-0.0004808606
-0.001117216
-0.001428826
8.955356e-05
-0.001098995
-0.0007027304
-0.002012938
-0.002734309
0.001733127
0.001205789
-0.0007784936
0.0007725749
0.001198297
-0.002426864
-0.0004275239
0.002145221
0.0004416248
0.001177573
0.001774404
-0.0008424359
0.001083715
0.002833059
-6.741969e-05
0.004202615
-0.0003968692
0.002093133
-0.002024407
-0.0001269105
-0.001646782
0.001337323
-0.002005117
-0.0001051602
0.0009532876
-0.001915828
-7.857878e-05
0.001656063
-0.003020742
-0.003589593
0.001500142
7.097975e-05
-0.0008496376
