-4.209354e-01
-2.011622e-01
-3.126824e-01
5.744932e-01
4.580771e-01
-7.568553e-01
4.419781e-01
-4.466020e-01
8.480715e-01
1.779903e-01
-1.364946e-01
2.796116e-01
-4.329939e-01
8.460761e-01
9.120159e-01
-5.968851e-01
1.404923e-01
-2.626596e-01
4.670317e-01
-3.206738e-01
6.709666e-01
-2.744329e-01
-5.867842e-01
9.267882e-01
1.952858e-01
-2.960137e-01
-3.483059e-01
-7.175238e-02
4.154540e-01
-1.607158e-01
2.755126e-01
-2.302570e-02
-3.415669e-01
1.076015e-01
2.558304e-02
-6.493832e-01
5.645295e-01
-9.500958e-02
2.871601e-01
1.005547e-01
-1.767326e-01
6.272809e-01
6.043081e-01
-1.861832e-01
4.470257e-01
6.028004e-01
4.591648e-01
-5.266364e-01
-2.494837e-01
-5.324138e-01
-5.622494e-01
-3.450238e-01
2.636329e-01
-4.140858e-01
-2.441241e-01
-5.584941e-01
-5.476808e-02
-6.072981e-01
-3.295850e-01
8.714915e-01
-1.587465e-01
-8.434156e-01
-4.761061e-01
1.904164e-02
-3.608212e-01
-1.801482e-01
-2.308503e-02
-4.509596e-01
-3.927025e-01
-3.311499e-01
1.444214e+00
9.595799e-01
-3.907164e-01
-3.207261e-01
4.589197e-01
8.663090e-01
-1.309106e-01
-7.444227e-01
-1.298837e-01
9.562120e-02
5.682281e-01
5.453303e-01
4.629160e-01
-2.248478e-01
-2.089042e-01
9.364298e-01
-4.150243e-01
4.622617e-01
-3.621779e-02
-3.842296e-01
-1.825078e-02
-1.555232e-01
-4.023529e-01
-1.392858e-01
-4.744216e-01
1.059028e-01
1.723256e-01
-1.166368e-01
3.905523e-01
-3.457049e-01
-5.466153e-02
-3.672991e-01
-1.975042e-01
2.053995e-01
4.691761e-01
3.308838e-01
-1.967629e-01
-3.036025e-01
-3.366437e-01
-2.930371e-02
-4.057441e-02
-1.914710e-01
9.713921e-01
-3.738416e-01
4.978419e-01
-1.639534e-01
3.783564e-01
-3.020395e-01
-5.073521e-01
3.798512e-01
-8.507854e-01
-2.895861e-01
-3.926194e-01
-5.201330e-01
-1.907484e-01
4.723693e-01
-3.005287e-01
5.565870e-01
5.378444e-01
-2.958108e-01
-3.065671e-01
-5.576181e-01
-2.882755e-01
-8.114705e-01
-6.826047e-01
2.712652e-01
1.416748e+00
-6.794531e-01
-1.250983e-01
3.870560e-01
-2.743762e-01
-6.667668e-02
9.677016e-01
-5.076728e-01
-2.427449e-01
2.898979e-01
-4.471077e-01
-2.221873e-01
-7.437633e-02
-4.052951e-01
6.039240e-01
-3.187756e-01
-3.990504e-01
-3.229782e-01
3.685298e-01
2.485730e-02
-1.879551e-01
3.564866e-02
7.409106e-02
3.491490e-01
1.382484e-01
3.403441e-02
-1.166251e-01
7.731843e-01
1.491019e-01
-3.372029e-02
-1.074837e-01
-3.948812e-02
9.559154e-02
-8.182174e-01
7.109958e-01
6.258234e-01
6.412581e-01
-1.717491e-02
-3.180906e-03
-1.739156e-01
-6.039106e-02
4.314131e-01
2.482032e-01
-1.621454e-01
-4.488497e-01
7.440380e-01
-6.885129e-01
-4.960411e-01
6.232473e-02
1.165949e+00
2.649623e-01
-7.805713e-01
6.615248e-01
-3.171811e-01
3.099887e-01
-1.305221e-01
4.292629e-01
1.128603e+00
-3.276900e-01
-2.863591e-03
7.685964e-01
2.437486e-01
-2.454084e-01
2.861918e-01
-5.813498e-01
8.607085e-01
3.074438e-01
2.359549e-01
-7.872608e-01
-1.263080e-02
-7.236124e-01
4.253815e-02
3.929665e-02
-6.217968e-01
-3.243583e-01
8.683047e-01
-2.491076e-01
-2.444795e-01
1.358005e+00
-3.308876e-01
3.985012e-01
7.414712e-01
-5.006167e-02
1.249061e-01
1.911455e-01
-1.251157e-01
-7.794765e-03
-1.249501e-01
2.629563e-01
1.633620e-01
-7.038832e-02
5.184100e-02
4.514802e-01
4.294791e-01
-1.088343e-01
-1.276993e-01
1.038536e-01
5.822805e-01
5.343786e-01
-5.238441e-01
-4.942754e-02
-5.402324e-02
4.767238e-01
-2.222716e-01
-7.616079e-01
4.958572e-01
3.632976e-01
-5.142032e-01
-5.943660e-01
-1.155187e-02
4.209746e-01
1.401590e-01
-2.111315e-01
-2.091691e-01
-2.688799e-01
-8.043154e-01
-5.112683e-01
3.650992e-01
-5.709662e-02
-8.558670e-01
8.909633e-01
7.866265e-01
-2.531710e-01
7.128084e-01
2.669589e-01
1.368007e+00
-6.119399e-01
-4.263084e-01
-6.786731e-01
-1.643176e-01
-2.495186e-01
-3.140636e-01
5.920258e-01
-2.850518e-01
2.799795e-01
-3.291413e-01
4.794432e-01
8.209868e-01
6.201457e-01
-2.847743e-01
1.910882e-02
-1.093237e-01
-2.756415e-01
-6.828940e-01
-7.091652e-01
-7.718184e-02
-1.760499e-01
2.410652e-02
-1.334711e-01
-4.519705e-01
-1.934298e-01
-2.614339e-01
-1.245412e-01
2.241366e-03
4.790292e-02
3.513595e-01
-3.504336e-01
-3.722356e-01
-8.246299e-03
2.738076e-02
-7.409710e-02
-4.666384e-01
-6.382788e-01
6.020736e-01
3.314904e-01
3.576510e-02
-1.345120e-01
-3.684934e-01
-2.768931e-01
7.665908e-01
-4.062046e-01
3.963172e-01
-5.325772e-01
6.192703e-01
-5.027380e-01
-5.227467e-01
-2.210021e-01
-2.160535e-01
6.524019e-01
1.023163e+00
-7.178993e-01
1.412628e-01
-2.491988e-01
-2.287593e-01
-4.816931e-02
-2.098005e-01
-2.421344e-01
-3.943697e-01
6.748380e-01
5.243273e-01
-3.824644e-01
-1.480460e-01
-2.562172e-01
1.491571e+00
-3.993074e-01
7.262365e-02
7.817180e-01
-3.476706e-01
-7.970590e-01
5.909771e-01
-3.095772e-01
-3.913042e-01
-3.278551e-01
6.070889e-01
-3.442269e-01
-1.391177e-01
-1.227240e-01
-5.400584e-01
8.306704e-01
6.772918e-01
1.912633e-01
1.208946e-01
1.576035e-02
-5.157073e-01
8.273399e-02
-3.323496e-01
1.032257e-01
-3.204552e-01
-2.927908e-02
2.530267e-01
-2.331482e-01
2.411230e-01
-1.742221e-01
-9.214273e-02
-1.656307e-03
-5.309487e-01
-1.973569e-01
3.360617e-01
-2.238764e-01
5.584174e-01
6.652121e-02
4.680975e-01
5.173742e-01
-6.164649e-01
-3.439649e-01
8.067897e-01
3.046929e-01
-5.603783e-01
-5.688959e-01
1.058801e-01
-4.168054e-02
1.439648e+00
-3.812820e-01
1.191476e-01
3.597086e-01
-5.617237e-02
-2.372479e-01
-5.804462e-01
4.842629e-01
-1.818086e-01
1.065164e+00
1.032268e-02
-6.506416e-01
-6.057955e-01
-4.051012e-01
6.789744e-01
5.190586e-01
-8.973556e-02
-9.487479e-02
-3.877302e-01
-4.212437e-02
-2.862091e-01
-5.563336e-01
-3.258379e-01
3.147072e-01
-2.347898e-01
-5.425798e-01
-3.095357e-01
-6.880374e-02
-4.607788e-01
2.875077e-01
1.384762e-01
-3.672468e-01
8.562546e-01
-7.999843e-03
4.805094e-02
-4.641324e-01
-2.285293e-01
-2.495076e-01
-4.841061e-02
-1.445964e-01
3.644695e-01
-1.108230e-01
-3.962098e-01
3.546368e-01
-1.224550e-01
-1.046975e-01
2.289218e-01
-8.429348e-02
-4.918788e-01
3.982875e-03
6.158382e-01
-4.646176e-01
-2.032486e-02
-1.509720e-01
6.988431e-01
-3.958051e-01
9.006443e-02
-6.757841e-02
-5.278853e-01
9.651659e-01
-5.247774e-01
4.264480e-01
1.072451e+00
1.520434e-01
-3.892528e-01
1.191487e+00
1.910266e-01
-1.809356e-01
-6.198409e-01
5.607543e-01
-2.061680e-01
-7.295914e-01
-3.369461e-01
-2.537656e-01
-2.676918e-01
2.623183e-01
1.154433e+00
-4.225642e-01
-2.306257e-01
1.385555e-01
-3.767607e-01
5.890065e-01
-3.965881e-01
6.871587e-01
-4.756552e-01
-5.617902e-01
-3.925366e-01
-4.092435e-01
3.535435e-01
-1.307520e-01
2.346712e-01
1.043221e+00
5.865679e-01
-2.639215e-01
-4.422145e-01
3.029033e-01
-4.930153e-01
1.535412e-01
7.012451e-02
3.659507e-01
1.797947e-02
-3.031797e-01
3.904474e-01
-8.173766e-02
-1.897338e-01
-5.607141e-02
7.564779e-01
-1.904403e-01
2.374628e-01
2.642001e-01
-2.146121e-01
-2.540297e-01
1.040484e-01
-1.439405e-01
-4.609555e-01
3.824353e-01
-6.617986e-01
-1.018594e-01
1.083979e+00
-2.761168e-01
-1.023289e-01
-3.488226e-01
5.022429e-01
-3.462687e-01
2.400372e-01
1.171618e+00
-2.248674e-01
1.705964e-02
-6.048918e-01
-4.677088e-01
2.610786e-02
7.892817e-01
-5.015396e-01
-9.864835e-02
4.405753e-01
-4.709889e-01
-2.999912e-01
4.825261e-01
6.879840e-01
-6.234017e-01
-4.791001e-01
-5.069166e-01
-3.569977e-01
-6.941051e-01
-3.390225e-01
-7.965586e-02
-2.674198e-01
-1.639881e-01
2.793152e-01
7.806153e-01
1.525135e+00
-3.809085e-02
-2.221326e-01
4.781683e-01
-3.761389e-01
-3.665850e-01
-3.549384e-01
-1.737929e-01
8.733220e-01
-2.811903e-01
-3.487204e-01
1.917592e-02
-1.668545e-01
3.954483e-02
8.283852e-01
8.411594e-01
-1.014973e-01
-3.257036e-01
-2.258562e-01
1.692759e-02
-5.264401e-01
-4.722263e-01
-2.569931e-01
3.296030e-01
-8.438973e-02
-4.817153e-01
4.149653e-01
-1.294076e-01
-4.297609e-01
-4.410878e-01
2.160245e-02
-4.270820e-01
-3.721062e-01
6.380318e-01
-1.925296e-01
7.167460e-01
2.642571e-01
2.867118e-01
3.013391e-01
6.072712e-01
-4.878912e-01
-1.421513e-01
-2.932117e-01
-2.388210e-01
-4.024550e-01
-1.749622e-01
5.722691e-02
7.425113e-01
2.002452e-01
-3.077312e-01
-2.108489e-01
1.592505e-01
-3.021187e-01
-4.817647e-01
-2.937655e-01
1.379593e+00
-6.009738e-01
-3.307610e-01
-5.706952e-01
-2.644593e-01
-4.806758e-01
-2.375726e-01
1.099331e+00
-1.565918e-01
-1.192984e-01
-5.531915e-01
-2.841491e-01
-2.578571e-01
2.648749e-02
-4.116841e-01
4.633230e-01
-4.262522e-01
-8.311516e-02
6.492941e-02
-3.687189e-01
-1.275471e-01
-1.658327e-02
1.598671e-01
7.255636e-01
-4.506719e-02
5.671032e-02
3.368423e-01
1.754720e-01
-1.101594e-01
-2.601201e-01
-2.296297e-01
3.470966e-01
-1.815205e-01
1.895462e-03
4.079198e-01
2.449769e-01
-5.473398e-01
-2.819642e-01
-2.953767e-01
-4.441569e-01
-1.567339e-01
-3.982666e-01
-9.019997e-02
1.726726e-02
-9.567998e-02
-2.541629e-01
-2.718536e-01
-8.305997e-02
-1.135349e-01
5.932266e-01
1.285208e+00
1.369334e-02
-3.675991e-02
2.725146e-01
1.243642e-01
1.318443e+00
-2.022898e-01
7.765446e-01
