0.000000000000000
-0.000000000000000
0.009115154326920
-0.010095470386441
0.009115154326920
-0.010095470386441
0.009115154326920
-0.010095470386441
0.009115154326920
-0.010095470386441
0.009115154326920
-0.010095470386441
0.009115154326920
-0.010095470386441
0.009115154326920
-0.010095470386441
0.009115154326920
-0.010095470386441
0.009115154326920
-0.010095470386441
0.009115154326920
-0.010095470386441
0.009115154326920
-0.010095470386441
0.009115154326920
-0.010095470386441
0.009115154326920
-0.010095470386441
0.009115154326920
-0.010095470386441
0.009115154326920
-0.010095470386441
-0.000000000000000
-0.000000000000000
-0.011728933293854
-0.009765182051072
-0.011728933293854
-0.009765182051072
-0.011728933293854
-0.009765182051072
-0.011728933293854
-0.009765182051072
-0.011728933293854
-0.009765182051072
-0.011728933293854
-0.009765182051072
-0.011728933293854
-0.009765182051072
-0.011728933293854
-0.009765182051072
-0.011728933293854
-0.009765182051072
-0.011728933293854
-0.009765182051072
-0.011728933293854
-0.009765182051072
-0.011728933293854
-0.009765182051072
-0.011728933293854
-0.009765182051072
-0.011728933293854
-0.009765182051072
-0.011728933293854
-0.009765182051072
0.000000000000000
-0.000000000000000
0.009115154326920
-0.010095470386441
0.009115154326920
-0.010095470386441
0.009115154326920
-0.010095470386441
0.009115154326920
-0.010095470386441
0.009115154326920
-0.010095470386441
0.009115154326920
-0.010095470386441
0.009115154326920
-0.010095470386441
0.009115154326920
-0.010095470386441
0.009115154326920
-0.010095470386441
0.009115154326920
-0.010095470386441
0.009115154326920
-0.010095470386441
0.009115154326920
-0.010095470386441
0.009115154326920
-0.010095470386441
0.009115154326920
-0.010095470386441
0.009115154326920
-0.010095470386441
-0.000000000000000
-0.000000000000000
-0.011728933293854
-0.009765182051072
-0.011728933293854
-0.009765182051072
-0.011728933293854
-0.009765182051072
-0.011728933293854
-0.009765182051072
-0.011728933293854
-0.009765182051072
-0.011728933293854
-0.009765182051072
-0.011728933293854
-0.009765182051072
-0.011728933293854
-0.009765182051072
-0.011728933293854
-0.009765182051072
-0.011728933293854
-0.009765182051072
-0.011728933293854
-0.009765182051072
-0.011728933293854
-0.009765182051072
-0.011728933293854
-0.009765182051072
-0.011728933293854
-0.009765182051072
-0.011728933293854
-0.009765182051072
0.000000000000000
-0.000000000000000
0.009115154326920
-0.010095470386441
0.009115154326920
-0.010095470386441
0.009115154326920
-0.010095470386441
0.009115154326920
-0.010095470386441
0.009115154326920
-0.010095470386441
0.009115154326920
-0.010095470386441
0.009115154326920
-0.010095470386441
0.009115154326920
-0.010095470386441
0.009115154326920
-0.010095470386441
0.009115154326920
-0.010095470386441
0.009115154326920
-0.010095470386441
0.009115154326920
-0.010095470386441
0.009115154326920
-0.010095470386441
0.009115154326920
-0.010095470386441
0.009115154326920
-0.010095470386441
-0.000000000000000
-0.000000000000000
-0.011728933293854
-0.009765182051072
-0.011728933293854
-0.009765182051072
-0.011728933293854
-0.009765182051072
-0.011728933293854
-0.009765182051072
-0.011728933293854
-0.009765182051072
-0.011728933293854
-0.009765182051072
-0.011728933293854
-0.009765182051072
-0.011728933293854
-0.009765182051072
-0.011728933293854
-0.009765182051072
-0.011728933293854
-0.009765182051072
-0.011728933293854
-0.009765182051072
-0.011728933293854
-0.009765182051072
-0.011728933293854
-0.009765182051072
-0.011728933293854
-0.009765182051072
-0.011728933293854
-0.009765182051072
0.000000000000000
-0.000000000000000
0.009115154326920
-0.010095470386441
0.009115154326920
-0.010095470386441
0.009115154326920
-0.010095470386441
0.009115154326920
-0.010095470386441
0.009115154326920
-0.010095470386441
0.009115154326920
-0.010095470386441
0.009115154326920
-0.010095470386441
0.009115154326920
-0.010095470386441
0.009115154326920
-0.010095470386441
0.009115154326920
-0.010095470386441
0.009115154326920
-0.010095470386441
0.009115154326920
-0.010095470386441
0.009115154326920
-0.010095470386441
0.009115154326920
-0.010095470386441
0.009115154326920
-0.010095470386441
-0.000000000000000
-0.000000000000000
-0.011728933293854
-0.009765182051072
-0.011728933293854
-0.009765182051072
-0.011728933293854
-0.009765182051072
-0.011728933293854
-0.009765182051072
-0.011728933293854
-0.009765182051072
-0.011728933293854
-0.009765182051072
-0.011728933293854
-0.009765182051072
-0.011728933293854
-0.009765182051072
-0.011728933293854
-0.009765182051072
-0.011728933293854
-0.009765182051072
-0.011728933293854
-0.009765182051072
-0.011728933293854
-0.009765182051072
-0.011728933293854
-0.009765182051072
-0.011728933293854
-0.009765182051072
-0.011728933293854
-0.009765182051072
0.000000000000000
-0.000000000000000
0.009115154326920
-0.010095470386441
0.009115154326920
-0.010095470386441
0.009115154326920
-0.010095470386441
0.009115154326920
-0.010095470386441
0.009115154326920
-0.010095470386441
0.009115154326920
-0.010095470386441
0.009115154326920
-0.010095470386441
0.009115154326920
-0.010095470386441
0.009115154326920
-0.010095470386441
0.009115154326920
-0.010095470386441
0.009115154326920
-0.010095470386441
0.009115154326920
-0.010095470386441
0.009115154326920
-0.010095470386441
0.009115154326920
-0.010095470386441
0.009115154326920
-0.010095470386441
-0.000000000000000
-0.000000000000000
-0.011728933293854
-0.009765182051072
-0.011728933293854
-0.009765182051072
-0.011728933293854
-0.009765182051072
-0.011728933293854
-0.009765182051072
-0.011728933293854
-0.009765182051072
-0.011728933293854
-0.009765182051072
-0.011728933293854
-0.009765182051072
-0.011728933293854
-0.009765182051072
-0.011728933293854
-0.009765182051072
-0.011728933293854
-0.009765182051072
-0.011728933293854
-0.009765182051072
-0.011728933293854
-0.009765182051072
-0.011728933293854
-0.009765182051072
-0.011728933293854
-0.009765182051072
-0.011728933293854
-0.009765182051072
0.000000000000000
-0.000000000000000
0.009115154326920
-0.010095470386441
0.009115154326920
-0.010095470386441
0.009115154326920
-0.010095470386441
0.009115154326920
-0.010095470386441
0.009115154326920
-0.010095470386441
0.009115154326920
-0.010095470386441
0.009115154326920
-0.010095470386441
0.009115154326920
-0.010095470386441
0.009115154326920
-0.010095470386441
0.009115154326920
-0.010095470386441
0.009115154326920
-0.010095470386441
0.009115154326920
-0.010095470386441
0.009115154326920
-0.010095470386441
0.009115154326920
-0.010095470386441
0.009115154326920
-0.010095470386441
-0.000000000000000
-0.000000000000000
-0.011728933293854
-0.009765182051072
-0.011728933293854
-0.009765182051072
-0.011728933293854
-0.009765182051072
-0.011728933293854
-0.009765182051072
-0.011728933293854
-0.009765182051072
-0.011728933293854
-0.009765182051072
-0.011728933293854
-0.009765182051072
-0.011728933293854
-0.009765182051072
-0.011728933293854
-0.009765182051072
-0.011728933293854
-0.009765182051072
-0.011728933293854
-0.009765182051072
-0.011728933293854
-0.009765182051072
-0.011728933293854
-0.009765182051072
-0.011728933293854
-0.009765182051072
-0.011728933293854
-0.009765182051072
0.000000000000000
-0.000000000000000
0.009115154326920
-0.010095470386441
0.009115154326920
-0.010095470386441
0.009115154326920
-0.010095470386441
0.009115154326920
-0.010095470386441
0.009115154326920
-0.010095470386441
0.009115154326920
-0.010095470386441
0.009115154326920
-0.010095470386441
0.009115154326920
-0.010095470386441
0.009115154326920
-0.010095470386441
0.009115154326920
-0.010095470386441
0.009115154326920
-0.010095470386441
0.009115154326920
-0.010095470386441
0.009115154326920
-0.010095470386441
0.009115154326920
-0.010095470386441
0.009115154326920
-0.010095470386441
-0.000000000000000
-0.000000000000000
-0.011728933293854
-0.009765182051072
-0.011728933293854
-0.009765182051072
-0.011728933293854
-0.009765182051072
-0.011728933293854
-0.009765182051072
-0.011728933293854
-0.009765182051072
-0.011728933293854
-0.009765182051072
-0.011728933293854
-0.009765182051072
-0.011728933293854
-0.009765182051072
-0.011728933293854
-0.009765182051072
-0.011728933293854
-0.009765182051072
-0.011728933293854
-0.009765182051072
-0.011728933293854
-0.009765182051072
-0.011728933293854
-0.009765182051072
-0.011728933293854
-0.009765182051072
-0.011728933293854
-0.009765182051072
0.000000000000000
-0.000000000000000
0.009115154326920
-0.010095470386441
0.009115154326920
-0.010095470386441
0.009115154326920
-0.010095470386441
0.009115154326920
-0.010095470386441
0.009115154326920
-0.010095470386441
0.009115154326920
-0.010095470386441
0.009115154326920
-0.010095470386441
0.009115154326920
-0.010095470386441
0.009115154326920
-0.010095470386441
0.009115154326920
-0.010095470386441
0.009115154326920
-0.010095470386441
0.009115154326920
-0.010095470386441
0.009115154326920
-0.010095470386441
0.009115154326920
-0.010095470386441
0.009115154326920
-0.010095470386441
-0.000000000000000
-0.000000000000000
-0.011728933293854
-0.009765182051072
-0.011728933293854
-0.009765182051072
-0.011728933293854
-0.009765182051072
-0.011728933293854
-0.009765182051072
-0.011728933293854
-0.009765182051072
-0.011728933293854
-0.009765182051072
-0.011728933293854
-0.009765182051072
-0.011728933293854
-0.009765182051072
-0.011728933293854
-0.009765182051072
-0.011728933293854
-0.009765182051072
-0.011728933293854
-0.009765182051072
-0.011728933293854
-0.009765182051072
-0.011728933293854
-0.009765182051072
-0.011728933293854
-0.009765182051072
-0.011728933293854
-0.009765182051072
0.000000000000000
-0.000000000000000
0.009115154326920
-0.010095470386441
0.009115154326920
-0.010095470386441
0.009115154326920
-0.010095470386441
0.009115154326920
-0.010095470386441
0.009115154326920
-0.010095470386441
0.009115154326920
-0.010095470386441
0.009115154326920
-0.010095470386441
0.009115154326920
-0.010095470386441
0.009115154326920
-0.010095470386441
0.009115154326920
-0.010095470386441
0.009115154326920
-0.010095470386441
0.009115154326920
-0.010095470386441
0.009115154326920
-0.010095470386441
0.009115154326920
-0.010095470386441
0.009115154326920
-0.010095470386441
-0.000000000000000
-0.000000000000000
-0.011728933293854
-0.009765182051072
-0.011728933293854
-0.009765182051072
-0.011728933293854
-0.009765182051072
-0.011728933293854
-0.009765182051072
-0.011728933293854
-0.009765182051072
-0.011728933293854
-0.009765182051072
-0.011728933293854
-0.009765182051072
-0.011728933293854
-0.009765182051072
-0.011728933293854
-0.009765182051072
-0.011728933293854
-0.009765182051072
-0.011728933293854
-0.009765182051072
-0.011728933293854
-0.009765182051072
-0.011728933293854
-0.009765182051072
-0.011728933293854
-0.009765182051072
-0.011728933293854
-0.009765182051072
0.000000000000000
-0.000000000000000
0.009115154326920
-0.010095470386441
0.009115154326920
-0.010095470386441
0.009115154326920
-0.010095470386441
0.009115154326920
-0.010095470386441
0.009115154326920
-0.010095470386441
0.009115154326920
-0.010095470386441
0.009115154326920
-0.010095470386441
0.009115154326920
-0.010095470386441
0.009115154326920
-0.010095470386441
0.009115154326920
-0.010095470386441
0.009115154326920
-0.010095470386441
0.009115154326920
-0.010095470386441
0.009115154326920
-0.010095470386441
0.009115154326920
-0.010095470386441
0.009115154326920
-0.010095470386441
-0.000000000000000
-0.000000000000000
-0.011728933293854
-0.009765182051072
-0.011728933293854
-0.009765182051072
-0.011728933293854
-0.009765182051072
-0.011728933293854
-0.009765182051072
-0.011728933293854
-0.009765182051072
-0.011728933293854
-0.009765182051072
-0.011728933293854
-0.009765182051072
-0.011728933293854
-0.009765182051072
-0.011728933293854
-0.009765182051072
-0.011728933293854
-0.009765182051072
-0.011728933293854
-0.009765182051072
-0.011728933293854
-0.009765182051072
-0.011728933293854
-0.009765182051072
-0.011728933293854
-0.009765182051072
-0.011728933293854
-0.009765182051072
0.000000000000000
-0.000000000000000
0.009115154326920
-0.010095470386441
0.009115154326920
-0.010095470386441
0.009115154326920
-0.010095470386441
0.009115154326920
-0.010095470386441
0.009115154326920
-0.010095470386441
0.009115154326920
-0.010095470386441
0.009115154326920
-0.010095470386441
0.009115154326920
-0.010095470386441
0.009115154326920
-0.010095470386441
0.009115154326920
-0.010095470386441
0.009115154326920
-0.010095470386441
0.009115154326920
-0.010095470386441
0.009115154326920
-0.010095470386441
0.009115154326920
-0.010095470386441
0.009115154326920
-0.010095470386441
-0.000000000000000
-0.000000000000000
-0.011728933293854
-0.009765182051072
-0.011728933293854
-0.009765182051072
-0.011728933293854
-0.009765182051072
-0.011728933293854
-0.009765182051072
-0.011728933293854
-0.009765182051072
-0.011728933293854
-0.009765182051072
-0.011728933293854
-0.009765182051072
-0.011728933293854
-0.009765182051072
-0.011728933293854
-0.009765182051072
-0.011728933293854
-0.009765182051072
-0.011728933293854
-0.009765182051072
-0.011728933293854
-0.009765182051072
-0.011728933293854
-0.009765182051072
-0.011728933293854
-0.009765182051072
-0.011728933293854
-0.009765182051072
0.000000000000000
-0.000000000000000
0.009115154326920
-0.010095470386441
0.009115154326920
-0.010095470386441
0.009115154326920
-0.010095470386441
0.009115154326920
-0.010095470386441
0.009115154326920
-0.010095470386441
0.009115154326920
-0.010095470386441
0.009115154326920
-0.010095470386441
0.009115154326920
-0.010095470386441
0.009115154326920
-0.010095470386441
0.009115154326920
-0.010095470386441
0.009115154326920
-0.010095470386441
0.009115154326920
-0.010095470386441
0.009115154326920
-0.010095470386441
0.009115154326920
-0.010095470386441
0.009115154326920
-0.010095470386441
-0.000000000000000
-0.000000000000000
-0.011728933293854
-0.009765182051072
-0.011728933293854
-0.009765182051072
-0.011728933293854
-0.009765182051072
-0.011728933293854
-0.009765182051072
-0.011728933293854
-0.009765182051072
-0.011728933293854
-0.009765182051072
-0.011728933293854
-0.009765182051072
-0.011728933293854
-0.009765182051072
-0.011728933293854
-0.009765182051072
-0.011728933293854
-0.009765182051072
-0.011728933293854
-0.009765182051072
-0.011728933293854
-0.009765182051072
-0.011728933293854
-0.009765182051072
-0.011728933293854
-0.009765182051072
-0.011728933293854
-0.009765182051072
0.000000000000000
-0.000000000000000
0.009115154326920
-0.010095470386441
0.009115154326920
-0.010095470386441
0.009115154326920
-0.010095470386441
0.009115154326920
-0.010095470386441
0.009115154326920
-0.010095470386441
0.009115154326920
-0.010095470386441
0.009115154326920
-0.010095470386441
0.009115154326920
-0.010095470386441
0.009115154326920
-0.010095470386441
0.009115154326920
-0.010095470386441
0.009115154326920
-0.010095470386441
0.009115154326920
-0.010095470386441
0.009115154326920
-0.010095470386441
0.009115154326920
-0.010095470386441
0.009115154326920
-0.010095470386441
-0.000000000000000
-0.000000000000000
-0.011728933293854
-0.009765182051072
-0.011728933293854
-0.009765182051072
-0.011728933293854
-0.009765182051072
-0.011728933293854
-0.009765182051072
-0.011728933293854
-0.009765182051072
-0.011728933293854
-0.009765182051072
-0.011728933293854
-0.009765182051072
-0.011728933293854
-0.009765182051072
-0.011728933293854
-0.009765182051072
-0.011728933293854
-0.009765182051072
-0.011728933293854
-0.009765182051072
-0.011728933293854
-0.009765182051072
-0.011728933293854
-0.009765182051072
-0.011728933293854
-0.009765182051072
-0.011728933293854
-0.009765182051072
0.000000000000000
-0.000000000000000
0.009115154326920
-0.010095470386441
0.009115154326920
-0.010095470386441
0.009115154326920
-0.010095470386441
0.009115154326920
-0.010095470386441
0.009115154326920
-0.010095470386441
0.009115154326920
-0.010095470386441
0.009115154326920
-0.010095470386441
0.009115154326920
-0.010095470386441
0.009115154326920
-0.010095470386441
0.009115154326920
-0.010095470386441
0.009115154326920
-0.010095470386441
0.009115154326920
-0.010095470386441
0.009115154326920
-0.010095470386441
0.009115154326920
-0.010095470386441
0.009115154326920
-0.010095470386441
-0.000000000000000
-0.000000000000000
-0.011728933293854
-0.009765182051072
-0.011728933293854
-0.009765182051072
-0.011728933293854
-0.009765182051072
-0.011728933293854
-0.009765182051072
-0.011728933293854
-0.009765182051072
-0.011728933293854
-0.009765182051072
-0.011728933293854
-0.009765182051072
-0.011728933293854
-0.009765182051072
-0.011728933293854
-0.009765182051072
-0.011728933293854
-0.009765182051072
-0.011728933293854
-0.009765182051072
-0.011728933293854
-0.009765182051072
-0.011728933293854
-0.009765182051072
-0.011728933293854
-0.009765182051072
-0.011728933293854
-0.009765182051072
0.000000000000000
-0.000000000000000
0.009115154326920
-0.010095470386441
0.009115154326920
-0.010095470386441
0.009115154326920
-0.010095470386441
0.009115154326920
-0.010095470386441
0.009115154326920
-0.010095470386441
0.009115154326920
-0.010095470386441
0.009115154326920
-0.010095470386441
0.009115154326920
-0.010095470386441
0.009115154326920
-0.010095470386441
0.009115154326920
-0.010095470386441
0.009115154326920
-0.010095470386441
0.009115154326920
-0.010095470386441
0.009115154326920
-0.010095470386441
0.009115154326920
-0.010095470386441
0.009115154326920
-0.010095470386441
-0.000000000000000
-0.000000000000000
-0.011728933293854
-0.009765182051072
-0.011728933293854
-0.009765182051072
-0.011728933293854
-0.009765182051072
-0.011728933293854
-0.009765182051072
-0.011728933293854
-0.009765182051072
-0.011728933293854
-0.009765182051072
-0.011728933293854
-0.009765182051072
-0.011728933293854
-0.009765182051072
-0.011728933293854
-0.009765182051072
-0.011728933293854
-0.009765182051072
-0.011728933293854
-0.009765182051072
-0.011728933293854
-0.009765182051072
-0.011728933293854
-0.009765182051072
-0.011728933293854
-0.009765182051072
-0.011728933293854
-0.009765182051072
0.000000000000000
-0.000000000000000
0.009115154326920
-0.010095470386441
0.009115154326920
-0.010095470386441
0.009115154326920
-0.010095470386441
0.009115154326920
-0.010095470386441
0.009115154326920
-0.010095470386441
0.009115154326920
-0.010095470386441
0.009115154326920
-0.010095470386441
0.009115154326920
-0.010095470386441
0.009115154326920
-0.010095470386441
0.009115154326920
-0.010095470386441
0.009115154326920
-0.010095470386441
0.009115154326920
-0.010095470386441
0.009115154326920
-0.010095470386441
0.009115154326920
-0.010095470386441
0.009115154326920
-0.010095470386441
-0.000000000000000
-0.000000000000000
-0.011728933293854
-0.009765182051072
-0.011728933293854
-0.009765182051072
-0.011728933293854
-0.009765182051072
-0.011728933293854
-0.009765182051072
-0.011728933293854
-0.009765182051072
-0.011728933293854
-0.009765182051072
-0.011728933293854
-0.009765182051072
-0.011728933293854
-0.009765182051072
-0.011728933293854
-0.009765182051072
-0.011728933293854
-0.009765182051072
-0.011728933293854
-0.009765182051072
-0.011728933293854
-0.009765182051072
-0.011728933293854
-0.009765182051072
-0.011728933293854
-0.009765182051072
-0.011728933293854
-0.009765182051072
-0.000000000000000
-0.000000000000000
-0.023044537910533
-0.015948075796269
-0.023044537910533
-0.015948075796269
-0.023044537910533
-0.015948075796269
-0.023044537910533
-0.015948075796269
-0.023044537910533
-0.015948075796269
-0.023044537910533
-0.015948075796269
-0.023044537910533
-0.015948075796269
-0.023044537910533
-0.015948075796269
-0.023044537910533
-0.015948075796269
-0.023044537910533
-0.015948075796269
-0.023044537910533
-0.015948075796269
-0.023044537910533
-0.015948075796269
-0.023044537910533
-0.015948075796269
-0.023044537910533
-0.015948075796269
-0.023044537910533
-0.015948075796269
0.000000000000000
-0.000000000000000
0.000456771723615
-0.013527254157223
0.000456771723615
-0.013527254157223
0.000456771723615
-0.013527254157223
0.000456771723615
-0.013527254157223
0.000456771723615
-0.013527254157223
0.000456771723615
-0.013527254157223
0.000456771723615
-0.013527254157223
0.000456771723615
-0.013527254157223
0.000456771723615
-0.013527254157223
0.000456771723615
-0.013527254157223
0.000456771723615
-0.013527254157223
0.000456771723615
-0.013527254157223
0.000456771723615
-0.013527254157223
0.000456771723615
-0.013527254157223
0.000456771723615
-0.013527254157223
-0.000000000000000
-0.000000000000000
-0.023044537910533
-0.015948075796269
-0.023044537910533
-0.015948075796269
-0.023044537910533
-0.015948075796269
-0.023044537910533
-0.015948075796269
-0.023044537910533
-0.015948075796269
-0.023044537910533
-0.015948075796269
-0.023044537910533
-0.015948075796269
-0.023044537910533
-0.015948075796269
-0.023044537910533
-0.015948075796269
-0.023044537910533
-0.015948075796269
-0.023044537910533
-0.015948075796269
-0.023044537910533
-0.015948075796269
-0.023044537910533
-0.015948075796269
-0.023044537910533
-0.015948075796269
-0.023044537910533
-0.015948075796269
0.000000000000000
-0.000000000000000
0.000456771723615
-0.013527254157223
0.000456771723615
-0.013527254157223
0.000456771723615
-0.013527254157223
0.000456771723615
-0.013527254157223
0.000456771723615
-0.013527254157223
0.000456771723615
-0.013527254157223
0.000456771723615
-0.013527254157223
0.000456771723615
-0.013527254157223
0.000456771723615
-0.013527254157223
0.000456771723615
-0.013527254157223
0.000456771723615
-0.013527254157223
0.000456771723615
-0.013527254157223
0.000456771723615
-0.013527254157223
0.000456771723615
-0.013527254157223
0.000456771723615
-0.013527254157223
-0.000000000000000
-0.000000000000000
-0.023044537910533
-0.015948075796269
-0.023044537910533
-0.015948075796269
-0.023044537910533
-0.015948075796269
-0.023044537910533
-0.015948075796269
-0.023044537910533
-0.015948075796269
-0.023044537910533
-0.015948075796269
-0.023044537910533
-0.015948075796269
-0.023044537910533
-0.015948075796269
-0.023044537910533
-0.015948075796269
-0.023044537910533
-0.015948075796269
-0.023044537910533
-0.015948075796269
-0.023044537910533
-0.015948075796269
-0.023044537910533
-0.015948075796269
-0.023044537910533
-0.015948075796269
-0.023044537910533
-0.015948075796269
0.000000000000000
-0.000000000000000
0.000456771723615
-0.013527254157223
0.000456771723615
-0.013527254157223
0.000456771723615
-0.013527254157223
0.000456771723615
-0.013527254157223
0.000456771723615
-0.013527254157223
0.000456771723615
-0.013527254157223
0.000456771723615
-0.013527254157223
0.000456771723615
-0.013527254157223
0.000456771723615
-0.013527254157223
0.000456771723615
-0.013527254157223
0.000456771723615
-0.013527254157223
0.000456771723615
-0.013527254157223
0.000456771723615
-0.013527254157223
0.000456771723615
-0.013527254157223
0.000456771723615
-0.013527254157223
-0.000000000000000
-0.000000000000000
-0.023044537910533
-0.015948075796269
-0.023044537910533
-0.015948075796269
-0.023044537910533
-0.015948075796269
-0.023044537910533
-0.015948075796269
-0.023044537910533
-0.015948075796269
-0.023044537910533
-0.015948075796269
-0.023044537910533
-0.015948075796269
-0.023044537910533
-0.015948075796269
-0.023044537910533
-0.015948075796269
-0.023044537910533
-0.015948075796269
-0.023044537910533
-0.015948075796269
-0.023044537910533
-0.015948075796269
-0.023044537910533
-0.015948075796269
-0.023044537910533
-0.015948075796269
-0.023044537910533
-0.015948075796269
0.000000000000000
-0.000000000000000
0.000456771723615
-0.013527254157223
0.000456771723615
-0.013527254157223
0.000456771723615
-0.013527254157223
0.000456771723615
-0.013527254157223
0.000456771723615
-0.013527254157223
0.000456771723615
-0.013527254157223
0.000456771723615
-0.013527254157223
0.000456771723615
-0.013527254157223
0.000456771723615
-0.013527254157223
0.000456771723615
-0.013527254157223
0.000456771723615
-0.013527254157223
0.000456771723615
-0.013527254157223
0.000456771723615
-0.013527254157223
0.000456771723615
-0.013527254157223
0.000456771723615
-0.013527254157223
-0.000000000000000
-0.000000000000000
-0.023044537910533
-0.015948075796269
-0.023044537910533
-0.015948075796269
-0.023044537910533
-0.015948075796269
-0.023044537910533
-0.015948075796269
-0.023044537910533
-0.015948075796269
-0.023044537910533
-0.015948075796269
-0.023044537910533
-0.015948075796269
-0.023044537910533
-0.015948075796269
-0.023044537910533
-0.015948075796269
-0.023044537910533
-0.015948075796269
-0.023044537910533
-0.015948075796269
-0.023044537910533
-0.015948075796269
-0.023044537910533
-0.015948075796269
-0.023044537910533
-0.015948075796269
-0.023044537910533
-0.015948075796269
0.000000000000000
-0.000000000000000
0.000456771723615
-0.013527254157223
0.000456771723615
-0.013527254157223
0.000456771723615
-0.013527254157223
0.000456771723615
-0.013527254157223
0.000456771723615
-0.013527254157223
0.000456771723615
-0.013527254157223
0.000456771723615
-0.013527254157223
0.000456771723615
-0.013527254157223
0.000456771723615
-0.013527254157223
0.000456771723615
-0.013527254157223
0.000456771723615
-0.013527254157223
0.000456771723615
-0.013527254157223
0.000456771723615
-0.013527254157223
0.000456771723615
-0.013527254157223
0.000456771723615
-0.013527254157223
-0.000000000000000
-0.000000000000000
-0.023044537910533
-0.015948075796269
-0.023044537910533
-0.015948075796269
-0.023044537910533
-0.015948075796269
-0.023044537910533
-0.015948075796269
-0.023044537910533
-0.015948075796269
-0.023044537910533
-0.015948075796269
-0.023044537910533
-0.015948075796269
-0.023044537910533
-0.015948075796269
-0.023044537910533
-0.015948075796269
-0.023044537910533
-0.015948075796269
-0.023044537910533
-0.015948075796269
-0.023044537910533
-0.015948075796269
-0.023044537910533
-0.015948075796269
-0.023044537910533
-0.015948075796269
-0.023044537910533
-0.015948075796269
0.000000000000000
-0.000000000000000
0.000456771723615
-0.013527254157223
0.000456771723615
-0.013527254157223
0.000456771723615
-0.013527254157223
0.000456771723615
-0.013527254157223
0.000456771723615
-0.013527254157223
0.000456771723615
-0.013527254157223
0.000456771723615
-0.013527254157223
0.000456771723615
-0.013527254157223
0.000456771723615
-0.013527254157223
0.000456771723615
-0.013527254157223
0.000456771723615
-0.013527254157223
0.000456771723615
-0.013527254157223
0.000456771723615
-0.013527254157223
0.000456771723615
-0.013527254157223
0.000456771723615
-0.013527254157223
-0.000000000000000
-0.000000000000000
-0.023044537910533
-0.015948075796269
-0.023044537910533
-0.015948075796269
-0.023044537910533
-0.015948075796269
-0.023044537910533
-0.015948075796269
-0.023044537910533
-0.015948075796269
-0.023044537910533
-0.015948075796269
-0.023044537910533
-0.015948075796269
-0.023044537910533
-0.015948075796269
-0.023044537910533
-0.015948075796269
-0.023044537910533
-0.015948075796269
-0.023044537910533
-0.015948075796269
-0.023044537910533
-0.015948075796269
-0.023044537910533
-0.015948075796269
-0.023044537910533
-0.015948075796269
-0.023044537910533
-0.015948075796269
0.000000000000000
-0.000000000000000
0.000456771723615
-0.013527254157223
0.000456771723615
-0.013527254157223
0.000456771723615
-0.013527254157223
0.000456771723615
-0.013527254157223
0.000456771723615
-0.013527254157223
0.000456771723615
-0.013527254157223
0.000456771723615
-0.013527254157223
0.000456771723615
-0.013527254157223
0.000456771723615
-0.013527254157223
0.000456771723615
-0.013527254157223
0.000456771723615
-0.013527254157223
0.000456771723615
-0.013527254157223
0.000456771723615
-0.013527254157223
0.000456771723615
-0.013527254157223
0.000456771723615
-0.013527254157223
-0.000000000000000
-0.000000000000000
-0.023044537910533
-0.015948075796269
-0.023044537910533
-0.015948075796269
-0.023044537910533
-0.015948075796269
-0.023044537910533
-0.015948075796269
-0.023044537910533
-0.015948075796269
-0.023044537910533
-0.015948075796269
-0.023044537910533
-0.015948075796269
-0.023044537910533
-0.015948075796269
-0.023044537910533
-0.015948075796269
-0.023044537910533
-0.015948075796269
-0.023044537910533
-0.015948075796269
-0.023044537910533
-0.015948075796269
-0.023044537910533
-0.015948075796269
-0.023044537910533
-0.015948075796269
-0.023044537910533
-0.015948075796269
0.000000000000000
-0.000000000000000
0.000456771723615
-0.013527254157223
0.000456771723615
-0.013527254157223
0.000456771723615
-0.013527254157223
0.000456771723615
-0.013527254157223
0.000456771723615
-0.013527254157223
0.000456771723615
-0.013527254157223
0.000456771723615
-0.013527254157223
0.000456771723615
-0.013527254157223
0.000456771723615
-0.013527254157223
0.000456771723615
-0.013527254157223
0.000456771723615
-0.013527254157223
0.000456771723615
-0.013527254157223
0.000456771723615
-0.013527254157223
0.000456771723615
-0.013527254157223
0.000456771723615
-0.013527254157223
-0.000000000000000
-0.000000000000000
-0.023044537910533
-0.015948075796269
-0.023044537910533
-0.015948075796269
-0.023044537910533
-0.015948075796269
-0.023044537910533
-0.015948075796269
-0.023044537910533
-0.015948075796269
-0.023044537910533
-0.015948075796269
-0.023044537910533
-0.015948075796269
-0.023044537910533
-0.015948075796269
-0.023044537910533
-0.015948075796269
-0.023044537910533
-0.015948075796269
-0.023044537910533
-0.015948075796269
-0.023044537910533
-0.015948075796269
-0.023044537910533
-0.015948075796269
-0.023044537910533
-0.015948075796269
-0.023044537910533
-0.015948075796269
0.000000000000000
-0.000000000000000
0.000456771723615
-0.013527254157223
0.000456771723615
-0.013527254157223
0.000456771723615
-0.013527254157223
0.000456771723615
-0.013527254157223
0.000456771723615
-0.013527254157223
0.000456771723615
-0.013527254157223
0.000456771723615
-0.013527254157223
0.000456771723615
-0.013527254157223
0.000456771723615
-0.013527254157223
0.000456771723615
-0.013527254157223
0.000456771723615
-0.013527254157223
0.000456771723615
-0.013527254157223
0.000456771723615
-0.013527254157223
0.000456771723615
-0.013527254157223
0.000456771723615
-0.013527254157223
-0.000000000000000
-0.000000000000000
-0.023044537910533
-0.015948075796269
-0.023044537910533
-0.015948075796269
-0.023044537910533
-0.015948075796269
-0.023044537910533
-0.015948075796269
-0.023044537910533
-0.015948075796269
-0.023044537910533
-0.015948075796269
-0.023044537910533
-0.015948075796269
-0.023044537910533
-0.015948075796269
-0.023044537910533
-0.015948075796269
-0.023044537910533
-0.015948075796269
-0.023044537910533
-0.015948075796269
-0.023044537910533
-0.015948075796269
-0.023044537910533
-0.015948075796269
-0.023044537910533
-0.015948075796269
-0.023044537910533
-0.015948075796269
0.000000000000000
-0.000000000000000
0.000456771723615
-0.013527254157223
0.000456771723615
-0.013527254157223
0.000456771723615
-0.013527254157223
0.000456771723615
-0.013527254157223
0.000456771723615
-0.013527254157223
0.000456771723615
-0.013527254157223
0.000456771723615
-0.013527254157223
0.000456771723615
-0.013527254157223
0.000456771723615
-0.013527254157223
0.000456771723615
-0.013527254157223
0.000456771723615
-0.013527254157223
0.000456771723615
-0.013527254157223
0.000456771723615
-0.013527254157223
0.000456771723615
-0.013527254157223
0.000456771723615
-0.013527254157223
-0.000000000000000
-0.000000000000000
-0.023044537910533
-0.015948075796269
-0.023044537910533
-0.015948075796269
-0.023044537910533
-0.015948075796269
-0.023044537910533
-0.015948075796269
-0.023044537910533
-0.015948075796269
-0.023044537910533
-0.015948075796269
-0.023044537910533
-0.015948075796269
-0.023044537910533
-0.015948075796269
-0.023044537910533
-0.015948075796269
-0.023044537910533
-0.015948075796269
-0.023044537910533
-0.015948075796269
-0.023044537910533
-0.015948075796269
-0.023044537910533
-0.015948075796269
-0.023044537910533
-0.015948075796269
-0.023044537910533
-0.015948075796269
0.000000000000000
-0.000000000000000
0.000456771723615
-0.013527254157223
0.000456771723615
-0.013527254157223
0.000456771723615
-0.013527254157223
0.000456771723615
-0.013527254157223
0.000456771723615
-0.013527254157223
0.000456771723615
-0.013527254157223
0.000456771723615
-0.013527254157223
0.000456771723615
-0.013527254157223
0.000456771723615
-0.013527254157223
0.000456771723615
-0.013527254157223
0.000456771723615
-0.013527254157223
0.000456771723615
-0.013527254157223
0.000456771723615
-0.013527254157223
0.000456771723615
-0.013527254157223
0.000456771723615
-0.013527254157223
-0.000000000000000
-0.000000000000000
-0.023044537910533
-0.015948075796269
-0.023044537910533
-0.015948075796269
-0.023044537910533
-0.015948075796269
-0.023044537910533
-0.015948075796269
-0.023044537910533
-0.015948075796269
-0.023044537910533
-0.015948075796269
-0.023044537910533
-0.015948075796269
-0.023044537910533
-0.015948075796269
-0.023044537910533
-0.015948075796269
-0.023044537910533
-0.015948075796269
-0.023044537910533
-0.015948075796269
-0.023044537910533
-0.015948075796269
-0.023044537910533
-0.015948075796269
-0.023044537910533
-0.015948075796269
-0.023044537910533
-0.015948075796269
0.000000000000000
-0.000000000000000
0.000456771723615
-0.013527254157223
0.000456771723615
-0.013527254157223
0.000456771723615
-0.013527254157223
0.000456771723615
-0.013527254157223
0.000456771723615
-0.013527254157223
0.000456771723615
-0.013527254157223
0.000456771723615
-0.013527254157223
0.000456771723615
-0.013527254157223
0.000456771723615
-0.013527254157223
0.000456771723615
-0.013527254157223
0.000456771723615
-0.013527254157223
0.000456771723615
-0.013527254157223
0.000456771723615
-0.013527254157223
0.000456771723615
-0.013527254157223
0.000456771723615
-0.013527254157223
-0.000000000000000
-0.000000000000000
-0.023044537910533
-0.015948075796269
-0.023044537910533
-0.015948075796269
-0.023044537910533
-0.015948075796269
-0.023044537910533
-0.015948075796269
-0.023044537910533
-0.015948075796269
-0.023044537910533
-0.015948075796269
-0.023044537910533
-0.015948075796269
-0.023044537910533
-0.015948075796269
-0.023044537910533
-0.015948075796269
-0.023044537910533
-0.015948075796269
-0.023044537910533
-0.015948075796269
-0.023044537910533
-0.015948075796269
-0.023044537910533
-0.015948075796269
-0.023044537910533
-0.015948075796269
-0.023044537910533
-0.015948075796269
0.000000000000000
-0.000000000000000
0.000456771723615
-0.013527254157223
0.000456771723615
-0.013527254157223
0.000456771723615
-0.013527254157223
0.000456771723615
-0.013527254157223
0.000456771723615
-0.013527254157223
0.000456771723615
-0.013527254157223
0.000456771723615
-0.013527254157223
0.000456771723615
-0.013527254157223
0.000456771723615
-0.013527254157223
0.000456771723615
-0.013527254157223
0.000456771723615
-0.013527254157223
0.000456771723615
-0.013527254157223
0.000456771723615
-0.013527254157223
0.000456771723615
-0.013527254157223
0.000456771723615
-0.013527254157223
-0.000000000000000
-0.000000000000000
-0.023044537910533
-0.015948075796269
-0.023044537910533
-0.015948075796269
-0.023044537910533
-0.015948075796269
-0.023044537910533
-0.015948075796269
-0.023044537910533
-0.015948075796269
-0.023044537910533
-0.015948075796269
-0.023044537910533
-0.015948075796269
-0.023044537910533
-0.015948075796269
-0.023044537910533
-0.015948075796269
-0.023044537910533
-0.015948075796269
-0.023044537910533
-0.015948075796269
-0.023044537910533
-0.015948075796269
-0.023044537910533
-0.015948075796269
-0.023044537910533
-0.015948075796269
-0.023044537910533
-0.015948075796269
0.000000000000000
-0.000000000000000
0.000456771723615
-0.013527254157223
0.000456771723615
-0.013527254157223
0.000456771723615
-0.013527254157223
0.000456771723615
-0.013527254157223
0.000456771723615
-0.013527254157223
0.000456771723615
-0.013527254157223
0.000456771723615
-0.013527254157223
0.000456771723615
-0.013527254157223
0.000456771723615
-0.013527254157223
0.000456771723615
-0.013527254157223
0.000456771723615
-0.013527254157223
0.000456771723615
-0.013527254157223
0.000456771723615
-0.013527254157223
0.000456771723615
-0.013527254157223
0.000456771723615
-0.013527254157223
-0.000000000000000
-0.000000000000000
-0.023044537910533
-0.015948075796269
-0.023044537910533
-0.015948075796269
-0.023044537910533
-0.015948075796269
-0.023044537910533
-0.015948075796269
-0.023044537910533
-0.015948075796269
-0.023044537910533
-0.015948075796269
-0.023044537910533
-0.015948075796269
-0.023044537910533
-0.015948075796269
-0.023044537910533
-0.015948075796269
-0.023044537910533
-0.015948075796269
-0.023044537910533
-0.015948075796269
-0.023044537910533
-0.015948075796269
-0.023044537910533
-0.015948075796269
-0.023044537910533
-0.015948075796269
-0.023044537910533
-0.015948075796269
0.000000000000000
-0.000000000000000
0.000456771723615
-0.013527254157223
0.000456771723615
-0.013527254157223
0.000456771723615
-0.013527254157223
0.000456771723615
-0.013527254157223
0.000456771723615
-0.013527254157223
0.000456771723615
-0.013527254157223
0.000456771723615
-0.013527254157223
0.000456771723615
-0.013527254157223
0.000456771723615
-0.013527254157223
0.000456771723615
-0.013527254157223
0.000456771723615
-0.013527254157223
0.000456771723615
-0.013527254157223
0.000456771723615
-0.013527254157223
0.000456771723615
-0.013527254157223
0.000456771723615
-0.013527254157223
-0.000000000000000
-0.000000000000000
-0.023044537910533
-0.015948075796269
-0.023044537910533
-0.015948075796269
-0.023044537910533
-0.015948075796269
-0.023044537910533
-0.015948075796269
-0.023044537910533
-0.015948075796269
-0.023044537910533
-0.015948075796269
-0.023044537910533
-0.015948075796269
-0.023044537910533
-0.015948075796269
-0.023044537910533
-0.015948075796269
-0.023044537910533
-0.015948075796269
-0.023044537910533
-0.015948075796269
-0.023044537910533
-0.015948075796269
-0.023044537910533
-0.015948075796269
-0.023044537910533
-0.015948075796269
-0.023044537910533
-0.015948075796269
0.000000000000000
-0.000000000000000
0.000456771723615
-0.013527254157223
0.000456771723615
-0.013527254157223
0.000456771723615
-0.013527254157223
0.000456771723615
-0.013527254157223
0.000456771723615
-0.013527254157223
0.000456771723615
-0.013527254157223
0.000456771723615
-0.013527254157223
0.000456771723615
-0.013527254157223
0.000456771723615
-0.013527254157223
0.000456771723615
-0.013527254157223
0.000456771723615
-0.013527254157223
0.000456771723615
-0.013527254157223
0.000456771723615
-0.013527254157223
0.000456771723615
-0.013527254157223
0.000456771723615
-0.013527254157223
0.000000000000000
-0.000000000000000
0.031651757928192
-0.012591505352661
0.031651757928192
-0.012591505352661
0.031651757928192
-0.012591505352661
0.031651757928192
-0.012591505352661
0.031651757928192
-0.012591505352661
0.031651757928192
-0.012591505352661
0.031651757928192
-0.012591505352661
0.031651757928192
-0.012591505352661
0.031651757928192
-0.012591505352661
0.031651757928192
-0.012591505352661
0.031651757928192
-0.012591505352661
0.031651757928192
-0.012591505352661
0.031651757928192
-0.012591505352661
0.031651757928192
-0.012591505352661
0.031651757928192
-0.012591505352661
0.000000000000000
-0.000000000000000
0.001138017554038
-0.004476137270914
0.001138017554038
-0.004476137270914
0.001138017554038
-0.004476137270914
0.001138017554038
-0.004476137270914
0.001138017554038
-0.004476137270914
0.001138017554038
-0.004476137270914
0.001138017554038
-0.004476137270914
0.001138017554038
-0.004476137270914
0.001138017554038
-0.004476137270914
0.001138017554038
-0.004476137270914
0.001138017554038
-0.004476137270914
0.001138017554038
-0.004476137270914
0.001138017554038
-0.004476137270914
0.001138017554038
-0.004476137270914
0.001138017554038
-0.004476137270914
0.000000000000000
-0.000000000000000
0.031651757928192
-0.012591505352661
0.031651757928192
-0.012591505352661
0.031651757928192
-0.012591505352661
0.031651757928192
-0.012591505352661
0.031651757928192
-0.012591505352661
0.031651757928192
-0.012591505352661
0.031651757928192
-0.012591505352661
0.031651757928192
-0.012591505352661
0.031651757928192
-0.012591505352661
0.031651757928192
-0.012591505352661
0.031651757928192
-0.012591505352661
0.031651757928192
-0.012591505352661
0.031651757928192
-0.012591505352661
0.031651757928192
-0.012591505352661
0.031651757928192
-0.012591505352661
0.000000000000000
-0.000000000000000
0.001138017554038
-0.004476137270914
0.001138017554038
-0.004476137270914
0.001138017554038
-0.004476137270914
0.001138017554038
-0.004476137270914
0.001138017554038
-0.004476137270914
0.001138017554038
-0.004476137270914
0.001138017554038
-0.004476137270914
0.001138017554038
-0.004476137270914
0.001138017554038
-0.004476137270914
0.001138017554038
-0.004476137270914
0.001138017554038
-0.004476137270914
0.001138017554038
-0.004476137270914
0.001138017554038
-0.004476137270914
0.001138017554038
-0.004476137270914
0.001138017554038
-0.004476137270914
0.000000000000000
-0.000000000000000
0.031651757928192
-0.012591505352661
0.031651757928192
-0.012591505352661
0.031651757928192
-0.012591505352661
0.031651757928192
-0.012591505352661
0.031651757928192
-0.012591505352661
0.031651757928192
-0.012591505352661
0.031651757928192
-0.012591505352661
0.031651757928192
-0.012591505352661
0.031651757928192
-0.012591505352661
0.031651757928192
-0.012591505352661
0.031651757928192
-0.012591505352661
0.031651757928192
-0.012591505352661
0.031651757928192
-0.012591505352661
0.031651757928192
-0.012591505352661
0.031651757928192
-0.012591505352661
0.000000000000000
-0.000000000000000
0.001138017554038
-0.004476137270914
0.001138017554038
-0.004476137270914
0.001138017554038
-0.004476137270914
0.001138017554038
-0.004476137270914
0.001138017554038
-0.004476137270914
0.001138017554038
-0.004476137270914
0.001138017554038
-0.004476137270914
0.001138017554038
-0.004476137270914
0.001138017554038
-0.004476137270914
0.001138017554038
-0.004476137270914
0.001138017554038
-0.004476137270914
0.001138017554038
-0.004476137270914
0.001138017554038
-0.004476137270914
0.001138017554038
-0.004476137270914
0.001138017554038
-0.004476137270914
0.000000000000000
-0.000000000000000
0.031651757928192
-0.012591505352661
0.031651757928192
-0.012591505352661
0.031651757928192
-0.012591505352661
0.031651757928192
-0.012591505352661
0.031651757928192
-0.012591505352661
0.031651757928192
-0.012591505352661
0.031651757928192
-0.012591505352661
0.031651757928192
-0.012591505352661
0.031651757928192
-0.012591505352661
0.031651757928192
-0.012591505352661
0.031651757928192
-0.012591505352661
0.031651757928192
-0.012591505352661
0.031651757928192
-0.012591505352661
0.031651757928192
-0.012591505352661
0.031651757928192
-0.012591505352661
0.000000000000000
-0.000000000000000
0.001138017554038
-0.004476137270914
0.001138017554038
-0.004476137270914
0.001138017554038
-0.004476137270914
0.001138017554038
-0.004476137270914
0.001138017554038
-0.004476137270914
0.001138017554038
-0.004476137270914
0.001138017554038
-0.004476137270914
0.001138017554038
-0.004476137270914
0.001138017554038
-0.004476137270914
0.001138017554038
-0.004476137270914
0.001138017554038
-0.004476137270914
0.001138017554038
-0.004476137270914
0.001138017554038
-0.004476137270914
0.001138017554038
-0.004476137270914
0.001138017554038
-0.004476137270914
0.000000000000000
-0.000000000000000
0.031651757928192
-0.012591505352661
0.031651757928192
-0.012591505352661
0.031651757928192
-0.012591505352661
0.031651757928192
-0.012591505352661
0.031651757928192
-0.012591505352661
0.031651757928192
-0.012591505352661
0.031651757928192
-0.012591505352661
0.031651757928192
-0.012591505352661
0.031651757928192
-0.012591505352661
0.031651757928192
-0.012591505352661
0.031651757928192
-0.012591505352661
0.031651757928192
-0.012591505352661
0.031651757928192
-0.012591505352661
0.031651757928192
-0.012591505352661
0.031651757928192
-0.012591505352661
0.000000000000000
-0.000000000000000
0.001138017554038
-0.004476137270914
0.001138017554038
-0.004476137270914
0.001138017554038
-0.004476137270914
0.001138017554038
-0.004476137270914
0.001138017554038
-0.004476137270914
0.001138017554038
-0.004476137270914
0.001138017554038
-0.004476137270914
0.001138017554038
-0.004476137270914
0.001138017554038
-0.004476137270914
0.001138017554038
-0.004476137270914
0.001138017554038
-0.004476137270914
0.001138017554038
-0.004476137270914
0.001138017554038
-0.004476137270914
0.001138017554038
-0.004476137270914
0.001138017554038
-0.004476137270914
0.000000000000000
-0.000000000000000
0.031651757928192
-0.012591505352661
0.031651757928192
-0.012591505352661
0.031651757928192
-0.012591505352661
0.031651757928192
-0.012591505352661
0.031651757928192
-0.012591505352661
0.031651757928192
-0.012591505352661
0.031651757928192
-0.012591505352661
0.031651757928192
-0.012591505352661
0.031651757928192
-0.012591505352661
0.031651757928192
-0.012591505352661
0.031651757928192
-0.012591505352661
0.031651757928192
-0.012591505352661
0.031651757928192
-0.012591505352661
0.031651757928192
-0.012591505352661
0.031651757928192
-0.012591505352661
0.000000000000000
-0.000000000000000
0.001138017554038
-0.004476137270914
0.001138017554038
-0.004476137270914
0.001138017554038
-0.004476137270914
0.001138017554038
-0.004476137270914
0.001138017554038
-0.004476137270914
0.001138017554038
-0.004476137270914
0.001138017554038
-0.004476137270914
0.001138017554038
-0.004476137270914
0.001138017554038
-0.004476137270914
0.001138017554038
-0.004476137270914
0.001138017554038
-0.004476137270914
0.001138017554038
-0.004476137270914
0.001138017554038
-0.004476137270914
0.001138017554038
-0.004476137270914
0.001138017554038
-0.004476137270914
0.000000000000000
-0.000000000000000
0.031651757928192
-0.012591505352661
0.031651757928192
-0.012591505352661
0.031651757928192
-0.012591505352661
0.031651757928192
-0.012591505352661
0.031651757928192
-0.012591505352661
0.031651757928192
-0.012591505352661
0.031651757928192
-0.012591505352661
0.031651757928192
-0.012591505352661
0.031651757928192
-0.012591505352661
0.031651757928192
-0.012591505352661
0.031651757928192
-0.012591505352661
0.031651757928192
-0.012591505352661
0.031651757928192
-0.012591505352661
0.031651757928192
-0.012591505352661
0.031651757928192
-0.012591505352661
0.000000000000000
-0.000000000000000
0.001138017554038
-0.004476137270914
0.001138017554038
-0.004476137270914
0.001138017554038
-0.004476137270914
0.001138017554038
-0.004476137270914
0.001138017554038
-0.004476137270914
0.001138017554038
-0.004476137270914
0.001138017554038
-0.004476137270914
0.001138017554038
-0.004476137270914
0.001138017554038
-0.004476137270914
0.001138017554038
-0.004476137270914
0.001138017554038
-0.004476137270914
0.001138017554038
-0.004476137270914
0.001138017554038
-0.004476137270914
0.001138017554038
-0.004476137270914
0.001138017554038
-0.004476137270914
0.000000000000000
-0.000000000000000
0.031651757928192
-0.012591505352661
0.031651757928192
-0.012591505352661
0.031651757928192
-0.012591505352661
0.031651757928192
-0.012591505352661
0.031651757928192
-0.012591505352661
0.031651757928192
-0.012591505352661
0.031651757928192
-0.012591505352661
0.031651757928192
-0.012591505352661
0.031651757928192
-0.012591505352661
0.031651757928192
-0.012591505352661
0.031651757928192
-0.012591505352661
0.031651757928192
-0.012591505352661
0.031651757928192
-0.012591505352661
0.031651757928192
-0.012591505352661
0.031651757928192
-0.012591505352661
0.000000000000000
-0.000000000000000
0.001138017554038
-0.004476137270914
0.001138017554038
-0.004476137270914
0.001138017554038
-0.004476137270914
0.001138017554038
-0.004476137270914
0.001138017554038
-0.004476137270914
0.001138017554038
-0.004476137270914
0.001138017554038
-0.004476137270914
0.001138017554038
-0.004476137270914
0.001138017554038
-0.004476137270914
0.001138017554038
-0.004476137270914
0.001138017554038
-0.004476137270914
0.001138017554038
-0.004476137270914
0.001138017554038
-0.004476137270914
0.001138017554038
-0.004476137270914
0.001138017554038
-0.004476137270914
0.000000000000000
-0.000000000000000
0.031651757928192
-0.012591505352661
0.031651757928192
-0.012591505352661
0.031651757928192
-0.012591505352661
0.031651757928192
-0.012591505352661
0.031651757928192
-0.012591505352661
0.031651757928192
-0.012591505352661
0.031651757928192
-0.012591505352661
0.031651757928192
-0.012591505352661
0.031651757928192
-0.012591505352661
0.031651757928192
-0.012591505352661
0.031651757928192
-0.012591505352661
0.031651757928192
-0.012591505352661
0.031651757928192
-0.012591505352661
0.031651757928192
-0.012591505352661
0.031651757928192
-0.012591505352661
0.000000000000000
-0.000000000000000
0.001138017554038
-0.004476137270914
0.001138017554038
-0.004476137270914
0.001138017554038
-0.004476137270914
0.001138017554038
-0.004476137270914
0.001138017554038
-0.004476137270914
0.001138017554038
-0.004476137270914
0.001138017554038
-0.004476137270914
0.001138017554038
-0.004476137270914
0.001138017554038
-0.004476137270914
0.001138017554038
-0.004476137270914
0.001138017554038
-0.004476137270914
0.001138017554038
-0.004476137270914
0.001138017554038
-0.004476137270914
0.001138017554038
-0.004476137270914
0.001138017554038
-0.004476137270914
0.000000000000000
-0.000000000000000
0.031651757928192
-0.012591505352661
0.031651757928192
-0.012591505352661
0.031651757928192
-0.012591505352661
0.031651757928192
-0.012591505352661
0.031651757928192
-0.012591505352661
0.031651757928192
-0.012591505352661
0.031651757928192
-0.012591505352661
0.031651757928192
-0.012591505352661
0.031651757928192
-0.012591505352661
0.031651757928192
-0.012591505352661
0.031651757928192
-0.012591505352661
0.031651757928192
-0.012591505352661
0.031651757928192
-0.012591505352661
0.031651757928192
-0.012591505352661
0.031651757928192
-0.012591505352661
0.000000000000000
-0.000000000000000
0.001138017554038
-0.004476137270914
0.001138017554038
-0.004476137270914
0.001138017554038
-0.004476137270914
0.001138017554038
-0.004476137270914
0.001138017554038
-0.004476137270914
0.001138017554038
-0.004476137270914
0.001138017554038
-0.004476137270914
0.001138017554038
-0.004476137270914
0.001138017554038
-0.004476137270914
0.001138017554038
-0.004476137270914
0.001138017554038
-0.004476137270914
0.001138017554038
-0.004476137270914
0.001138017554038
-0.004476137270914
0.001138017554038
-0.004476137270914
0.001138017554038
-0.004476137270914
0.000000000000000
-0.000000000000000
0.031651757928192
-0.012591505352661
0.031651757928192
-0.012591505352661
0.031651757928192
-0.012591505352661
0.031651757928192
-0.012591505352661
0.031651757928192
-0.012591505352661
0.031651757928192
-0.012591505352661
0.031651757928192
-0.012591505352661
0.031651757928192
-0.012591505352661
0.031651757928192
-0.012591505352661
0.031651757928192
-0.012591505352661
0.031651757928192
-0.012591505352661
0.031651757928192
-0.012591505352661
0.031651757928192
-0.012591505352661
0.031651757928192
-0.012591505352661
0.031651757928192
-0.012591505352661
0.000000000000000
-0.000000000000000
0.001138017554038
-0.004476137270914
0.001138017554038
-0.004476137270914
0.001138017554038
-0.004476137270914
0.001138017554038
-0.004476137270914
0.001138017554038
-0.004476137270914
0.001138017554038
-0.004476137270914
0.001138017554038
-0.004476137270914
0.001138017554038
-0.004476137270914
0.001138017554038
-0.004476137270914
0.001138017554038
-0.004476137270914
0.001138017554038
-0.004476137270914
0.001138017554038
-0.004476137270914
0.001138017554038
-0.004476137270914
0.001138017554038
-0.004476137270914
0.001138017554038
-0.004476137270914
0.000000000000000
-0.000000000000000
0.031651757928192
-0.012591505352661
0.031651757928192
-0.012591505352661
0.031651757928192
-0.012591505352661
0.031651757928192
-0.012591505352661
0.031651757928192
-0.012591505352661
0.031651757928192
-0.012591505352661
0.031651757928192
-0.012591505352661
0.031651757928192
-0.012591505352661
0.031651757928192
-0.012591505352661
0.031651757928192
-0.012591505352661
0.031651757928192
-0.012591505352661
0.031651757928192
-0.012591505352661
0.031651757928192
-0.012591505352661
0.031651757928192
-0.012591505352661
0.031651757928192
-0.012591505352661
0.000000000000000
-0.000000000000000
0.001138017554038
-0.004476137270914
0.001138017554038
-0.004476137270914
0.001138017554038
-0.004476137270914
0.001138017554038
-0.004476137270914
0.001138017554038
-0.004476137270914
0.001138017554038
-0.004476137270914
0.001138017554038
-0.004476137270914
0.001138017554038
-0.004476137270914
0.001138017554038
-0.004476137270914
0.001138017554038
-0.004476137270914
0.001138017554038
-0.004476137270914
0.001138017554038
-0.004476137270914
0.001138017554038
-0.004476137270914
0.001138017554038
-0.004476137270914
0.001138017554038
-0.004476137270914
0.000000000000000
-0.000000000000000
0.031651757928192
-0.012591505352661
0.031651757928192
-0.012591505352661
0.031651757928192
-0.012591505352661
0.031651757928192
-0.012591505352661
0.031651757928192
-0.012591505352661
0.031651757928192
-0.012591505352661
0.031651757928192
-0.012591505352661
0.031651757928192
-0.012591505352661
0.031651757928192
-0.012591505352661
0.031651757928192
-0.012591505352661
0.031651757928192
-0.012591505352661
0.031651757928192
-0.012591505352661
0.031651757928192
-0.012591505352661
0.031651757928192
-0.012591505352661
0.031651757928192
-0.012591505352661
0.000000000000000
-0.000000000000000
0.001138017554038
-0.004476137270914
0.001138017554038
-0.004476137270914
0.001138017554038
-0.004476137270914
0.001138017554038
-0.004476137270914
0.001138017554038
-0.004476137270914
0.001138017554038
-0.004476137270914
0.001138017554038
-0.004476137270914
0.001138017554038
-0.004476137270914
0.001138017554038
-0.004476137270914
0.001138017554038
-0.004476137270914
0.001138017554038
-0.004476137270914
0.001138017554038
-0.004476137270914
0.001138017554038
-0.004476137270914
0.001138017554038
-0.004476137270914
0.001138017554038
-0.004476137270914
0.000000000000000
-0.000000000000000
0.031651757928192
-0.012591505352661
0.031651757928192
-0.012591505352661
0.031651757928192
-0.012591505352661
0.031651757928192
-0.012591505352661
0.031651757928192
-0.012591505352661
0.031651757928192
-0.012591505352661
0.031651757928192
-0.012591505352661
0.031651757928192
-0.012591505352661
0.031651757928192
-0.012591505352661
0.031651757928192
-0.012591505352661
0.031651757928192
-0.012591505352661
0.031651757928192
-0.012591505352661
0.031651757928192
-0.012591505352661
0.031651757928192
-0.012591505352661
0.031651757928192
-0.012591505352661
0.000000000000000
-0.000000000000000
0.001138017554038
-0.004476137270914
0.001138017554038
-0.004476137270914
0.001138017554038
-0.004476137270914
0.001138017554038
-0.004476137270914
0.001138017554038
-0.004476137270914
0.001138017554038
-0.004476137270914
0.001138017554038
-0.004476137270914
0.001138017554038
-0.004476137270914
0.001138017554038
-0.004476137270914
0.001138017554038
-0.004476137270914
0.001138017554038
-0.004476137270914
0.001138017554038
-0.004476137270914
0.001138017554038
-0.004476137270914
0.001138017554038
-0.004476137270914
0.001138017554038
-0.004476137270914
0.000000000000000
-0.000000000000000
0.031651757928192
-0.012591505352661
0.031651757928192
-0.012591505352661
0.031651757928192
-0.012591505352661
0.031651757928192
-0.012591505352661
0.031651757928192
-0.012591505352661
0.031651757928192
-0.012591505352661
0.031651757928192
-0.012591505352661
0.031651757928192
-0.012591505352661
0.031651757928192
-0.012591505352661
0.031651757928192
-0.012591505352661
0.031651757928192
-0.012591505352661
0.031651757928192
-0.012591505352661
0.031651757928192
-0.012591505352661
0.031651757928192
-0.012591505352661
0.031651757928192
-0.012591505352661
0.000000000000000
-0.000000000000000
0.001138017554038
-0.004476137270914
0.001138017554038
-0.004476137270914
0.001138017554038
-0.004476137270914
0.001138017554038
-0.004476137270914
0.001138017554038
-0.004476137270914
0.001138017554038
-0.004476137270914
0.001138017554038
-0.004476137270914
0.001138017554038
-0.004476137270914
0.001138017554038
-0.004476137270914
0.001138017554038
-0.004476137270914
0.001138017554038
-0.004476137270914
0.001138017554038
-0.004476137270914
0.001138017554038
-0.004476137270914
0.001138017554038
-0.004476137270914
0.001138017554038
-0.004476137270914
0.000000000000000
-0.000000000000000
0.031651757928192
-0.012591505352661
0.031651757928192
-0.012591505352661
0.031651757928192
-0.012591505352661
0.031651757928192
-0.012591505352661
0.031651757928192
-0.012591505352661
0.031651757928192
-0.012591505352661
0.031651757928192
-0.012591505352661
0.031651757928192
-0.012591505352661
0.031651757928192
-0.012591505352661
0.031651757928192
-0.012591505352661
0.031651757928192
-0.012591505352661
0.031651757928192
-0.012591505352661
0.031651757928192
-0.012591505352661
0.031651757928192
-0.012591505352661
0.031651757928192
-0.012591505352661
0.000000000000000
-0.000000000000000
0.001138017554038
-0.004476137270914
0.001138017554038
-0.004476137270914
0.001138017554038
-0.004476137270914
0.001138017554038
-0.004476137270914
0.001138017554038
-0.004476137270914
0.001138017554038
-0.004476137270914
0.001138017554038
-0.004476137270914
0.001138017554038
-0.004476137270914
0.001138017554038
-0.004476137270914
0.001138017554038
-0.004476137270914
0.001138017554038
-0.004476137270914
0.001138017554038
-0.004476137270914
0.001138017554038
-0.004476137270914
0.001138017554038
-0.004476137270914
0.001138017554038
-0.004476137270914
-0.000000000000000
0.000000000000000
-0.033406045019690
0.000231812108257
-0.033406045019690
0.000231812108257
-0.033406045019690
0.000231812108257
-0.033406045019690
0.000231812108257
-0.033406045019690
0.000231812108257
-0.033406045019690
0.000231812108257
-0.033406045019690
0.000231812108257
-0.033406045019690
0.000231812108257
-0.033406045019690
0.000231812108257
-0.033406045019690
0.000231812108257
-0.033406045019690
0.000231812108257
-0.033406045019690
0.000231812108257
-0.033406045019690
0.000231812108257
-0.033406045019690
0.000231812108257
-0.033406045019690
0.000231812108257
-0.000000000000000
0.000000000000000
-0.023176230352248
0.011823507773642
-0.023176230352248
0.011823507773642
-0.023176230352248
0.011823507773642
-0.023176230352248
0.011823507773642
-0.023176230352248
0.011823507773642
-0.023176230352248
0.011823507773642
-0.023176230352248
0.011823507773642
-0.023176230352248
0.011823507773642
-0.023176230352248
0.011823507773642
-0.023176230352248
0.011823507773642
-0.023176230352248
0.011823507773642
-0.023176230352248
0.011823507773642
-0.023176230352248
0.011823507773642
-0.023176230352248
0.011823507773642
-0.023176230352248
0.011823507773642
-0.000000000000000
0.000000000000000
-0.033406045019690
0.000231812108257
-0.033406045019690
0.000231812108257
-0.033406045019690
0.000231812108257
-0.033406045019690
0.000231812108257
-0.033406045019690
0.000231812108257
-0.033406045019690
0.000231812108257
-0.033406045019690
0.000231812108257
-0.033406045019690
0.000231812108257
-0.033406045019690
0.000231812108257
-0.033406045019690
0.000231812108257
-0.033406045019690
0.000231812108257
-0.033406045019690
0.000231812108257
-0.033406045019690
0.000231812108257
-0.033406045019690
0.000231812108257
-0.033406045019690
0.000231812108257
-0.000000000000000
0.000000000000000
-0.023176230352248
0.011823507773642
-0.023176230352248
0.011823507773642
-0.023176230352248
0.011823507773642
-0.023176230352248
0.011823507773642
-0.023176230352248
0.011823507773642
-0.023176230352248
0.011823507773642
-0.023176230352248
0.011823507773642
-0.023176230352248
0.011823507773642
-0.023176230352248
0.011823507773642
-0.023176230352248
0.011823507773642
-0.023176230352248
0.011823507773642
-0.023176230352248
0.011823507773642
-0.023176230352248
0.011823507773642
-0.023176230352248
0.011823507773642
-0.023176230352248
0.011823507773642
-0.000000000000000
0.000000000000000
-0.033406045019690
0.000231812108257
-0.033406045019690
0.000231812108257
-0.033406045019690
0.000231812108257
-0.033406045019690
0.000231812108257
-0.033406045019690
0.000231812108257
-0.033406045019690
0.000231812108257
-0.033406045019690
0.000231812108257
-0.033406045019690
0.000231812108257
-0.033406045019690
0.000231812108257
-0.033406045019690
0.000231812108257
-0.033406045019690
0.000231812108257
-0.033406045019690
0.000231812108257
-0.033406045019690
0.000231812108257
-0.033406045019690
0.000231812108257
-0.033406045019690
0.000231812108257
-0.000000000000000
0.000000000000000
-0.023176230352248
0.011823507773642
-0.023176230352248
0.011823507773642
-0.023176230352248
0.011823507773642
-0.023176230352248
0.011823507773642
-0.023176230352248
0.011823507773642
-0.023176230352248
0.011823507773642
-0.023176230352248
0.011823507773642
-0.023176230352248
0.011823507773642
-0.023176230352248
0.011823507773642
-0.023176230352248
0.011823507773642
-0.023176230352248
0.011823507773642
-0.023176230352248
0.011823507773642
-0.023176230352248
0.011823507773642
-0.023176230352248
0.011823507773642
-0.023176230352248
0.011823507773642
-0.000000000000000
0.000000000000000
-0.033406045019690
0.000231812108257
-0.033406045019690
0.000231812108257
-0.033406045019690
0.000231812108257
-0.033406045019690
0.000231812108257
-0.033406045019690
0.000231812108257
-0.033406045019690
0.000231812108257
-0.033406045019690
0.000231812108257
-0.033406045019690
0.000231812108257
-0.033406045019690
0.000231812108257
-0.033406045019690
0.000231812108257
-0.033406045019690
0.000231812108257
-0.033406045019690
0.000231812108257
-0.033406045019690
0.000231812108257
-0.033406045019690
0.000231812108257
-0.033406045019690
0.000231812108257
-0.000000000000000
0.000000000000000
-0.023176230352248
0.011823507773642
-0.023176230352248
0.011823507773642
-0.023176230352248
0.011823507773642
-0.023176230352248
0.011823507773642
-0.023176230352248
0.011823507773642
-0.023176230352248
0.011823507773642
-0.023176230352248
0.011823507773642
-0.023176230352248
0.011823507773642
-0.023176230352248
0.011823507773642
-0.023176230352248
0.011823507773642
-0.023176230352248
0.011823507773642
-0.023176230352248
0.011823507773642
-0.023176230352248
0.011823507773642
-0.023176230352248
0.011823507773642
-0.023176230352248
0.011823507773642
-0.000000000000000
0.000000000000000
-0.033406045019690
0.000231812108257
-0.033406045019690
0.000231812108257
-0.033406045019690
0.000231812108257
-0.033406045019690
0.000231812108257
-0.033406045019690
0.000231812108257
-0.033406045019690
0.000231812108257
-0.033406045019690
0.000231812108257
-0.033406045019690
0.000231812108257
-0.033406045019690
0.000231812108257
-0.033406045019690
0.000231812108257
-0.033406045019690
0.000231812108257
-0.033406045019690
0.000231812108257
-0.033406045019690
0.000231812108257
-0.033406045019690
0.000231812108257
-0.033406045019690
0.000231812108257
-0.000000000000000
0.000000000000000
-0.023176230352248
0.011823507773642
-0.023176230352248
0.011823507773642
-0.023176230352248
0.011823507773642
-0.023176230352248
0.011823507773642
-0.023176230352248
0.011823507773642
-0.023176230352248
0.011823507773642
-0.023176230352248
0.011823507773642
-0.023176230352248
0.011823507773642
-0.023176230352248
0.011823507773642
-0.023176230352248
0.011823507773642
-0.023176230352248
0.011823507773642
-0.023176230352248
0.011823507773642
-0.023176230352248
0.011823507773642
-0.023176230352248
0.011823507773642
-0.023176230352248
0.011823507773642
-0.000000000000000
0.000000000000000
-0.033406045019690
0.000231812108257
-0.033406045019690
0.000231812108257
-0.033406045019690
0.000231812108257
-0.033406045019690
0.000231812108257
-0.033406045019690
0.000231812108257
-0.033406045019690
0.000231812108257
-0.033406045019690
0.000231812108257
-0.033406045019690
0.000231812108257
-0.033406045019690
0.000231812108257
-0.033406045019690
0.000231812108257
-0.033406045019690
0.000231812108257
-0.033406045019690
0.000231812108257
-0.033406045019690
0.000231812108257
-0.033406045019690
0.000231812108257
-0.033406045019690
0.000231812108257
-0.000000000000000
0.000000000000000
-0.023176230352248
0.011823507773642
-0.023176230352248
0.011823507773642
-0.023176230352248
0.011823507773642
-0.023176230352248
0.011823507773642
-0.023176230352248
0.011823507773642
-0.023176230352248
0.011823507773642
-0.023176230352248
0.011823507773642
-0.023176230352248
0.011823507773642
-0.023176230352248
0.011823507773642
-0.023176230352248
0.011823507773642
-0.023176230352248
0.011823507773642
-0.023176230352248
0.011823507773642
-0.023176230352248
0.011823507773642
-0.023176230352248
0.011823507773642
-0.023176230352248
0.011823507773642
-0.000000000000000
0.000000000000000
-0.033406045019690
0.000231812108257
-0.033406045019690
0.000231812108257
-0.033406045019690
0.000231812108257
-0.033406045019690
0.000231812108257
-0.033406045019690
0.000231812108257
-0.033406045019690
0.000231812108257
-0.033406045019690
0.000231812108257
-0.033406045019690
0.000231812108257
-0.033406045019690
0.000231812108257
-0.033406045019690
0.000231812108257
-0.033406045019690
0.000231812108257
-0.033406045019690
0.000231812108257
-0.033406045019690
0.000231812108257
-0.033406045019690
0.000231812108257
-0.033406045019690
0.000231812108257
-0.000000000000000
0.000000000000000
-0.023176230352248
0.011823507773642
-0.023176230352248
0.011823507773642
-0.023176230352248
0.011823507773642
-0.023176230352248
0.011823507773642
-0.023176230352248
0.011823507773642
-0.023176230352248
0.011823507773642
-0.023176230352248
0.011823507773642
-0.023176230352248
0.011823507773642
-0.023176230352248
0.011823507773642
-0.023176230352248
0.011823507773642
-0.023176230352248
0.011823507773642
-0.023176230352248
0.011823507773642
-0.023176230352248
0.011823507773642
-0.023176230352248
0.011823507773642
-0.023176230352248
0.011823507773642
-0.000000000000000
0.000000000000000
-0.033406045019690
0.000231812108257
-0.033406045019690
0.000231812108257
-0.033406045019690
0.000231812108257
-0.033406045019690
0.000231812108257
-0.033406045019690
0.000231812108257
-0.033406045019690
0.000231812108257
-0.033406045019690
0.000231812108257
-0.033406045019690
0.000231812108257
-0.033406045019690
0.000231812108257
-0.033406045019690
0.000231812108257
-0.033406045019690
0.000231812108257
-0.033406045019690
0.000231812108257
-0.033406045019690
0.000231812108257
-0.033406045019690
0.000231812108257
-0.033406045019690
0.000231812108257
-0.000000000000000
0.000000000000000
-0.023176230352248
0.011823507773642
-0.023176230352248
0.011823507773642
-0.023176230352248
0.011823507773642
-0.023176230352248
0.011823507773642
-0.023176230352248
0.011823507773642
-0.023176230352248
0.011823507773642
-0.023176230352248
0.011823507773642
-0.023176230352248
0.011823507773642
-0.023176230352248
0.011823507773642
-0.023176230352248
0.011823507773642
-0.023176230352248
0.011823507773642
-0.023176230352248
0.011823507773642
-0.023176230352248
0.011823507773642
-0.023176230352248
0.011823507773642
-0.023176230352248
0.011823507773642
-0.000000000000000
0.000000000000000
-0.033406045019690
0.000231812108257
-0.033406045019690
0.000231812108257
-0.033406045019690
0.000231812108257
-0.033406045019690
0.000231812108257
-0.033406045019690
0.000231812108257
-0.033406045019690
0.000231812108257
-0.033406045019690
0.000231812108257
-0.033406045019690
0.000231812108257
-0.033406045019690
0.000231812108257
-0.033406045019690
0.000231812108257
-0.033406045019690
0.000231812108257
-0.033406045019690
0.000231812108257
-0.033406045019690
0.000231812108257
-0.033406045019690
0.000231812108257
-0.033406045019690
0.000231812108257
-0.000000000000000
0.000000000000000
-0.023176230352248
0.011823507773642
-0.023176230352248
0.011823507773642
-0.023176230352248
0.011823507773642
-0.023176230352248
0.011823507773642
-0.023176230352248
0.011823507773642
-0.023176230352248
0.011823507773642
-0.023176230352248
0.011823507773642
-0.023176230352248
0.011823507773642
-0.023176230352248
0.011823507773642
-0.023176230352248
0.011823507773642
-0.023176230352248
0.011823507773642
-0.023176230352248
0.011823507773642
-0.023176230352248
0.011823507773642
-0.023176230352248
0.011823507773642
-0.023176230352248
0.011823507773642
-0.000000000000000
0.000000000000000
-0.033406045019690
0.000231812108257
-0.033406045019690
0.000231812108257
-0.033406045019690
0.000231812108257
-0.033406045019690
0.000231812108257
-0.033406045019690
0.000231812108257
-0.033406045019690
0.000231812108257
-0.033406045019690
0.000231812108257
-0.033406045019690
0.000231812108257
-0.033406045019690
0.000231812108257
-0.033406045019690
0.000231812108257
-0.033406045019690
0.000231812108257
-0.033406045019690
0.000231812108257
-0.033406045019690
0.000231812108257
-0.033406045019690
0.000231812108257
-0.033406045019690
0.000231812108257
-0.000000000000000
0.000000000000000
-0.023176230352248
0.011823507773642
-0.023176230352248
0.011823507773642
-0.023176230352248
0.011823507773642
-0.023176230352248
0.011823507773642
-0.023176230352248
0.011823507773642
-0.023176230352248
0.011823507773642
-0.023176230352248
0.011823507773642
-0.023176230352248
0.011823507773642
-0.023176230352248
0.011823507773642
-0.023176230352248
0.011823507773642
-0.023176230352248
0.011823507773642
-0.023176230352248
0.011823507773642
-0.023176230352248
0.011823507773642
-0.023176230352248
0.011823507773642
-0.023176230352248
0.011823507773642
-0.000000000000000
0.000000000000000
-0.033406045019690
0.000231812108257
-0.033406045019690
0.000231812108257
-0.033406045019690
0.000231812108257
-0.033406045019690
0.000231812108257
-0.033406045019690
0.000231812108257
-0.033406045019690
0.000231812108257
-0.033406045019690
0.000231812108257
-0.033406045019690
0.000231812108257
-0.033406045019690
0.000231812108257
-0.033406045019690
0.000231812108257
-0.033406045019690
0.000231812108257
-0.033406045019690
0.000231812108257
-0.033406045019690
0.000231812108257
-0.033406045019690
0.000231812108257
-0.033406045019690
0.000231812108257
-0.000000000000000
0.000000000000000
-0.023176230352248
0.011823507773642
-0.023176230352248
0.011823507773642
-0.023176230352248
0.011823507773642
-0.023176230352248
0.011823507773642
-0.023176230352248
0.011823507773642
-0.023176230352248
0.011823507773642
-0.023176230352248
0.011823507773642
-0.023176230352248
0.011823507773642
-0.023176230352248
0.011823507773642
-0.023176230352248
0.011823507773642
-0.023176230352248
0.011823507773642
-0.023176230352248
0.011823507773642
-0.023176230352248
0.011823507773642
-0.023176230352248
0.011823507773642
-0.023176230352248
0.011823507773642
-0.000000000000000
0.000000000000000
-0.033406045019690
0.000231812108257
-0.033406045019690
0.000231812108257
-0.033406045019690
0.000231812108257
-0.033406045019690
0.000231812108257
-0.033406045019690
0.000231812108257
-0.033406045019690
0.000231812108257
-0.033406045019690
0.000231812108257
-0.033406045019690
0.000231812108257
-0.033406045019690
0.000231812108257
-0.033406045019690
0.000231812108257
-0.033406045019690
0.000231812108257
-0.033406045019690
0.000231812108257
-0.033406045019690
0.000231812108257
-0.033406045019690
0.000231812108257
-0.033406045019690
0.000231812108257
-0.000000000000000
0.000000000000000
-0.023176230352248
0.011823507773642
-0.023176230352248
0.011823507773642
-0.023176230352248
0.011823507773642
-0.023176230352248
0.011823507773642
-0.023176230352248
0.011823507773642
-0.023176230352248
0.011823507773642
-0.023176230352248
0.011823507773642
-0.023176230352248
0.011823507773642
-0.023176230352248
0.011823507773642
-0.023176230352248
0.011823507773642
-0.023176230352248
0.011823507773642
-0.023176230352248
0.011823507773642
-0.023176230352248
0.011823507773642
-0.023176230352248
0.011823507773642
-0.023176230352248
0.011823507773642
-0.000000000000000
0.000000000000000
-0.033406045019690
0.000231812108257
-0.033406045019690
0.000231812108257
-0.033406045019690
0.000231812108257
-0.033406045019690
0.000231812108257
-0.033406045019690
0.000231812108257
-0.033406045019690
0.000231812108257
-0.033406045019690
0.000231812108257
-0.033406045019690
0.000231812108257
-0.033406045019690
0.000231812108257
-0.033406045019690
0.000231812108257
-0.033406045019690
0.000231812108257
-0.033406045019690
0.000231812108257
-0.033406045019690
0.000231812108257
-0.033406045019690
0.000231812108257
-0.033406045019690
0.000231812108257
-0.000000000000000
0.000000000000000
-0.023176230352248
0.011823507773642
-0.023176230352248
0.011823507773642
-0.023176230352248
0.011823507773642
-0.023176230352248
0.011823507773642
-0.023176230352248
0.011823507773642
-0.023176230352248
0.011823507773642
-0.023176230352248
0.011823507773642
-0.023176230352248
0.011823507773642
-0.023176230352248
0.011823507773642
-0.023176230352248
0.011823507773642
-0.023176230352248
0.011823507773642
-0.023176230352248
0.011823507773642
-0.023176230352248
0.011823507773642
-0.023176230352248
0.011823507773642
-0.023176230352248
0.011823507773642
-0.000000000000000
0.000000000000000
-0.033406045019690
0.000231812108257
-0.033406045019690
0.000231812108257
-0.033406045019690
0.000231812108257
-0.033406045019690
0.000231812108257
-0.033406045019690
0.000231812108257
-0.033406045019690
0.000231812108257
-0.033406045019690
0.000231812108257
-0.033406045019690
0.000231812108257
-0.033406045019690
0.000231812108257
-0.033406045019690
0.000231812108257
-0.033406045019690
0.000231812108257
-0.033406045019690
0.000231812108257
-0.033406045019690
0.000231812108257
-0.033406045019690
0.000231812108257
-0.033406045019690
0.000231812108257
-0.000000000000000
0.000000000000000
-0.023176230352248
0.011823507773642
-0.023176230352248
0.011823507773642
-0.023176230352248
0.011823507773642
-0.023176230352248
0.011823507773642
-0.023176230352248
0.011823507773642
-0.023176230352248
0.011823507773642
-0.023176230352248
0.011823507773642
-0.023176230352248
0.011823507773642
-0.023176230352248
0.011823507773642
-0.023176230352248
0.011823507773642
-0.023176230352248
0.011823507773642
-0.023176230352248
0.011823507773642
-0.023176230352248
0.011823507773642
-0.023176230352248
0.011823507773642
-0.023176230352248
0.011823507773642
-0.000000000000000
0.000000000000000
-0.033406045019690
0.000231812108257
-0.033406045019690
0.000231812108257
-0.033406045019690
0.000231812108257
-0.033406045019690
0.000231812108257
-0.033406045019690
0.000231812108257
-0.033406045019690
0.000231812108257
-0.033406045019690
0.000231812108257
-0.033406045019690
0.000231812108257
-0.033406045019690
0.000231812108257
-0.033406045019690
0.000231812108257
-0.033406045019690
0.000231812108257
-0.033406045019690
0.000231812108257
-0.033406045019690
0.000231812108257
-0.033406045019690
0.000231812108257
-0.033406045019690
0.000231812108257
-0.000000000000000
0.000000000000000
-0.023176230352248
0.011823507773642
-0.023176230352248
0.011823507773642
-0.023176230352248
0.011823507773642
-0.023176230352248
0.011823507773642
-0.023176230352248
0.011823507773642
-0.023176230352248
0.011823507773642
-0.023176230352248
0.011823507773642
-0.023176230352248
0.011823507773642
-0.023176230352248
0.011823507773642
-0.023176230352248
0.011823507773642
-0.023176230352248
0.011823507773642
-0.023176230352248
0.011823507773642
-0.023176230352248
0.011823507773642
-0.023176230352248
0.011823507773642
-0.023176230352248
0.011823507773642
-0.000000000000000
0.000000000000000
-0.033406045019690
0.000231812108257
-0.033406045019690
0.000231812108257
-0.033406045019690
0.000231812108257
-0.033406045019690
0.000231812108257
-0.033406045019690
0.000231812108257
-0.033406045019690
0.000231812108257
-0.033406045019690
0.000231812108257
-0.033406045019690
0.000231812108257
-0.033406045019690
0.000231812108257
-0.033406045019690
0.000231812108257
-0.033406045019690
0.000231812108257
-0.033406045019690
0.000231812108257
-0.033406045019690
0.000231812108257
-0.033406045019690
0.000231812108257
-0.033406045019690
0.000231812108257
-0.000000000000000
0.000000000000000
-0.023176230352248
0.011823507773642
-0.023176230352248
0.011823507773642
-0.023176230352248
0.011823507773642
-0.023176230352248
0.011823507773642
-0.023176230352248
0.011823507773642
-0.023176230352248
0.011823507773642
-0.023176230352248
0.011823507773642
-0.023176230352248
0.011823507773642
-0.023176230352248
0.011823507773642
-0.023176230352248
0.011823507773642
-0.023176230352248
0.011823507773642
-0.023176230352248
0.011823507773642
-0.023176230352248
0.011823507773642
-0.023176230352248
0.011823507773642
-0.023176230352248
0.011823507773642
0.000000000000000
0.000000000000000
0.032172246613162
0.032550279737787
0.032172246613162
0.032550279737787
0.032172246613162
0.032550279737787
0.032172246613162
0.032550279737787
0.032172246613162
0.032550279737787
0.032172246613162
0.032550279737787
0.032172246613162
0.032550279737787
0.032172246613162
0.032550279737787
0.032172246613162
0.032550279737787
0.032172246613162
0.032550279737787
0.032172246613162
0.032550279737787
0.032172246613162
0.032550279737787
0.032172246613162
0.032550279737787
0.032172246613162
0.032550279737787
0.032172246613162
0.032550279737787
-0.000000000000000
-0.000000000000000
-0.007886476579219
-0.020915570460379
-0.007886476579219
-0.020915570460379
-0.007886476579219
-0.020915570460379
-0.007886476579219
-0.020915570460379
-0.007886476579219
-0.020915570460379
-0.007886476579219
-0.020915570460379
-0.007886476579219
-0.020915570460379
-0.007886476579219
-0.020915570460379
-0.007886476579219
-0.020915570460379
-0.007886476579219
-0.020915570460379
-0.007886476579219
-0.020915570460379
-0.007886476579219
-0.020915570460379
-0.007886476579219
-0.020915570460379
-0.007886476579219
-0.020915570460379
-0.007886476579219
-0.020915570460379
0.000000000000000
0.000000000000000
0.032172246613162
0.032550279737787
0.032172246613162
0.032550279737787
0.032172246613162
0.032550279737787
0.032172246613162
0.032550279737787
0.032172246613162
0.032550279737787
0.032172246613162
0.032550279737787
0.032172246613162
0.032550279737787
0.032172246613162
0.032550279737787
0.032172246613162
0.032550279737787
0.032172246613162
0.032550279737787
0.032172246613162
0.032550279737787
0.032172246613162
0.032550279737787
0.032172246613162
0.032550279737787
0.032172246613162
0.032550279737787
0.032172246613162
0.032550279737787
-0.000000000000000
-0.000000000000000
-0.007886476579219
-0.020915570460379
-0.007886476579219
-0.020915570460379
-0.007886476579219
-0.020915570460379
-0.007886476579219
-0.020915570460379
-0.007886476579219
-0.020915570460379
-0.007886476579219
-0.020915570460379
-0.007886476579219
-0.020915570460379
-0.007886476579219
-0.020915570460379
-0.007886476579219
-0.020915570460379
-0.007886476579219
-0.020915570460379
-0.007886476579219
-0.020915570460379
-0.007886476579219
-0.020915570460379
-0.007886476579219
-0.020915570460379
-0.007886476579219
-0.020915570460379
-0.007886476579219
-0.020915570460379
0.000000000000000
0.000000000000000
0.032172246613162
0.032550279737787
0.032172246613162
0.032550279737787
0.032172246613162
0.032550279737787
0.032172246613162
0.032550279737787
0.032172246613162
0.032550279737787
0.032172246613162
0.032550279737787
0.032172246613162
0.032550279737787
0.032172246613162
0.032550279737787
0.032172246613162
0.032550279737787
0.032172246613162
0.032550279737787
0.032172246613162
0.032550279737787
0.032172246613162
0.032550279737787
0.032172246613162
0.032550279737787
0.032172246613162
0.032550279737787
0.032172246613162
0.032550279737787
-0.000000000000000
-0.000000000000000
-0.007886476579219
-0.020915570460379
-0.007886476579219
-0.020915570460379
-0.007886476579219
-0.020915570460379
-0.007886476579219
-0.020915570460379
-0.007886476579219
-0.020915570460379
-0.007886476579219
-0.020915570460379
-0.007886476579219
-0.020915570460379
-0.007886476579219
-0.020915570460379
-0.007886476579219
-0.020915570460379
-0.007886476579219
-0.020915570460379
-0.007886476579219
-0.020915570460379
-0.007886476579219
-0.020915570460379
-0.007886476579219
-0.020915570460379
-0.007886476579219
-0.020915570460379
-0.007886476579219
-0.020915570460379
0.000000000000000
0.000000000000000
0.032172246613162
0.032550279737787
0.032172246613162
0.032550279737787
0.032172246613162
0.032550279737787
0.032172246613162
0.032550279737787
0.032172246613162
0.032550279737787
0.032172246613162
0.032550279737787
0.032172246613162
0.032550279737787
0.032172246613162
0.032550279737787
0.032172246613162
0.032550279737787
0.032172246613162
0.032550279737787
0.032172246613162
0.032550279737787
0.032172246613162
0.032550279737787
0.032172246613162
0.032550279737787
0.032172246613162
0.032550279737787
0.032172246613162
0.032550279737787
-0.000000000000000
-0.000000000000000
-0.007886476579219
-0.020915570460379
-0.007886476579219
-0.020915570460379
-0.007886476579219
-0.020915570460379
-0.007886476579219
-0.020915570460379
-0.007886476579219
-0.020915570460379
-0.007886476579219
-0.020915570460379
-0.007886476579219
-0.020915570460379
-0.007886476579219
-0.020915570460379
-0.007886476579219
-0.020915570460379
-0.007886476579219
-0.020915570460379
-0.007886476579219
-0.020915570460379
-0.007886476579219
-0.020915570460379
-0.007886476579219
-0.020915570460379
-0.007886476579219
-0.020915570460379
-0.007886476579219
-0.020915570460379
0.000000000000000
0.000000000000000
0.032172246613162
0.032550279737787
0.032172246613162
0.032550279737787
0.032172246613162
0.032550279737787
0.032172246613162
0.032550279737787
0.032172246613162
0.032550279737787
0.032172246613162
0.032550279737787
0.032172246613162
0.032550279737787
0.032172246613162
0.032550279737787
0.032172246613162
0.032550279737787
0.032172246613162
0.032550279737787
0.032172246613162
0.032550279737787
0.032172246613162
0.032550279737787
0.032172246613162
0.032550279737787
0.032172246613162
0.032550279737787
0.032172246613162
0.032550279737787
-0.000000000000000
-0.000000000000000
-0.007886476579219
-0.020915570460379
-0.007886476579219
-0.020915570460379
-0.007886476579219
-0.020915570460379
-0.007886476579219
-0.020915570460379
-0.007886476579219
-0.020915570460379
-0.007886476579219
-0.020915570460379
-0.007886476579219
-0.020915570460379
-0.007886476579219
-0.020915570460379
-0.007886476579219
-0.020915570460379
-0.007886476579219
-0.020915570460379
-0.007886476579219
-0.020915570460379
-0.007886476579219
-0.020915570460379
-0.007886476579219
-0.020915570460379
-0.007886476579219
-0.020915570460379
-0.007886476579219
-0.020915570460379
0.000000000000000
0.000000000000000
0.032172246613162
0.032550279737787
0.032172246613162
0.032550279737787
0.032172246613162
0.032550279737787
0.032172246613162
0.032550279737787
0.032172246613162
0.032550279737787
0.032172246613162
0.032550279737787
0.032172246613162
0.032550279737787
0.032172246613162
0.032550279737787
0.032172246613162
0.032550279737787
0.032172246613162
0.032550279737787
0.032172246613162
0.032550279737787
0.032172246613162
0.032550279737787
0.032172246613162
0.032550279737787
0.032172246613162
0.032550279737787
0.032172246613162
0.032550279737787
-0.000000000000000
-0.000000000000000
-0.007886476579219
-0.020915570460379
-0.007886476579219
-0.020915570460379
-0.007886476579219
-0.020915570460379
-0.007886476579219
-0.020915570460379
-0.007886476579219
-0.020915570460379
-0.007886476579219
-0.020915570460379
-0.007886476579219
-0.020915570460379
-0.007886476579219
-0.020915570460379
-0.007886476579219
-0.020915570460379
-0.007886476579219
-0.020915570460379
-0.007886476579219
-0.020915570460379
-0.007886476579219
-0.020915570460379
-0.007886476579219
-0.020915570460379
-0.007886476579219
-0.020915570460379
-0.007886476579219
-0.020915570460379
0.000000000000000
0.000000000000000
0.032172246613162
0.032550279737787
0.032172246613162
0.032550279737787
0.032172246613162
0.032550279737787
0.032172246613162
0.032550279737787
0.032172246613162
0.032550279737787
0.032172246613162
0.032550279737787
0.032172246613162
0.032550279737787
0.032172246613162
0.032550279737787
0.032172246613162
0.032550279737787
0.032172246613162
0.032550279737787
0.032172246613162
0.032550279737787
0.032172246613162
0.032550279737787
0.032172246613162
0.032550279737787
0.032172246613162
0.032550279737787
0.032172246613162
0.032550279737787
-0.000000000000000
-0.000000000000000
-0.007886476579219
-0.020915570460379
-0.007886476579219
-0.020915570460379
-0.007886476579219
-0.020915570460379
-0.007886476579219
-0.020915570460379
-0.007886476579219
-0.020915570460379
-0.007886476579219
-0.020915570460379
-0.007886476579219
-0.020915570460379
-0.007886476579219
-0.020915570460379
-0.007886476579219
-0.020915570460379
-0.007886476579219
-0.020915570460379
-0.007886476579219
-0.020915570460379
-0.007886476579219
-0.020915570460379
-0.007886476579219
-0.020915570460379
-0.007886476579219
-0.020915570460379
-0.007886476579219
-0.020915570460379
0.000000000000000
0.000000000000000
0.032172246613162
0.032550279737787
0.032172246613162
0.032550279737787
0.032172246613162
0.032550279737787
0.032172246613162
0.032550279737787
0.032172246613162
0.032550279737787
0.032172246613162
0.032550279737787
0.032172246613162
0.032550279737787
0.032172246613162
0.032550279737787
0.032172246613162
0.032550279737787
0.032172246613162
0.032550279737787
0.032172246613162
0.032550279737787
0.032172246613162
0.032550279737787
0.032172246613162
0.032550279737787
0.032172246613162
0.032550279737787
0.032172246613162
0.032550279737787
-0.000000000000000
-0.000000000000000
-0.007886476579219
-0.020915570460379
-0.007886476579219
-0.020915570460379
-0.007886476579219
-0.020915570460379
-0.007886476579219
-0.020915570460379
-0.007886476579219
-0.020915570460379
-0.007886476579219
-0.020915570460379
-0.007886476579219
-0.020915570460379
-0.007886476579219
-0.020915570460379
-0.007886476579219
-0.020915570460379
-0.007886476579219
-0.020915570460379
-0.007886476579219
-0.020915570460379
-0.007886476579219
-0.020915570460379
-0.007886476579219
-0.020915570460379
-0.007886476579219
-0.020915570460379
-0.007886476579219
-0.020915570460379
0.000000000000000
0.000000000000000
0.032172246613162
0.032550279737787
0.032172246613162
0.032550279737787
0.032172246613162
0.032550279737787
0.032172246613162
0.032550279737787
0.032172246613162
0.032550279737787
0.032172246613162
0.032550279737787
0.032172246613162
0.032550279737787
0.032172246613162
0.032550279737787
0.032172246613162
0.032550279737787
0.032172246613162
0.032550279737787
0.032172246613162
0.032550279737787
0.032172246613162
0.032550279737787
0.032172246613162
0.032550279737787
0.032172246613162
0.032550279737787
0.032172246613162
0.032550279737787
-0.000000000000000
-0.000000000000000
-0.007886476579219
-0.020915570460379
-0.007886476579219
-0.020915570460379
-0.007886476579219
-0.020915570460379
-0.007886476579219
-0.020915570460379
-0.007886476579219
-0.020915570460379
-0.007886476579219
-0.020915570460379
-0.007886476579219
-0.020915570460379
-0.007886476579219
-0.020915570460379
-0.007886476579219
-0.020915570460379
-0.007886476579219
-0.020915570460379
-0.007886476579219
-0.020915570460379
-0.007886476579219
-0.020915570460379
-0.007886476579219
-0.020915570460379
-0.007886476579219
-0.020915570460379
-0.007886476579219
-0.020915570460379
0.000000000000000
0.000000000000000
0.032172246613162
0.032550279737787
0.032172246613162
0.032550279737787
0.032172246613162
0.032550279737787
0.032172246613162
0.032550279737787
0.032172246613162
0.032550279737787
0.032172246613162
0.032550279737787
0.032172246613162
0.032550279737787
0.032172246613162
0.032550279737787
0.032172246613162
0.032550279737787
0.032172246613162
0.032550279737787
0.032172246613162
0.032550279737787
0.032172246613162
0.032550279737787
0.032172246613162
0.032550279737787
0.032172246613162
0.032550279737787
0.032172246613162
0.032550279737787
-0.000000000000000
-0.000000000000000
-0.007886476579219
-0.020915570460379
-0.007886476579219
-0.020915570460379
-0.007886476579219
-0.020915570460379
-0.007886476579219
-0.020915570460379
-0.007886476579219
-0.020915570460379
-0.007886476579219
-0.020915570460379
-0.007886476579219
-0.020915570460379
-0.007886476579219
-0.020915570460379
-0.007886476579219
-0.020915570460379
-0.007886476579219
-0.020915570460379
-0.007886476579219
-0.020915570460379
-0.007886476579219
-0.020915570460379
-0.007886476579219
-0.020915570460379
-0.007886476579219
-0.020915570460379
-0.007886476579219
-0.020915570460379
0.000000000000000
0.000000000000000
0.032172246613162
0.032550279737787
0.032172246613162
0.032550279737787
0.032172246613162
0.032550279737787
0.032172246613162
0.032550279737787
0.032172246613162
0.032550279737787
0.032172246613162
0.032550279737787
0.032172246613162
0.032550279737787
0.032172246613162
0.032550279737787
0.032172246613162
0.032550279737787
0.032172246613162
0.032550279737787
0.032172246613162
0.032550279737787
0.032172246613162
0.032550279737787
0.032172246613162
0.032550279737787
0.032172246613162
0.032550279737787
0.032172246613162
0.032550279737787
-0.000000000000000
-0.000000000000000
-0.007886476579219
-0.020915570460379
-0.007886476579219
-0.020915570460379
-0.007886476579219
-0.020915570460379
-0.007886476579219
-0.020915570460379
-0.007886476579219
-0.020915570460379
-0.007886476579219
-0.020915570460379
-0.007886476579219
-0.020915570460379
-0.007886476579219
-0.020915570460379
-0.007886476579219
-0.020915570460379
-0.007886476579219
-0.020915570460379
-0.007886476579219
-0.020915570460379
-0.007886476579219
-0.020915570460379
-0.007886476579219
-0.020915570460379
-0.007886476579219
-0.020915570460379
-0.007886476579219
-0.020915570460379
0.000000000000000
0.000000000000000
0.032172246613162
0.032550279737787
0.032172246613162
0.032550279737787
0.032172246613162
0.032550279737787
0.032172246613162
0.032550279737787
0.032172246613162
0.032550279737787
0.032172246613162
0.032550279737787
0.032172246613162
0.032550279737787
0.032172246613162
0.032550279737787
0.032172246613162
0.032550279737787
0.032172246613162
0.032550279737787
0.032172246613162
0.032550279737787
0.032172246613162
0.032550279737787
0.032172246613162
0.032550279737787
0.032172246613162
0.032550279737787
0.032172246613162
0.032550279737787
-0.000000000000000
-0.000000000000000
-0.007886476579219
-0.020915570460379
-0.007886476579219
-0.020915570460379
-0.007886476579219
-0.020915570460379
-0.007886476579219
-0.020915570460379
-0.007886476579219
-0.020915570460379
-0.007886476579219
-0.020915570460379
-0.007886476579219
-0.020915570460379
-0.007886476579219
-0.020915570460379
-0.007886476579219
-0.020915570460379
-0.007886476579219
-0.020915570460379
-0.007886476579219
-0.020915570460379
-0.007886476579219
-0.020915570460379
-0.007886476579219
-0.020915570460379
-0.007886476579219
-0.020915570460379
-0.007886476579219
-0.020915570460379
0.000000000000000
0.000000000000000
0.032172246613162
0.032550279737787
0.032172246613162
0.032550279737787
0.032172246613162
0.032550279737787
0.032172246613162
0.032550279737787
0.032172246613162
0.032550279737787
0.032172246613162
0.032550279737787
0.032172246613162
0.032550279737787
0.032172246613162
0.032550279737787
0.032172246613162
0.032550279737787
0.032172246613162
0.032550279737787
0.032172246613162
0.032550279737787
0.032172246613162
0.032550279737787
0.032172246613162
0.032550279737787
0.032172246613162
0.032550279737787
0.032172246613162
0.032550279737787
-0.000000000000000
-0.000000000000000
-0.007886476579219
-0.020915570460379
-0.007886476579219
-0.020915570460379
-0.007886476579219
-0.020915570460379
-0.007886476579219
-0.020915570460379
-0.007886476579219
-0.020915570460379
-0.007886476579219
-0.020915570460379
-0.007886476579219
-0.020915570460379
-0.007886476579219
-0.020915570460379
-0.007886476579219
-0.020915570460379
-0.007886476579219
-0.020915570460379
-0.007886476579219
-0.020915570460379
-0.007886476579219
-0.020915570460379
-0.007886476579219
-0.020915570460379
-0.007886476579219
-0.020915570460379
-0.007886476579219
-0.020915570460379
0.000000000000000
0.000000000000000
0.032172246613162
0.032550279737787
0.032172246613162
0.032550279737787
0.032172246613162
0.032550279737787
0.032172246613162
0.032550279737787
0.032172246613162
0.032550279737787
0.032172246613162
0.032550279737787
0.032172246613162
0.032550279737787
0.032172246613162
0.032550279737787
0.032172246613162
0.032550279737787
0.032172246613162
0.032550279737787
0.032172246613162
0.032550279737787
0.032172246613162
0.032550279737787
0.032172246613162
0.032550279737787
0.032172246613162
0.032550279737787
0.032172246613162
0.032550279737787
-0.000000000000000
-0.000000000000000
-0.007886476579219
-0.020915570460379
-0.007886476579219
-0.020915570460379
-0.007886476579219
-0.020915570460379
-0.007886476579219
-0.020915570460379
-0.007886476579219
-0.020915570460379
-0.007886476579219
-0.020915570460379
-0.007886476579219
-0.020915570460379
-0.007886476579219
-0.020915570460379
-0.007886476579219
-0.020915570460379
-0.007886476579219
-0.020915570460379
-0.007886476579219
-0.020915570460379
-0.007886476579219
-0.020915570460379
-0.007886476579219
-0.020915570460379
-0.007886476579219
-0.020915570460379
-0.007886476579219
-0.020915570460379
0.000000000000000
0.000000000000000
0.032172246613162
0.032550279737787
0.032172246613162
0.032550279737787
0.032172246613162
0.032550279737787
0.032172246613162
0.032550279737787
0.032172246613162
0.032550279737787
0.032172246613162
0.032550279737787
0.032172246613162
0.032550279737787
0.032172246613162
0.032550279737787
0.032172246613162
0.032550279737787
0.032172246613162
0.032550279737787
0.032172246613162
0.032550279737787
0.032172246613162
0.032550279737787
0.032172246613162
0.032550279737787
0.032172246613162
0.032550279737787
0.032172246613162
0.032550279737787
-0.000000000000000
-0.000000000000000
-0.007886476579219
-0.020915570460379
-0.007886476579219
-0.020915570460379
-0.007886476579219
-0.020915570460379
-0.007886476579219
-0.020915570460379
-0.007886476579219
-0.020915570460379
-0.007886476579219
-0.020915570460379
-0.007886476579219
-0.020915570460379
-0.007886476579219
-0.020915570460379
-0.007886476579219
-0.020915570460379
-0.007886476579219
-0.020915570460379
-0.007886476579219
-0.020915570460379
-0.007886476579219
-0.020915570460379
-0.007886476579219
-0.020915570460379
-0.007886476579219
-0.020915570460379
-0.007886476579219
-0.020915570460379
0.000000000000000
0.000000000000000
0.032172246613162
0.032550279737787
0.032172246613162
0.032550279737787
0.032172246613162
0.032550279737787
0.032172246613162
0.032550279737787
0.032172246613162
0.032550279737787
0.032172246613162
0.032550279737787
0.032172246613162
0.032550279737787
0.032172246613162
0.032550279737787
0.032172246613162
0.032550279737787
0.032172246613162
0.032550279737787
0.032172246613162
0.032550279737787
0.032172246613162
0.032550279737787
0.032172246613162
0.032550279737787
0.032172246613162
0.032550279737787
0.032172246613162
0.032550279737787
-0.000000000000000
-0.000000000000000
-0.007886476579219
-0.020915570460379
-0.007886476579219
-0.020915570460379
-0.007886476579219
-0.020915570460379
-0.007886476579219
-0.020915570460379
-0.007886476579219
-0.020915570460379
-0.007886476579219
-0.020915570460379
-0.007886476579219
-0.020915570460379
-0.007886476579219
-0.020915570460379
-0.007886476579219
-0.020915570460379
-0.007886476579219
-0.020915570460379
-0.007886476579219
-0.020915570460379
-0.007886476579219
-0.020915570460379
-0.007886476579219
-0.020915570460379
-0.007886476579219
-0.020915570460379
-0.007886476579219
-0.020915570460379
0.000000000000000
-0.000000000000000
0.002166694439489
-0.003094604157904
0.002166694439489
-0.003094604157904
0.002166694439489
-0.003094604157904
0.002166694439489
-0.003094604157904
0.002166694439489
-0.003094604157904
0.002166694439489
-0.003094604157904
0.002166694439489
-0.003094604157904
0.002166694439489
-0.003094604157904
0.002166694439489
-0.003094604157904
0.002166694439489
-0.003094604157904
0.002166694439489
-0.003094604157904
0.002166694439489
-0.003094604157904
0.002166694439489
-0.003094604157904
0.002166694439489
-0.003094604157904
0.002166694439489
-0.003094604157904
-0.000000000000000
-0.000000000000000
-0.034398763587471
-0.007195612087680
-0.034398763587471
-0.007195612087680
-0.034398763587471
-0.007195612087680
-0.034398763587471
-0.007195612087680
-0.034398763587471
-0.007195612087680
-0.034398763587471
-0.007195612087680
-0.034398763587471
-0.007195612087680
-0.034398763587471
-0.007195612087680
-0.034398763587471
-0.007195612087680
-0.034398763587471
-0.007195612087680
-0.034398763587471
-0.007195612087680
-0.034398763587471
-0.007195612087680
-0.034398763587471
-0.007195612087680
-0.034398763587471
-0.007195612087680
-0.034398763587471
-0.007195612087680
0.000000000000000
-0.000000000000000
0.002166694439489
-0.003094604157904
0.002166694439489
-0.003094604157904
0.002166694439489
-0.003094604157904
0.002166694439489
-0.003094604157904
0.002166694439489
-0.003094604157904
0.002166694439489
-0.003094604157904
0.002166694439489
-0.003094604157904
0.002166694439489
-0.003094604157904
0.002166694439489
-0.003094604157904
0.002166694439489
-0.003094604157904
0.002166694439489
-0.003094604157904
0.002166694439489
-0.003094604157904
0.002166694439489
-0.003094604157904
0.002166694439489
-0.003094604157904
0.002166694439489
-0.003094604157904
-0.000000000000000
-0.000000000000000
-0.034398763587471
-0.007195612087680
-0.034398763587471
-0.007195612087680
-0.034398763587471
-0.007195612087680
-0.034398763587471
-0.007195612087680
-0.034398763587471
-0.007195612087680
-0.034398763587471
-0.007195612087680
-0.034398763587471
-0.007195612087680
-0.034398763587471
-0.007195612087680
-0.034398763587471
-0.007195612087680
-0.034398763587471
-0.007195612087680
-0.034398763587471
-0.007195612087680
-0.034398763587471
-0.007195612087680
-0.034398763587471
-0.007195612087680
-0.034398763587471
-0.007195612087680
-0.034398763587471
-0.007195612087680
0.000000000000000
-0.000000000000000
0.002166694439489
-0.003094604157904
0.002166694439489
-0.003094604157904
0.002166694439489
-0.003094604157904
0.002166694439489
-0.003094604157904
0.002166694439489
-0.003094604157904
0.002166694439489
-0.003094604157904
0.002166694439489
-0.003094604157904
0.002166694439489
-0.003094604157904
0.002166694439489
-0.003094604157904
0.002166694439489
-0.003094604157904
0.002166694439489
-0.003094604157904
0.002166694439489
-0.003094604157904
0.002166694439489
-0.003094604157904
0.002166694439489
-0.003094604157904
0.002166694439489
-0.003094604157904
-0.000000000000000
-0.000000000000000
-0.034398763587471
-0.007195612087680
-0.034398763587471
-0.007195612087680
-0.034398763587471
-0.007195612087680
-0.034398763587471
-0.007195612087680
-0.034398763587471
-0.007195612087680
-0.034398763587471
-0.007195612087680
-0.034398763587471
-0.007195612087680
-0.034398763587471
-0.007195612087680
-0.034398763587471
-0.007195612087680
-0.034398763587471
-0.007195612087680
-0.034398763587471
-0.007195612087680
-0.034398763587471
-0.007195612087680
-0.034398763587471
-0.007195612087680
-0.034398763587471
-0.007195612087680
-0.034398763587471
-0.007195612087680
0.000000000000000
-0.000000000000000
0.002166694439489
-0.003094604157904
0.002166694439489
-0.003094604157904
0.002166694439489
-0.003094604157904
0.002166694439489
-0.003094604157904
0.002166694439489
-0.003094604157904
0.002166694439489
-0.003094604157904
0.002166694439489
-0.003094604157904
0.002166694439489
-0.003094604157904
0.002166694439489
-0.003094604157904
0.002166694439489
-0.003094604157904
0.002166694439489
-0.003094604157904
0.002166694439489
-0.003094604157904
0.002166694439489
-0.003094604157904
0.002166694439489
-0.003094604157904
0.002166694439489
-0.003094604157904
-0.000000000000000
-0.000000000000000
-0.034398763587471
-0.007195612087680
-0.034398763587471
-0.007195612087680
-0.034398763587471
-0.007195612087680
-0.034398763587471
-0.007195612087680
-0.034398763587471
-0.007195612087680
-0.034398763587471
-0.007195612087680
-0.034398763587471
-0.007195612087680
-0.034398763587471
-0.007195612087680
-0.034398763587471
-0.007195612087680
-0.034398763587471
-0.007195612087680
-0.034398763587471
-0.007195612087680
-0.034398763587471
-0.007195612087680
-0.034398763587471
-0.007195612087680
-0.034398763587471
-0.007195612087680
