-0.000000102465550
0.000000245206815
-0.000000102465550
0.000000245206815
-0.000000102465550
0.000000245206815
-0.000000102465550
0.000000245206815
-0.000000102465550
0.000000245206815
-0.000000102465550
0.000000245206815
-0.000000102465550
0.000000245206815
-0.000000102465550
0.000000245206815
-0.000000102465550
0.000000245206815
-0.000000102465550
0.000000245206815
-0.000000102465550
0.000000245206815
-0.000000102465550
0.000000245206815
-0.000000102465550
0.000000245206815
-0.000000102465550
0.000000245206815
-0.000000102465550
0.000000245206815
-0.000000102465550
0.000000245206815
-0.000000310128405
-0.000000082159950
-0.000000310128405
-0.000000082159950
-0.000000310128405
-0.000000082159950
-0.000000310128405
-0.000000082159950
-0.000000310128405
-0.000000082159950
-0.000000310128405
-0.000000082159950
-0.000000310128405
-0.000000082159950
-0.000000310128405
-0.000000082159950
-0.000000310128405
-0.000000082159950
-0.000000310128405
-0.000000082159950
-0.000000310128405
-0.000000082159950
-0.000000310128405
-0.000000082159950
-0.000000310128405
-0.000000082159950
-0.000000310128405
-0.000000082159950
-0.000000310128405
-0.000000082159950
-0.000000310128405
-0.000000082159950
-0.000000102465550
0.000000245206815
-0.000000102465550
0.000000245206815
-0.000000102465550
0.000000245206815
-0.000000102465550
0.000000245206815
-0.000000102465550
0.000000245206815
-0.000000102465550
0.000000245206815
-0.000000102465550
0.000000245206815
-0.000000102465550
0.000000245206815
-0.000000102465550
0.000000245206815
-0.000000102465550
0.000000245206815
-0.000000102465550
0.000000245206815
-0.000000102465550
0.000000245206815
-0.000000102465550
0.000000245206815
-0.000000102465550
0.000000245206815
-0.000000102465550
0.000000245206815
-0.000000102465550
0.000000245206815
-0.000000310128405
-0.000000082159950
-0.000000310128405
-0.000000082159950
-0.000000310128405
-0.000000082159950
-0.000000310128405
-0.000000082159950
-0.000000310128405
-0.000000082159950
-0.000000310128405
-0.000000082159950
-0.000000310128405
-0.000000082159950
-0.000000310128405
-0.000000082159950
-0.000000310128405
-0.000000082159950
-0.000000310128405
-0.000000082159950
-0.000000310128405
-0.000000082159950
-0.000000310128405
-0.000000082159950
-0.000000310128405
-0.000000082159950
-0.000000310128405
-0.000000082159950
-0.000000310128405
-0.000000082159950
-0.000000310128405
-0.000000082159950
-0.000000102465550
0.000000245206815
-0.000000102465550
0.000000245206815
-0.000000102465550
0.000000245206815
-0.000000102465550
0.000000245206815
-0.000000102465550
0.000000245206815
-0.000000102465550
0.000000245206815
-0.000000102465550
0.000000245206815
-0.000000102465550
0.000000245206815
-0.000000102465550
0.000000245206815
-0.000000102465550
0.000000245206815
-0.000000102465550
0.000000245206815
-0.000000102465550
0.000000245206815
-0.000000102465550
0.000000245206815
-0.000000102465550
0.000000245206815
-0.000000102465550
0.000000245206815
-0.000000102465550
0.000000245206815
-0.000000310128405
-0.000000082159950
-0.000000310128405
-0.000000082159950
-0.000000310128405
-0.000000082159950
-0.000000310128405
-0.000000082159950
-0.000000310128405
-0.000000082159950
-0.000000310128405
-0.000000082159950
-0.000000310128405
-0.000000082159950
-0.000000310128405
-0.000000082159950
-0.000000310128405
-0.000000082159950
-0.000000310128405
-0.000000082159950
-0.000000310128405
-0.000000082159950
-0.000000310128405
-0.000000082159950
-0.000000310128405
-0.000000082159950
-0.000000310128405
-0.000000082159950
-0.000000310128405
-0.000000082159950
-0.000000310128405
-0.000000082159950
-0.000000102465550
0.000000245206815
-0.000000102465550
0.000000245206815
-0.000000102465550
0.000000245206815
-0.000000102465550
0.000000245206815
-0.000000102465550
0.000000245206815
-0.000000102465550
0.000000245206815
-0.000000102465550
0.000000245206815
-0.000000102465550
0.000000245206815
-0.000000102465550
0.000000245206815
-0.000000102465550
0.000000245206815
-0.000000102465550
0.000000245206815
-0.000000102465550
0.000000245206815
-0.000000102465550
0.000000245206815
-0.000000102465550
0.000000245206815
-0.000000102465550
0.000000245206815
-0.000000102465550
0.000000245206815
-0.000000310128405
-0.000000082159950
-0.000000310128405
-0.000000082159950
-0.000000310128405
-0.000000082159950
-0.000000310128405
-0.000000082159950
-0.000000310128405
-0.000000082159950
-0.000000310128405
-0.000000082159950
-0.000000310128405
-0.000000082159950
-0.000000310128405
-0.000000082159950
-0.000000310128405
-0.000000082159950
-0.000000310128405
-0.000000082159950
-0.000000310128405
-0.000000082159950
-0.000000310128405
-0.000000082159950
-0.000000310128405
-0.000000082159950
-0.000000310128405
-0.000000082159950
-0.000000310128405
-0.000000082159950
-0.000000310128405
-0.000000082159950
-0.000000102465550
0.000000245206815
-0.000000102465550
0.000000245206815
-0.000000102465550
0.000000245206815
-0.000000102465550
0.000000245206815
-0.000000102465550
0.000000245206815
-0.000000102465550
0.000000245206815
-0.000000102465550
0.000000245206815
-0.000000102465550
0.000000245206815
-0.000000102465550
0.000000245206815
-0.000000102465550
0.000000245206815
-0.000000102465550
0.000000245206815
-0.000000102465550
0.000000245206815
-0.000000102465550
0.000000245206815
-0.000000102465550
0.000000245206815
-0.000000102465550
0.000000245206815
-0.000000102465550
0.000000245206815
-0.000000310128405
-0.000000082159950
-0.000000310128405
-0.000000082159950
-0.000000310128405
-0.000000082159950
-0.000000310128405
-0.000000082159950
-0.000000310128405
-0.000000082159950
-0.000000310128405
-0.000000082159950
-0.000000310128405
-0.000000082159950
-0.000000310128405
-0.000000082159950
-0.000000310128405
-0.000000082159950
-0.000000310128405
-0.000000082159950
-0.000000310128405
-0.000000082159950
-0.000000310128405
-0.000000082159950
-0.000000310128405
-0.000000082159950
-0.000000310128405
-0.000000082159950
-0.000000310128405
-0.000000082159950
-0.000000310128405
-0.000000082159950
-0.000000102465550
0.000000245206815
-0.000000102465550
0.000000245206815
-0.000000102465550
0.000000245206815
-0.000000102465550
0.000000245206815
-0.000000102465550
0.000000245206815
-0.000000102465550
0.000000245206815
-0.000000102465550
0.000000245206815
-0.000000102465550
0.000000245206815
-0.000000102465550
0.000000245206815
-0.000000102465550
0.000000245206815
-0.000000102465550
0.000000245206815
-0.000000102465550
0.000000245206815
-0.000000102465550
0.000000245206815
-0.000000102465550
0.000000245206815
-0.000000102465550
0.000000245206815
-0.000000102465550
0.000000245206815
-0.000000310128405
-0.000000082159950
-0.000000310128405
-0.000000082159950
-0.000000310128405
-0.000000082159950
-0.000000310128405
-0.000000082159950
-0.000000310128405
-0.000000082159950
-0.000000310128405
-0.000000082159950
-0.000000310128405
-0.000000082159950
-0.000000310128405
-0.000000082159950
-0.000000310128405
-0.000000082159950
-0.000000310128405
-0.000000082159950
-0.000000310128405
-0.000000082159950
-0.000000310128405
-0.000000082159950
-0.000000310128405
-0.000000082159950
-0.000000310128405
-0.000000082159950
-0.000000310128405
-0.000000082159950
-0.000000310128405
-0.000000082159950
-0.000000102465550
0.000000245206815
-0.000000102465550
0.000000245206815
-0.000000102465550
0.000000245206815
-0.000000102465550
0.000000245206815
-0.000000102465550
0.000000245206815
-0.000000102465550
0.000000245206815
-0.000000102465550
0.000000245206815
-0.000000102465550
0.000000245206815
-0.000000102465550
0.000000245206815
-0.000000102465550
0.000000245206815
-0.000000102465550
0.000000245206815
-0.000000102465550
0.000000245206815
-0.000000102465550
0.000000245206815
-0.000000102465550
0.000000245206815
-0.000000102465550
0.000000245206815
-0.000000102465550
0.000000245206815
-0.000000310128405
-0.000000082159950
-0.000000310128405
-0.000000082159950
-0.000000310128405
-0.000000082159950
-0.000000310128405
-0.000000082159950
-0.000000310128405
-0.000000082159950
-0.000000310128405
-0.000000082159950
-0.000000310128405
-0.000000082159950
-0.000000310128405
-0.000000082159950
-0.000000310128405
-0.000000082159950
-0.000000310128405
-0.000000082159950
-0.000000310128405
-0.000000082159950
-0.000000310128405
-0.000000082159950
-0.000000310128405
-0.000000082159950
-0.000000310128405
-0.000000082159950
-0.000000310128405
-0.000000082159950
-0.000000310128405
-0.000000082159950
-0.000000102465550
0.000000245206815
-0.000000102465550
0.000000245206815
-0.000000102465550
0.000000245206815
-0.000000102465550
0.000000245206815
-0.000000102465550
0.000000245206815
-0.000000102465550
0.000000245206815
-0.000000102465550
0.000000245206815
-0.000000102465550
0.000000245206815
-0.000000102465550
0.000000245206815
-0.000000102465550
0.000000245206815
-0.000000102465550
0.000000245206815
-0.000000102465550
0.000000245206815
-0.000000102465550
0.000000245206815
-0.000000102465550
0.000000245206815
-0.000000102465550
0.000000245206815
-0.000000102465550
0.000000245206815
-0.000000310128405
-0.000000082159950
-0.000000310128405
-0.000000082159950
-0.000000310128405
-0.000000082159950
-0.000000310128405
-0.000000082159950
-0.000000310128405
-0.000000082159950
-0.000000310128405
-0.000000082159950
-0.000000310128405
-0.000000082159950
-0.000000310128405
-0.000000082159950
-0.000000310128405
-0.000000082159950
-0.000000310128405
-0.000000082159950
-0.000000310128405
-0.000000082159950
-0.000000310128405
-0.000000082159950
-0.000000310128405
-0.000000082159950
-0.000000310128405
-0.000000082159950
-0.000000310128405
-0.000000082159950
-0.000000310128405
-0.000000082159950
-0.000000102465550
0.000000245206815
-0.000000102465550
0.000000245206815
-0.000000102465550
0.000000245206815
-0.000000102465550
0.000000245206815
-0.000000102465550
0.000000245206815
-0.000000102465550
0.000000245206815
-0.000000102465550
0.000000245206815
-0.000000102465550
0.000000245206815
-0.000000102465550
0.000000245206815
-0.000000102465550
0.000000245206815
-0.000000102465550
0.000000245206815
-0.000000102465550
0.000000245206815
-0.000000102465550
0.000000245206815
-0.000000102465550
0.000000245206815
-0.000000102465550
0.000000245206815
-0.000000102465550
0.000000245206815
-0.000000310128405
-0.000000082159950
-0.000000310128405
-0.000000082159950
-0.000000310128405
-0.000000082159950
-0.000000310128405
-0.000000082159950
-0.000000310128405
-0.000000082159950
-0.000000310128405
-0.000000082159950
-0.000000310128405
-0.000000082159950
-0.000000310128405
-0.000000082159950
-0.000000310128405
-0.000000082159950
-0.000000310128405
-0.000000082159950
-0.000000310128405
-0.000000082159950
-0.000000310128405
-0.000000082159950
-0.000000310128405
-0.000000082159950
-0.000000310128405
-0.000000082159950
-0.000000310128405
-0.000000082159950
-0.000000310128405
-0.000000082159950
-0.000000102465550
0.000000245206815
-0.000000102465550
0.000000245206815
-0.000000102465550
0.000000245206815
-0.000000102465550
0.000000245206815
-0.000000102465550
0.000000245206815
-0.000000102465550
0.000000245206815
-0.000000102465550
0.000000245206815
-0.000000102465550
0.000000245206815
-0.000000102465550
0.000000245206815
-0.000000102465550
0.000000245206815
-0.000000102465550
0.000000245206815
-0.000000102465550
0.000000245206815
-0.000000102465550
0.000000245206815
-0.000000102465550
0.000000245206815
-0.000000102465550
0.000000245206815
-0.000000102465550
0.000000245206815
-0.000000310128405
-0.000000082159950
-0.000000310128405
-0.000000082159950
-0.000000310128405
-0.000000082159950
-0.000000310128405
-0.000000082159950
-0.000000310128405
-0.000000082159950
-0.000000310128405
-0.000000082159950
-0.000000310128405
-0.000000082159950
-0.000000310128405
-0.000000082159950
-0.000000310128405
-0.000000082159950
-0.000000310128405
-0.000000082159950
-0.000000310128405
-0.000000082159950
-0.000000310128405
-0.000000082159950
-0.000000310128405
-0.000000082159950
-0.000000310128405
-0.000000082159950
-0.000000310128405
-0.000000082159950
-0.000000310128405
-0.000000082159950
-0.000000102465550
0.000000245206815
-0.000000102465550
0.000000245206815
-0.000000102465550
0.000000245206815
-0.000000102465550
0.000000245206815
-0.000000102465550
0.000000245206815
-0.000000102465550
0.000000245206815
-0.000000102465550
0.000000245206815
-0.000000102465550
0.000000245206815
-0.000000102465550
0.000000245206815
-0.000000102465550
0.000000245206815
-0.000000102465550
0.000000245206815
-0.000000102465550
0.000000245206815
-0.000000102465550
0.000000245206815
-0.000000102465550
0.000000245206815
-0.000000102465550
0.000000245206815
-0.000000102465550
0.000000245206815
-0.000000310128405
-0.000000082159950
-0.000000310128405
-0.000000082159950
-0.000000310128405
-0.000000082159950
-0.000000310128405
-0.000000082159950
-0.000000310128405
-0.000000082159950
-0.000000310128405
-0.000000082159950
-0.000000310128405
-0.000000082159950
-0.000000310128405
-0.000000082159950
-0.000000310128405
-0.000000082159950
-0.000000310128405
-0.000000082159950
-0.000000310128405
-0.000000082159950
-0.000000310128405
-0.000000082159950
-0.000000310128405
-0.000000082159950
-0.000000310128405
-0.000000082159950
-0.000000310128405
-0.000000082159950
-0.000000310128405
-0.000000082159950
-0.000000102465550
0.000000245206815
-0.000000102465550
0.000000245206815
-0.000000102465550
0.000000245206815
-0.000000102465550
0.000000245206815
-0.000000102465550
0.000000245206815
-0.000000102465550
0.000000245206815
-0.000000102465550
0.000000245206815
-0.000000102465550
0.000000245206815
-0.000000102465550
0.000000245206815
-0.000000102465550
0.000000245206815
-0.000000102465550
0.000000245206815
-0.000000102465550
0.000000245206815
-0.000000102465550
0.000000245206815
-0.000000102465550
0.000000245206815
-0.000000102465550
0.000000245206815
-0.000000102465550
0.000000245206815
-0.000000310128405
-0.000000082159950
-0.000000310128405
-0.000000082159950
-0.000000310128405
-0.000000082159950
-0.000000310128405
-0.000000082159950
-0.000000310128405
-0.000000082159950
-0.000000310128405
-0.000000082159950
-0.000000310128405
-0.000000082159950
-0.000000310128405
-0.000000082159950
-0.000000310128405
-0.000000082159950
-0.000000310128405
-0.000000082159950
-0.000000310128405
-0.000000082159950
-0.000000310128405
-0.000000082159950
-0.000000310128405
-0.000000082159950
-0.000000310128405
-0.000000082159950
-0.000000310128405
-0.000000082159950
-0.000000310128405
-0.000000082159950
-0.000000102465550
0.000000245206815
-0.000000102465550
0.000000245206815
-0.000000102465550
0.000000245206815
-0.000000102465550
0.000000245206815
-0.000000102465550
0.000000245206815
-0.000000102465550
0.000000245206815
-0.000000102465550
0.000000245206815
-0.000000102465550
0.000000245206815
-0.000000102465550
0.000000245206815
-0.000000102465550
0.000000245206815
-0.000000102465550
0.000000245206815
-0.000000102465550
0.000000245206815
-0.000000102465550
0.000000245206815
-0.000000102465550
0.000000245206815
-0.000000102465550
0.000000245206815
-0.000000102465550
0.000000245206815
-0.000000310128405
-0.000000082159950
-0.000000310128405
-0.000000082159950
-0.000000310128405
-0.000000082159950
-0.000000310128405
-0.000000082159950
-0.000000310128405
-0.000000082159950
-0.000000310128405
-0.000000082159950
-0.000000310128405
-0.000000082159950
-0.000000310128405
-0.000000082159950
-0.000000310128405
-0.000000082159950
-0.000000310128405
-0.000000082159950
-0.000000310128405
-0.000000082159950
-0.000000310128405
-0.000000082159950
-0.000000310128405
-0.000000082159950
-0.000000310128405
-0.000000082159950
-0.000000310128405
-0.000000082159950
-0.000000310128405
-0.000000082159950
-0.000000102465550
0.000000245206815
-0.000000102465550
0.000000245206815
-0.000000102465550
0.000000245206815
-0.000000102465550
0.000000245206815
-0.000000102465550
0.000000245206815
-0.000000102465550
0.000000245206815
-0.000000102465550
0.000000245206815
-0.000000102465550
0.000000245206815
-0.000000102465550
0.000000245206815
-0.000000102465550
0.000000245206815
-0.000000102465550
0.000000245206815
-0.000000102465550
0.000000245206815
-0.000000102465550
0.000000245206815
-0.000000102465550
0.000000245206815
-0.000000102465550
0.000000245206815
-0.000000102465550
0.000000245206815
-0.000000310128405
-0.000000082159950
-0.000000310128405
-0.000000082159950
-0.000000310128405
-0.000000082159950
-0.000000310128405
-0.000000082159950
-0.000000310128405
-0.000000082159950
-0.000000310128405
-0.000000082159950
-0.000000310128405
-0.000000082159950
-0.000000310128405
-0.000000082159950
-0.000000310128405
-0.000000082159950
-0.000000310128405
-0.000000082159950
-0.000000310128405
-0.000000082159950
-0.000000310128405
-0.000000082159950
-0.000000310128405
-0.000000082159950
-0.000000310128405
-0.000000082159950
-0.000000310128405
-0.000000082159950
-0.000000310128405
-0.000000082159950
-0.000000102465550
0.000000245206815
-0.000000102465550
0.000000245206815
-0.000000102465550
0.000000245206815
-0.000000102465550
0.000000245206815
-0.000000102465550
0.000000245206815
-0.000000102465550
0.000000245206815
-0.000000102465550
0.000000245206815
-0.000000102465550
0.000000245206815
-0.000000102465550
0.000000245206815
-0.000000102465550
0.000000245206815
-0.000000102465550
0.000000245206815
-0.000000102465550
0.000000245206815
-0.000000102465550
0.000000245206815
-0.000000102465550
0.000000245206815
-0.000000102465550
0.000000245206815
-0.000000102465550
0.000000245206815
-0.000000310128405
-0.000000082159950
-0.000000310128405
-0.000000082159950
-0.000000310128405
-0.000000082159950
-0.000000310128405
-0.000000082159950
-0.000000310128405
-0.000000082159950
-0.000000310128405
-0.000000082159950
-0.000000310128405
-0.000000082159950
-0.000000310128405
-0.000000082159950
-0.000000310128405
-0.000000082159950
-0.000000310128405
-0.000000082159950
-0.000000310128405
-0.000000082159950
-0.000000310128405
-0.000000082159950
-0.000000310128405
-0.000000082159950
-0.000000310128405
-0.000000082159950
-0.000000310128405
-0.000000082159950
-0.000000310128405
-0.000000082159950
-0.000000102465550
0.000000245206815
-0.000000102465550
0.000000245206815
-0.000000102465550
0.000000245206815
-0.000000102465550
0.000000245206815
-0.000000102465550
0.000000245206815
-0.000000102465550
0.000000245206815
-0.000000102465550
0.000000245206815
-0.000000102465550
0.000000245206815
-0.000000102465550
0.000000245206815
-0.000000102465550
0.000000245206815
-0.000000102465550
0.000000245206815
-0.000000102465550
0.000000245206815
-0.000000102465550
0.000000245206815
-0.000000102465550
0.000000245206815
-0.000000102465550
0.000000245206815
-0.000000102465550
0.000000245206815
-0.000000310128405
-0.000000082159950
-0.000000310128405
-0.000000082159950
-0.000000310128405
-0.000000082159950
-0.000000310128405
-0.000000082159950
-0.000000310128405
-0.000000082159950
-0.000000310128405
-0.000000082159950
-0.000000310128405
-0.000000082159950
-0.000000310128405
-0.000000082159950
-0.000000310128405
-0.000000082159950
-0.000000310128405
-0.000000082159950
-0.000000310128405
-0.000000082159950
-0.000000310128405
-0.000000082159950
-0.000000310128405
-0.000000082159950
-0.000000310128405
-0.000000082159950
-0.000000310128405
-0.000000082159950
-0.000000310128405
-0.000000082159950
-0.000000467334837
0.000000517792904
-0.000000467334837
0.000000517792904
-0.000000467334837
0.000000517792904
-0.000000467334837
0.000000517792904
-0.000000467334837
0.000000517792904
-0.000000467334837
0.000000517792904
-0.000000467334837
0.000000517792904
-0.000000467334837
0.000000517792904
-0.000000467334837
0.000000517792904
-0.000000467334837
0.000000517792904
-0.000000467334837
0.000000517792904
-0.000000467334837
0.000000517792904
-0.000000467334837
0.000000517792904
-0.000000467334837
0.000000517792904
-0.000000467334837
0.000000517792904
-0.000000467334837
0.000000517792904
-0.000000025713700
0.000000233656845
-0.000000025713700
0.000000233656845
-0.000000025713700
0.000000233656845
-0.000000025713700
0.000000233656845
-0.000000025713700
0.000000233656845
-0.000000025713700
0.000000233656845
-0.000000025713700
0.000000233656845
-0.000000025713700
0.000000233656845
-0.000000025713700
0.000000233656845
-0.000000025713700
0.000000233656845
-0.000000025713700
0.000000233656845
-0.000000025713700
0.000000233656845
-0.000000025713700
0.000000233656845
-0.000000025713700
0.000000233656845
-0.000000025713700
0.000000233656845
-0.000000025713700
0.000000233656845
-0.000000467334837
0.000000517792904
-0.000000467334837
0.000000517792904
-0.000000467334837
0.000000517792904
-0.000000467334837
0.000000517792904
-0.000000467334837
0.000000517792904
-0.000000467334837
0.000000517792904
-0.000000467334837
0.000000517792904
-0.000000467334837
0.000000517792904
-0.000000467334837
0.000000517792904
-0.000000467334837
0.000000517792904
-0.000000467334837
0.000000517792904
-0.000000467334837
0.000000517792904
-0.000000467334837
0.000000517792904
-0.000000467334837
0.000000517792904
-0.000000467334837
0.000000517792904
-0.000000467334837
0.000000517792904
-0.000000025713700
0.000000233656845
-0.000000025713700
0.000000233656845
-0.000000025713700
0.000000233656845
-0.000000025713700
0.000000233656845
-0.000000025713700
0.000000233656845
-0.000000025713700
0.000000233656845
-0.000000025713700
0.000000233656845
-0.000000025713700
0.000000233656845
-0.000000025713700
0.000000233656845
-0.000000025713700
0.000000233656845
-0.000000025713700
0.000000233656845
-0.000000025713700
0.000000233656845
-0.000000025713700
0.000000233656845
-0.000000025713700
0.000000233656845
-0.000000025713700
0.000000233656845
-0.000000025713700
0.000000233656845
-0.000000467334837
0.000000517792904
-0.000000467334837
0.000000517792904
-0.000000467334837
0.000000517792904
-0.000000467334837
0.000000517792904
-0.000000467334837
0.000000517792904
-0.000000467334837
0.000000517792904
-0.000000467334837
0.000000517792904
-0.000000467334837
0.000000517792904
-0.000000467334837
0.000000517792904
-0.000000467334837
0.000000517792904
-0.000000467334837
0.000000517792904
-0.000000467334837
0.000000517792904
-0.000000467334837
0.000000517792904
-0.000000467334837
0.000000517792904
-0.000000467334837
0.000000517792904
-0.000000467334837
0.000000517792904
-0.000000025713700
0.000000233656845
-0.000000025713700
0.000000233656845
-0.000000025713700
0.000000233656845
-0.000000025713700
0.000000233656845
-0.000000025713700
0.000000233656845
-0.000000025713700
0.000000233656845
-0.000000025713700
0.000000233656845
-0.000000025713700
0.000000233656845
-0.000000025713700
0.000000233656845
-0.000000025713700
0.000000233656845
-0.000000025713700
0.000000233656845
-0.000000025713700
0.000000233656845
-0.000000025713700
0.000000233656845
-0.000000025713700
0.000000233656845
-0.000000025713700
0.000000233656845
-0.000000025713700
0.000000233656845
-0.000000467334837
0.000000517792904
-0.000000467334837
0.000000517792904
-0.000000467334837
0.000000517792904
-0.000000467334837
0.000000517792904
-0.000000467334837
0.000000517792904
-0.000000467334837
0.000000517792904
-0.000000467334837
0.000000517792904
-0.000000467334837
0.000000517792904
-0.000000467334837
0.000000517792904
-0.000000467334837
0.000000517792904
-0.000000467334837
0.000000517792904
-0.000000467334837
0.000000517792904
-0.000000467334837
0.000000517792904
-0.000000467334837
0.000000517792904
-0.000000467334837
0.000000517792904
-0.000000467334837
0.000000517792904
-0.000000025713700
0.000000233656845
-0.000000025713700
0.000000233656845
-0.000000025713700
0.000000233656845
-0.000000025713700
0.000000233656845
-0.000000025713700
0.000000233656845
-0.000000025713700
0.000000233656845
-0.000000025713700
0.000000233656845
-0.000000025713700
0.000000233656845
-0.000000025713700
0.000000233656845
-0.000000025713700
0.000000233656845
-0.000000025713700
0.000000233656845
-0.000000025713700
0.000000233656845
-0.000000025713700
0.000000233656845
-0.000000025713700
0.000000233656845
-0.000000025713700
0.000000233656845
-0.000000025713700
0.000000233656845
-0.000000467334837
0.000000517792904
-0.000000467334837
0.000000517792904
-0.000000467334837
0.000000517792904
-0.000000467334837
0.000000517792904
-0.000000467334837
0.000000517792904
-0.000000467334837
0.000000517792904
-0.000000467334837
0.000000517792904
-0.000000467334837
0.000000517792904
-0.000000467334837
0.000000517792904
-0.000000467334837
0.000000517792904
-0.000000467334837
0.000000517792904
-0.000000467334837
0.000000517792904
-0.000000467334837
0.000000517792904
-0.000000467334837
0.000000517792904
-0.000000467334837
0.000000517792904
-0.000000467334837
0.000000517792904
-0.000000025713700
0.000000233656845
-0.000000025713700
0.000000233656845
-0.000000025713700
0.000000233656845
-0.000000025713700
0.000000233656845
-0.000000025713700
0.000000233656845
-0.000000025713700
0.000000233656845
-0.000000025713700
0.000000233656845
-0.000000025713700
0.000000233656845
-0.000000025713700
0.000000233656845
-0.000000025713700
0.000000233656845
-0.000000025713700
0.000000233656845
-0.000000025713700
0.000000233656845
-0.000000025713700
0.000000233656845
-0.000000025713700
0.000000233656845
-0.000000025713700
0.000000233656845
-0.000000025713700
0.000000233656845
-0.000000467334837
0.000000517792904
-0.000000467334837
0.000000517792904
-0.000000467334837
0.000000517792904
-0.000000467334837
0.000000517792904
-0.000000467334837
0.000000517792904
-0.000000467334837
0.000000517792904
-0.000000467334837
0.000000517792904
-0.000000467334837
0.000000517792904
-0.000000467334837
0.000000517792904
-0.000000467334837
0.000000517792904
-0.000000467334837
0.000000517792904
-0.000000467334837
0.000000517792904
-0.000000467334837
0.000000517792904
-0.000000467334837
0.000000517792904
-0.000000467334837
0.000000517792904
-0.000000467334837
0.000000517792904
-0.000000025713700
0.000000233656845
-0.000000025713700
0.000000233656845
-0.000000025713700
0.000000233656845
-0.000000025713700
0.000000233656845
-0.000000025713700
0.000000233656845
-0.000000025713700
0.000000233656845
-0.000000025713700
0.000000233656845
-0.000000025713700
0.000000233656845
-0.000000025713700
0.000000233656845
-0.000000025713700
0.000000233656845
-0.000000025713700
0.000000233656845
-0.000000025713700
0.000000233656845
-0.000000025713700
0.000000233656845
-0.000000025713700
0.000000233656845
-0.000000025713700
0.000000233656845
-0.000000025713700
0.000000233656845
-0.000000467334837
0.000000517792904
-0.000000467334837
0.000000517792904
-0.000000467334837
0.000000517792904
-0.000000467334837
0.000000517792904
-0.000000467334837
0.000000517792904
-0.000000467334837
0.000000517792904
-0.000000467334837
0.000000517792904
-0.000000467334837
0.000000517792904
-0.000000467334837
0.000000517792904
-0.000000467334837
0.000000517792904
-0.000000467334837
0.000000517792904
-0.000000467334837
0.000000517792904
-0.000000467334837
0.000000517792904
-0.000000467334837
0.000000517792904
-0.000000467334837
0.000000517792904
-0.000000467334837
0.000000517792904
-0.000000025713700
0.000000233656845
-0.000000025713700
0.000000233656845
-0.000000025713700
0.000000233656845
-0.000000025713700
0.000000233656845
-0.000000025713700
0.000000233656845
-0.000000025713700
0.000000233656845
-0.000000025713700
0.000000233656845
-0.000000025713700
0.000000233656845
-0.000000025713700
0.000000233656845
-0.000000025713700
0.000000233656845
-0.000000025713700
0.000000233656845
-0.000000025713700
0.000000233656845
-0.000000025713700
0.000000233656845
-0.000000025713700
0.000000233656845
-0.000000025713700
0.000000233656845
-0.000000025713700
0.000000233656845
-0.000000467334837
0.000000517792904
-0.000000467334837
0.000000517792904
-0.000000467334837
0.000000517792904
-0.000000467334837
0.000000517792904
-0.000000467334837
0.000000517792904
-0.000000467334837
0.000000517792904
-0.000000467334837
0.000000517792904
-0.000000467334837
0.000000517792904
-0.000000467334837
0.000000517792904
-0.000000467334837
0.000000517792904
-0.000000467334837
0.000000517792904
-0.000000467334837
0.000000517792904
-0.000000467334837
0.000000517792904
-0.000000467334837
0.000000517792904
-0.000000467334837
0.000000517792904
-0.000000467334837
0.000000517792904
-0.000000025713700
0.000000233656845
-0.000000025713700
0.000000233656845
-0.000000025713700
0.000000233656845
-0.000000025713700
0.000000233656845
-0.000000025713700
0.000000233656845
-0.000000025713700
0.000000233656845
-0.000000025713700
0.000000233656845
-0.000000025713700
0.000000233656845
-0.000000025713700
0.000000233656845
-0.000000025713700
0.000000233656845
-0.000000025713700
0.000000233656845
-0.000000025713700
0.000000233656845
-0.000000025713700
0.000000233656845
-0.000000025713700
0.000000233656845
-0.000000025713700
0.000000233656845
-0.000000025713700
0.000000233656845
-0.000000467334837
0.000000517792904
-0.000000467334837
0.000000517792904
-0.000000467334837
0.000000517792904
-0.000000467334837
0.000000517792904
-0.000000467334837
0.000000517792904
-0.000000467334837
0.000000517792904
-0.000000467334837
0.000000517792904
-0.000000467334837
0.000000517792904
-0.000000467334837
0.000000517792904
-0.000000467334837
0.000000517792904
-0.000000467334837
0.000000517792904
-0.000000467334837
0.000000517792904
-0.000000467334837
0.000000517792904
-0.000000467334837
0.000000517792904
-0.000000467334837
0.000000517792904
-0.000000467334837
0.000000517792904
-0.000000025713700
0.000000233656845
-0.000000025713700
0.000000233656845
-0.000000025713700
0.000000233656845
-0.000000025713700
0.000000233656845
-0.000000025713700
0.000000233656845
-0.000000025713700
0.000000233656845
-0.000000025713700
0.000000233656845
-0.000000025713700
0.000000233656845
-0.000000025713700
0.000000233656845
-0.000000025713700
0.000000233656845
-0.000000025713700
0.000000233656845
-0.000000025713700
0.000000233656845
-0.000000025713700
0.000000233656845
-0.000000025713700
0.000000233656845
-0.000000025713700
0.000000233656845
-0.000000025713700
0.000000233656845
-0.000000467334837
0.000000517792904
-0.000000467334837
0.000000517792904
-0.000000467334837
0.000000517792904
-0.000000467334837
0.000000517792904
-0.000000467334837
0.000000517792904
-0.000000467334837
0.000000517792904
-0.000000467334837
0.000000517792904
-0.000000467334837
0.000000517792904
-0.000000467334837
0.000000517792904
-0.000000467334837
0.000000517792904
-0.000000467334837
0.000000517792904
-0.000000467334837
0.000000517792904
-0.000000467334837
0.000000517792904
-0.000000467334837
0.000000517792904
-0.000000467334837
0.000000517792904
-0.000000467334837
0.000000517792904
-0.000000025713700
0.000000233656845
-0.000000025713700
0.000000233656845
-0.000000025713700
0.000000233656845
-0.000000025713700
0.000000233656845
-0.000000025713700
0.000000233656845
-0.000000025713700
0.000000233656845
-0.000000025713700
0.000000233656845
-0.000000025713700
0.000000233656845
-0.000000025713700
0.000000233656845
-0.000000025713700
0.000000233656845
-0.000000025713700
0.000000233656845
-0.000000025713700
0.000000233656845
-0.000000025713700
0.000000233656845
-0.000000025713700
0.000000233656845
-0.000000025713700
0.000000233656845
-0.000000025713700
0.000000233656845
-0.000000467334837
0.000000517792904
-0.000000467334837
0.000000517792904
-0.000000467334837
0.000000517792904
-0.000000467334837
0.000000517792904
-0.000000467334837
0.000000517792904
-0.000000467334837
0.000000517792904
-0.000000467334837
0.000000517792904
-0.000000467334837
0.000000517792904
-0.000000467334837
0.000000517792904
-0.000000467334837
0.000000517792904
-0.000000467334837
0.000000517792904
-0.000000467334837
0.000000517792904
-0.000000467334837
0.000000517792904
-0.000000467334837
0.000000517792904
-0.000000467334837
0.000000517792904
-0.000000467334837
0.000000517792904
-0.000000025713700
0.000000233656845
-0.000000025713700
0.000000233656845
-0.000000025713700
0.000000233656845
-0.000000025713700
0.000000233656845
-0.000000025713700
0.000000233656845
-0.000000025713700
0.000000233656845
-0.000000025713700
0.000000233656845
-0.000000025713700
0.000000233656845
-0.000000025713700
0.000000233656845
-0.000000025713700
0.000000233656845
-0.000000025713700
0.000000233656845
-0.000000025713700
0.000000233656845
-0.000000025713700
0.000000233656845
-0.000000025713700
0.000000233656845
-0.000000025713700
0.000000233656845
-0.000000025713700
0.000000233656845
-0.000000467334837
0.000000517792904
-0.000000467334837
0.000000517792904
-0.000000467334837
0.000000517792904
-0.000000467334837
0.000000517792904
-0.000000467334837
0.000000517792904
-0.000000467334837
0.000000517792904
-0.000000467334837
0.000000517792904
-0.000000467334837
0.000000517792904
-0.000000467334837
0.000000517792904
-0.000000467334837
0.000000517792904
-0.000000467334837
0.000000517792904
-0.000000467334837
0.000000517792904
-0.000000467334837
0.000000517792904
-0.000000467334837
0.000000517792904
-0.000000467334837
0.000000517792904
-0.000000467334837
0.000000517792904
-0.000000025713700
0.000000233656845
-0.000000025713700
0.000000233656845
-0.000000025713700
0.000000233656845
-0.000000025713700
0.000000233656845
-0.000000025713700
0.000000233656845
-0.000000025713700
0.000000233656845
-0.000000025713700
0.000000233656845
-0.000000025713700
0.000000233656845
-0.000000025713700
0.000000233656845
-0.000000025713700
0.000000233656845
-0.000000025713700
0.000000233656845
-0.000000025713700
0.000000233656845
-0.000000025713700
0.000000233656845
-0.000000025713700
0.000000233656845
-0.000000025713700
0.000000233656845
-0.000000025713700
0.000000233656845
-0.000000467334837
0.000000517792904
-0.000000467334837
0.000000517792904
-0.000000467334837
0.000000517792904
-0.000000467334837
0.000000517792904
-0.000000467334837
0.000000517792904
-0.000000467334837
0.000000517792904
-0.000000467334837
0.000000517792904
-0.000000467334837
0.000000517792904
-0.000000467334837
0.000000517792904
-0.000000467334837
0.000000517792904
-0.000000467334837
0.000000517792904
-0.000000467334837
0.000000517792904
-0.000000467334837
0.000000517792904
-0.000000467334837
0.000000517792904
-0.000000467334837
0.000000517792904
-0.000000467334837
0.000000517792904
-0.000000025713700
0.000000233656845
-0.000000025713700
0.000000233656845
-0.000000025713700
0.000000233656845
-0.000000025713700
0.000000233656845
-0.000000025713700
0.000000233656845
-0.000000025713700
0.000000233656845
-0.000000025713700
0.000000233656845
-0.000000025713700
0.000000233656845
-0.000000025713700
0.000000233656845
-0.000000025713700
0.000000233656845
-0.000000025713700
0.000000233656845
-0.000000025713700
0.000000233656845
-0.000000025713700
0.000000233656845
-0.000000025713700
0.000000233656845
-0.000000025713700
0.000000233656845
-0.000000025713700
0.000000233656845
-0.000000467334837
0.000000517792904
-0.000000467334837
0.000000517792904
-0.000000467334837
0.000000517792904
-0.000000467334837
0.000000517792904
-0.000000467334837
0.000000517792904
-0.000000467334837
0.000000517792904
-0.000000467334837
0.000000517792904
-0.000000467334837
0.000000517792904
-0.000000467334837
0.000000517792904
-0.000000467334837
0.000000517792904
-0.000000467334837
0.000000517792904
-0.000000467334837
0.000000517792904
-0.000000467334837
0.000000517792904
-0.000000467334837
0.000000517792904
-0.000000467334837
0.000000517792904
-0.000000467334837
0.000000517792904
-0.000000025713700
0.000000233656845
-0.000000025713700
0.000000233656845
-0.000000025713700
0.000000233656845
-0.000000025713700
0.000000233656845
-0.000000025713700
0.000000233656845
-0.000000025713700
0.000000233656845
-0.000000025713700
0.000000233656845
-0.000000025713700
0.000000233656845
-0.000000025713700
0.000000233656845
-0.000000025713700
0.000000233656845
-0.000000025713700
0.000000233656845
-0.000000025713700
0.000000233656845
-0.000000025713700
0.000000233656845
-0.000000025713700
0.000000233656845
-0.000000025713700
0.000000233656845
-0.000000025713700
0.000000233656845
-0.000000467334837
0.000000517792904
-0.000000467334837
0.000000517792904
-0.000000467334837
0.000000517792904
-0.000000467334837
0.000000517792904
-0.000000467334837
0.000000517792904
-0.000000467334837
0.000000517792904
-0.000000467334837
0.000000517792904
-0.000000467334837
0.000000517792904
-0.000000467334837
0.000000517792904
-0.000000467334837
0.000000517792904
-0.000000467334837
0.000000517792904
-0.000000467334837
0.000000517792904
-0.000000467334837
0.000000517792904
-0.000000467334837
0.000000517792904
-0.000000467334837
0.000000517792904
-0.000000467334837
0.000000517792904
-0.000000025713700
0.000000233656845
-0.000000025713700
0.000000233656845
-0.000000025713700
0.000000233656845
-0.000000025713700
0.000000233656845
-0.000000025713700
0.000000233656845
-0.000000025713700
0.000000233656845
-0.000000025713700
0.000000233656845
-0.000000025713700
0.000000233656845
-0.000000025713700
0.000000233656845
-0.000000025713700
0.000000233656845
-0.000000025713700
0.000000233656845
-0.000000025713700
0.000000233656845
-0.000000025713700
0.000000233656845
-0.000000025713700
0.000000233656845
-0.000000025713700
0.000000233656845
-0.000000025713700
0.000000233656845
-0.000000467334837
0.000000517792904
-0.000000467334837
0.000000517792904
-0.000000467334837
0.000000517792904
-0.000000467334837
0.000000517792904
-0.000000467334837
0.000000517792904
-0.000000467334837
0.000000517792904
-0.000000467334837
0.000000517792904
-0.000000467334837
0.000000517792904
-0.000000467334837
0.000000517792904
-0.000000467334837
0.000000517792904
-0.000000467334837
0.000000517792904
-0.000000467334837
0.000000517792904
-0.000000467334837
0.000000517792904
-0.000000467334837
0.000000517792904
-0.000000467334837
0.000000517792904
-0.000000467334837
0.000000517792904
-0.000000025713700
0.000000233656845
-0.000000025713700
0.000000233656845
-0.000000025713700
0.000000233656845
-0.000000025713700
0.000000233656845
-0.000000025713700
0.000000233656845
-0.000000025713700
0.000000233656845
-0.000000025713700
0.000000233656845
-0.000000025713700
0.000000233656845
-0.000000025713700
0.000000233656845
-0.000000025713700
0.000000233656845
-0.000000025713700
0.000000233656845
-0.000000025713700
0.000000233656845
-0.000000025713700
0.000000233656845
-0.000000025713700
0.000000233656845
-0.000000025713700
0.000000233656845
-0.000000025713700
0.000000233656845
-0.000000206026523
0.000000100999397
-0.000000206026523
0.000000100999397
-0.000000206026523
0.000000100999397
-0.000000206026523
0.000000100999397
-0.000000206026523
0.000000100999397
-0.000000206026523
0.000000100999397
-0.000000206026523
0.000000100999397
-0.000000206026523
0.000000100999397
-0.000000206026523
0.000000100999397
-0.000000206026523
0.000000100999397
-0.000000206026523
0.000000100999397
-0.000000206026523
0.000000100999397
-0.000000206026523
0.000000100999397
-0.000000206026523
0.000000100999397
-0.000000206026523
0.000000100999397
-0.000000206026523
0.000000100999397
-0.000000001042909
0.000000417467811
-0.000000001042909
0.000000417467811
-0.000000001042909
0.000000417467811
-0.000000001042909
0.000000417467811
-0.000000001042909
0.000000417467811
-0.000000001042909
0.000000417467811
-0.000000001042909
0.000000417467811
-0.000000001042909
0.000000417467811
-0.000000001042909
0.000000417467811
-0.000000001042909
0.000000417467811
-0.000000001042909
0.000000417467811
-0.000000001042909
0.000000417467811
-0.000000001042909
0.000000417467811
-0.000000001042909
0.000000417467811
-0.000000001042909
0.000000417467811
-0.000000001042909
0.000000417467811
-0.000000206026523
0.000000100999397
-0.000000206026523
0.000000100999397
-0.000000206026523
0.000000100999397
-0.000000206026523
0.000000100999397
-0.000000206026523
0.000000100999397
-0.000000206026523
0.000000100999397
-0.000000206026523
0.000000100999397
-0.000000206026523
0.000000100999397
-0.000000206026523
0.000000100999397
-0.000000206026523
0.000000100999397
-0.000000206026523
0.000000100999397
-0.000000206026523
0.000000100999397
-0.000000206026523
0.000000100999397
-0.000000206026523
0.000000100999397
-0.000000206026523
0.000000100999397
-0.000000206026523
0.000000100999397
-0.000000001042909
0.000000417467811
-0.000000001042909
0.000000417467811
-0.000000001042909
0.000000417467811
-0.000000001042909
0.000000417467811
-0.000000001042909
0.000000417467811
-0.000000001042909
0.000000417467811
-0.000000001042909
0.000000417467811
-0.000000001042909
0.000000417467811
-0.000000001042909
0.000000417467811
-0.000000001042909
0.000000417467811
-0.000000001042909
0.000000417467811
-0.000000001042909
0.000000417467811
-0.000000001042909
0.000000417467811
-0.000000001042909
0.000000417467811
-0.000000001042909
0.000000417467811
-0.000000001042909
0.000000417467811
-0.000000206026523
0.000000100999397
-0.000000206026523
0.000000100999397
-0.000000206026523
0.000000100999397
-0.000000206026523
0.000000100999397
-0.000000206026523
0.000000100999397
-0.000000206026523
0.000000100999397
-0.000000206026523
0.000000100999397
-0.000000206026523
0.000000100999397
-0.000000206026523
0.000000100999397
-0.000000206026523
0.000000100999397
-0.000000206026523
0.000000100999397
-0.000000206026523
0.000000100999397
-0.000000206026523
0.000000100999397
-0.000000206026523
0.000000100999397
-0.000000206026523
0.000000100999397
-0.000000206026523
0.000000100999397
-0.000000001042909
0.000000417467811
-0.000000001042909
0.000000417467811
-0.000000001042909
0.000000417467811
-0.000000001042909
0.000000417467811
-0.000000001042909
0.000000417467811
-0.000000001042909
0.000000417467811
-0.000000001042909
0.000000417467811
-0.000000001042909
0.000000417467811
-0.000000001042909
0.000000417467811
-0.000000001042909
0.000000417467811
-0.000000001042909
0.000000417467811
-0.000000001042909
0.000000417467811
-0.000000001042909
0.000000417467811
-0.000000001042909
0.000000417467811
-0.000000001042909
0.000000417467811
-0.000000001042909
0.000000417467811
-0.000000206026523
0.000000100999397
-0.000000206026523
0.000000100999397
-0.000000206026523
0.000000100999397
-0.000000206026523
0.000000100999397
-0.000000206026523
0.000000100999397
-0.000000206026523
0.000000100999397
-0.000000206026523
0.000000100999397
-0.000000206026523
0.000000100999397
-0.000000206026523
0.000000100999397
-0.000000206026523
0.000000100999397
-0.000000206026523
0.000000100999397
-0.000000206026523
0.000000100999397
-0.000000206026523
0.000000100999397
-0.000000206026523
0.000000100999397
-0.000000206026523
0.000000100999397
-0.000000206026523
0.000000100999397
-0.000000001042909
0.000000417467811
-0.000000001042909
0.000000417467811
-0.000000001042909
0.000000417467811
-0.000000001042909
0.000000417467811
-0.000000001042909
0.000000417467811
-0.000000001042909
0.000000417467811
-0.000000001042909
0.000000417467811
-0.000000001042909
0.000000417467811
-0.000000001042909
0.000000417467811
-0.000000001042909
0.000000417467811
-0.000000001042909
0.000000417467811
-0.000000001042909
0.000000417467811
-0.000000001042909
0.000000417467811
-0.000000001042909
0.000000417467811
-0.000000001042909
0.000000417467811
-0.000000001042909
0.000000417467811
-0.000000206026523
0.000000100999397
-0.000000206026523
0.000000100999397
-0.000000206026523
0.000000100999397
-0.000000206026523
0.000000100999397
-0.000000206026523
0.000000100999397
-0.000000206026523
0.000000100999397
-0.000000206026523
0.000000100999397
-0.000000206026523
0.000000100999397
-0.000000206026523
0.000000100999397
-0.000000206026523
0.000000100999397
-0.000000206026523
0.000000100999397
-0.000000206026523
0.000000100999397
-0.000000206026523
0.000000100999397
-0.000000206026523
0.000000100999397
-0.000000206026523
0.000000100999397
-0.000000206026523
0.000000100999397
-0.000000001042909
0.000000417467811
-0.000000001042909
0.000000417467811
-0.000000001042909
0.000000417467811
-0.000000001042909
0.000000417467811
-0.000000001042909
0.000000417467811
-0.000000001042909
0.000000417467811
-0.000000001042909
0.000000417467811
-0.000000001042909
0.000000417467811
-0.000000001042909
0.000000417467811
-0.000000001042909
0.000000417467811
-0.000000001042909
0.000000417467811
-0.000000001042909
0.000000417467811
-0.000000001042909
0.000000417467811
-0.000000001042909
0.000000417467811
-0.000000001042909
0.000000417467811
-0.000000001042909
0.000000417467811
-0.000000206026523
0.000000100999397
-0.000000206026523
0.000000100999397
-0.000000206026523
0.000000100999397
-0.000000206026523
0.000000100999397
-0.000000206026523
0.000000100999397
-0.000000206026523
0.000000100999397
-0.000000206026523
0.000000100999397
-0.000000206026523
0.000000100999397
-0.000000206026523
0.000000100999397
-0.000000206026523
0.000000100999397
-0.000000206026523
0.000000100999397
-0.000000206026523
0.000000100999397
-0.000000206026523
0.000000100999397
-0.000000206026523
0.000000100999397
-0.000000206026523
0.000000100999397
-0.000000206026523
0.000000100999397
-0.000000001042909
0.000000417467811
-0.000000001042909
0.000000417467811
-0.000000001042909
0.000000417467811
-0.000000001042909
0.000000417467811
-0.000000001042909
0.000000417467811
-0.000000001042909
0.000000417467811
-0.000000001042909
0.000000417467811
-0.000000001042909
0.000000417467811
-0.000000001042909
0.000000417467811
-0.000000001042909
0.000000417467811
-0.000000001042909
0.000000417467811
-0.000000001042909
0.000000417467811
-0.000000001042909
0.000000417467811
-0.000000001042909
0.000000417467811
-0.000000001042909
0.000000417467811
-0.000000001042909
0.000000417467811
-0.000000206026523
0.000000100999397
-0.000000206026523
0.000000100999397
-0.000000206026523
0.000000100999397
-0.000000206026523
0.000000100999397
-0.000000206026523
0.000000100999397
-0.000000206026523
0.000000100999397
-0.000000206026523
0.000000100999397
-0.000000206026523
0.000000100999397
-0.000000206026523
0.000000100999397
-0.000000206026523
0.000000100999397
-0.000000206026523
0.000000100999397
-0.000000206026523
0.000000100999397
-0.000000206026523
0.000000100999397
-0.000000206026523
0.000000100999397
-0.000000206026523
0.000000100999397
-0.000000206026523
0.000000100999397
-0.000000001042909
0.000000417467811
-0.000000001042909
0.000000417467811
-0.000000001042909
0.000000417467811
-0.000000001042909
0.000000417467811
-0.000000001042909
0.000000417467811
-0.000000001042909
0.000000417467811
-0.000000001042909
0.000000417467811
-0.000000001042909
0.000000417467811
-0.000000001042909
0.000000417467811
-0.000000001042909
0.000000417467811
-0.000000001042909
0.000000417467811
-0.000000001042909
0.000000417467811
-0.000000001042909
0.000000417467811
-0.000000001042909
0.000000417467811
-0.000000001042909
0.000000417467811
-0.000000001042909
0.000000417467811
-0.000000206026523
0.000000100999397
-0.000000206026523
0.000000100999397
-0.000000206026523
0.000000100999397
-0.000000206026523
0.000000100999397
-0.000000206026523
0.000000100999397
-0.000000206026523
0.000000100999397
-0.000000206026523
0.000000100999397
-0.000000206026523
0.000000100999397
-0.000000206026523
0.000000100999397
-0.000000206026523
0.000000100999397
-0.000000206026523
0.000000100999397
-0.000000206026523
0.000000100999397
-0.000000206026523
0.000000100999397
-0.000000206026523
0.000000100999397
-0.000000206026523
0.000000100999397
-0.000000206026523
0.000000100999397
-0.000000001042909
0.000000417467811
-0.000000001042909
0.000000417467811
-0.000000001042909
0.000000417467811
-0.000000001042909
0.000000417467811
-0.000000001042909
0.000000417467811
-0.000000001042909
0.000000417467811
-0.000000001042909
0.000000417467811
-0.000000001042909
0.000000417467811
-0.000000001042909
0.000000417467811
-0.000000001042909
0.000000417467811
-0.000000001042909
0.000000417467811
-0.000000001042909
0.000000417467811
-0.000000001042909
0.000000417467811
-0.000000001042909
0.000000417467811
-0.000000001042909
0.000000417467811
-0.000000001042909
0.000000417467811
-0.000000206026523
0.000000100999397
-0.000000206026523
0.000000100999397
-0.000000206026523
0.000000100999397
-0.000000206026523
0.000000100999397
-0.000000206026523
0.000000100999397
-0.000000206026523
0.000000100999397
-0.000000206026523
0.000000100999397
-0.000000206026523
0.000000100999397
-0.000000206026523
0.000000100999397
-0.000000206026523
0.000000100999397
-0.000000206026523
0.000000100999397
-0.000000206026523
0.000000100999397
-0.000000206026523
0.000000100999397
-0.000000206026523
0.000000100999397
-0.000000206026523
0.000000100999397
-0.000000206026523
0.000000100999397
-0.000000001042909
0.000000417467811
-0.000000001042909
0.000000417467811
-0.000000001042909
0.000000417467811
-0.000000001042909
0.000000417467811
-0.000000001042909
0.000000417467811
-0.000000001042909
0.000000417467811
-0.000000001042909
0.000000417467811
-0.000000001042909
0.000000417467811
-0.000000001042909
0.000000417467811
-0.000000001042909
0.000000417467811
-0.000000001042909
0.000000417467811
-0.000000001042909
0.000000417467811
-0.000000001042909
0.000000417467811
-0.000000001042909
0.000000417467811
-0.000000001042909
0.000000417467811
-0.000000001042909
0.000000417467811
-0.000000206026523
0.000000100999397
-0.000000206026523
0.000000100999397
-0.000000206026523
0.000000100999397
-0.000000206026523
0.000000100999397
-0.000000206026523
0.000000100999397
-0.000000206026523
0.000000100999397
-0.000000206026523
0.000000100999397
-0.000000206026523
0.000000100999397
-0.000000206026523
0.000000100999397
-0.000000206026523
0.000000100999397
-0.000000206026523
0.000000100999397
-0.000000206026523
0.000000100999397
-0.000000206026523
0.000000100999397
-0.000000206026523
0.000000100999397
-0.000000206026523
0.000000100999397
-0.000000206026523
0.000000100999397
-0.000000001042909
0.000000417467811
-0.000000001042909
0.000000417467811
-0.000000001042909
0.000000417467811
-0.000000001042909
0.000000417467811
-0.000000001042909
0.000000417467811
-0.000000001042909
0.000000417467811
-0.000000001042909
0.000000417467811
-0.000000001042909
0.000000417467811
-0.000000001042909
0.000000417467811
-0.000000001042909
0.000000417467811
-0.000000001042909
0.000000417467811
-0.000000001042909
0.000000417467811
-0.000000001042909
0.000000417467811
-0.000000001042909
0.000000417467811
-0.000000001042909
0.000000417467811
-0.000000001042909
0.000000417467811
-0.000000206026523
0.000000100999397
-0.000000206026523
0.000000100999397
-0.000000206026523
0.000000100999397
-0.000000206026523
0.000000100999397
-0.000000206026523
0.000000100999397
-0.000000206026523
0.000000100999397
-0.000000206026523
0.000000100999397
-0.000000206026523
0.000000100999397
-0.000000206026523
0.000000100999397
-0.000000206026523
0.000000100999397
-0.000000206026523
0.000000100999397
-0.000000206026523
0.000000100999397
-0.000000206026523
0.000000100999397
-0.000000206026523
0.000000100999397
-0.000000206026523
0.000000100999397
-0.000000206026523
0.000000100999397
-0.000000001042909
0.000000417467811
-0.000000001042909
0.000000417467811
-0.000000001042909
0.000000417467811
-0.000000001042909
0.000000417467811
-0.000000001042909
0.000000417467811
-0.000000001042909
0.000000417467811
-0.000000001042909
0.000000417467811
-0.000000001042909
0.000000417467811
-0.000000001042909
0.000000417467811
-0.000000001042909
0.000000417467811
-0.000000001042909
0.000000417467811
-0.000000001042909
0.000000417467811
-0.000000001042909
0.000000417467811
-0.000000001042909
0.000000417467811
-0.000000001042909
0.000000417467811
-0.000000001042909
0.000000417467811
-0.000000206026523
0.000000100999397
-0.000000206026523
0.000000100999397
-0.000000206026523
0.000000100999397
-0.000000206026523
0.000000100999397
-0.000000206026523
0.000000100999397
-0.000000206026523
0.000000100999397
-0.000000206026523
0.000000100999397
-0.000000206026523
0.000000100999397
-0.000000206026523
0.000000100999397
-0.000000206026523
0.000000100999397
-0.000000206026523
0.000000100999397
-0.000000206026523
0.000000100999397
-0.000000206026523
0.000000100999397
-0.000000206026523
0.000000100999397
-0.000000206026523
0.000000100999397
-0.000000206026523
0.000000100999397
-0.000000001042909
0.000000417467811
-0.000000001042909
0.000000417467811
-0.000000001042909
0.000000417467811
-0.000000001042909
0.000000417467811
-0.000000001042909
0.000000417467811
-0.000000001042909
0.000000417467811
-0.000000001042909
0.000000417467811
-0.000000001042909
0.000000417467811
-0.000000001042909
0.000000417467811
-0.000000001042909
0.000000417467811
-0.000000001042909
0.000000417467811
-0.000000001042909
0.000000417467811
-0.000000001042909
0.000000417467811
-0.000000001042909
0.000000417467811
-0.000000001042909
0.000000417467811
-0.000000001042909
0.000000417467811
-0.000000206026523
0.000000100999397
-0.000000206026523
0.000000100999397
-0.000000206026523
0.000000100999397
-0.000000206026523
0.000000100999397
-0.000000206026523
0.000000100999397
-0.000000206026523
0.000000100999397
-0.000000206026523
0.000000100999397
-0.000000206026523
0.000000100999397
-0.000000206026523
0.000000100999397
-0.000000206026523
0.000000100999397
-0.000000206026523
0.000000100999397
-0.000000206026523
0.000000100999397
-0.000000206026523
0.000000100999397
-0.000000206026523
0.000000100999397
-0.000000206026523
0.000000100999397
-0.000000206026523
0.000000100999397
-0.000000001042909
0.000000417467811
-0.000000001042909
0.000000417467811
-0.000000001042909
0.000000417467811
-0.000000001042909
0.000000417467811
-0.000000001042909
0.000000417467811
-0.000000001042909
0.000000417467811
-0.000000001042909
0.000000417467811
-0.000000001042909
0.000000417467811
-0.000000001042909
0.000000417467811
-0.000000001042909
0.000000417467811
-0.000000001042909
0.000000417467811
-0.000000001042909
0.000000417467811
-0.000000001042909
0.000000417467811
-0.000000001042909
0.000000417467811
-0.000000001042909
0.000000417467811
-0.000000001042909
0.000000417467811
-0.000000206026523
0.000000100999397
-0.000000206026523
0.000000100999397
-0.000000206026523
0.000000100999397
-0.000000206026523
0.000000100999397
-0.000000206026523
0.000000100999397
-0.000000206026523
0.000000100999397
-0.000000206026523
0.000000100999397
-0.000000206026523
0.000000100999397
-0.000000206026523
0.000000100999397
-0.000000206026523
0.000000100999397
-0.000000206026523
0.000000100999397
-0.000000206026523
0.000000100999397
-0.000000206026523
0.000000100999397
-0.000000206026523
0.000000100999397
-0.000000206026523
0.000000100999397
-0.000000206026523
0.000000100999397
-0.000000001042909
0.000000417467811
-0.000000001042909
0.000000417467811
-0.000000001042909
0.000000417467811
-0.000000001042909
0.000000417467811
-0.000000001042909
0.000000417467811
-0.000000001042909
0.000000417467811
-0.000000001042909
0.000000417467811
-0.000000001042909
0.000000417467811
-0.000000001042909
0.000000417467811
-0.000000001042909
0.000000417467811
-0.000000001042909
0.000000417467811
-0.000000001042909
0.000000417467811
-0.000000001042909
0.000000417467811
-0.000000001042909
0.000000417467811
-0.000000001042909
0.000000417467811
-0.000000001042909
0.000000417467811
-0.000000206026523
0.000000100999397
-0.000000206026523
0.000000100999397
-0.000000206026523
0.000000100999397
-0.000000206026523
0.000000100999397
-0.000000206026523
0.000000100999397
-0.000000206026523
0.000000100999397
-0.000000206026523
0.000000100999397
-0.000000206026523
0.000000100999397
-0.000000206026523
0.000000100999397
-0.000000206026523
0.000000100999397
-0.000000206026523
0.000000100999397
-0.000000206026523
0.000000100999397
-0.000000206026523
0.000000100999397
-0.000000206026523
0.000000100999397
-0.000000206026523
0.000000100999397
-0.000000206026523
0.000000100999397
-0.000000001042909
0.000000417467811
-0.000000001042909
0.000000417467811
-0.000000001042909
0.000000417467811
-0.000000001042909
0.000000417467811
-0.000000001042909
0.000000417467811
-0.000000001042909
0.000000417467811
-0.000000001042909
0.000000417467811
-0.000000001042909
0.000000417467811
-0.000000001042909
0.000000417467811
-0.000000001042909
0.000000417467811
-0.000000001042909
0.000000417467811
-0.000000001042909
0.000000417467811
-0.000000001042909
0.000000417467811
-0.000000001042909
0.000000417467811
-0.000000001042909
0.000000417467811
-0.000000001042909
0.000000417467811
-0.000000206026523
0.000000100999397
-0.000000206026523
0.000000100999397
-0.000000206026523
0.000000100999397
-0.000000206026523
0.000000100999397
-0.000000206026523
0.000000100999397
-0.000000206026523
0.000000100999397
-0.000000206026523
0.000000100999397
-0.000000206026523
0.000000100999397
-0.000000206026523
0.000000100999397
-0.000000206026523
0.000000100999397
-0.000000206026523
0.000000100999397
-0.000000206026523
0.000000100999397
-0.000000206026523
0.000000100999397
-0.000000206026523
0.000000100999397
-0.000000206026523
0.000000100999397
-0.000000206026523
0.000000100999397
-0.000000001042909
0.000000417467811
-0.000000001042909
0.000000417467811
-0.000000001042909
0.000000417467811
-0.000000001042909
0.000000417467811
-0.000000001042909
0.000000417467811
-0.000000001042909
0.000000417467811
-0.000000001042909
0.000000417467811
-0.000000001042909
0.000000417467811
-0.000000001042909
0.000000417467811
-0.000000001042909
0.000000417467811
-0.000000001042909
0.000000417467811
-0.000000001042909
0.000000417467811
-0.000000001042909
0.000000417467811
-0.000000001042909
0.000000417467811
-0.000000001042909
0.000000417467811
-0.000000001042909
0.000000417467811
-0.000000073560379
-0.000000244304340
-0.000000073560379
-0.000000244304340
-0.000000073560379
-0.000000244304340
-0.000000073560379
-0.000000244304340
-0.000000073560379
-0.000000244304340
-0.000000073560379
-0.000000244304340
-0.000000073560379
-0.000000244304340
-0.000000073560379
-0.000000244304340
-0.000000073560379
-0.000000244304340
-0.000000073560379
-0.000000244304340
-0.000000073560379
-0.000000244304340
-0.000000073560379
-0.000000244304340
-0.000000073560379
-0.000000244304340
-0.000000073560379
-0.000000244304340
-0.000000073560379
-0.000000244304340
-0.000000073560379
-0.000000244304340
0.000000033039340
0.000000284435104
0.000000033039340
0.000000284435104
0.000000033039340
0.000000284435104
0.000000033039340
0.000000284435104
0.000000033039340
0.000000284435104
0.000000033039340
0.000000284435104
0.000000033039340
0.000000284435104
0.000000033039340
0.000000284435104
0.000000033039340
0.000000284435104
0.000000033039340
0.000000284435104
0.000000033039340
0.000000284435104
0.000000033039340
0.000000284435104
0.000000033039340
0.000000284435104
0.000000033039340
0.000000284435104
0.000000033039340
0.000000284435104
0.000000033039340
0.000000284435104
-0.000000073560379
-0.000000244304340
-0.000000073560379
-0.000000244304340
-0.000000073560379
-0.000000244304340
-0.000000073560379
-0.000000244304340
-0.000000073560379
-0.000000244304340
-0.000000073560379
-0.000000244304340
-0.000000073560379
-0.000000244304340
-0.000000073560379
-0.000000244304340
-0.000000073560379
-0.000000244304340
-0.000000073560379
-0.000000244304340
-0.000000073560379
-0.000000244304340
-0.000000073560379
-0.000000244304340
-0.000000073560379
-0.000000244304340
-0.000000073560379
-0.000000244304340
-0.000000073560379
-0.000000244304340
-0.000000073560379
-0.000000244304340
0.000000033039340
0.000000284435104
0.000000033039340
0.000000284435104
0.000000033039340
0.000000284435104
0.000000033039340
0.000000284435104
0.000000033039340
0.000000284435104
0.000000033039340
0.000000284435104
0.000000033039340
0.000000284435104
0.000000033039340
0.000000284435104
0.000000033039340
0.000000284435104
0.000000033039340
0.000000284435104
0.000000033039340
0.000000284435104
0.000000033039340
0.000000284435104
0.000000033039340
0.000000284435104
0.000000033039340
0.000000284435104
0.000000033039340
0.000000284435104
0.000000033039340
0.000000284435104
-0.000000073560379
-0.000000244304340
-0.000000073560379
-0.000000244304340
-0.000000073560379
-0.000000244304340
-0.000000073560379
-0.000000244304340
-0.000000073560379
-0.000000244304340
-0.000000073560379
-0.000000244304340
-0.000000073560379
-0.000000244304340
-0.000000073560379
-0.000000244304340
-0.000000073560379
-0.000000244304340
-0.000000073560379
-0.000000244304340
-0.000000073560379
-0.000000244304340
-0.000000073560379
-0.000000244304340
-0.000000073560379
-0.000000244304340
-0.000000073560379
-0.000000244304340
-0.000000073560379
-0.000000244304340
-0.000000073560379
-0.000000244304340
0.000000033039340
0.000000284435104
0.000000033039340
0.000000284435104
0.000000033039340
0.000000284435104
0.000000033039340
0.000000284435104
0.000000033039340
0.000000284435104
0.000000033039340
0.000000284435104
0.000000033039340
0.000000284435104
0.000000033039340
0.000000284435104
0.000000033039340
0.000000284435104
0.000000033039340
0.000000284435104
0.000000033039340
0.000000284435104
0.000000033039340
0.000000284435104
0.000000033039340
0.000000284435104
0.000000033039340
0.000000284435104
0.000000033039340
0.000000284435104
0.000000033039340
0.000000284435104
-0.000000073560379
-0.000000244304340
-0.000000073560379
-0.000000244304340
-0.000000073560379
-0.000000244304340
-0.000000073560379
-0.000000244304340
-0.000000073560379
-0.000000244304340
-0.000000073560379
-0.000000244304340
-0.000000073560379
-0.000000244304340
-0.000000073560379
-0.000000244304340
-0.000000073560379
-0.000000244304340
-0.000000073560379
-0.000000244304340
-0.000000073560379
-0.000000244304340
-0.000000073560379
-0.000000244304340
-0.000000073560379
-0.000000244304340
-0.000000073560379
-0.000000244304340
-0.000000073560379
-0.000000244304340
-0.000000073560379
-0.000000244304340
0.000000033039340
0.000000284435104
0.000000033039340
0.000000284435104
0.000000033039340
0.000000284435104
0.000000033039340
0.000000284435104
0.000000033039340
0.000000284435104
0.000000033039340
0.000000284435104
0.000000033039340
0.000000284435104
0.000000033039340
0.000000284435104
0.000000033039340
0.000000284435104
0.000000033039340
0.000000284435104
0.000000033039340
0.000000284435104
0.000000033039340
0.000000284435104
0.000000033039340
0.000000284435104
0.000000033039340
0.000000284435104
0.000000033039340
0.000000284435104
0.000000033039340
0.000000284435104
-0.000000073560379
-0.000000244304340
-0.000000073560379
-0.000000244304340
-0.000000073560379
-0.000000244304340
-0.000000073560379
-0.000000244304340
-0.000000073560379
-0.000000244304340
-0.000000073560379
-0.000000244304340
-0.000000073560379
-0.000000244304340
-0.000000073560379
-0.000000244304340
-0.000000073560379
-0.000000244304340
-0.000000073560379
-0.000000244304340
-0.000000073560379
-0.000000244304340
-0.000000073560379
-0.000000244304340
-0.000000073560379
-0.000000244304340
-0.000000073560379
-0.000000244304340
-0.000000073560379
-0.000000244304340
-0.000000073560379
-0.000000244304340
0.000000033039340
0.000000284435104
0.000000033039340
0.000000284435104
0.000000033039340
0.000000284435104
0.000000033039340
0.000000284435104
0.000000033039340
0.000000284435104
0.000000033039340
0.000000284435104
0.000000033039340
0.000000284435104
0.000000033039340
0.000000284435104
0.000000033039340
0.000000284435104
0.000000033039340
0.000000284435104
0.000000033039340
0.000000284435104
0.000000033039340
0.000000284435104
0.000000033039340
0.000000284435104
0.000000033039340
0.000000284435104
0.000000033039340
0.000000284435104
0.000000033039340
0.000000284435104
-0.000000073560379
-0.000000244304340
-0.000000073560379
-0.000000244304340
-0.000000073560379
-0.000000244304340
-0.000000073560379
-0.000000244304340
-0.000000073560379
-0.000000244304340
-0.000000073560379
-0.000000244304340
-0.000000073560379
-0.000000244304340
-0.000000073560379
-0.000000244304340
-0.000000073560379
-0.000000244304340
-0.000000073560379
-0.000000244304340
-0.000000073560379
-0.000000244304340
-0.000000073560379
-0.000000244304340
-0.000000073560379
-0.000000244304340
-0.000000073560379
-0.000000244304340
-0.000000073560379
-0.000000244304340
-0.000000073560379
-0.000000244304340
0.000000033039340
0.000000284435104
0.000000033039340
0.000000284435104
0.000000033039340
0.000000284435104
0.000000033039340
0.000000284435104
0.000000033039340
0.000000284435104
0.000000033039340
0.000000284435104
0.000000033039340
0.000000284435104
0.000000033039340
0.000000284435104
0.000000033039340
0.000000284435104
0.000000033039340
0.000000284435104
0.000000033039340
0.000000284435104
0.000000033039340
0.000000284435104
0.000000033039340
0.000000284435104
0.000000033039340
0.000000284435104
0.000000033039340
0.000000284435104
0.000000033039340
0.000000284435104
-0.000000073560379
-0.000000244304340
-0.000000073560379
-0.000000244304340
-0.000000073560379
-0.000000244304340
-0.000000073560379
-0.000000244304340
-0.000000073560379
-0.000000244304340
-0.000000073560379
-0.000000244304340
-0.000000073560379
-0.000000244304340
-0.000000073560379
-0.000000244304340
-0.000000073560379
-0.000000244304340
-0.000000073560379
-0.000000244304340
-0.000000073560379
-0.000000244304340
-0.000000073560379
-0.000000244304340
-0.000000073560379
-0.000000244304340
-0.000000073560379
-0.000000244304340
-0.000000073560379
-0.000000244304340
-0.000000073560379
-0.000000244304340
0.000000033039340
0.000000284435104
0.000000033039340
0.000000284435104
0.000000033039340
0.000000284435104
0.000000033039340
0.000000284435104
0.000000033039340
0.000000284435104
0.000000033039340
0.000000284435104
0.000000033039340
0.000000284435104
0.000000033039340
0.000000284435104
0.000000033039340
0.000000284435104
0.000000033039340
0.000000284435104
0.000000033039340
0.000000284435104
0.000000033039340
0.000000284435104
0.000000033039340
0.000000284435104
0.000000033039340
0.000000284435104
0.000000033039340
0.000000284435104
0.000000033039340
0.000000284435104
-0.000000073560379
-0.000000244304340
-0.000000073560379
-0.000000244304340
-0.000000073560379
-0.000000244304340
-0.000000073560379
-0.000000244304340
-0.000000073560379
-0.000000244304340
-0.000000073560379
-0.000000244304340
-0.000000073560379
-0.000000244304340
-0.000000073560379
-0.000000244304340
-0.000000073560379
-0.000000244304340
-0.000000073560379
-0.000000244304340
-0.000000073560379
-0.000000244304340
-0.000000073560379
-0.000000244304340
-0.000000073560379
-0.000000244304340
-0.000000073560379
-0.000000244304340
-0.000000073560379
-0.000000244304340
-0.000000073560379
-0.000000244304340
0.000000033039340
0.000000284435104
0.000000033039340
0.000000284435104
0.000000033039340
0.000000284435104
0.000000033039340
0.000000284435104
0.000000033039340
0.000000284435104
0.000000033039340
0.000000284435104
0.000000033039340
0.000000284435104
0.000000033039340
0.000000284435104
0.000000033039340
0.000000284435104
0.000000033039340
0.000000284435104
0.000000033039340
0.000000284435104
0.000000033039340
0.000000284435104
0.000000033039340
0.000000284435104
0.000000033039340
0.000000284435104
0.000000033039340
0.000000284435104
0.000000033039340
0.000000284435104
-0.000000073560379
-0.000000244304340
-0.000000073560379
-0.000000244304340
-0.000000073560379
-0.000000244304340
-0.000000073560379
-0.000000244304340
-0.000000073560379
-0.000000244304340
-0.000000073560379
-0.000000244304340
-0.000000073560379
-0.000000244304340
-0.000000073560379
-0.000000244304340
-0.000000073560379
-0.000000244304340
-0.000000073560379
-0.000000244304340
-0.000000073560379
-0.000000244304340
-0.000000073560379
-0.000000244304340
-0.000000073560379
-0.000000244304340
-0.000000073560379
-0.000000244304340
-0.000000073560379
-0.000000244304340
-0.000000073560379
-0.000000244304340
0.000000033039340
0.000000284435104
0.000000033039340
0.000000284435104
0.000000033039340
0.000000284435104
0.000000033039340
0.000000284435104
0.000000033039340
0.000000284435104
0.000000033039340
0.000000284435104
0.000000033039340
0.000000284435104
0.000000033039340
0.000000284435104
0.000000033039340
0.000000284435104
0.000000033039340
0.000000284435104
0.000000033039340
0.000000284435104
0.000000033039340
0.000000284435104
0.000000033039340
0.000000284435104
0.000000033039340
0.000000284435104
0.000000033039340
0.000000284435104
0.000000033039340
0.000000284435104
-0.000000073560379
-0.000000244304340
-0.000000073560379
-0.000000244304340
-0.000000073560379
-0.000000244304340
-0.000000073560379
-0.000000244304340
-0.000000073560379
-0.000000244304340
-0.000000073560379
-0.000000244304340
-0.000000073560379
-0.000000244304340
-0.000000073560379
-0.000000244304340
-0.000000073560379
-0.000000244304340
-0.000000073560379
-0.000000244304340
-0.000000073560379
-0.000000244304340
-0.000000073560379
-0.000000244304340
-0.000000073560379
-0.000000244304340
-0.000000073560379
-0.000000244304340
-0.000000073560379
-0.000000244304340
-0.000000073560379
-0.000000244304340
0.000000033039340
0.000000284435104
0.000000033039340
0.000000284435104
0.000000033039340
0.000000284435104
0.000000033039340
0.000000284435104
0.000000033039340
0.000000284435104
0.000000033039340
0.000000284435104
0.000000033039340
0.000000284435104
0.000000033039340
0.000000284435104
0.000000033039340
0.000000284435104
0.000000033039340
0.000000284435104
0.000000033039340
0.000000284435104
0.000000033039340
0.000000284435104
0.000000033039340
0.000000284435104
0.000000033039340
0.000000284435104
0.000000033039340
0.000000284435104
0.000000033039340
0.000000284435104
-0.000000073560379
-0.000000244304340
-0.000000073560379
-0.000000244304340
-0.000000073560379
-0.000000244304340
-0.000000073560379
-0.000000244304340
-0.000000073560379
-0.000000244304340
-0.000000073560379
-0.000000244304340
-0.000000073560379
-0.000000244304340
-0.000000073560379
-0.000000244304340
-0.000000073560379
-0.000000244304340
-0.000000073560379
-0.000000244304340
-0.000000073560379
-0.000000244304340
-0.000000073560379
-0.000000244304340
-0.000000073560379
-0.000000244304340
-0.000000073560379
-0.000000244304340
-0.000000073560379
-0.000000244304340
-0.000000073560379
-0.000000244304340
0.000000033039340
0.000000284435104
0.000000033039340
0.000000284435104
0.000000033039340
0.000000284435104
0.000000033039340
0.000000284435104
0.000000033039340
0.000000284435104
0.000000033039340
0.000000284435104
0.000000033039340
0.000000284435104
0.000000033039340
0.000000284435104
0.000000033039340
0.000000284435104
0.000000033039340
0.000000284435104
0.000000033039340
0.000000284435104
0.000000033039340
0.000000284435104
0.000000033039340
0.000000284435104
0.000000033039340
0.000000284435104
0.000000033039340
0.000000284435104
0.000000033039340
0.000000284435104
-0.000000073560379
-0.000000244304340
-0.000000073560379
-0.000000244304340
-0.000000073560379
-0.000000244304340
-0.000000073560379
-0.000000244304340
-0.000000073560379
-0.000000244304340
-0.000000073560379
-0.000000244304340
-0.000000073560379
-0.000000244304340
-0.000000073560379
-0.000000244304340
-0.000000073560379
-0.000000244304340
-0.000000073560379
-0.000000244304340
-0.000000073560379
-0.000000244304340
-0.000000073560379
-0.000000244304340
-0.000000073560379
-0.000000244304340
-0.000000073560379
-0.000000244304340
-0.000000073560379
-0.000000244304340
-0.000000073560379
-0.000000244304340
0.000000033039340
0.000000284435104
0.000000033039340
0.000000284435104
0.000000033039340
0.000000284435104
0.000000033039340
0.000000284435104
0.000000033039340
0.000000284435104
0.000000033039340
0.000000284435104
0.000000033039340
0.000000284435104
0.000000033039340
0.000000284435104
0.000000033039340
0.000000284435104
0.000000033039340
0.000000284435104
0.000000033039340
0.000000284435104
0.000000033039340
0.000000284435104
0.000000033039340
0.000000284435104
0.000000033039340
0.000000284435104
0.000000033039340
0.000000284435104
0.000000033039340
0.000000284435104
-0.000000073560379
-0.000000244304340
-0.000000073560379
-0.000000244304340
-0.000000073560379
-0.000000244304340
-0.000000073560379
-0.000000244304340
-0.000000073560379
-0.000000244304340
-0.000000073560379
-0.000000244304340
-0.000000073560379
-0.000000244304340
-0.000000073560379
-0.000000244304340
-0.000000073560379
-0.000000244304340
-0.000000073560379
-0.000000244304340
-0.000000073560379
-0.000000244304340
-0.000000073560379
-0.000000244304340
-0.000000073560379
-0.000000244304340
-0.000000073560379
-0.000000244304340
-0.000000073560379
-0.000000244304340
-0.000000073560379
-0.000000244304340
0.000000033039340
0.000000284435104
0.000000033039340
0.000000284435104
0.000000033039340
0.000000284435104
0.000000033039340
0.000000284435104
0.000000033039340
0.000000284435104
0.000000033039340
0.000000284435104
0.000000033039340
0.000000284435104
0.000000033039340
0.000000284435104
0.000000033039340
0.000000284435104
0.000000033039340
0.000000284435104
0.000000033039340
0.000000284435104
0.000000033039340
0.000000284435104
0.000000033039340
0.000000284435104
0.000000033039340
0.000000284435104
0.000000033039340
0.000000284435104
0.000000033039340
0.000000284435104
-0.000000073560379
-0.000000244304340
-0.000000073560379
-0.000000244304340
-0.000000073560379
-0.000000244304340
-0.000000073560379
-0.000000244304340
-0.000000073560379
-0.000000244304340
-0.000000073560379
-0.000000244304340
-0.000000073560379
-0.000000244304340
-0.000000073560379
-0.000000244304340
-0.000000073560379
-0.000000244304340
-0.000000073560379
-0.000000244304340
-0.000000073560379
-0.000000244304340
-0.000000073560379
-0.000000244304340
-0.000000073560379
-0.000000244304340
-0.000000073560379
-0.000000244304340
-0.000000073560379
-0.000000244304340
-0.000000073560379
-0.000000244304340
0.000000033039340
0.000000284435104
0.000000033039340
0.000000284435104
0.000000033039340
0.000000284435104
0.000000033039340
0.000000284435104
0.000000033039340
0.000000284435104
0.000000033039340
0.000000284435104
0.000000033039340
0.000000284435104
0.000000033039340
0.000000284435104
0.000000033039340
0.000000284435104
0.000000033039340
0.000000284435104
0.000000033039340
0.000000284435104
0.000000033039340
0.000000284435104
0.000000033039340
0.000000284435104
0.000000033039340
0.000000284435104
0.000000033039340
0.000000284435104
0.000000033039340
0.000000284435104
-0.000000073560379
-0.000000244304340
-0.000000073560379
-0.000000244304340
-0.000000073560379
-0.000000244304340
-0.000000073560379
-0.000000244304340
-0.000000073560379
-0.000000244304340
-0.000000073560379
-0.000000244304340
-0.000000073560379
-0.000000244304340
-0.000000073560379
-0.000000244304340
-0.000000073560379
-0.000000244304340
-0.000000073560379
-0.000000244304340
-0.000000073560379
-0.000000244304340
-0.000000073560379
-0.000000244304340
-0.000000073560379
-0.000000244304340
-0.000000073560379
-0.000000244304340
-0.000000073560379
-0.000000244304340
-0.000000073560379
-0.000000244304340
0.000000033039340
0.000000284435104
0.000000033039340
0.000000284435104
0.000000033039340
0.000000284435104
0.000000033039340
0.000000284435104
0.000000033039340
0.000000284435104
0.000000033039340
0.000000284435104
0.000000033039340
0.000000284435104
0.000000033039340
0.000000284435104
0.000000033039340
0.000000284435104
0.000000033039340
0.000000284435104
0.000000033039340
0.000000284435104
0.000000033039340
0.000000284435104
0.000000033039340
0.000000284435104
0.000000033039340
0.000000284435104
0.000000033039340
0.000000284435104
0.000000033039340
0.000000284435104
-0.000000073560379
-0.000000244304340
-0.000000073560379
-0.000000244304340
-0.000000073560379
-0.000000244304340
-0.000000073560379
-0.000000244304340
-0.000000073560379
-0.000000244304340
-0.000000073560379
-0.000000244304340
-0.000000073560379
-0.000000244304340
-0.000000073560379
-0.000000244304340
-0.000000073560379
-0.000000244304340
-0.000000073560379
-0.000000244304340
-0.000000073560379
-0.000000244304340
-0.000000073560379
-0.000000244304340
-0.000000073560379
-0.000000244304340
-0.000000073560379
-0.000000244304340
-0.000000073560379
-0.000000244304340
-0.000000073560379
-0.000000244304340
0.000000033039340
0.000000284435104
0.000000033039340
0.000000284435104
0.000000033039340
0.000000284435104
0.000000033039340
0.000000284435104
0.000000033039340
0.000000284435104
0.000000033039340
0.000000284435104
0.000000033039340
0.000000284435104
0.000000033039340
0.000000284435104
0.000000033039340
0.000000284435104
0.000000033039340
0.000000284435104
0.000000033039340
0.000000284435104
0.000000033039340
0.000000284435104
0.000000033039340
0.000000284435104
0.000000033039340
0.000000284435104
0.000000033039340
0.000000284435104
0.000000033039340
0.000000284435104
0.000000049786177
0.000000159201147
0.000000049786177
0.000000159201147
0.000000049786177
0.000000159201147
0.000000049786177
0.000000159201147
0.000000049786177
0.000000159201147
0.000000049786177
0.000000159201147
0.000000049786177
0.000000159201147
0.000000049786177
0.000000159201147
0.000000049786177
0.000000159201147
0.000000049786177
0.000000159201147
0.000000049786177
0.000000159201147
0.000000049786177
0.000000159201147
0.000000049786177
0.000000159201147
0.000000049786177
0.000000159201147
0.000000049786177
0.000000159201147
0.000000049786177
0.000000159201147
-0.000000352839713
0.000000308417654
-0.000000352839713
0.000000308417654
-0.000000352839713
0.000000308417654
-0.000000352839713
0.000000308417654
-0.000000352839713
0.000000308417654
-0.000000352839713
0.000000308417654
-0.000000352839713
0.000000308417654
-0.000000352839713
0.000000308417654
-0.000000352839713
0.000000308417654
-0.000000352839713
0.000000308417654
-0.000000352839713
0.000000308417654
-0.000000352839713
0.000000308417654
-0.000000352839713
0.000000308417654
-0.000000352839713
0.000000308417654
-0.000000352839713
0.000000308417654
-0.000000352839713
0.000000308417654
0.000000049786177
0.000000159201147
0.000000049786177
0.000000159201147
0.000000049786177
0.000000159201147
0.000000049786177
0.000000159201147
0.000000049786177
0.000000159201147
0.000000049786177
0.000000159201147
0.000000049786177
0.000000159201147
0.000000049786177
0.000000159201147
0.000000049786177
0.000000159201147
0.000000049786177
0.000000159201147
0.000000049786177
0.000000159201147
0.000000049786177
0.000000159201147
0.000000049786177
0.000000159201147
0.000000049786177
0.000000159201147
0.000000049786177
0.000000159201147
0.000000049786177
0.000000159201147
-0.000000352839713
0.000000308417654
-0.000000352839713
0.000000308417654
-0.000000352839713
0.000000308417654
-0.000000352839713
0.000000308417654
-0.000000352839713
0.000000308417654
-0.000000352839713
0.000000308417654
-0.000000352839713
0.000000308417654
-0.000000352839713
0.000000308417654
-0.000000352839713
0.000000308417654
-0.000000352839713
0.000000308417654
-0.000000352839713
0.000000308417654
-0.000000352839713
0.000000308417654
-0.000000352839713
0.000000308417654
-0.000000352839713
0.000000308417654
-0.000000352839713
0.000000308417654
-0.000000352839713
0.000000308417654
0.000000049786177
0.000000159201147
0.000000049786177
0.000000159201147
0.000000049786177
0.000000159201147
0.000000049786177
0.000000159201147
0.000000049786177
0.000000159201147
0.000000049786177
0.000000159201147
0.000000049786177
0.000000159201147
0.000000049786177
0.000000159201147
0.000000049786177
0.000000159201147
0.000000049786177
0.000000159201147
0.000000049786177
0.000000159201147
0.000000049786177
0.000000159201147
0.000000049786177
0.000000159201147
0.000000049786177
0.000000159201147
0.000000049786177
0.000000159201147
0.000000049786177
0.000000159201147
-0.000000352839713
0.000000308417654
-0.000000352839713
0.000000308417654
-0.000000352839713
0.000000308417654
-0.000000352839713
0.000000308417654
-0.000000352839713
0.000000308417654
-0.000000352839713
0.000000308417654
-0.000000352839713
0.000000308417654
-0.000000352839713
0.000000308417654
-0.000000352839713
0.000000308417654
-0.000000352839713
0.000000308417654
-0.000000352839713
0.000000308417654
-0.000000352839713
0.000000308417654
-0.000000352839713
0.000000308417654
-0.000000352839713
0.000000308417654
-0.000000352839713
0.000000308417654
-0.000000352839713
0.000000308417654
0.000000049786177
0.000000159201147
0.000000049786177
0.000000159201147
0.000000049786177
0.000000159201147
0.000000049786177
0.000000159201147
0.000000049786177
0.000000159201147
0.000000049786177
0.000000159201147
0.000000049786177
0.000000159201147
0.000000049786177
0.000000159201147
0.000000049786177
0.000000159201147
0.000000049786177
0.000000159201147
0.000000049786177
0.000000159201147
0.000000049786177
0.000000159201147
0.000000049786177
0.000000159201147
0.000000049786177
0.000000159201147
0.000000049786177
0.000000159201147
0.000000049786177
0.000000159201147
-0.000000352839713
0.000000308417654
-0.000000352839713
0.000000308417654
-0.000000352839713
0.000000308417654
-0.000000352839713
0.000000308417654
-0.000000352839713
0.000000308417654
-0.000000352839713
0.000000308417654
-0.000000352839713
0.000000308417654
-0.000000352839713
0.000000308417654
-0.000000352839713
0.000000308417654
-0.000000352839713
0.000000308417654
-0.000000352839713
0.000000308417654
-0.000000352839713
0.000000308417654
-0.000000352839713
0.000000308417654
-0.000000352839713
0.000000308417654
-0.000000352839713
0.000000308417654
-0.000000352839713
0.000000308417654
0.000000049786177
0.000000159201147
0.000000049786177
0.000000159201147
0.000000049786177
0.000000159201147
0.000000049786177
0.000000159201147
0.000000049786177
0.000000159201147
0.000000049786177
0.000000159201147
0.000000049786177
0.000000159201147
0.000000049786177
0.000000159201147
0.000000049786177
0.000000159201147
0.000000049786177
0.000000159201147
0.000000049786177
0.000000159201147
0.000000049786177
0.000000159201147
0.000000049786177
0.000000159201147
0.000000049786177
0.000000159201147
0.000000049786177
0.000000159201147
0.000000049786177
0.000000159201147
-0.000000352839713
0.000000308417654
-0.000000352839713
0.000000308417654
-0.000000352839713
0.000000308417654
-0.000000352839713
0.000000308417654
-0.000000352839713
0.000000308417654
-0.000000352839713
0.000000308417654
-0.000000352839713
0.000000308417654
-0.000000352839713
0.000000308417654
-0.000000352839713
0.000000308417654
-0.000000352839713
0.000000308417654
-0.000000352839713
0.000000308417654
-0.000000352839713
0.000000308417654
-0.000000352839713
0.000000308417654
-0.000000352839713
0.000000308417654
-0.000000352839713
0.000000308417654
-0.000000352839713
0.000000308417654
0.000000049786177
0.000000159201147
0.000000049786177
0.000000159201147
0.000000049786177
0.000000159201147
0.000000049786177
0.000000159201147
0.000000049786177
0.000000159201147
0.000000049786177
0.000000159201147
0.000000049786177
0.000000159201147
0.000000049786177
0.000000159201147
0.000000049786177
0.000000159201147
0.000000049786177
0.000000159201147
0.000000049786177
0.000000159201147
0.000000049786177
0.000000159201147
0.000000049786177
0.000000159201147
0.000000049786177
0.000000159201147
0.000000049786177
0.000000159201147
0.000000049786177
0.000000159201147
-0.000000352839713
0.000000308417654
-0.000000352839713
0.000000308417654
-0.000000352839713
0.000000308417654
-0.000000352839713
0.000000308417654
-0.000000352839713
0.000000308417654
-0.000000352839713
0.000000308417654
-0.000000352839713
0.000000308417654
-0.000000352839713
0.000000308417654
-0.000000352839713
0.000000308417654
-0.000000352839713
0.000000308417654
-0.000000352839713
0.000000308417654
-0.000000352839713
0.000000308417654
-0.000000352839713
0.000000308417654
-0.000000352839713
0.000000308417654
-0.000000352839713
0.000000308417654
-0.000000352839713
0.000000308417654
0.000000049786177
0.000000159201147
0.000000049786177
0.000000159201147
0.000000049786177
0.000000159201147
0.000000049786177
0.000000159201147
0.000000049786177
0.000000159201147
0.000000049786177
0.000000159201147
0.000000049786177
0.000000159201147
0.000000049786177
0.000000159201147
0.000000049786177
0.000000159201147
0.000000049786177
0.000000159201147
0.000000049786177
0.000000159201147
0.000000049786177
0.000000159201147
0.000000049786177
0.000000159201147
0.000000049786177
0.000000159201147
0.000000049786177
0.000000159201147
0.000000049786177
0.000000159201147
-0.000000352839713
0.000000308417654
-0.000000352839713
0.000000308417654
-0.000000352839713
0.000000308417654
-0.000000352839713
0.000000308417654
-0.000000352839713
0.000000308417654
-0.000000352839713
0.000000308417654
-0.000000352839713
0.000000308417654
-0.000000352839713
0.000000308417654
-0.000000352839713
0.000000308417654
-0.000000352839713
0.000000308417654
-0.000000352839713
0.000000308417654
-0.000000352839713
0.000000308417654
-0.000000352839713
0.000000308417654
-0.000000352839713
0.000000308417654
-0.000000352839713
0.000000308417654
-0.000000352839713
0.000000308417654
0.000000049786177
0.000000159201147
0.000000049786177
0.000000159201147
0.000000049786177
0.000000159201147
0.000000049786177
0.000000159201147
0.000000049786177
0.000000159201147
0.000000049786177
0.000000159201147
0.000000049786177
0.000000159201147
0.000000049786177
0.000000159201147
0.000000049786177
0.000000159201147
0.000000049786177
0.000000159201147
0.000000049786177
0.000000159201147
0.000000049786177
0.000000159201147
0.000000049786177
0.000000159201147
0.000000049786177
0.000000159201147
0.000000049786177
0.000000159201147
0.000000049786177
0.000000159201147
-0.000000352839713
0.000000308417654
-0.000000352839713
0.000000308417654
-0.000000352839713
0.000000308417654
-0.000000352839713
0.000000308417654
-0.000000352839713
0.000000308417654
-0.000000352839713
0.000000308417654
-0.000000352839713
0.000000308417654
-0.000000352839713
0.000000308417654
-0.000000352839713
0.000000308417654
-0.000000352839713
0.000000308417654
-0.000000352839713
0.000000308417654
-0.000000352839713
0.000000308417654
-0.000000352839713
0.000000308417654
-0.000000352839713
0.000000308417654
-0.000000352839713
0.000000308417654
-0.000000352839713
0.000000308417654
0.000000049786177
0.000000159201147
0.000000049786177
0.000000159201147
0.000000049786177
0.000000159201147
0.000000049786177
0.000000159201147
0.000000049786177
0.000000159201147
0.000000049786177
0.000000159201147
0.000000049786177
0.000000159201147
0.000000049786177
0.000000159201147
0.000000049786177
0.000000159201147
0.000000049786177
0.000000159201147
0.000000049786177
0.000000159201147
0.000000049786177
0.000000159201147
0.000000049786177
0.000000159201147
0.000000049786177
0.000000159201147
0.000000049786177
0.000000159201147
0.000000049786177
0.000000159201147
-0.000000352839713
0.000000308417654
-0.000000352839713
0.000000308417654
-0.000000352839713
0.000000308417654
-0.000000352839713
0.000000308417654
-0.000000352839713
0.000000308417654
-0.000000352839713
0.000000308417654
-0.000000352839713
0.000000308417654
-0.000000352839713
0.000000308417654
-0.000000352839713
0.000000308417654
-0.000000352839713
0.000000308417654
-0.000000352839713
0.000000308417654
-0.000000352839713
0.000000308417654
-0.000000352839713
0.000000308417654
-0.000000352839713
0.000000308417654
-0.000000352839713
0.000000308417654
-0.000000352839713
0.000000308417654
0.000000049786177
0.000000159201147
0.000000049786177
0.000000159201147
0.000000049786177
0.000000159201147
0.000000049786177
0.000000159201147
0.000000049786177
0.000000159201147
0.000000049786177
0.000000159201147
0.000000049786177
0.000000159201147
0.000000049786177
0.000000159201147
0.000000049786177
0.000000159201147
0.000000049786177
0.000000159201147
0.000000049786177
0.000000159201147
0.000000049786177
0.000000159201147
0.000000049786177
0.000000159201147
0.000000049786177
0.000000159201147
0.000000049786177
0.000000159201147
0.000000049786177
0.000000159201147
-0.000000352839713
0.000000308417654
-0.000000352839713
0.000000308417654
-0.000000352839713
0.000000308417654
-0.000000352839713
0.000000308417654
-0.000000352839713
0.000000308417654
-0.000000352839713
0.000000308417654
-0.000000352839713
0.000000308417654
-0.000000352839713
0.000000308417654
-0.000000352839713
0.000000308417654
-0.000000352839713
0.000000308417654
-0.000000352839713
0.000000308417654
-0.000000352839713
0.000000308417654
-0.000000352839713
0.000000308417654
-0.000000352839713
0.000000308417654
-0.000000352839713
0.000000308417654
-0.000000352839713
0.000000308417654
0.000000049786177
0.000000159201147
0.000000049786177
0.000000159201147
0.000000049786177
0.000000159201147
0.000000049786177
0.000000159201147
0.000000049786177
0.000000159201147
0.000000049786177
0.000000159201147
0.000000049786177
0.000000159201147
0.000000049786177
0.000000159201147
0.000000049786177
0.000000159201147
0.000000049786177
0.000000159201147
0.000000049786177
0.000000159201147
0.000000049786177
0.000000159201147
0.000000049786177
0.000000159201147
0.000000049786177
0.000000159201147
0.000000049786177
0.000000159201147
0.000000049786177
0.000000159201147
-0.000000352839713
0.000000308417654
-0.000000352839713
0.000000308417654
-0.000000352839713
0.000000308417654
-0.000000352839713
0.000000308417654
-0.000000352839713
0.000000308417654
-0.000000352839713
0.000000308417654
-0.000000352839713
0.000000308417654
-0.000000352839713
0.000000308417654
-0.000000352839713
0.000000308417654
-0.000000352839713
0.000000308417654
-0.000000352839713
0.000000308417654
-0.000000352839713
0.000000308417654
-0.000000352839713
0.000000308417654
-0.000000352839713
0.000000308417654
-0.000000352839713
0.000000308417654
-0.000000352839713
0.000000308417654
0.000000049786177
0.000000159201147
0.000000049786177
0.000000159201147
0.000000049786177
0.000000159201147
0.000000049786177
0.000000159201147
0.000000049786177
0.000000159201147
0.000000049786177
0.000000159201147
0.000000049786177
0.000000159201147
0.000000049786177
0.000000159201147
0.000000049786177
0.000000159201147
0.000000049786177
0.000000159201147
0.000000049786177
0.000000159201147
0.000000049786177
0.000000159201147
0.000000049786177
0.000000159201147
0.000000049786177
0.000000159201147
0.000000049786177
0.000000159201147
0.000000049786177
0.000000159201147
-0.000000352839713
0.000000308417654
-0.000000352839713
0.000000308417654
-0.000000352839713
0.000000308417654
-0.000000352839713
0.000000308417654
-0.000000352839713
0.000000308417654
-0.000000352839713
0.000000308417654
-0.000000352839713
0.000000308417654
-0.000000352839713
0.000000308417654
-0.000000352839713
0.000000308417654
-0.000000352839713
0.000000308417654
-0.000000352839713
0.000000308417654
-0.000000352839713
0.000000308417654
-0.000000352839713
0.000000308417654
-0.000000352839713
0.000000308417654
-0.000000352839713
0.000000308417654
-0.000000352839713
0.000000308417654
0.000000049786177
0.000000159201147
0.000000049786177
0.000000159201147
0.000000049786177
0.000000159201147
0.000000049786177
0.000000159201147
0.000000049786177
0.000000159201147
0.000000049786177
0.000000159201147
0.000000049786177
0.000000159201147
0.000000049786177
0.000000159201147
0.000000049786177
0.000000159201147
0.000000049786177
0.000000159201147
0.000000049786177
0.000000159201147
0.000000049786177
0.000000159201147
0.000000049786177
0.000000159201147
0.000000049786177
0.000000159201147
0.000000049786177
0.000000159201147
0.000000049786177
0.000000159201147
-0.000000352839713
0.000000308417654
-0.000000352839713
0.000000308417654
-0.000000352839713
0.000000308417654
-0.000000352839713
0.000000308417654
-0.000000352839713
0.000000308417654
-0.000000352839713
0.000000308417654
-0.000000352839713
0.000000308417654
-0.000000352839713
0.000000308417654
-0.000000352839713
0.000000308417654
-0.000000352839713
0.000000308417654
-0.000000352839713
0.000000308417654
-0.000000352839713
0.000000308417654
-0.000000352839713
0.000000308417654
-0.000000352839713
0.000000308417654
-0.000000352839713
0.000000308417654
-0.000000352839713
0.000000308417654
0.000000049786177
0.000000159201147
0.000000049786177
0.000000159201147
0.000000049786177
0.000000159201147
0.000000049786177
0.000000159201147
0.000000049786177
0.000000159201147
0.000000049786177
0.000000159201147
0.000000049786177
0.000000159201147
0.000000049786177
0.000000159201147
0.000000049786177
0.000000159201147
0.000000049786177
0.000000159201147
0.000000049786177
0.000000159201147
0.000000049786177
0.000000159201147
0.000000049786177
0.000000159201147
0.000000049786177
0.000000159201147
0.000000049786177
0.000000159201147
0.000000049786177
0.000000159201147
-0.000000352839713
0.000000308417654
-0.000000352839713
0.000000308417654
-0.000000352839713
0.000000308417654
-0.000000352839713
0.000000308417654
-0.000000352839713
0.000000308417654
-0.000000352839713
0.000000308417654
-0.000000352839713
0.000000308417654
-0.000000352839713
0.000000308417654
-0.000000352839713
0.000000308417654
-0.000000352839713
0.000000308417654
-0.000000352839713
0.000000308417654
-0.000000352839713
0.000000308417654
-0.000000352839713
0.000000308417654
-0.000000352839713
0.000000308417654
-0.000000352839713
0.000000308417654
-0.000000352839713
0.000000308417654
0.000000049786177
0.000000159201147
0.000000049786177
0.000000159201147
0.000000049786177
0.000000159201147
0.000000049786177
0.000000159201147
0.000000049786177
0.000000159201147
0.000000049786177
0.000000159201147
0.000000049786177
0.000000159201147
0.000000049786177
0.000000159201147
0.000000049786177
0.000000159201147
0.000000049786177
0.000000159201147
0.000000049786177
0.000000159201147
0.000000049786177
0.000000159201147
0.000000049786177
0.000000159201147
0.000000049786177
0.000000159201147
0.000000049786177
0.000000159201147
0.000000049786177
0.000000159201147
-0.000000352839713
0.000000308417654
-0.000000352839713
0.000000308417654
-0.000000352839713
0.000000308417654
-0.000000352839713
0.000000308417654
-0.000000352839713
0.000000308417654
-0.000000352839713
0.000000308417654
-0.000000352839713
0.000000308417654
-0.000000352839713
0.000000308417654
-0.000000352839713
0.000000308417654
-0.000000352839713
0.000000308417654
-0.000000352839713
0.000000308417654
-0.000000352839713
0.000000308417654
-0.000000352839713
0.000000308417654
-0.000000352839713
0.000000308417654
-0.000000352839713
0.000000308417654
-0.000000352839713
0.000000308417654
0.000000049786177
0.000000159201147
0.000000049786177
0.000000159201147
0.000000049786177
0.000000159201147
0.000000049786177
0.000000159201147
0.000000049786177
0.000000159201147
0.000000049786177
0.000000159201147
0.000000049786177
0.000000159201147
0.000000049786177
0.000000159201147
0.000000049786177
0.000000159201147
0.000000049786177
0.000000159201147
0.000000049786177
0.000000159201147
0.000000049786177
0.000000159201147
0.000000049786177
0.000000159201147
0.000000049786177
0.000000159201147
0.000000049786177
0.000000159201147
0.000000049786177
0.000000159201147
-0.000000352839713
0.000000308417654
-0.000000352839713
0.000000308417654
-0.000000352839713
0.000000308417654
-0.000000352839713
0.000000308417654
-0.000000352839713
0.000000308417654
-0.000000352839713
0.000000308417654
-0.000000352839713
0.000000308417654
-0.000000352839713
0.000000308417654
-0.000000352839713
0.000000308417654
-0.000000352839713
0.000000308417654
-0.000000352839713
0.000000308417654
-0.000000352839713
0.000000308417654
-0.000000352839713
0.000000308417654
-0.000000352839713
0.000000308417654
-0.000000352839713
0.000000308417654
-0.000000352839713
0.000000308417654
0.000000097918401
-0.000000018180920
0.000000097918401
-0.000000018180920
0.000000097918401
-0.000000018180920
0.000000097918401
-0.000000018180920
0.000000097918401
-0.000000018180920
0.000000097918401
-0.000000018180920
0.000000097918401
-0.000000018180920
0.000000097918401
-0.000000018180920
0.000000097918401
-0.000000018180920
0.000000097918401
-0.000000018180920
0.000000097918401
-0.000000018180920
0.000000097918401
-0.000000018180920
0.000000097918401
-0.000000018180920
0.000000097918401
-0.000000018180920
0.000000097918401
-0.000000018180920
0.000000097918401
-0.000000018180920
-0.000000250188477
-0.000000058342750
-0.000000250188477
-0.000000058342750
-0.000000250188477
-0.000000058342750
-0.000000250188477
-0.000000058342750
-0.000000250188477
-0.000000058342750
-0.000000250188477
-0.000000058342750
-0.000000250188477
-0.000000058342750
-0.000000250188477
-0.000000058342750
-0.000000250188477
-0.000000058342750
-0.000000250188477
-0.000000058342750
-0.000000250188477
-0.000000058342750
-0.000000250188477
-0.000000058342750
-0.000000250188477
-0.000000058342750
-0.000000250188477
-0.000000058342750
-0.000000250188477
-0.000000058342750
-0.000000250188477
-0.000000058342750
0.000000097918401
-0.000000018180920
0.000000097918401
-0.000000018180920
0.000000097918401
-0.000000018180920
0.000000097918401
-0.000000018180920
0.000000097918401
-0.000000018180920
0.000000097918401
-0.000000018180920
0.000000097918401
-0.000000018180920
0.000000097918401
-0.000000018180920
0.000000097918401
-0.000000018180920
0.000000097918401
-0.000000018180920
0.000000097918401
-0.000000018180920
0.000000097918401
-0.000000018180920
0.000000097918401
-0.000000018180920
0.000000097918401
-0.000000018180920
0.000000097918401
-0.000000018180920
0.000000097918401
-0.000000018180920
-0.000000250188477
-0.000000058342750
-0.000000250188477
-0.000000058342750
-0.000000250188477
-0.000000058342750
-0.000000250188477
-0.000000058342750
-0.000000250188477
-0.000000058342750
-0.000000250188477
-0.000000058342750
-0.000000250188477
-0.000000058342750
-0.000000250188477
-0.000000058342750
-0.000000250188477
-0.000000058342750
-0.000000250188477
-0.000000058342750
-0.000000250188477
-0.000000058342750
-0.000000250188477
-0.000000058342750
-0.000000250188477
-0.000000058342750
-0.000000250188477
-0.000000058342750
-0.000000250188477
-0.000000058342750
-0.000000250188477
-0.000000058342750
0.000000097918401
-0.000000018180920
0.000000097918401
-0.000000018180920
0.000000097918401
-0.000000018180920
0.000000097918401
-0.000000018180920
0.000000097918401
-0.000000018180920
0.000000097918401
-0.000000018180920
0.000000097918401
-0.000000018180920
0.000000097918401
-0.000000018180920
0.000000097918401
-0.000000018180920
0.000000097918401
-0.000000018180920
0.000000097918401
-0.000000018180920
0.000000097918401
-0.000000018180920
0.000000097918401
-0.000000018180920
0.000000097918401
-0.000000018180920
0.000000097918401
-0.000000018180920
0.000000097918401
-0.000000018180920
-0.000000250188477
-0.000000058342750
-0.000000250188477
-0.000000058342750
-0.000000250188477
-0.000000058342750
-0.000000250188477
-0.000000058342750
-0.000000250188477
-0.000000058342750
-0.000000250188477
-0.000000058342750
-0.000000250188477
-0.000000058342750
-0.000000250188477
-0.000000058342750
-0.000000250188477
-0.000000058342750
-0.000000250188477
-0.000000058342750
-0.000000250188477
-0.000000058342750
-0.000000250188477
-0.000000058342750
-0.000000250188477
-0.000000058342750
-0.000000250188477
-0.000000058342750
-0.000000250188477
-0.000000058342750
-0.000000250188477
-0.000000058342750
0.000000097918401
-0.000000018180920
0.000000097918401
-0.000000018180920
0.000000097918401
-0.000000018180920
0.000000097918401
-0.000000018180920
0.000000097918401
-0.000000018180920
0.000000097918401
-0.000000018180920
0.000000097918401
-0.000000018180920
0.000000097918401
-0.000000018180920
0.000000097918401
-0.000000018180920
0.000000097918401
-0.000000018180920
0.000000097918401
-0.000000018180920
0.000000097918401
-0.000000018180920
0.000000097918401
-0.000000018180920
0.000000097918401
-0.000000018180920
0.000000097918401
-0.000000018180920
0.000000097918401
-0.000000018180920
-0.000000250188477
-0.000000058342750
-0.000000250188477
-0.000000058342750
-0.000000250188477
-0.000000058342750
-0.000000250188477
-0.000000058342750
-0.000000250188477
-0.000000058342750
-0.000000250188477
-0.000000058342750
-0.000000250188477
-0.000000058342750
-0.000000250188477
-0.000000058342750
-0.000000250188477
-0.000000058342750
-0.000000250188477
-0.000000058342750
-0.000000250188477
-0.000000058342750
-0.000000250188477
-0.000000058342750
-0.000000250188477
-0.000000058342750
-0.000000250188477
-0.000000058342750
-0.000000250188477
-0.000000058342750
-0.000000250188477
-0.000000058342750
0.000000097918401
-0.000000018180920
0.000000097918401
-0.000000018180920
0.000000097918401
-0.000000018180920
0.000000097918401
-0.000000018180920
0.000000097918401
-0.000000018180920
0.000000097918401
-0.000000018180920
0.000000097918401
-0.000000018180920
0.000000097918401
-0.000000018180920
0.000000097918401
-0.000000018180920
0.000000097918401
-0.000000018180920
0.000000097918401
-0.000000018180920
0.000000097918401
-0.000000018180920
0.000000097918401
