-0.023638310719893
-0.010694512098273
-0.023638310719893
-0.010694512098273
-0.023638310719893
-0.010694512098273
-0.023638310719893
-0.010694512098273
-0.023638310719893
-0.010694512098273
-0.023638310719893
-0.010694512098273
-0.023638310719893
-0.010694512098273
-0.023638310719893
-0.010694512098273
-0.023638310719893
-0.010694512098273
-0.023638310719893
-0.010694512098273
-0.023638310719893
-0.010694512098273
-0.023638310719893
-0.010694512098273
-0.023638310719893
-0.010694512098273
-0.023638310719893
-0.010694512098273
-0.023638310719893
-0.010694512098273
-0.023638310719893
-0.010694512098273
0.007017976772293
-0.031579306603367
0.007017976772293
-0.031579306603367
0.007017976772293
-0.031579306603367
0.007017976772293
-0.031579306603367
0.007017976772293
-0.031579306603367
0.007017976772293
-0.031579306603367
0.007017976772293
-0.031579306603367
0.007017976772293
-0.031579306603367
0.007017976772293
-0.031579306603367
0.007017976772293
-0.031579306603367
0.007017976772293
-0.031579306603367
0.007017976772293
-0.031579306603367
0.007017976772293
-0.031579306603367
0.007017976772293
-0.031579306603367
0.007017976772293
-0.031579306603367
0.007017976772293
-0.031579306603367
-0.023638310719893
-0.010694512098273
-0.023638310719893
-0.010694512098273
-0.023638310719893
-0.010694512098273
-0.023638310719893
-0.010694512098273
-0.023638310719893
-0.010694512098273
-0.023638310719893
-0.010694512098273
-0.023638310719893
-0.010694512098273
-0.023638310719893
-0.010694512098273
-0.023638310719893
-0.010694512098273
-0.023638310719893
-0.010694512098273
-0.023638310719893
-0.010694512098273
-0.023638310719893
-0.010694512098273
-0.023638310719893
-0.010694512098273
-0.023638310719893
-0.010694512098273
-0.023638310719893
-0.010694512098273
-0.023638310719893
-0.010694512098273
0.007017976772293
-0.031579306603367
0.007017976772293
-0.031579306603367
0.007017976772293
-0.031579306603367
0.007017976772293
-0.031579306603367
0.007017976772293
-0.031579306603367
0.007017976772293
-0.031579306603367
0.007017976772293
-0.031579306603367
0.007017976772293
-0.031579306603367
0.007017976772293
-0.031579306603367
0.007017976772293
-0.031579306603367
0.007017976772293
-0.031579306603367
0.007017976772293
-0.031579306603367
0.007017976772293
-0.031579306603367
0.007017976772293
-0.031579306603367
0.007017976772293
-0.031579306603367
0.007017976772293
-0.031579306603367
-0.023638310719893
-0.010694512098273
-0.023638310719893
-0.010694512098273
-0.023638310719893
-0.010694512098273
-0.023638310719893
-0.010694512098273
-0.023638310719893
-0.010694512098273
-0.023638310719893
-0.010694512098273
-0.023638310719893
-0.010694512098273
-0.023638310719893
-0.010694512098273
-0.023638310719893
-0.010694512098273
-0.023638310719893
-0.010694512098273
-0.023638310719893
-0.010694512098273
-0.023638310719893
-0.010694512098273
-0.023638310719893
-0.010694512098273
-0.023638310719893
-0.010694512098273
-0.023638310719893
-0.010694512098273
-0.023638310719893
-0.010694512098273
0.007017976772293
-0.031579306603367
0.007017976772293
-0.031579306603367
0.007017976772293
-0.031579306603367
0.007017976772293
-0.031579306603367
0.007017976772293
-0.031579306603367
0.007017976772293
-0.031579306603367
0.007017976772293
-0.031579306603367
0.007017976772293
-0.031579306603367
0.007017976772293
-0.031579306603367
0.007017976772293
-0.031579306603367
0.007017976772293
-0.031579306603367
0.007017976772293
-0.031579306603367
0.007017976772293
-0.031579306603367
0.007017976772293
-0.031579306603367
0.007017976772293
-0.031579306603367
0.007017976772293
-0.031579306603367
-0.023638310719893
-0.010694512098273
-0.023638310719893
-0.010694512098273
-0.023638310719893
-0.010694512098273
-0.023638310719893
-0.010694512098273
-0.023638310719893
-0.010694512098273
-0.023638310719893
-0.010694512098273
-0.023638310719893
-0.010694512098273
-0.023638310719893
-0.010694512098273
-0.023638310719893
-0.010694512098273
-0.023638310719893
-0.010694512098273
-0.023638310719893
-0.010694512098273
-0.023638310719893
-0.010694512098273
-0.023638310719893
-0.010694512098273
-0.023638310719893
-0.010694512098273
-0.023638310719893
-0.010694512098273
-0.023638310719893
-0.010694512098273
0.007017976772293
-0.031579306603367
0.007017976772293
-0.031579306603367
0.007017976772293
-0.031579306603367
0.007017976772293
-0.031579306603367
0.007017976772293
-0.031579306603367
0.007017976772293
-0.031579306603367
0.007017976772293
-0.031579306603367
0.007017976772293
-0.031579306603367
0.007017976772293
-0.031579306603367
0.007017976772293
-0.031579306603367
0.007017976772293
-0.031579306603367
0.007017976772293
-0.031579306603367
0.007017976772293
-0.031579306603367
0.007017976772293
-0.031579306603367
0.007017976772293
-0.031579306603367
0.007017976772293
-0.031579306603367
-0.023638310719893
-0.010694512098273
-0.023638310719893
-0.010694512098273
-0.023638310719893
-0.010694512098273
-0.023638310719893
-0.010694512098273
-0.023638310719893
-0.010694512098273
-0.023638310719893
-0.010694512098273
-0.023638310719893
-0.010694512098273
-0.023638310719893
-0.010694512098273
-0.023638310719893
-0.010694512098273
-0.023638310719893
-0.010694512098273
-0.023638310719893
-0.010694512098273
-0.023638310719893
-0.010694512098273
-0.023638310719893
-0.010694512098273
-0.023638310719893
-0.010694512098273
-0.023638310719893
-0.010694512098273
-0.023638310719893
-0.010694512098273
0.007017976772293
-0.031579306603367
0.007017976772293
-0.031579306603367
0.007017976772293
-0.031579306603367
0.007017976772293
-0.031579306603367
0.007017976772293
-0.031579306603367
0.007017976772293
-0.031579306603367
0.007017976772293
-0.031579306603367
0.007017976772293
-0.031579306603367
0.007017976772293
-0.031579306603367
0.007017976772293
-0.031579306603367
0.007017976772293
-0.031579306603367
0.007017976772293
-0.031579306603367
0.007017976772293
-0.031579306603367
0.007017976772293
-0.031579306603367
0.007017976772293
-0.031579306603367
0.007017976772293
-0.031579306603367
-0.023638310719893
-0.010694512098273
-0.023638310719893
-0.010694512098273
-0.023638310719893
-0.010694512098273
-0.023638310719893
-0.010694512098273
-0.023638310719893
-0.010694512098273
-0.023638310719893
-0.010694512098273
-0.023638310719893
-0.010694512098273
-0.023638310719893
-0.010694512098273
-0.023638310719893
-0.010694512098273
-0.023638310719893
-0.010694512098273
-0.023638310719893
-0.010694512098273
-0.023638310719893
-0.010694512098273
-0.023638310719893
-0.010694512098273
-0.023638310719893
-0.010694512098273
-0.023638310719893
-0.010694512098273
-0.023638310719893
-0.010694512098273
0.007017976772293
-0.031579306603367
0.007017976772293
-0.031579306603367
0.007017976772293
-0.031579306603367
0.007017976772293
-0.031579306603367
0.007017976772293
-0.031579306603367
0.007017976772293
-0.031579306603367
0.007017976772293
-0.031579306603367
0.007017976772293
-0.031579306603367
0.007017976772293
-0.031579306603367
0.007017976772293
-0.031579306603367
0.007017976772293
-0.031579306603367
0.007017976772293
-0.031579306603367
0.007017976772293
-0.031579306603367
0.007017976772293
-0.031579306603367
0.007017976772293
-0.031579306603367
0.007017976772293
-0.031579306603367
-0.023638310719893
-0.010694512098273
-0.023638310719893
-0.010694512098273
-0.023638310719893
-0.010694512098273
-0.023638310719893
-0.010694512098273
-0.023638310719893
-0.010694512098273
-0.023638310719893
-0.010694512098273
-0.023638310719893
-0.010694512098273
-0.023638310719893
-0.010694512098273
-0.023638310719893
-0.010694512098273
-0.023638310719893
-0.010694512098273
-0.023638310719893
-0.010694512098273
-0.023638310719893
-0.010694512098273
-0.023638310719893
-0.010694512098273
-0.023638310719893
-0.010694512098273
-0.023638310719893
-0.010694512098273
-0.023638310719893
-0.010694512098273
0.007017976772293
-0.031579306603367
0.007017976772293
-0.031579306603367
0.007017976772293
-0.031579306603367
0.007017976772293
-0.031579306603367
0.007017976772293
-0.031579306603367
0.007017976772293
-0.031579306603367
0.007017976772293
-0.031579306603367
0.007017976772293
-0.031579306603367
0.007017976772293
-0.031579306603367
0.007017976772293
-0.031579306603367
0.007017976772293
-0.031579306603367
0.007017976772293
-0.031579306603367
0.007017976772293
-0.031579306603367
0.007017976772293
-0.031579306603367
0.007017976772293
-0.031579306603367
0.007017976772293
-0.031579306603367
-0.023638310719893
-0.010694512098273
-0.023638310719893
-0.010694512098273
-0.023638310719893
-0.010694512098273
-0.023638310719893
-0.010694512098273
-0.023638310719893
-0.010694512098273
-0.023638310719893
-0.010694512098273
-0.023638310719893
-0.010694512098273
-0.023638310719893
-0.010694512098273
-0.023638310719893
-0.010694512098273
-0.023638310719893
-0.010694512098273
-0.023638310719893
-0.010694512098273
-0.023638310719893
-0.010694512098273
-0.023638310719893
-0.010694512098273
-0.023638310719893
-0.010694512098273
-0.023638310719893
-0.010694512098273
-0.023638310719893
-0.010694512098273
0.007017976772293
-0.031579306603367
0.007017976772293
-0.031579306603367
0.007017976772293
-0.031579306603367
0.007017976772293
-0.031579306603367
0.007017976772293
-0.031579306603367
0.007017976772293
-0.031579306603367
0.007017976772293
-0.031579306603367
0.007017976772293
-0.031579306603367
0.007017976772293
-0.031579306603367
0.007017976772293
-0.031579306603367
0.007017976772293
-0.031579306603367
0.007017976772293
-0.031579306603367
0.007017976772293
-0.031579306603367
0.007017976772293
-0.031579306603367
0.007017976772293
-0.031579306603367
0.007017976772293
-0.031579306603367
-0.023638310719893
-0.010694512098273
-0.023638310719893
-0.010694512098273
-0.023638310719893
-0.010694512098273
-0.023638310719893
-0.010694512098273
-0.023638310719893
-0.010694512098273
-0.023638310719893
-0.010694512098273
-0.023638310719893
-0.010694512098273
-0.023638310719893
-0.010694512098273
-0.023638310719893
-0.010694512098273
-0.023638310719893
-0.010694512098273
-0.023638310719893
-0.010694512098273
-0.023638310719893
-0.010694512098273
-0.023638310719893
-0.010694512098273
-0.023638310719893
-0.010694512098273
-0.023638310719893
-0.010694512098273
-0.023638310719893
-0.010694512098273
0.007017976772293
-0.031579306603367
0.007017976772293
-0.031579306603367
0.007017976772293
-0.031579306603367
0.007017976772293
-0.031579306603367
0.007017976772293
-0.031579306603367
0.007017976772293
-0.031579306603367
0.007017976772293
-0.031579306603367
0.007017976772293
-0.031579306603367
0.007017976772293
-0.031579306603367
0.007017976772293
-0.031579306603367
0.007017976772293
-0.031579306603367
0.007017976772293
-0.031579306603367
0.007017976772293
-0.031579306603367
0.007017976772293
-0.031579306603367
0.007017976772293
-0.031579306603367
0.007017976772293
-0.031579306603367
-0.023638310719893
-0.010694512098273
-0.023638310719893
-0.010694512098273
-0.023638310719893
-0.010694512098273
-0.023638310719893
-0.010694512098273
-0.023638310719893
-0.010694512098273
-0.023638310719893
-0.010694512098273
-0.023638310719893
-0.010694512098273
-0.023638310719893
-0.010694512098273
-0.023638310719893
-0.010694512098273
-0.023638310719893
-0.010694512098273
-0.023638310719893
-0.010694512098273
-0.023638310719893
-0.010694512098273
-0.023638310719893
-0.010694512098273
-0.023638310719893
-0.010694512098273
-0.023638310719893
-0.010694512098273
-0.023638310719893
-0.010694512098273
0.007017976772293
-0.031579306603367
0.007017976772293
-0.031579306603367
0.007017976772293
-0.031579306603367
0.007017976772293
-0.031579306603367
0.007017976772293
-0.031579306603367
0.007017976772293
-0.031579306603367
0.007017976772293
-0.031579306603367
0.007017976772293
-0.031579306603367
0.007017976772293
-0.031579306603367
0.007017976772293
-0.031579306603367
0.007017976772293
-0.031579306603367
0.007017976772293
-0.031579306603367
0.007017976772293
-0.031579306603367
0.007017976772293
-0.031579306603367
0.007017976772293
-0.031579306603367
0.007017976772293
-0.031579306603367
-0.023638310719893
-0.010694512098273
-0.023638310719893
-0.010694512098273
-0.023638310719893
-0.010694512098273
-0.023638310719893
-0.010694512098273
-0.023638310719893
-0.010694512098273
-0.023638310719893
-0.010694512098273
-0.023638310719893
-0.010694512098273
-0.023638310719893
-0.010694512098273
-0.023638310719893
-0.010694512098273
-0.023638310719893
-0.010694512098273
-0.023638310719893
-0.010694512098273
-0.023638310719893
-0.010694512098273
-0.023638310719893
-0.010694512098273
-0.023638310719893
-0.010694512098273
-0.023638310719893
-0.010694512098273
-0.023638310719893
-0.010694512098273
0.007017976772293
-0.031579306603367
0.007017976772293
-0.031579306603367
0.007017976772293
-0.031579306603367
0.007017976772293
-0.031579306603367
0.007017976772293
-0.031579306603367
0.007017976772293
-0.031579306603367
0.007017976772293
-0.031579306603367
0.007017976772293
-0.031579306603367
0.007017976772293
-0.031579306603367
0.007017976772293
-0.031579306603367
0.007017976772293
-0.031579306603367
0.007017976772293
-0.031579306603367
0.007017976772293
-0.031579306603367
0.007017976772293
-0.031579306603367
0.007017976772293
-0.031579306603367
0.007017976772293
-0.031579306603367
-0.023638310719893
-0.010694512098273
-0.023638310719893
-0.010694512098273
-0.023638310719893
-0.010694512098273
-0.023638310719893
-0.010694512098273
-0.023638310719893
-0.010694512098273
-0.023638310719893
-0.010694512098273
-0.023638310719893
-0.010694512098273
-0.023638310719893
-0.010694512098273
-0.023638310719893
-0.010694512098273
-0.023638310719893
-0.010694512098273
-0.023638310719893
-0.010694512098273
-0.023638310719893
-0.010694512098273
-0.023638310719893
-0.010694512098273
-0.023638310719893
-0.010694512098273
-0.023638310719893
-0.010694512098273
-0.023638310719893
-0.010694512098273
0.007017976772293
-0.031579306603367
0.007017976772293
-0.031579306603367
0.007017976772293
-0.031579306603367
0.007017976772293
-0.031579306603367
0.007017976772293
-0.031579306603367
0.007017976772293
-0.031579306603367
0.007017976772293
-0.031579306603367
0.007017976772293
-0.031579306603367
0.007017976772293
-0.031579306603367
0.007017976772293
-0.031579306603367
0.007017976772293
-0.031579306603367
0.007017976772293
-0.031579306603367
0.007017976772293
-0.031579306603367
0.007017976772293
-0.031579306603367
0.007017976772293
-0.031579306603367
0.007017976772293
-0.031579306603367
-0.023638310719893
-0.010694512098273
-0.023638310719893
-0.010694512098273
-0.023638310719893
-0.010694512098273
-0.023638310719893
-0.010694512098273
-0.023638310719893
-0.010694512098273
-0.023638310719893
-0.010694512098273
-0.023638310719893
-0.010694512098273
-0.023638310719893
-0.010694512098273
-0.023638310719893
-0.010694512098273
-0.023638310719893
-0.010694512098273
-0.023638310719893
-0.010694512098273
-0.023638310719893
-0.010694512098273
-0.023638310719893
-0.010694512098273
-0.023638310719893
-0.010694512098273
-0.023638310719893
-0.010694512098273
-0.023638310719893
-0.010694512098273
0.007017976772293
-0.031579306603367
0.007017976772293
-0.031579306603367
0.007017976772293
-0.031579306603367
0.007017976772293
-0.031579306603367
0.007017976772293
-0.031579306603367
0.007017976772293
-0.031579306603367
0.007017976772293
-0.031579306603367
0.007017976772293
-0.031579306603367
0.007017976772293
-0.031579306603367
0.007017976772293
-0.031579306603367
0.007017976772293
-0.031579306603367
0.007017976772293
-0.031579306603367
0.007017976772293
-0.031579306603367
0.007017976772293
-0.031579306603367
0.007017976772293
-0.031579306603367
0.007017976772293
-0.031579306603367
-0.023638310719893
-0.010694512098273
-0.023638310719893
-0.010694512098273
-0.023638310719893
-0.010694512098273
-0.023638310719893
-0.010694512098273
-0.023638310719893
-0.010694512098273
-0.023638310719893
-0.010694512098273
-0.023638310719893
-0.010694512098273
-0.023638310719893
-0.010694512098273
-0.023638310719893
-0.010694512098273
-0.023638310719893
-0.010694512098273
-0.023638310719893
-0.010694512098273
-0.023638310719893
-0.010694512098273
-0.023638310719893
-0.010694512098273
-0.023638310719893
-0.010694512098273
-0.023638310719893
-0.010694512098273
-0.023638310719893
-0.010694512098273
0.007017976772293
-0.031579306603367
0.007017976772293
-0.031579306603367
0.007017976772293
-0.031579306603367
0.007017976772293
-0.031579306603367
0.007017976772293
-0.031579306603367
0.007017976772293
-0.031579306603367
0.007017976772293
-0.031579306603367
0.007017976772293
-0.031579306603367
0.007017976772293
-0.031579306603367
0.007017976772293
-0.031579306603367
0.007017976772293
-0.031579306603367
0.007017976772293
-0.031579306603367
0.007017976772293
-0.031579306603367
0.007017976772293
-0.031579306603367
0.007017976772293
-0.031579306603367
0.007017976772293
-0.031579306603367
-0.023638310719893
-0.010694512098273
-0.023638310719893
-0.010694512098273
-0.023638310719893
-0.010694512098273
-0.023638310719893
-0.010694512098273
-0.023638310719893
-0.010694512098273
-0.023638310719893
-0.010694512098273
-0.023638310719893
-0.010694512098273
-0.023638310719893
-0.010694512098273
-0.023638310719893
-0.010694512098273
-0.023638310719893
-0.010694512098273
-0.023638310719893
-0.010694512098273
-0.023638310719893
-0.010694512098273
-0.023638310719893
-0.010694512098273
-0.023638310719893
-0.010694512098273
-0.023638310719893
-0.010694512098273
-0.023638310719893
-0.010694512098273
0.007017976772293
-0.031579306603367
0.007017976772293
-0.031579306603367
0.007017976772293
-0.031579306603367
0.007017976772293
-0.031579306603367
0.007017976772293
-0.031579306603367
0.007017976772293
-0.031579306603367
0.007017976772293
-0.031579306603367
0.007017976772293
-0.031579306603367
0.007017976772293
-0.031579306603367
0.007017976772293
-0.031579306603367
0.007017976772293
-0.031579306603367
0.007017976772293
-0.031579306603367
0.007017976772293
-0.031579306603367
0.007017976772293
-0.031579306603367
0.007017976772293
-0.031579306603367
0.007017976772293
-0.031579306603367
-0.000000000000000
-0.000000000000000
-0.000000000000000
-0.000000000000000
-0.000000000000000
-0.000000000000000
-0.000000000000000
-0.000000000000000
-0.000000000000000
-0.000000000000000
-0.000000000000000
-0.000000000000000
-0.000000000000000
-0.000000000000000
-0.000000000000000
-0.000000000000000
-0.000000000000000
-0.000000000000000
-0.000000000000000
-0.000000000000000
-0.000000000000000
-0.000000000000000
-0.000000000000000
-0.000000000000000
-0.000000000000000
-0.000000000000000
-0.000000000000000
-0.000000000000000
-0.000000000000000
-0.000000000000000
-0.000000000000000
-0.000000000000000
0.000000000000000
-0.000000000000000
0.000000000000000
-0.000000000000000
0.000000000000000
-0.000000000000000
0.000000000000000
-0.000000000000000
0.000000000000000
-0.000000000000000
0.000000000000000
-0.000000000000000
0.000000000000000
-0.000000000000000
0.000000000000000
-0.000000000000000
0.000000000000000
-0.000000000000000
0.000000000000000
-0.000000000000000
0.000000000000000
-0.000000000000000
0.000000000000000
-0.000000000000000
0.000000000000000
-0.000000000000000
0.000000000000000
-0.000000000000000
0.000000000000000
-0.000000000000000
0.000000000000000
-0.000000000000000
-0.006875709379508
0.004292927940083
-0.006875709379508
0.004292927940083
-0.006875709379508
0.004292927940083
-0.006875709379508
0.004292927940083
-0.006875709379508
0.004292927940083
-0.006875709379508
0.004292927940083
-0.006875709379508
0.004292927940083
-0.006875709379508
0.004292927940083
-0.006875709379508
0.004292927940083
-0.006875709379508
0.004292927940083
-0.006875709379508
0.004292927940083
-0.006875709379508
0.004292927940083
-0.006875709379508
0.004292927940083
-0.006875709379508
0.004292927940083
-0.006875709379508
0.004292927940083
-0.006875709379508
0.004292927940083
0.009366704029746
-0.020278172836787
0.009366704029746
-0.020278172836787
0.009366704029746
-0.020278172836787
0.009366704029746
-0.020278172836787
0.009366704029746
-0.020278172836787
0.009366704029746
-0.020278172836787
0.009366704029746
-0.020278172836787
0.009366704029746
-0.020278172836787
0.009366704029746
-0.020278172836787
0.009366704029746
-0.020278172836787
0.009366704029746
-0.020278172836787
0.009366704029746
-0.020278172836787
0.009366704029746
-0.020278172836787
0.009366704029746
-0.020278172836787
0.009366704029746
-0.020278172836787
0.009366704029746
-0.020278172836787
-0.006875709379508
0.004292927940083
-0.006875709379508
0.004292927940083
-0.006875709379508
0.004292927940083
-0.006875709379508
0.004292927940083
-0.006875709379508
0.004292927940083
-0.006875709379508
0.004292927940083
-0.006875709379508
0.004292927940083
-0.006875709379508
0.004292927940083
-0.006875709379508
0.004292927940083
-0.006875709379508
0.004292927940083
-0.006875709379508
0.004292927940083
-0.006875709379508
0.004292927940083
-0.006875709379508
0.004292927940083
-0.006875709379508
0.004292927940083
-0.006875709379508
0.004292927940083
-0.006875709379508
0.004292927940083
0.009366704029746
-0.020278172836787
0.009366704029746
-0.020278172836787
0.009366704029746
-0.020278172836787
0.009366704029746
-0.020278172836787
0.009366704029746
-0.020278172836787
0.009366704029746
-0.020278172836787
0.009366704029746
-0.020278172836787
0.009366704029746
-0.020278172836787
0.009366704029746
-0.020278172836787
0.009366704029746
-0.020278172836787
0.009366704029746
-0.020278172836787
0.009366704029746
-0.020278172836787
0.009366704029746
-0.020278172836787
0.009366704029746
-0.020278172836787
0.009366704029746
-0.020278172836787
0.009366704029746
-0.020278172836787
-0.006875709379508
0.004292927940083
-0.006875709379508
0.004292927940083
-0.006875709379508
0.004292927940083
-0.006875709379508
0.004292927940083
-0.006875709379508
0.004292927940083
-0.006875709379508
0.004292927940083
-0.006875709379508
0.004292927940083
-0.006875709379508
0.004292927940083
-0.006875709379508
0.004292927940083
-0.006875709379508
0.004292927940083
-0.006875709379508
0.004292927940083
-0.006875709379508
0.004292927940083
-0.006875709379508
0.004292927940083
-0.006875709379508
0.004292927940083
-0.006875709379508
0.004292927940083
-0.006875709379508
0.004292927940083
0.009366704029746
-0.020278172836787
0.009366704029746
-0.020278172836787
0.009366704029746
-0.020278172836787
0.009366704029746
-0.020278172836787
0.009366704029746
-0.020278172836787
0.009366704029746
-0.020278172836787
0.009366704029746
-0.020278172836787
0.009366704029746
-0.020278172836787
0.009366704029746
-0.020278172836787
0.009366704029746
-0.020278172836787
0.009366704029746
-0.020278172836787
0.009366704029746
-0.020278172836787
0.009366704029746
-0.020278172836787
0.009366704029746
-0.020278172836787
0.009366704029746
-0.020278172836787
0.009366704029746
-0.020278172836787
-0.006875709379508
0.004292927940083
-0.006875709379508
0.004292927940083
-0.006875709379508
0.004292927940083
-0.006875709379508
0.004292927940083
-0.006875709379508
0.004292927940083
-0.006875709379508
0.004292927940083
-0.006875709379508
0.004292927940083
-0.006875709379508
0.004292927940083
-0.006875709379508
0.004292927940083
-0.006875709379508
0.004292927940083
-0.006875709379508
0.004292927940083
-0.006875709379508
0.004292927940083
-0.006875709379508
0.004292927940083
-0.006875709379508
0.004292927940083
-0.006875709379508
0.004292927940083
-0.006875709379508
0.004292927940083
0.009366704029746
-0.020278172836787
0.009366704029746
-0.020278172836787
0.009366704029746
-0.020278172836787
0.009366704029746
-0.020278172836787
0.009366704029746
-0.020278172836787
0.009366704029746
-0.020278172836787
0.009366704029746
-0.020278172836787
0.009366704029746
-0.020278172836787
0.009366704029746
-0.020278172836787
0.009366704029746
-0.020278172836787
0.009366704029746
-0.020278172836787
0.009366704029746
-0.020278172836787
0.009366704029746
-0.020278172836787
0.009366704029746
-0.020278172836787
0.009366704029746
-0.020278172836787
0.009366704029746
-0.020278172836787
-0.006875709379508
0.004292927940083
-0.006875709379508
0.004292927940083
-0.006875709379508
0.004292927940083
-0.006875709379508
0.004292927940083
-0.006875709379508
0.004292927940083
-0.006875709379508
0.004292927940083
-0.006875709379508
0.004292927940083
-0.006875709379508
0.004292927940083
-0.006875709379508
0.004292927940083
-0.006875709379508
0.004292927940083
-0.006875709379508
0.004292927940083
-0.006875709379508
0.004292927940083
-0.006875709379508
0.004292927940083
-0.006875709379508
0.004292927940083
-0.006875709379508
0.004292927940083
-0.006875709379508
0.004292927940083
0.009366704029746
-0.020278172836787
0.009366704029746
-0.020278172836787
0.009366704029746
-0.020278172836787
0.009366704029746
-0.020278172836787
0.009366704029746
-0.020278172836787
0.009366704029746
-0.020278172836787
0.009366704029746
-0.020278172836787
0.009366704029746
-0.020278172836787
0.009366704029746
-0.020278172836787
0.009366704029746
-0.020278172836787
0.009366704029746
-0.020278172836787
0.009366704029746
-0.020278172836787
0.009366704029746
-0.020278172836787
0.009366704029746
-0.020278172836787
0.009366704029746
-0.020278172836787
0.009366704029746
-0.020278172836787
-0.006875709379508
0.004292927940083
-0.006875709379508
0.004292927940083
-0.006875709379508
0.004292927940083
-0.006875709379508
0.004292927940083
-0.006875709379508
0.004292927940083
-0.006875709379508
0.004292927940083
-0.006875709379508
0.004292927940083
-0.006875709379508
0.004292927940083
-0.006875709379508
0.004292927940083
-0.006875709379508
0.004292927940083
-0.006875709379508
0.004292927940083
-0.006875709379508
0.004292927940083
-0.006875709379508
0.004292927940083
-0.006875709379508
0.004292927940083
-0.006875709379508
0.004292927940083
-0.006875709379508
0.004292927940083
0.009366704029746
-0.020278172836787
0.009366704029746
-0.020278172836787
0.009366704029746
-0.020278172836787
0.009366704029746
-0.020278172836787
0.009366704029746
-0.020278172836787
0.009366704029746
-0.020278172836787
0.009366704029746
-0.020278172836787
0.009366704029746
-0.020278172836787
0.009366704029746
-0.020278172836787
0.009366704029746
-0.020278172836787
0.009366704029746
-0.020278172836787
0.009366704029746
-0.020278172836787
0.009366704029746
-0.020278172836787
0.009366704029746
-0.020278172836787
0.009366704029746
-0.020278172836787
0.009366704029746
-0.020278172836787
-0.006875709379508
0.004292927940083
-0.006875709379508
0.004292927940083
-0.006875709379508
0.004292927940083
-0.006875709379508
0.004292927940083
-0.006875709379508
0.004292927940083
-0.006875709379508
0.004292927940083
-0.006875709379508
0.004292927940083
-0.006875709379508
0.004292927940083
-0.006875709379508
0.004292927940083
-0.006875709379508
0.004292927940083
-0.006875709379508
0.004292927940083
-0.006875709379508
0.004292927940083
-0.006875709379508
0.004292927940083
-0.006875709379508
0.004292927940083
-0.006875709379508
0.004292927940083
-0.006875709379508
0.004292927940083
0.009366704029746
-0.020278172836787
0.009366704029746
-0.020278172836787
0.009366704029746
-0.020278172836787
0.009366704029746
-0.020278172836787
0.009366704029746
-0.020278172836787
0.009366704029746
-0.020278172836787
0.009366704029746
-0.020278172836787
0.009366704029746
-0.020278172836787
0.009366704029746
-0.020278172836787
0.009366704029746
-0.020278172836787
0.009366704029746
-0.020278172836787
0.009366704029746
-0.020278172836787
0.009366704029746
-0.020278172836787
0.009366704029746
-0.020278172836787
0.009366704029746
-0.020278172836787
0.009366704029746
-0.020278172836787
-0.006875709379508
0.004292927940083
-0.006875709379508
0.004292927940083
-0.006875709379508
0.004292927940083
-0.006875709379508
0.004292927940083
-0.006875709379508
0.004292927940083
-0.006875709379508
0.004292927940083
-0.006875709379508
0.004292927940083
-0.006875709379508
0.004292927940083
-0.006875709379508
0.004292927940083
-0.006875709379508
0.004292927940083
-0.006875709379508
0.004292927940083
-0.006875709379508
0.004292927940083
-0.006875709379508
0.004292927940083
-0.006875709379508
0.004292927940083
-0.006875709379508
0.004292927940083
-0.006875709379508
0.004292927940083
0.009366704029746
-0.020278172836787
0.009366704029746
-0.020278172836787
0.009366704029746
-0.020278172836787
0.009366704029746
-0.020278172836787
0.009366704029746
-0.020278172836787
0.009366704029746
-0.020278172836787
0.009366704029746
-0.020278172836787
0.009366704029746
-0.020278172836787
0.009366704029746
-0.020278172836787
0.009366704029746
-0.020278172836787
0.009366704029746
-0.020278172836787
0.009366704029746
-0.020278172836787
0.009366704029746
-0.020278172836787
0.009366704029746
-0.020278172836787
0.009366704029746
-0.020278172836787
0.009366704029746
-0.020278172836787
-0.006875709379508
0.004292927940083
-0.006875709379508
0.004292927940083
-0.006875709379508
0.004292927940083
-0.006875709379508
0.004292927940083
-0.006875709379508
0.004292927940083
-0.006875709379508
0.004292927940083
-0.006875709379508
0.004292927940083
-0.006875709379508
0.004292927940083
-0.006875709379508
0.004292927940083
-0.006875709379508
0.004292927940083
-0.006875709379508
0.004292927940083
-0.006875709379508
0.004292927940083
-0.006875709379508
0.004292927940083
-0.006875709379508
0.004292927940083
-0.006875709379508
0.004292927940083
-0.006875709379508
0.004292927940083
0.009366704029746
-0.020278172836787
0.009366704029746
-0.020278172836787
0.009366704029746
-0.020278172836787
0.009366704029746
-0.020278172836787
0.009366704029746
-0.020278172836787
0.009366704029746
-0.020278172836787
0.009366704029746
-0.020278172836787
0.009366704029746
-0.020278172836787
0.009366704029746
-0.020278172836787
0.009366704029746
-0.020278172836787
0.009366704029746
-0.020278172836787
0.009366704029746
-0.020278172836787
0.009366704029746
-0.020278172836787
0.009366704029746
-0.020278172836787
0.009366704029746
-0.020278172836787
0.009366704029746
-0.020278172836787
-0.006875709379508
0.004292927940083
-0.006875709379508
0.004292927940083
-0.006875709379508
0.004292927940083
-0.006875709379508
0.004292927940083
-0.006875709379508
0.004292927940083
-0.006875709379508
0.004292927940083
-0.006875709379508
0.004292927940083
-0.006875709379508
0.004292927940083
-0.006875709379508
0.004292927940083
-0.006875709379508
0.004292927940083
-0.006875709379508
0.004292927940083
-0.006875709379508
0.004292927940083
-0.006875709379508
0.004292927940083
-0.006875709379508
0.004292927940083
-0.006875709379508
0.004292927940083
-0.006875709379508
0.004292927940083
0.009366704029746
-0.020278172836787
0.009366704029746
-0.020278172836787
0.009366704029746
-0.020278172836787
0.009366704029746
-0.020278172836787
0.009366704029746
-0.020278172836787
0.009366704029746
-0.020278172836787
0.009366704029746
-0.020278172836787
0.009366704029746
-0.020278172836787
0.009366704029746
-0.020278172836787
0.009366704029746
-0.020278172836787
0.009366704029746
-0.020278172836787
0.009366704029746
-0.020278172836787
0.009366704029746
-0.020278172836787
0.009366704029746
-0.020278172836787
0.009366704029746
-0.020278172836787
0.009366704029746
-0.020278172836787
-0.006875709379508
0.004292927940083
-0.006875709379508
0.004292927940083
-0.006875709379508
0.004292927940083
-0.006875709379508
0.004292927940083
-0.006875709379508
0.004292927940083
-0.006875709379508
0.004292927940083
-0.006875709379508
0.004292927940083
-0.006875709379508
0.004292927940083
-0.006875709379508
0.004292927940083
-0.006875709379508
0.004292927940083
-0.006875709379508
0.004292927940083
-0.006875709379508
0.004292927940083
-0.006875709379508
0.004292927940083
-0.006875709379508
0.004292927940083
-0.006875709379508
0.004292927940083
-0.006875709379508
0.004292927940083
0.009366704029746
-0.020278172836787
0.009366704029746
-0.020278172836787
0.009366704029746
-0.020278172836787
0.009366704029746
-0.020278172836787
0.009366704029746
-0.020278172836787
0.009366704029746
-0.020278172836787
0.009366704029746
-0.020278172836787
0.009366704029746
-0.020278172836787
0.009366704029746
-0.020278172836787
0.009366704029746
-0.020278172836787
0.009366704029746
-0.020278172836787
0.009366704029746
-0.020278172836787
0.009366704029746
-0.020278172836787
0.009366704029746
-0.020278172836787
0.009366704029746
-0.020278172836787
0.009366704029746
-0.020278172836787
-0.006875709379508
0.004292927940083
-0.006875709379508
0.004292927940083
-0.006875709379508
0.004292927940083
-0.006875709379508
0.004292927940083
-0.006875709379508
0.004292927940083
-0.006875709379508
0.004292927940083
-0.006875709379508
0.004292927940083
-0.006875709379508
0.004292927940083
-0.006875709379508
0.004292927940083
-0.006875709379508
0.004292927940083
-0.006875709379508
0.004292927940083
-0.006875709379508
0.004292927940083
-0.006875709379508
0.004292927940083
-0.006875709379508
0.004292927940083
-0.006875709379508
0.004292927940083
-0.006875709379508
0.004292927940083
0.009366704029746
-0.020278172836787
0.009366704029746
-0.020278172836787
0.009366704029746
-0.020278172836787
0.009366704029746
-0.020278172836787
0.009366704029746
-0.020278172836787
0.009366704029746
-0.020278172836787
0.009366704029746
-0.020278172836787
0.009366704029746
-0.020278172836787
0.009366704029746
-0.020278172836787
0.009366704029746
-0.020278172836787
0.009366704029746
-0.020278172836787
0.009366704029746
-0.020278172836787
0.009366704029746
-0.020278172836787
0.009366704029746
-0.020278172836787
0.009366704029746
-0.020278172836787
0.009366704029746
-0.020278172836787
-0.006875709379508
0.004292927940083
-0.006875709379508
0.004292927940083
-0.006875709379508
0.004292927940083
-0.006875709379508
0.004292927940083
-0.006875709379508
0.004292927940083
-0.006875709379508
0.004292927940083
-0.006875709379508
0.004292927940083
-0.006875709379508
0.004292927940083
-0.006875709379508
0.004292927940083
-0.006875709379508
0.004292927940083
-0.006875709379508
0.004292927940083
-0.006875709379508
0.004292927940083
-0.006875709379508
0.004292927940083
-0.006875709379508
0.004292927940083
-0.006875709379508
0.004292927940083
-0.006875709379508
0.004292927940083
0.009366704029746
-0.020278172836787
0.009366704029746
-0.020278172836787
0.009366704029746
-0.020278172836787
0.009366704029746
-0.020278172836787
0.009366704029746
-0.020278172836787
0.009366704029746
-0.020278172836787
0.009366704029746
-0.020278172836787
0.009366704029746
-0.020278172836787
0.009366704029746
-0.020278172836787
0.009366704029746
-0.020278172836787
0.009366704029746
-0.020278172836787
0.009366704029746
-0.020278172836787
0.009366704029746
-0.020278172836787
0.009366704029746
-0.020278172836787
0.009366704029746
-0.020278172836787
0.009366704029746
-0.020278172836787
-0.006875709379508
0.004292927940083
-0.006875709379508
0.004292927940083
-0.006875709379508
0.004292927940083
-0.006875709379508
0.004292927940083
-0.006875709379508
0.004292927940083
-0.006875709379508
0.004292927940083
-0.006875709379508
0.004292927940083
-0.006875709379508
0.004292927940083
-0.006875709379508
0.004292927940083
-0.006875709379508
0.004292927940083
-0.006875709379508
0.004292927940083
-0.006875709379508
0.004292927940083
-0.006875709379508
0.004292927940083
-0.006875709379508
0.004292927940083
-0.006875709379508
0.004292927940083
-0.006875709379508
0.004292927940083
0.009366704029746
-0.020278172836787
0.009366704029746
-0.020278172836787
0.009366704029746
-0.020278172836787
0.009366704029746
-0.020278172836787
0.009366704029746
-0.020278172836787
0.009366704029746
-0.020278172836787
0.009366704029746
-0.020278172836787
0.009366704029746
-0.020278172836787
0.009366704029746
-0.020278172836787
0.009366704029746
-0.020278172836787
0.009366704029746
-0.020278172836787
0.009366704029746
-0.020278172836787
0.009366704029746
-0.020278172836787
0.009366704029746
-0.020278172836787
0.009366704029746
-0.020278172836787
0.009366704029746
-0.020278172836787
-0.006875709379508
0.004292927940083
-0.006875709379508
0.004292927940083
-0.006875709379508
0.004292927940083
-0.006875709379508
0.004292927940083
-0.006875709379508
0.004292927940083
-0.006875709379508
0.004292927940083
-0.006875709379508
0.004292927940083
-0.006875709379508
0.004292927940083
-0.006875709379508
0.004292927940083
-0.006875709379508
0.004292927940083
-0.006875709379508
0.004292927940083
-0.006875709379508
0.004292927940083
-0.006875709379508
0.004292927940083
-0.006875709379508
0.004292927940083
-0.006875709379508
0.004292927940083
-0.006875709379508
0.004292927940083
0.009366704029746
-0.020278172836787
0.009366704029746
-0.020278172836787
0.009366704029746
-0.020278172836787
0.009366704029746
-0.020278172836787
0.009366704029746
-0.020278172836787
0.009366704029746
-0.020278172836787
0.009366704029746
-0.020278172836787
0.009366704029746
-0.020278172836787
0.009366704029746
-0.020278172836787
0.009366704029746
-0.020278172836787
0.009366704029746
-0.020278172836787
0.009366704029746
-0.020278172836787
0.009366704029746
-0.020278172836787
0.009366704029746
-0.020278172836787
0.009366704029746
-0.020278172836787
0.009366704029746
-0.020278172836787
-0.000000000000000
0.000000000000000
-0.000000000000000
0.000000000000000
-0.000000000000000
0.000000000000000
-0.000000000000000
0.000000000000000
-0.000000000000000
0.000000000000000
-0.000000000000000
0.000000000000000
-0.000000000000000
0.000000000000000
-0.000000000000000
0.000000000000000
-0.000000000000000
0.000000000000000
-0.000000000000000
0.000000000000000
-0.000000000000000
0.000000000000000
-0.000000000000000
0.000000000000000
-0.000000000000000
0.000000000000000
-0.000000000000000
0.000000000000000
-0.000000000000000
0.000000000000000
-0.000000000000000
0.000000000000000
0.000000000000000
-0.000000000000000
0.000000000000000
-0.000000000000000
0.000000000000000
-0.000000000000000
0.000000000000000
-0.000000000000000
0.000000000000000
-0.000000000000000
0.000000000000000
-0.000000000000000
0.000000000000000
-0.000000000000000
0.000000000000000
-0.000000000000000
0.000000000000000
-0.000000000000000
0.000000000000000
-0.000000000000000
0.000000000000000
-0.000000000000000
0.000000000000000
-0.000000000000000
0.000000000000000
-0.000000000000000
0.000000000000000
-0.000000000000000
0.000000000000000
-0.000000000000000
0.000000000000000
-0.000000000000000
0.002222388950734
0.000161502229546
0.002222388950734
0.000161502229546
0.002222388950734
0.000161502229546
0.002222388950734
0.000161502229546
0.002222388950734
0.000161502229546
0.002222388950734
0.000161502229546
0.002222388950734
0.000161502229546
0.002222388950734
0.000161502229546
0.002222388950734
0.000161502229546
0.002222388950734
0.000161502229546
0.002222388950734
0.000161502229546
0.002222388950734
0.000161502229546
0.002222388950734
0.000161502229546
0.002222388950734
0.000161502229546
0.002222388950734
0.000161502229546
0.002222388950734
0.000161502229546
0.000513982920820
-0.017513262044162
0.000513982920820
-0.017513262044162
0.000513982920820
-0.017513262044162
0.000513982920820
-0.017513262044162
0.000513982920820
-0.017513262044162
0.000513982920820
-0.017513262044162
0.000513982920820
-0.017513262044162
0.000513982920820
-0.017513262044162
0.000513982920820
-0.017513262044162
0.000513982920820
-0.017513262044162
0.000513982920820
-0.017513262044162
0.000513982920820
-0.017513262044162
0.000513982920820
-0.017513262044162
0.000513982920820
-0.017513262044162
0.000513982920820
-0.017513262044162
0.000513982920820
-0.017513262044162
0.002222388950734
0.000161502229546
0.002222388950734
0.000161502229546
0.002222388950734
0.000161502229546
0.002222388950734
0.000161502229546
0.002222388950734
0.000161502229546
0.002222388950734
0.000161502229546
0.002222388950734
0.000161502229546
0.002222388950734
0.000161502229546
0.002222388950734
0.000161502229546
0.002222388950734
0.000161502229546
0.002222388950734
0.000161502229546
0.002222388950734
0.000161502229546
0.002222388950734
0.000161502229546
0.002222388950734
0.000161502229546
0.002222388950734
0.000161502229546
0.002222388950734
0.000161502229546
0.000513982920820
-0.017513262044162
0.000513982920820
-0.017513262044162
0.000513982920820
-0.017513262044162
0.000513982920820
-0.017513262044162
0.000513982920820
-0.017513262044162
0.000513982920820
-0.017513262044162
0.000513982920820
-0.017513262044162
0.000513982920820
-0.017513262044162
0.000513982920820
-0.017513262044162
0.000513982920820
-0.017513262044162
0.000513982920820
-0.017513262044162
0.000513982920820
-0.017513262044162
0.000513982920820
-0.017513262044162
0.000513982920820
-0.017513262044162
0.000513982920820
-0.017513262044162
0.000513982920820
-0.017513262044162
0.002222388950734
0.000161502229546
0.002222388950734
0.000161502229546
0.002222388950734
0.000161502229546
0.002222388950734
0.000161502229546
0.002222388950734
0.000161502229546
0.002222388950734
0.000161502229546
0.002222388950734
0.000161502229546
0.002222388950734
0.000161502229546
0.002222388950734
0.000161502229546
0.002222388950734
0.000161502229546
0.002222388950734
0.000161502229546
0.002222388950734
0.000161502229546
0.002222388950734
0.000161502229546
0.002222388950734
0.000161502229546
0.002222388950734
0.000161502229546
0.002222388950734
0.000161502229546
0.000513982920820
-0.017513262044162
0.000513982920820
-0.017513262044162
0.000513982920820
-0.017513262044162
0.000513982920820
-0.017513262044162
0.000513982920820
-0.017513262044162
0.000513982920820
-0.017513262044162
0.000513982920820
-0.017513262044162
0.000513982920820
-0.017513262044162
0.000513982920820
-0.017513262044162
0.000513982920820
-0.017513262044162
0.000513982920820
-0.017513262044162
0.000513982920820
-0.017513262044162
0.000513982920820
-0.017513262044162
0.000513982920820
-0.017513262044162
0.000513982920820
-0.017513262044162
0.000513982920820
-0.017513262044162
0.002222388950734
0.000161502229546
0.002222388950734
0.000161502229546
0.002222388950734
0.000161502229546
0.002222388950734
0.000161502229546
0.002222388950734
0.000161502229546
0.002222388950734
0.000161502229546
0.002222388950734
0.000161502229546
0.002222388950734
0.000161502229546
0.002222388950734
0.000161502229546
0.002222388950734
0.000161502229546
0.002222388950734
0.000161502229546
0.002222388950734
0.000161502229546
0.002222388950734
0.000161502229546
0.002222388950734
0.000161502229546
0.002222388950734
0.000161502229546
0.002222388950734
0.000161502229546
0.000513982920820
-0.017513262044162
0.000513982920820
-0.017513262044162
0.000513982920820
-0.017513262044162
0.000513982920820
-0.017513262044162
0.000513982920820
-0.017513262044162
0.000513982920820
-0.017513262044162
0.000513982920820
-0.017513262044162
0.000513982920820
-0.017513262044162
0.000513982920820
-0.017513262044162
0.000513982920820
-0.017513262044162
0.000513982920820
-0.017513262044162
0.000513982920820
-0.017513262044162
0.000513982920820
-0.017513262044162
0.000513982920820
-0.017513262044162
0.000513982920820
-0.017513262044162
0.000513982920820
-0.017513262044162
0.002222388950734
0.000161502229546
0.002222388950734
0.000161502229546
0.002222388950734
0.000161502229546
0.002222388950734
0.000161502229546
0.002222388950734
0.000161502229546
0.002222388950734
0.000161502229546
0.002222388950734
0.000161502229546
0.002222388950734
0.000161502229546
0.002222388950734
0.000161502229546
0.002222388950734
0.000161502229546
0.002222388950734
0.000161502229546
0.002222388950734
0.000161502229546
0.002222388950734
0.000161502229546
0.002222388950734
0.000161502229546
0.002222388950734
0.000161502229546
0.002222388950734
0.000161502229546
0.000513982920820
-0.017513262044162
0.000513982920820
-0.017513262044162
0.000513982920820
-0.017513262044162
0.000513982920820
-0.017513262044162
0.000513982920820
-0.017513262044162
0.000513982920820
-0.017513262044162
0.000513982920820
-0.017513262044162
0.000513982920820
-0.017513262044162
0.000513982920820
-0.017513262044162
0.000513982920820
-0.017513262044162
0.000513982920820
-0.017513262044162
0.000513982920820
-0.017513262044162
0.000513982920820
-0.017513262044162
0.000513982920820
-0.017513262044162
0.000513982920820
-0.017513262044162
0.000513982920820
-0.017513262044162
0.002222388950734
0.000161502229546
0.002222388950734
0.000161502229546
0.002222388950734
0.000161502229546
0.002222388950734
0.000161502229546
0.002222388950734
0.000161502229546
0.002222388950734
0.000161502229546
0.002222388950734
0.000161502229546
0.002222388950734
0.000161502229546
0.002222388950734
0.000161502229546
0.002222388950734
0.000161502229546
0.002222388950734
0.000161502229546
0.002222388950734
0.000161502229546
0.002222388950734
0.000161502229546
0.002222388950734
0.000161502229546
0.002222388950734
0.000161502229546
0.002222388950734
0.000161502229546
0.000513982920820
-0.017513262044162
0.000513982920820
-0.017513262044162
0.000513982920820
-0.017513262044162
0.000513982920820
-0.017513262044162
0.000513982920820
-0.017513262044162
0.000513982920820
-0.017513262044162
0.000513982920820
-0.017513262044162
0.000513982920820
-0.017513262044162
0.000513982920820
-0.017513262044162
0.000513982920820
-0.017513262044162
0.000513982920820
-0.017513262044162
0.000513982920820
-0.017513262044162
0.000513982920820
-0.017513262044162
0.000513982920820
-0.017513262044162
0.000513982920820
-0.017513262044162
0.000513982920820
-0.017513262044162
0.002222388950734
0.000161502229546
0.002222388950734
0.000161502229546
0.002222388950734
0.000161502229546
0.002222388950734
0.000161502229546
0.002222388950734
0.000161502229546
0.002222388950734
0.000161502229546
0.002222388950734
0.000161502229546
0.002222388950734
0.000161502229546
0.002222388950734
0.000161502229546
0.002222388950734
0.000161502229546
0.002222388950734
0.000161502229546
0.002222388950734
0.000161502229546
0.002222388950734
0.000161502229546
0.002222388950734
0.000161502229546
0.002222388950734
0.000161502229546
0.002222388950734
0.000161502229546
0.000513982920820
-0.017513262044162
0.000513982920820
-0.017513262044162
0.000513982920820
-0.017513262044162
0.000513982920820
-0.017513262044162
0.000513982920820
-0.017513262044162
0.000513982920820
-0.017513262044162
0.000513982920820
-0.017513262044162
0.000513982920820
-0.017513262044162
0.000513982920820
-0.017513262044162
0.000513982920820
-0.017513262044162
0.000513982920820
-0.017513262044162
0.000513982920820
-0.017513262044162
0.000513982920820
-0.017513262044162
0.000513982920820
-0.017513262044162
0.000513982920820
-0.017513262044162
0.000513982920820
-0.017513262044162
0.002222388950734
0.000161502229546
0.002222388950734
0.000161502229546
0.002222388950734
0.000161502229546
0.002222388950734
0.000161502229546
0.002222388950734
0.000161502229546
0.002222388950734
0.000161502229546
0.002222388950734
0.000161502229546
0.002222388950734
0.000161502229546
0.002222388950734
0.000161502229546
0.002222388950734
0.000161502229546
0.002222388950734
0.000161502229546
0.002222388950734
0.000161502229546
0.002222388950734
0.000161502229546
0.002222388950734
0.000161502229546
0.002222388950734
0.000161502229546
0.002222388950734
0.000161502229546
0.000513982920820
-0.017513262044162
0.000513982920820
-0.017513262044162
0.000513982920820
-0.017513262044162
0.000513982920820
-0.017513262044162
0.000513982920820
-0.017513262044162
0.000513982920820
-0.017513262044162
0.000513982920820
-0.017513262044162
0.000513982920820
-0.017513262044162
0.000513982920820
-0.017513262044162
0.000513982920820
-0.017513262044162
0.000513982920820
-0.017513262044162
0.000513982920820
-0.017513262044162
0.000513982920820
-0.017513262044162
0.000513982920820
-0.017513262044162
0.000513982920820
-0.017513262044162
0.000513982920820
-0.017513262044162
0.002222388950734
0.000161502229546
0.002222388950734
0.000161502229546
0.002222388950734
0.000161502229546
0.002222388950734
0.000161502229546
0.002222388950734
0.000161502229546
0.002222388950734
0.000161502229546
0.002222388950734
0.000161502229546
0.002222388950734
0.000161502229546
0.002222388950734
0.000161502229546
0.002222388950734
0.000161502229546
0.002222388950734
0.000161502229546
0.002222388950734
0.000161502229546
0.002222388950734
0.000161502229546
0.002222388950734
0.000161502229546
0.002222388950734
0.000161502229546
0.002222388950734
0.000161502229546
0.000513982920820
-0.017513262044162
0.000513982920820
-0.017513262044162
0.000513982920820
-0.017513262044162
0.000513982920820
-0.017513262044162
0.000513982920820
-0.017513262044162
0.000513982920820
-0.017513262044162
0.000513982920820
-0.017513262044162
0.000513982920820
-0.017513262044162
0.000513982920820
-0.017513262044162
0.000513982920820
-0.017513262044162
0.000513982920820
-0.017513262044162
0.000513982920820
-0.017513262044162
0.000513982920820
-0.017513262044162
0.000513982920820
-0.017513262044162
0.000513982920820
-0.017513262044162
0.000513982920820
-0.017513262044162
0.002222388950734
0.000161502229546
0.002222388950734
0.000161502229546
0.002222388950734
0.000161502229546
0.002222388950734
0.000161502229546
0.002222388950734
0.000161502229546
0.002222388950734
0.000161502229546
0.002222388950734
0.000161502229546
0.002222388950734
0.000161502229546
0.002222388950734
0.000161502229546
0.002222388950734
0.000161502229546
0.002222388950734
0.000161502229546
0.002222388950734
0.000161502229546
0.002222388950734
0.000161502229546
0.002222388950734
0.000161502229546
0.002222388950734
0.000161502229546
0.002222388950734
0.000161502229546
0.000513982920820
-0.017513262044162
0.000513982920820
-0.017513262044162
0.000513982920820
-0.017513262044162
0.000513982920820
-0.017513262044162
0.000513982920820
-0.017513262044162
0.000513982920820
-0.017513262044162
0.000513982920820
-0.017513262044162
0.000513982920820
-0.017513262044162
0.000513982920820
-0.017513262044162
0.000513982920820
-0.017513262044162
0.000513982920820
-0.017513262044162
0.000513982920820
-0.017513262044162
0.000513982920820
-0.017513262044162
0.000513982920820
-0.017513262044162
0.000513982920820
-0.017513262044162
0.000513982920820
-0.017513262044162
0.002222388950734
0.000161502229546
0.002222388950734
0.000161502229546
0.002222388950734
0.000161502229546
0.002222388950734
0.000161502229546
0.002222388950734
0.000161502229546
0.002222388950734
0.000161502229546
0.002222388950734
0.000161502229546
0.002222388950734
0.000161502229546
0.002222388950734
0.000161502229546
0.002222388950734
0.000161502229546
0.002222388950734
0.000161502229546
0.002222388950734
0.000161502229546
0.002222388950734
0.000161502229546
0.002222388950734
0.000161502229546
0.002222388950734
0.000161502229546
0.002222388950734
0.000161502229546
0.000513982920820
-0.017513262044162
0.000513982920820
-0.017513262044162
0.000513982920820
-0.017513262044162
0.000513982920820
-0.017513262044162
0.000513982920820
-0.017513262044162
0.000513982920820
-0.017513262044162
0.000513982920820
-0.017513262044162
0.000513982920820
-0.017513262044162
0.000513982920820
-0.017513262044162
0.000513982920820
-0.017513262044162
0.000513982920820
-0.017513262044162
0.000513982920820
-0.017513262044162
0.000513982920820
-0.017513262044162
0.000513982920820
-0.017513262044162
0.000513982920820
-0.017513262044162
0.000513982920820
-0.017513262044162
0.002222388950734
0.000161502229546
0.002222388950734
0.000161502229546
0.002222388950734
0.000161502229546
0.002222388950734
0.000161502229546
0.002222388950734
0.000161502229546
0.002222388950734
0.000161502229546
0.002222388950734
0.000161502229546
0.002222388950734
0.000161502229546
0.002222388950734
0.000161502229546
0.002222388950734
0.000161502229546
0.002222388950734
0.000161502229546
0.002222388950734
0.000161502229546
0.002222388950734
0.000161502229546
0.002222388950734
0.000161502229546
0.002222388950734
0.000161502229546
0.002222388950734
0.000161502229546
0.000513982920820
-0.017513262044162
0.000513982920820
-0.017513262044162
0.000513982920820
-0.017513262044162
0.000513982920820
-0.017513262044162
0.000513982920820
-0.017513262044162
0.000513982920820
-0.017513262044162
0.000513982920820
-0.017513262044162
0.000513982920820
-0.017513262044162
0.000513982920820
-0.017513262044162
0.000513982920820
-0.017513262044162
0.000513982920820
-0.017513262044162
0.000513982920820
-0.017513262044162
0.000513982920820
-0.017513262044162
0.000513982920820
-0.017513262044162
0.000513982920820
-0.017513262044162
0.000513982920820
-0.017513262044162
0.002222388950734
0.000161502229546
0.002222388950734
0.000161502229546
0.002222388950734
0.000161502229546
0.002222388950734
0.000161502229546
0.002222388950734
0.000161502229546
0.002222388950734
0.000161502229546
0.002222388950734
0.000161502229546
0.002222388950734
0.000161502229546
0.002222388950734
0.000161502229546
0.002222388950734
0.000161502229546
0.002222388950734
0.000161502229546
0.002222388950734
0.000161502229546
0.002222388950734
0.000161502229546
0.002222388950734
0.000161502229546
0.002222388950734
0.000161502229546
0.002222388950734
0.000161502229546
0.000513982920820
-0.017513262044162
0.000513982920820
-0.017513262044162
0.000513982920820
-0.017513262044162
0.000513982920820
-0.017513262044162
0.000513982920820
-0.017513262044162
0.000513982920820
-0.017513262044162
0.000513982920820
-0.017513262044162
0.000513982920820
-0.017513262044162
0.000513982920820
-0.017513262044162
0.000513982920820
-0.017513262044162
0.000513982920820
-0.017513262044162
0.000513982920820
-0.017513262044162
0.000513982920820
-0.017513262044162
0.000513982920820
-0.017513262044162
0.000513982920820
-0.017513262044162
0.000513982920820
-0.017513262044162
0.002222388950734
0.000161502229546
0.002222388950734
0.000161502229546
0.002222388950734
0.000161502229546
0.002222388950734
0.000161502229546
0.002222388950734
0.000161502229546
0.002222388950734
0.000161502229546
0.002222388950734
0.000161502229546
0.002222388950734
0.000161502229546
0.002222388950734
0.000161502229546
0.002222388950734
0.000161502229546
0.002222388950734
0.000161502229546
0.002222388950734
0.000161502229546
0.002222388950734
0.000161502229546
0.002222388950734
0.000161502229546
0.002222388950734
0.000161502229546
0.002222388950734
0.000161502229546
0.000513982920820
-0.017513262044162
0.000513982920820
-0.017513262044162
0.000513982920820
-0.017513262044162
0.000513982920820
-0.017513262044162
0.000513982920820
-0.017513262044162
0.000513982920820
-0.017513262044162
0.000513982920820
-0.017513262044162
0.000513982920820
-0.017513262044162
0.000513982920820
-0.017513262044162
0.000513982920820
-0.017513262044162
0.000513982920820
-0.017513262044162
0.000513982920820
-0.017513262044162
0.000513982920820
-0.017513262044162
0.000513982920820
-0.017513262044162
0.000513982920820
-0.017513262044162
0.000513982920820
-0.017513262044162
0.002222388950734
0.000161502229546
0.002222388950734
0.000161502229546
0.002222388950734
0.000161502229546
0.002222388950734
0.000161502229546
0.002222388950734
0.000161502229546
0.002222388950734
0.000161502229546
0.002222388950734
0.000161502229546
0.002222388950734
0.000161502229546
0.002222388950734
0.000161502229546
0.002222388950734
0.000161502229546
0.002222388950734
0.000161502229546
0.002222388950734
0.000161502229546
0.002222388950734
0.000161502229546
0.002222388950734
0.000161502229546
0.002222388950734
0.000161502229546
0.002222388950734
0.000161502229546
0.000513982920820
-0.017513262044162
0.000513982920820
-0.017513262044162
0.000513982920820
-0.017513262044162
0.000513982920820
-0.017513262044162
0.000513982920820
-0.017513262044162
0.000513982920820
-0.017513262044162
0.000513982920820
-0.017513262044162
0.000513982920820
-0.017513262044162
0.000513982920820
-0.017513262044162
0.000513982920820
-0.017513262044162
0.000513982920820
-0.017513262044162
0.000513982920820
-0.017513262044162
0.000513982920820
-0.017513262044162
0.000513982920820
-0.017513262044162
0.000513982920820
-0.017513262044162
0.000513982920820
-0.017513262044162
0.000000000000000
0.000000000000000
0.000000000000000
0.000000000000000
0.000000000000000
0.000000000000000
0.000000000000000
0.000000000000000
0.000000000000000
0.000000000000000
0.000000000000000
0.000000000000000
0.000000000000000
0.000000000000000
0.000000000000000
0.000000000000000
0.000000000000000
0.000000000000000
0.000000000000000
0.000000000000000
0.000000000000000
0.000000000000000
0.000000000000000
0.000000000000000
0.000000000000000
0.000000000000000
0.000000000000000
0.000000000000000
0.000000000000000
0.000000000000000
0.000000000000000
0.000000000000000
0.000000000000000
-0.000000000000000
0.000000000000000
-0.000000000000000
0.000000000000000
-0.000000000000000
0.000000000000000
-0.000000000000000
0.000000000000000
-0.000000000000000
0.000000000000000
-0.000000000000000
0.000000000000000
-0.000000000000000
0.000000000000000
-0.000000000000000
0.000000000000000
-0.000000000000000
0.000000000000000
-0.000000000000000
0.000000000000000
-0.000000000000000
0.000000000000000
-0.000000000000000
0.000000000000000
-0.000000000000000
0.000000000000000
-0.000000000000000
0.000000000000000
-0.000000000000000
0.000000000000000
-0.000000000000000
-0.049385930250325
0.012127663386407
-0.049385930250325
0.012127663386407
-0.049385930250325
0.012127663386407
-0.049385930250325
0.012127663386407
-0.049385930250325
0.012127663386407
-0.049385930250325
0.012127663386407
-0.049385930250325
0.012127663386407
-0.049385930250325
0.012127663386407
-0.049385930250325
0.012127663386407
-0.049385930250325
0.012127663386407
-0.049385930250325
0.012127663386407
-0.049385930250325
0.012127663386407
-0.049385930250325
0.012127663386407
-0.049385930250325
0.012127663386407
-0.049385930250325
0.012127663386407
-0.049385930250325
0.012127663386407
-0.018825950600053
0.000039683383317
-0.018825950600053
0.000039683383317
-0.018825950600053
0.000039683383317
-0.018825950600053
0.000039683383317
-0.018825950600053
0.000039683383317
-0.018825950600053
0.000039683383317
-0.018825950600053
0.000039683383317
-0.018825950600053
0.000039683383317
-0.018825950600053
0.000039683383317
-0.018825950600053
0.000039683383317
-0.018825950600053
0.000039683383317
-0.018825950600053
0.000039683383317
-0.018825950600053
0.000039683383317
-0.018825950600053
0.000039683383317
-0.018825950600053
0.000039683383317
-0.018825950600053
0.000039683383317
-0.049385930250325
0.012127663386407
-0.049385930250325
0.012127663386407
-0.049385930250325
0.012127663386407
-0.049385930250325
0.012127663386407
-0.049385930250325
0.012127663386407
-0.049385930250325
0.012127663386407
-0.049385930250325
0.012127663386407
-0.049385930250325
0.012127663386407
-0.049385930250325
0.012127663386407
-0.049385930250325
0.012127663386407
-0.049385930250325
0.012127663386407
-0.049385930250325
0.012127663386407
-0.049385930250325
0.012127663386407
-0.049385930250325
0.012127663386407
-0.049385930250325
0.012127663386407
-0.049385930250325
0.012127663386407
-0.018825950600053
0.000039683383317
-0.018825950600053
0.000039683383317
-0.018825950600053
0.000039683383317
-0.018825950600053
0.000039683383317
-0.018825950600053
0.000039683383317
-0.018825950600053
0.000039683383317
-0.018825950600053
0.000039683383317
-0.018825950600053
0.000039683383317
-0.018825950600053
0.000039683383317
-0.018825950600053
0.000039683383317
-0.018825950600053
0.000039683383317
-0.018825950600053
0.000039683383317
-0.018825950600053
0.000039683383317
-0.018825950600053
0.000039683383317
-0.018825950600053
0.000039683383317
-0.018825950600053
0.000039683383317
-0.049385930250325
0.012127663386407
-0.049385930250325
0.012127663386407
-0.049385930250325
0.012127663386407
-0.049385930250325
0.012127663386407
-0.049385930250325
0.012127663386407
-0.049385930250325
0.012127663386407
-0.049385930250325
0.012127663386407
-0.049385930250325
0.012127663386407
-0.049385930250325
0.012127663386407
-0.049385930250325
0.012127663386407
-0.049385930250325
0.012127663386407
-0.049385930250325
0.012127663386407
-0.049385930250325
0.012127663386407
-0.049385930250325
0.012127663386407
-0.049385930250325
0.012127663386407
-0.049385930250325
0.012127663386407
-0.018825950600053
0.000039683383317
-0.018825950600053
0.000039683383317
-0.018825950600053
0.000039683383317
-0.018825950600053
0.000039683383317
-0.018825950600053
0.000039683383317
-0.018825950600053
0.000039683383317
-0.018825950600053
0.000039683383317
-0.018825950600053
0.000039683383317
-0.018825950600053
0.000039683383317
-0.018825950600053
0.000039683383317
-0.018825950600053
0.000039683383317
-0.018825950600053
0.000039683383317
-0.018825950600053
0.000039683383317
-0.018825950600053
0.000039683383317
-0.018825950600053
0.000039683383317
-0.018825950600053
0.000039683383317
-0.049385930250325
0.012127663386407
-0.049385930250325
0.012127663386407
-0.049385930250325
0.012127663386407
-0.049385930250325
0.012127663386407
-0.049385930250325
0.012127663386407
-0.049385930250325
0.012127663386407
-0.049385930250325
0.012127663386407
-0.049385930250325
0.012127663386407
-0.049385930250325
0.012127663386407
-0.049385930250325
0.012127663386407
-0.049385930250325
0.012127663386407
-0.049385930250325
0.012127663386407
-0.049385930250325
0.012127663386407
-0.049385930250325
0.012127663386407
-0.049385930250325
0.012127663386407
-0.049385930250325
0.012127663386407
-0.018825950600053
0.000039683383317
-0.018825950600053
0.000039683383317
-0.018825950600053
0.000039683383317
-0.018825950600053
0.000039683383317
-0.018825950600053
0.000039683383317
-0.018825950600053
0.000039683383317
-0.018825950600053
0.000039683383317
-0.018825950600053
0.000039683383317
-0.018825950600053
0.000039683383317
-0.018825950600053
0.000039683383317
-0.018825950600053
0.000039683383317
-0.018825950600053
0.000039683383317
-0.018825950600053
0.000039683383317
-0.018825950600053
0.000039683383317
-0.018825950600053
0.000039683383317
-0.018825950600053
0.000039683383317
-0.049385930250325
0.012127663386407
-0.049385930250325
0.012127663386407
-0.049385930250325
0.012127663386407
-0.049385930250325
0.012127663386407
-0.049385930250325
0.012127663386407
-0.049385930250325
0.012127663386407
-0.049385930250325
0.012127663386407
-0.049385930250325
0.012127663386407
-0.049385930250325
0.012127663386407
-0.049385930250325
0.012127663386407
-0.049385930250325
0.012127663386407
-0.049385930250325
0.012127663386407
-0.049385930250325
0.012127663386407
-0.049385930250325
0.012127663386407
-0.049385930250325
0.012127663386407
-0.049385930250325
0.012127663386407
-0.018825950600053
0.000039683383317
-0.018825950600053
0.000039683383317
-0.018825950600053
0.000039683383317
-0.018825950600053
0.000039683383317
-0.018825950600053
0.000039683383317
-0.018825950600053
0.000039683383317
-0.018825950600053
0.000039683383317
-0.018825950600053
0.000039683383317
-0.018825950600053
0.000039683383317
-0.018825950600053
0.000039683383317
-0.018825950600053
0.000039683383317
-0.018825950600053
0.000039683383317
-0.018825950600053
0.000039683383317
-0.018825950600053
0.000039683383317
-0.018825950600053
0.000039683383317
-0.018825950600053
0.000039683383317
-0.049385930250325
0.012127663386407
-0.049385930250325
0.012127663386407
-0.049385930250325
0.012127663386407
-0.049385930250325
0.012127663386407
-0.049385930250325
0.012127663386407
-0.049385930250325
0.012127663386407
-0.049385930250325
0.012127663386407
-0.049385930250325
0.012127663386407
-0.049385930250325
0.012127663386407
-0.049385930250325
0.012127663386407
-0.049385930250325
0.012127663386407
-0.049385930250325
0.012127663386407
-0.049385930250325
0.012127663386407
-0.049385930250325
0.012127663386407
-0.049385930250325
0.012127663386407
-0.049385930250325
0.012127663386407
-0.018825950600053
0.000039683383317
-0.018825950600053
0.000039683383317
-0.018825950600053
0.000039683383317
-0.018825950600053
0.000039683383317
-0.018825950600053
0.000039683383317
-0.018825950600053
0.000039683383317
-0.018825950600053
0.000039683383317
-0.018825950600053
0.000039683383317
-0.018825950600053
0.000039683383317
-0.018825950600053
0.000039683383317
-0.018825950600053
0.000039683383317
-0.018825950600053
0.000039683383317
-0.018825950600053
0.000039683383317
-0.018825950600053
0.000039683383317
-0.018825950600053
0.000039683383317
-0.018825950600053
0.000039683383317
-0.049385930250325
0.012127663386407
-0.049385930250325
0.012127663386407
-0.049385930250325
0.012127663386407
-0.049385930250325
0.012127663386407
-0.049385930250325
0.012127663386407
-0.049385930250325
0.012127663386407
-0.049385930250325
0.012127663386407
-0.049385930250325
0.012127663386407
-0.049385930250325
0.012127663386407
-0.049385930250325
0.012127663386407
-0.049385930250325
0.012127663386407
-0.049385930250325
0.012127663386407
-0.049385930250325
0.012127663386407
-0.049385930250325
0.012127663386407
-0.049385930250325
0.012127663386407
-0.049385930250325
0.012127663386407
-0.018825950600053
0.000039683383317
-0.018825950600053
0.000039683383317
-0.018825950600053
0.000039683383317
-0.018825950600053
0.000039683383317
-0.018825950600053
0.000039683383317
-0.018825950600053
0.000039683383317
-0.018825950600053
0.000039683383317
-0.018825950600053
0.000039683383317
-0.018825950600053
0.000039683383317
-0.018825950600053
0.000039683383317
-0.018825950600053
0.000039683383317
-0.018825950600053
0.000039683383317
-0.018825950600053
0.000039683383317
-0.018825950600053
0.000039683383317
-0.018825950600053
0.000039683383317
-0.018825950600053
0.000039683383317
-0.049385930250325
0.012127663386407
-0.049385930250325
0.012127663386407
-0.049385930250325
0.012127663386407
-0.049385930250325
0.012127663386407
-0.049385930250325
0.012127663386407
-0.049385930250325
0.012127663386407
-0.049385930250325
0.012127663386407
-0.049385930250325
0.012127663386407
-0.049385930250325
0.012127663386407
-0.049385930250325
0.012127663386407
-0.049385930250325
0.012127663386407
-0.049385930250325
0.012127663386407
-0.049385930250325
0.012127663386407
-0.049385930250325
0.012127663386407
-0.049385930250325
0.012127663386407
-0.049385930250325
0.012127663386407
-0.018825950600053
0.000039683383317
-0.018825950600053
0.000039683383317
-0.018825950600053
0.000039683383317
-0.018825950600053
0.000039683383317
-0.018825950600053
0.000039683383317
-0.018825950600053
0.000039683383317
-0.018825950600053
0.000039683383317
-0.018825950600053
0.000039683383317
-0.018825950600053
0.000039683383317
-0.018825950600053
0.000039683383317
-0.018825950600053
0.000039683383317
-0.018825950600053
0.000039683383317
-0.018825950600053
0.000039683383317
-0.018825950600053
0.000039683383317
-0.018825950600053
0.000039683383317
-0.018825950600053
0.000039683383317
-0.049385930250325
0.012127663386407
-0.049385930250325
0.012127663386407
-0.049385930250325
0.012127663386407
-0.049385930250325
0.012127663386407
-0.049385930250325
0.012127663386407
-0.049385930250325
0.012127663386407
-0.049385930250325
0.012127663386407
-0.049385930250325
0.012127663386407
-0.049385930250325
0.012127663386407
-0.049385930250325
0.012127663386407
-0.049385930250325
0.012127663386407
-0.049385930250325
0.012127663386407
-0.049385930250325
0.012127663386407
-0.049385930250325
0.012127663386407
-0.049385930250325
0.012127663386407
-0.049385930250325
0.012127663386407
-0.018825950600053
0.000039683383317
-0.018825950600053
0.000039683383317
-0.018825950600053
0.000039683383317
-0.018825950600053
0.000039683383317
-0.018825950600053
0.000039683383317
-0.018825950600053
0.000039683383317
-0.018825950600053
0.000039683383317
-0.018825950600053
0.000039683383317
-0.018825950600053
0.000039683383317
-0.018825950600053
0.000039683383317
-0.018825950600053
0.000039683383317
-0.018825950600053
0.000039683383317
-0.018825950600053
0.000039683383317
-0.018825950600053
0.000039683383317
-0.018825950600053
0.000039683383317
-0.018825950600053
0.000039683383317
-0.049385930250325
0.012127663386407
-0.049385930250325
0.012127663386407
-0.049385930250325
0.012127663386407
-0.049385930250325
0.012127663386407
-0.049385930250325
0.012127663386407
-0.049385930250325
0.012127663386407
-0.049385930250325
0.012127663386407
-0.049385930250325
0.012127663386407
-0.049385930250325
0.012127663386407
-0.049385930250325
0.012127663386407
-0.049385930250325
0.012127663386407
-0.049385930250325
0.012127663386407
-0.049385930250325
0.012127663386407
-0.049385930250325
0.012127663386407
-0.049385930250325
0.012127663386407
-0.049385930250325
0.012127663386407
-0.018825950600053
0.000039683383317
-0.018825950600053
0.000039683383317
-0.018825950600053
0.000039683383317
-0.018825950600053
0.000039683383317
-0.018825950600053
0.000039683383317
-0.018825950600053
0.000039683383317
-0.018825950600053
0.000039683383317
-0.018825950600053
0.000039683383317
-0.018825950600053
0.000039683383317
-0.018825950600053
0.000039683383317
-0.018825950600053
0.000039683383317
-0.018825950600053
0.000039683383317
-0.018825950600053
0.000039683383317
-0.018825950600053
0.000039683383317
-0.018825950600053
0.000039683383317
-0.018825950600053
0.000039683383317
-0.049385930250325
0.012127663386407
-0.049385930250325
0.012127663386407
-0.049385930250325
0.012127663386407
-0.049385930250325
0.012127663386407
-0.049385930250325
0.012127663386407
-0.049385930250325
0.012127663386407
-0.049385930250325
0.012127663386407
-0.049385930250325
0.012127663386407
-0.049385930250325
0.012127663386407
-0.049385930250325
0.012127663386407
-0.049385930250325
0.012127663386407
-0.049385930250325
0.012127663386407
-0.049385930250325
0.012127663386407
-0.049385930250325
0.012127663386407
-0.049385930250325
0.012127663386407
-0.049385930250325
0.012127663386407
-0.018825950600053
0.000039683383317
-0.018825950600053
0.000039683383317
-0.018825950600053
0.000039683383317
-0.018825950600053
0.000039683383317
-0.018825950600053
0.000039683383317
-0.018825950600053
0.000039683383317
-0.018825950600053
0.000039683383317
-0.018825950600053
0.000039683383317
-0.018825950600053
0.000039683383317
-0.018825950600053
0.000039683383317
-0.018825950600053
0.000039683383317
-0.018825950600053
0.000039683383317
-0.018825950600053
0.000039683383317
-0.018825950600053
0.000039683383317
-0.018825950600053
0.000039683383317
-0.018825950600053
0.000039683383317
-0.049385930250325
0.012127663386407
-0.049385930250325
0.012127663386407
-0.049385930250325
0.012127663386407
-0.049385930250325
0.012127663386407
-0.049385930250325
0.012127663386407
-0.049385930250325
0.012127663386407
-0.049385930250325
0.012127663386407
-0.049385930250325
0.012127663386407
-0.049385930250325
0.012127663386407
-0.049385930250325
0.012127663386407
-0.049385930250325
0.012127663386407
-0.049385930250325
0.012127663386407
-0.049385930250325
0.012127663386407
-0.049385930250325
0.012127663386407
-0.049385930250325
0.012127663386407
-0.049385930250325
0.012127663386407
-0.018825950600053
0.000039683383317
-0.018825950600053
0.000039683383317
-0.018825950600053
0.000039683383317
-0.018825950600053
0.000039683383317
-0.018825950600053
0.000039683383317
-0.018825950600053
0.000039683383317
-0.018825950600053
0.000039683383317
-0.018825950600053
0.000039683383317
-0.018825950600053
0.000039683383317
-0.018825950600053
0.000039683383317
-0.018825950600053
0.000039683383317
-0.018825950600053
0.000039683383317
-0.018825950600053
0.000039683383317
-0.018825950600053
0.000039683383317
-0.018825950600053
0.000039683383317
-0.018825950600053
0.000039683383317
-0.049385930250325
0.012127663386407
-0.049385930250325
0.012127663386407
-0.049385930250325
0.012127663386407
-0.049385930250325
0.012127663386407
-0.049385930250325
0.012127663386407
-0.049385930250325
0.012127663386407
-0.049385930250325
0.012127663386407
-0.049385930250325
0.012127663386407
-0.049385930250325
0.012127663386407
-0.049385930250325
0.012127663386407
-0.049385930250325
0.012127663386407
-0.049385930250325
0.012127663386407
-0.049385930250325
0.012127663386407
-0.049385930250325
0.012127663386407
-0.049385930250325
0.012127663386407
-0.049385930250325
0.012127663386407
-0.018825950600053
0.000039683383317
-0.018825950600053
0.000039683383317
-0.018825950600053
0.000039683383317
-0.018825950600053
0.000039683383317
-0.018825950600053
0.000039683383317
-0.018825950600053
0.000039683383317
-0.018825950600053
0.000039683383317
-0.018825950600053
0.000039683383317
-0.018825950600053
0.000039683383317
-0.018825950600053
0.000039683383317
-0.018825950600053
0.000039683383317
-0.018825950600053
0.000039683383317
-0.018825950600053
0.000039683383317
-0.018825950600053
0.000039683383317
-0.018825950600053
0.000039683383317
-0.018825950600053
0.000039683383317
-0.049385930250325
0.012127663386407
-0.049385930250325
0.012127663386407
-0.049385930250325
0.012127663386407
-0.049385930250325
0.012127663386407
-0.049385930250325
0.012127663386407
-0.049385930250325
0.012127663386407
-0.049385930250325
0.012127663386407
-0.049385930250325
0.012127663386407
-0.049385930250325
0.012127663386407
-0.049385930250325
0.012127663386407
-0.049385930250325
0.012127663386407
-0.049385930250325
0.012127663386407
-0.049385930250325
0.012127663386407
-0.049385930250325
0.012127663386407
-0.049385930250325
0.012127663386407
-0.049385930250325
0.012127663386407
-0.018825950600053
0.000039683383317
-0.018825950600053
0.000039683383317
-0.018825950600053
0.000039683383317
-0.018825950600053
0.000039683383317
-0.018825950600053
0.000039683383317
-0.018825950600053
0.000039683383317
-0.018825950600053
0.000039683383317
-0.018825950600053
0.000039683383317
-0.018825950600053
0.000039683383317
-0.018825950600053
0.000039683383317
-0.018825950600053
0.000039683383317
-0.018825950600053
0.000039683383317
-0.018825950600053
0.000039683383317
-0.018825950600053
0.000039683383317
-0.018825950600053
0.000039683383317
-0.018825950600053
0.000039683383317
-0.049385930250325
0.012127663386407
-0.049385930250325
0.012127663386407
-0.049385930250325
0.012127663386407
-0.049385930250325
0.012127663386407
-0.049385930250325
0.012127663386407
-0.049385930250325
0.012127663386407
-0.049385930250325
0.012127663386407
-0.049385930250325
0.012127663386407
-0.049385930250325
0.012127663386407
-0.049385930250325
0.012127663386407
-0.049385930250325
0.012127663386407
-0.049385930250325
0.012127663386407
-0.049385930250325
0.012127663386407
-0.049385930250325
0.012127663386407
-0.049385930250325
0.012127663386407
-0.049385930250325
0.012127663386407
-0.018825950600053
0.000039683383317
-0.018825950600053
0.000039683383317
-0.018825950600053
0.000039683383317
-0.018825950600053
0.000039683383317
-0.018825950600053
0.000039683383317
-0.018825950600053
0.000039683383317
-0.018825950600053
0.000039683383317
-0.018825950600053
0.000039683383317
-0.018825950600053
0.000039683383317
-0.018825950600053
0.000039683383317
-0.018825950600053
0.000039683383317
-0.018825950600053
0.000039683383317
-0.018825950600053
0.000039683383317
-0.018825950600053
0.000039683383317
-0.018825950600053
0.000039683383317
-0.018825950600053
0.000039683383317
-0.000000000000000
0.000000000000000
-0.000000000000000
0.000000000000000
-0.000000000000000
0.000000000000000
-0.000000000000000
0.000000000000000
-0.000000000000000
0.000000000000000
-0.000000000000000
0.000000000000000
-0.000000000000000
0.000000000000000
-0.000000000000000
0.000000000000000
-0.000000000000000
0.000000000000000
-0.000000000000000
0.000000000000000
-0.000000000000000
0.000000000000000
-0.000000000000000
0.000000000000000
-0.000000000000000
0.000000000000000
-0.000000000000000
0.000000000000000
-0.000000000000000
0.000000000000000
-0.000000000000000
0.000000000000000
-0.000000000000000
0.000000000000000
-0.000000000000000
0.000000000000000
-0.000000000000000
0.000000000000000
-0.000000000000000
0.000000000000000
-0.000000000000000
0.000000000000000
-0.000000000000000
0.000000000000000
-0.000000000000000
0.000000000000000
-0.000000000000000
0.000000000000000
-0.000000000000000
0.000000000000000
-0.000000000000000
0.000000000000000
-0.000000000000000
0.000000000000000
-0.000000000000000
0.000000000000000
-0.000000000000000
0.000000000000000
-0.000000000000000
0.000000000000000
-0.000000000000000
0.000000000000000
-0.000000000000000
0.000000000000000
-0.002568801160313
-0.018546271012474
-0.002568801160313
-0.018546271012474
-0.002568801160313
-0.018546271012474
-0.002568801160313
-0.018546271012474
-0.002568801160313
-0.018546271012474
-0.002568801160313
-0.018546271012474
-0.002568801160313
-0.018546271012474
-0.002568801160313
-0.018546271012474
-0.002568801160313
-0.018546271012474
-0.002568801160313
-0.018546271012474
-0.002568801160313
-0.018546271012474
-0.002568801160313
-0.018546271012474
-0.002568801160313
-0.018546271012474
-0.002568801160313
-0.018546271012474
-0.002568801160313
-0.018546271012474
-0.002568801160313
-0.018546271012474
0.001702711880620
0.046222314635297
0.001702711880620
0.046222314635297
0.001702711880620
0.046222314635297
0.001702711880620
0.046222314635297
0.001702711880620
0.046222314635297
0.001702711880620
0.046222314635297
0.001702711880620
0.046222314635297
0.001702711880620
0.046222314635297
0.001702711880620
0.046222314635297
0.001702711880620
0.046222314635297
0.001702711880620
0.046222314635297
0.001702711880620
0.046222314635297
0.001702711880620
0.046222314635297
0.001702711880620
0.046222314635297
0.001702711880620
0.046222314635297
0.001702711880620
0.046222314635297
-0.002568801160313
-0.018546271012474
-0.002568801160313
-0.018546271012474
-0.002568801160313
-0.018546271012474
-0.002568801160313
-0.018546271012474
-0.002568801160313
-0.018546271012474
-0.002568801160313
-0.018546271012474
-0.002568801160313
-0.018546271012474
-0.002568801160313
-0.018546271012474
-0.002568801160313
-0.018546271012474
-0.002568801160313
-0.018546271012474
-0.002568801160313
-0.018546271012474
-0.002568801160313
-0.018546271012474
-0.002568801160313
-0.018546271012474
-0.002568801160313
-0.018546271012474
-0.002568801160313
-0.018546271012474
-0.002568801160313
-0.018546271012474
0.001702711880620
0.046222314635297
0.001702711880620
0.046222314635297
0.001702711880620
0.046222314635297
0.001702711880620
0.046222314635297
0.001702711880620
0.046222314635297
0.001702711880620
0.046222314635297
0.001702711880620
0.046222314635297
0.001702711880620
0.046222314635297
0.001702711880620
0.046222314635297
0.001702711880620
0.046222314635297
0.001702711880620
0.046222314635297
0.001702711880620
0.046222314635297
0.001702711880620
0.046222314635297
0.001702711880620
0.046222314635297
0.001702711880620
0.046222314635297
0.001702711880620
0.046222314635297
-0.002568801160313
-0.018546271012474
-0.002568801160313
-0.018546271012474
-0.002568801160313
-0.018546271012474
-0.002568801160313
-0.018546271012474
-0.002568801160313
-0.018546271012474
-0.002568801160313
-0.018546271012474
-0.002568801160313
-0.018546271012474
-0.002568801160313
-0.018546271012474
-0.002568801160313
-0.018546271012474
-0.002568801160313
-0.018546271012474
-0.002568801160313
-0.018546271012474
-0.002568801160313
-0.018546271012474
-0.002568801160313
-0.018546271012474
-0.002568801160313
-0.018546271012474
-0.002568801160313
-0.018546271012474
-0.002568801160313
-0.018546271012474
0.001702711880620
0.046222314635297
0.001702711880620
0.046222314635297
0.001702711880620
0.046222314635297
0.001702711880620
0.046222314635297
0.001702711880620
0.046222314635297
0.001702711880620
0.046222314635297
0.001702711880620
0.046222314635297
0.001702711880620
0.046222314635297
0.001702711880620
0.046222314635297
0.001702711880620
0.046222314635297
0.001702711880620
0.046222314635297
0.001702711880620
0.046222314635297
0.001702711880620
0.046222314635297
0.001702711880620
0.046222314635297
0.001702711880620
0.046222314635297
0.001702711880620
0.046222314635297
-0.002568801160313
-0.018546271012474
-0.002568801160313
-0.018546271012474
-0.002568801160313
-0.018546271012474
-0.002568801160313
-0.018546271012474
-0.002568801160313
-0.018546271012474
-0.002568801160313
-0.018546271012474
-0.002568801160313
-0.018546271012474
-0.002568801160313
-0.018546271012474
-0.002568801160313
-0.018546271012474
-0.002568801160313
-0.018546271012474
-0.002568801160313
-0.018546271012474
-0.002568801160313
-0.018546271012474
-0.002568801160313
-0.018546271012474
-0.002568801160313
-0.018546271012474
-0.002568801160313
-0.018546271012474
-0.002568801160313
-0.018546271012474
0.001702711880620
0.046222314635297
0.001702711880620
0.046222314635297
0.001702711880620
0.046222314635297
0.001702711880620
0.046222314635297
0.001702711880620
0.046222314635297
0.001702711880620
0.046222314635297
0.001702711880620
0.046222314635297
0.001702711880620
0.046222314635297
0.001702711880620
0.046222314635297
0.001702711880620
0.046222314635297
0.001702711880620
0.046222314635297
0.001702711880620
0.046222314635297
0.001702711880620
0.046222314635297
0.001702711880620
0.046222314635297
0.001702711880620
0.046222314635297
0.001702711880620
0.046222314635297
-0.002568801160313
-0.018546271012474
-0.002568801160313
-0.018546271012474
-0.002568801160313
-0.018546271012474
-0.002568801160313
-0.018546271012474
-0.002568801160313
-0.018546271012474
-0.002568801160313
-0.018546271012474
-0.002568801160313
-0.018546271012474
-0.002568801160313
-0.018546271012474
-0.002568801160313
-0.018546271012474
-0.002568801160313
-0.018546271012474
-0.002568801160313
-0.018546271012474
-0.002568801160313
-0.018546271012474
-0.002568801160313
-0.018546271012474
-0.002568801160313
-0.018546271012474
-0.002568801160313
-0.018546271012474
-0.002568801160313
-0.018546271012474
0.001702711880620
0.046222314635297
0.001702711880620
0.046222314635297
0.001702711880620
0.046222314635297
0.001702711880620
0.046222314635297
0.001702711880620
0.046222314635297
0.001702711880620
0.046222314635297
0.001702711880620
0.046222314635297
0.001702711880620
0.046222314635297
0.001702711880620
0.046222314635297
0.001702711880620
0.046222314635297
0.001702711880620
0.046222314635297
0.001702711880620
0.046222314635297
0.001702711880620
0.046222314635297
0.001702711880620
0.046222314635297
0.001702711880620
0.046222314635297
0.001702711880620
0.046222314635297
-0.002568801160313
-0.018546271012474
-0.002568801160313
-0.018546271012474
-0.002568801160313
-0.018546271012474
-0.002568801160313
-0.018546271012474
-0.002568801160313
-0.018546271012474
-0.002568801160313
-0.018546271012474
-0.002568801160313
-0.018546271012474
-0.002568801160313
-0.018546271012474
-0.002568801160313
-0.018546271012474
-0.002568801160313
-0.018546271012474
-0.002568801160313
-0.018546271012474
-0.002568801160313
-0.018546271012474
-0.002568801160313
-0.018546271012474
-0.002568801160313
-0.018546271012474
-0.002568801160313
-0.018546271012474
-0.002568801160313
-0.018546271012474
0.001702711880620
0.046222314635297
0.001702711880620
0.046222314635297
0.001702711880620
0.046222314635297
0.001702711880620
0.046222314635297
0.001702711880620
0.046222314635297
0.001702711880620
0.046222314635297
0.001702711880620
0.046222314635297
0.001702711880620
0.046222314635297
0.001702711880620
0.046222314635297
0.001702711880620
0.046222314635297
0.001702711880620
0.046222314635297
0.001702711880620
0.046222314635297
0.001702711880620
0.046222314635297
0.001702711880620
0.046222314635297
0.001702711880620
0.046222314635297
0.001702711880620
0.046222314635297
-0.002568801160313
-0.018546271012474
-0.002568801160313
-0.018546271012474
-0.002568801160313
-0.018546271012474
-0.002568801160313
-0.018546271012474
-0.002568801160313
-0.018546271012474
-0.002568801160313
-0.018546271012474
-0.002568801160313
-0.018546271012474
-0.002568801160313
-0.018546271012474
-0.002568801160313
-0.018546271012474
-0.002568801160313
-0.018546271012474
-0.002568801160313
-0.018546271012474
-0.002568801160313
-0.018546271012474
-0.002568801160313
-0.018546271012474
-0.002568801160313
-0.018546271012474
-0.002568801160313
-0.018546271012474
-0.002568801160313
-0.018546271012474
0.001702711880620
0.046222314635297
0.001702711880620
0.046222314635297
0.001702711880620
0.046222314635297
0.001702711880620
0.046222314635297
0.001702711880620
0.046222314635297
0.001702711880620
0.046222314635297
0.001702711880620
0.046222314635297
0.001702711880620
0.046222314635297
0.001702711880620
0.046222314635297
0.001702711880620
0.046222314635297
0.001702711880620
0.046222314635297
0.001702711880620
0.046222314635297
0.001702711880620
0.046222314635297
0.001702711880620
0.046222314635297
0.001702711880620
0.046222314635297
0.001702711880620
0.046222314635297
-0.002568801160313
-0.018546271012474
-0.002568801160313
-0.018546271012474
-0.002568801160313
-0.018546271012474
-0.002568801160313
-0.018546271012474
-0.002568801160313
-0.018546271012474
-0.002568801160313
-0.018546271012474
-0.002568801160313
-0.018546271012474
-0.002568801160313
-0.018546271012474
-0.002568801160313
-0.018546271012474
-0.002568801160313
-0.018546271012474
-0.002568801160313
-0.018546271012474
-0.002568801160313
-0.018546271012474
-0.002568801160313
-0.018546271012474
-0.002568801160313
-0.018546271012474
-0.002568801160313
-0.018546271012474
-0.002568801160313
-0.018546271012474
0.001702711880620
0.046222314635297
0.001702711880620
0.046222314635297
0.001702711880620
0.046222314635297
0.001702711880620
0.046222314635297
0.001702711880620
0.046222314635297
0.001702711880620
0.046222314635297
0.001702711880620
0.046222314635297
0.001702711880620
0.046222314635297
0.001702711880620
0.046222314635297
0.001702711880620
0.046222314635297
0.001702711880620
0.046222314635297
0.001702711880620
0.046222314635297
0.001702711880620
0.046222314635297
0.001702711880620
0.046222314635297
0.001702711880620
0.046222314635297
0.001702711880620
0.046222314635297
-0.002568801160313
-0.018546271012474
-0.002568801160313
-0.018546271012474
-0.002568801160313
-0.018546271012474
-0.002568801160313
-0.018546271012474
-0.002568801160313
-0.018546271012474
-0.002568801160313
-0.018546271012474
-0.002568801160313
-0.018546271012474
-0.002568801160313
-0.018546271012474
-0.002568801160313
-0.018546271012474
-0.002568801160313
-0.018546271012474
-0.002568801160313
-0.018546271012474
-0.002568801160313
-0.018546271012474
-0.002568801160313
-0.018546271012474
-0.002568801160313
-0.018546271012474
-0.002568801160313
-0.018546271012474
-0.002568801160313
-0.018546271012474
0.001702711880620
0.046222314635297
0.001702711880620
0.046222314635297
0.001702711880620
0.046222314635297
0.001702711880620
0.046222314635297
0.001702711880620
0.046222314635297
0.001702711880620
0.046222314635297
0.001702711880620
0.046222314635297
0.001702711880620
0.046222314635297
0.001702711880620
0.046222314635297
0.001702711880620
0.046222314635297
0.001702711880620
0.046222314635297
0.001702711880620
0.046222314635297
0.001702711880620
0.046222314635297
0.001702711880620
0.046222314635297
0.001702711880620
0.046222314635297
0.001702711880620
0.046222314635297
-0.002568801160313
-0.018546271012474
-0.002568801160313
-0.018546271012474
-0.002568801160313
-0.018546271012474
-0.002568801160313
-0.018546271012474
-0.002568801160313
-0.018546271012474
-0.002568801160313
-0.018546271012474
-0.002568801160313
-0.018546271012474
-0.002568801160313
-0.018546271012474
-0.002568801160313
-0.018546271012474
-0.002568801160313
-0.018546271012474
-0.002568801160313
-0.018546271012474
-0.002568801160313
-0.018546271012474
-0.002568801160313
-0.018546271012474
-0.002568801160313
-0.018546271012474
-0.002568801160313
-0.018546271012474
-0.002568801160313
-0.018546271012474
0.001702711880620
0.046222314635297
0.001702711880620
0.046222314635297
0.001702711880620
0.046222314635297
0.001702711880620
0.046222314635297
0.001702711880620
0.046222314635297
0.001702711880620
0.046222314635297
0.001702711880620
0.046222314635297
0.001702711880620
0.046222314635297
0.001702711880620
0.046222314635297
0.001702711880620
0.046222314635297
0.001702711880620
0.046222314635297
0.001702711880620
0.046222314635297
0.001702711880620
0.046222314635297
0.001702711880620
0.046222314635297
0.001702711880620
0.046222314635297
0.001702711880620
0.046222314635297
-0.002568801160313
-0.018546271012474
-0.002568801160313
-0.018546271012474
-0.002568801160313
-0.018546271012474
-0.002568801160313
-0.018546271012474
-0.002568801160313
-0.018546271012474
-0.002568801160313
-0.018546271012474
-0.002568801160313
-0.018546271012474
-0.002568801160313
-0.018546271012474
-0.002568801160313
-0.018546271012474
-0.002568801160313
-0.018546271012474
-0.002568801160313
-0.018546271012474
-0.002568801160313
-0.018546271012474
-0.002568801160313
-0.018546271012474
-0.002568801160313
-0.018546271012474
-0.002568801160313
-0.018546271012474
-0.002568801160313
-0.018546271012474
0.001702711880620
0.046222314635297
0.001702711880620
0.046222314635297
0.001702711880620
0.046222314635297
0.001702711880620
0.046222314635297
0.001702711880620
0.046222314635297
0.001702711880620
0.046222314635297
0.001702711880620
0.046222314635297
0.001702711880620
0.046222314635297
0.001702711880620
0.046222314635297
0.001702711880620
0.046222314635297
0.001702711880620
0.046222314635297
0.001702711880620
0.046222314635297
0.001702711880620
0.046222314635297
0.001702711880620
0.046222314635297
0.001702711880620
0.046222314635297
0.001702711880620
0.046222314635297
-0.002568801160313
-0.018546271012474
-0.002568801160313
-0.018546271012474
-0.002568801160313
-0.018546271012474
-0.002568801160313
-0.018546271012474
-0.002568801160313
-0.018546271012474
-0.002568801160313
-0.018546271012474
-0.002568801160313
-0.018546271012474
-0.002568801160313
-0.018546271012474
-0.002568801160313
-0.018546271012474
-0.002568801160313
-0.018546271012474
-0.002568801160313
-0.018546271012474
-0.002568801160313
-0.018546271012474
-0.002568801160313
-0.018546271012474
-0.002568801160313
-0.018546271012474
-0.002568801160313
-0.018546271012474
-0.002568801160313
-0.018546271012474
0.001702711880620
0.046222314635297
0.001702711880620
0.046222314635297
0.001702711880620
0.046222314635297
0.001702711880620
0.046222314635297
0.001702711880620
0.046222314635297
0.001702711880620
0.046222314635297
0.001702711880620
0.046222314635297
0.001702711880620
0.046222314635297
0.001702711880620
0.046222314635297
0.001702711880620
0.046222314635297
0.001702711880620
0.046222314635297
0.001702711880620
0.046222314635297
0.001702711880620
0.046222314635297
0.001702711880620
0.046222314635297
0.001702711880620
0.046222314635297
0.001702711880620
0.046222314635297
-0.002568801160313
-0.018546271012474
-0.002568801160313
-0.018546271012474
-0.002568801160313
-0.018546271012474
-0.002568801160313
-0.018546271012474
-0.002568801160313
-0.018546271012474
-0.002568801160313
-0.018546271012474
-0.002568801160313
-0.018546271012474
-0.002568801160313
-0.018546271012474
-0.002568801160313
-0.018546271012474
-0.002568801160313
-0.018546271012474
-0.002568801160313
-0.018546271012474
-0.002568801160313
-0.018546271012474
-0.002568801160313
-0.018546271012474
-0.002568801160313
-0.018546271012474
-0.002568801160313
-0.018546271012474
-0.002568801160313
-0.018546271012474
0.001702711880620
0.046222314635297
0.001702711880620
0.046222314635297
0.001702711880620
0.046222314635297
0.001702711880620
0.046222314635297
0.001702711880620
0.046222314635297
0.001702711880620
0.046222314635297
0.001702711880620
0.046222314635297
0.001702711880620
0.046222314635297
0.001702711880620
0.046222314635297
0.001702711880620
0.046222314635297
0.001702711880620
0.046222314635297
0.001702711880620
0.046222314635297
0.001702711880620
0.046222314635297
0.001702711880620
0.046222314635297
0.001702711880620
0.046222314635297
0.001702711880620
0.046222314635297
-0.002568801160313
-0.018546271012474
-0.002568801160313
-0.018546271012474
-0.002568801160313
-0.018546271012474
-0.002568801160313
-0.018546271012474
-0.002568801160313
-0.018546271012474
-0.002568801160313
-0.018546271012474
-0.002568801160313
-0.018546271012474
-0.002568801160313
-0.018546271012474
-0.002568801160313
-0.018546271012474
-0.002568801160313
-0.018546271012474
-0.002568801160313
-0.018546271012474
-0.002568801160313
-0.018546271012474
-0.002568801160313
-0.018546271012474
-0.002568801160313
-0.018546271012474
-0.002568801160313
-0.018546271012474
-0.002568801160313
-0.018546271012474
0.001702711880620
0.046222314635297
0.001702711880620
0.046222314635297
0.001702711880620
0.046222314635297
0.001702711880620
0.046222314635297
0.001702711880620
0.046222314635297
0.001702711880620
0.046222314635297
0.001702711880620
0.046222314635297
0.001702711880620
0.046222314635297
0.001702711880620
0.046222314635297
0.001702711880620
0.046222314635297
0.001702711880620
0.046222314635297
0.001702711880620
0.046222314635297
0.001702711880620
0.046222314635297
0.001702711880620
0.046222314635297
0.001702711880620
0.046222314635297
0.001702711880620
0.046222314635297
-0.002568801160313
-0.018546271012474
-0.002568801160313
-0.018546271012474
-0.002568801160313
-0.018546271012474
-0.002568801160313
-0.018546271012474
-0.002568801160313
-0.018546271012474
-0.002568801160313
-0.018546271012474
-0.002568801160313
-0.018546271012474
-0.002568801160313
-0.018546271012474
-0.002568801160313
-0.018546271012474
-0.002568801160313
-0.018546271012474
-0.002568801160313
-0.018546271012474
-0.002568801160313
-0.018546271012474
-0.002568801160313
-0.018546271012474
-0.002568801160313
-0.018546271012474
-0.002568801160313
-0.018546271012474
-0.002568801160313
-0.018546271012474
0.001702711880620
0.046222314635297
0.001702711880620
0.046222314635297
0.001702711880620
0.046222314635297
0.001702711880620
0.046222314635297
0.001702711880620
0.046222314635297
0.001702711880620
0.046222314635297
0.001702711880620
0.046222314635297
0.001702711880620
0.046222314635297
0.001702711880620
0.046222314635297
0.001702711880620
0.046222314635297
0.001702711880620
0.046222314635297
0.001702711880620
0.046222314635297
0.001702711880620
0.046222314635297
0.001702711880620
0.046222314635297
0.001702711880620
0.046222314635297
0.001702711880620
0.046222314635297
-0.000000000000000
-0.000000000000000
-0.000000000000000
-0.000000000000000
-0.000000000000000
-0.000000000000000
-0.000000000000000
-0.000000000000000
-0.000000000000000
-0.000000000000000
-0.000000000000000
-0.000000000000000
-0.000000000000000
-0.000000000000000
-0.000000000000000
-0.000000000000000
-0.000000000000000
-0.000000000000000
-0.000000000000000
-0.000000000000000
-0.000000000000000
-0.000000000000000
-0.000000000000000
-0.000000000000000
-0.000000000000000
-0.000000000000000
-0.000000000000000
-0.000000000000000
-0.000000000000000
-0.000000000000000
-0.000000000000000
-0.000000000000000
0.000000000000000
0.000000000000000
0.000000000000000
0.000000000000000
0.000000000000000
0.000000000000000
0.000000000000000
0.000000000000000
0.000000000000000
0.000000000000000
0.000000000000000
0.000000000000000
0.000000000000000
0.000000000000000
0.000000000000000
0.000000000000000
0.000000000000000
0.000000000000000
0.000000000000000
0.000000000000000
0.000000000000000
0.000000000000000
0.000000000000000
0.000000000000000
0.000000000000000
0.000000000000000
0.000000000000000
0.000000000000000
0.000000000000000
0.000000000000000
0.000000000000000
0.000000000000000
-0.008326637644307
-0.007171984101099
-0.008326637644307
-0.007171984101099
-0.008326637644307
-0.007171984101099
-0.008326637644307
-0.007171984101099
-0.008326637644307
-0.007171984101099
-0.008326637644307
-0.007171984101099
-0.008326637644307
-0.007171984101099
-0.008326637644307
-0.007171984101099
-0.008326637644307
-0.007171984101099
-0.008326637644307
-0.007171984101099
-0.008326637644307
-0.007171984101099
-0.008326637644307
-0.007171984101099
-0.008326637644307
-0.007171984101099
-0.008326637644307
-0.007171984101099
-0.008326637644307
-0.007171984101099
-0.008326637644307
-0.007171984101099
0.029610540637227
0.010824615706344
0.029610540637227
0.010824615706344
0.029610540637227
0.010824615706344
0.029610540637227
0.010824615706344
0.029610540637227
0.010824615706344
0.029610540637227
0.010824615706344
0.029610540637227
0.010824615706344
0.029610540637227
0.010824615706344
0.029610540637227
0.010824615706344
0.029610540637227
0.010824615706344
0.029610540637227
0.010824615706344
0.029610540637227
0.010824615706344
0.029610540637227
0.010824615706344
0.029610540637227
0.010824615706344
0.029610540637227
0.010824615706344
0.029610540637227
0.010824615706344
-0.008326637644307
-0.007171984101099
-0.008326637644307
-0.007171984101099
-0.008326637644307
-0.007171984101099
-0.008326637644307
-0.007171984101099
-0.008326637644307
-0.007171984101099
-0.008326637644307
-0.007171984101099
-0.008326637644307
-0.007171984101099
-0.008326637644307
-0.007171984101099
-0.008326637644307
-0.007171984101099
-0.008326637644307
-0.007171984101099
-0.008326637644307
-0.007171984101099
-0.008326637644307
-0.007171984101099
-0.008326637644307
-0.007171984101099
-0.008326637644307
-0.007171984101099
-0.008326637644307
-0.007171984101099
-0.008326637644307
-0.007171984101099
0.029610540637227
0.010824615706344
0.029610540637227
0.010824615706344
0.029610540637227
0.010824615706344
0.029610540637227
0.010824615706344
0.029610540637227
0.010824615706344
0.029610540637227
0.010824615706344
0.029610540637227
0.010824615706344
0.029610540637227
0.010824615706344
0.029610540637227
0.010824615706344
0.029610540637227
0.010824615706344
0.029610540637227
0.010824615706344
0.029610540637227
0.010824615706344
0.029610540637227
0.010824615706344
0.029610540637227
0.010824615706344
0.029610540637227
0.010824615706344
0.029610540637227
0.010824615706344
-0.008326637644307
-0.007171984101099
-0.008326637644307
-0.007171984101099
-0.008326637644307
-0.007171984101099
-0.008326637644307
-0.007171984101099
-0.008326637644307
-0.007171984101099
-0.008326637644307
-0.007171984101099
-0.008326637644307
-0.007171984101099
-0.008326637644307
-0.007171984101099
-0.008326637644307
-0.007171984101099
-0.008326637644307
-0.007171984101099
-0.008326637644307
-0.007171984101099
-0.008326637644307
-0.007171984101099
-0.008326637644307
-0.007171984101099
-0.008326637644307
-0.007171984101099
-0.008326637644307
-0.007171984101099
-0.008326637644307
-0.007171984101099
0.029610540637227
0.010824615706344
0.029610540637227
0.010824615706344
0.029610540637227
0.010824615706344
0.029610540637227
0.010824615706344
0.029610540637227
0.010824615706344
0.029610540637227
0.010824615706344
0.029610540637227
0.010824615706344
0.029610540637227
0.010824615706344
0.029610540637227
0.010824615706344
0.029610540637227
0.010824615706344
0.029610540637227
0.010824615706344
0.029610540637227
0.010824615706344
0.029610540637227
0.010824615706344
0.029610540637227
0.010824615706344
0.029610540637227
0.010824615706344
0.029610540637227
0.010824615706344
-0.008326637644307
-0.007171984101099
-0.008326637644307
-0.007171984101099
-0.008326637644307
-0.007171984101099
-0.008326637644307
-0.007171984101099
-0.008326637644307
-0.007171984101099
-0.008326637644307
-0.007171984101099
-0.008326637644307
-0.007171984101099
-0.008326637644307
-0.007171984101099
-0.008326637644307
-0.007171984101099
-0.008326637644307
-0.007171984101099
-0.008326637644307
-0.007171984101099
-0.008326637644307
-0.007171984101099
-0.008326637644307
-0.007171984101099
-0.008326637644307
-0.007171984101099
-0.008326637644307
-0.007171984101099
-0.008326637644307
-0.007171984101099
0.029610540637227
0.010824615706344
0.029610540637227
0.010824615706344
0.029610540637227
0.010824615706344
0.029610540637227
0.010824615706344
0.029610540637227
0.010824615706344
0.029610540637227
0.010824615706344
0.029610540637227
0.010824615706344
0.029610540637227
0.010824615706344
0.029610540637227
0.010824615706344
0.029610540637227
0.010824615706344
0.029610540637227
0.010824615706344
0.029610540637227
0.010824615706344
0.029610540637227
0.010824615706344
0.029610540637227
0.010824615706344
0.029610540637227
0.010824615706344
0.029610540637227
0.010824615706344
-0.008326637644307
-0.007171984101099
-0.008326637644307
-0.007171984101099
-0.008326637644307
-0.007171984101099
-0.008326637644307
-0.007171984101099
-0.008326637644307
-0.007171984101099
-0.008326637644307
-0.007171984101099
-0.008326637644307
-0.007171984101099
-0.008326637644307
-0.007171984101099
-0.008326637644307
-0.007171984101099
-0.008326637644307
-0.007171984101099
-0.008326637644307
-0.007171984101099
-0.008326637644307
-0.007171984101099
-0.008326637644307
-0.007171984101099
-0.008326637644307
-0.007171984101099
