-0.029571689150029
-0.013321556836373
-0.006872418589692
-0.020497331060686
-0.029571689150029
-0.013321556836373
-0.006872418589692
-0.020497331060686
-0.029571689150029
-0.013321556836373
-0.006872418589692
-0.020497331060686
-0.029571689150029
-0.013321556836373
-0.006872418589692
-0.020497331060686
-0.029571689150029
-0.013321556836373
-0.006872418589692
-0.020497331060686
-0.029571689150029
-0.013321556836373
-0.006872418589692
-0.020497331060686
-0.029571689150029
-0.013321556836373
-0.006872418589692
-0.020497331060686
-0.000000000000000
-0.000000000000000
-0.000000000000000
-0.000000000000000
0.017716988135130
-0.015848697674390
0.006287895284133
0.003420067545601
0.017716988135130
-0.015848697674390
0.006287895284133
0.003420067545601
0.017716988135130
-0.015848697674390
0.006287895284133
0.003420067545601
0.017716988135130
-0.015848697674390
0.006287895284133
0.003420067545601
0.017716988135130
-0.015848697674390
0.006287895284133
0.003420067545601
0.017716988135130
-0.015848697674390
0.006287895284133
0.003420067545601
0.017716988135130
-0.015848697674390
0.006287895284133
0.003420067545601
0.000000000000000
-0.000000000000000
0.000000000000000
0.000000000000000
-0.000072688394609
0.023968463335450
-0.003323128651870
-0.010244016688427
-0.000072688394609
0.023968463335450
-0.003323128651870
-0.010244016688427
-0.000072688394609
0.023968463335450
-0.003323128651870
-0.010244016688427
-0.000072688394609
0.023968463335450
-0.003323128651870
-0.010244016688427
-0.000072688394609
0.023968463335450
-0.003323128651870
-0.010244016688427
-0.000072688394609
0.023968463335450
-0.003323128651870
-0.010244016688427
-0.000072688394609
0.023968463335450
-0.003323128651870
-0.010244016688427
-0.000000000000000
0.000000000000000
-0.000000000000000
-0.000000000000000
-0.001276929889633
0.020366764561562
0.024580995290230
0.017581335336027
-0.001276929889633
0.020366764561562
0.024580995290230
0.017581335336027
-0.001276929889633
0.020366764561562
0.024580995290230
0.017581335336027
-0.001276929889633
0.020366764561562
0.024580995290230
0.017581335336027
-0.001276929889633
0.020366764561562
0.024580995290230
0.017581335336027
-0.001276929889633
0.020366764561562
0.024580995290230
0.017581335336027
-0.001276929889633
0.020366764561562
0.024580995290230
0.017581335336027
-0.000000000000000
0.000000000000000
0.000000000000000
0.000000000000000
-0.029571689150029
-0.013321556836373
-0.006872418589692
-0.020497331060686
-0.029571689150029
-0.013321556836373
-0.006872418589692
-0.020497331060686
-0.029571689150029
-0.013321556836373
-0.006872418589692
-0.020497331060686
-0.029571689150029
-0.013321556836373
-0.006872418589692
-0.020497331060686
-0.029571689150029
-0.013321556836373
-0.006872418589692
-0.020497331060686
-0.029571689150029
-0.013321556836373
-0.006872418589692
-0.020497331060686
-0.029571689150029
-0.013321556836373
-0.006872418589692
-0.020497331060686
-0.000000000000000
-0.000000000000000
-0.000000000000000
-0.000000000000000
0.017716988135130
-0.015848697674390
0.006287895284133
0.003420067545601
0.017716988135130
-0.015848697674390
0.006287895284133
0.003420067545601
0.017716988135130
-0.015848697674390
0.006287895284133
0.003420067545601
0.017716988135130
-0.015848697674390
0.006287895284133
0.003420067545601
0.017716988135130
-0.015848697674390
0.006287895284133
0.003420067545601
0.017716988135130
-0.015848697674390
0.006287895284133
0.003420067545601
0.017716988135130
-0.015848697674390
0.006287895284133
0.003420067545601
0.000000000000000
-0.000000000000000
0.000000000000000
0.000000000000000
-0.000072688394609
0.023968463335450
-0.003323128651870
-0.010244016688427
-0.000072688394609
0.023968463335450
-0.003323128651870
-0.010244016688427
-0.000072688394609
0.023968463335450
-0.003323128651870
-0.010244016688427
-0.000072688394609
0.023968463335450
-0.003323128651870
-0.010244016688427
-0.000072688394609
0.023968463335450
-0.003323128651870
-0.010244016688427
-0.000072688394609
0.023968463335450
-0.003323128651870
-0.010244016688427
-0.000072688394609
0.023968463335450
-0.003323128651870
-0.010244016688427
-0.000000000000000
0.000000000000000
-0.000000000000000
-0.000000000000000
-0.001276929889633
0.020366764561562
0.024580995290230
0.017581335336027
-0.001276929889633
0.020366764561562
0.024580995290230
0.017581335336027
-0.001276929889633
0.020366764561562
0.024580995290230
0.017581335336027
-0.001276929889633
0.020366764561562
0.024580995290230
0.017581335336027
-0.001276929889633
0.020366764561562
0.024580995290230
0.017581335336027
-0.001276929889633
0.020366764561562
0.024580995290230
0.017581335336027
-0.001276929889633
0.020366764561562
0.024580995290230
0.017581335336027
-0.000000000000000
0.000000000000000
0.000000000000000
0.000000000000000
-0.029571689150029
-0.013321556836373
-0.006872418589692
-0.020497331060686
-0.029571689150029
-0.013321556836373
-0.006872418589692
-0.020497331060686
-0.029571689150029
-0.013321556836373
-0.006872418589692
-0.020497331060686
-0.029571689150029
-0.013321556836373
-0.006872418589692
-0.020497331060686
-0.029571689150029
-0.013321556836373
-0.006872418589692
-0.020497331060686
-0.029571689150029
-0.013321556836373
-0.006872418589692
-0.020497331060686
-0.029571689150029
-0.013321556836373
-0.006872418589692
-0.020497331060686
-0.000000000000000
-0.000000000000000
-0.000000000000000
-0.000000000000000
0.017716988135130
-0.015848697674390
0.006287895284133
0.003420067545601
0.017716988135130
-0.015848697674390
0.006287895284133
0.003420067545601
0.017716988135130
-0.015848697674390
0.006287895284133
0.003420067545601
0.017716988135130
-0.015848697674390
0.006287895284133
0.003420067545601
0.017716988135130
-0.015848697674390
0.006287895284133
0.003420067545601
0.017716988135130
-0.015848697674390
0.006287895284133
0.003420067545601
0.017716988135130
-0.015848697674390
0.006287895284133
0.003420067545601
0.000000000000000
-0.000000000000000
0.000000000000000
0.000000000000000
-0.000072688394609
0.023968463335450
-0.003323128651870
-0.010244016688427
-0.000072688394609
0.023968463335450
-0.003323128651870
-0.010244016688427
-0.000072688394609
0.023968463335450
-0.003323128651870
-0.010244016688427
-0.000072688394609
0.023968463335450
-0.003323128651870
-0.010244016688427
-0.000072688394609
0.023968463335450
-0.003323128651870
-0.010244016688427
-0.000072688394609
0.023968463335450
-0.003323128651870
-0.010244016688427
-0.000072688394609
0.023968463335450
-0.003323128651870
-0.010244016688427
-0.000000000000000
0.000000000000000
-0.000000000000000
-0.000000000000000
-0.001276929889633
0.020366764561562
0.024580995290230
0.017581335336027
-0.001276929889633
0.020366764561562
0.024580995290230
0.017581335336027
-0.001276929889633
0.020366764561562
0.024580995290230
0.017581335336027
-0.001276929889633
0.020366764561562
0.024580995290230
0.017581335336027
-0.001276929889633
0.020366764561562
0.024580995290230
0.017581335336027
-0.001276929889633
0.020366764561562
0.024580995290230
0.017581335336027
-0.001276929889633
0.020366764561562
0.024580995290230
0.017581335336027
-0.000000000000000
0.000000000000000
0.000000000000000
0.000000000000000
-0.029571689150029
-0.013321556836373
-0.006872418589692
-0.020497331060686
-0.029571689150029
-0.013321556836373
-0.006872418589692
-0.020497331060686
-0.029571689150029
-0.013321556836373
-0.006872418589692
-0.020497331060686
-0.029571689150029
-0.013321556836373
-0.006872418589692
-0.020497331060686
-0.029571689150029
-0.013321556836373
-0.006872418589692
-0.020497331060686
-0.029571689150029
-0.013321556836373
-0.006872418589692
-0.020497331060686
-0.029571689150029
-0.013321556836373
-0.006872418589692
-0.020497331060686
-0.000000000000000
-0.000000000000000
-0.000000000000000
-0.000000000000000
0.017716988135130
-0.015848697674390
0.006287895284133
0.003420067545601
0.017716988135130
-0.015848697674390
0.006287895284133
0.003420067545601
0.017716988135130
-0.015848697674390
0.006287895284133
0.003420067545601
0.017716988135130
-0.015848697674390
0.006287895284133
0.003420067545601
0.017716988135130
-0.015848697674390
0.006287895284133
0.003420067545601
0.017716988135130
-0.015848697674390
0.006287895284133
0.003420067545601
0.017716988135130
-0.015848697674390
0.006287895284133
0.003420067545601
0.000000000000000
-0.000000000000000
0.000000000000000
0.000000000000000
-0.000072688394609
0.023968463335450
-0.003323128651870
-0.010244016688427
-0.000072688394609
0.023968463335450
-0.003323128651870
-0.010244016688427
-0.000072688394609
0.023968463335450
-0.003323128651870
-0.010244016688427
-0.000072688394609
0.023968463335450
-0.003323128651870
-0.010244016688427
-0.000072688394609
0.023968463335450
-0.003323128651870
-0.010244016688427
-0.000072688394609
0.023968463335450
-0.003323128651870
-0.010244016688427
-0.000072688394609
0.023968463335450
-0.003323128651870
-0.010244016688427
-0.000000000000000
0.000000000000000
-0.000000000000000
-0.000000000000000
-0.001276929889633
0.020366764561562
0.024580995290230
0.017581335336027
-0.001276929889633
0.020366764561562
0.024580995290230
0.017581335336027
-0.001276929889633
0.020366764561562
0.024580995290230
0.017581335336027
-0.001276929889633
0.020366764561562
0.024580995290230
0.017581335336027
-0.001276929889633
0.020366764561562
0.024580995290230
0.017581335336027
-0.001276929889633
0.020366764561562
0.024580995290230
0.017581335336027
-0.001276929889633
0.020366764561562
0.024580995290230
0.017581335336027
-0.000000000000000
0.000000000000000
0.000000000000000
0.000000000000000
-0.029571689150029
-0.013321556836373
-0.006872418589692
-0.020497331060686
-0.029571689150029
-0.013321556836373
-0.006872418589692
-0.020497331060686
-0.029571689150029
-0.013321556836373
-0.006872418589692
-0.020497331060686
-0.029571689150029
-0.013321556836373
-0.006872418589692
-0.020497331060686
-0.029571689150029
-0.013321556836373
-0.006872418589692
-0.020497331060686
-0.029571689150029
-0.013321556836373
-0.006872418589692
-0.020497331060686
-0.029571689150029
-0.013321556836373
-0.006872418589692
-0.020497331060686
-0.000000000000000
-0.000000000000000
-0.000000000000000
-0.000000000000000
0.017716988135130
-0.015848697674390
0.006287895284133
0.003420067545601
0.017716988135130
-0.015848697674390
0.006287895284133
0.003420067545601
0.017716988135130
-0.015848697674390
0.006287895284133
0.003420067545601
0.017716988135130
-0.015848697674390
0.006287895284133
0.003420067545601
0.017716988135130
-0.015848697674390
0.006287895284133
0.003420067545601
0.017716988135130
-0.015848697674390
0.006287895284133
0.003420067545601
0.017716988135130
-0.015848697674390
0.006287895284133
0.003420067545601
0.000000000000000
-0.000000000000000
0.000000000000000
0.000000000000000
-0.000072688394609
0.023968463335450
-0.003323128651870
-0.010244016688427
-0.000072688394609
0.023968463335450
-0.003323128651870
-0.010244016688427
-0.000072688394609
0.023968463335450
-0.003323128651870
-0.010244016688427
-0.000072688394609
0.023968463335450
-0.003323128651870
-0.010244016688427
-0.000072688394609
0.023968463335450
-0.003323128651870
-0.010244016688427
-0.000072688394609
0.023968463335450
-0.003323128651870
-0.010244016688427
-0.000072688394609
0.023968463335450
-0.003323128651870
-0.010244016688427
-0.000000000000000
0.000000000000000
-0.000000000000000
-0.000000000000000
-0.001276929889633
0.020366764561562
0.024580995290230
0.017581335336027
-0.001276929889633
0.020366764561562
0.024580995290230
0.017581335336027
-0.001276929889633
0.020366764561562
0.024580995290230
0.017581335336027
-0.001276929889633
0.020366764561562
0.024580995290230
0.017581335336027
-0.001276929889633
0.020366764561562
0.024580995290230
0.017581335336027
-0.001276929889633
0.020366764561562
0.024580995290230
0.017581335336027
-0.001276929889633
0.020366764561562
0.024580995290230
0.017581335336027
-0.000000000000000
0.000000000000000
0.000000000000000
0.000000000000000
-0.029571689150029
-0.013321556836373
-0.006872418589692
-0.020497331060686
-0.029571689150029
-0.013321556836373
-0.006872418589692
-0.020497331060686
-0.029571689150029
-0.013321556836373
-0.006872418589692
-0.020497331060686
-0.029571689150029
-0.013321556836373
-0.006872418589692
-0.020497331060686
-0.029571689150029
-0.013321556836373
-0.006872418589692
-0.020497331060686
-0.029571689150029
-0.013321556836373
-0.006872418589692
-0.020497331060686
-0.029571689150029
-0.013321556836373
-0.006872418589692
-0.020497331060686
-0.000000000000000
-0.000000000000000
-0.000000000000000
-0.000000000000000
0.017716988135130
-0.015848697674390
0.006287895284133
0.003420067545601
0.017716988135130
-0.015848697674390
0.006287895284133
0.003420067545601
0.017716988135130
-0.015848697674390
0.006287895284133
0.003420067545601
0.017716988135130
-0.015848697674390
0.006287895284133
0.003420067545601
0.017716988135130
-0.015848697674390
0.006287895284133
0.003420067545601
0.017716988135130
-0.015848697674390
0.006287895284133
0.003420067545601
0.017716988135130
-0.015848697674390
0.006287895284133
0.003420067545601
0.000000000000000
-0.000000000000000
0.000000000000000
0.000000000000000
-0.000072688394609
0.023968463335450
-0.003323128651870
-0.010244016688427
-0.000072688394609
0.023968463335450
-0.003323128651870
-0.010244016688427
-0.000072688394609
0.023968463335450
-0.003323128651870
-0.010244016688427
-0.000072688394609
0.023968463335450
-0.003323128651870
-0.010244016688427
-0.000072688394609
0.023968463335450
-0.003323128651870
-0.010244016688427
-0.000072688394609
0.023968463335450
-0.003323128651870
-0.010244016688427
-0.000072688394609
0.023968463335450
-0.003323128651870
-0.010244016688427
-0.000000000000000
0.000000000000000
-0.000000000000000
-0.000000000000000
-0.001276929889633
0.020366764561562
0.024580995290230
0.017581335336027
-0.001276929889633
0.020366764561562
0.024580995290230
0.017581335336027
-0.001276929889633
0.020366764561562
0.024580995290230
0.017581335336027
-0.001276929889633
0.020366764561562
0.024580995290230
0.017581335336027
-0.001276929889633
0.020366764561562
0.024580995290230
0.017581335336027
-0.001276929889633
0.020366764561562
0.024580995290230
0.017581335336027
-0.001276929889633
0.020366764561562
0.024580995290230
0.017581335336027
-0.000000000000000
0.000000000000000
0.000000000000000
0.000000000000000
-0.029571689150029
-0.013321556836373
-0.006872418589692
-0.020497331060686
-0.029571689150029
-0.013321556836373
-0.006872418589692
-0.020497331060686
-0.029571689150029
-0.013321556836373
-0.006872418589692
-0.020497331060686
-0.029571689150029
-0.013321556836373
-0.006872418589692
-0.020497331060686
-0.029571689150029
-0.013321556836373
-0.006872418589692
-0.020497331060686
-0.029571689150029
-0.013321556836373
-0.006872418589692
-0.020497331060686
-0.029571689150029
-0.013321556836373
-0.006872418589692
-0.020497331060686
-0.000000000000000
-0.000000000000000
-0.000000000000000
-0.000000000000000
0.017716988135130
-0.015848697674390
0.006287895284133
0.003420067545601
0.017716988135130
-0.015848697674390
0.006287895284133
0.003420067545601
0.017716988135130
-0.015848697674390
0.006287895284133
0.003420067545601
0.017716988135130
-0.015848697674390
0.006287895284133
0.003420067545601
0.017716988135130
-0.015848697674390
0.006287895284133
0.003420067545601
0.017716988135130
-0.015848697674390
0.006287895284133
0.003420067545601
0.017716988135130
-0.015848697674390
0.006287895284133
0.003420067545601
0.000000000000000
-0.000000000000000
0.000000000000000
0.000000000000000
-0.000072688394609
0.023968463335450
-0.003323128651870
-0.010244016688427
-0.000072688394609
0.023968463335450
-0.003323128651870
-0.010244016688427
-0.000072688394609
0.023968463335450
-0.003323128651870
-0.010244016688427
-0.000072688394609
0.023968463335450
-0.003323128651870
-0.010244016688427
-0.000072688394609
0.023968463335450
-0.003323128651870
-0.010244016688427
-0.000072688394609
0.023968463335450
-0.003323128651870
-0.010244016688427
-0.000072688394609
0.023968463335450
-0.003323128651870
-0.010244016688427
-0.000000000000000
0.000000000000000
-0.000000000000000
-0.000000000000000
-0.001276929889633
0.020366764561562
0.024580995290230
0.017581335336027
-0.001276929889633
0.020366764561562
0.024580995290230
0.017581335336027
-0.001276929889633
0.020366764561562
0.024580995290230
0.017581335336027
-0.001276929889633
0.020366764561562
0.024580995290230
0.017581335336027
-0.001276929889633
0.020366764561562
0.024580995290230
0.017581335336027
-0.001276929889633
0.020366764561562
0.024580995290230
0.017581335336027
-0.001276929889633
0.020366764561562
0.024580995290230
0.017581335336027
-0.000000000000000
0.000000000000000
0.000000000000000
0.000000000000000
-0.029571689150029
-0.013321556836373
-0.006872418589692
-0.020497331060686
-0.029571689150029
-0.013321556836373
-0.006872418589692
-0.020497331060686
-0.029571689150029
-0.013321556836373
-0.006872418589692
-0.020497331060686
-0.029571689150029
-0.013321556836373
-0.006872418589692
-0.020497331060686
-0.029571689150029
-0.013321556836373
-0.006872418589692
-0.020497331060686
-0.029571689150029
-0.013321556836373
-0.006872418589692
-0.020497331060686
-0.029571689150029
-0.013321556836373
-0.006872418589692
-0.020497331060686
-0.000000000000000
-0.000000000000000
-0.000000000000000
-0.000000000000000
0.017716988135130
-0.015848697674390
0.006287895284133
0.003420067545601
0.017716988135130
-0.015848697674390
0.006287895284133
0.003420067545601
0.017716988135130
-0.015848697674390
0.006287895284133
0.003420067545601
0.017716988135130
-0.015848697674390
0.006287895284133
0.003420067545601
0.017716988135130
-0.015848697674390
0.006287895284133
0.003420067545601
0.017716988135130
-0.015848697674390
0.006287895284133
0.003420067545601
0.017716988135130
-0.015848697674390
0.006287895284133
0.003420067545601
0.000000000000000
-0.000000000000000
0.000000000000000
0.000000000000000
-0.000072688394609
0.023968463335450
-0.003323128651870
-0.010244016688427
-0.000072688394609
0.023968463335450
-0.003323128651870
-0.010244016688427
-0.000072688394609
0.023968463335450
-0.003323128651870
-0.010244016688427
-0.000072688394609
0.023968463335450
-0.003323128651870
-0.010244016688427
-0.000072688394609
0.023968463335450
-0.003323128651870
-0.010244016688427
-0.000072688394609
0.023968463335450
-0.003323128651870
-0.010244016688427
-0.000072688394609
0.023968463335450
-0.003323128651870
-0.010244016688427
-0.000000000000000
0.000000000000000
-0.000000000000000
-0.000000000000000
-0.001276929889633
0.020366764561562
0.024580995290230
0.017581335336027
-0.001276929889633
0.020366764561562
0.024580995290230
0.017581335336027
-0.001276929889633
0.020366764561562
0.024580995290230
0.017581335336027
-0.001276929889633
0.020366764561562
0.024580995290230
0.017581335336027
-0.001276929889633
0.020366764561562
0.024580995290230
0.017581335336027
-0.001276929889633
0.020366764561562
0.024580995290230
0.017581335336027
-0.001276929889633
0.020366764561562
0.024580995290230
0.017581335336027
-0.000000000000000
0.000000000000000
0.000000000000000
0.000000000000000
0.010262612056089
-0.023119772024660
0.003567078388019
-0.005198964697561
0.010262612056089
-0.023119772024660
0.003567078388019
-0.005198964697561
0.010262612056089
-0.023119772024660
0.003567078388019
-0.005198964697561
0.010262612056089
-0.023119772024660
0.003567078388019
-0.005198964697561
0.010262612056089
-0.023119772024660
0.003567078388019
-0.005198964697561
0.010262612056089
-0.023119772024660
0.003567078388019
-0.005198964697561
0.010262612056089
-0.023119772024660
0.003567078388019
-0.005198964697561
0.000000000000000
-0.000000000000000
0.000000000000000
-0.000000000000000
0.005531407893519
-0.005922062478103
-0.004900951491217
0.005894906078791
0.005531407893519
-0.005922062478103
-0.004900951491217
0.005894906078791
0.005531407893519
-0.005922062478103
-0.004900951491217
0.005894906078791
0.005531407893519
-0.005922062478103
-0.004900951491217
0.005894906078791
0.005531407893519
-0.005922062478103
-0.004900951491217
0.005894906078791
0.005531407893519
-0.005922062478103
-0.004900951491217
0.005894906078791
0.005531407893519
-0.005922062478103
-0.004900951491217
0.005894906078791
0.000000000000000
-0.000000000000000
-0.000000000000000
0.000000000000000
0.004002596223717
-0.006331196832623
-0.012310568583760
-0.004391070317847
0.004002596223717
-0.006331196832623
-0.012310568583760
-0.004391070317847
0.004002596223717
-0.006331196832623
-0.012310568583760
-0.004391070317847
0.004002596223717
-0.006331196832623
-0.012310568583760
-0.004391070317847
0.004002596223717
-0.006331196832623
-0.012310568583760
-0.004391070317847
0.004002596223717
-0.006331196832623
-0.012310568583760
-0.004391070317847
0.004002596223717
-0.006331196832623
-0.012310568583760
-0.004391070317847
0.000000000000000
-0.000000000000000
-0.000000000000000
-0.000000000000000
-0.024668826896386
-0.030435453497747
0.002481826529107
0.003789896406383
-0.024668826896386
-0.030435453497747
0.002481826529107
0.003789896406383
-0.024668826896386
-0.030435453497747
0.002481826529107
0.003789896406383
-0.024668826896386
-0.030435453497747
0.002481826529107
0.003789896406383
-0.024668826896386
-0.030435453497747
0.002481826529107
0.003789896406383
-0.024668826896386
-0.030435453497747
0.002481826529107
0.003789896406383
-0.024668826896386
-0.030435453497747
0.002481826529107
0.003789896406383
-0.000000000000000
-0.000000000000000
0.000000000000000
0.000000000000000
0.010262612056089
-0.023119772024660
0.003567078388019
-0.005198964697561
0.010262612056089
-0.023119772024660
0.003567078388019
-0.005198964697561
0.010262612056089
-0.023119772024660
0.003567078388019
-0.005198964697561
0.010262612056089
-0.023119772024660
0.003567078388019
-0.005198964697561
0.010262612056089
-0.023119772024660
0.003567078388019
-0.005198964697561
0.010262612056089
-0.023119772024660
0.003567078388019
-0.005198964697561
0.010262612056089
-0.023119772024660
0.003567078388019
-0.005198964697561
0.000000000000000
-0.000000000000000
0.000000000000000
-0.000000000000000
0.005531407893519
-0.005922062478103
-0.004900951491217
0.005894906078791
0.005531407893519
-0.005922062478103
-0.004900951491217
0.005894906078791
0.005531407893519
-0.005922062478103
-0.004900951491217
0.005894906078791
0.005531407893519
-0.005922062478103
-0.004900951491217
0.005894906078791
0.005531407893519
-0.005922062478103
-0.004900951491217
0.005894906078791
0.005531407893519
-0.005922062478103
-0.004900951491217
0.005894906078791
0.005531407893519
-0.005922062478103
-0.004900951491217
0.005894906078791
0.000000000000000
-0.000000000000000
-0.000000000000000
0.000000000000000
0.004002596223717
-0.006331196832623
-0.012310568583760
-0.004391070317847
0.004002596223717
-0.006331196832623
-0.012310568583760
-0.004391070317847
0.004002596223717
-0.006331196832623
-0.012310568583760
-0.004391070317847
0.004002596223717
-0.006331196832623
-0.012310568583760
-0.004391070317847
0.004002596223717
-0.006331196832623
-0.012310568583760
-0.004391070317847
0.004002596223717
-0.006331196832623
-0.012310568583760
-0.004391070317847
0.004002596223717
-0.006331196832623
-0.012310568583760
-0.004391070317847
0.000000000000000
-0.000000000000000
-0.000000000000000
-0.000000000000000
-0.024668826896386
-0.030435453497747
0.002481826529107
0.003789896406383
-0.024668826896386
-0.030435453497747
0.002481826529107
0.003789896406383
-0.024668826896386
-0.030435453497747
0.002481826529107
0.003789896406383
-0.024668826896386
-0.030435453497747
0.002481826529107
0.003789896406383
-0.024668826896386
-0.030435453497747
0.002481826529107
0.003789896406383
-0.024668826896386
-0.030435453497747
0.002481826529107
0.003789896406383
-0.024668826896386
-0.030435453497747
0.002481826529107
0.003789896406383
-0.000000000000000
-0.000000000000000
0.000000000000000
0.000000000000000
0.010262612056089
-0.023119772024660
0.003567078388019
-0.005198964697561
0.010262612056089
-0.023119772024660
0.003567078388019
-0.005198964697561
0.010262612056089
-0.023119772024660
0.003567078388019
-0.005198964697561
0.010262612056089
-0.023119772024660
0.003567078388019
-0.005198964697561
0.010262612056089
-0.023119772024660
0.003567078388019
-0.005198964697561
0.010262612056089
-0.023119772024660
0.003567078388019
-0.005198964697561
0.010262612056089
-0.023119772024660
0.003567078388019
-0.005198964697561
0.000000000000000
-0.000000000000000
0.000000000000000
-0.000000000000000
0.005531407893519
-0.005922062478103
-0.004900951491217
0.005894906078791
0.005531407893519
-0.005922062478103
-0.004900951491217
0.005894906078791
0.005531407893519
-0.005922062478103
-0.004900951491217
0.005894906078791
0.005531407893519
-0.005922062478103
-0.004900951491217
0.005894906078791
0.005531407893519
-0.005922062478103
-0.004900951491217
0.005894906078791
0.005531407893519
-0.005922062478103
-0.004900951491217
0.005894906078791
0.005531407893519
-0.005922062478103
-0.004900951491217
0.005894906078791
0.000000000000000
-0.000000000000000
-0.000000000000000
0.000000000000000
0.004002596223717
-0.006331196832623
-0.012310568583760
-0.004391070317847
0.004002596223717
-0.006331196832623
-0.012310568583760
-0.004391070317847
0.004002596223717
-0.006331196832623
-0.012310568583760
-0.004391070317847
0.004002596223717
-0.006331196832623
-0.012310568583760
-0.004391070317847
0.004002596223717
-0.006331196832623
-0.012310568583760
-0.004391070317847
0.004002596223717
-0.006331196832623
-0.012310568583760
-0.004391070317847
0.004002596223717
-0.006331196832623
-0.012310568583760
-0.004391070317847
0.000000000000000
-0.000000000000000
-0.000000000000000
-0.000000000000000
-0.024668826896386
-0.030435453497747
0.002481826529107
0.003789896406383
-0.024668826896386
-0.030435453497747
0.002481826529107
0.003789896406383
-0.024668826896386
-0.030435453497747
0.002481826529107
0.003789896406383
-0.024668826896386
-0.030435453497747
0.002481826529107
0.003789896406383
-0.024668826896386
-0.030435453497747
0.002481826529107
0.003789896406383
-0.024668826896386
-0.030435453497747
0.002481826529107
0.003789896406383
-0.024668826896386
-0.030435453497747
0.002481826529107
0.003789896406383
-0.000000000000000
-0.000000000000000
0.000000000000000
0.000000000000000
0.010262612056089
-0.023119772024660
0.003567078388019
-0.005198964697561
0.010262612056089
-0.023119772024660
0.003567078388019
-0.005198964697561
0.010262612056089
-0.023119772024660
0.003567078388019
-0.005198964697561
0.010262612056089
-0.023119772024660
0.003567078388019
-0.005198964697561
0.010262612056089
-0.023119772024660
0.003567078388019
-0.005198964697561
0.010262612056089
-0.023119772024660
0.003567078388019
-0.005198964697561
0.010262612056089
-0.023119772024660
0.003567078388019
-0.005198964697561
0.000000000000000
-0.000000000000000
0.000000000000000
-0.000000000000000
0.005531407893519
-0.005922062478103
-0.004900951491217
0.005894906078791
0.005531407893519
-0.005922062478103
-0.004900951491217
0.005894906078791
0.005531407893519
-0.005922062478103
-0.004900951491217
0.005894906078791
0.005531407893519
-0.005922062478103
-0.004900951491217
0.005894906078791
0.005531407893519
-0.005922062478103
-0.004900951491217
0.005894906078791
0.005531407893519
-0.005922062478103
-0.004900951491217
0.005894906078791
0.005531407893519
-0.005922062478103
-0.004900951491217
0.005894906078791
0.000000000000000
-0.000000000000000
-0.000000000000000
0.000000000000000
0.004002596223717
-0.006331196832623
-0.012310568583760
-0.004391070317847
0.004002596223717
-0.006331196832623
-0.012310568583760
-0.004391070317847
0.004002596223717
-0.006331196832623
-0.012310568583760
-0.004391070317847
0.004002596223717
-0.006331196832623
-0.012310568583760
-0.004391070317847
0.004002596223717
-0.006331196832623
-0.012310568583760
-0.004391070317847
0.004002596223717
-0.006331196832623
-0.012310568583760
-0.004391070317847
0.004002596223717
-0.006331196832623
-0.012310568583760
-0.004391070317847
0.000000000000000
-0.000000000000000
-0.000000000000000
-0.000000000000000
-0.024668826896386
-0.030435453497747
0.002481826529107
0.003789896406383
-0.024668826896386
-0.030435453497747
0.002481826529107
0.003789896406383
-0.024668826896386
-0.030435453497747
0.002481826529107
0.003789896406383
-0.024668826896386
-0.030435453497747
0.002481826529107
0.003789896406383
-0.024668826896386
-0.030435453497747
0.002481826529107
0.003789896406383
-0.024668826896386
-0.030435453497747
0.002481826529107
0.003789896406383
-0.024668826896386
-0.030435453497747
0.002481826529107
0.003789896406383
-0.000000000000000
-0.000000000000000
0.000000000000000
0.000000000000000
0.010262612056089
-0.023119772024660
0.003567078388019
-0.005198964697561
0.010262612056089
-0.023119772024660
0.003567078388019
-0.005198964697561
0.010262612056089
-0.023119772024660
0.003567078388019
-0.005198964697561
0.010262612056089
-0.023119772024660
0.003567078388019
-0.005198964697561
0.010262612056089
-0.023119772024660
0.003567078388019
-0.005198964697561
0.010262612056089
-0.023119772024660
0.003567078388019
-0.005198964697561
0.010262612056089
-0.023119772024660
0.003567078388019
-0.005198964697561
0.000000000000000
-0.000000000000000
0.000000000000000
-0.000000000000000
0.005531407893519
-0.005922062478103
-0.004900951491217
0.005894906078791
0.005531407893519
-0.005922062478103
-0.004900951491217
0.005894906078791
0.005531407893519
-0.005922062478103
-0.004900951491217
0.005894906078791
0.005531407893519
-0.005922062478103
-0.004900951491217
0.005894906078791
0.005531407893519
-0.005922062478103
-0.004900951491217
0.005894906078791
0.005531407893519
-0.005922062478103
-0.004900951491217
0.005894906078791
0.005531407893519
-0.005922062478103
-0.004900951491217
0.005894906078791
0.000000000000000
-0.000000000000000
-0.000000000000000
0.000000000000000
0.004002596223717
-0.006331196832623
-0.012310568583760
-0.004391070317847
0.004002596223717
-0.006331196832623
-0.012310568583760
-0.004391070317847
0.004002596223717
-0.006331196832623
-0.012310568583760
-0.004391070317847
0.004002596223717
-0.006331196832623
-0.012310568583760
-0.004391070317847
0.004002596223717
-0.006331196832623
-0.012310568583760
-0.004391070317847
0.004002596223717
-0.006331196832623
-0.012310568583760
-0.004391070317847
0.004002596223717
-0.006331196832623
-0.012310568583760
-0.004391070317847
0.000000000000000
-0.000000000000000
-0.000000000000000
-0.000000000000000
-0.024668826896386
-0.030435453497747
0.002481826529107
0.003789896406383
-0.024668826896386
-0.030435453497747
0.002481826529107
0.003789896406383
-0.024668826896386
-0.030435453497747
0.002481826529107
0.003789896406383
-0.024668826896386
-0.030435453497747
0.002481826529107
0.003789896406383
-0.024668826896386
-0.030435453497747
0.002481826529107
0.003789896406383
-0.024668826896386
-0.030435453497747
0.002481826529107
0.003789896406383
-0.024668826896386
-0.030435453497747
0.002481826529107
0.003789896406383
-0.000000000000000
-0.000000000000000
0.000000000000000
0.000000000000000
0.010262612056089
-0.023119772024660
0.003567078388019
-0.005198964697561
0.010262612056089
-0.023119772024660
0.003567078388019
-0.005198964697561
0.010262612056089
-0.023119772024660
0.003567078388019
-0.005198964697561
0.010262612056089
-0.023119772024660
0.003567078388019
-0.005198964697561
0.010262612056089
-0.023119772024660
0.003567078388019
-0.005198964697561
0.010262612056089
-0.023119772024660
0.003567078388019
-0.005198964697561
0.010262612056089
-0.023119772024660
0.003567078388019
-0.005198964697561
0.000000000000000
-0.000000000000000
0.000000000000000
-0.000000000000000
0.005531407893519
-0.005922062478103
-0.004900951491217
0.005894906078791
0.005531407893519
-0.005922062478103
-0.004900951491217
0.005894906078791
0.005531407893519
-0.005922062478103
-0.004900951491217
0.005894906078791
0.005531407893519
-0.005922062478103
-0.004900951491217
0.005894906078791
0.005531407893519
-0.005922062478103
-0.004900951491217
0.005894906078791
0.005531407893519
-0.005922062478103
-0.004900951491217
0.005894906078791
0.005531407893519
-0.005922062478103
-0.004900951491217
0.005894906078791
0.000000000000000
-0.000000000000000
-0.000000000000000
0.000000000000000
0.004002596223717
-0.006331196832623
-0.012310568583760
-0.004391070317847
0.004002596223717
-0.006331196832623
-0.012310568583760
-0.004391070317847
0.004002596223717
-0.006331196832623
-0.012310568583760
-0.004391070317847
0.004002596223717
-0.006331196832623
-0.012310568583760
-0.004391070317847
0.004002596223717
-0.006331196832623
-0.012310568583760
-0.004391070317847
0.004002596223717
-0.006331196832623
-0.012310568583760
-0.004391070317847
0.004002596223717
-0.006331196832623
-0.012310568583760
-0.004391070317847
0.000000000000000
-0.000000000000000
-0.000000000000000
-0.000000000000000
-0.024668826896386
-0.030435453497747
0.002481826529107
0.003789896406383
-0.024668826896386
-0.030435453497747
0.002481826529107
0.003789896406383
-0.024668826896386
-0.030435453497747
0.002481826529107
0.003789896406383
-0.024668826896386
-0.030435453497747
0.002481826529107
0.003789896406383
-0.024668826896386
-0.030435453497747
0.002481826529107
0.003789896406383
-0.024668826896386
-0.030435453497747
0.002481826529107
0.003789896406383
-0.024668826896386
-0.030435453497747
0.002481826529107
0.003789896406383
-0.000000000000000
-0.000000000000000
0.000000000000000
0.000000000000000
0.010262612056089
-0.023119772024660
0.003567078388019
-0.005198964697561
0.010262612056089
-0.023119772024660
0.003567078388019
-0.005198964697561
0.010262612056089
-0.023119772024660
0.003567078388019
-0.005198964697561
0.010262612056089
-0.023119772024660
0.003567078388019
-0.005198964697561
0.010262612056089
-0.023119772024660
0.003567078388019
-0.005198964697561
0.010262612056089
-0.023119772024660
0.003567078388019
-0.005198964697561
0.010262612056089
-0.023119772024660
0.003567078388019
-0.005198964697561
0.000000000000000
-0.000000000000000
0.000000000000000
-0.000000000000000
0.005531407893519
-0.005922062478103
-0.004900951491217
0.005894906078791
0.005531407893519
-0.005922062478103
-0.004900951491217
0.005894906078791
0.005531407893519
-0.005922062478103
-0.004900951491217
0.005894906078791
0.005531407893519
-0.005922062478103
-0.004900951491217
0.005894906078791
0.005531407893519
-0.005922062478103
-0.004900951491217
0.005894906078791
0.005531407893519
-0.005922062478103
-0.004900951491217
0.005894906078791
0.005531407893519
-0.005922062478103
-0.004900951491217
0.005894906078791
0.000000000000000
-0.000000000000000
-0.000000000000000
0.000000000000000
0.004002596223717
-0.006331196832623
-0.012310568583760
-0.004391070317847
0.004002596223717
-0.006331196832623
-0.012310568583760
-0.004391070317847
0.004002596223717
-0.006331196832623
-0.012310568583760
-0.004391070317847
0.004002596223717
-0.006331196832623
-0.012310568583760
-0.004391070317847
0.004002596223717
-0.006331196832623
-0.012310568583760
-0.004391070317847
0.004002596223717
-0.006331196832623
-0.012310568583760
-0.004391070317847
0.004002596223717
-0.006331196832623
-0.012310568583760
-0.004391070317847
0.000000000000000
-0.000000000000000
-0.000000000000000
-0.000000000000000
-0.024668826896386
-0.030435453497747
0.002481826529107
0.003789896406383
-0.024668826896386
-0.030435453497747
0.002481826529107
0.003789896406383
-0.024668826896386
-0.030435453497747
0.002481826529107
0.003789896406383
-0.024668826896386
-0.030435453497747
0.002481826529107
0.003789896406383
-0.024668826896386
-0.030435453497747
0.002481826529107
0.003789896406383
-0.024668826896386
-0.030435453497747
0.002481826529107
0.003789896406383
-0.024668826896386
-0.030435453497747
0.002481826529107
0.003789896406383
-0.000000000000000
-0.000000000000000
0.000000000000000
0.000000000000000
0.010262612056089
-0.023119772024660
0.003567078388019
-0.005198964697561
0.010262612056089
-0.023119772024660
0.003567078388019
-0.005198964697561
0.010262612056089
-0.023119772024660
0.003567078388019
-0.005198964697561
0.010262612056089
-0.023119772024660
0.003567078388019
-0.005198964697561
0.010262612056089
-0.023119772024660
0.003567078388019
-0.005198964697561
0.010262612056089
-0.023119772024660
0.003567078388019
-0.005198964697561
0.010262612056089
-0.023119772024660
0.003567078388019
-0.005198964697561
0.000000000000000
-0.000000000000000
0.000000000000000
-0.000000000000000
0.005531407893519
-0.005922062478103
-0.004900951491217
0.005894906078791
0.005531407893519
-0.005922062478103
-0.004900951491217
0.005894906078791
0.005531407893519
-0.005922062478103
-0.004900951491217
0.005894906078791
0.005531407893519
-0.005922062478103
-0.004900951491217
0.005894906078791
0.005531407893519
-0.005922062478103
-0.004900951491217
0.005894906078791
0.005531407893519
-0.005922062478103
-0.004900951491217
0.005894906078791
0.005531407893519
-0.005922062478103
-0.004900951491217
0.005894906078791
0.000000000000000
-0.000000000000000
-0.000000000000000
0.000000000000000
0.004002596223717
-0.006331196832623
-0.012310568583760
-0.004391070317847
0.004002596223717
-0.006331196832623
-0.012310568583760
-0.004391070317847
0.004002596223717
-0.006331196832623
-0.012310568583760
-0.004391070317847
0.004002596223717
-0.006331196832623
-0.012310568583760
-0.004391070317847
0.004002596223717
-0.006331196832623
-0.012310568583760
-0.004391070317847
0.004002596223717
-0.006331196832623
-0.012310568583760
-0.004391070317847
0.004002596223717
-0.006331196832623
-0.012310568583760
-0.004391070317847
0.000000000000000
-0.000000000000000
-0.000000000000000
-0.000000000000000
-0.024668826896386
-0.030435453497747
0.002481826529107
0.003789896406383
-0.024668826896386
-0.030435453497747
0.002481826529107
0.003789896406383
-0.024668826896386
-0.030435453497747
0.002481826529107
0.003789896406383
-0.024668826896386
-0.030435453497747
0.002481826529107
0.003789896406383
-0.024668826896386
-0.030435453497747
0.002481826529107
0.003789896406383
-0.024668826896386
-0.030435453497747
0.002481826529107
0.003789896406383
-0.024668826896386
-0.030435453497747
0.002481826529107
0.003789896406383
-0.000000000000000
-0.000000000000000
0.000000000000000
0.000000000000000
-0.019255197220134
-0.004141467626194
0.000823808786763
-0.007360404193631
-0.019255197220134
-0.004141467626194
0.000823808786763
-0.007360404193631
-0.019255197220134
-0.004141467626194
0.000823808786763
-0.007360404193631
-0.019255197220134
-0.004141467626194
0.000823808786763
-0.007360404193631
-0.019255197220134
-0.004141467626194
0.000823808786763
-0.007360404193631
-0.019255197220134
-0.004141467626194
0.000823808786763
-0.007360404193631
-0.019255197220134
-0.004141467626194
0.000823808786763
-0.007360404193631
-0.000000000000000
-0.000000000000000
0.000000000000000
-0.000000000000000
-0.002692139593376
0.031472682434346
0.015377908932282
0.031468126523936
-0.002692139593376
0.031472682434346
0.015377908932282
0.031468126523936
-0.002692139593376
0.031472682434346
0.015377908932282
0.031468126523936
-0.002692139593376
0.031472682434346
0.015377908932282
0.031468126523936
-0.002692139593376
0.031472682434346
0.015377908932282
0.031468126523936
-0.002692139593376
0.031472682434346
0.015377908932282
0.031468126523936
-0.002692139593376
0.031472682434346
0.015377908932282
0.031468126523936
-0.000000000000000
0.000000000000000
0.000000000000000
0.000000000000000
-0.002664588801819
-0.025941625867252
-0.005925659607367
-0.007526092002106
-0.002664588801819
-0.025941625867252
-0.005925659607367
-0.007526092002106
-0.002664588801819
-0.025941625867252
-0.005925659607367
-0.007526092002106
-0.002664588801819
-0.025941625867252
-0.005925659607367
-0.007526092002106
-0.002664588801819
-0.025941625867252
-0.005925659607367
-0.007526092002106
-0.002664588801819
-0.025941625867252
-0.005925659607367
-0.007526092002106
-0.002664588801819
-0.025941625867252
-0.005925659607367
-0.007526092002106
-0.000000000000000
-0.000000000000000
-0.000000000000000
-0.000000000000000
-0.015739555287303
-0.010435890781959
0.011172658560352
0.003274781602597
-0.015739555287303
-0.010435890781959
0.011172658560352
0.003274781602597
-0.015739555287303
-0.010435890781959
0.011172658560352
0.003274781602597
-0.015739555287303
-0.010435890781959
0.011172658560352
0.003274781602597
-0.015739555287303
-0.010435890781959
0.011172658560352
0.003274781602597
-0.015739555287303
-0.010435890781959
0.011172658560352
0.003274781602597
-0.015739555287303
-0.010435890781959
0.011172658560352
0.003274781602597
-0.000000000000000
-0.000000000000000
0.000000000000000
0.000000000000000
-0.019255197220134
-0.004141467626194
0.000823808786763
-0.007360404193631
-0.019255197220134
-0.004141467626194
0.000823808786763
-0.007360404193631
-0.019255197220134
-0.004141467626194
0.000823808786763
-0.007360404193631
-0.019255197220134
-0.004141467626194
0.000823808786763
-0.007360404193631
-0.019255197220134
-0.004141467626194
0.000823808786763
-0.007360404193631
-0.019255197220134
-0.004141467626194
0.000823808786763
-0.007360404193631
-0.019255197220134
-0.004141467626194
0.000823808786763
-0.007360404193631
-0.000000000000000
-0.000000000000000
0.000000000000000
-0.000000000000000
-0.002692139593376
0.031472682434346
0.015377908932282
0.031468126523936
-0.002692139593376
0.031472682434346
0.015377908932282
0.031468126523936
-0.002692139593376
0.031472682434346
0.015377908932282
0.031468126523936
-0.002692139593376
0.031472682434346
0.015377908932282
0.031468126523936
-0.002692139593376
0.031472682434346
0.015377908932282
0.031468126523936
-0.002692139593376
0.031472682434346
0.015377908932282
0.031468126523936
-0.002692139593376
0.031472682434346
0.015377908932282
0.031468126523936
-0.000000000000000
0.000000000000000
0.000000000000000
0.000000000000000
-0.002664588801819
-0.025941625867252
-0.005925659607367
-0.007526092002106
-0.002664588801819
-0.025941625867252
-0.005925659607367
-0.007526092002106
-0.002664588801819
-0.025941625867252
-0.005925659607367
-0.007526092002106
-0.002664588801819
-0.025941625867252
-0.005925659607367
-0.007526092002106
-0.002664588801819
-0.025941625867252
-0.005925659607367
-0.007526092002106
-0.002664588801819
-0.025941625867252
-0.005925659607367
-0.007526092002106
-0.002664588801819
-0.025941625867252
-0.005925659607367
-0.007526092002106
-0.000000000000000
-0.000000000000000
-0.000000000000000
-0.000000000000000
-0.015739555287303
-0.010435890781959
0.011172658560352
0.003274781602597
-0.015739555287303
-0.010435890781959
0.011172658560352
0.003274781602597
-0.015739555287303
-0.010435890781959
0.011172658560352
0.003274781602597
-0.015739555287303
-0.010435890781959
0.011172658560352
0.003274781602597
-0.015739555287303
-0.010435890781959
0.011172658560352
0.003274781602597
-0.015739555287303
-0.010435890781959
0.011172658560352
0.003274781602597
-0.015739555287303
-0.010435890781959
0.011172658560352
0.003274781602597
-0.000000000000000
-0.000000000000000
0.000000000000000
0.000000000000000
-0.019255197220134
-0.004141467626194
0.000823808786763
-0.007360404193631
-0.019255197220134
-0.004141467626194
0.000823808786763
-0.007360404193631
-0.019255197220134
-0.004141467626194
0.000823808786763
-0.007360404193631
-0.019255197220134
-0.004141467626194
0.000823808786763
-0.007360404193631
-0.019255197220134
-0.004141467626194
0.000823808786763
-0.007360404193631
-0.019255197220134
-0.004141467626194
0.000823808786763
-0.007360404193631
-0.019255197220134
-0.004141467626194
0.000823808786763
-0.007360404193631
-0.000000000000000
-0.000000000000000
0.000000000000000
-0.000000000000000
-0.002692139593376
0.031472682434346
0.015377908932282
0.031468126523936
-0.002692139593376
0.031472682434346
0.015377908932282
0.031468126523936
-0.002692139593376
0.031472682434346
0.015377908932282
0.031468126523936
-0.002692139593376
0.031472682434346
0.015377908932282
0.031468126523936
-0.002692139593376
0.031472682434346
0.015377908932282
0.031468126523936
-0.002692139593376
0.031472682434346
0.015377908932282
0.031468126523936
-0.002692139593376
0.031472682434346
0.015377908932282
0.031468126523936
-0.000000000000000
0.000000000000000
0.000000000000000
0.000000000000000
-0.002664588801819
-0.025941625867252
-0.005925659607367
-0.007526092002106
-0.002664588801819
-0.025941625867252
-0.005925659607367
-0.007526092002106
-0.002664588801819
-0.025941625867252
-0.005925659607367
-0.007526092002106
-0.002664588801819
-0.025941625867252
-0.005925659607367
-0.007526092002106
-0.002664588801819
-0.025941625867252
-0.005925659607367
-0.007526092002106
-0.002664588801819
-0.025941625867252
-0.005925659607367
-0.007526092002106
-0.002664588801819
-0.025941625867252
-0.005925659607367
-0.007526092002106
-0.000000000000000
-0.000000000000000
-0.000000000000000
-0.000000000000000
-0.015739555287303
-0.010435890781959
0.011172658560352
0.003274781602597
-0.015739555287303
-0.010435890781959
0.011172658560352
0.003274781602597
-0.015739555287303
-0.010435890781959
0.011172658560352
0.003274781602597
-0.015739555287303
-0.010435890781959
0.011172658560352
0.003274781602597
-0.015739555287303
-0.010435890781959
0.011172658560352
0.003274781602597
-0.015739555287303
-0.010435890781959
0.011172658560352
0.003274781602597
-0.015739555287303
-0.010435890781959
0.011172658560352
0.003274781602597
-0.000000000000000
-0.000000000000000
0.000000000000000
0.000000000000000
-0.019255197220134
-0.004141467626194
0.000823808786763
-0.007360404193631
-0.019255197220134
-0.004141467626194
0.000823808786763
-0.007360404193631
-0.019255197220134
-0.004141467626194
0.000823808786763
-0.007360404193631
-0.019255197220134
-0.004141467626194
0.000823808786763
-0.007360404193631
-0.019255197220134
-0.004141467626194
0.000823808786763
-0.007360404193631
-0.019255197220134
-0.004141467626194
0.000823808786763
-0.007360404193631
-0.019255197220134
-0.004141467626194
0.000823808786763
-0.007360404193631
-0.000000000000000
-0.000000000000000
0.000000000000000
-0.000000000000000
-0.002692139593376
0.031472682434346
0.015377908932282
0.031468126523936
-0.002692139593376
0.031472682434346
0.015377908932282
0.031468126523936
-0.002692139593376
0.031472682434346
0.015377908932282
0.031468126523936
-0.002692139593376
0.031472682434346
0.015377908932282
0.031468126523936
-0.002692139593376
0.031472682434346
0.015377908932282
0.031468126523936
-0.002692139593376
0.031472682434346
0.015377908932282
0.031468126523936
-0.002692139593376
0.031472682434346
0.015377908932282
0.031468126523936
-0.000000000000000
0.000000000000000
0.000000000000000
0.000000000000000
-0.002664588801819
-0.025941625867252
-0.005925659607367
-0.007526092002106
-0.002664588801819
-0.025941625867252
-0.005925659607367
-0.007526092002106
-0.002664588801819
-0.025941625867252
-0.005925659607367
-0.007526092002106
-0.002664588801819
-0.025941625867252
-0.005925659607367
-0.007526092002106
-0.002664588801819
-0.025941625867252
-0.005925659607367
-0.007526092002106
-0.002664588801819
-0.025941625867252
-0.005925659607367
-0.007526092002106
-0.002664588801819
-0.025941625867252
-0.005925659607367
-0.007526092002106
-0.000000000000000
-0.000000000000000
-0.000000000000000
-0.000000000000000
-0.015739555287303
-0.010435890781959
0.011172658560352
0.003274781602597
-0.015739555287303
-0.010435890781959
0.011172658560352
0.003274781602597
-0.015739555287303
-0.010435890781959
0.011172658560352
0.003274781602597
-0.015739555287303
-0.010435890781959
0.011172658560352
0.003274781602597
-0.015739555287303
-0.010435890781959
0.011172658560352
0.003274781602597
-0.015739555287303
-0.010435890781959
0.011172658560352
0.003274781602597
-0.015739555287303
-0.010435890781959
0.011172658560352
0.003274781602597
-0.000000000000000
-0.000000000000000
0.000000000000000
0.000000000000000
-0.019255197220134
-0.004141467626194
0.000823808786763
-0.007360404193631
-0.019255197220134
-0.004141467626194
0.000823808786763
-0.007360404193631
-0.019255197220134
-0.004141467626194
0.000823808786763
-0.007360404193631
-0.019255197220134
-0.004141467626194
0.000823808786763
-0.007360404193631
-0.019255197220134
-0.004141467626194
0.000823808786763
-0.007360404193631
-0.019255197220134
-0.004141467626194
0.000823808786763
-0.007360404193631
-0.019255197220134
-0.004141467626194
0.000823808786763
-0.007360404193631
-0.000000000000000
-0.000000000000000
0.000000000000000
-0.000000000000000
-0.002692139593376
0.031472682434346
0.015377908932282
0.031468126523936
-0.002692139593376
0.031472682434346
0.015377908932282
0.031468126523936
-0.002692139593376
0.031472682434346
0.015377908932282
0.031468126523936
-0.002692139593376
0.031472682434346
0.015377908932282
0.031468126523936
-0.002692139593376
0.031472682434346
0.015377908932282
0.031468126523936
-0.002692139593376
0.031472682434346
0.015377908932282
0.031468126523936
-0.002692139593376
0.031472682434346
0.015377908932282
0.031468126523936
-0.000000000000000
0.000000000000000
0.000000000000000
0.000000000000000
-0.002664588801819
-0.025941625867252
-0.005925659607367
-0.007526092002106
-0.002664588801819
-0.025941625867252
-0.005925659607367
-0.007526092002106
-0.002664588801819
-0.025941625867252
-0.005925659607367
-0.007526092002106
-0.002664588801819
-0.025941625867252
-0.005925659607367
-0.007526092002106
-0.002664588801819
-0.025941625867252
-0.005925659607367
-0.007526092002106
-0.002664588801819
-0.025941625867252
-0.005925659607367
-0.007526092002106
-0.002664588801819
-0.025941625867252
-0.005925659607367
-0.007526092002106
-0.000000000000000
-0.000000000000000
-0.000000000000000
-0.000000000000000
-0.015739555287303
-0.010435890781959
0.011172658560352
0.003274781602597
-0.015739555287303
-0.010435890781959
0.011172658560352
0.003274781602597
-0.015739555287303
-0.010435890781959
0.011172658560352
0.003274781602597
-0.015739555287303
-0.010435890781959
0.011172658560352
0.003274781602597
-0.015739555287303
-0.010435890781959
0.011172658560352
0.003274781602597
-0.015739555287303
-0.010435890781959
0.011172658560352
0.003274781602597
-0.015739555287303
-0.010435890781959
0.011172658560352
0.003274781602597
-0.000000000000000
-0.000000000000000
0.000000000000000
0.000000000000000
-0.019255197220134
-0.004141467626194
0.000823808786763
-0.007360404193631
-0.019255197220134
-0.004141467626194
0.000823808786763
-0.007360404193631
-0.019255197220134
-0.004141467626194
0.000823808786763
-0.007360404193631
-0.019255197220134
-0.004141467626194
0.000823808786763
-0.007360404193631
-0.019255197220134
-0.004141467626194
0.000823808786763
-0.007360404193631
-0.019255197220134
-0.004141467626194
0.000823808786763
-0.007360404193631
-0.019255197220134
-0.004141467626194
0.000823808786763
-0.007360404193631
-0.000000000000000
-0.000000000000000
0.000000000000000
-0.000000000000000
-0.002692139593376
0.031472682434346
0.015377908932282
0.031468126523936
-0.002692139593376
0.031472682434346
0.015377908932282
0.031468126523936
-0.002692139593376
0.031472682434346
0.015377908932282
0.031468126523936
-0.002692139593376
0.031472682434346
0.015377908932282
0.031468126523936
-0.002692139593376
0.031472682434346
0.015377908932282
0.031468126523936
-0.002692139593376
0.031472682434346
0.015377908932282
0.031468126523936
-0.002692139593376
0.031472682434346
0.015377908932282
0.031468126523936
-0.000000000000000
0.000000000000000
0.000000000000000
0.000000000000000
-0.002664588801819
-0.025941625867252
-0.005925659607367
-0.007526092002106
-0.002664588801819
-0.025941625867252
-0.005925659607367
-0.007526092002106
-0.002664588801819
-0.025941625867252
-0.005925659607367
-0.007526092002106
-0.002664588801819
-0.025941625867252
-0.005925659607367
-0.007526092002106
-0.002664588801819
-0.025941625867252
-0.005925659607367
-0.007526092002106
-0.002664588801819
-0.025941625867252
-0.005925659607367
-0.007526092002106
-0.002664588801819
-0.025941625867252
-0.005925659607367
-0.007526092002106
-0.000000000000000
-0.000000000000000
-0.000000000000000
-0.000000000000000
-0.015739555287303
-0.010435890781959
0.011172658560352
0.003274781602597
-0.015739555287303
-0.010435890781959
0.011172658560352
0.003274781602597
-0.015739555287303
-0.010435890781959
0.011172658560352
0.003274781602597
-0.015739555287303
-0.010435890781959
0.011172658560352
0.003274781602597
-0.015739555287303
-0.010435890781959
0.011172658560352
0.003274781602597
-0.015739555287303
-0.010435890781959
0.011172658560352
0.003274781602597
-0.015739555287303
-0.010435890781959
0.011172658560352
0.003274781602597
-0.000000000000000
-0.000000000000000
0.000000000000000
0.000000000000000
-0.019255197220134
-0.004141467626194
0.000823808786763
-0.007360404193631
-0.019255197220134
-0.004141467626194
0.000823808786763
-0.007360404193631
-0.019255197220134
-0.004141467626194
0.000823808786763
-0.007360404193631
-0.019255197220134
-0.004141467626194
0.000823808786763
-0.007360404193631
-0.019255197220134
-0.004141467626194
0.000823808786763
-0.007360404193631
-0.019255197220134
-0.004141467626194
0.000823808786763
-0.007360404193631
-0.019255197220134
-0.004141467626194
0.000823808786763
-0.007360404193631
-0.000000000000000
-0.000000000000000
0.000000000000000
-0.000000000000000
-0.002692139593376
0.031472682434346
0.015377908932282
0.031468126523936
-0.002692139593376
0.031472682434346
0.015377908932282
0.031468126523936
-0.002692139593376
0.031472682434346
0.015377908932282
0.031468126523936
-0.002692139593376
0.031472682434346
0.015377908932282
0.031468126523936
-0.002692139593376
0.031472682434346
0.015377908932282
0.031468126523936
-0.002692139593376
0.031472682434346
0.015377908932282
0.031468126523936
-0.002692139593376
0.031472682434346
0.015377908932282
0.031468126523936
-0.000000000000000
0.000000000000000
0.000000000000000
0.000000000000000
-0.002664588801819
-0.025941625867252
-0.005925659607367
-0.007526092002106
-0.002664588801819
-0.025941625867252
-0.005925659607367
-0.007526092002106
-0.002664588801819
-0.025941625867252
-0.005925659607367
-0.007526092002106
-0.002664588801819
-0.025941625867252
-0.005925659607367
-0.007526092002106
-0.002664588801819
-0.025941625867252
-0.005925659607367
-0.007526092002106
-0.002664588801819
-0.025941625867252
-0.005925659607367
-0.007526092002106
-0.002664588801819
-0.025941625867252
-0.005925659607367
-0.007526092002106
-0.000000000000000
-0.000000000000000
-0.000000000000000
-0.000000000000000
-0.015739555287303
-0.010435890781959
0.011172658560352
0.003274781602597
-0.015739555287303
-0.010435890781959
0.011172658560352
0.003274781602597
-0.015739555287303
-0.010435890781959
0.011172658560352
0.003274781602597
-0.015739555287303
-0.010435890781959
0.011172658560352
0.003274781602597
-0.015739555287303
-0.010435890781959
0.011172658560352
0.003274781602597
-0.015739555287303
-0.010435890781959
0.011172658560352
0.003274781602597
-0.015739555287303
-0.010435890781959
0.011172658560352
0.003274781602597
-0.000000000000000
-0.000000000000000
0.000000000000000
0.000000000000000
-0.019255197220134
-0.004141467626194
0.000823808786763
-0.007360404193631
-0.019255197220134
-0.004141467626194
0.000823808786763
-0.007360404193631
-0.019255197220134
-0.004141467626194
0.000823808786763
-0.007360404193631
-0.019255197220134
-0.004141467626194
0.000823808786763
-0.007360404193631
-0.019255197220134
-0.004141467626194
0.000823808786763
-0.007360404193631
-0.019255197220134
-0.004141467626194
0.000823808786763
-0.007360404193631
-0.019255197220134
-0.004141467626194
0.000823808786763
-0.007360404193631
-0.000000000000000
-0.000000000000000
0.000000000000000
-0.000000000000000
-0.002692139593376
0.031472682434346
0.015377908932282
0.031468126523936
-0.002692139593376
0.031472682434346
0.015377908932282
0.031468126523936
-0.002692139593376
0.031472682434346
0.015377908932282
0.031468126523936
-0.002692139593376
0.031472682434346
0.015377908932282
0.031468126523936
-0.002692139593376
0.031472682434346
0.015377908932282
0.031468126523936
-0.002692139593376
0.031472682434346
0.015377908932282
0.031468126523936
-0.002692139593376
0.031472682434346
0.015377908932282
0.031468126523936
-0.000000000000000
0.000000000000000
0.000000000000000
0.000000000000000
-0.002664588801819
-0.025941625867252
-0.005925659607367
-0.007526092002106
-0.002664588801819
-0.025941625867252
-0.005925659607367
-0.007526092002106
-0.002664588801819
-0.025941625867252
-0.005925659607367
-0.007526092002106
-0.002664588801819
-0.025941625867252
-0.005925659607367
-0.007526092002106
-0.002664588801819
-0.025941625867252
-0.005925659607367
-0.007526092002106
-0.002664588801819
-0.025941625867252
-0.005925659607367
-0.007526092002106
-0.002664588801819
-0.025941625867252
-0.005925659607367
-0.007526092002106
-0.000000000000000
-0.000000000000000
-0.000000000000000
-0.000000000000000
-0.015739555287303
-0.010435890781959
0.011172658560352
0.003274781602597
-0.015739555287303
-0.010435890781959
0.011172658560352
0.003274781602597
-0.015739555287303
-0.010435890781959
0.011172658560352
0.003274781602597
-0.015739555287303
-0.010435890781959
0.011172658560352
0.003274781602597
-0.015739555287303
-0.010435890781959
0.011172658560352
0.003274781602597
-0.015739555287303
-0.010435890781959
0.011172658560352
0.003274781602597
-0.015739555287303
-0.010435890781959
0.011172658560352
0.003274781602597
-0.000000000000000
-0.000000000000000
0.000000000000000
0.000000000000000
0.033743180452485
0.005133962509139
-0.010248715396029
0.000890162108615
0.033743180452485
0.005133962509139
-0.010248715396029
0.000890162108615
0.033743180452485
0.005133962509139
-0.010248715396029
0.000890162108615
0.033743180452485
0.005133962509139
-0.010248715396029
0.000890162108615
0.033743180452485
0.005133962509139
-0.010248715396029
0.000890162108615
0.033743180452485
0.005133962509139
-0.010248715396029
0.000890162108615
0.033743180452485
0.005133962509139
-0.010248715396029
0.000890162108615
0.000000000000000
0.000000000000000
-0.000000000000000
0.000000000000000
-0.012063545308051
0.003436233094378
-0.012270449372690
-0.005610569670164
-0.012063545308051
0.003436233094378
-0.012270449372690
-0.005610569670164
-0.012063545308051
0.003436233094378
-0.012270449372690
-0.005610569670164
-0.012063545308051
0.003436233094378
-0.012270449372690
-0.005610569670164
-0.012063545308051
0.003436233094378
-0.012270449372690
-0.005610569670164
-0.012063545308051
0.003436233094378
-0.012270449372690
-0.005610569670164
-0.012063545308051
0.003436233094378
-0.012270449372690
-0.005610569670164
-0.000000000000000
0.000000000000000
-0.000000000000000
-0.000000000000000
-0.008948660294479
0.010191093329146
-0.020132427569715
-0.000285564464477
-0.008948660294479
0.010191093329146
-0.020132427569715
-0.000285564464477
-0.008948660294479
0.010191093329146
-0.020132427569715
-0.000285564464477
-0.008948660294479
0.010191093329146
-0.020132427569715
-0.000285564464477
-0.008948660294479
0.010191093329146
-0.020132427569715
-0.000285564464477
-0.008948660294479
0.010191093329146
-0.020132427569715
-0.000285564464477
-0.008948660294479
0.010191093329146
-0.020132427569715
-0.000285564464477
-0.000000000000000
0.000000000000000
-0.000000000000000
-0.000000000000000
0.009285632201380
0.014142663356275
-0.003645165785792
-0.022660708518646
0.009285632201380
0.014142663356275
-0.003645165785792
-0.022660708518646
0.009285632201380
0.014142663356275
-0.003645165785792
-0.022660708518646
0.009285632201380
0.014142663356275
-0.003645165785792
-0.022660708518646
0.009285632201380
0.014142663356275
-0.003645165785792
-0.022660708518646
0.009285632201380
0.014142663356275
-0.003645165785792
-0.022660708518646
0.009285632201380
0.014142663356275
-0.003645165785792
-0.022660708518646
0.000000000000000
0.000000000000000
-0.000000000000000
-0.000000000000000
0.033743180452485
0.005133962509139
-0.010248715396029
0.000890162108615
0.033743180452485
0.005133962509139
-0.010248715396029
0.000890162108615
0.033743180452485
0.005133962509139
-0.010248715396029
0.000890162108615
0.033743180452485
0.005133962509139
-0.010248715396029
0.000890162108615
0.033743180452485
0.005133962509139
-0.010248715396029
0.000890162108615
0.033743180452485
0.005133962509139
-0.010248715396029
0.000890162108615
0.033743180452485
0.005133962509139
-0.010248715396029
0.000890162108615
0.000000000000000
0.000000000000000
-0.000000000000000
0.000000000000000
-0.012063545308051
0.003436233094378
-0.012270449372690
-0.005610569670164
-0.012063545308051
0.003436233094378
-0.012270449372690
-0.005610569670164
-0.012063545308051
0.003436233094378
-0.012270449372690
-0.005610569670164
-0.012063545308051
0.003436233094378
-0.012270449372690
-0.005610569670164
-0.012063545308051
0.003436233094378
-0.012270449372690
-0.005610569670164
-0.012063545308051
0.003436233094378
-0.012270449372690
-0.005610569670164
-0.012063545308051
0.003436233094378
-0.012270449372690
-0.005610569670164
-0.000000000000000
0.000000000000000
-0.000000000000000
-0.000000000000000
-0.008948660294479
0.010191093329146
-0.020132427569715
-0.000285564464477
-0.008948660294479
0.010191093329146
-0.020132427569715
-0.000285564464477
-0.008948660294479
0.010191093329146
-0.020132427569715
-0.000285564464477
-0.008948660294479
0.010191093329146
-0.020132427569715
-0.000285564464477
-0.008948660294479
0.010191093329146
-0.020132427569715
-0.000285564464477
-0.008948660294479
0.010191093329146
-0.020132427569715
-0.000285564464477
-0.008948660294479
0.010191093329146
-0.020132427569715
-0.000285564464477
-0.000000000000000
0.000000000000000
-0.000000000000000
-0.000000000000000
0.009285632201380
0.014142663356275
-0.003645165785792
-0.022660708518646
0.009285632201380
0.014142663356275
-0.003645165785792
-0.022660708518646
0.009285632201380
0.014142663356275
-0.003645165785792
-0.022660708518646
0.009285632201380
0.014142663356275
-0.003645165785792
-0.022660708518646
0.009285632201380
0.014142663356275
-0.003645165785792
-0.022660708518646
0.009285632201380
0.014142663356275
-0.003645165785792
-0.022660708518646
0.009285632201380
0.014142663356275
-0.003645165785792
-0.022660708518646
0.000000000000000
0.000000000000000
-0.000000000000000
-0.000000000000000
0.033743180452485
0.005133962509139
-0.010248715396029
0.000890162108615
0.033743180452485
0.005133962509139
-0.010248715396029
0.000890162108615
0.033743180452485
0.005133962509139
-0.010248715396029
0.000890162108615
0.033743180452485
0.005133962509139
-0.010248715396029
0.000890162108615
0.033743180452485
0.005133962509139
-0.010248715396029
0.000890162108615
0.033743180452485
0.005133962509139
-0.010248715396029
0.000890162108615
0.033743180452485
0.005133962509139
-0.010248715396029
0.000890162108615
0.000000000000000
0.000000000000000
-0.000000000000000
0.000000000000000
-0.012063545308051
0.003436233094378
-0.012270449372690
-0.005610569670164
-0.012063545308051
0.003436233094378
-0.012270449372690
-0.005610569670164
-0.012063545308051
0.003436233094378
-0.012270449372690
-0.005610569670164
-0.012063545308051
0.003436233094378
-0.012270449372690
-0.005610569670164
-0.012063545308051
0.003436233094378
-0.012270449372690
-0.005610569670164
-0.012063545308051
0.003436233094378
-0.012270449372690
-0.005610569670164
-0.012063545308051
0.003436233094378
-0.012270449372690
-0.005610569670164
-0.000000000000000
0.000000000000000
-0.000000000000000
-0.000000000000000
-0.008948660294479
0.010191093329146
-0.020132427569715
-0.000285564464477
-0.008948660294479
0.010191093329146
-0.020132427569715
-0.000285564464477
-0.008948660294479
0.010191093329146
-0.020132427569715
-0.000285564464477
-0.008948660294479
0.010191093329146
-0.020132427569715
-0.000285564464477
-0.008948660294479
0.010191093329146
-0.020132427569715
-0.000285564464477
-0.008948660294479
0.010191093329146
-0.020132427569715
-0.000285564464477
-0.008948660294479
0.010191093329146
-0.020132427569715
-0.000285564464477
-0.000000000000000
0.000000000000000
-0.000000000000000
-0.000000000000000
0.009285632201380
0.014142663356275
-0.003645165785792
-0.022660708518646
0.009285632201380
0.014142663356275
-0.003645165785792
-0.022660708518646
0.009285632201380
0.014142663356275
-0.003645165785792
-0.022660708518646
0.009285632201380
0.014142663356275
-0.003645165785792
-0.022660708518646
0.009285632201380
0.014142663356275
-0.003645165785792
-0.022660708518646
0.009285632201380
0.014142663356275
-0.003645165785792
-0.022660708518646
0.009285632201380
0.014142663356275
-0.003645165785792
-0.022660708518646
0.000000000000000
0.000000000000000
-0.000000000000000
-0.000000000000000
0.033743180452485
0.005133962509139
-0.010248715396029
0.000890162108615
0.033743180452485
0.005133962509139
-0.010248715396029
0.000890162108615
0.033743180452485
0.005133962509139
-0.010248715396029
0.000890162108615
0.033743180452485
0.005133962509139
-0.010248715396029
0.000890162108615
0.033743180452485
0.005133962509139
-0.010248715396029
0.000890162108615
0.033743180452485
0.005133962509139
-0.010248715396029
0.000890162108615
0.033743180452485
0.005133962509139
-0.010248715396029
0.000890162108615
0.000000000000000
0.000000000000000
-0.000000000000000
0.000000000000000
-0.012063545308051
0.003436233094378
-0.012270449372690
-0.005610569670164
-0.012063545308051
0.003436233094378
-0.012270449372690
-0.005610569670164
-0.012063545308051
0.003436233094378
-0.012270449372690
-0.005610569670164
-0.012063545308051
0.003436233094378
-0.012270449372690
-0.005610569670164
-0.012063545308051
0.003436233094378
-0.012270449372690
-0.005610569670164
-0.012063545308051
0.003436233094378
-0.012270449372690
-0.005610569670164
-0.012063545308051
0.003436233094378
-0.012270449372690
-0.005610569670164
-0.000000000000000
0.000000000000000
-0.000000000000000
-0.000000000000000
-0.008948660294479
0.010191093329146
-0.020132427569715
-0.000285564464477
-0.008948660294479
0.010191093329146
-0.020132427569715
-0.000285564464477
-0.008948660294479
0.010191093329146
-0.020132427569715
-0.000285564464477
-0.008948660294479
0.010191093329146
-0.020132427569715
-0.000285564464477
-0.008948660294479
0.010191093329146
-0.020132427569715
-0.000285564464477
-0.008948660294479
0.010191093329146
-0.020132427569715
-0.000285564464477
-0.008948660294479
0.010191093329146
-0.020132427569715
-0.000285564464477
-0.000000000000000
0.000000000000000
-0.000000000000000
-0.000000000000000
0.009285632201380
0.014142663356275
-0.003645165785792
-0.022660708518646
0.009285632201380
0.014142663356275
-0.003645165785792
-0.022660708518646
0.009285632201380
0.014142663356275
-0.003645165785792
-0.022660708518646
0.009285632201380
0.014142663356275
-0.003645165785792
-0.022660708518646
0.009285632201380
0.014142663356275
-0.003645165785792
-0.022660708518646
0.009285632201380
0.014142663356275
-0.003645165785792
-0.022660708518646
0.009285632201380
0.014142663356275
-0.003645165785792
-0.022660708518646
0.000000000000000
0.000000000000000
-0.000000000000000
-0.000000000000000
0.033743180452485
0.005133962509139
-0.010248715396029
0.000890162108615
0.033743180452485
0.005133962509139
-0.010248715396029
0.000890162108615
0.033743180452485
0.005133962509139
-0.010248715396029
0.000890162108615
0.033743180452485
0.005133962509139
-0.010248715396029
0.000890162108615
0.033743180452485
0.005133962509139
-0.010248715396029
0.000890162108615
0.033743180452485
0.005133962509139
-0.010248715396029
0.000890162108615
0.033743180452485
0.005133962509139
-0.010248715396029
0.000890162108615
0.000000000000000
0.000000000000000
-0.000000000000000
0.000000000000000
-0.012063545308051
0.003436233094378
-0.012270449372690
-0.005610569670164
-0.012063545308051
0.003436233094378
-0.012270449372690
-0.005610569670164
-0.012063545308051
0.003436233094378
-0.012270449372690
-0.005610569670164
-0.012063545308051
0.003436233094378
-0.012270449372690
-0.005610569670164
-0.012063545308051
0.003436233094378
-0.012270449372690
-0.005610569670164
-0.012063545308051
0.003436233094378
-0.012270449372690
-0.005610569670164
-0.012063545308051
0.003436233094378
-0.012270449372690
-0.005610569670164
-0.000000000000000
0.000000000000000
-0.000000000000000
-0.000000000000000
-0.008948660294479
0.010191093329146
-0.020132427569715
-0.000285564464477
-0.008948660294479
0.010191093329146
-0.020132427569715
-0.000285564464477
-0.008948660294479
0.010191093329146
-0.020132427569715
-0.000285564464477
-0.008948660294479
0.010191093329146
-0.020132427569715
-0.000285564464477
-0.008948660294479
0.010191093329146
-0.020132427569715
-0.000285564464477
-0.008948660294479
0.010191093329146
-0.020132427569715
-0.000285564464477
-0.008948660294479
0.010191093329146
-0.020132427569715
-0.000285564464477
-0.000000000000000
0.000000000000000
-0.000000000000000
-0.000000000000000
0.009285632201380
0.014142663356275
-0.003645165785792
-0.022660708518646
0.009285632201380
0.014142663356275
-0.003645165785792
-0.022660708518646
0.009285632201380
0.014142663356275
-0.003645165785792
-0.022660708518646
0.009285632201380
0.014142663356275
-0.003645165785792
-0.022660708518646
0.009285632201380
0.014142663356275
-0.003645165785792
-0.022660708518646
0.009285632201380
0.014142663356275
-0.003645165785792
-0.022660708518646
0.009285632201380
0.014142663356275
-0.003645165785792
-0.022660708518646
0.000000000000000
0.000000000000000
-0.000000000000000
-0.000000000000000
0.033743180452485
0.005133962509139
-0.010248715396029
0.000890162108615
0.033743180452485
0.005133962509139
-0.010248715396029
0.000890162108615
0.033743180452485
0.005133962509139
-0.010248715396029
0.000890162108615
0.033743180452485
0.005133962509139
-0.010248715396029
0.000890162108615
0.033743180452485
0.005133962509139
-0.010248715396029
0.000890162108615
0.033743180452485
0.005133962509139
-0.010248715396029
0.000890162108615
0.033743180452485
0.005133962509139
-0.010248715396029
0.000890162108615
0.000000000000000
0.000000000000000
-0.000000000000000
0.000000000000000
-0.012063545308051
0.003436233094378
-0.012270449372690
-0.005610569670164
-0.012063545308051
0.003436233094378
-0.012270449372690
-0.005610569670164
-0.012063545308051
0.003436233094378
-0.012270449372690
-0.005610569670164
-0.012063545308051
0.003436233094378
-0.012270449372690
-0.005610569670164
-0.012063545308051
0.003436233094378
-0.012270449372690
-0.005610569670164
-0.012063545308051
0.003436233094378
-0.012270449372690
-0.005610569670164
-0.012063545308051
0.003436233094378
-0.012270449372690
-0.005610569670164
-0.000000000000000
0.000000000000000
-0.000000000000000
-0.000000000000000
-0.008948660294479
0.010191093329146
-0.020132427569715
-0.000285564464477
-0.008948660294479
0.010191093329146
-0.020132427569715
-0.000285564464477
-0.008948660294479
0.010191093329146
-0.020132427569715
-0.000285564464477
-0.008948660294479
0.010191093329146
-0.020132427569715
-0.000285564464477
-0.008948660294479
0.010191093329146
-0.020132427569715
-0.000285564464477
-0.008948660294479
0.010191093329146
-0.020132427569715
-0.000285564464477
-0.008948660294479
0.010191093329146
-0.020132427569715
-0.000285564464477
-0.000000000000000
0.000000000000000
-0.000000000000000
-0.000000000000000
0.009285632201380
0.014142663356275
-0.003645165785792
-0.022660708518646
0.009285632201380
0.014142663356275
-0.003645165785792
-0.022660708518646
0.009285632201380
0.014142663356275
-0.003645165785792
-0.022660708518646
0.009285632201380
0.014142663356275
-0.003645165785792
-0.022660708518646
0.009285632201380
0.014142663356275
-0.003645165785792
-0.022660708518646
0.009285632201380
0.014142663356275
-0.003645165785792
-0.022660708518646
0.009285632201380
0.014142663356275
-0.003645165785792
-0.022660708518646
0.000000000000000
0.000000000000000
-0.000000000000000
-0.000000000000000
0.033743180452485
0.005133962509139
-0.010248715396029
0.000890162108615
0.033743180452485
0.005133962509139
-0.010248715396029
0.000890162108615
0.033743180452485
0.005133962509139
-0.010248715396029
0.000890162108615
0.033743180452485
0.005133962509139
-0.010248715396029
0.000890162108615
0.033743180452485
0.005133962509139
-0.010248715396029
0.000890162108615
0.033743180452485
0.005133962509139
-0.010248715396029
0.000890162108615
0.033743180452485
0.005133962509139
-0.010248715396029
0.000890162108615
0.000000000000000
0.000000000000000
-0.000000000000000
0.000000000000000
-0.012063545308051
0.003436233094378
-0.012270449372690
-0.005610569670164
-0.012063545308051
0.003436233094378
-0.012270449372690
-0.005610569670164
-0.012063545308051
0.003436233094378
-0.012270449372690
-0.005610569670164
-0.012063545308051
0.003436233094378
-0.012270449372690
-0.005610569670164
-0.012063545308051
0.003436233094378
-0.012270449372690
-0.005610569670164
-0.012063545308051
0.003436233094378
-0.012270449372690
-0.005610569670164
-0.012063545308051
0.003436233094378
-0.012270449372690
-0.005610569670164
-0.000000000000000
0.000000000000000
-0.000000000000000
-0.000000000000000
-0.008948660294479
0.010191093329146
-0.020132427569715
-0.000285564464477
-0.008948660294479
0.010191093329146
-0.020132427569715
-0.000285564464477
-0.008948660294479
0.010191093329146
-0.020132427569715
-0.000285564464477
-0.008948660294479
0.010191093329146
-0.020132427569715
-0.000285564464477
-0.008948660294479
0.010191093329146
-0.020132427569715
-0.000285564464477
-0.008948660294479
0.010191093329146
-0.020132427569715
-0.000285564464477
-0.008948660294479
0.010191093329146
-0.020132427569715
-0.000285564464477
-0.000000000000000
0.000000000000000
-0.000000000000000
-0.000000000000000
0.009285632201380
0.014142663356275
-0.003645165785792
-0.022660708518646
0.009285632201380
0.014142663356275
-0.003645165785792
-0.022660708518646
0.009285632201380
0.014142663356275
-0.003645165785792
-0.022660708518646
0.009285632201380
0.014142663356275
-0.003645165785792
-0.022660708518646
0.009285632201380
0.014142663356275
-0.003645165785792
-0.022660708518646
0.009285632201380
0.014142663356275
-0.003645165785792
-0.022660708518646
0.009285632201380
0.014142663356275
-0.003645165785792
-0.022660708518646
0.000000000000000
0.000000000000000
-0.000000000000000
-0.000000000000000
0.033743180452485
0.005133962509139
-0.010248715396029
0.000890162108615
0.033743180452485
0.005133962509139
-0.010248715396029
0.000890162108615
0.033743180452485
0.005133962509139
-0.010248715396029
0.000890162108615
0.033743180452485
0.005133962509139
-0.010248715396029
0.000890162108615
0.033743180452485
0.005133962509139
-0.010248715396029
0.000890162108615
0.033743180452485
0.005133962509139
-0.010248715396029
0.000890162108615
0.033743180452485
0.005133962509139
-0.010248715396029
0.000890162108615
0.000000000000000
0.000000000000000
-0.000000000000000
0.000000000000000
-0.012063545308051
0.003436233094378
-0.012270449372690
-0.005610569670164
-0.012063545308051
0.003436233094378
-0.012270449372690
-0.005610569670164
-0.012063545308051
0.003436233094378
-0.012270449372690
-0.005610569670164
-0.012063545308051
0.003436233094378
-0.012270449372690
-0.005610569670164
-0.012063545308051
0.003436233094378
-0.012270449372690
-0.005610569670164
-0.012063545308051
0.003436233094378
-0.012270449372690
-0.005610569670164
-0.012063545308051
0.003436233094378
-0.012270449372690
-0.005610569670164
-0.000000000000000
0.000000000000000
-0.000000000000000
-0.000000000000000
-0.008948660294479
0.010191093329146
-0.020132427569715
-0.000285564464477
-0.008948660294479
0.010191093329146
-0.020132427569715
-0.000285564464477
-0.008948660294479
0.010191093329146
-0.020132427569715
-0.000285564464477
-0.008948660294479
0.010191093329146
-0.020132427569715
-0.000285564464477
-0.008948660294479
0.010191093329146
-0.020132427569715
-0.000285564464477
-0.008948660294479
0.010191093329146
-0.020132427569715
-0.000285564464477
-0.008948660294479
0.010191093329146
-0.020132427569715
-0.000285564464477
-0.000000000000000
0.000000000000000
-0.000000000000000
-0.000000000000000
0.009285632201380
0.014142663356275
-0.003645165785792
-0.022660708518646
0.009285632201380
0.014142663356275
-0.003645165785792
-0.022660708518646
0.009285632201380
0.014142663356275
-0.003645165785792
-0.022660708518646
0.009285632201380
0.014142663356275
-0.003645165785792
-0.022660708518646
0.009285632201380
0.014142663356275
-0.003645165785792
-0.022660708518646
0.009285632201380
0.014142663356275
-0.003645165785792
-0.022660708518646
0.009285632201380
0.014142663356275
-0.003645165785792
-0.022660708518646
0.000000000000000
0.000000000000000
-0.000000000000000
-0.000000000000000
-0.031321373840086
-0.024420719506215
0.010878501459217
0.008631298818401
-0.031321373840086
-0.024420719506215
0.010878501459217
0.008631298818401
-0.031321373840086
-0.024420719506215
0.010878501459217
0.008631298818401
-0.031321373840086
-0.024420719506215
0.010878501459217
0.008631298818401
-0.031321373840086
-0.024420719506215
0.010878501459217
0.008631298818401
-0.031321373840086
-0.024420719506215
0.010878501459217
0.008631298818401
-0.031321373840086
-0.024420719506215
0.010878501459217
0.008631298818401
-0.000000000000000
-0.000000000000000
0.000000000000000
0.000000000000000
-0.011190396806150
0.029786880929238
0.008616021628528
0.017881662522845
-0.011190396806150
0.029786880929238
0.008616021628528
0.017881662522845
-0.011190396806150
0.029786880929238
0.008616021628528
0.017881662522845
-0.011190396806150
0.029786880929238
0.008616021628528
0.017881662522845
-0.011190396806150
0.029786880929238
0.008616021628528
0.017881662522845
-0.011190396806150
0.029786880929238
0.008616021628528
0.017881662522845
-0.011190396806150
0.029786880929238
0.008616021628528
0.017881662522845
-0.000000000000000
0.000000000000000
0.000000000000000
0.000000000000000
0.033934222246874
-0.006797273635159
-0.011566344248757
0.011528019780264
0.033934222246874
-0.006797273635159
-0.011566344248757
0.011528019780264
0.033934222246874
-0.006797273635159
-0.011566344248757
0.011528019780264
0.033934222246874
-0.006797273635159
-0.011566344248757
0.011528019780264
0.033934222246874
-0.006797273635159
-0.011566344248757
0.011528019780264
0.033934222246874
-0.006797273635159
-0.011566344248757
0.011528019780264
0.033934222246874
-0.006797273635159
-0.011566344248757
0.011528019780264
0.000000000000000
-0.000000000000000
-0.000000000000000
0.000000000000000
0.003426255830466
-0.012765063068146
-0.002020800052905
-0.027722560941321
0.003426255830466
-0.012765063068146
-0.002020800052905
-0.027722560941321
0.003426255830466
-0.012765063068146
-0.002020800052905
-0.027722560941321
0.003426255830466
-0.012765063068146
-0.002020800052905
-0.027722560941321
0.003426255830466
-0.012765063068146
-0.002020800052905
-0.027722560941321
0.003426255830466
-0.012765063068146
-0.002020800052905
-0.027722560941321
0.003426255830466
-0.012765063068146
-0.002020800052905
-0.027722560941321
0.000000000000000
-0.000000000000000
-0.000000000000000
-0.000000000000000
-0.031321373840086
-0.024420719506215
0.010878501459217
0.008631298818401
-0.031321373840086
-0.024420719506215
0.010878501459217
0.008631298818401
-0.031321373840086
-0.024420719506215
0.010878501459217
0.008631298818401
-0.031321373840086
-0.024420719506215
0.010878501459217
0.008631298818401
-0.031321373840086
-0.024420719506215
0.010878501459217
0.008631298818401
-0.031321373840086
-0.024420719506215
0.010878501459217
0.008631298818401
-0.031321373840086
-0.024420719506215
0.010878501459217
0.008631298818401
-0.000000000000000
-0.000000000000000
0.000000000000000
0.000000000000000
-0.011190396806150
0.029786880929238
0.008616021628528
0.017881662522845
-0.011190396806150
0.029786880929238
0.008616021628528
0.017881662522845
-0.011190396806150
0.029786880929238
0.008616021628528
0.017881662522845
-0.011190396806150
0.029786880929238
0.008616021628528
0.017881662522845
-0.011190396806150
0.029786880929238
0.008616021628528
0.017881662522845
-0.011190396806150
0.029786880929238
0.008616021628528
0.017881662522845
-0.011190396806150
0.029786880929238
0.008616021628528
0.017881662522845
-0.000000000000000
0.000000000000000
0.000000000000000
0.000000000000000
0.033934222246874
-0.006797273635159
-0.011566344248757
0.011528019780264
0.033934222246874
-0.006797273635159
-0.011566344248757
0.011528019780264
0.033934222246874
-0.006797273635159
-0.011566344248757
0.011528019780264
0.033934222246874
-0.006797273635159
-0.011566344248757
0.011528019780264
0.033934222246874
-0.006797273635159
-0.011566344248757
0.011528019780264
0.033934222246874
-0.006797273635159
-0.011566344248757
0.011528019780264
0.033934222246874
-0.006797273635159
-0.011566344248757
0.011528019780264
0.000000000000000
-0.000000000000000
-0.000000000000000
0.000000000000000
0.003426255830466
-0.012765063068146
-0.002020800052905
-0.027722560941321
0.003426255830466
-0.012765063068146
-0.002020800052905
-0.027722560941321
0.003426255830466
-0.012765063068146
-0.002020800052905
-0.027722560941321
0.003426255830466
-0.012765063068146
-0.002020800052905
-0.027722560941321
0.003426255830466
-0.012765063068146
-0.002020800052905
-0.027722560941321
0.003426255830466
-0.012765063068146
-0.002020800052905
-0.027722560941321
0.003426255830466
-0.012765063068146
-0.002020800052905
-0.027722560941321
0.000000000000000
-0.000000000000000
-0.000000000000000
-0.000000000000000
-0.031321373840086
-0.024420719506215
0.010878501459217
0.008631298818401
-0.031321373840086
-0.024420719506215
0.010878501459217
0.008631298818401
-0.031321373840086
-0.024420719506215
0.010878501459217
0.008631298818401
-0.031321373840086
-0.024420719506215
0.010878501459217
0.008631298818401
-0.031321373840086
-0.024420719506215
0.010878501459217
0.008631298818401
-0.031321373840086
-0.024420719506215
0.010878501459217
0.008631298818401
-0.031321373840086
-0.024420719506215
0.010878501459217
0.008631298818401
-0.000000000000000
-0.000000000000000
0.000000000000000
0.000000000000000
-0.011190396806150
0.029786880929238
0.008616021628528
0.017881662522845
-0.011190396806150
0.029786880929238
0.008616021628528
0.017881662522845
-0.011190396806150
0.029786880929238
0.008616021628528
0.017881662522845
-0.011190396806150
0.029786880929238
0.008616021628528
0.017881662522845
-0.011190396806150
0.029786880929238
0.008616021628528
0.017881662522845
-0.011190396806150
0.029786880929238
0.008616021628528
0.017881662522845
-0.011190396806150
0.029786880929238
0.008616021628528
0.017881662522845
-0.000000000000000
0.000000000000000
0.000000000000000
0.000000000000000
0.033934222246874
-0.006797273635159
-0.011566344248757
0.011528019780264
0.033934222246874
-0.006797273635159
-0.011566344248757
0.011528019780264
0.033934222246874
-0.006797273635159
-0.011566344248757
0.011528019780264
0.033934222246874
-0.006797273635159
-0.011566344248757
0.011528019780264
0.033934222246874
-0.006797273635159
-0.011566344248757
0.011528019780264
0.033934222246874
-0.006797273635159
-0.011566344248757
0.011528019780264
0.033934222246874
-0.006797273635159
-0.011566344248757
0.011528019780264
0.000000000000000
-0.000000000000000
-0.000000000000000
0.000000000000000
0.003426255830466
-0.012765063068146
-0.002020800052905
-0.027722560941321
0.003426255830466
-0.012765063068146
-0.002020800052905
-0.027722560941321
0.003426255830466
-0.012765063068146
-0.002020800052905
-0.027722560941321
0.003426255830466
-0.012765063068146
-0.002020800052905
-0.027722560941321
0.003426255830466
-0.012765063068146
-0.002020800052905
-0.027722560941321
0.003426255830466
-0.012765063068146
-0.002020800052905
-0.027722560941321
0.003426255830466
-0.012765063068146
-0.002020800052905
-0.027722560941321
0.000000000000000
-0.000000000000000
-0.000000000000000
-0.000000000000000
-0.031321373840086
-0.024420719506215
0.010878501459217
0.008631298818401
-0.031321373840086
-0.024420719506215
0.010878501459217
0.008631298818401
-0.031321373840086
-0.024420719506215
0.010878501459217
0.008631298818401
-0.031321373840086
-0.024420719506215
0.010878501459217
0.008631298818401
-0.031321373840086
-0.024420719506215
0.010878501459217
0.008631298818401
-0.031321373840086
-0.024420719506215
0.010878501459217
0.008631298818401
-0.031321373840086
-0.024420719506215
0.010878501459217
0.008631298818401
-0.000000000000000
-0.000000000000000
0.000000000000000
0.000000000000000
-0.011190396806150
0.029786880929238
0.008616021628528
0.017881662522845
-0.011190396806150
0.029786880929238
0.008616021628528
0.017881662522845
-0.011190396806150
0.029786880929238
0.008616021628528
0.017881662522845
-0.011190396806150
0.029786880929238
0.008616021628528
0.017881662522845
-0.011190396806150
0.029786880929238
0.008616021628528
0.017881662522845
-0.011190396806150
0.029786880929238
0.008616021628528
0.017881662522845
-0.011190396806150
0.029786880929238
0.008616021628528
0.017881662522845
-0.000000000000000
0.000000000000000
0.000000000000000
0.000000000000000
0.033934222246874
-0.006797273635159
-0.011566344248757
0.011528019780264
0.033934222246874
-0.006797273635159
-0.011566344248757
0.011528019780264
0.033934222246874
-0.006797273635159
-0.011566344248757
0.011528019780264
0.033934222246874
-0.006797273635159
-0.011566344248757
0.011528019780264
0.033934222246874
-0.006797273635159
-0.011566344248757
0.011528019780264
0.033934222246874
-0.006797273635159
-0.011566344248757
0.011528019780264
0.033934222246874
-0.006797273635159
-0.011566344248757
0.011528019780264
0.000000000000000
-0.000000000000000
-0.000000000000000
0.000000000000000
0.003426255830466
-0.012765063068146
-0.002020800052905
-0.027722560941321
0.003426255830466
-0.012765063068146
-0.002020800052905
-0.027722560941321
0.003426255830466
-0.012765063068146
-0.002020800052905
-0.027722560941321
0.003426255830466
-0.012765063068146
-0.002020800052905
-0.027722560941321
0.003426255830466
-0.012765063068146
-0.002020800052905
-0.027722560941321
0.003426255830466
-0.012765063068146
-0.002020800052905
-0.027722560941321
0.003426255830466
-0.012765063068146
-0.002020800052905
-0.027722560941321
0.000000000000000
-0.000000000000000
-0.000000000000000
-0.000000000000000
-0.031321373840086
-0.024420719506215
0.010878501459217
0.008631298818401
-0.031321373840086
-0.024420719506215
0.010878501459217
0.008631298818401
-0.031321373840086
-0.024420719506215
0.010878501459217
0.008631298818401
-0.031321373840086
-0.024420719506215
0.010878501459217
0.008631298818401
-0.031321373840086
-0.024420719506215
0.010878501459217
0.008631298818401
-0.031321373840086
-0.024420719506215
0.010878501459217
0.008631298818401
-0.031321373840086
-0.024420719506215
0.010878501459217
0.008631298818401
-0.000000000000000
-0.000000000000000
0.000000000000000
0.000000000000000
-0.011190396806150
0.029786880929238
0.008616021628528
0.017881662522845
-0.011190396806150
0.029786880929238
0.008616021628528
0.017881662522845
-0.011190396806150
0.029786880929238
0.008616021628528
0.017881662522845
-0.011190396806150
0.029786880929238
0.008616021628528
0.017881662522845
-0.011190396806150
0.029786880929238
0.008616021628528
0.017881662522845
-0.011190396806150
0.029786880929238
0.008616021628528
0.017881662522845
-0.011190396806150
0.029786880929238
0.008616021628528
0.017881662522845
-0.000000000000000
0.000000000000000
0.000000000000000
0.000000000000000
0.033934222246874
-0.006797273635159
-0.011566344248757
0.011528019780264
0.033934222246874
-0.006797273635159
-0.011566344248757
0.011528019780264
0.033934222246874
-0.006797273635159
-0.011566344248757
0.011528019780264
0.033934222246874
-0.006797273635159
-0.011566344248757
0.011528019780264
0.033934222246874
-0.006797273635159
-0.011566344248757
0.011528019780264
0.033934222246874
-0.006797273635159
-0.011566344248757
0.011528019780264
0.033934222246874
-0.006797273635159
-0.011566344248757
0.011528019780264
0.000000000000000
-0.000000000000000
-0.000000000000000
0.000000000000000
0.003426255830466
-0.012765063068146
-0.002020800052905
-0.027722560941321
0.003426255830466
-0.012765063068146
-0.002020800052905
-0.027722560941321
0.003426255830466
-0.012765063068146
-0.002020800052905
-0.027722560941321
0.003426255830466
-0.012765063068146
-0.002020800052905
-0.027722560941321
0.003426255830466
-0.012765063068146
-0.002020800052905
-0.027722560941321
0.003426255830466
-0.012765063068146
-0.002020800052905
-0.027722560941321
0.003426255830466
-0.012765063068146
-0.002020800052905
-0.027722560941321
0.000000000000000
-0.000000000000000
-0.000000000000000
-0.000000000000000
-0.031321373840086
-0.024420719506215
0.010878501459217
0.008631298818401
-0.031321373840086
-0.024420719506215
0.010878501459217
0.008631298818401
-0.031321373840086
-0.024420719506215
0.010878501459217
0.008631298818401
-0.031321373840086
-0.024420719506215
0.010878501459217
0.008631298818401
-0.031321373840086
-0.024420719506215
0.010878501459217
0.008631298818401
-0.031321373840086
-0.024420719506215
0.010878501459217
0.008631298818401
-0.031321373840086
-0.024420719506215
0.010878501459217
0.008631298818401
-0.000000000000000
-0.000000000000000
0.000000000000000
0.000000000000000
-0.011190396806150
0.029786880929238
0.008616021628528
0.017881662522845
-0.011190396806150
0.029786880929238
0.008616021628528
0.017881662522845
-0.011190396806150
0.029786880929238
0.008616021628528
0.017881662522845
-0.011190396806150
0.029786880929238
0.008616021628528
0.017881662522845
-0.011190396806150
0.029786880929238
0.008616021628528
0.017881662522845
-0.011190396806150
0.029786880929238
0.008616021628528
0.017881662522845
-0.011190396806150
0.029786880929238
0.008616021628528
0.017881662522845
-0.000000000000000
0.000000000000000
0.000000000000000
0.000000000000000
0.033934222246874
-0.006797273635159
-0.011566344248757
0.011528019780264
0.033934222246874
-0.006797273635159
-0.011566344248757
0.011528019780264
0.033934222246874
-0.006797273635159
-0.011566344248757
0.011528019780264
0.033934222246874
-0.006797273635159
-0.011566344248757
0.011528019780264
0.033934222246874
-0.006797273635159
-0.011566344248757
0.011528019780264
0.033934222246874
-0.006797273635159
-0.011566344248757
0.011528019780264
0.033934222246874
-0.006797273635159
-0.011566344248757
0.011528019780264
0.000000000000000
-0.000000000000000
-0.000000000000000
0.000000000000000
0.003426255830466
-0.012765063068146
-0.002020800052905
-0.027722560941321
0.003426255830466
-0.012765063068146
-0.002020800052905
-0.027722560941321
0.003426255830466
-0.012765063068146
-0.002020800052905
-0.027722560941321
0.003426255830466
-0.012765063068146
-0.002020800052905
-0.027722560941321
0.003426255830466
-0.012765063068146
-0.002020800052905
-0.027722560941321
0.003426255830466
-0.012765063068146
-0.002020800052905
-0.027722560941321
0.003426255830466
-0.012765063068146
-0.002020800052905
-0.027722560941321
0.000000000000000
-0.000000000000000
-0.000000000000000
-0.000000000000000
-0.031321373840086
-0.024420719506215
0.010878501459217
0.008631298818401
-0.031321373840086
-0.024420719506215
0.010878501459217
0.008631298818401
-0.031321373840086
-0.024420719506215
0.010878501459217
0.008631298818401
-0.031321373840086
-0.024420719506215
0.010878501459217
0.008631298818401
-0.031321373840086
-0.024420719506215
0.010878501459217
0.008631298818401
-0.031321373840086
-0.024420719506215
0.010878501459217
0.008631298818401
-0.031321373840086
-0.024420719506215
0.010878501459217
0.008631298818401
-0.000000000000000
-0.000000000000000
0.000000000000000
0.000000000000000
-0.011190396806150
0.029786880929238
0.008616021628528
0.017881662522845
-0.011190396806150
0.029786880929238
0.008616021628528
0.017881662522845
-0.011190396806150
0.029786880929238
0.008616021628528
0.017881662522845
-0.011190396806150
0.029786880929238
0.008616021628528
0.017881662522845
-0.011190396806150
0.029786880929238
0.008616021628528
0.017881662522845
-0.011190396806150
0.029786880929238
0.008616021628528
0.017881662522845
-0.011190396806150
0.029786880929238
0.008616021628528
0.017881662522845
-0.000000000000000
0.000000000000000
0.000000000000000
0.000000000000000
0.033934222246874
-0.006797273635159
-0.011566344248757
0.011528019780264
0.033934222246874
-0.006797273635159
-0.011566344248757
0.011528019780264
0.033934222246874
-0.006797273635159
-0.011566344248757
0.011528019780264
0.033934222246874
-0.006797273635159
-0.011566344248757
0.011528019780264
0.033934222246874
-0.006797273635159
-0.011566344248757
0.011528019780264
0.033934222246874
-0.006797273635159
-0.011566344248757
0.011528019780264
0.033934222246874
-0.006797273635159
-0.011566344248757
0.011528019780264
0.000000000000000
-0.000000000000000
-0.000000000000000
0.000000000000000
0.003426255830466
-0.012765063068146
-0.002020800052905
-0.027722560941321
0.003426255830466
-0.012765063068146
-0.002020800052905
-0.027722560941321
0.003426255830466
-0.012765063068146
-0.002020800052905
-0.027722560941321
0.003426255830466
-0.012765063068146
-0.002020800052905
-0.027722560941321
0.003426255830466
-0.012765063068146
-0.002020800052905
-0.027722560941321
0.003426255830466
-0.012765063068146
-0.002020800052905
-0.027722560941321
0.003426255830466
-0.012765063068146
-0.002020800052905
-0.027722560941321
0.000000000000000
-0.000000000000000
-0.000000000000000
-0.000000000000000
-0.031321373840086
-0.024420719506215
0.010878501459217
0.008631298818401
-0.031321373840086
-0.024420719506215
0.010878501459217
0.008631298818401
-0.031321373840086
-0.024420719506215
0.010878501459217
0.008631298818401
-0.031321373840086
-0.024420719506215
0.010878501459217
0.008631298818401
-0.031321373840086
-0.024420719506215
0.010878501459217
0.008631298818401
-0.031321373840086
-0.024420719506215
0.010878501459217
0.008631298818401
-0.031321373840086
-0.024420719506215
0.010878501459217
0.008631298818401
-0.000000000000000
-0.000000000000000
0.000000000000000
0.000000000000000
-0.011190396806150
0.029786880929238
0.008616021628528
0.017881662522845
-0.011190396806150
0.029786880929238
0.008616021628528
0.017881662522845
-0.011190396806150
0.029786880929238
0.008616021628528
0.017881662522845
-0.011190396806150
0.029786880929238
0.008616021628528
0.017881662522845
-0.011190396806150
0.029786880929238
0.008616021628528
0.017881662522845
-0.011190396806150
0.029786880929238
0.008616021628528
0.017881662522845
-0.011190396806150
0.029786880929238
0.008616021628528
0.017881662522845
-0.000000000000000
0.000000000000000
0.000000000000000
0.000000000000000
0.033934222246874
-0.006797273635159
-0.011566344248757
0.011528019780264
0.033934222246874
-0.006797273635159
-0.011566344248757
0.011528019780264
0.033934222246874
-0.006797273635159
-0.011566344248757
0.011528019780264
0.033934222246874
-0.006797273635159
-0.011566344248757
0.011528019780264
0.033934222246874
-0.006797273635159
-0.011566344248757
0.011528019780264
0.033934222246874
-0.006797273635159
-0.011566344248757
0.011528019780264
0.033934222246874
-0.006797273635159
-0.011566344248757
0.011528019780264
0.000000000000000
-0.000000000000000
-0.000000000000000
0.000000000000000
0.003426255830466
-0.012765063068146
-0.002020800052905
-0.027722560941321
0.003426255830466
-0.012765063068146
-0.002020800052905
-0.027722560941321
0.003426255830466
-0.012765063068146
-0.002020800052905
-0.027722560941321
0.003426255830466
-0.012765063068146
-0.002020800052905
-0.027722560941321
0.003426255830466
-0.012765063068146
-0.002020800052905
-0.027722560941321
0.003426255830466
-0.012765063068146
-0.002020800052905
-0.027722560941321
0.003426255830466
-0.012765063068146
-0.002020800052905
-0.027722560941321
0.000000000000000
-0.000000000000000
-0.000000000000000
-0.000000000000000
-0.006812327684022
0.009862304016806
0.015898796972954
-0.021697291446696
-0.006812327684022
0.009862304016806
0.015898796972954
-0.021697291446696
-0.006812327684022
0.009862304016806
0.015898796972954
-0.021697291446696
-0.006812327684022
0.009862304016806
0.015898796972954
-0.021697291446696
-0.006812327684022
0.009862304016806
0.015898796972954
-0.021697291446696
-0.006812327684022
0.009862304016806
0.015898796972954
-0.021697291446696
-0.006812327684022
0.009862304016806
0.015898796972954
-0.021697291446696
-0.000000000000000
0.000000000000000
0.000000000000000
-0.000000000000000
-0.013820063138358
0.017426938334335
0.014855663222889
-0.020171126477119
-0.013820063138358
0.017426938334335
0.014855663222889
-0.020171126477119
-0.013820063138358
0.017426938334335
0.014855663222889
-0.020171126477119
-0.013820063138358
0.017426938334335
0.014855663222889
-0.020171126477119
-0.013820063138358
0.017426938334335
0.014855663222889
-0.020171126477119
-0.013820063138358
0.017426938334335
0.014855663222889
-0.020171126477119
-0.013820063138358
0.017426938334335
0.014855663222889
-0.020171126477119
-0.000000000000000
0.000000000000000
0.000000000000000
-0.000000000000000
0.005641714006148
-0.032894757041274
0.010693235979102
-0.010267012741757
0.005641714006148
-0.032894757041274
0.010693235979102
-0.010267012741757
0.005641714006148
-0.032894757041274
0.010693235979102
-0.010267012741757
0.005641714006148
-0.032894757041274
0.010693235979102
-0.010267012741757
0.005641714006148
-0.032894757041274
0.010693235979102
-0.010267012741757
0.005641714006148
-0.032894757041274
0.010693235979102
-0.010267012741757
0.005641714006148
-0.032894757041274
0.010693235979102
-0.010267012741757
0.000000000000000
-0.000000000000000
0.000000000000000
-0.000000000000000
0.032423637301399
-0.052397254763692
0.014328628064888
-0.017546725210174
0.032423637301399
-0.052397254763692
0.014328628064888
-0.017546725210174
0.032423637301399
-0.052397254763692
0.014328628064888
-0.017546725210174
0.032423637301399
-0.052397254763692
0.014328628064888
-0.017546725210174
0.032423637301399
-0.052397254763692
0.014328628064888
-0.017546725210174
0.032423637301399
-0.052397254763692
0.014328628064888
-0.017546725210174
0.032423637301399
-0.052397254763692
0.014328628064888
-0.017546725210174
0.000000000000000
-0.000000000000000
0.000000000000000
-0.000000000000000
-0.006812327684022
0.009862304016806
0.015898796972954
-0.021697291446696
-0.006812327684022
0.009862304016806
0.015898796972954
-0.021697291446696
-0.006812327684022
0.009862304016806
0.015898796972954
-0.021697291446696
-0.006812327684022
0.009862304016806
0.015898796972954
-0.021697291446696
-0.006812327684022
0.009862304016806
0.015898796972954
-0.021697291446696
-0.006812327684022
0.009862304016806
0.015898796972954
-0.021697291446696
-0.006812327684022
0.009862304016806
0.015898796972954
-0.021697291446696
-0.000000000000000
0.000000000000000
0.000000000000000
-0.000000000000000
-0.013820063138358
0.017426938334335
0.014855663222889
-0.020171126477119
-0.013820063138358
0.017426938334335
0.014855663222889
-0.020171126477119
-0.013820063138358
0.017426938334335
0.014855663222889
-0.020171126477119
-0.013820063138358
0.017426938334335
0.014855663222889
-0.020171126477119
-0.013820063138358
0.017426938334335
0.014855663222889
-0.020171126477119
-0.013820063138358
0.017426938334335
0.014855663222889
-0.020171126477119
-0.013820063138358
0.017426938334335
0.014855663222889
-0.020171126477119
-0.000000000000000
0.000000000000000
0.000000000000000
-0.000000000000000
0.005641714006148
-0.032894757041274
0.010693235979102
-0.010267012741757
0.005641714006148
-0.032894757041274
0.010693235979102
-0.010267012741757
0.005641714006148
-0.032894757041274
0.010693235979102
-0.010267012741757
0.005641714006148
-0.032894757041274
0.010693235979102
-0.010267012741757
0.005641714006148
-0.032894757041274
0.010693235979102
-0.010267012741757
0.005641714006148
-0.032894757041274
0.010693235979102
-0.010267012741757
0.005641714006148
-0.032894757041274
0.010693235979102
-0.010267012741757
0.000000000000000
-0.000000000000000
0.000000000000000
-0.000000000000000
0.032423637301399
-0.052397254763692
0.014328628064888
-0.017546725210174
0.032423637301399
-0.052397254763692
0.014328628064888
-0.017546725210174
0.032423637301399
-0.052397254763692
0.014328628064888
-0.017546725210174
0.032423637301399
-0.052397254763692
0.014328628064888
-0.017546725210174
0.032423637301399
-0.052397254763692
0.014328628064888
-0.017546725210174
0.032423637301399
-0.052397254763692
0.014328628064888
-0.017546725210174
0.032423637301399
-0.052397254763692
0.014328628064888
-0.017546725210174
0.000000000000000
-0.000000000000000
0.000000000000000
-0.000000000000000
-0.006812327684022
0.009862304016806
0.015898796972954
-0.021697291446696
-0.006812327684022
0.009862304016806
0.015898796972954
-0.021697291446696
-0.006812327684022
0.009862304016806
0.015898796972954
-0.021697291446696
