-0.000000000000000
-0.000000000000000
-0.000000000000000
-0.000000000000000
-0.002090182327714
-0.260963046509207
-0.004355046103902
-0.048314162475895
-0.002090182327714
-0.260963046509207
-0.004355046103902
-0.048314162475895
-0.002090182327714
-0.260963046509207
-0.004355046103902
-0.048314162475895
-0.002090182327714
-0.260963046509207
-0.004355046103902
-0.048314162475895
-0.002090182327714
-0.260963046509207
-0.004355046103902
-0.048314162475895
-0.002090182327714
-0.260963046509207
-0.004355046103902
-0.048314162475895
-0.002090182327714
-0.260963046509207
-0.004355046103902
-0.048314162475895
0.000000000000000
-0.000000000000000
-0.000000000000000
-0.000000000000000
0.079054139770121
-0.007226320106717
-0.125236977921363
-0.299363358020908
0.079054139770121
-0.007226320106717
-0.125236977921363
-0.299363358020908
0.079054139770121
-0.007226320106717
-0.125236977921363
-0.299363358020908
0.079054139770121
-0.007226320106717
-0.125236977921363
-0.299363358020908
0.079054139770121
-0.007226320106717
-0.125236977921363
-0.299363358020908
0.079054139770121
-0.007226320106717
-0.125236977921363
-0.299363358020908
0.079054139770121
-0.007226320106717
-0.125236977921363
-0.299363358020908
-0.000000000000000
0.000000000000000
0.000000000000000
0.000000000000000
-0.498904559894609
0.061926090277630
0.165267523407155
0.095482766299535
-0.498904559894609
0.061926090277630
0.165267523407155
0.095482766299535
-0.498904559894609
0.061926090277630
0.165267523407155
0.095482766299535
-0.498904559894609
0.061926090277630
0.165267523407155
0.095482766299535
-0.498904559894609
0.061926090277630
0.165267523407155
0.095482766299535
-0.498904559894609
0.061926090277630
0.165267523407155
0.095482766299535
-0.498904559894609
0.061926090277630
0.165267523407155
0.095482766299535
-0.000000000000000
-0.000000000000000
-0.000000000000000
0.000000000000000
-0.100284706865109
-0.025428400796775
-0.001869222894024
0.152842623803928
-0.100284706865109
-0.025428400796775
-0.001869222894024
0.152842623803928
-0.100284706865109
-0.025428400796775
-0.001869222894024
0.152842623803928
-0.100284706865109
-0.025428400796775
-0.001869222894024
0.152842623803928
-0.100284706865109
-0.025428400796775
-0.001869222894024
0.152842623803928
-0.100284706865109
-0.025428400796775
-0.001869222894024
0.152842623803928
-0.100284706865109
-0.025428400796775
-0.001869222894024
0.152842623803928
-0.000000000000000
-0.000000000000000
-0.000000000000000
-0.000000000000000
-0.002090182327714
-0.260963046509207
-0.004355046103902
-0.048314162475895
-0.002090182327714
-0.260963046509207
-0.004355046103902
-0.048314162475895
-0.002090182327714
-0.260963046509207
-0.004355046103902
-0.048314162475895
-0.002090182327714
-0.260963046509207
-0.004355046103902
-0.048314162475895
-0.002090182327714
-0.260963046509207
-0.004355046103902
-0.048314162475895
-0.002090182327714
-0.260963046509207
-0.004355046103902
-0.048314162475895
-0.002090182327714
-0.260963046509207
-0.004355046103902
-0.048314162475895
0.000000000000000
-0.000000000000000
-0.000000000000000
-0.000000000000000
0.079054139770121
-0.007226320106717
-0.125236977921363
-0.299363358020908
0.079054139770121
-0.007226320106717
-0.125236977921363
-0.299363358020908
0.079054139770121
-0.007226320106717
-0.125236977921363
-0.299363358020908
0.079054139770121
-0.007226320106717
-0.125236977921363
-0.299363358020908
0.079054139770121
-0.007226320106717
-0.125236977921363
-0.299363358020908
0.079054139770121
-0.007226320106717
-0.125236977921363
-0.299363358020908
0.079054139770121
-0.007226320106717
-0.125236977921363
-0.299363358020908
-0.000000000000000
0.000000000000000
0.000000000000000
0.000000000000000
-0.498904559894609
0.061926090277630
0.165267523407155
0.095482766299535
-0.498904559894609
0.061926090277630
0.165267523407155
0.095482766299535
-0.498904559894609
0.061926090277630
0.165267523407155
0.095482766299535
-0.498904559894609
0.061926090277630
0.165267523407155
0.095482766299535
-0.498904559894609
0.061926090277630
0.165267523407155
0.095482766299535
-0.498904559894609
0.061926090277630
0.165267523407155
0.095482766299535
-0.498904559894609
0.061926090277630
0.165267523407155
0.095482766299535
-0.000000000000000
-0.000000000000000
-0.000000000000000
0.000000000000000
-0.100284706865109
-0.025428400796775
-0.001869222894024
0.152842623803928
-0.100284706865109
-0.025428400796775
-0.001869222894024
0.152842623803928
-0.100284706865109
-0.025428400796775
-0.001869222894024
0.152842623803928
-0.100284706865109
-0.025428400796775
-0.001869222894024
0.152842623803928
-0.100284706865109
-0.025428400796775
-0.001869222894024
0.152842623803928
-0.100284706865109
-0.025428400796775
-0.001869222894024
0.152842623803928
-0.100284706865109
-0.025428400796775
-0.001869222894024
0.152842623803928
-0.000000000000000
-0.000000000000000
-0.000000000000000
-0.000000000000000
-0.002090182327714
-0.260963046509207
-0.004355046103902
-0.048314162475895
-0.002090182327714
-0.260963046509207
-0.004355046103902
-0.048314162475895
-0.002090182327714
-0.260963046509207
-0.004355046103902
-0.048314162475895
-0.002090182327714
-0.260963046509207
-0.004355046103902
-0.048314162475895
-0.002090182327714
-0.260963046509207
-0.004355046103902
-0.048314162475895
-0.002090182327714
-0.260963046509207
-0.004355046103902
-0.048314162475895
-0.002090182327714
-0.260963046509207
-0.004355046103902
-0.048314162475895
0.000000000000000
-0.000000000000000
-0.000000000000000
-0.000000000000000
0.079054139770121
-0.007226320106717
-0.125236977921363
-0.299363358020908
0.079054139770121
-0.007226320106717
-0.125236977921363
-0.299363358020908
0.079054139770121
-0.007226320106717
-0.125236977921363
-0.299363358020908
0.079054139770121
-0.007226320106717
-0.125236977921363
-0.299363358020908
0.079054139770121
-0.007226320106717
-0.125236977921363
-0.299363358020908
0.079054139770121
-0.007226320106717
-0.125236977921363
-0.299363358020908
0.079054139770121
-0.007226320106717
-0.125236977921363
-0.299363358020908
-0.000000000000000
0.000000000000000
0.000000000000000
0.000000000000000
-0.498904559894609
0.061926090277630
0.165267523407155
0.095482766299535
-0.498904559894609
0.061926090277630
0.165267523407155
0.095482766299535
-0.498904559894609
0.061926090277630
0.165267523407155
0.095482766299535
-0.498904559894609
0.061926090277630
0.165267523407155
0.095482766299535
-0.498904559894609
0.061926090277630
0.165267523407155
0.095482766299535
-0.498904559894609
0.061926090277630
0.165267523407155
0.095482766299535
-0.498904559894609
0.061926090277630
0.165267523407155
0.095482766299535
-0.000000000000000
-0.000000000000000
-0.000000000000000
0.000000000000000
-0.100284706865109
-0.025428400796775
-0.001869222894024
0.152842623803928
-0.100284706865109
-0.025428400796775
-0.001869222894024
0.152842623803928
-0.100284706865109
-0.025428400796775
-0.001869222894024
0.152842623803928
-0.100284706865109
-0.025428400796775
-0.001869222894024
0.152842623803928
-0.100284706865109
-0.025428400796775
-0.001869222894024
0.152842623803928
-0.100284706865109
-0.025428400796775
-0.001869222894024
0.152842623803928
-0.100284706865109
-0.025428400796775
-0.001869222894024
0.152842623803928
-0.000000000000000
-0.000000000000000
-0.000000000000000
-0.000000000000000
-0.002090182327714
-0.260963046509207
-0.004355046103902
-0.048314162475895
-0.002090182327714
-0.260963046509207
-0.004355046103902
-0.048314162475895
-0.002090182327714
-0.260963046509207
-0.004355046103902
-0.048314162475895
-0.002090182327714
-0.260963046509207
-0.004355046103902
-0.048314162475895
-0.002090182327714
-0.260963046509207
-0.004355046103902
-0.048314162475895
-0.002090182327714
-0.260963046509207
-0.004355046103902
-0.048314162475895
-0.002090182327714
-0.260963046509207
-0.004355046103902
-0.048314162475895
0.000000000000000
-0.000000000000000
-0.000000000000000
-0.000000000000000
0.079054139770121
-0.007226320106717
-0.125236977921363
-0.299363358020908
0.079054139770121
-0.007226320106717
-0.125236977921363
-0.299363358020908
0.079054139770121
-0.007226320106717
-0.125236977921363
-0.299363358020908
0.079054139770121
-0.007226320106717
-0.125236977921363
-0.299363358020908
0.079054139770121
-0.007226320106717
-0.125236977921363
-0.299363358020908
0.079054139770121
-0.007226320106717
-0.125236977921363
-0.299363358020908
0.079054139770121
-0.007226320106717
-0.125236977921363
-0.299363358020908
-0.000000000000000
0.000000000000000
0.000000000000000
0.000000000000000
-0.498904559894609
0.061926090277630
0.165267523407155
0.095482766299535
-0.498904559894609
0.061926090277630
0.165267523407155
0.095482766299535
-0.498904559894609
0.061926090277630
0.165267523407155
0.095482766299535
-0.498904559894609
0.061926090277630
0.165267523407155
0.095482766299535
-0.498904559894609
0.061926090277630
0.165267523407155
0.095482766299535
-0.498904559894609
0.061926090277630
0.165267523407155
0.095482766299535
-0.498904559894609
0.061926090277630
0.165267523407155
0.095482766299535
-0.000000000000000
-0.000000000000000
-0.000000000000000
0.000000000000000
-0.100284706865109
-0.025428400796775
-0.001869222894024
0.152842623803928
-0.100284706865109
-0.025428400796775
-0.001869222894024
0.152842623803928
-0.100284706865109
-0.025428400796775
-0.001869222894024
0.152842623803928
-0.100284706865109
-0.025428400796775
-0.001869222894024
0.152842623803928
-0.100284706865109
-0.025428400796775
-0.001869222894024
0.152842623803928
-0.100284706865109
-0.025428400796775
-0.001869222894024
0.152842623803928
-0.100284706865109
-0.025428400796775
-0.001869222894024
0.152842623803928
-0.000000000000000
-0.000000000000000
-0.000000000000000
-0.000000000000000
-0.002090182327714
-0.260963046509207
-0.004355046103902
-0.048314162475895
-0.002090182327714
-0.260963046509207
-0.004355046103902
-0.048314162475895
-0.002090182327714
-0.260963046509207
-0.004355046103902
-0.048314162475895
-0.002090182327714
-0.260963046509207
-0.004355046103902
-0.048314162475895
-0.002090182327714
-0.260963046509207
-0.004355046103902
-0.048314162475895
-0.002090182327714
-0.260963046509207
-0.004355046103902
-0.048314162475895
-0.002090182327714
-0.260963046509207
-0.004355046103902
-0.048314162475895
0.000000000000000
-0.000000000000000
-0.000000000000000
-0.000000000000000
0.079054139770121
-0.007226320106717
-0.125236977921363
-0.299363358020908
0.079054139770121
-0.007226320106717
-0.125236977921363
-0.299363358020908
0.079054139770121
-0.007226320106717
-0.125236977921363
-0.299363358020908
0.079054139770121
-0.007226320106717
-0.125236977921363
-0.299363358020908
0.079054139770121
-0.007226320106717
-0.125236977921363
-0.299363358020908
0.079054139770121
-0.007226320106717
-0.125236977921363
-0.299363358020908
0.079054139770121
-0.007226320106717
-0.125236977921363
-0.299363358020908
-0.000000000000000
0.000000000000000
0.000000000000000
0.000000000000000
-0.498904559894609
0.061926090277630
0.165267523407155
0.095482766299535
-0.498904559894609
0.061926090277630
0.165267523407155
0.095482766299535
-0.498904559894609
0.061926090277630
0.165267523407155
0.095482766299535
-0.498904559894609
0.061926090277630
0.165267523407155
0.095482766299535
-0.498904559894609
0.061926090277630
0.165267523407155
0.095482766299535
-0.498904559894609
0.061926090277630
0.165267523407155
0.095482766299535
-0.498904559894609
0.061926090277630
0.165267523407155
0.095482766299535
-0.000000000000000
-0.000000000000000
-0.000000000000000
0.000000000000000
-0.100284706865109
-0.025428400796775
-0.001869222894024
0.152842623803928
-0.100284706865109
-0.025428400796775
-0.001869222894024
0.152842623803928
-0.100284706865109
-0.025428400796775
-0.001869222894024
0.152842623803928
-0.100284706865109
-0.025428400796775
-0.001869222894024
0.152842623803928
-0.100284706865109
-0.025428400796775
-0.001869222894024
0.152842623803928
-0.100284706865109
-0.025428400796775
-0.001869222894024
0.152842623803928
-0.100284706865109
-0.025428400796775
-0.001869222894024
0.152842623803928
-0.000000000000000
-0.000000000000000
-0.000000000000000
-0.000000000000000
-0.002090182327714
-0.260963046509207
-0.004355046103902
-0.048314162475895
-0.002090182327714
-0.260963046509207
-0.004355046103902
-0.048314162475895
-0.002090182327714
-0.260963046509207
-0.004355046103902
-0.048314162475895
-0.002090182327714
-0.260963046509207
-0.004355046103902
-0.048314162475895
-0.002090182327714
-0.260963046509207
-0.004355046103902
-0.048314162475895
-0.002090182327714
-0.260963046509207
-0.004355046103902
-0.048314162475895
-0.002090182327714
-0.260963046509207
-0.004355046103902
-0.048314162475895
0.000000000000000
-0.000000000000000
-0.000000000000000
-0.000000000000000
0.079054139770121
-0.007226320106717
-0.125236977921363
-0.299363358020908
0.079054139770121
-0.007226320106717
-0.125236977921363
-0.299363358020908
0.079054139770121
-0.007226320106717
-0.125236977921363
-0.299363358020908
0.079054139770121
-0.007226320106717
-0.125236977921363
-0.299363358020908
0.079054139770121
-0.007226320106717
-0.125236977921363
-0.299363358020908
0.079054139770121
-0.007226320106717
-0.125236977921363
-0.299363358020908
0.079054139770121
-0.007226320106717
-0.125236977921363
-0.299363358020908
-0.000000000000000
0.000000000000000
0.000000000000000
0.000000000000000
-0.498904559894609
0.061926090277630
0.165267523407155
0.095482766299535
-0.498904559894609
0.061926090277630
0.165267523407155
0.095482766299535
-0.498904559894609
0.061926090277630
0.165267523407155
0.095482766299535
-0.498904559894609
0.061926090277630
0.165267523407155
0.095482766299535
-0.498904559894609
0.061926090277630
0.165267523407155
0.095482766299535
-0.498904559894609
0.061926090277630
0.165267523407155
0.095482766299535
-0.498904559894609
0.061926090277630
0.165267523407155
0.095482766299535
-0.000000000000000
-0.000000000000000
-0.000000000000000
0.000000000000000
-0.100284706865109
-0.025428400796775
-0.001869222894024
0.152842623803928
-0.100284706865109
-0.025428400796775
-0.001869222894024
0.152842623803928
-0.100284706865109
-0.025428400796775
-0.001869222894024
0.152842623803928
-0.100284706865109
-0.025428400796775
-0.001869222894024
0.152842623803928
-0.100284706865109
-0.025428400796775
-0.001869222894024
0.152842623803928
-0.100284706865109
-0.025428400796775
-0.001869222894024
0.152842623803928
-0.100284706865109
-0.025428400796775
-0.001869222894024
0.152842623803928
-0.000000000000000
-0.000000000000000
-0.000000000000000
-0.000000000000000
-0.002090182327714
-0.260963046509207
-0.004355046103902
-0.048314162475895
-0.002090182327714
-0.260963046509207
-0.004355046103902
-0.048314162475895
-0.002090182327714
-0.260963046509207
-0.004355046103902
-0.048314162475895
-0.002090182327714
-0.260963046509207
-0.004355046103902
-0.048314162475895
-0.002090182327714
-0.260963046509207
-0.004355046103902
-0.048314162475895
-0.002090182327714
-0.260963046509207
-0.004355046103902
-0.048314162475895
-0.002090182327714
-0.260963046509207
-0.004355046103902
-0.048314162475895
0.000000000000000
-0.000000000000000
-0.000000000000000
-0.000000000000000
0.079054139770121
-0.007226320106717
-0.125236977921363
-0.299363358020908
0.079054139770121
-0.007226320106717
-0.125236977921363
-0.299363358020908
0.079054139770121
-0.007226320106717
-0.125236977921363
-0.299363358020908
0.079054139770121
-0.007226320106717
-0.125236977921363
-0.299363358020908
0.079054139770121
-0.007226320106717
-0.125236977921363
-0.299363358020908
0.079054139770121
-0.007226320106717
-0.125236977921363
-0.299363358020908
0.079054139770121
-0.007226320106717
-0.125236977921363
-0.299363358020908
-0.000000000000000
0.000000000000000
0.000000000000000
0.000000000000000
-0.498904559894609
0.061926090277630
0.165267523407155
0.095482766299535
-0.498904559894609
0.061926090277630
0.165267523407155
0.095482766299535
-0.498904559894609
0.061926090277630
0.165267523407155
0.095482766299535
-0.498904559894609
0.061926090277630
0.165267523407155
0.095482766299535
-0.498904559894609
0.061926090277630
0.165267523407155
0.095482766299535
-0.498904559894609
0.061926090277630
0.165267523407155
0.095482766299535
-0.498904559894609
0.061926090277630
0.165267523407155
0.095482766299535
-0.000000000000000
-0.000000000000000
-0.000000000000000
0.000000000000000
-0.100284706865109
-0.025428400796775
-0.001869222894024
0.152842623803928
-0.100284706865109
-0.025428400796775
-0.001869222894024
0.152842623803928
-0.100284706865109
-0.025428400796775
-0.001869222894024
0.152842623803928
-0.100284706865109
-0.025428400796775
-0.001869222894024
0.152842623803928
-0.100284706865109
-0.025428400796775
-0.001869222894024
0.152842623803928
-0.100284706865109
-0.025428400796775
-0.001869222894024
0.152842623803928
-0.100284706865109
-0.025428400796775
-0.001869222894024
0.152842623803928
-0.000000000000000
-0.000000000000000
-0.000000000000000
-0.000000000000000
-0.000000000000000
-0.000000000000000
-0.000000000000000
-0.000000000000000
-0.000000000000000
-0.000000000000000
-0.000000000000000
-0.000000000000000
-0.000000000000000
-0.000000000000000
-0.000000000000000
-0.000000000000000
-0.000000000000000
-0.000000000000000
-0.000000000000000
-0.000000000000000
-0.000000000000000
-0.000000000000000
-0.000000000000000
-0.000000000000000
-0.000000000000000
-0.000000000000000
-0.000000000000000
-0.000000000000000
-0.000000000000000
-0.000000000000000
-0.000000000000000
-0.000000000000000
0.000000000000000
-0.000000000000000
-0.000000000000000
-0.000000000000000
0.000000000000000
-0.000000000000000
-0.000000000000000
-0.000000000000000
0.000000000000000
-0.000000000000000
-0.000000000000000
-0.000000000000000
0.000000000000000
-0.000000000000000
-0.000000000000000
-0.000000000000000
0.000000000000000
-0.000000000000000
-0.000000000000000
-0.000000000000000
0.000000000000000
-0.000000000000000
-0.000000000000000
-0.000000000000000
0.000000000000000
-0.000000000000000
-0.000000000000000
-0.000000000000000
0.000000000000000
-0.000000000000000
-0.000000000000000
-0.000000000000000
-0.000000000000000
0.000000000000000
0.000000000000000
0.000000000000000
-0.000000000000000
0.000000000000000
0.000000000000000
0.000000000000000
-0.000000000000000
0.000000000000000
0.000000000000000
0.000000000000000
-0.000000000000000
0.000000000000000
0.000000000000000
0.000000000000000
-0.000000000000000
0.000000000000000
0.000000000000000
0.000000000000000
-0.000000000000000
0.000000000000000
0.000000000000000
0.000000000000000
-0.000000000000000
0.000000000000000
0.000000000000000
0.000000000000000
-0.000000000000000
0.000000000000000
0.000000000000000
0.000000000000000
-0.000000000000000
-0.000000000000000
-0.000000000000000
0.000000000000000
-0.000000000000000
-0.000000000000000
-0.000000000000000
0.000000000000000
-0.000000000000000
-0.000000000000000
-0.000000000000000
0.000000000000000
-0.000000000000000
-0.000000000000000
-0.000000000000000
0.000000000000000
-0.000000000000000
-0.000000000000000
-0.000000000000000
0.000000000000000
-0.000000000000000
-0.000000000000000
-0.000000000000000
0.000000000000000
-0.000000000000000
-0.000000000000000
-0.000000000000000
0.000000000000000
-0.000000000000000
-0.000000000000000
-0.000000000000000
0.000000000000000
-0.000000000000000
0.000000000000000
-0.000000000000000
-0.000000000000000
-0.179917204066085
0.047640996046178
-0.058782668621228
-0.091812636330121
-0.179917204066085
0.047640996046178
-0.058782668621228
-0.091812636330121
-0.179917204066085
0.047640996046178
-0.058782668621228
-0.091812636330121
-0.179917204066085
0.047640996046178
-0.058782668621228
-0.091812636330121
-0.179917204066085
0.047640996046178
-0.058782668621228
-0.091812636330121
-0.179917204066085
0.047640996046178
-0.058782668621228
-0.091812636330121
-0.179917204066085
0.047640996046178
-0.058782668621228
-0.091812636330121
0.000000000000000
0.000000000000000
0.000000000000000
-0.000000000000000
0.493206629214197
0.001327075063261
0.216051189849840
-0.107317175624589
0.493206629214197
0.001327075063261
0.216051189849840
-0.107317175624589
0.493206629214197
0.001327075063261
0.216051189849840
-0.107317175624589
0.493206629214197
0.001327075063261
0.216051189849840
-0.107317175624589
0.493206629214197
0.001327075063261
0.216051189849840
-0.107317175624589
0.493206629214197
0.001327075063261
0.216051189849840
-0.107317175624589
0.493206629214197
0.001327075063261
0.216051189849840
-0.107317175624589
-0.000000000000000
-0.000000000000000
-0.000000000000000
-0.000000000000000
-0.106604192420390
-0.029544865539239
-0.515180229909218
-0.189032390634953
-0.106604192420390
-0.029544865539239
-0.515180229909218
-0.189032390634953
-0.106604192420390
-0.029544865539239
-0.515180229909218
-0.189032390634953
-0.106604192420390
-0.029544865539239
-0.515180229909218
-0.189032390634953
-0.106604192420390
-0.029544865539239
-0.515180229909218
-0.189032390634953
-0.106604192420390
-0.029544865539239
-0.515180229909218
-0.189032390634953
-0.106604192420390
-0.029544865539239
-0.515180229909218
-0.189032390634953
0.000000000000000
-0.000000000000000
-0.000000000000000
-0.000000000000000
0.064867460585032
-0.172172315547328
-0.000099043775769
-0.128873939766374
0.064867460585032
-0.172172315547328
-0.000099043775769
-0.128873939766374
0.064867460585032
-0.172172315547328
-0.000099043775769
-0.128873939766374
0.064867460585032
-0.172172315547328
-0.000099043775769
-0.128873939766374
0.064867460585032
-0.172172315547328
-0.000099043775769
-0.128873939766374
0.064867460585032
-0.172172315547328
-0.000099043775769
-0.128873939766374
0.064867460585032
-0.172172315547328
-0.000099043775769
-0.128873939766374
-0.000000000000000
0.000000000000000
-0.000000000000000
-0.000000000000000
-0.179917204066085
0.047640996046178
-0.058782668621228
-0.091812636330121
-0.179917204066085
0.047640996046178
-0.058782668621228
-0.091812636330121
-0.179917204066085
0.047640996046178
-0.058782668621228
-0.091812636330121
-0.179917204066085
0.047640996046178
-0.058782668621228
-0.091812636330121
-0.179917204066085
0.047640996046178
-0.058782668621228
-0.091812636330121
-0.179917204066085
0.047640996046178
-0.058782668621228
-0.091812636330121
-0.179917204066085
0.047640996046178
-0.058782668621228
-0.091812636330121
0.000000000000000
0.000000000000000
0.000000000000000
-0.000000000000000
0.493206629214197
0.001327075063261
0.216051189849840
-0.107317175624589
0.493206629214197
0.001327075063261
0.216051189849840
-0.107317175624589
0.493206629214197
0.001327075063261
0.216051189849840
-0.107317175624589
0.493206629214197
0.001327075063261
0.216051189849840
-0.107317175624589
0.493206629214197
0.001327075063261
0.216051189849840
-0.107317175624589
0.493206629214197
0.001327075063261
0.216051189849840
-0.107317175624589
0.493206629214197
0.001327075063261
0.216051189849840
-0.107317175624589
-0.000000000000000
-0.000000000000000
-0.000000000000000
-0.000000000000000
-0.106604192420390
-0.029544865539239
-0.515180229909218
-0.189032390634953
-0.106604192420390
-0.029544865539239
-0.515180229909218
-0.189032390634953
-0.106604192420390
-0.029544865539239
-0.515180229909218
-0.189032390634953
-0.106604192420390
-0.029544865539239
-0.515180229909218
-0.189032390634953
-0.106604192420390
-0.029544865539239
-0.515180229909218
-0.189032390634953
-0.106604192420390
-0.029544865539239
-0.515180229909218
-0.189032390634953
-0.106604192420390
-0.029544865539239
-0.515180229909218
-0.189032390634953
0.000000000000000
-0.000000000000000
-0.000000000000000
-0.000000000000000
0.064867460585032
-0.172172315547328
-0.000099043775769
-0.128873939766374
0.064867460585032
-0.172172315547328
-0.000099043775769
-0.128873939766374
0.064867460585032
-0.172172315547328
-0.000099043775769
-0.128873939766374
0.064867460585032
-0.172172315547328
-0.000099043775769
-0.128873939766374
0.064867460585032
-0.172172315547328
-0.000099043775769
-0.128873939766374
0.064867460585032
-0.172172315547328
-0.000099043775769
-0.128873939766374
0.064867460585032
-0.172172315547328
-0.000099043775769
-0.128873939766374
-0.000000000000000
0.000000000000000
-0.000000000000000
-0.000000000000000
-0.179917204066085
0.047640996046178
-0.058782668621228
-0.091812636330121
-0.179917204066085
0.047640996046178
-0.058782668621228
-0.091812636330121
-0.179917204066085
0.047640996046178
-0.058782668621228
-0.091812636330121
-0.179917204066085
0.047640996046178
-0.058782668621228
-0.091812636330121
-0.179917204066085
0.047640996046178
-0.058782668621228
-0.091812636330121
-0.179917204066085
0.047640996046178
-0.058782668621228
-0.091812636330121
-0.179917204066085
0.047640996046178
-0.058782668621228
-0.091812636330121
0.000000000000000
0.000000000000000
0.000000000000000
-0.000000000000000
0.493206629214197
0.001327075063261
0.216051189849840
-0.107317175624589
0.493206629214197
0.001327075063261
0.216051189849840
-0.107317175624589
0.493206629214197
0.001327075063261
0.216051189849840
-0.107317175624589
0.493206629214197
0.001327075063261
0.216051189849840
-0.107317175624589
0.493206629214197
0.001327075063261
0.216051189849840
-0.107317175624589
0.493206629214197
0.001327075063261
0.216051189849840
-0.107317175624589
0.493206629214197
0.001327075063261
0.216051189849840
-0.107317175624589
-0.000000000000000
-0.000000000000000
-0.000000000000000
-0.000000000000000
-0.106604192420390
-0.029544865539239
-0.515180229909218
-0.189032390634953
-0.106604192420390
-0.029544865539239
-0.515180229909218
-0.189032390634953
-0.106604192420390
-0.029544865539239
-0.515180229909218
-0.189032390634953
-0.106604192420390
-0.029544865539239
-0.515180229909218
-0.189032390634953
-0.106604192420390
-0.029544865539239
-0.515180229909218
-0.189032390634953
-0.106604192420390
-0.029544865539239
-0.515180229909218
-0.189032390634953
-0.106604192420390
-0.029544865539239
-0.515180229909218
-0.189032390634953
0.000000000000000
-0.000000000000000
-0.000000000000000
-0.000000000000000
0.064867460585032
-0.172172315547328
-0.000099043775769
-0.128873939766374
0.064867460585032
-0.172172315547328
-0.000099043775769
-0.128873939766374
0.064867460585032
-0.172172315547328
-0.000099043775769
-0.128873939766374
0.064867460585032
-0.172172315547328
-0.000099043775769
-0.128873939766374
0.064867460585032
-0.172172315547328
-0.000099043775769
-0.128873939766374
0.064867460585032
-0.172172315547328
-0.000099043775769
-0.128873939766374
0.064867460585032
-0.172172315547328
-0.000099043775769
-0.128873939766374
-0.000000000000000
0.000000000000000
-0.000000000000000
-0.000000000000000
-0.179917204066085
0.047640996046178
-0.058782668621228
-0.091812636330121
-0.179917204066085
0.047640996046178
-0.058782668621228
-0.091812636330121
-0.179917204066085
0.047640996046178
-0.058782668621228
-0.091812636330121
-0.179917204066085
0.047640996046178
-0.058782668621228
-0.091812636330121
-0.179917204066085
0.047640996046178
-0.058782668621228
-0.091812636330121
-0.179917204066085
0.047640996046178
-0.058782668621228
-0.091812636330121
-0.179917204066085
0.047640996046178
-0.058782668621228
-0.091812636330121
0.000000000000000
0.000000000000000
0.000000000000000
-0.000000000000000
0.493206629214197
0.001327075063261
0.216051189849840
-0.107317175624589
0.493206629214197
0.001327075063261
0.216051189849840
-0.107317175624589
0.493206629214197
0.001327075063261
0.216051189849840
-0.107317175624589
0.493206629214197
0.001327075063261
0.216051189849840
-0.107317175624589
0.493206629214197
0.001327075063261
0.216051189849840
-0.107317175624589
0.493206629214197
0.001327075063261
0.216051189849840
-0.107317175624589
0.493206629214197
0.001327075063261
0.216051189849840
-0.107317175624589
-0.000000000000000
-0.000000000000000
-0.000000000000000
-0.000000000000000
-0.106604192420390
-0.029544865539239
-0.515180229909218
-0.189032390634953
-0.106604192420390
-0.029544865539239
-0.515180229909218
-0.189032390634953
-0.106604192420390
-0.029544865539239
-0.515180229909218
-0.189032390634953
-0.106604192420390
-0.029544865539239
-0.515180229909218
-0.189032390634953
-0.106604192420390
-0.029544865539239
-0.515180229909218
-0.189032390634953
-0.106604192420390
-0.029544865539239
-0.515180229909218
-0.189032390634953
-0.106604192420390
-0.029544865539239
-0.515180229909218
-0.189032390634953
0.000000000000000
-0.000000000000000
-0.000000000000000
-0.000000000000000
0.064867460585032
-0.172172315547328
-0.000099043775769
-0.128873939766374
0.064867460585032
-0.172172315547328
-0.000099043775769
-0.128873939766374
0.064867460585032
-0.172172315547328
-0.000099043775769
-0.128873939766374
0.064867460585032
-0.172172315547328
-0.000099043775769
-0.128873939766374
0.064867460585032
-0.172172315547328
-0.000099043775769
-0.128873939766374
0.064867460585032
-0.172172315547328
-0.000099043775769
-0.128873939766374
0.064867460585032
-0.172172315547328
-0.000099043775769
-0.128873939766374
-0.000000000000000
0.000000000000000
-0.000000000000000
-0.000000000000000
-0.179917204066085
0.047640996046178
-0.058782668621228
-0.091812636330121
-0.179917204066085
0.047640996046178
-0.058782668621228
-0.091812636330121
-0.179917204066085
0.047640996046178
-0.058782668621228
-0.091812636330121
-0.179917204066085
0.047640996046178
-0.058782668621228
-0.091812636330121
-0.179917204066085
0.047640996046178
-0.058782668621228
-0.091812636330121
-0.179917204066085
0.047640996046178
-0.058782668621228
-0.091812636330121
-0.179917204066085
0.047640996046178
-0.058782668621228
-0.091812636330121
0.000000000000000
0.000000000000000
0.000000000000000
-0.000000000000000
0.493206629214197
0.001327075063261
0.216051189849840
-0.107317175624589
0.493206629214197
0.001327075063261
0.216051189849840
-0.107317175624589
0.493206629214197
0.001327075063261
0.216051189849840
-0.107317175624589
0.493206629214197
0.001327075063261
0.216051189849840
-0.107317175624589
0.493206629214197
0.001327075063261
0.216051189849840
-0.107317175624589
0.493206629214197
0.001327075063261
0.216051189849840
-0.107317175624589
0.493206629214197
0.001327075063261
0.216051189849840
-0.107317175624589
-0.000000000000000
-0.000000000000000
-0.000000000000000
-0.000000000000000
-0.106604192420390
-0.029544865539239
-0.515180229909218
-0.189032390634953
-0.106604192420390
-0.029544865539239
-0.515180229909218
-0.189032390634953
-0.106604192420390
-0.029544865539239
-0.515180229909218
-0.189032390634953
-0.106604192420390
-0.029544865539239
-0.515180229909218
-0.189032390634953
-0.106604192420390
-0.029544865539239
-0.515180229909218
-0.189032390634953
-0.106604192420390
-0.029544865539239
-0.515180229909218
-0.189032390634953
-0.106604192420390
-0.029544865539239
-0.515180229909218
-0.189032390634953
0.000000000000000
-0.000000000000000
-0.000000000000000
-0.000000000000000
0.064867460585032
-0.172172315547328
-0.000099043775769
-0.128873939766374
0.064867460585032
-0.172172315547328
-0.000099043775769
-0.128873939766374
0.064867460585032
-0.172172315547328
-0.000099043775769
-0.128873939766374
0.064867460585032
-0.172172315547328
-0.000099043775769
-0.128873939766374
0.064867460585032
-0.172172315547328
-0.000099043775769
-0.128873939766374
0.064867460585032
-0.172172315547328
-0.000099043775769
-0.128873939766374
0.064867460585032
-0.172172315547328
-0.000099043775769
-0.128873939766374
-0.000000000000000
0.000000000000000
-0.000000000000000
-0.000000000000000
-0.179917204066085
0.047640996046178
-0.058782668621228
-0.091812636330121
-0.179917204066085
0.047640996046178
-0.058782668621228
-0.091812636330121
-0.179917204066085
0.047640996046178
-0.058782668621228
-0.091812636330121
-0.179917204066085
0.047640996046178
-0.058782668621228
-0.091812636330121
-0.179917204066085
0.047640996046178
-0.058782668621228
-0.091812636330121
-0.179917204066085
0.047640996046178
-0.058782668621228
-0.091812636330121
-0.179917204066085
0.047640996046178
-0.058782668621228
-0.091812636330121
0.000000000000000
0.000000000000000
0.000000000000000
-0.000000000000000
0.493206629214197
0.001327075063261
0.216051189849840
-0.107317175624589
0.493206629214197
0.001327075063261
0.216051189849840
-0.107317175624589
0.493206629214197
0.001327075063261
0.216051189849840
-0.107317175624589
0.493206629214197
0.001327075063261
0.216051189849840
-0.107317175624589
0.493206629214197
0.001327075063261
0.216051189849840
-0.107317175624589
0.493206629214197
0.001327075063261
0.216051189849840
-0.107317175624589
0.493206629214197
0.001327075063261
0.216051189849840
-0.107317175624589
-0.000000000000000
-0.000000000000000
-0.000000000000000
-0.000000000000000
-0.106604192420390
-0.029544865539239
-0.515180229909218
-0.189032390634953
-0.106604192420390
-0.029544865539239
-0.515180229909218
-0.189032390634953
-0.106604192420390
-0.029544865539239
-0.515180229909218
-0.189032390634953
-0.106604192420390
-0.029544865539239
-0.515180229909218
-0.189032390634953
-0.106604192420390
-0.029544865539239
-0.515180229909218
-0.189032390634953
-0.106604192420390
-0.029544865539239
-0.515180229909218
-0.189032390634953
-0.106604192420390
-0.029544865539239
-0.515180229909218
-0.189032390634953
0.000000000000000
-0.000000000000000
-0.000000000000000
-0.000000000000000
0.064867460585032
-0.172172315547328
-0.000099043775769
-0.128873939766374
0.064867460585032
-0.172172315547328
-0.000099043775769
-0.128873939766374
0.064867460585032
-0.172172315547328
-0.000099043775769
-0.128873939766374
0.064867460585032
-0.172172315547328
-0.000099043775769
-0.128873939766374
0.064867460585032
-0.172172315547328
-0.000099043775769
-0.128873939766374
0.064867460585032
-0.172172315547328
-0.000099043775769
-0.128873939766374
0.064867460585032
-0.172172315547328
-0.000099043775769
-0.128873939766374
-0.000000000000000
0.000000000000000
-0.000000000000000
-0.000000000000000
-0.179917204066085
0.047640996046178
-0.058782668621228
-0.091812636330121
-0.179917204066085
0.047640996046178
-0.058782668621228
-0.091812636330121
-0.179917204066085
0.047640996046178
-0.058782668621228
-0.091812636330121
-0.179917204066085
0.047640996046178
-0.058782668621228
-0.091812636330121
-0.179917204066085
0.047640996046178
-0.058782668621228
-0.091812636330121
-0.179917204066085
0.047640996046178
-0.058782668621228
-0.091812636330121
-0.179917204066085
0.047640996046178
-0.058782668621228
-0.091812636330121
0.000000000000000
0.000000000000000
0.000000000000000
-0.000000000000000
0.493206629214197
0.001327075063261
0.216051189849840
-0.107317175624589
0.493206629214197
0.001327075063261
0.216051189849840
-0.107317175624589
0.493206629214197
0.001327075063261
0.216051189849840
-0.107317175624589
0.493206629214197
0.001327075063261
0.216051189849840
-0.107317175624589
0.493206629214197
0.001327075063261
0.216051189849840
-0.107317175624589
0.493206629214197
0.001327075063261
0.216051189849840
-0.107317175624589
0.493206629214197
0.001327075063261
0.216051189849840
-0.107317175624589
-0.000000000000000
-0.000000000000000
-0.000000000000000
-0.000000000000000
-0.106604192420390
-0.029544865539239
-0.515180229909218
-0.189032390634953
-0.106604192420390
-0.029544865539239
-0.515180229909218
-0.189032390634953
-0.106604192420390
-0.029544865539239
-0.515180229909218
-0.189032390634953
-0.106604192420390
-0.029544865539239
-0.515180229909218
-0.189032390634953
-0.106604192420390
-0.029544865539239
-0.515180229909218
-0.189032390634953
-0.106604192420390
-0.029544865539239
-0.515180229909218
-0.189032390634953
-0.106604192420390
-0.029544865539239
-0.515180229909218
-0.189032390634953
0.000000000000000
-0.000000000000000
-0.000000000000000
-0.000000000000000
0.064867460585032
-0.172172315547328
-0.000099043775769
-0.128873939766374
0.064867460585032
-0.172172315547328
-0.000099043775769
-0.128873939766374
0.064867460585032
-0.172172315547328
-0.000099043775769
-0.128873939766374
0.064867460585032
-0.172172315547328
-0.000099043775769
-0.128873939766374
0.064867460585032
-0.172172315547328
-0.000099043775769
-0.128873939766374
0.064867460585032
-0.172172315547328
-0.000099043775769
-0.128873939766374
0.064867460585032
-0.172172315547328
-0.000099043775769
-0.128873939766374
-0.000000000000000
0.000000000000000
-0.000000000000000
-0.000000000000000
-0.000000000000000
0.000000000000000
-0.000000000000000
-0.000000000000000
-0.000000000000000
0.000000000000000
-0.000000000000000
-0.000000000000000
-0.000000000000000
0.000000000000000
-0.000000000000000
-0.000000000000000
-0.000000000000000
0.000000000000000
-0.000000000000000
-0.000000000000000
-0.000000000000000
0.000000000000000
-0.000000000000000
-0.000000000000000
-0.000000000000000
0.000000000000000
-0.000000000000000
-0.000000000000000
-0.000000000000000
0.000000000000000
-0.000000000000000
-0.000000000000000
0.000000000000000
0.000000000000000
0.000000000000000
-0.000000000000000
0.000000000000000
0.000000000000000
0.000000000000000
-0.000000000000000
0.000000000000000
0.000000000000000
0.000000000000000
-0.000000000000000
0.000000000000000
0.000000000000000
0.000000000000000
-0.000000000000000
0.000000000000000
0.000000000000000
0.000000000000000
-0.000000000000000
0.000000000000000
0.000000000000000
0.000000000000000
-0.000000000000000
0.000000000000000
0.000000000000000
0.000000000000000
-0.000000000000000
0.000000000000000
0.000000000000000
0.000000000000000
-0.000000000000000
-0.000000000000000
-0.000000000000000
-0.000000000000000
-0.000000000000000
-0.000000000000000
-0.000000000000000
-0.000000000000000
-0.000000000000000
-0.000000000000000
-0.000000000000000
-0.000000000000000
-0.000000000000000
-0.000000000000000
-0.000000000000000
-0.000000000000000
-0.000000000000000
-0.000000000000000
-0.000000000000000
-0.000000000000000
-0.000000000000000
-0.000000000000000
-0.000000000000000
-0.000000000000000
-0.000000000000000
-0.000000000000000
-0.000000000000000
-0.000000000000000
-0.000000000000000
-0.000000000000000
-0.000000000000000
-0.000000000000000
-0.000000000000000
0.000000000000000
-0.000000000000000
-0.000000000000000
-0.000000000000000
0.000000000000000
-0.000000000000000
-0.000000000000000
-0.000000000000000
0.000000000000000
-0.000000000000000
-0.000000000000000
-0.000000000000000
0.000000000000000
-0.000000000000000
-0.000000000000000
-0.000000000000000
0.000000000000000
-0.000000000000000
-0.000000000000000
-0.000000000000000
0.000000000000000
-0.000000000000000
-0.000000000000000
-0.000000000000000
0.000000000000000
-0.000000000000000
-0.000000000000000
-0.000000000000000
0.000000000000000
-0.000000000000000
-0.000000000000000
-0.000000000000000
0.000000000000000
0.000000000000000
-0.000000000000000
-0.000000000000000
0.068236222647208
0.124352970401864
-0.069348275108106
-0.126934487219132
0.068236222647208
0.124352970401864
-0.069348275108106
-0.126934487219132
0.068236222647208
0.124352970401864
-0.069348275108106
-0.126934487219132
0.068236222647208
0.124352970401864
-0.069348275108106
-0.126934487219132
0.068236222647208
0.124352970401864
-0.069348275108106
-0.126934487219132
0.068236222647208
0.124352970401864
-0.069348275108106
-0.126934487219132
0.068236222647208
0.124352970401864
-0.069348275108106
-0.126934487219132
-0.000000000000000
0.000000000000000
0.000000000000000
0.000000000000000
-0.003208029631819
0.043216901645245
0.050154035523936
0.208897054550220
-0.003208029631819
0.043216901645245
0.050154035523936
0.208897054550220
-0.003208029631819
0.043216901645245
0.050154035523936
0.208897054550220
-0.003208029631819
0.043216901645245
0.050154035523936
0.208897054550220
-0.003208029631819
0.043216901645245
0.050154035523936
0.208897054550220
-0.003208029631819
0.043216901645245
0.050154035523936
0.208897054550220
-0.003208029631819
0.043216901645245
0.050154035523936
0.208897054550220
0.000000000000000
0.000000000000000
-0.000000000000000
0.000000000000000
0.080887890050011
0.760797515902955
-0.095902082010428
0.013309955130281
0.080887890050011
0.760797515902955
-0.095902082010428
0.013309955130281
0.080887890050011
0.760797515902955
-0.095902082010428
0.013309955130281
0.080887890050011
0.760797515902955
-0.095902082010428
0.013309955130281
0.080887890050011
0.760797515902955
-0.095902082010428
0.013309955130281
0.080887890050011
0.760797515902955
-0.095902082010428
0.013309955130281
0.080887890050011
0.760797515902955
-0.095902082010428
0.013309955130281
0.000000000000000
0.000000000000000
-0.000000000000000
0.000000000000000
0.017832212905512
0.278037155541173
-0.167653900466464
0.217365443911718
0.017832212905512
0.278037155541173
-0.167653900466464
0.217365443911718
0.017832212905512
0.278037155541173
-0.167653900466464
0.217365443911718
0.017832212905512
0.278037155541173
-0.167653900466464
0.217365443911718
0.017832212905512
0.278037155541173
-0.167653900466464
0.217365443911718
0.017832212905512
0.278037155541173
-0.167653900466464
0.217365443911718
0.017832212905512
0.278037155541173
-0.167653900466464
0.217365443911718
0.000000000000000
0.000000000000000
-0.000000000000000
-0.000000000000000
0.068236222647208
0.124352970401864
-0.069348275108106
-0.126934487219132
0.068236222647208
0.124352970401864
-0.069348275108106
-0.126934487219132
0.068236222647208
0.124352970401864
-0.069348275108106
-0.126934487219132
0.068236222647208
0.124352970401864
-0.069348275108106
-0.126934487219132
0.068236222647208
0.124352970401864
-0.069348275108106
-0.126934487219132
0.068236222647208
0.124352970401864
-0.069348275108106
-0.126934487219132
0.068236222647208
0.124352970401864
-0.069348275108106
-0.126934487219132
-0.000000000000000
0.000000000000000
0.000000000000000
0.000000000000000
-0.003208029631819
0.043216901645245
0.050154035523936
0.208897054550220
-0.003208029631819
0.043216901645245
0.050154035523936
0.208897054550220
-0.003208029631819
0.043216901645245
0.050154035523936
0.208897054550220
-0.003208029631819
0.043216901645245
0.050154035523936
0.208897054550220
-0.003208029631819
0.043216901645245
0.050154035523936
0.208897054550220
-0.003208029631819
0.043216901645245
0.050154035523936
0.208897054550220
-0.003208029631819
0.043216901645245
0.050154035523936
0.208897054550220
0.000000000000000
0.000000000000000
-0.000000000000000
0.000000000000000
0.080887890050011
0.760797515902955
-0.095902082010428
0.013309955130281
0.080887890050011
0.760797515902955
-0.095902082010428
0.013309955130281
0.080887890050011
0.760797515902955
-0.095902082010428
0.013309955130281
0.080887890050011
0.760797515902955
-0.095902082010428
0.013309955130281
0.080887890050011
0.760797515902955
-0.095902082010428
0.013309955130281
0.080887890050011
0.760797515902955
-0.095902082010428
0.013309955130281
0.080887890050011
0.760797515902955
-0.095902082010428
0.013309955130281
0.000000000000000
0.000000000000000
-0.000000000000000
0.000000000000000
0.017832212905512
0.278037155541173
-0.167653900466464
0.217365443911718
0.017832212905512
0.278037155541173
-0.167653900466464
0.217365443911718
0.017832212905512
0.278037155541173
-0.167653900466464
0.217365443911718
0.017832212905512
0.278037155541173
-0.167653900466464
0.217365443911718
0.017832212905512
0.278037155541173
-0.167653900466464
0.217365443911718
0.017832212905512
0.278037155541173
-0.167653900466464
0.217365443911718
0.017832212905512
0.278037155541173
-0.167653900466464
0.217365443911718
0.000000000000000
0.000000000000000
-0.000000000000000
-0.000000000000000
0.068236222647208
0.124352970401864
-0.069348275108106
-0.126934487219132
0.068236222647208
0.124352970401864
-0.069348275108106
-0.126934487219132
0.068236222647208
0.124352970401864
-0.069348275108106
-0.126934487219132
0.068236222647208
0.124352970401864
-0.069348275108106
-0.126934487219132
0.068236222647208
0.124352970401864
-0.069348275108106
-0.126934487219132
0.068236222647208
0.124352970401864
-0.069348275108106
-0.126934487219132
0.068236222647208
0.124352970401864
-0.069348275108106
-0.126934487219132
-0.000000000000000
0.000000000000000
0.000000000000000
0.000000000000000
-0.003208029631819
0.043216901645245
0.050154035523936
0.208897054550220
-0.003208029631819
0.043216901645245
0.050154035523936
0.208897054550220
-0.003208029631819
0.043216901645245
0.050154035523936
0.208897054550220
-0.003208029631819
0.043216901645245
0.050154035523936
0.208897054550220
-0.003208029631819
0.043216901645245
0.050154035523936
0.208897054550220
-0.003208029631819
0.043216901645245
0.050154035523936
0.208897054550220
-0.003208029631819
0.043216901645245
0.050154035523936
0.208897054550220
0.000000000000000
0.000000000000000
-0.000000000000000
0.000000000000000
0.080887890050011
0.760797515902955
-0.095902082010428
0.013309955130281
0.080887890050011
0.760797515902955
-0.095902082010428
0.013309955130281
0.080887890050011
0.760797515902955
-0.095902082010428
0.013309955130281
0.080887890050011
0.760797515902955
-0.095902082010428
0.013309955130281
0.080887890050011
0.760797515902955
-0.095902082010428
0.013309955130281
0.080887890050011
0.760797515902955
-0.095902082010428
0.013309955130281
0.080887890050011
0.760797515902955
-0.095902082010428
0.013309955130281
0.000000000000000
0.000000000000000
-0.000000000000000
0.000000000000000
0.017832212905512
0.278037155541173
-0.167653900466464
0.217365443911718
0.017832212905512
0.278037155541173
-0.167653900466464
0.217365443911718
0.017832212905512
0.278037155541173
-0.167653900466464
0.217365443911718
0.017832212905512
0.278037155541173
-0.167653900466464
0.217365443911718
0.017832212905512
0.278037155541173
-0.167653900466464
0.217365443911718
0.017832212905512
0.278037155541173
-0.167653900466464
0.217365443911718
0.017832212905512
0.278037155541173
-0.167653900466464
0.217365443911718
0.000000000000000
0.000000000000000
-0.000000000000000
-0.000000000000000
0.068236222647208
0.124352970401864
-0.069348275108106
-0.126934487219132
0.068236222647208
0.124352970401864
-0.069348275108106
-0.126934487219132
0.068236222647208
0.124352970401864
-0.069348275108106
-0.126934487219132
0.068236222647208
0.124352970401864
-0.069348275108106
-0.126934487219132
0.068236222647208
0.124352970401864
-0.069348275108106
-0.126934487219132
0.068236222647208
0.124352970401864
-0.069348275108106
-0.126934487219132
0.068236222647208
0.124352970401864
-0.069348275108106
-0.126934487219132
-0.000000000000000
0.000000000000000
0.000000000000000
0.000000000000000
-0.003208029631819
0.043216901645245
0.050154035523936
0.208897054550220
-0.003208029631819
0.043216901645245
0.050154035523936
0.208897054550220
-0.003208029631819
0.043216901645245
0.050154035523936
0.208897054550220
-0.003208029631819
0.043216901645245
0.050154035523936
0.208897054550220
-0.003208029631819
0.043216901645245
0.050154035523936
0.208897054550220
-0.003208029631819
0.043216901645245
0.050154035523936
0.208897054550220
-0.003208029631819
0.043216901645245
0.050154035523936
0.208897054550220
0.000000000000000
0.000000000000000
-0.000000000000000
0.000000000000000
0.080887890050011
0.760797515902955
-0.095902082010428
0.013309955130281
0.080887890050011
0.760797515902955
-0.095902082010428
0.013309955130281
0.080887890050011
0.760797515902955
-0.095902082010428
0.013309955130281
0.080887890050011
0.760797515902955
-0.095902082010428
0.013309955130281
0.080887890050011
0.760797515902955
-0.095902082010428
0.013309955130281
0.080887890050011
0.760797515902955
-0.095902082010428
0.013309955130281
0.080887890050011
0.760797515902955
-0.095902082010428
0.013309955130281
0.000000000000000
0.000000000000000
-0.000000000000000
0.000000000000000
0.017832212905512
0.278037155541173
-0.167653900466464
0.217365443911718
0.017832212905512
0.278037155541173
-0.167653900466464
0.217365443911718
0.017832212905512
0.278037155541173
-0.167653900466464
0.217365443911718
0.017832212905512
0.278037155541173
-0.167653900466464
0.217365443911718
0.017832212905512
0.278037155541173
-0.167653900466464
0.217365443911718
0.017832212905512
0.278037155541173
-0.167653900466464
0.217365443911718
0.017832212905512
0.278037155541173
-0.167653900466464
0.217365443911718
0.000000000000000
0.000000000000000
-0.000000000000000
-0.000000000000000
0.068236222647208
0.124352970401864
-0.069348275108106
-0.126934487219132
0.068236222647208
0.124352970401864
-0.069348275108106
-0.126934487219132
0.068236222647208
0.124352970401864
-0.069348275108106
-0.126934487219132
0.068236222647208
0.124352970401864
-0.069348275108106
-0.126934487219132
0.068236222647208
0.124352970401864
-0.069348275108106
-0.126934487219132
0.068236222647208
0.124352970401864
-0.069348275108106
-0.126934487219132
0.068236222647208
0.124352970401864
-0.069348275108106
-0.126934487219132
-0.000000000000000
0.000000000000000
0.000000000000000
0.000000000000000
-0.003208029631819
0.043216901645245
0.050154035523936
0.208897054550220
-0.003208029631819
0.043216901645245
0.050154035523936
0.208897054550220
-0.003208029631819
0.043216901645245
0.050154035523936
0.208897054550220
-0.003208029631819
0.043216901645245
0.050154035523936
0.208897054550220
-0.003208029631819
0.043216901645245
0.050154035523936
0.208897054550220
-0.003208029631819
0.043216901645245
0.050154035523936
0.208897054550220
-0.003208029631819
0.043216901645245
0.050154035523936
0.208897054550220
0.000000000000000
0.000000000000000
-0.000000000000000
0.000000000000000
0.080887890050011
0.760797515902955
-0.095902082010428
0.013309955130281
0.080887890050011
0.760797515902955
-0.095902082010428
0.013309955130281
0.080887890050011
0.760797515902955
-0.095902082010428
0.013309955130281
0.080887890050011
0.760797515902955
-0.095902082010428
0.013309955130281
0.080887890050011
0.760797515902955
-0.095902082010428
0.013309955130281
0.080887890050011
0.760797515902955
-0.095902082010428
0.013309955130281
0.080887890050011
0.760797515902955
-0.095902082010428
0.013309955130281
0.000000000000000
0.000000000000000
-0.000000000000000
0.000000000000000
0.017832212905512
0.278037155541173
-0.167653900466464
0.217365443911718
0.017832212905512
0.278037155541173
-0.167653900466464
0.217365443911718
0.017832212905512
0.278037155541173
-0.167653900466464
0.217365443911718
0.017832212905512
0.278037155541173
-0.167653900466464
0.217365443911718
0.017832212905512
0.278037155541173
-0.167653900466464
0.217365443911718
0.017832212905512
0.278037155541173
-0.167653900466464
0.217365443911718
0.017832212905512
0.278037155541173
-0.167653900466464
0.217365443911718
0.000000000000000
0.000000000000000
-0.000000000000000
-0.000000000000000
0.068236222647208
0.124352970401864
-0.069348275108106
-0.126934487219132
0.068236222647208
0.124352970401864
-0.069348275108106
-0.126934487219132
0.068236222647208
0.124352970401864
-0.069348275108106
-0.126934487219132
0.068236222647208
0.124352970401864
-0.069348275108106
-0.126934487219132
0.068236222647208
0.124352970401864
-0.069348275108106
-0.126934487219132
0.068236222647208
0.124352970401864
-0.069348275108106
-0.126934487219132
0.068236222647208
0.124352970401864
-0.069348275108106
-0.126934487219132
-0.000000000000000
0.000000000000000
0.000000000000000
0.000000000000000
-0.003208029631819
0.043216901645245
0.050154035523936
0.208897054550220
-0.003208029631819
0.043216901645245
0.050154035523936
0.208897054550220
-0.003208029631819
0.043216901645245
0.050154035523936
0.208897054550220
-0.003208029631819
0.043216901645245
0.050154035523936
0.208897054550220
-0.003208029631819
0.043216901645245
0.050154035523936
0.208897054550220
-0.003208029631819
0.043216901645245
0.050154035523936
0.208897054550220
-0.003208029631819
0.043216901645245
0.050154035523936
0.208897054550220
0.000000000000000
0.000000000000000
-0.000000000000000
0.000000000000000
0.080887890050011
0.760797515902955
-0.095902082010428
0.013309955130281
0.080887890050011
0.760797515902955
-0.095902082010428
0.013309955130281
0.080887890050011
0.760797515902955
-0.095902082010428
0.013309955130281
0.080887890050011
0.760797515902955
-0.095902082010428
0.013309955130281
0.080887890050011
0.760797515902955
-0.095902082010428
0.013309955130281
0.080887890050011
0.760797515902955
-0.095902082010428
0.013309955130281
0.080887890050011
0.760797515902955
-0.095902082010428
0.013309955130281
0.000000000000000
0.000000000000000
-0.000000000000000
0.000000000000000
0.017832212905512
0.278037155541173
-0.167653900466464
0.217365443911718
0.017832212905512
0.278037155541173
-0.167653900466464
0.217365443911718
0.017832212905512
0.278037155541173
-0.167653900466464
0.217365443911718
0.017832212905512
0.278037155541173
-0.167653900466464
0.217365443911718
0.017832212905512
0.278037155541173
-0.167653900466464
0.217365443911718
0.017832212905512
0.278037155541173
-0.167653900466464
0.217365443911718
0.017832212905512
0.278037155541173
-0.167653900466464
0.217365443911718
0.000000000000000
0.000000000000000
-0.000000000000000
-0.000000000000000
0.068236222647208
0.124352970401864
-0.069348275108106
-0.126934487219132
0.068236222647208
0.124352970401864
-0.069348275108106
-0.126934487219132
0.068236222647208
0.124352970401864
-0.069348275108106
-0.126934487219132
0.068236222647208
0.124352970401864
-0.069348275108106
-0.126934487219132
0.068236222647208
0.124352970401864
-0.069348275108106
-0.126934487219132
0.068236222647208
0.124352970401864
-0.069348275108106
-0.126934487219132
0.068236222647208
0.124352970401864
-0.069348275108106
-0.126934487219132
-0.000000000000000
0.000000000000000
0.000000000000000
0.000000000000000
-0.003208029631819
0.043216901645245
0.050154035523936
0.208897054550220
-0.003208029631819
0.043216901645245
0.050154035523936
0.208897054550220
-0.003208029631819
0.043216901645245
0.050154035523936
0.208897054550220
-0.003208029631819
0.043216901645245
0.050154035523936
0.208897054550220
-0.003208029631819
0.043216901645245
0.050154035523936
0.208897054550220
-0.003208029631819
0.043216901645245
0.050154035523936
0.208897054550220
-0.003208029631819
0.043216901645245
0.050154035523936
0.208897054550220
0.000000000000000
0.000000000000000
-0.000000000000000
0.000000000000000
0.080887890050011
0.760797515902955
-0.095902082010428
0.013309955130281
0.080887890050011
0.760797515902955
-0.095902082010428
0.013309955130281
0.080887890050011
0.760797515902955
-0.095902082010428
0.013309955130281
0.080887890050011
0.760797515902955
-0.095902082010428
0.013309955130281
0.080887890050011
0.760797515902955
-0.095902082010428
0.013309955130281
0.080887890050011
0.760797515902955
-0.095902082010428
0.013309955130281
0.080887890050011
0.760797515902955
-0.095902082010428
0.013309955130281
0.000000000000000
0.000000000000000
-0.000000000000000
0.000000000000000
0.017832212905512
0.278037155541173
-0.167653900466464
0.217365443911718
0.017832212905512
0.278037155541173
-0.167653900466464
0.217365443911718
0.017832212905512
0.278037155541173
-0.167653900466464
0.217365443911718
0.017832212905512
0.278037155541173
-0.167653900466464
0.217365443911718
0.017832212905512
0.278037155541173
-0.167653900466464
0.217365443911718
0.017832212905512
0.278037155541173
-0.167653900466464
0.217365443911718
0.017832212905512
0.278037155541173
-0.167653900466464
0.217365443911718
0.000000000000000
0.000000000000000
-0.000000000000000
-0.000000000000000
0.000000000000000
0.000000000000000
-0.000000000000000
-0.000000000000000
0.000000000000000
0.000000000000000
-0.000000000000000
-0.000000000000000
0.000000000000000
0.000000000000000
-0.000000000000000
-0.000000000000000
0.000000000000000
0.000000000000000
-0.000000000000000
-0.000000000000000
0.000000000000000
0.000000000000000
-0.000000000000000
-0.000000000000000
0.000000000000000
0.000000000000000
-0.000000000000000
-0.000000000000000
0.000000000000000
0.000000000000000
-0.000000000000000
-0.000000000000000
-0.000000000000000
0.000000000000000
0.000000000000000
0.000000000000000
-0.000000000000000
0.000000000000000
0.000000000000000
0.000000000000000
-0.000000000000000
0.000000000000000
0.000000000000000
0.000000000000000
-0.000000000000000
0.000000000000000
0.000000000000000
0.000000000000000
-0.000000000000000
0.000000000000000
0.000000000000000
0.000000000000000
-0.000000000000000
0.000000000000000
0.000000000000000
0.000000000000000
-0.000000000000000
0.000000000000000
0.000000000000000
0.000000000000000
-0.000000000000000
0.000000000000000
0.000000000000000
0.000000000000000
0.000000000000000
0.000000000000000
-0.000000000000000
0.000000000000000
0.000000000000000
0.000000000000000
-0.000000000000000
0.000000000000000
0.000000000000000
0.000000000000000
-0.000000000000000
0.000000000000000
0.000000000000000
0.000000000000000
-0.000000000000000
0.000000000000000
0.000000000000000
0.000000000000000
-0.000000000000000
0.000000000000000
0.000000000000000
0.000000000000000
-0.000000000000000
0.000000000000000
0.000000000000000
0.000000000000000
-0.000000000000000
0.000000000000000
0.000000000000000
0.000000000000000
-0.000000000000000
0.000000000000000
0.000000000000000
0.000000000000000
-0.000000000000000
0.000000000000000
0.000000000000000
0.000000000000000
-0.000000000000000
0.000000000000000
0.000000000000000
0.000000000000000
-0.000000000000000
0.000000000000000
0.000000000000000
0.000000000000000
-0.000000000000000
0.000000000000000
0.000000000000000
0.000000000000000
-0.000000000000000
0.000000000000000
0.000000000000000
0.000000000000000
-0.000000000000000
0.000000000000000
0.000000000000000
0.000000000000000
-0.000000000000000
0.000000000000000
0.000000000000000
0.000000000000000
-0.000000000000000
0.000000000000000
0.000000000000000
-0.000000000000000
0.000000000000000
-0.000000000000000
0.014251370174725
-0.169397837625799
0.175707782180403
-0.056566789995292
0.014251370174725
-0.169397837625799
0.175707782180403
-0.056566789995292
0.014251370174725
-0.169397837625799
0.175707782180403
-0.056566789995292
0.014251370174725
-0.169397837625799
0.175707782180403
-0.056566789995292
0.014251370174725
-0.169397837625799
0.175707782180403
-0.056566789995292
0.014251370174725
-0.169397837625799
0.175707782180403
-0.056566789995292
0.014251370174725
-0.169397837625799
0.175707782180403
-0.056566789995292
0.000000000000000
-0.000000000000000
-0.000000000000000
-0.000000000000000
0.040352159847224
-0.281762953868873
-0.190183095417495
-0.013480795386907
0.040352159847224
-0.281762953868873
-0.190183095417495
-0.013480795386907
0.040352159847224
-0.281762953868873
-0.190183095417495
-0.013480795386907
0.040352159847224
-0.281762953868873
-0.190183095417495
-0.013480795386907
0.040352159847224
-0.281762953868873
-0.190183095417495
-0.013480795386907
0.040352159847224
-0.281762953868873
-0.190183095417495
-0.013480795386907
0.040352159847224
-0.281762953868873
-0.190183095417495
-0.013480795386907
-0.000000000000000
0.000000000000000
0.000000000000000
0.000000000000000
-0.065723070480466
0.187058680636459
0.315001809391819
0.135751498735320
-0.065723070480466
0.187058680636459
0.315001809391819
0.135751498735320
-0.065723070480466
0.187058680636459
0.315001809391819
0.135751498735320
-0.065723070480466
0.187058680636459
0.315001809391819
0.135751498735320
-0.065723070480466
0.187058680636459
0.315001809391819
0.135751498735320
-0.065723070480466
0.187058680636459
0.315001809391819
0.135751498735320
-0.065723070480466
0.187058680636459
0.315001809391819
0.135751498735320
-0.000000000000000
-0.000000000000000
0.000000000000000
0.000000000000000
-0.004246278696175
-0.094193717007164
0.082201693355951
0.037760350769383
-0.004246278696175
-0.094193717007164
0.082201693355951
0.037760350769383
-0.004246278696175
-0.094193717007164
0.082201693355951
0.037760350769383
-0.004246278696175
-0.094193717007164
0.082201693355951
0.037760350769383
-0.004246278696175
-0.094193717007164
0.082201693355951
0.037760350769383
-0.004246278696175
-0.094193717007164
0.082201693355951
0.037760350769383
-0.004246278696175
-0.094193717007164
0.082201693355951
0.037760350769383
0.000000000000000
-0.000000000000000
0.000000000000000
-0.000000000000000
0.014251370174725
-0.169397837625799
0.175707782180403
-0.056566789995292
0.014251370174725
-0.169397837625799
0.175707782180403
-0.056566789995292
0.014251370174725
-0.169397837625799
0.175707782180403
-0.056566789995292
0.014251370174725
-0.169397837625799
0.175707782180403
-0.056566789995292
0.014251370174725
-0.169397837625799
0.175707782180403
-0.056566789995292
0.014251370174725
-0.169397837625799
0.175707782180403
-0.056566789995292
0.014251370174725
-0.169397837625799
0.175707782180403
-0.056566789995292
0.000000000000000
-0.000000000000000
-0.000000000000000
-0.000000000000000
0.040352159847224
-0.281762953868873
-0.190183095417495
-0.013480795386907
0.040352159847224
-0.281762953868873
-0.190183095417495
-0.013480795386907
0.040352159847224
-0.281762953868873
-0.190183095417495
-0.013480795386907
0.040352159847224
-0.281762953868873
-0.190183095417495
-0.013480795386907
0.040352159847224
-0.281762953868873
-0.190183095417495
-0.013480795386907
0.040352159847224
-0.281762953868873
-0.190183095417495
-0.013480795386907
0.040352159847224
-0.281762953868873
-0.190183095417495
-0.013480795386907
-0.000000000000000
0.000000000000000
0.000000000000000
0.000000000000000
-0.065723070480466
0.187058680636459
0.315001809391819
0.135751498735320
-0.065723070480466
0.187058680636459
0.315001809391819
0.135751498735320
-0.065723070480466
0.187058680636459
0.315001809391819
0.135751498735320
-0.065723070480466
0.187058680636459
0.315001809391819
0.135751498735320
-0.065723070480466
0.187058680636459
0.315001809391819
0.135751498735320
-0.065723070480466
0.187058680636459
0.315001809391819
0.135751498735320
-0.065723070480466
0.187058680636459
0.315001809391819
0.135751498735320
-0.000000000000000
-0.000000000000000
0.000000000000000
0.000000000000000
-0.004246278696175
-0.094193717007164
0.082201693355951
0.037760350769383
-0.004246278696175
-0.094193717007164
0.082201693355951
0.037760350769383
-0.004246278696175
-0.094193717007164
0.082201693355951
0.037760350769383
-0.004246278696175
-0.094193717007164
0.082201693355951
0.037760350769383
-0.004246278696175
-0.094193717007164
0.082201693355951
0.037760350769383
-0.004246278696175
-0.094193717007164
0.082201693355951
0.037760350769383
-0.004246278696175
-0.094193717007164
0.082201693355951
0.037760350769383
0.000000000000000
-0.000000000000000
0.000000000000000
-0.000000000000000
0.014251370174725
-0.169397837625799
0.175707782180403
-0.056566789995292
0.014251370174725
-0.169397837625799
0.175707782180403
-0.056566789995292
0.014251370174725
-0.169397837625799
0.175707782180403
-0.056566789995292
0.014251370174725
-0.169397837625799
0.175707782180403
-0.056566789995292
0.014251370174725
-0.169397837625799
0.175707782180403
-0.056566789995292
0.014251370174725
-0.169397837625799
0.175707782180403
-0.056566789995292
0.014251370174725
-0.169397837625799
0.175707782180403
-0.056566789995292
0.000000000000000
-0.000000000000000
-0.000000000000000
-0.000000000000000
0.040352159847224
-0.281762953868873
-0.190183095417495
-0.013480795386907
0.040352159847224
-0.281762953868873
-0.190183095417495
-0.013480795386907
0.040352159847224
-0.281762953868873
-0.190183095417495
-0.013480795386907
0.040352159847224
-0.281762953868873
-0.190183095417495
-0.013480795386907
0.040352159847224
-0.281762953868873
-0.190183095417495
-0.013480795386907
0.040352159847224
-0.281762953868873
-0.190183095417495
-0.013480795386907
0.040352159847224
-0.281762953868873
-0.190183095417495
-0.013480795386907
-0.000000000000000
0.000000000000000
0.000000000000000
0.000000000000000
-0.065723070480466
0.187058680636459
0.315001809391819
0.135751498735320
-0.065723070480466
0.187058680636459
0.315001809391819
0.135751498735320
-0.065723070480466
0.187058680636459
0.315001809391819
0.135751498735320
-0.065723070480466
0.187058680636459
0.315001809391819
0.135751498735320
-0.065723070480466
0.187058680636459
0.315001809391819
0.135751498735320
-0.065723070480466
0.187058680636459
0.315001809391819
0.135751498735320
-0.065723070480466
0.187058680636459
0.315001809391819
0.135751498735320
-0.000000000000000
-0.000000000000000
0.000000000000000
0.000000000000000
-0.004246278696175
-0.094193717007164
0.082201693355951
0.037760350769383
-0.004246278696175
-0.094193717007164
0.082201693355951
0.037760350769383
-0.004246278696175
-0.094193717007164
0.082201693355951
0.037760350769383
-0.004246278696175
-0.094193717007164
0.082201693355951
0.037760350769383
-0.004246278696175
-0.094193717007164
0.082201693355951
0.037760350769383
-0.004246278696175
-0.094193717007164
0.082201693355951
0.037760350769383
-0.004246278696175
-0.094193717007164
0.082201693355951
0.037760350769383
0.000000000000000
-0.000000000000000
0.000000000000000
-0.000000000000000
0.014251370174725
-0.169397837625799
0.175707782180403
-0.056566789995292
0.014251370174725
-0.169397837625799
0.175707782180403
-0.056566789995292
0.014251370174725
-0.169397837625799
0.175707782180403
-0.056566789995292
0.014251370174725
-0.169397837625799
0.175707782180403
-0.056566789995292
0.014251370174725
-0.169397837625799
0.175707782180403
-0.056566789995292
0.014251370174725
-0.169397837625799
0.175707782180403
-0.056566789995292
0.014251370174725
-0.169397837625799
0.175707782180403
-0.056566789995292
0.000000000000000
-0.000000000000000
-0.000000000000000
-0.000000000000000
0.040352159847224
-0.281762953868873
-0.190183095417495
-0.013480795386907
0.040352159847224
-0.281762953868873
-0.190183095417495
-0.013480795386907
0.040352159847224
-0.281762953868873
-0.190183095417495
-0.013480795386907
0.040352159847224
-0.281762953868873
-0.190183095417495
-0.013480795386907
0.040352159847224
-0.281762953868873
-0.190183095417495
-0.013480795386907
0.040352159847224
-0.281762953868873
-0.190183095417495
-0.013480795386907
0.040352159847224
-0.281762953868873
-0.190183095417495
-0.013480795386907
-0.000000000000000
0.000000000000000
0.000000000000000
0.000000000000000
-0.065723070480466
0.187058680636459
0.315001809391819
0.135751498735320
-0.065723070480466
0.187058680636459
0.315001809391819
0.135751498735320
-0.065723070480466
0.187058680636459
0.315001809391819
0.135751498735320
-0.065723070480466
0.187058680636459
0.315001809391819
0.135751498735320
-0.065723070480466
0.187058680636459
0.315001809391819
0.135751498735320
-0.065723070480466
0.187058680636459
0.315001809391819
0.135751498735320
-0.065723070480466
0.187058680636459
0.315001809391819
0.135751498735320
-0.000000000000000
-0.000000000000000
0.000000000000000
0.000000000000000
-0.004246278696175
-0.094193717007164
0.082201693355951
0.037760350769383
-0.004246278696175
-0.094193717007164
0.082201693355951
0.037760350769383
-0.004246278696175
-0.094193717007164
0.082201693355951
0.037760350769383
-0.004246278696175
-0.094193717007164
0.082201693355951
0.037760350769383
-0.004246278696175
-0.094193717007164
0.082201693355951
0.037760350769383
-0.004246278696175
-0.094193717007164
0.082201693355951
0.037760350769383
-0.004246278696175
-0.094193717007164
0.082201693355951
0.037760350769383
0.000000000000000
-0.000000000000000
0.000000000000000
-0.000000000000000
0.014251370174725
-0.169397837625799
0.175707782180403
-0.056566789995292
0.014251370174725
-0.169397837625799
0.175707782180403
-0.056566789995292
0.014251370174725
-0.169397837625799
0.175707782180403
-0.056566789995292
0.014251370174725
-0.169397837625799
0.175707782180403
-0.056566789995292
0.014251370174725
-0.169397837625799
0.175707782180403
-0.056566789995292
0.014251370174725
-0.169397837625799
0.175707782180403
-0.056566789995292
0.014251370174725
-0.169397837625799
0.175707782180403
-0.056566789995292
0.000000000000000
-0.000000000000000
-0.000000000000000
-0.000000000000000
0.040352159847224
-0.281762953868873
-0.190183095417495
-0.013480795386907
0.040352159847224
-0.281762953868873
-0.190183095417495
-0.013480795386907
0.040352159847224
-0.281762953868873
-0.190183095417495
-0.013480795386907
0.040352159847224
-0.281762953868873
-0.190183095417495
-0.013480795386907
0.040352159847224
-0.281762953868873
-0.190183095417495
-0.013480795386907
0.040352159847224
-0.281762953868873
-0.190183095417495
-0.013480795386907
0.040352159847224
-0.281762953868873
-0.190183095417495
-0.013480795386907
-0.000000000000000
0.000000000000000
0.000000000000000
0.000000000000000
-0.065723070480466
0.187058680636459
0.315001809391819
0.135751498735320
-0.065723070480466
0.187058680636459
0.315001809391819
0.135751498735320
-0.065723070480466
0.187058680636459
0.315001809391819
0.135751498735320
-0.065723070480466
0.187058680636459
0.315001809391819
0.135751498735320
-0.065723070480466
0.187058680636459
0.315001809391819
0.135751498735320
-0.065723070480466
0.187058680636459
0.315001809391819
0.135751498735320
-0.065723070480466
0.187058680636459
0.315001809391819
0.135751498735320
-0.000000000000000
-0.000000000000000
0.000000000000000
0.000000000000000
-0.004246278696175
-0.094193717007164
0.082201693355951
0.037760350769383
-0.004246278696175
-0.094193717007164
0.082201693355951
0.037760350769383
-0.004246278696175
-0.094193717007164
0.082201693355951
0.037760350769383
-0.004246278696175
-0.094193717007164
0.082201693355951
0.037760350769383
-0.004246278696175
-0.094193717007164
0.082201693355951
0.037760350769383
-0.004246278696175
-0.094193717007164
0.082201693355951
0.037760350769383
-0.004246278696175
-0.094193717007164
0.082201693355951
0.037760350769383
0.000000000000000
-0.000000000000000
0.000000000000000
-0.000000000000000
0.014251370174725
-0.169397837625799
0.175707782180403
-0.056566789995292
0.014251370174725
-0.169397837625799
0.175707782180403
-0.056566789995292
0.014251370174725
-0.169397837625799
0.175707782180403
-0.056566789995292
0.014251370174725
-0.169397837625799
0.175707782180403
-0.056566789995292
0.014251370174725
-0.169397837625799
0.175707782180403
-0.056566789995292
0.014251370174725
-0.169397837625799
0.175707782180403
-0.056566789995292
0.014251370174725
-0.169397837625799
0.175707782180403
-0.056566789995292
0.000000000000000
-0.000000000000000
-0.000000000000000
-0.000000000000000
0.040352159847224
-0.281762953868873
-0.190183095417495
-0.013480795386907
0.040352159847224
-0.281762953868873
-0.190183095417495
-0.013480795386907
0.040352159847224
-0.281762953868873
-0.190183095417495
-0.013480795386907
0.040352159847224
-0.281762953868873
-0.190183095417495
-0.013480795386907
0.040352159847224
-0.281762953868873
-0.190183095417495
-0.013480795386907
0.040352159847224
-0.281762953868873
-0.190183095417495
-0.013480795386907
0.040352159847224
-0.281762953868873
-0.190183095417495
-0.013480795386907
-0.000000000000000
0.000000000000000
0.000000000000000
0.000000000000000
-0.065723070480466
0.187058680636459
0.315001809391819
0.135751498735320
-0.065723070480466
0.187058680636459
0.315001809391819
0.135751498735320
-0.065723070480466
0.187058680636459
0.315001809391819
0.135751498735320
-0.065723070480466
0.187058680636459
0.315001809391819
0.135751498735320
-0.065723070480466
0.187058680636459
0.315001809391819
0.135751498735320
-0.065723070480466
0.187058680636459
0.315001809391819
0.135751498735320
-0.065723070480466
0.187058680636459
0.315001809391819
0.135751498735320
-0.000000000000000
-0.000000000000000
0.000000000000000
0.000000000000000
-0.004246278696175
-0.094193717007164
0.082201693355951
0.037760350769383
-0.004246278696175
-0.094193717007164
0.082201693355951
0.037760350769383
-0.004246278696175
-0.094193717007164
0.082201693355951
0.037760350769383
-0.004246278696175
-0.094193717007164
0.082201693355951
0.037760350769383
-0.004246278696175
-0.094193717007164
0.082201693355951
0.037760350769383
-0.004246278696175
-0.094193717007164
0.082201693355951
0.037760350769383
-0.004246278696175
-0.094193717007164
0.082201693355951
0.037760350769383
0.000000000000000
-0.000000000000000
0.000000000000000
-0.000000000000000
0.014251370174725
-0.169397837625799
0.175707782180403
-0.056566789995292
0.014251370174725
-0.169397837625799
0.175707782180403
-0.056566789995292
0.014251370174725
-0.169397837625799
0.175707782180403
-0.056566789995292
0.014251370174725
-0.169397837625799
0.175707782180403
-0.056566789995292
0.014251370174725
-0.169397837625799
0.175707782180403
-0.056566789995292
0.014251370174725
-0.169397837625799
0.175707782180403
-0.056566789995292
0.014251370174725
-0.169397837625799
0.175707782180403
-0.056566789995292
0.000000000000000
-0.000000000000000
-0.000000000000000
-0.000000000000000
0.040352159847224
-0.281762953868873
-0.190183095417495
-0.013480795386907
0.040352159847224
-0.281762953868873
-0.190183095417495
-0.013480795386907
0.040352159847224
-0.281762953868873
-0.190183095417495
-0.013480795386907
0.040352159847224
-0.281762953868873
-0.190183095417495
-0.013480795386907
0.040352159847224
-0.281762953868873
-0.190183095417495
-0.013480795386907
0.040352159847224
-0.281762953868873
-0.190183095417495
-0.013480795386907
0.040352159847224
-0.281762953868873
-0.190183095417495
-0.013480795386907
-0.000000000000000
0.000000000000000
0.000000000000000
0.000000000000000
-0.065723070480466
0.187058680636459
0.315001809391819
0.135751498735320
-0.065723070480466
0.187058680636459
0.315001809391819
0.135751498735320
-0.065723070480466
0.187058680636459
0.315001809391819
0.135751498735320
-0.065723070480466
0.187058680636459
0.315001809391819
0.135751498735320
-0.065723070480466
0.187058680636459
0.315001809391819
0.135751498735320
-0.065723070480466
0.187058680636459
0.315001809391819
0.135751498735320
-0.065723070480466
0.187058680636459
0.315001809391819
0.135751498735320
-0.000000000000000
-0.000000000000000
0.000000000000000
0.000000000000000
-0.004246278696175
-0.094193717007164
0.082201693355951
0.037760350769383
-0.004246278696175
-0.094193717007164
0.082201693355951
0.037760350769383
-0.004246278696175
-0.094193717007164
0.082201693355951
0.037760350769383
-0.004246278696175
-0.094193717007164
0.082201693355951
0.037760350769383
-0.004246278696175
-0.094193717007164
0.082201693355951
0.037760350769383
-0.004246278696175
-0.094193717007164
0.082201693355951
0.037760350769383
-0.004246278696175
-0.094193717007164
0.082201693355951
0.037760350769383
0.000000000000000
-0.000000000000000
0.000000000000000
-0.000000000000000
0.000000000000000
-0.000000000000000
0.000000000000000
-0.000000000000000
0.000000000000000
-0.000000000000000
0.000000000000000
-0.000000000000000
0.000000000000000
-0.000000000000000
0.000000000000000
-0.000000000000000
0.000000000000000
-0.000000000000000
0.000000000000000
-0.000000000000000
0.000000000000000
-0.000000000000000
0.000000000000000
-0.000000000000000
0.000000000000000
-0.000000000000000
0.000000000000000
-0.000000000000000
0.000000000000000
-0.000000000000000
0.000000000000000
-0.000000000000000
0.000000000000000
-0.000000000000000
-0.000000000000000
-0.000000000000000
0.000000000000000
-0.000000000000000
-0.000000000000000
-0.000000000000000
0.000000000000000
-0.000000000000000
-0.000000000000000
-0.000000000000000
0.000000000000000
-0.000000000000000
-0.000000000000000
-0.000000000000000
0.000000000000000
-0.000000000000000
-0.000000000000000
-0.000000000000000
0.000000000000000
-0.000000000000000
-0.000000000000000
-0.000000000000000
0.000000000000000
-0.000000000000000
-0.000000000000000
-0.000000000000000
0.000000000000000
-0.000000000000000
-0.000000000000000
-0.000000000000000
-0.000000000000000
0.000000000000000
0.000000000000000
0.000000000000000
-0.000000000000000
0.000000000000000
0.000000000000000
0.000000000000000
-0.000000000000000
0.000000000000000
0.000000000000000
0.000000000000000
-0.000000000000000
0.000000000000000
0.000000000000000
0.000000000000000
-0.000000000000000
0.000000000000000
0.000000000000000
0.000000000000000
-0.000000000000000
0.000000000000000
0.000000000000000
0.000000000000000
-0.000000000000000
0.000000000000000
0.000000000000000
0.000000000000000
-0.000000000000000
0.000000000000000
0.000000000000000
0.000000000000000
-0.000000000000000
-0.000000000000000
0.000000000000000
0.000000000000000
-0.000000000000000
-0.000000000000000
0.000000000000000
0.000000000000000
-0.000000000000000
-0.000000000000000
0.000000000000000
0.000000000000000
-0.000000000000000
-0.000000000000000
0.000000000000000
0.000000000000000
-0.000000000000000
-0.000000000000000
0.000000000000000
0.000000000000000
-0.000000000000000
-0.000000000000000
0.000000000000000
0.000000000000000
-0.000000000000000
-0.000000000000000
0.000000000000000
0.000000000000000
-0.000000000000000
-0.000000000000000
0.000000000000000
0.000000000000000
0.000000000000000
-0.000000000000000
-0.000000000000000
-0.000000000000000
0.005446764043178
-0.167994646915286
-0.004038721843648
-0.091608171045740
0.005446764043178
-0.167994646915286
-0.004038721843648
-0.091608171045740
0.005446764043178
-0.167994646915286
-0.004038721843648
-0.091608171045740
0.005446764043178
-0.167994646915286
-0.004038721843648
-0.091608171045740
0.005446764043178
-0.167994646915286
-0.004038721843648
-0.091608171045740
0.005446764043178
-0.167994646915286
-0.004038721843648
-0.091608171045740
0.005446764043178
-0.167994646915286
-0.004038721843648
-0.091608171045740
0.000000000000000
-0.000000000000000
-0.000000000000000
-0.000000000000000
0.052654231008714
-0.039068354347533
-0.080133678468465
-0.111752589763593
0.052654231008714
-0.039068354347533
-0.080133678468465
-0.111752589763593
0.052654231008714
-0.039068354347533
-0.080133678468465
-0.111752589763593
0.052654231008714
-0.039068354347533
-0.080133678468465
-0.111752589763593
0.052654231008714
-0.039068354347533
-0.080133678468465
-0.111752589763593
0.052654231008714
-0.039068354347533
-0.080133678468465
-0.111752589763593
0.052654231008714
-0.039068354347533
-0.080133678468465
-0.111752589763593
0.000000000000000
0.000000000000000
-0.000000000000000
-0.000000000000000
0.450256281563778
0.102034911704617
-0.041993228005714
-0.079121896266414
0.450256281563778
0.102034911704617
-0.041993228005714
-0.079121896266414
0.450256281563778
0.102034911704617
-0.041993228005714
-0.079121896266414
0.450256281563778
0.102034911704617
-0.041993228005714
-0.079121896266414
0.450256281563778
0.102034911704617
-0.041993228005714
-0.079121896266414
0.450256281563778
0.102034911704617
-0.041993228005714
-0.079121896266414
0.450256281563778
0.102034911704617
-0.041993228005714
-0.079121896266414
-0.000000000000000
0.000000000000000
-0.000000000000000
-0.000000000000000
-0.117736190343551
0.033530452992203
-0.000395781294126
-0.048881620014418
-0.117736190343551
0.033530452992203
-0.000395781294126
-0.048881620014418
-0.117736190343551
0.033530452992203
-0.000395781294126
-0.048881620014418
-0.117736190343551
0.033530452992203
-0.000395781294126
-0.048881620014418
-0.117736190343551
0.033530452992203
-0.000395781294126
-0.048881620014418
-0.117736190343551
0.033530452992203
-0.000395781294126
-0.048881620014418
-0.117736190343551
0.033530452992203
-0.000395781294126
-0.048881620014418
0.000000000000000
-0.000000000000000
-0.000000000000000
-0.000000000000000
0.005446764043178
-0.167994646915286
-0.004038721843648
-0.091608171045740
0.005446764043178
-0.167994646915286
-0.004038721843648
-0.091608171045740
0.005446764043178
-0.167994646915286
-0.004038721843648
-0.091608171045740
0.005446764043178
-0.167994646915286
-0.004038721843648
-0.091608171045740
0.005446764043178
-0.167994646915286
-0.004038721843648
-0.091608171045740
0.005446764043178
-0.167994646915286
-0.004038721843648
-0.091608171045740
0.005446764043178
-0.167994646915286
-0.004038721843648
-0.091608171045740
0.000000000000000
-0.000000000000000
-0.000000000000000
-0.000000000000000
0.052654231008714
-0.039068354347533
-0.080133678468465
-0.111752589763593
0.052654231008714
-0.039068354347533
-0.080133678468465
-0.111752589763593
0.052654231008714
-0.039068354347533
-0.080133678468465
-0.111752589763593
0.052654231008714
-0.039068354347533
-0.080133678468465
-0.111752589763593
0.052654231008714
-0.039068354347533
-0.080133678468465
-0.111752589763593
0.052654231008714
-0.039068354347533
-0.080133678468465
-0.111752589763593
0.052654231008714
-0.039068354347533
-0.080133678468465
-0.111752589763593
0.000000000000000
0.000000000000000
-0.000000000000000
-0.000000000000000
0.450256281563778
0.102034911704617
-0.041993228005714
-0.079121896266414
0.450256281563778
0.102034911704617
-0.041993228005714
-0.079121896266414
0.450256281563778
0.102034911704617
-0.041993228005714
-0.079121896266414
0.450256281563778
0.102034911704617
-0.041993228005714
-0.079121896266414
0.450256281563778
0.102034911704617
-0.041993228005714
-0.079121896266414
0.450256281563778
0.102034911704617
-0.041993228005714
-0.079121896266414
0.450256281563778
0.102034911704617
-0.041993228005714
-0.079121896266414
-0.000000000000000
0.000000000000000
-0.000000000000000
-0.000000000000000
-0.117736190343551
0.033530452992203
-0.000395781294126
-0.048881620014418
-0.117736190343551
0.033530452992203
-0.000395781294126
-0.048881620014418
-0.117736190343551
0.033530452992203
-0.000395781294126
-0.048881620014418
-0.117736190343551
0.033530452992203
-0.000395781294126
-0.048881620014418
-0.117736190343551
0.033530452992203
-0.000395781294126
-0.048881620014418
-0.117736190343551
0.033530452992203
-0.000395781294126
-0.048881620014418
-0.117736190343551
0.033530452992203
-0.000395781294126
-0.048881620014418
0.000000000000000
-0.000000000000000
-0.000000000000000
-0.000000000000000
0.005446764043178
-0.167994646915286
-0.004038721843648
-0.091608171045740
0.005446764043178
-0.167994646915286
-0.004038721843648
-0.091608171045740
0.005446764043178
-0.167994646915286
-0.004038721843648
-0.091608171045740
0.005446764043178
-0.167994646915286
-0.004038721843648
-0.091608171045740
0.005446764043178
-0.167994646915286
-0.004038721843648
-0.091608171045740
0.005446764043178
-0.167994646915286
-0.004038721843648
-0.091608171045740
0.005446764043178
-0.167994646915286
-0.004038721843648
-0.091608171045740
0.000000000000000
-0.000000000000000
-0.000000000000000
-0.000000000000000
0.052654231008714
-0.039068354347533
-0.080133678468465
-0.111752589763593
0.052654231008714
-0.039068354347533
-0.080133678468465
-0.111752589763593
0.052654231008714
-0.039068354347533
-0.080133678468465
-0.111752589763593
0.052654231008714
-0.039068354347533
-0.080133678468465
-0.111752589763593
0.052654231008714
-0.039068354347533
-0.080133678468465
-0.111752589763593
0.052654231008714
-0.039068354347533
-0.080133678468465
-0.111752589763593
0.052654231008714
-0.039068354347533
-0.080133678468465
-0.111752589763593
0.000000000000000
0.000000000000000
-0.000000000000000
-0.000000000000000
0.450256281563778
0.102034911704617
-0.041993228005714
-0.079121896266414
0.450256281563778
0.102034911704617
-0.041993228005714
-0.079121896266414
0.450256281563778
0.102034911704617
-0.041993228005714
-0.079121896266414
0.450256281563778
0.102034911704617
-0.041993228005714
-0.079121896266414
0.450256281563778
0.102034911704617
-0.041993228005714
-0.079121896266414
0.450256281563778
0.102034911704617
-0.041993228005714
-0.079121896266414
0.450256281563778
0.102034911704617
-0.041993228005714
-0.079121896266414
-0.000000000000000
0.000000000000000
-0.000000000000000
-0.000000000000000
-0.117736190343551
0.033530452992203
-0.000395781294126
-0.048881620014418
-0.117736190343551
0.033530452992203
-0.000395781294126
-0.048881620014418
-0.117736190343551
0.033530452992203
-0.000395781294126
-0.048881620014418
-0.117736190343551
0.033530452992203
-0.000395781294126
-0.048881620014418
-0.117736190343551
0.033530452992203
-0.000395781294126
-0.048881620014418
-0.117736190343551
0.033530452992203
-0.000395781294126
-0.048881620014418
-0.117736190343551
0.033530452992203
-0.000395781294126
-0.048881620014418
0.000000000000000
-0.000000000000000
-0.000000000000000
-0.000000000000000
0.005446764043178
-0.167994646915286
-0.004038721843648
-0.091608171045740
0.005446764043178
-0.167994646915286
-0.004038721843648
-0.091608171045740
0.005446764043178
-0.167994646915286
-0.004038721843648
-0.091608171045740
0.005446764043178
-0.167994646915286
-0.004038721843648
-0.091608171045740
0.005446764043178
-0.167994646915286
-0.004038721843648
-0.091608171045740
0.005446764043178
-0.167994646915286
-0.004038721843648
-0.091608171045740
0.005446764043178
-0.167994646915286
-0.004038721843648
-0.091608171045740
0.000000000000000
-0.000000000000000
-0.000000000000000
-0.000000000000000
0.052654231008714
-0.039068354347533
-0.080133678468465
-0.111752589763593
0.052654231008714
-0.039068354347533
-0.080133678468465
-0.111752589763593
0.052654231008714
-0.039068354347533
-0.080133678468465
-0.111752589763593
0.052654231008714
-0.039068354347533
-0.080133678468465
-0.111752589763593
0.052654231008714
-0.039068354347533
-0.080133678468465
-0.111752589763593
0.052654231008714
-0.039068354347533
-0.080133678468465
-0.111752589763593
0.052654231008714
-0.039068354347533
-0.080133678468465
-0.111752589763593
0.000000000000000
0.000000000000000
-0.000000000000000
-0.000000000000000
0.450256281563778
0.102034911704617
-0.041993228005714
-0.079121896266414
0.450256281563778
0.102034911704617
-0.041993228005714
-0.079121896266414
0.450256281563778
0.102034911704617
-0.041993228005714
-0.079121896266414
0.450256281563778
0.102034911704617
-0.041993228005714
-0.079121896266414
0.450256281563778
0.102034911704617
-0.041993228005714
-0.079121896266414
0.450256281563778
0.102034911704617
-0.041993228005714
-0.079121896266414
0.450256281563778
0.102034911704617
-0.041993228005714
-0.079121896266414
-0.000000000000000
0.000000000000000
-0.000000000000000
-0.000000000000000
-0.117736190343551
0.033530452992203
-0.000395781294126
-0.048881620014418
-0.117736190343551
0.033530452992203
-0.000395781294126
-0.048881620014418
-0.117736190343551
0.033530452992203
-0.000395781294126
-0.048881620014418
-0.117736190343551
0.033530452992203
-0.000395781294126
-0.048881620014418
-0.117736190343551
0.033530452992203
-0.000395781294126
-0.048881620014418
-0.117736190343551
0.033530452992203
-0.000395781294126
-0.048881620014418
-0.117736190343551
0.033530452992203
-0.000395781294126
-0.048881620014418
0.000000000000000
-0.000000000000000
-0.000000000000000
-0.000000000000000
0.005446764043178
-0.167994646915286
-0.004038721843648
-0.091608171045740
0.005446764043178
-0.167994646915286
-0.004038721843648
-0.091608171045740
0.005446764043178
-0.167994646915286
-0.004038721843648
-0.091608171045740
0.005446764043178
-0.167994646915286
-0.004038721843648
-0.091608171045740
0.005446764043178
-0.167994646915286
-0.004038721843648
-0.091608171045740
0.005446764043178
-0.167994646915286
-0.004038721843648
-0.091608171045740
0.005446764043178
-0.167994646915286
-0.004038721843648
-0.091608171045740
0.000000000000000
-0.000000000000000
-0.000000000000000
-0.000000000000000
0.052654231008714
-0.039068354347533
-0.080133678468465
-0.111752589763593
0.052654231008714
-0.039068354347533
-0.080133678468465
-0.111752589763593
0.052654231008714
-0.039068354347533
-0.080133678468465
-0.111752589763593
0.052654231008714
-0.039068354347533
-0.080133678468465
-0.111752589763593
0.052654231008714
-0.039068354347533
-0.080133678468465
-0.111752589763593
0.052654231008714
-0.039068354347533
-0.080133678468465
-0.111752589763593
0.052654231008714
-0.039068354347533
-0.080133678468465
-0.111752589763593
0.000000000000000
0.000000000000000
-0.000000000000000
-0.000000000000000
0.450256281563778
0.102034911704617
-0.041993228005714
-0.079121896266414
0.450256281563778
0.102034911704617
-0.041993228005714
-0.079121896266414
0.450256281563778
0.102034911704617
-0.041993228005714
-0.079121896266414
0.450256281563778
0.102034911704617
-0.041993228005714
-0.079121896266414
0.450256281563778
0.102034911704617
-0.041993228005714
-0.079121896266414
0.450256281563778
0.102034911704617
-0.041993228005714
-0.079121896266414
0.450256281563778
0.102034911704617
-0.041993228005714
-0.079121896266414
-0.000000000000000
0.000000000000000
-0.000000000000000
-0.000000000000000
-0.117736190343551
0.033530452992203
-0.000395781294126
-0.048881620014418
-0.117736190343551
0.033530452992203
-0.000395781294126
-0.048881620014418
-0.117736190343551
0.033530452992203
-0.000395781294126
-0.048881620014418
-0.117736190343551
0.033530452992203
-0.000395781294126
-0.048881620014418
-0.117736190343551
0.033530452992203
-0.000395781294126
-0.048881620014418
-0.117736190343551
0.033530452992203
-0.000395781294126
-0.048881620014418
-0.117736190343551
0.033530452992203
-0.000395781294126
-0.048881620014418
0.000000000000000
-0.000000000000000
-0.000000000000000
-0.000000000000000
0.005446764043178
-0.167994646915286
-0.004038721843648
-0.091608171045740
0.005446764043178
-0.167994646915286
-0.004038721843648
-0.091608171045740
0.005446764043178
-0.167994646915286
-0.004038721843648
-0.091608171045740
0.005446764043178
-0.167994646915286
-0.004038721843648
-0.091608171045740
0.005446764043178
-0.167994646915286
-0.004038721843648
-0.091608171045740
0.005446764043178
-0.167994646915286
-0.004038721843648
-0.091608171045740
0.005446764043178
-0.167994646915286
-0.004038721843648
-0.091608171045740
0.000000000000000
-0.000000000000000
-0.000000000000000
-0.000000000000000
0.052654231008714
-0.039068354347533
-0.080133678468465
-0.111752589763593
0.052654231008714
-0.039068354347533
-0.080133678468465
-0.111752589763593
0.052654231008714
-0.039068354347533
-0.080133678468465
-0.111752589763593
0.052654231008714
-0.039068354347533
-0.080133678468465
-0.111752589763593
0.052654231008714
-0.039068354347533
-0.080133678468465
-0.111752589763593
0.052654231008714
-0.039068354347533
-0.080133678468465
-0.111752589763593
0.052654231008714
-0.039068354347533
-0.080133678468465
-0.111752589763593
0.000000000000000
0.000000000000000
-0.000000000000000
-0.000000000000000
0.450256281563778
0.102034911704617
-0.041993228005714
-0.079121896266414
0.450256281563778
0.102034911704617
-0.041993228005714
-0.079121896266414
0.450256281563778
0.102034911704617
-0.041993228005714
-0.079121896266414
0.450256281563778
0.102034911704617
-0.041993228005714
-0.079121896266414
0.450256281563778
0.102034911704617
-0.041993228005714
-0.079121896266414
0.450256281563778
0.102034911704617
-0.041993228005714
-0.079121896266414
0.450256281563778
0.102034911704617
-0.041993228005714
-0.079121896266414
-0.000000000000000
0.000000000000000
-0.000000000000000
-0.000000000000000
-0.117736190343551
0.033530452992203
-0.000395781294126
-0.048881620014418
-0.117736190343551
0.033530452992203
-0.000395781294126
-0.048881620014418
-0.117736190343551
0.033530452992203
-0.000395781294126
-0.048881620014418
-0.117736190343551
0.033530452992203
-0.000395781294126
-0.048881620014418
-0.117736190343551
0.033530452992203
-0.000395781294126
-0.048881620014418
-0.117736190343551
0.033530452992203
-0.000395781294126
-0.048881620014418
-0.117736190343551
0.033530452992203
-0.000395781294126
-0.048881620014418
0.000000000000000
-0.000000000000000
-0.000000000000000
-0.000000000000000
0.005446764043178
-0.167994646915286
-0.004038721843648
-0.091608171045740
0.005446764043178
-0.167994646915286
-0.004038721843648
-0.091608171045740
0.005446764043178
-0.167994646915286
-0.004038721843648
-0.091608171045740
0.005446764043178
-0.167994646915286
-0.004038721843648
-0.091608171045740
0.005446764043178
-0.167994646915286
-0.004038721843648
-0.091608171045740
0.005446764043178
-0.167994646915286
-0.004038721843648
-0.091608171045740
0.005446764043178
-0.167994646915286
-0.004038721843648
-0.091608171045740
0.000000000000000
-0.000000000000000
-0.000000000000000
-0.000000000000000
0.052654231008714
-0.039068354347533
-0.080133678468465
-0.111752589763593
0.052654231008714
-0.039068354347533
-0.080133678468465
-0.111752589763593
0.052654231008714
-0.039068354347533
-0.080133678468465
-0.111752589763593
0.052654231008714
-0.039068354347533
-0.080133678468465
-0.111752589763593
0.052654231008714
-0.039068354347533
-0.080133678468465
-0.111752589763593
0.052654231008714
-0.039068354347533
-0.080133678468465
-0.111752589763593
0.052654231008714
-0.039068354347533
-0.080133678468465
-0.111752589763593
0.000000000000000
0.000000000000000
-0.000000000000000
-0.000000000000000
0.450256281563778
0.102034911704617
-0.041993228005714
-0.079121896266414
0.450256281563778
0.102034911704617
-0.041993228005714
-0.079121896266414
0.450256281563778
0.102034911704617
-0.041993228005714
-0.079121896266414
0.450256281563778
0.102034911704617
-0.041993228005714
-0.079121896266414
0.450256281563778
0.102034911704617
-0.041993228005714
-0.079121896266414
0.450256281563778
0.102034911704617
-0.041993228005714
-0.079121896266414
0.450256281563778
0.102034911704617
-0.041993228005714
-0.079121896266414
-0.000000000000000
0.000000000000000
-0.000000000000000
-0.000000000000000
-0.117736190343551
0.033530452992203
-0.000395781294126
-0.048881620014418
-0.117736190343551
0.033530452992203
-0.000395781294126
-0.048881620014418
-0.117736190343551
0.033530452992203
-0.000395781294126
-0.048881620014418
-0.117736190343551
0.033530452992203
-0.000395781294126
-0.048881620014418
-0.117736190343551
0.033530452992203
-0.000395781294126
-0.048881620014418
-0.117736190343551
0.033530452992203
-0.000395781294126
-0.048881620014418
-0.117736190343551
0.033530452992203
-0.000395781294126
-0.048881620014418
0.000000000000000
-0.000000000000000
-0.000000000000000
-0.000000000000000
0.000000000000000
-0.000000000000000
-0.000000000000000
-0.000000000000000
0.000000000000000
-0.000000000000000
-0.000000000000000
-0.000000000000000
0.000000000000000
-0.000000000000000
-0.000000000000000
-0.000000000000000
0.000000000000000
-0.000000000000000
-0.000000000000000
-0.000000000000000
0.000000000000000
-0.000000000000000
-0.000000000000000
-0.000000000000000
0.000000000000000
-0.000000000000000
-0.000000000000000
-0.000000000000000
0.000000000000000
-0.000000000000000
-0.000000000000000
-0.000000000000000
0.000000000000000
-0.000000000000000
-0.000000000000000
-0.000000000000000
0.000000000000000
-0.000000000000000
-0.000000000000000
-0.000000000000000
0.000000000000000
-0.000000000000000
-0.000000000000000
-0.000000000000000
0.000000000000000
-0.000000000000000
-0.000000000000000
-0.000000000000000
0.000000000000000
-0.000000000000000
-0.000000000000000
-0.000000000000000
0.000000000000000
-0.000000000000000
-0.000000000000000
-0.000000000000000
0.000000000000000
-0.000000000000000
-0.000000000000000
-0.000000000000000
0.000000000000000
-0.000000000000000
-0.000000000000000
-0.000000000000000
0.000000000000000
0.000000000000000
-0.000000000000000
-0.000000000000000
0.000000000000000
0.000000000000000
-0.000000000000000
-0.000000000000000
0.000000000000000
0.000000000000000
-0.000000000000000
-0.000000000000000
0.000000000000000
0.000000000000000
-0.000000000000000
-0.000000000000000
0.000000000000000
0.000000000000000
-0.000000000000000
-0.000000000000000
0.000000000000000
0.000000000000000
-0.000000000000000
-0.000000000000000
0.000000000000000
0.000000000000000
-0.000000000000000
-0.000000000000000
0.000000000000000
0.000000000000000
-0.000000000000000
-0.000000000000000
-0.000000000000000
0.000000000000000
-0.000000000000000
-0.000000000000000
-0.000000000000000
0.000000000000000
-0.000000000000000
-0.000000000000000
-0.000000000000000
0.000000000000000
-0.000000000000000
-0.000000000000000
-0.000000000000000
0.000000000000000
-0.000000000000000
-0.000000000000000
-0.000000000000000
0.000000000000000
-0.000000000000000
-0.000000000000000
-0.000000000000000
0.000000000000000
-0.000000000000000
-0.000000000000000
-0.000000000000000
0.000000000000000
-0.000000000000000
-0.000000000000000
-0.000000000000000
0.000000000000000
-0.000000000000000
-0.000000000000000
0.000000000000000
0.000000000000000
-0.000000000000000
0.000000000000000
0.314319338217397
0.140302901597777
-0.167312829462234
0.323563708381166
0.314319338217397
0.140302901597777
-0.167312829462234
0.323563708381166
0.314319338217397
0.140302901597777
-0.167312829462234
0.323563708381166
0.314319338217397
0.140302901597777
-0.167312829462234
0.323563708381166
0.314319338217397
0.140302901597777
-0.167312829462234
0.323563708381166
0.314319338217397
0.140302901597777
-0.167312829462234
0.323563708381166
0.314319338217397
0.140302901597777
-0.167312829462234
0.323563708381166
-0.000000000000000
0.000000000000000
-0.000000000000000
0.000000000000000
-0.015081306138605
0.000207469114667
-0.115324688722083
0.165384776134730
-0.015081306138605
0.000207469114667
-0.115324688722083
0.165384776134730
-0.015081306138605
0.000207469114667
-0.115324688722083
0.165384776134730
-0.015081306138605
0.000207469114667
-0.115324688722083
0.165384776134730
-0.015081306138605
0.000207469114667
-0.115324688722083
0.165384776134730
-0.015081306138605
0.000207469114667
-0.115324688722083
0.165384776134730
-0.015081306138605
0.000207469114667
-0.115324688722083
0.165384776134730
-0.000000000000000
-0.000000000000000
-0.000000000000000
0.000000000000000
-0.263569741954906
-0.275826767191004
-0.411419319636191
0.111557779310485
-0.263569741954906
-0.275826767191004
-0.411419319636191
0.111557779310485
-0.263569741954906
-0.275826767191004
-0.411419319636191
0.111557779310485
-0.263569741954906
-0.275826767191004
-0.411419319636191
0.111557779310485
-0.263569741954906
-0.275826767191004
-0.411419319636191
0.111557779310485
-0.263569741954906
-0.275826767191004
-0.411419319636191
0.111557779310485
-0.263569741954906
-0.275826767191004
-0.411419319636191
0.111557779310485
-0.000000000000000
0.000000000000000
0.000000000000000
0.000000000000000
-0.253828147861125
0.218089441277641
0.192737143351940
0.188161833698274
-0.253828147861125
0.218089441277641
0.192737143351940
0.188161833698274
-0.253828147861125
0.218089441277641
0.192737143351940
0.188161833698274
-0.253828147861125
0.218089441277641
0.192737143351940
0.188161833698274
-0.253828147861125
0.218089441277641
0.192737143351940
0.188161833698274
-0.253828147861125
0.218089441277641
0.192737143351940
0.188161833698274
-0.253828147861125
0.218089441277641
0.192737143351940
0.188161833698274
0.000000000000000
0.000000000000000
-0.000000000000000
0.000000000000000
0.314319338217397
0.140302901597777
-0.167312829462234
0.323563708381166
0.314319338217397
0.140302901597777
-0.167312829462234
0.323563708381166
0.314319338217397
0.140302901597777
-0.167312829462234
0.323563708381166
0.314319338217397
0.140302901597777
-0.167312829462234
0.323563708381166
0.314319338217397
0.140302901597777
-0.167312829462234
0.323563708381166
0.314319338217397
0.140302901597777
-0.167312829462234
0.323563708381166
0.314319338217397
0.140302901597777
-0.167312829462234
0.323563708381166
-0.000000000000000
0.000000000000000
-0.000000000000000
0.000000000000000
-0.015081306138605
0.000207469114667
-0.115324688722083
0.165384776134730
-0.015081306138605
0.000207469114667
-0.115324688722083
0.165384776134730
-0.015081306138605
0.000207469114667
-0.115324688722083
0.165384776134730
-0.015081306138605
0.000207469114667
-0.115324688722083
0.165384776134730
-0.015081306138605
0.000207469114667
-0.115324688722083
0.165384776134730
-0.015081306138605
0.000207469114667
-0.115324688722083
0.165384776134730
-0.015081306138605
0.000207469114667
-0.115324688722083
0.165384776134730
-0.000000000000000
-0.000000000000000
-0.000000000000000
0.000000000000000
-0.263569741954906
-0.275826767191004
-0.411419319636191
0.111557779310485
-0.263569741954906
-0.275826767191004
-0.411419319636191
0.111557779310485
-0.263569741954906
-0.275826767191004
-0.411419319636191
0.111557779310485
-0.263569741954906
-0.275826767191004
-0.411419319636191
0.111557779310485
-0.263569741954906
-0.275826767191004
-0.411419319636191
0.111557779310485
-0.263569741954906
-0.275826767191004
-0.411419319636191
0.111557779310485
-0.263569741954906
-0.275826767191004
-0.411419319636191
0.111557779310485
-0.000000000000000
0.000000000000000
0.000000000000000
0.000000000000000
-0.253828147861125
0.218089441277641
0.192737143351940
0.188161833698274
-0.253828147861125
0.218089441277641
0.192737143351940
0.188161833698274
-0.253828147861125
0.218089441277641
0.192737143351940
0.188161833698274
-0.253828147861125
0.218089441277641
0.192737143351940
0.188161833698274
-0.253828147861125
0.218089441277641
0.192737143351940
0.188161833698274
-0.253828147861125
0.218089441277641
0.192737143351940
0.188161833698274
-0.253828147861125
0.218089441277641
0.192737143351940
0.188161833698274
0.000000000000000
0.000000000000000
-0.000000000000000
0.000000000000000
0.314319338217397
0.140302901597777
-0.167312829462234
0.323563708381166
0.314319338217397
